<sg> -0.096489 -0.061448 -0.044916 -0.14175 0.13623 0.041437 -0.091728 0.020084 -0.031794 -0.051111 -0.045412 0.048188 -0.0064007 0.038389 0.072542 1.8216e-05 0.09811 -0.046988 -0.052652 -0.087267 0.024513 -0.00067283 0.071065 0.12096 0.078665 0.0509 0.05589 0.09852 0.030952 0.0028824 -0.122 -0.06938 0.0093013 -0.00080561 -0.090249 0.025205 0.024668 -0.063619 0.11814 0.029472 -0.052024 -0.074696 0.054791 0.056178 0.075742 -0.10487 0.0095396 -0.045853 0.11598 -0.0068041 -0.13921 0.030377 0.018501 -0.048261 0.065239 0.12782 -0.086933 0.082858 0.18351 0.014202 0.059592 -0.050932 0.07514 -0.13008 0.14998 -0.013344 -0.038253 0.10026 -0.049061 -0.17236 0.045459 0.035617 0.043315 -0.090173 -0.059628 0.12266 0.064346 -0.093536 0.060375 -0.022278 0.063822 0.090426 0.07943 -0.031288 -0.056576 0.14089 0.058858 0.00041494 0.069583 0.027606 -0.087211 0.014542 -0.02356 0.040964 0.061312 0.015199 -0.025888 0.02321 0.050208 0.03361 0.05644 0.056065 0.050726 0.05725 0.11931 0.087074 0.04593 0.090927 -0.063578 0.05641 -0.092109 0.024619 -0.093436 0.098252 -0.08957 0.10156 0.097765 0.068402 -0.037682 0.059844 0.091767 -0.028313 0.013812 0.00049262 -0.12748 0.085374 0.000454 0.0026888 0.014437 0.034361 0.10797 0.082516 0.029573 -0.074579 0.074482 -0.1591 -0.076831 0.1016 0.0836 0.065039 -0.097153 -0.030648 -0.083067 0.073321 -0.048767 -0.0082049 -0.00085154 -0.15526 0.018208 0.0093831 -0.0049825 0.042388 0.086815 0.068896 0.016895 -0.11766 -0.095836 0.073969 0.0041691 0.024556 0.068642 0.039466 0.076141 -0.056581 -0.11898 -0.086349 0.13018 -0.14143 -0.045403 0.030812 -0.12178 -0.031376 -0.0011679 -0.040423 0.079377 -0.11289 -0.12046 0.13671 -0.056383 0.09232 -0.031933 -0.057301 -0.046806 0.095647 0.037346 0.089932 -0.055845 0.01583 0.042681 0.058903 0.011154 -0.026609 0.15013 -0.0087029 0.12335 0.11579 0.13856 0.083134 -0.031541 0.012453 0.090528 -0.01429 0.082186 0.17019 0.12486 -0.040021 0.12372 -0.079857 0.023676 0.18222 -0.067238 0.036283 -0.069475 0.044586 -0.077799 -0.038911 -0.10444 0.0099412 -0.096254 0.10439 -0.021635 -0.045017 -0.016263 0.11856 -0.069137 0.16765 0.073956 -0.13117 -0.039493 0.033854 0.048652 0.075471 -0.14218 0.033843 -0.044651 -0.0078022 0.065828 -0.020423 0.057998 0.11581 -0.011183 -0.030862 0.012098 0.12137 0.1479 0.016933 -0.19273 -0.035372 -0.11435 0.068487 0.056447 -0.078131 0.0056921 0.016489 -0.039745 -0.006577 -0.12829 -0.076895 0.011385 -0.055543 0.090735 -0.024667 0.043372 0.056618 0.028721 0.048514 -0.042714 -0.099886 -0.025909 -0.064538 -0.0087128 0.081163 0.075063 0.023248 -0.17869 0.030702 0.041144 -0.067139 0.0039945 0.0055252 0.042431 0.085104 -0.028594 0.15956 -0.015701 -0.11806 0.13056 -0.01695 -0.070564 0.11359 0.065977 -0.092286 0.0013224 0.13155 -0.093098 0.041977 0.038531 -0.055619 0.1043 0.013348 
<n> -0.095352 -0.060231 -0.045446 -0.14101 0.13181 0.040497 -0.091012 0.018104 -0.031249 -0.050065 -0.046427 0.048155 -0.0083024 0.039405 0.072052 -3.9012e-05 0.09533 -0.049357 -0.051747 -0.087182 0.026746 0.002454 0.070318 0.1207 0.076802 0.051609 0.055437 0.099838 0.0297 0.0028972 -0.11974 -0.067132 0.010012 -0.00091498 -0.088986 0.025637 0.024836 -0.064984 0.11644 0.029618 -0.051731 -0.075735 0.053456 0.054555 0.074816 -0.10493 0.008851 -0.046801 0.11644 -0.0078027 -0.13902 0.026749 0.019791 -0.048458 0.065982 0.12934 -0.088616 0.081918 0.18268 0.01278 0.058662 -0.050048 0.073526 -0.12963 0.14779 -0.012404 -0.038401 0.10085 -0.048918 -0.17323 0.045103 0.037183 0.041743 -0.089386 -0.060926 0.12393 0.064106 -0.092918 0.062948 -0.022752 0.062361 0.090534 0.079626 -0.030831 -0.053064 0.14047 0.05784 -0.00098465 0.066616 0.028902 -0.086554 0.011717 -0.024537 0.040461 0.058632 0.015506 -0.027947 0.020986 0.049569 0.033782 0.055428 0.055607 0.048774 0.057634 0.12042 0.086783 0.046704 0.087268 -0.062116 0.058019 -0.089644 0.023863 -0.092881 0.097385 -0.088078 0.1043 0.098008 0.068751 -0.036925 0.061285 0.091591 -0.026329 0.012864 0.0002224 -0.12547 0.082973 0.0016533 0.0023573 0.012074 0.033233 0.10895 0.08297 0.027758 -0.074402 0.075926 -0.15745 -0.077983 0.1037 0.086053 0.064352 -0.098422 -0.032054 -0.083226 0.072404 -0.048465 -0.0085338 0.00063723 -0.15309 0.017504 0.011605 -0.0033057 0.040623 0.085205 0.068973 0.019588 -0.11586 -0.09488 0.073577 0.0046736 0.026214 0.067099 0.041878 0.07562 -0.055063 -0.11805 -0.083341 0.12984 -0.13956 -0.04517 0.030637 -0.12156 -0.032599 -0.0044407 -0.038658 0.079951 -0.11144 -0.12179 0.13458 -0.056183 0.092534 -0.032383 -0.056874 -0.045564 0.092587 0.037115 0.089508 -0.054276 0.017626 0.044396 0.057543 0.0094787 -0.025161 0.15178 -0.0084733 0.1223 0.11808 0.13891 0.082945 -0.028389 0.013223 0.092404 -0.016461 0.082382 0.16904 0.12379 -0.042946 0.12135 -0.078321 0.019359 0.18147 -0.065844 0.035505 -0.068248 0.04175 -0.076351 -0.037818 -0.10447 0.0077332 -0.092491 0.10172 -0.020837 -0.043478 -0.015646 0.11888 -0.068548 0.16702 0.073247 -0.12982 -0.041611 0.034144 0.048379 0.073934 -0.14285 0.03293 -0.043452 -0.0084196 0.062368 -0.024666 0.057379 0.11647 -0.0096751 -0.032465 0.0087972 0.12192 0.14905 0.015643 -0.19174 -0.036553 -0.11516 0.067987 0.056043 -0.079999 0.0085192 0.017329 -0.039856 -0.0072566 -0.12719 -0.075671 0.011849 -0.053679 0.090421 -0.023907 0.043072 0.05504 0.029728 0.045846 -0.043557 -0.10142 -0.02753 -0.062752 -0.0091371 0.081385 0.075853 0.022754 -0.17646 0.031291 0.042057 -0.065954 0.00073743 0.0052039 0.045156 0.084359 -0.029469 0.15845 -0.014453 -0.11459 0.13168 -0.020424 -0.07267 0.11343 0.066873 -0.093462 0.00087642 0.12968 -0.09341 0.042036 0.036822 -0.057878 0.10563 0.012405 
<def> -0.096864 -0.062822 -0.044461 -0.14407 0.13591 0.041906 -0.092211 0.01776 -0.030692 -0.05136 -0.045924 0.048605 -0.0087172 0.038226 0.074515 0.0015587 0.098499 -0.048629 -0.054014 -0.089225 0.026047 0.0011487 0.073046 0.12414 0.080015 0.053619 0.056566 0.10141 0.029754 0.0037609 -0.12325 -0.069193 0.011058 -0.0014009 -0.089804 0.026555 0.02543 -0.065072 0.11993 0.029884 -0.052637 -0.077037 0.054679 0.05621 0.076792 -0.10742 0.0095796 -0.04763 0.11758 -0.0092961 -0.14043 0.029342 0.019259 -0.048205 0.068282 0.131 -0.088957 0.082775 0.18549 0.014913 0.059877 -0.050926 0.075008 -0.13175 0.15102 -0.01323 -0.039435 0.10266 -0.050748 -0.17446 0.045397 0.037385 0.041842 -0.091053 -0.062546 0.12443 0.06444 -0.095933 0.06092 -0.022794 0.065092 0.093964 0.080288 -0.031135 -0.054378 0.14192 0.058769 -5.9417e-05 0.070414 0.030309 -0.088729 0.013906 -0.024991 0.039767 0.061445 0.014823 -0.027938 0.022441 0.051276 0.034489 0.053537 0.05672 0.052183 0.06015 0.12115 0.085575 0.047551 0.089888 -0.065036 0.058331 -0.092336 0.024611 -0.094403 0.099482 -0.088823 0.10382 0.097991 0.069253 -0.036893 0.062253 0.092891 -0.025907 0.013119 0.00090974 -0.1291 0.08409 0.0017434 0.002002 0.011867 0.033129 0.10955 0.083456 0.02936 -0.07419 0.07571 -0.15994 -0.077759 0.10386 0.085733 0.066528 -0.099033 -0.033587 -0.085639 0.075187 -0.04885 -0.0083159 0.00081478 -0.15451 0.018029 0.01258 -0.003552 0.043045 0.087599 0.069721 0.019351 -0.11853 -0.097275 0.074644 0.0015759 0.02644 0.068272 0.040977 0.076271 -0.057966 -0.12105 -0.08452 0.13263 -0.14385 -0.044576 0.032766 -0.12293 -0.030933 -0.0030406 -0.039784 0.080586 -0.11236 -0.12215 0.13691 -0.056869 0.093394 -0.032398 -0.058563 -0.046241 0.095975 0.037744 0.089557 -0.054956 0.016634 0.042317 0.058615 0.010073 -0.02646 0.15307 -0.0084479 0.12331 0.1174 0.14027 0.083484 -0.029349 0.012223 0.091479 -0.015341 0.083982 0.17117 0.12499 -0.041748 0.12454 -0.079911 0.022035 0.18392 -0.067198 0.034985 -0.068499 0.043473 -0.07785 -0.039475 -0.1051 0.0091161 -0.094556 0.10603 -0.021051 -0.044445 -0.016097 0.12044 -0.070303 0.16846 0.073404 -0.13192 -0.04069 0.034446 0.048877 0.076847 -0.14465 0.032878 -0.044532 -0.0094781 0.065908 -0.024357 0.058453 0.11739 -0.0095397 -0.030364 0.010866 0.12325 0.15037 0.015596 -0.19512 -0.037124 -0.11534 0.06753 0.056095 -0.07839 0.0072935 0.018153 -0.041262 -0.0076877 -0.12997 -0.078594 0.012312 -0.054835 0.091522 -0.023028 0.042687 0.057685 0.028633 0.04682 -0.043756 -0.10161 -0.02671 -0.063769 -0.010472 0.083627 0.075625 0.024939 -0.17843 0.031657 0.040933 -0.066741 0.0018572 0.0044659 0.044462 0.08444 -0.028703 0.16171 -0.014665 -0.11703 0.1342 -0.020517 -0.071203 0.11576 0.066625 -0.093687 0.0014025 0.13186 -0.096147 0.041985 0.038833 -0.05516 0.10683 0.013125 
<f> -0.096146 -0.060208 -0.04542 -0.14068 0.13311 0.041608 -0.090928 0.018491 -0.03161 -0.051022 -0.046457 0.047421 -0.0066687 0.038625 0.072985 0.00032193 0.09686 -0.049135 -0.050816 -0.088258 0.025062 -0.00039508 0.071221 0.11967 0.077356 0.053332 0.056415 0.099105 0.03065 0.0033946 -0.1218 -0.069772 0.0099387 -0.00078756 -0.090775 0.025846 0.023551 -0.062385 0.11717 0.029534 -0.052792 -0.074463 0.055212 0.055863 0.074016 -0.10433 0.010374 -0.04554 0.11566 -0.0080334 -0.13707 0.029439 0.018388 -0.047887 0.065355 0.12785 -0.08744 0.082803 0.18298 0.015443 0.05839 -0.050644 0.075559 -0.12767 0.14879 -0.014497 -0.038089 0.10082 -0.050392 -0.17157 0.044474 0.037029 0.041638 -0.089169 -0.060551 0.12186 0.064179 -0.093245 0.060593 -0.022733 0.06253 0.090693 0.07889 -0.032081 -0.055396 0.14008 0.057866 -0.00023552 0.068166 0.028971 -0.08613 0.013688 -0.023674 0.040024 0.060226 0.015626 -0.027328 0.022396 0.050801 0.03362 0.055816 0.05541 0.051189 0.057128 0.12015 0.086767 0.045066 0.088249 -0.062762 0.056088 -0.091872 0.023272 -0.092235 0.097342 -0.089414 0.10289 0.096909 0.067739 -0.037099 0.060964 0.091558 -0.026957 0.013404 -0.00028387 -0.12678 0.083654 0.00020907 0.0015979 0.011536 0.031777 0.10861 0.082081 0.02907 -0.07379 0.075141 -0.15779 -0.076666 0.10219 0.083219 0.063659 -0.097519 -0.030958 -0.084057 0.072935 -0.048176 -0.0067575 -0.0007554 -0.15272 0.017835 0.010801 -0.0037328 0.040327 0.086445 0.068184 0.018425 -0.11663 -0.09382 0.073245 0.0036861 0.025079 0.067479 0.040378 0.075342 -0.054451 -0.11886 -0.085052 0.13095 -0.14004 -0.045968 0.031838 -0.12028 -0.029993 -0.0013301 -0.038918 0.079518 -0.11116 -0.12006 0.13561 -0.055555 0.090985 -0.032397 -0.056713 -0.045225 0.093978 0.039122 0.089198 -0.056197 0.01604 0.042343 0.058021 0.0097251 -0.02561 0.15156 -0.0087103 0.12144 0.11619 0.13783 0.083055 -0.029366 0.011859 0.090966 -0.014579 0.082846 0.16911 0.1233 -0.04112 0.12319 -0.079499 0.021403 0.17986 -0.067279 0.035022 -0.067676 0.043714 -0.075927 -0.039446 -0.10359 0.0083583 -0.094723 0.10301 -0.018955 -0.044264 -0.016411 0.11821 -0.06838 0.16664 0.071285 -0.12941 -0.041765 0.034288 0.049431 0.074624 -0.14167 0.032743 -0.043236 -0.0086651 0.063813 -0.022504 0.057927 0.11496 -0.01028 -0.03014 0.010252 0.12205 0.14807 0.017316 -0.19131 -0.035433 -0.11444 0.067241 0.055641 -0.078804 0.0075092 0.017049 -0.037486 -0.0058347 -0.12723 -0.077017 0.011307 -0.054322 0.091085 -0.023666 0.042951 0.05655 0.028721 0.046728 -0.04294 -0.10057 -0.025704 -0.062154 -0.01018 0.081074 0.075112 0.024206 -0.17663 0.030869 0.039821 -0.066439 0.0033838 0.0046251 0.043067 0.084549 -0.028827 0.1587 -0.013556 -0.11563 0.13146 -0.020001 -0.071765 0.11281 0.066041 -0.09259 0.0022665 0.13078 -0.093618 0.042004 0.038346 -0.056099 0.10306 0.013121 
<obl> -0.096103 -0.06087 -0.046539 -0.13902 0.13466 0.041761 -0.090497 0.017868 -0.031216 -0.051096 -0.043839 0.047858 -0.0060039 0.038699 0.071238 0.0010415 0.096972 -0.048569 -0.051561 -0.087583 0.027561 -0.0015583 0.070226 0.12151 0.077395 0.052493 0.056112 0.099393 0.030036 0.0033944 -0.12031 -0.068041 0.0087718 -0.0012545 -0.088538 0.025082 0.024088 -0.063219 0.11669 0.029577 -0.052418 -0.075799 0.054567 0.055588 0.076031 -0.10415 0.0089333 -0.045405 0.11415 -0.0074129 -0.13796 0.030298 0.017439 -0.047267 0.064024 0.12717 -0.087331 0.083333 0.18225 0.014018 0.058252 -0.050034 0.075125 -0.12914 0.14874 -0.013189 -0.038028 0.099396 -0.049278 -0.17082 0.045176 0.036318 0.042488 -0.088499 -0.060761 0.12081 0.065032 -0.09339 0.060264 -0.02167 0.062907 0.090458 0.077904 -0.030849 -0.054735 0.14023 0.05914 -0.0017949 0.068503 0.028386 -0.087629 0.013242 -0.023511 0.039792 0.06029 0.015277 -0.026947 0.020595 0.050379 0.035377 0.05782 0.054946 0.049955 0.057914 0.1191 0.08604 0.045577 0.089061 -0.060841 0.05598 -0.091749 0.025071 -0.092972 0.098228 -0.089992 0.10139 0.098881 0.06839 -0.036149 0.059382 0.092337 -0.026808 0.013148 0.00031942 -0.12568 0.083988 0.0017255 0.0012341 0.013159 0.032799 0.10837 0.082399 0.028936 -0.074308 0.075006 -0.15864 -0.075567 0.10138 0.083695 0.064516 -0.097239 -0.030936 -0.083693 0.074353 -0.047913 -0.0070989 -0.0012464 -0.15422 0.017401 0.010663 -0.002932 0.041439 0.086825 0.06905 0.016275 -0.11609 -0.094529 0.073223 0.0033922 0.024452 0.067111 0.039242 0.074364 -0.054919 -0.11827 -0.086045 0.12919 -0.13827 -0.045363 0.031284 -0.12119 -0.031165 -0.001579 -0.040149 0.079185 -0.11216 -0.11953 0.13403 -0.057229 0.091589 -0.032494 -0.055956 -0.046906 0.093846 0.037954 0.087903 -0.053624 0.016197 0.044409 0.058975 0.0092531 -0.025685 0.14879 -0.0088514 0.12188 0.11489 0.13809 0.081973 -0.029591 0.010972 0.090335 -0.014125 0.082529 0.16913 0.12422 -0.041814 0.1232 -0.080483 0.022611 0.18225 -0.066337 0.035673 -0.069452 0.045315 -0.075488 -0.039056 -0.10297 0.0090876 -0.09417 0.10125 -0.020785 -0.043082 -0.01485 0.11637 -0.067665 0.16703 0.070864 -0.13 -0.038947 0.033706 0.048284 0.072372 -0.14205 0.034258 -0.043347 -0.0095235 0.064784 -0.02241 0.056155 0.11525 -0.010146 -0.032103 0.010253 0.11975 0.14763 0.017038 -0.19149 -0.036528 -0.11414 0.067899 0.056235 -0.078314 0.0066037 0.017182 -0.039399 -0.0081015 -0.12593 -0.077934 0.012083 -0.055158 0.089707 -0.024242 0.04187 0.055507 0.028739 0.047229 -0.04293 -0.099092 -0.026734 -0.063785 -0.010049 0.08059 0.074312 0.023564 -0.17733 0.031941 0.040424 -0.065994 0.0026367 0.006335 0.042577 0.083124 -0.028608 0.15904 -0.013454 -0.11663 0.13102 -0.020355 -0.069122 0.11214 0.066594 -0.093259 0.00034118 0.13038 -0.093431 0.041879 0.036908 -0.056355 0.10523 0.01222 
<con> -0.095882 -0.060808 -0.045352 -0.14111 0.1333 0.041596 -0.091397 0.017616 -0.030728 -0.050308 -0.043034 0.04786 -0.0071843 0.03749 0.072424 0.00084664 0.097144 -0.049161 -0.05223 -0.090408 0.025924 -0.00049318 0.0711 0.12182 0.078009 0.052877 0.055875 0.10091 0.029069 0.0034563 -0.12089 -0.067939 0.010195 -0.0019488 -0.088988 0.025934 0.025145 -0.064434 0.11759 0.029614 -0.052123 -0.075716 0.055382 0.054973 0.074659 -0.10475 0.0095063 -0.045425 0.11477 -0.0083945 -0.13737 0.029071 0.017927 -0.047181 0.066591 0.12878 -0.088181 0.08236 0.18423 0.015228 0.058592 -0.049803 0.07479 -0.12891 0.14911 -0.013376 -0.036954 0.10133 -0.050019 -0.17138 0.044033 0.037761 0.041885 -0.088266 -0.060393 0.1227 0.064295 -0.09375 0.059981 -0.022199 0.063217 0.091634 0.078149 -0.031131 -0.053644 0.13959 0.059265 -0.001322 0.06809 0.029499 -0.087319 0.012716 -0.023958 0.039365 0.058907 0.015744 -0.027032 0.021239 0.050749 0.034963 0.05585 0.056314 0.050475 0.058793 0.11979 0.086419 0.04587 0.089151 -0.062952 0.056401 -0.091137 0.024685 -0.09349 0.09797 -0.089232 0.10287 0.097832 0.068105 -0.03552 0.060429 0.092989 -0.026229 0.013113 -0.00016879 -0.12585 0.084034 0.0022338 0.0018822 0.012551 0.032953 0.10991 0.0829 0.02975 -0.07403 0.075517 -0.1591 -0.076659 0.10313 0.083531 0.065191 -0.099221 -0.031112 -0.084691 0.074033 -0.048773 -0.0068669 -0.00055785 -0.15334 0.016944 0.013112 -0.0034858 0.039836 0.086686 0.06812 0.018002 -0.11757 -0.094827 0.072238 0.0029607 0.025781 0.067272 0.038786 0.074695 -0.055438 -0.11926 -0.084029 0.13015 -0.14115 -0.046043 0.032539 -0.12213 -0.031237 -0.0016312 -0.039178 0.079478 -0.11043 -0.12016 0.13517 -0.055945 0.092278 -0.032415 -0.05635 -0.046277 0.092559 0.037302 0.088593 -0.054137 0.016412 0.044274 0.057528 0.0098642 -0.025942 0.15054 -0.0088869 0.12265 0.11513 0.13725 0.082841 -0.028631 0.011969 0.090831 -0.015153 0.083185 0.1693 0.12324 -0.042152 0.12421 -0.079569 0.023417 0.18226 -0.066417 0.035316 -0.067377 0.04357 -0.076239 -0.038855 -0.10261 0.0090967 -0.093563 0.10122 -0.019699 -0.043449 -0.015209 0.11909 -0.068285 0.16724 0.070573 -0.12999 -0.040063 0.034087 0.047945 0.073967 -0.14145 0.032777 -0.043651 -0.0094653 0.064501 -0.023437 0.057593 0.11588 -0.0095624 -0.030891 0.010734 0.12123 0.14883 0.016728 -0.19158 -0.036031 -0.1145 0.067052 0.055889 -0.077812 0.0074309 0.01671 -0.040215 -0.0079228 -0.12698 -0.077531 0.011942 -0.054333 0.091345 -0.023314 0.042746 0.057349 0.02895 0.045989 -0.043042 -0.099005 -0.026374 -0.062701 -0.0098077 0.082342 0.073597 0.023777 -0.17662 0.031634 0.040948 -0.06502 0.0022263 0.0048605 0.044491 0.082876 -0.028733 0.15877 -0.012584 -0.11544 0.1318 -0.021504 -0.071842 0.11283 0.067147 -0.094137 0.0015206 0.1312 -0.094067 0.041402 0.038631 -0.055035 0.1057 0.013219 
<m> -0.095271 -0.062528 -0.04497 -0.14094 0.1359 0.038636 -0.092436 0.019246 -0.032667 -0.04914 -0.042923 0.047212 -0.0063246 0.039034 0.072938 0.001377 0.095719 -0.04773 -0.052395 -0.087603 0.027543 -0.00014633 0.068511 0.12034 0.077854 0.05099 0.056029 0.098115 0.03013 0.0029369 -0.12131 -0.068915 0.0094448 -0.0025753 -0.088662 0.024051 0.023072 -0.064895 0.11729 0.030251 -0.051416 -0.075083 0.054879 0.055187 0.075463 -0.10645 0.0096308 -0.043871 0.11555 -0.00861 -0.13995 0.031506 0.018634 -0.047418 0.063793 0.12755 -0.087487 0.08465 0.18091 0.014202 0.059449 -0.049485 0.074717 -0.1272 0.1495 -0.011886 -0.03645 0.098232 -0.047066 -0.17112 0.046157 0.036408 0.044453 -0.090345 -0.061128 0.12263 0.064408 -0.093892 0.058754 -0.020309 0.064091 0.088109 0.077922 -0.031928 -0.052793 0.14172 0.058715 0.0006893 0.068276 0.026291 -0.087514 0.014469 -0.023862 0.043534 0.059865 0.014471 -0.027134 0.022566 0.051073 0.036039 0.054835 0.054576 0.048981 0.056333 0.11959 0.08791 0.047295 0.0911 -0.061938 0.056325 -0.092073 0.024858 -0.093592 0.096202 -0.08964 0.10002 0.097944 0.066485 -0.035105 0.057203 0.093596 -0.028854 0.012586 0.0031524 -0.12688 0.085969 0.0018228 0.0013676 0.015898 0.035627 0.10686 0.082619 0.029184 -0.073716 0.073868 -0.15908 -0.076682 0.10304 0.082112 0.063686 -0.095007 -0.029635 -0.081167 0.073831 -0.048075 -0.0061203 -0.0030499 -0.15514 0.01527 0.010108 -0.0047761 0.040843 0.086798 0.068666 0.016611 -0.11695 -0.093032 0.074481 0.0030291 0.025245 0.068581 0.036598 0.072737 -0.055824 -0.11659 -0.084104 0.12848 -0.13708 -0.044986 0.033162 -0.12388 -0.032502 -0.0010838 -0.042971 0.08117 -0.1148 -0.11915 0.13642 -0.056432 0.091517 -0.030598 -0.055192 -0.049111 0.091404 0.036801 0.089485 -0.05268 0.015454 0.044456 0.058725 0.0087537 -0.027062 0.14653 -0.0096646 0.12123 0.11653 0.13703 0.083744 -0.030668 0.013681 0.091274 -0.014396 0.081179 0.1704 0.12099 -0.041562 0.12344 -0.07954 0.023245 0.17976 -0.066451 0.035405 -0.069928 0.044841 -0.078206 -0.037766 -0.10379 0.010761 -0.094217 0.10256 -0.02269 -0.042944 -0.012614 0.11775 -0.067269 0.16793 0.069521 -0.12916 -0.038209 0.032412 0.047331 0.072114 -0.14128 0.034372 -0.045725 -0.0091501 0.066793 -0.018916 0.055652 0.11576 -0.01067 -0.030549 0.011019 0.12047 0.14734 0.0165 -0.19288 -0.034724 -0.11368 0.06859 0.056701 -0.079605 0.0053811 0.016569 -0.03924 -0.0073132 -0.12575 -0.077726 0.013689 -0.056527 0.087963 -0.02542 0.041653 0.057193 0.029524 0.047853 -0.041633 -0.099279 -0.025533 -0.065779 -0.010134 0.080582 0.073537 0.02398 -0.17918 0.030051 0.040913 -0.064991 0.0030783 0.0056977 0.042973 0.082828 -0.028404 0.15954 -0.015287 -0.11637 0.12998 -0.016725 -0.069902 0.11184 0.066226 -0.090694 0.00061071 0.1312 -0.091694 0.041137 0.037121 -0.05634 0.10394 0.013202 
<p3> -0.096176 -0.061666 -0.046465 -0.14247 0.13592 0.043024 -0.091421 0.019123 -0.030458 -0.051984 -0.046163 0.049535 -0.006467 0.039483 0.07011 0.0017687 0.09826 -0.048478 -0.050331 -0.087745 0.026749 -0.0012016 0.070787 0.12279 0.077326 0.052038 0.054942 0.098654 0.030794 0.0031084 -0.11925 -0.06745 0.010617 -0.001213 -0.088565 0.024481 0.021496 -0.062695 0.11534 0.029094 -0.051618 -0.074576 0.054126 0.054974 0.076528 -0.10357 0.010098 -0.044719 0.11386 -0.0074413 -0.13894 0.02834 0.017961 -0.046229 0.063686 0.12944 -0.086115 0.081869 0.18316 0.013785 0.05722 -0.051414 0.074448 -0.1296 0.14859 -0.013016 -0.040349 0.10036 -0.050585 -0.17111 0.046232 0.036197 0.0423 -0.088636 -0.060077 0.12032 0.064488 -0.093567 0.062111 -0.021179 0.063718 0.091403 0.080105 -0.031982 -0.055291 0.14031 0.057211 0.00024916 0.068903 0.028193 -0.085903 0.013947 -0.023582 0.039693 0.061825 0.015198 -0.027274 0.021992 0.049128 0.033974 0.056057 0.055736 0.049035 0.057287 0.11872 0.086165 0.045975 0.089022 -0.061331 0.056336 -0.092444 0.024447 -0.093183 0.09828 -0.089242 0.10169 0.09683 0.068558 -0.038452 0.060069 0.091728 -0.02621 0.014512 -0.00073376 -0.12569 0.084633 0.00097939 0.0008488 0.012473 0.032712 0.10779 0.081938 0.029995 -0.073859 0.075122 -0.1577 -0.075869 0.10173 0.086226 0.06451 -0.095696 -0.031795 -0.08383 0.074279 -0.047441 -0.0087694 0.00030605 -0.1544 0.017651 0.0086745 -0.0031767 0.043541 0.087996 0.069481 0.0169 -0.11658 -0.094933 0.07392 0.0029778 0.024797 0.067036 0.041383 0.074655 -0.056689 -0.11916 -0.086306 0.13042 -0.13979 -0.043967 0.030089 -0.12185 -0.03023 -0.0035591 -0.039741 0.078494 -0.11227 -0.11926 0.13417 -0.058186 0.091262 -0.031639 -0.056916 -0.046154 0.096238 0.038334 0.088153 -0.053207 0.015856 0.043596 0.05756 0.009808 -0.025388 0.15005 -0.0075759 0.12251 0.11477 0.13835 0.08244 -0.030659 0.011227 0.090142 -0.015355 0.083717 0.16823 0.12756 -0.041493 0.12306 -0.079365 0.021011 0.18242 -0.06595 0.033934 -0.06891 0.044445 -0.076391 -0.038878 -0.10386 0.0079999 -0.093737 0.10306 -0.021148 -0.042411 -0.015759 0.11487 -0.068205 0.16528 0.071724 -0.12968 -0.03835 0.03372 0.048635 0.074706 -0.14043 0.033598 -0.041923 -0.010047 0.066085 -0.022775 0.057057 0.11575 -0.010096 -0.031639 0.0099442 0.12 0.14797 0.016021 -0.1924 -0.03635 -0.11303 0.068027 0.057387 -0.07991 0.0060717 0.017662 -0.040159 -0.008227 -0.1268 -0.077767 0.012288 -0.055388 0.087941 -0.023922 0.041289 0.055096 0.028613 0.046636 -0.043186 -0.10087 -0.02762 -0.064629 -0.009832 0.080747 0.074464 0.021935 -0.17643 0.029511 0.040651 -0.068077 0.002134 0.0062244 0.040803 0.084599 -0.028795 0.15929 -0.014812 -0.11709 0.13032 -0.019789 -0.069427 0.11417 0.065677 -0.092766 0.00097655 0.12824 -0.092495 0.041984 0.036283 -0.056248 0.10384 0.013794 
<pr> -0.095917 -0.062779 -0.046102 -0.14146 0.13371 0.040922 -0.09116 0.017979 -0.029943 -0.050356 -0.044223 0.047863 -0.0064291 0.037591 0.072536 0.0010131 0.097094 -0.048589 -0.052275 -0.086734 0.024547 0.00017693 0.071118 0.1219 0.078699 0.052856 0.055571 0.098467 0.03037 0.002688 -0.12132 -0.068485 0.011118 -0.00062863 -0.088449 0.025612 0.023651 -0.063197 0.11732 0.030209 -0.051379 -0.074736 0.054467 0.055389 0.075988 -0.1056 0.0096006 -0.046222 0.11396 -0.0079392 -0.13656 0.029193 0.017838 -0.047415 0.06645 0.12831 -0.086134 0.082611 0.18229 0.013887 0.05896 -0.050805 0.074973 -0.12816 0.14931 -0.013108 -0.039861 0.1008 -0.049507 -0.16984 0.044682 0.035234 0.041605 -0.088984 -0.061117 0.12081 0.063833 -0.094694 0.061431 -0.020531 0.063711 0.091493 0.078133 -0.030795 -0.054392 0.1405 0.058388 -0.00085063 0.06836 0.028871 -0.085878 0.013935 -0.023385 0.040431 0.059175 0.015052 -0.026316 0.021513 0.050438 0.033455 0.055437 0.055042 0.050637 0.057941 0.11857 0.085493 0.047284 0.089583 -0.061998 0.056456 -0.091831 0.025476 -0.092183 0.097636 -0.088858 0.10235 0.097369 0.067715 -0.036906 0.059324 0.092085 -0.026301 0.013532 -8.0774e-05 -0.12562 0.084656 0.0023269 0.0012681 0.012645 0.034298 0.10704 0.081308 0.029189 -0.074536 0.073824 -0.15866 -0.077019 0.10176 0.083888 0.066416 -0.095558 -0.032042 -0.084679 0.07503 -0.048618 -0.0077496 -0.0010083 -0.15434 0.017312 0.011093 -0.0030769 0.041362 0.087503 0.068993 0.01641 -0.11549 -0.094235 0.074054 0.0017808 0.024567 0.068172 0.040027 0.073389 -0.056438 -0.11823 -0.085808 0.13074 -0.14023 -0.044703 0.030853 -0.12101 -0.032173 -0.0028853 -0.038501 0.078983 -0.11144 -0.11967 0.13543 -0.056721 0.091974 -0.031856 -0.057335 -0.047338 0.094126 0.037316 0.087988 -0.053999 0.015545 0.043031 0.057561 0.009459 -0.02557 0.14828 -0.0075713 0.12063 0.11496 0.13741 0.081905 -0.029782 0.012612 0.08941 -0.014818 0.082779 0.16866 0.12432 -0.040364 0.12383 -0.079478 0.023166 0.18212 -0.066181 0.034056 -0.068371 0.046011 -0.076847 -0.039997 -0.10367 0.0091528 -0.093177 0.10188 -0.019339 -0.045316 -0.015088 0.11698 -0.068805 0.16666 0.07188 -0.12987 -0.038275 0.034491 0.047666 0.073478 -0.14171 0.03216 -0.042851 -0.0095694 0.065671 -0.022872 0.056784 0.11477 -0.010033 -0.030305 0.010296 0.12029 0.14599 0.01649 -0.19264 -0.036955 -0.1123 0.068347 0.056461 -0.076959 0.0071873 0.017484 -0.037891 -0.00837 -0.12589 -0.077901 0.011099 -0.055896 0.08861 -0.023086 0.041752 0.056474 0.027149 0.047205 -0.042752 -0.099786 -0.027991 -0.063709 -0.010194 0.080826 0.073891 0.022365 -0.17627 0.031418 0.040306 -0.067987 0.0021205 0.005703 0.042422 0.083619 -0.029397 0.15924 -0.01438 -0.11602 0.12974 -0.019477 -0.070289 0.11314 0.065342 -0.092649 0.002518 0.12915 -0.094413 0.040953 0.036868 -0.054798 0.10553 0.01222 
<vblex> -0.096622 -0.062849 -0.045354 -0.14197 0.13635 0.042084 -0.091462 0.019175 -0.03185 -0.051265 -0.045648 0.048785 -0.00642 0.038262 0.071641 0.00090224 0.098107 -0.048259 -0.051542 -0.088571 0.025584 -0.001044 0.070764 0.12158 0.078762 0.051858 0.055293 0.099678 0.030844 0.0033626 -0.12072 -0.067986 0.0095148 -0.0011191 -0.088689 0.025591 0.023776 -0.063537 0.11781 0.029265 -0.052964 -0.074153 0.055347 0.0555 0.076709 -0.10431 0.0095958 -0.046293 0.11516 -0.0073872 -0.13939 0.029498 0.017606 -0.046953 0.06487 0.12903 -0.087767 0.082674 0.18409 0.014398 0.05927 -0.049915 0.074682 -0.13027 0.14961 -0.01358 -0.03885 0.10085 -0.050018 -0.17236 0.046413 0.035771 0.042234 -0.08999 -0.059894 0.12259 0.06416 -0.094288 0.060957 -0.021612 0.06478 0.091791 0.079792 -0.031373 -0.054825 0.14082 0.058749 -0.00011897 0.0685 0.026982 -0.087327 0.014283 -0.024078 0.040755 0.061846 0.015049 -0.026343 0.021801 0.050257 0.035944 0.056864 0.056602 0.049981 0.057775 0.11951 0.086348 0.046778 0.090374 -0.062651 0.057226 -0.092088 0.024679 -0.093759 0.099032 -0.089729 0.10196 0.097187 0.068729 -0.038176 0.06023 0.092747 -0.027532 0.013793 0.00088014 -0.12613 0.085113 0.0018688 0.0011305 0.013541 0.033816 0.108 0.082613 0.029651 -0.074452 0.073909 -0.15957 -0.076019 0.10267 0.084308 0.064457 -0.097578 -0.031028 -0.083805 0.074431 -0.048743 -0.0079761 -0.00019461 -0.15482 0.01728 0.0094899 -0.0039364 0.041121 0.086614 0.0699 0.01662 -0.11684 -0.095372 0.074084 0.0032127 0.024099 0.068146 0.039866 0.075427 -0.056061 -0.11941 -0.087295 0.13017 -0.14011 -0.046226 0.031058 -0.12223 -0.031768 -0.0025125 -0.040562 0.079733 -0.11287 -0.1197 0.1365 -0.057153 0.091863 -0.032876 -0.056951 -0.046666 0.094685 0.037534 0.089074 -0.053978 0.016229 0.043798 0.058828 0.0098614 -0.025566 0.15003 -0.0091702 0.12291 0.11556 0.13869 0.083132 -0.030464 0.012326 0.090795 -0.014816 0.082594 0.16998 0.12543 -0.041303 0.12399 -0.079759 0.022492 0.18273 -0.066458 0.035212 -0.069203 0.044434 -0.076473 -0.039243 -0.10482 0.0090135 -0.094086 0.10273 -0.021743 -0.043862 -0.015512 0.11738 -0.068013 0.16682 0.072055 -0.12918 -0.039465 0.033549 0.048151 0.074766 -0.14213 0.032252 -0.043794 -0.0093897 0.065341 -0.021909 0.057926 0.11544 -0.0093729 -0.032215 0.0109 0.12125 0.14804 0.016703 -0.19247 -0.036657 -0.11466 0.068226 0.056563 -0.080387 0.0055356 0.016655 -0.039987 -0.0073237 -0.12758 -0.076913 0.011956 -0.05534 0.089392 -0.024262 0.042808 0.055807 0.029624 0.047438 -0.042017 -0.099598 -0.027155 -0.065074 -0.0088571 0.081204 0.074347 0.022582 -0.17714 0.030515 0.040979 -0.066552 0.0029097 0.0059763 0.042333 0.084097 -0.029118 0.16002 -0.01539 -0.11658 0.1316 -0.018693 -0.070553 0.11441 0.066858 -0.093049 0.00084427 0.12989 -0.093254 0.042335 0.036584 -0.057213 0.10462 0.013695 
<pl> -0.09692 -0.062697 -0.047355 -0.14291 0.13614 0.041772 -0.091592 0.019004 -0.030508 -0.051952 -0.045276 0.046964 -0.0050297 0.038324 0.072562 0.0010781 0.097703 -0.048486 -0.052024 -0.08583 0.026823 1.5573e-05 0.071155 0.12073 0.079007 0.052292 0.055241 0.10068 0.032962 0.0021918 -0.12253 -0.06953 0.0093736 -0.0017922 -0.090584 0.024821 0.025041 -0.062652 0.1198 0.031021 -0.052165 -0.075096 0.054644 0.055644 0.075793 -0.10555 0.0098658 -0.045456 0.11585 -0.0072254 -0.14039 0.029261 0.018331 -0.046761 0.064572 0.12912 -0.087246 0.083703 0.18286 0.013101 0.058397 -0.051268 0.07458 -0.13063 0.15021 -0.013335 -0.039072 0.10158 -0.050387 -0.17228 0.046778 0.035434 0.043245 -0.089634 -0.061344 0.12217 0.065333 -0.095357 0.063525 -0.020812 0.064469 0.089896 0.080474 -0.0316 -0.055823 0.14124 0.057018 -0.00012698 0.069085 0.028949 -0.088772 0.012683 -0.025831 0.041393 0.060301 0.016033 -0.028659 0.023119 0.050907 0.033517 0.05643 0.05501 0.049365 0.057438 0.12023 0.086457 0.046622 0.090139 -0.06248 0.057508 -0.09281 0.024699 -0.093095 0.10004 -0.089547 0.10226 0.098373 0.067214 -0.037188 0.058832 0.093268 -0.027745 0.013983 0.0013212 -0.12574 0.084251 0.0020749 0.002458 0.013564 0.034389 0.10779 0.084046 0.028689 -0.075659 0.074947 -0.15964 -0.077735 0.10286 0.086421 0.064439 -0.097398 -0.032364 -0.083772 0.074622 -0.047399 -0.0065782 -0.0015707 -0.15601 0.017539 0.010045 -0.0022547 0.041949 0.088438 0.069079 0.018765 -0.1177 -0.094385 0.074421 0.0051923 0.024984 0.066789 0.040856 0.074618 -0.056336 -0.11964 -0.087625 0.13107 -0.13927 -0.046186 0.030056 -0.12297 -0.032459 -0.0028404 -0.041044 0.080086 -0.11232 -0.12055 0.13622 -0.057391 0.091623 -0.031469 -0.057226 -0.046961 0.0952 0.038992 0.089428 -0.056311 0.016249 0.043168 0.058813 0.0090228 -0.025953 0.15212 -0.0080623 0.12388 0.11614 0.13856 0.082807 -0.032269 0.011215 0.092092 -0.015162 0.081914 0.17111 0.12588 -0.04104 0.12412 -0.082017 0.020994 0.18189 -0.065852 0.037324 -0.069183 0.045253 -0.077167 -0.040032 -0.10465 0.0080526 -0.095521 0.10382 -0.020223 -0.044539 -0.015427 0.11769 -0.06778 0.16769 0.074059 -0.13116 -0.039912 0.034436 0.048812 0.074125 -0.14247 0.033653 -0.044027 -0.0080405 0.066779 -0.022321 0.05671 0.11644 -0.010587 -0.030564 0.0098698 0.12206 0.14736 0.016532 -0.19504 -0.03718 -0.11605 0.067814 0.056935 -0.081052 0.0069135 0.018148 -0.038896 -0.0091401 -0.12859 -0.077961 0.010451 -0.055566 0.089915 -0.02541 0.041741 0.05586 0.030449 0.048638 -0.042436 -0.10156 -0.027062 -0.064913 -0.0084115 0.081414 0.074605 0.023447 -0.17878 0.030952 0.041066 -0.068064 0.0026067 0.0082073 0.041942 0.085616 -0.029283 0.15905 -0.015934 -0.11724 0.13141 -0.017804 -0.070098 0.11339 0.066665 -0.094375 0.00050827 0.13 -0.094122 0.041994 0.036882 -0.056416 0.10473 0.013321 
<nom> -0.096985 -0.060831 -0.045463 -0.1412 0.13581 0.041528 -0.090718 0.019732 -0.031488 -0.050358 -0.044446 0.048651 -0.0068291 0.039063 0.072417 0.0011851 0.097294 -0.048372 -0.051234 -0.087296 0.025639 -0.0018825 0.070655 0.12071 0.077869 0.052608 0.055884 0.099581 0.030542 0.0036096 -0.12062 -0.068371 0.0086891 -0.00062289 -0.088735 0.02531 0.023447 -0.06471 0.11716 0.028535 -0.051978 -0.074999 0.055242 0.054881 0.076232 -0.10467 0.0098282 -0.044894 0.11592 -0.0069777 -0.13906 0.030457 0.018708 -0.047182 0.06439 0.12904 -0.087026 0.083687 0.18278 0.013345 0.058351 -0.050499 0.074792 -0.12944 0.1496 -0.013769 -0.036999 0.10038 -0.04904 -0.17144 0.045202 0.037071 0.04324 -0.088057 -0.060401 0.12099 0.064016 -0.09391 0.060083 -0.019604 0.062718 0.090604 0.077651 -0.032078 -0.054246 0.14113 0.059651 -0.00011556 0.067781 0.027483 -0.08868 0.013255 -0.0245 0.041516 0.060324 0.015965 -0.026783 0.022111 0.050371 0.035409 0.055459 0.05557 0.050167 0.056736 0.12075 0.087431 0.04658 0.090487 -0.062733 0.056808 -0.091807 0.024527 -0.09346 0.097032 -0.089383 0.10229 0.098148 0.067318 -0.035874 0.05909 0.092842 -0.027218 0.012683 0.0017259 -0.12639 0.085504 0.0013741 -7.7632e-05 0.013676 0.034336 0.10863 0.082097 0.027731 -0.074638 0.073426 -0.15862 -0.075652 0.10274 0.084319 0.065162 -0.097088 -0.031107 -0.082546 0.073308 -0.049519 -0.007364 -0.0010889 -0.15463 0.016558 0.010267 -0.0044281 0.04061 0.086736 0.069129 0.016998 -0.1164 -0.093847 0.075405 0.0034549 0.025784 0.068093 0.038383 0.074236 -0.056278 -0.11853 -0.08458 0.12932 -0.13878 -0.044221 0.032451 -0.12276 -0.031998 -0.0011553 -0.041209 0.080529 -0.11377 -0.12029 0.13635 -0.05551 0.092187 -0.033035 -0.055537 -0.047708 0.092981 0.036732 0.08917 -0.053526 0.016057 0.045045 0.058678 0.008688 -0.025906 0.14852 -0.00857 0.12244 0.11642 0.1381 0.083558 -0.029938 0.013123 0.091884 -0.015056 0.081774 0.17065 0.12379 -0.040835 0.12214 -0.079586 0.022694 0.18222 -0.067045 0.034049 -0.069078 0.045455 -0.078074 -0.038708 -0.10402 0.01006 -0.093674 0.10309 -0.020781 -0.043931 -0.014026 0.11755 -0.06735 0.16765 0.07096 -0.13027 -0.039812 0.034212 0.049292 0.07464 -0.14228 0.032961 -0.044241 -0.0091839 0.065697 -0.021336 0.056663 0.11533 -0.0093836 -0.031383 0.010845 0.12098 0.14902 0.01592 -0.19391 -0.036368 -0.11515 0.067633 0.055793 -0.07919 0.0068861 0.016312 -0.038393 -0.0076741 -0.12592 -0.078196 0.011572 -0.055982 0.089044 -0.024226 0.042523 0.057305 0.029979 0.04625 -0.041729 -0.099109 -0.025771 -0.063653 -0.0095888 0.080242 0.074528 0.024358 -0.17774 0.03074 0.041563 -0.067641 0.0024676 0.0050729 0.043379 0.081981 -0.029828 0.16039 -0.014927 -0.11548 0.13205 -0.019427 -0.070938 0.11312 0.066327 -0.092184 0.00057032 0.13015 -0.092694 0.041867 0.036869 -0.055117 0.10375 0.012668 
<sent> -0.097752 -0.062429 -0.045262 -0.14361 0.13843 0.042754 -0.093557 0.018322 -0.032054 -0.050999 -0.045563 0.049935 -0.0070195 0.038111 0.072365 0.0017605 0.098886 -0.050196 -0.052256 -0.089833 0.026318 -0.0013069 0.071424 0.12285 0.079669 0.053372 0.056662 0.10146 0.029698 0.003035 -0.12221 -0.068086 0.0096928 -0.00064405 -0.090259 0.025519 0.023461 -0.065028 0.11914 0.029747 -0.052955 -0.07589 0.055976 0.056289 0.077229 -0.10543 0.01038 -0.046422 0.11758 -0.0083159 -0.14044 0.029629 0.018571 -0.047253 0.066356 0.12978 -0.087816 0.083812 0.18545 0.013403 0.06011 -0.050668 0.076098 -0.13137 0.15125 -0.01309 -0.039098 0.101 -0.050607 -0.17375 0.047612 0.036679 0.043057 -0.089536 -0.060978 0.1224 0.065221 -0.094753 0.061467 -0.019869 0.064872 0.092026 0.080213 -0.031606 -0.054315 0.14303 0.060286 9.4797e-05 0.069361 0.027337 -0.088381 0.013735 -0.024447 0.041293 0.062114 0.015443 -0.027322 0.022837 0.050194 0.036161 0.057171 0.057174 0.051207 0.058944 0.12112 0.087657 0.047163 0.091023 -0.063495 0.057319 -0.094008 0.025081 -0.09557 0.099926 -0.091841 0.10348 0.099001 0.068071 -0.037183 0.059911 0.094392 -0.027454 0.012783 0.0010101 -0.12856 0.087946 0.0018942 0.00071042 0.013262 0.034236 0.10926 0.083459 0.029328 -0.075714 0.075227 -0.16168 -0.076582 0.10351 0.084733 0.066184 -0.098417 -0.031815 -0.084204 0.075706 -0.048964 -0.0070644 -0.00043447 -0.15657 0.017111 0.010371 -0.0044015 0.042818 0.088263 0.069606 0.016483 -0.11832 -0.096023 0.075134 0.0025373 0.025925 0.070073 0.039896 0.075437 -0.057768 -0.11976 -0.086532 0.13124 -0.14195 -0.045817 0.032332 -0.12443 -0.032542 -0.0029638 -0.040466 0.081432 -0.11472 -0.12118 0.1383 -0.056894 0.093046 -0.032926 -0.057582 -0.048425 0.09424 0.037861 0.089833 -0.054391 0.01561 0.044538 0.059769 0.0098233 -0.025704 0.15134 -0.0087389 0.12413 0.11709 0.13964 0.085191 -0.031066 0.012501 0.091699 -0.014604 0.083905 0.1718 0.12556 -0.041749 0.12562 -0.080598 0.022803 0.18357 -0.066929 0.035284 -0.069597 0.046334 -0.078056 -0.039996 -0.10642 0.0097326 -0.094921 0.10454 -0.021737 -0.044033 -0.014792 0.1186 -0.068224 0.16882 0.072072 -0.12977 -0.039185 0.034462 0.047856 0.075871 -0.14329 0.032683 -0.043622 -0.0090579 0.066088 -0.023011 0.057741 0.11701 -0.010538 -0.031518 0.010946 0.1222 0.14941 0.016777 -0.19496 -0.036725 -0.11612 0.068043 0.057113 -0.080295 0.006941 0.015595 -0.040186 -0.008139 -0.12916 -0.078268 0.011615 -0.056261 0.091117 -0.024668 0.042626 0.058454 0.030287 0.047858 -0.042665 -0.10102 -0.026725 -0.066542 -0.0092079 0.082008 0.074999 0.023271 -0.18071 0.030087 0.04035 -0.06802 0.0021783 0.005698 0.044046 0.084294 -0.028793 0.1622 -0.015476 -0.11773 0.13309 -0.019895 -0.071672 0.11489 0.06744 -0.093579 0.00079309 0.13152 -0.09505 0.042142 0.037449 -0.056517 0.10571 0.013547 
<prn> -0.096818 -0.063484 -0.046899 -0.14122 0.13238 0.041594 -0.089416 0.017398 -0.029594 -0.051118 -0.043963 0.048481 -0.0064773 0.038711 0.07134 0.0022159 0.097313 -0.049592 -0.050721 -0.088314 0.026349 -0.00054078 0.07226 0.12319 0.079141 0.052575 0.056498 0.1001 0.02879 0.003711 -0.12103 -0.067315 0.010052 -0.0022395 -0.086735 0.02587 0.023645 -0.06239 0.11681 0.029208 -0.051676 -0.074944 0.053525 0.055582 0.075326 -0.10469 0.0097706 -0.046007 0.11396 -0.0073798 -0.13664 0.029126 0.016885 -0.045476 0.065828 0.13011 -0.085867 0.082013 0.18318 0.013758 0.058141 -0.05036 0.073695 -0.12892 0.14964 -0.013667 -0.040445 0.10141 -0.050337 -0.1714 0.04588 0.034714 0.040656 -0.088916 -0.060575 0.11994 0.063701 -0.094451 0.061237 -0.020537 0.064775 0.092865 0.077471 -0.031027 -0.053946 0.13957 0.058508 -0.00052178 0.067817 0.028566 -0.086037 0.013672 -0.024323 0.039755 0.059815 0.01485 -0.025215 0.020383 0.049939 0.035613 0.056354 0.056116 0.050892 0.057615 0.11836 0.084758 0.04727 0.089599 -0.062021 0.055605 -0.092261 0.025271 -0.092094 0.098276 -0.088943 0.10186 0.096593 0.068927 -0.037679 0.060977 0.091715 -0.025617 0.013428 0.00054678 -0.12534 0.085066 0.002226 0.00036967 0.011757 0.033276 0.10703 0.081647 0.029028 -0.074528 0.074434 -0.15861 -0.075641 0.1013 0.084867 0.065825 -0.097252 -0.032627 -0.085175 0.074603 -0.049026 -0.0077157 -0.00022267 -0.15282 0.018408 0.01068 -0.0028379 0.042936 0.086998 0.068566 0.01615 -0.11589 -0.094859 0.073838 0.0020772 0.024398 0.066499 0.039709 0.073977 -0.057269 -0.11988 -0.08576 0.13166 -0.14018 -0.044827 0.032379 -0.12118 -0.032702 -0.003592 -0.038969 0.079455 -0.11105 -0.11851 0.13509 -0.057823 0.091732 -0.032576 -0.056631 -0.046776 0.094137 0.037598 0.087667 -0.053069 0.01555 0.043849 0.056761 0.0090162 -0.025509 0.14909 -0.0059451 0.12036 0.11426 0.13847 0.081827 -0.028127 0.012667 0.089605 -0.015252 0.082482 0.16866 0.12573 -0.040897 0.12395 -0.079289 0.021181 0.18274 -0.065545 0.033043 -0.067341 0.04538 -0.075559 -0.040919 -0.10343 0.0086497 -0.093434 0.10335 -0.018674 -0.043866 -0.015196 0.11669 -0.067765 0.16621 0.071159 -0.12853 -0.039584 0.035061 0.04659 0.074537 -0.1403 0.031918 -0.041894 -0.011472 0.065913 -0.024459 0.057002 0.11481 -0.0084968 -0.031688 0.01033 0.12006 0.14637 0.016024 -0.19268 -0.037226 -0.11301 0.067673 0.056863 -0.077967 0.0071614 0.018001 -0.038511 -0.0086694 -0.12606 -0.07726 0.011471 -0.056133 0.088771 -0.023638 0.041683 0.056306 0.028361 0.046984 -0.041676 -0.09994 -0.027687 -0.063532 -0.0099345 0.080534 0.073043 0.022183 -0.17485 0.031129 0.039707 -0.066697 0.00093059 0.0053951 0.042473 0.082552 -0.030105 0.15943 -0.013318 -0.11665 0.13085 -0.020674 -0.069233 0.11403 0.066329 -0.092438 0.00082408 0.12743 -0.094925 0.041525 0.036887 -0.054521 0.10536 0.012703 
<mf> -0.096929 -0.062536 -0.045983 -0.1419 0.13595 0.041677 -0.091126 0.017992 -0.030382 -0.050978 -0.043816 0.04923 -0.0074115 0.039404 0.071936 0.002316 0.098203 -0.049184 -0.051278 -0.088235 0.026141 -0.0010986 0.070446 0.12308 0.078983 0.053063 0.056325 0.09888 0.029521 0.0037345 -0.1214 -0.068187 0.0097712 -0.0019103 -0.088124 0.024207 0.023121 -0.063494 0.11829 0.030108 -0.053379 -0.076482 0.055655 0.055564 0.076078 -0.10527 0.010051 -0.045099 0.1153 -0.0073436 -0.13883 0.030503 0.018646 -0.046987 0.066528 0.12919 -0.087272 0.083877 0.18309 0.012759 0.058052 -0.049935 0.074987 -0.12839 0.14917 -0.012367 -0.039051 0.10144 -0.050292 -0.17135 0.047111 0.035989 0.043341 -0.089271 -0.062433 0.12003 0.065303 -0.0951 0.060549 -0.019291 0.064981 0.091112 0.078679 -0.03198 -0.054458 0.14158 0.059307 0.0004607 0.068931 0.028136 -0.087124 0.013242 -0.025391 0.040919 0.061703 0.014609 -0.026627 0.022063 0.051215 0.036431 0.054667 0.056146 0.050183 0.057825 0.11949 0.086936 0.047226 0.089996 -0.063153 0.056426 -0.093146 0.024871 -0.093817 0.098813 -0.090881 0.10147 0.098487 0.067556 -0.035632 0.060118 0.092983 -0.025577 0.01339 0.0015718 -0.12672 0.085701 0.0012977 0.0010161 0.013522 0.033677 0.10861 0.082742 0.029532 -0.074343 0.074384 -0.15973 -0.076005 0.10155 0.084386 0.065241 -0.096373 -0.032074 -0.084782 0.075866 -0.049049 -0.0074159 -0.00018131 -0.15462 0.01686 0.010869 -0.0034253 0.041393 0.088033 0.069536 0.015796 -0.11811 -0.095499 0.075359 0.0024096 0.024902 0.066911 0.038144 0.073414 -0.056609 -0.11957 -0.08547 0.1305 -0.14012 -0.045621 0.032903 -0.1225 -0.031821 -0.0016762 -0.04151 0.080658 -0.11382 -0.11959 0.13607 -0.056945 0.091865 -0.032681 -0.056558 -0.048634 0.093922 0.038407 0.087764 -0.053775 0.014987 0.044532 0.058399 0.0080005 -0.026011 0.14977 -0.0081271 0.12108 0.11575 0.13895 0.082291 -0.030218 0.011323 0.09082 -0.014902 0.08274 0.17038 0.12388 -0.041997 0.12521 -0.081049 0.023796 0.18256 -0.067062 0.033611 -0.068818 0.046916 -0.077565 -0.039506 -0.10391 0.008115 -0.093601 0.10384 -0.020388 -0.04457 -0.015269 0.1174 -0.068298 0.16842 0.070367 -0.12913 -0.038676 0.034566 0.048585 0.074153 -0.14221 0.032138 -0.04311 -0.010564 0.066436 -0.021167 0.055884 0.11648 -0.0091216 -0.030452 0.0098309 0.1214 0.14818 0.015223 -0.19465 -0.035844 -0.11407 0.067548 0.056704 -0.077763 0.0061755 0.018202 -0.038876 -0.0077474 -0.12688 -0.079381 0.012254 -0.056612 0.088698 -0.023645 0.040877 0.057957 0.027994 0.047004 -0.042024 -0.10096 -0.02552 -0.065889 -0.010397 0.080728 0.073017 0.023616 -0.1783 0.030943 0.039677 -0.06769 0.00062849 0.005448 0.041492 0.083193 -0.028448 0.16058 -0.01433 -0.1167 0.13202 -0.020465 -0.06957 0.11364 0.066769 -0.092484 0.00081457 0.1306 -0.094571 0.04198 0.037851 -0.055497 0.10512 0.011944 
</s> -0.096425 -0.061477 -0.045811 -0.14296 0.13518 0.042008 -0.092886 0.017937 -0.031595 -0.052666 -0.044704 0.048976 -0.0074493 0.038102 0.071391 0.0020535 0.098679 -0.049195 -0.053153 -0.088384 0.025028 -0.0015805 0.070968 0.12442 0.079571 0.051883 0.056293 0.099732 0.030054 0.0043028 -0.12149 -0.068016 0.0099265 -0.00083712 -0.089355 0.025764 0.02379 -0.064535 0.11753 0.029604 -0.053368 -0.075295 0.054956 0.055905 0.077099 -0.10541 0.008478 -0.046577 0.11626 -0.0077984 -0.13939 0.029838 0.018218 -0.047746 0.066833 0.12943 -0.088266 0.083295 0.18476 0.013325 0.058759 -0.050045 0.076318 -0.12999 0.15048 -0.013475 -0.039301 0.10104 -0.050507 -0.17245 0.045142 0.036739 0.041322 -0.089652 -0.061766 0.122 0.064735 -0.092762 0.059652 -0.020061 0.063627 0.092093 0.078908 -0.030052 -0.053568 0.14183 0.060017 -0.00064914 0.068574 0.027659 -0.08606 0.014063 -0.023787 0.040197 0.061772 0.01533 -0.027853 0.022934 0.051359 0.034194 0.056012 0.056573 0.050949 0.057452 0.11995 0.086867 0.047324 0.090231 -0.063451 0.056565 -0.093473 0.024509 -0.093325 0.098456 -0.091204 0.10269 0.098679 0.068829 -0.036826 0.060148 0.092397 -0.026408 0.014249 -9.5211e-05 -0.12786 0.085412 0.00094856 0.0010509 0.012555 0.034396 0.10777 0.082782 0.028996 -0.073103 0.075646 -0.15948 -0.076739 0.10287 0.085462 0.065935 -0.098674 -0.032395 -0.084217 0.075653 -0.049073 -0.0081488 0.00066703 -0.1552 0.017535 0.01174 -0.0043247 0.041202 0.087811 0.069646 0.016949 -0.11703 -0.096055 0.074545 0.001682 0.025193 0.06834 0.039999 0.074584 -0.058688 -0.11932 -0.084989 0.13186 -0.14164 -0.043736 0.03293 -0.12313 -0.031422 -0.0028337 -0.039307 0.080214 -0.11354 -0.12038 0.13692 -0.056672 0.092838 -0.032203 -0.056727 -0.047109 0.095194 0.037265 0.088292 -0.054875 0.016281 0.043789 0.058974 0.0093443 -0.026244 0.14968 -0.0084401 0.12308 0.11578 0.1389 0.084107 -0.029281 0.012322 0.090247 -0.015021 0.082541 0.17035 0.12567 -0.040815 0.1246 -0.079917 0.023389 0.18454 -0.066421 0.035306 -0.069738 0.045953 -0.076867 -0.040311 -0.10581 0.010294 -0.095078 0.10369 -0.020254 -0.046035 -0.014519 0.11756 -0.068472 0.16751 0.072393 -0.13017 -0.039499 0.0349 0.04839 0.074979 -0.14353 0.033478 -0.043514 -0.010212 0.066092 -0.022951 0.057452 0.11535 -0.0099633 -0.030622 0.0099603 0.12067 0.14812 0.016214 -0.19409 -0.036165 -0.11487 0.066681 0.056385 -0.07859 0.0065696 0.016411 -0.039857 -0.0073035 -0.12745 -0.077861 0.012142 -0.056068 0.090584 -0.024027 0.042222 0.057446 0.029095 0.047611 -0.043589 -0.099997 -0.026467 -0.06428 -0.0096791 0.081835 0.075582 0.023225 -0.17903 0.031225 0.04054 -0.068061 0.00086954 0.0047819 0.043345 0.083877 -0.028498 0.16053 -0.014436 -0.1167 0.13173 -0.019994 -0.069697 0.11482 0.065967 -0.091299 0.0017149 0.12921 -0.093445 0.042854 0.038557 -0.054792 0.10589 0.012022 
<tv> -0.095302 -0.061918 -0.045503 -0.13993 0.13397 0.041459 -0.09078 0.018862 -0.030791 -0.050558 -0.045961 0.048084 -0.006029 0.037587 0.070147 0.00078174 0.09757 -0.049248 -0.051671 -0.087311 0.026425 -0.001039 0.068686 0.12069 0.077673 0.052579 0.054461 0.098444 0.029852 0.0039148 -0.11951 -0.068675 0.01012 -0.0013351 -0.088946 0.024368 0.023995 -0.063717 0.11493 0.029128 -0.05118 -0.075537 0.055798 0.055132 0.07561 -0.10213 0.0090732 -0.044148 0.11464 -0.0073538 -0.138 0.029272 0.018049 -0.047815 0.064311 0.12856 -0.086446 0.083477 0.1826 0.013963 0.057823 -0.049568 0.074999 -0.12941 0.14859 -0.012933 -0.039064 0.098574 -0.049713 -0.1699 0.046199 0.035874 0.04204 -0.088335 -0.060506 0.12069 0.063903 -0.092667 0.060872 -0.021008 0.0631 0.090104 0.078781 -0.031469 -0.055642 0.13989 0.058339 -5.036e-05 0.067242 0.026832 -0.084709 0.013952 -0.022948 0.041133 0.060669 0.015135 -0.027576 0.022397 0.050605 0.035638 0.056495 0.055194 0.049777 0.057132 0.11788 0.08606 0.045396 0.089071 -0.061358 0.055883 -0.092055 0.024574 -0.09298 0.097437 -0.089342 0.10152 0.095775 0.06798 -0.036424 0.057973 0.093161 -0.027035 0.013924 7.3688e-05 -0.12533 0.084285 0.0017865 0.0010784 0.013298 0.032917 0.10815 0.081277 0.028806 -0.072851 0.074338 -0.15686 -0.075883 0.10112 0.084367 0.063232 -0.096869 -0.030763 -0.083043 0.073622 -0.04824 -0.0076074 -0.00041441 -0.15349 0.017143 0.0098213 -0.0038391 0.039499 0.086951 0.069136 0.017072 -0.11481 -0.093814 0.072705 0.0031864 0.023684 0.066832 0.039098 0.074852 -0.055721 -0.11785 -0.085407 0.12881 -0.13898 -0.044048 0.030741 -0.1204 -0.030871 -0.0018588 -0.039521 0.080003 -0.1115 -0.11902 0.1337 -0.055399 0.090213 -0.032436 -0.055113 -0.046994 0.093486 0.036855 0.087502 -0.053183 0.015623 0.044542 0.058773 0.0091062 -0.025248 0.1483 -0.0081123 0.12144 0.11357 0.13703 0.083572 -0.030476 0.012011 0.091081 -0.014253 0.08202 0.16791 0.12581 -0.040292 0.12224 -0.078784 0.022296 0.18187 -0.066063 0.034752 -0.068307 0.043683 -0.076792 -0.038602 -0.10306 0.010374 -0.09382 0.10121 -0.02163 -0.044254 -0.015348 0.11629 -0.066738 0.16477 0.072061 -0.12849 -0.037983 0.034022 0.04909 0.073149 -0.14012 0.033914 -0.042036 -0.0094335 0.065862 -0.021576 0.057617 0.11474 -0.0096159 -0.031356 0.010583 0.11922 0.14641 0.016053 -0.1909 -0.036239 -0.11222 0.067195 0.0551 -0.078962 0.0065786 0.017362 -0.039906 -0.0073888 -0.12563 -0.077824 0.011774 -0.055713 0.089873 -0.024204 0.041746 0.054376 0.028513 0.046167 -0.041527 -0.099162 -0.026448 -0.064339 -0.010623 0.080209 0.072752 0.023596 -0.17564 0.030423 0.039879 -0.066273 0.0019359 0.0044787 0.041786 0.082827 -0.028244 0.15749 -0.014508 -0.11596 0.12983 -0.019381 -0.069278 0.11341 0.065653 -0.092316 0.00012462 0.12856 -0.09245 0.041448 0.036688 -0.056597 0.10397 0.013899 
<pers> -0.097818 -0.062932 -0.046698 -0.14317 0.13672 0.043409 -0.092289 0.018695 -0.030949 -0.052605 -0.044714 0.048898 -0.006994 0.038976 0.072364 0.0014306 0.099662 -0.049095 -0.052455 -0.088438 0.026258 -0.00041992 0.071654 0.12362 0.079389 0.052897 0.055699 0.10093 0.030741 0.0027322 -0.12126 -0.068206 0.0097284 -0.0014267 -0.089251 0.025452 0.023525 -0.064351 0.11868 0.030193 -0.052424 -0.075733 0.055387 0.056489 0.0769 -0.10663 0.0096588 -0.046026 0.11561 -0.0077958 -0.13978 0.030242 0.017748 -0.047083 0.066067 0.13026 -0.087651 0.084302 0.18546 0.013557 0.059858 -0.051393 0.075678 -0.13049 0.15075 -0.013818 -0.039386 0.10176 -0.051207 -0.17245 0.046434 0.035985 0.043348 -0.090308 -0.061641 0.12186 0.064754 -0.095899 0.061489 -0.020514 0.065037 0.091922 0.079291 -0.031439 -0.055154 0.14281 0.059344 -0.00028553 0.068719 0.028005 -0.087808 0.012866 -0.024475 0.041088 0.061587 0.015384 -0.027402 0.023059 0.05118 0.035271 0.056689 0.056308 0.050279 0.057979 0.12028 0.086528 0.04687 0.091364 -0.062625 0.056652 -0.093729 0.024348 -0.094638 0.099665 -0.090873 0.10231 0.098269 0.069048 -0.037305 0.059015 0.093493 -0.026722 0.013234 0.00071778 -0.12769 0.087295 0.0015165 0.0013533 0.012121 0.033462 0.10844 0.082377 0.029995 -0.074298 0.075802 -0.15999 -0.077028 0.1034 0.08619 0.066589 -0.097828 -0.031854 -0.083728 0.075613 -0.049258 -0.0073382 -0.00091163 -0.15582 0.017103 0.010705 -0.0040442 0.043709 0.088077 0.070674 0.01695 -0.11745 -0.095751 0.074544 0.0028413 0.024502 0.068279 0.03986 0.074852 -0.057675 -0.11978 -0.086351 0.13095 -0.14159 -0.045864 0.03185 -0.1231 -0.033161 -0.0026785 -0.04066 0.080528 -0.11429 -0.12012 0.1374 -0.057533 0.091728 -0.032726 -0.056516 -0.047894 0.096402 0.037979 0.089712 -0.055145 0.016144 0.044453 0.058967 0.0092922 -0.027115 0.15109 -0.0077088 0.12275 0.116 0.13979 0.083328 -0.031055 0.012323 0.091563 -0.015484 0.083044 0.17169 0.12679 -0.041727 0.12503 -0.080764 0.02285 0.18459 -0.066496 0.034405 -0.070265 0.046015 -0.076877 -0.041201 -0.10428 0.0089841 -0.095116 0.10357 -0.020314 -0.045209 -0.014998 0.11728 -0.068362 0.16826 0.073102 -0.13092 -0.039333 0.034041 0.047825 0.074717 -0.14255 0.032863 -0.042675 -0.010104 0.066454 -0.022149 0.057268 0.11623 -0.0088667 -0.031844 0.010051 0.12092 0.14864 0.016425 -0.1951 -0.037941 -0.11492 0.068457 0.057666 -0.080393 0.0066143 0.017814 -0.03821 -0.0091256 -0.12779 -0.078115 0.011506 -0.057254 0.089454 -0.02462 0.042432 0.057849 0.02912 0.047866 -0.04248 -0.10043 -0.027342 -0.065062 -0.0096273 0.081352 0.07485 0.022968 -0.1787 0.030914 0.040654 -0.068146 0.0010759 0.0060344 0.042273 0.085084 -0.029707 0.16091 -0.014032 -0.11909 0.13108 -0.018509 -0.070059 0.11459 0.066682 -0.093734 0.00087501 0.13035 -0.094129 0.041849 0.037002 -0.056363 0.10521 0.013364 
<past> -0.095372 -0.06289 -0.046065 -0.1412 0.13408 0.042769 -0.090635 0.018289 -0.029553 -0.050497 -0.044649 0.049501 -0.0070732 0.039513 0.071632 0.0019245 0.09758 -0.04913 -0.051366 -0.087018 0.025339 -0.0012892 0.071047 0.12176 0.078433 0.051925 0.05539 0.098846 0.030133 0.003161 -0.11948 -0.068065 0.0098436 -0.0013752 -0.08818 0.025302 0.023028 -0.062221 0.11652 0.028534 -0.052218 -0.074857 0.054497 0.055143 0.076926 -0.104 0.0091894 -0.045757 0.11474 -0.0069118 -0.13774 0.029193 0.018213 -0.046399 0.065916 0.12849 -0.086487 0.082783 0.18269 0.013408 0.058013 -0.05029 0.074626 -0.1292 0.14795 -0.013605 -0.040416 0.10034 -0.049878 -0.17051 0.045913 0.034931 0.042201 -0.088241 -0.060365 0.12038 0.063549 -0.093847 0.061141 -0.0198 0.063991 0.090871 0.079221 -0.031586 -0.055175 0.14005 0.057957 0.00057058 0.067362 0.027653 -0.085086 0.013232 -0.023832 0.040179 0.060965 0.014882 -0.027028 0.02186 0.049831 0.034555 0.055395 0.055522 0.049948 0.057791 0.1183 0.085561 0.046334 0.089239 -0.062225 0.055938 -0.091538 0.024172 -0.092128 0.098061 -0.089686 0.10162 0.096327 0.067577 -0.036681 0.059997 0.091526 -0.026307 0.013199 0.00059797 -0.12573 0.084596 0.0017906 0.0012398 0.012047 0.033431 0.10696 0.08199 0.029172 -0.073935 0.07363 -0.15742 -0.076771 0.10228 0.085245 0.065461 -0.095802 -0.031811 -0.083053 0.07385 -0.048124 -0.007937 0.00028853 -0.15382 0.018155 0.009228 -0.0041396 0.042782 0.087787 0.069048 0.017606 -0.11555 -0.095381 0.073563 0.0025779 0.024447 0.066759 0.040652 0.073694 -0.056859 -0.11863 -0.085317 0.12995 -0.13931 -0.044731 0.031876 -0.12136 -0.032024 -0.0027419 -0.03919 0.079179 -0.11234 -0.11942 0.13442 -0.056576 0.090237 -0.032761 -0.055924 -0.046578 0.095056 0.037616 0.087474 -0.054211 0.016661 0.042973 0.057269 0.0092731 -0.025192 0.14973 -0.0071534 0.12144 0.11502 0.13758 0.082232 -0.029674 0.010598 0.089625 -0.014387 0.082454 0.16848 0.12615 -0.041508 0.12277 -0.079195 0.020688 0.18177 -0.065978 0.033719 -0.06874 0.045512 -0.076352 -0.039723 -0.1042 0.0082773 -0.093053 0.10302 -0.019986 -0.044162 -0.014999 0.11542 -0.067563 0.16556 0.071581 -0.12879 -0.039619 0.035235 0.048453 0.074513 -0.14158 0.03182 -0.041961 -0.010249 0.06452 -0.021953 0.056465 0.11449 -0.008938 -0.03207 0.0093441 0.12058 0.14697 0.016442 -0.19231 -0.036666 -0.11317 0.067263 0.056283 -0.078801 0.0059491 0.017488 -0.039309 -0.0090831 -0.1254 -0.077632 0.01106 -0.055224 0.088111 -0.023642 0.041276 0.055933 0.029172 0.046708 -0.041841 -0.099973 -0.027348 -0.064851 -0.010218 0.079801 0.074297 0.022693 -0.17571 0.030344 0.040177 -0.068775 0.0018385 0.005056 0.041302 0.084009 -0.029702 0.15893 -0.014548 -0.11612 0.13022 -0.019299 -0.068581 0.11343 0.064807 -0.091291 0.00045878 0.12805 -0.09353 0.041521 0.036869 -0.055771 0.10354 0.012171 
<np> -0.096458 -0.061437 -0.043647 -0.14201 0.13786 0.04142 -0.091337 0.019336 -0.033173 -0.048643 -0.042968 0.049392 -0.0074769 0.037557 0.074054 0.0009408 0.096771 -0.047616 -0.052447 -0.088331 0.026602 -0.0031756 0.070585 0.12224 0.077656 0.052192 0.056985 0.099416 0.029033 0.0035439 -0.12051 -0.068433 0.0076873 -0.00041911 -0.087915 0.025967 0.023523 -0.066708 0.11903 0.029115 -0.052306 -0.074928 0.056474 0.054906 0.076787 -0.10432 0.010281 -0.045276 0.11605 -0.007504 -0.14035 0.031256 0.018857 -0.047726 0.066682 0.12724 -0.086864 0.08343 0.18397 0.012956 0.059091 -0.050576 0.075503 -0.12969 0.15141 -0.014088 -0.037953 0.099784 -0.048448 -0.17443 0.045886 0.036032 0.043318 -0.088799 -0.060943 0.12286 0.064213 -0.094269 0.05945 -0.020593 0.064825 0.090757 0.078154 -0.0326 -0.053355 0.14165 0.061176 0.00052319 0.067579 0.027624 -0.088457 0.013328 -0.023497 0.04146 0.061761 0.016653 -0.025179 0.020685 0.049472 0.036664 0.054843 0.056557 0.050259 0.058084 0.12049 0.087284 0.047045 0.092449 -0.06337 0.056896 -0.093789 0.024057 -0.09606 0.098154 -0.091203 0.10277 0.10057 0.068201 -0.037197 0.059892 0.094168 -0.027872 0.011183 0.0033803 -0.12704 0.087536 0.0020231 -0.00043038 0.015376 0.034443 0.11 0.082395 0.029239 -0.076333 0.074338 -0.16096 -0.075314 0.10417 0.081928 0.065309 -0.098206 -0.031314 -0.083611 0.074103 -0.050061 -0.0071899 -0.001708 -0.15755 0.017933 0.010634 -0.0064574 0.041735 0.086562 0.068708 0.016517 -0.11896 -0.094434 0.077366 0.0028015 0.026024 0.069397 0.037474 0.074562 -0.057978 -0.12128 -0.086469 0.13005 -0.14071 -0.04459 0.032229 -0.12391 -0.031863 -0.00073045 -0.041599 0.080751 -0.11466 -0.12077 0.13831 -0.058192 0.092537 -0.031943 -0.056513 -0.04766 0.09328 0.036142 0.090455 -0.051948 0.014717 0.04395 0.059704 0.010452 -0.025924 0.14884 -0.0088096 0.12384 0.11789 0.1395 0.084384 -0.027555 0.012448 0.091772 -0.014667 0.082579 0.17227 0.1231 -0.043069 0.12356 -0.081119 0.023323 0.18244 -0.067687 0.034853 -0.070197 0.044944 -0.079313 -0.038312 -0.10437 0.010734 -0.094827 0.10272 -0.02214 -0.043407 -0.013583 0.12002 -0.068744 0.17066 0.070412 -0.13163 -0.040685 0.033712 0.048587 0.075672 -0.14504 0.032089 -0.045186 -0.0085459 0.06431 -0.023885 0.057548 0.11651 -0.0098317 -0.032406 0.010921 0.12014 0.1506 0.017536 -0.19406 -0.035117 -0.11783 0.067735 0.05763 -0.079471 0.0048571 0.01587 -0.039451 -0.0078312 -0.12839 -0.07764 0.014037 -0.055502 0.090738 -0.025245 0.041468 0.05714 0.029855 0.048198 -0.042759 -0.098227 -0.025806 -0.065077 -0.0092837 0.081468 0.074893 0.024724 -0.18048 0.0318 0.042243 -0.067519 0.0029478 0.0057956 0.045269 0.08296 -0.029821 0.16264 -0.015985 -0.11675 0.13269 -0.018574 -0.070986 0.11356 0.066309 -0.09189 0.00089657 0.13196 -0.092826 0.041397 0.03807 -0.056178 0.10571 0.013536 
<adj> -0.094609 -0.06103 -0.043886 -0.13908 0.13214 0.039976 -0.089549 0.018142 -0.029867 -0.049435 -0.045543 0.04827 -0.0071404 0.037339 0.070889 0.00051251 0.095644 -0.046572 -0.053464 -0.086497 0.026168 -0.00052964 0.070586 0.11951 0.079025 0.051905 0.054268 0.098558 0.029616 0.0035715 -0.11935 -0.067048 0.0087753 -0.0016841 -0.088497 0.02554 0.023446 -0.062567 0.11604 0.029046 -0.051676 -0.074364 0.053062 0.055061 0.075877 -0.10398 0.009494 -0.046261 0.11506 -0.0073512 -0.13789 0.028784 0.018527 -0.046749 0.065328 0.12742 -0.086922 0.082183 0.18177 0.013877 0.058673 -0.050157 0.072528 -0.12897 0.14823 -0.012858 -0.037739 0.099996 -0.049273 -0.17054 0.044677 0.035838 0.042868 -0.087963 -0.058155 0.12118 0.064096 -0.092529 0.059911 -0.022533 0.063188 0.089442 0.07811 -0.029631 -0.05374 0.13889 0.058026 0.00050289 0.067444 0.027621 -0.085122 0.013043 -0.023979 0.040634 0.058606 0.015328 -0.027311 0.02167 0.050395 0.033451 0.055324 0.055111 0.049825 0.056828 0.11771 0.084284 0.045486 0.088284 -0.061646 0.056658 -0.090493 0.024198 -0.092713 0.096778 -0.088583 0.10131 0.097089 0.066264 -0.036024 0.060594 0.091179 -0.026458 0.01349 9.6239e-05 -0.12544 0.083838 0.00076585 0.0021922 0.014486 0.034544 0.10611 0.081797 0.028072 -0.073802 0.074354 -0.15727 -0.074939 0.10129 0.08265 0.063256 -0.097981 -0.03022 -0.083189 0.073125 -0.047964 -0.0070746 -0.00048016 -0.1533 0.017571 0.011139 -0.0038606 0.041052 0.085169 0.068968 0.018384 -0.11687 -0.095161 0.072748 0.0032506 0.024744 0.066134 0.04022 0.074462 -0.055647 -0.11779 -0.084628 0.12826 -0.1385 -0.044292 0.03073 -0.12139 -0.031576 -0.0021647 -0.038143 0.078619 -0.10983 -0.11938 0.13467 -0.056116 0.090909 -0.032446 -0.055829 -0.045513 0.092007 0.035536 0.088595 -0.053202 0.016647 0.042238 0.056281 0.0098292 -0.02559 0.14881 -0.0086174 0.12225 0.11583 0.13645 0.081741 -0.029339 0.013235 0.090684 -0.015995 0.080572 0.16775 0.1218 -0.042697 0.12248 -0.07894 0.022544 0.17942 -0.064833 0.03524 -0.068875 0.043123 -0.076421 -0.039195 -0.10312 0.0088263 -0.093867 0.10148 -0.020684 -0.043997 -0.014883 0.11798 -0.068539 0.16564 0.071919 -0.12892 -0.040451 0.034372 0.048488 0.072907 -0.1415 0.032053 -0.042649 -0.0083294 0.063252 -0.021817 0.057314 0.11475 -0.009398 -0.032288 0.01024 0.11978 0.14614 0.016941 -0.19057 -0.034146 -0.11272 0.06707 0.056025 -0.078638 0.0057068 0.017067 -0.038559 -0.0072187 -0.12633 -0.076492 0.011631 -0.054296 0.089745 -0.024119 0.041685 0.054448 0.029655 0.046087 -0.043041 -0.099458 -0.025009 -0.064716 -0.0088296 0.079606 0.073389 0.023769 -0.17422 0.031127 0.041359 -0.065734 0.0035665 0.0059842 0.043503 0.082913 -0.028327 0.15768 -0.013599 -0.11481 0.12928 -0.019182 -0.069963 0.11162 0.064153 -0.091532 0.0010971 0.13005 -0.092979 0.040697 0.037849 -0.05538 0.10374 0.012497 
<pri> -0.096387 -0.063565 -0.046825 -0.1437 0.13559 0.042776 -0.093177 0.018716 -0.030466 -0.051568 -0.045884 0.049114 -0.0062372 0.038494 0.072932 0.0013838 0.099315 -0.04934 -0.052538 -0.088775 0.025718 -5.6409e-05 0.07135 0.12394 0.080369 0.053579 0.055782 0.10097 0.031177 0.0031031 -0.1227 -0.069602 0.010231 -0.0013667 -0.089262 0.025664 0.024108 -0.06415 0.1188 0.029787 -0.053017 -0.075195 0.054715 0.055998 0.076758 -0.10638 0.0099622 -0.045802 0.11569 -0.0085273 -0.14002 0.029427 0.018097 -0.047343 0.06701 0.13007 -0.087868 0.083498 0.18536 0.014381 0.059396 -0.051115 0.076333 -0.13046 0.15238 -0.013165 -0.040626 0.10167 -0.05005 -0.17308 0.045719 0.035837 0.0432 -0.091245 -0.060891 0.12202 0.064922 -0.095793 0.060939 -0.021211 0.064345 0.092657 0.080007 -0.030958 -0.054759 0.14127 0.058394 -0.00030541 0.069353 0.028933 -0.087808 0.014082 -0.024057 0.041182 0.060433 0.015271 -0.027426 0.022467 0.051436 0.034986 0.055682 0.055803 0.051525 0.058042 0.11974 0.08624 0.047059 0.09008 -0.063256 0.056284 -0.093069 0.024676 -0.093844 0.099854 -0.090661 0.10325 0.09746 0.069332 -0.037213 0.060831 0.093243 -0.026663 0.014439 0.00043238 -0.12882 0.08663 0.0014419 0.0011605 0.013763 0.034518 0.10919 0.083005 0.030349 -0.074718 0.076125 -0.16009 -0.077456 0.10351 0.085187 0.066684 -0.097563 -0.031723 -0.085744 0.075763 -0.049038 -0.0071692 -0.00025786 -0.15575 0.018578 0.011253 -0.0034894 0.042458 0.088363 0.069139 0.017451 -0.11847 -0.096268 0.074306 0.0023782 0.025779 0.068302 0.041558 0.074398 -0.057995 -0.12046 -0.085863 0.13261 -0.14257 -0.044314 0.032458 -0.12312 -0.03298 -0.0026202 -0.03999 0.081426 -0.11376 -0.12081 0.13758 -0.057952 0.093396 -0.032597 -0.057155 -0.047372 0.095178 0.038888 0.089835 -0.054075 0.015772 0.043822 0.05756 0.0098366 -0.02635 0.15073 -0.0072481 0.12349 0.11636 0.13968 0.083057 -0.029534 0.012352 0.091651 -0.014507 0.083669 0.17145 0.12635 -0.041811 0.12587 -0.08117 0.022636 0.18472 -0.066735 0.035159 -0.06936 0.045897 -0.077559 -0.039994 -0.10557 0.0087467 -0.096032 0.10408 -0.020213 -0.045407 -0.015681 0.11934 -0.069994 0.16865 0.072649 -0.132 -0.03986 0.034311 0.04909 0.074302 -0.1444 0.032848 -0.043711 -0.010774 0.066707 -0.02331 0.057545 0.11736 -0.0092633 -0.031352 0.0102 0.12154 0.14901 0.016383 -0.19521 -0.036352 -0.11496 0.068566 0.058309 -0.078418 0.0072508 0.018604 -0.039732 -0.008732 -0.12765 -0.079456 0.011452 -0.056317 0.09109 -0.023755 0.042075 0.057028 0.028367 0.047917 -0.043067 -0.10059 -0.027681 -0.065157 -0.0089924 0.082818 0.075243 0.022951 -0.17886 0.03143 0.040696 -0.06889 0.0021059 0.0049634 0.042783 0.085068 -0.029267 0.16207 -0.013881 -0.11803 0.13174 -0.01936 -0.070472 0.11438 0.065845 -0.093428 0.0011854 0.13095 -0.094732 0.041433 0.038014 -0.05476 0.10658 0.012446 
<p1> -0.096226 -0.062784 -0.045885 -0.14003 0.13239 0.042102 -0.089626 0.017204 -0.029834 -0.051235 -0.043262 0.047914 -0.0064607 0.037577 0.071197 0.0014925 0.09598 -0.048587 -0.050836 -0.086691 0.025473 -0.0010034 0.070654 0.12148 0.078112 0.052378 0.055144 0.097627 0.03076 0.0027631 -0.11915 -0.067334 0.010463 -0.0019799 -0.086897 0.024645 0.023009 -0.061923 0.11572 0.029192 -0.051693 -0.074145 0.054533 0.055161 0.074826 -0.10269 0.0098193 -0.04408 0.11267 -0.0078063 -0.13577 0.029605 0.016068 -0.04504 0.064229 0.12679 -0.085428 0.081798 0.18028 0.014814 0.056441 -0.050403 0.073839 -0.12807 0.14632 -0.013631 -0.039957 0.099312 -0.048929 -0.16751 0.045292 0.035198 0.042505 -0.087658 -0.06019 0.11744 0.06413 -0.092624 0.060072 -0.019557 0.063069 0.090576 0.075974 -0.030576 -0.054664 0.13795 0.05813 -0.00021124 0.06724 0.028066 -0.086148 0.014493 -0.023372 0.039686 0.059041 0.014418 -0.025125 0.02118 0.049808 0.034374 0.05501 0.054659 0.049945 0.056641 0.11811 0.084901 0.04509 0.087581 -0.062026 0.054021 -0.091962 0.024952 -0.091465 0.097334 -0.087335 0.10108 0.096585 0.06771 -0.037457 0.058366 0.090797 -0.025185 0.013097 0.0014959 -0.12442 0.084559 0.0025647 0.00066 0.012743 0.033571 0.10669 0.081361 0.029206 -0.072821 0.074284 -0.15646 -0.074346 0.099964 0.083384 0.066107 -0.094975 -0.03065 -0.083443 0.074748 -0.048248 -0.0071763 -0.00092873 -0.15171 0.017704 0.01008 -0.0038612 0.042558 0.086721 0.067118 0.016276 -0.1144 -0.092355 0.073699 0.001566 0.024709 0.065867 0.038841 0.073242 -0.056673 -0.1166 -0.085294 0.12886 -0.13797 -0.043969 0.031941 -0.11997 -0.032693 -0.0023057 -0.040583 0.079483 -0.11115 -0.11695 0.13368 -0.056507 0.090499 -0.032101 -0.056805 -0.046388 0.094871 0.036948 0.086908 -0.052254 0.014444 0.043396 0.055909 0.0087361 -0.026105 0.1482 -0.0060526 0.11987 0.11243 0.13705 0.08098 -0.02866 0.011604 0.089305 -0.013589 0.080756 0.16655 0.1245 -0.040995 0.12213 -0.078634 0.020987 0.17999 -0.063719 0.033755 -0.067003 0.046066 -0.075133 -0.040037 -0.10226 0.0079363 -0.093721 0.10106 -0.019248 -0.044471 -0.014401 0.11548 -0.066212 0.16555 0.069853 -0.12885 -0.038822 0.033842 0.046852 0.072567 -0.13968 0.0309 -0.041102 -0.011156 0.065382 -0.023327 0.05566 0.11323 -0.0098887 -0.031162 0.0095817 0.11784 0.14551 0.01549 -0.19138 -0.037043 -0.11195 0.067312 0.056503 -0.076941 0.0074927 0.017878 -0.038124 -0.0094591 -0.12432 -0.077301 0.011036 -0.055645 0.087584 -0.023358 0.040245 0.056215 0.027216 0.047285 -0.040865 -0.098222 -0.027236 -0.063173 -0.0094332 0.08014 0.072261 0.022997 -0.17292 0.030539 0.04004 -0.067397 0.0018746 0.0063475 0.041493 0.082935 -0.029404 0.15699 -0.013339 -0.1158 0.12948 -0.018302 -0.068061 0.11202 0.064083 -0.090946 0.0014988 0.12594 -0.093572 0.040919 0.036035 -0.054507 0.10448 0.013069 
<iv> -0.097063 -0.062555 -0.046319 -0.14188 0.1378 0.042414 -0.092648 0.018465 -0.032581 -0.050672 -0.045184 0.04937 -0.0066972 0.038043 0.071818 0.001476 0.099015 -0.050755 -0.051485 -0.089656 0.027117 -0.0020369 0.069759 0.12306 0.078284 0.052304 0.057095 0.10077 0.02952 0.003591 -0.12208 -0.068994 0.010699 -0.0011301 -0.08933 0.025338 0.023414 -0.065142 0.11812 0.028867 -0.053366 -0.076606 0.056263 0.056723 0.077584 -0.10468 0.0098946 -0.046085 0.11657 -0.0080036 -0.14111 0.029987 0.017217 -0.047686 0.066546 0.12967 -0.088393 0.083954 0.18674 0.015362 0.058961 -0.050471 0.075409 -0.13205 0.15082 -0.01201 -0.039153 0.10123 -0.050377 -0.17412 0.04598 0.037609 0.043174 -0.089958 -0.061964 0.1241 0.065003 -0.094272 0.061589 -0.020268 0.064585 0.092212 0.078761 -0.031352 -0.05479 0.14301 0.060949 -0.0012704 0.068789 0.027852 -0.08831 0.013329 -0.02336 0.040219 0.061748 0.013869 -0.026697 0.021679 0.051138 0.036627 0.057886 0.057395 0.050292 0.058867 0.12053 0.087236 0.046649 0.090201 -0.063279 0.05678 -0.092632 0.02569 -0.096187 0.099477 -0.092269 0.10248 0.099969 0.068727 -0.036409 0.059288 0.095505 -0.026406 0.01254 0.0016866 -0.12872 0.086438 0.0031464 0.00099268 0.013445 0.03389 0.1092 0.083397 0.029366 -0.074954 0.076253 -0.161 -0.076274 0.10386 0.085272 0.065795 -0.098603 -0.030387 -0.085044 0.075717 -0.049105 -0.0073399 -0.00076007 -0.15688 0.017719 0.011942 -0.0046185 0.041001 0.088749 0.071079 0.017119 -0.1177 -0.095128 0.07447 0.0023979 0.024901 0.069289 0.039733 0.076342 -0.0573 -0.12061 -0.086593 0.13192 -0.14131 -0.046779 0.033208 -0.1235 -0.032378 -0.0027571 -0.040864 0.080831 -0.11379 -0.12186 0.13771 -0.057562 0.094203 -0.032933 -0.057098 -0.048024 0.094568 0.038481 0.089127 -0.053155 0.016026 0.045301 0.060422 0.010134 -0.025931 0.15142 -0.0093935 0.12351 0.11726 0.13861 0.084496 -0.029862 0.012656 0.09229 -0.013608 0.082591 0.1719 0.12629 -0.042551 0.12419 -0.080939 0.02276 0.18437 -0.067504 0.03405 -0.069814 0.045552 -0.077684 -0.039594 -0.10433 0.0084461 -0.093954 0.10382 -0.020839 -0.043695 -0.014704 0.11884 -0.067719 0.16928 0.071623 -0.13047 -0.038352 0.033616 0.049143 0.075444 -0.14289 0.033872 -0.044249 -0.0095222 0.06742 -0.021798 0.057884 0.11682 -0.0097021 -0.033118 0.011251 0.12164 0.15054 0.016865 -0.19536 -0.036683 -0.11605 0.068541 0.056981 -0.079629 0.0060331 0.017702 -0.041471 -0.0083977 -0.12757 -0.078649 0.012296 -0.05647 0.091212 -0.024207 0.042961 0.05679 0.029048 0.047711 -0.042358 -0.099768 -0.026528 -0.065979 -0.01182 0.082997 0.073788 0.022998 -0.18035 0.030819 0.041209 -0.067485 0.0015917 0.0060712 0.043602 0.084378 -0.029787 0.16194 -0.014238 -0.11727 0.13394 -0.02 -0.07206 0.11471 0.066903 -0.094127 -0.00053385 0.13204 -0.094666 0.042247 0.038302 -0.0584 0.10651 0.013282 
<post> -0.095812 -0.062291 -0.045674 -0.14102 0.13402 0.041617 -0.090565 0.019309 -0.030147 -0.050595 -0.045413 0.048286 -0.0070953 0.03754 0.071783 0.00078481 0.096907 -0.047584 -0.051663 -0.087225 0.025668 -0.00037105 0.069666 0.12051 0.078677 0.052115 0.055453 0.098978 0.029718 0.0035211 -0.12089 -0.068521 0.008937 -0.00091163 -0.088377 0.024934 0.023565 -0.062589 0.11697 0.029611 -0.051987 -0.074944 0.054529 0.055333 0.074782 -0.10422 0.0094321 -0.045762 0.11489 -0.0072369 -0.13767 0.029711 0.018486 -0.046149 0.065124 0.12792 -0.086698 0.082544 0.18072 0.013371 0.05799 -0.049919 0.074422 -0.1293 0.1477 -0.012816 -0.039385 0.10002 -0.049469 -0.17055 0.046069 0.034998 0.041913 -0.088097 -0.059476 0.1201 0.064057 -0.093017 0.06055 -0.021107 0.063757 0.090144 0.078835 -0.031396 -0.054491 0.13977 0.057133 0.00048583 0.067143 0.027151 -0.086741 0.013756 -0.024272 0.040355 0.060304 0.015859 -0.025965 0.021847 0.050533 0.033774 0.054426 0.055351 0.050551 0.05619 0.11832 0.085712 0.046339 0.08848 -0.062095 0.056281 -0.091761 0.024356 -0.092425 0.097574 -0.089317 0.10095 0.096236 0.066824 -0.036235 0.059713 0.092148 -0.02665 0.013245 0.0013058 -0.12549 0.083585 0.0016676 0.0013368 0.012569 0.034081 0.1069 0.082103 0.029473 -0.073563 0.074574 -0.15777 -0.076305 0.1021 0.084597 0.063724 -0.095889 -0.031828 -0.083482 0.073659 -0.04812 -0.0066814 -0.00078649 -0.15307 0.01882 0.009877 -0.0041884 0.041861 0.086659 0.067872 0.017805 -0.11626 -0.094629 0.074455 0.0038754 0.02526 0.066112 0.040072 0.074836 -0.056611 -0.11823 -0.084986 0.1287 -0.13871 -0.044921 0.031375 -0.12089 -0.031663 -0.0012918 -0.03906 0.078538 -0.11118 -0.11899 0.13503 -0.056652 0.090607 -0.032343 -0.05644 -0.04624 0.094165 0.03793 0.087608 -0.053292 0.016166 0.042511 0.057963 0.0093061 -0.025776 0.14875 -0.0074843 0.12206 0.11455 0.13726 0.082293 -0.029756 0.011452 0.089758 -0.014061 0.080501 0.16779 0.12415 -0.04128 0.12246 -0.07976 0.022033 0.18008 -0.065631 0.034674 -0.067559 0.043959 -0.076627 -0.039462 -0.10327 0.0081006 -0.093747 0.10217 -0.019991 -0.043722 -0.014914 0.11673 -0.067565 0.16559 0.071069 -0.12913 -0.040766 0.034348 0.048547 0.074335 -0.14081 0.033556 -0.042507 -0.008544 0.065135 -0.022326 0.055977 0.11517 -0.0090009 -0.031121 0.01001 0.12036 0.14659 0.015843 -0.19141 -0.035375 -0.1134 0.066294 0.055674 -0.07869 0.0062236 0.016683 -0.039304 -0.0073674 -0.12664 -0.077962 0.011328 -0.054235 0.088962 -0.023605 0.041081 0.055888 0.029161 0.047586 -0.041707 -0.099318 -0.026289 -0.063599 -0.0093904 0.080489 0.07382 0.024071 -0.17587 0.030086 0.040712 -0.066398 0.0022034 0.0061702 0.042345 0.083213 -0.028619 0.1583 -0.014113 -0.11595 0.13027 -0.01849 -0.069513 0.11244 0.065441 -0.091439 0.0011882 0.12879 -0.093283 0.041697 0.037525 -0.054807 0.10376 0.012325 
<cnjcoo> -0.098907 -0.063727 -0.045937 -0.14561 0.13996 0.043323 -0.094555 0.019509 -0.03252 -0.051919 -0.046204 0.050723 -0.0079464 0.039538 0.073546 0.00064564 0.1009 -0.049756 -0.053141 -0.090603 0.026915 -0.00086287 0.073224 0.12617 0.081151 0.05392 0.057753 0.10246 0.03062 0.0034148 -0.12483 -0.069989 0.010302 -0.0014456 -0.091161 0.025855 0.024479 -0.065564 0.12029 0.030448 -0.053137 -0.07772 0.056905 0.056937 0.078996 -0.10736 0.0097044 -0.047803 0.11967 -0.0081196 -0.14304 0.030373 0.018953 -0.048808 0.067463 0.13321 -0.09015 0.085907 0.18947 0.014337 0.06105 -0.051772 0.077525 -0.13436 0.15406 -0.01404 -0.039481 0.10297 -0.051576 -0.17747 0.047175 0.036954 0.043622 -0.091556 -0.061854 0.12628 0.065959 -0.095979 0.062339 -0.021068 0.065367 0.094748 0.080996 -0.031075 -0.056719 0.14514 0.060889 -0.00048171 0.070078 0.028018 -0.089035 0.014004 -0.024722 0.041459 0.062866 0.015198 -0.027561 0.022978 0.051746 0.035934 0.057552 0.057976 0.051613 0.05964 0.12297 0.089614 0.048029 0.09347 -0.064628 0.058866 -0.095247 0.025204 -0.097251 0.10088 -0.092475 0.10498 0.10035 0.069995 -0.037665 0.061466 0.095614 -0.026895 0.013772 0.00020159 -0.1298 0.087977 0.00164 0.0014239 0.013548 0.034797 0.111 0.085246 0.030168 -0.075879 0.077523 -0.16434 -0.078356 0.10595 0.086626 0.067204 -0.10111 -0.032455 -0.086346 0.076589 -0.0503 -0.0081757 -0.00053151 -0.15925 0.018065 0.011529 -0.0043207 0.043354 0.090228 0.071695 0.017524 -0.12048 -0.097711 0.076493 0.0027298 0.025994 0.070719 0.041291 0.077444 -0.059141 -0.12281 -0.087772 0.13419 -0.14502 -0.046208 0.033117 -0.12675 -0.032668 -0.0023673 -0.041093 0.081737 -0.11669 -0.1242 0.14005 -0.057629 0.095204 -0.033683 -0.058519 -0.048601 0.096122 0.038916 0.091663 -0.055262 0.017159 0.044883 0.06033 0.010269 -0.026272 0.15451 -0.0084682 0.12685 0.11983 0.14241 0.086418 -0.031022 0.013108 0.093706 -0.015106 0.084847 0.1749 0.12904 -0.043013 0.12666 -0.081767 0.023385 0.18837 -0.069172 0.035512 -0.070985 0.045748 -0.080218 -0.040212 -0.10779 0.010192 -0.097526 0.10656 -0.02194 -0.045234 -0.015593 0.12124 -0.069943 0.17224 0.07368 -0.13347 -0.040826 0.034655 0.050298 0.077141 -0.14736 0.033826 -0.045267 -0.0094256 0.066823 -0.022567 0.059736 0.11878 -0.0095026 -0.032577 0.010457 0.12475 0.15338 0.017328 -0.19876 -0.037316 -0.11845 0.069118 0.058316 -0.081324 0.0063837 0.016833 -0.041249 -0.0083297 -0.13043 -0.079913 0.011855 -0.056994 0.093191 -0.024903 0.043381 0.057826 0.030255 0.048893 -0.043306 -0.10253 -0.02687 -0.0663 -0.010415 0.083496 0.076975 0.023283 -0.1828 0.030581 0.042335 -0.06941 0.0027364 0.005593 0.044665 0.086344 -0.029724 0.16424 -0.015225 -0.12036 0.13476 -0.019768 -0.072534 0.11792 0.067975 -0.094914 0.00062072 0.13449 -0.096544 0.042799 0.039134 -0.057807 0.10835 0.014228 
<pst> -0.095474 -0.061951 -0.045192 -0.14131 0.1333 0.042503 -0.090567 0.018783 -0.029637 -0.05026 -0.044721 0.049098 -0.006299 0.038309 0.072232 0.0012174 0.097069 -0.048868 -0.051099 -0.087993 0.025556 -0.00051945 0.071657 0.12094 0.077907 0.05223 0.054052 0.099231 0.029499 0.0039161 -0.12019 -0.0678 0.0094681 -0.0011558 -0.089205 0.025154 0.023535 -0.062405 0.11661 0.028898 -0.051128 -0.074478 0.054153 0.055153 0.076275 -0.10391 0.010427 -0.044959 0.11473 -0.0077204 -0.13721 0.028115 0.01824 -0.045837 0.065698 0.1284 -0.086231 0.082335 0.18244 0.014128 0.058606 -0.049988 0.074553 -0.12932 0.14758 -0.013629 -0.039036 0.10029 -0.050247 -0.17059 0.045162 0.035162 0.040829 -0.086902 -0.059981 0.12055 0.063879 -0.093257 0.060821 -0.02149 0.063931 0.091441 0.078682 -0.030469 -0.054919 0.1386 0.057621 -0.00071131 0.067366 0.02802 -0.086567 0.013085 -0.024608 0.038491 0.060853 0.01556 -0.026845 0.02156 0.049302 0.033564 0.055296 0.055016 0.051105 0.057488 0.11893 0.084804 0.045628 0.08785 -0.06144 0.056015 -0.092069 0.024191 -0.092319 0.098418 -0.088697 0.10137 0.096721 0.067844 -0.037142 0.059497 0.090156 -0.026293 0.013573 0.00043002 -0.12543 0.084816 0.00069272 0.0015399 0.011741 0.032524 0.10778 0.081355 0.028846 -0.075065 0.074161 -0.15768 -0.075208 0.10185 0.085159 0.064341 -0.096845 -0.032728 -0.084266 0.073834 -0.047411 -0.0073708 0.00015596 -0.15345 0.019167 0.0098943 -0.002654 0.043037 0.086984 0.067722 0.016489 -0.11696 -0.094392 0.072387 0.0024118 0.025065 0.06682 0.041445 0.073572 -0.05554 -0.11896 -0.085272 0.12939 -0.13937 -0.044493 0.030948 -0.12043 -0.031423 -0.0026433 -0.03916 0.078614 -0.11155 -0.11876 0.13444 -0.056606 0.090648 -0.032112 -0.056123 -0.045409 0.094695 0.038183 0.087144 -0.053144 0.016459 0.042056 0.05771 0.0096452 -0.025456 0.14973 -0.0067119 0.12172 0.1146 0.13802 0.081369 -0.029714 0.01116 0.08939 -0.013625 0.081595 0.16778 0.12513 -0.040821 0.12266 -0.079559 0.021249 0.18009 -0.065178 0.034529 -0.067738 0.044648 -0.076005 -0.039392 -0.10295 0.0084517 -0.094039 0.10261 -0.019541 -0.043387 -0.01502 0.11543 -0.067214 0.16539 0.071886 -0.12883 -0.039458 0.03416 0.048073 0.073418 -0.14042 0.03287 -0.0416 -0.0096094 0.063812 -0.023622 0.056625 0.11492 -0.0090256 -0.031352 0.0098774 0.11924 0.14663 0.017441 -0.19055 -0.036118 -0.11299 0.066694 0.056881 -0.078789 0.0062662 0.016787 -0.039234 -0.0091036 -0.1263 -0.07783 0.0112 -0.05376 0.088539 -0.022982 0.04097 0.055511 0.028065 0.046807 -0.041796 -0.099411 -0.026583 -0.062952 -0.0090212 0.07991 0.074261 0.023927 -0.17458 0.03001 0.039779 -0.067177 0.0017592 0.0061256 0.041819 0.084128 -0.02844 0.15846 -0.014189 -0.11577 0.13072 -0.020002 -0.068341 0.11254 0.065197 -0.092126 0.0013944 0.12894 -0.093222 0.041492 0.037205 -0.054639 0.10394 0.012399 
<sp> -0.09676 -0.062681 -0.045211 -0.14179 0.13541 0.042367 -0.091973 0.019 -0.031103 -0.051926 -0.044012 0.048617 -0.0072047 0.037966 0.071276 0.00080021 0.097937 -0.049412 -0.051596 -0.088359 0.025531 -0.0011804 0.070971 0.12283 0.079092 0.051876 0.05641 0.099443 0.030111 0.0031518 -0.12107 -0.068306 0.0090915 -0.0013258 -0.088891 0.024294 0.023332 -0.064023 0.11855 0.029876 -0.052384 -0.075557 0.054091 0.055875 0.07638 -0.10534 0.010235 -0.045643 0.11625 -0.0067165 -0.13909 0.030381 0.018942 -0.045918 0.06491 0.12732 -0.086575 0.082887 0.18413 0.013239 0.058744 -0.050816 0.075342 -0.13002 0.15027 -0.013037 -0.038962 0.10194 -0.049491 -0.17184 0.044911 0.035881 0.043074 -0.090065 -0.061116 0.12249 0.064859 -0.095758 0.061589 -0.019252 0.063779 0.089878 0.078858 -0.032168 -0.054632 0.14219 0.058636 0.0011411 0.069411 0.028811 -0.087028 0.014313 -0.024436 0.041605 0.060908 0.015708 -0.026211 0.022243 0.050505 0.035228 0.055684 0.05547 0.050226 0.057491 0.11916 0.087595 0.047117 0.091155 -0.063391 0.057654 -0.094179 0.024603 -0.094349 0.099447 -0.090274 0.10201 0.098336 0.068461 -0.036664 0.05929 0.09306 -0.027386 0.01228 0.0012164 -0.12764 0.087063 0.0017221 0.00064093 0.012729 0.034022 0.10744 0.082759 0.028168 -0.07517 0.07443 -0.15967 -0.076327 0.10124 0.084272 0.06602 -0.097836 -0.031329 -0.083224 0.075635 -0.048362 -0.0071182 -0.0012352 -0.15549 0.017851 0.010787 -0.0036281 0.042833 0.087599 0.068931 0.016195 -0.11774 -0.095396 0.07475 0.0037803 0.025469 0.068495 0.040144 0.074741 -0.056895 -0.12005 -0.08749 0.13042 -0.13983 -0.045402 0.03165 -0.12421 -0.032482 -0.00089788 -0.041179 0.082141 -0.11352 -0.12066 0.13638 -0.05767 0.091802 -0.032366 -0.05628 -0.048362 0.095718 0.03653 0.089949 -0.054693 0.015855 0.044847 0.058343 0.010197 -0.02611 0.14991 -0.0076775 0.12336 0.1164 0.13971 0.082661 -0.030567 0.011882 0.092518 -0.0137 0.082759 0.1708 0.12521 -0.04131 0.12421 -0.080394 0.023618 0.18299 -0.06643 0.034594 -0.070534 0.04612 -0.077108 -0.039853 -0.10441 0.010631 -0.096517 0.10323 -0.02022 -0.045028 -0.01478 0.11775 -0.066986 0.1691 0.073094 -0.13206 -0.039113 0.034224 0.049063 0.073828 -0.14242 0.032315 -0.043356 -0.0090524 0.067056 -0.021986 0.056714 0.11603 -0.0089941 -0.031792 0.011602 0.12096 0.14886 0.017318 -0.19374 -0.035369 -0.11536 0.068875 0.05739 -0.079681 0.0059548 0.017104 -0.038249 -0.0086202 -0.12743 -0.077869 0.011501 -0.057449 0.090437 -0.024611 0.042169 0.056839 0.028006 0.048297 -0.041734 -0.10119 -0.026759 -0.066652 -0.0095929 0.080899 0.075348 0.023047 -0.17879 0.031591 0.04121 -0.069301 0.0024168 0.0066531 0.043619 0.084081 -0.029531 0.15998 -0.014379 -0.11859 0.13219 -0.018617 -0.070538 0.11323 0.065304 -0.092715 0.0014398 0.13131 -0.093725 0.041378 0.037957 -0.055639 0.10467 0.011818 
<dem> -0.097641 -0.06228 -0.04617 -0.14139 0.13403 0.041215 -0.092021 0.018012 -0.030713 -0.05026 -0.044015 0.047841 -0.0070927 0.038138 0.072282 0.0011647 0.097622 -0.049337 -0.051706 -0.089029 0.026277 -0.0004458 0.071326 0.12206 0.079714 0.051836 0.056566 0.10042 0.029503 0.0032524 -0.12075 -0.068144 0.0098285 -0.0016876 -0.088695 0.02467 0.024548 -0.065211 0.11844 0.029314 -0.053665 -0.074761 0.053925 0.055819 0.073925 -0.10579 0.0095989 -0.045625 0.11515 -0.0087552 -0.13842 0.029117 0.017622 -0.045936 0.066019 0.12826 -0.087018 0.084334 0.18251 0.01397 0.059194 -0.050034 0.075492 -0.12895 0.14979 -0.01351 -0.037776 0.10048 -0.049953 -0.17187 0.045746 0.036435 0.042814 -0.088978 -0.061112 0.12199 0.065188 -0.093754 0.059335 -0.01996 0.063166 0.091533 0.077153 -0.031577 -0.053 0.13993 0.058845 -0.00068239 0.067764 0.028749 -0.087909 0.012762 -0.024098 0.041551 0.060154 0.01589 -0.026527 0.022539 0.051138 0.034871 0.05493 0.056472 0.050592 0.057711 0.12014 0.08581 0.046698 0.090072 -0.062537 0.05697 -0.093661 0.02469 -0.093253 0.097529 -0.090847 0.10139 0.098036 0.067485 -0.03661 0.059881 0.092798 -0.026429 0.012722 0.00090627 -0.12665 0.084498 0.001613 0.00040144 0.012908 0.034232 0.10762 0.08199 0.028981 -0.074107 0.074547 -0.1581 -0.076616 0.10294 0.084418 0.064753 -0.098216 -0.032159 -0.08412 0.075224 -0.049391 -0.007152 -0.0012235 -0.15379 0.016683 0.011601 -0.0034587 0.043354 0.08728 0.06754 0.016966 -0.1173 -0.094581 0.074119 0.0021789 0.025512 0.067708 0.039751 0.073684 -0.055145 -0.1188 -0.084724 0.12982 -0.13948 -0.045201 0.033173 -0.12239 -0.032042 -0.0015861 -0.039786 0.080354 -0.11285 -0.11981 0.13589 -0.056618 0.092871 -0.032358 -0.055492 -0.047002 0.092125 0.037699 0.089253 -0.05376 0.015631 0.043776 0.058405 0.0079954 -0.025041 0.15009 -0.0074331 0.12129 0.11587 0.13873 0.082331 -0.029384 0.012053 0.090957 -0.01556 0.082125 0.17009 0.12293 -0.041809 0.12321 -0.07979 0.02249 0.18177 -0.066029 0.034832 -0.068315 0.044572 -0.077368 -0.038682 -0.10379 0.010365 -0.094487 0.10265 -0.019592 -0.044467 -0.014976 0.11802 -0.067744 0.16758 0.070968 -0.12963 -0.039962 0.03405 0.048111 0.073762 -0.14288 0.033235 -0.043492 -0.0094902 0.0652 -0.023119 0.056747 0.11496 -0.0097383 -0.030352 0.0097936 0.1205 0.1485 0.016789 -0.19352 -0.036973 -0.11395 0.066987 0.056989 -0.078777 0.0068145 0.017505 -0.03852 -0.0080191 -0.1266 -0.077859 0.011954 -0.055706 0.089712 -0.024323 0.041299 0.057116 0.02994 0.047183 -0.041802 -0.10033 -0.025265 -0.064372 -0.0095891 0.080919 0.073703 0.023946 -0.17745 0.030987 0.039728 -0.066286 0.001131 0.0053409 0.044377 0.083701 -0.028477 0.16022 -0.014833 -0.11556 0.13157 -0.019695 -0.070051 0.1129 0.065913 -0.092392 0.00089766 0.12911 -0.09351 0.042407 0.036778 -0.055302 0.10531 0.012512 
<cm> -0.096762 -0.062811 -0.044666 -0.1416 0.13561 0.041982 -0.091981 0.019195 -0.032268 -0.049726 -0.042547 0.048797 -0.0077347 0.038568 0.072925 0.0023473 0.09718 -0.049286 -0.052392 -0.088606 0.026336 -0.00023727 0.070959 0.12207 0.077795 0.051838 0.055739 0.10012 0.029172 0.0042351 -0.1202 -0.067606 0.0092621 -0.0020131 -0.088874 0.025244 0.024344 -0.064492 0.11832 0.029183 -0.052903 -0.074641 0.055338 0.053926 0.074701 -0.1051 0.0096666 -0.046468 0.11537 -0.0078326 -0.1384 0.030982 0.017264 -0.04691 0.066188 0.1283 -0.087729 0.083026 0.18271 0.013648 0.059108 -0.050126 0.074261 -0.12939 0.14951 -0.013125 -0.037559 0.1009 -0.049862 -0.17209 0.045152 0.035797 0.042873 -0.088714 -0.061811 0.12138 0.062811 -0.094212 0.060301 -0.021033 0.063122 0.091168 0.077888 -0.031578 -0.053559 0.1405 0.058266 -0.00019459 0.066996 0.028173 -0.086726 0.013185 -0.024711 0.041253 0.060045 0.014834 -0.026349 0.021751 0.050465 0.036647 0.05523 0.055309 0.049698 0.057009 0.11904 0.08597 0.046348 0.089363 -0.062505 0.057433 -0.092705 0.024871 -0.093284 0.09713 -0.089514 0.1008 0.098107 0.068077 -0.036612 0.059747 0.093952 -0.026891 0.011414 0.001275 -0.1256 0.084733 0.0021782 0.0021095 0.013425 0.03424 0.1081 0.082891 0.028631 -0.074116 0.074377 -0.15925 -0.075459 0.10278 0.084327 0.065051 -0.097864 -0.031481 -0.083247 0.074167 -0.049478 -0.0061737 -0.00032832 -0.15352 0.016506 0.011329 -0.0039798 0.04076 0.086276 0.069073 0.017409 -0.11745 -0.092615 0.075084 0.0027325 0.025702 0.067673 0.039386 0.074365 -0.05669 -0.11909 -0.085141 0.12851 -0.13948 -0.04549 0.032793 -0.12211 -0.032472 -0.001028 -0.040202 0.079909 -0.11337 -0.11936 0.1358 -0.056136 0.090987 -0.032762 -0.055719 -0.04706 0.091881 0.036971 0.088619 -0.05209 0.01616 0.043644 0.057923 0.008642 -0.026248 0.14928 -0.0081969 0.12298 0.11597 0.13852 0.083557 -0.029872 0.01293 0.091294 -0.01392 0.081962 0.17071 0.12253 -0.041952 0.12276 -0.078927 0.022297 0.18188 -0.065589 0.033771 -0.069117 0.044782 -0.077896 -0.038653 -0.10371 0.009969 -0.092837 0.10308 -0.020665 -0.043454 -0.013611 0.11773 -0.067777 0.16736 0.071124 -0.12831 -0.039742 0.034087 0.048846 0.073957 -0.1421 0.031608 -0.043589 -0.009873 0.065082 -0.022509 0.055822 0.11515 -0.0090079 -0.031673 0.010319 0.11955 0.14899 0.017276 -0.19253 -0.03651 -0.11452 0.066962 0.055144 -0.078633 0.0051454 0.016157 -0.040263 -0.0070413 -0.12794 -0.076281 0.012919 -0.055559 0.090116 -0.024906 0.042434 0.057459 0.030986 0.04746 -0.04159 -0.099726 -0.025589 -0.064515 -0.010432 0.080445 0.073032 0.023688 -0.17661 0.029447 0.041034 -0.06627 0.0019874 0.0061874 0.043865 0.083629 -0.029223 0.15957 -0.015458 -0.11721 0.13174 -0.019208 -0.07012 0.11254 0.065892 -0.092839 0.00040863 0.12894 -0.093043 0.042186 0.03754 -0.056319 0.10483 0.013555 
<vbcop> -0.096398 -0.06247 -0.044278 -0.14151 0.13473 0.040858 -0.091972 0.019662 -0.030853 -0.050826 -0.045171 0.048757 -0.0070653 0.038121 0.072165 3.2944e-05 0.09767 -0.047433 -0.052129 -0.086633 0.02524 -0.0011194 0.069897 0.12187 0.077858 0.052522 0.055526 0.099275 0.030822 0.0036555 -0.12121 -0.068336 0.0094324 -0.0015573 -0.089746 0.02553 0.024275 -0.063975 0.11805 0.029183 -0.052249 -0.074739 0.055118 0.055739 0.076645 -0.1042 0.010226 -0.046002 0.11623 -0.0066592 -0.13972 0.030195 0.019456 -0.047644 0.065119 0.12822 -0.088222 0.082667 0.18312 0.013148 0.059449 -0.050479 0.074889 -0.13043 0.14961 -0.013372 -0.038521 0.10098 -0.049394 -0.17196 0.047001 0.035876 0.042902 -0.090259 -0.060337 0.12282 0.064395 -0.093544 0.060648 -0.021756 0.063636 0.091143 0.078509 -0.031045 -0.054696 0.14147 0.059094 6.8267e-05 0.067987 0.027644 -0.087667 0.01368 -0.024215 0.040895 0.060359 0.015411 -0.025586 0.021885 0.050456 0.034942 0.055748 0.055847 0.050564 0.057305 0.11995 0.086517 0.046907 0.090035 -0.062883 0.057104 -0.092243 0.023589 -0.093489 0.098457 -0.089204 0.10203 0.098438 0.068083 -0.037569 0.059914 0.092417 -0.027711 0.013757 0.0017364 -0.12747 0.086134 0.0007965 0.0013736 0.014001 0.035197 0.10749 0.083178 0.029782 -0.074762 0.075101 -0.15969 -0.075699 0.10246 0.083778 0.064918 -0.097682 -0.03086 -0.08239 0.073138 -0.049219 -0.0081013 0.00018565 -0.1549 0.017568 0.010313 -0.0051228 0.042137 0.087344 0.068836 0.017688 -0.11737 -0.095385 0.07444 0.0033211 0.025365 0.068357 0.038728 0.0749 -0.057273 -0.11936 -0.08559 0.12984 -0.14026 -0.045318 0.031232 -0.12255 -0.031233 -0.0026324 -0.040333 0.079901 -0.1131 -0.12062 0.13635 -0.056634 0.091814 -0.032283 -0.056969 -0.047071 0.094406 0.037377 0.089775 -0.053986 0.015932 0.043293 0.058994 0.010629 -0.026305 0.14921 -0.0089539 0.12271 0.11663 0.1382 0.083571 -0.030596 0.013019 0.0911 -0.014293 0.081388 0.1702 0.12415 -0.041078 0.1235 -0.079814 0.022796 0.18181 -0.066874 0.035583 -0.068718 0.043958 -0.077741 -0.039145 -0.10502 0.0094403 -0.094522 0.10384 -0.021986 -0.044418 -0.014983 0.11854 -0.067376 0.16827 0.072753 -0.13068 -0.03934 0.033891 0.048441 0.074944 -0.14246 0.033276 -0.043785 -0.0080072 0.064869 -0.021643 0.057382 0.11595 -0.010661 -0.031231 0.010837 0.12044 0.14819 0.016412 -0.19263 -0.035954 -0.11502 0.067399 0.056287 -0.079573 0.0059277 0.017084 -0.04033 -0.0071548 -0.12702 -0.077392 0.011978 -0.055518 0.090369 -0.025104 0.042561 0.056139 0.029301 0.047861 -0.042495 -0.099418 -0.025808 -0.063958 -0.0093521 0.08159 0.073979 0.023711 -0.1784 0.031168 0.041292 -0.066395 0.0021394 0.0062741 0.043556 0.083613 -0.028867 0.15898 -0.015248 -0.11741 0.13103 -0.017951 -0.07122 0.11318 0.066069 -0.09183 0.00084989 0.13073 -0.093143 0.042401 0.038212 -0.055606 0.10419 0.013953 
<ind> -0.095276 -0.061793 -0.044961 -0.13992 0.13472 0.041715 -0.091489 0.019081 -0.031596 -0.049797 -0.044573 0.048109 -0.0070044 0.037837 0.071195 0.0011565 0.096947 -0.048796 -0.051413 -0.087502 0.025792 -0.0020645 0.070371 0.1211 0.077966 0.052498 0.055507 0.098841 0.028526 0.0034043 -0.11942 -0.06726 0.0090269 -0.0016051 -0.08797 0.025783 0.023945 -0.063745 0.11603 0.028927 -0.051717 -0.073978 0.054821 0.055089 0.076308 -0.10321 0.0093574 -0.045919 0.11496 -0.0073581 -0.13842 0.028742 0.018505 -0.046681 0.064941 0.12794 -0.086383 0.08234 0.18235 0.01367 0.058923 -0.049562 0.07395 -0.12896 0.14744 -0.013577 -0.038155 0.099264 -0.049539 -0.17085 0.045554 0.036775 0.042676 -0.087986 -0.059899 0.12047 0.063692 -0.093092 0.059413 -0.021384 0.062857 0.090252 0.077423 -0.031099 -0.05459 0.1396 0.058372 9.4596e-05 0.067475 0.027783 -0.086639 0.012583 -0.023346 0.039871 0.060993 0.01557 -0.027188 0.021838 0.050495 0.034706 0.055425 0.055279 0.050185 0.05676 0.11803 0.085822 0.046966 0.089512 -0.062139 0.056912 -0.091018 0.023418 -0.093221 0.097032 -0.089247 0.10173 0.097998 0.067513 -0.036352 0.058493 0.09186 -0.027244 0.012888 0.0013368 -0.12511 0.084707 0.0015129 9.2612e-05 0.012866 0.03299 0.10744 0.081564 0.02879 -0.073996 0.074134 -0.15728 -0.074441 0.10192 0.083853 0.063989 -0.097278 -0.030475 -0.082918 0.073446 -0.048526 -0.0071694 -0.00037878 -0.15368 0.017123 0.010263 -0.0032383 0.04235 0.085928 0.068775 0.01702 -0.11522 -0.0942 0.07324 0.0024881 0.024842 0.068774 0.039327 0.074711 -0.056349 -0.11794 -0.084314 0.12874 -0.1385 -0.045299 0.032005 -0.12208 -0.030583 -0.0011539 -0.039736 0.078147 -0.11241 -0.11998 0.13469 -0.05655 0.091466 -0.032435 -0.05494 -0.047134 0.093883 0.037765 0.088282 -0.052968 0.015382 0.044585 0.058681 0.0099683 -0.024863 0.14817 -0.0084129 0.12098 0.11482 0.13653 0.082427 -0.030276 0.011903 0.090192 -0.01374 0.08132 0.16811 0.12381 -0.041264 0.12176 -0.079388 0.023052 0.18043 -0.066508 0.033371 -0.068233 0.043936 -0.077213 -0.038964 -0.10284 0.0088806 -0.092661 0.10162 -0.021435 -0.043887 -0.014139 0.11701 -0.066959 0.16636 0.07062 -0.12886 -0.038517 0.033987 0.048318 0.073601 -0.14034 0.03308 -0.043542 -0.0087425 0.064876 -0.021578 0.057018 0.11388 -0.0093804 -0.031382 0.010967 0.12044 0.14716 0.017982 -0.19157 -0.035418 -0.11418 0.066254 0.056992 -0.078274 0.0057926 0.016597 -0.039793 -0.0088939 -0.12491 -0.0778 0.012499 -0.055559 0.088494 -0.02417 0.041049 0.054859 0.028615 0.046595 -0.041267 -0.097989 -0.025609 -0.064579 -0.01023 0.080303 0.073728 0.022912 -0.17599 0.030244 0.04086 -0.066022 0.0023573 0.0055955 0.042954 0.082998 -0.028993 0.15844 -0.013812 -0.11587 0.1304 -0.019335 -0.068676 0.11163 0.065581 -0.091416 0.0005681 0.1301 -0.091956 0.041305 0.037331 -0.05489 0.1044 0.01238 
<ant> -0.099187 -0.06353 -0.045896 -0.14565 0.13928 0.042576 -0.094547 0.019185 -0.032555 -0.051442 -0.045917 0.050375 -0.0078076 0.039773 0.074773 0.0018301 0.10021 -0.04961 -0.05451 -0.089764 0.026516 -0.0013009 0.071592 0.12504 0.081077 0.053502 0.056981 0.10151 0.030238 0.0041981 -0.12347 -0.069702 0.0088078 -0.0010285 -0.090638 0.025181 0.023556 -0.06469 0.12021 0.029775 -0.054265 -0.076838 0.056742 0.056936 0.079332 -0.10645 0.0098323 -0.047892 0.11929 -0.0073783 -0.14305 0.030713 0.019189 -0.047632 0.068037 0.13127 -0.089746 0.08461 0.1881 0.012939 0.060655 -0.051456 0.077199 -0.13323 0.15295 -0.013934 -0.038927 0.10268 -0.050751 -0.17616 0.0477 0.036683 0.043926 -0.090834 -0.061635 0.12373 0.0659 -0.096391 0.06152 -0.020818 0.065084 0.092701 0.081171 -0.032232 -0.055707 0.14596 0.060364 -0.00021941 0.069522 0.028353 -0.088617 0.013862 -0.02488 0.041522 0.062524 0.016074 -0.02631 0.022747 0.051791 0.037072 0.056605 0.057428 0.051212 0.059276 0.12307 0.088591 0.048157 0.091826 -0.064546 0.05793 -0.09522 0.02487 -0.095845 0.10043 -0.092898 0.10396 0.10022 0.069383 -0.037834 0.060637 0.094293 -0.028361 0.01328 0.0017578 -0.12932 0.087971 0.0014216 0.00088048 0.01392 0.035346 0.1105 0.083504 0.029009 -0.077201 0.07691 -0.16186 -0.078293 0.10478 0.086547 0.067826 -0.099291 -0.032117 -0.083882 0.075757 -0.050518 -0.0081998 -7.7793e-05 -0.15861 0.017911 0.0099311 -0.0050379 0.04288 0.089836 0.071114 0.016843 -0.12022 -0.096802 0.077151 0.0033295 0.025566 0.069788 0.039469 0.076633 -0.059791 -0.12311 -0.087816 0.13165 -0.14443 -0.045799 0.032952 -0.12549 -0.03254 -0.0024976 -0.041099 0.081761 -0.11681 -0.12271 0.13963 -0.057309 0.09367 -0.032647 -0.058093 -0.048516 0.096404 0.037509 0.0914 -0.055064 0.015457 0.044141 0.060015 0.010034 -0.027094 0.15252 -0.008108 0.12532 0.11818 0.14207 0.085323 -0.030673 0.012926 0.092526 -0.014932 0.083198 0.17466 0.12668 -0.041787 0.12675 -0.08212 0.023313 0.18602 -0.068505 0.035321 -0.07091 0.047615 -0.079248 -0.040804 -0.10782 0.010034 -0.09623 0.10618 -0.021821 -0.045255 -0.015174 0.12034 -0.069526 0.17088 0.073718 -0.13186 -0.040371 0.034832 0.049168 0.076904 -0.14552 0.032704 -0.044734 -0.0093754 0.066797 -0.022962 0.057925 0.11827 -0.0097184 -0.032991 0.010027 0.12327 0.1516 0.017823 -0.19704 -0.036662 -0.11806 0.068388 0.057541 -0.079983 0.0066169 0.016466 -0.04094 -0.0070749 -0.13022 -0.079134 0.012913 -0.05705 0.092442 -0.025296 0.043282 0.059094 0.030229 0.048593 -0.043185 -0.10228 -0.026398 -0.066239 -0.0096289 0.082205 0.075502 0.024546 -0.18244 0.031013 0.041374 -0.069449 0.00271 0.0055428 0.043944 0.08536 -0.030085 0.16337 -0.015734 -0.11894 0.1336 -0.019328 -0.07134 0.11589 0.068157 -0.093784 0.0013605 0.13267 -0.095171 0.042967 0.039435 -0.05746 0.10734 0.013208 
<adv> -0.095918 -0.061607 -0.046357 -0.14264 0.13645 0.041822 -0.092763 0.019279 -0.030952 -0.052092 -0.04641 0.048562 -0.0061417 0.039545 0.073265 0.00048214 0.097721 -0.048514 -0.053645 -0.088041 0.026061 -0.0013576 0.070893 0.12251 0.079437 0.052375 0.055854 0.10067 0.031148 0.0035402 -0.12244 -0.069587 0.0095489 -0.0010377 -0.090145 0.025322 0.023912 -0.06499 0.11937 0.030651 -0.052722 -0.076099 0.054845 0.056157 0.07672 -0.10543 0.0094758 -0.045575 0.11752 -0.0079701 -0.14156 0.030387 0.018911 -0.047798 0.065633 0.12998 -0.088094 0.08433 0.18563 0.013683 0.059393 -0.051194 0.075438 -0.13129 0.15086 -0.013639 -0.038287 0.10122 -0.049792 -0.17338 0.046212 0.03707 0.043879 -0.089601 -0.061363 0.1221 0.06522 -0.095178 0.061399 -0.021689 0.064918 0.091625 0.080022 -0.031445 -0.054746 0.14335 0.05879 0.00017741 0.069082 0.028291 -0.088728 0.013161 -0.023872 0.040992 0.060713 0.015139 -0.02749 0.022686 0.051597 0.035299 0.056372 0.0565 0.049917 0.057166 0.12064 0.086791 0.047644 0.090453 -0.063471 0.057189 -0.092567 0.024715 -0.094473 0.099275 -0.090746 0.10402 0.099672 0.068205 -0.037748 0.061411 0.093931 -0.02751 0.014207 0.0010662 -0.12886 0.086587 0.00081419 0.0019612 0.014053 0.03455 0.10931 0.083012 0.030342 -0.074907 0.07551 -0.16044 -0.077087 0.10432 0.086199 0.065222 -0.098586 -0.031777 -0.083684 0.074344 -0.049219 -0.0075659 4.9945e-05 -0.15698 0.016801 0.010765 -0.0038768 0.041785 0.088779 0.070043 0.018098 -0.11843 -0.096343 0.075445 0.0024009 0.025314 0.068526 0.039915 0.075397 -0.056723 -0.11952 -0.085536 0.13089 -0.14105 -0.046173 0.031918 -0.12412 -0.031882 -0.0022614 -0.039984 0.080637 -0.11374 -0.12191 0.13716 -0.057152 0.093607 -0.03351 -0.057769 -0.04784 0.095455 0.037576 0.090099 -0.054877 0.015833 0.043709 0.058563 0.0093308 -0.025253 0.15108 -0.0079015 0.12392 0.11803 0.13971 0.084159 -0.030788 0.01293 0.092723 -0.015189 0.083794 0.17199 0.12611 -0.042019 0.12428 -0.080943 0.022307 0.18415 -0.067345 0.036212 -0.070348 0.04504 -0.078139 -0.039302 -0.10574 0.0089921 -0.095093 0.10429 -0.021736 -0.045281 -0.014863 0.11883 -0.068699 0.16832 0.073153 -0.13177 -0.040231 0.034678 0.049289 0.075516 -0.14301 0.034516 -0.044182 -0.0092033 0.06634 -0.02288 0.057447 0.11706 -0.009983 -0.031284 0.010984 0.12145 0.15042 0.016536 -0.19571 -0.036657 -0.11582 0.068441 0.057441 -0.080567 0.0067858 0.016578 -0.04044 -0.0078664 -0.12794 -0.079017 0.011206 -0.056468 0.090108 -0.024046 0.042893 0.056322 0.029586 0.047266 -0.042903 -0.10197 -0.026331 -0.065308 -0.009338 0.081857 0.07431 0.023858 -0.17948 0.03091 0.041779 -0.067817 0.0024572 0.0069233 0.043431 0.084048 -0.029179 0.16154 -0.015575 -0.11733 0.1318 -0.01917 -0.071321 0.11454 0.066856 -0.093565 0.00081651 0.13194 -0.094361 0.042827 0.03777 -0.056968 0.10596 0.013211 
<ref> -0.09852 -0.062845 -0.046349 -0.14387 0.1388 0.042016 -0.092832 0.018076 -0.031215 -0.051789 -0.045676 0.049048 -0.0064779 0.038553 0.073378 0.0019105 0.099697 -0.049249 -0.053016 -0.088626 0.025964 -0.001034 0.072371 0.1241 0.0803 0.054042 0.057112 0.10118 0.030761 0.002984 -0.12249 -0.069123 0.010462 -0.00096387 -0.091091 0.025316 0.02421 -0.064874 0.12019 0.030313 -0.052707 -0.076579 0.055477 0.056514 0.076921 -0.10651 0.0090998 -0.046374 0.11806 -0.0078185 -0.14061 0.031312 0.019639 -0.047961 0.066201 0.13016 -0.088025 0.085305 0.186 0.013475 0.060124 -0.05129 0.076343 -0.13185 0.15252 -0.013768 -0.039567 0.10194 -0.051022 -0.17458 0.047191 0.036855 0.043448 -0.091203 -0.062699 0.12311 0.066256 -0.096 0.060637 -0.020358 0.064922 0.092209 0.079379 -0.032289 -0.055387 0.14356 0.059815 -0.00053498 0.070479 0.02905 -0.089366 0.013649 -0.025292 0.041445 0.062137 0.015278 -0.027755 0.022965 0.051724 0.035669 0.056027 0.05698 0.05143 0.059868 0.12267 0.087316 0.047201 0.091768 -0.063537 0.057281 -0.093732 0.025226 -0.095532 0.10079 -0.09104 0.10378 0.099248 0.067794 -0.036898 0.060642 0.094284 -0.026475 0.012275 0.0014255 -0.1285 0.086817 0.0018568 0.0018493 0.012957 0.034328 0.10937 0.084501 0.029676 -0.075786 0.07624 -0.16185 -0.07703 0.10394 0.085378 0.066451 -0.098293 -0.032548 -0.085654 0.075816 -0.049344 -0.006694 -0.00064299 -0.15563 0.017794 0.011335 -0.0044034 0.043158 0.088628 0.06973 0.017188 -0.11967 -0.097126 0.075923 0.0015659 0.025463 0.068688 0.040283 0.074825 -0.058176 -0.12043 -0.086188 0.13245 -0.14315 -0.046052 0.032521 -0.1234 -0.032551 -0.0023977 -0.040837 0.08175 -0.11518 -0.12193 0.13878 -0.057222 0.09297 -0.032855 -0.058565 -0.048591 0.096756 0.038867 0.089778 -0.054635 0.016191 0.0441 0.059148 0.0090848 -0.027223 0.15144 -0.0082382 0.12289 0.11756 0.13992 0.083881 -0.030534 0.012232 0.091873 -0.014343 0.084125 0.17221 0.12718 -0.041802 0.12564 -0.081385 0.023182 0.1848 -0.068078 0.034862 -0.069539 0.045908 -0.079034 -0.04004 -0.10555 0.0097019 -0.096321 0.10566 -0.021258 -0.045677 -0.014519 0.12031 -0.068608 0.16913 0.072804 -0.13234 -0.040312 0.034848 0.048175 0.074904 -0.14404 0.033922 -0.043999 -0.0092672 0.066121 -0.023292 0.058048 0.11822 -0.010692 -0.031766 0.010293 0.1219 0.14973 0.016784 -0.19726 -0.036496 -0.11585 0.068222 0.05698 -0.079624 0.0069758 0.018142 -0.040188 -0.0082896 -0.12985 -0.079598 0.01214 -0.0569 0.090673 -0.024278 0.042142 0.058605 0.029913 0.04749 -0.042571 -0.10182 -0.026138 -0.065545 -0.010289 0.082917 0.074237 0.024214 -0.18049 0.031124 0.040762 -0.068443 0.0011894 0.0057386 0.042545 0.084295 -0.029025 0.1622 -0.01465 -0.11866 0.13323 -0.019585 -0.070739 0.11525 0.067189 -0.093721 0.0013388 0.13167 -0.09595 0.042182 0.03773 -0.055859 0.10705 0.013114 
<num> -0.097521 -0.062318 -0.04538 -0.14397 0.13648 0.041086 -0.093848 0.019116 -0.032368 -0.050916 -0.04546 0.048795 -0.0072133 0.039201 0.073342 0.0009738 0.097755 -0.048238 -0.053523 -0.089155 0.026678 -7.5488e-05 0.071652 0.12214 0.079762 0.052651 0.05727 0.10129 0.030877 0.0022627 -0.12331 -0.070622 0.010003 -0.0012203 -0.090902 0.024638 0.025545 -0.065463 0.11963 0.030125 -0.053682 -0.0772 0.055071 0.055859 0.076799 -0.10694 0.0097192 -0.046508 0.11806 -0.0079329 -0.14299 0.030413 0.018911 -0.048763 0.066149 0.13097 -0.088642 0.084184 0.18563 0.014818 0.059519 -0.051761 0.075653 -0.13117 0.15179 -0.013295 -0.037587 0.10173 -0.049375 -0.17423 0.044654 0.037481 0.04373 -0.09091 -0.061454 0.12398 0.065785 -0.09461 0.061473 -0.021012 0.064747 0.090804 0.080142 -0.031851 -0.054829 0.14387 0.059869 -0.0012539 0.070403 0.029205 -0.089317 0.014229 -0.024414 0.04266 0.060227 0.015048 -0.029015 0.022694 0.051478 0.034909 0.055948 0.05691 0.050579 0.058699 0.12247 0.088216 0.047258 0.09111 -0.06403 0.057866 -0.092349 0.025666 -0.095574 0.098612 -0.090431 0.10394 0.10013 0.067831 -0.036249 0.059542 0.093279 -0.027742 0.012504 0.00074585 -0.12777 0.085437 0.0020125 0.0020184 0.015641 0.03417 0.11015 0.084297 0.029391 -0.075903 0.07555 -0.16185 -0.07762 0.1045 0.084535 0.065597 -0.098853 -0.03182 -0.085367 0.074756 -0.049774 -0.0067394 -0.002122 -0.15743 0.017185 0.011561 -0.0040005 0.041722 0.087328 0.069842 0.01826 -0.11825 -0.095506 0.07525 0.0039941 0.025695 0.06993 0.039686 0.076065 -0.056224 -0.12017 -0.086629 0.13227 -0.14147 -0.046597 0.033212 -0.12459 -0.032196 -0.0021901 -0.040944 0.081594 -0.11368 -0.1223 0.13707 -0.056777 0.094136 -0.032651 -0.056939 -0.047455 0.093919 0.038613 0.091062 -0.054879 0.015606 0.044328 0.059104 0.0093017 -0.026529 0.15224 -0.00927 0.12561 0.11851 0.13979 0.084504 -0.030175 0.01295 0.09312 -0.015595 0.083501 0.17302 0.12498 -0.042986 0.1246 -0.080561 0.022126 0.18422 -0.06795 0.036177 -0.070125 0.04468 -0.078257 -0.039279 -0.10533 0.0095987 -0.09567 0.1041 -0.021597 -0.044675 -0.014494 0.1207 -0.069551 0.17209 0.073092 -0.13206 -0.040099 0.034468 0.049822 0.075522 -0.14521 0.033829 -0.045561 -0.0093148 0.065835 -0.022526 0.058031 0.11729 -0.010367 -0.030929 0.01138 0.12348 0.15061 0.01713 -0.19551 -0.036353 -0.11667 0.069439 0.05642 -0.079655 0.007321 0.016963 -0.039344 -0.0068245 -0.12894 -0.078369 0.012612 -0.056213 0.092965 -0.024157 0.043088 0.057368 0.030162 0.047648 -0.043176 -0.10178 -0.02721 -0.065121 -0.0092832 0.082501 0.075721 0.024712 -0.18093 0.031584 0.041462 -0.067164 0.0033187 0.0059111 0.045575 0.084537 -0.029084 0.1619 -0.01473 -0.11699 0.1335 -0.020453 -0.073021 0.11517 0.066577 -0.094853 0.0011856 0.13341 -0.094251 0.043082 0.037904 -0.056586 0.10712 0.012809 
