#Parameter# /vanilla-lstm-builder/_0 {128,500} 888824
0.053732626 0.32244575 0.1665715 0.010504917 0.15653388 0.295113 -0.16638595 0.26660764 -0.10568407 0.011842637 -0.066230908 -0.035526533 0.097975217 0.09386307 0.042758819 0.20632678 0.34973699 -0.03784357 -0.16630767 -0.13420893 0.049502473 0.040005654 0.31114128 0.15524995 0.37849408 -0.0026494062 0.13836181 -0.0046733944 -0.25453088 -0.01407566 0.048894137 -0.62549567 -0.33105493 -0.11640394 0.14362043 0.040348209 -0.28993118 -0.0070203957 -0.099517301 0.083433397 -0.15664598 -0.23865671 -0.1373955 -0.068844639 -0.057384606 -0.014821871 0.079852425 0.11997178 -0.31120136 0.052077491 0.13030557 0.051886234 -0.066475593 0.079931274 -0.00024266014 0.099578418 -0.24977642 0.039005093 -0.064094119 0.069207802 0.0056355172 -0.22301014 -0.016394049 0.003886818 -0.04108537 0.10600964 -0.0052983831 0.034456506 0.30553749 0.19857156 -0.46299946 -0.088503554 0.28768307 -0.19322726 -0.33724064 0.043206438 0.098271027 0.093763262 -0.10421337 -0.33786288 0.25422895 0.068189591 -0.29111454 0.14778362 -0.25405985 -0.0034338688 0.12919712 0.13086572 0.022154298 0.36115807 -0.068469509 0.16377015 0.030604111 0.015920358 0.36310849 -0.08235769 -0.0074645574 0.099924192 -0.27459499 0.046845939 0.070283093 -0.033268228 -0.3739731 0.021236571 -0.031233769 -0.0032069699 -0.13141805 0.020243069 0.044865929 0.13684261 -0.081209958 -0.13836016 -0.023926871 -0.036919136 0.28439689 0.25720304 0.20661023 -0.13048121 0.16216926 0.0053148111 0.067350127 -0.027478192 -0.17398085 0.181412 -0.067998558 -0.19037955 -0.091929235 0.059103157 -0.56116462 -0.047055911 -0.35840738 -0.059411563 -0.2212451 -0.091376163 -0.079637378 -0.099234678 0.13572259 0.10328978 -0.17662428 0.22484529 -0.10765058 -0.29159901 0.044926472 -0.058194682 -0.38566092 0.24555363 0.15737751 0.06551145 0.050480586 -0.0418295 -0.115479 -0.13839483 -0.079402648 0.079954445 -0.27906704 -0.0064497599 -0.25151542 -0.028945308 -0.025949437 -0.27856296 0.09077844 -0.088884972 -0.076742768 -0.055688914 -0.015989279 0.10760824 0.18704055 0.036827333 0.021019377 -0.13576527 -0.024398396 -0.13125692 0.018396726 -0.15161546 0.067958452 0.32950246 0.27330112 -0.091615394 0.23832476 0.55353051 -0.2464793 -0.042450652 -0.11113777 -0.12125928 -0.38655081 0.025554474 -0.0510551 0.13482732 -0.0066399528 -0.28420696 0.027045095 0.23241168 -0.27667472 0.12418751 -0.61547673 -0.17734165 0.053896729 0.46634492 -0.1340892 -0.17069456 0.027049469 -0.31083438 -0.51014179 -0.29300579 -0.11016651 -0.46260324 0.12822895 -0.36668882 -0.049062438 -0.1063103 0.32827103 -0.49934506 0.46279964 -0.16173281 0.010760474 -0.77585107 -0.06176725 -0.2661863 -0.022939697 0.5384689 -0.11877334 0.1931525 0.18068026 0.031985816 0.28143367 -0.13664922 0.021507908 -0.003062031 -0.32517731 -0.090622842 0.37892833 -0.10036831 -0.042721462 -0.083513699 -0.12187336 -0.085060731 -0.19811088 0.093993798 -0.0077132927 0.27015138 -0.56222868 -0.23029977 -0.29191142 -0.03621174 -0.10295974 0.030474609 -0.13285102 -0.039037492 -0.070117988 -0.046240814 0.072937511 0.15259729 -0.051185746 0.44318172 -0.049187765 -0.066368841 -0.1541076 0.41229591 0.0063589606 0.0089018466 0.031165782 0.12781939 0.089855224 -0.041865449 0.081131682 -0.022006359 -0.17565727 0.10670471 0.090928115 -0.020401375 0.127483 -0.14998709 0.010746291 -0.16243778 -0.16357835 0.043594021 0.027977582 -0.040234152 -0.088870957 0.013522007 -0.035095721 0.012964375 0.059645768 -0.12649024 -0.30152455 -0.0059253005 0.0083091827 0.3111476 0.32957226 -0.038046248 0.092937343 0.043495853 0.3196955 -0.13640778 0.011653319 -0.09211836 -0.033390723 0.36145997 0.028078772 0.14418963 -0.13023189 -0.01116152 0.045574937 0.1142193 -0.11713091 -0.026201792 -0.073270947 -0.22883773 0.002149269 -0.10763843 0.067970909 0.056967154 0.074132986 0.023504034 -0.036063619 -0.15685245 0.040431198 0.37311304 0.029526753 -0.2198209 -0.072794929 0.32176664 -0.19063909 0.18370287 0.11404677 0.18571676 0.029203817 -0.021037383 -0.058321603 0.42150283 -0.22521791 0.53956378 -0.17125948 -0.31911016 -0.24445935 0.24425885 -0.33979583 -0.3718161 -0.10241228 -0.26026309 0.19146518 -0.12535158 -0.042205788 0.016487446 -0.29163769 0.090086237 0.2307547 -0.42326447 -0.32845265 -0.067225784 -0.58262026 -0.044281788 -0.08922258 0.22213063 0.2421528 0.055774279 0.030481329 0.25321203 0.26368487 0.19094233 0.121295 -0.086937383 0.11034357 0.090662032 -0.31305793 0.14820188 0.04605633 0.098161146 -0.1301529 -0.068596192 0.12283644 -0.51511282 -0.16492845 -0.30179676 0.0059152269 0.094355926 0.25840756 0.095917717 -0.092207089 0.29012755 -0.19001763 0.050487068 0.083629549 0.027200812 -0.24057807 0.0046897088 -0.10500882 0.089946866 -0.18449616 -0.040372718 -0.12429141 0.020935332 -0.042111032 -0.20726655 -0.27165949 -0.081374064 -0.036295157 -0.14631927 0.19363301 -0.067712069 -0.18909703 -0.075526796 -0.056501031 -0.048415236 0.049767692 -0.058764398 -0.04836081 -0.19951338 -0.17872003 0.0664763 -0.14017537 -0.17963645 0.027192535 -0.055071183 -0.2378546 0.1070417 0.21113692 0.058232471 -0.2471981 -0.089092687 0.13715245 0.14479707 -0.12614119 0.028747808 0.035737157 0.018580908 -0.0447932 -0.10567481 0.08196789 0.03673983 0.061920136 -0.049627539 -0.062791109 -0.008200339 -0.050888032 0.0021596001 -0.067077972 0.024524467 -0.0012560081 0.018292442 0.012254437 -0.061027292 -0.16497679 -0.020597275 -0.054180786 0.27384585 0.13168924 0.14415932 -0.1583506 -0.00094902021 -0.14557257 0.53512448 0.090690792 0.2702027 0.2354731 0.13105623 -0.2898649 0.16998807 0.21249935 -0.25057498 -0.2110586 -0.034946151 0.27630514 -0.039239023 -0.037229523 -0.26648074 -0.40057409 -0.12715758 0.14781326 -0.19018848 -0.41678122 -0.29316542 -0.036042184 -0.023794571 0.10267293 0.13542907 -0.081046835 -0.11937384 -0.056733027 -0.12953067 -0.0022576696 -0.15969078 0.2356869 -0.13835183 -0.10672838 0.20548524 0.067852661 0.038781323 -0.02762942 -0.083532907 0.030783003 0.36674061 -0.24119081 0.18882383 0.070905834 0.042492125 -0.023228863 -0.24450994 0.082866602 0.065263346 -0.13934106 -0.17126282 -0.090001665 -0.3411873 -0.066710062 0.24830592 0.322124 0.035417676 -0.29093575 0.282096 0.20589472 -0.17746405 0.17390732 -0.11061436 0.15108149 -0.16178815 -0.17761759 0.16826512 0.18485731 -0.22630706 0.31851941 0.15026262 0.23011288 -0.0075665126 -0.15981567 -0.27761516 0.01242061 0.02937712 0.13965409 0.014376935 0.24052553 0.64492476 -0.37993899 0.15540594 -0.36707658 0.046396866 0.12257741 -0.16239543 -0.17341469 0.19755845 0.25533465 -0.010627873 0.024108971 0.11408035 0.071295828 0.028834164 0.090064399 0.012537915 0.072226763 -0.51230276 0.0014687008 -0.068548359 -0.018236861 0.20798001 -0.086154044 0.0079253893 0.11995607 0.049042068 -0.43816739 -0.072905771 0.11225273 0.037173122 -0.32962132 -0.16741863 -0.36448669 0.0050407914 0.13590044 0.0062275641 0.038682036 -0.04717987 0.038337518 -0.28324115 -0.12640211 -0.10365575 -0.17047577 -0.016681686 -0.05555905 0.63028812 0.020159837 -0.52762514 -0.011456853 0.17421946 0.47998548 0.082122914 0.024648361 0.31390512 0.50599438 0.38174301 -0.75998133 -0.72956806 0.66671175 0.2077684 -0.38754016 -1.3053863 0.17548454 0.2147837 -0.67053425 0.80221754 -1.0337083 0.36617163 -0.61908233 -0.72696686 0.39754009 -0.14819828 0.090463392 -0.21763106 -0.16591641 -0.29547939 -0.44893304 0.18364953 -0.011090901 -0.1545755 0.36366308 -0.010168742 0.25229335 0.06785997 0.43840525 0.055752583 -0.16238347 -0.094283134 -0.10046048 0.12917101 -0.32267389 -0.21246994 -0.79191899 -0.080549739 0.26453945 -0.34545869 -0.19527079 0.053959087 -0.28309646 0.077300981 0.16288175 0.00071570114 0.19779703 -0.059537441 0.14644374 0.10365494 -0.089034803 -0.074601524 0.18462282 0.3498449 0.066614725 -0.29597306 -0.071283363 -0.070951082 0.27842888 -0.22826363 0.32659489 0.23742248 -0.071483806 -0.073035218 -0.086357519 -0.43449694 0.011532471 -0.15581016 -0.13044076 0.025866667 0.36657989 0.32998183 -0.34514016 0.11773279 -0.39170229 -0.013351052 0.12045863 -0.070627004 -0.15726729 0.034313936 0.82251704 -0.22753824 0.03209969 -0.064446099 0.26635057 -0.42927095 0.029509688 0.049452368 -0.144646 -0.57017672 -0.14804755 -0.14188781 0.29246327 0.17856508 0.027511388 0.22777362 0.18191777 -0.11093541 -0.22645512 0.086810291 0.40079373 -0.01489564 -0.2014378 -0.138181 -0.15397787 0.073121168 0.072792053 -0.039811876 0.031978793 0.024052652 0.20026979 -0.36617279 -0.14251851 -0.32261801 -0.044549812 0.26655453 -0.2729907 0.68725514 -0.44321331 -0.8114478 0.13845202 0.0042653796 0.15865159 -0.16380808 0.2490813 0.085196786 0.029866898 0.15243642 -0.34833109 -0.63661999 0.79609227 -0.0023017263 -0.22513162 -0.84628582 0.36217156 0.024038782 -0.54702348 0.77751458 -0.56591398 0.32243034 -1.0671506 -0.64192104 0.48500127 -0.14285825 0.26868889 0.1229219 0.16565581 0.11305946 -0.48356012 -0.078758925 -0.080477059 -0.0026199073 0.24505343 -0.53854328 0.20069386 0.36263567 0.35100278 0.016997807 0.0023640678 0.063811764 -0.12608971 0.00093750283 -0.24326855 -0.12263852 -0.9230088 -0.060690571 0.21054198 -0.35128036 -0.11031227 0.12651905 -0.13132909 -0.13577193 -0.16229331 0.051552635 -0.05784975 -0.10848668 0.029216975 -0.17707852 -0.037787985 -0.093081556 0.30171528 0.2906619 -0.12726989 -0.11288665 0.14668457 -0.13614611 0.10652272 -0.15863448 0.065435335 0.070770413 0.092751697 0.0084673185 0.010860818 -0.029607628 -0.038341034 0.073162876 0.31264871 -0.20507735 0.062875532 0.12538505 0.073237307 0.046569303 -0.038267232 -0.0063700508 0.16234346 -0.078713231 -0.10789722 -0.037197284 -0.060558196 -0.072875604 0.19297312 -0.15163568 0.16974382 0.078024752 -0.16445358 -0.075568184 -0.047131989 0.026499201 -0.37298369 -0.06897673 -0.03834885 0.22227894 -0.10079275 -0.12424765 -0.11818255 0.079680197 -0.27201584 -0.21097603 -0.083525501 0.00091380754 -0.36743486 0.077248424 0.076634869 -0.04429315 -0.051463366 0.11145889 0.12628336 -0.047825038 -0.015210832 -0.15152483 -0.072319329 -0.28350776 -0.13654876 -0.19806117 -0.02585954 0.35381058 -0.21755709 -0.23345624 -0.04693545 0.34306556 -0.44179168 -0.12613033 0.1001285 0.074456625 -0.30307299 0.085870586 -0.0057252715 -0.41453448 0.30999038 0.18535724 0.34121233 -0.36370373 0.023718901 0.12224727 -0.8998881 0.39632052 0.031027222 -0.20100102 -0.27225202 -0.1004641 -0.14712204 -0.032390378 0.17199174 0.11407738 0.097983479 -0.10855636 -0.12778735 -0.14405064 -0.28635266 0.023093604 0.40649584 -0.43222526 0.029759977 0.0083377697 -0.14720665 0.047696531 -0.062185843 0.014116894 -0.1973075 -0.039357316 -0.20510261 -0.068714142 0.1351728 -0.20864065 0.2119548 -0.23814844 -0.22410451 -0.10959889 -0.12803462 0.055156898 0.21142337 -0.068782143 -0.025309032 -0.13655391 -0.41599903 0.19291544 -0.025704572 0.002464372 0.096424915 0.25587755 0.18982549 0.070250489 0.044685014 -0.39737707 -0.035939604 0.027423605 -0.18589492 -0.17248793 0.062845692 -0.1492026 0.0061037331 0.1815753 0.066839695 0.15359889 -0.041343037 -0.08592242 -0.089522898 -0.44129142 -0.15570745 0.053205948 0.083417334 -0.087171473 -0.14853609 0.13142163 0.033673551 0.013675408 0.3498089 -0.24079123 -0.14689952 0.1858235 -0.21706963 -0.21231438 0.1116344 0.0063399328 -0.019625422 0.13830851 0.087442733 0.13591444 -0.051710859 -0.030329188 -0.016093021 -0.013296131 0.083634853 0.050366603 0.42586017 0.0057884641 0.031608537 0.014688399 0.29661858 -0.0099021867 -0.15410613 -0.038991138 -0.06456425 0.010793044 0.12174096 -0.038287293 0.11601655 0.17497808 0.032738138 -0.048699819 -0.028089503 -0.019041929 -0.086167775 -0.085853077 0.23382704 0.15652847 -0.077939376 -0.12192196 -0.035389435 0.007280943 -0.030572524 -0.11748886 0.33993593 -0.0026324345 0.23345636 0.68547851 -0.094777547 -0.10962157 0.057663828 0.71535254 0.15196232 0.028256966 0.58263588 -0.12893279 0.23889393 -0.015188756 0.087164029 0.42865252 -0.025795527 0.062888123 -0.16604489 0.040721167 -0.040891103 0.30668437 -0.00076735718 -0.096660703 -0.10638835 0.080740109 -0.24664956 0.33540532 -0.031554896 -0.10221855 0.076681964 0.10148822 0.29444277 0.12360711 0.1550235 0.094672717 0.27160871 0.23662485 0.10443792 0.042070672 -0.12511337 0.19406329 0.16956751 -0.022471623 -0.049689829 -0.15558252 -0.081684217 0.24306811 0.08571665 -0.010764667 0.4635728 -0.11655353 0.040570445 -0.10246649 0.02584262 -0.44082659 -0.085242584 -0.11580431 0.027808489 0.43880963 0.28570861 -0.1071787 0.29599652 0.083749756 0.031459626 0.22795898 -0.072913133 -0.038445231 0.21097644 -0.15612687 0.024177957 -0.10002436 -0.26166624 0.36015779 0.069093369 0.02873127 -0.161768 -0.0030317209 0.1725079 0.1378148 -0.059676047 -0.028678169 -0.22725929 0.043922435 -0.08977741 0.13856426 -0.24561629 0.18100092 0.088121027 -0.083664656 0.10595771 -0.26853809 -0.46410826 -0.20796378 -0.30548266 -0.15501876 -0.12432493 -0.10856315 -0.10863901 -0.087038606 -0.14616157 -0.0104001 -0.061252028 0.1379676 0.0099825785 -0.11965003 0.28098947 -0.088795334 0.05722411 -0.12420794 -0.16082211 -0.17734596 -0.003837537 -0.17446221 0.056687027 0.094056904 0.030213468 -0.17930885 0.28225628 -0.073140025 -0.071698226 -0.088989891 -0.18627635 -0.16909796 -0.15629384 0.098480426 0.53768855 -0.27860075 0.055462718 0.37980255 -0.12620549 -0.35434183 -0.14065656 0.29088992 -0.22503234 -0.57559943 0.37477976 -0.0026589043 -0.43712443 0.15217742 -0.26446232 -0.13638423 -0.054883219 -0.33862716 0.31171155 -0.0094790198 -0.090399005 -0.31814909 0.03028767 -0.13867016 0.18837231 0.10196952 -0.065112561 0.056998771 -0.08599022 -0.044788126 0.043743599 0.039899945 0.10733015 -0.18881309 -0.077303514 -0.049831789 -0.056449976 0.10202421 0.021339703 0.14212093 0.15200308 -0.15653753 0.13287143 0.13364652 -0.31094539 0.057159171 -0.056537181 0.12470976 0.086333767 -0.082081757 0.2519621 0.12739553 0.00087396166 -0.046002083 0.12306457 -0.14338718 -0.019200629 -0.39248246 -0.11855856 0.096089974 0.028045163 0.0070512402 -0.029308449 -0.028525066 -0.38470605 -0.03865236 -0.13584426 -0.11328551 -0.28260386 -0.070907764 -0.049269862 0.11164322 -0.039500505 -0.054721143 -0.075036801 0.12508731 -0.076424122 -0.085046016 0.092720196 0.12525989 -0.03834223 0.0029914465 -0.042332966 -0.027097022 0.058471486 0.26828197 0.0027749485 -0.19811341 -0.3767471 0.10101132 -0.25246921 0.022216693 -0.054315355 0.0091412757 0.10548072 0.11656287 -0.020813029 -0.36109772 0.039379973 0.12848793 -0.09750019 0.035572775 0.0047663152 -0.15000837 0.20005697 -0.12753159 0.075716481 -0.034980163 -0.17267458 0.063954689 0.04223397 0.016470037 0.25902042 0.11811767 0.055956848 0.088306114 0.16475594 0.11351869 0.029895753 0.28518301 -0.25778916 -0.37034026 -0.0081054708 -0.34815875 -0.059798062 -0.33286649 -0.092095874 0.003090725 -0.16893242 -0.069989227 -0.024956653 -0.24735124 0.244518 0.036862481 -0.0031339803 -0.049262892 0.52888083 0.33916745 0.27633068 0.14608614 -0.21179581 -0.40562725 -0.13231596 0.084780298 0.3487049 -0.1061722 -0.14594924 0.40532711 0.19678846 0.16108547 0.96077704 0.1168588 -0.13249952 -0.13671778 0.19153821 -0.041475777 -0.45205492 -0.051237207 -0.41161042 -0.38831869 -0.32547629 -0.20780873 0.05522513 0.030175412 0.027776903 0.049111333 0.0095475083 0.30712849 0.3003903 0.044261109 -0.27870357 0.3341186 0.0057477877 0.065431975 0.0087404381 -0.077477522 -0.13338874 -0.08017119 0.23747301 -0.17923865 -0.13494204 -0.18948556 -0.064520188 0.12108928 0.092865311 -0.080927029 0.023068454 0.141269 0.14727566 -0.1929395 -0.11720951 0.30075458 -0.18195103 0.086926386 0.094991073 -0.14943187 -0.16712998 0.065542474 -0.12142145 0.066633344 0.2496151 0.081135049 0.025687654 0.170765 -0.09243577 -0.00010051933 0.14914861 0.14110614 0.0044311727 -0.031457923 0.067059763 0.17811602 -0.028554693 0.12880085 0.15610322 -0.13434003 -0.39717343 -0.19287914 -0.080151834 -0.024569113 -0.057488497 -0.028599242 0.12484197 0.22677755 0.27458361 -0.17949617 0.11903878 -0.0065053939 -0.13390316 -0.0610268 0.055321306 0.068202525 -0.093010537 -0.007387924 -0.0042860168 -0.0066389558 -1.0167336e-05 0.051774215 0.078973554 -0.036569521 0.19990258 -0.023652762 0.12837355 -0.085264243 0.09514571 0.050792735 -0.10843411 0.066002399 -0.19034278 -0.060979486 0.089718617 -0.088538229 0.15285335 -0.13400109 -0.0035854541 -0.0076828399 0.065209381 -0.22151208 -0.2121326 -0.39694065 0.18558319 0.011979669 -0.25260133 0.08530084 0.029984424 0.48209137 0.05650983 0.1256087 -0.011612623 -0.27460098 0.10059584 0.23796631 0.16990454 -0.22459613 0.015822016 -0.11629024 0.090648234 0.17664163 0.30528983 -0.16257221 -0.2058959 0.54710048 -0.01612133 -0.051141422 -0.14727403 0.093090326 -0.33912706 -0.025157837 -0.070231505 0.1605228 -0.060403481 -0.032764133 0.15492865 -0.23113355 -0.11404021 -0.24895222 -0.061687559 0.25216004 -0.067675516 0.079919592 0.29244933 0.17918701 0.16969331 0.080429055 0.12574324 -0.062913418 -0.35804325 -0.062017303 0.076465815 -0.35864091 -0.10720892 0.23687938 0.14239825 0.0087284017 0.086209878 0.12740622 0.10421725 -0.048946392 -0.33607167 0.209095 -0.23076619 0.0065782983 0.026717426 -0.21022707 -0.016727157 0.12767266 -0.026607681 -0.057005167 0.20428424 -0.047533944 0.24306071 0.10748749 -0.1572955 -0.03506368 -0.14719133 0.10774004 0.18107666 0.092055 -0.079273157 0.026698897 0.32997674 -0.10402052 0.096368298 -0.46305197 -0.035301317 -0.10479758 -0.0021735348 0.044127624 -0.098686941 -0.12566806 0.36172768 0.12101708 0.26341298 -0.0436914 -0.03856045 -0.043719966 0.34070301 0.042359743 -0.22235468 -0.32650256 0.35818616 -0.076622508 -0.09080337 0.12161428 -0.42873031 -0.13538928 -0.095468968 -0.076296821 -0.01456815 0.080408782 -0.093293816 0.0087229656 -0.11055484 0.0027196715 -0.13295536 0.44559222 -0.019867687 0.2428771 -0.11916304 0.033060279 0.25211576 -0.021179732 0.0088795861 -0.20461339 -0.20714679 0.12324535 -0.31961039 -0.46811619 0.014562592 -0.043430556 0.22309209 -0.22887605 -0.038660333 -0.00082318153 0.040589176 0.45071459 -0.27556881 0.30665848 0.051292408 0.77232003 -0.50459808 0.23742515 0.12429599 -0.32015327 0.16986704 0.11117751 0.31334516 -0.16897844 -0.67144358 -0.20162332 0.39721465 -0.12913549 0.10101445 -0.073341735 -0.34655207 0.12786742 -0.1170946 -0.01100908 -0.16191143 0.078098252 0.10570705 0.14375801 -0.26439255 -0.11585093 -0.25157991 0.020120976 -0.031476464 -0.23118982 0.17125572 0.042588744 -0.12448686 -0.093621351 -0.17789882 0.07396099 0.011207068 0.17010866 -0.3899745 -0.040395398 0.00029289504 0.17439747 0.1448116 -0.22013916 0.0044066901 0.04664791 0.13555615 0.26325908 0.035446893 0.012640296 0.36802313 -0.17599411 0.21867804 -0.018458029 -0.11470254 0.28237209 0.12539835 -0.04457026 0.18531297 0.23846948 -0.033713814 0.18860501 -0.093007565 0.076572716 0.075255543 0.018802201 0.22631682 0.18595156 -0.0063485028 0.035167929 0.16907804 0.37108874 0.22108504 0.17631321 -0.15073523 0.039881628 0.031113962 -0.035182673 0.20548747 0.041528553 0.14241368 -0.16223845 -0.017837686 -0.11107757 -0.044414036 -0.068179399 0.11626405 0.11002908 -0.24140197 0.034484576 0.065380096 0.021644585 -0.042480983 -0.31477976 -0.38493422 0.071727335 -0.05195491 0.062557317 0.20387422 0.082909293 -0.1458191 -0.049372587 -0.069365762 0.14185092 0.00053502503 -0.32676309 0.59059465 -0.086705811 0.19843866 0.054837696 0.08177609 -0.6842165 0.057532784 0.19504967 0.21902147 0.1762909 0.37639463 0.41094726 0.1744903 0.60270756 -0.37790081 0.5542137 0.49420679 0.19821145 0.26253167 0.12066008 -0.43222615 0.066797085 -0.29357687 0.31643575 0.49615443 0.18966477 0.41385701 -0.084509611 -0.030177157 0.0087992474 0.35430977 -0.038287215 -0.059465963 0.11191551 0.078038402 0.045324437 -0.20739815 0.059197035 -0.23204187 -0.16970532 0.27167434 0.0038787797 0.062150951 -0.049481262 0.12594832 -0.26608038 -0.0070648263 -0.0018833712 0.10909147 0.19503827 -0.1985718 -0.1099751 -0.039129801 -0.022774182 0.0075348802 0.14942428 0.2033281 -0.1133214 0.12649925 -0.16686508 -0.0049526501 -0.14768988 -0.085716598 0.1152574 0.067956887 -0.026685646 -0.31709203 -0.058823526 -0.37561318 -0.23545519 0.24734132 -0.26570272 -0.52143914 -0.071162887 -0.14754778 -0.11649913 -0.22030099 -0.084527358 -0.13811356 0.052290704 -0.54418391 -0.090716757 -0.050153833 -0.24011615 -0.25263783 -0.019512668 -0.14717577 -0.1968891 0.003028325 0.0050309515 -0.18335092 -0.11562055 -0.10610601 -0.23905602 -0.10493154 -0.16827388 0.16597554 0.013337842 0.011265944 0.054509182 -0.14173986 -0.030889509 -0.11080863 0.18037254 -0.071371205 -0.16568503 -0.017887209 0.020006973 0.041074283 -0.17191154 0.062294401 -0.12662838 0.28551733 -0.040937182 0.14312458 -0.10231522 0.041796595 -0.026086811 -0.11369578 -0.074028313 -0.19048604 0.11741755 0.036717217 0.0097642876 0.086520351 0.016843256 0.018179949 0.059471808 -0.19689178 -0.25956935 -0.17120135 -0.39082727 -0.16567425 0.13700488 -0.18981977 -0.2115455 -0.43002418 -0.13800801 -0.036185745 -0.20698272 0.11317883 -0.10369319 -0.01149809 -0.60572851 0.24569015 -0.064012401 -0.28174177 0.25078812 -0.0043515153 -0.043850332 -0.294761 -0.096661173 0.075863868 -0.20032458 -0.60986716 0.65621483 0.090532124 0.0046674842 0.76380146 -0.047003996 -0.15083827 -0.15397422 0.095185012 0.18366864 -0.19516574 -0.24249347 0.055732597 -0.26656184 -0.39186269 -0.18677345 0.13504605 0.0026827275 -0.13775405 0.050157201 0.037787013 0.3925243 -0.27524933 -0.096068233 -0.088319317 0.21109727 -0.043144207 -0.0797434 -0.10231417 -0.34951365 -0.23581822 0.015442452 -0.04590743 -0.13710508 0.21574119 -0.036925096 0.013972288 -0.062139556 0.2273102 0.11566213 0.20024408 -0.020339604 0.092747822 0.089538261 0.10095804 0.084494345 0.013004505 -0.014095561 0.15770966 0.17455953 0.0007947844 -0.11154594 -0.12512106 -0.021749534 -0.096117884 0.10389735 -0.051623005 -0.26679343 0.24516417 -0.059196215 0.11925654 0.0064620301 0.082996845 -0.082876131 -0.067663111 0.19334826 0.1271791 0.4528724 0.033384223 0.093393825 0.12550533 -0.15168168 -0.074010298 -0.039067507 -0.2524133 0.035559598 0.16626304 0.11295715 0.066059455 -0.088780098 0.13243473 -0.15726246 -0.1238412 -0.012740163 -0.070086353 0.21755542 -0.23287235 0.18433057 -0.12274584 -0.17790839 -0.041021157 -0.0050623971 0.070637263 0.023096761 0.15779173 -0.065688252 0.045952018 0.069474101 -0.10465108 -0.21183422 -0.027808279 0.10074573 -0.059560999 0.068682648 0.19022103 -0.26961204 -0.10789207 -0.17213589 0.51309657 0.20914096 0.30721337 0.11063161 0.21440406 0.050582644 -0.20527461 -0.35686746 0.074448675 0.047765773 0.24133874 -0.057774555 0.23144066 0.085057572 -0.028654464 -0.31573191 -0.22395869 -0.18062282 -0.023226999 -0.9519704 -0.15510976 0.10465455 0.047627423 0.1979394 0.33466831 0.32251334 0.19874687 -0.32137239 -0.39905739 0.086118482 -0.21158123 0.10903954 -0.15138207 -0.29910812 0.047293223 0.13776255 -0.087031364 -0.097163603 0.0040575145 -0.040846363 -0.23556134 -0.13086452 0.28721333 0.030741226 -0.16529022 0.20385182 0.19413452 -0.052770872 0.11029064 -0.030178986 0.073822856 -0.19422159 -0.06039634 -0.14793245 -0.22738151 -0.061024524 -0.14856316 0.30230439 0.18385339 -0.16696319 0.18681879 -0.050715093 -0.18481193 -0.36239257 -0.012181574 -0.074533321 -0.19503811 -0.050842874 0.05811245 -0.092552945 -0.14988035 0.15948276 -0.11752497 0.13628621 -0.0090942411 0.18753828 -0.078898735 -0.66314346 -0.096886434 0.089363113 0.08646144 -0.065869629 0.042143125 -0.01342944 -0.18148373 0.039237902 0.20062833 0.1242936 -0.056075457 -0.10087786 -0.14591593 -0.19161767 0.02948135 0.072930582 -0.24854326 0.29518503 0.31892547 0.10907078 0.0083628092 -0.29191884 0.094198927 -0.052906238 0.18086548 -0.00025349576 0.11211902 0.049564924 -0.09662988 0.16043687 -0.11289062 0.041228652 -0.25911486 0.074061349 0.0017962882 -0.024255881 0.03230511 0.014104993 0.070350863 0.070063524 0.03581525 -0.13185003 0.031734023 0.16870393 0.075712904 -0.19141603 0.26603198 -0.012518124 -0.33348837 -0.32088748 0.048406631 -0.048898153 -0.029586934 -0.17968723 0.74855584 -0.31640643 -0.01175005 0.60997832 0.20211551 -0.43391466 0.48344758 0.5390445 -0.039786723 0.12869389 0.16128775 0.16778357 -0.30056334 -0.044941276 0.55221051 -0.17548443 0.011271534 0.51336759 0.19900617 0.30934668 0.68837726 0.015757058 0.087049082 0.035965443 -0.36973649 0.097754419 -0.71979964 0.1759495 -0.16726908 -0.29786581 0.16442086 -0.080013596 -0.020818612 -0.046303436 0.1908467 0.01152883 -0.024465965 0.070126593 -0.055139586 0.11343639 0.018454751 0.54688674 0.24583039 -0.00082568516 0.02166611 0.00079600641 -0.073516242 -0.06520351 0.033551548 -0.26213774 0.22538266 0.023364458 -0.13126999 0.13371384 0.014162416 0.31902063 -0.12340885 0.10055219 0.12033098 -0.14953175 -0.15998185 0.13683708 -0.13110316 -0.014985085 -0.12087169 -0.14755122 0.16058375 -0.13690999 -0.16049114 0.14822139 -0.041907188 0.010704163 -0.095833987 0.0047775442 -0.32727909 0.052029382 -0.065776005 -0.015588634 -0.036919545 0.13786276 -0.091473497 -0.18326892 0.073334582 -0.1558591 0.067411445 -0.44679421 -0.079424724 0.086443312 0.11580153 0.074980132 -0.093891494 -0.26297602 -0.058225814 0.097269148 0.10978279 -0.12883247 -0.072932117 0.19305728 0.27344087 -0.24329413 0.041600801 0.10853419 0.34460607 0.0061866553 0.11544051 -0.12567706 0.062389866 -0.02112872 0.056681149 -0.013926036 0.23845454 0.13364187 -0.049887247 -0.054023094 0.065519735 -0.034185298 -0.036598437 0.27282619 -0.07127624 -0.053420957 -0.24530005 -0.23763014 0.29378691 0.37532708 -0.095775075 -0.18408313 -0.24137086 -0.20101309 -0.70335394 -0.40313286 0.14776705 -0.27379104 0.4072628 -0.24615021 -0.09065488 -0.086655945 -0.152538 -0.14004897 -0.17085095 -0.041854411 0.0079429122 -0.16258557 -0.30763999 -0.11843521 -0.066349067 -0.015620917 0.048184913 0.0029846481 0.34839112 -0.017633198 -0.14443927 0.018376142 0.15121669 -0.043516964 0.29812375 -0.47225404 -0.22927764 -0.014682776 -0.13844223 -0.064267874 -0.050583478 0.040501945 0.13513365 0.16210298 -0.13367763 -0.024005301 -0.032673664 -0.047500204 0.01888123 -0.21009795 -0.17897902 0.03200281 -0.078081876 -0.094907731 -0.37189272 -0.080014825 -0.067790337 0.1649505 0.0439751 -0.1918582 0.095556475 -0.23565182 -0.1286011 -0.18932298 -0.050747279 -0.010332879 -0.051061787 -0.29079527 -0.32749093 -0.042379726 0.17734702 0.087610297 -0.36643836 0.021448983 -0.012466314 -0.02847309 -0.19356337 -0.27121985 -0.41368163 -0.12376987 -0.020421907 -0.082300521 0.13290074 -0.25002754 -0.056700334 -0.094718985 -0.11082815 -0.074901596 0.056703541 -0.15796234 -0.066932395 -0.12469296 -0.13441518 -0.26988009 0.42497659 -0.063724943 0.10280838 -0.062929749 0.11530514 0.11134146 0.23584522 0.13138478 0.022174267 0.10891729 -0.014102993 -0.13166527 -0.18501414 -0.1043191 0.34811124 -0.0043735048 0.0083979359 -0.06441582 -0.10902 0.093454033 0.14698273 0.06800092 -0.10324734 0.017187739 0.084867075 0.034892797 0.099409096 0.098233007 0.12555648 0.26961091 0.13573991 0.17454533 0.070227966 -0.06455078 -0.13728277 0.307574 0.063399538 -0.27788818 -0.082453385 -0.053275887 0.090573743 0.091860324 -0.26022297 0.22946353 -0.33720538 0.45724934 -0.11934413 0.0073985853 0.11403755 0.096915871 -0.13468497 -0.088530041 0.17611219 -0.26693666 -0.068577603 -0.45280597 0.53935474 0.2928248 -0.037238877 -0.037662778 -0.20730609 -0.042114247 0.08308094 -0.10891255 0.2916503 0.047621325 -0.049237359 0.16214371 0.023485698 -0.37697369 0.17938522 0.070541896 0.024044989 -0.15681851 0.078712061 0.12670302 -0.14469537 0.11449023 0.13034861 0.31974083 0.23243552 -0.0090222489 -0.04248856 0.38367897 -0.077964805 -0.18101996 -0.076662481 -0.084817939 -0.3342033 0.15897453 -0.14845417 -0.008298452 0.0009258198 0.14182153 -0.0026887043 0.26631692 0.19477786 0.27113074 0.10765716 -0.22728348 -0.049364649 0.10220169 -0.063928783 -0.18132612 -0.079929367 -0.26061946 0.0030089624 -0.0052139182 0.084627546 -0.023617301 -0.082353793 0.029324742 0.20341162 -0.064969569 -0.012130371 -0.26589799 -0.2223963 0.028348329 0.00024787968 -0.01999302 0.052004114 0.048100036 0.064913392 0.17510347 -0.29532298 -0.23251972 0.11520114 -0.22553319 -0.13899189 -0.046314195 0.31921339 -0.077749327 0.26182577 -0.090361193 -0.17462115 -0.13956536 0.030444147 0.061960604 0.0060737724 0.036906846 0.026722535 0.017342702 -0.079756387 0.21084903 -0.12158228 0.014146174 -0.067769453 -0.15381053 0.085914724 0.06541992 0.084750816 -0.088211812 -0.27330542 -0.078688234 0.014224937 -0.15572232 -0.033585466 0.05316674 -0.13950461 -0.02693475 0.33139175 0.015738672 -0.28392613 -0.18243341 -0.070614755 0.22551051 -0.28066331 -0.24457145 -0.32177439 0.19437447 -0.21730629 0.25302771 -0.13064396 -0.30811235 0.15897536 0.19040433 0.0095544895 -0.020611109 0.21088575 -0.011494234 -0.58127141 0.67640132 -0.4447009 -0.079826511 -0.58609921 0.053221665 0.061532348 0.014158657 -0.090274982 -0.014468434 0.14443192 -0.4508099 -0.2888287 0.32700798 -0.069840893 0.16545509 0.60644883 0.070288181 0.17766424 0.052358937 0.067168765 -0.0023061556 0.095913336 -0.14652537 0.03744518 -0.015718443 -0.18299341 -0.013416406 -0.33296865 -0.085868701 0.36388767 -0.46830016 -0.19801176 -0.064434387 -0.056324162 -0.0019538235 -0.069695421 -0.043120425 -0.20431335 0.27992806 0.10523418 0.059924565 -0.030531943 -0.55899894 -0.24615167 -0.14561783 -0.1330981 0.038008194 -0.06834282 0.28807753 -0.14295952 -0.26278386 0.018718228 -0.33342162 -0.22657509 -0.11626436 0.12258407 0.19470862 0.10809956 -0.20069432 -0.070520602 -0.040570945 -0.19528399 -0.033894964 0.19370544 -0.2073926 0.022384912 -0.11908012 -0.20416532 0.11349941 0.08430621 -0.23109066 -0.017197948 0.049804699 -0.18611261 0.16016461 0.3520551 -0.15446427 0.39384994 -0.1224581 0.0023366059 -0.036994506 -0.16046952 0.07530693 -0.034364749 0.40942419 0.046880625 -0.030169349 -0.097637497 0.17336661 0.060817663 -0.005555368 -0.1632642 -0.25684971 -0.21814848 -0.001926032 0.039951727 -0.14037922 -0.0020175555 -0.13336024 -0.03379361 -0.07411731 -0.048244022 0.1005022 0.10886086 0.11371735 -0.067670047 -0.11316446 0.16181986 0.13152327 0.064120352 0.51496375 -0.16420512 0.19746396 0.044853199 0.22701792 -0.1259834 -0.0086132316 -0.085452937 0.34544858 -0.23326017 0.26323098 -0.32983533 0.10454623 -0.13028973 0.29753378 -0.31226256 -0.38986772 -0.043973092 -0.21687679 -0.034452412 -0.033559144 -0.28241792 0.12014063 0.17179085 -0.04039526 -0.049978156 -0.1898059 -0.0005543353 -0.31763852 0.0086315963 -0.079290375 0.088654593 0.17212208 0.050052673 -0.1064383 0.35949817 0.13083078 -0.12590526 0.034151696 -0.067593306 0.2939401 -0.44073808 0.096137933 0.029581999 0.10296171 -0.077132404 0.087090589 0.22829522 -0.11016495 -0.068282709 -0.1058392 -0.16708048 -0.202363 -0.096829966 -0.019833229 -0.10271516 0.25169313 -0.17998119 0.091140479 0.21711832 0.16329718 0.15233526 0.11005507 0.13029711 -0.057210211 -0.30463895 -0.19643798 0.074064635 0.27663454 -0.039247986 0.10321859 0.039409503 -0.068772152 0.16524926 0.041410875 -0.17233458 0.04158004 0.33817211 -0.18809806 0.21964739 -0.31000519 -0.035317343 -0.081066288 0.23701315 0.12713186 0.059559464 -0.12594552 0.083000191 0.023759233 -0.047198202 -0.25687659 0.21209081 -0.14515793 0.14507534 0.0086109424 -0.099082716 -0.046735253 -0.32994118 0.12971495 0.25086346 -0.045550663 -0.040664859 -0.08870025 0.072207414 0.11451797 -0.040147714 0.031203073 0.14055547 -0.12224681 -0.098809436 0.079600863 -0.20155507 -0.021425597 0.083073527 0.048327096 -0.042814557 -0.068607107 -0.1053975 -0.059600141 -0.017342666 -0.10362691 -0.070119046 -0.018553589 -0.13706274 -0.031589027 0.10866438 -0.17546339 0.2289423 0.21343584 -0.19696747 -0.15985572 -0.14931491 -0.18069729 0.13188881 0.027816691 0.1693981 0.085510485 -0.19608083 -0.024140188 -0.043468203 -0.15829629 0.26641837 0.11142188 0.11288549 -0.080763794 -0.08376579 -0.25280747 0.47951952 0.48869839 0.38519716 0.46124211 -0.27092052 -0.37050429 0.14567748 -0.090424806 -0.14584762 -0.0098183556 -0.1197452 -0.054579955 -0.095472753 0.058222607 0.24037224 0.26039121 -0.30901694 0.12202156 0.1408553 0.08163441 -0.2355251 0.0085073933 0.12938237 -0.01314965 -0.13709715 -0.34498894 0.31344631 -0.034392178 -0.017483227 0.052423507 0.13534325 -0.17655803 0.11254808 0.23696926 0.20513976 0.032736886 -0.20149326 0.10780161 -0.098364107 0.18124159 -0.1023638 0.50551897 -0.23707367 -0.24253862 -0.12187913 0.029367466 -0.027425926 0.039162781 0.03809651 0.15486403 -0.26585802 -0.20381312 -0.20228846 0.056994811 -0.16397764 0.073379964 -0.14897324 0.040271498 0.18195429 0.13459323 -0.0088508492 0.13583495 -0.19303927 -0.23618555 -0.18554521 0.012091916 -0.022596501 -0.12176409 0.040608954 -0.052819088 -0.34543413 -0.37243086 -0.20965363 -0.072193779 -0.33864018 0.029778067 0.2451756 0.047057845 0.053858627 0.0082001025 0.079093412 0.25052696 0.021576742 0.0099998452 -0.016022049 -0.050923437 0.02531429 3.3211822e-05 -0.17620137 -0.012960925 0.085308045 -0.21878013 -0.19857255 -0.018577429 0.1931012 -0.12688534 -0.014780088 0.012993016 -0.15731812 -0.018425761 0.089979932 -0.085212521 0.060049899 0.30912399 -0.11503956 -0.080434337 0.018971657 -0.22549917 -0.16804641 0.27950066 -0.034773547 0.28145337 0.12056794 0.015055299 -0.24797954 -0.1791209 -0.28572875 -0.097643733 -0.2492411 0.12069843 -0.066755712 -0.050242953 -0.074821606 0.33164158 -0.022696158 0.022758657 -0.047708176 0.37718311 -0.31359699 0.30179858 -0.30269974 -0.16545394 0.11071616 0.15644027 -0.28310159 -0.37033701 0.297795 -0.83409357 -0.15752898 0.36028966 0.11230035 -0.022869334 0.088835254 -0.25170529 0.056247432 -0.14935288 -0.078400262 -0.19221367 0.056430642 0.14199908 -0.18016534 -0.030394753 -0.044249218 -0.15699717 0.061223008 0.16829474 0.2030942 0.015720638 0.18429393 0.056057818 -0.33828342 -0.039899562 -0.10773479 0.032941591 -0.014498747 0.28702652 0.070945106 0.14296705 0.1822712 -0.26355484 -0.00068369851 0.19458631 0.20482543 0.044280052 -0.2748327 -0.16619478 0.11214179 0.069115385 0.14543995 0.14764215 0.19164051 -0.10105737 0.027500842 -0.094249375 -0.022452516 -0.035818674 0.0056625213 0.23851246 0.32269877 -0.020109776 -0.058120511 0.077023856 0.015692679 0.056031354 0.12760793 -0.02563972 -0.16588959 0.20392297 0.2531836 -0.17187124 0.31410384 -0.13452308 -0.24352574 0.03388853 -0.26017725 -0.0099816564 -0.33550423 0.015457897 -0.14100699 0.067563951 -0.10088878 -0.28732249 0.14273527 0.014776265 0.31484264 -0.13793883 -0.28878731 -0.15362802 0.45373121 0.022471769 0.10717582 -0.055864464 -0.29473731 0.057324454 0.094319217 0.14138696 0.084558368 0.065897509 -0.091602452 0.037677117 0.0099567808 -0.31703559 -0.037800707 0.30102023 0.04123817 0.094236076 0.13913305 -0.68965411 -0.016270431 0.029601758 0.26547199 -0.018912667 -0.049795058 0.15837204 0.41943991 -0.53637052 0.086660929 -0.26048872 0.3570978 0.0020487611 0.45383087 0.30521551 -0.025829259 0.37643862 0.033847455 0.55730152 0.041400071 0.091420189 0.13300526 -0.20849082 -0.21972512 0.41931236 0.22653973 0.26452553 0.66361958 0.15264039 -0.17106077 -0.24650583 -0.35653737 -0.038703829 -0.12999666 0.062913746 -0.34739393 -0.071367845 0.10100709 -0.0090617901 0.058048919 -0.10811097 0.41429594 -0.11011897 -0.031555489 0.27578598 -0.2128038 -0.10869791 -0.1237427 0.077292494 0.18067151 0.20317832 0.020480417 -0.026768528 0.19581239 -0.12491373 0.037689637 -0.19052599 -0.27291027 -0.03718175 -0.27144796 0.0086028092 0.11050715 -0.052435659 0.075285882 0.17734048 0.59032243 -0.1408632 -0.20339666 0.3270469 0.033833731 0.15193996 0.060409315 -0.22681871 0.003448803 0.072294846 0.0062398599 0.18918034 0.18395194 0.18417042 0.17088003 0.4045102 -0.14427264 0.056292739 0.020700138 0.052453436 -0.022141773 0.078635782 -0.037528247 -0.093956187 0.52073944 0.091324985 0.15325806 0.084230363 -0.027179448 0.062212039 -0.062006425 -0.029919524 0.13741681 -0.16496813 0.13045664 0.13321969 0.24149872 -0.076334797 -0.048766904 0.19799988 0.028259434 0.097071886 -0.17656137 0.21991843 0.27679455 -0.030750206 -0.051358819 -0.20602895 -0.39008611 0.043471918 0.051659543 -0.075832225 0.2026033 0.20991339 0.22684667 -0.1194022 -0.0027368614 0.16928758 0.057346124 -0.012373464 0.2988697 -0.10493475 -0.061227307 -0.21168178 0.49935877 -0.41583005 0.2188134 -0.015259132 0.10431064 0.016266026 -0.094416194 -0.13587701 0.40827382 0.14646757 0.051380701 0.0452586 -0.059608217 0.21334031 -0.12586448 0.30831823 -0.2140055 0.097385995 -0.20290501 0.19870536 -0.29215783 0.18479371 0.52359647 -0.085865095 0.25012916 0.12003994 0.36530781 0.13154599 -0.24689876 -0.089226045 0.14758116 -0.25195542 -0.21453854 -0.34272835 -0.37089616 -0.16331723 0.15729229 0.088376619 -0.11642138 -0.040243927 0.062510684 -0.13793513 -0.24281254 -0.27662402 -0.17207639 0.20323451 -0.053525656 -0.2341634 0.1153041 0.21800472 0.075165495 0.073136874 -0.028238099 -0.12673587 -0.065556161 -0.10949114 0.25035697 -0.27012596 0.013286665 0.24886779 0.070467219 0.012443506 0.14771134 -0.044512771 -0.10267099 -0.080801509 -0.038061805 -0.13261923 -0.34688947 -0.18678278 -0.033776049 -0.17065665 0.056776326 -0.01266703 -0.23376991 0.017023262 0.22811411 -0.15059441 -0.23015685 -0.22352445 -0.044188075 -0.033662155 0.00025466966 -0.039141823 -0.28890267 0.032232691 -0.038689774 -0.15284561 0.4436323 0.23984112 -0.16434178 -0.091332242 -0.16199455 -0.10278301 0.30654052 0.034548201 -0.027651872 -0.17484961 -0.035154853 0.16256225 -0.053842079 -0.0034739571 -0.078781977 -0.00880602 -0.20006411 0.19188175 0.35504144 0.16909893 -0.083588496 -0.076508999 0.14832729 -0.10559817 0.2227935 -0.076959997 -0.057566211 0.025952335 0.03180391 -0.09173663 0.11595126 0.064969242 0.068254881 0.18281856 0.024526985 -0.13272703 0.24228936 -0.31830987 0.20116892 0.12778276 -0.23930719 -0.025913404 0.007287961 -0.039574582 0.11828238 -0.10459971 -0.17225888 -0.20207553 0.25327638 0.47681653 -0.41023281 0.025645308 -0.053740244 0.65673119 0.18744236 -0.33454028 0.08554253 -0.53430682 0.16292757 0.066585265 -0.14427672 0.26778704 0.074763805 -0.25760904 -0.30263901 -0.092787668 0.1505881 0.00030569849 0.034217447 0.45492172 -0.034205891 0.13192458 0.079751097 0.12490485 0.13144481 -0.21098296 -0.11884061 0.028350785 0.07681752 0.1306711 -0.087097295 -0.0036058782 0.095777966 0.10874518 -0.034996387 0.068829253 0.031693943 0.0080578933 -0.078735083 -0.11326351 -0.003014659 -0.087837487 -0.089544095 0.089997813 -0.20795156 0.2028635 0.40925971 -0.20914532 0.082496226 -0.00070921204 -0.096567839 -0.3121635 -0.30378863 -0.0011014312 0.095233358 0.35388982 0.32442677 0.09464772 -0.20711555 -0.13688038 -0.11165936 0.0028381748 0.021261867 -0.12059765 0.024159431 -0.08456289 -0.21729381 0.12066668 -0.28032428 0.23737597 -0.26419577 -0.057946932 -0.11732762 -0.076222315 -0.35594654 -0.082253002 0.0064129829 -0.21316765 -0.063273743 0.04109006 0.020100858 0.077293828 0.12378348 -0.19414185 0.2790812 0.11534616 -0.052069038 0.17119691 -0.16444448 0.09049549 0.017378269 -0.085782319 -0.036394224 0.084712729 -0.019291708 0.073408306 0.15118903 -0.089516215 0.061496053 0.02698254 0.020465659 0.2026726 0.3244856 -0.034389123 -0.11358051 -0.062625505 0.23533233 0.12230875 0.24105211 0.054677449 -0.0012285672 0.16560513 0.075327709 0.0042191632 -0.026859503 -0.43310833 0.1667342 -0.22363691 -0.11798672 -0.26093173 0.43417177 -0.24068883 -0.076132454 -0.69293278 -0.10121062 -0.27132654 0.5005151 0.21626185 -0.41762543 0.1185986 0.12560895 0.61562556 0.12777774 -0.00053222734 0.069767676 -0.23965316 0.1589552 -0.31171185 -0.049176704 -0.29439002 -0.11221556 0.28489384 -0.024873216 -0.047204256 0.30900741 -0.037912756 0.26616606 0.124434 0.28601307 0.11830237 -0.27519497 -0.47482356 0.14188728 -0.11264367 -0.2269457 -0.10930306 0.25532752 0.16522706 0.026304387 -0.074470095 0.12504326 0.19161819 0.52220243 0.15766566 -0.22563604 0.1767979 0.027119583 -0.11940055 -0.068254143 -0.41430983 -0.52458745 0.11037789 0.07682249 -0.040682036 0.18179001 -0.14016473 0.12387878 -0.32859954 0.051794447 0.20638233 -0.072028562 -0.075508736 -0.0252955 0.011162803 0.010553828 0.048735768 -0.021147424 -0.099436507 -0.048912652 -0.26050231 0.17418312 -0.0038020383 0.087518692 0.0027922746 -0.16133578 -0.063445866 -0.13227853 -0.14293851 -0.013213833 -0.15318589 -0.10415154 -0.16813363 -0.047646958 0.074369699 -0.068630219 -0.17847843 0.00031463313 -0.28240797 -0.22126472 0.12455545 -0.14309274 0.067089044 0.20090906 0.012354965 -0.035397764 -0.22661999 -0.11975943 0.075892493 -0.17867316 0.17997609 -0.078220345 0.089383386 0.10819174 -0.11120936 -0.21090576 -0.079685867 -0.1077048 0.075225241 0.14691184 -0.18082412 0.038615845 -0.058339894 -0.098178521 0.043325108 0.29369536 -0.077829428 -0.0052478509 0.023187591 0.00072105153 0.12261543 0.035992276 -0.13674022 0.14267689 0.020139402 0.078343496 0.63262701 -0.19070816 0.11558667 -0.23810275 0.18789919 0.086059198 -0.082595043 -0.060283169 0.23493536 -0.24023408 0.455255 0.10424705 -0.035758898 -0.16018254 0.29614764 -0.074575931 -0.0084541766 0.14293692 0.072677784 -0.31074762 -0.089749411 -0.31451419 0.23756872 0.16072869 -0.00057124248 -0.20140466 -0.29027528 -0.35752067 -0.10977528 0.027001133 -0.10120123 -0.09663301 0.036074363 0.17242776 0.015705295 0.22066966 0.075877123 -0.075997889 -0.0080120806 0.15985247 0.20810674 -0.06483712 0.11884131 0.18430313 0.2845487 0.044612739 -0.04080452 0.088217221 0.2054863 0.022335527 0.024780892 -0.14668816 -0.10715899 -0.40265438 0.27345362 -0.020587636 0.19257498 0.18183713 -0.0099067139 0.17146514 -0.12571244 -0.095738932 0.28665105 0.11950714 0.0073803281 -0.0071296669 -0.19354014 0.21138571 0.036205329 -0.11785167 0.041293088 -0.0036911727 -0.078138582 -0.051965434 0.24876323 -0.070211597 0.26159012 0.28268254 0.17285347 0.048755806 0.12839869 0.09889695 0.031748623 0.083146304 0.22965348 -0.026040293 -0.016036177 0.099357747 0.11819612 0.11947252 -0.007927062 0.091863967 0.027187465 -0.082623281 -0.0020389045 -0.35475925 0.0017353852 -0.20632595 0.095134139 -0.18253644 -0.14109084 0.093177274 0.084791459 -0.031653263 0.0095228925 0.073908217 0.1172675 -0.23927441 -0.021972418 -0.031234575 -0.16140501 -0.038039375 -0.10783193 0.026827473 0.04623054 -0.095534101 0.17655145 0.019704239 -0.0077052889 -0.075474754 -0.020744411 -0.0056985221 -0.08478304 -0.024297677 0.11306375 0.012299404 0.10014444 -0.0092826765 0.21907651 -0.0066285548 0.08323025 -0.33307797 0.36031777 -0.2382272 0.58339947 0.1309053 0.2969479 -0.085404016 -0.2378888 0.01368668 0.073204845 0.16793889 0.25717437 0.14696142 0.091056503 -0.1064404 0.022926575 0.20029221 0.2511324 0.044554073 -0.068038352 -0.59304124 0.033990752 0.23183055 0.13085692 0.29310977 -0.33773929 -0.36738905 -0.11467426 0.15574561 -0.32580844 0.1214266 0.34548208 -0.1593599 -0.080140613 0.0068729506 0.31805068 -0.14210926 -0.10704842 0.11473963 -0.22397465 0.14539932 -0.15253985 0.46001604 0.30134034 0.06234641 -0.46278566 0.0815451 0.0080934195 0.12063008 0.18617071 0.40259537 -0.095658869 -0.032414544 -0.25353274 -0.25116619 0.15262662 -0.1731765 0.15695852 -0.021831913 -0.32335651 -0.18790729 -0.040547661 -0.32505813 -0.55924213 -0.012215104 -0.12924211 -0.32645279 -0.041395552 -0.037413023 -0.032453988 -0.22418575 -0.16507173 -0.44597185 -0.031592131 -0.04576933 -0.026593873 -0.29866526 -0.042710293 -0.40797377 0.019424042 -0.016708452 -0.14737783 -0.22664791 0.087063998 -0.32974616 0.035764754 0.061097227 0.24181709 0.11779763 -0.32936674 -0.15642004 -0.12520288 -0.014901456 -0.031288721 -0.2016629 0.25771856 0.079631425 0.25148419 0.17483646 -0.30289549 -0.050776593 0.088408969 0.20197505 -0.083105989 0.17851667 0.057545222 0.30880353 -0.050832439 0.089737788 -0.061569702 -0.055310845 0.0060296739 0.0022038189 -0.0004145299 0.22631121 0.039926805 0.25028807 0.178758 0.016494969 -0.25342542 0.080136172 0.31878766 -0.1065351 -0.18418328 0.094883978 -0.73463774 -0.097477846 -0.13605203 -0.21949731 -0.17715926 0.040657416 -0.38513616 -0.36057326 -0.22783893 0.65334243 -0.29100221 -0.0045758821 -0.31992871 0.49010891 0.34041271 -0.052089818 0.27842382 -0.5621559 -0.17726678 -0.48542452 -0.26637793 -0.090326317 -0.65159714 -0.27553651 0.88831502 0.052616362 0.086619385 1.0592023 -0.11673615 -0.17022681 0.17985985 -0.15076122 -0.13804065 -0.23976786 -0.18717033 -0.13615465 -0.41633752 -0.45705536 -8.6057764e-05 0.13975617 0.042459186 0.19653231 -0.091475584 -0.10790569 0.2029303 -0.091015503 0.036281116 -0.20199193 0.095360912 0.14653137 -0.037181173 -0.12964073 -0.19238107 -0.28623739 -0.087207921 -0.050394595 0.0080865901 0.11576452 -0.36629316 -0.12758476 0.13043328 -0.10052922 -0.18690173 -0.14796306 -0.041737255 0.14189591 0.25960165 -0.36165842 -0.0098484568 0.080833293 -0.047392782 -0.14499711 -0.15291509 -0.063934669 -0.1034574 0.1420057 0.021662783 0.058424868 0.12730578 -0.43269163 0.045796085 -0.046673257 -0.16805543 0.03528418 -0.011652547 0.074663848 -0.055031277 0.024250589 -0.16136175 -0.073900878 -0.20535551 -0.19165006 -0.20083725 0.025246557 0.10373581 0.14946629 -0.054736771 0.10436911 -0.15411317 0.10994831 0.14554846 -0.16195388 -0.046793502 0.00061356468 -0.10651899 0.16047955 -0.049261857 0.25972083 -0.14295395 0.21308178 -0.035786528 0.11196955 0.16190414 -0.061702929 0.0475576 -0.01721935 0.045587622 0.070989653 -0.061098672 -0.17162395 0.038939346 0.34790441 0.27146831 0.051017445 0.066358969 0.073103912 -0.22547975 -0.1217512 0.49909186 0.083443992 0.25435448 -0.17395122 -0.030525351 -0.097890422 -0.26189345 -0.39318836 -0.053144038 -0.13747691 0.43705079 -0.23762685 0.16566791 0.030318709 0.38098013 -0.30309933 -0.055319548 0.012898079 0.10605245 0.15344189 -0.14423315 0.11393002 0.31082529 0.0058881235 0.10587747 -0.29782519 -0.26979995 0.55319309 -0.23458335 0.070537031 0.25063121 0.013393878 0.077654645 0.045591488 -0.27387285 0.1654852 -0.044440027 -0.089303203 -0.17891322 -0.028758436 0.098342404 -0.066375509 0.092742525 0.10488188 0.31401724 0.085816674 0.0061325585 0.093749434 0.058052309 -0.16744077 -0.07159216 -0.016248638 -0.17476821 0.091163777 -0.026529999 0.071253829 0.24448694 -0.033486173 0.091472439 0.032667577 0.017925285 0.13285178 0.22042604 0.071839981 -0.086696193 -0.25195247 -0.20042303 -0.013047083 0.15171906 0.079773746 0.13366982 0.08899983 -0.016466683 0.0048895301 0.20346992 -0.3295224 -0.058643702 0.30242053 -0.054552719 0.076681644 0.0022621572 0.18343706 -0.079535022 0.22852193 0.19284262 0.14887826 -0.08136189 -0.074701287 0.061652761 0.0048681623 0.0038812978 0.15834159 0.02764025 0.044184405 -0.22049621 0.0097745433 0.10592204 -0.31257084 0.19660042 -0.00084720511 0.13873796 0.021795152 0.14312455 0.067629986 -0.14113592 -0.18213002 0.083206005 0.097038716 -0.082844436 -0.17209128 0.033862468 -0.17436452 -0.20818378 0.19380321 -0.092435732 0.048374783 0.055018067 -0.015302732 -0.049854737 0.32817799 0.037995234 -0.14639735 -0.18651481 0.029900569 -0.081254348 0.10566987 0.12305721 0.31511101 -0.12173934 -0.28017965 -0.21760046 0.060076945 0.16321093 0.32114711 0.11868147 0.18195559 0.29145896 0.023981927 -0.077811494 -0.22244835 0.021538418 0.16975696 0.17636789 0.19851477 -0.11018356 -0.065187998 0.01805545 -0.041036937 0.21531259 0.4754988 -0.36563289 -0.35148016 -0.11436312 -0.063995354 0.17676225 -0.27845827 -0.2761009 -0.045331109 0.10861156 -0.053665388 -0.15273465 -0.020031108 0.18165854 -0.39544713 -0.023219502 0.089655489 0.19190341 -0.094665609 0.043146007 -0.0040885173 -0.19359526 0.018867455 -0.3117421 0.23772386 0.24300233 -0.11570699 0.012758732 0.31942677 0.024001611 0.19112505 0.038361739 0.0093706157 -0.086591996 -0.22235711 -0.20834786 -0.039508015 0.065567322 -0.20755376 0.37711346 -0.11685703 0.26214924 -0.13232346 0.21206248 0.1519381 -0.12053353 -0.23782085 -0.055600949 -0.22103381 0.032623038 0.078398995 -0.0086238999 -0.11349714 -0.17259026 -0.15112428 0.088727131 0.075542301 -0.0041339165 0.050423112 0.033571396 0.053533025 -0.066426612 -0.031215467 0.14956953 0.0093287062 0.044904601 0.18200722 0.10293876 -0.24329914 0.35279658 0.12076291 -0.40789267 0.1583422 -0.2016589 -0.033320013 0.042036042 0.093740351 0.13738821 -0.090222061 0.19787224 0.32091439 -0.0271642 0.056173682 0.094515271 -0.011959041 0.038245186 0.044362534 0.1290191 -0.21518098 -0.0083050271 -0.028861351 0.43227229 0.43161878 0.038196575 0.061234225 0.062205825 0.27751458 -0.0042600818 -0.061965194 0.049452577 -0.2144416 -0.0013831111 -0.061436292 0.1414472 -0.52375579 -0.039909415 -0.35010779 0.13935193 0.15897183 0.58714086 0.0046348353 -0.63659698 0.11343195 -0.15520689 -0.63136941 -0.46098211 0.27347296 -0.78714746 0.50850409 -0.48885167 -0.44429508 0.00074208819 -0.137236 0.12033246 -0.099394858 -0.22915995 0.36794052 -0.079744108 -0.70849311 -0.42111588 -0.62965161 0.1047944 0.20061299 -0.071140364 0.048356213 0.12905253 -0.10108452 0.019297516 0.29270515 -0.20293622 0.26910505 0.10641211 0.063259989 0.30318701 -0.45420206 0.071978375 0.055877529 0.0042363708 -0.066623248 0.065042779 -0.11931294 -0.33836207 0.41567466 0.13959564 0.026160304 -0.24320483 -0.029174957 0.019029547 0.12754294 0.058966003 -0.048165679 -0.037139937 -0.34896362 0.043636341 -0.41962048 -0.13791446 -0.10362119 -0.3392958 -0.083928622 0.62368149 0.23886628 0.009054224 -0.020779543 -0.30322295 -0.057742644 -0.30020934 -0.24104473 -0.10322459 -0.043423254 -0.0091956044 0.2318666 0.18374991 -0.371317 0.14653791 0.12691738 0.041742552 -0.13784571 -0.28663641 0.11895156 0.019374061 0.081298828 -0.079571053 -0.097081885 -0.011412743 0.2161604 0.046171419 0.096101865 -0.14000431 0.20736653 -0.27982199 -0.26968384 -0.24322481 0.28093261 0.039176233 -0.035014737 0.20686226 -0.013332264 0.21272847 -0.1219129 0.19900973 0.015889313 0.14440925 -0.11514514 0.062683068 0.20863098 0.13483846 -0.25482985 -0.1061523 -0.032100469 -0.44210398 -0.14777912 -0.018487098 0.015488064 0.13661468 -0.047445588 -0.012180082 0.0099812858 0.11904465 0.027669281 0.12139307 -0.093465835 -0.19895902 -0.25587615 0.22682662 0.094908953 -0.22780144 -0.17500299 0.15515812 -0.13447361 0.26804966 -0.62525386 0.19201185 -0.019819064 0.6112591 0.086907014 -0.17080969 -0.36615914 0.33129233 0.11642905 0.26840284 0.035927184 -0.3511025 -0.045642592 0.11030292 0.19066849 0.10886618 -0.067196347 0.073290072 -0.45186809 -0.15680614 -0.14269637 0.0040989439 0.23597571 -0.34821141 -0.10856805 0.42916495 -0.30264372 0.067930683 0.17750482 0.34060031 0.13362303 -0.26118895 -0.28379536 0.17805158 0.13948086 -0.14775018 0.34276569 -0.18081576 -0.10823941 -0.0061060665 -0.29929677 0.075526588 -0.175998 -0.45434812 0.12347773 0.12342749 0.060610961 -0.039170973 0.039686251 -0.28472692 -0.42791581 -0.059727993 0.011339973 -0.48812383 -0.23545395 0.087397635 0.0006473721 0.53697705 0.16559443 -0.059715796 0.028205268 0.014403898 -0.032342166 -0.014047356 -0.17535751 -0.045394845 0.13328384 0.0039452207 0.18747805 -0.066073284 0.05067879 -0.016086275 0.17667317 -0.092273258 -0.26071897 -0.33724287 0.19295298 0.15365201 0.075965583 -0.036521841 -0.013714355 0.19105779 0.099558093 0.28790644 -0.3971073 0.15829195 0.30977368 -0.29510835 -0.36002865 0.14681306 0.025922492 -0.084230073 -0.097103111 0.093949206 -0.23595963 -0.057370279 0.11012482 -0.17528188 -0.021683672 0.15400988 -0.21781905 -0.1179015 0.023524852 0.13721088 -0.33015651 -0.022622598 0.073908731 0.035609525 -0.17536165 0.06295415 0.11304821 -0.062729552 -0.10577507 -0.015220424 -0.16845782 0.094383642 -0.061630726 -0.38808155 -0.11683992 0.0036953685 -0.33608681 0.19977207 -0.18902861 -0.66146123 -0.041855112 0.46922553 -0.32198131 -0.23605022 0.15724097 -0.037188355 -0.39170527 0.52813369 0.36065346 -0.61956602 0.17810714 0.19344433 0.080946229 -0.12533303 0.38496861 -0.041395258 -0.48920792 0.032651186 0.13551319 -0.037774537 -0.52144676 -0.24678001 -0.028252652 0.025805568 0.029273184 0.039502308 0.45027938 0.008477727 -0.056548271 0.17208968 -0.39971247 0.045883153 0.3333903 -0.047479413 0.12657805 0.048364937 -0.12200692 0.24070193 0.077404767 -0.39027479 0.16617729 0.00073219766 -0.24808902 0.08141306 -0.43961319 -0.0020512836 -0.20270884 -0.29669702 0.052658036 0.12890854 0.16098841 -0.0025103621 0.011418768 -0.35710838 -0.48416987 -0.0078384113 -0.38798222 -0.36929414 -0.13095032 -0.15754053 0.049080156 0.19277084 -0.0066449312 -0.031358339 0.071625859 0.014929643 -0.18974383 -0.084387928 -0.14786667 0.03559133 0.0018685462 -0.073733367 0.078857675 0.062759601 -0.16079549 -0.14088051 0.011457769 -0.14015964 0.019480031 0.25564292 -0.034467079 -0.19571581 -0.049939767 -0.055661704 0.026809914 -0.084748261 0.019913223 0.012370285 0.018995697 -0.2716347 -0.050012358 -0.1490458 -0.04366209 -0.10454051 0.16750297 -0.023628196 0.018496737 0.068066567 0.19685191 0.11238027 0.14567766 0.13740896 -0.09117543 0.059406944 0.017099282 0.13907951 -0.093145534 -0.11846961 -0.25642523 -0.14694704 -0.20811245 0.092152767 0.13216074 -0.069848835 -0.032942377 0.019219734 0.19902408 -0.15077871 -0.052313119 -0.11792734 0.12376181 -0.17229865 -0.10278268 0.19974448 -0.093420014 0.17542236 0.12560037 0.1083302 0.070857443 0.26343301 0.016157532 -0.44198939 -0.33148903 -0.053539366 -0.06554649 -0.17059869 -0.070564553 -0.22287259 0.0022811114 0.078036249 -0.33068508 -0.14882316 -0.15159982 0.32632774 -0.2071164 0.099391758 0.26946041 0.18525699 -0.46671236 -0.22865586 -0.32188112 -0.2100254 -0.13380843 -0.11568294 -0.19605194 -0.17764311 -0.44840106 0.15974505 0.098967247 -0.1267363 0.30726427 -0.0033966894 0.25508323 0.12530017 -0.21732587 0.0071676574 -0.27795702 -0.053469542 -0.0038637938 0.077700406 0.12625238 -0.32254004 -0.033210266 0.16165565 0.31466299 -0.30888703 -0.06418851 -0.019078417 0.010804073 -0.17968434 -0.11119495 0.12787819 0.089448959 0.14100632 -0.13239995 0.042504538 -0.0044147191 -0.23783529 -0.10575072 0.38075435 0.17302683 0.047087617 -0.064113893 -0.51930505 -0.013374317 -0.21185173 -0.16195627 -0.0045898352 0.12219895 0.1366836 0.26218489 -0.016803818 -0.18439431 0.31620482 0.11938659 0.048226006 -0.222516 -0.13198277 -0.081769079 0.21682705 0.099212348 -0.084266789 -0.4927783 0.077775814 0.12650937 0.11074562 0.36177048 0.2284355 0.17037293 -0.34195188 -0.00030741398 -0.18814926 -0.12479898 0.022439655 0.12760769 0.33954039 0.079842769 0.063671365 0.24404724 0.197602 -0.041477036 0.26127172 -0.30246583 -0.0085985158 0.02607278 0.13373294 -0.20084675 -0.011018528 0.17094697 -0.13784783 -0.067847453 0.13391264 0.049121846 -0.083838008 -0.080876112 0.037347231 -0.05825796 0.065562919 -0.19029208 0.011579862 0.033373427 -0.16640906 -0.31904662 0.25598618 -0.09373159 -0.61190277 0.043100651 0.16720559 -0.11750484 -0.072927378 -0.013234204 -0.026858628 -0.34349632 0.26443568 0.52793926 -0.47451419 0.43045163 -0.074079573 -0.028819151 0.13771075 0.2413325 0.045404632 -0.15703994 -0.39975509 0.2522496 -0.23051414 -0.42030594 -0.25997221 -0.24597692 0.44740433 0.11856907 0.049242776 0.09046872 0.22602306 -0.087650031 0.2665869 0.061519317 -0.14880984 0.40162286 -0.057762291 0.29444537 -0.18200782 -0.20439015 0.30848807 -0.16427292 -0.56129795 0.38971943 -0.17186493 -0.21901403 -0.13577543 -0.20595142 0.25186127 -0.53149801 -0.72109133 0.10272887 0.31891763 0.11779589 0.0064996397 -0.019563545 -0.32904869 -0.3510181 -0.07177598 0.11348666 -0.61779112 -0.22490534 -0.12486707 0.13072248 0.056011643 -0.10557809 -0.14973301 -0.095286638 0.027362151 -0.15637541 -0.0040660561 0.047719158 -0.13293411 -0.03746872 -0.083131261 0.13467225 -0.0015288902 -0.15188025 0.11120309 -0.002017488 0.0016963624 -0.03760143 -0.0081115291 -0.052498046 0.038785033 -0.13044107 -0.17074531 0.042793054 -0.010284303 0.067274176 -0.080968075 0.040604044 -0.19151644 -0.00052716344 0.01774808 0.26194522 0.017086724 0.42650577 -0.022848453 0.12455915 -0.24267669 0.04623989 0.24445018 -0.11272975 0.29481137 -0.099134892 -0.061818641 0.050652109 0.041701037 -0.073783726 -0.036195427 0.16430239 0.069614917 -0.01344688 -0.11134323 0.10157645 -0.14320257 -0.039211791 -0.064582512 -0.21885996 -0.084743723 -0.15517111 -0.07634607 0.063874908 0.14020732 0.019235093 -0.29320288 0.28484249 -0.042497955 0.078747384 0.15229346 -0.077355511 0.2220781 0.16090868 0.19631255 -0.20230958 0.029859997 -0.07471028 0.1393321 -0.49011141 -0.29164079 0.10239265 -0.0083303628 -0.46386859 -0.25624189 -0.221377 -0.2460272 -0.10629518 0.36949095 -0.25657499 0.16992763 -0.45104823 -0.077689454 0.12835434 0.12012526 -0.28157836 -0.13205042 -0.07842204 -0.070846595 0.046386067 0.19829161 -0.20881766 -0.0032365655 0.33004817 0.052027319 0.34802312 0.10217442 0.099953637 -0.06466946 0.043069459 -0.03741242 -0.18954617 0.12270238 -0.0031282692 -0.038673177 -0.15815111 -0.090914287 0.33907974 -0.31913301 -0.15144059 -0.085754186 -0.045941185 -0.023144824 0.079480991 -0.0003577469 -0.091521457 0.34483832 0.20545542 -0.073286876 0.084849648 -0.34463829 -0.15210822 -0.34618089 -0.27102417 -0.12524804 -0.024329353 -0.16518466 -0.1423876 -0.19141397 -0.020683641 0.050088972 -0.020047011 0.088323355 -0.12827715 -0.09293513 0.014221349 0.21759868 -0.36053452 -0.048804495 -0.12431042 0.082404308 0.0065810871 0.073682278 -0.16315195 -0.16885014 -0.26433215 -0.15343103 -0.091786109 -0.10322371 -0.083366878 0.0024799115 -0.20971602 0.069484279 -0.12234633 0.058624972 0.0024811744 -0.088808209 0.10887052 0.079866886 0.031310488 -0.14992951 -0.010386487 -0.07930547 -0.1222584 0.071715809 0.10376932 -0.11181876 -0.0079631936 0.19819877 0.18462732 -0.040817954 0.18452716 -0.043091245 0.12089793 -0.029224286 -0.075686887 -0.028204091 -0.12897269 -0.015462485 -0.047233619 -0.031925462 0.081806585 0.11257345 0.094003029 0.070551567 0.097249098 -0.083847597 -0.29090944 0.12946925 -0.074263424 0.26178297 -0.13671274 -0.099301949 -0.12289844 -0.2331842 -0.12282234 -0.14831914 -0.056683905 -0.14340945 0.19857237 -0.079278737 -0.084559567 -0.35917976 0.15026027 -0.10310357 0.30111179 -0.15636063 -0.12222794 -0.27714309 -0.043856338 -0.27433339 0.2103686 0.32776663 -0.019631682 -0.11065719 -0.2715643 -0.031173211 0.16821016 0.1488183 0.048778828 0.06534794 -0.17201355 0.14483644 0.10689561 -0.15141864 0.041527718 -0.20242275 0.037758544 -0.22139449 0.023058834 -0.0032031105 -0.19805863 0.1183738 -0.13058017 -0.031686235 -0.070853524 0.09378127 -0.15900391 -0.051984459 0.017562781 -0.08565753 -0.010406462 0.1724866 0.17679262 0.011028156 0.25779027 -0.018160658 0.077583112 -0.10480473 -0.11368015 -0.315117 -0.049718041 0.01077769 -0.11944458 0.053497981 0.075739883 0.091892682 0.32245773 0.37379804 -0.045247957 0.33341449 0.11409131 0.0025603278 -0.21310236 0.061532937 -0.053869527 -0.11575331 -0.045536779 0.19281708 0.016305758 -0.006296753 -0.061458301 0.069033153 0.18243587 0.061229385 -0.20098402 -0.14918171 -0.17840749 -0.096858948 0.07559038 0.12069173 0.12613595 0.07356035 0.049395639 0.098933436 -0.086099051 -0.042248707 -0.13256432 0.0085560046 -0.034109201 -0.059221841 0.092034951 0.0096573839 -0.11148915 -0.0098266685 0.12398182 0.066554718 0.11237936 0.22267672 -0.026203608 0.15928935 0.26981765 -0.067798287 0.060655311 0.033804651 -0.11188459 -0.068847395 0.048542921 -0.082406022 0.057388037 -0.031289753 -0.046461087 -0.19933803 -0.020264138 -0.12278022 0.29647103 -0.34036216 -0.085215122 -0.10878789 0.18868612 0.095770098 0.22307557 -0.054975498 0.090740763 0.057919659 -0.18601155 -0.32629204 -0.14686319 0.27422363 -0.056469448 -0.44803342 0.11529459 -0.46639064 0.0031963359 -0.071490802 -0.017907448 0.13708773 0.35219207 -0.5204199 0.24775146 -0.40821537 -0.16878568 -0.11080217 -0.29877511 0.01157203 0.2344767 -0.011405229 -0.48373488 0.01831156 0.033392355 -0.4160448 -0.034111757 -0.2518951 0.29980406 0.030722475 -0.18746698 -0.20478308 -0.030934913 -0.075042576 0.036845937 -0.21025035 0.025414975 -0.0084822206 -0.011056462 0.2062836 -0.12643328 0.20523836 0.070764787 0.16774791 0.11440674 -0.24475886 0.22907808 -0.1259775 0.074158154 -0.15361509 -0.12852852 0.17998834 0.10314076 -0.2054621 -0.033678152 0.30357271 0.19005792 0.14906177 0.16224982 -0.086364344 -0.035344034 -0.02257202 0.068256438 0.076905698 -0.24148463 0.32746819 0.39833435 0.18354782 0.15099385 0.13360558 -0.073069297 0.27235562 -0.10033762 0.36824724 0.23826098 0.0536124 -0.12732103 0.0022263767 0.00049929525 0.23315626 -0.060683522 0.25016829 0.069583043 0.29543006 -0.31572366 0.22374751 -0.013021594 0.067414731 0.34494308 0.33672354 -0.16606797 -0.36724696 -0.16025235 -0.15099683 -0.037080985 0.1348483 0.028300544 0.046249121 -0.055687357 -0.11196918 -0.099575631 -0.024306005 0.018959215 0.10624064 -0.17375363 0.14860979 0.0067030219 -0.14162746 0.017414376 -0.078490555 0.040629633 0.11520642 -0.1553261 0.10843796 -0.059372433 -0.4135575 0.62296855 -0.21123596 0.12014811 0.34227154 -0.068135299 0.11433596 -0.017862562 -0.16361205 -0.18594956 0.20480274 0.7960611 0.25385144 0.027539674 0.35206962 -0.18794374 -0.1357788 0.016529717 0.16113327 -0.067122594 0.62665999 0.16227734 0.037467115 -0.3850522 -0.095797166 0.25435928 0.73276192 -0.12936841 0.46541199 0.3189579 -0.13606545 -0.051822998 0.1490268 0.1108007 -0.060346909 0.071695335 -0.10158554 -0.30951494 0.23822235 0.1052333 0.020017527 0.15568638 -0.052547246 -0.11007769 -0.30791238 0.16865814 -0.24415381 -0.14135407 -0.055666763 0.21935873 0.20854776 0.13135578 0.028695401 -0.0061546778 0.20775713 0.081712656 0.23885326 0.42292261 0.26236024 0.2726633 -0.46197507 0.44597915 -0.17734511 -0.011363053 0.049012762 -0.08231543 -0.41637501 0.10549486 -0.1201771 0.076788209 -0.078352876 -0.029241316 -0.098025903 0.14243995 -0.1309827 0.06730926 0.027270952 -0.082337596 0.14136474 0.054766357 -0.043851603 0.33229938 -0.18107729 0.1076961 0.10400077 0.027604168 -0.11458902 -0.12978686 -0.15140052 -0.11368509 -0.050891459 -0.038608458 -0.12511438 0.04898496 -0.090000696 -0.14407133 0.010453764 0.26392865 -0.02884203 -0.17651111 0.062694229 0.29837155 -0.10121739 0.04882985 -0.0059834602 -0.004050124 0.16368403 -0.05418358 -0.14644624 -0.31239232 0.13261802 -0.17307591 0.040466789 -0.1542564 -0.065726355 -0.32197103 -0.21827482 0.042412527 0.030017367 -0.0062570954 -0.010179105 -0.18449755 -0.0065675159 0.0023188561 -0.047400128 -0.10353074 0.19193903 -0.084970921 -0.17015928 -0.083383463 -0.093655229 -0.42771873 0.3524867 0.045546293 -0.28525358 -0.28908283 0.3181991 0.23964962 0.21416835 0.17982763 0.24560882 -0.060257815 0.049577061 0.0083122989 0.37161782 0.1419377 -0.27462336 0.242483 -0.23507258 -0.45088339 0.047078878 -0.27532652 -0.22443844 0.24855609 0.081906736 0.44199085 -0.24859723 -0.10536919 -0.19881383 -0.38284981 0.05557384 0.075971857 -0.16658498 0.049601983 0.037562683 0.11793129 0.42076114 -0.063315608 -0.11736234 0.23218654 -0.18830614 0.31921157 -0.07286264 -0.33654931 0.044339057 -0.08313337 0.11968484 -0.2429215 -0.17189661 0.33845109 -0.075967826 -0.1986348 -0.04415004 -0.16887963 0.15200177 0.032778822 -0.0046290979 -0.04651409 -0.081087187 -0.11841247 0.32949799 0.13728261 -0.059068657 0.16717541 -0.16810937 -0.055930465 -0.084989928 0.17134377 -0.063109294 -0.11900784 0.029245717 0.41859537 0.20930506 -0.0043505011 0.015433732 -0.051967315 0.13896184 0.27292758 -0.25822988 0.0022381668 -0.14263707 0.19441801 0.097191729 0.19732012 -0.072721817 0.071222015 0.067020774 0.19557704 0.065928124 0.048352342 -0.20475674 -0.043398231 -0.20898214 -0.17091836 0.25814062 0.60857928 0.33173433 -0.063103899 -0.039405394 0.16269128 0.29680586 -0.029371107 -0.21582019 -0.14717123 0.19721246 0.058083009 -0.055197835 0.18577319 0.079378709 -0.098945938 -0.0050635706 -0.2730152 0.20210357 -0.34479654 0.22734188 -0.14991289 0.12473103 0.054825589 -0.011591295 0.1107401 -0.0076921368 -0.13309069 -0.055860512 -0.14232649 -0.15411738 -0.038887732 -0.17366138 0.19583145 0.062328089 0.44283774 0.37081397 0.13123725 -0.38920316 0.26987469 0.11623018 0.21447973 0.0056544873 1.0040432 0.3688477 -0.16864395 0.43167481 -0.1712859 0.47421759 -0.048523698 -0.78223646 -0.37725607 -0.13904625 -0.56157589 0.3680619 0.020227421 0.28405812 0.47666457 0.094718121 0.18974529 -0.6173349 0.127765 0.016542105 -0.4082894 0.33228451 -0.14794675 -0.16057914 -0.17823851 -0.1138493 0.093940005 -0.27739942 0.040392939 0.035436731 0.39355499 -0.090724327 -0.23601642 -0.049189612 -0.21959285 -0.088611856 0.3131583 -0.28275222 -0.12586619 -0.018659914 0.35884237 0.22154222 -0.1779691 0.051066831 0.027171012 0.02790718 0.12979451 0.19521421 0.14823727 -0.27604112 -0.014369712 0.34289232 0.020751191 0.23531896 -0.32597765 -0.042833578 -0.022720255 -0.074586339 0.028523412 -0.45769933 0.25788495 -0.26475495 -0.13013548 0.081882186 -0.18371607 -0.18991771 -0.19495584 -0.069775403 0.13172869 -0.065859377 0.27730265 -0.20660374 -0.047822755 -0.17089997 -0.050811116 -0.11371966 0.025599791 0.093871027 -0.052859906 0.051631775 -0.20814362 0.019599613 -0.1349857 -0.21479347 0.000948734 0.28784683 0.057770755 -0.12977128 -0.067068651 0.08996886 -0.028134845 0.13267234 -0.096250579 0.2841998 -0.044042516 0.086776838 0.037158459 0.036671732 -0.13420267 0.10233371 0.23492441 -0.10456299 0.14971353 -0.058691442 -0.32046866 -0.18648516 -0.020099003 0.059210967 0.029872708 -0.082611255 0.064536855 0.012442694 0.16989557 0.0042002508 0.098055437 -0.15313196 -0.075881556 -0.13065468 -0.0882641 -0.18116909 -0.14395072 -0.0035858375 -0.21268721 -0.50388664 -0.38700709 0.19670297 0.31178498 0.40653449 0.36418158 0.21142748 0.23027655 0.4769251 -0.16242652 -0.11626805 0.47656262 0.53659004 0.090398461 -0.0029182206 -0.052737933 -0.1077725 -0.12079469 0.328376 0.44192395 0.11399421 0.3106508 0.060735147 -0.30212346 0.025019301 0.49620777 -0.072481573 -0.0057292832 0.28588921 0.10679464 -0.1129097 -0.38491789 0.15406431 -0.15057053 -0.19318557 -0.047844104 0.044564147 0.082661845 0.32900983 -0.15289053 0.014819284 0.20280036 0.2229543 0.099505514 -0.025906814 0.14061622 0.058466386 0.15089177 -0.23391671 -0.011852834 0.21480322 0.0049777403 0.12826581 -0.24794546 -0.18342812 0.020646174 0.39119139 0.02847405 0.36360177 0.11578764 -0.21523285 -0.08450681 0.11963851 0.15152295 0.27049869 0.14142837 -0.063652903 0.16287072 -0.11235438 0.086524583 -0.076233044 -0.14308271 0.043743134 0.35503852 0.13796924 -0.39586625 0.12803547 -0.22789751 0.36191261 -0.08253374 0.095565163 0.033251993 -0.090665363 0.082562052 -0.037188683 0.041925669 0.010814811 -0.35449365 0.19565766 0.14112686 0.093195304 -0.31947187 0.3005482 0.2159102 0.037367485 -0.17047244 -0.16281907 0.086919948 -0.078465424 -0.12535027 -0.33023196 -0.063222714 0.13581577 0.089961238 -0.21372277 0.078869887 -0.13467462 0.12549241 0.10656376 0.20347337 -0.027741313 0.11006955 -0.045200944 -0.0117487 -0.031403452 0.084935404 0.17776422 -0.0087403366 0.01529775 0.11353617 0.34863961 0.076645367 -0.039758325 0.36279076 -0.3054603 0.13203025 -0.13553338 0.25433922 0.031787354 0.4260059 -0.088274308 0.016163686 -0.26617742 0.21326467 -0.084157161 -0.23462005 0.37630498 -0.050657067 -0.19753854 -0.35170814 -0.18108387 -0.0043289633 0.38935095 0.23149669 0.040264852 -0.058895372 0.038261048 0.15220265 0.023895264 0.30322593 0.26055494 0.019376623 0.023936385 -0.058540117 0.19182983 0.43567172 0.29073992 -0.031367257 -0.025443658 -0.043568697 -0.13713574 -0.093267046 0.25019726 0.21306314 -0.07527829 0.093172081 0.055808455 0.14927275 -0.11498249 -0.21503556 -0.037352826 0.18868041 0.056817379 -0.1023433 0.25553578 -0.066234596 0.10988414 -0.024322798 -0.051547173 0.10191662 0.07346461 -0.082914054 -0.19853508 0.61862558 -0.37322393 -0.013438286 -0.15359546 -0.13732962 0.0097280089 -0.23856956 -0.080202349 -0.11518976 0.28816995 0.034798261 -0.24402405 0.26361996 -0.0018825849 -0.12957218 0.28525212 0.12236465 0.063037343 0.28674388 -0.32156721 -0.055817179 0.0022277089 -0.27248281 -0.059572127 -0.018404961 -0.16351329 -0.04410968 -0.19602251 0.070540614 -0.036763955 -0.0813611 -0.095700592 0.04329652 -0.06735684 -0.20508979 0.25226671 0.28437403 -0.13240668 0.13040172 -0.035894878 0.13244262 0.052293874 -0.19648841 -0.015486564 -0.23029043 0.35173583 -0.019243265 -0.23948385 -0.079484217 -0.096957974 0.094474062 -0.077556662 0.039152816 -0.062845528 -0.038721204 -0.047361869 0.13454416 -0.06977234 -0.024320429 0.0041261618 -0.24894711 -0.14933962 -0.16873011 0.010658781 -0.089646026 -0.15116453 0.11631414 0.017868375 0.054555938 0.10890477 0.088165112 0.15913849 -0.08783929 -0.002513224 -0.12849328 0.17693007 -0.036358498 0.27189806 0.21483205 0.4986378 0.044968292 0.081447467 -0.39357772 0.25106981 0.030896422 -0.20413372 -0.14906654 -0.50975406 0.098960407 0.17157026 0.087751597 -0.10670608 0.27671167 -0.25623226 0.06555105 -0.16353226 -0.08237993 0.20601214 -0.23765869 -0.25516155 0.34120813 0.093743481 -0.071227707 0.045725014 -0.12169601 -0.020082755 0.44674027 0.167998 -0.0066065672 -0.013361609 0.18842711 0.08719603 -0.31929779 -0.069225103 0.29947203 0.27561545 -0.025853658 -0.045195617 0.080532081 0.15215281 -0.12450781 -0.25111285 0.062738292 -0.062246233 0.059891641 0.16288881 0.1314002 -0.15021919 0.073038362 0.0005741507 0.037536211 -0.23235105 0.00020148183 -0.32555428 0.03736693 -0.065055281 0.12265947 -0.017147221 -0.16914138 0.38377923 0.38227955 0.064622514 -0.039111111 0.2326773 -0.026696462 0.067872934 0.11433353 0.035263594 0.032000486 0.31163636 0.18079033 0.25331187 0.047895424 0.018248769 0.09085127 0.051811565 0.12702726 -0.073402897 -0.015630484 0.0051200408 -0.26186183 0.030139543 0.059294347 0.34068444 0.27548856 0.057405885 -0.22267422 0.12939572 0.072032318 -0.032524735 0.26032609 -0.19417533 -0.034742832 0.15848003 -0.012288504 -0.093371704 -0.16162397 0.0075015058 -0.089612879 -0.035701834 0.039604172 -0.024116436 -0.13620369 -0.094584666 0.095469303 0.022553509 -0.050441265 -0.0019403425 0.065073997 0.14315896 0.032364625 0.001724212 0.12475006 0.23297548 -0.0033789976 -0.10089287 0.17728482 -0.008953914 0.14795175 0.27098423 0.16146789 -0.36719611 0.31536144 0.42756289 0.052835066 0.037395019 0.45321175 0.19522053 -0.37704232 0.54051268 -0.36329865 0.45283517 0.00042123566 0.17664523 0.020408401 -0.03610744 0.17117 -0.042144775 -0.26784778 -0.39832258 0.71923661 -0.04776853 0.0040611895 0.048136137 -0.26620629 -0.0044690082 -0.088899918 -0.024071401 0.1765921 0.056697987 0.0065013394 -0.036765069 -0.40322569 0.16982149 0.047881361 -0.29508519 0.27875972 0.14187516 -0.094007663 0.048713606 -0.11151118 -0.29203102 0.091750331 0.083840996 0.49650517 0.049891464 -0.13040236 0.49697948 0.068071455 -0.084095143 0.082075387 0.096889794 0.28017339 -0.096818358 0.10800333 -0.3098641 -0.10965005 0.34634003 -0.21819454 0.10510674 0.28017336 -0.22382258 0.17689209 0.1030275 -0.0022067879 0.21661216 0.13351968 -0.20816326 0.26539695 0.10243613 0.21995553 0.099591084 0.033073477 0.20467962 0.20486856 -0.1428674 0.24399459 0.07328368 -0.0068829977 -0.017108645 0.039020307 0.3693884 0.19079368 0.12684518 -0.115856 0.14909603 0.15051615 0.15130617 0.18273163 0.23266628 0.27550915 0.19325851 -0.20028426 0.21498278 -0.10146497 0.038727101 0.19377233 0.3358095 -0.2272381 -0.2982128 -0.12536775 -0.24338716 0.10793997 0.02875701 -0.24158564 -0.026023224 -0.14745815 -0.11287855 -0.28302822 0.12884776 0.15867917 -0.12612379 -0.23463936 0.023160292 -0.063307524 0.10567299 0.065643601 -0.066430591 -0.19328542 0.14690335 -0.14849953 -0.019340781 0.084073901 -0.26182297 0.26182184 0.19165918 0.21759535 -0.28841311 -0.054206107 -0.080815047 -0.11137211 0.11335419 0.17819564 -0.14107423 0.43510008 0.43745211 0.36613041 0.12171751 -0.0069991024 0.48960301 0.4344548 0.12971623 0.44121256 0.47104955 -0.32239899 0.072744571 0.15860297 0.047364999 0.39985996 0.17529742 0.087543093 0.13168232 0.24556415 0.055434205 0.37012896 0.11022633 0.029874474 0.004382899 -0.096264862 -0.024831051 -0.30354273 -0.16816835 -0.017802291 -0.038919829 0.049854092 -0.088042997 0.0089824861 -0.31355453 0.15686567 -0.089289278 -0.24122229 0.11301384 0.16571501 0.026141178 -0.41929984 0.13770513 0.09282615 0.23124747 0.14654709 -0.03806968 0.15815608 -0.11599541 0.14433374 -0.13991629 -0.19775087 -0.26269454 -0.24456005 0.048088685 0.38051701 0.0073310179 0.073036663 -0.040862396 0.1111543 0.11184315 -0.29224384 0.32041201 0.14191855 0.019215398 0.075594917 -0.19828434 0.076370135 0.047607344 -0.12557723 -0.15973651 0.16770528 0.24380413 0.26628333 0.10799135 -0.069466427 -0.041399028 0.043410089 0.19367231 0.12162672 -0.027535412 0.2007352 0.11300988 -0.090017639 -0.032835659 0.033187356 -0.17903233 0.2590529 0.13949272 0.29258576 0.0075523816 0.088978291 -0.071571052 0.2150654 0.036362439 0.2062128 0.26513416 0.002671466 0.048840631 0.13862556 0.10782619 0.059309609 -0.075922862 0.099260136 0.029728411 -0.043568976 0.3141889 0.036048945 0.00098888355 0.028388102 0.085800096 0.12556647 -0.097305231 -0.070139803 -0.052391071 -0.17781989 0.0044424608 -0.035258122 0.19731204 0.19601807 0.10742754 0.12480027 0.41272691 0.27285016 -0.084424652 0.23241834 -0.076810822 0.034195796 0.13475905 -0.037098259 -0.2268064 -0.27248076 -0.089716323 -0.087603636 0.29814219 -0.32531381 -0.14700368 -0.2276026 0.22673957 0.14730565 0.56239015 0.28613001 0.48722869 -0.45257053 0.22033662 0.17553246 -0.31682083 -0.093650363 0.15805319 -0.24594378 -0.38156658 -0.29920644 0.27293894 0.19526833 -0.022991037 0.13561963 0.0094604464 0.38836613 0.1987876 0.13259611 0.062369075 -0.13747969 0.091183558 0.077529453 -0.068724595 0.046024296 -0.31339511 0.073440433 0.16962603 -0.022204001 -0.25731954 0.093830645 -0.066152029 0.12456843 0.11416388 0.09427835 -0.084821001 -0.13120246 0.048371147 0.061903737 0.12326659 -0.013823393 -0.046200536 0.11191429 0.059949961 0.12644291 0.15837511 0.097320311 -0.23517095 0.21742952 0.37066472 -0.040904712 0.19960724 0.12778427 -0.011523355 0.11018472 -0.040262029 0.070704699 0.41225514 -0.030857407 0.17720094 0.19215396 0.094996259 0.091149971 0.012955165 0.034383278 0.26385358 0.11479577 -0.15832977 -0.10370091 -0.040298514 0.46510431 -0.043856852 0.050221477 0.13167897 -0.075656325 0.1670499 -0.32198703 0.075212017 -0.12396284 0.077864662 0.0069852229 -0.012805696 0.11125558 -0.098372601 7.1062372e-05 0.078225493 0.2896131 0.037952214 -0.15427034 0.073609829 0.20229606 0.098234534 0.023286581 -0.020777194 -0.22712268 0.051179312 -0.00077835179 0.080188207 0.22752497 0.18075244 0.17834389 0.085302152 -0.078914009 -0.11204396 -0.0045950757 0.24210623 -0.19587566 0.23544973 0.12581567 -0.11359461 -0.02443679 -0.10101581 0.044855602 0.092009947 -0.001326476 -0.051210359 0.078090876 -0.79668963 0.17739958 -0.023524987 0.29766747 -0.15280814 0.1297569 0.11580563 -0.31919628 0.20172465 0.31870916 -0.081231028 0.058032751 0.24001074 -0.10265885 -0.05041201 0.19464883 0.048902351 0.26751116 0.12941733 -0.36147168 0.47682813 -0.21710186 -0.47340682 0.012754617 -0.087601475 -0.15377317 0.0028138277 -0.61312789 -0.20643091 0.15039088 -0.046475671 0.034648992 -0.11194332 0.16100621 -0.12620658 0.043062486 -0.22323373 -0.044818871 -0.044358905 0.14111166 0.0090086171 0.072389536 0.14440116 0.10368391 -0.029639542 -0.056462124 0.09541931 0.21310623 -0.23491473 -0.059148248 0.023318682 -0.024413159 0.19357352 0.077422343 -0.073232003 0.086769201 -0.10178432 -0.31335214 -0.15991752 0.35873312 -0.18950853 0.038269788 0.10093064 0.16006045 0.19362454 -0.091619946 -0.084161468 -0.16429788 -0.063931823 0.099272765 -0.32172793 0.075075842 -0.081259839 0.030763591 0.073683798 -0.12989281 0.007233066 0.092662349 -0.088218637 -0.024247093 0.19388585 -0.04455905 0.22531822 0.077078745 0.11955716 -0.065384366 -0.21754509 -0.074417025 0.062880345 -0.10212176 -0.093792766 -0.096975334 0.11252362 0.0014019955 0.066517241 0.037899885 0.13386419 -0.24968112 0.18891309 -0.068413541 0.10133161 -0.30467802 0.17943405 -0.17010745 -0.10976185 -0.050932243 -0.058625482 0.051875416 0.0017304926 -0.25166637 0.00040086763 0.18152325 -0.28291214 -0.15536307 -0.18490531 0.038441651 -0.017115796 -0.090366125 0.10040694 -0.046076845 -0.49248484 -0.16439542 -0.195501 0.026680853 -0.046073049 0.19213562 0.38340023 0.25328705 0.19676287 -0.069360256 -0.47341931 0.0097177029 -0.078217357 0.059773404 -0.75224084 0.49044594 -0.20436361 -0.33868152 0.029394679 -0.15464532 0.47748631 -0.047213756 -0.38436824 0.091315031 -0.44716191 0.088745914 0.17361011 -0.194345 0.26248541 -0.085702673 -0.10607217 -0.18071368 -0.075634122 0.16476347 0.13073955 -0.11702918 -0.15466368 0.15539113 0.1350181 0.1335433 -0.16231801 -0.20519069 0.025849393 -0.029560063 -0.18888082 -0.41864675 -0.072185412 0.00078835571 -0.048069838 0.044517703 0.11452535 -0.08210583 0.18335573 0.091544025 -0.19042195 0.07438764 -0.011146337 0.024895255 0.081365556 -0.095878445 0.090943716 0.22474632 -0.090459272 -0.020941937 -0.10289648 0.047151979 0.050625369 0.34340492 -0.035729334 0.22333121 0.16443665 0.056439027 0.21083058 0.10049743 0.016526459 -0.058334745 0.066969171 0.0017238175 0.034815021 -0.31834444 0.42893961 0.19489259 0.072229981 -0.024642399 -0.050857615 -0.005493958 -0.020934014 -0.050216861 -0.060235046 -0.087202728 0.07589937 -0.039575662 0.3434639 -0.0025045539 0.40604931 0.11786022 0.037373085 -0.027805522 -0.15969428 -0.39704168 -0.077461295 -0.21383531 0.12850159 -0.040943194 -0.097542129 -0.18682945 0.02641058 -0.35418323 -0.0034810302 0.02024832 0.032584209 -0.070241258 -0.35090148 0.06305562 -0.10645554 -0.002343205 0.035535328 -0.15848057 0.11017063 -0.0087700551 -0.18788333 0.12634166 -0.16314405 0.074395306 -0.53261548 0.1852095 0.05940333 0.1129261 -0.35538796 -0.063529909 -0.22006525 0.033733148 0.42025974 0.29646957 0.15069841 0.065854155 0.56808919 -0.17770353 0.16693583 -0.079661518 0.30468851 -0.19659649 -0.55050635 0.16144156 -0.2099665 -0.12900601 0.23732552 -0.66579175 -0.22369994 0.24979891 -0.59701741 0.27452338 -0.20432018 -0.17756431 -0.27288073 -0.34841985 -0.0038299973 0.61093915 0.079552189 -0.33035123 -0.030080516 0.09805534 -0.18205859 -0.2869719 -0.27225232 0.18947616 -0.017504254 -0.01877822 -0.19240956 -0.09242636 -0.15933098 -0.00012206659 0.050035033 -0.017044792 0.026595207 0.037029784 -0.073811077 -0.097561494 0.010893363 0.0023200288 0.15930198 -0.031688176 -0.18125691 0.1737598 -0.094269946 0.04233411 0.11121357 0.028452955 -0.12923113 -0.0014296896 0.66616863 0.32302299 0.10646293 0.014723121 -0.072672427 -0.04318678 0.48886389 0.25568381 -0.097916171 0.20155515 -0.014083521 0.18820128 0.016945524 -0.16179514 0.11298038 0.078689478 0.017009901 0.29238489 -0.2531496 0.084062628 0.035918009 0.11898468 0.036091741 0.15092666 0.074832417 0.064856149 0.040300343 0.24956252 0.10677869 0.10714158 -0.068687804 0.11737401 -0.11635731 0.09833201 0.08396323 -0.2338509 -0.23452292 0.35840201 0.027271669 0.074779361 0.094750762 0.061575327 0.034429148 -0.061353158 0.054487374 0.043371443 0.24606571 -0.22338691 0.093053639 -0.062640458 -0.19295686 0.0074285595 -0.029132914 -0.058485504 0.021059388 -0.033294871 0.066000029 -0.083143376 0.0053195711 -0.12054085 0.14087635 0.030793402 0.045421738 0.32216734 0.25102931 0.16302155 0.11177523 0.15330371 -0.32115322 0.66541219 0.15118425 0.3003644 0.39035982 0.02627489 -0.10382043 -0.17098826 0.096077554 -0.24025717 0.083909966 -0.063862585 0.20918864 -0.022666704 -0.29537508 0.27583805 -0.1244072 0.325591 0.079645626 -0.25416827 0.21562262 0.21184717 -0.38868877 0.0036982039 0.21756747 0.10123546 -0.071317226 0.014160301 0.093401633 0.28498542 -0.026226144 0.020194806 0.06749595 -0.094374895 0.1297953 0.32430395 0.3679263 -0.14397961 0.086669773 0.14510527 -0.13893874 -0.076170087 -0.17708524 0.11646339 0.15680273 -0.053362176 -0.21163893 0.2261399 -0.10757382 0.088613138 0.1157781 0.2543456 -0.23465936 -0.11569329 -0.047091715 -0.01657249 0.25346196 -0.19792411 0.19546573 -0.33360821 0.01741695 -0.034352288 0.16734903 0.17184918 0.14655197 -0.036227658 -0.21344954 -0.067829631 -0.042131845 0.022885012 -0.10508399 0.072137646 -0.12559108 0.043093614 0.0079646157 -0.20159948 0.091389142 -0.37156019 0.21007825 0.025006387 -0.083880574 0.15766777 -0.00064728269 -0.10371257 0.18479647 -0.10953186 -0.22714517 0.31599638 0.18168694 0.12949067 -0.03960143 -0.1964591 -0.1472564 -0.053085223 -0.025777549 -0.11522074 0.059867445 -0.045839306 -0.00052030187 -0.022277795 -0.14147815 0.079757646 0.21140844 0.059937559 -0.001740096 3.2235635e-05 0.16418919 -0.18091092 0.0001921549 0.26067516 -0.030372187 -0.066478066 0.010522059 -0.0051582525 -0.11353187 0.23347574 0.10015175 0.10292356 0.025617415 -0.12162453 -0.092333987 -0.0057778489 0.19584727 -0.14126684 0.2988255 -0.0025447961 -0.19822976 0.25881296 -0.081103809 0.10974795 -0.4350006 0.52064812 -0.67898124 -0.58810157 -0.39512286 0.50350171 -0.11133655 -0.12305125 -0.29804868 -0.35579914 0.22973943 0.020046616 0.10209731 0.33627877 -0.82910967 0.4688848 -0.25803202 -0.19275996 -0.46276981 0.14109327 -0.090275526 0.15519114 -0.046053678 -0.02720928 0.4284122 0.080081649 0.049318157 0.23325738 -0.077309214 -0.13068341 -0.18507406 -0.13270493 0.27811769 -0.13327442 0.018685378 -0.021920357 0.038021117 0.11163184 0.13728628 0.24930952 -0.13332686 -0.062256686 0.017667718 -0.091449484 0.0044191084 -0.0069191558 0.015286206 0.038605537 -0.11149982 -0.2664347 -0.043885928 0.10607435 0.27175438 -0.042449273 -0.13713545 -0.00062218355 0.15532975 -0.066675499 -0.50210577 -0.20741071 -0.034052324 0.018521413 0.12138856 0.45800495 -0.063980602 -0.0041941833 0.086750634 -0.077294067 -0.095006637 -0.12418557 -0.16569145 0.18241042 0.086123548 -0.27429885 -0.16000316 -0.10530867 0.32902274 -0.16723788 -0.11785471 -0.034508739 -0.080238104 0.010856855 0.007792749 -0.14605285 -0.29966095 0.10306622 0.069481559 -0.017683696 0.31436804 0.13948044 0.17888527 -0.18366662 0.019588858 0.062437024 -0.035785127 0.019293262 -0.027213292 -0.14324166 -0.31258786 0.078460172 0.036897227 0.042506345 -0.17621459 0.060033955 -0.057530429 0.30622193 0.078227088 0.11392954 -0.053836305 0.18565887 -0.02121147 0.02730464 -0.02567251 0.080291815 -0.029339364 0.31329653 -0.027503705 0.1909958 0.30518699 0.099972129 -0.047732007 -0.10135579 -0.080577187 -0.028060412 -0.47766012 0.03136773 -0.32508212 -0.056538504 -0.31389204 0.36518565 -0.59633064 -0.22315855 0.082588084 0.34186503 -0.070547007 -0.0033216437 0.11351044 -0.17800142 -0.15113792 0.22910401 0.23014928 -0.17825392 -0.43316817 -0.15088259 0.29105303 0.26711246 -0.40940073 0.36877918 0.054439209 0.21297702 -0.061216187 0.028320804 0.9033007 0.30479044 -0.14219345 0.11167777 0.2175436 -0.33636779 -0.33710939 -0.43701258 -0.10961204 0.11702412 -0.23331884 0.015435885 0.020335946 -0.14734364 0.22777544 0.034629382 0.23070849 0.016346 -0.20685272 0.045216862 0.32006153 -0.037901383 -0.042941034 -0.051426113 0.027317317 -0.38736469 0.25795993 0.14090413 -0.036019731 0.19434516 -0.10494401 0.1150697 0.37694389 0.059707664 0.30711734 0.14936018 -0.043047771 0.18550712 0.028530426 -0.023155659 -0.09261892 0.010280957 -0.20831841 -0.038547717 -0.32967281 0.18524969 -0.0054245149 -0.014622685 -0.14153709 -0.019392099 0.036133185 -0.10897158 -0.18835025 -0.26339513 -0.098952666 -0.13305779 -0.11115112 0.017187677 0.078518562 0.1218932 -0.038252849 0.3146964 -0.098418258 -0.042435311 0.13009824 -0.27254879 -0.16803293 0.57880652 -0.06704697 -0.015995957 -0.42783248 -0.16165556 0.056174599 -0.17102738 0.064430222 0.039028741 0.25137156 -0.049285945 0.066874385 0.050386164 0.26758283 -0.090448685 -0.021938197 0.18703297 -0.54088819 -0.085368223 -0.04288993 0.0048846398 -0.00064927095 0.072275698 0.086489782 0.07536225 -0.015001095 0.11506598 0.2653718 -0.098453566 -0.27316126 0.45315659 0.077211812 0.073542863 -0.0072327619 -0.037665021 -0.39834169 0.19225445 0.15070257 0.028645795 -0.055821892 -0.083961502 0.22105721 -0.070017256 0.56971574 -0.50643325 0.24020202 -0.25488579 0.18581997 0.35908553 -0.18972597 -0.11748461 0.055064056 -0.19856071 0.12293891 -0.30845949 0.42661041 0.37151465 -0.31735319 -0.14520124 -0.24712768 0.12383003 -0.25279289 -0.047969058 0.50532275 0.045052446 0.1395376 0.3315222 -0.17862245 0.076354943 0.014811287 0.24144243 0.12115316 0.082000896 0.0039006313 0.023480095 -0.033331044 0.098395631 0.11315732 -0.35767594 0.013297306 -0.12607712 -0.17942326 -0.062922299 0.058649611 -0.13408992 0.06187395 -0.34682319 -0.044655889 -0.35030761 0.20253508 0.43645683 -0.25570178 -0.082702935 0.044329572 0.045525081 0.5481016 0.12850244 0.1231892 -0.1889654 -0.53149402 -0.29717141 -0.04117813 -0.1411927 0.011598654 0.21955121 -0.029282922 -0.039710656 -0.036542367 -0.089249641 -0.049393483 0.051316835 0.033374522 -0.038845059 -0.7556138 0.091362692 0.071635298 0.14244378 0.062096588 -0.29778332 -0.034245849 -0.018747186 0.12271049 0.28341863 -0.075395353 0.064345829 -0.029836755 0.06963896 -0.032430835 -0.20118044 -0.087134831 0.20990987 0.57864809 -0.052288838 -0.006811813 -0.024187285 -0.17120823 0.13467558 0.1354042 -0.1953613 -0.043966949 0.25642645 -0.053764109 -0.15299439 0.062731281 0.14026219 -0.01574843 -0.28496492 0.076792404 0.061155293 -0.013347158 -0.1058226 0.047135863 -0.15110667 0.19819629 -0.28782797 -0.14839803 0.037393339 -0.044048004 -0.11477002 0.059700187 -0.046401642 -0.17310259 -0.24131189 -0.065519154 -0.02559869 0.070301451 -0.12223256 0.13132328 0.43415448 -0.12361107 0.26434207 -0.24331453 0.273229 -0.036580078 0.45937848 0.45497349 0.179387 -0.056314737 0.14020474 -0.1320464 0.35391456 -0.038690355 0.10565928 0.27372667 -0.30055854 0.23296277 0.27010059 -0.012258853 -0.018242726 0.16766712 -0.16706756 -0.064194538 0.082973517 -0.036540955 -0.080273576 0.092143178 0.030443961 -0.032887451 0.015097241 0.081720345 0.022374254 -0.22810918 0.053522002 -0.020620229 -0.18288581 -0.22136836 -0.012677047 -0.11061936 -0.31927225 -0.29914778 0.2055883 0.070521384 0.21597242 0.11677228 0.36999923 0.099344537 -0.23438646 -0.035640072 -0.17147303 -0.08639697 -0.0096171368 0.22600459 -0.52169561 0.18903278 -0.17602971 0.045421273 -0.21780719 -0.28699595 -0.045447979 -0.29128799 -0.37263259 0.030113982 -0.25748444 0.0044920887 0.10014412 -0.19956647 -0.070302241 -0.098130375 -0.12007103 0.17585905 -0.016518746 -0.23209837 -0.082308091 -0.036213603 0.027777875 -0.011563768 -0.14801243 0.15469934 -0.1036133 0.044619288 -0.017023645 -0.092210375 -0.13818668 -0.0553018 0.47767255 -0.40561676 -0.21328564 -0.0018458078 0.10956264 0.27868074 -0.12435739 0.0006455523 0.13585711 0.1487239 -0.0010503366 0.033779941 0.17447717 0.022448098 0.18761428 -0.035081971 0.10710196 -0.33109587 -0.10059954 0.42013863 -0.059340142 0.13524462 -0.045545578 -0.071365006 -0.074855447 -0.064528003 0.0015997792 0.060310911 0.089150362 -0.22091408 0.15876481 0.27113017 -0.40597296 0.052559018 -0.26639211 0.21520084 0.16627237 0.48020795 -0.37986559 -0.071446858 -0.17317605 0.23129921 -0.021605674 -0.30909348 0.30033615 -0.030786399 0.2766889 -0.5573706 0.22910231 0.20056264 -0.35904759 -0.016623139 0.26390257 0.24834971 -0.073112167 -0.32879737 0.047483787 -0.044119574 -0.25369385 0.39049056 -0.0038226906 0.22931226 0.35422885 0.30545214 -0.19585715 -0.13074452 0.22643279 -0.030498281 -0.15469909 -0.21833226 0.30648702 0.12805267 -0.40364277 0.15579993 -0.047914561 0.046174727 -0.29410785 0.18537061 0.34050012 0.032617651 -0.25549576 0.0050340835 0.29517937 -0.12858737 0.022714367 -0.10228853 -0.11386737 -0.1812961 -0.044612285 0.023765042 -0.19550428 0.011573933 -0.073448196 0.34754181 0.0055998284 -0.054559253 0.020787807 0.30057532 0.049832463 0.28937444 -0.06048378 -0.28611964 -0.46704364 0.050545018 -0.23276964 -0.062254053 -0.048507061 -0.041526433 -0.13111746 0.12154392 -0.11048508 -0.040525805 -0.18273251 0.24218786 -0.21251006 -0.030214643 -0.051682524 0.11324568 0.19811115 0.025843667 -0.17005534 0.20195888 -0.0069909589 -0.032874338 0.22346891 -0.19688191 -0.12286415 -0.59286404 -0.30771124 -0.023476984 -0.21497242 0.052821346 -0.075658157 0.66646683 0.21569368 0.0026833839 0.023505034 -0.15701629 -0.046083283 -0.14680302 0.10632911 -0.054701172 0.04386308 -0.14705954 0.14296685 0.040232752 0.21545836 0.43832248 -0.38976297 0.020130452 -0.081377737 -0.12459112 0.15595302 -0.052099824 -0.056848016 0.17467418 -0.23001409 -0.25423634 0.0073922835 0.28705451 0.040218614 0.34332037 0.037510406 0.39200184 -0.0029749963 0.19381864 -0.4427731 -0.2431825 -0.022073643 -0.48665479 -0.08380986 -0.40447718 0.20129277 0.70561594 0.17075545 -0.43354028 0.096734911 0.59805423 -0.1732948 0.26331601 0.2984221 -0.055867095 0.38929391 -0.65226084 0.14917494 0.58083755 -0.37641907 0.79542488 0.34599739 -0.14828619 0.084051713 0.50701338 0.014231765 -0.097532816 0.041102264 -0.028617775 -0.19864924 -0.15109868 0.00084235211 0.27203533 -0.088010944 -0.040362366 -0.2240161 0.072881594 0.30572852 -0.024649136 0.088515721 0.00074946019 -0.23484598 0.055304613 -0.014233533 0.13096942 -0.0036454191 0.080183417 0.18502472 -0.16378467 -0.15566501 0.15710342 0.10814905 -0.0053182938 -0.02607164 0.089807764 -0.053277981 0.13704391 -0.18556507 0.32638898 0.060542136 -0.06053213 -0.023107396 0.29485658 -0.054269198 0.064188592 -0.096697435 0.030557213 -0.06574665 -0.20876008 0.23918772 0.054178614 0.070502214 -0.16315475 0.032523777 -0.079312518 0.1246649 0.02600597 0.051909093 -0.19829038 -0.059754636 0.037932597 0.046523366 -0.10753317 -0.021017546 -0.010669496 -0.041780468 0.072077006 0.0053068274 -0.20421816 0.21570605 0.056987058 0.1251698 -0.025282778 -0.26449177 -0.22030026 -0.13810109 0.033807807 -0.21818598 0.18996549 -0.035651483 0.077142768 -0.056815472 0.14643399 -0.2685287 -0.082602426 0.074729539 -0.067435883 -0.14734785 -0.23257646 -0.25182775 -0.074118204 -0.017076736 -0.096936658 0.24554308 -0.02806055 -0.17103766 0.057046935 -0.070353374 -0.17357635 -0.065847188 0.016065054 0.021094527 0.27441153 -0.1257071 0.071307227 -0.15801199 0.031231234 -0.32957065 0.15475507 0.14659278 0.11448222 -0.4479346 0.29055363 -0.080987729 -0.14921215 -0.072490789 0.064592682 0.17840993 0.027796971 -0.050280459 -0.1371641 -0.22663559 -0.13665059 0.25995544 0.014628572 -0.49285689 9.1571274e-05 0.23210052 -0.41212806 0.029371867 0.17485175 -0.0071507753 -0.11152508 -0.099272579 -0.61508685 -0.091880523 0.068915203 0.20742616 0.119683 -0.042590592 -0.062786527 -0.17703293 0.099756926 -0.20806621 -0.088197671 -0.077614076 0.10179964 0.10067189 0.13912429 -0.0079876753 -0.045838445 -0.079118915 -0.52746195 -0.099797085 0.016699819 0.055335794 0.027620787 -0.20768142 -0.12666592 -0.11459219 0.18911678 -0.6378451 0.1580718 0.043959022 0.44103706 0.35396367 -0.13966648 0.23014233 0.051179908 0.017870257 0.53932232 -0.29510188 0.076273419 0.46373501 -0.044303339 0.33460125 0.033646252 0.014131114 -0.0075588254 0.22831242 0.06627579 -0.14940976 0.11173192 0.25112173 0.39848569 0.22890323 0.1412472 0.12127116 0.027571848 0.30840427 -0.073018126 0.16507241 0.01901086 0.25257218 -0.042114727 0.0031696777 0.17910691 0.31080392 0.1900759 0.040976375 -0.10099979 -0.023970168 -0.18755615 0.48943073 -0.15859181 0.02359754 0.12745444 0.0072799595 -0.043917861 0.21663959 0.14113708 -0.20121782 0.068766445 -0.018763874 0.056061912 -0.060057808 0.14681277 -0.25245687 0.068716988 0.053300828 0.089564063 0.098148145 -0.16014788 -0.18247284 -0.10871561 -0.044783853 0.14721033 -0.081953853 0.14996967 0.52722287 0.023791406 0.35377789 0.17000081 -0.019739054 -0.26009169 0.82535195 0.068750776 0.02188864 -0.023133406 0.45674792 -0.15425026 -0.53063399 0.11178473 0.055186197 0.4814125 -0.21010299 -0.44000229 -0.23769954 0.23641349 0.13955654 0.39413729 0.1231792 0.36808005 -0.16752532 0.22628807 0.4978641 -0.47270021 0.1310937 0.018596089 -0.39929485 0.12751672 -0.10368207 -0.0037779885 -0.060742974 -0.051996749 0.15522905 0.19509953 -0.0095603112 0.16375738 0.4520762 -0.00069425278 -0.094379269 0.030286854 0.047337897 -0.20570117 -0.097618341 -0.19606307 0.16073383 0.12243837 -0.0028615608 -0.096813262 -0.11226949 0.17384598 0.067172945 -0.038717464 0.43327582 -0.020459633 0.22118585 0.026252259 -0.16216011 0.15383774 -0.13317141 -0.12609798 -0.19911827 0.017199237 0.037086539 -0.13089876 -0.40432134 -0.20815817 0.085650355 -0.05948782 -0.085659161 -0.063976251 -0.21719673 -0.22098096 0.024698416 -0.073643528 -0.15570535 -0.14429499 0.029909953 -0.38231915 0.13287826 -0.41204169 -0.061061967 -0.23680396 -0.054848876 -0.028277265 -0.15283385 0.154076 -0.14191522 -0.27547154 0.048674487 -0.2427742 -0.063267365 -0.13802874 0.079342879 -0.25811034 0.0053929728 0.10084333 -0.049878433 0.034373369 0.0260933 0.28051937 0.043790672 0.093522713 -0.07570798 -0.11569363 -0.20654647 -0.024356069 0.22975983 0.076183125 -0.15772597 -0.17334057 0.15738523 -0.069939248 -0.042970661 -0.048480511 -0.038113322 0.0052689868 -0.14883484 0.1829832 0.021065712 0.14694563 0.056081764 0.23980464 0.026338883 -0.062590957 -0.17485005 0.0027443755 0.10474726 -0.079624049 0.08165618 -0.27688521 -0.060078446 -0.29375216 0.025686203 0.31932068 -0.28379503 -0.08152125 0.35468367 0.30685008 -0.27110544 -0.0053132311 0.32037252 0.54824477 0.11270464 -0.39977142 0.055330057 -0.22398144 0.18165375 -0.075529054 0.25223687 0.4203586 0.021756172 -0.25009316 -0.363722 -0.20732957 -0.13199441 -0.33839235 -0.1428895 0.17943572 0.18644221 0.26201499 0.10488104 -0.11577279 -0.12411803 -0.066473596 0.016369462 0.032937825 0.21178196 0.20195293 -0.27103654 0.12486544 0.43788418 0.36193824 -0.17001906 -0.3473267 0.0074375435 0.030814899 -0.0066277194 -0.28507018 -0.17029633 -0.13979401 -0.12114627 0.077428132 -0.13207112 0.30192676 -0.077819273 0.17386018 0.17627281 -0.12320645 0.057133544 0.064035572 0.10272924 0.10315877 -0.23411828 -0.36117393 -0.23023818 0.056493625 0.3240473 0.1912306 -0.072395064 0.0062585245 -0.10083394 0.033545867 -0.10203727 0.03659299 -0.16362138 0.028539713 -0.087608345 -0.14724799 0.061234716 0.028944444 0.14044595 -0.073525451 -0.092524849 0.0035290727 -0.063309677 -0.061730642 0.39324975 0.074643284 -0.1069111 -0.050736777 0.39573053 -0.28726175 -0.26678035 -0.00054104312 -0.22412477 0.34835544 -0.21553393 -0.02285192 -0.17034049 -0.026762702 0.14645828 -0.072583854 -0.048289761 -0.13653079 0.056081742 -0.0089965081 0.25208598 0.21376352 0.11824486 0.034795657 0.10477152 0.086083643 -0.092797607 0.11866517 -0.22122876 0.089400932 -0.054445591 -0.0044995886 -0.21427368 -0.057133358 0.17133164 -0.16388576 0.18629634 -0.15683337 0.040788081 0.24892823 -0.13336709 -0.15617618 -0.014772364 0.46176594 0.22259982 0.30746016 0.39780366 -0.16465721 -0.21651198 0.45869744 0.11687329 -0.41161561 0.31005961 -0.0094168587 -0.075429827 -0.010947289 0.24826677 -0.051577304 -0.2119038 -0.7615822 0.73693031 0.10986612 -0.36552164 0.49446741 0.16374345 0.13235676 -0.10715252 0.13096657 0.40911016 -0.24119234 -0.099311516 -0.16027126 0.0013365969 -0.18246333 0.075534023 -0.0066018212 0.25294366 0.056344617 -0.049426634 0.079438314 -0.20816912 -0.19248033 0.03979902 -0.021115057 0.22192298 -0.19229984 -0.29714414 0.40628409 0.066698886 0.058196671 0.11236952 0.033099383 0.0086032711 -0.12508465 -0.058901671 -0.20146976 0.39368278 0.2524024 0.019622074 0.23515324 0.26259145 -0.41529214 -0.14037932 0.076455891 0.076997064 0.059244461 0.027730403 -0.23597287 -0.14732239 -0.010282012 -0.14399089 -0.011466396 -0.17395659 -0.095812567 0.037434835 0.11467839 -0.47593644 -0.13837472 -0.44777328 -0.17144732 0.24328159 -0.05492473 0.095321521 -0.099355064 0.072734058 -0.0683586 0.17104368 -0.11994341 0.21879189 0.1233371 0.079492472 -0.07752832 0.17688292 0.036234617 0.088441312 -0.0017649163 0.095003895 -0.072170116 0.042044997 -0.0041191969 -0.019455001 -0.14228711 -0.05328954 0.062065639 0.17189926 -0.11180581 0.042645242 0.076876149 0.10908554 0.17010641 0.099578246 0.12927479 0.16094571 -0.065179028 -0.062924154 -0.0057024048 0.031181321 0.035749044 -0.018892936 0.027867094 0.059837148 -0.0042130845 -0.021410724 0.14854646 -0.041230727 0.11781251 0.056747414 -0.19566444 0.01388094 0.39752263 -0.19446555 -0.22848937 0.08558473 -0.40665597 -0.11562448 -0.24538213 -0.017965918 -0.21301022 0.21046749 -0.16351898 0.10150411 -0.2724205 -0.31904161 0.3268047 -0.49577489 -0.20906472 -0.18905084 -0.12008457 -0.16082184 -0.45973325 -0.28165972 0.12900892 0.27740815 0.11891085 0.65836573 0.32967395 0.14064461 -0.27104104 -0.42835152 0.12628695 -0.10361157 -0.48560229 -0.080286615 0.070517778 -0.19693826 -0.090095758 -0.18388522 -0.092459306 -0.020499047 0.1192637 -0.17431089 0.22933973 0.016532831 -0.035953756 0.10965315 0.23964007 -0.041869648 0.045280956 0.043574955 -0.13807093 -0.25798237 0.073362112 0.087406643 -0.15980366 0.080453463 -0.32613838 0.053310759 0.24289013 0.16408259 -0.23974781 0.086122848 -0.071494155 0.095480002 0.098554641 0.14516787 0.20515661 -0.11963412 -0.17832653 -0.042045783 -0.18403864 0.041139521 0.091011211 0.11186333 0.31233108 0.20547657 -0.042321067 0.028982351 0.4060249 -0.061869353 0.062629573 -0.20005566 -0.0042772628 -0.038676858 -0.16108169 0.0086930692 -0.045599725 0.034236565 0.075663969 0.040262267 0.47754452 -0.13161822 0.34841394 0.25319657 -0.078881025 0.027916383 -0.25091195 0.19195402 0.16680323 -0.071862631 0.02018437 -0.016773347 0.16340642 0.038984567 0.18660398 -0.16832915 -0.16543427 0.29441911 -0.048279226 -0.084430389 -0.54798567 -0.059193455 0.00031911593 -0.078880981 -0.016106861 0.38158977 -0.071560062 0.13831206 -0.22626153 0.052721813 0.18550901 -0.15875296 -0.35723463 0.20734559 -0.32303637 0.10231462 -0.080920011 -0.28459609 -0.22551887 0.40700772 0.0028311957 0.034589097 -0.063463345 0.016886048 0.075793333 -0.19901916 -0.0055021816 -0.08536119 0.20057009 -0.078240119 0.013912113 0.063901648 0.023883104 -0.19211856 -0.098060071 -0.32315072 1.1078264 -0.36155546 0.075299948 0.40141094 -0.42426366 -0.1818897 -0.26025656 -0.018234232 -0.28960434 -0.20602542 0.11790915 0.28063005 -0.018806597 0.15260671 0.055967622 -0.45468149 -0.1749205 0.010560862 0.11105344 0.24115507 0.08789362 -0.038573202 -0.14817861 -0.34418598 -0.17784123 0.2706686 0.079877928 -0.09749715 -0.29960769 0.2214113 0.091920458 -0.22679546 0.15386075 -0.0832517 -0.063290261 0.021612989 0.13012636 0.39804012 -0.23931174 0.004854565 0.090685628 0.020041713 0.13073589 0.14432228 0.11480548 0.29913473 -0.22165465 -0.16165456 0.15926868 0.098209523 0.028427303 0.051866688 -0.074052252 -0.0043459465 -0.1809265 -0.22213505 0.27543932 0.24165404 -0.10979839 -0.11827673 0.03035827 -0.016372465 0.17203325 0.091998585 0.076679602 0.16460212 0.0010026525 0.10642192 0.096556708 -0.12299576 0.27171144 0.16830592 -0.62594575 -0.081423745 0.10337851 0.012931349 -0.071941964 0.27456865 -0.095211476 0.27299726 0.010255892 0.093045712 -0.099026971 -0.078429647 0.044049848 -0.070890747 -0.098148614 0.20412517 0.4156805 -0.3482554 0.1135702 0.19745274 0.19444209 -0.083602488 -0.0044666496 0.12261903 -0.020121928 0.24960177 0.077508248 -0.18009414 0.13557383 -0.18794717 0.086052604 -0.076832473 -0.11261199 0.068031013 0.093555413 -0.29135999 0.075570695 0.13904537 0.36659059 -0.55327266 -0.32842734 0.48019245 -0.39167067 -0.8214547 0.22703321 0.24825342 -0.21316512 0.12792456 -0.18937097 -0.073722713 -0.40055037 0.30087304 0.16651982 -0.79955816 -0.21517317 0.12314449 -0.25999543 -0.52111769 0.46236154 0.16740815 -0.15650363 -0.08714474 -0.031529773 0.032951556 0.23806579 -0.076771207 0.026825074 0.062293377 -0.035815854 0.032764673 0.25910428 -0.17424668 -0.11042681 -0.017339882 -0.17462383 -0.099500366 -0.21646501 0.30521408 0.0066853422 -0.11917647 -0.13512604 -0.061809648 -0.040696442 -0.19059519 -0.27295214 -0.089346744 -0.009516838 0.073790878 0.18795165 0.22682874 -0.16553845 -0.11361365 -0.070438631 -0.21493901 -0.26237234 -0.034470785 -0.041604463 -0.038795151 -0.11241893 0.14618053 0.22700834 0.13224289 -0.11826755 0.27452815 0.19730163 -0.064593352 0.12311185 0.13675457 -0.035765905 -0.15865311 0.046320457 0.29969737 0.16066355 0.16262867 0.1043593 -0.020578854 0.10458431 0.057285242 0.19031188 0.069735281 0.19283029 0.1397076 0.03257335 0.072617181 0.30248821 -0.21552111 0.42247945 0.21959183 0.13658641 -0.31075165 -0.19239269 -0.18077953 0.080175176 -0.097700767 -0.15118089 0.016912576 0.11808616 0.03168717 -0.29447323 0.11406378 0.30040878 -0.0010944169 0.015583551 -0.089041136 -0.081651382 0.062275428 0.09355551 0.24340981 0.038549684 -0.10173194 -0.01186765 -0.067099243 -0.046913665 0.39620927 -0.10354114 -0.026923502 0.11196236 -0.14794958 0.012086204 0.036398314 -0.13669847 -0.17256422 -0.12149242 0.15665969 -0.27361605 0.060681839 -0.017235713 -0.25099432 0.0059105004 0.035031416 -0.3127639 -0.33567616 0.13815457 0.20244282 0.12765945 -0.053563952 -0.076437369 0.036913633 