54 300
<sg> 0.0014428 -0.00046445 -0.0005752 -0.00088324 0.0012611 0.0017914 -0.0011468 0.00012905 0.00034024 0.00404 -0.00045255 0.0012491 0.00040344 -0.0002733 0.0002737 0.0011552 -0.001039 -0.0018369 0.00039935 -0.0004812 -0.00071186 0.0011828 0.0029861 -0.00059725 0.0018316 -0.0012315 0.0004625 0.0022514 0.00015914 0.00023798 0.0018854 0.0019398 0.0012337 0.0014226 -0.00024405 -0.0024956 0.00068919 -0.00039347 -0.0013942 0.0010209 0.0041136 0.00047855 0.00024001 0.00074235 -0.00024668 0.00016423 0.0014755 0.00049379 -0.00076651 0.0016525 -0.0034757 0.0010387 0.00032619 -0.0011532 0.0010022 -9.7016e-05 -0.00030071 0.0030286 -0.00089271 0.0018338 -0.0026899 0.0026789 0.0010801 -0.001386 -0.0029018 -0.00014992 0.0014745 -0.00093916 -0.0014843 0.003519 0.00049103 -0.0020853 -0.0017553 -0.00044513 0.0030342 0.0011009 0.0019001 0.0012414 -0.00126 -0.0028742 0.00054192 0.0012388 -0.00037734 -0.00073563 -0.0017378 0.00068938 0.0014023 -7.8879e-05 -0.0020455 0.0012773 -0.0019002 -0.00051483 0.003275 -0.0044886 -0.0016989 0.0013261 0.00068714 -0.00052326 -0.00010235 -0.0023203 0.0013267 0.00075736 -0.00022048 -0.00043424 -0.0010249 0.0018093 -0.0020921 -0.0019163 -0.0016307 0.0010434 0.0020504 -0.0013053 -0.0026357 -0.0014055 -0.0039144 -0.0009751 0.0026704 -0.0013451 -0.0016548 0.00062221 -0.00086679 0.0010688 -0.0013541 0.0016458 -0.00087975 0.00044375 0.00014521 0.0010935 0.00091927 -0.0010473 0.0012116 -0.00063708 0.001436 -0.0016865 -0.00057184 0.0019305 0.0002575 -0.0001896 -0.0023421 0.0016094 -0.0010968 0.0011198 -0.002545 0.0026876 -0.00089221 0.00075256 0.0014539 -0.00077283 0.0010067 0.0016351 0.0004054 0.00090847 -0.0013668 7.2067e-05 0.00080863 0.0015839 -0.0021192 0.0017368 0.00085352 0.00094974 -0.00073426 0.00070945 -0.0019256 0.0013615 0.0011022 0.0004791 -0.0014132 -0.002951 0.0010206 -0.0015311 0.0010553 0.00016737 -0.0013998 0.0014962 0.0021611 -0.0042844 0.00069451 -0.002777 0.0018355 0.00049657 0.0011966 0.0019149 0.00051857 0.0020484 -0.00021091 0.00014471 -0.00083249 0.0011358 -0.00029093 0.003544 -0.0026157 0.0015967 -0.0019447 0.0029688 0.0027282 0.0012227 -0.0017542 0.00048278 -0.0037129 -0.0011192 -0.00064564 -0.00037335 0.0013023 -0.0012111 -0.0013682 0.00044395 0.00040738 -0.0015305 0.0018394 0.00053096 0.0018242 0.0020742 -0.001918 -0.0019082 0.00026531 -0.0016974 -0.00019598 -0.00091384 0.0041758 0.0030324 0.0034465 0.00061879 0.00072627 -4.1553e-06 -0.00030862 -0.0012735 0.0030449 0.00010201 0.00086597 0.002539 0.002968 -0.0024088 0.002187 0.00077737 0.00076079 -0.00069147 -0.0016521 0.0014041 -0.00010105 -0.0012802 -0.00027619 0.00050526 -0.00072979 0.0025997 3.255e-06 -0.00046939 0.0010579 0.0012462 -0.0026672 0.00052644 -0.0028244 0.0023638 -0.0028572 -0.0018514 -0.0013701 0.00048648 -0.0016932 -0.00026244 -0.0046782 -0.0019409 4.0477e-05 0.00070094 -0.00019237 0.0012649 -0.00074237 -0.00025756 -0.0020183 0.00016271 -0.0019466 -0.00067308 0.0022133 -0.0013473 0.00063663 -0.00072744 -0.00078236 -0.0013071 -0.00090275 -0.00055917 0.0012055 0.0038626 0.0012692 0.00013656 -0.002471 0.00062598 -0.0012392 -0.0011897 0.0017031 0.0011948 0.00071515 0.0011877 -0.00022073 -0.00043593 0.0020945 -0.00069983 -0.00047153 0.0038141 -0.0004991 0.0013205 0.0001604 0.00058651 
<n> 0.002574 0.0013406 -0.00012293 -0.0003542 0.0014307 0.0020726 -0.00099898 -0.0001083 0.0012834 0.0042128 -0.00040299 0.0020585 -0.0010558 -0.00050228 0.0034439 0.0024922 -0.0021517 -0.0032259 0.0025437 -0.00096202 0.00074975 0.0030875 0.0036576 -0.00064731 0.0007525 0.00042489 0.0011076 0.00091757 -0.0015543 -0.00035864 0.0032466 0.003915 0.0023509 0.0012745 -0.00045053 -0.0023367 0.00068055 0.00025391 -0.0015828 0.0023841 0.0051489 -0.0005314 -0.00045452 0.0001168 0.00062029 -0.00083501 0.00084765 9.8147e-05 -0.0004116 0.0022422 -0.0047119 -0.0011468 0.00087378 -0.0014902 0.0011635 0.0015595 -0.00094159 0.0035831 -5.2964e-05 0.0017497 -0.0035355 0.0028868 0.0017128 -0.0016527 -0.0030679 0.00073426 0.0012217 -0.0013541 -0.0021715 0.003236 0.0015639 -0.0019225 -0.0021217 0.0018266 0.0021899 0.0017264 0.0021464 0.0012141 -0.00090652 -0.0040609 0.002043 0.001521 0.00069866 0.0017532 -0.0003552 0.00095477 3.0011e-05 -0.00073205 -0.00021603 0.0021881 -0.0022387 -0.00059429 0.0032066 -0.0031996 -0.0014846 0.0018391 0.00099115 -0.0022971 0.0014523 -0.0025421 0.0012403 0.00075811 -0.00033772 -1.6772e-05 -0.00053066 2.6391e-05 -0.00054252 -0.0034749 -0.0011702 0.001066 0.0010428 -0.0011993 -0.0026217 -0.00040225 -0.0034063 -0.00092218 0.0019903 -0.0030131 -0.0010029 0.0007021 -0.00044486 0.00016578 -0.0019497 0.0021806 -0.0018694 0.00087557 -0.0010674 0.0008063 0.0010432 -0.002039 0.00048174 0.00040844 -0.00099087 -0.00016294 0.00020416 0.0027747 -0.0017769 0.00015543 -0.0020131 0.002997 -0.0031085 -6.4089e-06 -0.0020743 0.0037363 0.00075648 0.00028211 0.0016278 0.00030862 0.00026281 -1.2488e-05 -0.0010018 0.00079217 -0.0010134 -0.00034088 0.0017021 0.0041572 -0.002521 0.0022991 0.00060864 0.00049036 -0.0021521 0.0015519 -0.001561 0.00028508 0.0019198 0.00081171 -0.0011284 -0.0037334 0.00040841 -0.0013261 0.00099281 -0.00058567 2.34e-05 0.0016927 0.0023325 -0.0049652 0.0006504 -0.0024834 0.00078967 -0.00012506 0.001164 0.0038796 -0.00051297 0.0025545 -0.00075289 -0.000206 -9.9138e-06 0.0033105 -0.00098512 0.003085 -0.0034478 0.0017519 -0.0010279 0.0037681 0.0020762 0.0020494 -0.0025251 0.0022381 -0.0050942 0.00013511 0.0005342 0.00028324 0.00066439 -0.0021955 -0.00047377 0.0010065 -5.091e-05 -0.0010561 0.00097974 0.00065529 0.0035393 0.00117 -0.00087301 -0.0019897 0.00014863 -0.0020616 0.00015897 -0.0010391 0.0053679 0.0020301 0.0019095 0.0018259 0.00051601 -0.00027782 0.0014627 -0.00033822 0.0033302 -0.001655 0.0019093 0.002621 0.0029271 -0.0018533 0.0016922 0.00017522 0.0010941 0.00011185 -0.0048714 0.00042145 -0.00041697 -0.0013873 0.00058724 0.00014443 -0.00055119 0.0029037 0.0010201 -0.00095278 -3.1897e-05 0.00060336 -0.0038293 0.00067398 -0.003561 0.0037259 -0.00207 -0.0029199 2.3949e-05 0.0025552 -0.0019121 -0.00051049 -0.0048389 -0.0017849 -0.0014123 0.00035321 0.00025446 0.0010392 0.0009907 9.0081e-05 -0.0012011 -0.00037314 -0.0025461 0.00072499 0.0030677 -0.00013393 0.00073059 -0.0014091 -0.0012332 -0.0033731 -0.0011369 -0.0012938 -0.0012119 0.0052249 0.0025409 -0.00065494 -0.0019603 0.00079765 -0.0011031 -0.002041 0.0025612 0.00059259 0.00049658 0.0017552 0.00071153 0.0018582 0.0016111 -0.0010361 -0.00026361 0.0051256 0.00041932 0.00087373 -0.00098741 -0.00056937 
<vblex> 0.0011127 -0.00064543 -0.00053714 -0.00081478 0.0004364 0.00083303 0.00036865 -0.00023453 6.7458e-05 0.0026343 2.6695e-06 0.00075174 -0.00046848 -0.0010736 0.00076393 0.00046218 -0.00099001 -0.0020743 0.00048432 -0.00081626 0.00067925 0.0019582 0.0019377 -0.00040429 0.0003835 -0.00030544 2.867e-05 0.00086655 -0.00061112 7.9967e-05 0.0016542 0.0017507 0.0015204 -7.78e-06 -0.0010231 -0.0010396 0.00017744 -0.00037926 -0.00063449 0.0011175 0.0035019 -6.0675e-05 0.0002824 0.0003328 0.00066857 1.2441e-05 0.00036496 7.7455e-05 0.00021858 0.00045264 -0.002026 0.00019816 0.00057149 -0.00071483 7.6322e-05 0.00029254 -0.00025003 0.0022621 0.00071138 0.001106 -0.002422 0.0010035 0.00043648 -0.0020228 -0.00079697 0.00042917 0.00090946 -0.00015998 -0.0016929 0.0030456 7.4245e-05 -0.00094927 -0.0015899 0.00082911 0.0015918 0.0015062 0.0021066 0.00074515 -0.00049861 -0.0032364 0.0012488 0.0016124 -3.7799e-05 -9.8453e-06 -0.00016754 0.00049565 0.00019062 -0.00095137 -0.00054263 0.0015066 -0.0016197 -0.00040282 0.0012651 -0.001946 -0.0022566 0.002085 2.688e-05 -0.0015076 0.00074676 -0.0013699 0.001197 -9.874e-05 -0.00010317 9.5065e-05 -0.0007737 0.00036374 -0.0011866 -0.0006859 -0.0018756 0.00020271 0.00096499 -0.00057491 -0.0013141 -1.5284e-05 -0.0030653 -0.00063209 0.0024563 -0.00070929 -0.00094625 8.2998e-05 -0.00030087 -0.00025828 -0.0012897 0.0012506 -0.00075475 0.00079633 3.9409e-05 0.000696 0.00068049 -0.0017228 -0.00011346 -0.00023395 0.00063047 -0.00047494 -0.00026513 0.0017579 -0.00081959 -0.0003743 -0.0010745 0.0016104 -0.0011347 0.00015441 -0.0017611 0.0025393 0.00013066 -0.0011785 0.0011336 -0.00044593 0.00051219 0.00085733 0.00031786 0.00063568 -0.001071 4.9911e-06 0.0002337 0.0014167 -0.0015437 0.0012486 0.00071417 0.00025482 -0.0019523 0.00079496 -0.0010794 0.00074577 0.00084988 0.00063719 0.00032668 -0.0019986 0.00069056 -0.00073856 0.00038148 -0.00038453 -0.001011 0.0012667 0.0010517 -0.0033886 7.5056e-05 -0.0016802 -0.00020119 -0.00011078 0.00062959 0.001937 0.00052204 0.0017576 0.00059956 -5.0252e-05 -0.00095789 0.0014153 0.00042849 0.002528 -0.0024815 0.00083685 -0.0014437 0.0014342 0.0016857 0.00079291 -0.0016303 0.0019406 -0.0023669 -0.00016043 0.00064193 0.00020893 0.0011257 -0.00059968 -0.0005668 0.0012827 -0.00034211 -0.00040709 0.0006868 0.00067853 0.00099927 0.000744 -0.00097287 -0.00022938 -0.00068651 -0.0011022 0.00035003 0.00010406 0.003964 0.0017511 0.0013214 0.00083125 0.00070041 -0.00047175 0.00056216 -0.00098435 0.0017144 -0.00019577 0.0017774 0.0010638 0.0020511 -0.0012142 0.001601 0.00013764 0.00047464 -0.00020732 -0.0020948 0.00072255 -0.00025878 -0.00066223 0.00076154 0.00048905 5.4176e-05 0.0011226 0.0007675 -0.00030545 3.258e-05 0.0010427 -0.0019539 0.00088572 -0.0021536 0.0016983 -0.002368 -0.0020437 -0.00055343 0.0014074 -0.0016383 -9.8653e-05 -0.0032206 -0.0006712 -0.0004738 0.00049651 0.00014939 0.0018209 0.00022219 -0.00013587 -0.0013026 -0.00034486 -0.0019108 -5.135e-05 0.001741 -0.00091889 0.0011492 -0.00093933 -0.00027592 -0.0019033 -0.0014494 -0.00079795 -0.00094237 0.0028285 0.0010877 -0.00044125 -0.001197 0.00021926 -0.00018938 -0.0013449 0.0013291 0.00070685 0.0009673 0.0010832 0.00015644 0.00076855 0.0024025 9.0991e-05 -0.00065261 0.0030778 0.0001461 0.00085047 -0.00025242 -0.00015056 
<m> 0.00025106 0.00054519 0.0012073 0.00031677 0.0011472 0.0015601 -0.00050746 -0.001286 -0.00032079 0.0027635 -3.1981e-05 0.0023744 -0.00049225 -0.0019952 0.0014908 0.0001002 -0.0021803 -0.0027962 0.00096901 -0.0012464 -0.00015901 0.0027839 0.0028019 -0.001376 0.0015074 -0.00053911 0.0016037 0.00064117 -0.0013811 1.6269e-05 0.0025738 0.00064897 0.0022134 -0.00044013 -0.0010739 -0.0016749 0.0013732 -7.3462e-05 -0.00024111 0.0032568 0.0043169 -0.00026856 0.00024872 -0.00087264 -0.0001327 0.0015386 -0.00053439 -0.00069391 -0.0014112 0.0015528 -0.0023647 -0.00018393 0.00067484 -0.0011265 0.0009508 0.0011426 -0.0013266 0.0027151 0.0009419 0.0025485 -0.0035879 0.0008227 0.0014938 -0.0014006 -0.0019325 0.00023933 0.00091335 6.4147e-07 -0.0013104 0.0039436 0.0018467 -4.2302e-05 -0.0021968 0.00029434 0.0025949 0.0023224 0.0013776 0.00066355 -0.00085407 -0.003451 0.0020973 0.00052757 0.0010295 -0.00064506 -0.0017194 0.0011425 0.00082543 -0.0011737 -0.0011451 0.0029037 -0.0014776 0.000314 0.0028267 -0.0024646 -0.002527 0.0030179 -0.00077175 -0.0019209 0.00046572 -0.0030496 0.0013361 0.00044999 -0.000285 0.0018355 -0.00071051 0.00045547 -0.00033681 -0.0025317 -0.0016557 0.0012247 0.0021255 -0.0008093 -0.0010089 4.2438e-05 -0.003339 -0.0013932 0.0030547 -0.00099982 -0.0013375 0.0015574 -0.0015573 0.0002112 -0.0011743 -0.00017509 -0.0013659 0.00068229 -0.0007384 0.00077336 0.00071134 -0.0012441 0.00026931 -0.00017382 -0.0003027 -0.00056499 0.00074875 0.0011116 0.00041915 0.00023908 -0.0012333 0.0013023 -0.0014627 -0.0013856 -0.0020912 0.0019175 0.00053651 -0.0003722 0.0013459 -0.0011611 0.00038649 0.00093928 -0.0022924 -0.00074949 -0.0008492 0.00050955 0.00050413 0.00095618 -0.001429 0.0014785 0.0022316 -0.00040455 -0.00069295 0.0012279 -0.0012257 -0.0005563 0.0010995 0.0009034 0.00072873 -0.0035001 0.00031488 -0.00065235 -0.00017768 -0.00058773 -0.0015435 -0.00027514 0.0013643 -0.0041892 -0.00070441 -0.0013102 -0.00014593 -0.0010431 0.0014411 0.0038921 0.00054362 0.0017186 0.0016685 0.00011919 -0.00047716 0.0019582 0.00015336 0.0014791 -0.0024332 0.0018909 -0.00098177 0.0020015 0.0015998 0.0014483 -0.0015706 0.0015979 -0.004186 -6.2615e-05 0.00057377 -0.0010314 0.00054515 -0.001256 -0.0015922 0.0013739 0.00020809 -0.0016659 0.0011438 0.00088888 0.0021848 0.0017585 0.00042585 -0.00043767 0.00062318 -0.0010878 0.00041734 -0.0015755 0.0050588 0.0030281 0.0020513 0.0018198 0.00091001 -0.0010166 -5.8769e-05 0.00045119 0.0022431 0.00046571 0.0015576 0.003093 0.0023854 -0.0015122 0.002332 -0.0013485 4.6966e-05 -0.0014131 -0.0021664 -0.00066582 0.0003447 -0.00068624 -0.00065571 0.00029035 -0.00053016 0.0030736 9.5351e-05 0.00033726 -0.0013465 0.00057524 -0.003504 6.6364e-05 -0.0030872 0.0027663 -0.0025267 -0.0024915 -0.0008427 0.0016621 -0.0020669 -4.2136e-05 -0.0040726 -0.0022534 -0.00082065 0.0015403 9.243e-05 0.0023433 0.00097933 0.00014983 -0.0020901 -0.00033189 -0.0034202 0.00073691 0.00074976 -0.00030311 0.0012428 -0.00053867 -0.0006361 -0.0025937 -0.00012352 -0.001241 -0.00072663 0.003465 0.0024323 0.001128 -0.0023116 -0.00020172 -0.0010303 -0.001071 0.0017171 0.00062619 0.0012365 0.0017367 -0.00067583 0.00064873 0.0026032 0.00041433 0.00018577 0.0052649 0.0003245 0.00036005 -0.0009358 0.00060048 
<det> 0.0017918 -0.0008928 -0.00028669 -0.00044558 0.00059507 0.0013782 -0.00064796 -0.00066066 0.00020966 0.0031003 0.00022815 0.00082566 3.6025e-05 0.00039762 0.0011329 0.00036207 -0.00085149 -0.0028123 0.0014646 -0.0012433 0.00032017 0.00087737 0.002179 -0.0013969 0.0014351 -0.00041269 0.00011049 0.0014807 -0.0017864 6.8809e-05 0.0016505 0.0017603 0.0028181 0.0006624 -0.00038637 -0.0010332 0.00061381 -0.00045221 -0.0010528 0.0012076 0.0048088 -0.00073864 7.9129e-05 -0.00025197 0.00089622 0.00034787 0.0011045 0.00074054 -0.00075872 0.00096196 -0.0027521 -0.0016219 -0.00050125 -0.0013559 0.00058109 0.00045205 -0.0011571 0.0032196 0.00019565 0.0013472 -0.0035973 0.0013057 0.0017648 -0.0029923 -0.0019306 0.00048794 0.00093661 -0.00046827 -0.0017676 0.0031468 0.00047741 -0.00039597 -0.0019328 0.00035774 0.0017996 0.0015673 0.0025075 0.0014118 0.00027656 -0.003274 0.0021382 0.0011597 -0.00058572 -0.00015408 -7.3495e-06 8.7619e-06 0.00035939 -0.00058598 -0.00067741 0.0021931 -0.0022652 0.00022189 0.002933 -0.0029609 -0.0025182 0.0021173 0.00091405 -0.0020122 0.00095398 -0.002339 0.0014916 -0.00010589 0.00070558 -7.6212e-05 -0.00091943 -0.00036509 -0.0014013 -0.0014387 -0.001387 0.00042261 0.0014745 -0.00056568 -0.0020554 -0.00026809 -0.0034685 -0.00037658 0.003138 -0.00098105 -0.001882 -0.00024085 -0.00041825 9.0671e-05 -0.0014908 0.0018073 -0.0012038 0.0013887 5.9314e-06 0.0016125 0.00075676 -0.0025063 0.00019472 0.00030963 2.1623e-05 -0.0009546 0.00033733 0.0013478 0.00012983 -0.00052644 -0.0025648 0.00092242 -0.0023279 0.00031965 -0.0021008 0.0020423 0.00017694 -0.0009611 0.0012594 -0.00017836 0.001336 -4.6029e-05 -0.0001177 0.00028395 -0.0017554 0.00039801 0.00045896 0.0021528 -0.0027547 0.0012107 0.0002738 0.0011361 -0.0016633 0.0015574 -0.0018478 0.0012481 0.0016766 0.0013605 -0.00045912 -0.0025159 0.0015265 -0.0010764 0.00090757 -0.0001488 -0.00053757 0.0015311 0.0014684 -0.0039574 0.00027891 -0.0026687 2.8063e-05 0.00051378 0.0018999 0.0017706 -0.00048049 0.0016913 0.00014697 -0.00051619 -0.00091662 0.00046084 1.9842e-05 0.0026466 -0.0030168 0.0018841 -0.0018584 0.0021302 0.0011349 0.0020286 -0.0018269 0.0014594 -0.0029671 -0.00039882 4.9204e-07 -0.00018249 0.00019727 -0.00099817 -0.0020322 0.0012551 1.1131e-05 -0.00075753 0.0017842 0.0010002 0.0020139 0.0018648 -0.0016539 -0.0001415 0.0006148 -0.0019563 0.00072657 0.00013488 0.0040408 0.0026259 0.0020483 0.0008948 0.00052236 -0.0017499 0.0012949 -0.00022119 0.0019529 -0.0013105 0.0010298 0.0021761 0.0017212 -0.0022783 0.00087461 0.00045702 0.00066598 -0.0010015 -0.0025117 0.00011828 -0.00041831 -0.0018735 0.00038892 0.00089331 -0.00025594 0.0019071 0.00028322 0.00038175 0.0004069 0.00049228 -0.0019572 8.7368e-05 -0.0024107 0.002826 -0.0022705 -0.0021922 -0.00081538 0.0010013 -0.0029813 -0.00060374 -0.0044451 -0.0012935 -0.0011795 0.0016284 0.0010328 0.0019068 0.00038474 0.00049475 -0.0020145 -0.00044248 -0.0028426 0.00050965 0.001762 -0.001316 0.00076996 -0.0019584 -0.0014482 -0.0022195 -0.00051101 -0.00089791 -0.00060728 0.0033545 0.002098 -0.00051371 -0.0023469 0.0013111 -0.0011477 -0.00066756 0.0026164 0.00059826 0.0006941 0.00095322 -0.00047534 0.00097738 0.0018293 -0.00011973 -0.00019395 0.0033295 0.0006187 0.001079 -0.0015485 0.00015714 
<pr> 0.0018258 -0.00086749 -0.00051199 -0.00087172 0.00070897 0.0015222 -0.00050594 0.00049627 -2.7639e-05 0.0041829 -0.00011542 0.00033457 -0.00035503 -0.0010074 0.0027002 0.0017304 -0.001323 -0.0030071 0.0012138 -0.0011335 0.00031653 0.0029489 0.0019245 -0.001735 0.00067222 -0.00048544 0.00044161 0.0024263 -0.00091924 -0.00013922 0.0026625 0.0021857 0.0031305 0.0011694 -0.00091833 -0.0015399 0.00027885 -0.0006758 -0.00070949 0.0028202 0.0048133 -0.0008636 0.00090319 0.00037196 -0.00096838 0.00015067 0.0015263 0.0018688 -0.00070713 0.0014082 -0.0042233 0.00041202 -0.00031914 -0.0015294 0.0001639 0.00085097 -0.0011025 0.0026097 -9.4347e-05 0.00156 -0.0038685 0.00088591 0.0012058 -0.00212 -0.0011619 0.00016691 0.0026028 -0.00062063 -0.0030984 0.0035593 0.00052204 -0.0027717 -0.0029834 0.0011141 0.0037946 0.0018702 0.0013822 0.00056899 -0.00042188 -0.004437 0.0021475 0.0023283 -0.00056958 -0.00089435 -0.00032107 0.00070791 0.00022105 -0.001498 -0.0010739 -9.8471e-05 -0.0025784 -0.00081449 0.0029229 -0.0040494 -0.0023245 0.0028846 -0.00096228 -0.0018675 0.0019427 -0.0012866 0.0023183 0.00014788 -0.00049087 -0.0002276 -0.00035718 0.00089466 -0.0029196 -0.0024332 -0.0013486 0.0016892 0.0029775 -0.00079335 -0.0027445 -0.00082079 -0.0037636 -0.0017006 0.0035732 -0.0002351 -0.0021993 0.00084719 9.2695e-05 -4.8885e-05 -0.0008872 0.0017686 -0.0020863 0.0013516 -0.0012721 0.001328 0.0012079 -0.0026883 0.0004109 0.0014011 0.00031939 -0.0013644 -0.00074538 0.0013825 -0.00091489 -0.00082427 -0.001656 0.0017835 -0.0010543 0.00026485 -0.0023371 0.0031109 -0.0012708 0.00018281 0.00092727 -0.0019549 0.0024325 0.0016235 3.9592e-05 0.00034355 -0.0016769 5.3843e-05 0.0014349 0.0024051 -0.0012103 0.0019379 0.0016184 0.00064477 -0.0021736 -1.2699e-05 -0.0017723 0.0009269 0.001868 0.00014335 -0.00016594 -0.0042438 0.0003007 -0.0018008 0.00052527 -0.0008027 -0.0011365 0.0020611 0.0013156 -0.0054086 0.0016131 -0.0028469 -0.00029705 0.00054905 0.0010233 0.0026787 0.00011735 0.0027633 -9.39e-05 0.00072809 -0.00090466 0.0021231 0.00037999 0.0033133 -0.0038441 0.0022075 -0.00142 0.0040314 0.0022848 0.0015999 -0.001791 0.0020078 -0.0041175 -0.00067175 0.0012824 -0.00079511 -0.00026371 -0.0019759 -0.0012075 -0.00019257 -0.00034583 -0.00095154 0.0019992 -0.0004765 0.0020852 0.0017656 -0.0017265 -0.0005886 -0.0010577 -0.0017928 0.0016677 -0.0011248 0.0048394 0.002292 0.002732 -0.00052562 -0.00049318 -0.002352 0.0012856 -0.00038936 0.002657 -0.00010446 0.002006 0.0033804 0.0016964 -0.0019623 0.0013067 0.00069852 0.0015866 -0.00076504 -0.0027145 0.00037169 0.00051802 -0.0031051 0.0002978 0.00036686 -0.0014953 0.0010825 -0.00028196 -0.00048395 -0.00050819 0.0011203 -0.0028747 0.00067326 -0.0040996 0.0033967 -0.0030666 -0.0023888 -0.00053979 0.0015905 -0.0035509 -0.00064239 -0.0061277 -0.0024886 -0.00088515 -0.0001211 0.00063909 0.0019487 -0.00077474 -0.00072567 -0.0016161 -0.00039228 -0.0028401 -0.00034767 0.0010236 -0.00021263 0.0013666 -0.00062085 -0.00099525 -0.0034316 -0.0019346 -0.00089751 4.8255e-05 0.0043237 0.0010469 -0.00098103 -0.0021432 0.00075321 -0.0012799 -0.00095797 0.0031849 0.00073938 0.0016617 0.0010684 -0.00047284 0.00087232 0.0036428 -0.00019394 -0.0013244 0.004792 0.0024037 0.0017464 -0.0012205 0.00014612 
<pl> 0.0017418 -0.00045916 0.00019973 -0.00080823 0.0012098 0.00065391 -0.00068793 0.00063204 -0.00064063 0.0025821 0.0002384 0.00042132 0.00045338 -1.5686e-05 0.0016631 0.0010022 -0.0018089 -0.0020778 0.0015314 -0.00022603 -0.0002063 0.0014212 0.0024635 -0.0018969 0.00088484 -9.7492e-05 0.00070911 0.001598 -0.00080008 0.00029777 0.0015236 0.00066651 0.0025675 0.00010877 -0.00067334 -0.00099084 -2.7468e-05 -0.00012428 -0.00082705 0.0019145 0.0039388 -0.00038471 0.00048268 -0.00076279 -0.001298 -0.00015857 0.00015759 0.00017203 -0.0007114 0.0011662 -0.0029972 -6.3166e-05 -7.395e-05 -0.0011786 0.00021806 0.00045492 -0.001015 0.0023895 -0.00025926 0.00094669 -0.0018162 0.0011929 0.0015276 -0.0020266 -0.00095538 0.0012778 0.00082788 -0.0014565 -0.0017049 0.0024915 0.00064654 -0.0023089 -0.0016646 0.0012569 0.0015086 0.001218 0.0022879 -0.00020597 -0.00040264 -0.0028779 0.0025239 0.0014624 0.0011392 0.00054882 0.00075369 0.0014033 0.00081547 -0.0007221 -0.001586 0.0012845 -0.0020963 -3.6231e-05 0.0017789 -0.0043667 -0.002063 0.0021872 0.0003454 -0.0025827 0.00074124 -0.0010198 0.0017607 0.0010527 0.00016124 0.00066795 0.00054716 0.00043254 -0.0017559 -0.0024289 -0.0010767 0.00031506 0.0010822 -0.0012038 -0.00098547 0.00012184 -0.0033758 -0.0013298 0.0027025 -0.0005264 -0.0018919 9.5875e-06 -5.9642e-05 -0.00010779 -0.0008918 0.0018777 -0.00088669 0.00067096 -0.00037656 0.0014151 0.0007573 -0.0014858 -0.00060661 6.6619e-05 1.9794e-05 -0.00030708 -0.00019077 0.00029517 0.00032323 0.00029465 -0.0024567 0.00050965 -0.0017787 -0.00021189 -0.0021541 0.0020983 -0.00027821 -0.00027358 0.001778 -0.001742 0.0014688 -0.00021999 0.00025723 0.00047032 -0.001922 -0.0003004 -3.2862e-05 0.0035131 -0.00089517 0.0019233 0.00097821 -0.0010774 -0.0015634 9.0222e-05 -0.0016751 0.00092349 0.00043632 -5.1045e-06 5.7303e-05 -0.0021555 0.00024293 -0.0004219 -0.00032756 0.00047812 -0.00065205 0.00092865 0.0020243 -0.0041469 0.00087642 -0.0017906 -0.00041812 -0.00023836 0.0012018 0.0020677 0.00092539 0.0017506 -0.00061032 -0.00010944 -0.0016171 0.0013251 0.00033922 0.0014375 -0.0031721 0.00093401 -0.00083507 0.0012918 0.0018226 0.0014362 -0.0020636 0.0023185 -0.0033883 6.0932e-05 -3.2824e-05 0.00017208 -2.8744e-05 -0.00087773 -0.00088516 0.0013022 0.00020788 -0.0011594 0.0021967 0.00059294 0.0018834 0.0012961 -0.0016349 -0.0013718 -0.00029094 -0.00087273 0.00061056 0.00054282 0.0050196 0.0019748 0.0023493 -2.1576e-05 -0.00011513 -0.0015314 0.00081755 2.1135e-05 0.0024906 0.00011952 0.0017984 0.0012232 0.00083419 -0.0021543 0.00092187 0.0015513 0.0020053 -0.0018305 -0.0023704 -1.1858e-05 0.00088162 -0.001995 8.4218e-05 0.00050025 -0.0005438 0.0015867 0.00062074 -0.00055807 -0.00043328 0.0019 -0.0025976 0.00053612 -0.0030808 0.0021025 -0.0022377 -0.001634 -0.0014568 0.00089469 -0.0021805 -0.00016172 -0.0037473 -0.0017788 -0.0007338 -0.00018805 0.00062524 0.0018461 -0.00068227 -9.3841e-05 -0.001218 -0.00063616 -0.0031425 -0.00058007 0.0012486 -0.00091572 0.0015543 -0.0012551 -0.00067302 -0.0022385 -0.0010823 -0.00048752 -4.2052e-05 0.002125 0.0022516 -0.00028122 -0.0024477 0.0005412 -0.0017024 -0.0015466 0.0018261 0.00067319 0.00023307 0.0017391 0.0003665 0.00039951 0.0024109 -2.7049e-05 -0.00037617 0.003761 0.00089573 0.00036987 -0.0021644 -0.00029938 
</s> 0.0014881 2.6622e-05 0.00034673 -0.0020352 0.00027841 0.0013664 0.00049746 0.00040975 0.00071897 0.00043146 0.00029069 0.00019752 -0.00081547 2.0467e-05 0.000885 -0.00026488 -0.00086032 -0.0021465 0.00077056 -0.00011551 0.00047787 -0.00072772 0.0010148 -0.00080814 0.00056616 8.7584e-05 0.00049659 4.3429e-05 -0.0010125 0.0001089 0.0012302 0.00078699 0.0016604 0.00079885 -0.00039845 -0.001684 0.00025882 1.6926e-05 0.00018579 0.00037886 0.0024227 0.00013475 0.00030127 -0.00057666 0.00066812 -0.00088424 0.0010172 0.00033629 0.00041456 0.00022533 -0.0019235 -0.00026423 0.0011236 -0.00021373 -0.0015286 0.00080426 2.8416e-05 0.0014789 0.00050707 0.0012463 -0.0024504 0.00060696 0.00089232 -0.0014117 -0.00067895 0.0012354 0.0013306 1.3129e-05 0.00035311 0.0027474 -2.4326e-05 -0.00028144 -0.00012976 0.0011586 0.0001199 0.00085921 0.0012459 0.00078882 0.00089144 -0.0015553 0.00096258 0.0016901 -0.00027656 0.00012758 0.00091358 0.00066267 0.00051015 -0.0006247 -0.00027336 0.00084646 -0.0002806 -0.00044136 0.00060474 -0.0027335 -0.00096522 0.00047658 -0.00044623 -0.0013491 0.0013434 0.00030286 0.00078181 0.00040736 0.00019684 -0.00062692 -0.0005208 0.0008896 -0.001214 -0.0014829 -0.00028204 -1.364e-05 0.00097922 0.00028471 -0.00037053 -0.00013617 -0.00077246 0.00017959 0.0011145 -0.00069861 -0.0016012 0.00014599 8.0327e-05 0.0012655 -0.00077429 0.0021969 -0.00082438 0.00068646 3.3016e-05 0.000657 -0.0010237 -0.0012061 9.7379e-05 -0.00055006 0.00088798 -0.00042628 -7.9116e-06 0.00043028 0.00034321 -0.00019811 -0.0016244 0.0017386 -0.00032126 0.0006303 -0.0021655 0.002435 -0.00017157 0.00053521 0.00014977 -0.00022585 0.00024035 0.00055278 -0.00023293 0.00052564 0.00037425 -0.00043862 0.00068461 0.0013414 -0.0011375 0.0013266 0.000513 -0.0012328 -0.00067494 0.0001927 -0.0011886 0.0012808 0.00041433 0.00029747 0.00042849 -0.00028487 0.00021417 -0.00015236 -0.00014071 -0.0010872 0.00085687 0.00090509 0.00010629 -0.0024049 -8.511e-05 -0.001407 -0.00068691 0.00099005 0.00032795 0.0022763 -0.00025258 0.00038276 1.4795e-05 -0.00058364 -0.00029057 0.00099501 0.00038794 0.00063992 -0.0014496 0.00051771 -0.0010055 2.6534e-05 0.00060396 0.00038317 -0.00201 0.00043026 -0.00099278 -0.00023574 0.00038732 0.00032725 -0.00038302 -0.00059009 -0.0013295 0.00032372 -0.00044696 -0.00084309 0.00040904 -0.00053192 0.0014162 6.9411e-05 -8.7012e-05 -0.00035288 -0.00092976 0.00046872 0.00081729 -9.2936e-05 0.0014096 0.0016696 0.0011608 8.338e-05 0.00050279 -0.00077638 0.00068454 -0.00079013 0.00093657 0.00012384 0.00085174 0.00084146 0.00099223 -0.00032048 0.0011739 0.00038274 0.001704 -0.00047138 -0.00050423 -0.00040291 -0.0007539 -0.00063139 -0.00049981 0.00037569 -4.2735e-05 9.7173e-05 0.0011275 -5.5054e-05 0.00047741 0.00059204 -0.0022334 0.000238 -0.00039613 0.00097639 -0.0021359 -0.0019716 -0.00050786 0.00056584 -0.0014121 0.0003433 -0.0017222 -0.00026916 0.00018268 0.00061892 0.00018148 0.000953 -0.00044079 -0.0011054 -0.0013014 3.2459e-05 -0.0013717 -7.9631e-05 -7.6035e-05 -0.00027018 0.00044856 0.00032288 -0.0004117 -0.00063295 -0.00044733 -0.0014485 0.00024267 0.0021274 0.0012744 -0.00097718 -0.00089053 0.00063458 -0.00057059 -0.0004104 0.0018656 0.00045597 0.00042499 0.0010054 -0.00087905 -4.567e-06 0.0026635 -0.00043908 0.0003739 0.0020769 0.00082739 -0.00057131 -0.00030411 -9.7965e-05 
<sent> 7.8426e-05 -0.00025088 -0.00051474 -0.00043778 0.00050839 0.00033524 0.00025346 0.00017757 5.5431e-05 0.0018402 -0.00076169 0.00036066 -0.00013688 -0.00031668 0.00054552 0.00062172 -0.00081497 -0.0015724 0.00089266 -0.00095985 7.9376e-05 0.0010265 0.0017193 -0.00054963 0.00072579 7.6162e-05 -3.6369e-05 0.00072938 -0.00080784 -0.00035791 0.00047044 0.00047223 0.0014897 0.00111 -0.00064717 -0.00080873 0.00055212 0.00047204 -0.001485 0.0011502 0.0018142 -0.00013023 -0.00011012 -0.00090192 0.00026175 -0.0011459 8.2592e-05 0.00047401 -0.00048832 0.0016525 -0.0012673 -0.00054556 0.00023632 -0.00043727 0.00054088 0.0006619 0.00017552 0.0018417 9.6987e-05 0.00067505 -0.0014486 0.0010922 0.00084734 -0.00060942 -0.0008803 0.00052662 0.0012252 -5.858e-05 -0.0011076 0.0024667 0.00066293 -0.00056485 -0.00095031 0.0002107 0.0012939 0.00082431 0.0011966 0.00014363 0.0002998 -0.0015408 0.0010369 0.00089841 -0.00034595 -0.0006837 -0.0010158 0.00077728 0.00034877 0.00052232 -0.00026382 0.00124 -0.0012738 -0.00075043 0.0015234 -0.0021801 -0.0010289 0.0011874 0.0012971 -0.00052536 0.00049773 -0.0014219 0.00035255 0.00039914 -0.00047345 0.00060199 -0.00071876 0.0001852 -0.0016899 1.0321e-05 -0.00098275 0.00037048 0.00066062 0.00034683 -0.0009195 -0.00063125 -0.0022441 -0.00092559 0.0020784 -0.00031383 -0.00085396 0.001169 -0.00049483 -0.0011106 -0.00019017 0.00061363 -0.00052337 0.00091935 -0.00050642 0.0011225 -9.0631e-05 -9.5845e-05 0.00016106 -1.7488e-05 -0.00076113 -0.001154 8.2895e-07 0.0012446 0.00023548 -0.00032748 -0.00077803 0.0010999 -0.00065763 -0.00011956 -0.00053075 0.0018388 -0.00017658 -0.0001653 -0.0002241 -0.00076525 0.00049916 0.0006437 0.00037227 -0.00016145 -0.0013063 6.7518e-05 0.00064881 0.0023216 -0.0014272 0.00098608 0.00057051 0.00039377 -0.00047701 0.00016861 -0.0016461 0.00028355 0.0012167 0.00046023 0.00038476 -0.00086132 0.00018438 -0.00054419 0.00050658 -0.00012819 1.4843e-05 0.00082253 0.00078751 -0.0023436 0.00024632 -0.0011666 0.00013479 0.00074963 0.0008002 0.0013141 0.00031739 0.00095977 -0.00015206 -0.00083947 -0.00092149 0.00064839 0.00027884 0.0012808 -0.0014839 0.0011861 -0.00034758 0.0010506 0.00073839 0.0001467 -0.00060634 0.0010652 -0.0011566 0.0002463 -0.00091764 0.00066534 -0.00013861 -0.00095884 -0.00053428 0.00071075 0.0007159 -0.0014661 0.00046187 0.00013089 0.00081828 0.00057454 -0.00042196 -0.00040304 0.00021329 -0.00080819 -0.00062467 9.1168e-06 0.0025929 0.0010851 0.0019981 0.00031106 -0.00019861 -0.0012972 0.00063896 -5.8016e-05 0.0013416 0.00032302 0.0012859 0.0012274 0.00078366 -0.00097718 0.00052304 0.00074462 -4.1009e-05 -0.00024736 -0.0017945 0.0010252 0.00016334 -0.00093872 -0.00027972 3.9016e-05 -3.134e-05 0.00078301 0.00050744 -0.0004937 -0.00073939 0.00030316 -0.0019843 -0.00028024 -0.0013715 0.0019262 -0.0010375 -0.00096708 -0.00039313 0.0008973 -0.00144 -0.00085588 -0.0028464 -0.00046932 -0.00029797 0.00059691 0.00059244 0.00068231 0.00021706 0.00040553 -0.0010062 0.00012395 -0.00085384 0.00014701 0.00010882 -0.0009017 2.6341e-05 -0.00085514 -0.00037195 -0.0009814 -0.00022176 -0.00056586 -0.00012494 0.0022787 0.001233 0.00053482 -0.0016621 0.0010115 -0.00018368 -0.00029795 0.00085238 0.00016074 0.00064925 0.0012649 0.0001002 0.00050984 0.0013971 0.00031412 0.00018461 0.0020257 0.00072937 0.00049279 -0.00012617 0.00094963 
<f> 3.2104e-05 0.0010365 -0.0011285 -0.00066146 0.00068106 0.0010525 0.00027412 -2.2818e-05 -0.00099919 0.00302 -0.00074135 0.00021901 -6.0845e-06 -0.00045955 2.7265e-05 0.0010093 -0.00011466 -0.0021554 0.00078422 -0.0010886 -0.00051028 0.00078901 0.0010874 -0.00072344 0.0011428 0.0010151 0.00061407 0.00088933 -0.0006035 0.00075634 0.0014703 0.00066263 0.0015476 0.0010334 -0.00020205 -0.00046564 -0.00083246 -0.0012315 0.0008065 -0.00095749 0.0021257 -0.00094121 -0.0013825 0.00030664 -0.00022046 0.0015346 -0.00085187 -0.00067703 0.00011642 0.00049708 -0.00077426 1.4812e-05 -3.4772e-05 -0.00042289 0.00026798 -0.00027173 5.8351e-05 0.0018318 -0.00025483 0.00060317 -0.0013827 0.0012466 0.0011303 -0.0011361 -0.0016955 0.00038507 4.7027e-05 -0.0014318 -0.0018885 0.0021158 0.0016683 -0.0010526 -0.0007655 0.00012884 0.00079549 0.00057446 0.00066845 -9.8442e-05 -0.00049822 -0.0016981 0.0017084 0.0015127 -0.00095983 0.0015149 0.00053902 -0.00051222 0.00017957 -0.0020218 -0.0003686 -0.00077143 -0.0022489 0.0004954 0.0010111 -0.00086948 -0.00050328 0.00080292 -0.00020089 -0.0017012 0.00027875 -0.0012228 2.6491e-05 0.00014374 0.0010138 0.0013464 -0.00023505 1.1172e-05 -0.0011951 -0.00033597 -0.0013984 0.00027979 0.00097641 -0.00026407 -0.00011268 -0.00013457 -0.0020892 0.00013935 0.0023846 0.00040191 -0.00096087 0.0015672 0.00024032 0.00077082 -0.0007393 0.0015736 -0.0011052 0.0002808 -0.00011874 0.00055917 0.001537 -0.0010967 0.0005565 -0.00040001 0.0012572 0.00073747 -0.00029521 0.00071764 -0.00087038 -0.00099343 -0.00096442 0.00020792 -8.378e-05 0.0010035 -0.0003244 0.0014107 -0.00099705 -0.00023965 0.0006479 -0.0010945 0.0017263 0.00067877 0.00015926 9.7487e-06 -0.00052214 -0.00039611 1.0628e-05 0.0021874 -0.00082099 0.0014921 -2.7521e-05 0.00047039 -0.00057746 0.00044782 -0.0010747 0.00052756 0.0027591 -0.00076163 -0.00035476 -0.0014127 0.00016067 -0.0019069 0.0024077 0.00032243 5.686e-05 0.0014087 0.00086905 -0.0020558 0.00047878 -0.000418 -0.0011091 -0.00014468 0.00071538 0.001103 0.00011259 0.0016683 0.0013644 -0.0003961 0.00024307 0.00071411 -0.00031747 0.0016831 -0.0019534 0.00188 -0.00063789 0.00085457 0.0011869 -0.00022165 0.00019761 -3.8742e-05 -0.0022406 -0.0007497 -0.00019448 0.00091766 -0.001 -0.0010538 -0.00077744 0.00093063 0.00047351 0.0008046 0.00045487 0.00043685 0.00076216 0.0016271 -0.001004 -0.0017697 0.00014413 -2.5337e-06 -1.7235e-05 0.0010505 0.0020767 0.0011712 0.00040408 0.0015717 0.00048645 0.0011888 0.00032461 -0.0014982 0.0016728 0.00022891 0.0019649 0.0018076 0.00023152 0.00021982 0.00092573 -0.00014466 0.0017571 3.1774e-05 -0.00076609 0.00082551 -0.00026156 -0.0010409 0.0012407 0.00038946 0.00059157 0.0011714 0.00034392 -0.00057704 -0.00045158 0.0014362 -0.0019716 -0.00034874 -0.00080647 0.0022894 -0.0024738 -0.0021105 -0.00092247 0.0016895 -0.00069251 7.4274e-05 -0.001125 -0.00078401 -0.00087877 0.0011672 -0.00016016 0.0018674 -0.001147 0.00042249 -0.00062019 -0.00032335 -0.00065763 -0.0005513 7.3153e-05 -0.0015329 0.00012555 -0.00035773 -9.7157e-05 -0.0016979 9.437e-05 0.0002675 0.00071587 0.00055847 8.6751e-05 0.00048033 -0.0015646 0.0010378 0.00062858 -0.0014808 0.0023229 0.00018507 -0.0011235 0.000685 0.0012088 0.00011388 0.0010307 0.00094266 8.9406e-05 0.003232 0.00050751 0.0010662 -0.00088417 0.00036819 
<p3> 0.0017682 -0.0017681 0.00047706 -0.0018788 0.00038677 0.00094571 -0.00023735 -3.1583e-05 0.00045708 0.0034623 0.00098853 -0.00050156 -0.00066699 -0.00030588 0.00035592 0.00045465 -0.0010974 -0.0029689 9.3267e-06 -0.00027118 0.00035322 0.001386 0.0025843 -0.00081396 0.0010103 0.00063748 -0.00018093 0.0020905 -0.0003493 -1.7088e-05 0.001322 -0.00038156 0.00256 0.0014314 -0.00025133 -0.0016174 0.00048915 0.0015377 -0.001601 0.0028543 0.0027516 -0.00071897 -0.00055596 -0.00086326 0.00049132 0.00040441 0.00079928 0.00014527 -0.0002023 0.00083259 -0.002397 -0.0021338 -6.6273e-05 -0.001372 0.0003407 0.0013725 -0.00043256 0.0026274 0.00034094 0.001605 -0.0033395 0.0011073 -1.2649e-05 -0.0024702 -0.0012022 0.00079828 0.0011599 -0.00077674 -0.0022903 0.0030969 0.00013825 -0.0012076 -0.0029222 0.00064108 0.0014934 0.0019398 0.0012732 0.00097836 -0.00030255 -0.003617 0.0022932 0.0013024 0.00071849 -0.00030912 0.00019968 0.00077594 0.00046215 -0.0012081 -0.00044978 0.0013445 -0.0019996 -0.0011326 0.0017477 -0.0034526 -0.0021084 0.002765 -0.00099638 -0.00084493 0.0008797 -0.0017734 0.00063374 -9.5409e-05 0.00017984 0.00083004 -2.6976e-05 -0.00054693 -0.0013341 -0.0003729 -0.00056094 0.00097717 -0.00029757 -0.00065907 -0.0022785 -0.0013506 -0.0024964 -0.00078601 0.0031139 -0.00066134 -0.0012349 -0.00029485 -0.00055927 -0.00045133 -0.0026662 0.0020206 -0.0009768 -0.00011987 -0.0010516 0.001855 0.00095729 -0.00033789 -1.5895e-05 -0.00014601 -0.0002976 -0.00010581 -0.00093273 0.0023568 -0.00077993 -0.0010478 -0.0015302 0.0021902 -0.0016525 0.00040651 -0.0024204 0.0027914 0.00014316 0.00040433 0.0013594 -0.0019225 0.0012306 0.00071995 0.00011192 -0.00011535 -0.00026267 -0.00041237 0.0010894 0.0021736 -0.0014581 0.0025369 0.0014734 0.0002878 -0.0017056 0.00062672 -0.0012377 0.00016574 0.00055987 -0.00032572 -0.00017301 -0.001673 0.00037032 -0.0012651 0.0007064 -0.00017373 -0.0010911 0.0024609 0.0011013 -0.0040423 0.0017534 -0.0014785 0.00063482 -0.00028088 0.00072511 0.0021853 -0.00070693 0.00086161 0.00086385 6.7223e-05 -0.00096903 0.0013614 -0.0004627 0.0028893 -0.0020792 0.0022326 -0.0015607 0.0024679 0.0018266 0.0013366 -0.0021181 0.0030577 -0.0023651 -0.00050205 -0.00013961 0.00019052 -0.00011991 -0.00034817 0.00022059 0.0012668 0.00016087 -0.00035072 0.0008463 0.00072664 0.0023559 0.00098036 -0.0014601 -0.00069871 -0.0011889 -0.0020702 0.00062494 0.00051246 0.0049938 0.0018809 0.0019055 0.00082458 -0.00049216 -0.0016591 -0.00047404 -0.00081997 0.0019431 -0.0010537 0.0015767 0.0021811 0.0025433 -0.0013963 0.0010009 0.0016842 0.00065632 -1.2002e-05 -0.0020036 0.00033972 0.00095115 -0.0021218 -0.0002529 -0.00016858 -0.0013127 0.0015758 0.0001157 0.00036412 0.00036965 0.00048075 -0.0027117 -0.00013056 -0.0027871 0.0032093 -0.0016284 -0.0019448 -0.00095109 0.00099214 -0.0017228 -8.3566e-05 -0.0044377 -0.00082439 -0.00014517 0.0006035 0.0014807 0.0015798 3.4847e-06 0.00019513 -0.002369 -0.00072226 -0.0021242 0.00032303 0.0024634 -0.00098341 0.00034721 -0.00048052 -0.00018912 -0.0031951 -0.00078428 -0.00031214 -7.2905e-05 0.0028663 0.0019356 4.4488e-05 -0.0013579 0.00021858 -0.0014732 -0.0013279 0.0012455 -0.0011148 0.00079351 0.00039673 -0.00060713 0.00060367 0.0015185 -0.0017083 -0.0013348 0.0042613 0.00039752 0.0018306 -0.0020097 -0.0002159 
<pri> 0.0014007 -0.00029172 -0.00041174 -0.00082473 0.0012279 0.00057895 6.0833e-05 -0.00059157 -0.0008702 0.0023733 0.00061269 0.00027752 -0.00054431 -0.00095452 0.0012281 0.0011053 -0.0011982 -0.0012486 0.0010231 -0.00058206 0.00070061 0.0013941 0.001807 -0.0016065 0.0003756 -5.2068e-05 0.00068192 0.00079589 -0.00054215 0.00039685 0.0016342 0.00081615 0.0012842 0.0015277 -0.00049757 -0.00089092 0.00014761 0.00062689 -0.00038437 0.0015657 0.0030405 -0.00030074 -3.5134e-05 -0.00013075 -0.00067396 0.0010215 2.5181e-05 0.00062053 -0.0010834 0.00041545 -0.0024681 -0.00072011 -0.0004847 -0.00026821 -0.00039412 -0.00040073 -0.00044251 0.0022099 0.00063045 0.0010669 -0.003271 0.00074357 0.00086107 -0.0014942 -0.00063696 -0.0006442 0.0015629 0.00015595 -0.0025896 0.0022425 0.0001498 -0.0011641 -0.0012163 0.00094131 0.0016385 0.0010119 0.001279 -0.00012647 -3.3076e-05 -0.0030775 0.0015976 0.0012875 0.00016251 -0.00034414 -8.3832e-05 0.00031936 0.00083348 -0.00079794 -0.00034201 0.00043328 -0.00095051 -0.00096229 0.001995 -0.0022777 -0.0020774 0.0022946 -0.00095715 -0.00084425 0.00080022 -0.00033652 0.0011459 -0.00011877 -4.6634e-05 -0.00056914 -0.00041369 0.00088467 -0.0019586 -0.00087894 -0.0019532 0.0010602 0.0017561 -0.00066074 -0.0018818 -0.00063287 -0.003606 -0.0014198 0.0022277 -0.00055635 0.00012676 0.00031844 -0.00029848 -0.00041092 -0.0014783 0.0013912 -0.0010423 0.0013683 -0.00027941 0.00087003 0.0011993 -0.0015186 -0.00016586 0.00093508 0.00020732 0.00026992 -0.0005224 0.0011653 -0.00031966 -0.00067931 -0.0020058 0.0014635 -0.00085744 0.0001575 -0.0018553 0.0012438 -0.00087433 7.9942e-05 0.00056262 -0.0012757 0.0013621 0.00060583 -0.00025187 -0.00066894 -0.001174 -6.1926e-05 0.00037194 0.0020166 -0.0020798 0.0010726 0.00031392 -0.0001526 -0.0015794 0.00071483 -0.0013995 0.0011538 0.00098276 -0.00037586 -0.00018738 -0.0027868 0.00053959 -0.00084448 0.00077186 3.4385e-05 -7.6105e-05 0.0018174 0.00084034 -0.0030476 0.00037835 -0.00060541 -0.00040156 0.0006057 0.0012039 0.0013122 0.00010817 0.0019927 -0.00023427 -0.00035857 -0.0011689 0.001404 -0.00017001 0.0015952 -0.0031551 0.0016752 -0.0017582 0.0018528 0.0021241 0.0012669 -0.0017049 0.0016879 -0.002897 -0.00067583 0.0003049 0.0010323 -3.3646e-05 -0.0010297 -0.00055724 0.0015546 0.00098654 -0.0001082 0.0012291 0.00021275 0.0013014 0.0012348 -0.00049477 -0.00057217 0.00044293 -0.0011334 0.0013061 -0.00044429 0.0034974 0.0025864 0.0013624 0.0002556 -2.364e-05 -0.00068583 0.0001128 -0.00033103 0.0012911 -0.00018058 0.0016417 0.0016625 0.00087239 -0.0023515 0.00080819 0.00027592 0.0012704 -0.000878 -0.0022259 -2.4056e-05 -0.00034095 -0.0023173 9.167e-05 0.00025667 -0.001317 0.001644 -0.00050815 0.00024987 -0.00042825 -0.00038065 -0.0015907 -8.8948e-05 -0.002221 0.0032017 -0.0013562 -0.0017217 -4.689e-05 0.0011199 -0.0020263 -0.00089244 -0.0032566 -0.0018774 -0.00010913 0.0004133 0.00050777 0.0011497 -0.00063853 -5.2858e-05 -0.0012508 -0.00027724 -0.0018816 7.6575e-05 0.0021408 -0.0011414 0.00035475 -0.0014758 0.00058912 -0.0015065 -2.8372e-05 -0.0010302 -0.00050035 0.0018702 0.0010653 -0.00060011 -0.00047713 0.00020326 -0.0014691 -0.0007809 0.0022905 0.00013262 0.00092531 0.00051993 -0.00073128 0.00068903 0.0029297 -0.00045712 -0.00065829 0.0035797 0.00083201 0.0009448 -0.00039457 -0.00027146 
<inf> 0.0011626 0.0001224 -0.00028094 -0.00032454 0.00089638 0.00055531 -0.00029906 0.0005413 -0.00012558 0.0019894 0.00015791 0.00031979 -0.00035306 -0.0004086 0.00043986 -0.00013403 0.00071707 -0.0015255 0.00026916 0.0002632 -0.00037309 0.00095878 0.00093963 -0.00089196 0.00050673 -0.00061871 -0.00045101 0.00021634 0.00024934 0.00058454 0.00027805 0.0017507 0.0010205 0.00086177 -0.00016885 -0.00054204 -0.00055439 0.00047196 -0.00038534 0.0013782 0.0011617 -0.00046723 -0.00052457 7.2712e-05 0.00042109 5.389e-05 0.00089863 5.6212e-05 -0.00019633 0.00073411 -0.0013702 0.0010927 0.00037148 -0.0001687 -0.00027233 0.00018524 -0.00078505 0.0016399 0.00013438 -0.00017765 -0.0020871 0.00074525 0.00083182 -0.0016751 -0.000788 -5.5975e-05 0.00041469 -0.00042408 -0.0016868 -0.00025551 0.00036451 8.4869e-05 -0.00087456 -0.00056439 0.00034821 0.0014909 0.00056631 0.00050399 0.00031673 -0.0013581 0.0013523 0.00028601 -0.00049248 0.00010805 0.00075818 0.0003309 0.00038352 -0.00014628 -0.00097297 0.0013677 -0.0007414 -0.00055022 0.0010049 -0.00081242 -0.0018207 0.00069892 -0.00035943 -0.0013264 -0.00060331 -0.00066832 0.00050753 -0.00025593 0.0010675 0.0010756 -0.00077979 0.00013858 -0.00011541 -0.00017025 -0.00075222 -0.00014291 0.00011792 -6.4896e-05 -0.00046411 -6.4602e-05 -0.00090002 -0.00053071 0.0012468 -0.00055406 -0.0015585 0.00016449 0.00060988 0.00060543 -0.00059945 0.00085638 -0.00051034 -0.00014788 0.00020398 0.00042595 0.00030151 -0.00056183 0.00058255 0.00024635 0.0008432 -7.1653e-05 0.00068592 0.0011386 -0.00016414 -0.00035122 0.00031077 0.0013696 -0.00029178 0.0012546 -0.0017446 0.0022991 0.00019048 -0.00027415 0.0010437 -0.0012611 0.00011967 0.00079051 -2.7847e-05 0.00026518 -0.0004045 0.0002404 0.00026034 0.00071869 -0.0014227 0.0010462 0.00022959 0.0008555 -0.0010832 0.00099974 0.00018703 0.00042016 0.0011988 1.1498e-05 0.000908 -0.0018055 0.00038966 -0.00092886 0.00044931 -5.5686e-05 0.0002122 0.0005637 0.00047479 -0.0016327 0.00042052 -0.00034141 0.00027556 -0.0001792 0.00022461 0.0014006 0.00056807 0.00087737 0.00041939 -0.0003057 -0.00075961 3.0107e-05 1.2165e-05 0.00060535 -0.0015244 -2.7064e-05 -0.00056978 0.00065877 0.00037012 0.00052173 -0.00031948 0.0010158 7.6317e-05 0.0003145 -2.8999e-05 0.00019 -0.00045365 -0.00056845 -0.00039814 0.00058593 0.00052168 -0.0011137 0.0010592 0.00043151 5.478e-05 0.00073717 -0.00089346 -0.00027661 -0.00064908 -0.00017432 -0.00040809 0.00091672 0.0017105 0.0016357 0.00020368 0.00039356 0.00017915 -0.00081731 -8.8729e-05 -0.0010857 0.00019754 -0.00024275 0.00076742 0.0010466 -0.00017098 -0.00028706 -0.00053602 0.00036362 -0.00036972 -6.649e-05 -0.00074452 0.00030983 0.00035155 -0.00056294 -0.00071025 0.00027149 0.00086912 0.000547 0.00085154 -0.00081238 2.7626e-05 0.00098088 -0.0011449 -0.00078091 -0.0006464 0.0018618 -2.6449e-05 -0.0015134 -6.808e-05 0.00076864 -0.0013152 0.00030859 -0.0030957 -0.00085232 -0.00021823 0.00026483 0.0012413 0.00088609 0.00015702 0.00010252 -0.00059394 -0.00062344 -0.0010011 -0.00065998 0.00054263 0.00036236 -6.1266e-06 -0.00023151 -3.0219e-05 -0.00075983 -2.8652e-05 -0.00094035 0.00020267 0.0010377 0.001418 -0.00015138 -0.0014289 0.00032707 -0.00050313 0.00012218 0.00018487 -0.00053537 0.00033472 0.00090451 -0.0001719 0.00089917 0.00060615 -0.00014773 -0.00057203 0.0015089 0.00015627 0.00064163 6.5807e-05 -0.0012478 
<adv> 0.00016372 -0.001121 -0.00023478 -0.00063271 0.00077258 0.00026246 -0.00040102 2.305e-05 -0.00082058 0.0022673 0.00020823 0.00094615 -0.00015758 -0.0010575 0.00029619 0.00040868 -0.00082573 -0.0013019 -0.00043738 -0.00045284 0.0006796 0.00012252 0.0011997 -0.0014752 -0.00037033 0.00021439 -0.00020907 0.0017359 -0.00099947 0.00012658 0.00021838 0.00088585 0.0013432 0.001261 -0.0002683 -0.00092852 0.00088723 0.00056166 -0.0013919 0.00014091 0.0010582 -0.00057624 0.00023894 0.00054694 0.00033033 7.3127e-05 0.00074974 0.00032049 -0.00039602 0.00099809 -0.0016499 0.0001002 0.00093396 -0.0010318 0.0001185 0.00049674 1.7607e-05 0.00098407 0.00040413 0.00028822 -0.0018788 0.00031842 0.00048113 -0.00052708 -0.00043392 0.00037343 0.0011126 0.00039924 -0.0006602 0.0012545 -0.00054555 -0.0010899 -0.0013472 0.00096676 0.001728 0.0009132 -7.1287e-05 -0.00051748 -5.5067e-05 -0.0011822 0.00061833 0.0011139 -0.00097637 0.00024807 -0.00032383 8.9508e-05 0.00083182 0.00057066 -0.00040167 0.0013589 -0.0016683 -0.00028935 0.00036336 -0.002022 -0.00070536 0.00028758 0.00012234 -0.0013006 0.00059228 -0.00046382 0.00084017 0.00058936 0.00048074 -0.00020219 0.00043211 0.00040993 -0.0005937 -0.00062387 -0.00084959 0.00021835 0.0009075 -0.00039606 -0.0017011 -0.00088443 -0.0016957 -0.0005335 0.0013086 -8.9966e-05 -0.00071195 0.00073884 -2.0761e-07 0.00088891 -0.00050147 0.00071733 -0.0012667 0.0007471 -0.00082285 0.0012416 0.0007856 -0.00010001 -6.8651e-05 0.00092585 0.00079391 -0.0013548 -0.00031939 0.00099679 -0.00067912 1.7793e-05 -0.00058167 0.00044808 -0.0010307 -0.0003152 -0.0010539 0.00079517 -0.0011294 0.00035469 0.00039231 -0.0010596 0.00070232 3.7913e-05 0.00028052 0.00058772 -4.8818e-05 -0.00023622 0.00012562 0.00025485 -0.00028616 0.00062294 -0.00038315 9.7066e-05 -4.372e-05 0.00063805 -0.00060325 0.00018121 0.00035506 -9.3501e-05 -0.0006521 -0.00029773 0.00084827 -0.00093904 0.0014393 -6.3664e-05 -0.00065533 0.0006291 0.00040715 -0.0026065 0.00077233 0.00010288 0.00044762 0.00030063 0.00034152 0.001274 0.00058514 0.00085362 -3.3579e-05 0.00022552 -0.00069161 -5.3049e-05 0.00068897 0.0010065 -0.0014394 0.00097492 -0.00089711 0.0014578 0.00064912 0.00051885 -0.0012552 0.001207 -0.00095846 -0.00028783 0.00043734 6.2007e-05 -0.00017496 -0.00071365 -0.00053563 0.00029633 0.00016432 -0.00056126 0.001089 0.00087645 0.0012013 0.00041769 -0.00098434 -7.4746e-05 -0.00034267 -0.0010223 0.00038017 0.00012278 0.0029581 0.002118 0.0015404 0.00018713 -0.00038764 -0.00050122 -0.00034758 -0.00029 0.00094008 -0.00024462 0.00028698 0.0013031 0.0010535 9.419e-05 0.0003275 0.00014529 0.00039157 -0.0011273 -0.0015923 0.00044189 -0.00040906 -0.0017238 0.00012836 -0.0005302 -0.000491 -0.00011138 0.00039722 0.00065995 0.00013896 0.0001093 -0.0011593 0.00036596 -0.0015379 0.00084967 -0.00067591 -0.00041821 5.4234e-06 0.00089985 -0.0011455 -0.00022432 -0.0021726 -0.00032284 -0.00057219 0.00014859 -9.8758e-07 0.0007633 -0.00033516 -0.00037092 -0.00097192 0.00029367 -0.00016148 -7.3374e-05 0.00043839 -0.0010253 0.00071273 -0.00069893 -0.00051206 -0.0016262 -0.0009077 -0.00091152 -0.00063581 0.0017434 0.0010092 -0.00033327 -0.0010581 -4.6891e-05 -0.00036243 -0.0008995 0.0013042 -2.1584e-05 0.00047914 0.00064178 0.00035163 -0.0002783 0.0017418 -1.1754e-06 -0.00042448 0.0023524 0.00076592 0.0010767 1.7843e-06 0.00064139 
<adj> 5.231e-07 0.00016317 -0.00076757 -7.374e-05 0.00046501 0.00047896 -0.0004603 -0.001039 0.00031175 0.0021256 5.3484e-05 0.0010701 -0.00036994 -0.00018859 0.00053642 0.00059968 -0.0012179 -0.0015266 0.00075086 -0.0009837 0.0011124 0.00032795 0.00099808 -0.00082088 0.00031527 2.6786e-05 -0.00011051 0.00031587 -0.0012804 -6.6847e-05 0.00096148 0.0013929 0.0010157 0.00066319 -0.00085853 -0.00065158 -0.00024543 0.0015534 7.4292e-05 0.00068292 0.0020325 -7.1105e-05 -5.7251e-06 0.00048361 0.00073403 -0.00023302 0.001068 0.00070946 -0.00083635 -0.0001107 -0.0015288 0.00072769 0.00049518 -0.00038829 0.00027298 0.00056572 -0.00077847 0.00072256 -1.8718e-05 0.00053227 -0.0017041 -0.00010716 0.00019892 -0.00070255 -0.0014015 0.00065381 0.00081006 -0.00025641 -0.00010101 0.0010482 -0.00034188 -0.00090122 -0.00043778 0.00012392 0.0010188 0.0011647 0.00043023 0.00025907 -0.00026527 -0.00096318 0.0009892 0.00062497 -0.00087085 0.00045184 -0.00053104 0.00054334 0.00036415 -0.00045708 -0.0011825 0.0016598 -0.00076346 -9.1505e-05 0.001696 -0.002145 -0.00064411 0.0017271 8.4898e-05 -0.00068222 0.00016187 -0.0003431 0.00094385 0.00018717 0.00053122 0.00066274 0.00048207 0.00097772 -0.0010532 -0.00068911 -0.0014012 4.6749e-05 0.00016097 -0.00057061 -0.0014919 1.7098e-05 -0.0015253 -0.00028909 0.00074833 0.0009297 -0.00037429 0.00058643 0.00047159 -0.00042189 -0.00052551 0.00052044 -0.00054534 0.00098016 -0.00042013 -0.00024535 0.001069 -0.00086083 0.00057599 -0.00039092 9.6567e-05 -0.00045071 -1.648e-05 -3.162e-05 0.00018852 -6.8932e-05 -0.00077092 0.0015016 -0.00072394 -0.00069864 -0.00078286 0.0012304 7.8628e-05 -0.00067332 0.00076655 -0.00060978 0.00025978 -0.00035692 0.00099137 0.00043936 -0.0003264 -0.00043106 -0.00070179 0.00074117 -0.00073608 0.00098327 -0.000108 -0.00054381 -0.00031149 0.0005502 -0.00083243 0.00068787 3.4092e-05 0.0001013 0.00026697 -0.0015001 0.00075067 -0.00069795 0.00023763 0.00039371 -0.00034997 0.0005023 0.00019385 -0.0022876 0.00062395 -0.00066336 0.00047687 0.00067907 0.00027119 0.00073355 0.00040862 0.00066729 -0.00033257 6.4929e-05 -0.0015789 0.00080455 0.00058027 0.0011207 -0.001618 0.00031463 -0.00063516 0.0023185 0.0005179 0.00029079 -0.00086488 -7.9638e-05 -0.00142 -0.00047929 -0.00012169 -0.00043638 0.00048593 -0.0007655 -9.6219e-05 0.00088774 0.00039348 -0.00032366 0.00084301 0.00085926 0.00077704 0.00057085 0.00040387 0.00062144 -0.00032227 -0.00063645 0.00025524 0.00026025 0.0014188 0.0010606 0.0020952 0.00050296 -0.00014112 -0.00018259 0.00044575 -0.00071719 0.0014093 -0.00063051 0.00076239 0.00084624 0.0014893 -0.0025493 0.00014188 -0.00070217 0.00080917 0.00015527 -0.00092183 0.00016551 9.9611e-05 -0.00094313 -0.0013546 -0.00052098 -0.00026313 0.00061458 8.4254e-05 0.00015345 -0.00062783 0.00044651 -0.0012266 0.00068559 -0.0017006 0.0011373 -0.00049206 -0.00049794 -0.0010388 0.001369 -0.00086329 -1.1468e-05 -0.0014383 -0.0010123 -0.0002771 0.00025247 -0.0008415 0.00069348 -0.00046994 -0.00029176 -0.00043289 -0.00044412 -0.0006135 -3.6461e-05 -0.00063552 -6.4497e-05 0.00064725 -0.00064294 -0.00049217 -0.00038054 4.7725e-05 -0.00025557 -0.0009549 0.001375 0.0012588 -0.00023467 -0.00040575 -0.00012069 -0.0012408 -0.00090993 0.001476 0.00056024 0.00017488 0.00049746 -0.00024031 -4.8893e-05 0.00075455 1.4737e-05 3.5763e-05 0.0019893 0.00068243 0.00093164 -0.00054393 3.1048e-05 
<vpart> 0.00059437 -0.00082338 -0.00031008 -0.00032667 4.945e-05 0.001557 -0.00021889 0.00033718 -8.4836e-05 0.0013183 6.2205e-05 0.00037398 -0.00059095 -0.00058913 0.00061469 0.00067931 -0.00052261 -0.0017823 0.00068567 -0.00034044 0.00031696 0.00094243 0.0012014 -0.0012069 0.00071867 -1.4433e-05 0.00021811 0.0010972 -0.00095895 -0.00013368 0.0010392 0.00046174 0.0019425 0.00049718 -0.00091084 -0.00016999 0.00054361 0.00037272 -0.00059249 0.001364 0.0024658 -0.00062988 -0.00021591 -0.00016032 0.00040849 0.00062928 0.00070552 0.00031187 -0.00013266 0.00083043 -0.0020401 0.00024815 0.00034624 -0.00094038 0.00020004 -0.00012367 -0.00064007 0.0020946 9.3717e-05 0.00095552 -0.0016359 0.00037555 0.00088881 -0.00077514 -0.0010006 -0.00059604 0.00072465 -0.00091269 -0.0010318 0.0019129 0.0011907 -0.00059318 -0.00082272 0.00017535 0.0016336 0.00067503 0.0011649 0.00057687 -0.00022059 -0.0023591 0.0017121 0.00089637 0.00035148 0.00025543 -0.00016638 0.00046581 -8.9051e-05 2.8815e-05 7.8407e-05 0.0011043 -0.0011672 -0.00044203 0.0016821 -0.0012075 -0.00052637 0.00097519 -0.00021293 -0.00086934 0.00060215 -0.0011358 0.0011808 0.0002942 -0.00052852 -0.00018687 -0.00033286 0.00054759 -0.00078711 -0.00083247 -0.0020451 3.6818e-05 0.00084155 -0.0012804 -0.0011088 -0.00054084 -0.0027935 -0.00075592 0.001718 -0.0010515 -0.00062569 -0.00034909 -0.0003359 0.00012527 -0.0003819 0.00038029 -0.0010756 0.0012616 5.4906e-05 0.00045482 0.00034195 -0.00059663 -5.5723e-06 7.9694e-05 -0.00017633 -0.00060843 -6.3595e-05 0.00093 -0.00075101 -0.00010963 -0.00084067 0.00084251 -0.0011183 0.00057286 -0.0012237 0.001381 7.9087e-06 -0.00070165 0.00050374 -0.0011665 0.00088824 0.00052965 0.00049776 0.00030561 4.9666e-05 0.00017476 0.00063106 0.0013175 -0.0015711 0.0011194 0.00045659 0.00033988 -0.0009043 0.00084074 -0.00041332 0.00011069 0.0012097 -2.0331e-05 0.00066415 -0.0013442 0.00055965 -0.0011185 0.00016033 -0.00026956 -0.00092755 0.0010639 0.00053209 -0.0019318 0.00015687 -0.00082672 0.00034458 -0.00017731 0.0011965 0.0012357 0.00077479 0.00087866 0.00035235 -0.00026244 -0.00029903 0.00083583 0.00066709 0.0018774 -0.0016702 0.0010094 -0.0011035 0.0014025 0.0011276 3.7286e-05 -0.0015106 0.0016729 -0.0015791 -0.00023418 2.1182e-05 -0.00041194 0.00079936 -0.00081266 -0.0014755 0.0010548 0.00054265 -0.00076196 0.0009048 0.00038757 0.0012657 0.00052384 -0.0011066 -0.00029314 -0.00046347 -0.0003185 0.00015025 0.00023494 0.0025258 0.0014373 0.00083232 0.00063165 0.00011019 -0.0010732 5.2607e-05 -0.00047119 0.0012742 -0.00036317 0.0011904 0.0019065 0.0013257 -0.00082351 0.0013098 0.00064619 0.00062134 -0.00013138 -0.0020187 0.00063266 0.00044976 -0.00097982 0.00020815 -0.00032291 -0.00047535 0.0011106 0.00033135 -0.00030508 -2.7044e-05 0.00025175 -0.0014184 0.00065553 -0.0018895 0.0020225 -0.0018987 -0.001777 -0.00077705 0.0012453 -0.00099876 -0.00011813 -0.0024388 -0.00056435 -0.00047137 0.00096503 6.1806e-05 0.00034778 0.00088936 -9.3532e-05 -0.00042965 -1.7803e-05 -0.0012584 0.00060817 0.00098715 -0.00082091 0.00028788 -0.00088183 -0.00033812 -0.00096984 -0.0008054 -0.0011236 -4.3465e-05 0.0018864 0.00068937 0.00015379 -0.0010557 0.00014319 -0.00091774 -0.00054902 0.0018737 -0.00050156 0.00049676 0.0010928 0.00036164 0.00075042 0.0010827 -0.00014711 -0.00017034 0.0021517 0.0001365 0.00085963 -0.00038253 -0.00012607 
<pp> 0.0012535 -8.9644e-05 -0.00037737 -8.9269e-05 0.0015699 0.00068339 -0.00034427 0.00057252 -0.00046542 0.0022214 -0.00013873 0.0011481 9.1796e-05 -0.00049751 0.0012387 0.00019417 -0.0003152 -0.0020363 0.00071542 0.00047919 9.0477e-05 0.0018665 0.0013675 -0.00057264 0.00041929 0.00012409 0.00052139 0.00056444 -0.00028332 0.00077598 0.00011652 0.0016193 0.0013651 0.0010549 -0.00051609 -0.0010039 8.6207e-05 -8.6343e-05 -0.0010121 0.0021354 0.0030815 -0.00038569 0.00059585 0.00024209 0.00079865 0.0015888 0.0015529 -0.0006652 -0.0010183 0.0013193 -0.0025419 -0.00032827 -0.00011241 -0.00033125 0.00014704 0.00027479 -0.0010378 0.001058 0.00096436 0.0004492 -0.0022293 0.0016434 0.0006355 -0.0016113 -0.0012787 0.00039458 0.0012159 -0.00093645 -0.0018109 0.002035 -0.00019059 -0.0017093 -0.00262 0.00091684 0.0012831 0.0014176 0.001202 -0.00021371 9.8716e-05 -0.0028734 0.00088223 0.0015662 -0.00042854 0.00049315 -0.0017859 0.001209 0.0015954 -0.00096148 -0.00017647 0.0014096 -0.001127 -5.1256e-05 0.0028656 -0.0034489 -0.0021811 0.0018302 0.00062311 -0.001769 0.00030367 -0.0019802 0.0010472 0.00017652 -9.4677e-05 -0.00023865 0.00053215 -0.0001762 -0.00089239 6.8188e-05 -0.00071593 0.00036138 0.0013216 -0.0010106 -0.0008565 -0.00089324 -0.0029798 -0.00076268 0.0025687 -0.00074401 -0.0012847 -0.00040943 -0.00021944 -0.00098176 -0.0011756 0.0015703 -0.00026434 0.0012213 -0.00014379 0.0016951 0.0010569 -0.0022268 -0.00050832 -0.000933 -0.00019763 -0.0014155 6.2861e-05 0.0017344 -0.00083395 -7.8551e-05 -0.00066146 0.0013649 -0.0011785 0.0012854 -0.0022854 0.0010686 -0.00085627 -0.00066587 0.0015019 -0.00093416 0.00027675 0.000951 -4.7401e-05 4.9773e-05 -0.00039832 0.00031695 -0.00013403 0.0010946 -0.00059439 0.0020653 0.00042487 -0.0004376 -0.0011788 0.00061352 -0.000981 0.00023524 0.00036718 0.0011443 -0.00075367 -0.0022947 0.00053385 -0.0008559 0.00098557 -0.00032541 -0.00095337 0.0020486 0.00076001 -0.0035495 0.00070328 -0.00086235 0.00047847 8.8226e-05 0.00098119 0.0020442 0.00020086 0.0039014 -0.0012265 -0.00076944 -0.0010629 0.00065184 0.00075756 0.0031432 -0.0036099 0.00091404 -0.0016345 0.0015584 0.0021198 0.00051042 -0.0018344 0.00262 -0.003667 -0.00025166 -0.00029341 0.0014602 0.00037797 -0.0012901 -0.0007179 0.0012863 -0.0010552 -0.001237 0.00092326 0.00027862 0.0013169 0.00030508 -0.0019176 -0.00080633 -0.0012293 -0.00090654 0.0011168 0.00068433 0.0037826 0.0019279 0.0016924 -9.7501e-06 0.0008124 -0.00081923 0.00031406 -0.00056065 0.0022152 -0.0001062 0.002693 0.0023593 0.00145 -0.0016302 0.001942 0.0020071 0.00054322 -0.00051805 -0.0021198 0.00013971 -0.00020148 -0.0020493 -6.6189e-05 -0.00022567 0.00012639 0.0015393 0.0010675 5.4759e-05 -0.00082811 0.00033146 -0.0015655 0.00096385 -0.0027559 0.002753 -0.0023609 -0.0014569 -0.0020002 0.00053286 -0.0018915 -0.00081198 -0.0034687 -5.651e-05 0.00073121 -0.0010688 -0.00015713 0.00052172 -0.0002567 0.00078704 -0.0030526 0.00089227 -0.0029037 -0.00022889 0.00029652 -0.0015564 3.1661e-05 -0.00037633 -0.0010485 -0.0029451 -0.00054904 -0.0014469 -0.00079095 0.0025365 0.00083595 -2.1476e-05 -0.0016823 0.00018324 -0.0010409 -0.0016904 0.0018462 0.00041997 0.00065153 0.00087346 -0.0013367 0.001238 0.0017047 0.00047548 0.00025426 0.0026949 0.00076017 0.00065644 -0.00082398 -0.00086024 
<cnjcoo> 0.00069068 -0.00035316 0.00026678 -0.00070491 0.00031292 0.00038919 -0.00055702 -0.00011039 9.7084e-05 0.0016375 2.0248e-05 0.00032206 -0.00019901 0.00065385 0.0006829 0.00073343 -0.00048289 -0.0008815 5.9553e-05 5.1697e-05 0.00019591 0.0010254 0.00058067 -0.0012186 0.00029179 0.00015837 0.00068082 0.00030704 -0.00022248 3.7244e-05 0.0010745 0.00093848 0.00083013 0.00044419 -0.0001422 -0.00039211 0.0006813 -5.9087e-05 -0.00038485 0.00045534 0.0016274 -0.00034818 0.00025427 -0.00013553 -2.8435e-05 4.9712e-05 0.00043495 0.0003771 -0.00045122 0.0014319 -0.0017756 -0.000522 0.00043047 -0.0004082 0.00022933 -0.00019288 -0.00011792 0.0012141 -0.00047855 -1.5703e-05 -0.0014739 0.00066968 0.0011502 -0.00095492 -0.000579 0.00025273 0.00037632 -0.00010489 -0.00081716 0.001638 0.00013449 -0.0010144 -0.00084005 -4.8954e-06 0.00081793 0.00079574 0.00036547 0.00016907 0.00015078 -0.0014441 0.0010827 0.00037886 0.00072106 0.00024263 -8.3793e-05 0.00057819 0.00041906 -0.00041606 -0.00058175 0.00062864 -0.0008736 -0.00055078 0.00068768 -0.0012808 -0.0007909 0.00091264 9.2321e-05 -0.00085156 0.00011415 -0.00011804 0.00091407 0.00014398 -0.00031921 0.00023509 -0.00019657 0.00042022 -0.00032738 -0.00092924 -0.00090012 0.0004117 0.00066337 -0.0004406 -0.0010883 5.5663e-05 -0.001072 -8.5295e-05 0.0015663 -0.00081699 -0.0012039 0.00061877 0.00010854 0.00024773 -0.00024393 0.00062675 -0.00036989 8.7562e-05 -0.00053585 3.3027e-05 0.00046383 -0.00054089 0.00066879 0.00075728 0.00018876 -0.00062596 -0.00011644 0.0010306 0.00060927 -7.8009e-05 -0.00067151 0.00045794 -0.0012038 -0.00025097 -0.0011806 0.000803 0.00012373 -0.00032797 0.0010436 -0.0004713 -0.00011407 0.00050866 0.0001233 -4.7024e-05 -0.00025813 0.000359 0.00086269 0.00071704 -0.0004376 0.00038755 0.00064694 7.4496e-05 -0.00063533 0.00036702 -0.00084112 0.00034153 0.00068723 0.00043306 -0.00014076 -0.0010983 0.00022401 -0.00050373 0.00010948 1.9378e-05 -0.00099725 0.00059626 0.0010864 -0.0020381 -0.00030556 -0.00083597 0.00036656 0.00061967 0.00097985 0.00093823 0.00015942 0.00066956 -3.7281e-05 9.9062e-05 -7.0362e-07 0.00087264 0.00038695 0.0017582 -0.00049637 0.00016342 -0.00044406 0.00078721 0.00044305 0.00052588 -0.00029643 0.00086331 -0.0012264 -3.2625e-05 -0.00038095 -0.000237 -0.00046086 -0.00071125 -0.00049575 0.00026486 0.00020257 -0.00020887 0.00065099 0.00018685 0.0010948 0.00030904 -0.00024383 -0.00043452 -0.00036712 -0.0011346 0.00056171 -0.00064788 0.0019938 0.0013062 0.0012901 -0.00013951 -0.00014976 -0.0011387 0.0005413 1.3913e-05 0.0012128 -0.00012361 0.00097624 0.001083 5.7628e-05 -0.000537 0.00053567 0.00034041 0.00025298 -0.00039709 -0.0015495 0.0007342 -6.1637e-05 -0.00086746 -0.00015933 0.00054377 -0.00022911 0.00096186 -0.00066651 6.0752e-05 9.0531e-05 0.00046938 -0.00090902 2.5987e-05 -0.001277 0.0015846 -0.00064738 -0.0014585 -0.00015004 -8.513e-05 -0.0011138 -0.00030191 -0.0020905 -0.00058095 -0.00064387 0.00065096 5.2509e-05 0.00052259 0.00018983 0.00048403 -0.0005641 4.7225e-05 -0.00079729 -0.00039913 0.00047887 -0.00010797 0.00020476 -0.00063044 -0.00033756 -0.001277 -0.00031921 -0.00077857 -0.00024344 0.0011629 0.0009482 -0.00053396 -0.0012177 0.00055522 -0.00079717 -0.00098481 0.00024589 -0.00033146 0.00051467 0.0002245 0.00042548 7.3427e-05 0.00052595 -0.00033716 -2.1315e-05 0.0017734 0.00065475 0.001063 -0.00038915 -0.00020798 
<prn> 0.0017675 -0.00079612 -1.8547e-05 6.8931e-05 0.0010242 0.0011543 0.00019116 0.0005932 -0.00020618 0.0030699 0.00054102 0.00084856 0.00014212 -0.00050486 0.0013117 0.00065473 -0.0002353 -0.0017327 0.00095007 -0.00072575 0.00061261 0.0016021 0.0020765 -0.001749 0.0012473 -0.0010508 0.00076884 0.00022403 -7.8502e-05 -3.1521e-05 0.00090738 0.0015641 0.0024733 0.00065258 -0.0010095 -0.0013433 -0.00020392 0.0011129 -0.0012603 0.0007165 0.0034169 0.00013689 -0.00064526 -0.00036772 -3.0525e-05 -5.8157e-05 0.0010624 0.00022382 -0.00033652 0.00096326 -0.0032116 -0.00084683 -0.00044264 -0.0013175 0.0007245 0.00057391 -0.00063252 0.0020491 6.1119e-05 0.0017521 -0.0027679 0.0011 0.0018044 -0.0019119 -0.0016977 0.00059274 0.0014389 -0.00069035 -0.0016914 0.0031664 0.00039939 -0.0019292 -0.0027252 0.00065937 0.0018513 0.00094354 0.0015257 -5.4286e-05 -0.00090109 -0.0026239 0.0016429 0.00041908 0.00032511 0.0007281 -0.00012717 0.00078371 0.00070743 -0.0005809 0.0001321 0.0005629 -0.0015756 -0.00021346 0.0018556 -0.0029792 -0.0017504 0.0019285 7.0888e-05 -0.0020446 0.0014395 -0.0012273 0.0011355 3.6232e-05 -0.00011081 -3.6618e-05 -0.00065192 -0.00039963 -0.0016737 -0.0010671 -0.0006892 -0.0002055 0.0031718 0.00028108 -0.0013174 -0.00042684 -0.003012 -0.0018589 0.0025753 -0.00072846 -0.00090155 0.00022048 -0.00046917 0.00017669 -0.0007342 0.0015861 -0.0010277 0.00085539 -0.0004316 0.00011962 0.00072803 -0.00065307 -0.00028313 -0.00038291 0.00023652 -0.00046342 -0.00030703 0.001354 -0.00036771 0.00055354 -0.0012303 0.0015333 -0.0011747 -0.00029563 -0.0010787 0.0031971 -0.00016082 -0.00071957 0.0019676 -0.0015828 0.0016419 0.00077753 0.00044615 0.00020773 -0.0010187 0.00088216 0.00099414 0.0016538 -0.0016188 0.0014406 0.00096293 0.00097828 -0.0012439 0.00024976 0.00013354 0.00018603 0.00069197 0.00030942 -7.2652e-05 -0.0032172 0.0002264 -0.00087568 0.00096738 6.3994e-05 -0.0010013 0.0012197 0.001828 -0.0034027 0.00042415 -0.0010624 -0.00076507 0.00051837 0.0012325 0.0019825 -0.00026037 0.0028139 -0.00050495 0.00022596 -0.00035146 0.0018214 6.3147e-06 0.0021303 -0.0025613 0.0011212 -0.0016241 0.0025038 0.001862 0.00030509 -0.0022121 0.0010205 -0.0035053 -0.00081568 0.00052843 0.00052467 0.0002591 -0.0025721 -0.00053575 0.00039595 -0.00039485 -0.00070243 0.00079006 -0.00053875 0.0022729 0.0021448 -0.00095859 -0.00038439 -0.00074308 -0.0015372 9.4035e-05 0.0006385 0.0038047 0.0013582 0.00099964 0.00013628 0.00056147 -0.0018176 -3.3078e-05 -0.0007739 0.0022812 -0.00025461 0.0014971 0.0016086 0.0017096 -0.00084912 0.00038613 0.00081051 0.00071209 -0.00052558 -0.0030685 0.00096349 0.00031048 -0.001407 0.0002392 0.00024544 -0.0013077 0.0011146 0.00021765 -0.00014596 -0.00022469 0.0010079 -0.0018582 0.0016392 -0.0027461 0.002976 -0.0019386 -0.00076375 -0.0015142 0.0019433 -0.0020726 -0.0001542 -0.003981 -0.0013878 -0.0013589 0.0007709 0.0013893 0.0013431 -0.0013128 -0.00024626 -0.0019014 7.117e-05 -0.0024354 0.00038392 0.00099605 -0.00092892 5.0266e-05 -0.001341 -0.00067078 -0.0028874 -0.0014585 -0.0010003 -0.00047439 0.0029105 0.001213 0.0007132 -0.0014873 0.00020562 -0.0020475 -0.0012335 0.0025641 0.00042763 0.0012493 0.0010353 0.00043553 0.00082262 0.002072 -0.00061288 -0.0013422 0.0027204 0.00090868 0.000354 -9.8318e-05 -0.00011836 
<x> 0.00067095 0.00021772 0.00072359 0.00078493 0.00084463 -0.00029038 0.00016312 -0.00053402 -0.00058995 0.00066289 0.00031458 0.0005172 0.00026729 6.2178e-05 -0.00052535 -0.00054293 -0.0015484 0.00033449 0.00012101 -0.00058126 0.00023767 -0.00021089 0.00020227 -0.00065204 -0.0003268 -0.0010055 0.00045177 0.00035573 -0.00020931 -0.0011692 -1.5957e-05 -0.00017031 0.0005642 0.0012731 0.00040137 0.00016103 0.00035294 -0.00047927 -0.00051185 0.0016093 0.0019479 -0.00025812 -7.3355e-05 -6.945e-05 0.00068182 -0.0014839 0.0010292 0.0011034 -0.00022326 -0.00015274 -0.0012023 0.00070629 0.00035722 -0.00084856 0.00038279 -0.00049257 0.00095845 0.00073881 -0.00040505 1.5012e-05 -0.0010003 0.00040828 0.0010403 -0.001936 -0.0014835 -0.0011392 -0.00023566 -0.00030235 -0.0015062 -0.00027291 0.00086179 -0.00063726 5.0467e-05 -0.00020208 0.00060927 0.00079485 0.00034789 0.00034848 -0.00012069 -0.0021816 0.002057 0.00096757 0.00068184 -0.0001056 0.00013999 -0.00013942 -0.0002876 -0.0017868 -0.00070928 0.0010333 -0.0020374 -0.00040428 0.0010571 -0.00080663 -0.0016024 0.0010328 -2.8987e-07 -0.0015442 -0.00040752 6.8878e-05 0.00087211 0.00050241 0.00082928 0.00016112 -0.001215 0.0015903 -0.0011002 0.00033981 -0.0017394 -0.00083609 -1.7578e-05 -0.0017773 -0.0013861 0.00041381 -0.0016416 -0.00094648 0.00099636 -0.00011042 -0.001129 0.001344 -0.00010332 -0.00064284 -0.00049978 0.00093916 0.0012167 0.00079564 -0.00025455 -0.0001369 0.00024684 -0.0016047 -0.00079259 -0.00074085 -3.259e-05 -9.9807e-05 -0.0011682 0.001069 0.00045647 0.00026827 -0.0010148 0.0011612 -0.00048985 1.9238e-06 -0.0010932 0.00076596 -0.0005474 0.00058989 0.00015729 -0.00076567 0.0010203 0.00027142 -0.00027737 -0.00019263 -2.3944e-05 0.0011159 0.00080955 0.00018937 0.00031882 0.00050044 -0.00072789 7.3467e-05 -0.00078427 -0.00011071 -0.0019519 0.0013439 -0.00045204 -7.204e-05 -0.0006781 -0.00065744 0.00052233 -0.0011253 0.00027105 -0.0011833 -0.00068818 0.00015628 0.0004117 -0.00092615 0.0012669 0.00051827 -0.00041918 -0.0011882 0.00054361 -0.00087755 0.00042221 0.0023186 -0.00026547 0.000775 0.00093565 0.00068738 -0.00017727 0.00053596 -0.0013466 -0.00039364 -0.00040956 0.00079015 0.00091217 9.0872e-05 -0.00066806 0.0018431 -0.0025065 -0.00015178 0.00050901 0.00010066 0.00062319 0.00071558 0.00021793 1.3958e-05 -1.3723e-05 -0.00068987 0.0011505 -8.5306e-05 0.001164 0.0015772 -0.0012834 0.00040747 -5.2536e-05 -0.00059096 -0.00061399 0.00019188 0.0025811 4.2131e-06 0.0014733 0.00039729 0.00068324 -0.00062587 -5.6992e-05 -0.00076287 0.00088586 0.0011102 0.0012076 -0.00049746 9.9859e-05 -0.00050345 3.5457e-05 -2.5081e-05 -0.0012274 -0.00024576 -0.0015876 -0.0002304 -0.0016299 0.00039691 0.00043034 0.00072192 -0.00055446 0.00025911 -0.00076584 -0.00027474 0.0013573 0.0011129 -0.00073963 0.0005403 -0.00071262 0.0010885 -0.00044011 -0.0003148 -0.0008342 0.0009223 5.3832e-05 -0.0012725 -0.00090776 0.00027735 -0.00047272 0.00054455 -0.00042896 0.0011398 -0.00079488 0.0015802 -0.00060698 -0.00056871 -0.00060138 0.00045119 0.00088859 0.00014282 0.00015265 0.00017019 0.001405 -0.00020093 0.00030244 -0.00049658 -5.0051e-05 0.00058472 0.00018329 -0.0008073 -0.00048123 0.00051522 -7.2403e-05 6.4723e-05 0.0010263 0.0010428 -0.00034174 0.00067606 0.00023599 0.00041436 0.0014968 -0.00012141 0.00033391 0.0014041 0.00041979 -0.00037517 0.0001732 -0.0016973 
<np> 0.00041063 0.0006695 -0.00049344 -0.00059459 -0.00036597 9.3454e-05 -0.00020764 0.00044656 0.00050829 0.0017383 0.000127 0.00080859 -0.0009604 0.0003689 0.00032709 0.00024677 -0.00017192 -0.00043165 0.0010176 -0.00039742 0.00082537 0.00015083 0.0010347 -0.00099729 0.00023833 0.0002232 0.00046638 -2.156e-05 0.00049742 0.0014834 0.00088158 0.0016939 -4.2192e-05 0.00020322 -0.00038418 -0.0004437 -2.0337e-05 0.00034509 -0.00049659 0.00029648 0.0023846 0.00023008 0.001024 0.0012201 0.0015947 -0.00011868 0.00026134 -0.00026087 -0.00015403 0.0012644 -0.0013272 0.00058048 6.8254e-05 -0.00074322 0.00055483 0.0010794 -0.00010347 0.0012364 0.0015221 0.00044091 -0.00090192 7.7862e-05 0.00036139 -0.0008989 -0.0012606 0.00020978 -1.1504e-05 -0.00077264 -0.0011394 0.00074591 0.00097503 4.9443e-05 -0.00086954 0.0012295 0.0016013 0.00092511 0.0010274 0.00049632 0.00054096 -0.0014341 0.00047263 0.0010428 -0.00052423 0.00080997 0.00020997 0.000331 0.00035338 -0.0001092 0.00017965 0.00055957 -0.0001978 2.7655e-05 0.0007787 -0.0019674 -0.0016845 0.0016975 0.00055258 -0.0017373 0.00023956 -0.00073135 0.00049365 -0.0006748 -0.00022739 -0.00042708 0.0004519 0.00096782 0.00072246 -0.00066291 -0.00074341 0.00040432 0.00036593 -0.00027439 -6.3143e-05 -0.00054244 -0.0015611 -0.0012055 0.00083024 -0.00099428 -0.00070868 0.00082687 0.00097246 -0.00011613 -0.00069141 0.0014556 -0.00083795 0.0006648 -0.00016524 -0.00055072 -3.5105e-05 -0.00028096 -0.00040604 -0.00085244 0.00041215 -0.00088519 0.00023123 0.0013163 0.00020905 0.0003894 -0.0013773 0.0015096 -7.849e-05 0.00033072 -0.00085671 -6.3528e-05 -8.6256e-05 -3.735e-05 -0.00050874 -0.0010564 0.00072349 -0.00048118 0.00028589 -0.00013397 0.00051333 0.00043287 0.0001383 0.0015934 -0.0007905 0.00065104 -0.00051273 0.0010292 -0.0012393 0.0011487 0.00029337 0.0001469 -0.00024853 -0.00072047 -0.00012445 -0.0014662 0.0017339 -0.00084838 0.00031658 0.00055206 6.0215e-05 0.00018487 0.00019085 -0.0014977 0.00017796 -0.00094248 0.0006042 -0.00043114 0.00034457 0.001243 0.00060878 -0.00044051 -0.00044501 -0.00013037 -0.0010232 0.001158 0.00031159 -1.0307e-05 -0.001874 0.0010562 -0.0001855 0.0011686 0.0012185 -0.00034268 -3.2232e-06 0.0014303 -0.0023953 0.0010948 0.00091514 0.00080112 -0.0012864 -0.00056027 0.00049695 -0.00079165 -0.00082138 -6.1463e-05 0.00030838 0.00015481 0.0011896 0.00028156 -0.00072804 -0.001223 0.00072129 -0.00023165 -6.5441e-05 6.5897e-05 0.001283 -0.00042935 0.0013143 0.0012602 0.00052116 9.88e-05 0.0006261 -0.0013939 -0.00014297 -0.0012222 -0.00043782 -0.00045665 0.00096594 -0.00052927 0.0012273 -0.0012539 0.00040619 0.00016069 -0.0019621 -0.00032195 9.5767e-05 -0.00039355 5.1504e-05 0.00072462 8.0352e-05 0.00025704 0.00076128 0.00098678 -0.00062795 0.00046189 -0.00027472 0.00065893 -0.0014797 0.00076807 -0.00061649 -0.00010335 -0.00075241 -0.00019782 -0.00025792 0.00030231 -0.0007374 0.00098028 -3.3414e-05 0.0010745 -0.00045466 -8.9503e-05 0.00086883 0.00031476 -0.00086619 0.00029331 -0.0013087 0.00035363 0.00073239 -0.00074113 0.00038108 -9.8058e-05 0.00015683 -0.0020978 -0.0014789 0.00018733 -0.00012434 0.0022716 0.0010941 -0.00092368 -0.0010314 0.00015881 -0.00036149 -0.00016877 0.0010453 0.00053515 0.00045894 0.00025286 0.00062566 0.0010055 0.00020376 0.00065439 -0.00045506 0.001785 0.0006323 0.0004323 -0.00052523 -0.0010592 
<cm> 0.0001242 0.00039306 -0.00063509 -0.0014284 0.00050423 0.0016676 -3.7046e-05 4.126e-05 0.0003141 0.0031462 0.00060942 -1.0188e-05 -0.00024621 0.00033 0.00039312 0.000755 -0.00095797 -0.0022816 0.0013422 -0.0010728 0.00054351 0.001566 0.0022546 -0.0020804 0.00072905 0.00044441 -0.00024806 0.0010589 -0.00095787 0.00063301 0.0012855 0.0010455 0.00078294 0.0019147 -0.0012546 -0.00098164 0.000587 0.0011394 -0.0016415 0.0015528 0.0032753 -0.00031794 6.0866e-05 0.00018698 -8.4488e-05 0.00088155 0.00088301 0.00042347 -0.0010753 0.0022538 -0.0020199 -0.0022179 0.00037545 -0.00097618 0.00066263 0.00076596 -0.0010352 0.0017859 0.00086856 0.0021671 -0.0019229 0.0011592 0.00068618 -0.0014795 -0.0013859 2.0813e-05 0.001172 0.0011709 -0.0016242 0.0014596 0.00065217 -0.0014163 -0.0019432 0.0003582 0.0022487 0.001264 0.0012549 0.0011811 -0.00021188 -0.0030536 0.00057441 0.0012609 -0.00034957 -0.00017138 -0.0010286 0.00027483 0.0005255 -0.00038279 -0.00061749 0.0014741 -0.0010058 -0.00022865 0.0012038 -0.0020718 -0.0014553 0.0013859 0.00044009 -0.0023521 0.0012405 -0.0010374 0.0013393 0.00075428 0.0004393 0.00051405 -0.0008005 0.00074919 0.00014699 -0.0022322 -0.0009918 -0.00024065 0.0018004 -0.00022955 -0.0013704 -0.0011557 -0.0031942 -0.001682 0.0017317 0.00020409 -0.0013204 0.0012677 -0.00038049 -0.00066088 -0.00095145 0.0010283 3.588e-05 -0.00041236 -5.4965e-05 0.0013371 0.0004408 -0.0009351 8.657e-05 0.00039418 0.00027414 -0.0012965 -0.00039355 0.0012717 -0.00068066 0.00066904 -0.00060219 0.00031956 -0.00058863 -0.00033169 -0.0023033 0.0015983 -0.00062579 -0.00020831 0.0018518 -0.0016614 0.0011034 0.00050978 -0.000621 -0.00032454 -0.00086939 0.00060764 0.00047582 0.0015568 -0.00066029 0.0016942 0.0016657 0.00098289 -0.0020722 0.00054709 -0.00059025 0.00024597 0.0017467 0.00043677 0.00040721 -0.0030562 0.0013543 -0.00069725 -6.9884e-05 -0.0002904 0.00016027 0.0013396 0.0024907 -0.0030307 -0.00023149 -0.0018879 0.00048369 0.0012717 0.0018031 0.0023043 0.00037534 0.0019961 -0.00094316 -0.00049948 -0.00085587 0.001033 0.00017063 0.0029589 -0.0023507 0.0010408 -0.00248 0.0024586 0.0015988 0.0020969 -0.0019525 0.00054221 -0.0023153 -0.00064447 -0.0006932 0.00072421 0.00018184 -0.00091112 -0.00095166 0.0015324 -0.0003775 -0.002557 0.002083 0.0010313 0.001693 0.00034028 -0.00047495 -0.00087623 0.00063523 -0.00081058 -0.0005618 -0.0010739 0.0030222 0.0017239 0.0028681 0.0012484 -0.00054695 -0.0012589 -0.00015288 0.00052667 0.00076732 -8.1332e-06 0.0017046 0.0014509 0.0009172 -0.002167 0.00089333 0.00080191 -0.00028296 -0.00073 -0.0025046 0.00045608 -0.0005698 6.8675e-05 0.0010249 0.00091408 -0.00097809 0.0015867 0.00050396 -0.00025658 -0.0012182 0.0012049 -0.0015691 0.001165 -0.002225 0.0023596 -0.0032513 -0.0007827 -0.0014429 0.0013985 -0.0018424 -0.0014103 -0.0043621 -0.0016224 -0.00093606 0.00063737 0.00029881 0.0027671 0.00038083 0.00053644 -0.00079917 -0.00060299 -0.003338 0.00042135 0.001363 -0.00048489 0.0018165 -0.00097726 -0.00058693 -0.0026261 -0.00075538 -0.00083688 0.00060035 0.0034833 0.00092931 -0.00088402 -0.0019666 0.00040872 -0.00094957 0.00031919 0.0022097 0.0014773 0.00065705 0.0015265 -0.00070051 5.2666e-05 0.0024137 -0.00098635 -0.00066464 0.0031815 -9.2069e-05 -0.00087511 -0.00096594 -0.00042283 
<num> 0.0015587 0.0005812 0.00025224 0.00026758 4.4306e-05 0.0011461 -0.0004515 0.00072199 -0.00013498 0.0017838 0.00081211 0.00051388 -0.00039965 -0.00077465 0.0014444 0.0011867 -0.0015632 -0.0015002 0.0014041 0.00019622 -0.00065344 0.0023408 0.0015012 -0.00011381 0.0001549 -3.246e-05 0.00069445 0.0011583 -0.00025543 0.0012912 0.0014181 0.00096257 0.0015481 0.0010093 -0.0006755 -0.00047344 0.00024634 0.00042727 -0.000581 0.0021964 0.0030514 -6.1323e-05 -3.5621e-06 -0.00028965 -0.00014191 0.00034297 0.00027804 0.00071944 -0.00020277 0.0013926 -0.001991 -0.0008223 -5.2439e-06 -0.00083783 1.7065e-06 0.00082053 -0.001209 0.0025649 0.0011911 0.0010076 -0.0024103 0.00051006 0.00097604 -0.0010305 -0.00094587 -0.00065603 0.00097648 -0.00068295 -0.0013175 0.001819 0.00074912 -0.00069325 -0.00063284 6.0204e-05 0.0015896 0.0010778 0.001565 0.00052545 0.00035179 -0.0025066 0.0005891 0.002016 0.00070045 0.00010422 -0.00091513 -0.00031197 0.00067041 -0.00062576 -0.0009871 0.0017717 -0.0014734 -8.9746e-05 0.0013306 -0.0021537 -0.00088169 0.001176 -0.00024324 -0.0015914 0.00063252 -0.0005563 0.0015543 0.00030092 0.00021955 0.00056182 -0.00037692 0.0012128 -0.0015079 -0.0015308 -0.00094205 0.00037497 0.0011232 -0.00049704 -0.001252 -0.00085794 -0.0019608 0.00018923 0.0017859 -0.00086008 -0.0012845 0.00054069 -0.00015016 -0.00012936 -0.00040578 0.0012026 -0.0014072 0.00023353 -0.0006691 0.00048537 0.00030798 -0.00071614 -0.00018946 -0.00016803 0.00046406 -0.00094346 0.00020368 0.0017701 0.00030268 -0.00035865 -0.0014814 0.0011282 -0.0013187 -9.9013e-05 -0.0010762 0.0023242 0.00080059 0.00015032 0.00014435 -0.001962 -0.00030648 0.00072033 0.00017448 -0.00027188 -0.00071428 0.00033929 2.9447e-05 0.00070829 7.7742e-05 0.0005026 0.00040226 0.0006144 -0.00085918 0.00051827 -0.00092556 -0.00047316 0.0010738 5.7931e-05 -9.5973e-05 -0.0012404 0.00063922 -0.0011298 0.00059288 -0.00086572 -0.00087576 0.001384 0.0015224 -0.0029209 0.00037958 -0.00104 0.00021941 -0.00088433 0.001248 0.0021516 2.3109e-05 0.00216 -0.0010597 -0.00014881 0.00023992 0.00091213 -0.00044163 0.0014583 -0.0015443 0.00093795 -0.00090035 0.0010861 0.00040235 0.0014486 -0.0016769 0.00079027 -0.0026338 7.3701e-05 -0.00057362 0.00045751 0.00034211 -0.0012005 -0.00056259 0.001338 -0.00077603 -0.00042135 0.00043769 0.00080491 0.0019377 0.0014004 -0.00024147 -0.00049797 0.00015014 -0.00088524 -0.00010216 0.00075912 0.0028722 0.00186 0.0014294 0.00073754 -0.00039546 -0.0015963 0.00053514 -0.00050398 0.0023251 -0.00037691 0.00026811 0.0014105 0.00050957 -0.0009381 0.00092694 0.0017391 -7.1588e-05 -0.001028 -0.0014624 0.00023426 0.00027033 -0.00010874 0.0004495 -0.00027173 -0.0010086 0.0016194 0.00078828 -5.2072e-05 -0.00042062 0.00023478 -0.0018743 0.00062959 -0.0018115 0.002924 -0.0010451 -0.0010253 -0.00069898 0.0010237 -0.0018286 -0.00013883 -0.0028363 -0.0012186 -6.138e-06 0.0012095 0.00071554 0.00050373 0.0011029 -6.2016e-05 -0.0010755 0.00041009 -0.0013324 0.0011469 0.0019542 5.209e-05 0.0015982 -0.0003648 -0.00054065 -0.0014781 0.00014193 -0.00055425 -4.3615e-05 0.0025795 0.0018633 0.00011383 -0.0014842 0.00040661 -0.00094912 -0.0010745 0.0019054 -0.00053591 8.1432e-05 0.0012562 -0.001054 0.00052343 0.0019664 -5.1703e-05 -0.00063184 0.0029228 0.00015941 0.00048145 -0.0012126 -5.5453e-05 
<pos> 0.00071357 -0.00015832 2.553e-05 -0.00080882 0.00069145 -9.5868e-05 -0.00041687 0.00046812 9.6991e-05 0.001409 0.0011787 0.00051296 -0.0010079 -0.00019552 0.00064067 0.00046733 -0.0013967 -0.0011963 0.0016231 -9.8289e-05 -0.00045073 0.00013164 0.0027488 -0.0010169 0.00057119 -0.00010391 0.00017381 0.00085977 -0.00043188 0.0002624 0.00064843 0.0016548 0.0020832 0.00085538 -6.9901e-05 -0.0010928 0.00036987 -0.00010478 -0.00078803 0.0013531 0.0020963 -0.0013082 0.00031693 -3.5868e-05 -0.00019611 -0.0007958 0.00065204 -0.00037937 -0.00086902 0.00076284 -0.0024466 -0.00095123 2.2517e-05 -0.00076945 0.00054966 -0.00016932 -0.00044629 0.0020271 -0.00049799 0.0011022 -0.0021195 0.0010507 0.00061987 -0.0014488 -0.0013677 0.00038668 -0.00033766 -0.00010578 -0.00053115 0.0026583 -0.00057271 -0.0016869 -0.0012587 2.9347e-05 0.001878 0.00096915 0.00053961 0.00037917 -0.00072977 -0.0019805 0.0011033 0.0012943 9.9211e-05 -0.00011286 -0.00012377 0.00089397 0.00019097 -0.00098889 -0.00059092 0.0014386 -0.0021287 -0.0005051 0.002371 -0.0022259 -0.00074416 0.00064852 9.1507e-06 -0.0013951 0.00032651 0.00019164 0.0017637 -0.0003663 -0.00053713 -0.00012412 0.00021799 -0.0001637 -0.0015146 -0.0015188 -0.00087064 0.00098413 0.0014335 -0.00055435 -0.0018743 -0.0008734 -0.0028116 -0.00094326 0.002278 0.00014806 -0.00068414 0.00041996 -0.00020981 1.8263e-05 -0.00040267 0.0020328 -0.00030495 0.00032694 -0.00030043 0.00044287 0.00018971 -0.00084778 2.5785e-05 -0.0005539 0.0004674 -0.00026778 0.00050436 0.00073241 0.000141 6.2293e-05 -0.0020217 0.00091723 -0.0011356 0.00023935 -0.0013306 0.0022495 -0.00083632 0.00016558 0.00049956 -0.00091547 0.0002496 0.00047378 -0.00039031 0.00087897 -0.00081158 0.00027908 0.00076054 0.0023954 -0.0017555 0.0010717 0.00081142 -3.4244e-05 -0.00060701 0.0010638 -0.00092032 0.00098822 0.0012399 -0.00022619 -0.00071154 -0.0021013 -0.00037774 -0.00069628 0.00060959 -0.00048399 -5.4118e-05 0.00095081 0.001185 -0.0030982 0.00014118 -0.001846 0.00025495 0.00021475 0.00044603 0.0016257 0.00031724 0.0021117 -0.00040672 -0.00064449 -0.0011393 0.0011928 -0.0003517 0.001775 -0.0018548 0.00059638 -0.00019997 0.00063855 0.0011743 0.00026512 -0.0011909 0.0022247 -0.0020669 -0.0001833 -0.00028188 1.7007e-05 -0.00027758 -0.00036475 -0.00092083 0.00013227 -0.00011151 -0.00067493 0.00091527 6.7914e-05 0.0020071 0.00070741 -0.00051146 -0.00022983 0.00033635 -0.0010958 1.2829e-05 -0.00060294 0.0027244 0.0016736 0.0014312 0.00072733 0.00034703 -0.0014033 0.0010773 -0.00048708 0.0021173 0.00015489 0.0017128 0.0014017 0.00045205 -0.00081745 0.001022 0.00063174 0.00044864 -0.00025025 -0.0014445 5.7297e-05 0.00043562 1.3225e-05 0.00024832 0.00083151 0.00074983 0.0015573 0.00026406 6.773e-05 3.3081e-06 0.00038462 -0.0030096 0.00010578 -0.0013044 0.0019279 -0.0021754 -0.0017099 -0.00074221 0.00062478 -0.00081315 0.00026229 -0.0027782 -0.00070338 -0.00041858 0.00068168 0.00049088 0.00055666 -0.00019308 0.00062317 -0.0013459 -3.9369e-05 -0.00087998 -0.001095 0.0013594 -0.00041575 0.0003233 -0.00011301 -0.00050323 -0.0018042 -0.00044479 -0.0010922 4.699e-05 0.002767 0.00032441 -0.00040136 -0.00070972 0.00021136 -0.0012206 -0.00010905 0.0015856 7.4132e-05 6.2089e-05 0.00097682 -0.0011476 4.8756e-05 0.0014118 -0.0006059 -0.00071769 0.0024922 0.0015516 0.0011158 -0.0015529 -0.00021105 
<p1> -0.00067281 0.00022651 0.00024011 -0.0002103 0.00055915 0.00078336 0.00034521 0.00079018 -0.00081847 0.001836 0.0013267 0.00043192 -0.0008206 -0.00041679 0.0010936 -0.00014259 0.00099567 -0.0016574 0.00081782 0.00029733 0.00073998 0.0024165 0.0015113 -0.0022656 -0.00031056 -0.00026727 0.0012427 0.0015804 0.000171 0.00025259 0.0010397 0.00089436 0.0014196 -0.00013556 -0.00017679 -0.00060252 0.00087364 -0.00064453 -7.1658e-05 0.0016775 0.0035576 0.00076228 -0.00085564 -0.00043739 -0.00059469 -0.00030157 0.00078775 0.000838 -0.00041514 0.00037153 -0.0026506 -0.00039999 -7.7225e-06 -0.00066729 -8.8842e-05 0.00036571 -0.00058524 0.0014105 -0.00059721 0.00046219 -0.0016495 0.00068853 0.0013662 -0.0017375 -0.0016833 -0.00013853 0.00067899 -0.00085121 -0.0018933 0.0022423 0.00086142 -0.00121 -0.0017638 0.00033686 0.0011451 0.002216 0.0013689 0.000572 0.00012177 -0.0025091 0.0013209 0.00098725 0.0010551 -0.00032342 0.0010843 0.000638 -0.00020047 -0.00023133 -0.0015166 -0.00035086 -0.0018975 -0.00052763 0.001689 -0.0035 -0.00088409 0.0018149 -0.00026693 -0.00089237 0.00087217 -0.00028509 0.0010328 0.0012186 -0.0010347 0.00040189 0.00036462 0.00043811 -0.00085015 -0.00055892 -0.0023685 0.0016606 0.00089548 -0.00069212 -0.0018541 -0.00050948 -0.0015236 -0.0003249 0.0018533 0.00065837 -0.00097705 -0.0011402 0.0011068 -8.4445e-05 -0.00016876 0.0011463 -0.00074281 -1.5527e-05 -0.00061372 0.0010644 0.00030601 -0.0015649 -0.00082286 0.00047089 0.00025789 -0.0012647 -0.00032248 0.0013804 0.00050648 0.00089916 -0.0007645 0.0015487 -0.0004826 0.00022204 -0.00061157 0.001103 -0.0012063 0.00049372 0.00092471 -0.00053679 0.00026453 0.00053328 0.00036779 -0.00029309 -0.00092935 -0.0001379 -6.6679e-05 0.002037 -0.00076889 0.0013721 0.00023902 -0.00084264 -0.00079666 0.00035094 -0.00023585 -6.4868e-05 2.0317e-05 3.2425e-05 0.00026713 -0.0012245 -7.7869e-05 0.00027752 0.0010217 0.00093562 -0.00076784 0.00036968 -0.00027369 -0.0017762 0.00060266 -0.00053815 -0.00033004 -0.00010698 -6.1428e-05 0.0010183 -0.00054658 0.0014545 -4.0297e-05 -0.001108 -0.0011476 0.0002592 -0.000476 0.00080566 -0.0025565 0.0014291 -0.0015247 0.002112 0.0012299 0.0011382 -0.0010723 0.0020567 -0.0025834 -0.00045057 -0.00012791 -0.0010358 -0.00082972 -0.00031153 -0.0014937 0.00055499 0.0001831 -0.0013924 0.00023827 0.0003371 0.0014083 0.001658 -0.0013426 -0.00030979 -0.0010913 -0.001449 0.0014022 -0.00068393 0.0021791 0.0010643 0.001091 0.00082187 0.00066114 -0.00072113 0.00028259 0.0007319 0.0015317 0.00017891 0.0012361 0.0010238 0.0015295 -0.0011258 0.00067075 0.00076115 0.00077527 -0.0014726 -0.0027267 0.00036571 0.00077534 -0.0016475 0.00087402 0.00087379 -0.00048519 0.0011594 -4.3442e-05 -0.00051454 0.00086245 -0.00046148 -0.001716 0.00099232 -0.0027418 0.0013302 -0.0010826 -0.00062484 -0.0012972 0.00074836 -0.0019323 -0.0015814 -0.0027041 -0.00050527 -3.147e-05 -0.00045671 0.00038453 0.0013048 0.00029423 0.00013768 -0.0018338 0.00058176 -0.0017553 0.0014926 0.0014393 0.00011325 -0.00043701 -0.00081247 -5.915e-05 -0.0017859 -0.001806 -0.0018531 -0.00035148 0.0021874 0.0013244 0.00030302 -0.0016729 5.9198e-06 -0.00042816 -0.00077591 0.0012091 -0.0002934 -0.00030504 0.001451 -0.00011727 -0.00056405 0.0012013 0.0010262 -0.00054983 0.0029103 0.00038737 -1.3072e-05 -0.00049083 -0.001181 
<past> 0.0012393 -0.00040502 -5.2036e-05 0.00012748 0.00094022 0.0013309 -8.4393e-05 0.0009047 0.00047934 0.0019988 0.00029181 0.00025333 -0.00061963 0.00034981 0.00085044 0.00071657 -0.00091124 -0.0018461 0.0004876 -0.00071321 -3.6478e-06 0.0011417 0.0010787 -7.1226e-05 0.0010852 -7.9541e-05 -0.0003984 0.00086597 -0.00099484 0.00015675 0.0012906 0.00049814 0.0015901 0.00050997 -0.00078905 -0.00080272 0.00026601 7.4694e-05 -0.0017951 0.0013907 0.0018707 -0.00053496 0.00029955 -6.9667e-05 -0.0003788 0.00067968 0.001477 3.6957e-05 -0.00080636 0.00064909 -0.0020637 0.00026248 8.9332e-05 -0.0013617 0.00044313 0.00031965 -0.00056475 0.0018928 -0.00034906 0.0012115 -0.0022845 0.0015327 0.00099948 -0.0014697 -0.0011359 0.00024017 0.0011093 -0.00098696 -0.0019077 0.0018972 0.00050003 -0.0013319 -0.0016318 0.00038691 0.0022992 0.0017689 0.0018538 0.00052145 -0.00036362 -0.0029781 0.0014262 0.0023231 0.00022547 0.00051862 0.00014265 0.0003739 -0.00021253 -0.00090362 -0.00060056 0.0014036 -0.0013744 5.5859e-05 0.0016869 -0.0024301 -0.00142 0.0017828 -0.00025073 -0.0010228 -8.6552e-05 -0.0013868 0.0017194 0.00039206 -0.00060148 0.00012242 -0.00038642 -0.00030933 -0.0010843 -0.001302 -0.0014357 0.00012155 0.0009209 -0.00071877 -0.0018279 0.00031287 -0.0021879 -0.00092253 0.0016722 4.0645e-05 -0.00052259 0.00022954 -0.0003475 7.5846e-05 -0.00078819 0.0010299 -0.001177 0.00068176 0.00033856 0.0015305 0.00096722 -0.00080247 -0.00046651 -0.00076783 -0.00033199 -0.00077808 -0.00060212 0.00074537 -0.00087339 0.00063834 -0.0012006 0.0014173 -0.001279 -0.00059562 -0.0015634 0.0022059 0.00030516 0.00015647 0.00086824 -0.001039 0.0009264 0.00025592 -0.00041246 -3.103e-05 -0.0006686 0.0010637 -1.307e-05 0.0020094 -0.0018831 0.00089903 0.00069326 -0.00026007 -0.00098713 0.00076986 -0.00087678 -0.00068123 0.0011145 0.00047186 -0.0004084 -0.0014054 0.00046781 7.3679e-05 9.8249e-05 -0.00029422 -0.00073507 0.0010912 0.00065608 -0.0025531 0.00060877 -0.00086365 0.00049801 0.00032679 0.00065135 0.0016498 0.00061667 0.001524 -0.00060639 -0.00088127 -0.0011667 0.0010754 0.00050102 0.0020157 -0.0020188 0.00054438 -0.0011463 0.0019332 0.0013249 0.0011583 -0.0011046 0.0018443 -0.0024207 0.00054468 0.00029358 0.0010427 0.00044426 -0.00091273 -0.0015448 0.00089647 0.00053421 -0.00091157 0.00091824 0.00075233 0.00095758 0.0013487 -0.0015539 -0.00035302 0.00031936 -0.0013571 0.00077047 -7.4084e-05 0.0028055 0.0015696 0.0015922 -0.0002222 -0.00011916 -0.00075803 0.00078918 -0.00079382 0.0016233 -9.0106e-05 0.00082018 0.0015466 0.0012049 -0.0012141 0.0014235 0.00027851 -1.2038e-05 -0.00050514 -0.0021095 -0.00011695 -0.00029098 -0.0012657 0.00038468 0.00070626 -0.00015483 0.0017484 0.00011888 0.00033742 -6.6032e-05 0.00062657 -0.0021936 5.5009e-05 -0.0023595 0.0015622 -0.0016736 -0.0015281 -0.0014106 0.00081795 -0.0012595 -0.0003108 -0.0027527 -0.00061047 -8.1827e-05 0.00045432 -0.00053759 0.00020496 -0.00021095 0.00049487 -0.0011134 0.00038412 -0.0013417 -0.00029722 0.00082247 -0.0011513 0.0006561 -0.0004237 -0.00015828 -0.0017893 -0.0013804 -0.00058361 -0.00010067 0.0027043 0.0013874 0.00045894 -0.0015162 0.00054037 -0.00058726 -0.0010679 0.002047 0.00015318 0.00071514 0.00092457 -4.9767e-05 0.0010037 0.0018589 -9.9074e-05 -0.00040696 0.0030602 0.00064768 0.00097877 -0.0010542 -0.00054512 
<obj> -0.00028258 -0.00017379 1.2924e-05 -0.000314 -0.00022806 0.00024527 -0.00070657 0.00012011 0.00032834 0.00056663 -0.00030395 -7.4232e-05 -1.577e-05 0.00021784 0.00079532 0.00094254 -0.0008361 0.0004528 0.00056037 -0.0012753 -0.00035662 0.0010149 0.00034899 -0.00054531 -0.00049308 -0.0003174 -0.00049647 -0.00024176 -0.00061444 -0.00087518 -0.00019654 -2.6867e-05 0.00057061 0.00071951 0.00023583 3.155e-05 0.00077862 -0.00023394 -0.00028528 0.00074787 0.00098813 0.00043477 -0.00075123 -0.00097707 0.00013784 -0.00041629 -3.8814e-07 -0.00031282 -0.00080535 0.00046046 -0.0007386 -0.0011993 -0.00047429 -7.9782e-06 0.00012394 1.318e-05 -0.00025488 0.00061604 9.3057e-05 0.00018226 -0.00037188 0.00012343 0.0014087 -0.0006708 6.9387e-05 0.00049649 0.0010749 1.6011e-05 0.00067694 0.0003008 0.00038158 0.00023385 -0.0011976 -0.00010648 -1.0676e-05 0.00093043 0.00065931 0.00042931 -0.00011678 -0.00073367 -0.00023219 0.00069019 0.00026492 0.00051494 -0.00033023 0.0009991 0.00044665 0.00044672 0.00023095 0.00035435 -0.00047351 0.00022975 0.00040228 -0.0010457 -0.00022137 0.00019981 -2.4156e-06 -6.1147e-05 9.6952e-06 0.00016854 -0.0010167 0.00039832 -3.8272e-05 0.00024946 -2.2905e-05 0.00019288 8.4016e-05 -0.00022963 0.00010555 -0.00084016 -0.0003444 7.6772e-06 -0.00025188 -0.00173 -1.6442e-05 -0.00052242 0.00066484 0.00068328 -2.6863e-05 -0.00022206 -0.00093867 0.00037957 -0.00011974 4.7769e-05 0.00013554 0.00094606 7.8165e-05 0.00018368 -0.00026077 -0.001243 0.00095308 1.1991e-06 5.9196e-05 -0.00086514 7.2652e-05 -0.00036824 -2.6947e-05 -0.00034166 0.00025797 0.00073809 -0.00062598 -0.00011368 -0.0011879 0.00011177 0.00034043 0.00029752 -0.00036131 -0.00029819 -8.8906e-05 0.00038843 -0.00014853 0.00067099 -0.00040946 -0.00013425 -0.00091853 0.00033495 0.00025781 -5.2891e-05 7.9792e-05 0.0006104 -4.0876e-05 0.00010043 -0.00088676 0.00057225 0.00078274 0.00047346 0.00015006 -0.00046623 0.00075452 0.00045738 -8.682e-05 -0.00084077 -0.00052403 4.2011e-05 0.0011968 -0.00091807 -0.00010621 -0.00081946 0.00035013 0.00044907 -0.00062387 0.00074137 0.00026022 0.00092591 0.00052359 -0.00018428 -0.00036249 -0.00091893 0.00070118 -0.00044314 -6.384e-06 -0.00026506 0.00032842 0.00040361 -0.00034285 0.00054408 0.00038912 0.0011851 -0.0001106 0.00026841 -0.00054137 0.00013728 -5.8442e-05 -0.00067311 -0.0013286 0.00076186 -0.00089866 -0.00097781 -3.4514e-05 0.0007601 0.00028477 0.00083985 -0.00065513 -0.00010896 -2.0763e-06 -0.00076731 0.00022035 6.3468e-05 0.0007784 0.00058307 -0.00036759 0.00026717 0.00033767 6.6998e-05 -0.00054071 -0.00057045 0.00075468 -0.00014145 0.00029832 0.0010013 0.0007804 -0.00098883 0.00093842 0.00034518 0.00060825 2.3162e-05 0.00010656 -0.0011008 0.00084082 0.00010902 0.00031759 0.00030365 0.00042763 8.1089e-05 -0.00032244 0.00020951 -0.00014837 -0.00022414 0.00016995 0.00027686 -0.00069256 0.00093362 -0.00020334 0.00015249 -4.5878e-05 1.942e-05 -0.0012052 -0.00016036 -0.0013225 1.3974e-05 -0.00049566 0.0003281 0.00032347 0.00014998 -0.00070793 -0.00048654 -1.9709e-06 -0.0005104 -0.00017359 -0.00013274 0.00026203 -1.4821e-05 0.00012994 -0.00023566 -0.00090215 -0.00078844 -9.599e-05 0.00075124 -0.00067609 0.00060464 0.00015924 -0.00048295 -0.00028213 0.0012914 -0.00061499 0.00014352 0.00023794 0.00027826 3.999e-05 0.00031191 3.5643e-05 -0.00065855 0.00039753 0.00083445 2.3892e-05 0.00033948 6.3744e-05 -0.00087233 -0.001382 -0.00081571 
<p2> 0.0011635 -0.00049877 -9.4249e-05 -0.00018649 0.0011216 0.00013481 0.0011233 5.2854e-05 0.00013738 0.0017205 0.00040702 -4.2046e-06 -0.00055646 -0.00091358 0.0012547 -0.00031458 0.0002265 -0.0021517 0.00057998 -0.00010943 0.0011047 0.0011573 0.0017537 -0.00057882 -0.0004932 -0.00028988 -0.00014346 0.00065506 0.00068594 -0.00058932 0.00049462 0.0014673 0.0014628 5.6724e-05 -0.00049876 -0.00070944 0.0013141 0.00036114 -0.00074477 0.0021809 0.0025282 -0.001525 -0.00023955 -0.00031299 -0.0003794 0.00033728 -4.8975e-05 0.00023873 -0.0002398 0.00077707 -0.0014931 -0.00046897 0.00042258 -0.00065713 0.0010072 -0.00043111 -0.00053084 0.00061857 -0.0010495 0.00022921 -0.0022818 0.0014269 0.00022959 -0.001466 -0.0015546 0.0008478 0.00052678 -0.00028129 -0.0015346 0.0018456 0.00039401 -0.001012 -0.0016708 0.00088764 0.0014998 0.00066209 0.0020963 -0.0010473 0.00017333 -0.0016207 0.0018825 0.00065723 0.00011717 0.00012807 0.00014458 0.0022332 0.00016604 -0.00054585 -0.00064283 -0.00050896 -0.00068478 0.0007896 0.0011915 -0.0022073 -0.00028286 0.0016394 -0.00093577 -5.9101e-05 -9.6013e-05 -0.0015135 0.0010213 0.00013214 -0.0004833 0.00078954 2.5565e-05 0.00043622 -0.0010164 -0.00091519 -0.001783 0.0005062 -1.6487e-05 -0.00078577 -0.00023947 -0.00064401 -0.0026648 -0.002344 0.0028129 -7.7438e-06 -0.00062756 -0.00036889 -0.00034062 0.0003036 -0.00087364 0.0012344 -0.00095444 0.00053723 -0.00064282 0.0017966 -0.00059859 -0.0014366 -0.00023701 0.00040753 0.00022955 -0.00051005 -0.00026176 0.0010923 -0.00096538 -0.00073793 -0.0011677 0.0020933 -0.00091387 0.00011895 -0.00088769 0.0010121 -0.00015434 -0.00028051 0.00097742 -0.0010358 0.00041477 0.0008354 0.00074744 -0.00081242 -0.0002788 0.00014392 -0.00051154 0.0016327 -0.0012684 0.0011945 -0.00010208 -0.00016284 -0.001243 0.00061354 -0.00086884 0.0015515 0.00074679 0.00049358 -0.00069376 -0.0029821 -0.00018355 -0.00064791 -0.00075547 -0.00083866 -7.074e-05 0.00033993 0.0011015 -0.0018626 0.0011993 -0.0011434 -0.0002333 0.00088818 0.0012735 0.00088662 0.00089498 0.0012425 -0.00069596 0.00025035 -0.00043251 0.0011375 -0.0004881 0.0011113 -0.0025305 0.0013577 -0.001458 0.001276 0.0013905 0.00085973 -0.00056044 0.0017694 -0.0027234 -0.00096142 0.00096702 0.00067389 0.0005227 -0.0017191 -0.00095405 0.00032983 0.00026254 -0.00015334 0.0019955 -0.0003652 0.0014599 0.00046996 -0.00048363 -0.00045979 -0.00023875 -0.00093527 -0.00024083 -0.00084057 0.0034915 0.0023344 0.0010087 -0.00018419 0.0017963 -0.0013544 0.00042388 -0.00032436 0.0018873 -0.00073282 0.0022907 0.0015564 0.00092543 -0.0011189 0.0021901 0.00070957 0.00063033 -0.00026201 -0.0018777 -0.00055122 0.00045802 -0.0011093 -7.7045e-05 0.00012152 0.00071199 0.0014936 -2.8565e-06 -5.2266e-05 -0.00035328 -4.581e-05 -0.0012313 0.00055961 -0.0019016 0.0020334 -0.00045265 -0.0020851 -0.0010208 -0.00030502 -0.0027556 -0.00047745 -0.0035883 -0.0010872 -6.915e-06 -0.00035174 0.0004449 0.0012396 -0.001061 0.00018231 -0.0009037 -0.0012334 -0.0023051 -0.00056101 0.001614 -0.00051037 0.00036064 -0.0004906 0.00060026 -0.0025685 -0.00039301 -0.00088378 0.00028985 0.0019848 0.0006 -0.00087093 -0.0010222 0.00024315 0.00020197 -0.0013032 0.00086423 0.00024449 -0.00020204 0.00091775 -0.00081626 0.0001995 0.0016575 9.6267e-05 -0.00042004 0.0026968 0.0012603 0.0011573 -0.00099176 -0.00040682 
<fti> 0.00073078 -5.0514e-05 -0.00041077 -0.00028449 -0.00010845 0.00067624 0.00015066 6.1108e-05 -0.00053595 0.00084869 0.00049078 0.00093815 -0.00074783 -0.00092344 0.00020103 0.00049568 -0.0010245 -0.00044049 0.0015084 -0.00092794 -0.00014199 -0.00031317 0.0012548 -0.00023714 0.00092045 -2.374e-05 -0.00030569 0.00049953 6.6658e-05 0.00015424 0.0002408 0.00049115 0.00084868 -0.00033261 -0.0004377 -8.5016e-05 0.00012459 -0.00015602 -0.00038545 0.00048225 0.00083929 -0.00041419 -0.00082275 -0.0002806 0.00011204 -0.00025413 -0.00067623 0.00093165 -0.00096448 0.00029923 -0.0011906 0.00011233 -0.00031407 -0.00012893 0.00015168 2.9546e-05 -0.0010221 0.0010478 0.00067219 0.0006908 -0.0016626 -0.00018511 0.00090823 -0.0015372 -0.0012817 1.879e-05 0.00094478 -0.00013386 -0.00089278 0.00056633 3.6513e-05 -0.00066968 -0.00084734 0.00010627 0.00029414 0.00153 0.0018657 1.0411e-05 -0.00030306 -0.0015072 0.00065406 0.00063053 0.00058086 -6.5744e-05 0.00043806 0.00058041 0.00058103 -0.00059803 -2.6502e-05 0.00032953 -0.00095735 -0.00022889 -0.00014427 -0.0017457 -0.00039733 0.0001921 -0.00047041 -0.00066803 -0.00067892 -0.00098003 -0.00044563 -0.00063876 0.00063917 -2.2988e-05 0.00032028 -1.8282e-05 -0.0012553 -0.00018127 -0.00054843 0.00040504 0.00043095 -5.9537e-05 -0.00092449 -0.00021574 -0.00084825 -0.00019279 0.00015634 3.3912e-05 -0.0009172 0.00037542 0.00016822 -0.00019985 -0.00079347 0.00072981 0.0010163 0.00081302 -1.1941e-05 0.0001031 -0.00025293 -0.00058782 -0.00045277 -0.00018604 0.00023665 0.00087396 0.00018307 0.00043367 -0.0010545 -0.0012338 -0.0012947 0.00068843 -0.00059844 -0.00023995 -0.0011666 0.0011508 -0.00069432 -0.00090049 -0.00026308 0.00029262 0.0004105 0.00035515 0.0015276 0.00010156 -0.00069166 -0.00016336 -7.1837e-05 0.00084493 -0.00031897 0.00063106 -9.8589e-07 -0.00046142 -0.00044156 0.00022894 -0.0014278 0.00073156 0.00020243 -0.0004758 0.00065767 -0.0016093 0.00077576 -0.00040072 8.5101e-05 0.00095353 -0.00164 0.00070532 0.00013448 -0.0015339 0.00052011 -0.0015925 2.6896e-05 -7.913e-05 0.00081648 0.00054985 0.00055271 0.00054494 5.7276e-05 -0.00050842 0.00035816 0.00015636 -0.00027151 0.0011053 -0.00032319 0.0005688 -0.00043309 0.00010783 0.0010847 0.00074345 -0.0012947 9.1833e-05 -0.0012416 -0.00016675 -0.00014534 3.1554e-05 -0.00018453 -0.00076525 -0.00081127 0.00021555 0.00061166 0.00042487 0.00045988 -0.00020265 4.4849e-05 -0.00052934 -0.000475 0.00023125 -0.00029246 -0.00061355 -0.00023578 9.625e-05 0.0012916 0.00061422 0.00027097 1.4005e-05 -0.00034044 5.8234e-05 -0.00044079 -6.528e-05 0.00022027 0.00031991 0.00069093 0.00041975 0.00017073 -0.00045648 -0.00022616 0.00066617 0.00081275 -0.00055332 -0.0012282 -1.1977e-05 0.00036732 -0.00050067 -0.00012828 -0.00035553 -0.00041308 0.00044146 0.00045257 -0.00024427 -3.3575e-05 0.00035975 -0.0009495 0.00021671 0.00013054 0.0015009 -0.00082033 -0.001029 0.00064683 0.00062235 -0.00096326 -0.00059423 -0.0022268 -0.00088833 0.0001836 0.00070694 0.00016354 -0.00016704 0.00020215 0.00022375 1.4639e-05 -0.00059956 -0.00083264 0.0001076 0.00073851 -0.00039093 -0.00040801 7.1197e-05 -0.00077868 -0.00061191 -0.00071618 -0.00027357 -2.9038e-05 0.0013594 -0.000645 0.00049634 -0.00050663 8.4908e-05 -0.00096667 3.3344e-06 0.0017133 0.0002149 0.00043401 0.00019522 0.0010142 0.00082457 0.0012145 0.0011236 -0.0014058 0.0016266 0.001008 6.9391e-05 -0.00042291 0.0004128 
<neg> 0.00026133 -0.00066693 0.00037899 -0.00058146 0.00044248 0.00070095 -0.00017943 0.00087514 -0.00036444 0.0013522 0.00030603 0.00038315 -0.00044619 0.00071619 0.0005685 0.00044168 -0.00055163 -0.00048897 0.00050838 0.00017194 7.5646e-05 0.0012443 0.00068085 -0.00029563 -0.00012619 -9.0477e-05 -0.00065335 0.00039769 -0.00055179 0.00055048 0.0012264 0.00010756 0.00054395 0.00018226 -2.2722e-05 -0.00077607 -0.00052799 -0.00016543 -0.00015434 0.0016429 0.0017433 0.00038053 0.00062472 5.7686e-05 -6.8932e-05 -0.0011821 0.00017308 -0.00033125 -8.9286e-05 0.00063326 -0.0011761 -0.00011207 -0.00072672 -0.00067703 0.00053108 -0.00050643 0.00057053 0.00078083 0.0001547 -0.00025758 -0.00085861 0.00048225 0.00066785 0.00026156 0.0004281 2.8821e-05 0.00093512 0.00022404 -0.00052095 0.0004854 0.00055136 -4.5451e-05 -0.00083326 0.0016739 0.001287 0.00050055 0.00054854 0.00059835 -0.00050146 -0.00096526 -9.1588e-05 0.00096278 -0.0005622 -1.2566e-05 -0.00037163 -0.00071306 -0.00036759 0.00010563 -5.1795e-05 0.00092256 7.3279e-05 0.00012836 0.00057593 -0.00079152 -0.0007514 -4.9615e-05 0.00046657 -0.0011361 0.00034356 -0.0012688 -0.00028768 0.00050252 0.0001415 -0.00010463 -0.00032713 0.00045898 -0.00020503 -0.00035568 -0.00041587 0.0002411 -0.00079445 -0.00018966 -0.00080342 -0.00065542 6.358e-05 -0.00024343 0.0010785 -0.00063697 -0.00011993 -0.00026961 2.1417e-05 -5.8904e-06 -0.00051633 0.00064796 -0.00095438 0.00018958 -0.00014565 -0.00044063 0.00018153 -0.00045267 0.0012686 0.00072495 -0.000283 -0.00037455 0.00032021 -0.00044931 0.00057215 0.00067143 -0.00042329 0.0007355 -0.00052404 0.00036396 -0.00031806 0.00038875 -0.00060788 0.00065673 0.00033458 -5.3849e-05 -4.8385e-05 0.00050802 -0.00061194 -0.0006585 5.9631e-05 1.0377e-05 -0.00051001 0.00017594 -0.00013812 -8.2169e-05 0.00036824 0.00020948 -0.00093284 0.00027181 -0.00082638 -0.00015653 0.00025066 -6.6299e-05 6.3234e-05 -0.001038 0.00012513 -0.00022861 0.00058088 0.00025649 -0.00066411 -0.00050504 0.00073715 -0.001765 0.00011507 -0.0012944 0.00024357 -0.00016521 -4.9911e-05 0.00084437 -0.00061612 0.0011131 -0.00036722 6.9922e-05 -0.00016945 -4.2956e-05 -0.0002646 0.00028731 -0.0012039 0.0010088 -0.00051579 0.00087216 0.00062606 9.8633e-05 0.00018997 0.00013787 -0.0009485 1.4345e-05 -7.8061e-05 -0.0003362 0.00073075 0.00041085 -0.00061814 3.2784e-05 -0.00066205 -0.00045027 0.00023063 0.00040763 0.0009021 8.7657e-05 0.00014761 -0.00036118 -0.00043336 -0.0013413 0.00076688 0.0003127 0.00075282 0.00024346 0.00014628 0.00097069 0.00020154 0.00070889 -0.00038341 -0.00012598 0.00073005 -0.00047247 0.00057135 -0.00050923 0.0013881 -0.00042248 0.00025567 -0.00024042 0.0013832 -0.00083337 -0.00071593 0.00031388 3.2971e-05 0.00040698 -0.00048498 -0.00036827 -0.00012566 0.00031353 0.00040725 0.00089487 0.00047062 0.00028086 -1.0107e-05 0.0004846 -0.00098802 0.00050014 -0.00096287 -0.00033999 -0.00074102 9.4002e-05 -0.00067606 0.00015122 -0.00051146 0.00010099 -0.00021263 0.0010079 2.3082e-05 0.00086591 0.00083647 0.00039443 0.00018974 -0.00019951 -0.0018703 0.00029012 0.00073862 -0.00054126 0.00016126 -0.00033822 -0.00019826 -3.2993e-05 -0.00064166 -0.00071683 6.5538e-05 0.00086888 0.00047242 -0.00071348 -0.00049341 -0.00025406 -0.00042355 -0.00063798 0.0011746 0.00013137 -0.00024976 -9.6749e-05 -3.8349e-05 0.00033935 0.00016602 0.00015275 0.00037927 0.00095027 0.00050744 0.00011413 -0.00087431 -0.00069597 
