120 300
<n> -0.12334 0.03798 -0.020282 0.027622 0.037744 0.053989 -0.045025 0.042713 0.062981 -0.013279 0.12138 -0.04655 0.15417 -0.02304 -0.10911 0.19942 0.15104 0.046638 -0.00070654 -0.011177 0.13557 0.014712 0.067969 -0.15522 -0.044853 -0.014236 0.057245 -0.027856 -0.083311 0.13581 0.040891 0.1271 0.023234 -0.13796 -0.075932 0.016747 0.033284 -0.32546 0.05938 -0.035492 0.17229 0.080749 -0.054253 0.010234 -0.014293 -0.02239 -0.01461 0.071695 -0.00605 0.0073674 0.08386 0.070001 0.10107 -0.04576 0.10875 -0.082722 -0.153 0.15814 0.030045 0.18129 0.058397 0.16851 -0.029971 0.047726 -0.10379 -0.11407 -0.012138 0.00092787 -0.11959 -0.07404 0.013965 -0.041456 -0.022489 0.056469 -0.21968 -0.13526 -0.086132 0.030577 -0.04616 0.097659 -0.11737 -0.069597 0.010668 -0.039697 -0.069938 -0.068706 -0.031114 0.0021553 -0.027793 0.027453 -0.0059544 -0.060809 0.071126 -0.03123 0.18879 -0.068887 0.089296 0.098072 -0.14274 -0.14896 0.10445 0.10936 -0.010654 0.04479 -0.033826 -0.13269 0.073419 0.13448 -0.20571 0.041577 -0.069506 -0.023406 0.09043 0.10116 0.12186 -0.066696 0.058869 -0.017339 -0.032343 -0.057114 -0.050937 0.031986 0.017263 -0.08032 0.016946 -0.18636 0.20434 0.11444 0.11799 0.10261 -0.031578 -0.03236 0.1541 -0.047715 -0.093459 0.1103 -0.21561 -0.063715 -0.10907 -0.11293 -0.16512 -0.10993 -0.10964 0.12522 0.030089 -0.089035 0.019275 -0.17452 0.087909 0.022584 -0.02454 -0.18061 0.080751 0.036591 0.025095 -0.11213 -0.11656 0.36446 -0.015704 0.11742 -0.0799 -0.1598 0.077925 -0.026316 -0.036992 0.12301 -0.062968 0.0036962 0.14337 -0.0030926 -0.071756 0.019054 -0.11841 0.060458 -0.055205 0.092691 0.12889 -0.18743 -0.018709 -0.093363 0.11034 0.1201 0.031245 -0.058067 0.096342 0.086818 -0.054508 -0.036114 -0.052636 0.092093 -0.039731 -0.034316 0.080787 -0.19925 -0.013613 -0.13189 0.11788 0.14335 -0.29543 -0.12026 0.12919 0.012249 -0.14698 0.069169 0.14294 -0.093139 -0.071192 -0.019161 -0.032783 0.075311 0.0099202 0.084106 0.087058 0.053076 -0.031898 -0.013303 0.15471 -0.014045 -0.018966 0.00042058 0.085306 -0.046529 0.025132 -0.094789 -0.033719 0.11206 -0.063491 -0.065817 -0.062868 0.14186 0.058091 0.10363 0.04788 -0.16755 0.18205 -0.12823 0.005193 0.11822 -0.16134 -0.034984 -0.064769 0.014409 -0.13882 -0.027967 -0.099204 -0.084374 -0.11026 -0.041208 -0.037121 0.11533 -0.034352 -0.14705 -0.050955 -0.11179 -0.095181 -0.024567 0.027854 0.027122 0.014266 -0.0038062 -0.067418 -0.0066189 0.024896 -0.15145 0.060759 0.011327 -0.00048022 0.11366 -0.016412 -0.017348 0.020091 -0.016033 -0.015763 -0.017156 0.11942 0.00095911 0.060745 -0.067265 0.026057 -0.15193 0.046244 0.04966 -0.12568 -0.042041 -0.082983 0.022533 -0.12561 0.14513 0.024683 0.0088254 -0.046672 0.030609 -0.012133 0.0043858 0.035391 0.030931 0.0055109 0.058734 -0.046 0.038057 
<nom> -0.1156 0.035279 -0.019554 0.025144 0.034955 0.050901 -0.041934 0.039268 0.058608 -0.011981 0.11264 -0.042754 0.14433 -0.020922 -0.10118 0.18475 0.14081 0.043846 -0.00044733 -0.010403 0.1264 0.014543 0.063905 -0.14392 -0.041901 -0.012153 0.052391 -0.024134 -0.077732 0.12597 0.037939 0.1191 0.021255 -0.1277 -0.071812 0.016066 0.031035 -0.30256 0.055348 -0.033957 0.16074 0.073704 -0.050363 0.0086905 -0.014395 -0.021304 -0.012792 0.067326 -0.0060533 0.0063812 0.079444 0.064758 0.093329 -0.043144 0.1019 -0.076307 -0.14237 0.14803 0.028682 0.1693 0.053094 0.15592 -0.028389 0.043826 -0.096186 -0.10512 -0.011038 0.00017355 -0.1122 -0.069365 0.0142 -0.038013 -0.021882 0.052415 -0.20425 -0.12524 -0.079776 0.027647 -0.042943 0.089051 -0.10909 -0.06577 0.0094681 -0.03752 -0.063248 -0.063534 -0.029361 0.0032943 -0.024226 0.026645 -0.007019 -0.057085 0.064808 -0.028912 0.17551 -0.063983 0.082576 0.091375 -0.13334 -0.13976 0.097151 0.10147 -0.01042 0.040709 -0.032954 -0.12506 0.067945 0.125 -0.19253 0.038774 -0.065566 -0.022234 0.084092 0.093802 0.11386 -0.062441 0.054488 -0.01596 -0.030864 -0.053358 -0.045998 0.027892 0.01532 -0.074326 0.014975 -0.17323 0.19083 0.10744 0.10813 0.095941 -0.029328 -0.030774 0.14393 -0.044817 -0.086391 0.1023 -0.20098 -0.05881 -0.10119 -0.10402 -0.15357 -0.10167 -0.10172 0.11695 0.028545 -0.083458 0.018527 -0.16219 0.08171 0.022192 -0.022394 -0.16902 0.074666 0.034033 0.02388 -0.10416 -0.10727 0.33867 -0.015463 0.10758 -0.075093 -0.14928 0.07245 -0.025567 -0.03414 0.11502 -0.057123 0.0032304 0.13384 -0.0020462 -0.066661 0.017108 -0.11092 0.056764 -0.050752 0.08649 0.12032 -0.1736 -0.018909 -0.087783 0.10261 0.11152 0.028766 -0.054389 0.090163 0.081353 -0.05067 -0.034133 -0.05049 0.085781 -0.037984 -0.03356 0.075776 -0.18644 -0.012415 -0.12336 0.10959 0.13363 -0.27475 -0.11345 0.11962 0.012594 -0.13644 0.064333 0.13326 -0.086096 -0.066686 -0.016465 -0.032382 0.070306 0.0097583 0.079344 0.081816 0.049786 -0.029523 -0.012344 0.14332 -0.012885 -0.017329 -0.00024596 0.079626 -0.041427 0.023502 -0.088697 -0.029698 0.10524 -0.058824 -0.060072 -0.05742 0.13155 0.053717 0.095271 0.045585 -0.15629 0.16909 -0.12079 0.0040413 0.11016 -0.15095 -0.032706 -0.059148 0.013294 -0.12816 -0.02569 -0.091625 -0.078536 -0.10394 -0.039802 -0.035187 0.10706 -0.031694 -0.13787 -0.047228 -0.10357 -0.088226 -0.023811 0.025896 0.024745 0.013944 -0.0046665 -0.062882 -0.0067 0.022723 -0.14078 0.057779 0.011603 -0.0020025 0.10644 -0.015985 -0.015917 0.017165 -0.016216 -0.015029 -0.015309 0.11174 -0.00053091 0.055723 -0.063883 0.024543 -0.14097 0.043221 0.047142 -0.11713 -0.038207 -0.077072 0.020762 -0.11739 0.13435 0.021102 0.0091184 -0.043868 0.027976 -0.011688 0.0038537 0.033257 0.029038 0.0049418 0.053766 -0.043794 0.034013 
<v> -0.12593 0.038387 -0.021836 0.026512 0.037939 0.055825 -0.044414 0.041736 0.064239 -0.012942 0.12361 -0.048377 0.15583 -0.024111 -0.10969 0.2034 0.15637 0.047505 -0.00042525 -0.011121 0.13772 0.015968 0.069789 -0.15737 -0.047162 -0.014836 0.057274 -0.028021 -0.084684 0.13793 0.040122 0.12818 0.023795 -0.13943 -0.077066 0.017218 0.032852 -0.33079 0.060108 -0.035856 0.17422 0.083194 -0.055001 0.0097964 -0.015998 -0.023095 -0.013669 0.073468 -0.0049525 0.0056976 0.086289 0.070546 0.10153 -0.046249 0.11156 -0.083505 -0.15685 0.16073 0.031182 0.18559 0.05859 0.1729 -0.031348 0.048664 -0.10634 -0.11454 -0.011281 0.0012867 -0.1228 -0.074678 0.014458 -0.041487 -0.023901 0.057398 -0.22149 -0.13609 -0.085548 0.030522 -0.047193 0.10014 -0.11844 -0.070355 0.0090123 -0.040548 -0.068486 -0.071595 -0.032756 0.0038902 -0.027679 0.028742 -0.0086776 -0.061507 0.071341 -0.031817 0.19192 -0.068718 0.090019 0.10067 -0.14491 -0.15379 0.10567 0.10988 -0.01171 0.044052 -0.035126 -0.135 0.074433 0.13743 -0.21131 0.040122 -0.069548 -0.025252 0.092931 0.10329 0.12422 -0.069592 0.059447 -0.017004 -0.033551 -0.058066 -0.049585 0.030467 0.015778 -0.080282 0.0154 -0.1904 0.20968 0.11741 0.12034 0.10548 -0.032181 -0.033223 0.1599 -0.047821 -0.095657 0.11259 -0.21847 -0.064995 -0.10878 -0.11383 -0.16878 -0.1119 -0.11281 0.12791 0.030272 -0.091613 0.020547 -0.17686 0.089908 0.02347 -0.024647 -0.1835 0.082543 0.038613 0.026676 -0.11441 -0.11715 0.37083 -0.017076 0.11805 -0.080836 -0.16239 0.078364 -0.028084 -0.03815 0.12572 -0.061184 0.003559 0.14518 -0.0023059 -0.073038 0.018785 -0.12001 0.063492 -0.054627 0.09388 0.13174 -0.1882 -0.019676 -0.096548 0.11223 0.12138 0.032542 -0.059316 0.097566 0.088517 -0.054244 -0.038079 -0.055531 0.092483 -0.040639 -0.035309 0.081766 -0.20299 -0.013267 -0.13464 0.11854 0.14586 -0.29876 -0.12364 0.13183 0.012337 -0.1495 0.069313 0.14505 -0.095158 -0.07053 -0.018331 -0.034968 0.075952 0.010078 0.085416 0.088282 0.053683 -0.032662 -0.013034 0.15764 -0.013731 -0.018613 0.0015689 0.086746 -0.045868 0.025931 -0.097349 -0.034021 0.11406 -0.064644 -0.066682 -0.063414 0.1447 0.05859 0.10452 0.049113 -0.17134 0.18571 -0.13146 0.0061193 0.12037 -0.16349 -0.034554 -0.06761 0.013548 -0.13936 -0.027663 -0.10034 -0.086649 -0.11326 -0.041414 -0.039074 0.11667 -0.034869 -0.14918 -0.051838 -0.11248 -0.096684 -0.026134 0.027376 0.027378 0.014181 -0.0050193 -0.069868 -0.0059723 0.025549 -0.15275 0.062372 0.010827 -0.0010486 0.11701 -0.017105 -0.016931 0.018515 -0.017812 -0.016319 -0.016623 0.12348 0.00072446 0.059695 -0.070015 0.027841 -0.15343 0.045947 0.050832 -0.12793 -0.042758 -0.084642 0.024051 -0.12733 0.1477 0.023924 0.008414 -0.046366 0.030226 -0.011096 0.0041606 0.035391 0.031764 0.0047858 0.060372 -0.046899 0.036363 
<sg> -0.12666 0.03843 -0.02002 0.026613 0.037286 0.057602 -0.046844 0.042016 0.064575 -0.012834 0.12426 -0.048263 0.15955 -0.024509 -0.11086 0.20269 0.1565 0.048106 -0.001111 -0.011647 0.13938 0.016432 0.070611 -0.16031 -0.04842 -0.015093 0.05936 -0.028497 -0.087335 0.13969 0.041539 0.13104 0.025186 -0.14019 -0.077497 0.018303 0.032141 -0.33278 0.061317 -0.038302 0.17615 0.082857 -0.056334 0.010724 -0.014146 -0.022134 -0.015244 0.073815 -0.0053796 0.0066751 0.087894 0.07185 0.10416 -0.046458 0.11276 -0.083388 -0.15694 0.16258 0.030911 0.18566 0.057712 0.1728 -0.032242 0.048842 -0.10595 -0.11681 -0.01249 -0.0002149 -0.12416 -0.076557 0.014372 -0.042425 -0.022885 0.058532 -0.22379 -0.13849 -0.088379 0.030304 -0.046936 0.09952 -0.12008 -0.071674 0.010511 -0.039831 -0.070183 -0.071379 -0.032225 0.0025364 -0.026929 0.028593 -0.0079493 -0.062925 0.070455 -0.032462 0.19332 -0.069878 0.091074 0.10076 -0.14673 -0.15361 0.10839 0.11147 -0.01219 0.046733 -0.035341 -0.13863 0.076115 0.13765 -0.21191 0.042228 -0.06979 -0.023064 0.092664 0.10477 0.12656 -0.068708 0.060498 -0.018785 -0.033844 -0.058164 -0.051759 0.031739 0.017463 -0.081685 0.016742 -0.1914 0.21105 0.11829 0.11989 0.10682 -0.03259 -0.033858 0.15949 -0.049921 -0.096893 0.11301 -0.22127 -0.064501 -0.11251 -0.11529 -0.16973 -0.11345 -0.11208 0.12851 0.032342 -0.089942 0.019883 -0.17862 0.090632 0.024362 -0.026199 -0.18692 0.084057 0.038925 0.026225 -0.11546 -0.11924 0.37409 -0.016509 0.11946 -0.082298 -0.16507 0.080753 -0.026148 -0.039705 0.12646 -0.06183 0.0030569 0.14704 -0.0014368 -0.072389 0.017905 -0.12131 0.062067 -0.056658 0.09539 0.13237 -0.19109 -0.019775 -0.096236 0.11306 0.12247 0.03166 -0.059938 0.099707 0.089198 -0.053847 -0.037616 -0.056227 0.093972 -0.041854 -0.035811 0.083616 -0.20459 -0.014115 -0.13595 0.12015 0.14757 -0.30308 -0.12413 0.1318 0.014134 -0.14987 0.071612 0.14516 -0.095246 -0.071832 -0.019806 -0.034286 0.076123 0.010499 0.087157 0.089004 0.053993 -0.032486 -0.013412 0.15911 -0.015218 -0.019976 0.00018197 0.087575 -0.046184 0.027056 -0.098565 -0.032543 0.11494 -0.065243 -0.066504 -0.064172 0.14656 0.059081 0.10575 0.050345 -0.17274 0.18723 -0.13215 0.0061099 0.12126 -0.16512 -0.036721 -0.06627 0.016589 -0.14226 -0.027993 -0.10226 -0.087522 -0.11416 -0.042458 -0.039259 0.11729 -0.035466 -0.15056 -0.052248 -0.11381 -0.097528 -0.026276 0.028882 0.028656 0.015162 -0.0039041 -0.068754 -0.0066395 0.025971 -0.15489 0.065058 0.013191 -0.00071012 0.11809 -0.018057 -0.01761 0.018793 -0.018683 -0.015617 -0.016444 0.1229 -0.00025888 0.060186 -0.069924 0.027751 -0.15615 0.046692 0.051197 -0.13015 -0.042968 -0.086163 0.023088 -0.12761 0.14762 0.023656 0.0086525 -0.046926 0.030706 -0.010824 0.0045796 0.035395 0.032111 0.004895 0.059851 -0.047795 0.037573 
<p3> -0.12576 0.038733 -0.021512 0.027673 0.038767 0.055931 -0.047112 0.042231 0.064043 -0.013287 0.12525 -0.049818 0.15881 -0.023399 -0.11046 0.20414 0.15655 0.046485 -0.00072513 -0.011991 0.13868 0.016201 0.069694 -0.15955 -0.046343 -0.014979 0.057623 -0.027954 -0.085396 0.13872 0.040464 0.13095 0.02369 -0.1406 -0.077509 0.017277 0.033518 -0.33226 0.060296 -0.037258 0.17662 0.081727 -0.054227 0.0102 -0.016184 -0.022942 -0.015056 0.073774 -0.005181 0.0063313 0.08704 0.070955 0.10335 -0.047288 0.11341 -0.083607 -0.1574 0.16054 0.031166 0.18629 0.059546 0.17262 -0.031514 0.048106 -0.10521 -0.11624 -0.012559 0.0012093 -0.12314 -0.076477 0.013429 -0.041875 -0.023296 0.057875 -0.22491 -0.13721 -0.087223 0.03017 -0.045752 0.098095 -0.12015 -0.071058 0.010438 -0.04041 -0.068449 -0.070788 -0.032037 0.0026671 -0.026994 0.029589 -0.0079383 -0.062806 0.070314 -0.031782 0.19338 -0.069533 0.091841 0.099922 -0.14571 -0.15459 0.10701 0.11229 -0.010254 0.044874 -0.035534 -0.13772 0.074395 0.1382 -0.21096 0.04302 -0.070741 -0.024388 0.093686 0.10403 0.12593 -0.068494 0.05899 -0.016308 -0.034339 -0.059682 -0.051709 0.030859 0.016953 -0.082007 0.015318 -0.19022 0.20975 0.11912 0.12024 0.10569 -0.032638 -0.034213 0.15792 -0.048223 -0.095164 0.11286 -0.22078 -0.064823 -0.11187 -0.11561 -0.16863 -0.11184 -0.11186 0.12817 0.031274 -0.092418 0.018509 -0.17874 0.090396 0.023602 -0.02514 -0.18479 0.081844 0.03972 0.027191 -0.11438 -0.11896 0.37164 -0.016177 0.1191 -0.083864 -0.16387 0.080316 -0.027259 -0.038165 0.12677 -0.062716 0.0038396 0.14626 -0.0026913 -0.072788 0.018481 -0.12122 0.062493 -0.054889 0.095117 0.13263 -0.19039 -0.020459 -0.095738 0.11252 0.12502 0.031992 -0.060282 0.099391 0.090914 -0.055183 -0.038685 -0.055728 0.093647 -0.041229 -0.03507 0.084242 -0.2038 -0.012761 -0.13645 0.12109 0.14729 -0.30052 -0.12362 0.13191 0.012257 -0.15043 0.070591 0.1454 -0.094913 -0.072463 -0.019276 -0.03446 0.078136 0.009371 0.086846 0.087931 0.053364 -0.032515 -0.014486 0.15853 -0.014447 -0.019633 0.00067525 0.087514 -0.045005 0.026068 -0.096718 -0.032878 0.11563 -0.064783 -0.065984 -0.062985 0.14646 0.059012 0.10525 0.047941 -0.17202 0.18778 -0.13145 0.0049055 0.12062 -0.16532 -0.035808 -0.065982 0.01553 -0.1418 -0.028896 -0.10108 -0.086361 -0.11457 -0.041861 -0.03841 0.11622 -0.034788 -0.1499 -0.051311 -0.11295 -0.098345 -0.026322 0.028061 0.027746 0.015524 -0.0052626 -0.068922 -0.0065873 0.025168 -0.15464 0.063811 0.012517 -0.00080959 0.11748 -0.018259 -0.017872 0.018303 -0.01871 -0.015695 -0.016862 0.12341 0.0013533 0.061667 -0.069452 0.026601 -0.15434 0.048224 0.050322 -0.12898 -0.042332 -0.086723 0.022682 -0.12867 0.14702 0.024116 0.0097225 -0.0467 0.03015 -0.012101 0.0045985 0.035124 0.031594 0.005088 0.058827 -0.047943 0.036891 
<sent> -0.12115 0.036763 -0.020301 0.02561 0.037165 0.052955 -0.04408 0.040573 0.060768 -0.012752 0.11934 -0.046006 0.15095 -0.022806 -0.10509 0.19377 0.14823 0.044301 -0.0009407 -0.011654 0.13228 0.014695 0.067027 -0.15131 -0.044221 -0.013497 0.055091 -0.026097 -0.081409 0.13114 0.039527 0.12419 0.022804 -0.1345 -0.074759 0.016794 0.031199 -0.31672 0.058658 -0.03561 0.16638 0.077785 -0.053147 0.010324 -0.015256 -0.022615 -0.013706 0.070821 -0.0057612 0.0065296 0.083484 0.067578 0.097586 -0.04466 0.10768 -0.07984 -0.14938 0.1547 0.030116 0.17638 0.056298 0.16393 -0.030903 0.046296 -0.10093 -0.10992 -0.011073 0.00050325 -0.11747 -0.073017 0.013759 -0.040487 -0.022484 0.055269 -0.21325 -0.1308 -0.08379 0.028384 -0.04408 0.094497 -0.11395 -0.068108 0.0090384 -0.040006 -0.067273 -0.067954 -0.031149 0.0019552 -0.025853 0.027351 -0.0078064 -0.059568 0.068157 -0.031261 0.18392 -0.065926 0.086773 0.095238 -0.1393 -0.14533 0.10203 0.10671 -0.010972 0.043095 -0.034255 -0.13076 0.072156 0.13058 -0.20119 0.040413 -0.066826 -0.023097 0.088986 0.099448 0.12 -0.065601 0.057211 -0.016617 -0.032285 -0.055615 -0.048033 0.029921 0.015813 -0.078367 0.015842 -0.18198 0.20034 0.11277 0.11342 0.10093 -0.030606 -0.031894 0.15099 -0.0467 -0.091175 0.10651 -0.21011 -0.061659 -0.10553 -0.1091 -0.16135 -0.10664 -0.1068 0.12269 0.029859 -0.087135 0.01912 -0.17017 0.085718 0.022787 -0.024227 -0.17609 0.078979 0.036823 0.025245 -0.10924 -0.1132 0.35434 -0.015245 0.11299 -0.07858 -0.15578 0.075628 -0.02644 -0.036902 0.12073 -0.058933 0.0029549 0.13965 -0.0024053 -0.0696 0.017037 -0.11591 0.060779 -0.052569 0.090238 0.12561 -0.18086 -0.018802 -0.091343 0.10767 0.11643 0.030718 -0.056986 0.09437 0.084844 -0.052075 -0.036715 -0.052777 0.08906 -0.038767 -0.034242 0.07985 -0.19383 -0.013224 -0.12931 0.11431 0.14023 -0.28704 -0.1182 0.12595 0.012024 -0.14271 0.066805 0.13747 -0.089952 -0.069227 -0.0179 -0.033059 0.073232 0.010169 0.082072 0.084768 0.051296 -0.031642 -0.013393 0.15138 -0.013767 -0.018351 -0.00039282 0.083578 -0.043164 0.02519 -0.093142 -0.031898 0.10939 -0.061633 -0.062579 -0.060162 0.13862 0.056154 0.10042 0.046884 -0.16308 0.1783 -0.1252 0.0056332 0.11486 -0.15787 -0.035196 -0.062322 0.014751 -0.13401 -0.027055 -0.096113 -0.083068 -0.10901 -0.040396 -0.036917 0.11096 -0.034367 -0.14327 -0.049668 -0.10801 -0.092313 -0.02453 0.027509 0.027004 0.013652 -0.0050479 -0.066231 -0.0071453 0.024022 -0.14689 0.060211 0.011962 0.00066232 0.11199 -0.016595 -0.01654 0.017778 -0.017324 -0.015047 -0.015706 0.11707 -0.00027108 0.057779 -0.065908 0.026386 -0.14679 0.044163 0.048524 -0.12194 -0.040991 -0.082242 0.021411 -0.12226 0.14053 0.022373 0.0078669 -0.045014 0.028235 -0.011084 0.0036342 0.034262 0.03007 0.004685 0.056442 -0.044344 0.035562 
<tv> -0.11706 0.035304 -0.021072 0.024416 0.035767 0.051336 -0.043179 0.038239 0.060108 -0.012091 0.11468 -0.046381 0.1466 -0.021592 -0.10164 0.18822 0.14458 0.043939 -0.0011255 -0.010127 0.12864 0.014083 0.064025 -0.14716 -0.04261 -0.013967 0.053438 -0.024932 -0.079594 0.12837 0.038816 0.11971 0.02383 -0.13091 -0.073125 0.016433 0.031848 -0.30909 0.056066 -0.033285 0.162 0.077646 -0.052504 0.0098794 -0.014885 -0.020984 -0.014094 0.067192 -0.005191 0.006869 0.080455 0.066444 0.094542 -0.043245 0.1047 -0.076578 -0.14587 0.15016 0.029366 0.17272 0.05448 0.15907 -0.029758 0.046363 -0.097952 -0.10771 -0.010623 0.00060291 -0.11453 -0.070347 0.012592 -0.037922 -0.020917 0.054009 -0.20654 -0.12641 -0.079956 0.028207 -0.041954 0.091892 -0.11075 -0.065787 0.0096477 -0.037202 -0.065221 -0.06601 -0.03029 0.0028377 -0.025105 0.026647 -0.0075174 -0.056951 0.065376 -0.030527 0.17855 -0.064303 0.083891 0.092308 -0.1354 -0.14198 0.099064 0.10365 -0.010461 0.041891 -0.033361 -0.12646 0.069794 0.12692 -0.19462 0.038406 -0.066463 -0.022106 0.086703 0.09565 0.11613 -0.063948 0.056044 -0.017538 -0.031148 -0.054495 -0.046651 0.028701 0.015766 -0.075499 0.014853 -0.17738 0.19453 0.11027 0.11197 0.098951 -0.02854 -0.031065 0.14839 -0.043839 -0.08769 0.10442 -0.2052 -0.059683 -0.10295 -0.10691 -0.15774 -0.10503 -0.10439 0.11883 0.028157 -0.083656 0.019051 -0.16599 0.082165 0.021391 -0.02329 -0.17144 0.077644 0.036089 0.024116 -0.10705 -0.10923 0.34459 -0.015562 0.11049 -0.076514 -0.15166 0.074589 -0.024986 -0.03441 0.11528 -0.056915 0.0031926 0.13586 -0.0014364 -0.067874 0.016169 -0.11184 0.05858 -0.051089 0.088674 0.12307 -0.17626 -0.018077 -0.089657 0.10377 0.11501 0.029812 -0.055185 0.092394 0.083335 -0.052228 -0.034792 -0.050266 0.086604 -0.038252 -0.033121 0.077894 -0.18963 -0.013493 -0.12527 0.11096 0.13672 -0.27885 -0.11437 0.12247 0.012041 -0.13859 0.065797 0.13453 -0.087135 -0.065365 -0.017367 -0.032377 0.0715 0.009182 0.079134 0.082797 0.05018 -0.029385 -0.010726 0.14713 -0.011743 -0.017895 0.00025274 0.081279 -0.042295 0.024861 -0.0904 -0.032019 0.10645 -0.060066 -0.060971 -0.059137 0.13307 0.056211 0.09655 0.045771 -0.15959 0.17314 -0.12182 0.0047264 0.11081 -0.15319 -0.033069 -0.061562 0.013737 -0.13101 -0.025079 -0.092295 -0.080351 -0.1057 -0.038223 -0.036056 0.10784 -0.033088 -0.1399 -0.0477 -0.10505 -0.089641 -0.024596 0.026645 0.025403 0.01363 -0.0051439 -0.064779 -0.0054332 0.024444 -0.14337 0.057294 0.010291 -0.00094215 0.10905 -0.015305 -0.017334 0.017151 -0.016765 -0.013173 -0.01529 0.11314 0.0011052 0.056127 -0.064269 0.023637 -0.14216 0.043587 0.047927 -0.11945 -0.039228 -0.080072 0.021162 -0.11849 0.13685 0.021092 0.008748 -0.042486 0.027855 -0.010406 0.0037426 0.032141 0.028982 0.0047649 0.055049 -0.0444 0.034061 
</s> -0.10816 0.032952 -0.01835 0.022807 0.033003 0.048787 -0.039363 0.037002 0.054243 -0.011916 0.10605 -0.041183 0.13543 -0.019849 -0.094815 0.17385 0.13325 0.040775 -0.00030307 -0.010958 0.11874 0.011993 0.060987 -0.13566 -0.039203 -0.01254 0.049107 -0.02386 -0.073664 0.1191 0.034339 0.11211 0.020723 -0.11979 -0.066611 0.014752 0.029496 -0.28293 0.051345 -0.031278 0.15016 0.07148 -0.048319 0.0081799 -0.012339 -0.01899 -0.013009 0.063421 -0.0064979 0.005396 0.075086 0.060286 0.088468 -0.039672 0.096189 -0.070609 -0.13413 0.13789 0.027566 0.15881 0.050048 0.14622 -0.027368 0.040926 -0.090834 -0.098024 -0.010983 0.0003177 -0.10428 -0.065021 0.012213 -0.036345 -0.02008 0.04936 -0.19136 -0.11722 -0.075044 0.025901 -0.040437 0.085539 -0.10202 -0.06084 0.0087976 -0.034249 -0.058959 -0.061129 -0.026895 0.003587 -0.02332 0.023699 -0.0073013 -0.053654 0.059879 -0.027617 0.16404 -0.057142 0.076956 0.086959 -0.12433 -0.12995 0.091097 0.095752 -0.010487 0.03841 -0.030657 -0.11664 0.063714 0.11696 -0.17962 0.037058 -0.060167 -0.021025 0.080076 0.088725 0.10704 -0.057846 0.051782 -0.014635 -0.028944 -0.049783 -0.043417 0.026359 0.013022 -0.070234 0.013077 -0.16306 0.17896 0.10165 0.10284 0.089953 -0.027253 -0.028357 0.13519 -0.041175 -0.081016 0.096756 -0.18786 -0.055039 -0.096291 -0.098298 -0.14441 -0.094689 -0.096074 0.11047 0.026289 -0.076898 0.017597 -0.15347 0.075882 0.020727 -0.021102 -0.15718 0.071354 0.033498 0.02254 -0.098623 -0.10138 0.31785 -0.013395 0.10131 -0.069852 -0.14051 0.06754 -0.023744 -0.032118 0.10716 -0.053018 0.003135 0.1245 -0.0018342 -0.062606 0.015462 -0.10467 0.05313 -0.047437 0.081309 0.11298 -0.16182 -0.017774 -0.082429 0.096216 0.10502 0.027093 -0.050846 0.084166 0.077042 -0.047577 -0.032142 -0.04806 0.079314 -0.034923 -0.029889 0.071054 -0.17504 -0.011882 -0.11553 0.10256 0.12497 -0.25743 -0.10652 0.11206 0.011529 -0.12698 0.060749 0.12496 -0.079897 -0.061028 -0.016084 -0.029259 0.065899 0.0084027 0.073486 0.076538 0.045511 -0.027829 -0.011829 0.13549 -0.012246 -0.016982 -4.7995e-05 0.074829 -0.039114 0.023102 -0.083099 -0.028632 0.098182 -0.055545 -0.055816 -0.054974 0.12338 0.051077 0.090245 0.042046 -0.14639 0.15963 -0.11296 0.0043814 0.10286 -0.141 -0.031171 -0.056335 0.013662 -0.12019 -0.024152 -0.086014 -0.074226 -0.097498 -0.036377 -0.032923 0.098595 -0.029312 -0.12855 -0.044003 -0.096093 -0.083334 -0.022703 0.024079 0.023898 0.01241 -0.0047258 -0.05873 -0.0059546 0.022389 -0.13283 0.054051 0.010041 -0.00018359 0.10037 -0.014986 -0.014357 0.016077 -0.01419 -0.013533 -0.014345 0.10633 0.00043585 0.0522 -0.06022 0.023275 -0.13074 0.039747 0.043701 -0.11009 -0.036426 -0.074577 0.019822 -0.11001 0.12628 0.019621 0.0083844 -0.03962 0.024525 -0.0095433 0.0023508 0.029727 0.028555 0.0052616 0.050669 -0.039247 0.031231 
<px3sp> -0.11851 0.035998 -0.019648 0.024816 0.036046 0.052617 -0.043478 0.039759 0.059564 -0.012536 0.11575 -0.045129 0.14685 -0.022194 -0.10281 0.19021 0.14563 0.044006 -0.00085516 -0.011103 0.12923 0.014192 0.065431 -0.14784 -0.043004 -0.01336 0.053943 -0.02617 -0.079963 0.12972 0.038626 0.12224 0.022663 -0.13094 -0.072757 0.016684 0.031073 -0.31042 0.056876 -0.034399 0.16391 0.076238 -0.051626 0.0092606 -0.013931 -0.021271 -0.01361 0.068199 -0.0054127 0.0065642 0.081194 0.065549 0.095941 -0.043648 0.10541 -0.078247 -0.14658 0.15098 0.029086 0.17277 0.054892 0.16061 -0.029527 0.045748 -0.099209 -0.10852 -0.011537 0.00057749 -0.11417 -0.070408 0.013479 -0.03883 -0.0219 0.05373 -0.20925 -0.12938 -0.081255 0.028395 -0.043391 0.092491 -0.11228 -0.066647 0.0088263 -0.038185 -0.064798 -0.06554 -0.029729 0.0025569 -0.02513 0.026988 -0.0078065 -0.058379 0.06652 -0.030163 0.17997 -0.06468 0.08457 0.09363 -0.13575 -0.14236 0.10099 0.104 -0.010699 0.043003 -0.033387 -0.1275 0.070392 0.12852 -0.1962 0.039328 -0.065889 -0.022706 0.086304 0.096393 0.11743 -0.064498 0.055301 -0.016906 -0.031145 -0.054923 -0.047848 0.02901 0.015628 -0.076416 0.015466 -0.17831 0.19557 0.11026 0.11191 0.098507 -0.030349 -0.031705 0.14817 -0.045544 -0.088669 0.1054 -0.20517 -0.060576 -0.10381 -0.10669 -0.15836 -0.10456 -0.10464 0.12014 0.028775 -0.085628 0.018157 -0.16633 0.083697 0.021838 -0.023109 -0.17304 0.077935 0.036231 0.024535 -0.10722 -0.1104 0.34736 -0.015753 0.11103 -0.076551 -0.15311 0.073904 -0.025362 -0.035558 0.11775 -0.058503 0.0028196 0.13654 -0.0027262 -0.068174 0.017346 -0.11294 0.059078 -0.050648 0.088919 0.1235 -0.17743 -0.019026 -0.089792 0.10508 0.11489 0.029363 -0.055939 0.091829 0.083672 -0.050749 -0.035396 -0.052082 0.086934 -0.03863 -0.033305 0.078076 -0.18994 -0.01264 -0.1267 0.11239 0.13697 -0.28066 -0.11543 0.12253 0.011926 -0.13975 0.066286 0.13523 -0.088101 -0.067119 -0.018326 -0.032308 0.072182 0.0091774 0.080205 0.08272 0.050406 -0.029536 -0.012431 0.14776 -0.012788 -0.018007 -6.1012e-05 0.081731 -0.043045 0.024487 -0.090374 -0.031014 0.10737 -0.060284 -0.06149 -0.058983 0.13498 0.055447 0.097666 0.045795 -0.15995 0.17386 -0.12312 0.0051407 0.11222 -0.15495 -0.033192 -0.062508 0.014571 -0.13215 -0.026814 -0.094162 -0.080721 -0.10626 -0.039553 -0.036219 0.10951 -0.032403 -0.14011 -0.048066 -0.10556 -0.090761 -0.024345 0.026302 0.025919 0.014035 -0.0048171 -0.064472 -0.0062061 0.023598 -0.14462 0.059002 0.010781 -0.00046879 0.10949 -0.016036 -0.016008 0.018003 -0.016599 -0.01555 -0.015517 0.11552 0.00026535 0.056516 -0.064926 0.025212 -0.14448 0.043956 0.046999 -0.11939 -0.040082 -0.080757 0.020791 -0.11929 0.1376 0.02235 0.0087486 -0.043783 0.02731 -0.011174 0.0032666 0.032994 0.029417 0.0048487 0.055424 -0.043834 0.034713 
<adj> -0.11372 0.03379 -0.018509 0.024071 0.034478 0.050587 -0.040639 0.037991 0.057029 -0.011819 0.11095 -0.043108 0.14142 -0.021472 -0.098274 0.18211 0.13863 0.041461 -0.0011172 -0.0099327 0.12345 0.013755 0.062593 -0.1418 -0.041092 -0.013042 0.051152 -0.024912 -0.076603 0.1242 0.036717 0.11718 0.022116 -0.12661 -0.069324 0.015865 0.028604 -0.29668 0.054495 -0.033787 0.15715 0.073352 -0.049537 0.0095463 -0.01416 -0.020328 -0.012838 0.064388 -0.0058045 0.0062656 0.078535 0.062592 0.091853 -0.042468 0.099431 -0.075201 -0.14022 0.14404 0.028179 0.16545 0.052862 0.15327 -0.028618 0.043799 -0.094072 -0.1034 -0.010018 -0.00035402 -0.10981 -0.067787 0.012674 -0.037624 -0.020653 0.050597 -0.20006 -0.12151 -0.077215 0.026739 -0.041405 0.089406 -0.10753 -0.06371 0.0090597 -0.035922 -0.062181 -0.063346 -0.029315 0.0028551 -0.024277 0.025943 -0.0074035 -0.05704 0.063956 -0.027896 0.17276 -0.062237 0.081347 0.090147 -0.1306 -0.13591 0.096083 0.10004 -0.010374 0.040545 -0.031831 -0.12204 0.067001 0.12352 -0.1882 0.037649 -0.063571 -0.022012 0.083402 0.092874 0.11233 -0.062129 0.053656 -0.016088 -0.03127 -0.052775 -0.045694 0.027748 0.013752 -0.073724 0.013653 -0.17041 0.18785 0.10575 0.10733 0.095402 -0.028801 -0.03009 0.1412 -0.043749 -0.0849 0.10066 -0.19669 -0.058013 -0.10069 -0.1034 -0.15055 -0.10051 -0.10004 0.11439 0.027653 -0.08164 0.01909 -0.15943 0.0798 0.021029 -0.02195 -0.16583 0.073449 0.035237 0.023299 -0.10273 -0.10641 0.332 -0.014818 0.10629 -0.074062 -0.1469 0.07011 -0.024448 -0.03349 0.11267 -0.056647 0.0035072 0.13072 -0.0020007 -0.064287 0.016836 -0.10879 0.055899 -0.049538 0.085947 0.11823 -0.17 -0.01823 -0.085652 0.10079 0.10941 0.027773 -0.053959 0.088122 0.079086 -0.04931 -0.033511 -0.049468 0.084451 -0.037602 -0.031228 0.074457 -0.18144 -0.011695 -0.12089 0.10801 0.13069 -0.26956 -0.11072 0.11772 0.012006 -0.13357 0.063609 0.12941 -0.084055 -0.064596 -0.016744 -0.031045 0.069528 0.0087679 0.077697 0.078551 0.047343 -0.028791 -0.012461 0.14223 -0.012561 -0.017114 0.00051267 0.077833 -0.042006 0.024344 -0.086702 -0.030104 0.10274 -0.057495 -0.059128 -0.056874 0.12988 0.05329 0.09567 0.043751 -0.15301 0.16637 -0.11725 0.0049144 0.10712 -0.1481 -0.032291 -0.059106 0.01403 -0.12609 -0.025864 -0.089914 -0.078111 -0.10181 -0.037778 -0.034755 0.10442 -0.031675 -0.13447 -0.046343 -0.10072 -0.086971 -0.023323 0.024812 0.026381 0.012852 -0.0044646 -0.061838 -0.0056882 0.023026 -0.13804 0.055792 0.010724 -1.7403e-05 0.10411 -0.016287 -0.015821 0.016759 -0.015578 -0.013506 -0.014967 0.11045 0.00050106 0.053903 -0.061586 0.02318 -0.13829 0.041094 0.044995 -0.11513 -0.037582 -0.077319 0.020991 -0.11471 0.13197 0.021642 0.0069682 -0.04185 0.026973 -0.010365 0.0027352 0.03138 0.029017 0.0046575 0.052514 -0.041243 0.032958 
<iv> -0.12089 0.036319 -0.019967 0.024576 0.037459 0.053053 -0.045389 0.039438 0.061079 -0.012646 0.11776 -0.04688 0.15027 -0.022855 -0.10612 0.19393 0.14824 0.045739 -0.00086447 -0.010491 0.13278 0.014429 0.067441 -0.15212 -0.044143 -0.013425 0.054066 -0.02668 -0.080363 0.1319 0.038654 0.1243 0.022815 -0.13396 -0.073397 0.016455 0.031949 -0.31563 0.059285 -0.034941 0.16611 0.077974 -0.053771 0.0086536 -0.013764 -0.021887 -0.01382 0.069314 -0.0052809 0.0066336 0.083471 0.067753 0.098822 -0.044509 0.10726 -0.080026 -0.15028 0.15505 0.029658 0.17737 0.056881 0.16417 -0.030142 0.046154 -0.10126 -0.11056 -0.01056 0.0012034 -0.11664 -0.073538 0.013084 -0.039516 -0.022446 0.054395 -0.21204 -0.12993 -0.082163 0.029132 -0.043877 0.094493 -0.11483 -0.067234 0.0097361 -0.038327 -0.065299 -0.066659 -0.031763 0.0027026 -0.025937 0.026809 -0.0086511 -0.060006 0.068493 -0.031366 0.18401 -0.064709 0.086042 0.096046 -0.13917 -0.14547 0.10175 0.10587 -0.01099 0.042743 -0.035082 -0.13122 0.071392 0.13133 -0.20113 0.04008 -0.066945 -0.022111 0.087744 0.097913 0.11995 -0.066469 0.055878 -0.017846 -0.032181 -0.056939 -0.048894 0.028943 0.015479 -0.076512 0.014631 -0.18164 0.20036 0.11331 0.11473 0.10097 -0.030496 -0.032324 0.15111 -0.046189 -0.089859 0.10713 -0.21019 -0.062758 -0.10684 -0.10781 -0.16174 -0.10848 -0.10655 0.1224 0.029765 -0.087132 0.018939 -0.17007 0.085015 0.022551 -0.022844 -0.17654 0.079096 0.03713 0.024545 -0.10983 -0.11319 0.35645 -0.014625 0.11347 -0.079085 -0.15596 0.076104 -0.02549 -0.037381 0.12024 -0.059803 0.0037576 0.13926 -0.003052 -0.069469 0.017995 -0.11512 0.060215 -0.052531 0.089576 0.12592 -0.18151 -0.01887 -0.092352 0.10757 0.11768 0.030678 -0.058103 0.0937 0.085932 -0.051855 -0.035986 -0.053459 0.089744 -0.038936 -0.034519 0.07931 -0.19534 -0.012547 -0.12959 0.11376 0.14026 -0.28759 -0.11752 0.12548 0.014246 -0.14385 0.067718 0.13839 -0.089243 -0.068545 -0.017945 -0.033171 0.072772 0.009555 0.081613 0.084072 0.051678 -0.030744 -0.012351 0.15104 -0.01301 -0.018777 0.00012205 0.084651 -0.04299 0.024228 -0.093628 -0.032847 0.11089 -0.061552 -0.06269 -0.059473 0.13759 0.057755 0.10037 0.047693 -0.16412 0.17791 -0.12436 0.0050228 0.11417 -0.15731 -0.034823 -0.06322 0.014678 -0.13429 -0.025677 -0.097154 -0.082922 -0.10887 -0.039234 -0.037425 0.11096 -0.033294 -0.14293 -0.049527 -0.10764 -0.092429 -0.025241 0.02686 0.026235 0.015074 -0.0049335 -0.066379 -0.0063217 0.02501 -0.14691 0.060152 0.011587 -0.0019167 0.11112 -0.01528 -0.016759 0.018174 -0.016667 -0.015548 -0.016881 0.11871 -0.00065712 0.059128 -0.066841 0.025377 -0.14716 0.045259 0.049082 -0.12258 -0.040977 -0.081405 0.021879 -0.12223 0.14118 0.022175 0.0088287 -0.04565 0.028303 -0.011096 0.0034155 0.033171 0.030423 0.0067027 0.056127 -0.045172 0.035661 
<cm> -0.12225 0.036282 -0.020864 0.025046 0.036728 0.054029 -0.044366 0.039904 0.061803 -0.012096 0.11929 -0.046067 0.15128 -0.023503 -0.10574 0.19513 0.14893 0.045704 -0.0001216 -0.012182 0.13389 0.015461 0.06788 -0.15153 -0.043537 -0.013973 0.055145 -0.02611 -0.082177 0.13234 0.039938 0.12433 0.02338 -0.13446 -0.074099 0.017339 0.031723 -0.31676 0.057612 -0.035222 0.16835 0.077884 -0.053585 0.00949 -0.015115 -0.021166 -0.014183 0.071233 -0.0055253 0.0068653 0.08385 0.067667 0.099787 -0.044514 0.10782 -0.079623 -0.15051 0.1553 0.029637 0.17873 0.055131 0.16444 -0.030127 0.046766 -0.10167 -0.11116 -0.011752 0.0013585 -0.11806 -0.072725 0.013234 -0.040545 -0.022691 0.055846 -0.21456 -0.13141 -0.083247 0.028191 -0.045051 0.095277 -0.11457 -0.069439 0.0092275 -0.040187 -0.066237 -0.067901 -0.031854 0.002946 -0.025717 0.028265 -0.0079342 -0.059517 0.068747 -0.03088 0.18469 -0.067085 0.087736 0.097099 -0.14004 -0.14782 0.10262 0.10609 -0.01195 0.043606 -0.034261 -0.13157 0.071792 0.13169 -0.20287 0.040811 -0.06783 -0.022776 0.089322 0.1 0.11934 -0.066434 0.057673 -0.017805 -0.03184 -0.056606 -0.049445 0.029996 0.016601 -0.078687 0.015548 -0.18275 0.20135 0.11326 0.11487 0.10222 -0.030818 -0.033133 0.15139 -0.045505 -0.091776 0.1089 -0.21188 -0.062595 -0.10796 -0.1096 -0.16065 -0.10639 -0.10731 0.12338 0.028996 -0.087053 0.020612 -0.17106 0.085318 0.022631 -0.024266 -0.1784 0.07909 0.037158 0.025285 -0.11093 -0.11288 0.35746 -0.01625 0.11424 -0.077337 -0.15763 0.075837 -0.026638 -0.036849 0.12031 -0.059946 0.0035636 0.1407 -0.0019495 -0.070496 0.017154 -0.11509 0.061158 -0.053039 0.090511 0.12652 -0.18229 -0.019261 -0.091251 0.10838 0.1182 0.031227 -0.057114 0.09403 0.085885 -0.052209 -0.03705 -0.052937 0.089703 -0.04068 -0.034462 0.079949 -0.1958 -0.013293 -0.13111 0.11561 0.14148 -0.28927 -0.11805 0.12646 0.012177 -0.14321 0.067203 0.13794 -0.088614 -0.070178 -0.017867 -0.03321 0.073618 0.010076 0.0823 0.086362 0.052596 -0.031365 -0.013348 0.15172 -0.0134 -0.018661 -0.00073226 0.08397 -0.044722 0.024712 -0.093733 -0.031961 0.11082 -0.062627 -0.062916 -0.060266 0.14017 0.057436 0.1009 0.04724 -0.16481 0.17906 -0.12677 0.0047136 0.11617 -0.15852 -0.035235 -0.064992 0.014827 -0.13481 -0.026802 -0.096228 -0.082969 -0.11062 -0.041263 -0.036133 0.11313 -0.033196 -0.14433 -0.04935 -0.10929 -0.093429 -0.024991 0.027023 0.026542 0.013272 -0.005294 -0.066065 -0.0073108 0.024903 -0.14871 0.060306 0.010602 -0.00032405 0.11168 -0.017107 -0.016457 0.018395 -0.01764 -0.014851 -0.016333 0.11862 9.0935e-05 0.058714 -0.066482 0.026337 -0.1486 0.044304 0.048763 -0.12252 -0.040887 -0.082394 0.022255 -0.12239 0.14122 0.022037 0.0079952 -0.045451 0.030027 -0.010734 0.0034225 0.034348 0.031357 0.0051417 0.056439 -0.045672 0.035945 
<aor> -0.1055 0.032177 -0.018746 0.021645 0.031845 0.047352 -0.038228 0.035099 0.053193 -0.010872 0.10311 -0.040026 0.13135 -0.01973 -0.091844 0.16941 0.12893 0.039582 -0.00099049 -0.0093556 0.11561 0.013575 0.058029 -0.13217 -0.038963 -0.012921 0.047908 -0.022784 -0.071492 0.11452 0.03396 0.10832 0.020098 -0.11707 -0.064548 0.015517 0.027585 -0.27645 0.05146 -0.030192 0.14551 0.067225 -0.046846 0.0093063 -0.012608 -0.018517 -0.012375 0.061372 -0.004869 0.0055467 0.072621 0.05808 0.085804 -0.037769 0.093795 -0.069993 -0.13016 0.13445 0.025929 0.15427 0.049073 0.14311 -0.025674 0.039547 -0.088007 -0.097291 -0.010637 0.00057964 -0.1024 -0.062745 0.012527 -0.035337 -0.019976 0.048006 -0.18673 -0.11414 -0.073008 0.026146 -0.038383 0.082674 -0.099383 -0.058286 0.00752 -0.033152 -0.058313 -0.059583 -0.026431 0.0018026 -0.022926 0.024703 -0.0066736 -0.052175 0.059158 -0.026078 0.16015 -0.057777 0.075403 0.082618 -0.12192 -0.12674 0.08925 0.0932 -0.0097808 0.037609 -0.030217 -0.11345 0.062737 0.11515 -0.17574 0.034486 -0.05955 -0.020235 0.077318 0.085527 0.10386 -0.05767 0.050367 -0.014544 -0.027894 -0.04936 -0.04148 0.024932 0.013791 -0.068206 0.015233 -0.15839 0.17445 0.098421 0.098902 0.087981 -0.026998 -0.027548 0.13139 -0.039964 -0.07879 0.093083 -0.18249 -0.054974 -0.092587 -0.095753 -0.14024 -0.094119 -0.093652 0.10712 0.025067 -0.075767 0.017123 -0.14792 0.073773 0.019152 -0.021271 -0.15373 0.068064 0.031389 0.021169 -0.095677 -0.0994 0.30903 -0.013793 0.099121 -0.068152 -0.13551 0.066844 -0.022838 -0.031384 0.10447 -0.05248 0.0021627 0.12176 -0.0019571 -0.060185 0.015374 -0.1012 0.051726 -0.046569 0.079086 0.11072 -0.15773 -0.016356 -0.08038 0.093749 0.10254 0.026332 -0.049782 0.081234 0.073816 -0.046078 -0.030918 -0.046286 0.078014 -0.03496 -0.029846 0.069537 -0.16966 -0.012019 -0.11301 0.099405 0.12192 -0.24993 -0.10216 0.10838 0.010561 -0.12394 0.058977 0.12164 -0.078439 -0.059004 -0.016138 -0.028468 0.063713 0.008262 0.071972 0.074553 0.044912 -0.026973 -0.011358 0.13152 -0.011731 -0.016124 0.00019642 0.073193 -0.037611 0.022054 -0.08076 -0.027666 0.096378 -0.05461 -0.054958 -0.052757 0.12043 0.049314 0.087507 0.040418 -0.14263 0.15605 -0.10901 0.0042231 0.10027 -0.13793 -0.030528 -0.054583 0.012464 -0.11771 -0.024362 -0.083192 -0.071677 -0.094221 -0.035078 -0.032261 0.096587 -0.028957 -0.1252 -0.042755 -0.094181 -0.080858 -0.021793 0.022892 0.022433 0.012797 -0.0038391 -0.056709 -0.0053412 0.021128 -0.12852 0.052367 0.010504 -0.00032724 0.097295 -0.014655 -0.014332 0.01545 -0.014797 -0.01338 -0.013628 0.10246 -0.00014062 0.050486 -0.057895 0.022544 -0.12805 0.03917 0.042966 -0.1069 -0.035485 -0.070613 0.018768 -0.10657 0.12191 0.019176 0.0076886 -0.038461 0.024891 -0.010194 0.0034214 0.029406 0.026529 0.0043225 0.049107 -0.039349 0.030771 
<np> -0.11101 0.033504 -0.018124 0.023392 0.033056 0.047961 -0.040109 0.037324 0.055699 -0.010798 0.10889 -0.041261 0.13752 -0.020947 -0.096379 0.17798 0.13608 0.042061 -0.00025997 -0.009602 0.12245 0.013126 0.06201 -0.13834 -0.040007 -0.011984 0.051059 -0.024272 -0.075017 0.12147 0.036809 0.11453 0.020966 -0.12299 -0.067726 0.014792 0.029104 -0.28926 0.053174 -0.03252 0.15369 0.071287 -0.048986 0.0085471 -0.013487 -0.018931 -0.013088 0.064145 -0.0057089 0.00611 0.075772 0.061159 0.090864 -0.040437 0.098503 -0.073686 -0.13696 0.14168 0.027752 0.16173 0.050304 0.15049 -0.028191 0.042003 -0.091675 -0.10072 -0.011298 0.00093159 -0.1075 -0.066139 0.013059 -0.036825 -0.020834 0.050814 -0.19576 -0.12036 -0.076322 0.026244 -0.040173 0.085814 -0.10474 -0.062429 0.0079371 -0.035907 -0.059167 -0.062436 -0.02723 0.0031119 -0.023688 0.024467 -0.0069659 -0.055417 0.06173 -0.02808 0.16879 -0.060135 0.079316 0.087408 -0.12805 -0.13322 0.095059 0.097904 -0.010295 0.039554 -0.030523 -0.1197 0.065066 0.11918 -0.18422 0.036414 -0.06176 -0.020503 0.081145 0.089192 0.11107 -0.059583 0.051878 -0.016568 -0.028994 -0.051677 -0.043649 0.027198 0.014222 -0.071749 0.014657 -0.16591 0.18245 0.10331 0.10514 0.092873 -0.028611 -0.028159 0.13745 -0.04355 -0.082003 0.098536 -0.1931 -0.057775 -0.097958 -0.099597 -0.14747 -0.097762 -0.097745 0.11205 0.027263 -0.080712 0.017441 -0.15624 0.078813 0.021578 -0.021619 -0.16298 0.072198 0.034386 0.022067 -0.10075 -0.10327 0.32561 -0.013866 0.10456 -0.071205 -0.14375 0.069556 -0.024158 -0.03359 0.10951 -0.05344 0.003013 0.12843 -0.0020232 -0.064168 0.015653 -0.1054 0.054817 -0.049042 0.082321 0.11493 -0.16617 -0.018057 -0.084068 0.098713 0.10679 0.02754 -0.051467 0.085932 0.077905 -0.048922 -0.033656 -0.047637 0.082229 -0.03559 -0.030714 0.072005 -0.17914 -0.012859 -0.11869 0.10487 0.12912 -0.26338 -0.10773 0.11595 0.011429 -0.13111 0.061932 0.12794 -0.082302 -0.063265 -0.015309 -0.031114 0.066328 0.0087173 0.075825 0.078573 0.046316 -0.028166 -0.011511 0.13846 -0.012955 -0.016269 0.0008409 0.077017 -0.039617 0.022552 -0.084148 -0.028297 0.10052 -0.056373 -0.057534 -0.054002 0.12719 0.053245 0.091566 0.043555 -0.14979 0.16305 -0.11467 0.0047039 0.1044 -0.14416 -0.031901 -0.057739 0.013633 -0.12409 -0.025038 -0.087291 -0.075188 -0.099592 -0.038176 -0.033637 0.10335 -0.030923 -0.13084 -0.044753 -0.097706 -0.085345 -0.023476 0.02544 0.024685 0.012492 -0.0048427 -0.059627 -0.0062968 0.022326 -0.13576 0.054915 0.010031 -0.00078596 0.10141 -0.014985 -0.016827 0.016411 -0.014958 -0.01376 -0.014047 0.10804 0.00019552 0.052286 -0.061173 0.024371 -0.13448 0.042038 0.04412 -0.11249 -0.03819 -0.075612 0.019756 -0.11396 0.12909 0.021201 0.0086764 -0.04175 0.026239 -0.010417 0.0028107 0.030747 0.028343 0.0053374 0.051701 -0.042039 0.032511 
<> -0.10586 0.033075 -0.018414 0.02317 0.030435 0.0467 -0.039533 0.03572 0.054053 -0.011357 0.10217 -0.040001 0.13129 -0.021886 -0.093241 0.17074 0.1294 0.038863 0.00039867 -0.010624 0.1156 0.01202 0.058632 -0.13194 -0.03759 -0.011945 0.048366 -0.022563 -0.071928 0.11473 0.035538 0.10811 0.019934 -0.11791 -0.065723 0.0136 0.028959 -0.27572 0.051091 -0.031576 0.14554 0.068504 -0.047207 0.0080392 -0.013559 -0.020837 -0.011331 0.062275 -0.0055024 0.0051367 0.071834 0.058653 0.084335 -0.039689 0.094251 -0.070154 -0.13022 0.13315 0.026671 0.15396 0.048895 0.14318 -0.028339 0.039261 -0.088441 -0.096215 -0.010959 -3.5208e-05 -0.10363 -0.063633 0.013206 -0.03459 -0.01931 0.048159 -0.1861 -0.11528 -0.073195 0.023783 -0.038443 0.081773 -0.09943 -0.058565 0.0072389 -0.035875 -0.057031 -0.05775 -0.026321 0.00087761 -0.023092 0.026081 -0.0074059 -0.051714 0.056529 -0.026316 0.16106 -0.056819 0.075326 0.083789 -0.12084 -0.1268 0.08904 0.091561 -0.0080954 0.039045 -0.030113 -0.11395 0.062319 0.11393 -0.17686 0.034727 -0.059761 -0.020523 0.07787 0.08477 0.10444 -0.058428 0.049672 -0.014188 -0.026915 -0.048055 -0.04262 0.025883 0.013592 -0.068125 0.014424 -0.15842 0.17317 0.097095 0.10126 0.087753 -0.02793 -0.027666 0.13155 -0.042312 -0.079174 0.09346 -0.18325 -0.054255 -0.094497 -0.095939 -0.14121 -0.093673 -0.093952 0.10715 0.025556 -0.077859 0.016796 -0.14916 0.073039 0.020514 -0.01994 -0.15479 0.069935 0.031617 0.020432 -0.095035 -0.09906 0.30848 -0.015804 0.099117 -0.069382 -0.13453 0.065918 -0.022314 -0.032095 0.10702 -0.053376 0.0030363 0.12156 -0.002134 -0.060642 0.014735 -0.10029 0.052786 -0.045186 0.079248 0.10851 -0.15694 -0.016508 -0.079821 0.093314 0.10258 0.024971 -0.049846 0.081737 0.073862 -0.047711 -0.031686 -0.04665 0.077111 -0.033504 -0.030619 0.070663 -0.17071 -0.011768 -0.11401 0.1001 0.12101 -0.25097 -0.1009 0.10854 0.011161 -0.12501 0.059459 0.12118 -0.079164 -0.060283 -0.016426 -0.027556 0.064074 0.0094378 0.072115 0.073684 0.044744 -0.026503 -0.011555 0.13129 -0.01272 -0.015385 -0.0014152 0.074612 -0.039415 0.020242 -0.080675 -0.028908 0.095899 -0.052253 -0.054701 -0.05155 0.12217 0.04955 0.084825 0.041322 -0.14193 0.15458 -0.11063 0.0045283 0.10198 -0.13747 -0.030369 -0.05595 0.011891 -0.11741 -0.022241 -0.085899 -0.072587 -0.095205 -0.034383 -0.03245 0.098717 -0.0291 -0.12565 -0.042076 -0.092798 -0.080483 -0.023574 0.022586 0.021989 0.011958 -0.0047827 -0.058072 -0.0057449 0.020725 -0.12777 0.052547 0.011139 -6.4892e-06 0.096208 -0.012577 -0.015411 0.015767 -0.013145 -0.013516 -0.015594 0.10217 0.00068593 0.050299 -0.057281 0.02199 -0.12925 0.038455 0.044314 -0.10775 -0.034621 -0.071721 0.018881 -0.10558 0.12335 0.019609 0.0087654 -0.038925 0.026782 -0.010887 0.003486 0.02891 0.025288 0.0027391 0.048511 -0.039703 0.032198 
<dat> -0.11674 0.035055 -0.020001 0.024973 0.035584 0.052318 -0.043098 0.039087 0.059628 -0.012796 0.11471 -0.045455 0.1463 -0.022441 -0.10221 0.18899 0.14415 0.043868 -0.0015909 -0.010469 0.12861 0.013843 0.064547 -0.14681 -0.042497 -0.014161 0.053451 -0.02607 -0.079686 0.12734 0.038202 0.12111 0.021837 -0.12999 -0.070994 0.016547 0.031837 -0.30756 0.056821 -0.033454 0.16254 0.075354 -0.051305 0.0092433 -0.013583 -0.021294 -0.014353 0.067508 -0.006059 0.0068847 0.08055 0.066052 0.094978 -0.044161 0.10428 -0.077835 -0.14512 0.14987 0.029069 0.17107 0.05451 0.15962 -0.029119 0.045878 -0.09822 -0.10762 -0.010794 -3.1719e-05 -0.1142 -0.070489 0.013904 -0.039844 -0.022313 0.052689 -0.20681 -0.12748 -0.080994 0.028438 -0.042813 0.092218 -0.11137 -0.065813 0.0098677 -0.036565 -0.063534 -0.065948 -0.030156 0.0026546 -0.026252 0.026769 -0.0077605 -0.058359 0.066139 -0.028813 0.17876 -0.064217 0.083657 0.093629 -0.13503 -0.1417 0.099764 0.10363 -0.010156 0.04188 -0.033465 -0.12641 0.069781 0.12742 -0.19595 0.038539 -0.066284 -0.022762 0.086419 0.096014 0.1163 -0.064121 0.055121 -0.016303 -0.030153 -0.054418 -0.046646 0.029235 0.014547 -0.074885 0.015154 -0.17753 0.19418 0.10956 0.11133 0.098515 -0.02946 -0.031278 0.14658 -0.044896 -0.088329 0.10437 -0.20492 -0.060245 -0.10239 -0.10678 -0.15697 -0.10362 -0.10299 0.11873 0.028873 -0.08457 0.019329 -0.16484 0.083049 0.022115 -0.023412 -0.1719 0.076267 0.036212 0.024766 -0.10702 -0.10915 0.34575 -0.015783 0.11041 -0.076247 -0.15144 0.072929 -0.02476 -0.035488 0.1174 -0.057236 0.0038116 0.13554 -0.0019618 -0.067627 0.017555 -0.11362 0.058686 -0.051221 0.088046 0.12257 -0.17672 -0.017725 -0.088869 0.10553 0.11373 0.030094 -0.055915 0.092305 0.083472 -0.051566 -0.03494 -0.051727 0.086513 -0.038317 -0.03274 0.077103 -0.18816 -0.012918 -0.12525 0.11125 0.136 -0.27875 -0.1137 0.12161 0.013395 -0.1389 0.064777 0.13489 -0.087293 -0.066458 -0.018389 -0.031784 0.07068 0.010438 0.080027 0.082212 0.049991 -0.030446 -0.012182 0.14746 -0.012175 -0.017012 -0.00036989 0.08027 -0.043079 0.024322 -0.090284 -0.03098 0.10824 -0.060403 -0.061203 -0.059336 0.13471 0.05449 0.098148 0.044499 -0.15854 0.17378 -0.12177 0.0053157 0.11124 -0.1532 -0.03351 -0.06177 0.014176 -0.13091 -0.026337 -0.093362 -0.080662 -0.10534 -0.039037 -0.036502 0.10856 -0.032055 -0.13873 -0.047405 -0.10574 -0.090137 -0.023893 0.027523 0.025483 0.013674 -0.0047819 -0.064889 -0.0051069 0.023208 -0.14392 0.058608 0.010736 -0.0007402 0.10866 -0.015969 -0.016332 0.018211 -0.016529 -0.014993 -0.014933 0.11365 0.0012887 0.056242 -0.064173 0.024866 -0.14267 0.043138 0.047428 -0.11946 -0.041 -0.079171 0.020425 -0.11923 0.137 0.021731 0.0087136 -0.043596 0.028908 -0.010522 0.0033384 0.032501 0.029866 0.0044616 0.055009 -0.043681 0.034823 
<pl> -0.13985 0.041737 -0.023817 0.029522 0.042891 0.062078 -0.050816 0.04675 0.070961 -0.013901 0.13813 -0.055001 0.17442 -0.026958 -0.12268 0.22471 0.17251 0.052006 -0.0012345 -0.013737 0.15242 0.01595 0.076504 -0.17617 -0.050658 -0.015383 0.063899 -0.031394 -0.095406 0.15321 0.045178 0.14469 0.026775 -0.15416 -0.086341 0.01872 0.036538 -0.36769 0.068173 -0.040437 0.19522 0.091541 -0.061447 0.010639 -0.016841 -0.024927 -0.014843 0.081407 -0.0062749 0.0072965 0.096279 0.079477 0.1138 -0.0524 0.12494 -0.092789 -0.17298 0.1788 0.034133 0.20647 0.066124 0.19077 -0.03643 0.05328 -0.11708 -0.12851 -0.013759 0.0018195 -0.13569 -0.084501 0.016404 -0.047811 -0.025987 0.064365 -0.24859 -0.15237 -0.096633 0.033892 -0.051019 0.10887 -0.13313 -0.079196 0.010986 -0.044806 -0.076944 -0.077459 -0.036392 0.003364 -0.03011 0.032613 -0.0081435 -0.06943 0.078205 -0.035312 0.214 -0.076132 0.10093 0.10968 -0.16168 -0.16887 0.11854 0.12408 -0.012138 0.050367 -0.03938 -0.15108 0.084131 0.15284 -0.23296 0.046623 -0.078868 -0.026734 0.10207 0.11438 0.13842 -0.075801 0.065143 -0.019326 -0.037469 -0.065973 -0.056272 0.033149 0.019927 -0.091549 0.017897 -0.21198 0.23161 0.1314 0.13227 0.11724 -0.034763 -0.037592 0.17515 -0.054306 -0.10457 0.12465 -0.24364 -0.071339 -0.1234 -0.12702 -0.18743 -0.12433 -0.12338 0.1415 0.034363 -0.10126 0.02258 -0.19718 0.099663 0.026354 -0.028644 -0.20496 0.091153 0.043833 0.029206 -0.12699 -0.13138 0.41131 -0.018278 0.13019 -0.091108 -0.18077 0.088691 -0.029841 -0.04249 0.13977 -0.069508 0.0023059 0.16213 -0.0029744 -0.079999 0.01987 -0.13434 0.070255 -0.061307 0.10544 0.14689 -0.20898 -0.022215 -0.10615 0.12462 0.13596 0.035351 -0.066569 0.10894 0.099345 -0.059706 -0.041613 -0.061722 0.10397 -0.045641 -0.039789 0.092722 -0.22455 -0.014496 -0.15023 0.13178 0.16251 -0.33369 -0.13652 0.14484 0.014266 -0.16586 0.078152 0.16107 -0.10517 -0.080242 -0.021045 -0.037961 0.085041 0.010325 0.096112 0.098826 0.06119 -0.03574 -0.014774 0.17626 -0.014884 -0.022048 -0.00027469 0.096824 -0.051241 0.029964 -0.10822 -0.036482 0.1277 -0.071856 -0.073104 -0.069682 0.1617 0.065423 0.11583 0.053105 -0.19019 0.2067 -0.14453 0.0045693 0.13223 -0.18305 -0.038854 -0.073175 0.016302 -0.15621 -0.03091 -0.11079 -0.095864 -0.12737 -0.046742 -0.044125 0.13001 -0.038225 -0.1666 -0.057084 -0.12416 -0.10845 -0.028644 0.030344 0.029583 0.015693 -0.0054732 -0.07549 -0.0065242 0.029009 -0.17168 0.070375 0.013625 -0.00078022 0.12935 -0.020006 -0.019144 0.019618 -0.019679 -0.016786 -0.017718 0.13695 0.00057295 0.067227 -0.076812 0.029075 -0.17054 0.051307 0.056037 -0.14107 -0.047676 -0.095414 0.024766 -0.14255 0.16269 0.026422 0.0095216 -0.051509 0.032268 -0.013177 0.0039889 0.03961 0.035447 0.0058476 0.065061 -0.051306 0.041438 
<ifi> -0.10624 0.032111 -0.018066 0.022371 0.031957 0.048538 -0.039333 0.035159 0.05503 -0.011256 0.10522 -0.041665 0.13323 -0.020528 -0.093297 0.17157 0.13157 0.039639 -0.00078732 -0.0098681 0.11719 0.012134 0.05918 -0.13325 -0.039391 -0.012132 0.049273 -0.02385 -0.071685 0.11727 0.034859 0.11 0.020836 -0.11901 -0.06414 0.014538 0.027913 -0.2813 0.051907 -0.031282 0.14899 0.070131 -0.046087 0.0076654 -0.01249 -0.019545 -0.012294 0.062747 -0.0049349 0.0063711 0.073659 0.059753 0.086464 -0.039402 0.095142 -0.070313 -0.13257 0.13672 0.026433 0.15657 0.048778 0.14508 -0.027139 0.040571 -0.089705 -0.098195 -0.01004 0.00042157 -0.10372 -0.064452 0.012927 -0.035547 -0.019327 0.049382 -0.18982 -0.11623 -0.073594 0.026443 -0.039327 0.083718 -0.10184 -0.059624 0.0082775 -0.03312 -0.057573 -0.060086 -0.027296 0.002178 -0.02245 0.024276 -0.0067948 -0.053032 0.059647 -0.026045 0.16258 -0.058099 0.076418 0.085896 -0.12406 -0.12914 0.09076 0.094628 -0.0097617 0.038361 -0.030152 -0.1159 0.063521 0.11581 -0.17773 0.035389 -0.060132 -0.020539 0.077788 0.087288 0.10545 -0.058548 0.050334 -0.014941 -0.028404 -0.049979 -0.043121 0.026109 0.013876 -0.069171 0.014859 -0.16141 0.17727 0.10024 0.10083 0.08881 -0.027738 -0.028183 0.13379 -0.04134 -0.079225 0.095028 -0.18617 -0.05448 -0.094098 -0.09721 -0.14299 -0.095592 -0.095068 0.10901 0.025722 -0.076773 0.016777 -0.15061 0.074971 0.019811 -0.020804 -0.15682 0.069699 0.031749 0.021797 -0.096775 -0.1 0.31496 -0.01408 0.10109 -0.069374 -0.13849 0.06741 -0.02346 -0.033062 0.10699 -0.052533 0.0030724 0.12249 -0.0024145 -0.060936 0.015162 -0.10229 0.052978 -0.047485 0.080358 0.11064 -0.16042 -0.016511 -0.081325 0.096096 0.10341 0.027471 -0.050496 0.083739 0.074925 -0.046151 -0.032089 -0.047383 0.079269 -0.035676 -0.029426 0.069936 -0.17156 -0.012374 -0.11594 0.10113 0.12416 -0.25588 -0.10418 0.1107 0.011182 -0.12628 0.059105 0.12243 -0.079408 -0.059856 -0.016231 -0.028768 0.064686 0.0087031 0.072887 0.075443 0.045495 -0.026405 -0.011987 0.13448 -0.012525 -0.015838 0.0010479 0.073762 -0.038817 0.022025 -0.083394 -0.029085 0.097945 -0.054648 -0.055779 -0.053477 0.12208 0.049863 0.089491 0.041107 -0.14512 0.15821 -0.11124 0.0051433 0.10095 -0.13974 -0.031913 -0.056231 0.012528 -0.11888 -0.023873 -0.084816 -0.072536 -0.094866 -0.034648 -0.032577 0.097747 -0.029191 -0.12644 -0.043964 -0.095295 -0.081765 -0.021162 0.02432 0.023049 0.012189 -0.0041683 -0.059193 -0.0056481 0.022256 -0.13083 0.05362 0.010416 0.00055418 0.099365 -0.014002 -0.015232 0.015725 -0.014831 -0.013023 -0.01464 0.10434 -0.00015111 0.051443 -0.058961 0.022879 -0.13051 0.038452 0.043191 -0.1088 -0.036672 -0.073111 0.01885 -0.10814 0.12371 0.020173 0.0084614 -0.039262 0.026206 -0.0099172 0.002818 0.030287 0.027248 0.0044286 0.049459 -0.039365 0.032141 
<acc> -0.10847 0.033963 -0.018819 0.023048 0.032986 0.048439 -0.040135 0.035739 0.054828 -0.011222 0.10699 -0.040594 0.13565 -0.020956 -0.094238 0.1746 0.13281 0.04107 -0.0015045 -0.010809 0.11862 0.013269 0.059555 -0.13613 -0.039172 -0.012423 0.049383 -0.02327 -0.073079 0.1181 0.035315 0.11138 0.020864 -0.11935 -0.066892 0.016452 0.028018 -0.2838 0.051949 -0.030484 0.15 0.070571 -0.047316 0.0086611 -0.012667 -0.018753 -0.011614 0.062135 -0.0047103 0.0055944 0.073829 0.06047 0.087953 -0.040442 0.096706 -0.070682 -0.13334 0.13813 0.026803 0.15772 0.050352 0.14676 -0.026685 0.041856 -0.090028 -0.098773 -0.0092484 -0.00064126 -0.10556 -0.065116 0.011995 -0.036824 -0.019799 0.049227 -0.19145 -0.11781 -0.074332 0.025873 -0.040043 0.084518 -0.10207 -0.060987 0.0077468 -0.035121 -0.05973 -0.060535 -0.02786 0.0029583 -0.023484 0.025054 -0.0065551 -0.053703 0.060124 -0.027112 0.16491 -0.05863 0.07695 0.086124 -0.12399 -0.13171 0.092016 0.095708 -0.0098481 0.038967 -0.030495 -0.11726 0.064069 0.11765 -0.18078 0.036331 -0.060747 -0.020411 0.079953 0.088872 0.10721 -0.058555 0.051979 -0.015844 -0.028805 -0.050695 -0.043963 0.025931 0.01419 -0.069953 0.014652 -0.16359 0.18008 0.10182 0.10254 0.091433 -0.028253 -0.029052 0.13614 -0.040938 -0.080583 0.096669 -0.18816 -0.055694 -0.095075 -0.098664 -0.14354 -0.096098 -0.09568 0.11086 0.026686 -0.07811 0.018189 -0.15285 0.076691 0.020276 -0.021053 -0.15815 0.070477 0.03266 0.023038 -0.098482 -0.10162 0.31898 -0.01518 0.10095 -0.069894 -0.14067 0.067388 -0.02309 -0.033195 0.1077 -0.052785 0.0020437 0.12615 -0.0020886 -0.062031 0.015254 -0.10392 0.053896 -0.048028 0.08136 0.11377 -0.16363 -0.016697 -0.08329 0.097052 0.10452 0.027957 -0.051136 0.083924 0.075835 -0.04742 -0.031973 -0.047184 0.080511 -0.035626 -0.030616 0.07183 -0.17412 -0.012298 -0.11577 0.10333 0.12591 -0.25856 -0.10492 0.11235 0.011072 -0.12751 0.060042 0.12496 -0.080022 -0.061321 -0.015696 -0.030499 0.066057 0.0088638 0.073743 0.075874 0.046694 -0.026589 -0.012113 0.13677 -0.01153 -0.015993 0.0009429 0.074826 -0.039393 0.022834 -0.083756 -0.027872 0.0987 -0.055868 -0.05631 -0.054 0.12516 0.050934 0.091002 0.040678 -0.14621 0.16023 -0.11209 0.0043764 0.10256 -0.14208 -0.032613 -0.057256 0.012776 -0.1217 -0.025163 -0.085632 -0.074341 -0.097568 -0.035943 -0.033433 0.10001 -0.030976 -0.13 -0.04367 -0.097068 -0.082887 -0.022614 0.023931 0.023969 0.011847 -0.0041587 -0.060312 -0.0054049 0.022443 -0.13252 0.053949 0.0098703 -0.00060778 0.10011 -0.015034 -0.015069 0.015502 -0.014544 -0.013042 -0.01335 0.10524 0.00087418 0.052324 -0.060181 0.022806 -0.13198 0.03883 0.044308 -0.10958 -0.037262 -0.074385 0.019942 -0.10947 0.12629 0.020469 0.0083374 -0.039577 0.025323 -0.0096646 0.0024744 0.030363 0.027465 0.0038803 0.050975 -0.039343 0.031669 
<gen> -0.11671 0.035856 -0.019258 0.024883 0.034788 0.05205 -0.042674 0.039322 0.060238 -0.012824 0.11566 -0.045828 0.14621 -0.022346 -0.10296 0.18942 0.14407 0.042541 -0.00032104 -0.010898 0.1288 0.014271 0.065179 -0.14749 -0.042481 -0.014391 0.053651 -0.025396 -0.078792 0.12865 0.03844 0.12109 0.023146 -0.13022 -0.072802 0.016174 0.031694 -0.30864 0.056586 -0.034073 0.16317 0.076053 -0.051162 0.0095298 -0.013965 -0.021094 -0.013749 0.068905 -0.0052615 0.0065046 0.081244 0.065875 0.095091 -0.043044 0.10468 -0.077908 -0.14522 0.15013 0.028673 0.17194 0.054375 0.15952 -0.028093 0.04496 -0.098871 -0.1084 -0.01099 0.0010042 -0.1137 -0.070367 0.014185 -0.039506 -0.022041 0.05299 -0.2079 -0.12681 -0.080761 0.028308 -0.043101 0.091727 -0.11093 -0.066796 0.008212 -0.037278 -0.064222 -0.066633 -0.030589 0.0025233 -0.025691 0.027707 -0.0079821 -0.058132 0.065558 -0.029927 0.17936 -0.064009 0.084805 0.092302 -0.13612 -0.14111 0.099544 0.10365 -0.010447 0.042634 -0.033547 -0.12622 0.069886 0.12868 -0.19527 0.039377 -0.065093 -0.022734 0.085822 0.095366 0.11701 -0.064453 0.056258 -0.016362 -0.031484 -0.055028 -0.047654 0.028893 0.015731 -0.076696 0.015676 -0.17677 0.19391 0.10948 0.11117 0.097179 -0.029825 -0.030813 0.14624 -0.045704 -0.088743 0.10487 -0.20407 -0.060796 -0.1032 -0.10637 -0.15705 -0.10476 -0.10342 0.11905 0.028352 -0.084651 0.019304 -0.16534 0.083341 0.022259 -0.022629 -0.1712 0.075879 0.036508 0.023964 -0.10652 -0.10996 0.34484 -0.016266 0.11007 -0.075817 -0.15156 0.074445 -0.025795 -0.035413 0.11654 -0.058529 0.0025066 0.13505 -0.0020398 -0.06822 0.017326 -0.11336 0.058666 -0.052334 0.087736 0.12291 -0.17614 -0.018665 -0.088826 0.10414 0.11411 0.029397 -0.054257 0.09127 0.082058 -0.050259 -0.034857 -0.051241 0.087079 -0.03777 -0.032573 0.077388 -0.189 -0.012448 -0.12594 0.11134 0.13605 -0.27982 -0.11516 0.12169 0.012969 -0.13792 0.065719 0.13537 -0.087217 -0.066544 -0.017869 -0.031462 0.070534 0.0090304 0.080374 0.082569 0.050993 -0.030148 -0.013808 0.14644 -0.013384 -0.017407 0.00041578 0.080785 -0.042858 0.02366 -0.089783 -0.030905 0.10744 -0.059744 -0.061495 -0.05942 0.13362 0.054025 0.098265 0.045028 -0.15882 0.17269 -0.12207 0.0058509 0.11283 -0.15459 -0.033176 -0.0602 0.013521 -0.13055 -0.026391 -0.093633 -0.080382 -0.10558 -0.038681 -0.034837 0.10864 -0.03199 -0.14011 -0.048377 -0.10435 -0.089687 -0.024394 0.025841 0.026228 0.013207 -0.0044665 -0.06431 -0.0058234 0.023544 -0.1433 0.05849 0.012041 -0.00019151 0.10812 -0.015516 -0.01626 0.017525 -0.016143 -0.013979 -0.014491 0.1151 -0.00052305 0.057175 -0.06472 0.024811 -0.14322 0.043899 0.046805 -0.11905 -0.039705 -0.079967 0.021727 -0.1184 0.1368 0.021794 0.0089563 -0.044568 0.027966 -0.011576 0.0041221 0.033285 0.029774 0.0042948 0.054543 -0.043766 0.033915 
<prn> -0.12211 0.036494 -0.020666 0.025799 0.037558 0.054339 -0.044477 0.041467 0.062061 -0.013658 0.11963 -0.04662 0.15203 -0.023184 -0.10698 0.19484 0.15063 0.045991 -0.0002416 -0.011361 0.13384 0.014697 0.067506 -0.15327 -0.044053 -0.013416 0.055203 -0.026683 -0.083051 0.13338 0.040162 0.12607 0.023385 -0.13517 -0.074508 0.017309 0.032174 -0.31953 0.05871 -0.035254 0.16938 0.079268 -0.053908 0.009855 -0.015529 -0.021809 -0.013688 0.070663 -0.0048853 0.006257 0.084059 0.068679 0.098227 -0.044784 0.10782 -0.079948 -0.15118 0.15619 0.029871 0.17882 0.057067 0.1654 -0.031026 0.046721 -0.10249 -0.1116 -0.010686 0.00071538 -0.11794 -0.07294 0.01445 -0.040334 -0.022913 0.054484 -0.21499 -0.13192 -0.084164 0.02921 -0.044923 0.094937 -0.11474 -0.068658 0.0086907 -0.039496 -0.066442 -0.068307 -0.031192 0.0031934 -0.026695 0.027497 -0.0086222 -0.060035 0.067273 -0.031536 0.1852 -0.066481 0.087221 0.096181 -0.1408 -0.14745 0.10384 0.1075 -0.011398 0.043252 -0.034985 -0.13289 0.072192 0.1325 -0.20285 0.040908 -0.068902 -0.023493 0.090153 0.10028 0.12109 -0.06617 0.057828 -0.016001 -0.032785 -0.055977 -0.048546 0.030126 0.015539 -0.079626 0.016633 -0.18363 0.202 0.11406 0.11451 0.10163 -0.031945 -0.03206 0.15312 -0.048122 -0.09065 0.10819 -0.2115 -0.062601 -0.10791 -0.10994 -0.16257 -0.10855 -0.10795 0.1234 0.030074 -0.087774 0.018976 -0.17178 0.086827 0.022088 -0.02466 -0.1783 0.080333 0.036267 0.024754 -0.11031 -0.11415 0.35857 -0.016041 0.11449 -0.079181 -0.15833 0.076723 -0.025691 -0.036316 0.12006 -0.06045 0.0030901 0.14057 -0.002044 -0.070198 0.018313 -0.11675 0.060596 -0.053242 0.091235 0.12814 -0.18297 -0.01888 -0.093239 0.10815 0.11894 0.030207 -0.058117 0.094614 0.086349 -0.052825 -0.036996 -0.053493 0.090126 -0.039893 -0.034026 0.080064 -0.19592 -0.012266 -0.13155 0.11638 0.14238 -0.29078 -0.11864 0.1261 0.012223 -0.14454 0.067909 0.13978 -0.090894 -0.069415 -0.017902 -0.033156 0.073695 0.010111 0.083607 0.085118 0.051292 -0.031076 -0.013401 0.15291 -0.013646 -0.018368 2.9252e-05 0.084679 -0.043807 0.024237 -0.094383 -0.031886 0.11103 -0.062394 -0.063866 -0.061382 0.13952 0.057754 0.10155 0.04716 -0.16594 0.17942 -0.1262 0.0045146 0.1163 -0.1593 -0.03517 -0.063401 0.014377 -0.13619 -0.027672 -0.096901 -0.084484 -0.11074 -0.040878 -0.037279 0.1126 -0.034204 -0.14466 -0.05004 -0.10932 -0.093911 -0.025798 0.027757 0.026905 0.014056 -0.0049568 -0.066167 -0.0057097 0.025254 -0.1497 0.060702 0.011657 -0.00070785 0.11323 -0.016555 -0.016333 0.017789 -0.017254 -0.015005 -0.016038 0.11903 0.00074671 0.058698 -0.06735 0.026692 -0.14806 0.045842 0.049671 -0.12316 -0.041885 -0.082393 0.022187 -0.1237 0.14115 0.022631 0.0083591 -0.045573 0.029241 -0.01151 0.0037411 0.034077 0.030323 0.004269 0.057427 -0.04504 0.036428 
<loc> -0.10379 0.031486 -0.016743 0.021998 0.031189 0.046595 -0.03838 0.034166 0.05308 -0.010732 0.10113 -0.038837 0.12991 -0.019654 -0.089651 0.16669 0.12831 0.039801 -0.00080815 -0.0098738 0.11393 0.01177 0.058286 -0.12988 -0.037869 -0.011245 0.047793 -0.022877 -0.070654 0.11305 0.033819 0.10717 0.020058 -0.11476 -0.062633 0.014803 0.026979 -0.27262 0.04976 -0.029572 0.14366 0.067807 -0.04541 0.0088126 -0.012665 -0.018873 -0.011496 0.060056 -0.0049343 0.0057906 0.071019 0.058178 0.084587 -0.038797 0.09281 -0.068416 -0.12815 0.13265 0.025084 0.15205 0.048706 0.14018 -0.025456 0.040008 -0.087157 -0.094826 -0.010057 -0.00023795 -0.10133 -0.062073 0.011047 -0.035316 -0.018903 0.047747 -0.18394 -0.11311 -0.072291 0.02525 -0.038254 0.081314 -0.09859 -0.058654 0.0074594 -0.034217 -0.05634 -0.057578 -0.027001 0.0028892 -0.021586 0.024799 -0.0070117 -0.052024 0.057887 -0.026418 0.15811 -0.056582 0.074862 0.082641 -0.11943 -0.1255 0.087715 0.091912 -0.0087337 0.037246 -0.029933 -0.11298 0.061447 0.11283 -0.17261 0.034145 -0.058262 -0.019401 0.076235 0.084561 0.10356 -0.056791 0.048902 -0.014935 -0.027316 -0.049048 -0.042048 0.024958 0.014052 -0.066674 0.014246 -0.15662 0.17203 0.097397 0.098324 0.087813 -0.027079 -0.028196 0.13034 -0.040205 -0.077724 0.091833 -0.18118 -0.052225 -0.091862 -0.094586 -0.13839 -0.091459 -0.091265 0.10502 0.024806 -0.075404 0.016582 -0.14649 0.073748 0.019192 -0.02014 -0.15257 0.068312 0.031539 0.021961 -0.094642 -0.097625 0.30521 -0.014092 0.097599 -0.067091 -0.13483 0.064416 -0.02313 -0.031258 0.1035 -0.051231 0.0025068 0.11969 -0.001688 -0.059701 0.015353 -0.099169 0.050837 -0.044974 0.07752 0.10789 -0.15571 -0.01671 -0.078687 0.092925 0.10042 0.02579 -0.049645 0.080052 0.074071 -0.045415 -0.031212 -0.045327 0.076657 -0.033221 -0.029435 0.067891 -0.16718 -0.010378 -0.11142 0.097833 0.12106 -0.24651 -0.1014 0.1074 0.01068 -0.1224 0.05787 0.11946 -0.077208 -0.058491 -0.016394 -0.027731 0.063382 0.0081455 0.070468 0.073405 0.04458 -0.026047 -0.01134 0.13022 -0.011254 -0.015994 -1.1297e-05 0.071834 -0.037769 0.021301 -0.080316 -0.026828 0.094566 -0.053497 -0.053526 -0.051621 0.11959 0.048228 0.08541 0.040036 -0.14046 0.15372 -0.10743 0.0037786 0.098923 -0.13553 -0.029931 -0.054596 0.012311 -0.11533 -0.023123 -0.082791 -0.071848 -0.093155 -0.034782 -0.032416 0.095968 -0.028489 -0.12416 -0.042779 -0.092647 -0.080098 -0.021371 0.023334 0.021658 0.011858 -0.0044071 -0.056817 -0.0055144 0.020922 -0.12606 0.051917 0.010354 0.00042175 0.096945 -0.015327 -0.014754 0.014926 -0.014872 -0.012028 -0.013672 0.10024 -9.7391e-06 0.050286 -0.057646 0.022835 -0.12667 0.037904 0.042039 -0.10481 -0.03525 -0.071351 0.019547 -0.10574 0.1215 0.01818 0.0081644 -0.038815 0.025043 -0.0090661 0.0037101 0.02884 0.026134 0.0037468 0.048756 -0.038056 0.030351 
<num> -0.10759 0.03146 -0.016823 0.023133 0.032724 0.046755 -0.039262 0.036976 0.05461 -0.011628 0.10578 -0.040915 0.13351 -0.020397 -0.093753 0.17218 0.13214 0.040749 -0.00096926 -0.0089745 0.11805 0.012935 0.059912 -0.13437 -0.039117 -0.011602 0.049302 -0.023475 -0.073045 0.11675 0.035359 0.1104 0.020677 -0.11918 -0.066177 0.01453 0.028463 -0.28192 0.052157 -0.030438 0.14886 0.070043 -0.04689 0.0081947 -0.012639 -0.019039 -0.012604 0.06314 -0.0053468 0.0062325 0.073062 0.060789 0.087491 -0.039346 0.095193 -0.071666 -0.13336 0.13711 0.026741 0.15741 0.049952 0.14726 -0.02684 0.040869 -0.089795 -0.09845 -0.010008 0.00027349 -0.10464 -0.064592 0.012836 -0.03648 -0.02008 0.049158 -0.19108 -0.11639 -0.074828 0.026002 -0.040761 0.083927 -0.10177 -0.060484 0.0076076 -0.034864 -0.059705 -0.06003 -0.027806 0.0033696 -0.023514 0.0259 -0.0070349 -0.053381 0.061052 -0.027682 0.16363 -0.05829 0.077085 0.085081 -0.12445 -0.12994 0.090344 0.09525 -0.010069 0.039059 -0.030216 -0.1161 0.063443 0.11684 -0.17992 0.036085 -0.059684 -0.020361 0.078996 0.088592 0.10767 -0.058314 0.05047 -0.014616 -0.028231 -0.050152 -0.042596 0.026181 0.01488 -0.069891 0.014236 -0.16179 0.17791 0.10078 0.10211 0.088527 -0.027272 -0.028803 0.13477 -0.041545 -0.080839 0.096107 -0.18722 -0.054596 -0.094989 -0.097487 -0.14395 -0.094749 -0.09578 0.10985 0.027053 -0.078505 0.017768 -0.15223 0.075862 0.020179 -0.021959 -0.15818 0.070226 0.032611 0.021822 -0.097515 -0.10088 0.31728 -0.013277 0.10113 -0.06945 -0.14019 0.066644 -0.023327 -0.032532 0.10783 -0.053908 0.0029334 0.12394 -0.00184 -0.061776 0.015524 -0.103 0.053323 -0.047562 0.080779 0.11188 -0.16146 -0.01771 -0.081809 0.096034 0.10456 0.027228 -0.050478 0.082635 0.075497 -0.046487 -0.031681 -0.046885 0.079394 -0.035171 -0.030051 0.070674 -0.17374 -0.011261 -0.11565 0.1025 0.12473 -0.25574 -0.1056 0.11232 0.011489 -0.12642 0.059422 0.1232 -0.080246 -0.061392 -0.016321 -0.029955 0.064818 0.0090095 0.073745 0.076236 0.046119 -0.028129 -0.012369 0.13431 -0.012128 -0.016441 -0.00022943 0.07524 -0.039432 0.021848 -0.082741 -0.028691 0.097844 -0.054618 -0.055691 -0.053698 0.12263 0.049627 0.089139 0.041594 -0.1458 0.15895 -0.11324 0.0034195 0.10163 -0.14099 -0.031466 -0.056676 0.013138 -0.11898 -0.023551 -0.086326 -0.073861 -0.097986 -0.036936 -0.03343 0.099959 -0.030036 -0.12777 -0.043958 -0.096661 -0.083272 -0.022509 0.023783 0.023503 0.012431 -0.0046222 -0.058359 -0.0055784 0.021445 -0.13191 0.053467 0.010537 -0.00075433 0.099318 -0.014863 -0.014956 0.016138 -0.014897 -0.014415 -0.014129 0.10414 0.00095191 0.052056 -0.058306 0.022396 -0.13199 0.041191 0.043958 -0.10876 -0.036545 -0.073544 0.019305 -0.10966 0.12484 0.019718 0.0083628 -0.039813 0.025746 -0.0097864 0.0029153 0.030632 0.027006 0.004158 0.050323 -0.040628 0.031321 
<cop> -0.10948 0.032934 -0.018472 0.023134 0.032733 0.049002 -0.038954 0.035953 0.055414 -0.011165 0.10698 -0.042269 0.13593 -0.020388 -0.09488 0.1752 0.13345 0.040959 -0.00032734 -0.010395 0.11917 0.01305 0.060554 -0.13694 -0.039691 -0.012809 0.04985 -0.023634 -0.07357 0.11923 0.035215 0.11259 0.020975 -0.12048 -0.065855 0.01459 0.029611 -0.28583 0.052467 -0.031423 0.15144 0.070643 -0.048217 0.0079962 -0.013164 -0.019059 -0.012088 0.063273 -0.0058125 0.0050454 0.074229 0.061495 0.088143 -0.039345 0.097084 -0.071753 -0.13542 0.13939 0.027722 0.15984 0.050143 0.14847 -0.027964 0.040997 -0.090752 -0.099939 -0.010906 0.00040483 -0.10555 -0.06573 0.012972 -0.0362 -0.020079 0.049304 -0.19277 -0.11799 -0.075195 0.026703 -0.040101 0.08549 -0.10389 -0.061066 0.0078702 -0.034245 -0.058837 -0.061434 -0.027353 0.0031297 -0.02365 0.025449 -0.007508 -0.053239 0.061188 -0.02754 0.16589 -0.059001 0.078767 0.0868 -0.12545 -0.13205 0.092132 0.095923 -0.0087021 0.038634 -0.031795 -0.11794 0.064485 0.11859 -0.18143 0.036081 -0.060645 -0.020109 0.08006 0.089071 0.10766 -0.059945 0.051238 -0.015088 -0.029733 -0.051475 -0.044079 0.027296 0.013799 -0.070822 0.014113 -0.16492 0.17986 0.10183 0.10361 0.091174 -0.028751 -0.028937 0.13648 -0.041236 -0.081883 0.097501 -0.19052 -0.055638 -0.096662 -0.098245 -0.14403 -0.096514 -0.096553 0.10993 0.026763 -0.078669 0.016587 -0.15308 0.077119 0.020093 -0.02178 -0.15963 0.071174 0.034182 0.021851 -0.09807 -0.10234 0.31973 -0.014607 0.10305 -0.070609 -0.14058 0.068651 -0.022594 -0.033008 0.10792 -0.053989 0.002654 0.12535 -0.0022097 -0.062916 0.016979 -0.10443 0.055121 -0.04749 0.081719 0.11317 -0.16348 -0.016686 -0.082935 0.097771 0.1059 0.027926 -0.05217 0.084444 0.076124 -0.047699 -0.032256 -0.048415 0.08065 -0.035965 -0.03071 0.071042 -0.17601 -0.01134 -0.11736 0.10286 0.12589 -0.25976 -0.10614 0.1127 0.011107 -0.12967 0.061037 0.12478 -0.081332 -0.062659 -0.016049 -0.029472 0.066735 0.0084575 0.074748 0.076452 0.047096 -0.028987 -0.011789 0.13685 -0.012727 -0.016022 -4.9007e-05 0.075659 -0.039449 0.022068 -0.08394 -0.028627 0.09843 -0.056082 -0.056662 -0.054234 0.12511 0.051008 0.091119 0.042042 -0.14705 0.15995 -0.11295 0.004823 0.10378 -0.14239 -0.031313 -0.057005 0.013053 -0.12181 -0.02444 -0.086391 -0.075045 -0.097789 -0.036627 -0.033857 0.101 -0.030331 -0.12984 -0.045156 -0.096623 -0.083646 -0.02225 0.025002 0.024187 0.012399 -0.0044621 -0.060449 -0.0064627 0.021964 -0.13262 0.054013 0.010021 -0.0010156 0.10086 -0.014921 -0.015338 0.016518 -0.015651 -0.013073 -0.014847 0.10605 0.00066674 0.052522 -0.060089 0.022586 -0.13292 0.040738 0.043347 -0.11141 -0.036406 -0.074788 0.019513 -0.10965 0.12702 0.019733 0.0083677 -0.040356 0.025161 -0.010381 0.0020667 0.030548 0.027619 0.0044028 0.050983 -0.040442 0.032981 
<vaux> -0.098906 0.029568 -0.016403 0.020557 0.0297 0.043897 -0.035806 0.033043 0.049947 -0.010198 0.096783 -0.03839 0.12333 -0.01793 -0.085922 0.15767 0.12095 0.036746 -0.0013983 -0.0095224 0.10766 0.012836 0.054595 -0.1239 -0.036779 -0.01211 0.045125 -0.022231 -0.066851 0.10804 0.03173 0.10158 0.018519 -0.1098 -0.060587 0.013502 0.026326 -0.2587 0.047611 -0.029247 0.13715 0.063377 -0.042368 0.0069971 -0.012224 -0.017391 -0.011966 0.057157 -0.0046081 0.0058547 0.067354 0.054975 0.080263 -0.036111 0.087618 -0.064463 -0.12103 0.12654 0.024372 0.14385 0.046089 0.13491 -0.024391 0.037328 -0.082399 -0.089538 -0.0092686 0.00019935 -0.095406 -0.059224 0.011082 -0.033138 -0.018598 0.044278 -0.17374 -0.10724 -0.067551 0.023938 -0.036641 0.077215 -0.093327 -0.055059 0.0079873 -0.030299 -0.053461 -0.055463 -0.025854 0.0022708 -0.020796 0.022509 -0.0064435 -0.047751 0.055208 -0.02588 0.15042 -0.053796 0.070542 0.07898 -0.11374 -0.11823 0.084168 0.086669 -0.0082136 0.034549 -0.028309 -0.10689 0.058662 0.1068 -0.16369 0.032338 -0.05438 -0.018823 0.071711 0.081322 0.097857 -0.053342 0.046986 -0.0139 -0.025113 -0.045777 -0.039159 0.023252 0.012343 -0.063642 0.012264 -0.14831 0.16293 0.091717 0.093479 0.081194 -0.025085 -0.026439 0.12299 -0.038123 -0.073363 0.0878 -0.17133 -0.050601 -0.086754 -0.089232 -0.13095 -0.087364 -0.087313 0.1002 0.023592 -0.070867 0.01584 -0.13845 0.07055 0.018677 -0.019041 -0.14402 0.063326 0.030323 0.020511 -0.089767 -0.091277 0.28991 -0.012777 0.092034 -0.063338 -0.12646 0.062082 -0.021738 -0.030618 0.09798 -0.048547 0.0031462 0.11295 -0.0019133 -0.05701 0.01454 -0.094747 0.049291 -0.043023 0.074476 0.10219 -0.14722 -0.015488 -0.07466 0.088163 0.096207 0.024013 -0.046265 0.077092 0.069128 -0.043098 -0.029542 -0.043328 0.073285 -0.032794 -0.027477 0.065319 -0.15831 -0.011372 -0.10571 0.093362 0.11438 -0.2347 -0.096232 0.10249 0.01017 -0.1158 0.054402 0.11282 -0.073665 -0.056134 -0.01475 -0.026811 0.059628 0.0076763 0.066547 0.06919 0.042147 -0.02573 -0.011063 0.12327 -0.010957 -0.014338 0.00026287 0.067363 -0.036171 0.02025 -0.075386 -0.026021 0.089872 -0.050097 -0.051994 -0.049829 0.11249 0.045898 0.082301 0.038236 -0.13337 0.14531 -0.10229 0.0046078 0.093412 -0.12874 -0.027704 -0.050926 0.011714 -0.10886 -0.022658 -0.077749 -0.067365 -0.088465 -0.033093 -0.030209 0.090217 -0.02717 -0.11683 -0.040369 -0.088428 -0.076023 -0.020009 0.02166 0.020562 0.010915 -0.0043852 -0.053848 -0.0044622 0.019549 -0.12024 0.049731 0.010083 -0.0012727 0.091366 -0.013718 -0.013447 0.014794 -0.01372 -0.011518 -0.013485 0.095672 -0.00044075 0.047526 -0.053382 0.021248 -0.12029 0.036512 0.039175 -0.10038 -0.033359 -0.065917 0.017929 -0.099178 0.11499 0.018244 0.0064386 -0.037211 0.022436 -0.0093753 0.0025261 0.027671 0.024168 0.0041647 0.046363 -0.036706 0.029175 
<abl> -0.10724 0.03188 -0.017264 0.022781 0.031756 0.04712 -0.039624 0.035761 0.055317 -0.010597 0.10451 -0.041102 0.13324 -0.020384 -0.093714 0.17184 0.13027 0.039711 -0.0010292 -0.0093129 0.11665 0.013154 0.059717 -0.13372 -0.039375 -0.012615 0.049163 -0.023928 -0.071953 0.11601 0.034805 0.10983 0.020186 -0.11807 -0.065753 0.015082 0.027434 -0.28093 0.051615 -0.031609 0.14799 0.068309 -0.047363 0.0085606 -0.013345 -0.018751 -0.011665 0.061738 -0.0054931 0.0055421 0.073913 0.060125 0.087081 -0.039681 0.09498 -0.07036 -0.13237 0.13643 0.025433 0.15612 0.051036 0.14556 -0.027439 0.041076 -0.089176 -0.097601 -0.0098701 0.0011357 -0.10376 -0.064398 0.011361 -0.035775 -0.019878 0.048363 -0.18898 -0.11575 -0.073309 0.026133 -0.040054 0.083341 -0.10078 -0.06078 0.0085018 -0.03492 -0.057704 -0.060216 -0.028148 0.0021882 -0.023598 0.025001 -0.0065344 -0.053479 0.059416 -0.02778 0.16239 -0.057744 0.076362 0.084243 -0.12281 -0.12861 0.090783 0.094968 -0.0099152 0.038025 -0.029798 -0.11537 0.064014 0.1163 -0.17827 0.036296 -0.059445 -0.021462 0.079318 0.087316 0.10604 -0.059235 0.050982 -0.014355 -0.029209 -0.04944 -0.043202 0.025375 0.013246 -0.069825 0.013508 -0.16071 0.17791 0.099559 0.10135 0.088772 -0.02727 -0.028582 0.13358 -0.041163 -0.079697 0.094668 -0.18617 -0.053979 -0.094924 -0.096899 -0.14156 -0.094066 -0.093827 0.10911 0.025654 -0.076976 0.016499 -0.15096 0.076102 0.020419 -0.021154 -0.15564 0.069762 0.032439 0.021343 -0.096787 -0.099504 0.31494 -0.013476 0.099333 -0.069525 -0.13898 0.067343 -0.023104 -0.032436 0.10622 -0.052752 0.0023155 0.12308 -0.0016329 -0.062074 0.015805 -0.10347 0.053141 -0.046578 0.080204 0.11211 -0.15966 -0.01704 -0.081708 0.094581 0.10422 0.02681 -0.051318 0.083775 0.075259 -0.046881 -0.031474 -0.046913 0.079892 -0.034982 -0.02958 0.070389 -0.1714 -0.011426 -0.11383 0.10181 0.12403 -0.25464 -0.10446 0.11095 0.010948 -0.12644 0.059362 0.12265 -0.079537 -0.061304 -0.015932 -0.029458 0.065349 0.0077989 0.073868 0.074348 0.045295 -0.026809 -0.01076 0.13308 -0.012795 -0.017115 0.00091674 0.07308 -0.039894 0.02189 -0.082329 -0.027754 0.097062 -0.054067 -0.055369 -0.05401 0.12227 0.049609 0.089669 0.040808 -0.14458 0.1577 -0.11087 0.0048319 0.10214 -0.14008 -0.030668 -0.055629 0.013176 -0.11893 -0.023722 -0.085207 -0.073452 -0.096436 -0.035296 -0.033674 0.098039 -0.030482 -0.12689 -0.04321 -0.095329 -0.082539 -0.021852 0.023173 0.023646 0.012672 -0.0045027 -0.058966 -0.0063969 0.022075 -0.13086 0.053371 0.010357 -0.00046077 0.099296 -0.014532 -0.015523 0.015252 -0.015386 -0.012884 -0.014316 0.10399 -5.3568e-05 0.051144 -0.057576 0.022831 -0.12994 0.039561 0.043114 -0.10853 -0.036303 -0.072865 0.019593 -0.1081 0.12408 0.020226 0.0072556 -0.038869 0.024986 -0.00956 0.003776 0.029658 0.027298 0.004717 0.050706 -0.038831 0.031596 
<pass> -0.09849 0.029902 -0.016241 0.02027 0.029704 0.043884 -0.03676 0.033681 0.049352 -0.010628 0.096019 -0.037647 0.12227 -0.018609 -0.085989 0.15811 0.121 0.036916 -0.00032222 -0.0094079 0.10756 0.012372 0.054524 -0.12323 -0.03531 -0.01075 0.04477 -0.022326 -0.066545 0.10712 0.031907 0.10121 0.018864 -0.10941 -0.060085 0.013196 0.025598 -0.2572 0.047749 -0.02895 0.13613 0.063715 -0.042805 0.0074101 -0.011844 -0.018333 -0.011625 0.057571 -0.0050431 0.0052041 0.06834 0.054422 0.080068 -0.036277 0.087524 -0.063885 -0.1221 0.1256 0.024586 0.14374 0.045207 0.13322 -0.02488 0.037728 -0.081773 -0.090125 -0.0087472 0.00072607 -0.095083 -0.059013 0.01119 -0.032828 -0.017942 0.045262 -0.17347 -0.10712 -0.067814 0.023033 -0.036585 0.076621 -0.092988 -0.054831 0.0072867 -0.031886 -0.053875 -0.054526 -0.024711 0.002451 -0.02056 0.022029 -0.0059278 -0.048912 0.054962 -0.024706 0.14956 -0.053549 0.069931 0.077827 -0.11278 -0.11902 0.083251 0.087186 -0.0090967 0.03599 -0.027769 -0.10589 0.057798 0.1064 -0.1637 0.033088 -0.0548 -0.018368 0.072223 0.080608 0.09814 -0.053213 0.045936 -0.013177 -0.026062 -0.045771 -0.039447 0.023531 0.011909 -0.063923 0.012787 -0.14848 0.16261 0.092517 0.092981 0.082196 -0.02515 -0.026207 0.1229 -0.037719 -0.073532 0.087556 -0.17007 -0.049833 -0.086267 -0.088952 -0.13135 -0.087303 -0.087345 0.10006 0.023204 -0.071677 0.014773 -0.13779 0.069009 0.018226 -0.019902 -0.14309 0.063633 0.029834 0.020312 -0.089441 -0.092301 0.28856 -0.01248 0.092602 -0.064224 -0.12796 0.061614 -0.021394 -0.029413 0.098047 -0.048082 0.0023553 0.11322 -0.0020471 -0.056652 0.014428 -0.093853 0.048956 -0.043489 0.073082 0.10281 -0.14805 -0.015376 -0.073836 0.087707 0.095943 0.024541 -0.04668 0.076229 0.069569 -0.042907 -0.028903 -0.043087 0.073139 -0.032127 -0.027413 0.065546 -0.15818 -0.010167 -0.10504 0.093082 0.11404 -0.23349 -0.096184 0.10208 0.010279 -0.11569 0.055044 0.11298 -0.073594 -0.056754 -0.01463 -0.027028 0.060052 0.007619 0.067438 0.068884 0.041762 -0.025395 -0.010983 0.12271 -0.01061 -0.015114 -0.00021457 0.067585 -0.036105 0.020008 -0.075442 -0.025728 0.089456 -0.049953 -0.050765 -0.048806 0.11264 0.046159 0.080968 0.037808 -0.13234 0.1448 -0.10215 0.0040266 0.09383 -0.12845 -0.027473 -0.051112 0.011778 -0.10983 -0.021989 -0.078646 -0.067409 -0.088942 -0.033279 -0.029895 0.091064 -0.026704 -0.1166 -0.040138 -0.087897 -0.07623 -0.020704 0.022015 0.021199 0.010344 -0.0039036 -0.053574 -0.0051107 0.019955 -0.12022 0.048933 0.0088592 -0.0011527 0.090587 -0.013912 -0.013425 0.014298 -0.013978 -0.012299 -0.012195 0.096084 0.00039959 0.046905 -0.053544 0.020911 -0.11949 0.036322 0.03942 -0.099162 -0.033321 -0.067124 0.018276 -0.10046 0.11384 0.018879 0.0069049 -0.036745 0.02278 -0.0096649 0.0030524 0.02728 0.02505 0.0033978 0.04584 -0.036132 0.029307 
<cnjcoo> -0.098167 0.02979 -0.016376 0.020612 0.028986 0.043681 -0.035258 0.032441 0.049031 -0.0099095 0.096485 -0.037766 0.12205 -0.018149 -0.085522 0.15821 0.12077 0.037525 -0.00094566 -0.0087777 0.10772 0.011895 0.054632 -0.12297 -0.036232 -0.011351 0.044684 -0.021338 -0.066403 0.10684 0.031756 0.10098 0.019047 -0.10878 -0.060338 0.014022 0.025781 -0.25715 0.047204 -0.02894 0.13646 0.063845 -0.043243 0.0081222 -0.011666 -0.017352 -0.01128 0.056395 -0.0048716 0.0055608 0.067377 0.054648 0.0802 -0.036284 0.086992 -0.06475 -0.12139 0.12534 0.024288 0.14333 0.045108 0.13311 -0.024595 0.037701 -0.08177 -0.089801 -0.0090179 0.00014136 -0.094886 -0.059302 0.011582 -0.032969 -0.018154 0.044939 -0.17314 -0.10683 -0.067884 0.023457 -0.036449 0.077089 -0.093021 -0.05549 0.00774 -0.030847 -0.053554 -0.055072 -0.025065 0.0016667 -0.021031 0.022675 -0.0068558 -0.048773 0.054862 -0.025006 0.14944 -0.053454 0.070868 0.077348 -0.11311 -0.11844 0.083604 0.086075 -0.0085777 0.035294 -0.027827 -0.10564 0.057638 0.10675 -0.16357 0.032188 -0.05516 -0.018631 0.071741 0.080391 0.097485 -0.053194 0.046674 -0.014348 -0.026149 -0.046398 -0.039441 0.024471 0.012681 -0.063175 0.012346 -0.14772 0.16235 0.091997 0.092065 0.081641 -0.025304 -0.026275 0.12286 -0.038348 -0.073417 0.08771 -0.17052 -0.050318 -0.086841 -0.089256 -0.13039 -0.086687 -0.086991 0.099967 0.024104 -0.070124 0.015293 -0.13828 0.069745 0.018519 -0.019731 -0.14365 0.063264 0.02963 0.020209 -0.088853 -0.091938 0.28827 -0.012834 0.091908 -0.063643 -0.12648 0.061552 -0.02094 -0.02998 0.097812 -0.048869 0.002337 0.1133 -0.0018512 -0.056022 0.014187 -0.094042 0.048656 -0.043473 0.073744 0.1026 -0.14714 -0.01561 -0.074317 0.086477 0.095488 0.024406 -0.046053 0.076069 0.068918 -0.042898 -0.029706 -0.043193 0.072871 -0.032954 -0.027589 0.064386 -0.15771 -0.010509 -0.10584 0.093665 0.114 -0.23375 -0.095783 0.10197 0.010603 -0.11538 0.054687 0.1131 -0.073054 -0.055292 -0.014718 -0.027388 0.059676 0.0078945 0.067215 0.069456 0.041394 -0.024349 -0.011161 0.12263 -0.011268 -0.014505 0.00035364 0.067683 -0.035942 0.020067 -0.075844 -0.026574 0.089808 -0.049913 -0.050997 -0.048949 0.11221 0.04597 0.081197 0.038184 -0.13325 0.14467 -0.10206 0.0041729 0.093705 -0.12851 -0.028382 -0.051301 0.011946 -0.10932 -0.021849 -0.07805 -0.067009 -0.088741 -0.032453 -0.030277 0.090327 -0.027355 -0.116 -0.04042 -0.086985 -0.074935 -0.021036 0.021856 0.021237 0.011141 -0.0038388 -0.053822 -0.0053706 0.019455 -0.12001 0.049068 0.0089695 -0.0010467 0.090372 -0.013518 -0.013951 0.014199 -0.013545 -0.012372 -0.012783 0.096129 8.3768e-05 0.047182 -0.053658 0.020682 -0.11972 0.036878 0.039751 -0.099476 -0.03323 -0.066673 0.017808 -0.099587 0.114 0.018216 0.0065964 -0.03611 0.023635 -0.0090377 0.0031049 0.027166 0.02494 0.0038597 0.045467 -0.036708 0.028776 
<adv> -0.13006 0.039365 -0.022601 0.026799 0.037912 0.057744 -0.047403 0.043621 0.064824 -0.013317 0.12652 -0.049491 0.16206 -0.024946 -0.1133 0.20906 0.15941 0.048297 -0.00023201 -0.012486 0.14092 0.014949 0.071738 -0.16252 -0.047243 -0.014423 0.059522 -0.028948 -0.087485 0.14077 0.042631 0.13314 0.02529 -0.143 -0.079185 0.018053 0.033815 -0.33888 0.062674 -0.037507 0.17934 0.084403 -0.056686 0.010503 -0.016285 -0.024051 -0.015029 0.074539 -0.0065121 0.0076976 0.088889 0.072434 0.10494 -0.047394 0.11496 -0.085567 -0.15939 0.16582 0.030498 0.18997 0.059828 0.17537 -0.032433 0.04943 -0.10873 -0.11793 -0.012288 0.0011601 -0.12521 -0.078447 0.014957 -0.043574 -0.024003 0.058385 -0.22897 -0.13949 -0.088193 0.029941 -0.04743 0.10102 -0.12109 -0.072409 0.010388 -0.042539 -0.070856 -0.072342 -0.032989 0.0033006 -0.028615 0.030988 -0.0089121 -0.064232 0.071022 -0.033036 0.19717 -0.069707 0.092994 0.10166 -0.14907 -0.15641 0.10917 0.11491 -0.012693 0.046298 -0.036228 -0.14065 0.077207 0.1402 -0.2163 0.04246 -0.072696 -0.025427 0.09554 0.10571 0.12791 -0.071061 0.060306 -0.018102 -0.035261 -0.060971 -0.051565 0.032135 0.016338 -0.08418 0.016663 -0.19561 0.21453 0.12074 0.12199 0.10824 -0.033771 -0.034933 0.16174 -0.049513 -0.097628 0.11437 -0.22471 -0.066143 -0.11497 -0.11711 -0.17204 -0.11455 -0.11528 0.13166 0.031555 -0.093388 0.020503 -0.18198 0.091564 0.024476 -0.025278 -0.1888 0.084043 0.039843 0.027166 -0.1176 -0.12143 0.37984 -0.0163 0.1213 -0.084117 -0.16688 0.080839 -0.027629 -0.039157 0.12924 -0.064634 0.002906 0.14968 -0.0024787 -0.074005 0.01834 -0.12379 0.064218 -0.056304 0.097155 0.13533 -0.19432 -0.019558 -0.098309 0.11498 0.1261 0.032687 -0.061875 0.10036 0.091188 -0.056503 -0.039323 -0.056913 0.095302 -0.042561 -0.036507 0.084976 -0.2082 -0.013573 -0.1387 0.12245 0.15034 -0.30726 -0.12565 0.13419 0.014011 -0.15194 0.072329 0.14885 -0.095718 -0.072769 -0.018721 -0.036041 0.079059 0.010901 0.089263 0.091233 0.054651 -0.032362 -0.013253 0.16175 -0.014097 -0.019767 0.00052213 0.089205 -0.04609 0.027335 -0.099567 -0.033801 0.11817 -0.066983 -0.067753 -0.064847 0.14726 0.060285 0.10838 0.050127 -0.17513 0.19095 -0.13474 0.0059876 0.12334 -0.16974 -0.036918 -0.067842 0.016237 -0.14458 -0.02873 -0.10262 -0.087353 -0.11701 -0.043024 -0.039619 0.11902 -0.035966 -0.15364 -0.052428 -0.11569 -0.098476 -0.027285 0.02914 0.027967 0.014685 -0.0048426 -0.071441 -0.006043 0.02598 -0.15794 0.063783 0.012272 0.00040668 0.12002 -0.018077 -0.017652 0.018683 -0.018095 -0.016211 -0.01672 0.12558 -0.00030761 0.062295 -0.070917 0.027299 -0.15772 0.047892 0.052778 -0.13135 -0.043622 -0.087576 0.023981 -0.13156 0.1512 0.025024 0.0098924 -0.046764 0.03111 -0.011439 0.0036814 0.035135 0.032662 0.0058127 0.060098 -0.048437 0.038981 
<gna_perf> -0.11899 0.035854 -0.019857 0.02523 0.036102 0.052715 -0.0441 0.039602 0.060293 -0.012145 0.11629 -0.045373 0.14772 -0.02218 -0.1031 0.19044 0.14614 0.04452 -0.0009018 -0.010681 0.12965 0.014571 0.065351 -0.14915 -0.043051 -0.01389 0.054106 -0.026142 -0.080422 0.12972 0.038747 0.12234 0.023107 -0.13139 -0.072566 0.016708 0.031333 -0.31114 0.056827 -0.034872 0.16447 0.076964 -0.051855 0.0092749 -0.014829 -0.02167 -0.01354 0.068362 -0.0055256 0.0060654 0.081402 0.066149 0.09638 -0.043869 0.1058 -0.078408 -0.14714 0.15136 0.029214 0.17399 0.055125 0.16084 -0.029857 0.04536 -0.099384 -0.10901 -0.011088 0.00015284 -0.11505 -0.071569 0.014127 -0.039441 -0.021958 0.054316 -0.20973 -0.12915 -0.081727 0.02906 -0.044036 0.093131 -0.1127 -0.066424 0.0092589 -0.038342 -0.065319 -0.066274 -0.030257 0.0026657 -0.025692 0.027003 -0.0076416 -0.058869 0.066288 -0.029858 0.1808 -0.064695 0.085285 0.094766 -0.13729 -0.14383 0.10117 0.10466 -0.010699 0.042708 -0.034046 -0.12836 0.069911 0.12932 -0.1979 0.039665 -0.066402 -0.022533 0.086871 0.097233 0.11798 -0.064652 0.056581 -0.016212 -0.03116 -0.055546 -0.047881 0.0289 0.015469 -0.076605 0.015569 -0.17941 0.19655 0.11077 0.11283 0.099036 -0.030013 -0.031275 0.14944 -0.045779 -0.088608 0.10604 -0.20633 -0.060689 -0.10463 -0.10787 -0.15876 -0.10506 -0.10514 0.12079 0.029057 -0.085693 0.018956 -0.16733 0.084007 0.022273 -0.023614 -0.17388 0.077742 0.036176 0.02439 -0.10795 -0.1113 0.34885 -0.015876 0.11141 -0.077235 -0.15335 0.074536 -0.02583 -0.035544 0.1187 -0.058707 0.0030327 0.13733 -0.0019002 -0.06841 0.017421 -0.1135 0.059254 -0.051818 0.089568 0.12352 -0.17761 -0.018427 -0.090439 0.10554 0.11544 0.029806 -0.056678 0.092475 0.083503 -0.051633 -0.035685 -0.05238 0.087869 -0.039226 -0.033549 0.078082 -0.19079 -0.012755 -0.12712 0.11261 0.13812 -0.28268 -0.11545 0.12303 0.012502 -0.1403 0.06618 0.13617 -0.088546 -0.067453 -0.017764 -0.032055 0.071936 0.0098484 0.08059 0.08329 0.05079 -0.030178 -0.01265 0.14856 -0.013137 -0.017993 0.0001942 0.081817 -0.042881 0.024454 -0.091493 -0.030904 0.10791 -0.060899 -0.061613 -0.059687 0.13633 0.055677 0.098678 0.045717 -0.16067 0.17516 -0.12347 0.0051234 0.11281 -0.15533 -0.03451 -0.062038 0.014129 -0.13241 -0.02629 -0.094427 -0.081366 -0.10684 -0.039272 -0.036907 0.10923 -0.033244 -0.14073 -0.048611 -0.10616 -0.091315 -0.024632 0.026076 0.025746 0.01333 -0.0042577 -0.065238 -0.0060554 0.024568 -0.14474 0.059284 0.011477 -0.0009008 0.10999 -0.016177 -0.016523 0.01791 -0.016753 -0.014925 -0.015925 0.1158 0.00028331 0.057549 -0.065108 0.025207 -0.1449 0.043715 0.048248 -0.12005 -0.039917 -0.080409 0.021462 -0.11978 0.13843 0.021917 0.0087212 -0.044237 0.028311 -0.011001 0.0037629 0.033084 0.029785 0.0050497 0.055661 -0.044309 0.03535 
<det> -0.11647 0.034408 -0.019656 0.023472 0.035777 0.051045 -0.043096 0.038979 0.058535 -0.012636 0.1136 -0.044177 0.1442 -0.021643 -0.10123 0.18548 0.14242 0.043719 -0.0016314 -0.010615 0.12624 0.014228 0.064921 -0.14619 -0.041758 -0.013525 0.052844 -0.024624 -0.079053 0.12625 0.038258 0.1188 0.022233 -0.12791 -0.070363 0.015775 0.031078 -0.30343 0.05619 -0.033271 0.15998 0.074988 -0.051179 0.0087846 -0.014011 -0.021188 -0.013 0.066846 -0.0056666 0.0069928 0.08002 0.065238 0.09396 -0.042511 0.10265 -0.075801 -0.14299 0.14796 0.028257 0.16894 0.054209 0.15673 -0.028522 0.044574 -0.096268 -0.10578 -0.0096823 0.00082223 -0.11307 -0.06964 0.01365 -0.038331 -0.022078 0.053182 -0.20443 -0.12543 -0.079696 0.027451 -0.042553 0.090807 -0.10993 -0.064897 0.0091531 -0.036567 -0.063943 -0.064881 -0.03084 0.0032563 -0.02465 0.026451 -0.0073479 -0.058056 0.064687 -0.028964 0.17659 -0.062578 0.082967 0.092356 -0.13301 -0.14068 0.09804 0.10198 -0.010529 0.042798 -0.032812 -0.1249 0.068451 0.12539 -0.19261 0.039593 -0.065034 -0.021531 0.085549 0.093361 0.11435 -0.062514 0.054059 -0.016302 -0.031431 -0.053837 -0.045958 0.02917 0.015603 -0.074921 0.015105 -0.17406 0.19187 0.1092 0.10946 0.097081 -0.029505 -0.030491 0.14403 -0.045341 -0.087661 0.10192 -0.20092 -0.059286 -0.10218 -0.10421 -0.15332 -0.10168 -0.10205 0.11826 0.027966 -0.08209 0.01926 -0.16333 0.082537 0.021114 -0.024211 -0.16931 0.0754 0.034505 0.023573 -0.10521 -0.10854 0.34077 -0.015018 0.1084 -0.074898 -0.14958 0.07285 -0.025393 -0.036273 0.1154 -0.056959 0.0035587 0.13338 -0.0027941 -0.066071 0.016626 -0.11124 0.057609 -0.049822 0.087027 0.12129 -0.17346 -0.017518 -0.088011 0.10316 0.11184 0.028726 -0.054393 0.089915 0.082385 -0.050158 -0.034382 -0.050544 0.086296 -0.038337 -0.032823 0.076232 -0.18628 -0.012345 -0.12413 0.11018 0.13429 -0.27509 -0.11333 0.12021 0.012565 -0.13749 0.064825 0.13311 -0.085988 -0.06519 -0.017703 -0.031815 0.070513 0.0099056 0.078683 0.08082 0.049286 -0.029239 -0.012193 0.145 -0.01331 -0.016943 0.00050999 0.079481 -0.041237 0.023997 -0.089394 -0.029937 0.10577 -0.059581 -0.060166 -0.057436 0.13276 0.05488 0.096615 0.045237 -0.15657 0.17099 -0.11993 0.0045348 0.1102 -0.15119 -0.034142 -0.060827 0.014285 -0.12851 -0.027062 -0.091626 -0.078733 -0.10477 -0.038546 -0.035647 0.10686 -0.031895 -0.13815 -0.047543 -0.10344 -0.089339 -0.023715 0.026442 0.026387 0.012735 -0.0054151 -0.063947 -0.0062097 0.022873 -0.14143 0.057809 0.010871 -0.00013408 0.1073 -0.01566 -0.015588 0.016844 -0.015974 -0.01479 -0.014935 0.1129 0.00082637 0.055787 -0.062867 0.025047 -0.14048 0.04322 0.045672 -0.11762 -0.040458 -0.07878 0.020528 -0.11629 0.13495 0.021034 0.009578 -0.042867 0.028083 -0.0098338 0.0030082 0.032843 0.029901 0.0043098 0.054853 -0.042253 0.033312 
<dem> -0.10179 0.030578 -0.017041 0.021789 0.030454 0.043994 -0.037188 0.033263 0.051382 -0.010438 0.098801 -0.038934 0.12629 -0.018764 -0.088415 0.16276 0.12445 0.037862 -0.00083083 -0.009025 0.11091 0.012174 0.055583 -0.12743 -0.036733 -0.011094 0.046444 -0.022467 -0.068632 0.11044 0.033303 0.1039 0.018597 -0.11252 -0.061666 0.014071 0.02674 -0.26514 0.048741 -0.029122 0.13974 0.065652 -0.043925 0.0075581 -0.012733 -0.017498 -0.01168 0.059417 -0.0051957 0.0056278 0.070341 0.056932 0.082815 -0.036395 0.090071 -0.066083 -0.12437 0.12848 0.025477 0.14834 0.046835 0.13745 -0.025335 0.039478 -0.08323 -0.092886 -0.009302 0.0007194 -0.097852 -0.060396 0.011752 -0.033328 -0.018935 0.046021 -0.17939 -0.11022 -0.070378 0.023973 -0.037045 0.079428 -0.096067 -0.057279 0.0078303 -0.03263 -0.056219 -0.056495 -0.025793 0.0026555 -0.021757 0.023713 -0.0066725 -0.05007 0.057413 -0.025767 0.15374 -0.055726 0.073191 0.079288 -0.11681 -0.12291 0.085168 0.088264 -0.0086264 0.036923 -0.029053 -0.10906 0.060349 0.10962 -0.16825 0.033357 -0.057134 -0.019131 0.073541 0.082487 0.10143 -0.054366 0.047359 -0.014183 -0.026753 -0.04783 -0.040244 0.024347 0.012907 -0.065216 0.012842 -0.15153 0.16741 0.094351 0.09567 0.083817 -0.025536 -0.026702 0.12607 -0.038714 -0.075682 0.091004 -0.17641 -0.052237 -0.089265 -0.091583 -0.13384 -0.089108 -0.089726 0.10248 0.024887 -0.072082 0.01572 -0.1428 0.07186 0.018207 -0.02056 -0.14753 0.065596 0.030883 0.021569 -0.091592 -0.093737 0.29782 -0.01307 0.095584 -0.06507 -0.13082 0.063711 -0.021421 -0.031142 0.10094 -0.049924 0.0032992 0.11636 -0.0019213 -0.058124 0.015248 -0.096113 0.050704 -0.044931 0.076066 0.10494 -0.15213 -0.015934 -0.076621 0.090349 0.098707 0.025304 -0.047231 0.077421 0.071281 -0.043455 -0.03013 -0.044568 0.075217 -0.033221 -0.027742 0.066898 -0.16266 -0.010212 -0.10854 0.095911 0.11738 -0.24063 -0.098808 0.10572 0.010591 -0.11947 0.057221 0.11587 -0.075549 -0.057317 -0.015523 -0.027509 0.062105 0.0072003 0.068825 0.071089 0.042802 -0.025551 -0.011175 0.12684 -0.01132 -0.015178 5.9837e-05 0.070313 -0.03674 0.021193 -0.078722 -0.026763 0.092434 -0.051955 -0.052766 -0.049387 0.11558 0.048028 0.083964 0.038821 -0.13712 0.14863 -0.10431 0.0037034 0.096188 -0.13304 -0.029647 -0.053207 0.012395 -0.11257 -0.022225 -0.08074 -0.068926 -0.091259 -0.03378 -0.031071 0.094298 -0.027777 -0.11996 -0.041057 -0.09071 -0.077808 -0.021229 0.022924 0.021731 0.011256 -0.0045713 -0.055354 -0.0046298 0.020817 -0.1233 0.050001 0.0094342 -0.00039277 0.093838 -0.014352 -0.014491 0.014685 -0.014159 -0.012356 -0.01349 0.09744 0.00018562 0.048985 -0.055826 0.022199 -0.12374 0.037731 0.040884 -0.10314 -0.034068 -0.068858 0.017871 -0.10253 0.11741 0.019467 0.0080753 -0.037817 0.024726 -0.0089107 0.0022417 0.028975 0.025781 0.0035615 0.047404 -0.037112 0.029942 
<guio> -0.094574 0.029388 -0.016242 0.019663 0.0286 0.041298 -0.035012 0.031632 0.047246 -0.0099795 0.093049 -0.036697 0.1179 -0.017791 -0.082939 0.15225 0.11618 0.034547 -0.00033757 -0.0079914 0.10332 0.011094 0.052078 -0.11908 -0.03412 -0.011052 0.043179 -0.020448 -0.063162 0.10275 0.030751 0.097256 0.018036 -0.10475 -0.057862 0.012752 0.025017 -0.2475 0.045401 -0.026624 0.13114 0.060879 -0.041527 0.0074994 -0.011006 -0.01586 -0.01082 0.054831 -0.0046873 0.005258 0.065182 0.052472 0.075849 -0.035163 0.083361 -0.062134 -0.11604 0.12115 0.022482 0.13814 0.043455 0.12894 -0.023467 0.036589 -0.079016 -0.086539 -0.008651 0.000401 -0.091107 -0.056607 0.011029 -0.031114 -0.01711 0.043142 -0.16652 -0.10295 -0.063943 0.022242 -0.03512 0.07318 -0.089227 -0.052454 0.0074243 -0.030669 -0.051198 -0.052851 -0.024656 0.0021351 -0.019985 0.021382 -0.0064242 -0.046575 0.052685 -0.023399 0.14433 -0.051242 0.067397 0.075702 -0.10881 -0.11307 0.079998 0.083796 -0.0083503 0.033682 -0.026667 -0.1024 0.054939 0.10219 -0.15631 0.03145 -0.052321 -0.018212 0.068993 0.077391 0.093736 -0.052057 0.044275 -0.01241 -0.024959 -0.044158 -0.037986 0.022841 0.012282 -0.061053 0.012347 -0.14188 0.156 0.087566 0.088982 0.078983 -0.023179 -0.025107 0.1167 -0.036597 -0.07016 0.084087 -0.16448 -0.047726 -0.083417 -0.085675 -0.12553 -0.083928 -0.083225 0.095829 0.021792 -0.067666 0.014875 -0.13269 0.066855 0.018219 -0.017855 -0.13768 0.060737 0.029536 0.020462 -0.085341 -0.087807 0.27794 -0.011558 0.088541 -0.061574 -0.12181 0.058896 -0.02023 -0.028639 0.094191 -0.046556 0.0017983 0.10814 -0.0021755 -0.054457 0.013518 -0.090393 0.046876 -0.041765 0.07048 0.098421 -0.14156 -0.014808 -0.072061 0.083461 0.091712 0.022937 -0.043746 0.072183 0.066499 -0.040645 -0.028385 -0.04156 0.069578 -0.030949 -0.026378 0.062304 -0.15228 -0.010092 -0.10151 0.089389 0.10971 -0.22459 -0.091427 0.098271 0.010084 -0.11097 0.052812 0.10899 -0.070087 -0.053518 -0.014405 -0.025954 0.056634 0.0081517 0.064576 0.066457 0.040375 -0.024516 -0.010523 0.11761 -0.010122 -0.014362 0.00066418 0.065148 -0.033234 0.019966 -0.072269 -0.024369 0.086715 -0.048251 -0.049105 -0.047387 0.10787 0.04474 0.079233 0.036349 -0.12759 0.13904 -0.097368 0.0044433 0.089216 -0.12322 -0.026366 -0.049015 0.011499 -0.10563 -0.021318 -0.073685 -0.064586 -0.085107 -0.032049 -0.028286 0.087357 -0.025798 -0.11312 -0.038833 -0.084815 -0.072636 -0.019956 0.02022 0.020677 0.0099674 -0.0036676 -0.051398 -0.0043693 0.019611 -0.11487 0.047393 0.0090935 -0.00024079 0.087549 -0.014128 -0.013389 0.014044 -0.013119 -0.012194 -0.012465 0.092448 0.0010404 0.045441 -0.052297 0.020696 -0.11506 0.034752 0.038278 -0.095666 -0.031683 -0.064411 0.017121 -0.095034 0.11037 0.01742 0.007361 -0.035352 0.02213 -0.0086088 0.0026086 0.026136 0.024591 0.0042126 0.044123 -0.034828 0.02781 
<pers> -0.11712 0.035943 -0.019034 0.024987 0.035291 0.051741 -0.042914 0.03894 0.058896 -0.012385 0.11467 -0.044304 0.14554 -0.021576 -0.10115 0.18633 0.14423 0.044273 -0.001024 -0.010399 0.12725 0.013457 0.064842 -0.1464 -0.04244 -0.013036 0.052854 -0.025382 -0.078939 0.12774 0.037438 0.11952 0.0218 -0.12948 -0.070603 0.015693 0.03059 -0.30529 0.055906 -0.034263 0.16088 0.075569 -0.050936 0.009357 -0.013722 -0.021606 -0.013532 0.067384 -0.0053309 0.0056647 0.080859 0.065218 0.094788 -0.043194 0.10383 -0.076959 -0.1439 0.14835 0.028466 0.17016 0.053752 0.15794 -0.029395 0.043739 -0.096386 -0.10684 -0.010948 0.00067376 -0.11303 -0.069486 0.013048 -0.038374 -0.021431 0.052516 -0.20524 -0.12663 -0.079732 0.02908 -0.04227 0.091293 -0.10983 -0.065097 0.0094572 -0.037792 -0.06372 -0.064965 -0.029739 0.0026584 -0.025054 0.026188 -0.0079548 -0.057443 0.065219 -0.029282 0.17761 -0.063667 0.083536 0.092807 -0.13488 -0.1396 0.098703 0.10299 -0.011207 0.042105 -0.032223 -0.12559 0.068544 0.12566 -0.19437 0.038483 -0.064964 -0.021783 0.085317 0.095224 0.11557 -0.063529 0.05492 -0.015871 -0.030306 -0.053793 -0.046877 0.027967 0.014674 -0.074621 0.014538 -0.17549 0.19243 0.10878 0.11003 0.097568 -0.029833 -0.03089 0.14529 -0.044841 -0.087205 0.10293 -0.20286 -0.059547 -0.10261 -0.10582 -0.15549 -0.10354 -0.10198 0.11833 0.027905 -0.083207 0.018733 -0.16355 0.083075 0.021342 -0.02345 -0.16961 0.076248 0.035863 0.024415 -0.10538 -0.10909 0.34204 -0.014555 0.10891 -0.074852 -0.15118 0.072897 -0.025746 -0.034451 0.11574 -0.057243 0.0035683 0.13406 -0.0020455 -0.066713 0.016339 -0.11219 0.057785 -0.051362 0.087559 0.12223 -0.17448 -0.018079 -0.088714 0.10368 0.11277 0.029072 -0.055281 0.090765 0.083119 -0.050096 -0.03526 -0.051546 0.085589 -0.037926 -0.032671 0.076884 -0.18774 -0.01305 -0.12502 0.11056 0.13504 -0.27753 -0.11396 0.12062 0.012115 -0.13808 0.064863 0.13298 -0.086514 -0.066029 -0.016332 -0.031847 0.070143 0.010073 0.078485 0.081663 0.04987 -0.02926 -0.01225 0.14571 -0.013178 -0.017511 -0.00057177 0.080803 -0.042764 0.024596 -0.089485 -0.030115 0.10593 -0.058799 -0.060048 -0.05808 0.13373 0.054863 0.096068 0.044437 -0.15703 0.17164 -0.12117 0.0047557 0.11035 -0.15258 -0.033662 -0.060294 0.014734 -0.12948 -0.025784 -0.092058 -0.079681 -0.1045 -0.038502 -0.035957 0.10681 -0.032666 -0.13816 -0.04794 -0.10353 -0.089565 -0.024595 0.0256 0.02495 0.013303 -0.0047615 -0.063971 -0.0056827 0.023663 -0.14255 0.057718 0.010383 -0.0017605 0.1081 -0.015376 -0.016284 0.017274 -0.016477 -0.014118 -0.0153 0.11358 0.00070786 0.055699 -0.064469 0.024762 -0.1421 0.043892 0.047182 -0.11792 -0.039535 -0.079209 0.021903 -0.1182 0.13504 0.021069 0.0083274 -0.043404 0.027448 -0.010463 0.0036172 0.032294 0.02887 0.0048961 0.054172 -0.043049 0.033506 
<ger> -0.13372 0.040837 -0.022586 0.027997 0.04036 0.060257 -0.049881 0.045139 0.068133 -0.014063 0.13131 -0.050972 0.16696 -0.024857 -0.11719 0.21546 0.16495 0.050342 -0.001099 -0.011078 0.14665 0.015968 0.075005 -0.1687 -0.048819 -0.015755 0.06128 -0.029036 -0.090274 0.14611 0.043638 0.13872 0.02571 -0.14839 -0.081779 0.019012 0.036161 -0.35221 0.064539 -0.039406 0.18498 0.087594 -0.059078 0.010999 -0.015864 -0.024195 -0.015483 0.078322 -0.0067093 0.0078734 0.092568 0.07447 0.10952 -0.049203 0.11963 -0.088346 -0.16643 0.1713 0.033624 0.19692 0.061786 0.18255 -0.033646 0.051242 -0.11191 -0.12303 -0.012795 0.001939 -0.13011 -0.079499 0.015094 -0.044194 -0.025671 0.060094 -0.23753 -0.14561 -0.092058 0.032547 -0.05002 0.1056 -0.12674 -0.075099 0.010034 -0.043159 -0.073402 -0.075176 -0.033982 0.0037289 -0.02976 0.031038 -0.0086925 -0.066114 0.074845 -0.033841 0.20412 -0.072408 0.096445 0.10666 -0.15515 -0.16101 0.11458 0.11822 -0.01245 0.047914 -0.036881 -0.14548 0.079997 0.14553 -0.22337 0.044509 -0.0747 -0.02508 0.098361 0.10943 0.13275 -0.072237 0.063276 -0.01861 -0.035279 -0.063664 -0.054295 0.032674 0.01804 -0.0863 0.016841 -0.20183 0.22171 0.12466 0.12738 0.11267 -0.034237 -0.034734 0.16698 -0.051221 -0.10093 0.11974 -0.23378 -0.069819 -0.11812 -0.12228 -0.17968 -0.11921 -0.11875 0.136 0.033238 -0.096402 0.021639 -0.18912 0.095349 0.025487 -0.025567 -0.19629 0.086537 0.04066 0.028133 -0.12181 -0.12551 0.39316 -0.017611 0.12669 -0.086695 -0.17294 0.083991 -0.028826 -0.040471 0.13338 -0.066484 0.0031121 0.15431 -0.0024404 -0.07705 0.018807 -0.12912 0.067439 -0.058742 0.10132 0.14001 -0.2006 -0.021417 -0.10131 0.11941 0.13015 0.033006 -0.063668 0.10429 0.094784 -0.057702 -0.039899 -0.057432 0.09902 -0.044431 -0.037082 0.088767 -0.21552 -0.015113 -0.14333 0.12699 0.15546 -0.31905 -0.13164 0.13984 0.01498 -0.1582 0.074671 0.15433 -0.10005 -0.075758 -0.019875 -0.037015 0.080416 0.010668 0.091628 0.094599 0.058594 -0.033963 -0.014167 0.16826 -0.014823 -0.019579 0.00068689 0.091951 -0.048368 0.027583 -0.10362 -0.034649 0.12187 -0.068641 -0.069868 -0.067933 0.15407 0.063037 0.11144 0.051993 -0.18098 0.1981 -0.14008 0.005727 0.12748 -0.17465 -0.038272 -0.070321 0.016608 -0.14926 -0.029933 -0.10707 -0.092641 -0.11976 -0.045444 -0.041278 0.12397 -0.037472 -0.15959 -0.054795 -0.11986 -0.10341 -0.028685 0.030299 0.029263 0.015005 -0.0050513 -0.073939 -0.0062917 0.026879 -0.16356 0.066887 0.01325 -0.00060529 0.12352 -0.017723 -0.018634 0.019911 -0.019343 -0.016231 -0.017506 0.1304 0.00015804 0.065063 -0.073925 0.028677 -0.16362 0.04952 0.053984 -0.13666 -0.045443 -0.091782 0.024299 -0.13515 0.15669 0.024378 0.0097752 -0.049526 0.031849 -0.012014 0.0040495 0.036634 0.034911 0.0056625 0.063369 -0.049312 0.039146 
<post> -0.13643 0.041092 -0.023359 0.028196 0.041347 0.060752 -0.049707 0.045103 0.067776 -0.014627 0.13425 -0.051556 0.17038 -0.025929 -0.12009 0.21869 0.16748 0.050948 -0.00099827 -0.012172 0.14839 0.016666 0.074804 -0.17086 -0.04988 -0.015258 0.062347 -0.030542 -0.092551 0.14887 0.044442 0.141 0.025794 -0.15153 -0.083514 0.019231 0.035854 -0.35695 0.066068 -0.03977 0.18872 0.088465 -0.059193 0.010821 -0.016753 -0.024683 -0.015289 0.078876 -0.0071639 0.0070565 0.093962 0.076275 0.11134 -0.049609 0.12115 -0.09029 -0.16875 0.17435 0.032891 0.19921 0.062671 0.18497 -0.034386 0.052434 -0.11409 -0.12462 -0.012205 0.00053522 -0.13282 -0.081293 0.015628 -0.045851 -0.025584 0.062215 -0.24075 -0.14857 -0.094031 0.032253 -0.04994 0.10671 -0.12902 -0.077376 0.011159 -0.043278 -0.075441 -0.077028 -0.035188 0.0027355 -0.029608 0.030829 -0.009043 -0.067742 0.076134 -0.035365 0.20739 -0.074053 0.097322 0.10876 -0.15697 -0.16424 0.11572 0.12032 -0.012229 0.049073 -0.038735 -0.14775 0.080972 0.14723 -0.22758 0.046006 -0.076519 -0.026243 0.1006 0.11161 0.13483 -0.074744 0.064124 -0.018344 -0.036305 -0.063572 -0.054378 0.033451 0.018048 -0.088137 0.017266 -0.20516 0.22561 0.12715 0.12898 0.11468 -0.034662 -0.036659 0.17075 -0.052495 -0.10259 0.12147 -0.23668 -0.069715 -0.1203 -0.12375 -0.18178 -0.12116 -0.12071 0.13861 0.0331 -0.098411 0.021497 -0.19292 0.096658 0.025073 -0.027416 -0.19881 0.089426 0.04213 0.028879 -0.12418 -0.12834 0.40031 -0.017565 0.12823 -0.087963 -0.17698 0.08495 -0.029195 -0.040716 0.13532 -0.067202 0.0027257 0.15724 -0.0022993 -0.078683 0.019551 -0.1321 0.067928 -0.059393 0.10281 0.1423 -0.20458 -0.021334 -0.10379 0.12107 0.13191 0.034473 -0.064327 0.10562 0.097 -0.058407 -0.040556 -0.059502 0.10105 -0.044381 -0.037941 0.08952 -0.21887 -0.014793 -0.14581 0.12898 0.15775 -0.32453 -0.13337 0.14174 0.014817 -0.1609 0.075947 0.15549 -0.102 -0.076888 -0.020218 -0.037458 0.083416 0.011021 0.092886 0.09553 0.058568 -0.034966 -0.01471 0.17104 -0.015115 -0.021342 5.3275e-05 0.094028 -0.049274 0.028142 -0.10476 -0.036357 0.12375 -0.069778 -0.070629 -0.068565 0.15545 0.064413 0.11323 0.052441 -0.18436 0.20039 -0.14129 0.0056265 0.12975 -0.17852 -0.038176 -0.071098 0.016604 -0.15158 -0.031449 -0.10868 -0.09324 -0.12322 -0.045651 -0.041228 0.1263 -0.03807 -0.16231 -0.056432 -0.12129 -0.1053 -0.028653 0.030259 0.029552 0.015768 -0.0051771 -0.074549 -0.0068635 0.027261 -0.16693 0.068641 0.013515 -0.0009555 0.12657 -0.018151 -0.018734 0.020154 -0.019343 -0.01708 -0.017378 0.13267 -0.00011034 0.065999 -0.074525 0.028945 -0.16616 0.05026 0.054385 -0.13772 -0.046303 -0.092651 0.0248 -0.13707 0.15933 0.025261 0.010241 -0.050058 0.033033 -0.012638 0.0037234 0.038078 0.034213 0.0053671 0.06377 -0.049924 0.039593 
