#Parameter# /vanilla-lstm-builder/_0 {128,300} 614401 ZERO_GRAD
+1.96972638e-01 +2.12923158e-02 -1.72301069e-01 +1.30163237e-01 +8.22819769e-02 +3.75980586e-02 +2.06973050e-02 +3.16789709e-02 -1.22255988e-01 -5.99260703e-02 +6.56733140e-02 -2.43245840e-01 -2.30283588e-01 +2.38899197e-02 +8.39810520e-02 +1.31113619e-01 -3.62769246e-01 -2.25470588e-02 +9.78136715e-03 -2.77461529e-01 +9.37152579e-02 -1.63909256e-01 -5.73320612e-02 -8.93723890e-02 -1.34234160e-01 +1.49880826e-01 +1.92352943e-02 -1.55704960e-01 +5.65235056e-02 -2.70060897e-01 +1.41516224e-01 -2.55053360e-02 -6.21889271e-02 +8.91107246e-02 -1.24830365e-01 +5.93883470e-02 +3.06037311e-02 -2.45855868e-01 -1.21564530e-02 +1.04149900e-01 +2.00423468e-02 +2.44684890e-01 -7.75465965e-02 -1.99744388e-01 -8.34290683e-02 +1.15037516e-01 +9.95277986e-02 +1.53221488e-01 +1.49854377e-01 +9.03265476e-02 +3.00471147e-04 -4.98761982e-03 -8.19078162e-02 +2.62231380e-02 -7.72645921e-02 -3.76580358e-02 +8.53698552e-02 +2.08949164e-01 -2.06557009e-02 +6.44967780e-02 -6.02141139e-04 -2.06782147e-02 -3.12902406e-02 +4.10046756e-01 +7.31157660e-02 -3.09895337e-01 -3.27308476e-03 -1.38462465e-02 +2.64809020e-02 +2.10069031e-01 -1.84552044e-01 +1.13742806e-01 +1.86132491e-02 -2.24386100e-02 +2.04687357e-01 -2.57564962e-01 +7.62793003e-03 -3.00775290e-01 +9.02063027e-02 +2.73478568e-01 +9.47806519e-04 -1.73066750e-01 +1.66936845e-01 -4.33851145e-02 -1.10706769e-01 -1.99632674e-01 -9.54294577e-02 -2.09627748e-02 +2.86039859e-01 -7.85602257e-02 +1.86389387e-01 +2.76217759e-01 +1.08481228e-01 -1.79217517e-01 -3.39784116e-01 +4.26709987e-02 +2.72756778e-02 -9.24415216e-02 +2.61474520e-01 -6.83232918e-02 -1.30883604e-01 -2.89112002e-01 +3.23463157e-02 +8.60501006e-02 +2.11383104e-01 -3.14154662e-02 -1.28165767e-01 +7.11304173e-02 +3.16525958e-02 +1.75112948e-01 -1.01250686e-01 +1.46322474e-01 -2.77047753e-01 +1.04441606e-01 -1.11540884e-01 -8.93482715e-02 +5.29341167e-03 -2.83416748e-01 -2.49187917e-01 -1.37949903e-02 -7.89897633e-04 -9.77464616e-02 +1.72480822e-01 -6.19479902e-02 +4.80140448e-02 -1.49013653e-01 +3.80584747e-02 -5.50494064e-03 +1.00599714e-01 -2.44222671e-01 -8.82682875e-02 +2.69320309e-01 +2.39995569e-01 -2.24575654e-01 -2.77592875e-02 +1.77740499e-01 +2.10828856e-01 +2.25702927e-01 -2.30118692e-01 +6.91604242e-02 +1.85294524e-01 +2.35020861e-01 +1.32171556e-01 +1.65095434e-01 +3.83544452e-02 -5.89688793e-02 +1.79232031e-01 +1.41711369e-01 -1.13413827e-02 +2.11497724e-01 +6.12325706e-02 -1.19249169e-02 +3.01435739e-02 +1.72976404e-02 +3.38856697e-01 +5.87444268e-02 -5.98461330e-02 -1.71009958e-01 -2.93235015e-02 -1.87656969e-01 +1.46173149e-01 +8.22846591e-02 +1.24730825e-01 -4.50088233e-02 -6.84730634e-02 +1.05300926e-01 +1.48442075e-01 +4.39481325e-02 -1.82278212e-02 +6.10582158e-02 -1.94602504e-01 -2.99590766e-01 +7.35019147e-02 -4.25306447e-02 +4.21374999e-02 -5.66728860e-02 +8.82586539e-02 -1.10738263e-01 +8.71793739e-03 -4.00919616e-02 +9.02435705e-02 -1.33864228e-02 -1.30505115e-01 +1.19069517e-01 +1.57227024e-01 -5.56339584e-02 +1.52049512e-02 +2.90802103e-02 +9.32927653e-02 -1.34619251e-01 -1.60764888e-01 +3.39074671e-01 +8.69587809e-02 +1.51285157e-01 -4.44795527e-02 -2.84301639e-01 +3.91880065e-01 +7.56835043e-02 -1.61932796e-01 -4.65133041e-02 +2.43884131e-01 +2.83434808e-01 -4.68257427e-01 -2.23323390e-01 +2.91868627e-01 +6.66632969e-03 -4.84433658e-02 -2.02685237e-01 -7.79384449e-02 -3.62815142e-01 +3.34870636e-01 +3.95560339e-02 -3.81987065e-01 +2.48409346e-01 -8.87726098e-02 +3.58038217e-01 -1.75331831e-01 -7.37448409e-02 +1.57806471e-01 +1.82682768e-01 +2.14746356e-01 -5.55881746e-02 -3.72662842e-01 -1.39942557e-01 +1.62930042e-01 +3.98387015e-02 +3.38514522e-02 +5.23239821e-02 +5.77292405e-02 -5.56800254e-02 +1.04842655e-01 -6.18164688e-02 -3.48575786e-02 +1.56995393e-02 -1.07751861e-01 -2.69627906e-02 +2.88658470e-01 -3.10772602e-02 +1.74475268e-01 +1.25639483e-01 -4.89778757e-01 +1.58274934e-01 -1.61377087e-01 -1.84751712e-02 -3.95667031e-02 -2.92471975e-01 -2.00362410e-02 -1.28278702e-01 -9.02386308e-02 +7.15750530e-02 +9.39721763e-02 -1.69604510e-01 -1.14069190e-02 -1.94816008e-01 -1.95276752e-01 +3.55813876e-02 -8.45194161e-02 +1.15784608e-01 -1.74319610e-01 +2.81038955e-02 -1.11788519e-01 -1.66735590e-01 -4.68723141e-02 -9.67007503e-02 -1.16347611e-01 -5.37307896e-02 +3.11487973e-01 -1.27250716e-01 -8.27985033e-02 -3.38190734e-01 +1.68911636e-01 +3.47930677e-02 +3.23139846e-01 -2.05489367e-01 -2.32310668e-02 -1.00938268e-01 -2.62900814e-02 -8.81077126e-02 -2.27237687e-01 -1.19774625e-01 -8.95192772e-02 -2.62999106e-02 -9.56604928e-02 -1.08186968e-01 -2.03544255e-02 -4.61403951e-02 -6.59404770e-02 -8.06205198e-02 +1.77563444e-01 -2.29868323e-01 +7.34547004e-02 -7.01270029e-02 -7.87558779e-02 -1.29890218e-01 +1.08539695e-02 +1.59496441e-01 -1.40159279e-01 +5.81579655e-02 +2.02703491e-01 -3.56154233e-01 -1.23638518e-01 +1.23085836e-02 -3.92604508e-02 -1.61088392e-01 +3.60160060e-02 +4.21190411e-02 +4.97179106e-02 -2.45620415e-01 -3.53979379e-01 -2.34161764e-01 -4.67162319e-02 -9.70119983e-02 +7.09511116e-02 -4.22708601e-01 +7.78809339e-02 -9.74213183e-02 +2.29926817e-02 -6.20735511e-02 +2.09090129e-01 +2.12673649e-01 +2.85671085e-01 -4.35788721e-01 -1.40842140e-01 +6.19111001e-01 +6.04526758e-01 -3.45125079e-01 -1.13936238e-01 +9.16157886e-02 -6.24940880e-02 -9.80550125e-02 +3.84543628e-01 +9.73559320e-02 -4.55894880e-02 -1.13374040e-01 -8.25175941e-02 +2.54929185e-01 +5.93180507e-02 -5.46517551e-01 +1.47704333e-01 +7.98100606e-02 +1.35047048e-01 -9.76714864e-02 -3.25259894e-01 -5.28621674e-01 -1.68105006e-01 +2.66812602e-03 +2.16658227e-02 -7.69865438e-02 -2.42427975e-01 +1.40116096e-01 +1.27997160e-01 -2.91142315e-01 -1.04297556e-01 +1.09226018e-01 -2.11633012e-01 +6.46013618e-02 +4.33735996e-02 -3.21698576e-01 +5.09303883e-02 -1.84698403e-01 -1.08623318e-01 +1.76160440e-01 -1.54416323e-01 +5.38090408e-01 +1.28435139e-02 +1.62628353e-01 +3.66114825e-02 +1.26717746e-01 -1.47452176e-01 -1.01254098e-01 +1.84699520e-02 +1.18962592e-02 -1.33245975e-01 +1.65557656e-02 +1.30436212e-01 -9.81222242e-02 +1.37174189e-01 +8.77195895e-02 -1.73207689e-02 +2.53760032e-02 -1.10298749e-02 -2.26013377e-01 +5.39004542e-02 +1.25984624e-01 -1.38295621e-01 -1.53779313e-01 +2.26540808e-02 +2.78669626e-01 +7.48767108e-02 -1.75261255e-02 -1.40687436e-01 +2.51236763e-02 -8.78340378e-02 +1.32339180e-01 +3.41321230e-01 -1.80492550e-01 -2.33412758e-01 -2.35651776e-01 +6.93702698e-02 +2.84611315e-01 -3.12963456e-01 -3.26989517e-02 +7.06456304e-02 +7.02605098e-02 -1.10766832e-02 -2.91901473e-02 +9.62325111e-02 -3.34239863e-02 -1.66267797e-01 -9.80671570e-02 +2.69631714e-01 +1.86519399e-02 +2.24815980e-02 -2.56389350e-01 -3.83222252e-02 -4.49241847e-02 +2.29556888e-01 -3.21217835e-01 +1.77860707e-01 +4.06511687e-02 -2.28117570e-01 +8.26692283e-02 -4.56514210e-01 +6.65829703e-02 -4.37350608e-02 +1.58710286e-01 +1.28440056e-02 -2.81822532e-01 +9.44302604e-02 +2.85527688e-02 -7.25049302e-02 +2.20869295e-02 +6.38301969e-02 -1.36242852e-01 -1.21551372e-01 -6.56739324e-02 -1.31155491e-01 -2.38841757e-01 -6.06846660e-02 -2.48483308e-02 -1.08857937e-01 -9.07157362e-02 +1.47611991e-01 +5.16879782e-02 -1.19055606e-01 -3.90631147e-02 +4.52122003e-01 +2.06604645e-01 -1.63287252e-01 -2.79644579e-01 -1.81784764e-01 -3.44445348e-01 +4.14940298e-01 -6.29669547e-01 -2.26994947e-01 -1.99949861e-01 +6.61661476e-03 -2.72949468e-02 -3.20815742e-01 -3.87002006e-02 +2.88741112e-01 +5.67126274e-02 -1.35107964e-01 +2.81787634e-01 -2.60858208e-01 -4.79911208e-01 +2.59641916e-01 +1.17398411e-01 +6.89330697e-02 +1.35204449e-01 -2.19958983e-02 +2.82945186e-01 +1.38687164e-01 -7.80301169e-02 +2.70262044e-02 +2.49998853e-01 -3.73640418e-01 -4.33859885e-01 -1.52920932e-01 +1.53292879e-01 +1.38539389e-01 -8.38132501e-02 +2.41915584e-01 +3.50707062e-02 -1.09131388e-01 -3.61106694e-02 +4.28226963e-02 -2.47987911e-01 -4.27016690e-02 +2.78850794e-01 -1.32512167e-01 +2.39572614e-01 +8.43362287e-02 -2.86094891e-03 -3.94203812e-02 +1.71957165e-01 +3.04174167e-03 -2.62694787e-02 +3.96726541e-02 -2.10309833e-01 -1.88064411e-01 -1.66632891e-01 -2.69844025e-01 -9.97152478e-02 -1.51238382e-01 -8.87156948e-02 +2.83440739e-01 +1.27482221e-01 +3.34225781e-02 +6.31297454e-02 +2.40965158e-01 -8.26132968e-02 +1.79264471e-01 +3.62608254e-01 +5.15563674e-02 +3.32818568e-01 -2.54837535e-02 +2.25607306e-01 +1.34944960e-01 +3.21788847e-01 +2.25543037e-01 +8.44770446e-02 -1.36477798e-01 +1.18397340e-01 +2.03441773e-02 -2.53528595e-01 +9.80689302e-02 +3.40511173e-01 +1.26583818e-02 +9.75670442e-02 +3.02737594e-01 +1.46496817e-01 +8.19501504e-02 +3.74838084e-01 +2.19819948e-01 +1.97784510e-02 -2.76547391e-02 +2.55952299e-01 +3.17252994e-01 +1.35854349e-01 +4.16243792e-01 -1.89171612e-01 +1.13172829e-01 +2.61137128e-01 +7.18130246e-02 +4.76987697e-02 -1.11907504e-01 +2.10205764e-02 -4.30931598e-02 +1.18966475e-02 -1.68952212e-01 +2.95825303e-02 +7.63061196e-02 +7.74528757e-02 +1.13603190e-01 +8.55795145e-02 -9.68213603e-02 +5.12123154e-03 -9.43348855e-02 -5.79194464e-02 +1.61570430e-01 -1.67251173e-02 +6.52817413e-02 -1.34678155e-01 -2.37517562e-02 +4.73029688e-02 -2.71016546e-02 -5.00872061e-02 -1.29111139e-02 +2.08074495e-01 -1.33263078e-02 +2.45626289e-02 +1.57832950e-01 -1.02028400e-01 +2.57182475e-02 +4.15685810e-02 -1.53054506e-01 +1.89238191e-01 +2.17195034e-01 +1.48231983e-01 -5.65274395e-02 +2.90547222e-01 +4.01321501e-01 +3.74451965e-01 +2.61099011e-01 +2.00068966e-01 +1.02424137e-01 +3.91904265e-02 +1.11861542e-01 -1.25773903e-03 -1.38265446e-01 -4.34605479e-02 +1.25400752e-01 +8.87044892e-02 +1.02543674e-01 +2.52533615e-01 -7.03038201e-02 +4.52717155e-01 +3.97170752e-01 -1.39787301e-01 +8.61200094e-02 +2.24680126e-01 +1.49318039e-01 +2.02402607e-01 +2.86893900e-02 -9.41718891e-02 +1.85274720e-01 +2.81915605e-01 +4.01730537e-01 +1.01574652e-01 -8.51661265e-02 +1.94034830e-01 +8.72772336e-02 -1.16486028e-01 -2.27830037e-01 +4.81390715e-01 +4.60714698e-02 -8.72359946e-02 +1.79721609e-01 +2.75887214e-02 +2.30658567e-03 -1.20514967e-01 +3.48345399e-01 +9.98326167e-02 +2.22161934e-01 +1.03849672e-01 -1.30417213e-01 -4.77893174e-01 -7.23588616e-02 +1.73165023e-01 -2.76945710e-01 -2.91024506e-01 +1.11898743e-01 +1.08296216e-01 +2.72411760e-02 -1.70210209e-02 +1.87278837e-01 -1.01712108e-01 +3.13550621e-01 -1.55770034e-01 +1.17780060e-01 +2.98051357e-01 +2.86247969e-01 -2.29117915e-01 +2.07023188e-01 +8.36817771e-02 +1.13698179e-02 -2.78602447e-03 +3.75125222e-02 -2.04671491e-02 +3.12383890e-01 -9.01636295e-03 -1.02016307e-01 -2.65678674e-01 +7.03874081e-02 -2.93375611e-01 +1.90149024e-01 -5.21763554e-03 +7.80243194e-03 +2.24341542e-01 +2.33801365e-01 +2.81323083e-02 +1.24571463e-02 +1.35014832e-01 +3.44582237e-02 +1.23685777e-01 -2.98171431e-01 +9.86496881e-02 +1.49160355e-01 -1.97184786e-01 +1.53530296e-02 +2.79141515e-01 -8.75770822e-02 +2.36390695e-01 -1.14384703e-01 -7.05395341e-02 +9.84898880e-02 +1.36721373e-01 -3.02358717e-01 -3.03472668e-01 -8.24462771e-02 -1.28310189e-01 +4.21402514e-01 +2.30252683e-01 +2.75098197e-02 -1.45932749e-01 -1.34442315e-01 +1.50648266e-01 -4.87392657e-02 +8.00134167e-02 -6.19534627e-02 +7.53341317e-02 +2.54846811e-01 -5.96794933e-02 +1.97497413e-01 -9.42329168e-02 +6.98485002e-02 +2.44243279e-01 -2.25055544e-03 +1.85210377e-01 -1.72131673e-01 +2.31405899e-01 +1.46060109e-01 -1.08046055e-01 -2.16065571e-01 +1.32554442e-01 +5.28961718e-02 +8.20410624e-03 -2.98202366e-01 +7.42067723e-03 +4.66505736e-02 +2.09320448e-02 -9.68378633e-02 -1.04912631e-02 +3.32165360e-01 +2.11206019e-01 -2.92131454e-01 +2.51933247e-01 -1.00461252e-01 +2.46174484e-01 +3.39957654e-01 +4.87791188e-02 -2.50232309e-01 +5.45226559e-02 +4.52863015e-02 -1.36669409e-02 +1.07193746e-01 -1.36885688e-01 -2.58327395e-01 -9.10886098e-03 +1.31392822e-01 +1.61004048e-02 +6.36862144e-02 +1.60902888e-01 +3.11229050e-01 +6.58468246e-01 -7.11238831e-02 -1.58310816e-01 -1.42736748e-01 -5.93003854e-02 +8.19405541e-04 +5.88245783e-03 +1.53897591e-02 +1.29002556e-01 +4.29751864e-03 -1.29975885e-01 +1.99185237e-01 -1.55971259e-01 -5.37753589e-02 -1.65416375e-01 -7.02668130e-02 -3.34107429e-01 +2.29360580e-01 -9.43338647e-02 -7.00057298e-02 -1.64894029e-01 -4.14011814e-02 +1.90987438e-01 +2.22333875e-02 +4.92096543e-02 -2.08423898e-01 +1.30718246e-01 +2.22309515e-01 -8.16972926e-02 +2.44521067e-01 +2.27084067e-02 +1.38034299e-01 -1.12544812e-01 +9.56018344e-02 +1.33811951e-01 -2.79471539e-02 -1.07304938e-01 -1.23618595e-01 -3.89750861e-02 +2.12107301e-02 -1.22941628e-01 -1.98157161e-01 -9.35717821e-02 +3.64902020e-01 -3.65497768e-01 +8.50776806e-02 +1.27922639e-01 -3.45557071e-02 -2.65074015e-01 +1.57303333e-01 -1.42193155e-03 -3.59901343e-03 +1.95949852e-01 -1.45876473e-02 -6.22429959e-02 +2.51611978e-01 -1.01401821e-01 +1.77577123e-01 +7.98876658e-02 -2.86968976e-01 -1.16670996e-01 -8.07882473e-02 +2.71801740e-01 +7.98765123e-02 -1.82023838e-01 +2.77666241e-01 -2.94887722e-01 -1.41269967e-01 +6.52367622e-03 -9.43325683e-02 -3.58535647e-01 -1.04273342e-01 -8.74804556e-02 +1.42324135e-01 -1.88568756e-01 -3.76351953e-01 -2.18057483e-01 -4.83058728e-02 +1.82309732e-01 -1.06583178e-01 +1.84991919e-02 -2.40987390e-01 +4.25958037e-02 +1.16729625e-01 -1.51593521e-01 -2.01186851e-01 +1.98981136e-01 -1.71404898e-01 -1.12917028e-01 +1.25295728e-01 -2.24641025e-01 -4.16042626e-01 +4.08835933e-02 -5.70573881e-02 +3.92061658e-02 -4.46203649e-02 -2.28582546e-01 +9.64389801e-01 -3.82594585e-01 +1.80773303e-01 +1.74173757e-01 -1.84073281e-02 +1.75418302e-01 +2.92742789e-01 +5.50009161e-02 -1.90922797e-01 +1.09895088e-01 -3.10308963e-01 -3.03576365e-02 +1.99641660e-01 +4.71974880e-01 -2.66109079e-01 -3.65973115e-01 -6.27918467e-02 -5.76601028e-02 -1.19549356e-01 -2.02826457e-03 +1.39259338e-01 +5.47512285e-02 -4.44615446e-02 -4.47510183e-01 +1.52943388e-01 -2.52208948e-01 -6.40418148e-03 -6.40871346e-01 +4.60669249e-02 +4.01142120e-01 -1.60471335e-01 -2.20070124e-01 +5.70266470e-02 -1.61977112e-01 -6.47021905e-02 -2.49543763e-03 +9.34535488e-02 -1.81158274e-01 +2.26471409e-01 -3.58834416e-02 -6.19003968e-03 -7.51024187e-02 -1.66990589e-02 +1.78893164e-01 +9.63190049e-02 -1.79766119e-01 -8.17333534e-02 +8.56749043e-02 -1.98492825e-01 +2.52758473e-01 -1.42062092e-02 +4.66950029e-01 -3.31647128e-01 +1.16967574e-01 +4.28334549e-02 -2.67537795e-02 +1.84147447e-01 +1.43322721e-01 +4.84001413e-02 -1.68470994e-01 -5.95664456e-02 +1.18566640e-01 -1.75275028e-01 +7.72995502e-02 +2.10294306e-01 -4.52871025e-02 +1.14443831e-01 +3.64981383e-01 +1.34495363e-01 +2.59510964e-01 +2.55731046e-01 +1.01291083e-01 +2.98913509e-01 +1.89754397e-01 -4.68374267e-02 -9.34662074e-02 +3.63548070e-01 -4.50551778e-01 +2.74701118e-01 -1.56177267e-01 -1.48218751e-01 +1.47791937e-01 +2.19129533e-01 +3.97767723e-01 +5.61200008e-02 +6.63205013e-02 +3.16872776e-01 +5.00950754e-01 +7.74765341e-03 -1.64229065e-01 +1.15750298e-01 +2.13183910e-01 +2.11827055e-01 +3.48392278e-01 +2.69396603e-02 -7.84745440e-02 +1.53903201e-01 -1.98162004e-01 +1.81172967e-01 -1.57442495e-01 +4.36052568e-02 +4.33309823e-02 -1.06966726e-01 -1.91597462e-01 -5.93617298e-02 -1.49615332e-01 -1.03342749e-01 +8.26875716e-02 +4.45941895e-01 +4.70179319e-02 +1.92917138e-02 +1.92697868e-01 -2.44665012e-01 +5.83220571e-02 -1.57034338e-01 -1.94950819e-01 +1.09003618e-01 -1.73174143e-01 +1.33951887e-01 +1.85351789e-01 +9.22687203e-02 +1.67304710e-01 +7.15966150e-02 +1.74786299e-01 +1.75245106e-02 -9.72853675e-02 +1.51292920e-01 -2.39570234e-02 +1.75819863e-02 +3.79541606e-01 +1.25347704e-01 -8.85570198e-02 -2.77652234e-01 -1.17877416e-01 +1.41056567e-01 +2.92658769e-02 +1.18898816e-01 +3.10558200e-01 -8.80132914e-02 +2.19273463e-01 +4.68734950e-01 +5.51172793e-01 +2.66066998e-01 +4.38141286e-01 +1.29775822e-01 +2.08734810e-01 +3.43920052e-01 +2.55329669e-01 -5.50980382e-02 +9.88822728e-02 +3.80819887e-01 +5.35688519e-01 +1.24879740e-01 +1.42075345e-01 +2.62709737e-01 +1.41153380e-01 +1.37081280e-01 +3.52456197e-02 -2.14313194e-01 +1.94069996e-01 +1.61254808e-01 -5.08979894e-02 -1.57400921e-01 +2.63167500e-01 +1.19697616e-01 +9.89337079e-03 -1.11636017e-02 +4.53872979e-02 +1.21155776e-01 -1.18321352e-01 +9.69075039e-02 -3.04248989e-01 +1.01592258e-01 -9.73493010e-02 +9.61382017e-02 +5.93489734e-03 -4.33362983e-02 +7.18805641e-02 -3.97374094e-01 -8.11789632e-02 +3.18242125e-02 -1.12047739e-01 -2.75785893e-01 -2.21644208e-01 +7.40673169e-02 -2.04391405e-01 +9.96852294e-02 -1.70088038e-01 +2.45293900e-01 +2.82456428e-01 +1.70317724e-01 -1.72385380e-01 -3.43781933e-02 -6.15365170e-02 -2.40296647e-01 -2.03774169e-01 +7.29882941e-02 +1.84825793e-01 +3.70746925e-02 -1.49615929e-01 -8.67132097e-02 -1.63394421e-01 -8.29993784e-02 +7.57528394e-02 -1.91651925e-01 -4.59498107e-01 +6.36235178e-02 -2.32962728e-01 +6.32883832e-02 -5.17136157e-02 -2.20219910e-01 -1.35229304e-01 +1.31438494e-01 +2.49122947e-01 -2.10971870e-02 -3.58532295e-02 +1.04057476e-01 +1.79459348e-01 -3.87099057e-01 -4.05269191e-02 +4.61311173e-03 -2.62364745e-01 +9.77608562e-03 +9.14872736e-02 +3.33506726e-02 -1.92531683e-02 -4.45765331e-02 +7.49465525e-02 +1.78567804e-02 -2.72776663e-01 +3.22517812e-01 -9.45127904e-02 -9.13862884e-02 +2.67356113e-02 +3.45560879e-01 +2.38681331e-01 -3.88965048e-02 -1.17214181e-01 -3.74406315e-02 +4.01855022e-01 -8.82925466e-02 -4.73555177e-03 -1.65887043e-01 -1.91015765e-01 -7.32263085e-03 +9.66426264e-03 -6.89782351e-02 -2.48559322e-02 -6.16598688e-02 +9.38258693e-02 +1.37303010e-01 -3.56954820e-02 +2.66403228e-01 +4.89177257e-02 +3.37836534e-01 -2.95650244e-01 +1.01037114e-03 +2.58581847e-01 +8.11884105e-02 -2.85145015e-01 -6.36847913e-01 +2.20057089e-02 +2.24905625e-01 +9.78562087e-02 -2.20110536e-01 +1.27077177e-01 +2.20429793e-01 -1.00870535e-01 -3.32602888e-01 +4.07459766e-01 -3.05484742e-01 +1.88841477e-01 -2.15914361e-02 +4.20559883e-01 -5.63084841e-01 -1.98453039e-01 +2.12486878e-01 +7.39616081e-02 -1.58570826e-01 -1.58616900e-01 +7.87734151e-01 -2.68758863e-01 -1.19820878e-01 -8.97303894e-02 -5.79174757e-02 +2.70165712e-01 -5.80101050e-02 -1.44635215e-01 +1.07961424e-01 +8.91873240e-02 +1.26591802e-01 -7.67478049e-02 -8.98333192e-02 -1.54600278e-01 -1.27123982e-01 +9.25928131e-02 +1.67668521e-01 +7.34278187e-02 +4.72472012e-02 -1.73215359e-01 -2.45671198e-01 +7.71663338e-02 -6.89764395e-02 -4.29319479e-02 +7.65630603e-02 +2.26720437e-01 +6.89198226e-02 -1.27388000e-01 +6.62771314e-02 +6.67128682e-01 +1.02462180e-01 +6.14839513e-03 -3.90521660e-02 +1.26818419e-01 +8.42517391e-02 +8.37132260e-02 +1.26083031e-01 +3.68354499e-01 -5.38416579e-02 +1.93494231e-01 -1.80641145e-01 -1.03263542e-01 +8.87816474e-02 -2.70841271e-01 +1.61446378e-01 +2.93182611e-01 -1.66034222e-01 -1.35847539e-01 -5.52150933e-03 +2.17197567e-01 -2.58066505e-01 +4.04022127e-01 -2.16778055e-01 -1.84293807e-01 -2.45456174e-01 -9.53029692e-02 -2.43968174e-01 -1.98186204e-01 -1.65291026e-01 -4.40793000e-02 +4.36941832e-02 -1.67653169e-02 -2.05911174e-01 -2.26088300e-01 -7.79690817e-02 +1.00493334e-01 +1.00187091e-02 -1.05392382e-01 +1.01942405e-01 -3.07604462e-01 -7.54635558e-02 +1.26938298e-01 -1.84231251e-01 +3.85722220e-02 -2.68848985e-01 +1.59792975e-01 -2.35005260e-01 +8.17109793e-02 +2.08034411e-01 +9.68315899e-02 +2.38645256e-01 -2.86072224e-01 +1.74198225e-02 -2.19132355e-03 -1.12776302e-01 -2.71313697e-01 -7.73257166e-02 +2.10207522e-01 +3.80960047e-01 +6.09169295e-03 -4.12564166e-03 +1.08001716e-01 +6.69960305e-02 -6.67496864e-03 +1.22469857e-01 -1.65000319e-01 -3.20047066e-02 +3.55341613e-01 +9.61076543e-02 +1.17852025e-01 -1.57227665e-01 +1.14212431e-01 -3.07517856e-01 -4.60898370e-01 -5.07600605e-01 -2.00019404e-01 -5.04314415e-02 -3.05127859e-01 +1.10730767e-01 +3.14478189e-01 -2.29210794e-01 -1.15953408e-01 +1.63376220e-02 -9.30014774e-02 +7.43772313e-02 +2.69764185e-01 +2.75815353e-02 -4.21380520e-01 -4.67607677e-01 +6.04511619e-01 -3.38170767e-01 -4.46679354e-01 -4.39435914e-02 -4.16634008e-02 +9.87372026e-02 -7.55743161e-02 -4.14652258e-01 +7.48703107e-02 +4.56575304e-02 -9.68824401e-02 -1.24227758e-02 +1.69519067e-01 -8.07254672e-01 -4.89752561e-01 +1.48234829e-01 -4.01134700e-01 -1.43265188e-01 +1.26210049e-01 -1.82751417e-01 +8.83870199e-02 -2.77020931e-01 -1.40576661e-01 -1.06508121e-01 +8.94715711e-02 +3.38726491e-01 +1.47011831e-01 -1.20321006e-01 +4.05343115e-01 +9.16282088e-02 +1.24868475e-01 -7.04487562e-02 -1.26444735e-02 -3.01252436e-02 -2.12914377e-01 +1.86325476e-01 -2.97516910e-03 -1.44862220e-01 -2.75148273e-01 -5.95668070e-02 +2.89925691e-02 +1.31183311e-01 -9.32926312e-02 -3.90542716e-01 -1.35867611e-01 +1.57720357e-01 -8.53174627e-02 -3.22787045e-03 +3.53798121e-01 +3.04730088e-01 +2.61604905e-01 +2.07250148e-01 +9.57378596e-02 +6.75478950e-02 +7.66159892e-02 +1.18699871e-01 +9.84916016e-02 -1.71881653e-02 -1.13009408e-01 +2.45427608e-01 +5.29906273e-01 -1.01262532e-01 -2.74604540e-02 -4.45367806e-02 -2.30077486e-02 -2.90819854e-01 -1.47708580e-01 +9.21545625e-02 +1.28126377e-02 -1.25959247e-01 -9.89863649e-03 +8.14738944e-02 +2.65622526e-01 +5.41069619e-02 +2.11177036e-01 +3.00567716e-01 +1.88590437e-01 +3.01389188e-01 +1.17076904e-01 -4.59029991e-03 +5.64075053e-01 +1.46265343e-01 +2.00822465e-02 -3.46250534e-02 +7.71747977e-02 +1.21503929e-02 +1.06429487e-01 +9.20243859e-02 +2.83728484e-02 -1.97535232e-01 +3.25739861e-01 +3.05579454e-01 +9.09301080e-03 +2.76518948e-02 +3.21662903e-01 +5.74859092e-03 -4.32973057e-02 -7.24185929e-02 +7.92149007e-02 -8.59996974e-02 +1.65905580e-01 +1.18311346e-01 -2.74863988e-01 -6.41919374e-02 +1.98800657e-02 +7.27459714e-02 -1.54314920e-01 +2.30442524e-01 +9.08201337e-02 +2.48085074e-02 +4.00718637e-02 +2.39894256e-01 +3.45308222e-02 -2.20231473e-01 -1.19165823e-01 +5.91399670e-02 +5.20326495e-01 -3.60130131e-01 +4.60685611e-01 +3.51274282e-01 +1.86123580e-01 +2.13991702e-01 +2.19865650e-01 +2.65995741e-01 -1.80367053e-01 +5.23699164e-01 -2.52409905e-01 +3.97695720e-01 +4.16459173e-01 +4.49600071e-02 -4.60010201e-01 +7.32244968e-01 +1.55353934e-01 +2.36748099e-01 +5.28978147e-02 +2.70521969e-01 +2.04738602e-01 +3.75088871e-01 +2.32732430e-01 +2.48133078e-01 -2.24447295e-01 -5.16932905e-01 +3.55846852e-01 -2.46046871e-01 +5.39702550e-03 +4.98946793e-02 -4.18742836e-01 -8.70752782e-02 +1.44624403e-02 -5.44204824e-02 -4.72834945e-01 -1.00498572e-01 +2.68068135e-01 -7.44973496e-02 +2.53330201e-01 +1.63520664e-01 +1.94157094e-01 -4.69108298e-02 +4.28424776e-02 +4.84323949e-02 +4.40733969e-01 +3.85481492e-02 +2.06690356e-01 -2.31132016e-01 -2.77304620e-01 -1.07542589e-01 -1.38011575e-01 -2.81607181e-01 +3.10821682e-02 -3.80298346e-02 +2.43057124e-03 -2.35080391e-01 -6.25993907e-02 +5.46825305e-02 +5.49837537e-02 +2.31557459e-01 +1.95677489e-01 +3.05568683e-03 +1.37072459e-01 +6.20273240e-02 +1.71094060e-01 -2.59121120e-01 +5.35979450e-01 +6.84549138e-02 -1.72002818e-02 +1.00398444e-01 +1.23129591e-01 +2.28590414e-01 +1.83525100e-01 +7.94439465e-02 -3.91914159e-01 +4.98507358e-02 +3.58003616e-01 -1.10668182e-01 +9.60046053e-02 +1.82975098e-01 +1.04190588e-01 +2.60693375e-02 +1.12989105e-01 +1.27299368e-01 +3.06225985e-01 +2.94669401e-02 +5.21734171e-02 +1.25427306e-01 +2.54468530e-01 +2.88386285e-01 +3.01236331e-01 +2.10490644e-01 +4.73132372e-01 -1.22493610e-01 -1.13178097e-01 -8.63785371e-02 +1.38812512e-01 +1.68117732e-01 -1.49658084e-01 -4.44157064e-01 -1.87659293e-01 +5.54356016e-02 -1.86639607e-01 -1.50917694e-01 -6.75314814e-02 +1.64739832e-01 -1.40215680e-01 -8.44014585e-02 +1.23993885e-02 -7.05729052e-02 -8.83318409e-02 +3.28485332e-02 -1.06616737e-02 -4.45288271e-02 -4.43900347e-01 +1.00578435e-01 -7.19641298e-02 -1.81599542e-01 +1.47129506e-01 -3.23760927e-01 +8.07451829e-02 -1.02310345e-01 +3.63968670e-01 +9.34177339e-02 -4.83583286e-02 -5.29083490e-01 -7.40559846e-02 -6.14710264e-02 +2.44875550e-01 -6.39999509e-02 +2.28227034e-01 +1.15552671e-01 +1.88701034e-01 +2.12789819e-01 -5.91595471e-02 -2.54122943e-01 +1.18735500e-01 +4.06159520e-01 +3.26146483e-01 +1.42415360e-01 -2.49061845e-02 -1.21547561e-02 -5.60721569e-02 +3.00083339e-01 +1.59779072e-01 +4.84319210e-01 +2.80359447e-01 +1.02429651e-01 +2.69384623e-01 +2.12933812e-02 +3.87058198e-01 +3.89568731e-02 -8.12852383e-03 -4.11431909e-01 -3.04057121e-01 -8.39269832e-02 +1.05808713e-01 -3.04648913e-02 -1.71277761e-01 +1.79720912e-02 +5.03060184e-02 +1.01705845e-02 +4.58993530e-03 -9.55070853e-02 +1.23048924e-01 +1.15099266e-01 +1.63386196e-01 -1.10679299e-01 +1.03452839e-01 +1.19368456e-01 +3.52436304e-02 +1.57248273e-01 -2.36575380e-02 +2.40853101e-01 +2.94221891e-03 -1.57264262e-01 -4.64289784e-01 -4.09621060e-01 -1.72482967e-01 -2.57581085e-01 -1.54939055e-01 +8.89360011e-02 +5.56717701e-02 +3.93145680e-02 -1.69198081e-01 +1.78026706e-01 +1.80742085e-01 +3.09354186e-01 +2.23824635e-01 -1.64604336e-01 -3.85686427e-01 +3.14189605e-02 +2.18105897e-01 +5.70192114e-02 +9.36833173e-02 +2.53382355e-01 +9.70646217e-02 -3.41599695e-02 +1.65071443e-01 -6.96297944e-01 -1.57801956e-02 +3.11387628e-01 +3.73106778e-01 -4.85050641e-02 +1.64226890e-01 -1.18257232e-01 +3.48531641e-02 +7.72633553e-02 +2.53486603e-01 -9.02176425e-02 +1.09885462e-01 +2.74092704e-02 +9.07570720e-02 +7.36608505e-02 -1.58220068e-01 +1.77628219e-01 +1.77976727e-01 +2.21588202e-02 +2.19041809e-01 +7.06296563e-02 +8.22867081e-02 -8.07848573e-02 +1.53634578e-01 -2.13766426e-01 +2.26928592e-01 +1.14534400e-01 -1.28786817e-01 -9.02280658e-02 +1.43384814e-01 -1.50630429e-01 -1.79933682e-01 +1.22529037e-01 +5.88205410e-03 +8.66585150e-02 +5.21260500e-02 +1.81399062e-01 +9.83903334e-02 +3.94987725e-02 +1.37618780e-01 +1.45999342e-01 -8.82307999e-03 +1.70477062e-01 -9.98298675e-02 +1.65621653e-01 +8.25749263e-02 +1.07895575e-01 +1.63587958e-01 -5.19280583e-02 +1.48963043e-02 +4.73847762e-02 +2.28577152e-01 -3.08092479e-02 -1.74370140e-01 -3.60106141e-03 +3.36734280e-02 +2.36552611e-01 -3.22388202e-01 +6.53189719e-02 +5.30949712e-01 +3.12269926e-01 -1.39611568e-02 +3.21055979e-01 -1.29579483e-02 -3.74514163e-01 +1.75818250e-01 +3.00491899e-01 +2.19408497e-01 -1.09169871e-01 -4.90631640e-01 +1.29275441e-01 +1.03439152e-01 -1.92715213e-01 +3.03386599e-01 -5.30800084e-03 +2.73829848e-01 -5.79171777e-02 +1.73985779e-01 -1.07670978e-01 +3.48870099e-01 +6.94974884e-02 +1.30541235e-01 +5.56823164e-02 -2.19616547e-01 +3.70752215e-01 -2.07583047e-02 -1.63953334e-01 +1.76032290e-01 +9.86738410e-03 +1.87267140e-01 +1.75665408e-01 +1.28649592e-01 -1.71476334e-01 +2.15332329e-01 +1.38356522e-01 +1.95227236e-01 +1.88729346e-01 -2.39905894e-01 +1.87611371e-01 +4.08673510e-02 +1.57702044e-01 -1.46495759e-01 -2.08922308e-02 +2.23812789e-01 +6.67078197e-02 +5.78081608e-03 -6.29126579e-02 +6.61949143e-02 -3.97750139e-02 -1.20625027e-01 +2.48505324e-02 +3.52209896e-01 -4.01542664e-01 -2.50270277e-01 -1.47152944e-02 +1.73225671e-01 +3.50439399e-02 +7.29127005e-02 -6.02035783e-02 +1.52914479e-01 +1.18285276e-01 -5.74551150e-02 -1.15877286e-01 +1.27000630e-01 -2.27832481e-01 -3.94087844e-02 -1.03700615e-01 -1.59359902e-01 +4.92361218e-01 +7.51109421e-02 -1.35356709e-01 +2.66148329e-01 -1.98301256e-01 +8.60361382e-03 -7.37446994e-02 -2.58303463e-01 -2.00677868e-02 -3.46812569e-02 -1.24767497e-02 -2.44143248e-01 -3.48065309e-02 -1.46474153e-01 +7.69784153e-02 +1.78232059e-01 -4.13205713e-01 -2.21655115e-01 -8.31823274e-02 -4.31493595e-02 +7.78861567e-02 +1.87950209e-01 -1.58095062e-01 -9.30726826e-02 -6.29702024e-03 +4.79993150e-02 -6.72399905e-03 -1.79268822e-01 +2.25375384e-01 +1.10371694e-01 +2.33682469e-01 +7.00363666e-02 +8.04013163e-02 -7.74769560e-02 -3.38997394e-01 +1.04008175e-01 -2.93676823e-01 +1.56176716e-01 -1.12897567e-01 -7.17929751e-02 -1.17658533e-01 +7.72517473e-02 +1.25782147e-01 +3.30882937e-01 -2.48567350e-02 +7.60087967e-02 +5.28849624e-02 -1.17957994e-01 -3.03559572e-01 -1.51824072e-01 -1.61825344e-01 +1.04764543e-01 -1.49280474e-01 -6.07817359e-02 -6.34368360e-02 -6.37602285e-02 +1.76664010e-01 +8.61276448e-01 -1.60451069e-01 +3.71071361e-02 -2.52886683e-01 +1.45611376e-01 -1.59582421e-01 -3.05286050e-01 +1.25410900e-01 -3.79317880e-01 -6.72752261e-01 -4.65219229e-01 -1.99855641e-02 +4.90065724e-01 -1.04646727e-01 -3.07923645e-01 +3.28415364e-01 -1.00273497e-01 -2.97754019e-01 -2.08547726e-01 -1.85036480e-01 -2.31003072e-02 +3.12556803e-01 +6.38185861e-03 +1.28955647e-01 -5.80095112e-01 -2.91708946e-01 +5.39466254e-02 +2.57023722e-01 -6.42719343e-02 -6.17858022e-02 -7.24979024e-03 +2.77886055e-02 -2.62836903e-01 -1.63382560e-01 -2.06510887e-01 -4.66334261e-02 -3.71177271e-02 -1.19139895e-01 +4.47080005e-03 -8.30005109e-03 +2.20865145e-01 -3.32298100e-01 -5.10847196e-02 -1.44718736e-01 -2.24925932e-02 +5.97352684e-02 -4.33946550e-01 +2.01920062e-01 +4.58851993e-01 -1.10745355e-02 -2.06854835e-01 +1.03612885e-01 +1.07501477e-01 -2.62227327e-01 -2.46183485e-01 +2.96009630e-01 +1.38409033e-01 -1.28295228e-01 -2.96098560e-01 -1.77433312e-01 +2.21810043e-01 -7.05922171e-02 +1.95745960e-01 +2.14114152e-02 -1.33135274e-01 +6.27136528e-02 +2.90277489e-02 -2.76022847e-03 +1.11460015e-01 +6.35318309e-02 +9.10070613e-02 -2.16075599e-01 +1.29916504e-01 -7.89798573e-02 +8.17176513e-03 +2.36518815e-01 -1.33548021e-01 +3.47774290e-02 -9.95947514e-03 -7.29995370e-02 +7.26486184e-03 +1.87552914e-01 +1.41290203e-01 +6.42471462e-02 +4.16900925e-02 +2.17398107e-01 +4.62197661e-02 -1.82530403e-01 -7.34517649e-02 +1.60076350e-01 +1.07585728e-01 +8.99414867e-02 -6.70386329e-02 -6.33422136e-02 -1.82617918e-01 +2.23908536e-02 -8.44592229e-02 -1.15120128e-01 -2.21245974e-01 +6.17707297e-02 +1.08426940e-02 +1.84382349e-01 -3.98912877e-01 -1.84011370e-01 +2.79698223e-01 +4.73057143e-02 +6.50634617e-02 +1.17884753e-02 +2.27592871e-01 -4.26041454e-01 +5.73509708e-02 +2.19388492e-03 -2.10200727e-01 +1.58986077e-01 +2.92935014e-01 +1.65871121e-02 -4.51322459e-02 +1.44153014e-01 +5.66737168e-02 -1.10010073e-01 +1.36242375e-01 +1.46913856e-01 -2.18515486e-01 -1.19694121e-01 -2.70742271e-02 +1.84312537e-01 +2.01596528e-01 +2.26339683e-01 -2.38517225e-01 +6.29474446e-02 +8.11133981e-02 -3.31213698e-02 +4.16171044e-01 -2.98895612e-02 +1.45353004e-01 -5.53102419e-02 -9.03025717e-02 -1.15168609e-01 +2.46374682e-01 -2.98567623e-01 +3.00423145e-01 +6.69688433e-02 +5.50633594e-02 -2.28710193e-02 -9.03204605e-02 +7.52318054e-02 -2.17833355e-01 -1.69223562e-01 +1.57499194e-01 +3.31565470e-01 -1.47390261e-01 +2.31663182e-01 -2.84157515e-01 +2.27280796e-01 +2.32765153e-01 +1.95848495e-01 +4.39219363e-02 +3.98976281e-02 -1.00801319e-01 -1.45161003e-01 -7.53933042e-02 +1.37176678e-01 +1.63564786e-01 -1.09940678e-01 +1.86313018e-02 +3.58822122e-02 -2.31253698e-01 -7.13542625e-02 -2.74328202e-01 +1.11472746e-02 -2.38910928e-01 +2.22460460e-02 -2.57535756e-01 -1.50695905e-01 +2.38233387e-01 -3.14231925e-02 +2.77591407e-01 +2.18174830e-01 +3.38820517e-01 +3.76788317e-03 +4.36292551e-02 +1.90336466e-01 +2.39289835e-01 -1.26948357e-01 -2.47215405e-02 +6.35403991e-02 +1.91201314e-01 -8.49232376e-02 +1.88617006e-01 +2.36927066e-02 +1.44953340e-01 +1.13049217e-01 +2.27832586e-01 -1.11777321e-01 -1.92466542e-01 -6.62683845e-02 -7.81228244e-02 +4.93390858e-02 -2.72309948e-02 +2.46506691e-01 -2.38862321e-01 +6.46514371e-02 -7.39537552e-02 +3.28420736e-02 +2.21339807e-01 +3.21394145e-01 -4.29872125e-02 +2.47879438e-02 -7.40276277e-02 -1.43989205e-01 -3.34974900e-02 +1.23741776e-01 +1.83701694e-01 -7.67146647e-02 -2.69182563e-01 -7.32446760e-02 +4.09813337e-02 -1.64373800e-01 -2.38039084e-02 -1.44186914e-01 -3.13922375e-01 +1.37653619e-01 -2.80612800e-02 +1.91421315e-01 +6.73717335e-02 -1.54995531e-01 +6.58485591e-02 +2.28835970e-01 +6.28757710e-03 +2.81600714e-01 +1.76456064e-01 -3.78251255e-01 +1.14898421e-01 +6.62777796e-02 -5.02407327e-02 +2.14689653e-02 +3.07689831e-02 -5.10314107e-01 -1.00719005e-01 -9.39667341e-04 -1.66454315e-01 +1.24286421e-01 +1.51011320e-02 +2.32388794e-01 +1.63794623e-03 -1.09534673e-01 +1.87466741e-01 +1.51256531e-01 -2.02848300e-01 -2.53610641e-01 -2.57038437e-02 +8.38257149e-02 +9.68139097e-02 +5.79260468e-01 +3.97425354e-01 -4.51439708e-01 -4.45120744e-02 +4.21170235e-01 -4.24777299e-01 -2.81225324e-01 +8.08364823e-02 +9.09531936e-02 -1.92737922e-01 -2.47759923e-01 -1.85498029e-01 +6.06891990e-01 -1.72344074e-01 +7.04056263e-01 -4.36612993e-01 -1.64081335e-01 +2.16440424e-01 +2.50928462e-01 -2.21874472e-03 -1.32685050e-01 -1.04982957e-01 -5.49153984e-03 -2.50872552e-01 -6.93356469e-02 -3.49230915e-01 +9.81445890e-03 -2.08846986e-01 +1.81875616e-01 -1.71019480e-01 -2.71228969e-01 +3.01281456e-02 +9.10410285e-02 -3.87316495e-01 -1.82160005e-01 -6.76435530e-02 +8.33639428e-02 +3.77400190e-01 +1.31088421e-01 -1.17390193e-01 -7.33543575e-01 +6.18418232e-02 -1.56770661e-01 +3.69495898e-02 +2.37267073e-02 +4.61094305e-02 -6.33345619e-02 -1.60304736e-02 -7.45719895e-02 +4.63383505e-03 -2.25853808e-02 +2.23516867e-01 -1.55757189e-01 +1.09059021e-01 +2.88516551e-01 +2.00005934e-01 -1.94005191e-01 -1.18430801e-01 +3.97417784e-01 -3.57737467e-02 -1.78603306e-01 -7.15545639e-02 -1.85659051e-01 +2.11221516e-01 +2.41443545e-01 +6.39830381e-02 +3.30666214e-01 -1.51214376e-01 -2.79687434e-01 +1.36439502e-02 -7.45999739e-02 +4.60943505e-02 +2.91002728e-03 -1.35623872e-01 +3.00896794e-01 +5.00240624e-02 +1.10142422e-03 -9.98072848e-02 +7.25314617e-02 +9.40952376e-02 +2.24508584e-01 +1.46332145e-01 +7.34832287e-02 -7.63664693e-02 -7.21948966e-02 -1.54639408e-01 -5.08482009e-02 -4.21141535e-02 -1.06910439e-02 +1.61393270e-01 +4.09996556e-03 +3.75710316e-02 +8.73503387e-02 +3.95745456e-01 +8.53090361e-02 +2.67531961e-01 -2.85538465e-01 +1.55633599e-01 -1.08641461e-01 +2.20271170e-01 +2.18564346e-01 +2.32407376e-01 +1.11272149e-01 -1.61179885e-01 +6.58571422e-02 +1.64440632e-01 +2.67796427e-01 -1.76101029e-02 -2.50983778e-02 -1.77803170e-02 -1.40013099e-01 -5.70037477e-02 -9.60571617e-02 -1.00345924e-01 +2.25954074e-02 +8.90590027e-02 +5.48456430e-01 -1.76934615e-01 +1.53690398e-01 +4.48713377e-02 -1.68984950e-01 +7.13648181e-03 -2.82659531e-01 +3.87543961e-02 -4.52693015e-01 +4.80868071e-01 -1.20318465e-01 +1.47194967e-01 -1.72659606e-01 +2.19845831e-01 +1.21129550e-01 +5.79345345e-01 -8.40343952e-01 +4.38991457e-01 -7.20430687e-02 +1.11177541e-01 -1.03952721e-01 -5.69339953e-02 +1.01987386e+00 +6.81880862e-02 +2.60636602e-02 -2.55990833e-01 +3.08937788e-01 +9.64695066e-02 +3.66415441e-01 +1.31717190e-01 +9.86058414e-02 -3.00029423e-02 -1.76675096e-02 -1.68358222e-01 +3.18026781e-01 -6.37156665e-02 +5.98073378e-02 +2.46825695e-01 +7.71547183e-02 -2.68349707e-01 -1.32602099e-02 -2.14918889e-02 -2.58119665e-02 -8.39332864e-02 -1.04103535e-01 -1.24058485e-01 -1.96959451e-01 -1.62732467e-01 +1.79670408e-01 -1.38230935e-01 -2.23166645e-01 +2.01518446e-01 +5.21290861e-03 -4.42251980e-01 +6.27064928e-02 +1.53546497e-01 -5.92527445e-03 +8.16779435e-02 +1.63615122e-02 -5.76057397e-02 +2.47068450e-01 +2.88885403e-02 -7.43390992e-02 -2.55373120e-01 -1.14207610e-01 -1.66191667e-01 +2.57846147e-01 -2.85754376e-03 +3.28962356e-02 +1.76979899e-01 +6.97552934e-02 -1.07816644e-01 +1.20320627e-02 -7.45490268e-02 +3.43389660e-02 +1.08675711e-01 -2.65782159e-02 -5.49005985e-01 -3.40157837e-01 -7.51052201e-02 -3.78394306e-01 -1.04926497e-01 -1.36169851e-01 -4.65572141e-02 -4.15050596e-01 -1.83884531e-01 -1.38920203e-01 -2.37934187e-01 +1.86686695e-01 +2.87952542e-01 -1.73506171e-01 -1.47282541e-01 -2.89994508e-01 +8.90375599e-02 +6.79464191e-02 -2.33085647e-01 -4.45869938e-02 -4.97885458e-02 -7.23945051e-02 +4.78033833e-02 -5.00307372e-03 -2.36066893e-01 -3.48658068e-03 -1.79513320e-01 -2.55860209e-01 +1.28443062e-01 -2.41247397e-02 -2.35458732e-01 -5.01165688e-02 -1.30534768e-01 -1.57713801e-01 -9.33942422e-02 +7.44920149e-02 -1.00727662e-01 +1.38271183e-01 -2.48973891e-02 -9.11020264e-02 -8.63400381e-03 -3.21800619e-01 -3.08796257e-01 +8.46797526e-02 +7.30962157e-02 +2.95652300e-01 +1.77580640e-02 -4.76485938e-02 -1.68976262e-02 +9.35089868e-03 -5.44479452e-02 -2.96119660e-01 +3.22519727e-02 -9.99392346e-02 +1.94737792e-01 -1.08175114e-01 -4.40897256e-01 +1.16604462e-01 +1.07108215e-02 +9.43360776e-02 -3.75337303e-01 +9.43527967e-02 +1.63683578e-01 +8.82901549e-02 -1.72830343e-01 -3.84739846e-01 -1.83755517e-01 -1.30889282e-01 -1.89106867e-01 +1.38340294e-01 -2.22478077e-01 -2.19410151e-01 -1.13913804e-01 -2.85870105e-01 -9.94729064e-03 -4.39025491e-01 -8.46002549e-02 -5.03428988e-02 -5.13855100e-01 -7.24581927e-02 +5.58513179e-02 -3.22297029e-03 -3.06658834e-01 +3.65857109e-02 +6.66157454e-02 -3.59631747e-01 +1.60001796e-02 +5.37848055e-01 -2.12636322e-01 +2.55467277e-02 -6.78985715e-02 +2.81626523e-01 +2.09099948e-01 -3.30926806e-01 -3.10657620e-01 +1.52940080e-01 +3.77905995e-01 +3.77690345e-01 +6.88806102e-02 -7.69519061e-02 +1.75917640e-01 +2.07494907e-02 -1.43871129e-01 +2.80556101e-02 +9.43550467e-02 -1.51746288e-01 +4.66887020e-02 -2.24833965e-01 +1.52378187e-01 +2.64809001e-02 +1.76260024e-01 -3.49843383e-01 +2.33530793e-02 -6.53753579e-02 -4.12762836e-02 +3.77532631e-01 -7.78943971e-02 -1.87386557e-01 +2.10977644e-01 -6.21813126e-02 +2.78545301e-02 -1.11972749e-01 +2.78108776e-01 -2.51691818e-01 -1.65382717e-02 -2.61887163e-01 -6.71232268e-02 -4.41387333e-02 +3.70281339e-01 -1.01715408e-01 -1.41696095e-01 +8.08976293e-02 +1.36242256e-01 -1.72948346e-01 -2.97898836e-02 -1.42321080e-01 -4.95147467e-01 +2.69813389e-01 +1.47808325e-02 -2.57166207e-01 -1.85525581e-01 -3.11975598e-01 -2.98805803e-01 -5.10530055e-01 -8.78577009e-02 -6.59042969e-02 -1.27287388e-01 +2.71655712e-02 -1.51821271e-01 -2.96620559e-02 +9.25231446e-03 +6.09932616e-02 +5.12482412e-02 -3.52231234e-01 -1.61672458e-01 -8.05622805e-03 -2.16682091e-01 -1.57807708e-01 +4.61705357e-01 -1.13514990e-01 -1.47134438e-01 -6.14808835e-02 +1.85866416e-01 -1.89583018e-01 -2.08480939e-01 -3.30873393e-02 +8.58410969e-02 +1.84129248e-03 +1.88543409e-01 +1.66603655e-01 +1.23604663e-01 -3.13298732e-01 -5.27181178e-02 -1.29599243e-01 +4.01253588e-02 +6.78440630e-02 +1.17663667e-01 -7.53394440e-02 -2.65883207e-01 +9.86775570e-03 +1.38091803e-01 -1.50577024e-01 -3.32191065e-02 -2.95470394e-02 +1.21357076e-01 +2.66536087e-01 +4.32643220e-02 +1.05951689e-01 -5.09837717e-02 +8.65951255e-02 +4.93439883e-02 +3.34663466e-02 -5.73145747e-02 -3.16325203e-02 +6.09881401e-01 -1.92618787e-01 +1.12628020e-01 +3.11401486e-03 -2.94599421e-02 -3.18364650e-01 -1.24995522e-01 -9.74348336e-02 -2.73976952e-01 -3.96898359e-01 -2.12953180e-01 +7.06616789e-02 +5.80868363e-01 -2.21461818e-01 -5.62960953e-02 +3.13760459e-01 -1.54505983e-01 +1.47393197e-01 -3.54621947e-01 -6.80526048e-02 -3.97964828e-02 +9.89000201e-01 -3.20251435e-01 -1.75635181e-02 -6.30864024e-01 -3.20109218e-01 +2.04325020e-01 +5.23221195e-02 +5.19347116e-02 -7.15619512e-03 -2.52023727e-01 -2.57715359e-02 +1.12455584e-01 -2.64579475e-01 -3.97990048e-01 -5.82698584e-02 +7.13144615e-02 +2.27277458e-01 +1.48994550e-01 +2.80084312e-02 +1.70010418e-01 -2.36051187e-01 +5.84329199e-03 -2.29224991e-02 +3.30810100e-01 +3.54012638e-01 -2.52696555e-02 -1.38549432e-02 +1.74360752e-01 +2.12232806e-02 -8.09222981e-02 -1.08041249e-01 +1.76496923e-01 +1.68360069e-01 -3.37397367e-01 -9.83194113e-02 +1.87333003e-01 -1.69770479e-01 +1.62283685e-02 +3.54144871e-02 -9.76943299e-02 -1.97514445e-01 -4.51143421e-02 -1.01671867e-01 -1.38040975e-01 -6.18234128e-02 +9.18249227e-03 -5.25328368e-02 -2.17748001e-01 -3.55823636e-02 +1.10628076e-01 -1.05008155e-01 +3.24807137e-01 -3.07151303e-02 +4.02237594e-01 -4.49567772e-02 -3.61536592e-02 +1.00990906e-01 +1.28882527e-01 -2.61378884e-02 -7.23917410e-02 -8.07685684e-03 +8.94817989e-03 -1.07284961e-02 -3.85490149e-01 -1.31832242e-01 +7.10490905e-03 -3.74093279e-03 -1.23471506e-01 -3.12141031e-01 +1.41931489e-01 -2.60763103e-04 -1.04257904e-01 +1.45439833e-01 -9.33343023e-02 +1.50667384e-01 +2.25510690e-02 -8.57408419e-02 -7.55810887e-02 +1.44669716e-03 +2.53131092e-01 +1.32309079e-01 -2.52918035e-01 -2.46048808e-01 -3.50314051e-01 -1.50039747e-01 -1.32729160e-02 +3.30201872e-02 -2.20024556e-01 +2.57425219e-01 -1.33473441e-01 +4.98178601e-02 +3.62449437e-02 -3.74385387e-01 -2.70983074e-02 +1.40885944e-02 +6.16786815e-02 +7.31726661e-02 -1.75824910e-01 -2.19122127e-01 -1.25894714e-02 -1.97868347e-02 -1.39292069e-02 -2.47569144e-01 -2.57071648e-02 -8.68691318e-03 -4.29513723e-01 -1.20570354e-01 -2.00546652e-01 +3.24574560e-01 -2.38806605e-01 -1.10311739e-01 -1.00670263e-01 -1.23827703e-01 -1.58875912e-01 +1.17124319e-02 +1.14821635e-01 -2.50744551e-01 -4.50915217e-01 -1.84621021e-01 -1.71975270e-01 +6.48190007e-02 -5.16626835e-01 -1.72133911e-02 -2.42204845e-01 -2.28905722e-01 -4.42709657e-04 -3.25528890e-01 +1.01908870e-01 -3.16047162e-01 -1.30330190e-01 -1.01233628e-02 +1.60739884e-01 +9.11073536e-02 -2.15080362e-02 -3.59763764e-02 -4.00966376e-01 -1.98957160e-01 +1.96331874e-01 -8.52398500e-02 -2.62060277e-02 +1.68268114e-01 -2.37439230e-01 +1.48795858e-01 -3.28030139e-01 +6.37235343e-02 -7.83371031e-02 -1.66989341e-01 +1.75609007e-01 +1.05599187e-01 +1.22082703e-01 -5.08460887e-02 +2.08016247e-01 -1.75467715e-01 -8.82737115e-02 +1.27852231e-01 -4.52000462e-02 +4.73656431e-02 -2.59674996e-01 +3.48669440e-01 +1.34119689e-01 -7.88681954e-02 +2.26381466e-01 -8.12774152e-02 +1.25586381e-02 -2.90879250e-01 -3.25808942e-01 -1.18707329e-01 -1.53533276e-02 -2.43637934e-02 +1.51343159e-02 -1.43526003e-01 -1.47967696e-01 -1.07945025e-01 +3.20567131e-01 -1.05226748e-01 -3.54294702e-02 +1.30604178e-01 -2.98647210e-02 -1.07110307e-01 -2.04428099e-02 -8.37183669e-02 +1.48890982e-03 +7.80597255e-02 +1.40425367e-02 +2.72407413e-01 +3.13655972e-01 +1.04230968e-03 +2.57993396e-02 +7.90013224e-02 +1.29816189e-01 +5.51907383e-02 -1.41234890e-01 +1.43765723e-02 +7.80705959e-02 +1.79829329e-01 +5.75131737e-02 -1.04596503e-01 +2.30064258e-01 +3.10518652e-01 +2.07547203e-01 -1.33332442e-02 +1.91540778e-01 -2.53023833e-01 +1.21551648e-01 -6.41888902e-02 +6.19347719e-03 -2.66985178e-01 -3.51262316e-02 -3.19140077e-01 -3.36257815e-01 +8.17767605e-02 +8.57465044e-02 -1.42377108e-01 +1.02375709e-01 +4.94959801e-02 -1.32553242e-02 -2.04191253e-01 +1.25813499e-01 +3.07572521e-02 +7.45085105e-02 +4.22401726e-02 +8.42114538e-02 +1.02119774e-01 +7.32431188e-02 -5.59009463e-02 -3.11809599e-01 -8.96088779e-02 -3.70531436e-03 +1.63787916e-01 +2.11568207e-01 +2.15667740e-01 -3.33682179e-01 +2.71683838e-02 +9.77975950e-02 +2.28435710e-01 -4.84760478e-02 -3.53539586e-01 +3.43868136e-01 +2.09881067e-01 +9.30050686e-02 +2.34574899e-02 -1.14689037e-01 +1.73374936e-01 +2.93727666e-01 -5.93280554e-01 -1.41158551e-01 -2.06271112e-01 -3.05505067e-01 +2.05087364e-01 +4.43574637e-01 -7.89902210e-01 -1.23465080e-02 +7.33202100e-02 +3.12913395e-02 -1.07560441e-01 +3.55278258e-03 +2.34623969e-01 +4.63747187e-03 -4.64265794e-02 -1.68882191e-01 -6.15303479e-02 +4.01943997e-02 +3.22595090e-01 +2.78235406e-01 +3.50748934e-02 -6.59310892e-02 -1.74374312e-01 +1.56039342e-01 +1.51505709e-01 -7.55896419e-02 -1.26828447e-01 +1.43662870e-01 +8.45533684e-02 -2.00641945e-01 +1.01275131e-01 -1.37702689e-01 -2.16922462e-02 -2.55808290e-02 -3.93592902e-02 +3.52849625e-02 +3.13511014e-01 -7.70230778e-04 +9.90598202e-02 +5.65801002e-02 +2.19154000e-01 +3.24440807e-01 -1.50117232e-02 -8.35537910e-02 +1.86557814e-01 -1.55179486e-01 -5.96182644e-02 +1.21568762e-01 -2.29764208e-02 +3.50932688e-01 +9.23006162e-02 -1.67333812e-01 -9.84209627e-02 +2.24745609e-02 +3.06332886e-01 +4.17884998e-02 +1.09679215e-01 -1.14816293e-01 -5.63669093e-02 -9.16011408e-02 +4.52357754e-02 +3.48684974e-02 +3.22166443e-01 +1.69237614e-01 -8.43794495e-02 +3.57132882e-01 -1.78241923e-01 -5.86557388e-02 +4.06938307e-02 -1.45880654e-01 -4.87503670e-02 +4.88579609e-02 -1.10003926e-01 +1.01786308e-01 -5.65874204e-02 -1.77441254e-01 -2.14891046e-01 -4.43537720e-02 -3.16698968e-01 +3.95530043e-03 -1.47161528e-01 -3.31776649e-01 -1.64791256e-01 -1.09086946e-01 -1.42110288e-02 -6.32716790e-02 -4.82682437e-02 +1.26710013e-01 -1.53680891e-01 +1.13138966e-01 +2.17824429e-01 +1.82597712e-01 +4.37863767e-01 +2.92101532e-01 -2.11702332e-01 -1.12872310e-01 -2.82345951e-01 +2.97798872e-01 -1.03017114e-01 +7.11529776e-02 +1.64928585e-01 +1.14315085e-01 +7.62055144e-02 -1.42910108e-01 +7.51368105e-02 +5.45904366e-03 -1.30767822e-01 -9.66079757e-02 -5.39962761e-02 -4.23565060e-02 -1.86417446e-01 -2.64400057e-02 -3.86210024e-01 +1.50885954e-01 -1.15976125e-01 -4.42931056e-02 -1.97672606e-01 -2.15078518e-01 +1.57442726e-02 +1.96859166e-01 -2.49736961e-02 +2.63462842e-01 -7.76912495e-02 -3.84792656e-01 -1.68600276e-01 +1.80177465e-01 -3.78484398e-01 -3.47962230e-01 +2.97542334e-01 -1.39661208e-01 -2.55045056e-01 +1.87082663e-01 -2.50494391e-01 -4.22941595e-01 +3.36859405e-01 +1.29447624e-01 -1.02289498e-01 +3.57747599e-02 +1.53835461e-01 +1.57334387e-01 -1.96808830e-01 -3.72284837e-02 +1.47692650e-03 +7.58016929e-02 -3.53320241e-01 -1.00652330e-01 -3.56436878e-01 -2.21430987e-01 +1.22763447e-01 -4.25664969e-02 +1.25050545e-01 +3.74696739e-02 -5.85783049e-02 -1.01433441e-01 +6.95724189e-02 -1.20453268e-01 +3.04526985e-02 +1.43337443e-01 -2.01831579e-01 +3.64821404e-01 -5.73399812e-02 -1.46103988e-03 -2.52103686e-01 +7.21206889e-02 -5.30354939e-02 -1.35670481e-02 +1.09550074e-01 -6.16282411e-03 -4.24970925e-01 -4.40544248e-01 -1.65634796e-01 +1.28202967e-03 -1.95777550e-01 +1.80393949e-01 +2.97572892e-02 -2.14160085e-01 -2.01971620e-01 -3.33299637e-01 -8.04591477e-02 +2.25938946e-01 -1.59489885e-01 +3.09052408e-01 +1.48853898e-01 +1.96641654e-01 -1.28125977e-02 +1.20017730e-01 +1.52420728e-02 +1.26568362e-01 +2.50393480e-01 +3.56356651e-01 +2.46369228e-01 -4.52159159e-02 -1.49151251e-01 -3.72981489e-01 +7.56075159e-02 +3.56521189e-01 -8.62459540e-02 +2.04653725e-01 +3.31987172e-01 +2.66833138e-02 -3.38853933e-02 +1.98003673e-03 +2.09997684e-01 +3.25651854e-01 -1.86027028e-02 +1.19962931e-01 +3.00908625e-01 +3.32301855e-02 +3.61892283e-01 +2.49213248e-01 +1.55733809e-01 +1.43908173e-01 -6.45914748e-02 +8.59064758e-02 +2.71599106e-02 +5.37218079e-02 -3.69396880e-02 +1.10317260e-01 -1.30643010e-01 +9.68821067e-03 -1.81225449e-01 -4.84212814e-03 -4.63155694e-02 -2.45365486e-01 +5.10899350e-02 +1.47806495e-01 -2.13135362e-01 +6.74754009e-02 -6.44674972e-02 +6.56832829e-02 -4.37047333e-02 -2.21303135e-01 +2.27795482e-01 -4.50220481e-02 +1.02431729e-01 +1.74182028e-01 -1.73311114e-01 +1.00170456e-01 -1.66880667e-01 +7.13439286e-02 -1.58391222e-01 +1.27907693e-01 +3.53183687e-01 +4.87536192e-03 +4.89669200e-03 +4.20383029e-02 +1.65514782e-01 +1.92403287e-01 -5.45765162e-01 -1.63062170e-01 +3.39716822e-02 +2.92607486e-01 +2.66473889e-01 +7.95961991e-02 +9.44503918e-02 +1.36091754e-01 +2.16992497e-01 +1.40521348e-01 +2.11081713e-01 +4.80713516e-01 +1.27941310e-01 +2.43191451e-01 -1.91826046e-01 +1.48800090e-01 +3.51546615e-01 +2.05987588e-01 +1.40546948e-01 +2.74687350e-01 -2.28608206e-01 +2.60282964e-01 +3.70429188e-01 -1.94915682e-02 +1.05704330e-01 -2.16451511e-01 -1.30718142e-01 +2.47231588e-01 +1.54603943e-02 -2.12060049e-01 -3.65977995e-02 -1.45002156e-01 +8.01885650e-02 -1.43350199e-01 +8.05439521e-03 +3.87494899e-02 -9.71287861e-02 -2.91525453e-01 +1.90395698e-01 -5.13930172e-02 -1.38623267e-01 -5.39970361e-02 +1.27250906e-02 +1.21837758e-01 +6.76880404e-02 +1.06295720e-01 -5.60600683e-02 -1.12080112e-01 +1.61465958e-01 -1.05962232e-01 -2.59026021e-01 -1.14908166e-01 -1.26241129e-02 -1.18170768e-01 +1.76720560e-01 -7.80268908e-02 +1.05287671e-01 +2.32004244e-02 +1.86147884e-01 +4.93691526e-02 -2.52747033e-02 +2.15655327e-01 -1.76550522e-01 +2.41241120e-02 -1.29680987e-02 +3.61872613e-01 -8.95887706e-03 -2.87665147e-02 +2.11710304e-01 +5.40694632e-02 +3.07528853e-01 +2.29119271e-01 +1.11287013e-01 -2.57769823e-01 -2.56174773e-01 +6.89288974e-02 +2.23398674e-02 +5.24003357e-02 -1.55441582e-01 +9.96958390e-02 +5.17991073e-02 -1.61187863e-03 -1.37065321e-01 +8.66821557e-02 -7.76412785e-02 +6.13882355e-02 -1.15588838e-02 -3.32121067e-02 +1.70511752e-01 +2.02728286e-02 +1.27352625e-01 +2.14113623e-01 -5.39988577e-02 +1.35160908e-01 -2.09523097e-01 +2.77904212e-01 +3.98196205e-02 -2.57654607e-01 -1.70044839e-01 -4.88011166e-02 -2.40942836e-01 -1.71254545e-01 +1.57372013e-01 +2.39802469e-02 -9.84258577e-02 +4.31727953e-02 +1.05695538e-02 -2.09028944e-02 -1.36701092e-01 +7.00898692e-02 +3.24376747e-02 +6.49574623e-02 +1.03477232e-01 +1.54147699e-01 +2.39743832e-02 +6.64691180e-02 -8.42698440e-02 +1.25259697e-01 -6.44140504e-03 -9.51516554e-02 -7.26890042e-02 +2.29204729e-01 +1.94273487e-01 -3.63282859e-01 +3.31358686e-02 +1.46188304e-01 +2.70672917e-01 +3.42813969e-01 -3.46235067e-01 +3.29473436e-01 +2.04591349e-01 -4.48958464e-02 +1.44761413e-01 -1.65425465e-01 -7.98096284e-02 +3.02143455e-01 +2.61278450e-01 -1.87933948e-02 -1.26120746e-01 +1.18166029e-01 -2.22726427e-02 +3.72521281e-01 -4.57764775e-01 -7.75898155e-03 +1.47206843e-01 +9.28017721e-02 -4.80220579e-02 +1.26293883e-01 +2.64532149e-01 -1.99463308e-01 +2.62274384e-01 -1.56333417e-01 -2.64492691e-01 +5.19354753e-02 -1.71140119e-01 -7.99437165e-02 -6.00003861e-02 -1.10864125e-01 -3.34313363e-02 +8.14389139e-02 -7.50337392e-02 -1.76344559e-01 -2.23896593e-01 +2.83093631e-01 +1.56445399e-01 +1.55102938e-01 +5.86200766e-02 +1.65189013e-01 -5.68346642e-02 +2.33977720e-01 -1.42805174e-01 -5.03889425e-03 +1.37267038e-01 -7.60828257e-02 +6.77966401e-02 +3.02747525e-02 -1.28019890e-02 -7.68782152e-03 +8.41503143e-02 +5.98366074e-02 -6.12706877e-02 -8.26524664e-03 +9.24021937e-03 -7.53984526e-02 +1.41026512e-01 +1.98372647e-01 -9.00168065e-03 +1.55649051e-01 -7.20713958e-02 -1.73915386e-01 +4.67704274e-02 +4.84919161e-01 +3.04675251e-01 +4.80277538e-02 +1.28820851e-01 +3.57476652e-01 +3.63092184e-01 +8.93824995e-02 -3.27540129e-01 +2.35302940e-01 +1.59388542e-01 -9.36901867e-02 +1.09218538e-01 -1.11340784e-01 -2.26348907e-01 +5.60790226e-02 +2.43342713e-01 +3.51423323e-01 -3.32594849e-02 +1.17498577e-01 +2.66527146e-01 +3.67076635e-01 +1.59462437e-01 +1.08327039e-01 +1.30479246e-01 +3.16883892e-01 +3.12018096e-01 +1.40103057e-01 -9.26768482e-02 +5.88099984e-03 +3.11029684e-02 +2.62077063e-01 -9.18447785e-03 -7.09670559e-02 +2.49330014e-01 -1.32085860e-01 +1.01355679e-01 -1.16885051e-01 +1.49609640e-01 +5.94575554e-02 -1.53210238e-01 +3.12880218e-01 +5.58048151e-02 +9.49961916e-02 -6.74982741e-02 +2.22758934e-01 -4.01197299e-02 +1.42574176e-01 -2.93904524e-02 -2.88705677e-01 +2.71354377e-01 +5.05984500e-02 +9.73952413e-02 -5.72000332e-02 +4.02483866e-02 +4.12165672e-02 +2.11412519e-01 +6.06791414e-02 +1.19011991e-01 -7.16039985e-02 -4.35783528e-03 -3.27000134e-02 -3.64975542e-01 +2.64459521e-01 +3.77177209e-01 -2.42659584e-01 +2.99502522e-01 +1.68675780e-01 +2.81604398e-02 +3.44797283e-01 +4.66892928e-01 +4.32036936e-01 -1.85643375e-01 -1.71612613e-02 +3.30909938e-01 +2.70849913e-01 +1.26984581e-01 +7.65078589e-02 +1.68802757e-02 +1.58785373e-01 +1.20270267e-01 +4.71787632e-01 +1.10945627e-01 +2.05451950e-01 +2.31332257e-01 +3.79243463e-01 -1.42346665e-01 +3.01496625e-01 -1.61739979e-02 +3.76290828e-01 +3.83430272e-01 -2.04799473e-01 +2.17984140e-01 +1.39240086e-01 +9.23188850e-02 -5.53331785e-02 +4.75724638e-02 +2.24068239e-01 +1.07655354e-01 +1.64983645e-01 -1.22959688e-01 +2.65021622e-01 -9.00252163e-02 +2.59577841e-01 +1.97461352e-01 -1.78188324e-01 +1.96114868e-01 -2.01855212e-01 +6.25064969e-02 -7.20507056e-02 -3.24730217e-01 +2.46926174e-01 -2.14581117e-01 -7.89826065e-02 -4.20693874e-01 -4.45295386e-02 -3.92540209e-02 -2.28645861e-01 +1.47054538e-01 +2.90305883e-01 -4.46291834e-01 -1.31811664e-01 +1.79717287e-01 -5.08314222e-02 -9.06908289e-02 +1.88754275e-02 -1.63042173e-01 +2.12281406e-01 -1.41016826e-01 +1.67066399e-02 +1.16850138e-01 +2.87389327e-02 -5.48272431e-02 -9.93666006e-04 -1.70625672e-01 -1.98634446e-01 +2.38851700e-02 -2.12088302e-02 +9.54607949e-02 +1.85391214e-02 -4.56357338e-02 +2.70424843e-01 +1.28079271e-02 -4.16327789e-02 -1.77231491e-01 +3.03947926e-02 +2.44428083e-01 -5.48730008e-02 -2.53983498e-01 -9.82456207e-02 +9.13849100e-02 +5.81343062e-02 -7.94486627e-02 -4.68989648e-02 -6.77641109e-02 -1.74552768e-01 -3.41602802e-01 -3.07413846e-01 +2.67291665e-01 +7.96862394e-02 -5.45609966e-02 +5.31008355e-02 -4.61356714e-02 +4.14895080e-02 +1.75908580e-01 -2.77549140e-02 -4.88333032e-02 +1.88130662e-01 +9.41480231e-03 +4.23932225e-01 +1.76344797e-01 -2.04884738e-01 +5.04663624e-02 +1.70858447e-02 -1.55113801e-01 -7.52372891e-02 -5.57073727e-02 +5.04699230e-01 +1.13730073e-01 +1.17635705e-01 -3.74436639e-02 +2.02851817e-02 +1.68424860e-01 +8.63192379e-02 +3.32363993e-01 -1.69425949e-01 -7.11053014e-02 -9.76214781e-02 +2.32654348e-01 +2.76587188e-01 +1.44119620e-01 +3.34988028e-01 -2.04545796e-01 +5.40683940e-02 +5.35182953e-01 +1.63258240e-01 -2.76331097e-01 -5.82201406e-02 -2.15580881e-01 -3.15369904e-01 -4.21004623e-01 +2.15796188e-01 +4.77937728e-01 -6.41397163e-02 +2.94995219e-01 -5.33943951e-01 -2.01914966e-01 +2.72191316e-01 +4.14731018e-02 -1.44848689e-01 +7.12605864e-02 -1.89267501e-01 +1.68224648e-01 -2.82948883e-03 +4.39010441e-01 -1.76784083e-01 -3.48873526e-01 +1.32011306e-02 -3.18112582e-01 -5.13565958e-01 -1.15516327e-01 -2.35513136e-01 +2.33614028e-01 -3.23285669e-01 +4.18766476e-02 -1.31979927e-01 -2.03387246e-01 +2.67451137e-01 -3.29575062e-01 +1.41729772e-01 -5.91310561e-02 +2.80991137e-01 +2.11115889e-02 +1.03710942e-01 -3.34679224e-02 +2.43724689e-01 -6.48205131e-02 +1.92247890e-02 +1.48497298e-01 +4.64764275e-02 +5.67187183e-02 +4.45784956e-01 +1.90005824e-01 -2.87198033e-02 +8.15817341e-02 +1.56515613e-01 -2.37909872e-02 -1.49683774e-01 -2.40012053e-02 +1.20091036e-01 -1.40486568e-01 +3.05005852e-02 -1.77198470e-01 +2.27635503e-01 +1.37778744e-03 -1.90187506e-02 +1.03869408e-01 -7.18581118e-03 -3.46514434e-02 -4.29143101e-01 -2.38594919e-01 +6.77794442e-02 -2.17248380e-01 +8.93077850e-02 +2.05377892e-01 -5.51509023e-01 +1.40419170e-01 +1.15063796e-02 -6.29773885e-02 -2.42999569e-03 +1.39540076e-01 -1.10509247e-01 -1.30173927e-02 -3.36592019e-01 -2.56156564e-01 -1.92037433e-01 +1.07091688e-01 +3.46212655e-01 -2.00230166e-01 -1.51375175e-01 -7.16258064e-02 -3.72061972e-03 -2.24617586e-01 +9.15848166e-02 -2.37153068e-01 -4.26054597e-01 +1.33544907e-01 +1.11474827e-01 +4.02719229e-01 -2.79162884e-01 -5.77523336e-02 +1.93822026e-01 +2.97148257e-01 +1.11411579e-01 +6.76956102e-02 +4.93720025e-01 -4.66308370e-03 +1.96866795e-01 +7.58213326e-02 +1.82558402e-01 -2.93473098e-02 +9.55719352e-02 -1.37936935e-01 -1.74129829e-01 -2.55856924e-02 +9.18870233e-03 -4.77529056e-02 -2.03441247e-01 -5.53161949e-02 +2.61926472e-01 -1.49049774e-01 -7.56590664e-02 +1.30722634e-02 -8.39474574e-02 -7.18777999e-02 -1.68913394e-01 +1.90550238e-01 +6.57603264e-01 +2.03051791e-01 +4.01141256e-01 -2.03222111e-01 -3.51972729e-01 +3.22854102e-01 -5.75736642e-01 -4.34587151e-01 -5.97918853e-02 -1.41645655e-01 +1.63102910e-01 -9.47807729e-02 -3.48181389e-02 +3.12450938e-02 +7.45784789e-02 +9.59350407e-01 -3.11821640e-01 +7.18862712e-02 +2.55448725e-02 +3.20237607e-01 -1.61867797e-01 -3.10264081e-01 -1.18439570e-01 +1.51768833e-01 +1.01451375e-01 -4.14013803e-01 -7.48328120e-02 -4.03316826e-01 +1.56694248e-01 +1.03907323e+00 +1.29431084e-01 -2.93363929e-01 -9.73426178e-03 +1.08293541e-01 +3.49461958e-02 +3.13727200e-01 -2.82033235e-02 +1.50600120e-01 +1.76428556e-01 +3.61357182e-01 -1.79387987e-01 -1.10769391e+00 -6.21835403e-02 -1.01102583e-01 -2.49863282e-01 -2.60107219e-02 +2.54281282e-01 -1.02518171e-01 -5.84882572e-02 -2.73459894e-03 -4.70704101e-02 +2.64681759e-03 +1.76882014e-01 +2.66256094e-01 +3.13333720e-01 +8.21901932e-02 +1.18334860e-01 -2.36537680e-01 +5.76771125e-02 +7.00433850e-01 +1.36180624e-01 -1.30677819e-01 -4.07246023e-01 -1.41415954e-01 +4.03251592e-03 +6.55481145e-02 -6.56719863e-01 +2.55352765e-01 +5.03534591e-03 +6.53056577e-02 +1.39548078e-01 +9.96493641e-03 +9.26870853e-02 +1.39822975e-01 +4.42943186e-01 +1.94991335e-01 +2.81558633e-01 +9.57084894e-02 +3.54565591e-01 +3.73807214e-02 +1.27700254e-01 +1.64760023e-01 +2.17062846e-01 -1.45022571e-01 +8.95597562e-02 -4.74846251e-02 +1.22241937e-02 +2.62628496e-01 -1.71329722e-01 -2.89859697e-02 +1.27627492e-01 +2.47048527e-01 +5.58293834e-02 +4.03837077e-02 +3.32386017e-01 +3.21070045e-01 -2.12178603e-01 +1.28588647e-01 -4.79883375e-03 +9.74548422e-03 +5.28961644e-02 +5.36926426e-02 +3.34513411e-02 -1.67282149e-01 +1.35672227e-01 -3.43366805e-03 -2.36127734e-01 +1.45664707e-01 +1.50711015e-02 +1.54175788e-01 +3.85034740e-01 +5.33079803e-02 -1.24770336e-01 +3.61875892e-01 +1.22468523e-03 -3.62763256e-02 +1.81745455e-01 +1.51596636e-01 +8.19139630e-02 -3.37395854e-02 +7.56973028e-02 +7.45307878e-02 +1.96492532e-03 -5.80445826e-01 +1.34255886e-01 -1.13601305e-01 +3.28238100e-01 -4.90307659e-02 -2.55242348e-01 -2.75014699e-01 -7.75909498e-02 +2.17407078e-01 -1.45252109e-01 -7.04203665e-01 +6.95243776e-02 +9.61332917e-02 -1.55143619e-01 +1.23447768e-01 -7.32526556e-02 +2.87091732e-01 +2.24647731e-01 -5.21474564e-03 -4.45832998e-01 -4.28592533e-01 +1.03579596e-01 +4.31112088e-02 -3.93714577e-01 +2.51118004e-01 -8.27241596e-03 -2.11029232e-01 +2.79072464e-01 +3.17656964e-01 +5.43456733e-01 -8.29371884e-02 +1.47406384e-01 +1.24094896e-01 +3.65910441e-01 +4.62262481e-02 +5.29668033e-02 +9.55846384e-02 +2.07207933e-01 +5.01475856e-02 +4.76814918e-02 -1.66757137e-01 +2.02362612e-01 -8.58568028e-02 -1.87692136e-01 +3.78719531e-02 +1.20016612e-01 +2.13870332e-01 -2.31658950e-01 -1.49483280e-02 +6.13009967e-02 +1.18859284e-01 -2.76395112e-01 +1.03430822e-01 +7.28707090e-02 +7.57436305e-02 -4.88350689e-02 +8.66199285e-02 +1.54682338e-01 +1.02884188e-01 -4.37618554e-01 -3.17017063e-02 -1.83402933e-02 -6.41797343e-03 -4.92380634e-02 -1.66800618e-02 -3.30320477e-01 +1.77796304e-01 +4.46472988e-02 +6.88281208e-02 +1.49315104e-01 -1.35392651e-01 -7.84716755e-02 +1.39860749e-01 +1.80909857e-01 +4.02879044e-02 -1.59840092e-01 +9.99691933e-02 +7.64614251e-03 +4.07227352e-02 -3.21535885e-01 +6.37425929e-02 -3.38348210e-01 +1.64974570e-01 -1.08331539e-01 +8.31950456e-02 +1.29979802e-02 +2.29593411e-01 +9.91068855e-02 +9.28841531e-02 +1.13303903e-02 -1.84885740e-01 +8.47708806e-03 +9.19764638e-02 -1.51000619e-01 +9.99869928e-02 -1.25258327e-01 -1.58434883e-01 +9.28843617e-02 -5.92722446e-02 -2.33516634e-01 -6.63059428e-02 +1.49061233e-01 -4.46494073e-02 -4.09994572e-02 +1.52432755e-01 -1.89796403e-01 +7.06811473e-02 +1.62521899e-01 +1.69897527e-01 -6.77443072e-02 -2.86069661e-02 +1.59722373e-01 +1.76183600e-02 +2.15209946e-01 -6.94536464e-03 +9.37685817e-02 +3.91606912e-02 -3.52492295e-02 +2.88426690e-02 -7.78953433e-02 +8.25696513e-02 -1.40452787e-01 +8.34828019e-02 +3.92967686e-02 -3.75763439e-02 +1.76853716e-01 +1.20713070e-01 -5.90093173e-02 +2.33318150e-01 +1.48947351e-03 +2.59691894e-01 -4.22733165e-02 +2.27619290e-01 +1.68831989e-01 +4.90261704e-01 +2.58878827e-01 -1.56346440e-01 +3.82880449e-01 -2.36931350e-02 +3.24928649e-02 +2.73626179e-01 +2.81069189e-01 +1.59785986e-01 -5.92112839e-02 -2.53420174e-02 -1.59450069e-01 -2.04119086e-02 +4.83856618e-01 +1.86837167e-01 -3.52984041e-01 +2.20552902e-03 +4.64315534e-01 -3.37212861e-01 +1.51816949e-01 -1.51027981e-02 +5.50575107e-02 +3.01253438e-01 -6.31977737e-01 +1.17587611e-01 +1.16286673e-01 -8.60823765e-02 -3.58719051e-01 +2.09968150e-01 +9.15209427e-02 +2.43318826e-01 +6.09138131e-01 +1.99096352e-01 +3.89981233e-02 -8.36638585e-02 +1.25105947e-01 +1.02892011e-01 +2.07550526e-01 +1.34058282e-01 +8.21568295e-02 -3.27514172e-01 -1.03102542e-01 +2.01451167e-01 -3.32643896e-01 -7.40864724e-02 -1.49025783e-01 +1.45020038e-01 -1.58997864e-01 +2.66246140e-01 +1.55888230e-01 -6.54690294e-03 +2.63771772e-01 -1.78112507e-01 +4.79132682e-01 -2.43212640e-01 +1.16434749e-02 +7.60829449e-02 +9.40114036e-02 +1.57838970e-01 +1.00352041e-01 +9.02877897e-02 +1.19646586e-01 -1.15120132e-02 -2.16410249e-01 -4.03198451e-02 +1.83060244e-02 -1.68189883e-01 -1.19222708e-01 -1.73532609e-02 +3.26912224e-01 +1.47307783e-01 +7.20876530e-02 +1.87829938e-02 +6.72394633e-02 -2.78305918e-01 +4.19294655e-01 -7.98386410e-02 +2.59587374e-02 -5.60727976e-02 -2.75522284e-02 -3.24230939e-01 +1.02932051e-01 +2.35274825e-02 +2.28092119e-01 +1.85034409e-01 -1.16424859e-01 -5.34109101e-02 -1.32507876e-01 +1.61526963e-01 +2.27382511e-01 +9.35126618e-02 +1.09386649e-02 +6.52649850e-02 +1.95063829e-01 +1.59724757e-01 +4.00612742e-01 -2.37000421e-01 +2.01917484e-01 -1.36569142e-01 +1.00455925e-01 +2.49921698e-02 -2.34977663e-01 -1.94740295e-01 +3.13257985e-02 -3.48193869e-02 -2.67564803e-01 +1.63538903e-01 -7.63101876e-02 +1.01759575e-01 +8.71783718e-02 -7.41739646e-02 +1.54755443e-01 +1.42590091e-01 +5.49159870e-02 +4.27895747e-02 +1.06550381e-01 -4.05418985e-02 +4.30190824e-02 +1.41448855e-01 -1.81939468e-01 +8.05635825e-02 +8.53601005e-03 -1.21648990e-01 -2.46756338e-02 +1.46260992e-01 +2.53672063e-01 +1.06612630e-01 -3.12186241e-01 -6.04062676e-01 -1.31530926e-01 +4.72105891e-01 +4.83318180e-01 -2.20119104e-01 +1.47487104e-01 +2.11261541e-01 +1.05820432e-01 +2.28632316e-01 +1.95933238e-01 -1.09632596e-01 -1.48539860e-02 +4.20855165e-01 -1.17255270e-01 -5.46979010e-01 +3.55471641e-01 +2.43438734e-03 +2.48049691e-01 -3.29839587e-01 +2.11670622e-01 +2.70427644e-01 +1.02711461e-01 -4.52629291e-02 +3.63889933e-01 +2.55066864e-02 +1.49540707e-01 +2.83708498e-02 +2.80784547e-01 -7.72552669e-01 -5.52579835e-02 -9.42000225e-02 -1.72196254e-01 -4.80463170e-02 -9.06399935e-02 +1.12976596e-01 +3.14978436e-02 -1.84658132e-02 -1.33408889e-01 -3.66150081e-01 +2.33171239e-01 +9.29769814e-01 +2.77311563e-01 +2.08028723e-02 +1.85752660e-01 -4.23488617e-02 -3.32153998e-02 -7.73518011e-02 +3.67832147e-02 +1.03577904e-01 +1.68694019e-01 -1.07438967e-01 -1.41048208e-01 -2.52766639e-01 -3.45879823e-01 -1.65032893e-01 -9.64427590e-02 +1.43966049e-01 +3.47153656e-02 -4.54717636e-01 -1.38660714e-01 +3.73527035e-02 +3.64541501e-01 +1.05703548e-01 +2.45082453e-01 +7.16121569e-02 -2.78212503e-02 +2.05447629e-01 -7.66266435e-02 +9.17747337e-03 -2.74956405e-01 +3.09574157e-02 -1.21193692e-01 -1.03921574e-02 -1.96969867e-01 -2.76246101e-01 -3.53832006e-01 +2.76167214e-01 +4.96072993e-02 +7.88498446e-02 -1.98703840e-01 +3.95527333e-01 -7.63004273e-02 +5.28282635e-02 +1.71181604e-01 -5.34160398e-02 -1.82525278e-03 +1.04746550e-01 -1.77510884e-02 +8.84762183e-02 -2.19495639e-01 -1.16342306e-01 -1.58652738e-01 -8.33965838e-02 +7.42599294e-02 -2.04233781e-01 -3.73487443e-01 +2.44107589e-01 -1.14485309e-01 +3.78554732e-01 -1.00609668e-01 -5.52359968e-02 -2.07549453e-01 +3.50009292e-01 +2.06383634e-02 +2.02702731e-02 +6.15830183e-01 -1.45742625e-01 +1.57045409e-01 +6.64947927e-02 +6.40421435e-02 +4.31849174e-02 -3.00703466e-01 -1.51258707e-01 +9.25274449e-04 +9.27364901e-02 -6.77058995e-02 -1.63148850e-01 +6.56379294e-03 -1.50131464e-01 -2.15054415e-02 +1.50029153e-01 +3.21280025e-02 +3.91435713e-01 -1.09015413e-01 +7.24299923e-02 -4.48694751e-02 +1.70408607e-01 -1.75533339e-03 +3.51095311e-02 +4.60136756e-02 -3.72816265e-01 -1.80680647e-01 +1.51176319e-01 -2.21841276e-01 -3.86933498e-02 -1.63525894e-01 +1.04475670e-01 -1.48474440e-01 -7.88521349e-01 -4.89996761e-01 +2.79824287e-02 +1.49826422e-01 +5.45994878e-01 -3.90543133e-01 +4.01877649e-02 -1.03582285e-01 +1.45340756e-01 +1.28984198e-01 -1.86408848e-01 -7.58667663e-02 +9.57178995e-02 +3.39805870e-03 -1.77931741e-01 -4.06601369e-01 -2.29873925e-01 -2.66011685e-01 +2.10069969e-01 +1.85260683e-01 -3.29211891e-01 -3.61801567e-03 -1.61662683e-01 -3.45438361e-01 -5.83369434e-02 -1.29744470e-01 +1.09196484e-01 -2.14178368e-01 +4.01704073e-01 -2.65429556e-01 -2.04767466e-01 +1.38019294e-01 -4.40438278e-02 -9.92974937e-02 +2.21280813e-01 -6.75676093e-02 -1.09671257e-01 +6.50650859e-01 +2.52960958e-02 +2.06517801e-01 -9.68588740e-02 +3.38010579e-01 -1.06888972e-01 +4.42040786e-02 +1.87067494e-01 +7.80468760e-03 +1.20043851e-01 -1.11939430e-01 +1.23736791e-01 +1.13079706e-02 -1.08830005e-01 +1.59897923e-01 -1.44492388e-01 -3.89664918e-02 -8.28321800e-02 -1.29352063e-01 -3.06639463e-01 -1.47124827e-01 +3.19885164e-02 -7.62648061e-02 -1.22502513e-01 +4.63171769e-03 -1.32622689e-01 +1.20697461e-01 -1.77056864e-01 +3.58263493e-01 -1.05700605e-01 -2.52233297e-01 -3.52299623e-02 +2.88153049e-02 -2.89091289e-01 -6.32203966e-02 -1.92047819e-01 -9.77808330e-03 -4.96301316e-02 -2.45703444e-01 -1.02347113e-01 +1.69069216e-01 -8.93506110e-02 -1.14583470e-01 -1.65012538e-01 +1.28649473e-02 -1.61154062e-01 +5.18057346e-02 -2.18513981e-01 -2.04879090e-01 -1.03711478e-01 +8.21839646e-02 -2.61488520e-02 -1.98908016e-01 -9.34302434e-02 +1.32727429e-01 +2.27452517e-01 +1.50491774e-01 +1.94310486e-01 -1.10503979e-01 -4.14698422e-02 +3.65861893e-01 +1.39284700e-01 -1.04827564e-02 -1.23606861e-01 +2.10884690e-01 -6.28169104e-02 -1.49627253e-02 -2.04261497e-01 +5.73924333e-02 +1.57471932e-02 +1.55495420e-01 +1.41807243e-01 -5.67579195e-02 +1.59386371e-03 -1.54428065e-01 -1.70843214e-01 -1.23818526e-02 +3.14980485e-02 -6.82438239e-02 +2.38197178e-01 +2.27167010e-02 -5.00151515e-01 +2.93006301e-01 -4.99690436e-02 -3.76396298e-01 +7.92503431e-02 -6.60785317e-01 -4.11357671e-01 -9.99899209e-02 -7.93613642e-02 -3.55577953e-02 +9.62808542e-03 +4.68267761e-02 -2.17143930e-02 -1.82396650e-01 -3.75013679e-01 +2.13578194e-01 -1.72306493e-01 +2.83878505e-01 -5.13509452e-01 -1.03199475e-01 +2.53972381e-01 -2.17988431e-01 -1.37692675e-01 +4.58723366e-01 +7.47432485e-02 -2.16608942e-01 -1.25084266e-01 +1.94574788e-01 -2.94331282e-01 +8.47271606e-02 +3.15206707e-01 -2.57858962e-01 -1.48012508e-02 -7.24014919e-03 +4.06697273e-01 -2.57956624e-01 +1.17198601e-02 +5.73826730e-01 -4.61383127e-02 +1.66105460e-02 -2.17026800e-01 +1.88132688e-01 +2.31120083e-02 -3.02943110e-01 +1.63699277e-02 +1.01442598e-01 -1.13760203e-01 -3.02500278e-01 -1.03034593e-01 -1.25202209e-01 +2.13992715e-01 -5.32665215e-02 +3.37159932e-01 +2.19063565e-01 +6.41099289e-02 -7.00126737e-02 -2.15213969e-01 +1.33628666e-01 +1.53380662e-01 -6.18532225e-02 -1.13284804e-01 -6.44158870e-02 -1.62408009e-01 +2.48964801e-01 -1.35801613e-01 +1.90151870e-01 -3.63761298e-02 +1.49194896e-02 +1.94513109e-02 +2.34224632e-01 -1.11796536e-01 +1.13028288e-01 -9.04648826e-02 -6.86058402e-02 +2.67249525e-01 -9.42862257e-02 -1.73154652e-01 -1.89924687e-01 -1.79978833e-01 +4.25139964e-02 +2.04616990e-02 +1.90313742e-01 -5.33358604e-02 -2.09251270e-01 +2.22347528e-01 +2.53584743e-01 -1.03762582e-01 -2.00406209e-01 -4.68674451e-02 +5.14975302e-02 -8.50758404e-02 -2.60623395e-01 +4.49896557e-03 +8.52958262e-02 +2.37509817e-01 +1.99421823e-01 +1.67090654e-01 -2.23037317e-01 -1.53066888e-01 +5.59904836e-02 -1.81979448e-01 -3.74387085e-01 -9.15321931e-02 +1.39356183e-04 +2.55062640e-01 -1.94504872e-01 -1.07712589e-01 -3.34593743e-01 -1.56436190e-01 +2.74140179e-01 -1.72883913e-01 -1.59273565e-01 +2.18901664e-01 -8.12377259e-02 +1.14307836e-01 -2.38266394e-01 -1.48159023e-02 -7.26931961e-04 +1.43253759e-01 -3.08107674e-01 -1.43504180e-02 -2.01908182e-02 -1.12198256e-01 +1.96687672e-02 +5.32037467e-02 -5.77470139e-02 +1.73130259e-01 -3.38260233e-01 +6.70752943e-01 +3.38047650e-03 +2.53148913e-01 +2.25943461e-01 -2.28511527e-01 +2.55944848e-01 +1.71120405e-01 +3.37203354e-01 +2.30563562e-02 -3.35136540e-02 +2.21128061e-01 +7.42674544e-02 +2.43654862e-01 +2.48152807e-01 -2.96545208e-01 +6.22416735e-02 -2.86469180e-02 +1.52952438e-02 -2.63853252e-01 -1.63719684e-01 +4.82106268e-01 +6.92185909e-02 -9.86433122e-04 -2.91848123e-01 +3.67831945e-01 -4.18280885e-02 -2.88092415e-04 -4.08810586e-01 -5.44213057e-01 -6.21784627e-02 +1.93539441e-01 +2.23026946e-02 +4.60012816e-02 +9.85277444e-02 +3.20734084e-02 +2.79533893e-01 +2.84922481e-01 -4.14043963e-02 -7.27238804e-02 +1.76855564e-01 +2.75853276e-01 -1.44769207e-01 +1.86274815e-02 +1.93879187e-01 -1.31226182e-01 +7.62419030e-02 -1.70768529e-01 +1.81751102e-02 +2.67754551e-02 +3.01344186e-01 -3.45958909e-03 +1.56870499e-01 -8.82662609e-02 +2.03837231e-01 +3.73720452e-02 +1.90174714e-01 +6.31754920e-02 +5.69719300e-02 +2.47117411e-02 -6.84970394e-02 -6.77170008e-02 -2.26398762e-02 -5.25627285e-02 +3.20533156e-01 +1.83878869e-01 +2.37486154e-01 -6.66089058e-02 +6.92860484e-02 -1.94964022e-03 -1.64195523e-01 -7.89503902e-02 -1.96783766e-01 -7.61759281e-02 +1.91304758e-02 +6.87530994e-01 -4.04696405e-01 -1.91930771e-01 -2.78039873e-01 +3.72485556e-02 -2.66740799e-01 +1.75454289e-01 +5.30858301e-02 -1.78633571e-01 -2.84092337e-01 -4.71477993e-02 +4.93183695e-02 -2.14246325e-02 -1.57293659e-02 +2.14873534e-02 +3.24146897e-02 -5.33182502e-01 -3.38054389e-01 -8.14918056e-02 -1.86385199e-01 +5.81933884e-03 -3.60800654e-01 +1.34089068e-01 -3.00326914e-01 -9.57755521e-02 +2.59894338e-02 -9.57930908e-02 -2.02154011e-01 +1.78229019e-01 -6.79451749e-02 +1.58394590e-01 +8.74909759e-02 -2.70483583e-01 -1.62932575e-01 -1.24079876e-01 +6.61590397e-02 +8.24427605e-03 +1.55359358e-01 -2.17042461e-01 -2.10975572e-01 -8.69421512e-02 -1.42111108e-01 -2.38155037e-01 +2.03792617e-01 -1.16818517e-01 +1.96104750e-01 +4.80205603e-02 -3.89329821e-01 -2.48620510e-02 -4.23144326e-02 +1.66023508e-01 -2.79671162e-01 +4.19794731e-02 +1.23763243e-02 +7.44820595e-01 -4.06086147e-01 -1.27893791e-01 +1.44743338e-01 -8.07389244e-03 -1.75256535e-01 -2.05014586e-01 -1.74376428e-01 -2.43719235e-01 -6.58965334e-02 -1.36784036e-02 +3.01400237e-02 +2.12865062e-02 +2.13650137e-01 -1.04784735e-01 -5.96094549e-01 -1.88335851e-01 +2.14623049e-01 -2.61405259e-01 -1.71834260e-01 +2.09112883e-01 -1.23201057e-01 +1.84580699e-01 -3.71709645e-01 -8.08388740e-02 -3.90883327e-01 -3.30819547e-01 -1.90582350e-01 -1.66437238e-01 +2.78593600e-01 -4.60467488e-02 -6.28221482e-02 +2.89260477e-01 +1.46331415e-01 +2.77890205e-01 +1.27660871e-01 +8.99959505e-02 -6.14364855e-02 +4.03361231e-01 -1.88182563e-01 -2.41744980e-01 +2.84703448e-02 -6.78950921e-02 +2.30381917e-02 -1.93162382e-01 +2.79827893e-01 -1.06506646e-01 -1.66666552e-01 -9.57816020e-02 -1.06949471e-01 +5.79421818e-02 +7.10386932e-02 +1.38426960e-01 +2.35021666e-01 +9.24077183e-02 +9.04877111e-02 -5.99667877e-02 +1.13540813e-02 +2.22837642e-01 +1.07325718e-01 +3.38555910e-02 -7.64003694e-02 -2.78832614e-01 +1.62559912e-01 -6.81489706e-02 -2.40545958e-01 -3.43871564e-02 -1.73076406e-01 +1.24123022e-02 +1.93898380e-01 +1.45982563e-01 -2.70787571e-02 -7.46768117e-02 +2.09190965e-01 -2.09158286e-01 +4.99458723e-02 -1.28871128e-01 -2.83291757e-01 -1.28087774e-02 -2.05024421e-01 -3.77181113e-01 +7.82909468e-02 +1.07887819e-01 +7.96068683e-02 +2.30819792e-01 -1.14484811e-02 -2.67877080e-03 -1.44863874e-01 +3.58592793e-02 -5.86112067e-02 +5.29978350e-02 +2.65606865e-02 +8.08515772e-02 -1.09198727e-02 -6.21626154e-02 +3.46683979e-01 +1.38921246e-01 -2.19856441e-01 -1.21340536e-01 +1.25309303e-01 +1.69596955e-01 -1.06207961e-02 -3.07438493e-01 -1.60051540e-01 -3.21143828e-02 -1.72639847e-01 +1.48905739e-01 -2.21656188e-01 +6.22134916e-02 +2.02727355e-02 -1.37039378e-01 -1.54616525e-02 +2.18301699e-01 +6.83360994e-02 -1.23727627e-01 +2.70534098e-01 -1.00533836e-01 -2.45879591e-01 +1.45487085e-01 -3.63258719e-01 +1.00922488e-01 +1.84558164e-02 -2.44326726e-01 +6.93083704e-02 -4.23907265e-02 +2.67119288e-01 -2.21560756e-03 -5.10940492e-01 -5.98899782e-01 -2.96874285e-01 +2.52554089e-01 +2.22552627e-01 -5.84453881e-01 +4.10649091e-01 +2.23824590e-01 -2.73830384e-01 +1.49000451e-01 +1.31574729e-02 -1.18634298e-01 -8.30063783e-03 +1.95894495e-01 +5.80059476e-02 -3.32710773e-01 +4.62277718e-02 -1.51129253e-02 -6.50294781e-01 +3.25574875e-01 +9.46529135e-02 +2.90933460e-01 +2.67662644e-01 +5.54123595e-02 +1.54868782e-01 +1.10220551e-01 +1.30689144e-01 +2.33432189e-01 +1.47520006e-01 -8.09329391e-01 +1.91870093e-01 -2.34980211e-01 +6.75725341e-02 -3.16899568e-02 -2.45153964e-01 -1.82317913e-01 +1.22028895e-01 -6.28435090e-02 -4.35565114e-01 -8.87155160e-02 -3.12551707e-02 +5.51205456e-01 +2.69965917e-01 +1.81793198e-02 +4.44009632e-01 -8.86501670e-02 -1.91893220e-01 +2.50026565e-02 +1.01152122e-01 +2.74200797e-01 +5.00648245e-02 -9.53679606e-02 -3.76374751e-01 -3.59711736e-01 -4.51988697e-01 -2.79701024e-01 +5.12344465e-02 -2.91707199e-02 -6.37152195e-02 -4.29445118e-01 -2.08348721e-01 -3.54698487e-02 +2.74003178e-01 +2.61389315e-01 +2.28005812e-01 +7.95479193e-02 +2.32393518e-01 +8.71628746e-02 +6.09893203e-02 +7.85159543e-02 +8.59391764e-02 +5.86551130e-02 +1.62659690e-01 +2.32751131e-01 +4.18782741e-01 +5.60829043e-01 +1.44331604e-01 -1.93287224e-01 +7.65444264e-02 -2.83728465e-02 +3.40306461e-01 +1.30885780e-01 +2.68201619e-01 +1.04939584e-02 -4.57941666e-02 +2.60761082e-01 +6.49390146e-02 +1.32489875e-01 -1.99392200e-01 +3.68298218e-02 +3.41251791e-01 +3.92981231e-01 +1.15791388e-01 +1.48457766e-01 -9.17695612e-02 +1.91728845e-01 -1.21977866e-01 +2.35508755e-02 +3.56507182e-01 -2.56678075e-01 +5.89928292e-02 -4.78979498e-02 +3.25116187e-01 -3.34050581e-02 +4.14931253e-02 -1.41810596e-01 -1.75304100e-01 +3.32827687e-01 +8.30358863e-02 -6.80000484e-02 +5.03297374e-02 -6.55992329e-02 -1.81697786e-01 +1.13281794e-01 -4.13927063e-03 +4.20797840e-02 +1.70074537e-01 +2.12914184e-01 -1.60890535e-01 +2.38931388e-01 -1.13318465e-03 +5.13887331e-02 +2.76348814e-02 +5.34129143e-02 +3.67918573e-02 -1.13608621e-01 +8.35274234e-02 -1.08622640e-01 -2.29104850e-02 +6.43352643e-02 -1.24738412e-02 +2.50904799e-01 +3.18759859e-01 -2.14241907e-01 +5.40024579e-01 +2.24944845e-01 +2.89495766e-01 +1.19828373e-01 -1.05483092e-01 +4.70224738e-01 +1.62733689e-01 +9.99915674e-02 -1.95309296e-01 -9.57953855e-02 -2.33557336e-02 +1.00108914e-01 +1.59551285e-03 -4.88916397e-01 -4.48715836e-02 +1.00916520e-01 -7.01710535e-03 +1.72419697e-01 +1.12276882e-01 -2.37918407e-01 -6.24777116e-02 -1.67998001e-01 +2.92725712e-01 +2.45129153e-01 -4.81183589e-01 +2.91982517e-02 +3.73506695e-01 +2.46699542e-01 +4.95660258e-03 +1.92061141e-01 +1.69686407e-01 +3.96187976e-02 -2.11486042e-01 -2.14123830e-01 +1.89928979e-01 +8.77479184e-03 -1.98307589e-01 +2.35862166e-01 -6.63843974e-02 -6.14696741e-02 -2.92757037e-03 +5.81273884e-02 -1.62522450e-01 +8.99118260e-02 -2.20757857e-01 -1.79683924e-01 +3.17031033e-02 +1.55563429e-01 -1.37054041e-01 -1.65775016e-01 -1.07407592e-01 -8.68046954e-02 -1.19755141e-01 -9.62407738e-02 +3.77865806e-02 +3.54813933e-02 -3.13379802e-02 +4.49597761e-02 +3.36675085e-02 +1.40567109e-01 +4.34040204e-02 +5.74729331e-02 -2.39936914e-02 +1.27013445e-01 +2.30872586e-01 -1.80167288e-01 -1.03357837e-01 +4.36825790e-02 +1.51842624e-01 +2.49259442e-01 +1.49280056e-01 -1.23883560e-01 +2.56738603e-01 -1.82760030e-01 -1.17491633e-01 -9.77164134e-02 -1.93044543e-01 +8.20440948e-02 -2.47683495e-01 +2.02531189e-01 +8.84870514e-02 +9.23407897e-02 -1.71159282e-01 +1.51189670e-01 +3.51886690e-01 -5.56093231e-02 -8.33639596e-03 -1.63098767e-01 +2.73174606e-02 +7.30961412e-02 -1.28983051e-01 +1.10084273e-01 -2.13309266e-02 -4.13437307e-01 +2.64487445e-01 +2.02022437e-02 -3.59198570e-01 +3.19317847e-01 +1.13020077e-01 +1.48643121e-01 -1.43747136e-01 +5.13176993e-02 +2.35211268e-01 -1.52355045e-01 +1.79304734e-01 -1.51751667e-01 +6.27702754e-03 -2.65109763e-02 +1.70594007e-01 -8.65857117e-03 -2.42165118e-01 -1.40228942e-02 +2.77108759e-01 -6.39655441e-02 +1.37534231e-01 +1.22908629e-01 -1.37255043e-01 -9.19909552e-02 -2.59619281e-02 -4.82199481e-04 +9.38966423e-02 -3.04364383e-01 -1.25725478e-01 -4.30451900e-01 +8.02779421e-02 +3.56183201e-01 +7.18427673e-02 -5.15683070e-02 +4.44008738e-01 +8.84698182e-02 +1.11473165e-01 +3.60480743e-03 +8.12012479e-02 +5.39768711e-02 -1.14033386e-01 -1.55595109e-01 -3.62062126e-01 -4.59621668e-01 +2.18759894e-01 -2.73651212e-01 -9.10366103e-02 -1.78863034e-01 -7.71815181e-02 +4.59037982e-02 -8.71636420e-02 -3.39516670e-01 +1.13972344e-01 +2.26953402e-01 -9.36115086e-02 +1.38784349e-01 -3.44647586e-01 -6.81329239e-03 +5.16795702e-02 +1.12780772e-01 -3.99117738e-01 +1.98225960e-01 +4.15689237e-02 +1.38456762e-01 +3.66564542e-02 -4.16183658e-02 -2.45067805e-01 -2.70699114e-01 +3.23809311e-02 +4.30636019e-01 -1.23185813e-01 +4.05431129e-02 +1.83695465e-01 -5.77442124e-02 +9.77449715e-02 -3.06792520e-02 +1.52705148e-01 -2.54699707e-01 -1.56460926e-01 -8.04800913e-02 +5.40591598e-01 +6.39392138e-02 -1.80856213e-01 +1.07147366e-01 +6.34435117e-02 -3.17533314e-02 -7.00343624e-02 -1.31061167e-01 +2.26712972e-01 +7.58424476e-02 -1.11627318e-01 -2.12088093e-01 +4.15597886e-01 -1.39158860e-01 -1.19732067e-01 -1.37926936e-01 +1.41818658e-01 +1.10345826e-01 -2.08187416e-01 -7.76231987e-03 -2.21995294e-01 -1.44715518e-01 +6.83270097e-02 +2.64716763e-02 -2.30482757e-01 -6.19212389e-02 -9.16818380e-02 +6.27844632e-02 -8.52873847e-02 -1.64141841e-02 -7.73013681e-02 -6.20572418e-02 -9.28995609e-02 -1.08482212e-01 -5.97737171e-03 +1.73032939e-01 +7.09778350e-03 +2.36026924e-02 -9.33583826e-02 -5.52014261e-03 +1.24684460e-02 -3.42838429e-02 -5.38280196e-02 -2.26267308e-01 +2.49775231e-01 +8.58665556e-02 -9.06785131e-02 +5.26726544e-01 -3.30384254e-01 -2.24298105e-01 +3.31152141e-01 -2.73879990e-02 +1.62063390e-01 -1.71183959e-01 +1.86528608e-01 -1.86754093e-01 -4.77009360e-03 +4.24498580e-02 +4.52726111e-02 +8.03909376e-02 -2.42340535e-01 -1.67278126e-01 -4.70350981e-02 +1.27039224e-01 +1.61960453e-01 -1.20847970e-01 -1.60408735e-01 -2.52623051e-01 +2.91788876e-01 -9.05230641e-03 +6.43803924e-02 -7.07073584e-02 +4.75841798e-02 +1.21379659e-01 -2.03350052e-01 +3.47084969e-01 +9.72679108e-02 -2.37379476e-01 -1.32206887e-01 -2.70609647e-01 -2.14820579e-01 -1.02641419e-01 -5.49047589e-01 -2.06356958e-01 -6.22190423e-02 +5.08408435e-03 -1.91381007e-01 -1.63567394e-01 +1.73794046e-01 -5.49403012e-01 -7.58312494e-02 +2.16917336e-01 -2.04746470e-01 +4.84686270e-02 -2.28307098e-01 +3.85848701e-01 -1.80174023e-01 -1.64103523e-01 +6.96922913e-02 +1.85821474e-01 +2.17348382e-01 -2.11581234e-02 -8.04313496e-02 +8.73476453e-03 -2.31924728e-01 +1.12245210e-01 +1.12327412e-01 -2.72009782e-02 -1.32558390e-01 -3.39938104e-02 +5.06524369e-02 +2.27352623e-02 -2.41747960e-01 -1.75696105e-01 -2.23072339e-02 +1.92025840e-01 -1.81488320e-01 -2.82847732e-01 -3.17889988e-01 -1.11972272e-01 +5.93468770e-02 -1.93932325e-01 +3.12476289e-02 -1.29419211e-02 -2.11783759e-02 -7.49444515e-02 -1.18179053e-01 -2.09165514e-02 -1.50814787e-01 +3.36496860e-01 +4.28310663e-01 +1.85985252e-01 +1.39295414e-01 -1.23023868e-01 -3.74253452e-01 +6.06553435e-01 +7.69882947e-02 -3.24882090e-01 -7.96501860e-02 +6.36103079e-02 -2.43889034e-01 +3.26593816e-01 -3.16776752e-01 +3.00296515e-01 +6.97171390e-02 -1.30496591e-01 +1.68780796e-03 +3.76371667e-02 +2.44448837e-02 +1.33799121e-01 -7.02809468e-02 +8.05807561e-02 -1.52298316e-01 +2.25990638e-01 +4.40749496e-01 +1.06319413e-01 -8.13821554e-02 +1.10521629e-01 +3.12183425e-02 +1.14083476e-01 +3.01841497e-02 -1.93467923e-03 -1.55087281e-02 +2.62258619e-01 -2.20775194e-02 -6.72518760e-02 +4.20661718e-02 +2.23426402e-01 +1.04587696e-01 -1.16728544e-01 -1.96172073e-01 +2.70742685e-01 +6.68296292e-02 -9.56817046e-02 -8.64433944e-02 -8.38170107e-03 -2.17830427e-02 +1.20177686e-01 +6.20888397e-02 -3.88576567e-01 -4.75360043e-02 +2.50296324e-01 -7.35284537e-02 -1.01075098e-01 -2.45938763e-01 -7.81391487e-02 +1.31609827e-01 -6.94161430e-02 +5.45516610e-02 +1.04989305e-01 +1.20760068e-01 +7.86640346e-02 +7.51728863e-02 -1.58347785e-02 +5.29485159e-02 -8.90810490e-02 +1.90162957e-01 +9.77717787e-02 +1.49145380e-01 -3.69840652e-01 +9.08224732e-02 -2.01292649e-01 -7.43822679e-02 -4.45268363e-01 +8.55176598e-02 -2.25942537e-01 -2.80746907e-01 -6.37769923e-02 +3.19751613e-02 -5.22093594e-01 +1.40297255e-02 +8.04441422e-02 +1.46315634e-01 +8.22825208e-02 +2.55126357e-01 +2.76432157e-01 -2.65148342e-01 -3.06348175e-01 -1.82511955e-01 -2.30927482e-01 +1.58518672e-01 -1.63426367e-03 -1.52118906e-01 +3.59300345e-01 +2.23295093e-01 -5.73332489e-01 +1.55891582e-01 -1.38353288e-01 -1.91195272e-02 -3.55546892e-01 +1.04515329e-01 +1.82237998e-01 +4.79043126e-01 +5.29892147e-01 -1.88453700e-02 -5.73808998e-02 +1.28734499e-01 +3.63573506e-02 +2.46482611e-01 +9.86309499e-02 +7.41988979e-03 -3.30232922e-03 -1.62296459e-01 -3.29554304e-02 -3.64496596e-02 +2.98308805e-02 -4.46065634e-01 -5.48238568e-02 -4.93833609e-02 +3.54325056e-01 -1.57160744e-01 +2.92710960e-01 -5.84919658e-03 -1.79362744e-01 -8.83675516e-02 -7.89370388e-02 -3.56422901e-01 -2.87361532e-01 -2.62753218e-01 +5.43954130e-03 -1.78626865e-01 +8.64581615e-02 +1.80389568e-01 +2.96658725e-01 -3.08737289e-02 -4.97379154e-03 -1.93702236e-01 -1.77537873e-02 -5.12646735e-01 -1.13940224e-01 -6.34905219e-01 -1.00629091e-01 -2.24444702e-01 -3.96340787e-02 -1.47509024e-01 +4.58522588e-02 -1.06083984e-02 -1.60507709e-02 -2.45056331e-01 -6.96598887e-01 -8.96096881e-03 -3.12769152e-02 +3.09075475e-01 +2.54610479e-01 -1.49055555e-01 +2.61075526e-01 -4.02218662e-02 -1.36058718e-01 +3.51528674e-02 -1.18737981e-01 -1.02068357e-01 -2.13145688e-01 -6.37427717e-02 -7.82758147e-02 -3.76671761e-01 -8.18337947e-02 +3.20761055e-02 -1.52210250e-01 -2.26976320e-01 +1.05091564e-01 -2.56116122e-01 -9.58628580e-02 -3.90467513e-03 -4.34844382e-02 -1.69958338e-01 +8.07814822e-02 +7.62989148e-02 +3.94551717e-02 -1.17208652e-01 +1.39563113e-01 -1.17366202e-01 -2.87987202e-01 +2.70291090e-01 -6.35666773e-02 -1.44985273e-01 +1.71971291e-01 +2.66661584e-01 -1.21991724e-01 +1.08088382e-01 +1.04997300e-01 +1.66620865e-01 +3.09037510e-02 +2.51296729e-01 -1.10206284e-01 -1.29049256e-01 -3.62731814e-02 +4.54023220e-02 -2.29235321e-01 +3.59812602e-02 +7.51635581e-02 +1.55525044e-01 -5.71327031e-01 -9.30677205e-02 +1.07165657e-01 -3.02670747e-01 +1.20537326e-01 -5.02215445e-01 +8.19240287e-02 -6.72306642e-02 -1.85859084e-01 -1.74085274e-01 -1.42189980e-01 -1.51451036e-01 +2.23686635e-01 +2.16727946e-02 -5.79502642e-01 -1.12996981e-01 -2.67771125e-01 -1.21874869e-01 +1.57891497e-01 -2.56875336e-01 -4.49584991e-01 -1.06006831e-01 -3.57228875e-01 -1.61898747e-01 -4.42930281e-01 -4.08139467e-01 +2.13406328e-02 -6.75832182e-02 +2.16508850e-01 -1.21845782e-01 +4.16709036e-02 +1.57774761e-02 +4.68711525e-01 -7.96453655e-01 -2.83872336e-01 +1.97672248e-01 -1.27970621e-01 -3.41191739e-01 +4.65330854e-02 +5.21960437e-01 -1.17021643e-01 -3.12984325e-02 -7.29842409e-02 +1.34521410e-01 +1.10970661e-01 -2.98544228e-01 +1.81109577e-01 +7.11521432e-02 +7.12464079e-02 -3.30143780e-01 -3.21353704e-01 -1.24279663e-01 +1.25990376e-01 -1.22942798e-01 +4.86205332e-02 +2.48543620e-01 +5.29381216e-01 +6.56947792e-02 -1.47606954e-01 +2.10816205e-01 -2.06450582e-01 -3.01616639e-03 +2.03759354e-02 -1.12541318e-01 -1.60588786e-01 -1.02579398e-02 +7.37019405e-02 -1.40683830e-01 -1.47882779e-03 -4.31757495e-02 -5.50100803e-02 +1.28421888e-01 +9.16364864e-02 -1.06206007e-01 -1.05002401e-02 +2.01420650e-01 -7.10552871e-01 +2.21399426e-01 +2.43798018e-01 +8.62407461e-02 +1.19500838e-01 +2.23300442e-01 -8.73295739e-02 -1.19354390e-01 +4.53201607e-02 -1.10094838e-01 -2.68369615e-01 -7.10963309e-02 -1.88006952e-01 +1.04844035e-03 +6.51742592e-02 +8.94792974e-02 +1.38374537e-01 +3.38720568e-02 -2.12464705e-02 -3.45951244e-02 -2.19342951e-02 -1.52879953e-01 -1.54605716e-01 +1.36815250e-01 -8.43639001e-02 -1.21286005e-01 +8.46053753e-03 -1.66046292e-01 +2.29228456e-02 +2.59151280e-01 +7.13849664e-02 -1.02674909e-01 -1.38914511e-01 +7.62489587e-02 -9.49175879e-02 -3.13975036e-01 +2.48409763e-01 -1.85677558e-01 +1.52321249e-01 -2.24281792e-02 +1.11762837e-01 +6.18575560e-03 -7.62034282e-02 -3.70436907e-02 -5.44870533e-02 -8.94612223e-02 +7.42149120e-03 -1.49788964e-03 +2.36875728e-01 +4.19374928e-02 +3.99740338e-02 -1.54992461e-01 -2.63484925e-01 +3.40018362e-01 -4.39557672e-01 -1.00248881e-01 -1.76579148e-01 -3.87680620e-01 +3.43449116e-01 -8.29824805e-02 -1.34344637e-01 -2.36610815e-01 +1.09792925e-01 -2.01167762e-02 -1.12568974e-01 +7.86738396e-02 -9.98670906e-02 -1.36869907e-01 +1.02447093e-01 -1.75418437e-01 -1.43457517e-01 -4.04145755e-02 -9.00553241e-02 +2.80761439e-02 -3.69443506e-01 +5.12598082e-02 -3.84832203e-01 +1.89573124e-01 -1.16353929e-01 +3.45340036e-02 +1.19602256e-01 +4.15095121e-01 +4.06374335e-01 -2.96578199e-01 +1.12803429e-01 -5.32112420e-01 -1.99005350e-01 +3.13532174e-01 +2.05307394e-01 -1.14141181e-01 -2.56284745e-03 +1.65720806e-01 -2.92349726e-01 -2.11731896e-01 -1.68393061e-01 +4.06507701e-02 -7.41852596e-02 -1.62233531e-01 +2.15714201e-01 +8.27155933e-02 -1.10997139e-02 +2.25239843e-01 -6.29482418e-02 -2.32989773e-01 -8.30752775e-02 -2.92402416e-01 +1.92531385e-02 -3.85009915e-01 +1.01322934e-01 -8.68415236e-02 -9.63992700e-02 -1.43229663e-01 -3.40464920e-01 +3.14935402e-04 -1.22330412e-01 -2.51322538e-01 -1.09188259e-01 -1.64319754e-01 +9.59280133e-03 +2.89109349e-01 +8.71766880e-02 +1.41679004e-01 +1.36415884e-01 +2.89938509e-01 +1.61280811e-01 +1.25768557e-01 -1.02360204e-01 +1.27754033e-01 -2.03507349e-01 +1.83448028e-02 +1.03366688e-01 -2.21152663e-01 +5.77722341e-02 +6.24146573e-02 +1.01569206e-01 +3.86712477e-02 +1.75741047e-01 +1.61371261e-01 +9.51771140e-02 -1.28101096e-01 -7.15792850e-02 +2.04949439e-01 -6.04484044e-02 +2.87441295e-02 -1.21206947e-01 +2.16790736e-01 +7.98724219e-02 +2.33811602e-01 -1.13628775e-01 -1.98233888e-01 +2.92230934e-01 -1.29161820e-01 -6.40655980e-02 +5.69574013e-02 +1.07536517e-01 +5.77556714e-02 -1.84364051e-01 -2.14163467e-01 +2.07865104e-01 +3.96174192e-03 -2.89423484e-02 +9.35078785e-02 +2.27342755e-01 -1.80367678e-01 +1.46940187e-01 -9.20415893e-02 -1.02362238e-01 +1.19483238e-02 +4.05272245e-02 +2.74195343e-01 -1.00189745e-01 -2.65225142e-01 +4.16330919e-02 +5.46223000e-02 +2.14808900e-02 +1.10279053e-01 -3.91285606e-02 +8.53592902e-03 +4.24452089e-02 +7.08563775e-02 -9.42562241e-03 -2.23732218e-01 +1.27359142e-03 +1.54059485e-01 -3.79425921e-02 +1.93062365e-01 +7.64704943e-02 +6.59815297e-02 +2.66396046e-01 +6.91870153e-02 +1.01989629e-02 +7.12385103e-02 -4.33204889e-01 +3.54393810e-01 +4.91504461e-01 +2.28670225e-01 +1.11069165e-01 -3.88171196e-01 -1.80181414e-02 +2.33673781e-01 -1.39200419e-01 +1.36706522e-02 +2.30949998e-01 -8.52064192e-02 +2.55668074e-01 +2.35023461e-02 -8.30695927e-02 +1.81361169e-01 -2.86133617e-01 -4.25349846e-02 -1.96355447e-01 -2.18909383e-01 +4.60955277e-02 -1.72801599e-01 -1.38140190e-02 -1.08640149e-01 -2.55749702e-01 +2.35707670e-01 +5.25083505e-02 +2.75073182e-02 -4.81054261e-02 +4.81336117e-02 +1.56393033e-02 +1.03681177e-01 -1.77932512e-02 +2.48712096e-02 +5.34659922e-02 +1.99900437e-02 -2.21765973e-02 -6.52224347e-02 +2.63755232e-01 +4.59302738e-02 -1.59547701e-01 -1.42214686e-01 -2.00576320e-01 +9.12570208e-03 +2.28549972e-01 -1.29440427e-01 +1.81532830e-01 +6.33704709e-03 +5.73857874e-02 -1.79146469e-01 +7.66180158e-02 +1.43646225e-01 -1.30148098e-01 +3.52181606e-02 +5.94551563e-02 -2.08307773e-01 -4.17242497e-01 -1.96018159e-01 -2.22559005e-01 +8.81291404e-02 -9.48620662e-02 -3.13842557e-02 -2.49210462e-01 +1.18141606e-01 -3.26643825e-01 -7.91853219e-02 +7.49573931e-02 +1.26293764e-01 +2.78781708e-02 -1.68885648e-01 -3.55003595e-01 +1.27130270e-01 +1.02226891e-01 -1.00101292e-01 +1.35826126e-01 -1.45391867e-01 +8.69165808e-02 +1.17235750e-01 +2.53501177e-01 -3.19882065e-01 -9.55746323e-02 -1.65639892e-01 -2.22241074e-01 -1.20305913e-02 -5.19906171e-05 -9.50754359e-02 +6.28561378e-02 -4.81883407e-01 +3.41992289e-01 -2.37073019e-01 -2.63913393e-01 +2.11293232e-02 -3.57372552e-01 +4.09777611e-02 -1.11050785e-01 +1.10442631e-01 -1.78717971e-02 +3.08911894e-02 +2.05599487e-01 +3.66083458e-02 +2.95390815e-01 +3.33289094e-02 +1.58170480e-02 +3.13581377e-02 +4.06365804e-02 +1.09518163e-01 -1.56523228e-01 +7.31828040e-04 +3.01738009e-02 +1.59390330e-01 +3.21063097e-03 -3.14078599e-01 -4.67976071e-02 -3.66274118e-02 +2.27760412e-02 -2.92461395e-01 +2.53306150e-01 -8.57497007e-02 -1.55560389e-01 -7.35583082e-02 -8.20662379e-02 -3.37215424e-01 +8.92026275e-02 +8.95386096e-03 +4.96584699e-02 -2.39334121e-01 -2.18832269e-01 -1.35970982e-02 -5.67489147e-01 +4.04239967e-02 +7.35522509e-02 -1.94931484e-03 -3.08352355e-02 +7.04464465e-02 -1.29649729e-01 -3.52282643e-01 +8.93131569e-02 -9.09824967e-02 -4.49159294e-01 -1.44760311e-01 -2.81015873e-01 +5.62160969e-01 +5.45892000e-01 -3.29652369e-01 +4.94623855e-02 +1.60443738e-01 +3.09315413e-01 +2.76012301e-01 -3.02300721e-01 +1.18155099e-01 +3.22288603e-01 -8.44927877e-02 +2.38136738e-04 -5.63643500e-02 -8.64450559e-02 -1.37882710e-01 -4.96963458e-03 -4.24064934e-01 +6.25993982e-02 +4.69222479e-02 -2.46372838e-02 +1.61768556e-01 -2.48300042e-02 -2.22364366e-01 +1.24394685e-01 +5.00362635e-01 +8.73121917e-02 +1.31280512e-01 -8.16071481e-02 -1.24474794e-01 +2.36684382e-01 -2.22339973e-01 -5.40293641e-02 -1.08814321e-01 +2.33400568e-01 -3.39403540e-01 -7.09937066e-02 -1.06038362e-01 -1.28130585e-01 +1.55681983e-01 +1.90929994e-02 -3.25858802e-01 +1.94339946e-01 -1.37885287e-01 +1.35937586e-01 +2.15377674e-01 +1.63911179e-01 -3.05738419e-01 +4.33649831e-02 +1.36765271e-01 +1.32301688e-01 -3.28123331e-01 +3.04016590e-01 -1.65630609e-01 +3.12606633e-01 +3.23823541e-01 +6.71739653e-02 -1.23346791e-01 +2.05701992e-01 +3.23277652e-01 +1.14539057e-01 +4.04114276e-02 -3.17141742e-01 +8.60496163e-02 +2.36089259e-01 +2.26719916e-01 +1.03824884e-01 -1.29372194e-01 -2.50951480e-02 +5.36073819e-02 +2.87349802e-03 +1.03720069e-01 -4.89495099e-02 -2.16663197e-01 +1.62677884e-01 -4.06989940e-02 +1.08264334e-01 -2.48391014e-02 +1.32836118e-01 +1.18215166e-01 -1.51637942e-01 -2.21373439e-01 -5.37807196e-02 +1.55481368e-01 -1.51497886e-01 -1.51621252e-01 +7.93094561e-02 +1.94372356e-01 -6.80196732e-02 -1.49411902e-01 +2.23861132e-02 +2.84871999e-02 +2.67383531e-02 -1.81657925e-01 +1.32386670e-01 +9.46538895e-03 -8.70865285e-02 +3.14345658e-01 -8.39775130e-02 -2.24670932e-01 +7.41536766e-02 -6.36152104e-02 +4.81874309e-02 -2.35888332e-01 -5.98126873e-02 +5.44138849e-01 +2.42163196e-01 +1.79904550e-01 +8.32778737e-02 +3.15463066e-01 +7.08829090e-02 +5.96446916e-03 -5.39607331e-02 -4.77269366e-02 -8.16455036e-02 +1.42314807e-01 +7.22679943e-02 -2.18656778e-01 -1.16272740e-01 +1.17824808e-01 +1.55795708e-01 -1.04496166e-01 +1.33571282e-01 -2.95647345e-02 +7.27491360e-03 +1.25464827e-01 -3.45429599e-01 +1.76849037e-01 -2.88900435e-02 -2.97361076e-01 -1.47155136e-01 -2.28725880e-01 +1.95575044e-01 -3.35896581e-01 +5.52448809e-01 +4.64811414e-01 -2.78663367e-01 +2.16873996e-02 +3.42368871e-01 +7.04289600e-02 -1.32991627e-01 -6.11098260e-02 +8.11052918e-02 +6.84214681e-02 +2.91749299e-01 -2.01501220e-01 -5.35578310e-01 -3.31708163e-01 +6.94755316e-02 -2.12832078e-01 +2.71022350e-01 -2.15993658e-01 +8.58529583e-02 +4.20246385e-02 -2.42777765e-01 +1.40528113e-01 -6.43068850e-02 +2.48421226e-02 +1.99080035e-01 +1.36840409e-02 +1.90327108e-01 -5.66074289e-02 -1.20273400e-02 +5.21280877e-02 +2.32288957e-01 +1.02704391e-01 +1.34423986e-01 +4.50754501e-02 -6.53647780e-02 -3.08684677e-01 +1.06304623e-01 +4.68702279e-02 +1.03765987e-01 +3.35497886e-01 +2.00652368e-02 +2.99112555e-02 +1.44452840e-01 +2.56880552e-01 +3.09908301e-01 +3.34081590e-01 +3.18477690e-01 +6.77957460e-02 +3.69607985e-01 +2.87996322e-01 +1.05144568e-01 +5.00541866e-01 +3.96315038e-01 +2.61713147e-01 +1.94301516e-01 +1.25383483e-02 -3.85173142e-01 +2.86763877e-01 +2.05834106e-01 +1.09498747e-01 -3.08503266e-02 +5.77080071e-01 +6.94405019e-01 +2.34739155e-01 +7.18559399e-02 +2.01488987e-01 +1.20875403e-01 -1.46655813e-01 -2.04535782e-01 +2.64460415e-01 -3.35737109e-01 +2.70529687e-01 +1.63002506e-01 -4.08556402e-01 -1.36378840e-01 +9.65052322e-02 -2.07336694e-01 -1.86318859e-01 -5.00001550e-01 -4.64558780e-01 -1.39036387e-01 +1.27757609e-01 -4.71370667e-02 -3.06450903e-01 +6.82915002e-02 -1.07355788e-01 +1.02072023e-01 -1.31806256e-02 -9.90220681e-02 -1.06167622e-01 +3.45170312e-02 +1.76599175e-01 -1.07200503e-01 -2.75937051e-01 -1.51037887e-01 -1.26696870e-01 -1.94455590e-03 +1.02893263e-01 -3.47613335e-01 +2.26476938e-01 +5.15928939e-02 -1.62908182e-01 -1.18308261e-01 +9.45713937e-01 +5.62753901e-02 +2.66613275e-01 -7.71501008e-03 +1.42316788e-01 +3.30854326e-01 +2.31293917e-01 -6.20252565e-02 -1.27631635e-03 -1.90307405e-02 -1.01846173e-01 +6.74066767e-02 -1.85970694e-01 +3.14660072e-01 +8.78224671e-02 +1.85788646e-01 +1.02600064e-02 +6.29623830e-02 +3.45338672e-01 +4.50712107e-02 -3.42757022e-03 -2.41174102e-01 +3.87212634e-01 +2.16609523e-01 -8.05727094e-02 +5.51020093e-02 -4.29208219e-01 +3.47231589e-02 -4.06408280e-01 -2.81234784e-03 +3.44076157e-01 -5.78657128e-02 +2.10336238e-01 +5.45561500e-02 -1.82079822e-01 -1.09158486e-01 +2.88095355e-01 -1.54884115e-01 -1.92318186e-01 -3.43617797e-02 +8.21097195e-02 +4.17522117e-02 +1.79011285e-01 +1.60623148e-01 +6.04485646e-02 -2.27892041e-01 -6.55199513e-02 -1.89661756e-01 +3.66281450e-01 +1.18902668e-01 -2.00588271e-01 +1.33591965e-01 -1.02263689e-01 -9.32819769e-02 +2.72309721e-01 +6.08670264e-02 -2.02434659e-02 +1.34384885e-01 -1.55642837e-01 +9.78982896e-02 +4.03613925e-01 -1.51778653e-01 +3.21801513e-01 -9.77127850e-02 +4.22215834e-02 -1.09219059e-01 -9.30169970e-02 -8.66577327e-02 -1.38944626e-01 -2.35028327e-01 -1.71705499e-01 +4.96015549e-01 -2.13039279e-01 -2.96056658e-01 -3.38294894e-01 -1.95359439e-01 +2.24339679e-01 -1.98612690e-01 -1.52142301e-01 -1.25156656e-01 -2.14317545e-01 -2.55197939e-02 -1.76786140e-01 -2.57314771e-01 -1.52783722e-01 -1.68052942e-01 +1.79142877e-01 +4.81558405e-02 -2.99895018e-01 -1.37319654e-01 +8.61328468e-02 +6.96493909e-02 +1.47259995e-01 -1.17923960e-01 -1.29161298e-01 -5.76872006e-02 -2.87082735e-02 +1.69612497e-01 +6.53984472e-02 +2.58280009e-01 +2.27262601e-01 -5.84980510e-02 +2.26762161e-01 -5.70622832e-02 -7.55239487e-01 -2.19610617e-01 -2.04359889e-01 -2.57822946e-02 -2.03297466e-01 +2.36052752e-01 -1.12677939e-01 -1.57964572e-01 +4.93370555e-02 -3.66607636e-01 -8.16444904e-02 +3.94502142e-03 -6.97760582e-02 -1.74804181e-01 -1.13631792e-01 +1.49469435e-01 -1.42238617e-01 +7.43470192e-02 +6.53452352e-02 +1.49568573e-01 +4.11002748e-02 +2.04316258e-01 -4.19616818e-01 -8.30539390e-02 +7.37454295e-01 +6.76145479e-02 -2.78601855e-01 -3.17639321e-01 -1.81790903e-01 -2.36525863e-01 -1.29214436e-01 +5.18427491e-01 +4.54971641e-02 +1.16627507e-01 -4.10287529e-01 -1.23560049e-01 +2.60729879e-01 -1.15009293e-01 -1.91528395e-01 +3.92869189e-02 -3.52629721e-01 +2.08931014e-01 -1.33175582e-01 -2.47477606e-01 -2.09693104e-01 -1.22487955e-02 +1.01998150e-01 -1.01429127e-01 -1.36363506e-01 -4.01239932e-01 +1.54139683e-01 -2.64677495e-01 -2.81641543e-01 -1.93738356e-01 +1.94190770e-01 -4.10501547e-02 -1.19465791e-01 +3.72348130e-02 -5.69111228e-01 +5.11930659e-02 +9.88272019e-03 +1.79249212e-01 +1.13866590e-02 -1.99578658e-01 +8.15887988e-01 -3.33061814e-01 +1.30723149e-01 -5.93191795e-02 -1.29026219e-01 +1.93955839e-01 -4.58196364e-02 +4.59961630e-02 -2.26761967e-01 +1.60229012e-01 -9.27174836e-03 +1.02448545e-01 +1.54349238e-01 -1.19688101e-01 -7.37734810e-02 +2.82765590e-02 +2.34645247e-01 -1.63326800e-01 -4.11045611e-01 +1.11462988e-01 +1.46585763e-01 +4.18536849e-02 +1.94524556e-01 +5.85636124e-02 +6.55756518e-02 -5.89446649e-02 +3.37544143e-01 +1.25946617e-02 +1.44111648e-01 +9.92037281e-02 +3.64857800e-02 +4.67457399e-02 +1.34582430e-01 +6.30192161e-02 -1.09779590e-03 -4.82082888e-02 +3.80778871e-02 +2.45057251e-02 +6.86802268e-02 +1.20569326e-01 +2.53680080e-01 +1.57841235e-01 +1.93840228e-02 +1.33115053e-01 -2.42397740e-01 +1.56378597e-01 +1.98776007e-01 +1.01309642e-01 -6.16965741e-02 +7.42034689e-02 +1.71908155e-01 +2.04837061e-02 -5.28428406e-02 +1.05318449e-01 -3.23520899e-02 +5.98838972e-03 +1.23493470e-01 -2.02823684e-01 -2.30780587e-01 -1.84672952e-01 -3.15533280e-01 +8.09636042e-02 -4.95496660e-01 -1.58575594e-01 +6.96026310e-02 +1.56240771e-02 -1.56936392e-01 -1.13031223e-01 -8.04116949e-02 -1.83524583e-02 -4.25537713e-02 -3.91991585e-02 +1.75143704e-02 +1.84053574e-02 +2.91649342e-01 +2.23003760e-01 -7.42591247e-02 +6.86763078e-02 -1.11470506e-01 -8.59257653e-02 -7.97318816e-02 +1.58022180e-01 -1.11768462e-01 +1.75481990e-01 +3.62898186e-02 +1.80291504e-01 +3.51043761e-01 +3.31084758e-01 +6.89769536e-02 +3.91701221e-01 +3.00215185e-01 +1.22170530e-01 +5.50597727e-01 +2.35092685e-01 +2.20601857e-02 -8.75476152e-02 -1.72745973e-01 +1.94900826e-01 +8.48018900e-02 -4.92035776e-01 +1.64652523e-03 +9.75032523e-03 +5.65643251e-01 -2.03670666e-01 +1.91213831e-01 +2.27760479e-01 +1.56675186e-02 -1.27938733e-01 -1.01560161e-01 +1.43976152e-01 +2.19871327e-02 -1.33664450e-02 -2.82757074e-01 -2.17861801e-01 +9.49821994e-02 +1.32722944e-01 +1.45433798e-01 +1.84564769e-01 +8.19219053e-02 -3.93019132e-02 +2.05484837e-01 +2.03486040e-01 +1.06449425e-01 -1.79992795e-01 +1.44138739e-01 +1.97100371e-01 -4.62853052e-02 +8.35004896e-02 +1.03021793e-01 -1.71516202e-02 -2.93299496e-01 -1.04522437e-01 +4.90772501e-02 -1.86144695e-01 +3.71381998e-01 +3.21004651e-02 +1.92179725e-01 -1.08255029e-01 +3.57403189e-01 -1.46146402e-01 -8.54434725e-03 +7.48792291e-02 +2.90199012e-01 -1.29306763e-01 -5.10351621e-02 +2.44066209e-01 +2.42406473e-01 +1.33763969e-01 +2.34508276e-01 +1.33465365e-01 +1.49144381e-01 -7.46373041e-03 -4.69185442e-01 -4.23446566e-01 +8.30047652e-02 +4.33744378e-02 -2.49462754e-01 -2.84979552e-01 -6.47327527e-02 -7.46566281e-02 +1.04416288e-01 -8.45633373e-02 -4.18570489e-02 -1.17146678e-01 -1.28530264e-01 -1.89484119e-01 +8.88207927e-02 -2.80374080e-01 -3.15085381e-01 +1.16522098e-02 -2.22098127e-01 -3.02755892e-01 -4.17873263e-01 -1.46243006e-01 -2.35012144e-01 +6.85188398e-02 -1.92452461e-01 -2.97445226e-02 +2.51339167e-01 -4.91105616e-02 +3.88204217e-01 -2.48393193e-02 -1.21593848e-01 -1.00742839e-01 +3.18022110e-02 +4.29942049e-02 +3.17060836e-02 +3.23565723e-03 -1.54775470e-01 -3.37853253e-01 +6.69922540e-03 +2.36565620e-01 -8.65806788e-02 -1.34018838e-01 -5.57677597e-02 -7.78548000e-03 -2.74987221e-01 -5.63661419e-02 +6.28166795e-02 -8.45422735e-04 +5.70955455e-01 -1.40052140e-01 -1.93898618e-01 -1.69727981e-01 -1.02936260e-01 -1.63847557e-03 -6.88841753e-03 -7.95161575e-02 -2.37664148e-01 +1.40955076e-01 -3.47510986e-02 +1.45146787e-01 -1.14358559e-01 +3.77884321e-02 -2.78562129e-01 +1.85695469e-01 +1.65889174e-01 -1.23813592e-01 +3.07350099e-01 +8.14351588e-02 +6.84454814e-02 -2.03630775e-01 -3.75925571e-01 +1.90571114e-01 +4.87084268e-03 -5.82528770e-01 -3.85296971e-01 -6.62967488e-02 -3.62355500e-01 -1.17702603e-01 -2.04988986e-01 +1.41422600e-01 -2.47240290e-01 +3.33391055e-02 -3.07939410e-01 -9.31363255e-02 -4.86317396e-01 +3.10343355e-01 -4.40661758e-02 -2.22190708e-01 -2.79171050e-01 -3.14552844e-01 +2.38877073e-01 +2.03133911e-01 -2.89352089e-02 -1.01302058e-01 +9.79938656e-02 -3.88123952e-02 -1.43204804e-03 -1.97791800e-01 +1.03409469e-01 -5.05696721e-02 -1.14354908e-01 -9.30550620e-02 +1.06092826e-01 -1.46716282e-01 +2.02394351e-01 -2.35665247e-01 -5.34216389e-02 -1.32417917e-01 +2.21945345e-01 +1.87528729e-01 -8.02314878e-02 +9.75922868e-02 -2.62318164e-01 +2.79889613e-01 -1.63128942e-01 +1.72239318e-01 +2.34134302e-01 +7.65466169e-02 -1.40659288e-01 +1.99464057e-02 +1.28314361e-01 -2.00334758e-01 -8.15126002e-02 +1.82045270e-02 +1.18171230e-01 -1.43383324e-01 +5.58617562e-02 +2.34967083e-01 -6.61740499e-03 +1.34983078e-01 +1.92327678e-01 +1.34741357e-02 +1.41449943e-01 +2.05059245e-01 +2.52400041e-01 +2.55304098e-01 -1.74622342e-01 -4.72592324e-01 -4.24856186e-01 -1.55309796e-01 +5.05334586e-02 +5.75676607e-03 +6.13278069e-04 -8.57695267e-02 -4.49997187e-02 +8.63927528e-02 +1.53341959e-03 +2.42865011e-02 -2.09344655e-01 +3.29690501e-02 +2.24470347e-01 -4.95933443e-02 -5.99231869e-02 +1.09501459e-01 -9.73294154e-02 -2.61062067e-02 +6.53367043e-02 -9.88536105e-02 +1.32902399e-01 -1.18092328e-01 +9.99225527e-02 -1.93315357e-01 +3.01280797e-01 -9.88129824e-02 -2.59262204e-01 -1.82253346e-01 -1.84367463e-01 +3.52938324e-01 +2.75556117e-01 -7.89008811e-02 -7.04539046e-02 -2.08959684e-01 +1.34477496e-01 +7.11680576e-02 +1.49494363e-02 -1.17172584e-01 +4.39654961e-02 +7.16094375e-02 +1.54005829e-02 +3.12233884e-02 -4.62524332e-02 -2.67667845e-02 +2.77348191e-01 -1.19983507e-02 -7.30280504e-02 -1.61635935e-01 +2.76603937e-01 +1.32410347e-01 -2.20826995e-02 -4.05517131e-01 +1.52510405e-01 +2.38824293e-01 +1.33697957e-01 -3.36999476e-01 -2.05735400e-01 -1.41265228e-01 +8.24444890e-02 +1.69551689e-02 -1.62967384e-01 +5.00058949e-01 +3.88137251e-02 -2.29877487e-01 +1.11793980e-01 -2.16385096e-01 +4.36008275e-01 -1.47913843e-02 +9.45111737e-02 -3.38248014e-01 +4.71589677e-02 -2.30489410e-02 -1.53273657e-01 +3.87145519e-01 +6.88904226e-02 -2.19333991e-02 +7.51079917e-02 -4.26542200e-02 +2.21063718e-01 -2.92531937e-01 -3.11771512e-01 -8.30621831e-03 +4.69086438e-01 -1.51599973e-01 -2.67510384e-01 -2.28550494e-01 +7.27249356e-03 +1.79003701e-01 +6.35734871e-02 