94 500
<n><m><sg> 0.00012967 0.00011477 0.00011066 -0.00011556 0.00024859 2.1668e-05 0.00023049 6.3409e-05 6.6901e-05 0.00022094 2.4651e-05 -7.1009e-05 0.00031198 -0.00011601 -0.00040561 0.00024234 -1.6713e-05 0.00055735 6.3182e-05 5.8313e-05 1.1023e-05 -0.00015024 9.3072e-05 6.1249e-05 0.00027842 0.00015154 -0.00051406 -0.00032127 -0.00018786 0.00014026 -1.9543e-05 -0.00022338 0.00018525 3.5991e-05 -0.00014369 3.3152e-05 0.00022179 -8.3709e-05 -2.2308e-05 0.00018173 -7.051e-05 -4.9385e-05 8.9658e-05 0.00011982 0.00024635 0.0004552 -6.3937e-06 0.00036451 0.00018995 4.2222e-05 0.000139 -5.6471e-05 0.00019564 -0.00020797 -1.9896e-05 4.7474e-05 0.00028628 -0.00013754 0.00014954 5.0065e-06 -0.00017511 -0.000189 -5.3193e-05 0.00017587 -0.00041877 0.00010337 -0.00024929 -0.00043788 -0.00022603 0.00015666 0.00031008 0.00010099 -0.00014661 1.9781e-05 -0.00032464 0.00025768 -0.00029465 0.0004333 -0.00017366 0.000194 -0.00017128 3.1974e-05 -0.00020851 -2.0871e-05 0.00029394 -9.0999e-05 -5.0068e-06 -5.4174e-05 0.00037614 0.00029943 0.000334 -0.00018759 0.00014682 -0.00015316 -0.00013415 -0.00013892 -0.00014018 0.00011192 6.506e-05 0.00015905 0.00040493 0.0003221 0.00035901 7.3463e-05 -0.00020867 -6.9408e-07 0.00035807 4.4356e-05 -0.00017592 -0.00038585 5.8068e-05 0.00016869 -0.00012744 0.0003866 -0.00028601 6.9548e-06 -0.00025089 -0.00023087 0.00014372 -0.00010365 -0.00011935 0.00026247 0.00010929 -0.0001326 0.0004268 0.00014702 9.1474e-05 -0.00024322 0.00032272 -0.00012823 -4.5352e-05 0.00026114 -9.0156e-05 0.00011002 -0.00020437 0.00030433 0.00012647 4.9605e-05 -0.00041395 0.00034902 -4.0959e-05 -0.00021943 4.9211e-05 0.00033882 -0.00042494 1.2807e-05 -0.00025406 -0.00013616 -0.00014262 9.2565e-05 -0.00037747 -0.00047509 -0.00016196 3.9632e-05 7.9285e-07 -0.0001263 -0.00043152 -0.0001655 -2.5221e-05 -0.00029305 9.9851e-06 -0.00049831 -8.6858e-05 -0.00013202 2.9507e-05 1.4483e-05 8.7898e-05 -0.00013702 2.8849e-05 0.00038396 -7.5373e-05 0.00013626 0.00035577 -9.4382e-05 -0.00025157 7.9435e-05 0.00010933 0.00028796 -0.00012275 -5.6853e-05 -1.2378e-05 0.00019905 -0.00019166 0.00019544 0.00034801 0.00018694 -0.00023603 0.0002012 -0.0002178 0.00022712 -0.00010434 0.00029738 -0.00013423 -0.00056772 3.0558e-05 -0.00013527 2.9578e-05 -0.00070095 0.00025308 -8.6721e-05 -0.00047202 0.00016619 9.079e-05 -0.00035385 0.00018545 0.00013824 -0.00034662 0.00032006 -0.00018346 -0.00027104 -6.0319e-05 0.00010645 -0.00032731 -5.8271e-05 -0.00050889 -0.00023086 -0.00015931 -8.0664e-05 -0.00022817 0.00048773 -4.02e-05 -5.8036e-05 -4.6743e-05 0.00019585 0.00012851 -0.00025986 -9.2553e-05 0.00013362 8.0559e-05 7.1795e-05 -0.00022522 -6.5074e-05 1.9307e-05 -0.00020209 -0.00017709 -0.00023706 -0.00040846 -5.1066e-05 0.00011446 -0.00019418 -7.3071e-05 0.00044897 -0.00012969 0.00047984 -0.00012725 -0.00012349 -5.8976e-05 -8.2063e-05 -0.00025751 0.00015218 -0.00013151 2.5654e-05 0.00021379 -0.00029311 -6.3214e-05 -0.00013395 -0.00028314 -0.00016379 -0.00021009 -0.00015298 0.00033269 -0.0001485 -0.00020637 -9.6725e-05 4.1839e-05 0.00015479 -0.0001791 0.00019141 -6.7365e-05 0.00011577 3.7828e-05 -0.00024088 -2.877e-05 4.1804e-05 0.00014116 -0.00056256 -0.00013222 8.7649e-05 3.1588e-06 0.00020675 0.00021284 0.00020098 0.00033573 -1.2077e-05 -0.00065646 -6.0361e-05 8.8574e-05 -0.00022037 0.00016783 -0.00018645 -0.00060167 -0.00021215 0.00030209 -0.00020906 0.00023277 8.0876e-05 1.0868e-05 0.00021215 -0.00029772 -0.00019201 0.00026144 0.00034035 -0.00024936 0.00021142 0.00014397 -0.00021975 0.00024356 0.00041934 0.00037203 0.00045366 -1.0753e-05 0.0002895 -0.00024075 0.00013592 0.00021664 3.6031e-05 0.00043119 4.3378e-07 8.2937e-05 0.00011031 -0.00022405 -8.9751e-05 0.0002722 0.00015066 -0.0003297 -4.6983e-05 -5.0671e-05 -0.00013132 -0.00024484 -1.4517e-05 0.00045455 -9.6748e-05 -3.1719e-05 -8.4684e-05 -0.00014272 0.00019124 0.00022204 -0.00034717 -0.00014731 -0.00043 0.0003237 0.00018712 0.00019673 2.0873e-05 -0.00039425 -0.00011856 -3.0736e-05 -0.00019986 4.4995e-05 -0.0001253 -0.00020375 0.0002795 -4.0965e-05 -1.907e-05 0.0002066 -6.1999e-05 0.00010354 -6.6345e-05 -3.3765e-05 -0.00010393 0.00012993 0.00020421 0.00020255 -6.3498e-05 2.1345e-06 -2.6411e-05 -2.8814e-05 0.00011281 -0.00035615 -9.0893e-05 0.00010929 -0.00012248 0.00021373 -0.00019144 -9.6815e-05 0.0001531 0.00017436 -4.058e-05 -9.9646e-05 -0.00020095 -0.00013826 -0.00048178 -0.0001408 -0.00022388 0.00035071 0.00023526 -2.3145e-05 -0.0002788 -4.0269e-05 -0.00041704 -8.2758e-05 -0.00021101 -7.2888e-05 -0.00022466 0.00016796 -6.7279e-05 -9.5136e-05 2.6842e-05 -2.1423e-05 0.00012691 0.00024185 -0.0001992 -0.00031936 3.557e-05 0.00038439 -7.0737e-05 -0.00015114 -0.00018909 -0.00022395 0.00012137 7.4255e-05 0.00032146 0.00047072 -8.3929e-05 -4.1352e-05 0.00025311 0.00011959 -6.5228e-05 -0.0001348 -0.00027551 -0.00013177 0.00013792 0.00012228 0.00012894 0.00017347 0.00013152 -1.1587e-05 -8.6259e-05 8.0717e-05 0.00018511 -4.1628e-05 0.00051359 -0.00026662 1.9334e-05 3.3139e-05 -0.00011636 8.8192e-05 4.9052e-05 -0.00029915 -3.8618e-05 -0.00049632 -5.8683e-05 -0.00031345 -0.00017857 -0.00016839 0.00019723 0.00024142 0.00033291 -0.00028493 3.4524e-05 1.0857e-05 0.00020956 -0.00037528 0.00034855 -0.00018005 0.00027629 0.0001907 -0.00013833 0.00026435 -0.00013642 0.00012898 2.6657e-05 -0.00013783 0.0002542 -0.00021727 9.5014e-05 0.00028071 -0.00032524 -0.00033525 0.00021284 -0.00036941 0.00020736 -8.8235e-05 -9.6413e-05 -0.00040704 0.00015932 2.2522e-05 0.00011798 -0.00029196 6.9608e-05 6.4081e-07 -0.00021133 -6.0407e-05 -0.00033997 -0.00030235 0.00012179 -0.00018062 -0.00032869 -0.00015639 0.00034069 -4.0274e-05 0.00051867 0.00016497 -0.00026287 5.1237e-05 9.5733e-05 1.8082e-05 -0.00021529 0.00020947 0.00032868 
<det> 0.00032502 -0.00039878 -0.00038565 0.00019953 0.0002885 -0.00015489 8.8234e-05 -0.000308 0.00034774 0.00054871 0.00027307 0.00012026 -0.00014396 -0.0001715 -0.00044271 -0.00013388 -0.00035083 0.00038102 6.3961e-05 -0.00057891 -6.2589e-05 3.5389e-05 0.00024759 8.3077e-05 0.00053053 0.00010757 -0.00017565 -0.00043083 5.1568e-06 -0.00027817 -0.0001226 -0.0001188 0.00012931 -0.00028239 -0.00017314 0.00016202 -0.00045245 -0.00023908 -5.2095e-05 0.00049658 6.8205e-06 -2.6061e-05 -5.8057e-05 0.00063316 0.000215 0.00015528 0.00015548 -1.726e-05 -0.00040414 0.00038076 -0.00031641 -0.00051766 -0.00012757 -0.00057948 -0.0007293 -0.00031291 6.1338e-05 0.00011629 0.00031162 5.045e-05 -0.00027882 0.00027839 -1.2363e-05 0.00023803 0.00032096 0.00027554 4.3213e-05 -0.00012361 -0.00013523 -0.0004253 0.00047763 -4.6241e-05 0.00054669 0.00047515 -0.00034645 0.00025739 0.0001685 -8.3081e-05 -0.00049852 -0.00020818 0.00033618 0.00032695 -0.00014496 -0.00032211 0.00022994 0.00069977 -0.00046649 3.4137e-05 0.0001179 -0.00033008 0.00051744 -9.0025e-05 0.00094102 -0.00019113 -4.7188e-05 -0.00024262 -0.00018252 0.00020186 0.0003872 -2.3596e-05 -4.9377e-05 8.3566e-05 0.00057147 -0.00079275 8.5166e-05 -0.00023841 0.00016523 0.00027315 -0.00031265 0.00044056 -0.00012571 -0.00011251 -0.0003427 0.00012959 -0.0004511 0.00069187 -0.00018397 0.00027414 0.00027576 0.00011537 -7.2151e-05 5.8112e-05 2.8112e-05 8.7867e-05 0.00057305 0.00038803 -0.0003525 0.00026486 -0.00043249 -0.00032561 3.1694e-05 -0.00016162 0.00028471 4.8782e-05 4.3558e-05 0.00038222 -0.0002052 -0.00014798 -0.00030998 5.2278e-05 -6.0458e-05 0.00022774 -0.000124 3.9614e-05 0.00029249 -0.00024738 0.00036992 0.00010065 -0.00016549 -0.00010856 0.00015094 -0.00025521 -0.00031073 0.00024223 0.00036813 0.00042356 -0.00031859 0.00047371 -3.1831e-05 0.00040629 -0.00052181 -0.00043791 -0.00056404 -0.00013491 -0.00020765 3.7166e-06 -0.00012756 0.0003132 -6.9798e-05 0.00037589 -0.0006004 0.0001562 0.00016105 0.00030306 -2.6497e-05 -0.00037679 -0.00047799 -0.00034879 0.00025502 3.6466e-05 -9.1406e-05 -4.7304e-05 -0.0005528 0.00041455 -4.5197e-05 -0.00017409 -0.00039187 0.00027749 0.00061168 9.5179e-05 -0.00014435 -5.4556e-05 -0.00057582 -8.6492e-05 0.00014031 0.00022955 0.00012998 -0.00067946 0.00032311 0.00022829 -0.0001983 -0.00025999 -1.3615e-05 -0.00039503 0.00021943 -0.0001923 -0.00019839 0.00037504 0.00010287 -0.00074446 4.9253e-05 0.0001777 -0.00019447 -0.00026073 -0.00010301 0.00041999 -2.7586e-05 -0.00028378 -0.00041592 -1.1545e-05 0.00035781 -0.00017891 -0.00014409 0.00026471 -0.00042448 0.00018819 -0.00045763 0.00023121 -0.00015105 -0.00016217 -0.00012895 -4.1002e-05 0.00015287 -1.4433e-05 0.00011437 -0.00036971 -6.893e-05 -0.00075789 5.6275e-06 5.7668e-05 -0.00013691 8.7099e-05 0.00049175 0.00038294 9.0573e-05 -0.00069767 -0.00014211 0.00019148 7.8037e-05 0.00056209 -0.00010941 -0.00021558 0.00017564 5.8102e-05 -0.00055419 -0.00033666 -9.7917e-05 -0.00041763 9.5027e-06 -9.3177e-05 7.3678e-05 -0.00043256 0.00016833 -0.00015427 5.6189e-05 8.2135e-05 0.00016042 -8.9094e-05 -0.00014428 0.00014087 -0.00010715 1.4465e-05 -0.0001999 -0.00023239 0.00023952 -0.00054586 -2.3721e-05 -0.00035278 0.0003455 -0.00039149 -7.1793e-05 4.8843e-05 0.00024015 -0.00029575 -1.6593e-07 0.00032662 -0.000158 0.00044994 -0.00016828 6.6633e-06 -0.00010886 -1.78e-06 0.00019903 -0.0003121 -5.3634e-05 0.00021306 -0.00040525 5.0256e-06 -0.00042116 -0.00032046 0.00054021 0.0002908 -5.0207e-05 1.8249e-05 0.0002993 -0.00069451 0.00028613 0.0006664 -9.6429e-05 -9.8091e-05 0.00031714 0.00023207 8.9907e-05 0.00043108 -0.00022664 4.4297e-05 0.00045452 -9.6751e-05 -4.7839e-05 0.0001447 -0.00022097 -4.9716e-05 -0.00045665 -0.00028557 0.00012716 -0.00029708 -0.00044477 0.00019312 -0.00029502 0.00014489 0.00045872 0.00021909 1.2314e-05 0.00018328 5.9519e-05 -0.00017207 0.00044056 0.00020348 -0.00046022 0.00029775 -0.00016926 -0.00012326 5.2107e-05 0.0001182 -0.00040291 -0.00048787 0.00020716 0.00043761 -0.00032955 0.00022017 0.00012123 0.00017519 -0.00010233 2.2274e-05 0.00072388 0.00040249 0.00024917 -0.00040744 5.6787e-05 0.00046296 0.00040605 -0.00013417 0.00026382 -0.00014489 -0.00018982 0.00032483 -0.00018038 0.00024235 -0.0003373 0.00044176 -0.00030235 -0.00042613 0.00063234 -0.00025018 -3.7051e-05 8.3429e-05 2.2035e-05 0.00081118 9.5012e-05 -9.4746e-05 -0.00020382 -0.00091115 -8.5769e-05 0.0002971 3.7261e-05 0.0001617 6.1775e-05 -0.0004967 -0.00022056 -0.0005936 0.00037896 0.00012994 -0.00011914 -0.00014326 1.7308e-05 8.2125e-05 1.5569e-05 5.96e-05 0.00022774 0.00010348 -9.6384e-05 -0.00054514 2.8964e-05 0.00084784 0.00040518 3.5911e-05 -0.00036201 -0.00031058 -0.0002556 0.00010502 0.00019936 0.00045768 0.00054052 9.3429e-05 -0.00065108 8.5726e-06 -4.7013e-05 -0.00033949 -2.0961e-05 -0.00033006 -0.00030534 0.00010922 0.00046525 0.00015063 -6.9169e-05 9.7644e-05 0.00038867 -6.6547e-05 0.00027911 0.00034351 0.00030933 -2.1583e-05 1.1288e-05 -5.7667e-05 -9.5104e-05 -0.00013233 0.00017063 -0.00016495 -4.574e-05 -0.0005735 3.1231e-05 0.00047547 -0.00028174 -0.00047525 6.5668e-05 -1.2643e-05 0.00054472 -0.00023006 0.0002861 0.00048063 0.00034195 -4.4825e-05 1.1724e-05 0.00037234 9.7874e-07 0.00069944 0.00031867 -0.00042197 0.00030616 -0.00049516 3.0708e-05 0.00042997 2.9096e-05 0.0002035 -0.0001152 -0.00013531 0.0001703 0.00037015 -0.00053571 -0.00054403 5.2804e-06 0.00052491 -0.00044594 0.00012862 -0.00014839 0.00033934 -0.00016958 0.0002618 -0.00017675 -0.00015915 0.00012957 -0.00010597 0.00062817 -0.00026697 -0.00050559 -0.00015002 -0.00028602 -0.00028365 -0.00021502 -0.00011476 -0.00047284 0.00076822 -0.00011925 -0.00019045 9.4592e-05 -0.00023058 -3.5665e-05 -0.00012264 0.00030285 0.00044507 
<pr> -0.0001854 -0.00016926 8.7524e-05 8.0171e-05 -4.2309e-05 0.00051353 -0.00047467 0.00023405 -0.00043227 0.00066754 0.00068925 7.301e-05 0.00053652 6.5184e-05 -0.00013639 0.00023269 -0.00052348 6.7606e-05 -0.00027525 0.00025236 0.00011246 -0.00029962 8.51e-05 0.00033312 0.00066904 0.00010011 -0.00022509 -0.00040795 -0.00049551 0.00037346 -0.00026766 -0.00046445 -0.00020188 0.00035905 -9.492e-05 -0.00010653 0.0004359 -0.00019741 0.0004479 -0.00021433 -0.00035628 -0.00054 0.00011396 0.00022856 6.8212e-05 0.00067937 -1.7159e-05 0.00020596 0.00022533 0.00019414 0.00050681 -0.00048095 0.00068411 -0.00011362 -0.00039563 -0.00027202 -0.00030811 0.00029251 9.173e-05 -9.0123e-05 -0.0001704 0.00012344 0.00026442 0.00057361 -0.00054772 0.00071614 0.00021662 -0.00018926 0.00031534 7.6731e-05 0.00045494 3.9362e-05 0.00061686 0.00024314 -0.00014643 0.00026979 0.00017387 0.00064327 -0.00029427 0.00060329 -0.00016151 0.00049877 -0.00014561 0.00054088 0.00038334 -0.00021213 -0.00013124 -0.00038527 0.00025591 0.00014224 -0.00038089 -0.00050246 -0.00020798 2.1957e-05 0.00021561 -0.00046645 -0.0010098 -0.0001972 0.00040054 0.00036695 0.00080743 0.00031932 9.5482e-05 -0.00045005 -0.00033689 -8.5752e-05 3.6026e-05 0.00039094 -0.00040464 -0.00037288 -2.3924e-05 0.00026602 -0.00016352 0.00086233 -0.00059344 0.00028271 -1.6418e-05 -0.00047462 0.00021334 -0.00022252 -0.00076811 -1.0811e-05 0.00051669 -0.00031053 -0.00017365 0.00052631 -0.00063686 3.5796e-05 0.00014927 -0.00037582 -0.00023727 0.0010481 -0.00048551 6.0016e-05 0.00028337 0.00022994 0.00012776 -0.00036564 -0.00076665 7.8831e-05 1.7349e-05 -1.7026e-05 -0.00031173 0.00025608 -0.00020606 0.000568 -0.00049208 0.00027548 -0.00074482 -0.00016327 -0.00099582 0.00027181 8.6846e-05 0.00062041 -3.4185e-05 -0.00016375 -0.000196 -0.00025432 -9.5162e-05 -0.0007452 0.00028213 -0.00013855 0.00081824 -0.00022562 0.00026446 0.0001222 8.2852e-06 -6.4766e-05 -0.00052484 0.00046148 -0.00057915 7.7604e-05 0.00048636 -0.00032908 -9.8863e-05 -2.4039e-05 0.00014216 -0.00012743 6.7539e-05 -0.00013474 0.0001131 0.00014837 0.0001312 0.00029262 0.00023416 0.00095759 0.0005766 0.00044379 0.00050772 0.00050115 -0.00015968 0.00074666 6.9243e-06 -0.00046401 -0.00019621 -0.00019799 6.3767e-05 -0.00031171 0.00022322 -0.00028518 0.00036597 -0.00017448 3.1512e-05 -0.00034433 0.00027767 0.00045417 -0.00022604 -9.0879e-05 -0.00022957 0.00036632 6.622e-05 -0.00022478 2.7689e-05 0.00040876 0.00036859 -0.00010725 -0.00023557 0.00017999 -0.00091846 -7.1308e-05 0.0004633 -0.00011042 0.00047924 6.3154e-06 -0.00055225 -0.00025634 -0.00024966 -9.0682e-05 0.00017454 0.0003782 0.00027866 0.00033247 0.0001606 0.00046803 4.1883e-05 -8.7072e-05 -0.0001981 -7.6995e-05 -0.00011312 -0.00015517 0.0003262 -1.1028e-06 0.0002293 0.0010009 0.00032273 -4.3723e-06 2.673e-05 0.00018865 8.6815e-05 0.00027627 -0.00024121 -0.00076248 9.2183e-05 -0.00012782 -0.00032167 -0.00020906 -0.00039633 0.00027086 -0.00068034 -0.00048461 -0.00031428 -4.9201e-05 0.00028298 -0.00030681 -0.00018184 0.00037264 -1.9977e-05 0.00077848 -0.00018988 -0.00074144 3.6636e-05 -9.4525e-05 -0.00012329 0.00010229 -2.1246e-06 -0.00093299 8.02e-05 0.00047943 0.00019925 0.00040773 0.00011477 0.00026549 0.00023227 -0.00028045 -0.00011077 0.000236 -7.7281e-05 -1.3992e-05 -9.8948e-05 0.0001156 -0.00037169 -0.00031104 0.00014065 -0.00041699 -0.00019954 9.0802e-05 -0.00027013 0.0004944 -0.00014752 -0.00038884 -0.00021403 0.0004307 4.2419e-05 0.00032169 -0.00054374 0.00035701 -0.00028996 0.00022616 0.00027873 -0.00014221 0.0001389 0.00041056 -0.00038647 0.00028158 -7.3157e-05 -0.00022 0.00057007 0.0003228 0.00011938 0.00055617 -0.00033714 -0.00072494 -4.7498e-05 -0.0005363 -2.0166e-05 -7.7599e-05 8.8063e-05 -0.00023481 -0.00013479 0.00033181 4.2534e-05 -0.00062131 -0.00010188 0.00037743 6.2501e-05 0.00013352 0.00086385 -0.00042002 -0.00049494 -0.00057665 0.00051059 -0.00078524 0.00026324 0.00013637 -9.9977e-06 -0.00022774 -0.00025986 -7.5931e-05 0.00016303 6.6251e-05 -3.7775e-05 0.00084121 -0.00035488 -7.5669e-05 0.00025148 6.2128e-05 0.00056855 0.00014139 8.6539e-05 -7.1064e-05 1.6083e-05 -0.00016214 0.00066311 0.00067153 -9.1109e-05 -0.0002904 0.00020925 0.0003603 -0.00033817 0.00019503 -0.00061883 -0.0001052 -0.00053037 0.00021958 0.00047948 0.00046723 9.1569e-05 -0.00058142 -5.4804e-05 -0.00032627 0.00020859 -0.00017552 -0.00017964 -1.5814e-05 0.00023587 0.0003798 -0.00029444 -0.00068066 8.8319e-06 -0.0004249 0.00027524 -0.00032631 -0.00038985 -0.00052181 -0.00018321 0.00010093 6.6082e-05 0.00042419 0.00088967 -0.00034361 0.00049739 -0.00010108 0.00047693 0.00024132 0.00037652 0.00061706 -0.00042588 -0.00014028 -0.00038741 0.00031169 0.00023552 0.00060055 0.0001894 -0.00022552 4.9836e-05 -0.00018046 0.00015359 -0.00023188 -0.00082826 0.0001286 0.00024853 -0.00035779 0.00034412 -0.00014534 0.00032048 0.00014525 0.00030872 -0.00029446 0.00021404 0.00035272 -2.0248e-05 -0.00018948 5.7479e-05 -0.00030136 -0.00030869 0.00012112 0.00045346 0.00013835 -0.00028195 -0.00076158 -0.00076497 -5.1161e-05 -0.0004903 -0.00036403 -0.00042263 0.00017151 7.2916e-05 0.00042565 0.00029612 0.0004858 -0.00013044 0.0006687 -0.00028312 -9.0794e-05 -0.00050511 2.7109e-05 0.0002511 -0.0003755 0.00047135 -0.0002632 0.00029641 0.00018126 -0.00035376 0.00047039 5.5122e-05 -0.00023817 -3.308e-05 3.0486e-05 0.00015699 9.7621e-05 -6.8705e-05 0.00038175 5.7939e-05 -0.00040087 -0.00092689 8.6491e-05 -0.00022174 0.00023848 -5.2432e-05 0.0004257 0.00014113 -0.00092424 0.00032499 0.00091275 -0.00017203 -0.00013741 0.00019162 -0.00010968 8.7084e-05 -0.00036933 0.00022087 0.00098561 -0.00063351 -0.00060947 -9.6538e-05 -0.00033453 7.2987e-05 0.00016484 9.5142e-05 0.00013308 
</s> 0.00019602 0.00014653 -5.054e-05 0.00013724 0.00044728 0.00029748 0.00054909 0.00024708 -7.4984e-05 -0.0003122 0.00034747 -0.00037584 0.00018545 0.00031657 1.5831e-05 -0.00021335 4.3081e-05 9.984e-05 -0.00073638 -0.00051624 -0.00013104 0.00024276 -0.00043276 -0.00017809 0.00041857 -2.5592e-05 -0.00029551 -0.00044495 0.00018318 -0.0004058 -0.00043731 0.00017067 0.00054365 0.00010111 -0.00054527 3.2071e-05 -0.00023878 -0.00034794 0.00035965 0.00076146 -0.0003117 7.4162e-05 0.00030051 0.00012145 -0.00044337 0.00024227 0.00060859 0.00029711 -0.00021761 0.00040895 -2.6996e-05 0.00011158 0.00053457 -0.00024685 -0.00012604 0.00016713 0.00049584 5.5337e-05 -1.4417e-05 -3.0989e-05 5.9648e-05 -0.0001803 -0.00029668 -0.0002933 -0.0003368 -0.00042892 -0.00023728 -0.0001523 -0.00012931 0.00034117 8.7349e-05 0.00047147 0.00012313 -0.00016719 0.000122 -0.0003003 7.915e-05 -0.00018765 -8.5945e-05 0.00037439 -0.00017347 -8.1052e-05 -0.0001892 0.00090818 -0.00042662 0.0004776 0.00013778 -4.4934e-05 -0.00017552 -0.0007598 0.00021351 -0.00015221 9.2351e-05 -0.0001331 -1.7446e-05 0.00017384 4.6827e-05 -0.00023421 0.00015167 0.00027565 3.2718e-05 -0.0004587 3.6102e-05 1.9344e-05 -0.00012178 0.00032398 -9.4476e-05 0.00014221 0.00056756 -5.8587e-05 0.00014034 -0.00012049 0.00025053 0.00040856 -0.00020542 -0.00033205 -0.00034999 0.00069586 0.00021644 -0.00026645 -0.00077348 0.00051651 -4.3935e-05 0.00010936 0.00025257 -0.00015717 0.00028094 5.6784e-05 0.00059755 0.00025277 0.00033029 -0.00021899 1.6629e-05 -9.413e-05 -2.1015e-05 0.00022864 -0.00016065 -0.0002246 -0.00071812 0.0004823 -0.00028746 -0.00029522 4.959e-05 0.00040498 0.00036059 0.00036019 -0.00011425 -0.00030379 -0.0002428 -0.0001323 0.00023461 0.0003244 9.5779e-05 0.00019859 0.00010969 -0.00040749 0.00037652 -0.00026666 0.00010483 -0.00036402 -0.00018913 -0.00018495 -0.000189 0.0004018 -3.8399e-07 0.00054835 -0.00020585 0.00062799 -0.00016614 2.7372e-05 -0.0003181 0.00066528 -0.00010986 8.3737e-06 0.00055056 -0.00014247 0.00080731 -0.0001148 -0.00029444 -0.00033928 -0.00047954 0.00080558 -0.00039333 0.00021271 0.00011844 -6.0062e-05 -0.00032544 -7.7879e-05 0.00012816 -9.2657e-05 -0.00023065 0.00037514 0.00044647 -0.00049973 0.00034573 0.00013097 5.3554e-05 -0.00037818 0.00011088 -0.00011426 0.00024669 0.00032903 0.00027826 -0.00056596 7.3488e-05 -1.9589e-06 -0.00024902 -8.8361e-05 -0.00024186 -0.00046137 0.0001099 6.058e-05 -0.00013523 0.00026378 -0.00035636 -0.00015683 0.00020508 0.00036384 -6.0456e-05 0.00023643 0.00035853 0.00026052 0.00026578 0.0004792 -0.00014688 -0.00026779 -0.00017893 0.00043959 4.6407e-05 0.00030525 -0.0002142 -0.00095547 -0.00021233 0.00054953 5.6284e-05 -4.303e-05 0.00032493 0.0004471 0.00026455 -8.6168e-05 0.00049479 -0.00024335 0.00012003 0.00053954 -0.00034778 -6.6383e-05 0.00040758 -5.7758e-05 -3.219e-05 -8.3178e-05 -0.0002521 0.00017042 0.00040195 -0.00018272 0.00048919 -0.00012973 9.7714e-05 5.9207e-05 0.0002411 -9.8559e-05 -0.00016273 -0.00013934 -0.00068804 -0.00050339 8.2522e-05 0.00023479 -0.00034282 0.0002483 0.0003172 -0.00036293 -2.4509e-06 -0.00013638 3.671e-05 1.0149e-05 0.00036458 -0.00062238 -6.0964e-06 5.1513e-05 0.00054371 8.5142e-05 -0.00031376 -0.0005811 -0.0003341 -6.6854e-05 -0.00027941 -0.0005039 -0.0004334 -0.00010423 0.00041874 -0.00056564 -0.00033253 0.00022657 0.00046091 -6.9059e-05 -0.00026552 0.00016249 -0.00010341 0.00041906 0.00026663 0.00020092 -0.00015619 0.0005307 0.00023119 -0.00010544 0.00041203 -0.00020525 -0.00026817 0.00097618 0.00041959 -5.2985e-05 -0.00020234 0.0001741 -0.00010109 0.00017396 0.00026714 0.00017975 -0.00047472 -0.00036231 0.00063502 0.00016633 -0.00036492 0.00022253 0.00080108 -0.00028903 2.9435e-05 0.00013117 -0.00039095 -0.0010269 -0.00061434 0.00012746 -0.00035137 -0.00014894 0.00041961 -0.00025766 -0.00019597 -7.2522e-05 0.00042313 -0.00029905 -0.00026249 -1.882e-05 -0.00040548 0.00055585 0.00064498 4.6974e-05 0.00040468 -0.00072901 0.0004008 0.00051094 0.00013848 -0.00017102 -0.00028461 6.9743e-05 0.00027702 -0.00018788 0.000381 -2.3356e-05 -0.00026656 6.2266e-05 0.00023314 -0.00011348 0.0003211 0.00060981 0.00045105 0.00057163 0.00039273 0.0002716 0.0004004 0.00065503 -0.00038429 -0.00030567 1.5565e-05 0.00041245 8.8247e-05 -0.00018369 0.00060847 -0.00075842 -0.00062326 0.00039741 -0.00058121 -8.0934e-05 -0.00011972 -0.00016592 -0.00060635 0.00055335 0.00077496 -0.00032764 -8.3896e-05 -0.00018732 0.0004948 2.7018e-05 0.00060619 -0.00041294 -0.00032357 -0.00020597 0.00024444 7.9199e-05 -0.00063837 -0.00023145 -0.00037393 -0.00015324 -0.00013137 -6.6402e-05 7.8212e-05 0.00044116 0.00032843 0.0003654 0.00021845 -0.00028119 -5.4914e-05 0.00018792 0.00012228 -8.3971e-05 0.00056066 0.00086475 -0.00045362 2.8849e-05 -0.00017482 0.00016579 -0.00043959 -0.00091881 0.0001483 0.00054051 0.00046704 0.00045995 0.00028939 -0.00070169 -0.00043221 -0.00039812 0.00036423 0.00042267 5.719e-07 -0.00067166 -0.00019674 0.00025048 -0.00029836 0.00031908 -0.00017335 -9.8527e-05 -0.00018619 -0.00062313 -0.00041941 -0.0003569 -0.00013368 0.00016916 0.00013762 -0.00013146 0.00048397 -0.0001284 0.00017369 -0.00037751 8.3746e-05 -0.00062706 -0.0003315 0.0003314 -0.00027479 -6.0899e-05 0.00024551 -9.4376e-05 0.00018224 -0.00016961 0.00010062 6.9919e-05 -5.2175e-05 -0.00031605 -0.00065122 -3.6654e-06 -0.00041736 0.00022226 0.00050846 0.00075302 -0.00030758 -0.00031079 0.00054244 -0.00067207 0.00031664 0.00045326 0.000317 4.6079e-05 0.00037408 -0.00014177 0.00015557 -0.00023222 0.00013604 -7.7098e-05 -0.00080774 7.0077e-05 0.00026511 -0.00012608 0.00035222 -1.8112e-05 0.00035047 2.5705e-05 -0.00019112 0.00019833 -0.00044241 0.0001666 0.00074083 0.00048597 0.00018624 0.0001813 
<sent> 0.00037485 0.00030165 8.688e-05 -1.1361e-05 0.00026038 7.4923e-05 0.00051403 0.00029161 -6.2625e-06 0.0004492 9.3066e-05 4.1404e-05 7.316e-05 -0.00044661 -0.00016338 0.00017871 8.9389e-05 0.00031965 -0.00016431 0.00012964 5.8984e-05 0.00016343 0.00024578 0.00034258 5.9593e-05 -0.00012328 -0.00046489 0.00039551 -0.00037582 -0.00013064 2.1652e-05 9.5724e-05 -0.00018127 0.00028892 -0.00028268 -0.00027934 -3.9433e-05 0.00019606 -0.00039968 0.00032885 -0.0001254 -0.00020674 -0.0002638 0.00066962 0.00047987 0.00028019 6.1271e-05 0.00035193 0.00040186 0.00051032 2.3254e-05 -0.00023531 -0.00031922 6.2921e-05 -0.00024755 0.00016281 0.00033024 -0.00018499 0.00014322 -0.00014961 4.4617e-05 -0.00030309 -0.00016781 0.0004911 -0.00040931 -0.00010972 0.00023915 0.00027925 5.3497e-06 -0.00034423 -5.3568e-05 -4.4849e-05 -0.00013369 -0.00029863 0.00017693 0.00021201 -0.00011677 5.3237e-05 -0.00046887 -6.4888e-05 -0.00027497 -0.00021842 -0.00056498 -4.8588e-06 8.2508e-05 -0.00060729 0.00010841 -0.00043361 0.00044591 -0.00016066 0.00042788 0.0001446 0.0001124 -0.00026794 -3.7472e-05 -0.00023222 -0.00036527 0.00023857 2.4386e-05 2.1546e-05 7.4271e-05 9.2425e-05 0.00025209 -0.00023809 0.00038838 -0.00019658 8.3257e-05 -7.9878e-05 -0.00038999 3.4488e-05 -0.00018853 0.000124 0.00010936 0.00017472 -0.00089918 -1.4947e-05 -6.0301e-05 0.0001021 0.00036245 -0.00030066 2.8991e-05 0.00025313 -0.00019456 8.3282e-05 0.0003929 -0.00036966 9.7596e-05 0.00025325 0.00023025 0.0001986 -0.00050907 0.00015092 -0.00023042 4.8802e-05 0.00011372 3.2552e-06 0.00021449 -0.00017168 -0.00046509 0.00031614 0.00017384 9.2862e-06 -0.00024487 0.00057938 0.00023129 0.00018817 2.9614e-05 -0.00027667 -0.00039748 -1.4967e-05 -0.00041257 -0.00015525 -7.5444e-05 0.00022871 -0.00030211 -0.00028298 4.8984e-05 -0.00030137 -0.00034732 -2.2646e-05 0.00012929 -0.00039062 0.00048285 4.6066e-05 7.0818e-07 -0.00027575 -3.6875e-05 0.00073876 -7.133e-05 0.00035607 -0.00020266 0.00021409 0.00015417 -0.0003659 -0.00010269 0.00038481 -0.00029372 0.00065244 -3.7545e-05 -0.00027179 -0.0002215 -0.00029304 -0.00043129 7.2841e-05 -4.0225e-05 0.00030108 0.00014269 0.0002822 -0.00027638 0.0002779 0.00015895 -9.5203e-05 -6.473e-05 6.3203e-05 -8.1537e-05 0.00032512 0.00015557 -0.00021595 0.00022562 6.7223e-05 -0.00046352 -0.00028975 -9.5828e-05 -0.0001805 -9.1983e-05 0.00025161 0.00014668 8.5656e-05 -0.00044872 3.4005e-05 0.0003216 0.00037019 -1.3687e-05 -0.00047726 0.00023429 -0.00037726 -1.7251e-05 6.1155e-05 -0.00060815 0.0003239 -0.00034771 0.00013949 0.00022949 0.00013102 0.00036564 -4.7641e-05 -0.000237 -7.2872e-05 -1.8595e-05 5.647e-05 6.9192e-05 -0.00034635 -9.7069e-05 0.00016742 0.00034536 -0.00048007 3.8377e-05 0.00010266 -0.00011776 -0.00041321 -0.00029827 0.0003685 -5.869e-05 0.00064149 -5.7916e-05 -0.00022384 4.8579e-05 0.00032842 -0.00032484 0.00015636 0.00025206 -0.00016025 0.00021003 0.00011001 -9.4631e-05 0.00038239 -4.2117e-05 6.905e-05 -5.7358e-05 0.00014764 0.00021114 0.00011179 -0.00019145 0.00029017 -0.0002181 -6.8945e-06 7.7309e-05 -1.7587e-05 -0.00060492 0.00014027 0.00015182 0.00019261 -0.00031866 5.9198e-05 7.8328e-05 6.7865e-05 -7.7157e-05 -0.00025921 0.0001297 -0.00018571 9.3237e-05 -0.0001718 0.00038228 0.00022411 -0.00024072 0.00018822 0.00049134 0.00026117 0.00023918 -0.00041526 -0.00012762 -0.00033413 -0.00066246 -0.00040421 -0.00042049 0.00031031 0.00045441 -9.5834e-05 -1.6218e-05 -0.0001635 -2.2882e-05 -9.0061e-06 0.00013392 0.00040237 -0.00010926 -0.00011491 0.00029225 2.3299e-05 0.00049258 3.5189e-05 -3.6453e-05 -0.00014746 5.6979e-05 0.00012358 -8.0454e-05 0.00028356 0.00037518 -0.00013157 -8.4397e-06 0.00028701 -0.0003848 -0.00011962 -0.0001524 0.00014102 4.5836e-05 7.1548e-05 -0.00049963 0.00019227 -0.00051865 0.000117 0.00054128 -0.00039068 -0.00013932 0.00039953 -9.2641e-05 -3.1376e-05 0.00073299 0.00039633 0.0001767 -0.00010016 -0.00038579 0.0002023 -0.0001334 9.0572e-05 -0.00017996 0.00017806 0.00029853 -0.00010965 0.00021556 0.00048269 -8.7311e-05 0.00015787 -3.1735e-05 -0.00012885 0.00030024 -0.00021926 7.0236e-05 -2.5414e-05 -0.00020169 -1.6096e-05 5.7513e-05 9.5321e-05 -0.00033918 9.7077e-05 -6.2896e-05 -0.00027226 -0.00013103 0.00014457 -0.00053075 -0.00040444 0.0002017 2.0476e-06 -6.6887e-05 0.00011183 -0.00019908 -0.00015239 -2.8609e-05 9.7552e-05 0.00043705 -9.9249e-05 0.00023721 -0.00062002 -8.7837e-05 -1.9521e-05 0.00010814 -1.9022e-06 0.00016368 -0.00014766 -5.3215e-05 -0.00023405 0.00033064 -0.00014956 -0.00043805 -0.00011803 0.00025938 -3.759e-05 -0.00028262 -0.0003163 -0.00011815 0.00031301 9.0047e-05 -0.00012866 0.00019508 4.5783e-05 0.00019688 -6.5546e-05 3.6876e-05 -7.9664e-05 0.00034478 0.00012058 6.5174e-05 0.0002991 0.00064284 -0.00023245 -0.0001032 0.00044189 -0.00022291 -0.00054314 -8.3797e-05 1.7868e-06 9.9622e-05 3.6953e-05 -0.00020155 -0.00021404 -2.0967e-05 0.00031479 0.00028732 -0.00024915 0.0001869 -1.1043e-05 4.2096e-05 -0.00010674 0.00023671 0.00030185 0.00014721 -5.8554e-05 -0.0002506 8.645e-06 0.00014347 1.3181e-05 -0.00049319 0.00026182 -0.00015274 -0.00047404 -5.4248e-05 -0.00057541 -2.8861e-05 0.00033114 -0.00051112 0.00026845 -0.00021188 -3.0699e-05 -0.00027175 -2.5675e-05 2.427e-05 0.00046577 0.00017731 -8.3528e-05 0.00024023 4.442e-05 0.0003214 0.0004441 -0.00022151 3.9916e-05 -0.00047511 0.00033561 -2.5665e-05 -0.00014218 0.00046292 -0.00014669 -0.00039675 0.00013979 -0.00055331 -0.00011288 -2.6175e-05 -0.00038702 0.00059723 0.00045992 -5.9782e-05 0.00041802 8.0553e-05 -0.00031087 -0.00011684 -0.00012182 -8.028e-05 0.00018769 -0.00031159 5.5047e-05 -8.8879e-05 0.00033434 0.00045059 0.00085734 -0.00027404 -0.00014926 0.00020485 -8.9366e-05 0.00032051 -0.00010555 9.209e-05 -0.00012038 
<n><f><sg> 9.5064e-05 9.352e-05 0.0003364 0.000257 0.00011742 0.00028777 0.00015698 -0.0001841 2.079e-05 0.00021022 0.0001071 -0.0001996 0.0002149 -0.00045961 -0.00032135 3.181e-05 -9.2639e-05 6.4921e-05 -0.00016417 -1.0488e-05 -0.00043609 -0.00029409 -7.6538e-05 -2.3914e-05 0.00018314 0.0001149 -0.00030743 -0.00011746 5.6082e-05 0.00028346 -7.3919e-05 -9.1066e-05 0.00019705 -0.00017911 -3.7538e-05 0.00026514 -4.3421e-05 6.244e-06 -8.7982e-05 0.00031717 -4.5205e-05 -0.00010929 3.8154e-05 0.00030574 0.00021286 0.00010364 -2.2965e-05 -3.5775e-05 5.4082e-05 0.00013656 7.8727e-05 -0.00028885 0.00011396 -8.8028e-05 -0.00023206 0.00029117 0.00016476 -0.00010229 7.6539e-05 9.57e-05 -0.00028289 -0.00021016 -0.00030436 0.00016278 -0.00021243 -0.00011247 -0.00024094 -0.00027906 -0.00019194 -2.927e-05 9.9096e-05 -0.00013304 -0.00011768 7.9616e-05 -0.00018261 -3.5718e-05 -0.0002017 0.00014947 -6.2082e-06 0.00020425 0.00019722 -8.9705e-05 -0.00024892 -5.0479e-05 0.00025487 -0.00015074 2.1713e-05 2.2967e-05 6.184e-05 0.00014637 0.00015998 7.9781e-05 0.00028596 -0.00020847 8.2283e-06 -5.1396e-06 -0.00029077 0.00011378 -5.3229e-05 0.00010639 0.00019563 0.00037261 0.00010761 -6.9506e-05 2.8437e-05 -0.00039543 5.499e-05 0.00045304 -0.00012451 -0.0001578 9.9164e-05 0.00010692 -0.00019079 0.00028411 -0.00012566 0.00015053 -0.00026334 -6.7946e-05 0.00019201 4.8205e-06 3.0374e-05 0.00016098 6.2105e-05 -0.00016357 0.00038027 0.00015218 8.0618e-06 -0.00012194 0.0003431 -0.00023434 -7.9327e-05 0.00017811 0.000117 -2.4016e-05 -0.00019575 0.00038104 -0.00010631 -0.0001133 -0.00035541 0.00039335 0.00028275 5.1836e-05 -0.00019971 -3.416e-05 -9.1784e-05 9.666e-05 -0.00013634 -0.0001888 -3.9285e-05 0.00027021 -0.00014764 -0.00033363 -0.00019706 0.00014707 0.00015249 -1.095e-05 -0.00048761 0.00014251 -0.00011894 -0.00051313 4.9045e-05 -5.2705e-05 -0.0001064 1.8032e-05 2.4886e-05 7.8537e-06 3.3044e-05 -1.758e-05 -0.0001433 3.432e-05 -9.3243e-05 0.00020334 0.00031979 -0.00020068 -0.00015719 0.00019281 -3.1237e-05 -1.6164e-05 0.00020421 2.5418e-06 -0.00011244 -0.00020394 -9.8005e-05 0.00044266 0.00012723 4.0723e-05 -0.00030525 0.00028011 -0.0001078 -2.7879e-05 5.6449e-05 0.00021031 -0.0001161 -0.00026975 9.8805e-05 -0.00013085 0.00019906 -0.00034978 0.00027984 -0.00013107 -0.00050817 -9.3419e-05 0.00025505 -0.00041045 -0.0001375 0.00038895 -0.00015068 0.0001554 4.5248e-05 -0.00040758 0.00021483 0.00011876 -0.00025074 -8.4375e-05 -0.00025051 -0.00014152 0.00019889 -3.1445e-05 -0.0005121 0.00058513 0.00036944 0.00017308 -6.4029e-05 4.717e-05 0.00037543 1.5371e-05 -5.756e-05 0.00042702 -0.00020031 0.00022806 -0.00025904 5.1436e-05 -0.00020137 -0.00021123 0.00028087 -0.00039238 -1.7199e-05 -0.00017248 0.00022154 -0.00029288 9.9103e-05 0.00012737 -2.8774e-05 0.00035418 4.4403e-05 -0.00022569 -3.011e-05 -6.8594e-05 -0.00017721 0.00012721 -4.101e-05 -0.00024969 -7.1282e-06 -0.00014899 -0.00012682 -7.8043e-05 -9.7824e-05 -5.8637e-05 -0.00027433 -0.00025639 -4.7699e-05 -0.00014036 -0.00028375 -0.00018961 -0.00022877 1.1818e-05 -8.722e-05 0.00022886 -6.7806e-05 5.7667e-05 0.00013047 5.7e-05 -8.0598e-05 0.000498 0.00033317 -0.00015334 -0.00018465 -6.3648e-05 -0.00019234 0.00046062 6.1721e-06 0.00028059 0.00060907 0.00020539 -0.00033813 2.7919e-05 6.8495e-05 -2.5385e-05 0.00020017 -0.00022687 -0.00039531 -0.00034543 0.00017462 -0.00014085 6.013e-05 0.00015426 -0.00047866 0.00028444 -6.4758e-06 -5.925e-05 0.00028723 5.3859e-05 -0.00012183 0.00012528 0.00010206 -0.00041352 0.00010629 0.00015907 0.00040068 0.00016662 0.0001578 -0.00011542 -7.4796e-05 5.9238e-05 0.00025371 1.8247e-05 0.00063473 -0.00012855 -7.9454e-05 4.716e-05 5.9538e-05 -0.00042178 0.00018841 -2.9614e-05 0.00010958 -0.00019079 -0.00010788 -0.0001326 -0.00015291 -1.971e-05 0.00012252 -0.00031068 -6.5553e-05 -2.5249e-05 -8.7871e-05 -9.0419e-05 0.00013971 -0.00052332 -0.00020898 -0.00040379 0.00012947 -5.2863e-06 0.00015317 7.4121e-05 -0.00041672 -0.00027933 0.00019278 5.2751e-05 -0.00015445 3.9469e-08 -6.8141e-05 -8.5896e-05 -7.729e-05 8.8579e-05 5.7257e-05 0.00015852 0.00021896 5.2326e-05 -9.4811e-05 -1.6846e-05 0.00013221 5.9872e-05 0.00015686 -4.2133e-05 7.9435e-05 3.9386e-05 -0.00013546 -4.5672e-06 -0.00049556 -0.00023702 -0.00013145 4.4556e-05 0.0002573 -0.00022623 -0.00011081 -2.9622e-05 0.00017892 -0.00020572 -0.00014149 -0.00025031 -0.00027594 -0.00064385 -0.00041186 -5.3475e-05 0.00026475 7.6617e-05 5.7426e-05 2.9655e-05 -7.8731e-05 -0.00030895 0.00014233 0.00017036 0.00024827 -0.00019621 0.00015567 0.00019196 -0.0002276 -2.5374e-05 -0.00013285 -4.9928e-05 0.00026114 -9.8277e-06 -0.00032604 0.00026605 0.00032394 1.3644e-05 -0.00020266 0.00017765 -8.3817e-06 9.2592e-06 -4.8939e-05 0.00046152 0.00032219 -2.0088e-05 -6.9245e-05 -1.4455e-05 1.4256e-05 5.7931e-06 -0.00027209 -4.4599e-05 -0.00030243 7.9331e-05 0.00025952 -4.4571e-05 0.00025591 0.0001495 0.00023402 -0.00023833 0.00021713 0.00016611 -0.00029119 0.00019716 -9.2752e-05 -0.00013477 5.6147e-05 -0.00018883 0.00020349 -8.8208e-05 -0.00026396 -0.00010009 -0.00078735 6.477e-05 -0.00012273 -8.0266e-05 5.1237e-05 0.00023572 0.0002294 5.993e-06 -9.4063e-05 -1.6364e-05 -5.2749e-05 0.00012228 -0.00021004 8.805e-05 -0.00010373 0.0001154 0.00012264 -0.00036404 0.00032546 -0.00016732 0.00021418 -0.0002195 -0.00014573 0.0001067 -0.00014087 -0.00045157 0.00018422 -0.00024731 -7.1008e-06 0.000386 0.00013084 0.00010431 3.2547e-05 -4.3119e-05 -7.9734e-05 0.00041786 0.00013329 2.3951e-05 -0.0001924 0.00026379 2.0674e-05 -0.00014718 6.6223e-05 -5.795e-05 -0.00017689 0.00026479 -7.6297e-05 -0.00013717 -2.8305e-05 0.00015049 0.00035332 0.00036863 0.00012108 -0.00010731 -0.00012153 -7.4223e-06 0.00018527 1.6568e-05 0.00017525 0.00061357 
<vblex><inf> 0.00026682 5.5245e-05 8.2253e-05 5.4591e-05 0.00022849 -9.8738e-05 0.00013674 -0.00013075 0.0001158 0.00025922 0.00010687 -2.7031e-05 0.00014522 -0.00021667 -6.4384e-05 -0.00029435 -0.00015799 0.00041306 -4.4112e-05 0.00022535 -4.1131e-05 -4.9601e-05 -0.00010711 8.0731e-05 0.00016596 -0.00020353 -0.00054419 -0.00024116 -0.00026963 0.00037111 -0.00010637 -0.00027037 -4.4731e-05 0.00014702 -0.000311 9.4421e-06 -5.7428e-05 0.00022411 0.00015128 -0.00024385 -0.00029669 -6.489e-05 0.00031091 0.00011764 0.00026158 0.00019104 -4.0992e-05 0.00028317 0.00044706 -3.0824e-05 0.0001008 -0.00015859 0.00025095 -0.00011729 -0.00021542 -2.7664e-05 -4.5607e-05 -0.00034107 -0.00019512 3.4304e-05 -8.3376e-05 -0.00041995 -6.8421e-05 -5.358e-05 -0.00039081 8.6738e-05 -3.0594e-05 -3.1043e-05 -8.4259e-05 -0.00025661 0.00027974 8.7592e-05 0.00040462 1.6431e-05 -0.00022213 0.00014946 -0.00020803 0.00034707 -0.00025841 -0.00013386 1.5384e-06 -0.00012681 -0.00026967 -8.4856e-05 0.00028078 0.00034281 9.0029e-05 -0.00031043 -9.4462e-08 0.00017759 0.00036703 -0.00046613 -3.7076e-05 5.2607e-05 5.8404e-05 -0.00010907 -0.0002723 -1.138e-05 -3.1179e-05 -3.4317e-05 0.00011922 9.5692e-05 0.00023764 -0.00015883 7.1214e-05 2.6775e-05 0.00044209 0.00012537 5.631e-05 -0.00022685 -3.4707e-05 9.9485e-05 -9.3259e-05 0.00029884 -0.00052629 0.00028209 -0.00015621 -5.7343e-05 0.00038831 7.3523e-06 -4.0511e-05 0.0001452 -8.8813e-05 -9.6327e-05 0.00025548 0.0003466 9.7663e-05 -0.00041807 0.00020678 6.4313e-05 -0.00014476 0.00026801 4.6564e-05 0.00010491 -1.658e-05 0.00027396 -6.4798e-05 -0.00021043 -0.0004762 0.00018735 0.00022288 0.00010956 -0.00012113 2.3847e-06 -0.00043198 0.00027931 -0.0004754 -0.00017803 9.804e-05 1.3125e-06 -0.00021257 -0.00020829 0.00016502 2.2988e-05 0.00016373 -6.6991e-06 -0.00015783 -0.00015795 -0.00020849 -1.9103e-05 0.00022802 -0.00017506 -0.00024512 -5.6025e-05 1.298e-05 0.0002126 0.00010385 0.00014003 -2.3604e-05 -2.5211e-05 -0.00037035 0.00019432 0.00015594 -0.00028388 -0.00040396 2.9986e-05 -6.676e-06 9.3403e-05 0.00026509 -2.3499e-05 -4.3264e-05 8.6626e-05 -0.00016891 0.00012965 0.00019511 -0.00017889 -0.00029522 0.00014717 0.00020769 0.00024127 8.5216e-05 0.00014744 -5.7276e-06 -0.00032659 -0.00027057 -4.4112e-05 0.00021616 -0.00035648 0.00020796 -5.5454e-05 -0.00019234 6.5469e-05 0.00011332 -0.00044996 0.00022996 0.00049608 -0.00035992 0.00014442 0.00010374 7.0961e-05 9.9509e-05 0.00025108 -3.8413e-05 -0.00023309 -0.00028912 -5.6412e-05 -7.3563e-05 -5.3232e-05 -0.00042897 0.0005046 -7.8267e-05 -0.00022922 7.6864e-05 9.0822e-05 0.00012277 0.00019985 -0.00029955 0.00021627 0.00023811 7.898e-05 -0.00010192 9.3855e-05 0.00035225 0.00017408 2.7182e-05 6.8233e-05 -2.4967e-05 0.00030255 0.00011295 -0.00046831 -3.0156e-05 0.00027712 -0.00012857 0.00045976 -0.00031338 -0.00048616 -0.0003059 -0.00010099 -8.4688e-05 0.00027406 0.00016131 2.2941e-05 -4.2617e-05 -0.0002776 -0.00016422 -8.7846e-05 -0.00032432 0.00014095 3.7555e-05 -0.00017598 -0.00018444 -2.1052e-06 -0.00019976 -6.8892e-05 0.00012584 -0.00020263 -0.00016304 8.4787e-05 -0.00013449 0.00012413 0.00029234 -9.3118e-05 1.0134e-05 9.3956e-05 0.0003612 -0.00030657 5.4916e-05 -0.0001141 0.00041172 0.00023901 -0.00011909 0.00013214 0.00021012 -0.00018577 5.0722e-05 -0.00027821 0.00010314 4.9388e-05 6.706e-07 -0.00038103 -0.00016955 -0.00010762 0.00023024 -0.00024075 -0.00017962 0.00017682 -0.00016779 9.174e-05 2.3521e-05 -0.0002673 0.00020257 0.00023577 -0.00024064 0.00011223 -0.00015094 -0.00011153 -4.9056e-05 0.0002852 0.00030285 0.00018479 0.00025371 -0.00016122 -0.00014892 -3.3399e-05 6.6791e-05 6.7981e-05 0.00021351 -7.8898e-05 -1.9198e-07 2.3859e-05 0.00024621 -0.00027106 0.00014285 0.00010254 -5.0211e-05 -0.0002984 -0.00017556 -0.00023824 -0.00036564 0.00022913 0.00021485 -0.00021461 0.00022167 -4.8201e-06 -8.1411e-05 0.00015191 0.00020293 -8.4551e-05 -2.7453e-05 -0.0001768 9.8322e-06 -3.9723e-05 0.00014666 6.2233e-05 -0.00029225 -0.00041954 -0.00013723 2.2564e-05 4.8619e-05 -8.0251e-06 0.00011505 0.00014141 -2.0753e-05 7.4258e-05 0.00037536 0.00025283 5.6759e-05 -0.0003259 0.00013831 -0.00020335 0.00026766 0.00021546 0.00016391 0.00018385 8.7936e-05 9.1097e-05 0.00018491 7.8334e-05 -0.00034017 -6.9039e-05 7.1717e-06 0.00017323 -0.00029872 -0.00012526 -0.00010236 -1.0314e-05 -0.00011058 -0.00023501 6.8442e-05 -0.00042251 -0.00012688 -0.0003118 -0.00026736 -6.1573e-05 3.7133e-05 -9.8765e-06 9.1516e-05 -0.00020567 -0.00018366 -0.00050271 8.5921e-05 -0.00018868 9.4585e-05 -0.00047105 -3.5578e-05 -0.00010828 -0.00038786 2.7235e-05 0.00025421 -6.3013e-05 0.00041762 -0.00032089 -0.00022868 0.00016892 0.00022112 4.1297e-05 -0.00015172 -7.5587e-05 0.00013188 1.113e-05 -0.00013379 0.00025657 0.00013464 -0.00011792 0.00020099 0.00020802 0.00016159 7.354e-05 2.8156e-05 -0.00032324 6.6047e-05 -0.00028344 0.00031605 2.5734e-05 0.00019734 0.00010383 0.00019463 -0.00012446 3.1777e-05 -3.7243e-05 0.00025307 8.8251e-05 -0.00019544 -3.5452e-05 -0.00026498 -0.00011741 0.00020843 -0.00026298 -0.00028749 -0.00010693 -0.00013447 -0.00022696 -0.00012403 -0.00011169 0.00012213 0.0001164 0.00020015 0.00012615 0.00022146 -0.00011057 2.234e-05 0.00015907 2.6219e-05 0.00038469 -0.00022062 -0.00012829 0.00033108 -3.751e-05 0.0006361 -0.00019886 8.1309e-05 -0.00018001 1.1342e-05 1.4115e-06 -0.00026749 -0.0004149 -7.2882e-05 2.3941e-05 -0.00010735 0.00010049 -0.00026889 -0.00022075 0.00029342 2.1049e-05 -0.00017609 8.9497e-05 0.0001187 0.00017015 -4.558e-07 0.00023775 -3.1761e-05 -1.1409e-06 -4.9323e-05 -0.00021459 -0.00025059 0.00019754 -5.7532e-05 -9.2689e-06 -0.00015133 8.5232e-05 0.0002515 0.00038067 -5.2446e-06 -0.00023857 -0.00017392 -0.00025341 -0.00033104 7.1838e-05 0.00032889 0.00020518 
<n><m><pl> 0.00013723 2.447e-05 0.00016745 -4.2684e-05 0.00027042 0.00028906 0.00021005 0.00016178 0.00011817 0.00019011 5.7647e-05 -0.00028798 6.7461e-05 -0.00023874 6.9798e-05 0.00015228 -0.00024474 0.00043778 -0.00010981 0.00026847 -4.3295e-05 -0.00021025 1.4935e-05 0.00023267 0.0002274 2.7033e-05 -0.00025478 -0.0001189 -0.0001 -0.00012692 3.0577e-05 -0.00030499 -0.0003054 2.6731e-05 -0.00029068 -0.00018511 0.00018691 0.00031696 -0.00012961 0.00027315 -7.8516e-06 2.5194e-05 -1.2835e-05 0.00019252 -3.8693e-05 0.00031887 2.6699e-05 0.00031702 0.00013282 0.00018657 0.00016732 2.0381e-05 0.00029032 2.8999e-05 -0.0003834 0.00023135 0.00012343 -0.00014 1.1178e-05 -0.00019277 -0.00021619 -9.0145e-05 -0.00030901 0.0004023 -0.00014392 -0.00015352 2.0363e-05 -1.1445e-06 -0.00016395 -0.00021577 0.00040676 0.00045001 0.00013167 -3.0508e-05 0.00022422 0.00010698 -0.00022231 -0.00010265 -2.8115e-05 0.00024972 6.7716e-05 0.0002041 -0.00037775 4.9898e-05 0.00018627 -4.4657e-05 7.7261e-05 -8.6544e-05 0.0003777 0.00025286 0.00019102 -0.00014966 -0.00026573 -0.00013894 1.1151e-05 0.00010997 -0.00017066 0.0001394 0.00014052 0.00024761 3.8976e-06 0.00025678 0.00022609 3.0996e-05 -5.045e-05 -5.8683e-05 3.065e-05 0.00018753 0.00011835 -6.2996e-05 0.00010777 0.00013524 5.9606e-05 0.00028514 -9.2953e-05 9.3075e-05 8.6957e-05 -0.00014173 -4.1255e-05 1.9864e-05 -2.9735e-06 0.0001632 -0.0001296 -0.00015462 0.00033038 0.00019729 0.00035195 -0.00017249 0.00012643 -0.000148 0.00049727 0.00011215 1.3834e-05 9.6605e-05 -0.00011161 0.00026738 -2.2133e-05 -2.8178e-05 -0.00053277 2.693e-05 4.1372e-05 -8.0535e-05 0.0003233 0.00018423 -0.00054078 0.00021113 -0.000437 -5.0535e-05 -4.0808e-05 -2.7522e-05 -0.00016623 -0.00036165 0.00014175 0.00015475 -8.5436e-06 -0.00016212 -0.00010125 -0.00015582 0.00014813 -7.0652e-05 -5.9391e-05 -0.00013152 3.9404e-05 -0.00014292 -8.7179e-05 -0.00023263 6.8148e-05 0.0001488 0.00030623 0.00028233 -0.00032366 0.00025793 6.3326e-05 -0.00017707 -0.00022806 0.00035681 -7.8662e-05 0.00040095 0.00010139 0.00016313 -5.6505e-05 -0.0001584 -0.00024435 0.00024102 1.0095e-05 4.6102e-05 -6.847e-06 0.00010421 -0.00031886 0.00022969 4.0375e-05 0.00022248 -0.00032523 -0.00042449 -0.00022697 5.6503e-05 9.2076e-05 -0.0005701 0.00045103 -0.00015625 -0.00020352 -1.9384e-06 2.7391e-05 -0.00014083 0.00018174 1.5664e-05 -0.00018533 0.00011047 -1.0472e-05 -0.00030156 -6.301e-06 0.0002283 -0.00032171 -0.00012929 -0.00049655 2.6358e-05 -7.3706e-05 -0.00041587 -5.7105e-05 0.00037229 -0.00014155 -3.1811e-05 4.8323e-05 8.3336e-05 6.2389e-05 -2.9261e-05 -0.00031382 8.0577e-06 8.5705e-05 0.00014952 1.7382e-05 3.0852e-05 -0.00032579 -0.00025102 -0.000395 0.00012431 -0.00017974 -0.00011021 -6.3234e-05 -0.00032835 -0.00017426 0.00030393 -0.00025104 0.00056429 3.3918e-05 -0.00053026 0.00021989 -3.7056e-05 -0.00017265 4.0425e-05 -4.679e-05 -4.0913e-05 0.00011067 2.1201e-05 8.0434e-05 -0.00019903 -0.0002176 1.4463e-05 7.3213e-07 -2.2117e-05 0.00015338 -3.6777e-05 -6.6162e-05 3.4374e-05 1.2198e-05 -0.00017812 -0.00012722 -5.5364e-05 -7.0564e-05 3.5437e-05 -9.4732e-05 -0.00023204 0.00026503 0.0001095 6.4121e-05 -0.0002474 -0.00019269 7.1998e-05 0.00036934 0.00033101 -8.5879e-05 1.5952e-05 0.00022381 -5.5836e-05 -9.5074e-05 1.4384e-05 0.0002278 -7.3351e-05 0.00030405 -0.00017744 -0.00039429 -0.00016203 0.0001961 -0.00028206 6.5518e-05 0.00020211 -0.000106 0.0001664 -1.4679e-05 -2.5539e-05 0.00039222 0.00010878 -0.00042508 9.0218e-05 -5.308e-05 4.6028e-05 9.8282e-05 0.00051218 0.0003316 9.8349e-05 -0.00012196 0.0001803 -0.00019525 0.0003252 0.00017736 7.5539e-05 0.00034045 -7.3385e-05 -6.7907e-05 0.00015559 0.00011289 -0.00014393 0.00014783 8e-06 -5.633e-05 2.0405e-05 0.00011775 -0.00024346 -0.00021005 5.9693e-05 0.00043824 -2.6759e-05 -9.3423e-05 -6.6418e-06 -0.00031552 0.00012446 0.00027079 -0.00016911 -6.7311e-05 -0.00037145 0.00013793 -0.00011202 0.00022067 -0.00017347 -0.00035513 -0.0002412 5.9336e-05 -0.00010123 -8.1594e-05 -0.00029288 8.7285e-06 0.00019052 -1.6531e-06 -0.0003956 0.00010612 7.2051e-05 -3.1928e-05 0.00029409 -6.8832e-05 9.4196e-06 2.016e-06 0.00010554 0.00034644 -5.712e-05 -1.4483e-05 0.00022115 -0.00010944 0.00030821 -7.9396e-05 -4.3496e-05 -1.0345e-05 3.1043e-05 5.3068e-06 0.00016694 -0.00034485 0.00035817 6.3692e-05 -0.00013532 -2.4479e-05 0.00012648 -5.8817e-05 -0.00063198 -0.00011841 -7.333e-05 0.00023283 3.7895e-05 -5.3372e-05 -0.00024119 -3.8473e-05 -0.00021074 0.00018433 -0.00032856 0.00012985 -1.2126e-05 6.8105e-05 -0.00012379 -0.00015861 -0.00013444 -0.00030649 8.7315e-05 0.00016857 -0.0001388 -9.5376e-05 -0.00019623 0.00035444 -7.097e-06 -0.0003285 -9.6404e-05 -0.00015095 3.7223e-05 -9.6608e-05 0.0002776 0.0001337 1.1124e-05 -1.3745e-05 9.2636e-05 -6.8201e-05 3.8755e-05 -0.0001053 -0.00043487 -0.00016371 0.00025164 0.00010441 0.00013639 0.00020668 3.7617e-05 0.00020454 3.3094e-05 -0.00022895 0.00015068 -7.691e-05 0.00032484 -0.0001112 -0.00028742 -0.00010618 -0.0001596 6.3236e-05 2.0454e-05 -0.00017718 -0.00019454 -0.00042543 -8.8148e-05 -0.00018587 -4.3173e-05 -4.2358e-05 3.4719e-05 0.00029824 -2.3235e-05 -4.4954e-05 3.2812e-05 -6.1616e-05 -2.8144e-05 -0.00025595 0.00048455 -0.00025517 8.0152e-05 0.00038567 -0.00018448 0.00023461 -1.1054e-05 -9.1223e-05 9.9279e-05 2.8908e-06 7.0082e-05 2.1378e-05 -6.4305e-05 0.00043916 -4.2774e-05 -3.7997e-05 0.00020115 -0.00010108 0.0003437 -2.734e-05 3.6343e-05 -1.0426e-05 -0.00016559 -0.00017668 4.7304e-05 -0.0004284 0.00019803 -0.00020588 -3.2601e-05 0.00011962 8.571e-05 6.2018e-06 0.00021789 0.00025185 0.00014276 -7.3138e-05 0.00017813 -0.00019629 0.00035463 2.5803e-05 7.3369e-05 4.9074e-05 9.8729e-07 2.9161e-07 -0.0002746 -1.4218e-05 0.00025939 
<vpart> 3.1002e-05 0.00025386 2.5754e-05 -0.00048029 0.00018541 -5.4994e-05 3.2015e-05 -0.00011644 0.00049059 1.0279e-05 -6.0496e-05 -0.00025271 6.7295e-05 0.00026232 -0.00048805 0.00013947 -8.0372e-05 0.00012097 -0.00027574 0.00043602 7.616e-05 0.00031297 -7.5071e-05 0.00012646 -0.00032535 -0.00041671 -0.00051343 0.00015018 -3.2846e-05 0.0004948 9.5053e-05 0.00031341 -4.146e-05 4.0834e-05 -0.00010568 7.9335e-05 -0.00031842 0.00014885 0.00013684 0.0001085 -0.00024225 -0.00020057 6.1828e-05 -0.000188 -2.1469e-06 0.00038929 -0.00016301 -1.0917e-05 0.00043228 -2.4837e-05 -2.3005e-05 -0.00028823 -0.00010926 -0.00023825 0.00013009 4.8256e-05 0.00013834 -0.00029988 5.1899e-05 4.7589e-05 -0.0002813 -0.00010711 0.00019982 9.3824e-05 -2.5501e-06 -0.00023882 0.00011378 0.00021377 -0.0002609 -5.4434e-05 -4.7334e-05 7.9213e-05 -9.4834e-05 0.00013184 -0.00012982 -0.00022481 1.5819e-05 0.00012877 -0.00038843 -1.2843e-06 7.7421e-05 0.00027131 -0.00035532 -0.00033239 -0.00027674 0.00044802 0.00031662 -0.0002632 -7.4177e-06 -0.00024437 0.00012959 -0.00028116 -0.00024573 0.00036459 0.0001143 -4.3785e-05 0.00029121 -7.4777e-05 -3.8666e-05 0.00048863 0.00011529 -0.00012171 9.2051e-05 0.00024939 7.6603e-05 -5.4856e-05 0.00016705 0.00018682 -8.7535e-05 -0.00012841 -0.00038676 -3.8233e-05 -9.5559e-05 0.00011229 -5.68e-05 -1.0106e-05 -0.00025788 -3.1351e-05 -2.5321e-05 -7.6074e-05 -0.00024044 -0.00015523 0.00026186 -0.00011197 -0.0004618 7.6908e-05 -0.00021418 -0.00028028 0.00010093 -0.00027078 3.0969e-05 -5.1241e-05 0.0005075 -0.0001144 1.3715e-05 9.7426e-05 -0.00022909 -0.00022379 -0.00032268 -0.00030697 -0.0002644 1.9942e-06 0.00042323 -3.6963e-05 2.872e-05 0.00018569 -0.00016665 3.4751e-05 0.00022413 1.6499e-05 -9.731e-05 6.5908e-06 0.0002922 -0.00028028 0.0001833 -0.00034163 0.00038811 0.00031812 0.00011263 6.8039e-05 -0.00016169 -0.0002297 0.00040009 0.00030191 -3.6366e-05 5.5966e-05 3.4063e-05 -4.9225e-06 2.3168e-05 -0.000104 -0.00021077 -2.2932e-05 -3.6521e-05 0.00032422 -2.6325e-06 -0.00017481 -0.00031179 0.00010126 5.6616e-05 6.3322e-05 0.00029877 0.0002322 -8.316e-05 -3.0307e-05 5.8696e-05 9.8655e-05 -0.00029936 0.0003007 -5.4852e-05 5.0777e-05 5.224e-05 -0.00017565 0.00032577 -0.00042873 0.00045098 -0.00013102 -7.9272e-05 -9.2194e-05 0.00012081 -0.00027095 0.0001547 -0.000172 0.00049023 0.00013924 3.2623e-05 -4.9329e-05 -0.00032988 -0.00027641 -0.00029227 -6.1144e-05 -0.00025276 0.00028593 0.00023154 -0.00013571 -0.00031023 6.2001e-05 -0.00011184 -0.00026929 -0.00014363 -1.3503e-06 -0.00032833 0.00011843 0.00021695 3.0894e-06 0.00036919 -3.5274e-05 -0.00018836 7.9103e-05 -0.00017554 -5.2729e-05 -2.8338e-05 -0.0001422 4.682e-05 -3.4335e-05 -0.00037199 -0.00026692 9.4741e-07 3.7928e-05 -0.00027626 -0.00029006 0.00016954 5.2047e-05 0.00011242 0.00020107 -0.0003663 2.4311e-05 -0.00022347 0.00033966 9.7379e-05 -0.00018229 -9.4586e-05 3.2716e-05 1.2282e-05 -9.6636e-05 -6.7051e-06 -0.00015156 -5.4626e-05 0.00018098 -0.00024463 -0.00016342 2.1001e-05 0.00014175 8.5781e-06 -1.5094e-05 -0.00012155 -0.00012956 0.00048046 -9.5667e-05 -5.3135e-05 -0.00059448 -0.00021677 0.00014936 3.0874e-05 6.6643e-05 6.5375e-05 0.00019261 0.00028343 0.00014682 -0.00015141 0.00012623 0.00021497 0.00012456 -0.0001907 -5.8831e-05 -0.00044578 0.00016825 5.3669e-05 9.4109e-05 -0.00016407 6.0273e-05 -2.5258e-05 7.4202e-05 0.0002832 -2.4513e-05 -4.7935e-05 -0.00012257 -0.00039734 -0.0002372 -0.00013697 -0.00017958 -2.7502e-05 0.00039178 0.00016767 -5.893e-05 0.00032374 -4.9399e-05 0.00011423 0.00019032 -5.9227e-05 -4.5905e-05 -0.00048673 -0.00042417 -0.0001119 0.00014394 0.00027635 -0.00017644 -0.00011701 0.00048469 -0.00016698 -7.8746e-05 5.9864e-05 -0.0002707 8.6559e-05 0.0001131 -4.0218e-05 0.00047672 -9.774e-05 -0.00019637 0.00015403 -7.1805e-06 -0.00020868 4.763e-06 0.00012883 0.00016294 0.00010349 -0.00026677 0.00014097 -0.00019166 -3.1292e-05 0.00022355 -6.4429e-05 3.0312e-05 -6.9967e-05 0.00026398 -0.000311 -0.00021762 6.9923e-05 0.00038092 0.00016955 0.00023855 6.1164e-05 0.00020503 -0.00024034 5.9182e-05 0.00018714 0.00029159 0.00020317 7.2807e-05 -5.7678e-05 -0.0001392 3.3903e-05 4.4096e-05 0.00030152 0.00020486 1.6747e-05 0.00015803 2.3744e-05 1.8073e-05 -0.0002843 -0.00041114 0.00040822 3.5681e-05 2.6614e-05 0.00020561 -0.00017579 8.5454e-05 0.00013111 0.00015499 5.5791e-05 3.8858e-05 -0.00014464 -0.00047293 0.0001472 9.9927e-05 0.00015118 9.2719e-05 0.00046477 -0.00023727 1.1418e-05 -5.9431e-05 0.0001229 -0.00025173 -0.00053684 -0.0004666 0.00014514 0.00010834 -0.00029717 0.00025116 -9.9707e-05 0.00019067 -0.00012764 0.00020971 0.00013032 0.00033709 0.00024766 -0.00017155 -0.00039353 -0.00013833 0.00012143 0.00019583 0.00030138 0.00017509 0.00025197 0.000406 0.00016268 0.00029379 0.00018514 -0.00010085 5.2586e-05 -3.201e-05 -9.2335e-05 -0.00021541 -4.5598e-05 -0.0001759 0.00022344 0.00017393 -0.00016159 -6.2294e-05 -8.8393e-06 -0.00026566 7.0663e-05 -5.4893e-05 -8.8949e-05 -0.00028577 0.00037067 1.5637e-05 0.00043401 0.00025429 -1.9101e-06 -0.00025435 -0.00053304 0.00026239 2.0981e-05 0.00014242 0.000288 -2.594e-05 -0.00061859 0.00011611 0.00025591 0.00019498 7.1536e-05 0.00025145 8.1784e-06 0.00052081 1.0566e-05 -0.00022609 -0.00010606 -8.712e-06 0.00044928 -7.7542e-05 -0.0002364 -0.00013807 -0.0002999 -8.7102e-05 -0.00013203 -0.00012892 -0.00010927 -7.2978e-05 -5.8327e-05 -0.00032842 -0.00022659 -0.00028114 0.00023371 5.5718e-05 -0.00016369 0.00010351 -0.00022838 -0.00011421 -0.00013553 4.2831e-05 -9.5076e-05 -2.961e-05 -0.00015919 -0.00032062 -0.00025969 -4.8819e-05 0.00020524 -0.00036289 -4.1088e-05 -0.00029949 -5.5061e-05 0.00026579 -3.9628e-05 6.3253e-05 0.0003243 -0.00039622 -0.00011609 0.00024834 0.0002532 0.0002691 
<adj> 0.00047435 0.00021149 -0.00034655 0.00015178 0.00020861 -0.00023012 0.00027756 0.00021947 -0.00017068 -0.00023405 0.00038713 0.00013319 -0.00040061 0.00033525 -0.00016519 0.00043802 -0.00032146 0.00010576 -0.00031198 0.00034797 -0.00016453 0.00031613 1.1115e-05 0.00027693 2.8842e-05 9.1786e-05 0.00012352 0.00020342 -0.00019378 -0.00020212 6.3508e-05 2.1683e-05 5.3519e-06 -0.00012335 -0.00021838 -5.8807e-05 -0.00059026 5.2754e-05 0.0007244 -0.000114 -2.6097e-05 -0.0006457 0.00028372 -0.00014575 -6.4068e-05 -0.00019301 0.00019555 0.00022377 9.5324e-05 -0.00051806 0.00019319 0.00075442 -0.00020017 -0.00053311 -0.0005026 0.00011121 0.00043388 0.00045217 -0.00024931 -0.00030228 7.7103e-06 -0.00014211 -9.312e-05 5.7022e-06 -0.00033288 0.00028848 0.00012235 -0.00048263 0.00011138 -0.00015795 0.00024945 0.00043562 -0.00019043 0.00027625 0.00042534 0.0001165 0.0002008 -0.00027761 -0.00015642 0.00021382 1.8527e-05 -0.00014317 -0.00011445 0.0003228 0.00019946 0.0005845 0.00055466 -0.00024006 -0.00032759 0.00049943 0.00018409 -0.00011925 0.00038578 0.00066825 0.00033388 -3.4883e-05 -0.0006479 0.00016966 -0.00017307 -0.00027494 0.0007348 -0.00023248 -0.00029728 0.00019711 -0.00038854 0.00016097 0.0001534 0.0006388 -4.8538e-05 -0.00041836 1.1684e-05 -0.00019239 0.00026961 0.00040306 -0.00036335 0.00031958 0.00037349 -0.00041192 0.00021493 1.9287e-05 0.00020541 -0.00029031 0.00050891 0.00016415 4.1556e-05 -0.00051469 0.00020611 0.00039612 8.6402e-05 0.00049866 0.00010123 0.00029934 0.000107 0.00015711 -6.7006e-05 0.00015678 -4.8992e-05 -0.00073752 3.3044e-05 -7.2064e-05 0.00037755 -0.00023853 -0.00029367 0.00012563 -0.00014202 -9.2848e-05 -0.00031164 0.00017683 -0.00068571 0.00037157 0.00030879 0.00023494 0.00039145 0.00034024 0.00032877 -0.00014038 -0.00013222 0.00045505 -2.5316e-05 -0.00062855 -0.00060326 -0.00013092 -0.00011891 -0.00021273 -0.0004481 0.00039281 -0.00011885 -3.155e-06 -0.00038584 -8.1755e-05 7.8455e-05 0.00016978 -0.00032155 -0.00036259 -0.00016115 0.0003217 9.9848e-05 0.00047215 0.00013447 0.00015358 -2.468e-05 0.00025321 -0.00017095 6.0549e-05 -0.00033252 6.5053e-05 1.4118e-05 -5.9737e-05 -0.00011596 0.00017197 5.9185e-05 0.00056924 0.00021335 6.6325e-05 -0.00031082 -6.0941e-05 0.00032298 -1.2716e-05 -0.00017218 -6.7473e-05 -8.2062e-05 0.00011668 3.9805e-05 3.7682e-05 0.00049257 -0.00055799 -0.00062608 0.00048998 -4.9745e-06 0.00064583 8.217e-05 -0.00062333 -0.00021262 0.00023083 0.00050833 -0.00019664 7.3846e-05 1.7689e-05 0.00013895 -4.2743e-05 -9.9766e-05 0.0001844 0.00015659 -0.00013255 0.00016955 -0.00033105 0.00012349 -0.00040183 0.00031006 -8.4022e-05 -0.00018265 -0.00010655 -3.0172e-05 0.00018583 0.00020976 0.00033759 0.00058205 0.00025844 -0.00029117 -0.00044427 6.9405e-05 -0.00016855 -6.6321e-05 -7.5868e-05 0.00043424 0.0001224 -0.00014865 -5.5337e-05 -0.00031204 0.00065526 0.00014196 -0.00023967 -8.0213e-05 -0.00038158 0.00015123 -4.6138e-05 0.0004122 -0.00036222 -0.00040735 -0.00027063 -0.00025742 0.00034381 5.5267e-05 -0.00038689 0.00025621 9.0956e-05 -0.00068278 -0.00033275 -0.00022897 -0.00011683 -0.00021455 0.00050924 -8.5301e-05 -0.00017453 0.00010316 0.00023728 1.262e-05 -0.00031623 0.00019629 -6.835e-08 -0.00038359 0.00067785 0.00016193 -0.00097958 -3.9287e-05 0.00010244 0.00030471 -0.00041047 -0.00017759 -0.00052116 2.1029e-05 0.00018077 -0.00013336 -0.00068543 0.00021977 -0.00036019 0.000341 0.00020383 -3.6378e-05 0.00035301 -0.00035901 -0.00039497 -0.00044874 0.00016048 0.00019022 -0.00041435 0.00035112 -0.00027344 0.00026293 7.8675e-05 1.4534e-05 0.00059207 -0.00031269 8.0678e-05 -0.00038035 -9.5522e-05 0.00041234 0.00039775 -3.5757e-05 -5.3231e-05 0.00018637 -0.00045864 0.0002587 0.00013622 -5.8167e-05 -0.00039308 -0.00034027 -0.00010654 -0.00046387 0.00047661 -0.00035789 -0.00015999 -6.6455e-05 0.00019587 -0.00042278 -0.00039337 -6.3817e-05 -7.1904e-05 0.00029349 0.00032271 -0.0003783 -0.00015821 -0.00029362 8.6727e-05 -0.0001236 -0.00030894 -0.00039445 -0.00011732 0.00019941 -0.00010189 1.512e-05 -3.5467e-05 -7.1256e-05 -0.00029264 5.056e-05 0.00040906 -0.00020831 0.00038449 0.00050227 -0.00051012 -0.00012209 0.00017576 0.00010714 -0.00010102 -0.00049503 -0.00012907 -0.00058337 0.00049713 8.2527e-05 -1.5423e-05 -0.00047642 -0.00020515 7.105e-05 -0.00020683 -0.00019398 0.00018798 7.1734e-05 -4.9946e-05 -0.00018946 0.00046179 -6.6609e-05 -0.00052482 1.484e-05 -2.2808e-06 -0.00015519 -6.2102e-05 -0.00051266 2.8902e-05 0.00031433 -0.00037808 0.00010756 -0.00010786 0.00013709 -0.00026162 -0.00030096 9.6442e-05 1.7977e-05 0.00025137 -0.00059615 9.4409e-05 0.00060672 0.00024753 -0.00017215 8.5056e-06 -0.00010805 -9.1542e-05 -0.00042591 0.00044775 8.4314e-05 -4.6117e-05 -0.00031646 7.9211e-05 0.00015031 0.00023566 0.00025827 -8.9814e-05 5.7332e-05 3.6762e-05 0.00012263 -9.596e-05 -3.4007e-05 -3.2779e-05 0.00059074 0.00017676 0.00036709 -0.00040695 -8.8685e-06 -0.00035617 -1.9446e-05 0.00013771 0.00018663 -0.00023034 -0.00033469 0.00012368 0.00050836 -0.00010759 0.00045791 -0.00047216 -0.00022449 0.00035181 0.00013816 0.00037994 -4.087e-05 -0.00050198 -8.5361e-05 0.00038469 0.00036816 0.00010701 0.00026167 6.4071e-05 9.9472e-05 -0.00042338 -0.00033421 -0.0001388 1.2984e-05 0.00045988 -7.3147e-05 -0.00018665 6.1322e-05 -0.00049586 3.731e-05 -0.00025585 -0.00016255 -0.00013876 6.4635e-05 -8.7132e-05 -6.4148e-05 4.612e-09 -7.4581e-05 0.00022119 -0.00020481 9.9134e-05 -0.00042009 4.2864e-05 0.000482 -1.2357e-05 -0.00032386 -0.00015118 -0.00038217 0.00029418 0.00045913 0.00050661 -0.00016368 9.4299e-05 -0.00037853 -7.7103e-05 -0.00035128 9.3317e-05 0.00015299 0.00045383 -0.00014511 0.00039773 7.1161e-05 0.00012366 0.00034342 0.00016671 0.00024023 -0.00022133 -0.00017445 0.00025277 
<vblex><pp> 0.00022659 -0.0001288 0.00015887 4.3373e-05 0.00035414 0.0001261 0.00021186 -0.00012398 6.1615e-05 0.00032635 0.00010122 -0.00019676 0.00012777 -0.00021893 5.8407e-05 -0.00013716 -0.00022131 0.00048161 -3.7349e-05 -0.0001499 -0.00014261 -7.9977e-05 -0.00018844 0.00015244 0.00028469 -0.00024523 -0.0006371 -0.0002828 -0.00032875 0.00025674 6.1343e-05 -0.00027841 -0.00011184 0.00017222 -0.0002519 -0.00014383 0.00029351 0.00025747 2.7808e-05 -0.00038206 -5.4467e-05 -0.00011054 5.2219e-05 0.00020106 0.00040034 0.00035152 -5.1798e-08 0.00028326 0.0004473 -6.5129e-05 1.5717e-05 -0.0003836 -0.0002193 -0.00029516 -0.00057144 8.3276e-05 3.3417e-05 -0.00015089 -8.8915e-05 5.1781e-06 -0.00021743 -0.00052532 -8.5897e-05 7.2648e-05 -0.00032929 -0.00030408 -3.1319e-05 -0.00030523 -2.5669e-05 -0.00022377 0.00038076 7.5744e-05 0.00017715 6.1023e-05 -7.7935e-05 0.0004419 -0.00038305 0.00016362 -0.00027932 -6.3697e-05 8.1622e-05 4.1222e-05 -6.1334e-05 -0.00027311 -5.7445e-05 0.00012434 3.9135e-05 -0.00028187 0.00021312 5.794e-05 0.00022529 -0.00052463 0.00012809 1.4324e-05 3.4238e-05 -0.00020036 -0.00036624 3.6568e-05 -0.00012476 -0.00017347 0.00022355 0.00026004 0.00030802 -0.00022404 2.276e-05 6.4247e-05 0.00011344 0.00047746 9.2197e-05 -0.00030062 0.0001873 1.4612e-05 -0.00010315 0.00022599 -0.00070697 0.00025749 -0.00010839 -4.6366e-06 0.00035496 -5.5494e-05 0.00016489 0.00020477 -0.00016627 -0.00026071 0.0004876 0.00044146 -0.00018354 -0.0002577 0.00034201 -5.1278e-06 -2.6456e-05 0.00024338 -0.00033362 4.4731e-05 8.3258e-05 0.00013226 9.9578e-05 -0.00020117 -0.00062972 0.0004366 0.00015547 4.655e-05 -0.00016242 -5.3809e-05 -0.00040533 0.00029831 -0.00047428 -0.00021416 -0.000279 5.7244e-05 -3.2987e-06 -0.00050764 4.992e-06 -0.00013405 0.00037617 2.5495e-05 -0.00030667 -0.0001178 -7.6791e-05 -0.00018079 -4.2153e-05 -0.00032753 -0.00015174 -4.6693e-05 -4.9848e-05 0.00025016 -5.015e-05 2.1958e-05 -0.00019983 0.00018792 -0.00047974 0.00013085 0.00036264 1.1047e-05 -0.0005367 0.00017202 6.7447e-05 0.00010188 0.00048108 -8.8524e-05 -0.00011713 -9.2042e-05 -0.0001865 0.00027706 6.3671e-05 -2.542e-05 1.8835e-05 0.00018574 3.7114e-05 6.4706e-05 4.5605e-05 -9.4122e-05 -0.00015033 -0.00044716 -3.8476e-05 0.00014891 8.2704e-05 -0.00061962 0.0001528 -2.5765e-05 -0.00046156 -3.2903e-05 0.00031564 -0.00044953 0.00011736 0.0003157 -0.00066286 0.00047185 -3.9416e-05 4.6419e-05 9.9644e-05 0.0002985 -0.00019083 -0.00045825 -0.00026399 -6.717e-05 -0.00014225 -9.4356e-05 -0.00061048 0.00047665 -0.00020364 7.9791e-06 0.00028172 0.00010747 0.00012129 0.00024391 -0.00035796 7.0316e-06 0.00019688 0.00013515 -0.00011645 -0.00018053 0.00014239 7.7339e-05 0.00024719 8.06e-05 -0.00022123 0.0001532 -0.0001089 -0.00047635 0.0001195 0.00034714 -1.7053e-06 0.00057959 -8.7161e-05 -0.00043457 -8.6921e-05 6.7567e-05 7.3049e-05 0.00031346 0.00029993 -0.00035139 0.00023098 -0.00015934 -3.6396e-05 -0.00014381 -0.00024682 -0.00026156 0.0001545 0.00010462 -0.00010307 -3.0042e-05 -0.0001261 -0.00022333 0.0003818 -0.0001839 -7.8227e-05 0.0004596 -0.00029881 0.00017239 0.0001096 -0.00020742 6.7885e-05 -6.8804e-05 0.00018973 -0.00030128 -0.00030397 -0.00018251 0.00038585 0.0002259 4.9384e-05 0.00011486 0.00039603 -0.00026636 -0.00023244 1.4756e-05 0.00023733 -1.0616e-05 8.1575e-05 -0.00053419 -0.00035422 -0.00024132 0.0002594 -0.00019079 -0.00039749 0.00032447 -6.1472e-05 0.00037667 8.9088e-05 -2.0358e-05 -7.6584e-05 0.00043775 4.4293e-05 -1.4739e-05 -0.00034945 -0.00030421 0.00021423 0.00025787 0.00055031 -3.0151e-05 -9.7589e-05 -0.00021387 -0.00020364 -0.00010198 0.00044793 -2.7042e-05 0.00019425 -4.4451e-05 0.00015827 0.00027408 3.3284e-05 -0.0002166 0.00026553 0.00020471 -8.3884e-05 -0.00021646 -0.00017033 2.1839e-05 -0.00035977 0.00043307 0.00033517 -0.00030446 9.3638e-05 -4.9999e-05 0.00013372 0.00029342 0.00040347 -0.00024552 -0.0001354 -9.348e-05 -2.632e-05 -0.00038668 2.8669e-05 5.17e-06 -0.00024358 -0.00023191 -8.5523e-05 0.00010364 0.00014465 -0.00012297 8.3464e-05 0.00031981 3.662e-06 -0.00020263 0.00025382 0.00032446 0.00017973 -0.0002679 0.00023774 -0.00031671 0.00041108 0.00034239 0.00034698 0.00016873 0.00013202 0.00019873 3.613e-05 2.098e-05 -0.00043813 -0.00016195 0.0001892 0.00020397 0.00020363 2.8635e-06 -5.3334e-05 0.00017778 -1.5819e-05 -0.00038907 -3.841e-05 -0.00017805 -7.8601e-05 -0.0004943 -0.00039258 5.1603e-05 0.00029461 7.9902e-05 3.4042e-05 -0.0001983 -9.3176e-05 -0.00028546 0.00034103 -0.00029677 -5.9546e-05 -0.00021554 0.00011874 -4.8793e-05 -0.00035042 0.00020025 -0.00010352 -0.00015329 0.00022978 -0.00064216 -0.00012123 0.00018025 0.00030465 5.9733e-05 -0.00011851 -0.00024723 0.00011763 3.7656e-05 -0.0002165 0.00025107 9.4039e-05 -0.00021829 7.9658e-05 0.00018591 9.4605e-05 -8.6854e-05 -0.00023448 -0.00051394 -0.00013353 -5.7199e-05 0.00024248 0.00012816 0.00016746 5.8557e-05 0.0001266 -0.00068458 3.8606e-05 -0.00015405 0.00017067 0.00014087 -7.4646e-05 -2.3136e-05 -0.00041176 1.0905e-05 0.0004014 -0.00015934 -0.00025101 4.8248e-05 -0.00064304 -0.00016403 -2.4198e-05 -0.00015575 -7.263e-05 4.2671e-05 0.00019579 0.00010274 7.4901e-05 -1.4264e-05 -4.8292e-05 -0.00010102 -9.552e-05 0.00032164 -0.00017052 -4.3936e-05 0.00035817 -0.00012249 0.00043452 -0.00015106 0.00021742 -0.00016806 -7.546e-05 0.00033131 -0.00045446 -0.00034788 5.0473e-05 0.00026954 -0.00010463 0.00016802 -0.00035193 3.6547e-05 0.00010678 0.00021415 -0.00011722 2.6886e-05 0.00014621 0.00014528 -0.00026004 9.6042e-05 -3.7646e-05 8.6057e-06 3.5982e-05 1.6405e-05 -0.00027901 0.00020319 9.4515e-05 -4.1658e-05 -0.00010053 0.00013671 7.0045e-05 0.00046491 -0.00036816 -0.00035054 -0.00026251 -7.0046e-05 -0.00029703 -7.6593e-05 0.00060339 0.00035972 
<adv> 0.00015509 3.6053e-05 -0.00029319 0.00011259 7.9955e-05 4.9685e-05 -7.7045e-05 -0.00015682 -0.00064653 0.00028275 -0.00011381 -2.327e-05 -9.7276e-05 9.9706e-05 -0.00043016 -0.00013166 -6.8739e-05 0.00042483 0.00019231 0.00015704 -8.5653e-06 -0.00011389 -0.00017117 0.00012099 0.00038164 -2.9928e-05 -7.1979e-05 0.00017406 0.00035849 -7.1621e-05 -0.00010313 4.427e-05 -9.0194e-05 1.5449e-06 0.00027292 0.00060624 0.00021278 -0.00022977 1.3365e-05 0.00022742 -0.00019753 -0.00028394 0.00023813 -0.00021298 -0.00037605 0.00029274 0.00062738 0.00022871 5.6336e-05 7.8114e-05 -0.00026463 0.00015327 -0.00056419 0.00017721 -0.00049982 7.6524e-06 0.00025945 0.00019114 -4.0884e-05 -4.4978e-05 4.629e-05 -0.00012519 7.9387e-05 -3.3679e-05 -0.00063614 0.00031895 0.00016134 -0.00024893 0.00026553 0.00031993 0.00038255 0.00043073 0.00045515 0.0003596 3.5077e-05 -2.9601e-05 -0.00015144 -7.7461e-05 -6.5818e-05 1.8947e-05 0.00037131 -2.4688e-05 -0.00026873 -0.00016928 2.3097e-05 -5.4331e-05 -0.00012813 -0.00057893 0.00016577 -7.9592e-05 0.00060204 0.0001199 0.00057801 0.00015487 -0.00018929 0.00041755 -0.00059062 -0.00047413 0.00024466 -0.00043638 0.00073145 0.00017086 -0.00013384 0.00015063 0.00039777 0.00016959 0.00036006 0.00010335 -8.6923e-05 -0.00022149 -0.00017757 -0.00014329 -0.00026328 0.00038248 -0.0003073 0.0005431 -6.1788e-05 0.00053311 0.00029241 -0.00012707 -0.00053658 0.00016471 0.00034569 -0.00067585 0.00022405 0.00026901 -0.00031313 -0.0004721 3.8691e-05 6.1438e-05 -0.00030888 0.00010501 0.00010839 0.0003643 -0.00047878 0.00010774 0.00027738 -0.00029465 4.6177e-05 -0.00029253 0.00011461 9.1154e-05 -0.00067861 9.0449e-05 -0.00036383 -0.00016286 2.5159e-05 0.00022723 -0.00012627 0.00083008 0.00010091 -9.9626e-05 -0.00015115 -0.00017697 0.00047712 -0.00046729 0.00013412 0.00038692 9.8985e-05 -0.00045633 7.7483e-05 0.00019378 0.00026109 -0.000115 0.00014419 0.00019246 -0.0007137 0.0001574 3.3777e-06 0.00037763 0.00037111 0.0003365 -0.00034536 -0.00038823 -0.0005768 0.00032696 0.00015894 0.00020781 -2.9581e-05 -0.00033745 0.00055385 -0.00016663 0.00015677 -8.0739e-05 -0.00018502 0.00014905 6.3667e-05 0.00039353 -5.1592e-05 4.6124e-05 0.00041005 0.00032825 0.00026822 -0.00020899 -0.00025689 -0.00015907 -5.4135e-05 -0.00024511 0.00012255 -9.8162e-05 1.022e-05 -0.00023225 -0.00028119 -0.00029103 0.00027735 5.7538e-05 -0.00041238 0.00020653 -8.9112e-05 -0.00026118 0.00059964 0.00014294 -5.5999e-05 -0.00081657 0.00027722 0.00041852 9.2291e-05 -0.00028623 -0.00025414 0.00091709 -0.00073048 0.00045166 0.00017676 -8.6063e-05 0.00023465 -0.00017098 -0.00012907 -4.51e-05 0.00064628 -0.00011882 -0.00022331 0.0001939 7.1928e-05 4.8198e-05 0.00027053 -0.00034132 0.00021765 0.00043065 -2.6711e-05 -0.00015248 0.00049011 5.6213e-05 -0.00047244 8.4015e-05 0.0006994 -0.00019587 0.00030952 0.00021698 -2.6681e-05 0.00037829 8.741e-05 0.00021898 0.0004479 -0.00011076 3.1525e-05 -0.00045671 7.7505e-05 -0.00029475 -0.00050765 -0.00017157 9.0154e-05 3.1949e-05 -0.00070445 0.00016929 0.00059132 0.00030116 -6.4184e-05 -0.00035147 0.00043409 -0.00022155 0.0001537 0.00014872 -0.0002489 0.00046549 0.00017545 0.00014172 -3.5316e-05 0.00015382 -9.3243e-05 -0.00014181 0.00017706 0.00011134 -0.00010633 -0.00019282 -8.0879e-05 -0.00024442 0.00024168 -1.4074e-05 -0.00010224 -0.00035187 -0.00057745 -0.00075673 0.00041931 -0.00049921 6.7136e-05 0.00022065 0.00010728 0.0002444 -0.00037723 -0.00043521 -0.00036833 -0.00019787 5.6382e-06 6.675e-05 0.00012006 -6.7774e-05 -0.0006794 -9.9132e-05 0.00040622 -6.6902e-05 0.0004542 0.00019592 -0.00072217 0.00014051 -0.00032714 9.2184e-05 0.00057579 -0.00012007 -0.00010432 0.0004929 0.00032685 0.00015102 0.00068438 0.00025432 -0.00015596 -0.00022963 -0.00051043 -0.00048295 -0.00054038 0.00021695 -2.5053e-05 -0.0003631 -0.00016109 0.00022487 -0.0001357 -0.00014346 -4.3466e-05 -0.00010485 -0.0005416 -4.7458e-06 0.00026125 -0.00014878 -0.00053748 0.00028145 0.00015745 -0.00027643 5.9522e-05 0.00010523 7.5425e-05 0.00019177 -0.00028395 0.00042994 0.00028195 0.00031521 -0.00019533 0.0001669 0.00065402 8.3689e-05 8.6203e-05 -0.00012192 7.4852e-05 -0.00040952 2.568e-05 9.2466e-05 -0.0001634 9.143e-05 0.0002237 6.6396e-05 -0.00048313 -0.00059306 4.4898e-05 -6.2845e-05 0.00015811 -0.00010354 -0.00069846 4.2686e-05 0.000228 7.5346e-05 -7.9234e-06 -0.00025696 2.5073e-05 -0.0007871 5.8646e-05 0.00014083 0.00018019 -0.00012255 7.6987e-05 -0.00017563 -0.0003774 -0.00046582 0.00033463 -9.9759e-05 0.00018273 -0.0006843 -6.9621e-05 9.4755e-05 -0.00028835 -5.4216e-05 -0.00036611 -5.1322e-05 -0.00013065 -0.00035681 -0.00014172 -0.00038884 6.7409e-05 4.1223e-05 0.00023965 -7.1072e-05 0.00017685 0.0002268 -0.00034255 0.00041412 0.0001554 0.00024895 -0.00037172 1.1531e-05 -0.00017656 0.00013367 -0.00027657 2.6934e-05 -2.8462e-05 -0.00016645 2.567e-05 -0.0001657 -0.00041877 -0.0006818 -0.00038617 -0.00024209 5.5436e-05 -0.00015731 -0.00015307 1.6786e-05 -0.00070701 0.00019892 5.9755e-05 0.00024253 9.7966e-05 -0.00053303 -1.7695e-06 0.00019126 -0.00066918 -0.00020028 -0.00040268 0.00024735 2.0127e-05 -0.00013754 -0.00053058 0.00036575 0.00041302 1.0141e-05 -0.00026084 7.0652e-05 -9.0539e-05 0.00066037 -4.5628e-06 0.0004295 0.00028638 -0.00031101 0.00015146 -4.0603e-05 0.00015518 0.00022422 -0.00025896 0.00060189 -9.7004e-05 -0.00023882 -0.00030362 -0.00044178 0.00031207 9.2916e-05 -1.9977e-05 0.00020834 -0.00088839 0.00026765 -0.00017345 -0.00017184 0.00012071 -0.0001923 -0.00014729 0.00028918 -8.6415e-05 0.00022346 -4.1996e-07 0.00028545 0.00039678 0.00024872 -0.00030263 6.1142e-05 -0.00024675 0.00032704 -0.0001348 0.0006027 3.1379e-05 -0.00013243 5.5958e-05 0.0001626 -8.8172e-05 -8.6862e-05 0.00034253 -7.5897e-05 
<vblex><pri><p3><sg> 0.00024249 0.00011084 0.00016521 -5.4033e-05 0.00030554 0.00010104 4.5148e-05 -0.00017691 -2.6196e-05 0.00013691 7.1209e-05 -0.00010126 8.6368e-05 -0.00022251 -8.8255e-05 0.00010524 -0.00012299 0.00025696 -6.7185e-05 -4.6602e-05 -0.00013799 -5.6509e-05 -0.00019344 4.7185e-05 0.0002171 -3.1032e-05 -0.00054817 -8.0825e-05 -0.00017076 0.00030269 -9.2095e-05 -0.00023172 -3.1873e-05 6.5584e-05 -0.00020074 2.0593e-07 9.2591e-06 0.00019104 6.6621e-05 -0.00022747 -2.9254e-05 -0.00019372 5.0858e-05 0.00029791 0.00023594 0.00034165 -2.4291e-06 0.00012479 0.00038482 -0.00014907 8.6874e-05 -0.0002283 1.2498e-05 -0.00042944 -0.00040122 -1.6793e-05 -1.6249e-06 -0.00019041 -5.6649e-06 -7.0389e-05 5.4087e-05 -0.00040115 -0.00013006 0.00010095 -0.00034778 -0.00015485 -5.9317e-05 -0.00033385 -4.5345e-05 -0.00012671 0.00029174 0.00014176 0.00034074 0.00010367 -1.2338e-05 0.00024842 -0.00019158 0.00026635 -0.00016587 -3.0975e-05 0.00011617 5.6417e-05 -8.4574e-05 1.3018e-05 0.00013372 -7.0519e-05 0.00029888 -0.00019926 0.00035753 0.00012775 0.00034463 -0.00015761 -0.00011876 8.6238e-05 -5.3363e-05 -0.00032044 -0.00041534 -7.9115e-05 8.1974e-05 5.6427e-05 0.00025662 0.00014432 0.00041412 -0.00025635 8.0855e-05 0.00023 0.00011052 0.0003988 3.4928e-05 -0.0003357 0.00013166 9.1966e-05 -0.0001356 0.00041566 -0.00058785 0.00030914 -0.00013752 -5.6164e-05 0.00041439 -9.3101e-05 -0.00026692 0.00024698 0.00011373 -0.0003198 0.0004155 0.00026159 -1.0569e-06 -0.00030112 0.0003595 4.3238e-06 -6.1849e-05 0.00038208 -9.7322e-05 0.0001347 -5.983e-05 0.00024197 7.4286e-05 -0.00024092 -0.00055169 0.00037781 4.5975e-05 -0.00017547 -1.0371e-05 0.00021773 -0.00044918 0.00032574 -0.00053531 -0.00012033 -2.8463e-05 5.2244e-05 -0.00015693 -0.00028945 -0.0001517 0.00011099 0.00026068 4.898e-05 -0.00035511 -7.8798e-05 -0.00011746 -0.00024244 0.000232 -8.3562e-05 0.00010813 6.5017e-05 -2.6876e-05 0.0001852 -5.1112e-05 -1.8021e-05 -4.0394e-05 0.00014971 -0.00046484 0.00015808 0.00028853 4.762e-05 -0.00032934 6.0985e-05 -1.796e-05 6.0761e-05 0.0001881 -9.1768e-05 -0.00013023 3.7767e-05 -0.00015113 0.00013673 0.00011638 -1.6432e-05 -0.00012611 0.00025238 -8.9489e-06 8.3611e-08 0.00012644 9.6532e-05 -8.7085e-05 -0.00062039 -0.00022009 2.5109e-05 0.00018944 -0.00057511 0.00030122 5.6246e-05 -0.00013081 -0.00010105 -1.9e-05 -0.00041127 0.00017185 0.0003127 -0.00037469 0.00044762 -2.7008e-05 -0.00011211 0.00014671 0.00010713 -0.00012187 -0.00023058 -0.00029277 -8.6893e-05 0.00011273 1.2919e-05 -0.00047063 0.00055712 -3.8115e-05 0.00014238 0.00021221 0.00019697 -1.7784e-05 3.1534e-05 -0.00019634 8.4982e-05 0.00016075 0.00010631 -0.00022733 -0.00020994 8.6254e-05 3.8508e-05 -4.1966e-05 2.1493e-05 -0.00036808 3.0464e-05 -0.0001075 -0.0005611 -6.4904e-05 0.00046326 -4.9024e-05 0.00045485 -0.00024053 -0.00043909 -0.00033372 5.6988e-06 -0.0001451 0.00042368 0.00015515 -0.00021861 0.0001403 -0.00014739 -0.00014294 -6.3193e-05 -0.00016469 7.5309e-06 -8.0983e-06 -1.1094e-05 -5.4628e-05 1.5153e-05 -0.00019229 -0.00017363 0.00029072 5.8504e-06 -0.00028339 0.00015672 -0.00025012 0.00018204 0.00014584 -8.4763e-05 -6.4932e-05 0.00014129 0.00029781 -0.00029729 -6.7819e-05 -0.00023261 0.00038372 0.00019614 3.79e-05 3.3247e-05 0.00022715 -8.4057e-05 -0.00014345 -0.00011976 0.00015506 7.6179e-05 3.7536e-05 -0.00071264 -0.00026567 -7.0175e-05 0.0002258 -0.0003815 -0.00033932 0.00021235 -0.00010172 0.00014216 -4.0291e-05 -0.00015658 0.0001914 0.00033412 4.0888e-05 7.7951e-05 4.5485e-05 -0.00028225 0.00018697 0.00021251 0.00055281 0.00025574 -8.2781e-05 -9.0788e-05 -0.00025608 -0.00013588 8.2996e-05 8.8328e-05 0.00036984 -7.1418e-05 2.867e-05 6.1478e-05 -1.0258e-05 -0.00026311 6.75e-05 2.8951e-05 -2.6609e-05 -0.00020107 -0.00015807 4.5262e-05 -0.00029534 0.0002021 0.00026955 -0.00032278 1.4698e-06 9.2476e-06 -7.3948e-05 3.9451e-06 0.00028668 -0.00019946 -0.00028817 -0.00018668 0.00034044 -0.00015929 0.00011974 -4.1218e-05 -0.00044186 -0.00024512 9.2497e-05 0.00019895 2.1165e-05 -0.00017675 8.1973e-05 0.00028932 -0.0001151 -0.000138 0.00026163 0.00038217 0.00018982 -0.00018638 0.00035589 -2.3495e-05 0.00012728 0.00013077 0.00021156 0.00010137 0.0001802 8.6431e-05 -1.1499e-05 8.6643e-05 -0.00025444 -9.2219e-05 -0.00017422 -3.2493e-05 9.7705e-05 -4.5948e-06 4.07e-05 0.00026827 -2.6664e-05 -0.00016815 -0.00016163 -0.00024809 6.3947e-06 -0.00070137 -0.00026883 3.1097e-05 0.00017793 1.633e-05 0.00018492 -8.5104e-05 -0.00024593 -0.00042721 7.513e-05 -0.00016131 -0.00019697 -0.00027797 0.00026448 -0.00026636 -0.00020459 -3.5751e-05 0.00015207 3.8143e-05 0.00012008 -0.00035033 -0.00011543 9.3916e-05 0.00021737 9.8901e-05 1.2661e-05 -7.3855e-05 2.4154e-06 5.9937e-05 -1.6107e-05 0.00041611 0.0003767 -0.00030357 -6.7055e-05 0.00022817 0.00011452 -2.6992e-05 -0.00031025 -0.00041456 -0.00019976 -0.00023158 0.00035736 3.8454e-05 0.00013017 0.00016677 0.000231 -0.00047017 0.00016231 -9.5935e-06 0.00011294 0.00017576 -4.5744e-06 -0.00012407 2.3407e-05 -0.00016342 0.00029946 -0.00018083 -0.00018257 -0.00012847 -0.00046629 -5.8618e-05 -0.00013784 1.3593e-05 -3.7942e-06 5.5238e-05 0.0002298 3.8562e-05 -3.4546e-05 9.6925e-05 -3.5033e-05 6.0721e-05 -0.00028459 0.00045629 -0.00026222 -4.9664e-05 0.00029589 -0.00012957 0.0005592 -0.00023003 0.000332 -0.00012483 3.6691e-05 0.0002487 -0.00048215 -0.00027514 7.7024e-05 0.00010932 -5.0651e-05 0.0001961 -0.00026812 0.00010747 -3.4492e-05 1.9399e-05 -0.00034233 6.4555e-05 6.2601e-07 0.00015238 -0.00027508 7.1142e-05 -0.00013005 -1.8427e-05 9.8774e-05 -8.5677e-05 -0.00022813 0.0001693 -0.00018579 -0.00025574 -0.00015253 0.00019438 0.00018899 0.00061374 -8.9831e-05 -0.00019305 -0.00018234 8.7248e-05 -3.0163e-05 -0.00015193 0.00048024 0.00043535 
<cnjcoo> -0.00032146 0.00014391 -7.8236e-05 0.00011042 8.266e-05 -0.00013369 -0.00027884 -0.00028551 4.5526e-05 2.4401e-06 -3.1041e-05 0.00020418 -1.6942e-07 0.00011229 -1.7601e-06 -9.5469e-05 -0.00023754 0.00013255 -8.8345e-05 2.1572e-05 -3.5297e-05 -0.00031914 -0.00016806 0.00020506 0.00042911 -0.0002674 -0.00014765 0.00016427 -1.2575e-05 0.00015319 -0.00027525 -7.9471e-05 -0.00011144 -5.5631e-05 -0.00035586 -0.00010212 0.00015279 0.0004159 4.4825e-05 -2.9899e-05 -0.00021625 3.9029e-05 -0.00026927 6.4856e-05 0.00050458 0.00021117 -0.00019316 4.4331e-05 0.00045499 -5.9354e-05 3.3803e-05 -0.0002771 -0.00013278 -0.0001666 -0.00030659 0.00021882 0.00014353 -0.00046415 -1.0371e-06 4.3256e-06 0.00011118 0.00012611 -0.00018569 -0.00013011 -6.4652e-05 -0.00011152 -9.9312e-05 -0.0003131 0.00033731 -0.00019573 7.379e-05 0.00019802 0.00036163 -0.00011129 -8.1463e-06 0.00022285 -9.9824e-05 1.0306e-05 -3.9412e-06 -0.00017004 -3.0707e-05 0.00011395 0.00017752 -1.4634e-05 6.3556e-06 0.00046071 -0.00025074 -0.00015733 0.00024809 0.00015362 0.00026669 -4.1183e-05 -6.3046e-05 -0.00012187 3.6938e-05 -2.8261e-05 -0.000133 0.00016166 0.00022535 0.00036191 0.00022332 -7.7015e-05 9.0348e-05 7.0176e-05 0.00012066 -0.00031844 3.0342e-05 -0.00014332 -0.00017049 -0.00010306 -2.5189e-05 -0.00018399 8.5669e-05 0.00018384 -2.7211e-05 0.00028815 -0.00012378 -0.00014073 0.00025814 -0.00036025 0.00033829 5.9356e-07 -9.9166e-05 7.1967e-05 0.00028872 -0.00012301 -0.00010142 -0.00034908 0.00014615 -0.00015979 -9.6137e-05 -5.1804e-07 -5.4809e-06 -0.00017497 -2.758e-05 9.3205e-05 7.5393e-05 -0.00037291 0.00019625 0.00013716 0.00033094 -0.00041914 0.00015844 0.00015301 -0.00037016 0.00016921 -0.00018025 0.00028451 -0.00012382 0.00029372 -5.0472e-05 -9.9043e-05 0.00021671 -0.00018076 3.7166e-05 -5.5206e-05 0.0001813 4.9916e-05 -6.1542e-05 -3.1312e-05 4.2538e-05 -5.5946e-05 0.00022753 -0.00026941 -0.00010488 0.00021548 -0.00013955 0.00054275 -6.0493e-05 0.00016276 3.84e-05 9.4017e-05 -0.00027073 -0.00020921 -8.9992e-05 0.00010408 -0.00031906 8.336e-05 0.00031707 -0.00013077 -0.00018618 5.1591e-05 6.3326e-05 0.0002251 0.00012071 -6.6919e-05 -0.00021866 0.00011106 -8.5667e-05 4.49e-06 0.00040199 9.7239e-05 2.3781e-05 -0.00047308 0.0002064 -5.3928e-05 7.283e-05 -0.00037254 -0.00013819 -3.4381e-05 0.00014135 -0.00014226 0.00030663 -0.00016931 -0.00033822 2.413e-05 0.00019196 -9.8689e-05 -0.0002826 -0.00036692 -0.00012925 -0.00011403 -0.00039956 -0.00018851 6.2362e-05 4.5461e-05 -2.23e-05 0.00041253 -6.8956e-06 9.1511e-05 -0.00012419 -3.0445e-05 -8.7755e-05 0.00012596 -0.00046167 -0.00023274 -0.00011891 7.2301e-05 -0.00015396 0.00017217 -2.6867e-05 6.0045e-05 7.9172e-05 0.00015496 -0.00012176 3.2682e-05 -0.00049193 -7.8854e-05 -2.5839e-05 -1.1919e-05 -8.8341e-06 3.6957e-05 -0.00015539 0.00028148 7.6568e-05 2.8435e-05 -0.00014374 -0.00030884 2.2257e-06 0.00031627 0.0002613 -0.00049286 0.00026505 -0.00011622 -0.00035186 -0.00019501 -0.00031795 0.00022424 3.8983e-05 -0.00014961 0.00023576 -7.8844e-05 -0.00021348 -0.00012208 0.00024192 6.3593e-05 -0.00013002 2.7683e-05 8.8477e-05 -1.0642e-05 0.00026762 6.1418e-05 1.0536e-06 -4.939e-06 0.00016768 -0.00024973 5.8676e-05 -0.00021805 3.7911e-05 -0.00013847 -0.00020489 0.00029363 0.00016385 5.7172e-05 -0.00011815 -0.00024995 -0.00012164 -7.9832e-05 7.4838e-05 0.00031283 -0.00024547 -0.0002034 0.00037826 -0.00010425 -0.00041417 0.00021557 0.00016779 -0.00013498 3.4971e-05 -0.0001577 0.00030415 3.3356e-05 -0.00010582 6.2386e-05 -0.00050851 -2.5171e-05 5.7384e-06 0.00026632 -9.1627e-05 0.00013758 7.1037e-05 -0.00017673 -0.00010931 7.1182e-06 -0.0001693 -6.8948e-05 0.00040727 0.00014447 7.9537e-06 7.898e-05 -0.00013487 -0.0002255 1.7456e-05 -3.1141e-05 0.00016626 0.00012529 0.00013905 -0.00042369 -0.00035417 -9.0922e-05 0.00036164 0.00012375 -0.0001976 0.00014394 -0.00020293 -0.00018118 7.9429e-05 -0.00025388 1.4572e-05 0.00031285 0.00034714 -0.0001788 3.568e-05 0.00014141 -8.5246e-05 -0.00035543 6.6229e-06 5.5866e-05 -0.00019078 -1.2088e-05 -0.0001372 0.0001089 0.00017029 -0.00017071 0.00017168 6.0679e-05 0.00011324 -0.00018623 0.00029063 0.00050083 -0.00043596 7.425e-05 0.00017855 0.00011301 6.176e-08 -0.0001797 0.00011072 4.4425e-05 -0.00021387 -9.7869e-05 0.00018966 1.3908e-05 0.00029905 -0.00018894 -2.0759e-05 -0.00029158 -0.00024536 -0.00020724 -0.00020296 -0.00012477 -0.00019452 -0.00037791 -0.00027719 2.9937e-05 0.00031251 -0.0002592 -3.8042e-05 0.00023607 -0.00014203 -0.00027895 -3.0708e-05 -0.0004371 6.5592e-05 -0.00030881 -0.00023991 -9.9606e-05 -8.7503e-05 -2.4732e-05 0.00017616 6.6174e-05 0.00017596 -0.00033911 -0.00025659 -0.00016451 0.00010824 -0.00041736 9.7362e-05 -0.00027199 0.00037872 0.00043593 0.00024662 -5.8958e-05 9.3639e-05 -0.00052603 0.00033388 0.00057217 8.293e-05 -0.00010952 -0.0003863 -0.00040678 4.0646e-05 -0.00012068 -0.00018767 -0.00025177 -4.6827e-05 -9.7563e-05 -6.6165e-06 -0.00039482 0.00030571 -0.00025797 0.00033709 -0.00021241 -0.00021177 -6.7663e-05 -0.00018142 -6.822e-06 -5.3666e-05 0.00010749 -0.00028857 -0.00018118 -8.6815e-07 -0.00014449 2.1857e-05 4.5327e-05 -8.4138e-05 0.00019634 0.000333 0.0001722 8.6955e-05 0.00016592 -9.4418e-05 -0.0002399 4.517e-06 4.3667e-05 -0.00018053 -0.0001708 -0.0002613 0.00014334 4.5684e-05 5.4662e-05 1.5875e-05 -0.00018934 4.1856e-05 0.00011573 -0.00013426 2.0315e-05 0.0001826 -3.8762e-05 -0.00014958 0.00018423 -0.00029745 2.5839e-05 -1.5285e-05 -0.00021425 -0.00024546 0.00016499 0.00010115 6.4419e-05 -0.00020912 -0.00017127 6.4062e-05 -0.00010443 0.00049303 6.0909e-05 -8.3798e-05 0.00013491 0.0001457 -0.00010887 8.9655e-05 -3.4646e-06 -0.00013566 0.0001528 -0.00038792 -0.00031219 0.00035413 0.00013031 0.0002455 -0.0001698 0.00019085 -8.9126e-05 
<x> 0.00060742 -0.0003685 -0.00073558 -0.00057033 -0.00050431 -0.00026926 0.00049387 -0.00026307 3.5612e-05 -1.626e-05 0.00025853 6.042e-05 -0.00079856 -0.00064514 -0.00016093 0.00015239 -0.00018204 -0.00029149 -1.1239e-05 -0.0001356 -0.00018244 -0.0007324 -0.00026131 -0.00041546 0.00092893 -0.00021764 -0.00086552 -0.00037793 0.00043681 0.0010207 -0.00037857 0.00010012 -0.00052638 0.000759 -0.00049061 -0.0010643 0.00022627 0.00027509 -0.00015603 0.00032123 0.00045581 0.00050909 -0.00020374 0.00057659 0.00076146 0.00061143 -7.593e-05 -0.00012529 0.00049101 9.8868e-05 -0.00066397 5.5779e-05 0.00073477 2.7274e-07 -0.00015758 0.00047711 0.00040541 0.00015978 0.0006871 0.00013598 0.0003814 -5.6173e-05 -0.00076228 -0.0004611 -0.00075618 -0.00019814 -0.0002968 6.8975e-05 0.00039169 2.8317e-05 0.00024752 0.00043971 9.3277e-05 0.00053169 -1.0266e-05 -0.0004537 -0.00021546 7.5189e-05 0.00050551 -0.00025279 -0.00033701 0.00025628 -0.00044354 -0.00054158 -0.00055407 0.0003011 4.7077e-05 -0.00014553 0.00062487 2.3248e-05 0.00090252 -0.00051327 0.00026278 -0.00098834 -2.309e-05 -0.00016064 -0.00015958 -0.0002937 0.00053292 -0.00042544 -0.00059685 -0.0001546 -0.00058439 0.00023566 -0.0001908 -0.00038426 0.00074147 -0.00056153 -0.00045154 -0.00014958 -0.00050431 -0.00037362 0.00033064 0.00085001 -6.7114e-05 3.2828e-05 -0.00016038 -0.00010242 -0.00012196 4.1397e-05 0.00026991 0.00035859 0.00031187 -0.00089428 0.0003485 5.9932e-05 4.5931e-05 0.00034393 0.00021296 0.00060536 -0.0009415 0.00019256 0.00010373 -0.00036978 0.00053125 0.0010303 0.00074728 -0.00052678 -0.00097907 0.00040155 -0.0005393 -0.001141 9.3617e-05 -3.6713e-05 -0.00026573 -0.00012169 -0.00097282 -1.3015e-05 -4.5464e-05 -0.00021414 0.00029689 1.159e-05 -0.0001826 -0.00057786 0.00059017 -0.00024889 -0.00013809 0.00033432 -0.00065906 -0.0006278 0.00040335 0.00027608 0.00052712 -0.00041424 0.00068911 0.00045977 0.00058321 0.0004486 -0.00088403 0.00051633 -0.00048306 0.00038844 0.00084158 -0.00043842 -0.0015186 -4.6513e-05 -0.00015588 0.0005768 -0.00079742 0.00035338 1.3804e-05 -0.00058225 -0.00021559 0.00033095 -4.8657e-05 -0.00049932 0.00080769 -0.00034184 -0.00039737 0.0001863 -0.00087083 0.00097848 0.00068011 -0.00042657 -0.00011405 -0.00035482 -9.8889e-05 -5.1147e-05 -8.757e-05 0.00064117 -0.00066633 -0.00028746 0.00030197 -0.0003443 0.00039535 0.00039276 -0.00052539 0.00078514 -0.00041933 0.000536 9.4406e-05 0.00020193 -0.00060388 -0.00011524 -0.0001049 -0.00018633 0.0003782 -0.00021112 -0.0012081 5.8552e-05 0.00055833 0.00017692 -0.00014721 0.0008236 0.00053021 -3.0805e-05 0.00058051 -0.00016126 0.00042588 -0.00017705 0.00018353 -0.00014522 -2.79e-05 6.2367e-05 0.00040086 0.00082049 0.0006096 0.00013626 0.00012152 -0.00059212 0.00085245 0.00026347 -0.00032408 0.00019232 -0.00041014 -0.0006149 0.00050143 0.00041162 -9.4579e-05 0.00053262 -6.7679e-06 -0.00031717 0.00042533 0.00049023 6.1449e-05 -9.836e-05 -0.00041264 0.00026511 -0.00056996 -0.00053082 0.00097796 -0.00025052 0.00025931 0.00033493 -0.00013077 -0.0003881 -0.00044006 0.00062067 -0.00010021 0.00027114 2.3513e-05 -1.9341e-05 -0.00044442 4.2756e-05 -9.3962e-05 -0.00068992 0.00036179 -0.00028685 8.6304e-05 0.00016002 -0.00020308 0.00041031 0.00070721 -0.00054731 0.00036823 0.00021359 -7.8806e-05 0.00025542 0.0011726 -0.00013374 -0.00083262 -6.5283e-05 0.00032275 -0.00047574 -0.00041966 0.00018959 -0.00080363 0.00052271 2.7676e-05 -0.00028765 0.00050317 -6.4398e-05 -0.00046854 -0.0005332 0.00041328 -0.0011434 0.00058856 0.00024963 0.00083622 9.5619e-05 8.8071e-05 -0.00023233 -0.00025391 -0.000154 -0.00011159 0.00021492 0.00028656 0.00065991 0.00013555 -0.00012506 0.00010499 6.1028e-05 -7.9993e-05 0.00053121 -7.9761e-05 -0.00075576 0.00038351 0.00016145 3.2496e-05 -0.00019243 -0.00018212 -0.00019737 -0.00080289 2.2674e-05 0.00031242 -0.00031782 0.00070218 -0.00046591 -4.607e-05 -0.00045351 -0.00047033 -0.00011812 0.00015827 -2.7603e-05 -0.00049666 -0.00047844 -0.00064649 0.00081714 -0.00037867 5.9772e-05 -0.00059336 0.00013892 -0.00051477 -0.00030379 0.00019343 0.00016332 0.0010292 6.1505e-06 -0.00030871 -0.00023613 8.9261e-05 0.00044305 -0.00028151 0.00034573 0.00042332 5.5249e-05 0.00024123 0.0011227 -0.0008978 -0.00024284 0.00065216 -0.00026917 -0.00060144 0.00054981 -0.00029134 0.00044412 -0.00034493 0.00021298 0.0008582 -9.3434e-06 -0.00068357 -0.0010969 -0.0013447 -4.0245e-05 -0.00029421 -3.5389e-05 -0.00068765 -2.6751e-05 0.00011683 -0.00026752 0.00024286 -0.00061876 -0.00038956 0.00023882 0.00049402 -0.00050565 0.00012235 0.0011897 -0.00013172 -0.00013626 0.00030077 -0.00067756 -0.00060628 -0.00015591 -0.00013838 -0.00021711 -0.00067482 -0.0001856 0.00076459 -0.00040351 -0.00028869 0.00048751 8.5642e-05 -0.00035081 -0.00013718 0.00023023 -6.172e-05 0.00021447 0.00070859 -0.00076677 -0.0006318 -1.4529e-05 0.00070538 -0.00037186 -0.00030695 0.00018652 0.0002963 -3.0297e-05 -0.00043322 -0.000359 2.3727e-05 -0.00019344 -0.00020622 0.00037933 0.00027738 -0.00024439 -7.3483e-06 0.00059308 -0.00063243 0.00011962 0.00042099 0.0003761 0.00024531 8.7113e-05 -7.1564e-05 0.00033678 0.00059259 0.00021723 0.00020928 -1.9534e-06 0.00013539 -0.00013094 -0.00097438 -0.00032278 -0.00081927 8.1217e-05 0.0011752 -0.00072319 0.00031011 -0.00034219 5.9611e-05 -0.00040699 -0.00073175 -0.00044644 0.00047325 -0.00084068 0.00016385 0.00066668 -0.00061551 0.00062394 -0.00025389 0.00027297 -0.00027031 -5.1059e-05 4.1674e-05 1.4266e-05 0.00061243 0.00052054 -0.00074201 -0.00034311 0.00059221 -0.0010211 3.142e-06 -0.00018736 0.00074537 -9.9515e-05 0.00026422 -1.7841e-05 0.00018823 9.7589e-05 0.0012323 0.00021565 0.0003053 0.00030745 -0.00018997 2.9385e-05 0.00019701 -0.00014616 0.00051967 5.0849e-05 
<cm> 4.6812e-05 0.000599 0.00043517 0.00047943 -0.00023348 0.00010943 -0.00012441 -9.5509e-05 -0.00055652 -3.844e-05 -0.00033909 -0.00016496 -0.00025043 4.1591e-05 -0.00089336 -7.0502e-05 -0.00021951 0.00091228 0.00031048 0.00060049 -0.0004332 -0.00010401 0.00026154 0.00021781 0.00013516 0.00012659 6.0085e-05 2.1443e-05 9.5793e-06 6.1844e-05 -2.4441e-05 -0.00027429 0.00016139 1.8239e-05 -0.00030277 0.00033782 -0.0003138 -0.00011008 -0.0001552 0.00032611 -0.00029628 -0.0008754 0.00012568 5.8358e-05 4.7516e-05 -0.00025511 -6.7642e-05 -5.5497e-07 0.00014024 -0.00025956 0.00055466 0.00010738 5.9501e-05 -0.00011099 -8.4585e-05 0.00053505 0.00030277 -6.1932e-05 -0.0001342 0.00037525 -0.0003756 0.00037272 -0.00017001 0.00061382 -0.00052287 0.00022304 0.00020555 -0.00072771 -0.00029177 0.00046012 0.0003627 -6.8141e-05 3.3467e-05 0.00056094 0.00014571 0.00040514 0.00015842 0.00012994 -0.00054574 0.00031129 0.00018965 0.00015736 0.00067835 -0.00029926 0.0011105 0.00044838 0.00053386 -0.00041728 -8.2149e-05 -0.00010136 0.00077237 -0.00025757 0.00025284 0.00022933 -0.00013073 -0.00017345 -0.00014112 0.00037042 -0.00013191 0.00024649 0.00039912 -0.00047917 0.00028035 -0.00082264 0.00062178 -9.8469e-05 0.00052493 9.4399e-05 0.00031112 0.00020234 -0.00030321 0.00039933 -0.00059697 -0.0001526 -0.00051213 0.00013357 -2.9601e-05 -0.00040781 0.00037389 0.00013599 -0.0003213 0.00045618 -0.00011271 -0.00054302 0.00032493 0.0002962 0.0002541 -0.00028068 0.00031245 -0.00018673 0.00041007 -0.0003051 -0.00039918 -0.00037088 -0.00040927 0.00012767 -0.00019191 -0.00070754 -0.00016351 0.00054263 0.00040864 -4.9009e-05 -0.00018777 0.00032173 -0.00013625 0.00044918 -0.00054128 0.00042824 4.8426e-05 0.00021257 -0.00039199 -0.00045915 -0.00010542 -0.00028404 -0.00030893 -2.0791e-05 0.00011504 -0.00014908 -0.00036031 -0.00033811 -0.00017441 -0.00071825 -7.9339e-05 1.7715e-05 -6.6723e-05 0.0002044 0.00033789 0.00084501 -7.2701e-05 0.00042633 -0.00033399 -0.00077707 0.00016714 0.00027516 -0.00069927 0.00046174 0.00014846 0.00067311 0.00051093 -0.00050872 -0.00024395 -3.0167e-05 -0.00040399 0.00043991 0.00044216 0.00018098 -0.00044995 -0.00066678 -3.864e-05 0.00035421 -3.3412e-05 -0.00011319 -1.4441e-05 -0.00048365 0.00027705 6.7305e-05 -0.00017082 -0.00094761 0.00035753 -0.00035058 -0.00056332 0.00049014 -0.00022252 0.00015493 -0.00010406 0.00010195 -0.00019419 -0.00049964 8.2092e-05 4.7206e-05 -3.1515e-06 -0.00049008 -0.00059386 -0.00014588 -0.0001721 0.00031851 0.00013617 0.00014204 -9.9339e-05 -0.0002935 -0.00026392 0.00024651 0.00048047 0.00016181 0.00043996 -0.00061148 -0.000484 -0.00014222 -0.00022229 -0.00038492 5.6556e-05 8.2966e-05 -0.00058204 -0.00016956 -0.00072325 0.00048499 -0.00052383 0.00040154 -0.00017986 0.000222 -0.00010632 0.00077988 0.00070178 0.00051465 -0.00037883 -0.00051612 -0.0007326 -3.9018e-05 -0.00035222 6.3589e-05 0.00022758 -0.00067741 0.00029844 -0.00074722 -0.00066417 -0.0006063 -0.00021732 0.00027068 -8.0631e-05 0.00015518 0.00033459 -3.2766e-05 -0.00033568 2.2819e-05 0.00053562 -3.9476e-05 0.0003342 -0.00016328 -0.00062332 -8.6473e-06 -0.00056501 0.00021882 -0.00014172 0.00046084 -0.000158 -0.00023705 0.00015647 -0.00035838 0.00011858 0.00024217 -0.00011849 -0.00012175 -8.7143e-05 0.00019418 -0.000242 0.00046784 -4.283e-05 0.00038822 -0.00018518 -0.00024784 -0.00012801 -0.00049024 0.0010421 0.00032414 0.00016953 0.00022139 0.00050602 -0.0007168 0.00013694 0.00035507 -7.7319e-05 0.00020983 -0.000716 0.00055545 0.00026696 0.00013957 0.00042015 0.00039679 0.00020822 0.00012821 -0.00011674 0.00021274 0.00026527 -0.00046721 -0.00056977 8.9333e-05 0.00045145 -0.00047809 0.00011187 -0.00054635 -2.6489e-05 0.00040629 -0.00027608 -0.00037566 -0.00018503 -0.00010889 -0.00016916 0.00020831 0.00068597 5.0788e-05 0.0003163 0.00020151 0.0002296 -0.00014047 -0.00042771 -0.00063068 0.00043599 -0.00091714 -0.00019649 -0.000295 0.00023803 4.3889e-05 0.00016363 -7.7662e-05 -0.00041128 -0.00049521 -3.1072e-05 0.00048849 0.00046227 -0.00025682 -0.0004796 1.126e-05 0.00012745 0.00028176 0.00068077 -0.00017897 -0.00042292 -6.2959e-05 1.3236e-05 -0.00020725 0.00039101 -0.00021307 0.00020174 7.488e-05 0.00026654 -3.7331e-05 0.00047195 -0.00020311 -0.00054873 0.00055984 0.00040544 -0.00011088 -0.00030909 -0.00042163 1.5387e-05 1.4039e-05 -0.0003014 -0.00019271 -0.00040658 -0.00075208 -0.00018276 0.0003653 0.00020654 0.00017943 -5.2876e-05 6.8491e-05 -0.00018543 -0.00016991 3.0726e-05 -0.00019085 0.00042596 0.0003054 9.7142e-05 -0.00063446 0.00048283 0.00022405 4.4669e-05 0.00010193 0.00053322 -5.5765e-06 0.00012367 7.5347e-05 -7.0402e-05 0.00040966 0.00011452 1.0061e-05 -0.00055433 -0.00038188 1.5566e-05 0.00016473 -6.2435e-06 -2.5715e-05 -6.6315e-05 0.00051682 -0.00022885 0.00032296 0.00037235 1.5123e-05 -0.00034369 -9.0906e-05 -0.00021184 -0.00014163 0.00094503 0.00081449 0.00073639 0.00031875 0.000303 -7.1137e-05 -0.00016811 0.0003685 -6.1426e-05 0.00036936 0.00061002 -0.00071718 -8.1689e-05 -0.00049534 0.00032028 0.00011024 -0.00045702 -6.2069e-05 -3.5658e-05 -1.6727e-05 0.00063178 0.0001277 -0.00058246 8.3094e-05 -0.00036667 5.9523e-06 9.9951e-05 0.00026486 -0.00023091 -9.6666e-05 -0.00087522 0.00057804 -2.7713e-05 -6.3676e-05 0.00068433 -0.00070442 8.1973e-06 -0.0009068 0.0004088 -0.00017369 -0.0004514 0.00020491 -0.00059412 -0.00013153 0.00016864 0.00013741 0.00032317 -6.6579e-05 -0.00079665 -8.3427e-05 0.00013127 -0.00020083 -0.00046161 -0.00062107 0.00036085 -0.0001082 -0.00056364 -0.00052758 3.0374e-05 0.00021194 -9.2096e-05 -0.00022775 0.0001172 0.00023317 0.00061296 0.00014395 -0.00012711 0.00017594 8.0759e-05 0.00070062 -7.1627e-05 0.00027005 -0.00056745 0.00046687 -0.00023514 0.00014018 0.0002425 0.00067289 
<np><sg> -0.00031884 0.00022225 -9.9503e-05 6.3821e-05 3.4479e-05 -9.1265e-05 -0.00018237 0.00031032 -0.00012298 0.00035649 -0.00018512 -2.0186e-05 -0.0001685 -0.00017699 -0.00013659 6.7338e-05 -4.5537e-05 0.00014297 4.179e-05 -0.00023603 -0.00012117 -1.398e-05 -0.00032367 -0.00021284 4.327e-05 0.00015611 -0.0003502 -0.00016719 -0.00011047 2.6605e-05 -0.00029796 -0.00015577 5.4549e-05 0.00024725 -0.00040508 0.00039893 -4.1418e-05 0.000101 0.00015804 0.00031662 -7.1469e-05 -0.00015498 0.00019255 -0.00019225 0.00018401 0.00018774 -1.5228e-05 0.00022092 -7.6658e-05 0.000134 5.103e-05 -8.0286e-05 -0.00027363 -0.00013728 -0.00018826 -0.0001952 0.00012799 -0.00013764 -0.00014018 0.00018441 0.00012574 -0.00053888 -0.00028434 -0.00026233 -0.00058102 0.00017222 -0.00010825 -0.00032127 -3.4724e-05 -0.00027254 0.00031975 -3.4933e-05 0.00016484 -5.8904e-05 -8.2348e-05 -7.8947e-05 -0.00044317 0.00028122 -0.00016238 -0.00010931 -0.00012761 0.00025393 -0.00012146 -0.00012608 0.00026677 -0.00021121 0.00031442 -0.00046713 0.00026538 8.4257e-05 -2.812e-05 -9.8269e-05 0.000354 0.00038468 -0.00018207 -3.9226e-05 -0.00029665 -9.3375e-05 -0.00040031 4.8895e-05 0.00010469 0.0002172 0.00023149 -9.0007e-05 0.00033017 0.00018727 0.0001053 0.00025032 -0.00032052 -0.00023636 0.00013313 6.0508e-05 -7.7976e-05 0.00018484 -0.00036153 4.1619e-05 -0.00037556 -0.00023968 0.00043016 0.00019287 -0.00013266 9.7103e-05 0.00023211 -2.0134e-05 0.00054941 0.00014909 -0.00018864 -0.00017018 -0.0001753 -0.00033153 -0.00025655 0.00029832 2.0562e-06 0.00022587 -0.00023548 -7.655e-05 0.00027439 -5.598e-05 3.9108e-05 0.00061846 1.7773e-05 -0.00021794 -1.0507e-05 0.00027203 -0.00015532 3.6543e-05 -0.00038827 -0.00033519 -2.895e-05 0.00032996 -8.8284e-05 -0.00022712 -0.00013392 0.00018546 -1.5233e-05 -0.00016113 -0.00060539 3.8216e-05 -7.7169e-05 -0.00031233 0.00014473 -0.00018798 0.00025762 -0.00011693 7.8746e-06 0.00010432 0.00023945 6.2674e-05 -0.00013813 0.00021026 -0.00040424 0.00068849 0.00036858 -0.00030104 -0.00020329 0.00032467 -0.0002407 -7.9774e-05 0.0003939 0.00025969 0.00015839 9.9248e-05 -0.00041361 0.00014586 0.00013066 -0.00014544 -0.00051314 0.00021937 -0.00029996 -5.7337e-05 0.00039565 0.00027697 -0.00012304 -0.00029593 -3.9579e-05 0.00018277 0.000213 -0.00026422 0.00029277 -0.00021796 -6.8254e-05 2.6396e-05 0.00016783 -0.00037852 8.6162e-06 7.1017e-05 -0.00042056 0.00032483 -0.00019008 -0.0003417 -7.9777e-05 -8.8731e-05 -0.00028669 0.00010757 -0.00021671 -0.00030584 -0.00013961 0.00016664 -0.00047423 0.00037889 0.00014125 0.00040655 -0.00020396 0.00028951 0.00047634 -5.3395e-05 -5.6184e-05 0.00015501 0.00011093 -0.00017344 -0.00020103 -0.00024726 0.00011014 -0.0004658 0.00015698 -3.3588e-05 -0.00036764 0.00022063 -0.00030787 -0.00038012 0.00024599 0.00036816 0.0002716 0.00056084 -8.506e-05 0.00019235 -0.0003056 -0.00028368 -4.6821e-06 0.000477 0.00013543 6.7489e-05 6.4522e-05 -0.00014726 -0.00028297 -0.00022421 -0.00039894 -4.8918e-06 -0.0002852 -0.0003535 0.00012178 8.0339e-05 -0.00028445 -0.00017028 0.00010325 6.0591e-05 -0.00026111 0.0004143 -2.1844e-05 -3.3946e-05 2.8537e-05 0.00010525 1.8143e-05 0.00031778 0.00025556 -0.00043461 -2.8971e-05 -0.00019126 6.6121e-05 0.00042545 1.5426e-05 4.1833e-05 0.00016906 7.1231e-05 -0.00046783 -0.00025391 0.00031264 -0.00014611 0.00023517 -0.0002383 -0.00050973 -0.00033295 0.00046191 -0.0002847 0.00017955 0.00027709 -0.00023655 0.00036734 4.721e-05 1.6414e-05 0.0001772 0.00010049 -0.00012592 0.00015159 -0.00016853 -0.00033126 2.2512e-06 0.00012979 0.00035107 0.00054463 0.00029966 0.00032452 -0.00032956 -0.00010759 -0.00013617 0.00013868 0.00040078 0.00011656 -2.9718e-05 0.00046505 0.00030311 -3.1072e-05 -0.00025304 0.00016779 -0.00019498 -0.00013627 8.7117e-05 -0.00026088 -0.0001651 0.00019058 0.00013624 -0.00027756 -0.00011833 -0.00013265 -0.00020783 -0.00017866 0.00022326 -0.00028466 -0.00046193 -0.00042187 0.00038217 -0.00039487 3.8273e-05 0.00027788 -0.00042759 -0.00054796 9.6769e-05 0.0001712 0.00019212 -0.00010922 0.00017023 0.00038556 -0.00012867 -0.00011649 0.00031737 0.00033845 -0.00017495 -0.00024959 0.00024549 -0.00010241 0.00014596 -4.0344e-06 0.00025669 2.4015e-05 0.00047326 -0.00013593 5.1989e-05 -3.9047e-05 -0.00030335 8.797e-05 -0.0001571 -0.00033833 6.4385e-05 -0.00018917 -1.9251e-05 5.0317e-05 0.00031217 6.9213e-05 -0.00014536 -0.00033749 -0.00013816 -0.00060329 -0.00058109 -0.00017257 0.00025269 0.00012969 -0.0002142 -0.0002491 -1.8646e-05 -0.00041792 -0.00029392 0.00025799 -3.4041e-05 -0.0001126 -0.00015759 -1.9e-05 -0.0003941 0.00036213 -8.6393e-05 1.2271e-05 0.00025509 -0.00010565 -0.00045487 3.7119e-05 2.7188e-05 9.1459e-05 1.4665e-05 -0.00037883 -1.0696e-05 -0.00023838 6.5212e-05 0.00067995 -3.0128e-05 -0.00011433 2.859e-05 -8.3018e-05 0.00038639 2.6376e-05 -0.00056012 -0.00026642 -0.0003647 -7.5001e-05 8.5296e-05 -0.00038028 0.00031931 -0.00016316 0.00018353 -0.0001524 0.00016536 6.5789e-05 -1.2492e-05 0.00039491 -0.00012906 0.00025763 9.4766e-05 -0.00036437 0.00022676 0.00014215 -0.00018223 7.5396e-05 -0.00062684 7.8067e-05 -0.00025013 -5.6904e-05 4.0501e-05 0.00018284 0.00041849 0.00023215 6.9846e-05 5.3276e-05 0.00036197 3.2586e-05 -0.00012944 0.0001724 -0.00041178 0.0001852 -0.00015281 -0.00038625 0.00041286 8.9052e-05 0.00019176 -0.00032902 -0.00017645 0.00064751 -0.00052551 -0.00023283 6.706e-05 -0.0002551 -5.5463e-05 0.00026959 2.7636e-05 3.9643e-05 -0.00033761 -8.4103e-05 -0.00059026 9.9985e-05 -4.5466e-05 0.00016669 0.00018962 0.00025033 0.00012749 -0.00035178 -7.8065e-05 -0.00031277 -0.000262 0.00023124 -0.00035776 0.00013709 9.4479e-05 -3.3479e-05 2.0868e-05 0.00052883 -0.00012833 -0.00033152 4.2691e-05 -1.4393e-05 -0.0002155 7.3109e-05 0.00032641 0.00049891 
