93 500
<n><m><sg> 0.010609 0.010736 -0.040631 0.025443 0.061639 -0.073300 0.061588 0.029410 0.018497 0.085507 -0.012281 -0.020412 -0.004790 -0.021980 0.051981 -0.037291 0.010517 -0.058088 0.026508 -0.038872 0.031893 0.104438 0.046271 0.004248 0.145466 0.011892 0.092364 0.022022 -0.121332 -0.033163 -0.070066 0.072110 0.064080 -0.062570 -0.041608 -0.080131 0.038438 -0.054482 0.110146 0.061751 -0.183770 0.020029 0.021811 0.005053 -0.075466 0.070178 -0.004720 0.076641 0.027915 -0.113545 0.042554 -0.087221 0.001608 -0.051588 -0.031814 -0.017435 -0.016378 0.008780 0.049508 -0.023954 -0.017946 -0.069968 0.008882 0.011705 0.000491 0.026696 -0.022041 0.024947 -0.096310 -0.051144 0.085354 0.098839 -0.067672 0.047249 0.045750 0.056040 0.043526 0.041185 -0.023189 0.025731 -0.026934 -0.014907 -0.104411 -0.061660 -0.000574 -0.077804 -0.023202 0.112536 0.014813 0.067152 0.094706 0.027986 -0.029669 0.017451 0.074062 -0.051041 0.014250 -0.018187 0.052112 0.045137 -0.108781 0.100323 0.032221 0.068943 -0.140670 0.013246 -0.010522 -0.034199 -0.012179 0.108368 -0.046711 -0.048407 -0.093903 0.004391 0.077499 0.113666 -0.030822 0.006151 0.082133 -0.062359 -0.012864 0.051424 0.025490 -0.048238 -0.002239 -0.030546 0.113799 0.036128 -0.000479 0.023635 -0.103523 0.000217 -0.008632 -0.017192 0.010255 0.016138 -0.107394 -0.050838 0.047466 -0.063530 0.115016 -0.051317 0.011936 0.092828 0.060487 -0.029908 -0.012962 -0.068419 -0.024758 0.105192 0.112243 -0.024198 -0.047492 0.039163 0.027699 -0.122504 -0.157128 0.083118 -0.000111 0.118577 0.029043 0.038550 0.021300 -0.027778 -0.050327 -0.029335 0.082805 0.014046 0.034502 -0.062927 -0.064103 0.095400 -0.084309 -0.067126 0.009217 0.008778 0.028281 -0.134067 0.011403 0.058594 -0.086455 -0.000748 0.132909 -0.051194 -0.000479 -0.030694 0.098933 0.064287 -0.078592 -0.057715 0.046429 -0.033508 -0.071895 0.034914 -0.083473 0.037913 -0.089918 -0.058968 -0.028289 0.036621 0.095496 0.043924 0.169904 0.099708 -0.057293 -0.040524 -0.079876 -0.056527 0.056321 -0.027461 0.032168 0.007617 -0.005004 0.006310 -0.051276 -0.074271 -0.010450 -0.005766 0.036328 0.024827 -0.068868 -0.045296 0.085808 0.062688 -0.093222 0.060766 0.001218 0.119332 -0.098737 0.019069 0.045715 0.017730 0.049509 -0.000955 0.070679 0.024782 -0.021885 -0.033722 0.032783 -0.023048 -0.026652 0.064382 0.054842 -0.022503 -0.078621 0.044665 0.019735 -0.115735 0.109664 0.011662 -0.102452 -0.106498 0.020664 0.024509 0.012994 -0.009098 -0.079197 0.010714 -0.049998 -0.032709 0.101797 0.089520 0.111330 -0.093349 0.002503 -0.033409 0.000143 -0.012612 0.042242 -0.015810 -0.026016 -0.014168 -0.037151 0.009847 0.088298 0.098678 -0.005999 -0.036469 -0.064410 0.046690 0.043196 -0.069441 0.011849 0.022496 -0.039193 0.030808 0.136226 0.012522 -0.065974 -0.014383 0.007627 0.083006 -0.052822 0.063704 -0.061053 0.010965 0.007841 -0.057749 0.173338 0.045901 0.005976 0.083514 -0.005324 0.048487 0.037727 -0.055447 0.076255 0.130016 0.068232 -0.007068 0.017650 0.053855 -0.050401 0.018351 0.024725 0.017992 0.048795 -0.014208 -0.025486 0.050444 0.029923 0.093191 0.035010 0.011579 0.000713 0.032419 -0.049471 0.025368 0.018866 -0.099179 -0.006150 0.068470 0.083041 -0.005411 0.106878 0.009254 0.047352 -0.043383 -0.107657 -0.051131 -0.009740 0.084406 0.055081 -0.004121 0.048410 -0.051338 -0.111837 0.020467 0.048520 0.059070 -0.060292 -0.054318 -0.012092 -0.027465 0.039335 0.018471 -0.022663 -0.049706 0.061075 -0.010475 -0.052080 -0.020920 0.019265 -0.001585 -0.019373 -0.112141 -0.030219 0.053549 0.088830 0.039532 -0.008535 0.026738 -0.129969 0.078483 0.098791 -0.021786 0.030889 0.002418 0.093136 -0.030710 -0.017348 0.076633 -0.000754 -0.044955 -0.033359 0.039838 0.023504 -0.014527 -0.112897 -0.074282 0.032236 -0.051644 -0.010300 0.013243 0.032628 0.096020 0.047949 0.022395 0.013661 -0.055171 0.029306 -0.035847 -0.039044 -0.028398 -0.047360 -0.015759 0.051349 0.102285 -0.039898 -0.025916 -0.084518 -0.044951 0.010322 -0.031346 -0.065116 0.009536 0.014986 0.043884 0.011734 -0.023199 0.029841 0.072146 0.084883 -0.024496 -0.044114 -0.000955 -0.026682 -0.114491 -0.029441 -0.034936 0.075498 -0.018028 0.067319 -0.141785 0.012069 -0.015890 -0.007355 -0.040519 -0.058900 0.015596 -0.007805 0.071900 -0.051447 -0.006914 -0.008605 -0.011454 0.055753 0.052584 -0.124043 0.018672 0.021834 0.028771 0.029005 0.050378 -0.048879 0.114530 0.043104 0.025497 -0.126906 -0.011216 0.029845 0.048131 0.046414 -0.030789 -0.086837 0.017538 -0.064855 0.067762 -0.001269 -0.060679 -0.061298 -0.030523 0.088254 0.003302 -0.000231 -0.057085 0.094264 -0.024506 -0.111421 -0.070479 0.028818 0.009085 0.022485 0.049009 0.091581 0.040102 -0.083003 0.070738 -0.069366 0.004288 0.040072 0.064577 0.059359 0.004023 -0.102208 -0.025566 -0.067661 -0.008062 0.072910 0.052760
<det> 0.008895 0.009585 -0.036149 0.023627 0.056667 -0.067636 0.057450 0.027043 0.016102 0.077407 -0.009950 -0.020309 -0.002598 -0.019651 0.049008 -0.034356 0.009668 -0.052557 0.025518 -0.035850 0.029276 0.096052 0.043709 0.004697 0.134151 0.009586 0.083750 0.019591 -0.111191 -0.030948 -0.064037 0.065656 0.059983 -0.057509 -0.037543 -0.073205 0.036156 -0.049983 0.101692 0.055649 -0.170412 0.017380 0.019582 0.003757 -0.069843 0.064511 -0.004572 0.071223 0.025798 -0.105578 0.041110 -0.080517 0.001599 -0.048192 -0.028764 -0.017224 -0.014740 0.009631 0.045121 -0.022046 -0.015745 -0.064496 0.007206 0.011707 0.000485 0.024714 -0.019900 0.022735 -0.087754 -0.047436 0.079170 0.090409 -0.063214 0.042154 0.042663 0.051530 0.041448 0.036849 -0.021818 0.022135 -0.025513 -0.012944 -0.097163 -0.055933 -0.001304 -0.070593 -0.020745 0.104605 0.012682 0.060874 0.086397 0.025934 -0.028907 0.015041 0.068679 -0.045948 0.013097 -0.015999 0.047924 0.040568 -0.100318 0.091639 0.030796 0.063404 -0.129838 0.013386 -0.010602 -0.032106 -0.010075 0.100561 -0.043917 -0.044772 -0.086915 0.003948 0.072381 0.104678 -0.028469 0.004862 0.075887 -0.059027 -0.011935 0.049074 0.023572 -0.044783 -0.001113 -0.027341 0.104350 0.032966 -0.000665 0.022946 -0.095448 -0.000337 -0.006847 -0.014324 0.008547 0.014591 -0.097979 -0.048053 0.043882 -0.058963 0.106332 -0.046559 0.009424 0.085491 0.057181 -0.028840 -0.011388 -0.063784 -0.022315 0.096894 0.103581 -0.022593 -0.042797 0.037791 0.024981 -0.112321 -0.144948 0.075341 0.000425 0.108543 0.027767 0.035587 0.019955 -0.026246 -0.045822 -0.026708 0.075175 0.014033 0.032302 -0.057260 -0.059531 0.088209 -0.077139 -0.062340 0.008478 0.008626 0.025534 -0.124363 0.010722 0.053834 -0.078053 -0.000392 0.122594 -0.046763 0.000293 -0.028894 0.089409 0.057974 -0.072046 -0.053008 0.043036 -0.032162 -0.066182 0.031646 -0.075442 0.034674 -0.083264 -0.054894 -0.025321 0.034228 0.087131 0.040543 0.156888 0.091753 -0.052888 -0.038463 -0.073932 -0.052239 0.051232 -0.024945 0.029247 0.006833 -0.004377 0.006742 -0.047263 -0.068774 -0.008841 -0.004370 0.034228 0.022285 -0.064344 -0.041931 0.079653 0.059037 -0.085387 0.056254 0.001162 0.110161 -0.090783 0.016301 0.043215 0.014901 0.044990 -0.000446 0.065784 0.021661 -0.020144 -0.032028 0.031371 -0.020410 -0.024189 0.058888 0.050333 -0.020139 -0.071356 0.041159 0.019671 -0.106873 0.100153 0.011143 -0.094720 -0.098585 0.018395 0.023088 0.011386 -0.008113 -0.072229 0.009516 -0.047408 -0.028952 0.095362 0.083670 0.102206 -0.086088 0.003406 -0.030500 0.000704 -0.011709 0.038510 -0.014022 -0.022804 -0.012572 -0.034490 0.008519 0.081952 0.091681 -0.005229 -0.033304 -0.057985 0.041990 0.039066 -0.063344 0.009588 0.021918 -0.035339 0.028767 0.125365 0.010662 -0.061243 -0.013280 0.006379 0.077379 -0.049524 0.058651 -0.057005 0.008696 0.007800 -0.053878 0.159390 0.040943 0.005445 0.076425 -0.005382 0.045729 0.034565 -0.051075 0.069379 0.118768 0.062755 -0.007364 0.015083 0.050758 -0.046742 0.017322 0.021517 0.016510 0.043438 -0.013018 -0.022046 0.047598 0.028778 0.085165 0.030613 0.010114 0.000640 0.029354 -0.044767 0.022220 0.017894 -0.092887 -0.005142 0.063631 0.077079 -0.005647 0.096996 0.009125 0.044051 -0.040102 -0.100087 -0.046848 -0.010887 0.077341 0.050151 -0.004562 0.044745 -0.047744 -0.103689 0.019184 0.044935 0.054271 -0.055036 -0.050340 -0.010911 -0.024607 0.036130 0.017352 -0.020368 -0.044090 0.056665 -0.009523 -0.047277 -0.019417 0.016217 -0.001298 -0.018947 -0.104478 -0.028480 0.049198 0.081194 0.034724 -0.007887 0.024657 -0.119397 0.072832 0.089911 -0.019847 0.028331 0.001663 0.086056 -0.028573 -0.015890 0.071329 -0.002242 -0.042540 -0.030887 0.036447 0.021916 -0.012130 -0.104431 -0.067733 0.029282 -0.046860 -0.010062 0.012267 0.029208 0.087210 0.044491 0.020633 0.012548 -0.051639 0.025396 -0.031553 -0.036833 -0.026137 -0.044939 -0.016409 0.047064 0.094368 -0.037514 -0.024996 -0.078099 -0.041127 0.008306 -0.029820 -0.060573 0.008672 0.012244 0.039494 0.011242 -0.021222 0.027034 0.066441 0.077938 -0.024201 -0.039919 0.000008 -0.025825 -0.105711 -0.027025 -0.033729 0.070316 -0.016044 0.060652 -0.130368 0.011982 -0.014472 -0.006287 -0.037086 -0.054322 0.015432 -0.006770 0.066354 -0.047071 -0.004701 -0.008004 -0.011249 0.049732 0.048998 -0.113416 0.018737 0.021136 0.025378 0.028096 0.046391 -0.045095 0.105597 0.040510 0.023377 -0.116482 -0.010358 0.027573 0.044655 0.042199 -0.028320 -0.080976 0.015995 -0.061247 0.062801 -0.000484 -0.056463 -0.057296 -0.026863 0.081455 0.004498 -0.001468 -0.051576 0.086255 -0.021543 -0.101766 -0.066220 0.026490 0.007983 0.020983 0.045314 0.084803 0.036329 -0.075170 0.064923 -0.062324 0.003636 0.035963 0.058446 0.054168 0.002847 -0.094641 -0.024696 -0.062854 -0.008058 0.066799 0.050080
<pr> 0.007919 0.009603 -0.035252 0.021581 0.053244 -0.063557 0.053961 0.026314 0.016556 0.074530 -0.008992 -0.017802 -0.002931 -0.019854 0.046746 -0.033017 0.007677 -0.049956 0.023770 -0.033413 0.027860 0.091211 0.041149 0.004305 0.125722 0.010156 0.080332 0.018307 -0.105379 -0.028976 -0.061712 0.062908 0.056435 -0.054370 -0.037115 -0.068972 0.032367 -0.047991 0.097049 0.054027 -0.160794 0.017065 0.018114 0.003614 -0.065676 0.061207 -0.004236 0.067116 0.024730 -0.100426 0.037095 -0.075326 0.001334 -0.045345 -0.027459 -0.016483 -0.012854 0.008073 0.043111 -0.020774 -0.016234 -0.061025 0.007275 0.009229 -0.000114 0.023474 -0.018840 0.020111 -0.083995 -0.044415 0.076145 0.086082 -0.060122 0.040428 0.038801 0.049445 0.038480 0.035473 -0.020984 0.021369 -0.023005 -0.012099 -0.091972 -0.054157 0.000076 -0.067541 -0.019797 0.098869 0.013152 0.057274 0.081694 0.025384 -0.026334 0.014445 0.066248 -0.043920 0.013518 -0.015290 0.045579 0.039077 -0.094382 0.086742 0.029632 0.059832 -0.123201 0.011792 -0.010273 -0.029149 -0.010135 0.094247 -0.042011 -0.042444 -0.082159 0.005096 0.068728 0.099166 -0.028307 0.004679 0.071211 -0.054861 -0.012497 0.046577 0.023007 -0.043616 -0.001281 -0.025038 0.099572 0.032422 -0.000178 0.022100 -0.089994 -0.000457 -0.007150 -0.013651 0.009678 0.014275 -0.092584 -0.046175 0.041286 -0.055244 0.101263 -0.045599 0.010269 0.080241 0.053436 -0.026547 -0.009810 -0.060552 -0.020772 0.092219 0.097626 -0.020770 -0.041472 0.035780 0.024134 -0.107257 -0.136910 0.071021 0.000282 0.102068 0.026413 0.033864 0.019721 -0.024475 -0.043819 -0.024131 0.072193 0.013062 0.030301 -0.054322 -0.055587 0.083033 -0.074072 -0.058738 0.008087 0.008111 0.024473 -0.117584 0.010381 0.051627 -0.073824 -0.000290 0.115298 -0.043433 -0.001247 -0.026756 0.086045 0.056183 -0.068726 -0.049360 0.040439 -0.028910 -0.063189 0.029720 -0.072852 0.033468 -0.078647 -0.051821 -0.023967 0.031808 0.082126 0.038914 0.147877 0.086456 -0.050191 -0.036491 -0.069945 -0.049657 0.049479 -0.022996 0.026317 0.005798 -0.003715 0.006349 -0.044124 -0.065591 -0.009379 -0.005642 0.031752 0.022307 -0.061059 -0.039875 0.074473 0.055712 -0.080625 0.053232 0.001664 0.104293 -0.086294 0.015100 0.040923 0.013955 0.042596 -0.001565 0.061268 0.021526 -0.018469 -0.030346 0.029893 -0.019873 -0.023818 0.055978 0.046327 -0.018868 -0.068249 0.039901 0.017442 -0.100337 0.095849 0.010649 -0.089303 -0.093786 0.016389 0.020564 0.011138 -0.008331 -0.068071 0.009330 -0.043465 -0.028256 0.090056 0.079596 0.097256 -0.081391 0.002095 -0.028370 0.001252 -0.010890 0.035709 -0.012662 -0.022504 -0.011082 -0.032771 0.006848 0.076912 0.086919 -0.006150 -0.030313 -0.056201 0.040461 0.038196 -0.060338 0.009788 0.020618 -0.033388 0.026217 0.117997 0.010521 -0.058360 -0.013556 0.005610 0.071977 -0.047382 0.056292 -0.052878 0.009395 0.005830 -0.051469 0.151564 0.039267 0.006196 0.071363 -0.005379 0.043372 0.033161 -0.048886 0.066220 0.113217 0.058942 -0.006605 0.013879 0.047588 -0.044876 0.016715 0.020818 0.014706 0.041128 -0.011469 -0.021738 0.044909 0.026882 0.080857 0.028924 0.008961 0.000402 0.027864 -0.043543 0.021804 0.016390 -0.086464 -0.005502 0.059374 0.072228 -0.004828 0.093491 0.008850 0.040408 -0.039034 -0.094750 -0.044415 -0.008689 0.072835 0.048457 -0.003962 0.042359 -0.045609 -0.098240 0.017596 0.041940 0.051219 -0.052148 -0.046595 -0.011923 -0.023466 0.033935 0.016725 -0.018868 -0.042350 0.054174 -0.007977 -0.045747 -0.017174 0.015563 -0.001669 -0.016637 -0.097748 -0.026220 0.046187 0.077434 0.033698 -0.007430 0.024118 -0.113427 0.067815 0.086248 -0.019170 0.026166 0.001924 0.081065 -0.026854 -0.015430 0.067110 -0.002167 -0.039283 -0.029725 0.034727 0.019370 -0.011510 -0.099458 -0.065416 0.027264 -0.044210 -0.009150 0.011898 0.027367 0.083854 0.043209 0.020186 0.010797 -0.048641 0.024084 -0.031313 -0.034956 -0.024640 -0.042198 -0.015342 0.043197 0.087923 -0.035848 -0.023034 -0.074180 -0.037986 0.009461 -0.026269 -0.056980 0.007575 0.012744 0.038666 0.011245 -0.020364 0.025281 0.063364 0.073843 -0.022864 -0.038237 -0.001724 -0.023818 -0.100128 -0.024398 -0.030543 0.066000 -0.014369 0.058091 -0.123678 0.010997 -0.013380 -0.005939 -0.036383 -0.051477 0.014677 -0.007491 0.063874 -0.044073 -0.005490 -0.008366 -0.009329 0.048819 0.046887 -0.106552 0.017686 0.019988 0.024830 0.026639 0.044376 -0.043347 0.099982 0.037904 0.023012 -0.111071 -0.011033 0.025868 0.041039 0.040073 -0.026728 -0.076303 0.014769 -0.056870 0.059839 -0.002049 -0.052843 -0.053141 -0.025062 0.076721 0.004640 -0.001278 -0.049666 0.080865 -0.021406 -0.097255 -0.061397 0.025684 0.007880 0.019684 0.041597 0.080301 0.034130 -0.072383 0.060527 -0.059326 0.003706 0.033860 0.056348 0.051437 0.003797 -0.088952 -0.023474 -0.058718 -0.008362 0.064471 0.047568
<sent> 0.008880 0.010682 -0.038699 0.023279 0.058740 -0.069863 0.059708 0.028406 0.018063 0.080334 -0.010978 -0.021110 -0.004298 -0.021086 0.050250 -0.034755 0.010033 -0.055575 0.025949 -0.035274 0.029083 0.099181 0.044406 0.004930 0.139151 0.010568 0.088331 0.019581 -0.115985 -0.031132 -0.066776 0.068855 0.061976 -0.059734 -0.038967 -0.077099 0.036144 -0.052988 0.106265 0.058982 -0.176422 0.018297 0.019714 0.003599 -0.071721 0.065922 -0.005513 0.074054 0.025812 -0.109525 0.041770 -0.082340 0.000039 -0.049325 -0.030468 -0.017898 -0.014812 0.008528 0.047445 -0.022647 -0.016074 -0.066373 0.007582 0.011297 0.001640 0.024294 -0.021106 0.023569 -0.091448 -0.047815 0.082954 0.093321 -0.065209 0.044041 0.044122 0.053952 0.041241 0.039434 -0.022806 0.024549 -0.026325 -0.012939 -0.099950 -0.058071 -0.000739 -0.073175 -0.021114 0.107534 0.014120 0.063705 0.089765 0.027264 -0.028714 0.015589 0.071396 -0.048056 0.014337 -0.017080 0.048823 0.042970 -0.103785 0.095334 0.031821 0.066300 -0.135391 0.013598 -0.010025 -0.032008 -0.011324 0.103547 -0.045779 -0.045803 -0.090854 0.004511 0.074676 0.107937 -0.030888 0.006187 0.078633 -0.059320 -0.013161 0.049592 0.024432 -0.047473 -0.001267 -0.029428 0.107617 0.033615 -0.000455 0.024091 -0.098486 0.000403 -0.007881 -0.015146 0.009035 0.014355 -0.102428 -0.049640 0.044764 -0.060911 0.110705 -0.049938 0.010565 0.086615 0.059061 -0.028926 -0.012476 -0.065185 -0.022838 0.099838 0.106578 -0.022440 -0.045365 0.038941 0.026784 -0.117013 -0.150133 0.078182 0.000636 0.113150 0.029214 0.036920 0.021038 -0.026270 -0.048244 -0.027532 0.079167 0.013607 0.033066 -0.059194 -0.059889 0.090991 -0.080594 -0.064096 0.008328 0.009561 0.027736 -0.128563 0.010888 0.056552 -0.082269 0.000245 0.125245 -0.047561 -0.000504 -0.029799 0.094307 0.060740 -0.074934 -0.054914 0.043634 -0.033190 -0.068711 0.032754 -0.078540 0.037434 -0.085382 -0.055775 -0.026936 0.034596 0.090415 0.043413 0.162394 0.094174 -0.054212 -0.039105 -0.076863 -0.052514 0.054743 -0.026542 0.029878 0.006809 -0.004462 0.006018 -0.049311 -0.070578 -0.009028 -0.006278 0.035238 0.023694 -0.066472 -0.042355 0.081850 0.061724 -0.088347 0.058425 0.000677 0.113982 -0.094522 0.017579 0.044315 0.016675 0.046394 -0.001903 0.068672 0.022540 -0.022087 -0.031624 0.032956 -0.022139 -0.025412 0.060094 0.050965 -0.020123 -0.074814 0.042635 0.019219 -0.109301 0.103976 0.011951 -0.096835 -0.100837 0.019297 0.023910 0.012798 -0.009040 -0.074433 0.008910 -0.048317 -0.030632 0.098494 0.085521 0.105706 -0.088696 0.002025 -0.032708 0.000691 -0.011685 0.039772 -0.015455 -0.024448 -0.013157 -0.034867 0.008048 0.084176 0.094891 -0.007048 -0.034984 -0.061563 0.043632 0.040457 -0.064939 0.010486 0.022052 -0.037738 0.028841 0.128606 0.011092 -0.064500 -0.015172 0.005883 0.079276 -0.051718 0.061156 -0.057776 0.009814 0.007249 -0.056534 0.165793 0.042938 0.007163 0.079629 -0.006458 0.046241 0.036940 -0.052961 0.072159 0.123279 0.063816 -0.008146 0.016062 0.052542 -0.047567 0.018684 0.022148 0.017747 0.045790 -0.011724 -0.023854 0.048589 0.029248 0.088712 0.032327 0.010111 0.000728 0.031558 -0.047564 0.022736 0.018095 -0.094429 -0.006163 0.064516 0.079532 -0.006505 0.102041 0.009237 0.045780 -0.042933 -0.103206 -0.048976 -0.010976 0.079825 0.052591 -0.005549 0.046212 -0.048694 -0.105968 0.020910 0.046267 0.056569 -0.058022 -0.052423 -0.011743 -0.025987 0.037160 0.018080 -0.021946 -0.045924 0.058684 -0.009464 -0.049635 -0.019545 0.017121 -0.002489 -0.018459 -0.106991 -0.029640 0.050470 0.084895 0.037521 -0.006926 0.026334 -0.123016 0.074489 0.092523 -0.020131 0.030193 0.002140 0.088929 -0.030045 -0.016811 0.073413 -0.002310 -0.044334 -0.033248 0.037593 0.022291 -0.013285 -0.108906 -0.070202 0.029265 -0.049988 -0.009023 0.011950 0.031254 0.090116 0.046457 0.020895 0.013267 -0.052318 0.027301 -0.033066 -0.036589 -0.028698 -0.045995 -0.015713 0.047291 0.097541 -0.037777 -0.023978 -0.080792 -0.043093 0.010102 -0.030118 -0.063216 0.009612 0.013297 0.041318 0.012846 -0.020612 0.028556 0.068619 0.079540 -0.024242 -0.040469 -0.000223 -0.026602 -0.110371 -0.026956 -0.034684 0.072482 -0.015665 0.063842 -0.135097 0.012802 -0.013996 -0.006145 -0.038974 -0.054677 0.015332 -0.007189 0.069779 -0.047813 -0.005362 -0.008117 -0.010411 0.053366 0.050625 -0.117093 0.019357 0.021635 0.027543 0.027494 0.047100 -0.046875 0.108893 0.042815 0.024748 -0.120687 -0.010706 0.028707 0.044903 0.044025 -0.029246 -0.082425 0.018195 -0.062775 0.064790 -0.001240 -0.057478 -0.058861 -0.029047 0.083847 0.004926 -0.001189 -0.054624 0.088286 -0.022598 -0.106883 -0.068780 0.027166 0.009422 0.020086 0.045385 0.086787 0.038325 -0.079455 0.066362 -0.065707 0.004827 0.038610 0.061947 0.056732 0.003784 -0.096366 -0.024325 -0.065137 -0.009241 0.069143 0.051112
<n><f><sg> 0.009863 0.010466 -0.037262 0.021566 0.055824 -0.065972 0.057252 0.026075 0.016912 0.076877 -0.010306 -0.019585 -0.002665 -0.019220 0.048832 -0.032823 0.009382 -0.051630 0.024773 -0.034983 0.029149 0.095226 0.042754 0.003926 0.132158 0.009202 0.083389 0.019647 -0.110209 -0.029313 -0.063555 0.066455 0.057554 -0.055809 -0.038258 -0.073738 0.035528 -0.049257 0.101380 0.055380 -0.167598 0.016915 0.019864 0.004383 -0.068732 0.062860 -0.004081 0.070091 0.024497 -0.104668 0.039021 -0.079096 0.000678 -0.047652 -0.028848 -0.017287 -0.013144 0.009262 0.044733 -0.020323 -0.015463 -0.062454 0.008933 0.010645 0.001009 0.023595 -0.019716 0.021267 -0.087690 -0.046879 0.078257 0.090287 -0.061642 0.042093 0.040972 0.051502 0.039920 0.037364 -0.021626 0.021981 -0.023410 -0.011943 -0.095783 -0.055174 -0.001122 -0.070669 -0.020602 0.102479 0.014301 0.059790 0.085975 0.025954 -0.028228 0.015128 0.068259 -0.046496 0.013920 -0.015626 0.047070 0.040426 -0.098876 0.091418 0.029200 0.063059 -0.127733 0.012724 -0.010929 -0.031635 -0.011424 0.099399 -0.043293 -0.043501 -0.086769 0.004369 0.070231 0.103625 -0.029176 0.005197 0.074888 -0.057878 -0.011349 0.048570 0.023801 -0.044787 -0.002228 -0.027769 0.103673 0.033944 -0.000291 0.022552 -0.094480 0.000574 -0.006611 -0.014911 0.010343 0.013753 -0.096630 -0.046673 0.042956 -0.058666 0.104996 -0.047221 0.009476 0.084462 0.056230 -0.028883 -0.010301 -0.061203 -0.021199 0.096051 0.100583 -0.021483 -0.041869 0.035745 0.025405 -0.110775 -0.143349 0.074886 0.001278 0.106481 0.027893 0.034151 0.019542 -0.024561 -0.044461 -0.025395 0.073678 0.013728 0.031437 -0.055615 -0.057940 0.087414 -0.077508 -0.062434 0.009293 0.009529 0.025318 -0.122811 0.011101 0.053649 -0.076849 0.000143 0.120497 -0.046454 0.000518 -0.027975 0.090069 0.058038 -0.070537 -0.052273 0.042496 -0.030555 -0.064723 0.030457 -0.075982 0.035118 -0.081992 -0.053994 -0.025252 0.032411 0.086209 0.040758 0.154272 0.091656 -0.052872 -0.037972 -0.073524 -0.051495 0.052408 -0.024382 0.029185 0.006149 -0.002978 0.006475 -0.046192 -0.067745 -0.009301 -0.004664 0.033443 0.022698 -0.061902 -0.040201 0.078951 0.057976 -0.085127 0.056056 0.002352 0.109288 -0.090456 0.015647 0.042107 0.016287 0.045141 -0.001042 0.064853 0.022027 -0.020414 -0.031082 0.030105 -0.020934 -0.025338 0.057260 0.049644 -0.019667 -0.071343 0.040590 0.018495 -0.105329 0.099108 0.010378 -0.093454 -0.097691 0.019004 0.021665 0.010761 -0.008728 -0.071882 0.009430 -0.046541 -0.030066 0.093772 0.082834 0.100701 -0.084661 0.003387 -0.031008 0.000367 -0.010721 0.037929 -0.014355 -0.022749 -0.012756 -0.034186 0.007619 0.079267 0.091179 -0.006661 -0.032074 -0.057789 0.043255 0.038390 -0.063550 0.010738 0.020943 -0.035784 0.027390 0.123593 0.011260 -0.060325 -0.013974 0.005811 0.076622 -0.048336 0.058508 -0.055779 0.008788 0.007290 -0.053912 0.157555 0.041577 0.006817 0.075814 -0.004803 0.045838 0.035179 -0.049589 0.068072 0.118100 0.062405 -0.006167 0.015518 0.049931 -0.046226 0.016313 0.021963 0.016861 0.043407 -0.012808 -0.023293 0.046120 0.027777 0.084630 0.031756 0.010022 -0.000853 0.029928 -0.045195 0.022310 0.017804 -0.091810 -0.006038 0.062334 0.076527 -0.005872 0.096343 0.007686 0.042447 -0.040114 -0.098622 -0.047104 -0.009473 0.076893 0.050611 -0.004744 0.044012 -0.047722 -0.102249 0.018543 0.044504 0.053316 -0.054362 -0.049301 -0.012140 -0.024340 0.035395 0.017117 -0.021090 -0.045203 0.055911 -0.008380 -0.045929 -0.019272 0.017028 -0.002035 -0.018645 -0.101953 -0.028512 0.048871 0.079470 0.035116 -0.007966 0.025411 -0.118328 0.071687 0.089825 -0.020359 0.027272 0.000465 0.083729 -0.028876 -0.015685 0.069280 -0.002508 -0.041449 -0.030183 0.035225 0.021695 -0.012664 -0.104263 -0.068344 0.027689 -0.045856 -0.009596 0.012376 0.028832 0.085820 0.043332 0.020585 0.012489 -0.051047 0.026745 -0.031352 -0.035656 -0.027237 -0.044261 -0.014394 0.046954 0.092536 -0.035510 -0.024375 -0.076021 -0.040179 0.008253 -0.028125 -0.059764 0.008866 0.013532 0.039938 0.011551 -0.021038 0.026962 0.066065 0.077013 -0.022671 -0.038922 -0.001217 -0.024669 -0.104409 -0.027009 -0.033105 0.068124 -0.015580 0.060820 -0.129244 0.011387 -0.014181 -0.005984 -0.037637 -0.052631 0.014653 -0.007154 0.067320 -0.047110 -0.005211 -0.008348 -0.010706 0.050306 0.048026 -0.112385 0.017677 0.020024 0.025673 0.027192 0.045560 -0.045625 0.103642 0.039984 0.024032 -0.115716 -0.009851 0.026810 0.043538 0.042160 -0.027705 -0.079778 0.016824 -0.060557 0.061284 -0.001743 -0.054275 -0.056176 -0.027160 0.079870 0.002955 -0.001617 -0.051525 0.086003 -0.022981 -0.101965 -0.064559 0.025910 0.008436 0.018966 0.043187 0.081951 0.036758 -0.073988 0.063337 -0.062022 0.003153 0.036214 0.058785 0.053806 0.003101 -0.093413 -0.024050 -0.062280 -0.007845 0.066747 0.049494
<vblex><inf> 0.009409 0.010560 -0.037390 0.022996 0.057312 -0.066994 0.056704 0.026642 0.016753 0.078894 -0.010345 -0.019499 -0.004302 -0.020630 0.048599 -0.033932 0.009209 -0.052189 0.025286 -0.035638 0.027618 0.095374 0.042634 0.004658 0.132972 0.009782 0.084147 0.019483 -0.111018 -0.029880 -0.064424 0.066598 0.059666 -0.057900 -0.038728 -0.073636 0.035159 -0.050057 0.102004 0.056990 -0.169590 0.017502 0.019720 0.004517 -0.068707 0.063762 -0.004302 0.070486 0.024555 -0.105050 0.040054 -0.078617 -0.000334 -0.046695 -0.029659 -0.016032 -0.013786 0.009157 0.045911 -0.021394 -0.017267 -0.064023 0.008236 0.010789 0.000745 0.024130 -0.019599 0.022342 -0.087670 -0.045775 0.080248 0.089389 -0.061587 0.042722 0.041958 0.051425 0.039825 0.037995 -0.021857 0.022774 -0.024706 -0.011928 -0.096874 -0.055154 -0.000546 -0.070008 -0.020500 0.103559 0.013109 0.060675 0.086898 0.024601 -0.028820 0.016671 0.068594 -0.045466 0.014344 -0.016271 0.047368 0.040058 -0.098664 0.090955 0.030316 0.062283 -0.130595 0.012843 -0.010248 -0.029955 -0.011544 0.099987 -0.044299 -0.043232 -0.086125 0.005077 0.071385 0.103417 -0.029331 0.005267 0.074641 -0.058529 -0.011363 0.048306 0.022828 -0.044291 -0.001622 -0.026360 0.104865 0.033589 -0.001117 0.023591 -0.093742 0.000822 -0.006428 -0.015742 0.010191 0.013425 -0.098300 -0.047713 0.043742 -0.058173 0.106066 -0.047758 0.009813 0.083618 0.055841 -0.027920 -0.011423 -0.062870 -0.021771 0.096882 0.101518 -0.022716 -0.043024 0.037478 0.025308 -0.111232 -0.144764 0.075179 0.000976 0.108911 0.027343 0.036039 0.019644 -0.026061 -0.046263 -0.027194 0.075369 0.012305 0.031534 -0.056259 -0.058514 0.086943 -0.078498 -0.062801 0.008645 0.009020 0.025540 -0.124201 0.010982 0.055224 -0.078866 0.000709 0.121253 -0.045624 -0.000728 -0.028585 0.089947 0.059159 -0.071883 -0.051957 0.041778 -0.031059 -0.066719 0.031441 -0.076592 0.034873 -0.082073 -0.053013 -0.025967 0.033283 0.087182 0.040248 0.155379 0.090828 -0.051646 -0.038143 -0.072886 -0.052023 0.052455 -0.024350 0.029081 0.007016 -0.004157 0.006516 -0.046533 -0.068858 -0.008693 -0.006100 0.033135 0.023484 -0.064231 -0.041460 0.079324 0.059588 -0.085600 0.054797 0.001554 0.109834 -0.090556 0.017023 0.041870 0.016228 0.045899 -0.001345 0.066247 0.021527 -0.020443 -0.032268 0.030897 -0.020334 -0.025615 0.059378 0.048761 -0.020121 -0.071489 0.040309 0.017633 -0.106527 0.099510 0.011866 -0.092580 -0.097096 0.017089 0.021376 0.011801 -0.008247 -0.071759 0.009484 -0.047018 -0.029316 0.093940 0.083571 0.102585 -0.086382 0.001818 -0.031433 0.001772 -0.010661 0.037540 -0.013873 -0.022657 -0.012288 -0.034752 0.008650 0.081759 0.090547 -0.005265 -0.031976 -0.058740 0.043598 0.038941 -0.062490 0.010496 0.020298 -0.036450 0.028061 0.124630 0.010260 -0.061933 -0.014610 0.005992 0.076281 -0.048822 0.059232 -0.056512 0.009383 0.006156 -0.054611 0.157736 0.041694 0.005333 0.076894 -0.005034 0.045653 0.035493 -0.050561 0.069806 0.119417 0.062383 -0.007384 0.014701 0.050161 -0.047028 0.017287 0.021213 0.016378 0.044689 -0.012139 -0.023390 0.046840 0.027811 0.084413 0.031797 0.009291 0.000944 0.029824 -0.044957 0.022716 0.018122 -0.091869 -0.005819 0.062404 0.077115 -0.005990 0.097669 0.008688 0.043311 -0.041407 -0.098769 -0.047612 -0.009247 0.076016 0.050259 -0.005426 0.043428 -0.047764 -0.101765 0.019601 0.045655 0.053136 -0.056091 -0.049728 -0.012447 -0.024731 0.036381 0.017394 -0.020102 -0.044372 0.056752 -0.009865 -0.047946 -0.018196 0.015764 -0.002674 -0.016851 -0.104005 -0.027258 0.048671 0.080721 0.034993 -0.008481 0.025647 -0.117633 0.072247 0.090366 -0.019881 0.028456 0.000838 0.084783 -0.028124 -0.016330 0.070136 -0.001778 -0.041304 -0.030432 0.036636 0.020867 -0.013624 -0.103887 -0.066948 0.028531 -0.048129 -0.009069 0.012600 0.028282 0.088049 0.045620 0.020692 0.012828 -0.050251 0.025659 -0.033490 -0.035297 -0.027676 -0.044183 -0.014802 0.046008 0.092998 -0.036137 -0.024425 -0.077047 -0.041254 0.009646 -0.027770 -0.060372 0.008989 0.012033 0.039541 0.012536 -0.019462 0.026210 0.067174 0.076203 -0.024150 -0.040537 -0.000376 -0.024495 -0.104358 -0.026922 -0.033324 0.070008 -0.015612 0.060250 -0.130312 0.012119 -0.013817 -0.007149 -0.036823 -0.053149 0.015239 -0.007095 0.067655 -0.047267 -0.004683 -0.008287 -0.009748 0.051109 0.048152 -0.113822 0.017961 0.020363 0.026642 0.027405 0.046309 -0.044869 0.104212 0.039531 0.023848 -0.115709 -0.010240 0.026151 0.043167 0.042419 -0.026906 -0.080647 0.017384 -0.060023 0.061763 -0.000921 -0.054426 -0.056667 -0.027012 0.080368 0.003276 -0.000180 -0.051753 0.086424 -0.022390 -0.101276 -0.065419 0.025952 0.008290 0.021004 0.044089 0.083053 0.035399 -0.074909 0.064746 -0.062625 0.004219 0.036831 0.059580 0.055330 0.003637 -0.093465 -0.023457 -0.062728 -0.008959 0.067487 0.049806
<n><m><pl> 0.007980 0.009515 -0.033383 0.021571 0.051992 -0.061087 0.053288 0.026032 0.014918 0.072746 -0.010190 -0.017922 -0.003023 -0.019493 0.043747 -0.031161 0.007371 -0.047687 0.022271 -0.032147 0.026205 0.087506 0.039236 0.005196 0.123789 0.009881 0.077653 0.016750 -0.102655 -0.027827 -0.058868 0.060668 0.055669 -0.052030 -0.036317 -0.068759 0.032889 -0.045481 0.093920 0.051774 -0.157379 0.015636 0.017549 0.003222 -0.064044 0.058199 -0.003958 0.064594 0.022791 -0.097661 0.036350 -0.074347 -0.000506 -0.044557 -0.027415 -0.015193 -0.012364 0.008656 0.042661 -0.020306 -0.015144 -0.058756 0.008340 0.009531 0.001259 0.023086 -0.017469 0.020081 -0.081143 -0.043069 0.073169 0.083318 -0.056913 0.039426 0.037501 0.048484 0.036788 0.034286 -0.019138 0.020780 -0.023168 -0.011688 -0.089478 -0.051952 -0.001343 -0.065626 -0.019017 0.096511 0.012148 0.057272 0.079473 0.022835 -0.026244 0.014143 0.063268 -0.042892 0.012359 -0.015403 0.045241 0.037725 -0.091737 0.084003 0.028190 0.057922 -0.120802 0.010767 -0.009108 -0.028849 -0.009232 0.092480 -0.041469 -0.041135 -0.079542 0.003492 0.066934 0.096212 -0.027658 0.005920 0.070167 -0.053062 -0.010786 0.044099 0.021660 -0.042331 -0.000192 -0.024757 0.095984 0.031275 -0.000203 0.021407 -0.087770 0.000243 -0.006961 -0.013324 0.008138 0.014041 -0.090471 -0.043135 0.040717 -0.055077 0.099080 -0.044017 0.010188 0.078981 0.051872 -0.027265 -0.009390 -0.058017 -0.019689 0.089148 0.094179 -0.020907 -0.040219 0.033289 0.024056 -0.104117 -0.133919 0.069686 -0.000070 0.101093 0.025317 0.032317 0.017647 -0.023290 -0.043267 -0.023689 0.069152 0.011596 0.028728 -0.053330 -0.053947 0.080259 -0.072763 -0.058348 0.007352 0.007862 0.025278 -0.114274 0.010065 0.050039 -0.072192 0.000900 0.112598 -0.043410 0.000681 -0.025773 0.083629 0.054359 -0.067375 -0.049365 0.040048 -0.028181 -0.060816 0.029591 -0.070132 0.032322 -0.076213 -0.050454 -0.023972 0.030080 0.079362 0.038312 0.144060 0.085416 -0.047738 -0.033859 -0.068199 -0.047417 0.048323 -0.023400 0.027004 0.006973 -0.004433 0.005781 -0.042574 -0.064017 -0.007509 -0.005550 0.031150 0.021908 -0.059367 -0.037871 0.074241 0.054290 -0.079196 0.051991 0.000948 0.100779 -0.083176 0.015554 0.039621 0.013757 0.040650 -0.001865 0.060282 0.020587 -0.018043 -0.028620 0.029250 -0.020103 -0.022716 0.054847 0.046379 -0.017717 -0.066466 0.038866 0.018381 -0.098659 0.093400 0.009606 -0.085476 -0.091483 0.017280 0.020566 0.009682 -0.008220 -0.067227 0.007969 -0.043675 -0.026501 0.086170 0.076750 0.093603 -0.079732 0.003478 -0.028972 0.001747 -0.011276 0.034571 -0.013604 -0.021692 -0.011805 -0.032590 0.008034 0.075591 0.083425 -0.005327 -0.029928 -0.053600 0.040165 0.035846 -0.058432 0.008373 0.019651 -0.033134 0.024879 0.114966 0.010498 -0.056322 -0.011973 0.005288 0.071322 -0.045497 0.054417 -0.051631 0.008600 0.005944 -0.050757 0.147574 0.038086 0.004983 0.069827 -0.006020 0.042994 0.032588 -0.047150 0.064233 0.108792 0.057647 -0.005663 0.013973 0.046853 -0.042109 0.016238 0.020118 0.014333 0.039778 -0.011870 -0.020189 0.043576 0.026294 0.078137 0.028412 0.009439 -0.000705 0.027939 -0.041825 0.021364 0.015909 -0.083901 -0.003646 0.058780 0.070363 -0.006028 0.089808 0.009035 0.039949 -0.038021 -0.090993 -0.043790 -0.009661 0.071025 0.047171 -0.004121 0.041210 -0.043083 -0.096016 0.017609 0.041605 0.048504 -0.051163 -0.046193 -0.011899 -0.024638 0.033073 0.016021 -0.019511 -0.041071 0.052789 -0.008570 -0.043234 -0.017700 0.014679 -0.002674 -0.015892 -0.094422 -0.026748 0.044663 0.074713 0.032723 -0.007641 0.023798 -0.109196 0.066117 0.083099 -0.019047 0.025705 0.001362 0.079281 -0.027040 -0.014117 0.065624 -0.000694 -0.038107 -0.028072 0.034352 0.019757 -0.011136 -0.097424 -0.064023 0.026778 -0.044497 -0.009362 0.010908 0.027012 0.080435 0.041266 0.018547 0.011722 -0.047087 0.024687 -0.029887 -0.033603 -0.025304 -0.040396 -0.014625 0.042116 0.086048 -0.034794 -0.023209 -0.070740 -0.038449 0.009125 -0.027235 -0.055667 0.008685 0.011676 0.036321 0.010563 -0.019742 0.024218 0.062243 0.071649 -0.022464 -0.036892 -0.000211 -0.023149 -0.096982 -0.024908 -0.030176 0.064400 -0.015738 0.055785 -0.120967 0.010687 -0.012840 -0.005567 -0.034290 -0.048788 0.013413 -0.006050 0.062607 -0.042812 -0.005924 -0.007385 -0.010019 0.046627 0.045534 -0.105113 0.016860 0.020152 0.024604 0.025458 0.042596 -0.040971 0.097519 0.037639 0.022570 -0.108220 -0.009846 0.025448 0.039962 0.040214 -0.024412 -0.073539 0.015759 -0.056293 0.056959 -0.002211 -0.051495 -0.052996 -0.024269 0.073918 0.004500 -0.000756 -0.048951 0.080029 -0.021535 -0.094457 -0.061255 0.025690 0.007492 0.018082 0.041282 0.077332 0.033308 -0.068985 0.059507 -0.058497 0.002563 0.032752 0.054814 0.051327 0.002931 -0.086995 -0.022598 -0.057997 -0.008412 0.062883 0.045785
<vpart> 0.008723 0.009913 -0.037657 0.022757 0.056996 -0.067288 0.056944 0.027052 0.017431 0.077936 -0.010163 -0.018865 -0.003653 -0.019766 0.047986 -0.033910 0.009793 -0.051845 0.024452 -0.035468 0.028836 0.094774 0.042821 0.004937 0.133741 0.009676 0.084870 0.018173 -0.111474 -0.030375 -0.064450 0.066719 0.060080 -0.056341 -0.037703 -0.074210 0.034399 -0.049709 0.101276 0.056726 -0.169938 0.018046 0.019055 0.005213 -0.068951 0.064652 -0.005199 0.070666 0.025829 -0.105801 0.040577 -0.080352 -0.000015 -0.047904 -0.030598 -0.016660 -0.014233 0.008361 0.044610 -0.021503 -0.016828 -0.064565 0.009057 0.010290 -0.000042 0.023779 -0.020000 0.020800 -0.087839 -0.046917 0.079681 0.090845 -0.061143 0.043157 0.041110 0.050693 0.041284 0.038037 -0.021574 0.023186 -0.023975 -0.012382 -0.096923 -0.055540 -0.000874 -0.071266 -0.020216 0.103208 0.012737 0.060071 0.085770 0.026516 -0.028105 0.016089 0.069114 -0.045265 0.013560 -0.016462 0.047706 0.041606 -0.099917 0.090412 0.030725 0.062546 -0.129879 0.013160 -0.009775 -0.030774 -0.010694 0.100205 -0.044649 -0.043163 -0.087663 0.005073 0.071916 0.103957 -0.029141 0.005504 0.075782 -0.057848 -0.011927 0.047844 0.023931 -0.046138 -0.001485 -0.026587 0.104302 0.033696 0.000252 0.022704 -0.094002 0.000333 -0.007790 -0.015315 0.009652 0.014073 -0.097761 -0.048333 0.042485 -0.059472 0.106188 -0.046527 0.010175 0.085060 0.056137 -0.028499 -0.010800 -0.062948 -0.022945 0.097316 0.102858 -0.022664 -0.042930 0.036420 0.025190 -0.111553 -0.144168 0.076445 0.000570 0.107968 0.027386 0.034618 0.020494 -0.025555 -0.046129 -0.026142 0.074548 0.012952 0.031829 -0.056344 -0.058166 0.087584 -0.077559 -0.062732 0.008795 0.009365 0.026720 -0.122459 0.009970 0.054797 -0.078644 -0.000740 0.121824 -0.047128 -0.001219 -0.026957 0.089121 0.058607 -0.072242 -0.051844 0.042878 -0.030428 -0.065571 0.030775 -0.076206 0.034636 -0.081498 -0.054379 -0.026151 0.032865 0.085961 0.040921 0.155385 0.091124 -0.052081 -0.036885 -0.074001 -0.051864 0.052906 -0.024841 0.027693 0.005781 -0.004023 0.005946 -0.046691 -0.067947 -0.008785 -0.004823 0.032707 0.023450 -0.064010 -0.041440 0.078678 0.058039 -0.084420 0.054535 0.001253 0.110335 -0.089874 0.016320 0.042712 0.014455 0.045287 -0.001097 0.064881 0.022109 -0.020296 -0.030873 0.030035 -0.021109 -0.024519 0.057956 0.050362 -0.020609 -0.071476 0.040792 0.019438 -0.106284 0.100640 0.011571 -0.093722 -0.098384 0.018004 0.022338 0.010741 -0.009631 -0.072294 0.010010 -0.047391 -0.030553 0.094286 0.083503 0.101651 -0.086267 0.002833 -0.031441 0.000910 -0.011164 0.037741 -0.013860 -0.023298 -0.012059 -0.033724 0.008791 0.081275 0.091043 -0.006719 -0.033488 -0.059327 0.043581 0.038261 -0.063368 0.009891 0.020236 -0.035947 0.027994 0.124911 0.010991 -0.062007 -0.013347 0.005443 0.075708 -0.048419 0.057558 -0.056832 0.010380 0.007081 -0.053502 0.158906 0.041498 0.005033 0.075483 -0.005303 0.045941 0.035000 -0.051139 0.068829 0.119281 0.062798 -0.006511 0.014415 0.051000 -0.047313 0.016858 0.022338 0.015511 0.044357 -0.012897 -0.023646 0.046061 0.028407 0.085495 0.031768 0.010845 -0.000156 0.029654 -0.045770 0.021664 0.018248 -0.090976 -0.005176 0.063013 0.077094 -0.005938 0.097286 0.009226 0.043664 -0.039812 -0.099336 -0.046506 -0.009116 0.076339 0.050211 -0.004634 0.044712 -0.048213 -0.103550 0.018909 0.043871 0.052917 -0.055227 -0.050469 -0.011519 -0.026071 0.035372 0.017067 -0.021129 -0.044828 0.056439 -0.008666 -0.046378 -0.018316 0.016241 -0.002813 -0.018402 -0.103341 -0.028357 0.048505 0.080422 0.035524 -0.007050 0.024319 -0.119433 0.070703 0.090139 -0.020732 0.028569 0.001001 0.083998 -0.029439 -0.016758 0.070972 -0.001484 -0.042305 -0.029978 0.037444 0.020644 -0.012365 -0.104896 -0.069109 0.029660 -0.047551 -0.010155 0.011872 0.028596 0.088069 0.045071 0.020668 0.011679 -0.050309 0.026868 -0.033586 -0.035706 -0.026819 -0.043673 -0.016111 0.045488 0.093129 -0.037447 -0.024080 -0.077694 -0.041053 0.009641 -0.028795 -0.060718 0.009122 0.012022 0.039528 0.012094 -0.019907 0.026286 0.066884 0.078188 -0.022561 -0.039025 -0.000828 -0.024307 -0.104454 -0.027265 -0.033424 0.069195 -0.016856 0.061725 -0.130302 0.011132 -0.012985 -0.006680 -0.036553 -0.052464 0.014975 -0.006601 0.067754 -0.045815 -0.005510 -0.007142 -0.011100 0.050257 0.047527 -0.114118 0.017719 0.019992 0.026409 0.026343 0.046911 -0.044158 0.103889 0.040613 0.023883 -0.115289 -0.011651 0.026975 0.044221 0.043231 -0.026673 -0.079337 0.015938 -0.060028 0.061797 -0.001221 -0.056172 -0.056990 -0.027340 0.079824 0.004537 -0.001113 -0.051547 0.085365 -0.022150 -0.102600 -0.065254 0.027020 0.009132 0.019452 0.045108 0.084379 0.037086 -0.075749 0.064668 -0.063078 0.004486 0.036185 0.058144 0.055479 0.003514 -0.092826 -0.024490 -0.062684 -0.008226 0.067570 0.048302
<adj> 0.008796 0.009291 -0.036136 0.021498 0.054309 -0.065897 0.055718 0.026705 0.017215 0.076267 -0.010334 -0.018385 -0.002800 -0.019484 0.045994 -0.032190 0.009820 -0.052032 0.023849 -0.034359 0.027831 0.092409 0.041772 0.004055 0.129035 0.009166 0.081834 0.018544 -0.106803 -0.028290 -0.061736 0.064713 0.058250 -0.054847 -0.036144 -0.072073 0.034532 -0.049746 0.097677 0.055101 -0.164044 0.016341 0.018566 0.003866 -0.067724 0.062934 -0.004655 0.067665 0.024280 -0.101022 0.038762 -0.077229 -0.000079 -0.045244 -0.028841 -0.015680 -0.014106 0.008604 0.044664 -0.021174 -0.016511 -0.061233 0.008287 0.009537 -0.000069 0.022734 -0.019100 0.022024 -0.085457 -0.045983 0.077215 0.088501 -0.059798 0.041474 0.040053 0.049086 0.039671 0.036511 -0.020533 0.022443 -0.024761 -0.012994 -0.094064 -0.055069 -0.001767 -0.067985 -0.019354 0.101207 0.013205 0.059398 0.084534 0.024063 -0.028156 0.014956 0.067481 -0.044777 0.012971 -0.015812 0.046817 0.038598 -0.095207 0.088274 0.029355 0.060575 -0.126118 0.012706 -0.009579 -0.030674 -0.010979 0.097416 -0.041975 -0.043321 -0.084889 0.003498 0.069624 0.100952 -0.027272 0.005209 0.072683 -0.057231 -0.011608 0.046086 0.022248 -0.042921 -0.000962 -0.027178 0.101922 0.033149 -0.000434 0.021252 -0.092359 0.000952 -0.006778 -0.014062 0.010112 0.012794 -0.095691 -0.046019 0.042136 -0.056723 0.102785 -0.046707 0.009358 0.082034 0.053554 -0.027516 -0.011147 -0.061373 -0.021742 0.093442 0.098952 -0.021625 -0.041687 0.035292 0.024970 -0.107703 -0.139413 0.074056 0.000509 0.104453 0.027591 0.034270 0.018927 -0.024811 -0.044504 -0.025054 0.073062 0.013395 0.031180 -0.054747 -0.055766 0.085295 -0.075940 -0.061017 0.009116 0.008421 0.026051 -0.120267 0.009167 0.051962 -0.076688 0.000570 0.116637 -0.044718 -0.000572 -0.026196 0.087951 0.056123 -0.069558 -0.051741 0.041906 -0.029539 -0.064496 0.029516 -0.073411 0.034657 -0.079780 -0.051521 -0.025106 0.032377 0.083417 0.039485 0.151835 0.088080 -0.050257 -0.036023 -0.070828 -0.049092 0.051234 -0.023345 0.027118 0.005563 -0.004576 0.004934 -0.044915 -0.066530 -0.007866 -0.005642 0.033284 0.022047 -0.061411 -0.039282 0.076888 0.057400 -0.083297 0.053400 0.001318 0.106627 -0.086906 0.016703 0.041835 0.014524 0.044635 -0.002000 0.063119 0.020366 -0.019577 -0.030847 0.029483 -0.020191 -0.025059 0.056406 0.049122 -0.020123 -0.068594 0.040448 0.017736 -0.103526 0.097202 0.010799 -0.090798 -0.094988 0.016681 0.021224 0.011968 -0.009042 -0.070111 0.010058 -0.046056 -0.028556 0.090406 0.079715 0.099579 -0.082840 0.002350 -0.030438 0.000450 -0.010824 0.037857 -0.013059 -0.022858 -0.012087 -0.032377 0.008828 0.078859 0.089173 -0.005525 -0.032723 -0.057552 0.041436 0.038084 -0.061343 0.009197 0.020655 -0.035679 0.027163 0.120115 0.009948 -0.060275 -0.012704 0.007165 0.074680 -0.047484 0.056006 -0.054224 0.009541 0.006920 -0.051430 0.154700 0.039536 0.006020 0.074421 -0.004713 0.045022 0.034706 -0.048311 0.066478 0.114923 0.060473 -0.006046 0.014488 0.048485 -0.045326 0.016898 0.021845 0.015268 0.042930 -0.011581 -0.022984 0.044799 0.027507 0.083456 0.030760 0.009610 -0.000334 0.029504 -0.043226 0.022157 0.016909 -0.088170 -0.005728 0.060026 0.075169 -0.004972 0.095227 0.008833 0.040864 -0.040226 -0.096666 -0.044970 -0.009258 0.074780 0.049376 -0.004552 0.042782 -0.045682 -0.099156 0.017959 0.042739 0.051888 -0.053894 -0.047623 -0.011012 -0.025130 0.035747 0.016381 -0.019024 -0.043799 0.053979 -0.008416 -0.046752 -0.019250 0.016992 -0.001428 -0.017144 -0.100637 -0.027124 0.046732 0.077583 0.033461 -0.007322 0.024382 -0.114206 0.068889 0.087821 -0.019265 0.026649 0.000751 0.081938 -0.028183 -0.014988 0.066935 -0.000662 -0.041316 -0.030821 0.035722 0.020038 -0.012335 -0.100896 -0.065902 0.028312 -0.045827 -0.008596 0.011088 0.027952 0.084028 0.044283 0.019498 0.012128 -0.049822 0.024690 -0.031500 -0.034400 -0.025874 -0.041749 -0.015450 0.045192 0.091139 -0.035694 -0.023487 -0.075786 -0.039341 0.009169 -0.028565 -0.058657 0.008776 0.013329 0.039660 0.010517 -0.020565 0.026380 0.065050 0.075659 -0.023160 -0.037879 -0.001277 -0.025346 -0.101432 -0.026559 -0.031487 0.067825 -0.015687 0.059440 -0.125536 0.010503 -0.012467 -0.007385 -0.036744 -0.050768 0.014578 -0.006976 0.064827 -0.045830 -0.005510 -0.008613 -0.011167 0.049765 0.046278 -0.109879 0.016563 0.020184 0.025048 0.026343 0.043861 -0.044451 0.101952 0.039054 0.023073 -0.112607 -0.009374 0.025409 0.043236 0.042129 -0.026932 -0.077409 0.016182 -0.058112 0.060731 -0.002100 -0.053192 -0.053800 -0.025894 0.078931 0.002901 -0.000857 -0.051545 0.083140 -0.020806 -0.098750 -0.063068 0.025982 0.008906 0.019304 0.043210 0.080434 0.036115 -0.073685 0.061666 -0.061361 0.004602 0.035855 0.056685 0.053977 0.002390 -0.091203 -0.023587 -0.060816 -0.008269 0.065049 0.046942
<vblex><pp> 0.007537 0.008469 -0.032176 0.019765 0.050250 -0.060223 0.051315 0.023382 0.014214 0.069651 -0.008660 -0.016407 -0.003490 -0.018092 0.042343 -0.030930 0.007349 -0.047751 0.022812 -0.030343 0.025851 0.084327 0.038295 0.004938 0.118672 0.008608 0.074696 0.017261 -0.099770 -0.025994 -0.057031 0.059036 0.053468 -0.050655 -0.034885 -0.066159 0.030820 -0.045831 0.090659 0.050911 -0.151189 0.015961 0.017207 0.003354 -0.061333 0.056821 -0.005032 0.061972 0.021818 -0.094542 0.036706 -0.071748 -0.000178 -0.041307 -0.026727 -0.015558 -0.013586 0.008433 0.041312 -0.018495 -0.015314 -0.057050 0.008000 0.010547 0.000414 0.022046 -0.017616 0.019018 -0.078433 -0.041967 0.070993 0.080717 -0.056277 0.037639 0.037803 0.045837 0.036094 0.034068 -0.018582 0.021171 -0.022628 -0.011205 -0.086547 -0.048886 -0.001689 -0.062364 -0.017498 0.092208 0.012862 0.054862 0.077076 0.023312 -0.024334 0.013909 0.062376 -0.040631 0.012192 -0.013775 0.042674 0.037169 -0.087871 0.082462 0.026395 0.056651 -0.115998 0.011602 -0.009258 -0.028306 -0.009637 0.088895 -0.038660 -0.038933 -0.077671 0.004627 0.063821 0.092254 -0.026206 0.003995 0.067217 -0.052509 -0.011699 0.042037 0.021229 -0.041054 -0.000840 -0.024679 0.093768 0.030267 -0.001318 0.021258 -0.084700 -0.000153 -0.005522 -0.014623 0.009314 0.012628 -0.087602 -0.042043 0.039082 -0.051836 0.094983 -0.041524 0.009966 0.075843 0.050460 -0.025740 -0.010549 -0.055477 -0.020173 0.085427 0.091402 -0.019034 -0.038063 0.033886 0.023253 -0.100302 -0.128018 0.068276 -0.000221 0.097252 0.024917 0.030455 0.017584 -0.023545 -0.040966 -0.023778 0.067899 0.011860 0.028929 -0.051685 -0.051985 0.077677 -0.069456 -0.055275 0.008165 0.007863 0.023646 -0.110188 0.009014 0.049313 -0.070532 0.000366 0.107785 -0.041790 -0.000456 -0.023989 0.079643 0.053203 -0.064463 -0.046236 0.037267 -0.027221 -0.059449 0.026956 -0.068144 0.031807 -0.072984 -0.048872 -0.022447 0.030787 0.077206 0.036908 0.139567 0.082316 -0.047567 -0.033541 -0.066414 -0.045499 0.047148 -0.022824 0.026213 0.006486 -0.003163 0.004471 -0.041033 -0.061680 -0.008297 -0.004706 0.029477 0.021409 -0.055939 -0.035953 0.070729 0.052971 -0.076654 0.048703 0.002229 0.098195 -0.081583 0.015779 0.038149 0.014572 0.040517 -0.000764 0.058368 0.018674 -0.018860 -0.027580 0.028076 -0.018546 -0.022854 0.051199 0.044759 -0.017441 -0.064014 0.036525 0.017161 -0.094995 0.089794 0.010204 -0.082296 -0.087481 0.015479 0.019858 0.011252 -0.008491 -0.063914 0.008452 -0.042359 -0.026593 0.084673 0.073829 0.090238 -0.076357 0.003248 -0.027297 0.000909 -0.010828 0.034490 -0.011896 -0.019948 -0.011900 -0.031060 0.006956 0.072297 0.081936 -0.005496 -0.028598 -0.052184 0.038933 0.035456 -0.055308 0.010033 0.018318 -0.032745 0.025231 0.111771 0.010860 -0.055558 -0.012849 0.006446 0.067763 -0.042864 0.051643 -0.049541 0.008234 0.006463 -0.047250 0.141102 0.036061 0.006472 0.068741 -0.004747 0.040619 0.031292 -0.044957 0.060939 0.106678 0.054763 -0.006932 0.014395 0.044005 -0.042242 0.015351 0.019540 0.015223 0.039905 -0.009990 -0.020078 0.041899 0.025490 0.075737 0.028654 0.008790 -0.000305 0.026562 -0.039173 0.019348 0.016057 -0.082661 -0.003816 0.055357 0.069185 -0.005457 0.087740 0.007091 0.039204 -0.037040 -0.088456 -0.042432 -0.008641 0.069128 0.045078 -0.004438 0.038881 -0.042133 -0.091028 0.016649 0.040318 0.047140 -0.049356 -0.043300 -0.011501 -0.023048 0.032665 0.014422 -0.018383 -0.040115 0.050401 -0.008922 -0.043079 -0.017045 0.014345 -0.001713 -0.016234 -0.092790 -0.025663 0.044039 0.072309 0.032593 -0.006206 0.021921 -0.106664 0.064488 0.080885 -0.016832 0.025404 0.000395 0.076639 -0.024709 -0.013525 0.062330 -0.000887 -0.037983 -0.027557 0.032873 0.019363 -0.010659 -0.093785 -0.060996 0.025867 -0.041992 -0.009229 0.011239 0.025697 0.077715 0.040253 0.017958 0.011062 -0.044377 0.023808 -0.029934 -0.031870 -0.024338 -0.039612 -0.014058 0.041942 0.083318 -0.032629 -0.020854 -0.069844 -0.036121 0.008790 -0.025999 -0.053469 0.007722 0.011565 0.036168 0.011359 -0.017441 0.024235 0.059698 0.068834 -0.020604 -0.035798 -0.000158 -0.023334 -0.094059 -0.022687 -0.030111 0.062789 -0.014246 0.055204 -0.116360 0.010949 -0.012438 -0.004930 -0.033564 -0.047667 0.012994 -0.005940 0.059476 -0.042546 -0.005291 -0.006423 -0.009204 0.046040 0.044117 -0.101673 0.015622 0.019183 0.022140 0.024545 0.042063 -0.039720 0.093500 0.036202 0.021978 -0.104145 -0.008842 0.022921 0.038955 0.037721 -0.024717 -0.071848 0.014424 -0.053738 0.056439 -0.000635 -0.049823 -0.051084 -0.024066 0.072632 0.003013 0.000201 -0.046821 0.077262 -0.019954 -0.091427 -0.057695 0.024553 0.006451 0.017457 0.039677 0.075272 0.032246 -0.066971 0.057571 -0.056577 0.002441 0.032178 0.051829 0.049700 0.003514 -0.083473 -0.020506 -0.054579 -0.007059 0.060465 0.044564
<adv> 0.009033 0.011591 -0.039367 0.024570 0.059491 -0.070873 0.061594 0.028964 0.018794 0.084073 -0.011850 -0.021537 -0.002843 -0.021141 0.052765 -0.036480 0.009260 -0.055480 0.026630 -0.037347 0.031397 0.102747 0.046596 0.004308 0.143379 0.010684 0.090560 0.021109 -0.119050 -0.032374 -0.067450 0.069879 0.063105 -0.061074 -0.040321 -0.078221 0.038157 -0.053786 0.108939 0.060525 -0.182301 0.018443 0.021827 0.003550 -0.074676 0.067489 -0.006310 0.075074 0.026599 -0.112348 0.043897 -0.085854 0.001707 -0.051283 -0.031366 -0.016989 -0.015917 0.009614 0.048708 -0.022336 -0.017763 -0.068194 0.008299 0.011766 0.001387 0.024951 -0.020571 0.022916 -0.093566 -0.050773 0.084288 0.096781 -0.067487 0.046218 0.044939 0.054559 0.042922 0.040348 -0.023104 0.025520 -0.026012 -0.014180 -0.102584 -0.060827 -0.001013 -0.076427 -0.022276 0.111574 0.015332 0.065486 0.092351 0.027558 -0.030541 0.016792 0.074578 -0.049799 0.014551 -0.018045 0.051703 0.043537 -0.105119 0.098927 0.031989 0.066888 -0.139683 0.013275 -0.010745 -0.032274 -0.012014 0.107601 -0.046464 -0.046078 -0.093736 0.005321 0.076533 0.111382 -0.030766 0.005808 0.080916 -0.061443 -0.012465 0.050484 0.025072 -0.047607 -0.001034 -0.030242 0.111742 0.036280 -0.000584 0.024190 -0.101733 -0.000246 -0.007608 -0.017233 0.009939 0.014397 -0.105192 -0.051880 0.046659 -0.062958 0.114016 -0.051435 0.010748 0.090647 0.059639 -0.030756 -0.012650 -0.067030 -0.024228 0.102594 0.110398 -0.023619 -0.045903 0.039338 0.027595 -0.120658 -0.154498 0.081713 0.000637 0.116870 0.029354 0.036557 0.021951 -0.027416 -0.049452 -0.028600 0.080840 0.013608 0.033769 -0.062027 -0.063460 0.093089 -0.082433 -0.067235 0.008087 0.010523 0.028018 -0.132849 0.010472 0.058839 -0.085038 -0.000933 0.130494 -0.048724 -0.001273 -0.030500 0.096093 0.062164 -0.077748 -0.057191 0.044802 -0.034171 -0.070230 0.033635 -0.081517 0.038718 -0.088011 -0.058216 -0.026404 0.035269 0.094041 0.044487 0.167405 0.098767 -0.055474 -0.039571 -0.079177 -0.055025 0.056054 -0.025767 0.030875 0.006412 -0.004710 0.006056 -0.050124 -0.071932 -0.009506 -0.004773 0.035945 0.024174 -0.068578 -0.044117 0.085326 0.063373 -0.091658 0.059734 0.002203 0.118024 -0.096691 0.018321 0.045607 0.015876 0.047462 -0.002364 0.070768 0.024230 -0.021421 -0.033688 0.033911 -0.022078 -0.026639 0.063191 0.052153 -0.022525 -0.075619 0.044515 0.020780 -0.112787 0.108522 0.011856 -0.099320 -0.104743 0.018684 0.023921 0.011379 -0.008590 -0.076824 0.009661 -0.050706 -0.032605 0.099828 0.088261 0.108904 -0.091186 0.003240 -0.031807 0.000705 -0.011845 0.041755 -0.015045 -0.025448 -0.013396 -0.035877 0.009334 0.087446 0.097299 -0.006003 -0.034667 -0.063917 0.045321 0.041014 -0.068380 0.011434 0.023044 -0.038546 0.029069 0.133860 0.012698 -0.066453 -0.015590 0.006685 0.081523 -0.052997 0.062823 -0.060795 0.010501 0.007109 -0.058483 0.170624 0.045094 0.006990 0.080951 -0.006894 0.047552 0.037463 -0.053521 0.074585 0.127815 0.067408 -0.007207 0.016731 0.054908 -0.048632 0.018598 0.023572 0.018466 0.046739 -0.012406 -0.024756 0.050130 0.030380 0.091835 0.033193 0.010629 0.000884 0.031992 -0.048517 0.024419 0.019711 -0.098848 -0.005958 0.068303 0.082537 -0.006173 0.103976 0.009802 0.046287 -0.042548 -0.105475 -0.049209 -0.011751 0.082447 0.052885 -0.003865 0.045843 -0.051194 -0.109400 0.020449 0.047938 0.058320 -0.059904 -0.052908 -0.013616 -0.026635 0.038374 0.019306 -0.021812 -0.048159 0.059879 -0.009334 -0.050178 -0.020725 0.018599 -0.001614 -0.019505 -0.110959 -0.030100 0.052642 0.087156 0.037381 -0.008961 0.025452 -0.126367 0.076055 0.096979 -0.021258 0.030023 0.002425 0.091313 -0.030940 -0.018051 0.074969 -0.002373 -0.044151 -0.033121 0.039648 0.021724 -0.013048 -0.112765 -0.071973 0.030508 -0.051510 -0.009650 0.012375 0.032091 0.092798 0.046938 0.022600 0.013625 -0.053557 0.027717 -0.034234 -0.038220 -0.029051 -0.047820 -0.016309 0.049366 0.100714 -0.039385 -0.025581 -0.083370 -0.044359 0.009735 -0.031892 -0.065425 0.009275 0.014595 0.043151 0.013202 -0.021536 0.027854 0.071561 0.082858 -0.025561 -0.042883 -0.001641 -0.027293 -0.112413 -0.028666 -0.034738 0.075363 -0.016805 0.065698 -0.139415 0.013650 -0.014522 -0.007360 -0.040418 -0.057364 0.015998 -0.007520 0.071717 -0.049663 -0.005069 -0.007614 -0.010514 0.054935 0.051257 -0.121695 0.019016 0.022697 0.026911 0.029249 0.050361 -0.048067 0.112078 0.042237 0.026312 -0.124629 -0.011932 0.027813 0.047135 0.045756 -0.028639 -0.085962 0.017733 -0.065121 0.067274 -0.001738 -0.059967 -0.059645 -0.029770 0.087416 0.004686 0.000235 -0.056441 0.091726 -0.023510 -0.109292 -0.070835 0.029148 0.008516 0.020946 0.046632 0.090088 0.039273 -0.080871 0.067854 -0.067795 0.003281 0.039781 0.062138 0.058335 0.002564 -0.099027 -0.024307 -0.067297 -0.009606 0.070908 0.052674
<vblex><pri><p3><sg> 0.009719 0.009153 -0.034991 0.022145 0.053304 -0.064234 0.054132 0.026142 0.016232 0.074222 -0.009303 -0.018883 -0.003581 -0.018652 0.045703 -0.033119 0.009038 -0.050630 0.023000 -0.032245 0.026028 0.089590 0.039406 0.004702 0.126485 0.010671 0.080447 0.017793 -0.104826 -0.027510 -0.060541 0.063175 0.055549 -0.054179 -0.035360 -0.068591 0.033240 -0.048174 0.095914 0.053573 -0.160898 0.016818 0.017819 0.004658 -0.066046 0.059509 -0.005560 0.066013 0.024372 -0.098660 0.038530 -0.074473 0.001347 -0.044106 -0.028349 -0.016651 -0.013197 0.007769 0.042969 -0.020835 -0.014638 -0.060533 0.008332 0.011216 0.000325 0.022848 -0.018504 0.020554 -0.081911 -0.044890 0.075910 0.086339 -0.059142 0.040072 0.039507 0.049272 0.038229 0.034726 -0.021502 0.022711 -0.023938 -0.012567 -0.091262 -0.052833 -0.000148 -0.066572 -0.019461 0.097056 0.012154 0.056562 0.081508 0.023246 -0.025549 0.015917 0.065971 -0.044162 0.012614 -0.015057 0.045332 0.037730 -0.094066 0.086461 0.029940 0.059709 -0.122436 0.011700 -0.008981 -0.029722 -0.009815 0.093851 -0.042309 -0.041140 -0.081454 0.003277 0.067592 0.097902 -0.026384 0.005460 0.071043 -0.054832 -0.010888 0.045590 0.021941 -0.043463 -0.002068 -0.026337 0.098674 0.031375 -0.001419 0.020457 -0.089135 0.000291 -0.006845 -0.014364 0.009361 0.012666 -0.093006 -0.045700 0.041321 -0.054843 0.100877 -0.045582 0.009900 0.078773 0.052091 -0.026883 -0.010078 -0.060085 -0.020122 0.091078 0.096195 -0.021752 -0.040448 0.034670 0.024723 -0.105795 -0.135695 0.070247 0.000818 0.102095 0.025762 0.034092 0.019063 -0.023887 -0.043123 -0.025403 0.071727 0.012686 0.029253 -0.054724 -0.056058 0.081863 -0.073229 -0.059056 0.007617 0.007871 0.024399 -0.115765 0.009023 0.051418 -0.074132 0.000370 0.114338 -0.043136 -0.000957 -0.026302 0.085527 0.055300 -0.067898 -0.050129 0.039711 -0.030390 -0.062433 0.029436 -0.071581 0.032527 -0.076932 -0.050288 -0.023955 0.032224 0.081603 0.038717 0.147856 0.085503 -0.048955 -0.035230 -0.069420 -0.049400 0.049185 -0.023478 0.027087 0.005991 -0.004274 0.005587 -0.043001 -0.063388 -0.009017 -0.004939 0.032361 0.022431 -0.059989 -0.039599 0.075850 0.056278 -0.080273 0.053578 0.001797 0.103423 -0.085916 0.014729 0.040521 0.015441 0.042839 -0.001370 0.062147 0.020387 -0.019768 -0.029058 0.030058 -0.018781 -0.023473 0.055597 0.046404 -0.019300 -0.066478 0.039845 0.017940 -0.100000 0.095918 0.010481 -0.088159 -0.092399 0.016799 0.021559 0.010777 -0.008591 -0.068134 0.008957 -0.042901 -0.028528 0.089340 0.078634 0.096361 -0.081543 0.003189 -0.028993 0.000800 -0.010633 0.036570 -0.013179 -0.021185 -0.011210 -0.032012 0.007097 0.076619 0.086913 -0.004858 -0.031902 -0.054688 0.040662 0.036446 -0.060659 0.010097 0.019095 -0.034538 0.025873 0.118284 0.011011 -0.058570 -0.012882 0.005140 0.072422 -0.046521 0.056123 -0.053254 0.008494 0.005748 -0.051650 0.150837 0.039793 0.006261 0.072030 -0.005357 0.043622 0.033608 -0.047186 0.065291 0.112796 0.057733 -0.007448 0.013851 0.048000 -0.043280 0.016537 0.021439 0.015881 0.042081 -0.012072 -0.022258 0.043075 0.025602 0.080970 0.029690 0.010002 -0.000278 0.028486 -0.042493 0.021281 0.016810 -0.087308 -0.004158 0.059704 0.073527 -0.006245 0.092211 0.009002 0.040508 -0.038221 -0.094183 -0.044554 -0.009879 0.071708 0.047596 -0.004126 0.041762 -0.045650 -0.097872 0.019309 0.041735 0.050300 -0.053156 -0.046537 -0.011987 -0.024982 0.033819 0.015361 -0.018277 -0.041735 0.052901 -0.009436 -0.044768 -0.017484 0.015776 -0.002992 -0.015871 -0.098495 -0.027113 0.045042 0.077224 0.033521 -0.007623 0.022450 -0.111779 0.067347 0.084315 -0.018517 0.027068 0.002394 0.081077 -0.026883 -0.015231 0.066807 -0.001156 -0.040363 -0.030149 0.034138 0.019889 -0.012111 -0.099412 -0.063401 0.027301 -0.044173 -0.007594 0.010416 0.026681 0.083504 0.042328 0.019822 0.011376 -0.048404 0.025185 -0.030647 -0.033700 -0.026342 -0.042391 -0.015451 0.043667 0.088281 -0.034239 -0.021991 -0.072215 -0.039604 0.009027 -0.027521 -0.057974 0.008878 0.011142 0.038101 0.010424 -0.018137 0.025574 0.063563 0.072700 -0.021705 -0.038314 -0.000602 -0.024632 -0.100121 -0.023974 -0.030331 0.066239 -0.015311 0.056578 -0.122664 0.011626 -0.012755 -0.006651 -0.035041 -0.050526 0.013156 -0.007100 0.063897 -0.044989 -0.004883 -0.007401 -0.009650 0.047688 0.045829 -0.107284 0.017633 0.019919 0.024065 0.026329 0.043062 -0.042561 0.098619 0.038986 0.023025 -0.110705 -0.009377 0.025981 0.041115 0.039573 -0.026842 -0.074681 0.016524 -0.057000 0.059417 -0.002077 -0.052303 -0.052811 -0.026291 0.076380 0.004144 -0.000981 -0.050374 0.081216 -0.020619 -0.096324 -0.061494 0.025034 0.008531 0.020225 0.042138 0.078901 0.035103 -0.072234 0.060483 -0.060046 0.003900 0.035145 0.055607 0.052503 0.003454 -0.087521 -0.022187 -0.059545 -0.007204 0.063831 0.047168
<cnjcoo> 0.009144 0.009875 -0.033215 0.020285 0.053513 -0.061500 0.053031 0.025982 0.014841 0.073257 -0.010050 -0.018129 -0.003103 -0.018201 0.045404 -0.032015 0.009318 -0.049448 0.022835 -0.032892 0.026108 0.089022 0.039564 0.003719 0.123803 0.009247 0.078463 0.018403 -0.102555 -0.028420 -0.060272 0.061330 0.054004 -0.053209 -0.035405 -0.069335 0.033013 -0.047578 0.095223 0.051856 -0.157918 0.016260 0.017443 0.004265 -0.063629 0.059304 -0.005350 0.065228 0.023330 -0.097622 0.037072 -0.074235 0.000409 -0.044294 -0.028139 -0.015249 -0.013598 0.008984 0.042834 -0.018674 -0.015566 -0.060229 0.006843 0.010039 0.000752 0.021888 -0.018011 0.019639 -0.082142 -0.042800 0.074080 0.085101 -0.058710 0.039963 0.039562 0.048571 0.038288 0.034796 -0.020924 0.021129 -0.022343 -0.011690 -0.090434 -0.051931 -0.001674 -0.066078 -0.019505 0.096626 0.011896 0.057838 0.079276 0.023301 -0.025920 0.015284 0.063766 -0.043340 0.011925 -0.016097 0.044492 0.037708 -0.092669 0.086259 0.029174 0.058811 -0.121866 0.011764 -0.008941 -0.028797 -0.009876 0.093859 -0.040933 -0.040651 -0.080249 0.004688 0.065539 0.095736 -0.027968 0.005145 0.071052 -0.054879 -0.011828 0.045555 0.021283 -0.042226 -0.000817 -0.024388 0.096236 0.030913 -0.000863 0.020371 -0.088347 0.000520 -0.006187 -0.014729 0.009399 0.013293 -0.092138 -0.044782 0.039679 -0.054928 0.099558 -0.043326 0.010059 0.079142 0.052067 -0.027470 -0.010275 -0.059106 -0.019898 0.089527 0.095956 -0.021366 -0.039625 0.034371 0.023714 -0.104082 -0.134857 0.070887 0.000720 0.101810 0.026547 0.032463 0.019412 -0.023128 -0.041966 -0.024822 0.071045 0.011705 0.028330 -0.053059 -0.054483 0.081313 -0.073113 -0.058942 0.007116 0.009049 0.024976 -0.115563 0.008635 0.051692 -0.074004 0.000850 0.113082 -0.043405 -0.000053 -0.025562 0.084062 0.055384 -0.067270 -0.048215 0.040127 -0.029301 -0.062513 0.030207 -0.070942 0.032653 -0.076032 -0.050182 -0.022471 0.030414 0.080945 0.038036 0.145113 0.085979 -0.048773 -0.034824 -0.068679 -0.047593 0.047684 -0.022625 0.026445 0.006713 -0.003123 0.006534 -0.042213 -0.063781 -0.009394 -0.005199 0.031674 0.021294 -0.059509 -0.037946 0.074512 0.054510 -0.079969 0.051499 0.002036 0.102792 -0.084665 0.016339 0.039448 0.014316 0.040924 -0.001149 0.060209 0.019885 -0.019170 -0.029550 0.029117 -0.019218 -0.023086 0.054691 0.046949 -0.019261 -0.067556 0.038728 0.016581 -0.099205 0.094062 0.009926 -0.087807 -0.091886 0.017299 0.020087 0.010056 -0.008685 -0.067009 0.008243 -0.043938 -0.027387 0.088103 0.076048 0.094967 -0.080349 0.002842 -0.028969 0.001707 -0.009756 0.036203 -0.013759 -0.021650 -0.011212 -0.031855 0.007089 0.075569 0.085704 -0.004953 -0.030941 -0.055388 0.040549 0.036663 -0.058962 0.008511 0.020194 -0.033003 0.026092 0.116304 0.010607 -0.056814 -0.012287 0.006052 0.071955 -0.046020 0.054701 -0.052703 0.009745 0.006954 -0.049750 0.148541 0.038202 0.005181 0.071741 -0.005126 0.043063 0.033087 -0.046714 0.065379 0.111373 0.057631 -0.005611 0.015208 0.047625 -0.042674 0.016738 0.020786 0.014932 0.040697 -0.011649 -0.020186 0.042702 0.025727 0.079177 0.028405 0.010394 0.001073 0.028652 -0.040658 0.020519 0.017118 -0.086362 -0.003560 0.059147 0.072606 -0.004953 0.090700 0.007665 0.039387 -0.037944 -0.092917 -0.043272 -0.009296 0.072047 0.046271 -0.004641 0.040014 -0.043347 -0.095750 0.018136 0.042259 0.050128 -0.051286 -0.046818 -0.010618 -0.024824 0.033391 0.016360 -0.019896 -0.041861 0.052492 -0.009693 -0.045075 -0.018233 0.016121 -0.001947 -0.016889 -0.096873 -0.025392 0.045768 0.075659 0.033700 -0.007769 0.023151 -0.111367 0.067501 0.083579 -0.017673 0.026525 0.001401 0.079006 -0.025856 -0.016059 0.065253 -0.001539 -0.038760 -0.030094 0.033723 0.019484 -0.011771 -0.096896 -0.064119 0.026773 -0.044639 -0.007736 0.010240 0.027350 0.081651 0.042447 0.018108 0.011329 -0.046990 0.023800 -0.029506 -0.033176 -0.025700 -0.040164 -0.013458 0.044095 0.086592 -0.034128 -0.023162 -0.071501 -0.039107 0.008820 -0.025943 -0.056533 0.007730 0.011769 0.037714 0.011799 -0.018608 0.023914 0.062467 0.070790 -0.022662 -0.036236 -0.001383 -0.024123 -0.099054 -0.023945 -0.031326 0.065112 -0.014748 0.057695 -0.120830 0.010907 -0.012882 -0.007000 -0.034807 -0.049474 0.012873 -0.006184 0.063143 -0.042983 -0.005158 -0.008140 -0.009583 0.046556 0.045689 -0.106163 0.016141 0.019238 0.024625 0.024479 0.042853 -0.041933 0.098189 0.037801 0.021682 -0.109033 -0.010669 0.024682 0.040658 0.039781 -0.025661 -0.074958 0.015001 -0.057202 0.058768 -0.002227 -0.052349 -0.053459 -0.024745 0.075942 0.003808 0.000199 -0.048560 0.080409 -0.020671 -0.095703 -0.061716 0.025602 0.008337 0.018820 0.041952 0.078446 0.034048 -0.070879 0.059528 -0.058698 0.003125 0.033641 0.055402 0.051709 0.002745 -0.087405 -0.022330 -0.058870 -0.007235 0.063469 0.045162
<x> 0.008460 0.011096 -0.038089 0.022103 0.057795 -0.067772 0.058312 0.027953 0.017926 0.079535 -0.010778 -0.018714 -0.003952 -0.019867 0.049723 -0.034117 0.009653 -0.053689 0.024241 -0.035716 0.028024 0.096152 0.043580 0.004189 0.133472 0.010308 0.085360 0.018841 -0.113196 -0.029681 -0.065861 0.067309 0.059229 -0.057366 -0.039228 -0.075230 0.034792 -0.050978 0.103025 0.056294 -0.171552 0.017957 0.020524 0.005149 -0.069022 0.064807 -0.006120 0.072265 0.024918 -0.106461 0.039664 -0.079873 0.000683 -0.047359 -0.029991 -0.017316 -0.013410 0.008874 0.045216 -0.022070 -0.017542 -0.065348 0.007559 0.010631 0.001565 0.024861 -0.019131 0.022463 -0.087887 -0.047916 0.080981 0.092106 -0.062548 0.042420 0.042345 0.051891 0.041537 0.038413 -0.022088 0.023208 -0.023967 -0.013145 -0.098278 -0.057541 -0.000870 -0.072217 -0.020840 0.103546 0.013143 0.061866 0.087133 0.025781 -0.028581 0.016704 0.069866 -0.045737 0.013228 -0.015819 0.048918 0.040805 -0.101244 0.092684 0.031654 0.063048 -0.131457 0.013445 -0.010159 -0.032205 -0.010593 0.101333 -0.044309 -0.044485 -0.088408 0.004848 0.072088 0.105907 -0.029015 0.005551 0.076997 -0.058505 -0.012664 0.049299 0.024689 -0.046166 -0.000635 -0.027430 0.106429 0.032847 -0.000811 0.023374 -0.095282 0.000284 -0.007971 -0.015716 0.009098 0.014949 -0.100228 -0.049074 0.044491 -0.059856 0.106381 -0.047397 0.009468 0.085318 0.057464 -0.029206 -0.010876 -0.063964 -0.022748 0.098186 0.104316 -0.021775 -0.042833 0.036697 0.026448 -0.113782 -0.144953 0.075890 0.000431 0.109704 0.027375 0.035815 0.019627 -0.026236 -0.045618 -0.025851 0.077292 0.014661 0.031084 -0.057544 -0.058234 0.088026 -0.079529 -0.063787 0.008045 0.009382 0.025950 -0.125449 0.009835 0.055786 -0.079763 0.000581 0.122902 -0.046397 0.000647 -0.028362 0.090606 0.058858 -0.072308 -0.052963 0.041865 -0.031882 -0.067300 0.031951 -0.077262 0.036189 -0.083736 -0.054267 -0.025615 0.034874 0.088179 0.042232 0.158516 0.093172 -0.052752 -0.038478 -0.074879 -0.052273 0.052661 -0.024113 0.027735 0.006623 -0.004022 0.005708 -0.047813 -0.068915 -0.008147 -0.005834 0.034658 0.024458 -0.064710 -0.040675 0.081417 0.058916 -0.086793 0.056371 0.000920 0.110089 -0.091910 0.016019 0.042405 0.014770 0.045243 -0.000717 0.066163 0.022455 -0.019660 -0.032584 0.031990 -0.021589 -0.024607 0.058316 0.049682 -0.019617 -0.072262 0.042254 0.018149 -0.107090 0.102379 0.011270 -0.093812 -0.099340 0.017939 0.023471 0.012063 -0.009760 -0.073403 0.010104 -0.047499 -0.029405 0.094941 0.084138 0.102960 -0.085805 0.003752 -0.030125 0.001444 -0.011929 0.038320 -0.014266 -0.023383 -0.013362 -0.035035 0.008679 0.082462 0.092005 -0.006245 -0.033565 -0.059704 0.042477 0.039250 -0.062832 0.009850 0.021618 -0.036159 0.029124 0.125808 0.010871 -0.062588 -0.014406 0.006913 0.077035 -0.048686 0.058279 -0.056770 0.009253 0.006536 -0.054432 0.161558 0.041902 0.006584 0.077670 -0.006460 0.045764 0.034561 -0.052418 0.069225 0.119898 0.062602 -0.006515 0.016008 0.050155 -0.046479 0.017821 0.021855 0.017435 0.044913 -0.013161 -0.021915 0.046856 0.028550 0.086015 0.030678 0.010278 -0.000565 0.030752 -0.046145 0.022004 0.018643 -0.093312 -0.004762 0.062984 0.078343 -0.005376 0.099429 0.008628 0.043035 -0.041999 -0.100839 -0.047124 -0.010626 0.078020 0.051468 -0.005020 0.044278 -0.047224 -0.103243 0.020200 0.044691 0.054577 -0.056241 -0.050754 -0.012429 -0.025155 0.036658 0.017602 -0.020203 -0.044763 0.056028 -0.008946 -0.047084 -0.018802 0.016229 -0.001721 -0.018382 -0.103869 -0.028367 0.048706 0.080815 0.036069 -0.007937 0.024614 -0.119422 0.073346 0.091426 -0.019486 0.027786 0.000586 0.085332 -0.028530 -0.015950 0.069958 -0.002301 -0.041644 -0.032549 0.036180 0.022169 -0.013054 -0.106363 -0.069678 0.028571 -0.048236 -0.009685 0.012541 0.028456 0.087852 0.045983 0.020249 0.013052 -0.051466 0.025643 -0.033566 -0.036779 -0.027409 -0.044666 -0.015740 0.046517 0.094660 -0.038139 -0.025386 -0.077888 -0.042185 0.009295 -0.028765 -0.061652 0.009364 0.012629 0.040200 0.012256 -0.020318 0.027120 0.067317 0.078636 -0.024004 -0.040203 -0.000305 -0.024703 -0.107579 -0.025965 -0.031964 0.070239 -0.016366 0.062427 -0.130861 0.012957 -0.014676 -0.006735 -0.036755 -0.055114 0.014746 -0.007251 0.067550 -0.046871 -0.005123 -0.008219 -0.011163 0.050959 0.049152 -0.113871 0.017882 0.021674 0.027064 0.028460 0.047317 -0.045161 0.105274 0.041309 0.024245 -0.117863 -0.010145 0.026408 0.043595 0.042919 -0.027891 -0.081661 0.017279 -0.061116 0.063308 -0.000291 -0.055775 -0.056348 -0.026978 0.081821 0.003351 -0.001058 -0.053149 0.086319 -0.023100 -0.103354 -0.066433 0.027885 0.008518 0.020864 0.044127 0.084906 0.036877 -0.077028 0.065147 -0.063994 0.004649 0.036183 0.058999 0.055129 0.002836 -0.094487 -0.023989 -0.062113 -0.007498 0.067969 0.049179
<cm> 0.008386 0.008796 -0.035808 0.021430 0.053141 -0.064490 0.055380 0.025632 0.015878 0.074006 -0.010966 -0.018435 -0.004032 -0.018416 0.046903 -0.032361 0.008459 -0.049345 0.024052 -0.033950 0.027386 0.089899 0.040609 0.004007 0.126433 0.009423 0.079861 0.018983 -0.106651 -0.027914 -0.060089 0.063057 0.056979 -0.055387 -0.035878 -0.070424 0.034683 -0.047234 0.097122 0.053851 -0.162506 0.016140 0.017810 0.004554 -0.066694 0.061093 -0.005894 0.067208 0.022953 -0.099410 0.038734 -0.076634 -0.000475 -0.045250 -0.029028 -0.015367 -0.012599 0.008199 0.044450 -0.020876 -0.014719 -0.061357 0.006630 0.011041 0.000871 0.023934 -0.018751 0.021361 -0.083577 -0.045441 0.075171 0.087125 -0.060116 0.040681 0.038901 0.048435 0.038160 0.036468 -0.019725 0.022776 -0.023379 -0.012448 -0.092118 -0.053510 -0.000978 -0.067586 -0.018999 0.099535 0.012407 0.057427 0.082561 0.024947 -0.026570 0.014425 0.065778 -0.043878 0.013291 -0.015970 0.046352 0.038916 -0.094256 0.086880 0.028288 0.060190 -0.124349 0.012116 -0.009096 -0.030052 -0.010505 0.095537 -0.041138 -0.041367 -0.083321 0.004905 0.069012 0.099342 -0.028222 0.004484 0.071900 -0.055558 -0.011636 0.045318 0.023078 -0.043927 -0.000991 -0.025915 0.099660 0.030954 -0.000544 0.020947 -0.090592 0.000291 -0.006962 -0.014618 0.009889 0.014325 -0.094088 -0.046168 0.040541 -0.056291 0.101993 -0.044936 0.009829 0.079749 0.053874 -0.027268 -0.009807 -0.059931 -0.020583 0.091865 0.098252 -0.021951 -0.040418 0.034562 0.025008 -0.106706 -0.136791 0.071043 0.001240 0.104281 0.026717 0.034313 0.018641 -0.023684 -0.044396 -0.026201 0.072243 0.013176 0.029833 -0.054913 -0.056131 0.083363 -0.074313 -0.060116 0.008304 0.009240 0.025425 -0.118324 0.009424 0.051557 -0.074440 -0.000571 0.115117 -0.044211 0.000090 -0.026723 0.084735 0.055811 -0.069487 -0.049237 0.040053 -0.029258 -0.063971 0.031022 -0.073129 0.032763 -0.078807 -0.051810 -0.023925 0.031873 0.082903 0.038992 0.148712 0.087996 -0.050422 -0.035849 -0.069585 -0.048396 0.049443 -0.024147 0.027489 0.006344 -0.003225 0.006319 -0.045198 -0.064108 -0.008163 -0.004726 0.031967 0.021555 -0.059663 -0.039522 0.076476 0.056198 -0.081399 0.053012 0.002421 0.103904 -0.085273 0.015343 0.040360 0.015266 0.042123 -0.001553 0.062343 0.020173 -0.018520 -0.028881 0.028919 -0.019127 -0.024363 0.055198 0.046373 -0.019954 -0.068999 0.039406 0.018327 -0.101375 0.096644 0.009643 -0.089093 -0.092252 0.017786 0.020230 0.010814 -0.007370 -0.068079 0.009316 -0.045148 -0.027659 0.089089 0.078925 0.096374 -0.082791 0.002850 -0.029656 0.001065 -0.011807 0.036910 -0.013289 -0.021798 -0.011164 -0.032786 0.008395 0.077730 0.086696 -0.006596 -0.032197 -0.056255 0.041836 0.036857 -0.059186 0.010126 0.020700 -0.034306 0.027234 0.119351 0.011407 -0.058370 -0.013535 0.005129 0.072555 -0.045943 0.055136 -0.054156 0.008449 0.007211 -0.052117 0.152422 0.039570 0.006387 0.071828 -0.005714 0.044269 0.033462 -0.049039 0.066850 0.113843 0.059568 -0.006244 0.015009 0.048327 -0.044402 0.017136 0.020585 0.014701 0.041400 -0.012157 -0.021801 0.045297 0.026713 0.081719 0.030606 0.010533 0.000643 0.027983 -0.043577 0.022342 0.017586 -0.087660 -0.004747 0.060830 0.074097 -0.005612 0.093732 0.008886 0.042077 -0.038080 -0.094175 -0.043902 -0.009789 0.072887 0.048666 -0.003988 0.042142 -0.045558 -0.098461 0.017436 0.043035 0.051465 -0.052992 -0.046262 -0.011787 -0.023710 0.033763 0.015649 -0.019362 -0.042998 0.053587 -0.008194 -0.044220 -0.018639 0.016177 -0.002779 -0.016764 -0.098272 -0.026233 0.046903 0.076554 0.033921 -0.006292 0.023866 -0.113356 0.067735 0.085505 -0.019482 0.026956 0.000531 0.081429 -0.027591 -0.016492 0.065767 -0.001640 -0.040718 -0.029066 0.033896 0.019373 -0.012005 -0.100355 -0.065829 0.027265 -0.044935 -0.008550 0.010650 0.026733 0.083304 0.042159 0.020399 0.012295 -0.048841 0.024199 -0.031590 -0.034688 -0.025649 -0.041436 -0.014950 0.044177 0.089905 -0.035433 -0.022346 -0.072787 -0.038271 0.008114 -0.028448 -0.058286 0.007656 0.011394 0.037758 0.012030 -0.019726 0.024576 0.064331 0.073385 -0.023056 -0.038750 -0.001083 -0.024483 -0.100663 -0.024490 -0.030194 0.065732 -0.015558 0.058349 -0.123737 0.011486 -0.013966 -0.006387 -0.034743 -0.051568 0.012940 -0.006806 0.064079 -0.044649 -0.006048 -0.007829 -0.010540 0.047197 0.045992 -0.108051 0.017270 0.020331 0.025294 0.025644 0.043657 -0.042992 0.100800 0.039373 0.021950 -0.110859 -0.010593 0.025918 0.042097 0.040015 -0.025440 -0.076305 0.015662 -0.057005 0.059941 -0.001116 -0.051990 -0.054298 -0.026616 0.076378 0.003168 -0.000744 -0.050373 0.080958 -0.021179 -0.098049 -0.063183 0.025571 0.008712 0.020067 0.042247 0.079519 0.033613 -0.072258 0.060153 -0.059162 0.003692 0.034466 0.055977 0.051583 0.002809 -0.089566 -0.022202 -0.058603 -0.007184 0.063607 0.045812
<np><sg> 0.011292 0.010736 -0.039912 0.024977 0.063664 -0.075786 0.063285 0.030900 0.019635 0.086877 -0.010812 -0.021256 -0.004563 -0.022530 0.053347 -0.037943 0.010430 -0.058547 0.028124 -0.039683 0.032223 0.106856 0.048163 0.006053 0.147599 0.011070 0.094052 0.022009 -0.124051 -0.034399 -0.070626 0.074263 0.067306 -0.062541 -0.042750 -0.081033 0.038484 -0.056950 0.113712 0.063541 -0.190066 0.020461 0.022165 0.004919 -0.076501 0.070406 -0.005957 0.078653 0.028321 -0.117054 0.044599 -0.088006 0.001005 -0.052146 -0.032625 -0.019985 -0.014722 0.008738 0.050652 -0.024020 -0.017398 -0.071696 0.008706 0.012012 0.001112 0.026041 -0.020595 0.024061 -0.097726 -0.051851 0.089025 0.100535 -0.070200 0.048032 0.046812 0.058432 0.046069 0.041183 -0.024312 0.026388 -0.028024 -0.015048 -0.106667 -0.063446 0.000065 -0.079069 -0.023536 0.116109 0.015444 0.068228 0.097245 0.029853 -0.031058 0.017401 0.077452 -0.051753 0.013934 -0.017969 0.052901 0.044448 -0.110057 0.102051 0.034964 0.069755 -0.144323 0.013479 -0.010521 -0.034109 -0.012758 0.112160 -0.049584 -0.047630 -0.097179 0.004457 0.079632 0.115117 -0.032961 0.005909 0.084892 -0.064595 -0.014755 0.052693 0.025245 -0.050022 -0.000753 -0.031121 0.116937 0.036237 0.000279 0.026598 -0.105390 0.000992 -0.007574 -0.016280 0.009685 0.016391 -0.110511 -0.054656 0.049108 -0.065795 0.117939 -0.052403 0.011910 0.094786 0.061685 -0.031350 -0.012901 -0.071321 -0.025538 0.107929 0.113805 -0.024175 -0.047702 0.042295 0.027763 -0.125849 -0.160839 0.083575 0.001309 0.121565 0.031320 0.038602 0.023168 -0.028784 -0.052075 -0.030220 0.083571 0.014733 0.035016 -0.062875 -0.064186 0.097642 -0.087548 -0.068673 0.010365 0.009734 0.029649 -0.138234 0.011071 0.059557 -0.088187 0.000959 0.135595 -0.050764 -0.000985 -0.030346 0.100645 0.065938 -0.079706 -0.057982 0.047102 -0.034712 -0.073747 0.035726 -0.083984 0.040466 -0.092789 -0.060814 -0.028174 0.036713 0.097657 0.046526 0.173706 0.101647 -0.058744 -0.041551 -0.082639 -0.056560 0.057314 -0.026036 0.031082 0.007009 -0.004677 0.007491 -0.052262 -0.075526 -0.009175 -0.005547 0.038134 0.026504 -0.070397 -0.046443 0.089266 0.065714 -0.094450 0.061570 0.002061 0.121588 -0.101316 0.017775 0.046373 0.016586 0.050033 -0.001631 0.074019 0.023677 -0.023286 -0.034791 0.034037 -0.024049 -0.027212 0.064932 0.056254 -0.021444 -0.078820 0.046592 0.020591 -0.116909 0.113160 0.012111 -0.103898 -0.108128 0.019056 0.024372 0.012874 -0.009865 -0.080748 0.011700 -0.051756 -0.032232 0.105868 0.092188 0.114061 -0.096748 0.003408 -0.033553 0.000659 -0.011919 0.042064 -0.016592 -0.025301 -0.014445 -0.038944 0.010312 0.089552 0.101923 -0.007288 -0.035858 -0.065825 0.047424 0.043185 -0.069546 0.010810 0.022615 -0.040929 0.030288 0.138457 0.012843 -0.069103 -0.015016 0.006414 0.083807 -0.055183 0.065422 -0.063074 0.010250 0.006514 -0.060568 0.176518 0.045365 0.007763 0.085526 -0.006585 0.051015 0.037908 -0.056152 0.077668 0.133341 0.068983 -0.008656 0.016354 0.055746 -0.052349 0.019873 0.025230 0.018013 0.049496 -0.014065 -0.025543 0.052856 0.031636 0.095341 0.034717 0.011549 0.001279 0.032654 -0.051115 0.024512 0.019330 -0.102886 -0.005043 0.070995 0.084780 -0.007075 0.108896 0.010557 0.048757 -0.044909 -0.111577 -0.051576 -0.011960 0.084856 0.055977 -0.004639 0.047866 -0.053205 -0.115079 0.022035 0.050215 0.059660 -0.061755 -0.055522 -0.014520 -0.028716 0.040822 0.018743 -0.023453 -0.049738 0.063268 -0.010150 -0.051943 -0.020648 0.019377 -0.002422 -0.020463 -0.115706 -0.030817 0.053911 0.090368 0.040611 -0.007945 0.026986 -0.132716 0.080218 0.100571 -0.021986 0.031054 0.002247 0.093858 -0.032209 -0.018862 0.077570 -0.001397 -0.047268 -0.035718 0.040238 0.023600 -0.013472 -0.117393 -0.076329 0.033117 -0.053380 -0.010610 0.012595 0.031223 0.098460 0.050500 0.023517 0.014825 -0.056846 0.028789 -0.037349 -0.038844 -0.030528 -0.050428 -0.017843 0.050742 0.105456 -0.041052 -0.026504 -0.086529 -0.045588 0.009382 -0.032841 -0.068467 0.009394 0.013048 0.044780 0.014216 -0.022918 0.030363 0.073644 0.085907 -0.025460 -0.044967 -0.001434 -0.029147 -0.117532 -0.028346 -0.037151 0.077872 -0.017371 0.067087 -0.144459 0.012918 -0.016489 -0.006749 -0.040523 -0.060040 0.017164 -0.008152 0.073873 -0.053081 -0.006836 -0.009943 -0.010744 0.056283 0.054737 -0.124908 0.020180 0.023901 0.028510 0.029584 0.050836 -0.050857 0.117232 0.045564 0.027151 -0.129639 -0.012306 0.029087 0.049743 0.046975 -0.031576 -0.088109 0.019182 -0.067541 0.070594 -0.001947 -0.060686 -0.063961 -0.030115 0.091110 0.004978 -0.000142 -0.059031 0.094893 -0.024640 -0.113246 -0.073935 0.028549 0.008632 0.023331 0.049565 0.093265 0.039362 -0.084061 0.072088 -0.070805 0.005152 0.040824 0.065504 0.061095 0.003865 -0.104075 -0.026892 -0.070172 -0.008482 0.074853 0.054913
<n><f><pl> 0.007994 0.009135 -0.028730 0.019182 0.045684 -0.054952 0.046668 0.021536 0.013762 0.064067 -0.008231 -0.016234 -0.001999 -0.016968 0.039169 -0.027541 0.007156 -0.042507 0.020322 -0.027644 0.023973 0.077769 0.033651 0.003921 0.107750 0.008534 0.068516 0.014941 -0.090142 -0.024329 -0.050735 0.054305 0.047020 -0.046494 -0.030779 -0.058599 0.028356 -0.039987 0.081847 0.045532 -0.137981 0.013805 0.016435 0.003758 -0.055978 0.052579 -0.003782 0.057040 0.019266 -0.084489 0.033376 -0.065420 -0.000249 -0.039275 -0.024657 -0.014512 -0.011574 0.008043 0.035880 -0.017532 -0.012813 -0.051494 0.005900 0.009315 0.001460 0.020485 -0.014816 0.017178 -0.071687 -0.037149 0.064139 0.072797 -0.051165 0.034411 0.033793 0.042060 0.033721 0.029761 -0.017680 0.019407 -0.019181 -0.010777 -0.078908 -0.044280 -0.000883 -0.056382 -0.015922 0.083986 0.010784 0.050268 0.069855 0.021030 -0.021954 0.013437 0.055287 -0.037000 0.011539 -0.013430 0.039747 0.032287 -0.080726 0.074730 0.025260 0.050929 -0.105775 0.011156 -0.008923 -0.024121 -0.008950 0.080217 -0.035254 -0.034755 -0.070742 0.003076 0.056760 0.084602 -0.023339 0.003980 0.062056 -0.047837 -0.009819 0.039706 0.018873 -0.035970 -0.000185 -0.021752 0.084166 0.026104 -0.001436 0.018716 -0.076733 0.000497 -0.005545 -0.011489 0.008265 0.011264 -0.079864 -0.038349 0.035229 -0.047101 0.086753 -0.039258 0.008702 0.067671 0.046356 -0.022868 -0.009550 -0.050275 -0.018725 0.078363 0.082946 -0.017922 -0.034965 0.030797 0.020581 -0.090277 -0.117043 0.062112 0.001119 0.088739 0.021735 0.029143 0.016427 -0.019918 -0.038144 -0.021244 0.060077 0.010064 0.025538 -0.046248 -0.047511 0.070688 -0.063900 -0.050846 0.006363 0.007338 0.022163 -0.100562 0.009144 0.043703 -0.063546 -0.000062 0.098910 -0.036473 -0.000528 -0.021810 0.073477 0.048524 -0.057271 -0.043100 0.033554 -0.024439 -0.053534 0.026042 -0.060741 0.028320 -0.065643 -0.043170 -0.020509 0.027358 0.070377 0.033231 0.126998 0.073303 -0.042407 -0.029619 -0.058601 -0.042452 0.042406 -0.019043 0.023623 0.004358 -0.002156 0.005282 -0.036973 -0.055852 -0.006276 -0.003862 0.026241 0.019120 -0.052125 -0.034210 0.063935 0.048316 -0.069736 0.044736 0.000987 0.089433 -0.073141 0.013439 0.034623 0.011638 0.037182 -0.001653 0.052426 0.017834 -0.017521 -0.024912 0.025709 -0.016626 -0.019807 0.047287 0.040442 -0.015855 -0.057744 0.032706 0.016050 -0.085673 0.081515 0.009116 -0.076134 -0.078931 0.013664 0.018814 0.009168 -0.006792 -0.057829 0.007714 -0.038019 -0.024533 0.076822 0.067842 0.083023 -0.069669 0.003029 -0.024563 0.000463 -0.009157 0.030860 -0.011443 -0.019707 -0.009825 -0.026873 0.006300 0.065245 0.074187 -0.004894 -0.025957 -0.047281 0.034886 0.031676 -0.050247 0.008552 0.016972 -0.028704 0.023080 0.100386 0.008307 -0.049918 -0.011081 0.005619 0.062637 -0.039472 0.047985 -0.045399 0.007219 0.006472 -0.043005 0.127563 0.033720 0.004394 0.061772 -0.003736 0.037658 0.028793 -0.040368 0.056581 0.096448 0.050814 -0.004661 0.012445 0.040093 -0.037299 0.014486 0.017569 0.014122 0.034982 -0.009817 -0.018457 0.037543 0.023410 0.069833 0.025871 0.007863 0.000735 0.025005 -0.035996 0.018231 0.014649 -0.074005 -0.003281 0.051605 0.061528 -0.004128 0.078613 0.007783 0.034397 -0.032601 -0.079819 -0.038330 -0.008892 0.062749 0.040012 -0.004425 0.035607 -0.038700 -0.083960 0.016232 0.035918 0.043642 -0.045045 -0.039828 -0.009550 -0.020248 0.028228 0.014542 -0.016610 -0.036620 0.045598 -0.006604 -0.038661 -0.015944 0.012769 -0.002462 -0.014822 -0.082754 -0.022866 0.040211 0.065452 0.028146 -0.005370 0.019455 -0.096819 0.057561 0.072917 -0.016885 0.022356 0.001724 0.068252 -0.022691 -0.013738 0.056608 -0.001659 -0.033591 -0.025724 0.030160 0.016362 -0.009673 -0.084973 -0.054916 0.023744 -0.038178 -0.008186 0.009676 0.024171 0.070751 0.036974 0.016276 0.010330 -0.039937 0.021667 -0.025466 -0.028680 -0.022818 -0.035336 -0.012787 0.038038 0.075816 -0.029235 -0.018843 -0.063459 -0.032896 0.007998 -0.023272 -0.049913 0.006633 0.009301 0.032051 0.009775 -0.015755 0.022018 0.053580 0.063455 -0.018483 -0.032995 -0.001606 -0.021054 -0.085379 -0.021412 -0.027199 0.057173 -0.012651 0.049832 -0.104226 0.009938 -0.010419 -0.004800 -0.030719 -0.042703 0.010915 -0.005582 0.053471 -0.038093 -0.005207 -0.006773 -0.007505 0.041295 0.040187 -0.091652 0.013521 0.017617 0.020915 0.021324 0.036780 -0.037454 0.084515 0.032670 0.019765 -0.094517 -0.008663 0.022446 0.036313 0.035384 -0.021566 -0.063729 0.013045 -0.049862 0.051203 -0.001818 -0.045405 -0.046264 -0.022265 0.065920 0.003698 -0.000877 -0.041774 0.069972 -0.018305 -0.083604 -0.053686 0.021285 0.005771 0.017202 0.036621 0.066868 0.030237 -0.061304 0.051369 -0.051709 0.002803 0.029819 0.046985 0.044215 0.002538 -0.075787 -0.018940 -0.050370 -0.007488 0.053788 0.039283
<num><pl> 0.008183 0.010002 -0.033386 0.021080 0.050009 -0.059487 0.051535 0.024583 0.015192 0.069585 -0.008845 -0.016978 -0.002408 -0.017855 0.044185 -0.031251 0.007270 -0.047168 0.022516 -0.031074 0.025268 0.085949 0.037539 0.005074 0.119436 0.009662 0.074496 0.017638 -0.100101 -0.026371 -0.057417 0.059375 0.053692 -0.050174 -0.034271 -0.066491 0.031367 -0.045932 0.091648 0.051440 -0.151927 0.015395 0.018252 0.003447 -0.061258 0.057287 -0.005558 0.063624 0.021943 -0.093842 0.036636 -0.071842 0.001100 -0.043099 -0.026554 -0.015751 -0.013612 0.007605 0.040564 -0.018175 -0.013696 -0.057545 0.008073 0.009884 0.000670 0.020717 -0.017269 0.020252 -0.079294 -0.041243 0.070838 0.080124 -0.054957 0.039233 0.037038 0.045767 0.036887 0.033858 -0.019836 0.020134 -0.021178 -0.011382 -0.085352 -0.049560 0.000115 -0.062622 -0.017992 0.092049 0.012924 0.055209 0.078131 0.023435 -0.025541 0.015109 0.062360 -0.041511 0.012715 -0.014115 0.043715 0.035976 -0.089135 0.082079 0.026719 0.056009 -0.116671 0.012291 -0.008060 -0.027515 -0.010130 0.090154 -0.040133 -0.038887 -0.077539 0.003030 0.064976 0.092495 -0.025152 0.004276 0.068125 -0.051219 -0.011820 0.042401 0.021470 -0.041405 -0.000436 -0.024778 0.094317 0.030251 -0.000831 0.021180 -0.083581 -0.000516 -0.006680 -0.013642 0.009284 0.012049 -0.088594 -0.042188 0.039001 -0.051539 0.095117 -0.043243 0.008462 0.076314 0.049591 -0.026297 -0.009616 -0.056463 -0.020067 0.087332 0.091799 -0.019759 -0.038907 0.032081 0.022569 -0.100665 -0.128805 0.067445 0.000161 0.097847 0.024848 0.031187 0.016882 -0.022329 -0.041727 -0.023507 0.067672 0.012766 0.028472 -0.050986 -0.052990 0.077622 -0.069965 -0.056087 0.007509 0.007102 0.024332 -0.110787 0.009828 0.049266 -0.070540 0.000701 0.109376 -0.040976 -0.000942 -0.023915 0.080447 0.053159 -0.064961 -0.047374 0.038020 -0.028864 -0.059415 0.028360 -0.068940 0.032267 -0.073578 -0.048026 -0.022792 0.030499 0.078674 0.035628 0.138951 0.082400 -0.047852 -0.033391 -0.065358 -0.046841 0.045484 -0.021459 0.025918 0.005944 -0.003996 0.004472 -0.041227 -0.060940 -0.007210 -0.005286 0.030554 0.020455 -0.055813 -0.037377 0.071489 0.052947 -0.076291 0.050256 0.001064 0.097851 -0.080051 0.015096 0.037927 0.013570 0.039828 -0.000992 0.057794 0.019783 -0.017684 -0.027231 0.027419 -0.018588 -0.021767 0.052994 0.045280 -0.018849 -0.063241 0.036985 0.016521 -0.094083 0.090792 0.009709 -0.084485 -0.088002 0.016769 0.020741 0.010505 -0.007752 -0.064352 0.009305 -0.040851 -0.027108 0.084466 0.074735 0.090245 -0.077466 0.002421 -0.027402 0.001405 -0.009396 0.034701 -0.011926 -0.021014 -0.010706 -0.029804 0.008025 0.072972 0.081641 -0.005712 -0.030319 -0.052692 0.039101 0.035394 -0.057460 0.008988 0.018734 -0.031886 0.025238 0.112121 0.010148 -0.054653 -0.011595 0.006477 0.068358 -0.044220 0.053235 -0.049793 0.008401 0.007126 -0.048809 0.142694 0.036051 0.006231 0.069015 -0.003886 0.039850 0.031966 -0.046248 0.061557 0.106932 0.056322 -0.006871 0.014337 0.044763 -0.040853 0.015559 0.019619 0.015634 0.038946 -0.010634 -0.021403 0.042680 0.025032 0.076901 0.027844 0.008407 0.000997 0.026864 -0.040778 0.020880 0.015769 -0.082599 -0.005278 0.057243 0.068722 -0.005805 0.087640 0.008462 0.039428 -0.035396 -0.088827 -0.042371 -0.009899 0.068052 0.045765 -0.003780 0.039612 -0.042253 -0.091365 0.017176 0.041006 0.048095 -0.048638 -0.044844 -0.011464 -0.023497 0.032232 0.015537 -0.018765 -0.039374 0.049645 -0.008402 -0.042062 -0.017336 0.015810 -0.002609 -0.015256 -0.092386 -0.025120 0.044060 0.072180 0.031025 -0.007074 0.022464 -0.107034 0.064315 0.080268 -0.016689 0.025127 0.000913 0.076470 -0.025077 -0.015463 0.062535 -0.000474 -0.037380 -0.027416 0.032922 0.018116 -0.010987 -0.092825 -0.061373 0.025399 -0.042866 -0.007847 0.010856 0.026468 0.078283 0.039026 0.017426 0.010939 -0.045207 0.023065 -0.028407 -0.031119 -0.024848 -0.039023 -0.014262 0.041670 0.084431 -0.033325 -0.022372 -0.068878 -0.036659 0.007492 -0.026530 -0.054576 0.006967 0.011993 0.036758 0.009585 -0.017503 0.023936 0.060401 0.068908 -0.021077 -0.035900 -0.000241 -0.023472 -0.094781 -0.023664 -0.028320 0.062187 -0.013853 0.054480 -0.115996 0.010817 -0.011456 -0.005155 -0.033222 -0.048061 0.013090 -0.005416 0.060845 -0.042602 -0.005639 -0.006552 -0.009217 0.045301 0.044109 -0.101425 0.015308 0.018013 0.022474 0.024724 0.041304 -0.041187 0.093295 0.036096 0.021181 -0.103385 -0.008761 0.024833 0.039359 0.038842 -0.023997 -0.070595 0.015331 -0.053642 0.055363 -0.001828 -0.048574 -0.051507 -0.024536 0.071627 0.004134 -0.001126 -0.047690 0.077677 -0.019884 -0.091374 -0.059318 0.023726 0.007226 0.017562 0.040736 0.074310 0.033338 -0.068516 0.057902 -0.057269 0.003878 0.032472 0.052177 0.049527 0.002604 -0.083634 -0.021511 -0.056448 -0.006590 0.060338 0.043357
<det><pos> 0.006707 0.009044 -0.031201 0.017827 0.047174 -0.056271 0.046723 0.022335 0.014063 0.064392 -0.009594 -0.015649 -0.002160 -0.016042 0.039555 -0.027530 0.006666 -0.042642 0.020566 -0.027961 0.023314 0.078619 0.035626 0.003368 0.109929 0.008220 0.069879 0.016910 -0.092395 -0.023758 -0.053149 0.054163 0.047695 -0.047642 -0.031339 -0.061587 0.029698 -0.042298 0.084009 0.047004 -0.140888 0.015577 0.016717 0.002855 -0.057522 0.052534 -0.003627 0.058290 0.020168 -0.086710 0.033209 -0.064812 -0.000011 -0.039314 -0.024549 -0.013668 -0.012398 0.007914 0.037661 -0.017087 -0.012724 -0.052087 0.007049 0.008891 0.001549 0.020267 -0.015723 0.018966 -0.071475 -0.039401 0.066434 0.075600 -0.051106 0.035173 0.033703 0.042782 0.034239 0.031363 -0.017992 0.019100 -0.020329 -0.010314 -0.080205 -0.046932 0.000073 -0.058414 -0.016993 0.084515 0.010206 0.050967 0.072050 0.020850 -0.023879 0.012254 0.057097 -0.037832 0.012291 -0.013788 0.039021 0.034155 -0.082224 0.075428 0.026049 0.052984 -0.107912 0.009910 -0.008022 -0.025543 -0.007984 0.082361 -0.037191 -0.035902 -0.072584 0.003535 0.059310 0.086028 -0.023919 0.005101 0.062689 -0.047847 -0.010192 0.039250 0.018319 -0.037383 -0.000246 -0.022847 0.086676 0.027120 0.000145 0.018630 -0.077433 0.000475 -0.005658 -0.012852 0.006928 0.010736 -0.080089 -0.040139 0.035026 -0.049142 0.087283 -0.038994 0.008543 0.070407 0.046842 -0.022844 -0.009397 -0.052391 -0.018619 0.079198 0.084047 -0.017600 -0.035793 0.030914 0.020932 -0.092806 -0.118757 0.061335 -0.000332 0.089802 0.021844 0.028539 0.015521 -0.020102 -0.037778 -0.021429 0.061483 0.011295 0.025602 -0.046357 -0.048669 0.071844 -0.064508 -0.052388 0.006697 0.008355 0.021366 -0.102436 0.009154 0.044425 -0.064150 0.000149 0.100386 -0.038167 0.000244 -0.022057 0.074413 0.047879 -0.060224 -0.043416 0.033793 -0.025702 -0.055311 0.025782 -0.063416 0.028333 -0.068617 -0.044441 -0.020329 0.028275 0.071005 0.033211 0.128322 0.075282 -0.042344 -0.031499 -0.060778 -0.041397 0.042756 -0.019535 0.023833 0.005160 -0.002509 0.004313 -0.037850 -0.057109 -0.006943 -0.005017 0.026979 0.018767 -0.052146 -0.034623 0.066543 0.047973 -0.071185 0.045589 0.001040 0.090825 -0.074707 0.013157 0.034633 0.013701 0.036451 -0.001875 0.054378 0.018158 -0.017923 -0.025747 0.025976 -0.017452 -0.021559 0.048283 0.041806 -0.016330 -0.059322 0.033909 0.016281 -0.087093 0.083368 0.009218 -0.077948 -0.080343 0.014844 0.018154 0.009092 -0.007435 -0.059918 0.008442 -0.039206 -0.025292 0.078646 0.068504 0.083790 -0.069879 0.001365 -0.024376 0.000798 -0.010173 0.032186 -0.012055 -0.019322 -0.010682 -0.028824 0.007538 0.066779 0.075796 -0.004456 -0.027641 -0.047619 0.034403 0.032233 -0.052809 0.008359 0.017953 -0.029212 0.021980 0.102596 0.008836 -0.050445 -0.012061 0.004751 0.063707 -0.041279 0.048204 -0.046465 0.007787 0.006552 -0.045006 0.131849 0.034736 0.005059 0.063067 -0.004784 0.037011 0.030038 -0.042434 0.057024 0.097678 0.050536 -0.005050 0.012044 0.041831 -0.038103 0.013808 0.019016 0.013386 0.035592 -0.010192 -0.018479 0.039388 0.022428 0.069793 0.025667 0.008380 -0.000661 0.023794 -0.037939 0.018840 0.015076 -0.076638 -0.004668 0.051967 0.064181 -0.003745 0.081263 0.006971 0.035533 -0.032867 -0.082515 -0.038436 -0.008833 0.063623 0.042170 -0.002878 0.036041 -0.038503 -0.085395 0.015989 0.037346 0.043396 -0.045790 -0.040505 -0.009357 -0.021917 0.030556 0.013312 -0.016366 -0.037420 0.047061 -0.008226 -0.038167 -0.016015 0.014610 -0.002444 -0.015730 -0.085909 -0.023959 0.040670 0.067020 0.028614 -0.007080 0.020485 -0.098367 0.058827 0.073975 -0.016555 0.022905 0.000733 0.070347 -0.023296 -0.013648 0.058721 -0.000931 -0.033623 -0.026118 0.030166 0.017326 -0.011058 -0.085217 -0.055537 0.024618 -0.038937 -0.006740 0.008901 0.023781 0.072961 0.037794 0.016290 0.009776 -0.042007 0.021437 -0.027068 -0.029640 -0.021425 -0.037186 -0.013673 0.038873 0.076685 -0.030756 -0.019172 -0.064330 -0.033190 0.006904 -0.024141 -0.049865 0.006633 0.009948 0.033228 0.010098 -0.016993 0.021426 0.054849 0.063675 -0.018744 -0.033594 -0.000973 -0.020036 -0.086787 -0.021143 -0.026021 0.058138 -0.013186 0.051242 -0.107111 0.009317 -0.011581 -0.004568 -0.031068 -0.044411 0.012179 -0.005619 0.055175 -0.037993 -0.005086 -0.006051 -0.009411 0.041433 0.039745 -0.092738 0.015803 0.016348 0.021397 0.022319 0.039081 -0.037203 0.086368 0.033257 0.019625 -0.095251 -0.009727 0.022613 0.036077 0.035068 -0.023157 -0.065434 0.014674 -0.050224 0.050803 -0.001923 -0.046613 -0.045839 -0.022788 0.066677 0.004264 -0.000342 -0.042733 0.071138 -0.017350 -0.084549 -0.054488 0.022318 0.006993 0.016324 0.035861 0.068329 0.029221 -0.062313 0.052633 -0.052333 0.003412 0.029987 0.049385 0.045271 0.003670 -0.077204 -0.018849 -0.051389 -0.007253 0.054670 0.040888
<vblex><past><p3><sg> 0.006400 0.007353 -0.025541 0.015415 0.039063 -0.045843 0.039250 0.018450 0.011149 0.053882 -0.006700 -0.014463 -0.002268 -0.013632 0.033189 -0.023067 0.006896 -0.036627 0.016366 -0.023646 0.019993 0.067013 0.030746 0.002319 0.091979 0.006687 0.058731 0.013421 -0.076920 -0.021109 -0.044781 0.046352 0.040599 -0.040027 -0.025785 -0.051589 0.025188 -0.036040 0.070182 0.039515 -0.117867 0.013162 0.013220 0.002004 -0.048142 0.043672 -0.003751 0.050200 0.016597 -0.073269 0.027458 -0.056048 -0.000140 -0.033120 -0.021088 -0.012746 -0.010293 0.006923 0.031038 -0.015130 -0.011847 -0.044980 0.005984 0.008068 0.000477 0.017320 -0.012970 0.014576 -0.061570 -0.032240 0.055286 0.063615 -0.042840 0.029941 0.030005 0.035926 0.029226 0.025272 -0.015406 0.016021 -0.016607 -0.008909 -0.066642 -0.039988 -0.001305 -0.048478 -0.013477 0.072602 0.008927 0.041905 0.060599 0.018597 -0.019815 0.011218 0.049008 -0.032314 0.009645 -0.011344 0.032987 0.028796 -0.069846 0.063989 0.022210 0.043460 -0.091004 0.009180 -0.007537 -0.020792 -0.007251 0.070375 -0.031760 -0.030700 -0.061501 0.003648 0.050837 0.072137 -0.019820 0.004172 0.052153 -0.040685 -0.009493 0.034163 0.015572 -0.032103 -0.001521 -0.020034 0.072715 0.023555 -0.000751 0.016048 -0.066818 0.000167 -0.005029 -0.009990 0.006220 0.009788 -0.069006 -0.033433 0.029653 -0.041314 0.073587 -0.032864 0.006171 0.058688 0.038305 -0.018928 -0.006988 -0.044252 -0.015090 0.067975 0.071417 -0.015699 -0.029120 0.025756 0.017499 -0.079135 -0.100355 0.051885 -0.000235 0.074798 0.018373 0.024945 0.013524 -0.017305 -0.032898 -0.019119 0.051831 0.009276 0.022107 -0.040639 -0.040647 0.060282 -0.054534 -0.043959 0.006556 0.006894 0.018676 -0.085836 0.006962 0.037927 -0.055092 -0.000550 0.084923 -0.032026 0.000242 -0.018959 0.063514 0.040554 -0.049803 -0.035732 0.029807 -0.021654 -0.045864 0.022717 -0.053972 0.024678 -0.057482 -0.038225 -0.018217 0.024311 0.059725 0.029059 0.108074 0.064443 -0.036165 -0.025366 -0.051520 -0.035920 0.036301 -0.016409 0.018967 0.004827 -0.002688 0.003454 -0.032366 -0.047231 -0.006408 -0.003601 0.022850 0.017062 -0.044398 -0.027767 0.055090 0.041883 -0.060286 0.039629 0.000862 0.075753 -0.063395 0.012316 0.029649 0.010214 0.030482 -0.000835 0.045320 0.014430 -0.014428 -0.021758 0.022529 -0.014042 -0.016369 0.039857 0.034935 -0.014482 -0.050315 0.029149 0.013671 -0.072932 0.071299 0.008072 -0.066305 -0.067872 0.012374 0.016169 0.007510 -0.005722 -0.051109 0.005719 -0.032487 -0.019667 0.065802 0.058511 0.070830 -0.060437 0.001549 -0.021167 0.001567 -0.008110 0.026431 -0.009356 -0.016907 -0.007704 -0.024123 0.006821 0.057469 0.063368 -0.004668 -0.023578 -0.041213 0.029740 0.027506 -0.044393 0.006124 0.013936 -0.024299 0.019329 0.086775 0.006866 -0.043370 -0.009552 0.004186 0.053856 -0.035203 0.040405 -0.039322 0.006341 0.005796 -0.037703 0.111528 0.028807 0.004239 0.053236 -0.004072 0.031409 0.025150 -0.035343 0.048757 0.083937 0.043158 -0.005404 0.010602 0.034722 -0.032929 0.012925 0.015510 0.010601 0.031346 -0.007798 -0.015343 0.032914 0.018761 0.058702 0.022549 0.007164 -0.000251 0.020865 -0.030960 0.014951 0.011450 -0.063131 -0.003601 0.044223 0.053375 -0.003557 0.068323 0.005278 0.030523 -0.029028 -0.070009 -0.033439 -0.006754 0.052788 0.034316 -0.002077 0.031136 -0.033864 -0.072849 0.014156 0.032159 0.036882 -0.038822 -0.035115 -0.008432 -0.018678 0.024595 0.011498 -0.014899 -0.031934 0.039224 -0.007260 -0.033273 -0.012942 0.010886 -0.000685 -0.012883 -0.072035 -0.018862 0.034309 0.056783 0.025140 -0.004759 0.018262 -0.083789 0.049512 0.063531 -0.013665 0.020494 0.000812 0.059546 -0.019742 -0.011493 0.048893 -0.001200 -0.028866 -0.021174 0.025305 0.013875 -0.009661 -0.073555 -0.046942 0.020950 -0.032324 -0.006695 0.007828 0.021064 0.061135 0.030637 0.013425 0.008211 -0.035909 0.018495 -0.023535 -0.025067 -0.019122 -0.029872 -0.011522 0.031469 0.065207 -0.026104 -0.017769 -0.053640 -0.028424 0.005475 -0.021097 -0.041965 0.005932 0.008652 0.027459 0.007298 -0.013817 0.018407 0.047048 0.053421 -0.015622 -0.027039 0.000344 -0.018121 -0.073440 -0.018643 -0.022626 0.049381 -0.011451 0.042712 -0.090953 0.007858 -0.010096 -0.004744 -0.025953 -0.038277 0.009794 -0.005438 0.047743 -0.033007 -0.004024 -0.005172 -0.008223 0.034792 0.033654 -0.079863 0.011972 0.014220 0.017461 0.018388 0.033179 -0.031138 0.073562 0.029137 0.016160 -0.081288 -0.007955 0.019122 0.029725 0.029246 -0.019245 -0.055379 0.010811 -0.042668 0.043800 -0.000014 -0.037675 -0.039094 -0.019091 0.056653 0.002854 -0.000724 -0.036608 0.059285 -0.014642 -0.070448 -0.045571 0.018249 0.004699 0.014901 0.031581 0.058483 0.024979 -0.053395 0.044511 -0.044774 0.002912 0.025057 0.040801 0.038318 0.001828 -0.066223 -0.016580 -0.042591 -0.006393 0.046944 0.034819
<adv><neg> 0.004826 0.005230 -0.020341 0.012104 0.032187 -0.039004 0.032938 0.015948 0.008867 0.043898 -0.006309 -0.011958 -0.002303 -0.012520 0.028372 -0.019953 0.006122 -0.031259 0.014649 -0.019351 0.016206 0.055431 0.024533 0.002046 0.077333 0.005241 0.047747 0.012010 -0.064104 -0.017625 -0.036032 0.037771 0.033600 -0.032727 -0.022618 -0.042651 0.020954 -0.029239 0.059430 0.033016 -0.098573 0.009675 0.010376 0.001401 -0.040126 0.036934 -0.004022 0.040090 0.014054 -0.060104 0.023172 -0.046217 -0.000204 -0.027608 -0.016042 -0.008854 -0.008411 0.004534 0.025516 -0.011389 -0.008567 -0.037534 0.003628 0.006599 0.000955 0.014537 -0.012007 0.012192 -0.049954 -0.026207 0.046680 0.052849 -0.035525 0.023961 0.024153 0.030369 0.023266 0.021959 -0.012785 0.012958 -0.015104 -0.007638 -0.056366 -0.031638 0.000388 -0.040307 -0.012272 0.059269 0.007803 0.034456 0.049043 0.015567 -0.016529 0.008817 0.040016 -0.026933 0.007475 -0.010174 0.027249 0.023383 -0.056606 0.052989 0.017694 0.035707 -0.075761 0.006800 -0.006241 -0.018222 -0.005470 0.058208 -0.025107 -0.024040 -0.050671 0.003183 0.040786 0.059581 -0.015796 0.003023 0.044322 -0.034127 -0.007842 0.028463 0.012836 -0.025586 0.000046 -0.016399 0.059146 0.018984 0.000154 0.013973 -0.055040 -0.000243 -0.004148 -0.008634 0.005570 0.008705 -0.056566 -0.028272 0.024226 -0.032577 0.061890 -0.026600 0.005514 0.048594 0.032659 -0.015361 -0.006335 -0.035707 -0.012765 0.055908 0.058999 -0.011920 -0.024661 0.022142 0.015524 -0.063538 -0.082447 0.044347 0.000885 0.061832 0.015505 0.021115 0.011889 -0.015381 -0.026846 -0.015654 0.042518 0.007114 0.018470 -0.033762 -0.033810 0.051011 -0.043865 -0.035493 0.005722 0.004776 0.014612 -0.072044 0.004969 0.031170 -0.046056 -0.000165 0.069993 -0.026965 -0.000356 -0.015848 0.052528 0.034322 -0.042199 -0.030185 0.025182 -0.018735 -0.037992 0.017253 -0.043359 0.020706 -0.046465 -0.030470 -0.013592 0.018703 0.050915 0.023753 0.090049 0.053006 -0.029000 -0.020916 -0.041708 -0.029016 0.029696 -0.013684 0.017369 0.004715 -0.003079 0.003828 -0.027480 -0.040077 -0.005423 -0.002836 0.018579 0.013490 -0.035666 -0.023824 0.044800 0.033490 -0.049153 0.031612 -0.000086 0.063654 -0.052610 0.009510 0.024127 0.009285 0.026328 -0.001268 0.038525 0.013451 -0.011588 -0.017819 0.017529 -0.011550 -0.014159 0.034003 0.028436 -0.010580 -0.041476 0.023655 0.010815 -0.060198 0.057869 0.007319 -0.054484 -0.056290 0.011038 0.013879 0.006508 -0.004920 -0.041271 0.004691 -0.027168 -0.016827 0.053849 0.047183 0.057965 -0.050171 0.001589 -0.017085 0.000002 -0.006152 0.022916 -0.007341 -0.013406 -0.006926 -0.020006 0.004063 0.046418 0.052343 -0.003011 -0.019567 -0.033763 0.023490 0.023190 -0.036036 0.005577 0.011836 -0.020562 0.016711 0.071902 0.006489 -0.035731 -0.007510 0.004648 0.044040 -0.028412 0.032944 -0.031727 0.005895 0.005023 -0.030928 0.090299 0.023914 0.003399 0.043200 -0.002480 0.026366 0.020908 -0.029573 0.039087 0.068200 0.036625 -0.004896 0.009261 0.029641 -0.027078 0.010564 0.013395 0.010041 0.024948 -0.006373 -0.012734 0.025854 0.016684 0.047991 0.018826 0.006847 -0.000288 0.016579 -0.025909 0.012780 0.011126 -0.052910 -0.001986 0.035988 0.044198 -0.003756 0.056531 0.005214 0.025613 -0.023471 -0.056432 -0.027470 -0.005199 0.044311 0.029841 -0.003006 0.024639 -0.026935 -0.059838 0.011625 0.026485 0.031262 -0.032739 -0.027869 -0.005942 -0.014538 0.021670 0.010611 -0.012235 -0.026516 0.032170 -0.004479 -0.027825 -0.011438 0.009802 -0.002412 -0.010542 -0.060093 -0.017048 0.027087 0.046494 0.020481 -0.003905 0.014146 -0.068611 0.042109 0.052124 -0.010929 0.016583 0.000629 0.048099 -0.016208 -0.008865 0.039613 -0.001959 -0.024867 -0.019043 0.021810 0.012123 -0.007993 -0.060727 -0.039533 0.015934 -0.026882 -0.005324 0.007239 0.017820 0.050771 0.025551 0.011922 0.008131 -0.029081 0.015968 -0.019566 -0.020953 -0.015083 -0.024592 -0.009329 0.027058 0.054529 -0.021005 -0.012803 -0.045463 -0.023459 0.004538 -0.017438 -0.035764 0.004774 0.008107 0.023650 0.006870 -0.012285 0.015216 0.037968 0.044316 -0.012568 -0.021818 -0.000963 -0.014554 -0.060094 -0.016002 -0.019481 0.040511 -0.009979 0.035399 -0.075633 0.007630 -0.007257 -0.003336 -0.021569 -0.031196 0.008667 -0.003254 0.038374 -0.027718 -0.002189 -0.004880 -0.006324 0.028399 0.027274 -0.065009 0.010337 0.012637 0.015021 0.015611 0.027371 -0.026281 0.059621 0.022841 0.012947 -0.067389 -0.005213 0.015513 0.024264 0.024911 -0.015602 -0.046750 0.009936 -0.035294 0.036243 0.000026 -0.032571 -0.031581 -0.015890 0.045642 0.003361 0.000224 -0.030353 0.049609 -0.012941 -0.059429 -0.037833 0.015779 0.004754 0.011756 0.024712 0.048625 0.020952 -0.044338 0.037526 -0.035569 0.002734 0.020769 0.034755 0.031396 0.001607 -0.053730 -0.014043 -0.035639 -0.005190 0.038178 0.029081
