115 500
<n><sg> 0.136539 -0.111246 -0.055188 -0.151168 -0.069577 -0.067059 0.049741 0.010070 -0.027126 -0.017042 0.064933 0.022276 0.089106 -0.058784 0.042388 0.019366 -0.018911 -0.046321 -0.025117 -0.079247 0.038806 -0.065629 0.052086 0.010769 0.006956 -0.002584 -0.041000 0.025143 0.001480 -0.047283 0.029705 -0.005753 0.037900 0.004823 0.001521 0.073188 -0.016511 -0.084286 0.003794 0.045510 -0.034997 -0.014574 0.016530 0.047672 -0.082019 0.025708 0.132302 0.012905 0.053048 0.053327 0.048134 0.117162 0.024987 -0.022427 -0.034263 0.048809 -0.031065 -0.016785 0.010413 0.037975 -0.009806 0.010072 -0.003886 0.027936 0.040572 0.084120 0.073539 -0.025958 -0.062193 -0.069090 -0.047336 0.122040 0.082159 -0.049579 -0.015129 -0.005078 -0.001332 -0.000177 -0.031687 0.056394 -0.016580 -0.005300 -0.059449 0.019426 -0.012169 0.011497 0.011207 -0.041963 -0.008277 0.022830 -0.046243 -0.073915 0.007643 0.002611 0.034739 -0.064949 -0.001304 -0.036591 0.004552 0.163981 -0.044992 0.062827 -0.026238 0.032971 0.038992 0.029861 -0.010367 -0.003527 -0.017649 -0.073058 0.054807 -0.011305 0.022535 -0.037311 0.012522 -0.010222 -0.169208 0.026957 0.017850 0.047843 0.045827 0.042309 -0.022460 0.012817 -0.050954 -0.037202 -0.036304 0.003774 0.020475 0.055900 0.020626 -0.025394 -0.066409 0.023024 -0.004355 0.060844 0.046248 0.002786 -0.145076 0.027342 -0.096164 0.003535 -0.016663 0.061999 -0.009426 0.009893 0.117122 0.000505 0.010218 -0.060676 -0.043354 0.055606 0.045695 0.072587 -0.037756 -0.025622 0.056755 -0.018873 0.030611 0.010832 0.042668 -0.045920 -0.000917 0.008820 0.022675 0.008139 0.023073 0.019567 0.012645 0.023217 -0.025187 0.035887 -0.030939 0.029466 0.038592 0.004947 -0.024831 -0.007745 -0.034162 -0.041483 -0.066484 0.043342 -0.079755 0.061032 0.000734 0.026194 0.045902 -0.037091 -0.010159 0.037518 -0.004850 -0.011216 0.021674 0.035150 0.086939 0.035942 -0.071028 -0.091478 0.025556 -0.006827 -0.017382 -0.046165 0.059278 0.024434 0.003679 -0.007817 0.033965 -0.021050 0.008022 0.017734 -0.036957 -0.039387 0.017474 -0.014206 -0.030950 0.016129 0.017257 0.033043 -0.000031 -0.016525 -0.022330 -0.035591 -0.049259 -0.034990 -0.069872 -0.052794 0.004914 -0.020117 0.099982 0.081279 -0.051592 -0.054498 -0.004310 0.047750 -0.001527 0.024095 0.023613 -0.027974 -0.076363 0.057107 -0.098565 -0.061193 0.039314 -0.032104 0.014563 -0.109290 0.049830 0.049232 -0.045554 -0.026188 0.004523 0.026978 0.017194 0.016065 0.036826 0.018976 -0.051676 -0.068955 -0.016840 -0.022197 -0.011696 -0.101312 -0.057571 0.037878 0.015149 -0.046159 0.042424 0.001731 0.002002 -0.077325 0.032388 -0.024091 0.022612 0.079657 0.003233 0.039469 -0.015177 0.028426 0.038276 -0.074346 0.009040 -0.074695 -0.030998 0.018713 -0.018492 -0.001624 0.044837 0.025330 -0.001157 0.021294 -0.056287 -0.050944 -0.106345 0.077580 -0.020961 -0.034593 -0.008850 0.076147 0.101032 0.031775 -0.024448 0.015520 -0.016825 0.049247 0.041699 0.021976 0.046775 0.088726 0.018398 0.043313 0.005215 0.023817 0.018006 0.001179 0.015651 0.029743 -0.010078 0.062382 0.038816 0.027097 -0.152545 -0.041944 0.050612 0.027190 0.015421 0.070737 -0.113012 0.034712 -0.118038 -0.063239 0.080893 0.033375 0.033709 0.060642 -0.007289 0.021788 -0.009061 0.031333 0.015915 0.020830 0.065432 0.081311 -0.020346 0.094122 -0.030238 0.005352 -0.010176 0.078213 0.030180 -0.001348 0.029797 0.021543 0.042694 -0.057249 0.038031 -0.066108 0.070416 -0.045737 0.023748 0.005761 -0.072059 0.048551 0.011053 -0.027126 -0.041377 0.048753 -0.107718 -0.098994 0.020867 -0.011198 0.046742 -0.014446 0.016201 -0.024732 0.033206 0.035585 0.038093 -0.056483 0.006736 0.030710 0.093413 0.046082 -0.015687 0.017166 -0.034140 0.057896 0.084244 -0.101863 -0.059459 -0.005045 -0.004885 0.026260 -0.004729 -0.085398 -0.022137 -0.008788 0.076466 0.090149 -0.031905 0.040589 -0.002205 0.003597 0.028504 0.065922 -0.099873 -0.032606 0.020596 -0.018500 -0.010428 -0.047444 -0.114233 -0.067973 0.108317 -0.043041 -0.013131 0.037902 -0.056108 -0.093724 -0.043427 -0.062637 0.071712 -0.088062 -0.006988 -0.011849 -0.050693 -0.007378 0.045682 -0.016173 0.037146 0.125230 -0.128649 -0.039900 -0.017447 0.082532 -0.094402 0.013724 0.020157 0.035742 0.012101 -0.020372 -0.031066 -0.092054 -0.037402 0.074631 -0.031772 0.018575 -0.022315 0.092428 0.076301 -0.034587 -0.041805 0.049908 -0.041670 0.019681 0.011649 -0.076090 -0.045286 -0.059466 -0.034317 0.067921 -0.014537 -0.115865 0.017337 -0.043271 0.033098 0.078241 -0.001997 -0.013093 0.077473 -0.031293 -0.091793 0.134786 0.003862 -0.010952 0.025603 0.052913 0.021475 -0.060753 0.044008 0.013247 -0.036224 0.018518 -0.089833 0.061171 0.111126 0.082003 0.088359 -0.044775 0.009401 -0.039770 0.044611 -0.107424 -0.123506 -0.056478 0.030802 -0.055516 0.001341 -0.044941 0.007630 -0.009240
<pr> 0.086897 -0.041898 -0.045235 -0.139357 0.047580 0.035893 0.017635 -0.010021 -0.006412 -0.005398 0.052791 0.013274 0.135395 -0.082628 0.086218 0.026282 -0.029017 -0.074835 -0.044567 -0.064182 0.066615 -0.036735 0.059080 0.039486 -0.029791 -0.018175 -0.060238 0.021554 -0.025001 -0.046876 0.092741 -0.032363 -0.007260 -0.016467 0.008142 0.003744 -0.026435 -0.058227 0.019569 0.071778 -0.014098 0.043124 -0.020220 0.058096 -0.042655 0.054563 0.101361 0.041717 0.056130 0.029732 0.045227 0.122693 0.035905 0.029257 0.036690 -0.032493 -0.075862 0.003784 0.009128 0.058126 -0.028392 -0.015972 -0.024767 0.025973 0.049169 0.044832 0.102248 -0.061376 -0.024432 -0.045734 -0.053553 0.092413 0.130619 -0.137746 -0.009855 0.001234 0.052898 -0.018346 0.008490 0.085727 -0.018128 0.019736 -0.125906 -0.003182 -0.030486 0.026623 0.004357 -0.037385 -0.022641 -0.003663 -0.042959 -0.091062 -0.018201 -0.004261 0.018031 -0.088967 0.064220 -0.009343 -0.012941 0.116552 -0.028199 0.048334 -0.023161 0.052092 0.074224 0.010384 0.006629 -0.067528 -0.003818 -0.044623 0.109404 0.056235 0.020263 -0.013538 0.017406 0.017660 -0.169043 0.004245 0.032027 0.052882 0.050053 0.066107 -0.030160 0.029020 -0.038236 -0.048519 -0.023088 0.006270 -0.006880 0.016521 0.045721 -0.016007 -0.019670 -0.007232 -0.028426 0.062454 0.000493 -0.012075 -0.048610 -0.024722 -0.076070 -0.001802 -0.002144 0.051185 -0.017086 0.025883 0.067447 -0.003526 0.040749 -0.055834 -0.047340 0.029643 0.055542 0.044134 -0.060053 -0.038608 -0.007646 -0.018454 0.005763 0.024260 0.003479 0.031378 -0.002625 -0.009153 0.023588 -0.011126 -0.043240 -0.023488 0.003429 0.063019 0.025233 0.020743 -0.045417 0.060507 -0.020415 0.044506 -0.035841 -0.066892 -0.014037 -0.077776 0.036701 -0.013798 0.051720 -0.018658 0.060237 0.045184 0.073769 -0.046304 -0.044227 -0.025991 0.016874 -0.022081 0.013560 0.011741 0.004501 -0.010725 -0.032148 -0.079327 0.008622 0.031054 0.000741 0.006349 -0.005838 -0.025578 -0.020538 0.012064 0.029761 0.013342 -0.028820 -0.009001 -0.006407 0.046435 0.027868 -0.028205 -0.036207 0.009269 0.064062 -0.015179 0.028585 -0.013959 -0.008043 -0.011887 0.009636 -0.040893 -0.077736 -0.024164 0.024544 -0.034836 0.089359 0.062126 -0.080018 -0.042508 -0.033770 0.028000 0.004130 0.025677 0.035885 -0.010800 -0.051989 0.055372 -0.079841 -0.049625 0.058535 -0.032490 0.014429 -0.048833 0.033978 0.013488 -0.073338 0.005003 0.004578 -0.010963 0.026268 0.022114 0.053579 -0.025527 -0.119953 -0.132341 0.065388 -0.014997 0.001693 -0.078990 -0.056538 0.007725 -0.004286 -0.035562 0.027103 0.000333 0.019555 -0.089081 0.045088 -0.015862 0.028446 0.104299 0.035914 0.044015 0.000287 -0.008216 0.007317 -0.080345 0.032483 -0.020826 -0.054240 -0.069534 -0.008704 0.037102 0.006441 -0.005760 -0.019706 0.013033 0.005605 -0.008739 -0.118010 0.090981 -0.026738 -0.045710 -0.006959 0.021543 0.067240 0.063898 -0.010755 0.047302 -0.016177 0.055807 -0.011488 -0.006044 0.023647 0.070378 -0.005257 -0.013225 0.010069 -0.024348 0.023386 -0.054407 0.012571 0.016317 -0.037327 0.033752 0.083499 -0.012349 -0.143081 -0.004585 0.028733 0.038714 0.082557 0.119608 -0.155906 0.039447 -0.163241 -0.046812 0.040053 0.000171 0.034904 0.090497 -0.060077 0.025595 -0.008515 0.025426 0.047901 0.076593 0.025816 0.097684 -0.010952 0.097063 -0.026722 -0.001689 -0.009081 0.042942 0.047122 0.027500 0.023182 0.058390 0.027003 -0.039683 0.008021 -0.014058 0.010646 -0.018931 -0.000514 0.009198 -0.044976 0.034259 0.028828 -0.009543 -0.000475 0.058109 -0.058649 -0.073631 0.012412 -0.024365 0.046325 -0.005315 0.007659 0.057095 0.005980 -0.034437 0.010516 -0.013212 -0.010895 0.055201 0.071267 0.030925 -0.041334 0.009404 -0.023537 0.134056 0.153869 -0.154398 -0.113434 -0.017297 -0.008443 0.002266 -0.022769 -0.019564 -0.008830 -0.016110 0.048973 0.046158 -0.000129 0.007276 0.019516 -0.019044 0.045951 0.014326 -0.064034 -0.003794 0.005734 -0.023628 0.001633 -0.057753 -0.082622 -0.073974 0.078708 -0.003308 0.005205 -0.009737 -0.024184 -0.073909 -0.079515 -0.107788 0.067993 -0.132967 0.009408 0.006218 0.001388 0.001484 0.036943 -0.000119 0.071502 0.104809 -0.094123 -0.019627 -0.063454 0.050807 -0.059833 -0.008940 -0.013340 0.011041 -0.059547 -0.026064 -0.040613 -0.087887 -0.037634 0.044502 -0.023604 0.018363 0.001327 0.058912 0.037616 -0.075432 -0.021394 0.051326 0.000438 0.034079 0.010141 -0.042728 -0.024597 -0.023693 -0.063496 0.029143 -0.003847 -0.090815 -0.000664 0.005114 0.033200 0.023847 -0.023560 0.005900 -0.025610 0.005198 -0.044346 0.028395 -0.004576 0.001232 -0.008381 0.066513 0.017325 -0.025920 0.011150 0.005918 0.015048 0.003323 -0.062372 0.056163 0.081314 0.023629 0.117476 -0.053223 0.031261 -0.013481 0.057323 -0.075644 -0.108827 -0.065060 0.042170 -0.046455 -0.032760 -0.076998 -0.003032 -0.013303
<np><sg> 0.163954 0.022520 -0.044600 -0.192372 -0.049992 -0.094643 -0.039701 -0.101022 0.006473 0.039444 0.107553 -0.031136 0.117552 -0.161863 0.006247 0.034131 -0.023525 -0.100957 -0.052552 -0.093555 0.062902 0.000940 0.095305 0.036032 0.015579 -0.008295 -0.052141 0.109663 0.020601 -0.075720 0.088466 0.068985 0.127219 0.092833 -0.030298 0.209615 -0.026178 -0.029096 0.053042 0.045500 0.005882 -0.121822 0.010110 -0.068502 -0.069624 -0.008067 0.102225 0.016854 0.105564 -0.043961 -0.026374 0.096456 0.025509 -0.017919 -0.024419 0.095344 -0.035398 0.089289 0.038985 0.054433 0.009392 -0.018529 -0.015707 0.028294 0.042741 -0.003630 0.026341 0.009102 -0.002649 -0.003115 -0.010795 0.037762 0.166922 -0.245020 0.045034 -0.110143 0.135491 -0.023229 -0.004382 0.038836 -0.000865 -0.002120 -0.175286 -0.051539 -0.064707 0.061976 -0.017332 -0.126451 -0.041762 -0.025317 0.098273 -0.105757 -0.004017 0.052319 0.031941 -0.021467 0.100960 -0.008043 -0.070669 0.196560 -0.087040 -0.011155 0.052027 0.003795 0.055690 -0.072272 -0.038599 -0.048408 0.001335 -0.130815 0.089022 -0.090069 0.042026 -0.043996 -0.002393 0.074257 -0.051060 -0.044083 0.161516 0.031958 0.079113 0.054475 -0.028637 -0.040182 -0.109596 -0.027142 0.006427 0.094313 -0.043546 -0.037363 0.048240 0.016924 0.047028 0.020070 -0.004209 0.046934 0.031974 0.047741 -0.146100 -0.035304 -0.068004 0.032798 0.043252 -0.065342 0.016479 -0.024743 0.102236 -0.086775 0.040961 -0.080256 0.048186 0.043318 0.025239 -0.043302 -0.051856 -0.116512 -0.031992 0.006373 0.065967 0.034386 -0.059632 -0.011622 -0.057342 -0.041779 0.024361 -0.051796 -0.111822 -0.018176 0.127259 0.099073 0.046468 0.078252 -0.040767 -0.037788 -0.019825 0.094403 0.022109 -0.090425 0.032601 -0.040424 -0.144259 0.121441 -0.199580 0.056600 0.127691 -0.008751 0.208729 -0.022943 -0.062226 -0.050670 -0.021263 -0.036604 0.000753 0.003852 -0.107641 -0.069598 0.007351 0.033521 0.102932 0.004747 -0.078169 -0.035294 0.017143 0.012554 0.019390 0.059838 -0.058812 -0.012699 0.007711 -0.076671 -0.032712 0.018555 -0.026699 -0.050200 0.043686 0.033905 -0.011991 0.099257 -0.021681 -0.075679 -0.002223 0.019876 -0.049940 -0.006546 0.022823 0.021412 -0.018037 0.006172 0.057351 0.006696 -0.049617 -0.027211 0.002739 0.072492 -0.064290 0.046561 0.015508 -0.075242 -0.038648 0.090975 0.007127 -0.088511 0.080458 0.004753 0.029520 -0.024826 0.031701 0.041773 -0.105252 -0.000861 0.043113 -0.033618 0.067319 0.025447 0.039086 0.005980 -0.200355 -0.185984 0.169374 -0.021625 -0.036958 -0.080192 -0.078943 0.021117 -0.009422 -0.063671 -0.046753 -0.004678 -0.033288 0.019256 0.033374 -0.047234 0.078427 0.049552 -0.016817 0.100688 0.091460 -0.041132 -0.006393 -0.114989 -0.012665 -0.029501 -0.093965 -0.017893 0.016071 0.003414 -0.009855 -0.057332 0.015151 -0.084119 -0.052034 -0.030959 -0.031258 0.106047 0.055974 -0.026874 -0.009360 -0.058627 0.014736 0.167729 -0.101962 -0.051278 -0.031198 0.063905 -0.064642 0.039585 0.087727 0.027116 -0.005666 -0.063933 0.064850 -0.041682 0.025548 -0.044758 0.012437 0.017137 0.013374 0.024065 0.023644 -0.067418 -0.102621 -0.029371 -0.079898 0.015942 0.114489 0.008633 -0.075198 0.003620 -0.237421 -0.002807 -0.005310 0.021987 -0.005603 0.039915 -0.077492 0.015373 -0.068665 0.059986 0.036319 -0.028754 0.002023 0.120794 0.031419 -0.027884 -0.079280 -0.024026 -0.039484 0.043610 0.028832 -0.025752 0.075151 -0.101940 -0.035853 0.011641 0.009140 0.090428 0.012477 -0.004465 0.038192 0.060590 0.043938 -0.049566 0.068271 0.024717 -0.001282 -0.002250 -0.077797 0.036498 0.076728 -0.005226 -0.089551 0.079145 0.074577 0.030892 0.072337 0.018085 0.083160 0.089576 0.080185 0.062911 0.099394 -0.049317 -0.094156 -0.064365 0.026067 0.043982 -0.007814 -0.024505 -0.040120 0.017777 0.098392 0.067200 -0.054618 -0.097843 -0.094508 -0.034313 0.180166 0.038416 -0.019517 0.032731 0.084114 0.031125 -0.031707 0.070812 -0.120918 0.057918 0.081186 0.034221 -0.120617 -0.032066 -0.106738 -0.097391 0.127480 -0.003557 -0.075503 0.049280 0.029766 -0.116423 0.000386 -0.111723 -0.003176 0.004912 -0.034890 -0.083566 -0.053252 0.061719 0.014056 0.050523 0.189199 0.043936 -0.125866 -0.042283 -0.084252 0.080193 -0.065825 -0.056989 -0.082225 0.002799 -0.030243 -0.065924 -0.012905 -0.027477 -0.051815 0.068207 -0.061929 -0.001068 0.119462 0.106768 0.041934 -0.179690 0.009340 0.089652 -0.036498 0.015781 0.013798 -0.150807 -0.063017 -0.118745 -0.082721 0.083983 -0.111765 0.116889 -0.041398 -0.046548 0.074590 -0.049250 -0.006215 0.005734 0.072866 -0.018513 -0.076148 0.091259 0.045736 0.017742 0.042399 0.069559 -0.075418 -0.040279 0.031537 -0.000306 0.024035 0.103915 -0.095476 0.108114 0.042099 -0.012433 0.047792 -0.001884 -0.006794 -0.043516 0.086152 -0.097227 -0.045444 0.033548 -0.022701 -0.078868 -0.052629 0.026795 0.056283 -0.033458
<adj><pst> 0.067321 -0.035539 -0.027690 -0.034967 -0.013811 -0.048508 -0.027194 -0.002106 -0.037739 -0.011699 0.039064 0.009830 0.106048 -0.078220 0.020106 0.038297 -0.017367 -0.064839 -0.011771 -0.053472 0.022153 -0.036350 0.053414 0.039324 -0.000709 -0.075953 -0.025794 0.030083 -0.051039 -0.034905 -0.001116 -0.032507 0.075359 -0.008109 0.019538 0.103666 -0.000832 -0.058258 0.005677 0.075676 0.000323 0.003717 -0.020762 0.040602 -0.056698 0.067404 0.091707 0.002947 0.054742 0.012232 0.006728 0.106958 -0.010349 -0.044188 0.005643 0.072503 -0.054899 -0.000379 0.004196 0.048112 -0.007653 0.005962 -0.063758 -0.000914 0.058229 0.054837 0.055641 -0.006096 -0.008912 -0.047432 -0.022261 0.031997 0.060802 -0.073856 -0.045483 -0.002145 0.052949 -0.016379 -0.021379 0.045445 -0.034328 0.022363 -0.108557 0.023971 -0.025206 0.013474 0.016355 -0.074370 -0.030256 0.004875 -0.002901 -0.045791 -0.037832 0.027200 0.016025 -0.060365 -0.039575 0.023174 -0.002449 0.030419 -0.045800 0.023574 -0.020104 0.014244 0.029153 0.028593 0.037136 0.006523 0.026819 -0.070078 0.095784 0.017870 0.016275 -0.041030 0.039238 -0.002108 -0.074795 0.006320 0.000159 0.031693 0.021564 0.057271 0.002807 0.040798 0.002923 -0.035033 -0.028355 0.019980 0.012930 0.038854 0.033582 -0.030522 -0.057127 0.026636 -0.043972 0.078479 0.058155 -0.005153 -0.142038 0.055390 -0.088666 -0.004466 -0.023202 0.025027 -0.000027 0.018452 0.075701 -0.017747 0.046114 -0.047629 -0.036169 0.029524 0.046920 0.056067 -0.055502 -0.024715 0.033761 -0.012456 0.064181 0.010787 0.023538 -0.018645 0.045410 -0.008162 0.027233 0.000704 -0.037928 -0.095758 0.093899 0.059616 0.078903 -0.009648 -0.035309 0.101583 -0.051602 -0.038437 -0.048875 -0.093574 -0.024321 -0.035830 -0.012550 0.005717 -0.056859 -0.005266 0.064431 0.078559 0.126795 -0.047657 -0.097646 0.006423 0.045553 -0.047700 0.021410 0.004996 0.070179 0.025107 -0.001949 -0.014314 -0.022428 0.015816 -0.046236 0.003314 -0.030721 -0.022101 -0.032527 -0.030308 -0.003562 -0.013450 -0.018472 0.003428 -0.020830 -0.013450 -0.033740 -0.002066 -0.019735 0.066085 0.039934 -0.005332 -0.001896 -0.021755 0.018809 -0.014835 -0.026722 0.022028 -0.077108 -0.039920 -0.002692 -0.044232 0.098217 0.057800 -0.060184 -0.032932 -0.005873 0.013196 0.017258 -0.001388 0.060392 -0.028378 -0.117372 -0.008413 -0.074077 -0.074627 0.051818 -0.047502 0.009821 -0.122566 0.034956 0.010007 -0.043085 0.003481 0.006994 0.013226 -0.027428 0.021242 0.074881 -0.008262 -0.134371 -0.194481 0.076143 0.028526 0.025931 -0.052259 -0.061915 -0.051858 0.010758 -0.036685 0.042326 0.028011 -0.026028 -0.042005 0.015731 0.006337 0.016334 0.056228 0.035909 0.051800 -0.011165 0.038781 0.018203 -0.074978 0.000228 -0.062752 -0.023786 -0.002344 0.018165 -0.016395 0.025803 0.031702 0.014721 0.052793 -0.038171 -0.034814 -0.100883 0.042399 -0.018210 0.002602 0.010180 0.058023 0.060044 0.037112 -0.018399 -0.001545 0.001270 0.074113 0.047746 0.016069 0.046879 0.075354 0.050977 0.030673 -0.009977 0.049834 -0.010997 -0.006469 -0.005933 0.014618 -0.008371 0.037500 0.072825 -0.006864 -0.117741 -0.006276 0.024736 0.043258 0.010907 0.086502 -0.127692 0.020900 -0.136521 -0.063352 0.048104 0.010518 0.053959 0.090325 -0.010589 -0.004464 -0.041064 0.040585 0.054374 0.023403 0.061670 0.058679 -0.004973 0.120476 -0.030877 -0.021599 0.022721 0.030965 0.018439 -0.033147 0.060069 0.023993 0.118446 -0.068989 0.076752 -0.082638 0.024535 -0.033534 0.015988 -0.017498 -0.055972 0.043148 -0.031716 -0.021923 -0.026858 0.059809 -0.104819 -0.104113 0.032111 0.016293 0.026933 -0.030782 -0.030857 -0.014785 0.017257 0.120749 0.043626 -0.057145 0.062174 0.031583 0.083654 0.080486 0.004852 -0.000081 -0.002238 0.026921 0.026842 -0.055622 0.023963 -0.018697 0.026682 0.047822 -0.014925 -0.062430 -0.005795 -0.001489 0.081071 0.048321 -0.020830 0.014585 -0.000833 0.016413 -0.006309 0.000158 -0.080904 -0.039860 -0.036763 -0.022745 0.013670 -0.064825 -0.039841 -0.022678 0.086864 0.001096 -0.042941 0.014722 -0.023291 -0.081687 -0.048147 -0.071327 0.073854 -0.070696 0.026479 0.030252 -0.041463 0.033651 0.035019 -0.010944 0.055670 0.109723 -0.081465 -0.026117 -0.045266 0.076002 -0.085164 -0.008013 -0.012246 0.022765 -0.018266 -0.013444 -0.034171 -0.073553 -0.081550 0.022830 -0.036748 0.019858 0.008283 0.055536 0.060650 -0.018764 -0.047610 0.000623 -0.057407 0.050835 -0.001182 -0.081962 -0.026364 -0.069030 -0.054995 0.054469 -0.029233 -0.058259 0.020403 -0.060208 0.031988 0.033115 -0.025879 -0.024098 0.055815 -0.034640 -0.075660 0.139591 0.042030 -0.022854 0.006678 0.072471 0.006711 -0.042001 0.004338 0.001294 -0.053446 0.007550 0.002811 0.036617 0.079803 0.053771 0.043103 -0.068145 -0.001944 0.017327 0.011525 -0.069434 -0.100231 -0.056350 0.017298 -0.002053 -0.013826 -0.051004 0.010546 -0.016704
<sent> 0.130010 -0.064656 -0.120394 -0.112921 0.059415 0.029598 0.053646 0.007828 -0.041663 0.001327 0.034044 0.099822 0.084826 -0.050144 0.014634 -0.006814 -0.071683 0.016727 -0.035088 -0.066854 0.094106 0.028888 0.068586 0.068820 -0.063773 -0.106938 -0.079744 0.149760 -0.019752 -0.062726 0.115270 0.006689 -0.006958 0.003175 -0.012613 -0.025507 0.021030 -0.093014 -0.075886 0.006710 -0.013831 -0.075298 -0.020794 0.024978 -0.067142 0.041102 0.060487 0.056228 -0.029010 -0.008464 0.083662 0.047205 -0.052055 -0.060125 0.020296 -0.044456 -0.043766 -0.024307 -0.040921 0.084445 0.016939 0.011713 -0.080593 0.017727 0.028786 -0.008156 0.112646 -0.036027 0.079274 -0.019084 0.048122 0.104082 0.105382 -0.097793 -0.031775 -0.049455 0.032800 0.022992 -0.012040 0.007892 -0.053535 0.041946 -0.157334 -0.053235 -0.054218 0.029507 -0.010076 -0.099531 0.004533 0.025517 -0.016211 -0.024434 -0.068042 -0.049595 -0.079443 -0.068742 0.141442 -0.109611 -0.062887 0.145959 -0.072785 0.098006 -0.084985 -0.102985 0.000697 0.011102 -0.007115 -0.119100 -0.001278 -0.099968 0.147927 0.068287 -0.074949 -0.006548 0.029763 0.068237 -0.140598 -0.064157 0.027587 0.036612 -0.070800 0.065516 -0.059053 0.151252 0.012723 -0.018229 0.070293 0.043661 0.018272 0.151054 0.032151 0.080313 -0.010518 0.075760 -0.034687 -0.016268 0.048449 -0.020041 -0.135493 -0.021279 -0.094613 0.003714 -0.020813 0.025084 0.021875 -0.036803 0.031919 -0.015489 0.029777 0.013524 0.024681 -0.034687 -0.031737 0.005395 -0.066405 0.082457 0.064281 0.021589 0.071037 -0.038566 -0.053093 -0.110317 -0.092539 -0.057738 0.117723 -0.046852 0.022560 -0.055193 0.067108 0.170524 0.187940 -0.011505 -0.043499 0.103175 -0.091131 0.062671 -0.070616 -0.179223 -0.055304 -0.070052 0.207622 -0.128512 0.303751 -0.122956 0.051367 0.082718 0.106751 -0.156707 -0.142608 -0.065534 0.027774 -0.035094 -0.012431 0.031519 0.064959 -0.021023 -0.017689 -0.015963 0.084050 -0.050717 -0.042663 -0.051979 0.011629 -0.039344 0.017083 -0.018008 0.035304 -0.061650 0.007467 -0.089318 0.042817 0.003453 0.075001 0.036496 -0.045837 0.036601 0.108565 -0.076783 -0.061617 0.026408 -0.035120 0.028506 0.078047 -0.066726 -0.007521 -0.064194 0.029645 -0.073189 0.084293 0.054378 -0.087056 0.021766 0.085844 -0.002192 0.019158 0.076294 -0.000720 -0.006623 -0.119116 0.083024 -0.076150 -0.116117 0.014465 -0.032529 0.061324 -0.113374 0.057737 -0.006777 -0.102754 -0.013630 -0.014970 -0.091614 0.003045 0.153545 -0.037741 0.002888 -0.110545 -0.132932 0.026346 -0.035395 0.111565 -0.013908 -0.022780 0.035743 0.029837 -0.091182 0.002884 0.032966 0.032105 -0.069487 0.062787 -0.049765 -0.030044 0.005790 -0.019565 0.060799 0.006135 -0.037824 0.049518 -0.118816 0.102399 -0.131590 -0.009957 -0.085008 0.001157 -0.035801 0.035587 0.040228 -0.010720 -0.059517 -0.112777 0.108056 -0.023051 0.121402 -0.013323 -0.123521 -0.048892 0.033062 0.139606 0.023774 0.024576 0.005844 0.031684 -0.050487 0.017498 -0.003467 0.031842 -0.024998 0.038113 0.053632 -0.014560 0.035093 -0.080344 0.018024 0.022825 0.024497 0.017873 0.072677 0.111980 0.025207 -0.109282 0.085942 0.013145 0.011186 -0.086208 -0.090108 0.179732 -0.054615 -0.090212 -0.067222 0.095283 0.026025 0.049652 -0.035876 -0.006744 0.001396 -0.037203 -0.038470 -0.007259 0.151074 0.112515 0.030386 -0.159999 0.079639 0.018183 -0.026483 -0.068259 0.088483 0.046209 -0.010782 -0.019826 0.073270 0.031080 0.052574 0.066617 -0.079480 0.013739 0.036726 0.008245 -0.023591 -0.046994 -0.004231 -0.035191 -0.058248 -0.102451 0.009585 0.014178 0.013710 -0.022287 -0.045630 0.127300 -0.008260 -0.020423 -0.104057 -0.050571 0.014554 -0.034416 -0.021040 -0.059696 -0.003357 0.100772 -0.018323 -0.120718 -0.063631 0.001763 0.073418 0.085713 -0.140787 -0.110305 -0.035477 0.034122 -0.103076 -0.024546 -0.049077 -0.028346 0.002710 -0.089650 0.016556 -0.014574 0.080478 0.028653 -0.037929 0.012027 0.011675 -0.082514 -0.065581 0.112685 0.005059 -0.043930 0.018635 -0.078458 -0.034197 0.066013 -0.011222 0.038197 -0.026977 -0.019199 -0.098594 -0.071283 -0.148010 0.003091 -0.064089 0.066350 0.049868 0.018663 -0.018636 0.037521 -0.032845 0.022418 0.232145 -0.240217 -0.074609 0.025698 0.066018 -0.084748 0.006634 0.010989 0.017616 -0.003100 0.041070 -0.020229 -0.155850 -0.054990 0.005486 0.012042 -0.044593 0.063797 0.091757 0.055417 -0.083782 -0.122854 0.088056 0.009111 0.019998 -0.009252 -0.009728 -0.045703 -0.108665 -0.120124 -0.078912 0.089950 -0.207559 0.007660 -0.103364 0.116935 0.006061 -0.016631 0.057885 -0.008094 -0.131082 -0.088825 0.086981 0.067261 -0.048231 0.048613 0.124119 0.062884 -0.115506 -0.041544 0.056933 -0.045522 0.055381 -0.089698 0.081012 0.151731 -0.045123 0.018618 -0.102790 0.040635 0.002874 0.027455 -0.085903 -0.119971 -0.141257 0.082227 -0.053551 0.000218 -0.007299 -0.080238 0.034050
<det><def> 0.050450 -0.022353 -0.030651 -0.089930 0.009455 -0.048342 -0.006174 0.003570 -0.004084 -0.038852 0.022254 0.007207 0.098638 -0.116883 0.038045 0.018742 -0.064346 -0.052823 -0.047424 -0.037083 0.061818 -0.023963 0.043844 0.020702 -0.058011 -0.084822 -0.044467 0.116148 -0.025758 -0.045055 0.062121 0.025134 -0.002280 -0.039180 -0.017298 0.034091 -0.003754 -0.056156 0.006471 0.052729 -0.014509 0.010254 -0.017197 -0.005099 -0.019134 0.027138 0.072884 0.031414 0.061797 -0.001836 0.016218 0.108601 0.019266 0.008910 -0.029960 0.025737 -0.037460 0.004817 0.024857 0.063688 -0.030436 0.000087 -0.017044 -0.011086 0.039171 0.026829 0.069400 -0.034397 0.009457 -0.031057 -0.011403 0.046348 0.088537 -0.094435 0.008186 -0.033596 0.051265 -0.001278 -0.000832 0.040911 -0.034601 0.010509 -0.148195 0.023146 -0.034590 0.037017 0.002718 -0.039742 -0.017911 -0.014839 0.027158 -0.072638 -0.036853 -0.002448 0.023213 -0.072195 0.053275 0.004398 -0.004852 0.063866 0.002020 -0.010468 0.029465 0.012849 0.036536 0.003671 0.001068 -0.024483 -0.019276 -0.096033 0.099231 0.024662 -0.014530 -0.024791 0.042186 0.057328 -0.017000 -0.002502 0.050728 -0.000675 0.032278 0.045040 0.008423 -0.005901 -0.022242 -0.036561 -0.001410 0.032732 -0.013306 -0.002629 0.043152 0.004518 -0.011525 0.041327 -0.069762 0.065907 0.032650 -0.031682 -0.119635 -0.032054 -0.042927 0.023260 -0.009833 -0.021542 0.003841 -0.041664 0.029656 -0.034776 0.049149 -0.034372 0.013731 -0.014393 0.019213 0.028244 -0.084620 -0.013409 -0.000388 -0.005545 0.064545 0.043621 -0.005222 -0.022857 -0.037700 -0.036025 -0.020605 -0.031564 -0.052172 -0.060489 0.093213 0.074278 0.062953 0.005676 -0.064188 0.045138 -0.053371 0.015729 0.019089 -0.066981 -0.030070 -0.043657 -0.044486 0.010244 -0.077593 0.019172 0.026702 0.026179 0.122445 -0.030881 -0.050251 -0.046360 0.000482 0.009790 0.026765 0.002338 0.049520 0.040090 0.002353 0.012353 -0.015281 0.010966 -0.109671 0.016865 -0.057016 -0.003893 -0.020171 -0.044159 -0.019643 -0.009119 -0.028151 -0.006954 -0.001150 -0.008180 -0.062082 -0.061578 0.075065 0.147435 0.020143 0.011799 0.010698 -0.045207 0.003349 0.047150 -0.020520 0.065320 -0.032831 -0.054494 0.012155 -0.025842 0.109599 0.013695 -0.043338 -0.016006 -0.022530 0.032050 0.011370 0.000047 0.085441 -0.046303 -0.096198 0.027534 -0.049692 -0.068319 0.037808 -0.042627 0.079899 -0.063309 0.061755 0.013470 -0.106045 0.001398 0.019493 -0.039327 0.009435 0.025420 0.029796 -0.040632 -0.116464 -0.145540 0.088663 0.036675 0.013225 -0.040161 -0.063339 -0.017041 0.003262 -0.059531 0.048679 0.048285 -0.038786 -0.024491 0.052446 0.016796 0.024933 0.013791 0.020816 0.062748 0.081656 0.000206 0.026464 -0.131609 0.061627 -0.036163 -0.034678 -0.009587 0.069838 -0.009791 0.023950 0.007480 0.049889 0.009710 -0.084381 -0.018037 -0.049436 0.071735 0.006703 -0.058335 -0.005861 0.014830 0.021042 0.035487 -0.001157 0.004975 -0.019890 -0.011496 -0.059292 0.034951 0.053212 0.059443 0.052257 0.054716 0.010388 0.012660 0.023543 -0.038887 0.008894 0.050675 -0.001006 0.007615 0.046583 -0.030767 -0.127062 -0.010193 0.001062 0.015138 0.069572 0.043890 -0.053834 0.014934 -0.152107 -0.033645 0.053939 0.002451 0.012406 0.060071 -0.049676 -0.020078 -0.049169 0.028539 0.079010 0.043646 0.029586 0.104385 -0.010973 0.051329 -0.042560 -0.001102 0.003071 0.045891 -0.010339 -0.017876 0.057692 -0.008933 0.008163 -0.002065 0.022330 -0.001245 -0.024682 -0.009130 0.006737 0.006026 -0.009355 0.005449 0.003996 0.005606 -0.049514 0.016747 -0.061463 -0.029601 0.023004 0.000044 -0.021958 0.018601 0.012433 -0.003339 0.017270 0.049184 0.010824 0.013730 0.032340 0.040535 0.116876 0.002016 -0.035926 -0.007185 0.012857 0.064510 0.098622 -0.116720 -0.021201 -0.028336 0.013887 0.002503 0.008947 -0.079504 -0.073196 -0.009979 0.080554 0.020018 0.026986 0.056216 0.017702 0.017559 -0.007910 0.021359 -0.069564 0.003936 0.003667 0.022613 -0.054925 -0.053391 -0.104141 -0.066424 0.120079 0.013527 -0.011283 0.021370 -0.001476 -0.101347 -0.035687 -0.108974 -0.002295 -0.045950 0.012309 0.022810 -0.013698 0.057995 0.053413 0.023055 0.088384 0.047989 -0.087703 -0.023076 -0.025688 0.063985 -0.037072 -0.014542 -0.027996 -0.002730 -0.021139 -0.020570 -0.020087 -0.058053 -0.052985 0.017279 -0.000956 0.004445 0.077810 0.079252 0.026571 -0.062857 -0.013556 0.042767 0.017277 0.052828 0.020424 -0.074171 -0.084339 -0.070675 -0.083835 0.043657 0.014013 -0.124216 0.070208 -0.033045 0.061424 0.005542 -0.023047 0.024554 0.054780 -0.042203 -0.037548 0.044243 0.065544 -0.024443 0.017184 0.067069 -0.017675 -0.028547 -0.001361 0.020018 -0.061675 0.017933 -0.075148 0.052700 0.087674 0.012891 0.045431 -0.069932 0.033464 -0.011807 0.037413 -0.106493 -0.076949 -0.053171 -0.010642 -0.006655 -0.011087 0.008324 0.008913 -0.034291
<adv> 0.058231 -0.090807 0.004218 -0.111735 0.164289 0.149136 0.051935 -0.019409 -0.012033 -0.022601 0.020037 0.008231 0.094038 -0.084415 0.057320 0.012173 -0.016967 -0.048044 0.005744 -0.031649 0.066877 -0.090897 0.045857 0.038974 -0.009055 -0.066847 -0.010387 0.072956 -0.032413 -0.081356 0.083104 -0.037873 0.137856 0.112595 -0.008111 0.077158 0.017857 -0.071048 0.000791 0.051253 -0.033785 0.022633 0.004873 0.008121 -0.018674 -0.004863 0.088004 0.023399 0.007035 0.032675 0.044664 0.108910 -0.025539 -0.066960 0.034559 0.056945 -0.055066 -0.026108 0.021366 0.044117 -0.053184 0.032443 0.002129 0.036434 0.020360 0.052118 0.062828 -0.012780 -0.019410 -0.051553 -0.061149 0.071508 0.119001 -0.043519 0.003584 -0.017572 0.044151 0.009164 0.002823 0.066110 0.003480 -0.003463 -0.098977 0.003819 -0.018568 0.011070 0.013913 -0.062121 0.014808 0.018912 -0.062608 -0.048652 -0.035992 -0.003574 -0.031997 -0.057242 0.038751 0.057902 -0.001007 0.120405 -0.012451 0.035133 -0.043698 -0.001342 0.025044 0.043913 -0.021490 -0.041490 -0.034899 -0.028506 0.038869 0.019835 -0.037726 -0.006674 0.046911 0.019463 -0.140145 0.030721 0.027743 0.028857 0.023381 -0.042558 0.007793 0.017739 0.005384 -0.014639 -0.005841 -0.001418 0.000584 -0.011968 0.008466 0.002942 -0.048394 0.059199 -0.063489 0.015509 0.015664 0.007020 -0.058279 0.001258 -0.023725 -0.029954 -0.017372 0.004848 -0.000123 0.020705 0.033643 0.025386 0.004203 -0.036665 -0.027001 -0.023680 0.083901 0.079081 -0.054897 -0.014698 0.023775 -0.010683 0.012802 0.021224 0.002343 -0.017679 0.018816 -0.008253 -0.005929 -0.002564 -0.042035 -0.039586 0.046654 0.060615 0.091034 -0.019251 -0.042080 0.085075 -0.020828 -0.001365 -0.064789 -0.108819 0.004699 -0.061592 0.039031 -0.000295 0.037545 -0.000039 0.027127 0.064503 0.100398 -0.028371 -0.078759 -0.018228 0.036796 -0.049574 0.020795 0.004489 0.053011 0.056937 -0.066031 -0.063044 0.012661 -0.003226 -0.056548 0.046387 -0.067042 0.004691 -0.015468 -0.073639 -0.002973 0.016171 -0.040363 0.061148 0.036188 -0.002840 -0.056444 -0.007812 0.022162 0.113037 0.081255 -0.013653 0.001444 -0.015069 0.007281 -0.011686 -0.011012 0.074184 -0.059927 -0.045438 0.001611 -0.086911 0.104131 0.054452 -0.040896 -0.065070 -0.047159 0.034086 0.012547 0.008611 0.065584 0.010325 -0.071496 0.006129 -0.093478 -0.036232 0.032658 -0.009446 0.002624 -0.049902 0.035024 0.045743 -0.070664 -0.034062 -0.021408 0.021462 0.057102 0.057646 0.047921 0.001536 -0.046232 -0.073201 0.020131 0.002890 -0.009967 -0.064065 -0.064837 -0.032913 0.005449 -0.024304 0.063942 -0.029444 -0.007788 -0.055919 0.050221 0.016379 -0.007045 0.053416 0.015757 0.033736 -0.033483 0.027362 0.030591 -0.056845 0.020455 -0.077140 -0.046095 -0.001692 0.040143 0.017047 0.022582 0.027002 0.067215 0.052190 -0.033849 -0.019882 -0.068378 0.002992 -0.041717 -0.050136 -0.062710 0.020564 0.021681 0.018604 -0.016570 0.057854 -0.022248 0.017733 -0.021425 0.012491 0.051132 0.064934 0.014127 0.024387 0.004645 0.046493 0.032117 -0.020574 0.019116 0.003753 -0.037942 -0.019281 0.063105 -0.015687 -0.111240 0.012271 0.029038 0.057997 0.051526 0.031617 -0.126970 0.055750 -0.094123 -0.030796 0.026507 -0.016678 0.032845 0.045042 -0.059412 0.018296 -0.042276 0.004205 0.031652 0.082024 0.023964 0.087083 -0.035967 0.074009 0.019173 0.001525 -0.007803 0.085502 0.044180 0.024008 -0.000248 0.051557 0.153819 -0.038347 0.047952 -0.151198 0.044043 -0.008548 0.033113 -0.024458 -0.045842 0.009525 0.044854 -0.026653 -0.050988 0.051362 -0.047478 -0.049809 -0.027975 0.001710 0.004516 -0.013935 -0.060513 -0.071613 -0.008989 0.114698 0.039780 -0.021004 0.017655 0.018414 0.056598 0.014857 -0.014594 0.002492 -0.005935 0.080502 0.100962 -0.108320 -0.045005 -0.005841 -0.046292 -0.029172 -0.010546 -0.024258 -0.012973 -0.012475 0.020150 0.038966 -0.023342 0.003103 -0.022044 -0.001564 0.025884 -0.007319 -0.064856 -0.030414 0.016331 -0.034202 0.014793 -0.032912 -0.094046 -0.049097 0.024196 -0.017127 0.025143 -0.012245 -0.006234 -0.049900 -0.069164 -0.061000 0.052398 -0.062761 0.028644 -0.000231 -0.025790 -0.006776 0.034947 -0.021921 0.088173 0.138260 -0.124052 -0.002860 -0.059434 0.100769 -0.052292 -0.030904 0.000744 -0.019723 -0.015936 -0.037887 -0.002676 -0.054526 -0.068639 0.014699 -0.000229 0.041300 0.031072 0.087069 0.025733 -0.042102 -0.027782 0.005584 -0.016409 0.058515 -0.015613 -0.079084 -0.029403 -0.033735 -0.034754 0.022243 0.007999 0.003457 0.006726 -0.031069 0.026021 0.047227 -0.024611 0.027588 -0.002262 -0.011011 -0.025159 0.068605 -0.032672 -0.024950 0.027927 0.047025 0.004615 -0.018496 0.009222 0.023501 0.007664 0.030251 -0.112283 0.036608 0.087131 0.060360 0.116751 -0.080590 0.008164 -0.006209 0.021676 -0.101542 -0.072063 -0.037219 0.002741 -0.040782 -0.018418 -0.038359 -0.002783 0.034614
<n><pl> 0.044807 -0.059594 -0.021979 -0.118207 0.085325 0.051674 0.023260 -0.018219 -0.034192 -0.046873 0.019208 0.036698 0.084970 -0.123670 0.029063 0.009080 -0.069432 0.026038 -0.069281 -0.024409 0.112908 -0.085203 -0.040848 0.016108 -0.037391 -0.046690 -0.029408 0.093168 -0.020469 -0.105663 0.097981 0.020901 0.102348 0.081447 0.036858 0.120281 -0.050847 -0.069263 -0.017912 0.008216 -0.046729 0.048878 -0.013662 0.006814 -0.024374 0.013350 0.098432 0.029860 -0.010724 0.010783 0.052434 0.038660 0.021618 -0.008501 0.017160 0.032395 -0.031098 -0.016634 -0.009762 0.046289 -0.029095 -0.019290 -0.021295 0.009232 0.046812 0.144553 0.014056 0.007320 -0.044945 -0.037609 -0.007288 0.103834 0.102058 -0.004207 0.041814 -0.018083 0.026550 -0.003233 -0.052271 0.030911 -0.061779 0.012885 -0.096701 0.018924 -0.018970 0.028415 0.026030 -0.014485 0.012055 -0.044862 -0.020836 -0.094428 -0.064003 -0.047072 0.010336 -0.031284 0.083090 0.032755 -0.063139 0.164621 -0.042428 0.073633 -0.055615 0.018036 0.049474 -0.004550 0.019478 -0.017800 -0.026598 -0.096283 0.095099 0.007774 -0.030702 -0.033669 0.105164 0.047166 -0.132220 0.032418 0.100941 0.016175 0.087166 0.022271 -0.003946 0.003333 0.004937 -0.070081 -0.038594 0.060289 -0.022833 -0.020674 0.062970 -0.003468 -0.040244 0.011496 -0.115361 0.016153 0.038559 0.005450 -0.052315 -0.032728 -0.019412 -0.007518 -0.092083 -0.024884 0.031113 -0.036696 0.006570 -0.071873 0.022736 -0.087217 -0.026855 0.008572 0.088851 0.074616 -0.053899 0.019758 0.014942 0.041430 0.055647 0.017967 0.008369 -0.044345 0.043673 -0.049828 0.012764 0.009443 0.011852 0.012895 0.051519 0.039149 -0.021820 -0.000421 -0.047686 0.000379 0.022982 0.013220 0.059627 -0.048853 -0.106789 -0.057354 -0.031118 0.010853 -0.059956 0.094860 0.005986 0.036377 -0.032086 -0.015262 0.027517 -0.054170 -0.052315 0.030720 0.053472 -0.026989 0.116509 0.064717 -0.116807 -0.104220 0.028210 -0.019795 -0.020891 0.013219 -0.031186 0.042703 0.010175 -0.092598 -0.011282 0.016305 -0.010302 0.017721 0.036141 -0.036258 -0.101529 -0.055007 0.040046 0.156159 0.046611 -0.045876 0.017447 -0.001284 -0.018057 0.026612 -0.009227 0.049571 -0.009336 -0.035363 0.025594 -0.040177 0.105491 0.070136 -0.033433 -0.041459 -0.028180 -0.016117 -0.027044 -0.001126 -0.001191 -0.011242 -0.144965 -0.021449 -0.089075 -0.054589 0.015911 -0.028077 0.078201 -0.072302 0.041634 0.018504 -0.079737 -0.073896 -0.023300 -0.017739 0.059480 0.013063 0.053147 -0.044562 0.005792 0.062441 -0.002436 -0.015117 -0.027184 -0.092197 -0.031693 -0.045462 -0.028751 -0.042910 0.087702 -0.006794 -0.067819 -0.024334 0.082127 0.009572 0.038789 -0.007999 0.037860 0.042948 0.002971 0.003639 0.059299 -0.093434 0.097570 -0.040893 -0.048789 0.007539 0.096049 0.024449 -0.005659 0.007467 0.006610 0.023048 -0.124852 -0.014266 -0.038570 0.023145 -0.004317 0.003857 0.002845 0.054524 0.029333 0.010765 0.052738 0.047918 -0.058516 -0.017484 -0.020381 0.078853 -0.000237 -0.005814 0.090635 0.029453 -0.000868 0.025438 0.043161 -0.050687 0.067797 0.067785 -0.011078 0.045555 0.001422 -0.002494 -0.132802 -0.055634 0.077394 0.100848 0.044595 0.044472 -0.085753 0.029690 -0.121953 -0.041307 0.074311 0.043491 -0.024424 0.028316 -0.076445 0.019098 -0.001783 0.001069 0.056663 0.019730 0.040696 0.129438 -0.041253 0.013769 -0.045584 -0.043334 -0.013333 0.092680 -0.050455 0.044596 0.069360 0.004903 0.014594 0.009686 0.026875 -0.104258 -0.028090 -0.018404 0.075584 -0.028203 -0.071530 0.048430 -0.002497 0.002800 -0.067496 0.048714 -0.073371 -0.108076 -0.036368 0.015280 -0.040391 -0.017058 -0.007205 -0.057151 0.021112 0.064641 0.036463 -0.022871 0.044447 0.029259 0.141338 -0.004327 -0.009619 0.080191 0.007745 0.041481 0.042722 -0.071683 -0.061878 -0.050876 -0.030800 0.034917 0.014328 -0.088595 -0.064089 0.022787 0.110943 -0.019938 0.038272 0.048068 0.001865 0.075916 0.005639 -0.039771 -0.094297 -0.029786 0.057714 0.029030 -0.047903 -0.034037 -0.103080 -0.070745 0.147676 -0.013001 -0.022802 0.030407 -0.030480 -0.070897 -0.029710 -0.079716 0.085466 -0.079271 0.027124 0.008861 -0.013489 0.053750 0.002661 0.028001 0.093489 0.157729 -0.108150 -0.039654 0.013534 0.101818 -0.017682 -0.008373 -0.016280 0.007895 -0.007456 -0.071877 -0.002983 -0.078321 -0.123143 0.031366 0.008413 0.028468 0.072393 0.072485 0.020945 -0.055388 0.013981 0.056975 -0.036635 0.008794 -0.011246 -0.021805 0.005853 -0.063887 -0.036383 0.022092 0.031929 -0.018252 0.005215 -0.019817 0.082460 -0.015108 0.001415 0.059540 0.110633 -0.038574 -0.078034 0.208411 0.004928 -0.025965 0.072588 0.040453 -0.013727 -0.001578 0.012384 0.013953 -0.035291 0.036762 -0.083681 0.037998 0.188087 0.001059 0.044725 -0.093423 0.002597 0.011073 0.061242 -0.099714 -0.056313 -0.034371 0.007282 -0.041349 0.050768 0.016103 0.041740 -0.050534
<vblex><inf> 0.065431 -0.053765 -0.004558 -0.137656 -0.017433 0.107965 0.000096 0.076734 -0.048202 -0.035994 0.028119 0.040987 0.132141 -0.007617 0.079840 0.022839 -0.005487 -0.020235 0.017363 -0.044982 0.050220 -0.080700 0.073136 0.066357 -0.038307 -0.099327 -0.066997 -0.000011 -0.044221 -0.003539 0.077045 -0.093794 0.031089 0.064328 -0.035265 -0.020183 -0.000439 -0.139476 -0.013395 0.007867 -0.026575 0.073697 0.051896 0.078756 -0.004808 0.026930 0.060664 0.059380 0.032568 0.075729 0.044865 0.185305 0.054372 0.000652 0.121767 0.007876 -0.094006 0.012527 0.006041 0.097366 -0.026401 -0.004788 -0.022316 0.033315 0.065939 0.063030 0.164067 -0.077559 -0.007526 -0.052033 -0.024835 0.137077 0.156749 -0.123597 -0.045728 0.010001 0.090019 0.007294 0.044650 0.047902 0.066857 -0.063883 -0.080095 0.005966 -0.012051 0.018526 0.017762 -0.017583 0.059211 0.015922 -0.109597 -0.001571 -0.115782 0.033724 -0.082859 -0.090141 -0.052348 0.113334 0.044418 -0.020483 0.009229 0.018573 -0.094365 0.025808 0.075952 0.000506 -0.036994 -0.103909 -0.033443 0.064100 0.115587 0.057736 -0.067044 -0.019752 0.059796 -0.005566 -0.116915 0.093782 -0.049618 0.071237 0.078129 0.009749 -0.096450 0.090846 0.053300 -0.071161 0.006457 0.028876 -0.036411 0.063601 0.061298 0.005241 -0.078242 -0.027223 -0.023923 0.105047 -0.001874 0.024117 -0.084850 0.070122 -0.095695 -0.072495 -0.043106 0.017657 0.016399 0.005509 0.092090 0.030759 0.051481 -0.056649 -0.028202 0.017278 0.082948 0.077168 -0.020399 -0.011003 0.034454 0.031897 0.135425 -0.015762 0.054166 0.001524 0.033632 0.060063 -0.009302 0.053866 -0.040095 -0.029637 0.074502 -0.036944 0.009290 -0.025087 -0.031164 0.113583 -0.070531 0.059355 -0.023389 -0.121312 0.053951 -0.115625 -0.054645 0.032519 -0.062880 -0.007323 0.017043 0.121222 0.074573 -0.111461 -0.105121 0.054189 0.043341 -0.068937 -0.040986 -0.023281 -0.020254 -0.044875 -0.082374 -0.085030 0.021947 -0.033200 0.063457 0.130748 0.022342 0.027369 -0.028947 0.002217 0.015847 0.049525 -0.070638 0.039602 0.065984 0.009602 0.038783 0.016513 -0.017989 0.047582 0.077580 0.022055 0.008117 0.012380 0.025303 0.011410 0.005663 0.072933 -0.061259 -0.017380 0.035785 -0.095108 0.122802 0.069501 -0.077918 -0.010568 -0.029984 0.049845 0.053821 0.021702 0.102349 0.059912 -0.022902 0.018795 -0.107236 -0.024870 0.028267 0.010901 0.002331 -0.036839 0.055124 0.064636 -0.012601 0.007417 0.024283 0.049081 0.006790 0.036659 0.021022 0.059984 -0.144711 -0.260688 0.025059 0.031071 0.024215 -0.084458 -0.030255 -0.050288 0.006951 0.040949 -0.009311 0.022346 -0.039324 -0.087700 0.054816 -0.046744 0.020643 0.073950 -0.034886 0.027280 -0.027102 -0.011847 -0.053734 -0.050249 0.040060 -0.073685 -0.006287 -0.040210 -0.013048 0.056826 0.022336 0.011482 0.016373 0.040434 0.024578 0.002857 -0.081128 0.050803 -0.081211 -0.040245 -0.098749 -0.022223 0.032585 -0.008679 -0.013405 0.063381 0.022119 0.074326 -0.056947 -0.034348 0.012530 0.104527 -0.025536 0.038254 0.001885 0.067129 -0.011092 -0.007648 -0.037406 0.012961 -0.091032 0.024689 0.104450 0.036371 -0.092042 -0.015067 0.042169 0.074598 -0.035374 0.001788 -0.065221 0.020067 -0.052137 -0.053071 0.035972 -0.082522 0.064501 0.075716 -0.018075 0.016346 0.050528 0.006153 -0.003777 0.118014 0.067288 0.072345 -0.035187 0.116330 0.010802 0.016414 0.023783 0.029966 0.066446 0.090064 0.052213 0.071837 0.155137 -0.082119 0.096449 -0.138264 0.050136 0.011087 -0.035233 -0.009972 -0.021477 0.009269 -0.002718 0.019647 0.023719 0.029910 -0.021651 -0.057902 -0.046185 0.032544 0.119507 -0.062327 -0.063438 -0.042345 0.003907 0.162716 -0.025212 -0.076310 -0.018210 0.008318 0.014368 -0.032093 -0.006807 0.012935 -0.058137 0.051750 0.103345 -0.118694 -0.038749 0.004792 -0.047351 -0.050312 -0.003968 -0.029287 0.103728 -0.047135 0.011654 0.061430 -0.025768 -0.001295 -0.058455 -0.042505 0.055017 0.049086 -0.012116 -0.064390 0.053209 0.021643 0.067542 -0.018056 -0.078584 -0.070879 0.103107 -0.045632 0.016047 -0.044279 0.043738 0.003900 -0.113177 -0.054811 0.008556 -0.097207 0.021670 0.001117 -0.020118 -0.021659 0.063992 -0.035269 -0.015282 0.130219 -0.060642 0.046339 -0.028090 0.035077 -0.032877 0.002409 0.047851 -0.011631 -0.082733 0.001594 -0.014130 -0.079156 -0.090717 0.008288 -0.025773 0.074524 0.033989 0.070344 -0.015061 0.000584 0.018648 -0.016394 -0.021631 0.075658 -0.036818 -0.096072 -0.067962 0.022871 -0.078624 0.012925 -0.000141 -0.117992 0.040534 0.022529 0.024231 0.026269 -0.041319 0.011535 -0.057797 -0.024306 -0.001004 0.050483 0.030127 0.042923 0.033296 0.045660 0.018216 -0.033565 -0.043788 0.040548 0.075354 -0.042162 -0.080213 0.027950 0.070395 0.025520 0.129876 -0.004079 -0.038205 0.004190 0.017693 -0.059929 -0.127697 -0.115529 0.124785 -0.088133 -0.008778 -0.225052 -0.071599 0.024264
<cm> 0.075722 0.001549 -0.005180 -0.047268 0.086543 0.040247 -0.006965 -0.043061 -0.022754 -0.043802 0.021826 0.006409 0.127065 -0.095647 0.056356 0.044472 -0.061364 -0.070771 -0.015612 -0.074806 0.050064 -0.028579 0.064104 0.048734 -0.037595 -0.099000 -0.043152 0.108203 -0.050964 -0.083346 0.087674 -0.029467 0.053403 0.037454 -0.022240 0.082764 -0.009655 -0.066534 0.004530 0.048027 0.045459 -0.022604 -0.021120 -0.009455 -0.058508 0.035177 0.074985 0.011630 0.044841 0.006600 0.009173 0.091394 -0.022634 -0.021277 0.015621 0.044820 -0.046507 0.017074 -0.005695 0.075437 0.011453 0.009961 -0.037769 -0.016417 0.024493 -0.014646 0.060585 0.002579 0.028852 -0.021307 0.001465 0.066463 0.144722 -0.163625 -0.007430 -0.063573 0.067998 -0.002184 0.002809 0.032683 -0.014317 0.030332 -0.133666 -0.003138 -0.050778 0.061788 -0.042279 -0.108356 -0.018660 -0.033909 -0.002293 -0.052769 -0.053808 -0.012502 0.004409 -0.032033 0.060280 0.030605 -0.044866 0.123211 -0.027470 -0.005646 -0.021977 0.006684 0.021253 -0.007681 0.000730 -0.059346 -0.006851 -0.095884 0.101414 0.020803 0.005079 -0.050733 0.039114 0.037546 -0.087074 0.018902 0.093770 0.040919 0.040908 0.050347 -0.026063 0.021617 -0.013834 -0.048491 -0.006576 0.041239 0.013511 0.020022 0.053608 0.014463 -0.023857 0.026042 -0.052539 0.064404 0.043718 -0.011153 -0.104490 -0.008389 -0.069983 0.011008 -0.010502 0.002604 0.010122 -0.017714 0.039643 -0.028266 0.042263 -0.034127 0.002296 0.030199 0.047453 0.030112 -0.066867 -0.034177 -0.012092 -0.027330 0.053853 0.034220 -0.044994 -0.011035 -0.019845 -0.090692 0.021192 0.004958 -0.081595 -0.059709 0.060946 0.059162 0.076779 -0.005751 -0.043768 0.052676 -0.035172 -0.001591 -0.032832 -0.094539 0.005859 -0.054642 0.053484 -0.059871 0.115716 -0.073944 0.085482 0.067861 0.122034 -0.059046 -0.094520 -0.033430 0.005658 -0.055946 -0.002996 0.000963 0.006801 -0.049989 0.015041 -0.015539 0.011448 0.040296 -0.034223 0.010309 -0.006965 -0.025768 -0.005594 -0.008515 -0.004628 -0.040418 -0.025869 -0.025510 -0.002109 -0.013706 -0.008370 -0.014566 -0.013728 0.054314 0.082899 -0.016122 -0.015600 -0.030358 -0.000517 0.019071 -0.002907 0.018962 -0.006082 -0.000610 0.023339 -0.053715 0.068145 0.059517 -0.062166 -0.045076 0.002065 0.016339 0.010180 0.022694 0.047490 -0.041808 -0.065360 0.026687 -0.053063 -0.080787 0.045345 -0.040780 0.030163 -0.048930 0.015101 -0.002153 -0.088704 -0.010621 -0.000218 -0.020041 0.027228 0.056991 0.036196 -0.007403 -0.122494 -0.148724 0.108675 0.003832 0.015042 -0.048343 -0.066814 -0.056892 -0.039277 -0.066560 -0.004395 0.015229 -0.037335 -0.041897 0.067869 -0.005117 0.013291 0.050853 -0.000314 0.076678 0.014776 0.008117 -0.003438 -0.095522 0.034606 -0.071822 -0.057973 -0.027790 0.013629 -0.016737 0.035662 -0.009941 0.013095 0.020165 -0.079554 -0.008401 -0.068822 0.080018 0.004714 0.004318 -0.016375 0.034875 0.048904 0.070148 -0.039169 0.004100 -0.014624 0.043249 -0.044577 0.031543 0.049688 0.041003 0.010515 0.026966 0.028157 0.041642 -0.028447 -0.022203 -0.000436 0.014915 -0.012388 0.016532 0.077855 -0.016360 -0.111616 -0.005534 -0.007573 0.043423 0.027095 0.053207 -0.071698 0.005489 -0.134822 -0.057487 0.012397 -0.001190 0.037112 0.047986 -0.046629 -0.008928 -0.020182 0.011270 0.047199 0.050816 0.070800 0.044221 -0.026491 0.061593 -0.049862 -0.044461 -0.013053 0.048571 0.009679 -0.004889 0.074401 0.010513 0.070634 -0.039108 0.047392 -0.078288 0.032500 -0.005389 0.012324 -0.008262 -0.015298 -0.000388 -0.002994 -0.028333 0.012542 0.006894 -0.049449 -0.018339 0.007577 0.012677 0.005751 0.017899 -0.020210 -0.033131 0.018693 0.088917 0.043930 0.004573 0.043815 0.032542 0.080868 0.016591 -0.056244 -0.040366 0.005096 0.070139 0.077767 -0.103462 -0.084554 -0.031760 0.003074 -0.006873 -0.007259 -0.054772 -0.004213 -0.001285 0.062629 -0.009871 -0.012089 0.033987 0.014766 0.003606 0.021412 -0.001879 -0.072892 -0.020289 0.032256 0.007131 -0.035061 -0.027626 -0.050518 -0.024860 0.085411 0.005745 -0.037964 -0.001705 0.019307 -0.069714 -0.045257 -0.092457 0.042050 -0.026922 0.015240 -0.009875 -0.004072 0.035514 0.018061 0.012500 0.109659 0.145417 -0.129457 -0.013659 -0.081283 0.092114 -0.056802 -0.021136 -0.054382 0.016439 -0.029228 -0.022602 0.009158 -0.062442 -0.072828 0.007167 -0.011735 0.021985 0.073463 0.065169 0.034075 -0.110139 -0.053207 0.047917 -0.002066 0.028470 -0.003501 -0.021234 -0.016715 -0.055874 -0.071429 0.043105 -0.008511 -0.034609 0.029822 -0.025766 0.059736 -0.039171 -0.032624 0.020999 0.011376 -0.002669 -0.054182 0.032265 0.021253 -0.010592 0.025524 0.092557 0.001833 -0.031119 0.006197 0.044260 -0.017622 0.035595 -0.085193 0.091834 0.076994 0.010465 0.040309 -0.059594 0.021016 0.031921 0.029960 -0.102357 -0.035902 -0.042794 0.021438 -0.054180 -0.019447 -0.028718 0.014062 -0.017202
<cnjcoo> 0.049580 -0.059596 -0.050009 -0.100321 0.125678 0.099031 0.016632 0.009258 -0.020314 0.021285 -0.008484 0.037691 0.104037 -0.068345 0.067163 0.025016 -0.067004 -0.034867 -0.024011 -0.035616 0.067336 -0.014384 0.050823 0.045077 0.002680 -0.038824 -0.013748 0.019802 -0.026340 -0.069181 0.077763 -0.035794 0.130840 0.052281 0.019857 0.109861 0.028699 -0.011211 -0.005321 0.037298 0.008391 0.018821 -0.035309 -0.014491 -0.012249 0.010942 0.076567 0.020975 0.009654 0.005133 0.016847 0.073346 -0.051920 -0.066815 0.047126 0.056001 -0.050591 -0.016266 0.007395 0.070417 -0.022580 0.013424 -0.027348 -0.000922 -0.001880 0.007968 0.059717 -0.010856 0.027427 -0.039602 -0.032264 -0.001986 0.131871 -0.089267 -0.012940 -0.023403 0.047601 0.010317 0.018985 0.060506 -0.016365 0.041546 -0.190949 -0.039257 -0.054992 0.048603 -0.009227 -0.113593 -0.022047 -0.020677 -0.038178 -0.088140 -0.086344 -0.013210 -0.059722 -0.116827 0.072126 0.006595 -0.032369 0.120238 -0.044269 0.072407 -0.091006 0.001819 -0.001552 0.020635 0.012569 -0.079545 0.009978 -0.067858 0.092004 0.069081 -0.036685 0.003222 0.032261 0.031198 -0.128281 -0.007687 0.064274 0.013941 -0.008466 0.023077 -0.029563 0.068354 0.014404 -0.025511 0.000809 0.002578 -0.027604 0.047586 0.033093 -0.000066 -0.011267 0.034320 -0.052359 0.019334 0.032792 -0.027835 -0.090250 0.001951 -0.047339 0.000481 0.002925 0.006427 0.001754 0.007081 0.026028 0.008253 0.046490 -0.011541 -0.004760 -0.039636 0.038772 0.039794 -0.079597 0.005384 0.026521 -0.034949 0.039607 0.021520 -0.010247 -0.041343 -0.002470 0.007215 0.022617 -0.024144 -0.006697 -0.047669 0.015706 0.065660 0.101291 -0.005074 -0.021573 0.047233 -0.025766 -0.020249 -0.039464 -0.054058 -0.010071 -0.008874 0.026572 -0.015605 0.000865 -0.022816 0.033513 0.019572 0.060159 -0.057982 -0.050414 -0.081099 0.041030 -0.037995 0.023615 0.007446 0.071075 0.044327 0.020485 -0.006340 -0.002517 0.015540 -0.045565 0.023583 -0.071284 -0.035986 -0.017134 -0.072222 -0.006799 -0.021627 -0.031376 0.027557 0.026519 0.011829 0.009968 0.002059 0.008738 0.085412 0.066867 -0.053172 -0.004586 -0.012791 0.000364 0.007902 0.022726 0.033175 -0.046425 -0.071413 -0.001781 -0.079867 0.092803 0.031237 -0.049386 -0.022572 -0.017177 0.010112 0.007578 0.031858 0.053657 -0.007549 -0.093042 0.048870 -0.060517 -0.068194 0.032719 -0.046357 0.005778 -0.073435 0.043065 0.011535 -0.093987 -0.012454 0.000008 -0.036596 0.017895 0.079505 0.022209 -0.013937 -0.092634 -0.111799 0.086746 0.025940 0.056007 -0.030470 -0.066837 -0.023650 -0.000583 -0.044048 0.044096 0.017738 -0.005609 -0.049423 0.066209 0.009896 -0.025304 0.052186 0.019129 0.054899 -0.041238 0.032852 0.030751 -0.079164 0.065560 -0.061839 -0.057600 -0.040869 0.026222 0.010975 0.019163 0.004047 0.040301 0.014811 -0.034917 0.007425 -0.069692 0.035590 -0.031814 -0.065738 -0.001199 0.026548 0.030177 0.042961 0.027990 0.012271 0.011655 0.021743 -0.028391 -0.014648 0.031498 0.051302 0.025579 0.019210 0.002786 0.014851 -0.014754 -0.006424 0.011083 0.004969 -0.026967 -0.003301 0.087746 -0.013182 -0.104960 0.017956 -0.006148 0.045232 0.047993 0.066704 -0.118688 0.013936 -0.091970 -0.041556 0.056843 -0.015052 0.056495 0.039705 -0.030689 -0.005184 -0.021122 0.021317 0.035093 0.096044 0.018719 0.090658 -0.065492 0.075553 -0.003075 0.001890 -0.034214 0.071167 0.042250 0.000658 0.003617 0.057255 0.058024 -0.012902 0.028793 -0.094812 -0.004440 0.004786 0.013101 -0.024651 -0.040901 -0.025980 0.019861 -0.023002 -0.062159 0.025332 -0.026344 -0.013098 -0.014057 -0.011612 0.034595 -0.003215 -0.034019 -0.049036 -0.024971 0.040837 0.009994 -0.021335 0.007842 0.050548 0.065602 0.028219 -0.059108 -0.011317 -0.013626 0.069073 0.117233 -0.133313 -0.037354 -0.026306 0.005902 -0.008779 -0.037313 -0.021980 -0.049070 -0.017096 0.007341 0.000357 -0.006552 0.036114 -0.002044 -0.016664 0.015656 -0.020915 -0.088021 -0.020730 -0.009753 -0.016312 -0.017000 -0.030515 -0.090970 -0.044198 0.079339 -0.009048 0.025354 -0.025171 -0.013720 -0.060765 -0.069743 -0.079012 0.030309 -0.088430 0.045179 0.039355 0.012575 -0.030015 0.058869 -0.014531 0.089049 0.151369 -0.128497 -0.002129 -0.032565 0.062292 -0.050406 -0.013416 -0.052183 -0.000814 -0.058036 0.012128 -0.023928 -0.097201 -0.043843 0.004026 0.019100 -0.017050 0.064108 0.064063 0.046608 -0.047555 -0.067460 0.032228 -0.037724 0.045397 -0.003588 -0.077594 -0.035367 -0.051121 -0.087346 0.001190 0.019669 -0.034233 0.013308 -0.058329 0.027690 0.019303 -0.017439 -0.002508 -0.008219 -0.095718 -0.073598 0.086920 0.033440 -0.021996 -0.019688 0.080050 0.017487 -0.038562 -0.015585 0.035807 -0.005898 0.035226 -0.052266 0.022073 0.074527 0.003831 0.071451 -0.080420 0.056520 0.008262 0.009309 -0.087504 -0.058993 -0.091484 0.014297 -0.003548 -0.033163 -0.021410 -0.023092 0.007314
<guio> 0.090207 -0.025412 -0.046632 -0.083461 -0.194356 -0.190055 -0.022757 0.016177 -0.049108 0.049765 0.091549 -0.017488 0.096984 -0.115673 0.027095 0.032426 -0.015225 -0.045552 -0.030300 -0.041091 0.079542 -0.025361 0.074190 0.030012 -0.030145 -0.026523 -0.080360 0.109463 0.018945 -0.057941 0.085028 0.023325 0.146843 0.079779 -0.040837 0.083069 -0.019975 -0.080124 -0.014500 0.055562 -0.018311 -0.069202 0.032484 -0.010856 -0.025213 0.062033 0.147038 0.036125 0.052910 -0.013811 0.033298 0.084317 -0.049118 -0.053354 -0.044247 0.073773 -0.029334 -0.034757 -0.010094 0.051879 -0.041224 0.004564 -0.084435 0.055164 0.049807 0.069003 0.067330 -0.069490 0.000317 -0.128868 -0.057167 0.220817 0.106749 -0.086208 -0.021041 -0.080445 0.065271 -0.014022 0.010254 0.041089 -0.091379 0.048857 -0.122527 -0.044596 -0.031105 0.015202 0.002262 -0.093311 0.001654 0.082047 0.045218 -0.093350 0.005301 0.044009 -0.042174 -0.018101 0.099143 0.030226 -0.081781 0.098442 -0.072169 -0.019571 0.021913 -0.098027 0.077535 -0.092106 -0.025738 0.026047 0.046091 -0.052830 0.094783 -0.055751 -0.037400 -0.050544 0.029549 0.071370 -0.050843 -0.085530 0.082197 0.049644 -0.059087 0.043906 -0.012900 -0.010407 -0.099357 0.038902 0.062611 0.082702 -0.002791 0.038374 0.038324 -0.001761 -0.019800 0.063540 -0.027494 0.042567 0.016477 0.000960 0.016120 0.013070 -0.007379 0.034018 0.048001 0.006012 0.034936 0.021809 0.020991 -0.027479 0.062621 -0.028401 0.017079 0.013799 0.005661 -0.032732 0.008400 -0.031815 0.035411 0.035111 0.012283 -0.024064 -0.046486 0.090668 -0.035305 -0.025658 0.018139 -0.064149 0.013441 -0.056623 0.109935 0.061126 0.028522 0.001825 0.007738 -0.020167 -0.042935 0.047348 0.006831 -0.031005 0.028435 -0.023678 0.007073 -0.011451 0.089774 -0.000385 0.067398 0.026497 0.094044 0.032380 -0.003608 -0.004003 0.051278 -0.021552 0.056972 -0.019894 -0.033381 0.041243 -0.029208 0.020715 0.052075 -0.051747 -0.113251 -0.029954 0.001970 0.002969 0.032403 -0.002246 -0.018739 -0.003090 0.021200 -0.020309 0.014615 -0.005425 -0.057429 -0.014510 0.014872 0.155714 0.030994 0.063768 -0.025904 0.009795 0.113050 -0.023630 -0.028984 0.040656 -0.032771 -0.054134 0.030543 -0.039276 0.096226 -0.036319 -0.094060 -0.029453 0.062264 0.084089 0.044228 0.034838 0.034370 -0.060111 -0.119810 0.108972 -0.071220 -0.068328 0.053590 0.051024 0.086881 -0.140856 0.060772 0.042410 -0.031355 0.021732 0.012237 -0.024605 0.002797 0.033407 0.073716 0.020910 -0.076177 -0.056743 0.020674 -0.040045 0.040613 -0.100294 -0.049348 0.027893 0.029707 -0.014331 0.028350 0.026398 0.024794 -0.071635 0.021467 -0.068813 0.021785 0.117498 0.021444 0.080277 0.049681 0.002051 -0.023751 -0.083426 0.014671 -0.052457 -0.056920 -0.000808 -0.018980 -0.036710 -0.008653 0.006238 0.020655 -0.024077 -0.102870 -0.024900 -0.062576 0.082825 0.034227 -0.034158 -0.070697 -0.067633 0.036773 0.057357 0.033548 0.024211 -0.013354 0.060880 0.015429 0.037782 0.052915 0.064240 0.011676 0.019102 -0.013039 0.067528 0.073883 -0.041507 0.002533 0.056192 0.021752 0.075697 0.030914 -0.030945 -0.076755 -0.006348 0.000207 0.022218 0.017932 -0.052530 -0.034231 0.033800 -0.134674 -0.006507 0.015995 0.015026 0.002356 0.078790 0.000090 0.031461 -0.087207 0.069850 0.086164 0.050805 0.055822 0.096367 -0.010290 0.090450 0.025383 -0.072500 0.011181 0.080122 0.042042 -0.027424 0.031940 -0.046078 -0.050902 0.019735 0.077748 0.045655 0.028801 -0.020640 0.057141 -0.001879 -0.120985 -0.004024 -0.008898 0.045019 -0.111330 0.057733 -0.116645 -0.072659 0.020008 0.007773 0.046930 0.019220 0.011976 0.013035 -0.011301 0.019339 0.035277 -0.051916 0.071154 0.020543 0.094817 -0.005485 -0.007603 0.009811 0.054253 0.035716 0.073134 -0.083913 -0.082388 -0.007969 0.025572 -0.052556 -0.027035 -0.119187 -0.051547 -0.044213 0.093374 0.054326 0.005247 -0.015213 0.061521 0.017488 -0.033730 0.042261 -0.046574 0.011007 0.050954 0.014226 -0.070532 -0.020168 -0.086203 -0.073136 0.059373 -0.011967 -0.035634 0.044338 -0.019982 -0.117485 -0.045966 -0.158260 0.016015 -0.057301 -0.014938 -0.038089 -0.035285 -0.021314 0.073511 -0.000538 0.112656 0.082638 -0.112582 -0.031611 -0.055529 0.062861 -0.064445 -0.057745 0.005983 -0.066118 -0.026731 0.013381 0.000622 -0.107543 -0.067858 0.069541 -0.049187 -0.012539 0.049941 0.048264 0.074403 -0.085988 -0.057689 0.033855 -0.043085 0.024457 -0.009134 -0.078276 -0.088532 -0.094022 -0.083918 0.082017 -0.043623 -0.023242 -0.032124 -0.069818 0.079006 0.050961 0.033721 0.015438 0.097901 -0.116728 -0.072449 0.157536 0.047037 0.026484 0.069407 0.030594 -0.028689 -0.043830 0.020900 0.002357 -0.026573 0.035470 -0.064177 0.090437 0.114170 0.017696 0.040693 0.017829 -0.009745 -0.080089 0.071909 -0.119712 -0.103136 -0.014982 0.002750 -0.042810 -0.017575 -0.011932 0.025584 0.003380
<det><ind> 0.089863 -0.066907 -0.002270 -0.069644 -0.005873 -0.033970 0.004094 0.019013 -0.025486 -0.053417 0.016618 0.003409 0.139192 -0.133277 0.061386 -0.002024 -0.033166 -0.070429 -0.024606 -0.068811 0.040803 -0.058959 0.053527 0.043767 -0.011323 -0.108941 -0.016830 0.084557 -0.058638 -0.067809 0.076244 -0.018152 -0.053059 -0.046567 0.017579 -0.042139 0.004592 -0.067712 0.007131 0.080557 -0.012070 0.000733 0.011249 0.002701 -0.020790 0.003032 0.078134 0.033660 0.037429 0.013821 -0.006699 0.161811 0.019865 -0.014198 -0.052523 0.012249 -0.060969 -0.006732 0.041249 0.060659 -0.030746 0.014665 -0.037738 0.000747 0.046548 0.042928 0.086947 -0.018149 0.009505 -0.009127 -0.037901 -0.020709 0.137668 -0.089578 0.011101 -0.006701 0.078111 0.017049 0.026601 0.052913 0.012666 0.000579 -0.136878 -0.036270 -0.023520 0.017969 -0.019662 -0.071293 -0.018354 -0.042208 -0.020636 -0.045641 -0.039065 0.041909 0.022791 -0.080035 0.021627 0.050452 0.050062 0.095054 0.000496 0.019350 -0.021325 0.033104 0.025766 -0.008167 0.004883 -0.007324 0.004668 -0.043888 0.048538 0.016847 0.001048 -0.021766 0.016836 0.046892 -0.028385 0.042819 0.061705 0.017741 0.017943 0.012437 0.024096 0.020631 -0.014053 -0.013160 0.016521 -0.004566 -0.042565 -0.005403 0.042879 -0.004821 -0.027141 0.043140 -0.061019 0.091315 0.013627 -0.014937 -0.090588 -0.008008 -0.006225 -0.009196 0.028712 -0.019666 -0.027643 -0.033995 0.030672 0.031285 0.002764 -0.006558 0.030425 -0.018455 0.022167 0.066399 -0.105527 -0.055469 -0.005976 -0.040188 0.041772 0.093517 0.020956 -0.016523 -0.009584 0.006764 0.007013 -0.011217 -0.062254 -0.074096 0.089251 0.017139 0.081078 0.006583 -0.078965 0.045743 -0.049945 0.036835 0.013819 -0.036276 0.001081 -0.058427 -0.083521 0.028448 -0.105900 0.007671 0.006307 0.014022 0.121542 -0.001668 -0.055626 -0.009102 0.058589 -0.021960 0.043637 -0.018411 0.062935 0.063345 0.009733 -0.008256 -0.030308 0.023418 -0.062985 0.026510 -0.064362 0.016401 -0.023319 -0.033436 -0.012289 -0.006559 -0.045039 0.022441 0.036071 -0.018615 -0.052434 -0.010238 0.060206 0.114385 0.025048 0.042528 -0.000188 -0.038613 0.021768 -0.022133 -0.019440 0.076790 -0.051312 -0.094686 -0.022975 -0.049611 0.099325 0.013166 -0.032529 -0.022186 -0.024848 0.066143 -0.002930 0.041654 0.104774 -0.004110 -0.065891 0.016257 -0.089891 -0.057170 0.053775 -0.017804 0.010262 -0.051139 0.056977 0.067419 -0.092063 0.014744 0.007945 -0.027381 0.017978 0.068719 0.027360 -0.005250 -0.044650 -0.006064 0.049146 -0.010700 0.036305 -0.052608 -0.079396 -0.026712 0.014962 -0.031738 0.056035 0.051990 -0.050628 -0.030403 0.057546 0.030309 0.021401 0.048739 0.029890 0.029257 0.021990 0.037008 0.005106 -0.119797 0.027127 -0.074958 -0.061225 -0.003363 0.048563 -0.023775 0.030749 -0.006697 0.075534 0.014461 -0.114730 -0.043800 -0.079738 0.056820 -0.033122 -0.110242 -0.020532 0.005261 0.009775 0.013692 -0.023279 0.007630 -0.005108 0.053160 -0.064242 0.020661 0.069149 0.110337 0.051634 0.056037 0.033204 0.058261 0.016687 -0.044260 -0.012774 0.037650 -0.061652 -0.044322 0.080864 -0.070940 -0.111793 -0.014295 -0.038259 0.028629 0.066612 0.024526 -0.116901 0.009736 -0.126938 -0.058438 0.022018 -0.034061 0.071241 0.060456 -0.010712 -0.024102 -0.062897 0.026614 0.050604 0.056483 0.030177 0.092239 0.005274 0.083597 0.010724 -0.010330 0.023005 0.053079 0.007261 -0.005776 0.058668 0.032092 0.007165 -0.001532 -0.016439 0.013874 0.041784 0.002778 -0.005804 0.020987 0.016413 -0.024258 0.018306 0.021785 -0.056102 0.002504 -0.080946 -0.027973 0.000429 0.014320 -0.008720 -0.015858 -0.000423 0.005677 0.010188 0.033456 0.015765 0.023000 0.067324 0.015687 0.073698 -0.027330 -0.041004 -0.027222 0.013499 0.057440 0.083107 -0.110952 0.028586 -0.020506 0.039162 0.007257 -0.027631 -0.054292 -0.029328 -0.020260 0.038791 0.020801 0.025392 0.035724 0.011359 -0.010136 0.026785 0.026170 -0.104758 -0.020811 -0.012698 -0.007997 -0.022997 -0.057503 -0.111283 -0.071692 0.080288 -0.042566 -0.017918 -0.016262 0.035383 -0.070718 -0.081106 -0.076108 0.017939 -0.062797 0.030135 0.036470 -0.039385 0.015416 0.078599 -0.005918 0.100631 0.053339 -0.126484 -0.003201 -0.075982 0.061628 -0.056472 -0.004722 -0.011251 0.028480 -0.014692 -0.013765 -0.029604 -0.077164 -0.069890 -0.000148 -0.024171 -0.010158 0.109285 0.103445 0.022414 -0.053027 -0.046020 0.020986 0.030568 0.043709 -0.004330 -0.045033 -0.047452 -0.093934 -0.046212 0.054110 0.074125 -0.321220 0.158512 0.021549 0.049380 0.052168 -0.061453 -0.001983 -0.001085 -0.064027 -0.019699 0.052498 0.029429 -0.003504 -0.031331 0.097217 -0.001492 -0.050117 0.011189 0.052250 -0.001331 0.018292 -0.096062 0.069197 0.062968 0.049070 0.088370 -0.049398 0.007830 0.000171 0.018563 -0.102774 -0.072022 -0.045850 -0.007840 -0.029347 -0.040580 -0.059880 -0.013706 0.004532
num 0.121338 -0.056048 -0.017989 -0.218012 -0.261375 -0.328293 -0.010726 -0.008213 0.005066 0.061827 0.102496 -0.038274 0.111021 -0.128873 0.028273 -0.002795 -0.100327 -0.005915 -0.086258 -0.064165 0.141368 -0.078987 0.061420 -0.035341 -0.050592 -0.023467 -0.114890 0.141866 0.027997 -0.058934 0.173490 0.022293 0.183896 0.129582 0.012645 0.115002 -0.115190 -0.071613 0.033266 0.068896 -0.057283 -0.007426 0.076527 0.041715 0.058853 0.060661 0.200026 0.068625 -0.003209 -0.008500 0.032564 0.078852 0.017452 -0.054646 -0.070060 0.048401 -0.105656 -0.003703 0.032916 0.027408 -0.070778 -0.060346 -0.009022 0.049037 0.051427 0.103513 0.018038 0.044854 -0.049904 -0.001784 -0.047952 0.050878 0.217802 -0.141947 0.019339 -0.033184 0.101845 -0.022497 0.037438 0.079763 -0.085784 0.035545 -0.177236 -0.067940 -0.012389 0.002938 0.038512 -0.029803 -0.002986 -0.010647 -0.011424 -0.125674 0.010874 0.068770 0.007325 -0.095243 0.232107 -0.022957 -0.049601 0.188807 -0.045084 0.013828 0.090859 -0.068562 0.183850 -0.091787 -0.051794 -0.100975 -0.017932 -0.067869 0.146401 -0.022091 -0.051142 0.006721 0.110470 0.142816 -0.168596 -0.068087 0.107762 -0.018224 -0.005217 0.038258 -0.038245 -0.037509 -0.125329 -0.027263 0.065674 0.104502 -0.045632 -0.113453 0.043364 -0.020010 0.024030 -0.010523 -0.122340 0.004446 -0.084114 0.049052 -0.044615 0.025277 -0.050696 0.017756 0.002597 -0.089463 0.019546 -0.056088 0.140692 -0.019620 0.024776 -0.042956 -0.014070 -0.019455 0.028026 -0.046355 -0.029813 -0.054314 0.037096 0.029798 0.007987 -0.030322 0.001571 0.034948 -0.029338 0.045961 0.019918 -0.096283 -0.052393 -0.039400 0.081248 0.091282 0.037524 0.079654 -0.091076 -0.008795 -0.053777 0.163801 0.102221 -0.130612 -0.046638 -0.098074 -0.170830 0.097636 -0.148121 0.089823 0.030380 0.050214 0.108021 0.009880 0.000985 -0.042350 0.090998 0.003760 0.065758 -0.036371 0.014250 0.072196 -0.081329 -0.069384 0.081875 -0.044416 -0.059998 -0.002190 -0.020249 0.107321 0.003475 0.039242 -0.033363 0.004062 0.022394 -0.041955 0.042656 0.007736 -0.065576 -0.123758 0.096824 0.151068 -0.043133 0.081172 0.079402 -0.025398 0.107937 0.007387 -0.018449 0.032861 -0.023498 -0.068662 -0.008630 0.069654 0.013234 0.014068 -0.031375 0.000250 0.039848 0.093689 -0.060024 0.070963 0.046045 -0.043103 -0.090824 0.053082 -0.098320 0.004428 0.031740 0.098559 0.022656 0.006935 0.127374 0.071621 -0.099380 -0.030534 -0.030356 -0.022899 0.051453 -0.017750 0.041089 -0.103547 -0.163327 -0.041517 0.057522 -0.099511 0.058101 -0.170100 0.041292 0.113465 0.049418 0.032068 0.102772 0.043935 0.097285 -0.044815 0.062862 -0.031099 0.027590 0.103079 0.039497 0.077745 0.119013 0.029568 0.005271 -0.117715 0.032208 0.054524 -0.062964 -0.010216 -0.012121 0.010719 -0.078251 0.012287 -0.039888 -0.047135 0.003471 -0.008434 0.027144 0.106773 0.007883 -0.114500 0.000266 -0.101254 0.024090 0.056173 0.011881 0.016530 -0.068185 0.068100 -0.027262 0.022726 0.007241 0.060372 -0.015012 -0.119294 0.015977 -0.067755 0.118487 -0.123581 0.024096 0.055293 0.031340 0.014571 -0.012543 -0.089142 -0.049334 -0.034338 -0.009255 0.074444 0.087030 -0.072517 -0.018733 -0.030331 -0.174185 0.045817 -0.009192 0.027960 -0.052252 0.042499 -0.079680 0.062771 -0.090976 0.109004 0.092069 -0.009185 -0.025550 0.148869 0.028146 0.031866 -0.023907 -0.045239 0.012565 0.037264 -0.014140 0.021061 -0.045521 -0.060240 0.021246 -0.001893 0.037568 -0.056617 0.059774 0.012263 0.056962 0.061511 -0.037407 -0.034767 0.028834 0.074496 -0.094338 0.017806 -0.007783 -0.030908 0.016949 -0.000942 -0.093200 0.015584 0.066887 0.018293 0.057981 0.028310 -0.044652 0.072425 0.027181 0.015559 0.129197 -0.091731 -0.001149 0.010099 0.042013 0.131070 0.033136 -0.090625 -0.031877 -0.092024 0.099738 -0.007186 -0.034820 -0.078882 -0.061799 -0.023223 0.064605 0.072006 -0.012336 -0.007852 0.079856 0.013181 -0.038826 0.051289 -0.061699 0.037556 0.070153 0.016585 -0.123744 -0.047413 -0.096675 -0.177709 0.069024 -0.042246 0.022807 0.013540 -0.041218 -0.047673 -0.058912 -0.135900 0.050445 -0.093749 -0.039563 -0.024441 0.019285 -0.009948 0.099697 0.001070 0.138135 0.001114 -0.034987 -0.032448 -0.060201 0.051563 0.009651 -0.013565 -0.004791 -0.050870 0.014093 -0.026737 -0.075041 -0.077220 -0.025472 0.110554 0.012359 -0.062857 0.132201 0.104907 -0.006382 -0.101314 0.071471 0.041903 0.014991 -0.007419 0.000589 -0.167868 -0.057210 -0.115016 -0.081906 0.089295 0.017865 0.062330 -0.078653 -0.059765 0.148312 0.014578 0.014917 0.057214 0.037660 -0.031020 -0.003628 0.108812 0.076799 0.060602 0.078291 0.041248 -0.081447 -0.026748 -0.002943 0.013090 0.098292 0.015683 -0.039003 0.026302 0.037772 -0.032799 0.041713 -0.040740 -0.033133 -0.099596 0.104441 -0.043139 0.003794 0.055737 -0.043934 -0.024183 -0.050040 -0.031537 0.104387 -0.018547
<cnjsub> 0.012933 -0.053826 -0.017592 -0.088560 0.282524 0.236137 0.046966 0.001379 -0.030625 -0.062023 -0.011646 0.013015 0.074291 -0.095058 0.102560 0.014845 -0.015625 -0.051301 0.007165 -0.046927 0.020245 -0.043678 0.043882 0.038659 -0.037049 -0.121994 -0.011851 0.071817 -0.033970 -0.067847 0.081868 -0.045030 0.068969 0.003235 -0.006651 0.040284 0.083016 -0.055428 0.012108 0.040077 -0.031060 0.071976 -0.041691 -0.001429 -0.020012 0.034536 0.030651 0.048639 0.031826 0.068087 0.062712 0.133071 -0.025148 -0.058432 0.024135 0.033740 -0.051055 -0.059730 0.012046 0.071298 -0.068506 0.047780 -0.019504 0.028090 0.027446 0.009359 0.109892 -0.094671 0.011224 -0.031320 -0.057839 -0.005128 0.095446 -0.081431 -0.024838 -0.009817 0.032364 0.002452 0.050119 0.076867 -0.018040 0.021293 -0.159143 -0.010394 -0.033153 0.061048 -0.004678 -0.039323 -0.007969 0.020018 -0.047123 -0.063634 -0.059925 -0.016029 -0.060173 -0.132658 0.059137 0.030872 -0.018080 0.084800 0.040567 0.042765 -0.079202 0.002062 0.028190 0.045178 -0.001789 -0.034113 -0.017098 0.005543 0.028147 0.092713 -0.035455 -0.003454 0.023684 -0.006925 -0.117039 0.032865 0.050210 0.064571 -0.001960 -0.013893 0.009206 0.017842 0.037380 0.003334 -0.017724 -0.037139 -0.031228 -0.006062 0.012047 0.009124 -0.008780 0.089082 -0.014904 0.057243 0.028442 -0.043860 -0.142161 -0.024189 -0.084941 -0.022815 -0.053439 0.024829 -0.052375 0.011670 0.025022 0.018525 0.067272 -0.043013 -0.037320 -0.068837 0.032801 0.089861 -0.097564 0.000511 0.019394 -0.018631 0.044022 0.019177 0.022750 0.009125 -0.004835 0.007138 -0.014813 -0.024142 -0.017335 -0.047520 -0.003159 0.057157 0.110210 -0.069952 -0.034508 0.087955 -0.040942 -0.008698 -0.077139 -0.044422 0.011395 -0.051057 0.072631 -0.067898 0.081836 -0.040999 0.007646 -0.006742 0.061145 -0.023480 -0.072215 -0.049060 0.041221 -0.009386 0.051620 0.006617 0.058573 0.057011 -0.002648 -0.021806 -0.047137 0.055235 -0.092413 0.061819 -0.108775 -0.064214 -0.002220 -0.092219 0.014451 0.045446 -0.068904 0.061728 0.009102 0.020197 0.013153 -0.003856 0.037374 0.136788 0.074462 -0.038183 -0.003401 -0.021903 0.014112 -0.004334 0.039079 0.082653 -0.100237 -0.101521 0.037985 -0.101679 0.128840 0.022759 -0.055305 -0.053726 -0.076272 0.024686 0.059130 0.013459 0.048661 0.026838 -0.059508 0.024894 -0.094624 -0.028997 0.058337 -0.051543 0.011669 -0.047205 0.029610 0.012876 -0.098318 0.025123 0.015893 -0.058045 0.018587 0.052859 0.035047 0.016432 -0.097565 -0.197040 0.062741 0.066032 0.024310 -0.011827 -0.101216 -0.059368 0.017291 -0.049570 0.057121 0.011661 -0.008325 -0.077687 0.045004 0.007594 -0.017469 0.072803 0.047884 0.032075 -0.005763 -0.031504 0.050095 -0.103986 0.070591 -0.082264 -0.035669 -0.053126 0.045145 0.010442 0.025222 -0.010285 0.094102 0.036863 -0.033257 -0.001711 -0.062853 -0.006480 -0.019097 -0.075455 -0.064155 0.026169 -0.006144 0.000094 0.025031 0.065756 0.024497 -0.019036 -0.019094 -0.031561 0.043456 0.077251 0.020694 0.064741 0.007509 0.008343 0.007650 0.000474 -0.001889 -0.023530 -0.012642 -0.044662 0.079383 -0.022013 -0.147378 0.045681 0.038572 0.021440 0.087715 0.078356 -0.106748 0.045401 -0.076073 -0.008187 0.047485 -0.038660 0.054406 0.068134 -0.058999 0.011789 -0.002541 -0.013609 0.063330 0.162643 -0.005104 0.065196 -0.050621 0.093638 0.019077 0.029517 -0.006183 0.082490 0.077124 0.009735 0.004415 0.072926 0.201247 -0.057000 0.081024 -0.164427 -0.001995 0.029559 0.001503 -0.042848 -0.020790 -0.010765 0.036942 -0.035689 -0.055011 0.067588 -0.039301 -0.032968 -0.021312 -0.008067 0.069865 -0.009688 -0.116080 -0.042099 -0.078090 0.143508 -0.011985 -0.035620 -0.015507 0.046500 0.028779 0.037035 -0.006156 -0.000439 0.020240 -0.003099 0.057498 0.000407 0.001053 0.033727 -0.058797 -0.023090 -0.013176 -0.007015 -0.020338 -0.004810 -0.011847 0.038296 0.021334 0.002994 -0.035832 -0.026658 0.037733 -0.022876 -0.044307 -0.002727 -0.009679 -0.009541 0.004992 -0.054008 -0.140238 -0.033806 0.024013 0.011902 0.027807 -0.037020 0.004711 -0.037216 -0.073878 -0.091082 0.019766 -0.118193 0.064775 -0.008315 -0.022561 0.017030 0.057806 -0.032616 0.100054 0.114300 -0.114022 -0.031346 -0.060192 0.086254 -0.078507 -0.015488 0.009555 -0.011167 -0.050766 -0.008447 0.006949 -0.056035 -0.036298 -0.010054 -0.012150 0.057767 0.038401 0.060452 0.015519 -0.061442 -0.038375 -0.001483 0.032268 0.067702 0.010475 0.003902 -0.060847 0.021590 -0.075192 -0.042382 0.031001 -0.098876 0.013831 0.000615 0.000007 0.063966 -0.040504 0.023136 -0.004312 -0.134571 -0.094191 0.097259 -0.037138 -0.033445 -0.057640 0.077061 0.047860 -0.024877 0.017254 -0.007385 -0.028283 0.035286 -0.132935 0.056346 0.056943 0.051723 0.149207 -0.074804 0.076865 -0.004174 0.026486 -0.094754 -0.091126 -0.083833 -0.015013 -0.017869 -0.011904 -0.070846 -0.051314 0.058421
<vblex><past> 0.153024 -0.040219 -0.053124 -0.091973 -0.323746 -0.356769 -0.104055 0.076162 0.019345 -0.029947 0.005539 -0.069283 0.145564 -0.048199 0.043544 0.037673 -0.022654 -0.125112 -0.025772 -0.029567 -0.030084 0.056022 0.030986 0.056566 0.097743 0.019309 0.067180 -0.084158 0.025891 -0.021626 0.068941 -0.140923 0.173908 0.084128 -0.060312 0.122928 -0.016198 -0.039627 0.009970 0.155421 -0.027326 0.016692 0.025997 0.024519 -0.030066 0.040119 0.164691 0.037807 0.051046 -0.021613 0.040776 0.078612 0.033853 -0.063523 0.145102 0.048979 -0.135723 0.061258 0.012271 -0.017785 -0.037412 0.006947 -0.041693 0.022466 0.111824 -0.002465 0.053433 -0.008561 0.079297 -0.043073 -0.038797 0.044925 0.085769 -0.145127 0.003506 -0.022145 0.092273 0.027085 0.069291 0.022781 -0.037141 0.023582 -0.104161 -0.001786 0.000508 0.003895 -0.016705 -0.023897 -0.047296 -0.093042 -0.070832 0.030634 -0.014700 0.010308 0.037609 -0.125898 0.079587 0.053631 -0.004403 0.141468 -0.012337 0.054216 -0.051386 -0.019853 0.071916 -0.032397 0.025109 -0.155533 0.045350 -0.067532 0.201218 0.199169 -0.043740 -0.024499 0.103545 -0.000895 -0.233304 0.100860 0.094865 0.137289 0.127261 0.013002 -0.094179 0.078162 0.007788 -0.090826 -0.008063 -0.050840 -0.076107 0.063210 0.080886 0.006613 -0.008614 0.046016 -0.064268 0.137545 -0.013126 -0.000556 -0.125769 -0.152222 -0.064049 -0.062639 -0.037793 0.030240 0.029802 -0.021425 0.033030 -0.004051 -0.005913 0.019085 -0.005827 0.015623 -0.013980 -0.003788 -0.177741 -0.064818 -0.069299 -0.044828 0.010748 0.030939 -0.003288 -0.061363 -0.000177 0.024887 0.074422 -0.006144 -0.111454 -0.069140 0.069125 0.067140 0.078291 0.099434 -0.072931 0.054770 -0.088885 0.085016 -0.032794 -0.102618 -0.004825 -0.101131 -0.026451 -0.029197 -0.132169 -0.042593 0.041880 0.011452 0.039381 -0.062698 -0.118135 -0.033655 0.042198 -0.127392 -0.031533 -0.030270 0.016410 -0.027230 0.016937 -0.119089 -0.022642 0.084270 -0.113744 0.136052 -0.133808 -0.118364 -0.093231 -0.053328 0.031277 0.046085 -0.165105 0.009814 0.074206 0.072774 -0.043620 -0.112695 0.065757 0.261233 0.023196 0.068118 0.087536 -0.011181 0.046501 -0.014335 0.047403 0.122063 -0.067586 -0.004736 -0.001743 -0.079841 0.054333 0.100482 -0.052091 -0.019047 0.008311 0.031921 0.044584 0.014330 0.116118 0.008444 0.066754 -0.046180 -0.052035 -0.080927 0.077325 0.002682 -0.033107 -0.013148 0.029002 0.035276 -0.169833 0.032192 -0.025360 -0.000091 0.028124 -0.008068 -0.001548 -0.075047 -0.140670 -0.106274 0.143638 0.016478 0.031183 -0.073539 -0.068600 -0.043003 0.043405 -0.037060 -0.004342 0.030461 0.005695 -0.027619 0.036218 -0.004196 0.009889 0.019288 0.073351 0.045535 0.006065 0.007263 -0.122261 -0.011301 -0.031764 -0.047480 -0.092687 -0.074829 0.000359 0.034646 -0.051658 -0.039197 0.088556 -0.013826 0.002316 -0.064180 -0.032253 0.023207 -0.106982 -0.101994 -0.081532 0.000058 0.041678 0.017813 -0.023311 0.017752 -0.031292 0.012647 -0.072760 -0.054390 0.036044 -0.033785 0.075259 0.010738 -0.001589 -0.007076 0.024660 -0.043783 0.018229 0.008226 -0.037629 -0.118235 0.092797 -0.028248 -0.161274 0.111437 -0.030173 0.099164 0.083971 0.047474 -0.107378 -0.042224 -0.148651 -0.067568 0.076132 -0.104738 0.048451 0.035418 0.038731 0.042418 0.019383 -0.044776 0.025984 0.082931 0.042807 0.035043 -0.058396 0.135009 -0.038364 -0.033660 -0.025825 0.033447 -0.006191 0.021425 0.006973 0.094598 0.030593 -0.008746 -0.042617 0.029242 0.100889 0.043631 -0.070325 0.029501 -0.024583 0.000137 -0.003488 0.059307 -0.012054 0.053340 -0.010983 -0.155506 0.022129 -0.001866 0.063914 -0.048167 0.037347 0.064336 -0.027116 -0.060760 0.003859 -0.089402 -0.034435 0.042929 0.086583 0.023020 -0.018457 -0.088829 -0.006129 0.084288 0.126449 -0.078831 -0.039644 -0.020370 -0.008272 0.024024 -0.057761 -0.066290 -0.021148 -0.004346 0.018335 -0.048207 0.053086 0.074910 -0.017081 -0.066428 0.003999 -0.044034 -0.117181 0.013828 -0.031522 -0.061194 0.028653 -0.030443 -0.100862 -0.054759 0.070897 0.124837 -0.009936 -0.070217 0.096630 -0.018821 -0.205905 -0.127378 0.000843 -0.145201 0.091434 0.062735 0.029203 0.121452 0.045559 0.015531 0.119413 0.029322 -0.135812 -0.013443 -0.115657 0.086225 -0.037896 -0.053422 -0.019507 0.080147 -0.095891 -0.058428 -0.132135 -0.045917 -0.080717 -0.057375 -0.039492 -0.007066 0.051895 0.136383 0.027295 -0.059516 -0.025195 0.053036 0.097551 0.055858 0.055188 -0.068807 0.071104 -0.066606 -0.067220 -0.016138 -0.032882 0.068651 -0.031225 -0.076298 0.027140 -0.065907 -0.121449 -0.013567 -0.072534 0.044331 -0.042837 0.053983 -0.003282 0.062476 -0.062904 0.151457 0.068019 -0.092025 -0.016320 -0.003855 0.036860 -0.068944 -0.011631 -0.032975 0.088099 0.041225 0.155665 -0.126391 0.025177 0.014315 0.034634 -0.050531 -0.121009 -0.055559 0.075030 -0.007844 -0.058104 -0.134629 -0.044340 -0.005909
<vblex><pri><p3><sg> 0.036991 0.002424 -0.045303 -0.126778 -0.018267 -0.024681 -0.008364 0.045010 -0.015690 -0.025443 0.046110 0.030533 0.207414 -0.133228 -0.026592 0.098951 0.005058 -0.089990 0.031536 -0.006353 0.059105 -0.056121 0.057149 0.066449 0.075696 -0.044085 -0.050666 -0.033962 -0.050405 -0.048622 -0.026720 -0.074518 0.100236 0.059443 -0.007321 0.117096 0.087096 -0.030763 0.015894 0.131897 -0.055773 -0.025144 -0.094781 0.056750 -0.041335 -0.027740 0.101946 0.004616 0.005535 -0.069577 0.007462 0.051851 -0.058030 -0.047478 0.119790 0.058012 -0.054974 0.009942 -0.025518 0.092188 -0.057536 0.035369 -0.074991 -0.011408 0.103916 0.187569 0.143095 -0.070044 -0.012694 -0.111874 -0.086770 0.054657 0.023326 -0.065271 0.008619 -0.017856 0.110227 0.046179 -0.137137 -0.022163 -0.049425 -0.008661 -0.023731 -0.019487 0.047837 0.018872 0.026655 -0.145297 -0.002388 0.033003 -0.041392 -0.114838 -0.102387 0.038429 -0.067836 -0.038845 -0.185102 0.001868 0.067902 -0.152092 -0.151587 0.067454 -0.097700 -0.052273 0.042236 0.079742 0.101390 0.017761 -0.014620 -0.100159 0.148121 0.046536 0.001184 -0.123949 0.132826 -0.039138 0.149996 -0.026970 -0.129856 -0.043713 0.084013 0.039898 -0.067788 0.089629 0.023925 0.024898 0.030265 0.089785 0.008241 0.089356 0.041488 -0.028776 -0.070936 0.057810 -0.080602 0.042504 0.090731 0.124588 0.026117 0.004588 -0.031723 -0.078851 -0.025566 -0.010449 0.080939 0.080420 -0.049691 0.077641 0.022885 -0.030549 -0.071693 0.007472 0.101460 0.028441 -0.052168 0.010193 0.017800 0.008918 0.058283 -0.013840 -0.086641 -0.026548 0.122295 -0.040212 0.055311 -0.016474 0.003806 -0.095163 0.133929 0.062329 0.031638 -0.038218 -0.013084 0.095190 -0.042330 -0.083906 -0.081093 -0.121823 -0.015681 -0.049210 0.181547 -0.049136 0.142696 -0.045515 0.138078 0.130684 0.095588 -0.091556 -0.053374 -0.056813 -0.005634 -0.109540 0.017915 -0.021634 0.020157 -0.005729 -0.095823 -0.037241 0.064353 -0.004845 -0.038257 0.085041 -0.126057 0.032856 0.000170 -0.095368 0.013162 0.092677 -0.109024 0.121663 0.070235 0.007411 -0.151178 0.058548 -0.033167 0.196193 0.101175 0.009757 -0.071699 0.006888 -0.009859 -0.007952 -0.072843 0.102412 -0.018670 -0.006049 -0.006221 -0.146249 0.168633 0.098616 -0.031873 -0.090060 -0.019560 -0.009115 -0.037084 -0.012733 0.088578 0.005075 -0.187065 -0.076580 -0.021201 -0.027179 0.041250 0.019648 0.032861 -0.162789 -0.026795 -0.085973 -0.073216 -0.065561 0.004305 0.015522 -0.007680 0.056419 0.144122 0.066202 -0.123264 -0.093128 0.037739 -0.016606 -0.028159 -0.104564 -0.095828 -0.080695 0.035237 -0.016175 0.072530 -0.097924 -0.087885 0.026056 -0.056909 0.009968 0.006537 0.032213 0.045416 0.049748 -0.040410 0.060584 -0.028756 -0.062902 -0.043659 -0.136693 -0.064413 0.029231 0.084762 0.024284 -0.028703 0.070822 0.033496 0.043098 -0.019024 0.003123 -0.092962 -0.027305 -0.057383 0.015855 -0.045047 0.063015 0.047993 0.075041 -0.031321 0.042428 0.023406 0.132835 0.075796 -0.006455 0.099439 0.047842 0.083703 0.014510 0.020192 0.093916 -0.052921 0.022247 0.001260 -0.040490 -0.040781 0.011395 0.154751 0.013750 -0.052350 0.014827 -0.010615 0.103593 0.021207 0.048221 -0.260787 0.018552 -0.161855 -0.111889 0.078994 0.001226 0.077549 0.069061 -0.004578 0.007367 -0.028894 0.026132 0.058543 0.018396 0.068803 0.127218 -0.069304 0.127099 0.010901 -0.031175 0.014450 0.063708 0.104611 -0.056186 0.029001 -0.073697 0.174238 -0.034231 0.159582 -0.180793 0.002398 0.042206 0.021651 -0.007918 -0.078452 0.010693 -0.011866 -0.015738 -0.057325 0.089804 -0.078171 -0.038390 -0.000023 0.011741 -0.015292 0.026456 -0.082002 -0.092149 -0.030120 0.196671 0.080974 -0.081489 0.171926 0.021287 0.074253 0.071505 -0.016903 -0.002666 -0.047526 0.028759 0.061978 -0.075329 0.052967 0.028019 -0.000913 0.030394 0.020498 -0.109783 0.041107 -0.047847 0.183324 0.059137 -0.002190 -0.050173 -0.028831 0.035057 -0.011008 -0.038443 -0.163253 -0.078923 -0.045387 -0.055252 0.090582 -0.026440 -0.004292 -0.078024 0.157787 -0.023370 -0.090884 -0.023770 0.039829 -0.103059 -0.008128 -0.062551 0.026414 -0.122975 0.049600 0.097534 -0.037166 0.002059 0.021013 0.004745 0.028991 0.194361 -0.013186 0.027250 -0.036923 0.124814 -0.101754 -0.095545 -0.025912 -0.047050 0.025505 -0.081774 -0.039922 -0.071837 -0.152176 0.067052 -0.002176 -0.018253 0.003882 0.071331 0.111619 -0.056019 -0.060014 -0.035900 -0.117950 0.100942 -0.083378 -0.136276 -0.001624 -0.142295 -0.052538 0.005240 -0.021030 -0.019587 0.057764 -0.141507 -0.007893 -0.006099 0.004488 -0.066188 -0.007617 0.032397 -0.035389 0.115934 0.056819 -0.029891 0.043206 0.101905 -0.010519 0.005104 0.028912 0.093611 -0.006915 -0.013303 0.064580 -0.012559 0.148672 0.047666 0.128583 -0.020387 -0.053163 0.032277 -0.007174 -0.139027 -0.147323 -0.076505 0.033113 0.006758 0.030190 -0.056274 0.045876 0.017127
<vblex><pri> 0.031078 -0.022672 0.088490 -0.080278 0.116716 0.101102 0.066103 0.002479 -0.033721 -0.059959 0.060480 -0.075851 0.176836 -0.074048 0.019667 0.031748 -0.048662 -0.030554 0.057822 -0.045298 0.028736 -0.092628 0.052816 0.018567 -0.050135 -0.177747 -0.092370 0.041646 -0.062135 -0.037317 0.066701 -0.152115 0.185860 0.137120 -0.029783 0.103411 -0.010427 -0.056685 0.049872 0.098532 0.045266 -0.012346 0.047699 0.091677 0.041802 0.102194 0.147058 0.008741 -0.044254 0.066454 0.048618 0.089065 -0.074072 -0.143717 0.090813 0.103725 -0.129898 -0.030866 -0.118129 0.053288 -0.058208 0.034980 -0.114908 -0.024685 0.050535 0.099143 0.089840 -0.008300 0.012794 -0.073406 -0.018546 0.116317 0.085629 -0.085762 -0.094374 -0.061278 0.047589 -0.016831 0.019955 -0.006952 -0.082914 0.002753 -0.009999 0.007829 0.049789 -0.006074 -0.010625 -0.095414 0.008122 -0.012670 -0.098149 -0.095222 -0.101104 0.030724 -0.105208 -0.003849 0.061736 0.126763 -0.012119 0.054566 -0.044160 0.020787 -0.131473 -0.109522 0.079463 -0.038177 0.025900 0.018005 0.011941 0.016784 0.081720 0.050405 0.001310 -0.037647 0.197340 -0.026727 -0.186594 0.056015 0.018509 0.148332 0.025001 0.082956 -0.067886 0.085434 0.104236 0.004379 0.027462 0.038275 0.030889 0.018915 0.075566 -0.006226 -0.086120 0.005643 -0.111250 0.062296 0.023948 0.061604 -0.001229 0.071079 0.013739 -0.062669 -0.100578 -0.031258 0.082737 0.022617 0.029379 0.024796 0.010373 -0.028624 -0.072338 0.049954 0.104407 0.007111 -0.020145 -0.001848 0.036138 -0.016788 0.048311 -0.041558 0.003317 -0.020215 0.109064 -0.009865 -0.014312 0.065006 -0.066709 -0.149358 0.115072 0.032966 0.098545 -0.069329 -0.067018 0.181267 -0.088883 -0.027224 -0.015509 -0.179018 -0.010834 -0.138320 -0.081529 -0.015868 -0.024391 -0.056462 0.109667 0.200172 0.044106 -0.056794 -0.133652 0.052832 0.064291 -0.142458 0.002171 -0.039134 0.095225 -0.044299 -0.136642 -0.131899 0.008361 0.037053 0.144783 0.123983 0.004175 0.034806 0.007470 0.040260 0.012769 0.038334 -0.078033 0.023530 0.031289 -0.027126 0.028534 0.051618 -0.112471 0.034100 0.141643 0.042149 -0.016627 0.080666 0.085397 -0.064498 -0.025964 0.142222 -0.030906 -0.013674 0.002980 -0.128086 0.138403 0.116022 -0.022490 -0.087459 0.003794 -0.006656 0.038034 -0.050806 0.078813 -0.018616 -0.176757 -0.049342 -0.149358 -0.033938 0.043180 -0.003400 0.002479 -0.123670 0.086568 -0.027882 -0.068474 -0.019022 -0.065039 0.078032 -0.055878 -0.062460 0.149216 -0.019798 -0.002963 -0.015464 -0.045202 -0.020645 0.004370 -0.091346 0.057851 -0.050508 -0.006415 0.025539 0.019081 0.043111 0.015812 -0.129543 0.051169 0.007779 -0.038687 0.110646 0.035035 0.020313 -0.013449 0.061968 -0.014654 -0.089899 0.030195 -0.080880 -0.002747 0.020321 -0.062338 0.028961 -0.019771 0.074825 -0.052972 0.080797 0.004654 -0.055454 -0.041739 0.036961 -0.012873 0.049507 -0.070514 -0.004256 0.044597 0.040064 0.069381 0.090505 -0.011240 0.121978 0.027841 0.035323 -0.002797 0.067324 0.036879 0.071498 -0.048334 0.150191 -0.015988 -0.040918 -0.027975 -0.030199 0.010732 0.078114 0.094780 -0.004123 -0.043192 0.010071 0.027057 0.187823 -0.011485 0.026059 -0.111638 -0.013761 -0.069723 -0.053452 0.046387 -0.004484 0.056833 0.128274 0.022302 0.008711 0.043532 0.045034 0.143255 0.119379 0.077177 -0.000563 -0.054926 0.176484 -0.026192 -0.112092 0.075096 -0.023491 0.079314 0.045054 0.026175 -0.004935 0.141699 -0.073338 0.052280 -0.094055 0.131750 0.075040 0.045705 -0.033356 -0.124679 0.029691 -0.127770 -0.034128 0.029899 0.016502 0.000099 -0.064177 -0.075200 0.095464 0.049728 -0.061479 -0.067405 -0.012967 -0.019078 0.125164 -0.008350 -0.086540 0.147469 -0.099213 0.069892 0.020757 0.111995 0.014053 0.048265 0.041819 0.047428 -0.061254 -0.110100 -0.087496 -0.077981 0.023962 0.007007 -0.075938 0.095899 -0.004577 0.045700 0.051520 -0.080516 -0.055393 -0.057515 0.038542 -0.014285 -0.038386 -0.042029 -0.121324 0.020872 -0.038547 -0.021643 -0.026562 -0.027999 -0.049486 0.054550 -0.026068 -0.040503 -0.052698 0.022683 -0.002601 -0.062653 -0.074776 0.080719 -0.087909 0.067356 -0.029445 0.015599 0.015073 -0.019531 -0.059989 0.084102 0.182340 -0.062915 0.056624 -0.063825 0.130654 -0.004784 -0.064564 0.000992 0.036852 -0.025788 -0.041494 -0.013570 -0.055576 -0.119677 0.019319 0.035274 0.047049 0.076832 0.050460 0.030643 0.016061 -0.014612 -0.108775 -0.060643 0.071217 -0.052917 -0.073504 0.025805 -0.021899 -0.078918 0.027874 0.047177 -0.018643 0.002496 -0.096924 0.094034 0.014716 -0.008004 0.014929 -0.003602 0.104305 0.078798 -0.083219 0.011650 0.034323 0.059787 0.072555 -0.001706 0.011808 0.005533 0.077060 0.090982 -0.037946 -0.025308 0.004433 0.099077 0.020649 0.036084 -0.053499 -0.045595 0.037337 -0.013004 -0.109326 -0.077651 -0.057450 0.079857 -0.052429 0.001695 -0.088228 0.038205 0.040295
<prn><subj><p1><sg> 0.001228 -0.150979 0.003344 -0.101807 -0.063493 0.133404 0.081375 0.036494 0.027089 0.099610 0.093590 0.077134 0.042519 -0.142613 -0.001969 -0.061191 -0.050684 -0.071881 -0.044832 -0.058259 0.038339 -0.153443 0.050965 0.173262 -0.047988 -0.052124 -0.028172 0.091580 -0.027471 -0.106228 0.094871 -0.011578 0.089963 0.143594 0.008990 -0.020021 -0.138082 -0.137331 -0.029218 -0.023041 -0.043475 -0.003563 0.069751 -0.011818 0.008769 -0.027481 0.159665 0.128774 -0.006584 0.057954 0.025711 0.112776 0.038223 -0.106726 0.070139 -0.028186 -0.091450 -0.056319 0.072114 -0.047058 0.008383 -0.054667 -0.012726 0.083735 -0.025288 0.049449 0.022044 -0.046394 -0.016864 0.078455 -0.027044 -0.055220 0.118915 0.017872 -0.032562 -0.005621 0.120712 -0.011554 0.042145 0.178335 0.025969 -0.058315 -0.164206 -0.041479 -0.033402 -0.062938 0.030778 -0.054415 0.081249 0.081358 -0.046187 0.084025 -0.094904 0.041314 -0.071099 -0.053285 0.029521 0.066951 0.053594 0.132178 -0.026195 0.067332 -0.013941 0.104773 0.018083 0.094008 -0.173984 -0.120449 -0.041668 0.064526 0.033156 0.005013 -0.144375 0.123317 0.035632 0.044131 -0.139190 -0.002695 -0.057092 0.042900 -0.003090 -0.076810 0.034182 0.048941 0.023671 -0.052773 -0.016725 0.034694 -0.041965 0.022187 -0.012622 0.009929 -0.032781 -0.014486 -0.096842 0.017968 -0.045048 0.067258 -0.157152 0.010731 0.006590 -0.094401 0.026660 -0.012900 -0.035607 0.039589 0.087523 -0.041838 0.001246 -0.112500 0.046167 -0.058004 0.030768 0.121551 -0.011468 -0.074486 0.066706 0.079063 0.014943 -0.044527 0.074060 -0.013108 -0.031044 0.116026 0.054939 -0.064456 -0.108129 -0.046570 0.115096 0.134608 0.092939 0.118275 -0.106355 0.139499 -0.124193 0.027812 -0.099860 -0.257534 0.011828 -0.104007 0.174148 0.084063 0.024045 -0.035929 -0.084620 0.007264 0.283939 -0.106718 -0.159291 -0.012182 0.094868 -0.047130 -0.012628 0.051199 0.014627 0.124067 0.001811 -0.045683 -0.079598 -0.011277 0.020727 0.063552 -0.054669 -0.025555 -0.141475 0.036356 0.032859 0.013413 -0.101962 0.159070 0.093004 0.065509 -0.133837 0.038916 -0.009051 0.077956 0.062992 0.006690 -0.008719 0.118788 -0.068495 0.008681 -0.080814 0.054184 -0.111905 -0.027078 -0.044430 -0.033474 0.137612 -0.005907 -0.132834 -0.048949 -0.089019 0.040966 0.026798 -0.025102 0.110127 0.064042 0.020610 -0.009638 0.021957 -0.095873 0.020272 0.088153 -0.038212 0.022461 0.109554 0.181191 -0.039730 -0.006105 0.001102 0.032618 0.135760 0.075006 -0.052875 -0.070237 -0.059630 -0.135480 -0.042592 -0.047202 0.088980 -0.086839 -0.046695 0.026057 0.003176 0.054621 0.041723 0.023530 -0.095420 0.034683 0.155679 -0.001180 -0.051707 0.063411 -0.026728 -0.030664 0.023467 0.010591 -0.049062 -0.000005 -0.035002 -0.035995 -0.121705 -0.084137 0.113040 0.084923 0.106735 0.034653 0.179233 0.012268 -0.047876 -0.054774 -0.025103 -0.026147 -0.102497 -0.063839 -0.053601 -0.028073 0.059879 -0.062613 -0.011600 0.059430 -0.066092 -0.006224 -0.037602 0.017551 0.057602 -0.061506 -0.004256 -0.038086 -0.081644 0.001220 0.076463 0.002822 0.046659 -0.014199 -0.161156 0.002579 0.011478 -0.004986 -0.157406 0.008045 0.032272 0.062276 0.033213 -0.085163 -0.080723 0.063030 -0.135555 -0.081549 0.038340 -0.099683 0.058696 0.051845 -0.013925 0.127875 -0.083397 -0.006933 -0.078439 0.103441 0.017397 0.257020 -0.060328 0.095563 0.125743 0.125388 -0.037590 0.046235 0.069285 0.055555 -0.056695 0.088460 0.111895 0.027089 0.092729 -0.098761 0.024403 -0.085906 -0.011573 -0.048710 0.059710 0.050842 0.106047 0.091021 -0.105246 0.092545 -0.049975 -0.062207 0.005714 -0.175306 -0.005835 -0.025290 0.030554 -0.138609 0.010751 0.090096 0.008216 -0.063790 -0.007892 0.059139 0.138634 0.038356 -0.033051 -0.049787 -0.022919 -0.062706 -0.037638 -0.048780 0.057683 -0.002025 0.007296 -0.010316 -0.090115 0.013810 -0.136911 -0.008135 -0.039097 0.010197 -0.064386 0.071644 0.057475 -0.045957 0.053107 0.009460 -0.056149 0.018775 0.076612 0.023316 0.043796 0.026721 -0.107379 -0.010501 0.042724 0.121899 0.042351 -0.024777 0.000079 -0.064374 -0.094737 -0.047183 -0.021835 -0.039716 0.063674 0.023069 -0.042827 -0.036819 0.069855 -0.071889 0.016803 0.067830 -0.229092 0.074235 0.009573 0.080256 -0.081689 0.063548 0.038725 -0.089234 -0.037615 0.044624 0.000747 -0.056467 -0.016569 0.040973 -0.013098 -0.053916 -0.017373 0.056640 0.069099 -0.006962 -0.063275 0.030304 0.052637 0.021549 -0.006876 -0.125304 -0.135270 -0.010294 -0.065887 -0.023321 0.040649 -0.120947 0.034648 0.104216 0.066078 0.085773 0.002037 -0.001209 -0.055143 0.091843 0.073316 0.073200 -0.094090 0.006107 0.111623 -0.003154 0.022475 -0.077903 0.027921 -0.027024 0.026442 0.073249 -0.068093 -0.054980 0.080383 0.109793 0.095562 -0.069176 0.000883 -0.050321 0.000649 -0.059779 -0.179380 -0.120320 0.089404 -0.001217 -0.068908 -0.016130 -0.096726 -0.006214
<vaux> 0.069427 -0.039095 -0.015389 -0.090295 0.267412 0.252947 0.041479 -0.044166 -0.010372 -0.096421 0.091274 -0.038975 0.187296 -0.144643 0.026952 -0.002776 0.034632 -0.066853 0.030182 -0.063215 0.056819 -0.039526 -0.030741 0.109713 0.002452 -0.129178 -0.012049 0.031694 -0.124795 -0.081590 0.090291 -0.117189 -0.002058 -0.048069 -0.024941 -0.088600 0.010943 -0.073319 0.033980 0.155080 0.027166 0.040036 -0.023922 0.062085 -0.013484 0.106188 0.076081 0.031142 0.009853 0.072768 0.083621 0.093362 -0.021685 0.004174 0.098246 -0.043747 -0.160415 -0.071432 -0.054911 0.005436 -0.070918 0.021334 -0.134702 0.054562 0.067928 0.121329 0.150744 -0.105169 0.035830 -0.038557 -0.019411 0.067503 0.071539 -0.128891 -0.083809 -0.020840 0.069973 -0.025481 0.001609 0.025447 -0.063311 0.029321 -0.070109 -0.045459 0.013924 0.024574 -0.022234 -0.079423 -0.014437 0.039949 -0.075289 -0.043035 -0.045696 0.045576 -0.107135 -0.054510 -0.009837 0.064025 -0.001527 -0.070543 -0.048769 0.075918 -0.157114 -0.066566 0.073718 0.018578 0.072512 -0.040636 0.027370 0.040433 0.057959 0.099867 -0.001958 -0.041897 0.108908 -0.009718 -0.051783 0.006477 -0.013236 0.136383 0.031876 0.041735 0.006565 0.087043 0.102098 0.044561 -0.007597 0.044399 -0.007105 0.043412 0.092609 -0.013028 -0.055808 0.117913 -0.076993 0.051103 0.008772 0.055791 -0.107579 0.030286 -0.098571 -0.096903 -0.148247 -0.037689 0.005138 0.054040 0.025267 0.009326 0.050546 -0.123339 -0.036242 0.004224 0.120409 0.048239 -0.101078 -0.023426 -0.006553 0.057163 0.076611 -0.029828 0.002088 -0.045794 0.135374 0.019311 0.049951 0.054734 -0.028304 -0.099200 0.001331 0.008662 0.061755 -0.038590 0.029135 0.054021 -0.055864 -0.029354 -0.048143 -0.098902 0.030887 -0.056488 0.033511 -0.038564 0.000775 -0.036704 0.078024 0.052282 -0.073438 -0.020644 -0.086024 -0.014479 -0.015622 -0.086053 0.019189 -0.010585 0.028385 -0.058411 -0.101523 -0.106042 -0.021377 0.065151 0.000916 0.133965 -0.146428 -0.104535 0.014501 -0.044152 0.050528 0.095701 -0.102626 0.023849 0.050087 0.074009 -0.041483 0.042667 -0.048691 0.077420 0.161480 -0.015720 -0.007932 0.038730 0.078421 -0.102287 0.076669 0.115730 -0.045844 0.001908 0.006566 -0.185253 0.121710 0.068170 -0.050148 -0.082360 -0.055601 -0.052011 0.031700 -0.034427 0.006179 0.022963 -0.134444 -0.014029 -0.121466 -0.069288 0.075814 0.021396 -0.055814 -0.120847 -0.017524 -0.010350 -0.042646 0.047741 -0.033116 -0.000491 0.007907 -0.006237 0.133783 -0.010559 -0.097158 -0.079505 0.040461 0.008722 -0.012198 -0.068645 -0.025770 -0.132761 0.009041 0.008302 0.000504 -0.046361 0.038003 -0.089058 0.012802 -0.026772 0.025452 0.097029 0.116141 0.015734 -0.026757 -0.029484 0.010929 -0.030804 -0.003612 -0.087433 -0.075885 -0.052171 -0.005350 0.013381 -0.040534 -0.011822 0.028886 0.062332 -0.040594 -0.031554 -0.057697 -0.072512 -0.030823 -0.006181 -0.064799 0.012291 0.069916 0.044455 0.063125 0.144921 -0.010416 0.103871 0.088069 -0.014258 -0.011038 -0.026670 0.077381 0.051145 -0.012763 0.116960 -0.026144 -0.044165 0.021035 -0.015869 -0.001805 -0.018496 0.089034 -0.061333 -0.113275 0.073316 0.023579 0.162848 0.061044 0.045979 -0.173242 -0.003089 -0.140289 -0.055398 0.028029 -0.035300 0.097504 0.086189 -0.021837 0.070002 0.002632 -0.048641 0.091512 0.149839 0.031373 0.042023 -0.085435 0.151786 0.043967 -0.098999 -0.000835 0.012767 0.041871 0.038229 -0.024184 0.043492 -0.073131 0.111179 -0.130451 0.189144 0.070007 0.060826 0.043652 -0.081423 -0.070465 0.045150 -0.096583 -0.023607 0.019757 0.072169 -0.054778 -0.075597 -0.036960 0.039137 0.114986 -0.063292 -0.005201 0.120651 -0.065470 -0.196859 0.053916 -0.063753 0.049599 -0.044567 0.049211 0.087986 0.071087 -0.003959 0.027976 0.018072 0.044082 -0.057371 -0.109940 -0.039313 -0.049464 0.035909 -0.027171 -0.056222 0.050874 0.008900 0.014499 0.022120 -0.004276 -0.043040 -0.036475 0.049092 0.066867 -0.069390 -0.070301 -0.080489 0.051350 -0.012877 0.001332 -0.059094 -0.068454 -0.023306 0.044425 0.012102 -0.088929 -0.059687 0.090780 -0.001318 -0.140566 -0.059929 0.045716 -0.122507 0.132421 -0.027034 -0.013378 0.044601 -0.043986 -0.036098 0.125443 0.183517 -0.154698 0.007211 -0.092787 0.165612 -0.104740 -0.107159 0.033692 0.055666 -0.088799 -0.067928 0.002392 -0.028462 -0.149056 -0.088694 -0.023915 0.060461 0.057097 0.037953 0.033397 0.003564 -0.038160 -0.065532 -0.008400 0.059697 -0.072561 0.020322 0.087508 -0.023176 -0.014500 -0.093738 0.037978 -0.170716 0.025812 0.000355 0.045278 -0.037612 -0.053455 -0.034116 -0.034202 -0.016740 -0.068823 0.101839 -0.071212 -0.043977 0.000056 0.093125 0.056440 -0.016056 0.037161 -0.009143 0.060467 -0.038308 0.049914 0.029825 0.088881 0.016758 0.160956 -0.058377 -0.041954 0.065232 -0.005489 -0.077912 -0.165943 -0.073799 0.087735 -0.090081 0.022530 -0.091198 -0.050488 0.018526
<vblex><pp> 0.070765 -0.066656 -0.074802 -0.153344 -0.027755 -0.053957 0.002819 -0.031565 0.023097 0.006893 0.057151 -0.041950 0.096135 -0.090753 0.064578 0.020268 -0.033708 -0.019784 -0.090697 -0.042769 0.097312 -0.019780 0.056509 0.031896 -0.030196 0.040481 -0.042561 0.077348 0.002616 -0.035938 0.130590 -0.012394 0.020279 0.022159 0.021646 0.086629 -0.076437 -0.067870 0.045004 0.014980 -0.005262 0.063313 0.066699 0.042836 -0.009082 0.044923 0.113225 -0.007723 0.077369 -0.026607 0.090587 0.079461 0.078078 0.046251 0.017643 0.003541 -0.112913 0.032961 0.019495 -0.002496 -0.035245 -0.017408 -0.000620 0.029194 -0.035810 0.099978 0.009752 0.021084 0.015434 0.005166 -0.015444 0.031126 0.116273 -0.043505 0.056756 -0.042940 0.029402 -0.080480 -0.040336 0.054021 -0.053564 -0.012269 -0.099886 0.019072 -0.034604 0.021279 0.055392 0.028960 0.026466 -0.083303 -0.013134 -0.157493 -0.012599 -0.035025 -0.014471 -0.046919 0.041627 -0.014330 -0.022857 0.097443 -0.060144 0.086402 -0.054689 0.039914 0.037866 -0.043639 0.049812 -0.103857 -0.006952 -0.016719 0.127966 -0.006029 -0.041599 0.031449 0.047109 0.031286 -0.037048 -0.006097 0.002916 0.028056 0.082762 0.073025 -0.066119 0.039062 -0.030729 -0.029819 -0.034621 0.067582 -0.040949 -0.017699 0.031451 -0.000392 -0.001016 0.022778 -0.078661 0.020664 0.021173 0.006957 -0.134148 0.000940 -0.074179 0.032750 -0.077330 -0.035467 0.011050 0.044764 0.089298 -0.099479 0.068406 -0.099862 0.038196 0.015763 0.107129 0.008453 -0.045317 -0.035711 0.053411 0.038638 0.052506 -0.058901 -0.025641 -0.027990 0.025985 0.058585 -0.019920 -0.104911 -0.060663 -0.050184 0.083436 0.141720 0.077125 0.055072 -0.001433 0.136851 -0.123819 0.103983 -0.007061 -0.182224 -0.050772 -0.128828 -0.130329 0.056467 -0.121800 0.086731 0.083789 0.019359 0.081896 -0.037600 -0.088687 -0.000879 -0.010198 -0.005119 0.016225 -0.001698 0.068020 0.015292 -0.029661 -0.082602 -0.033214 0.024413 -0.030458 0.031369 0.039877 -0.009241 0.051259 0.008133 0.007078 0.021283 0.015388 -0.023456 0.015498 0.073636 0.021770 -0.052189 -0.001869 -0.007117 0.018915 0.000391 0.021358 -0.022907 0.029507 -0.026939 0.036874 0.013135 -0.015269 -0.032487 -0.036008 -0.034390 0.083036 0.028884 -0.055762 0.000212 0.002494 -0.047586 0.002783 -0.010837 0.017655 -0.032310 -0.110438 0.057762 -0.069688 -0.082633 0.000150 0.020786 0.028197 -0.059426 0.059657 0.050063 -0.077722 0.023203 0.032143 -0.006042 0.049604 -0.047555 0.053988 -0.024658 -0.024733 -0.005152 0.027996 -0.024802 -0.028404 -0.062901 0.034769 0.038810 0.026249 -0.008374 0.020283 -0.018420 0.044067 -0.018445 0.075793 -0.045913 0.067999 0.034321 0.042283 0.032793 0.040907 -0.031483 0.048706 -0.021967 0.053264 -0.064514 -0.053345 -0.059453 -0.037450 0.045857 -0.086335 -0.016873 -0.029622 0.014928 0.027769 -0.064172 -0.050574 0.021244 0.023526 0.015722 -0.013124 -0.039185 0.023079 0.040423 -0.016737 0.049838 -0.041293 -0.004404 -0.014012 0.021184 -0.002237 -0.026323 0.047252 -0.016122 -0.031485 -0.028197 0.018253 -0.043450 0.024179 0.005040 0.033119 0.059420 -0.009141 0.028478 -0.118528 0.008934 0.032769 0.123480 0.039721 0.057303 -0.060552 0.019937 -0.100873 -0.004624 0.047967 0.002611 -0.057438 0.061895 -0.046382 0.071382 0.022437 0.020377 0.082704 0.012723 0.021967 0.126784 -0.012242 0.033014 -0.072020 0.020351 -0.012967 0.009940 0.018127 -0.017814 0.015301 0.027782 0.131857 -0.061709 0.102495 -0.106241 -0.049057 -0.003224 0.017880 -0.004076 -0.080363 0.026166 -0.025607 0.087209 -0.075358 0.066322 -0.036348 -0.094017 -0.046766 -0.030145 0.032676 -0.040343 -0.013458 -0.031810 -0.007377 0.111615 -0.020837 -0.040899 -0.004100 0.037091 0.126797 -0.027218 -0.026565 0.010085 -0.037416 0.130758 0.141068 -0.102702 -0.122587 -0.028350 -0.040521 0.069386 -0.038786 -0.061496 -0.124341 -0.047269 0.059656 0.012751 0.034977 0.029098 -0.019648 0.048160 -0.055442 0.066022 -0.110246 0.010160 0.047887 0.024337 -0.041831 -0.007067 -0.136745 -0.087575 0.130355 0.009834 0.017114 0.057560 -0.028188 -0.036677 -0.071610 -0.077986 0.049604 -0.146041 -0.001888 -0.075518 -0.027516 0.044070 0.027262 -0.022337 0.080552 0.084088 -0.136263 -0.045531 0.000300 0.093506 -0.071863 -0.028669 -0.020530 -0.045185 -0.059392 -0.082913 -0.100111 -0.035637 -0.060559 0.027268 0.047029 0.072258 0.040274 0.102296 0.019585 -0.035468 0.033639 0.069214 -0.037619 0.018605 0.013518 -0.142764 -0.008369 -0.069570 -0.080650 0.009606 0.009813 -0.086374 -0.029062 0.003130 0.038844 0.059670 -0.046101 0.052633 0.028827 0.092556 0.053546 -0.015123 -0.037051 -0.012117 0.068026 0.003442 -0.001239 -0.011975 0.011001 -0.067269 -0.012079 0.034824 -0.183445 0.072096 0.127998 -0.007565 0.096328 -0.154371 0.019248 -0.051435 0.068196 -0.104281 -0.108610 -0.070403 0.044188 -0.068650 0.006176 0.000190 0.021947 -0.004883
