501 300
<sent> 0.08877 0.038343 -0.012221 0.080722 0.038057 0.25004 -0.20248 -0.091232 -0.013925 -0.14115 0.13086 0.042368 -0.12368 -0.033144 -0.050295 -0.18566 -0.1032 0.031758 -0.17752 0.13361 -0.17941 0.080167 -0.073022 0.21146 -0.05252 -0.16694 0.21381 0.022597 0.12344 -0.15606 0.088758 -0.07857 -0.28627 0.19219 -0.098922 0.23941 0.082629 0.057563 0.12864 0.099408 0.34405 -0.077874 0.20087 0.12118 -0.11049 0.089407 0.10699 0.17482 0.10182 0.077184 0.010757 0.21252 -0.17096 0.061183 0.009309 -0.053116 -0.023072 -0.29842 0.032933 0.10727 0.085318 -0.15131 -0.11734 -0.19432 -0.056143 0.23746 0.24346 -0.045031 0.02315 -0.29151 -0.084099 0.055707 -0.053592 -0.18089 0.028732 -0.054144 0.078248 0.1056 0.13037 -0.22475 -0.16181 0.059914 0.065205 -0.20567 -0.058023 -0.083139 0.0075976 -0.26076 -0.070405 -0.22526 0.12847 0.076678 -0.0022977 0.025244 0.060792 -0.14714 -0.078604 -0.072014 -0.10014 -0.029865 0.0011069 0.20831 -0.15985 0.14268 -0.12393 -0.237 0.074864 -0.0070438 0.048845 -0.1408 0.14986 -0.080037 -0.34623 -0.048902 0.077408 0.0058879 -0.020641 0.14352 -0.060001 0.1203 0.17363 0.08558 0.058663 0.13542 -0.13251 -0.24194 0.093415 0.3209 -0.18995 -0.32241 0.19141 0.15593 -0.20821 0.02409 -0.0058582 0.073133 -0.28825 -0.10078 0.22426 -0.23665 0.037937 0.16034 0.27491 0.078612 -0.09389 -0.045352 0.061131 -0.0036674 -0.012812 0.025236 0.30307 0.11481 -0.084697 0.24269 0.13936 0.17965 0.14256 -0.025112 0.083334 -0.02612 0.17009 0.11966 -0.19117 -0.0646 -0.032749 -0.058265 0.11773 -0.0067402 -0.040404 -0.23024 0.12311 -0.12252 0.02086 0.054247 -0.30542 0.087897 0.0032192 -0.18576 -0.087147 0.024954 -0.08096 -0.04465 -0.11538 0.23198 0.10214 -0.14833 0.11736 0.43028 0.1771 0.11613 -0.21195 -0.15986 -0.099788 -0.067339 0.2543 0.10778 0.018144 -0.055717 -0.012573 0.085361 -0.10718 -0.053382 0.35006 -0.07539 -0.097332 -0.09733 -0.40041 -0.15839 -0.11688 -0.064848 -0.21087 -0.076109 -0.11876 -0.13136 -0.23292 0.1843 -0.19013 0.20763 -0.18298 0.27524 -0.32199 0.096513 0.15567 -0.062123 0.045256 0.18351 -0.095618 -0.14874 -0.026813 -0.12433 -0.0077114 0.0080898 0.16476 0.034716 0.12468 0.021568 -0.10964 0.23927 -0.18403 -0.1653 0.12023 -0.13299 0.0010898 0.041531 0.069197 -0.33626 0.23638 -0.1601 0.19363 0.16495 -0.20315 0.11111 -0.11331 0.21658 -0.29967 -0.028991 -0.21728 -0.037042 -0.1537 -0.16452 -0.003883 -0.11825 -0.11224 -0.0050296 -0.22098 -0.026037 0.28396 0.038097 0.074286 -0.17099 0.050432 0.19887 -0.02172 0.034074 -0.07842 -0.13547 -0.032994 -0.016201 -0.10478 0.13005 0.050141 0.0082775 -0.12823 0.14065 -0.16912 -0.062862 0.068686 -0.087509 -0.16395 0.19414 -0.013525 -0.11761 0.21068 -0.017371 0.084301 0.24174 0.24622 -0.38284 0.097383 0.26167 
</s> 0.086364 0.036944 -0.012446 0.077869 0.036404 0.24153 -0.19472 -0.087274 -0.013964 -0.1367 0.12645 0.042142 -0.11975 -0.032173 -0.048294 -0.17891 -0.10011 0.027969 -0.17104 0.13017 -0.17198 0.078141 -0.070083 0.2038 -0.050617 -0.16044 0.20608 0.0217 0.12057 -0.15133 0.08556 -0.077098 -0.27636 0.18598 -0.094471 0.23199 0.079646 0.055687 0.12529 0.097039 0.33201 -0.075724 0.19381 0.11618 -0.10452 0.087441 0.10287 0.16879 0.097634 0.073941 0.010651 0.2044 -0.16454 0.059016 0.0089015 -0.05116 -0.022421 -0.28803 0.032509 0.10217 0.082238 -0.14486 -0.11439 -0.18677 -0.054321 0.22933 0.23461 -0.044242 0.0196 -0.28227 -0.080648 0.052741 -0.052909 -0.17556 0.027552 -0.051658 0.075481 0.10294 0.12659 -0.21656 -0.15589 0.057506 0.062376 -0.19693 -0.055067 -0.078984 0.0070199 -0.25066 -0.067007 -0.21722 0.12564 0.074042 -0.0018127 0.023253 0.059044 -0.14166 -0.076035 -0.068932 -0.09694 -0.029086 0.0013397 0.20057 -0.15506 0.13761 -0.11968 -0.22963 0.072878 -0.0072331 0.047017 -0.13469 0.14488 -0.077617 -0.33381 -0.04622 0.07528 0.0057018 -0.020486 0.13787 -0.059433 0.11556 0.16819 0.082615 0.056191 0.12931 -0.12614 -0.23195 0.08925 0.3096 -0.18192 -0.311 0.18449 0.15008 -0.20195 0.023236 -0.0046128 0.071525 -0.27827 -0.096999 0.21619 -0.22696 0.037012 0.15492 0.26477 0.075093 -0.089463 -0.043515 0.059191 -0.0034374 -0.011795 0.023905 0.29188 0.11189 -0.081891 0.23374 0.13572 0.17396 0.13839 -0.024316 0.080442 -0.024785 0.16343 0.11519 -0.18556 -0.063618 -0.030493 -0.056633 0.11377 -0.0074276 -0.038475 -0.22284 0.11763 -0.11945 0.019496 0.053106 -0.29411 0.085159 0.0027931 -0.17921 -0.084921 0.024537 -0.079554 -0.043049 -0.11188 0.2249 0.098204 -0.14299 0.11302 0.41447 0.17054 0.11154 -0.20442 -0.15358 -0.097542 -0.066176 0.24463 0.10393 0.017793 -0.055137 -0.012566 0.083691 -0.10362 -0.050804 0.33777 -0.071887 -0.095636 -0.093532 -0.38531 -0.15243 -0.11302 -0.062357 -0.20318 -0.07363 -0.1147 -0.12706 -0.22555 0.1769 -0.18239 0.20035 -0.1758 0.26606 -0.30956 0.092474 0.14881 -0.060358 0.043752 0.17776 -0.093208 -0.14338 -0.025674 -0.11967 -0.0075223 0.008489 0.15715 0.033708 0.1198 0.021493 -0.10595 0.23081 -0.17719 -0.15819 0.11613 -0.12751 0.0011155 0.040034 0.066566 -0.32479 0.22795 -0.1541 0.18628 0.15908 -0.19598 0.10779 -0.10957 0.20964 -0.28824 -0.027234 -0.20815 -0.035097 -0.14827 -0.15839 -0.0035325 -0.11355 -0.10647 -0.0050175 -0.21211 -0.025171 0.27274 0.03724 0.071443 -0.16558 0.049277 0.19212 -0.020105 0.03258 -0.075206 -0.12948 -0.032514 -0.01697 -0.10069 0.12565 0.047204 0.0085468 -0.12398 0.13626 -0.16212 -0.060708 0.065147 -0.083353 -0.15856 0.18727 -0.012457 -0.11299 0.20369 -0.014997 0.081346 0.23247 0.23876 -0.37024 0.094267 0.25232 
<adv> 0.090006 0.039162 -0.012138 0.082914 0.037928 0.25534 -0.20558 -0.093725 -0.015324 -0.14449 0.13295 0.044078 -0.12669 -0.034075 -0.050635 -0.1892 -0.10509 0.031235 -0.18202 0.13663 -0.18203 0.0812 -0.074839 0.21529 -0.054285 -0.16948 0.21871 0.023044 0.12733 -0.15948 0.090483 -0.079837 -0.2918 0.19553 -0.10099 0.24434 0.084475 0.059163 0.13205 0.10247 0.35091 -0.08005 0.20476 0.12277 -0.1127 0.090977 0.10853 0.17785 0.10458 0.07883 0.011218 0.21679 -0.17341 0.062522 0.0097876 -0.053527 -0.023057 -0.30482 0.033606 0.10872 0.08648 -0.15415 -0.121 -0.19708 -0.059036 0.24213 0.24855 -0.046227 0.022703 -0.29704 -0.086299 0.057024 -0.054053 -0.18516 0.029768 -0.054039 0.079336 0.10723 0.13304 -0.2287 -0.16451 0.060882 0.065837 -0.20987 -0.059029 -0.083985 0.0076759 -0.26617 -0.071517 -0.22999 0.13158 0.078339 -0.0019056 0.026194 0.061957 -0.14924 -0.08107 -0.073093 -0.10147 -0.031654 0.00082939 0.21228 -0.16391 0.146 -0.12687 -0.24312 0.075949 -0.0070139 0.049852 -0.14339 0.15325 -0.081181 -0.35434 -0.049891 0.079705 0.0062774 -0.021589 0.14558 -0.061865 0.12358 0.17697 0.086985 0.060013 0.13809 -0.13439 -0.24652 0.094939 0.32805 -0.19333 -0.32924 0.19448 0.15817 -0.21167 0.025124 -0.0065696 0.076083 -0.29494 -0.10277 0.23051 -0.24055 0.03846 0.16308 0.28065 0.079756 -0.096119 -0.045557 0.063338 -0.0023357 -0.013281 0.025545 0.30916 0.11865 -0.08637 0.2483 0.1427 0.18344 0.14587 -0.025406 0.085262 -0.027009 0.17333 0.12317 -0.195 -0.067082 -0.032144 -0.060175 0.12067 -0.0066776 -0.041564 -0.2355 0.12378 -0.12452 0.021498 0.056325 -0.31128 0.089946 0.0037304 -0.19053 -0.088824 0.026092 -0.083093 -0.046825 -0.11681 0.2372 0.10308 -0.1495 0.1195 0.43854 0.18016 0.11871 -0.21623 -0.16306 -0.10257 -0.069927 0.25797 0.11046 0.019076 -0.057089 -0.012234 0.087894 -0.10997 -0.054408 0.35672 -0.07589 -0.099898 -0.099635 -0.40896 -0.16027 -0.11759 -0.066542 -0.21458 -0.078011 -0.12175 -0.13226 -0.23798 0.18723 -0.19303 0.21205 -0.18505 0.28022 -0.32809 0.098413 0.1581 -0.064108 0.046913 0.1884 -0.097657 -0.15198 -0.02679 -0.12683 -0.007158 0.0077022 0.16809 0.035385 0.1282 0.021322 -0.11053 0.24374 -0.18842 -0.1674 0.12262 -0.13499 0.0016805 0.043111 0.070016 -0.3431 0.23987 -0.16329 0.19917 0.16813 -0.20605 0.1131 -0.1158 0.22151 -0.30525 -0.030012 -0.22195 -0.038149 -0.15772 -0.16709 -0.0038356 -0.11949 -0.11383 -0.0040886 -0.22495 -0.027365 0.28812 0.038862 0.075219 -0.17505 0.051736 0.20183 -0.022632 0.035781 -0.079667 -0.1384 -0.034145 -0.016739 -0.10647 0.13294 0.049523 0.0089147 -0.13149 0.14287 -0.17236 -0.062935 0.070613 -0.08965 -0.1668 0.19796 -0.013216 -0.12021 0.21591 -0.016563 0.085831 0.24643 0.25146 -0.39105 0.098447 0.26767 
<n><sg><nom> 0.083341 0.036079 -0.011347 0.075727 0.0347 0.23468 -0.19031 -0.085444 -0.01329 -0.13289 0.12225 0.039692 -0.11761 -0.032298 -0.046817 -0.17343 -0.097471 0.028221 -0.1678 0.12548 -0.16776 0.07584 -0.069876 0.1976 -0.050175 -0.1576 0.20119 0.020868 0.11754 -0.14772 0.082838 -0.073718 -0.26813 0.18092 -0.09341 0.22467 0.077902 0.053732 0.12101 0.093738 0.32159 -0.073528 0.18746 0.11311 -0.10313 0.084331 0.098799 0.16369 0.095256 0.073211 0.01092 0.19949 -0.15998 0.058081 0.0078102 -0.049979 -0.021323 -0.2804 0.030361 0.099243 0.08142 -0.14199 -0.11022 -0.18152 -0.052922 0.22289 0.22768 -0.041907 0.020005 -0.27344 -0.078439 0.052047 -0.050158 -0.1708 0.026475 -0.049326 0.073556 0.099519 0.12243 -0.21071 -0.1518 0.056503 0.060916 -0.19279 -0.054234 -0.077769 0.0073986 -0.24554 -0.066069 -0.21208 0.12206 0.072775 -0.0015299 0.024626 0.05746 -0.13756 -0.074042 -0.068157 -0.093154 -0.028554 0.00029654 0.19578 -0.15051 0.13358 -0.11549 -0.22371 0.070692 -0.0077337 0.044334 -0.13178 0.14057 -0.075168 -0.32561 -0.045664 0.072981 0.0047864 -0.018817 0.13458 -0.05584 0.11296 0.16323 0.08092 0.056026 0.12607 -0.12228 -0.22645 0.087334 0.29875 -0.17714 -0.30207 0.1797 0.14601 -0.19575 0.022799 -0.0057024 0.069914 -0.2713 -0.094162 0.21175 -0.22189 0.034224 0.15045 0.2576 0.073946 -0.088473 -0.042163 0.057199 -0.0024915 -0.011354 0.023151 0.28489 0.10825 -0.079714 0.22763 0.1307 0.16893 0.1336 -0.023409 0.077874 -0.024237 0.15998 0.11238 -0.17929 -0.060894 -0.030255 -0.053732 0.11098 -0.0067331 -0.037082 -0.21749 0.1149 -0.11471 0.020298 0.05063 -0.28704 0.082528 0.0029583 -0.17528 -0.082265 0.02479 -0.075123 -0.042646 -0.10811 0.21779 0.094552 -0.13859 0.10912 0.40231 0.16617 0.10982 -0.19898 -0.14987 -0.094594 -0.063217 0.23779 0.10142 0.018778 -0.052372 -0.010979 0.081483 -0.10081 -0.049624 0.32674 -0.069502 -0.092055 -0.090703 -0.37556 -0.14854 -0.10965 -0.060532 -0.19803 -0.072204 -0.11071 -0.12331 -0.21877 0.17243 -0.17795 0.19363 -0.17109 0.25779 -0.30126 0.091222 0.14533 -0.057085 0.042176 0.17223 -0.092191 -0.13917 -0.025515 -0.11725 -0.0060905 0.0075244 0.15374 0.031954 0.11794 0.019766 -0.10152 0.22419 -0.17211 -0.15446 0.11211 -0.12411 0.0013474 0.038891 0.063753 -0.3156 0.2211 -0.14985 0.18196 0.15494 -0.19022 0.10493 -0.10631 0.20478 -0.27958 -0.027669 -0.20268 -0.035544 -0.14445 -0.15352 -0.0037414 -0.11081 -0.10446 -0.0043508 -0.20787 -0.02421 0.26547 0.036581 0.069962 -0.16153 0.048225 0.18635 -0.0209 0.032208 -0.07294 -0.12731 -0.0321 -0.015901 -0.097849 0.12148 0.04535 0.0093149 -0.12009 0.13142 -0.15847 -0.05963 0.064768 -0.082447 -0.15456 0.18276 -0.01181 -0.11108 0.19811 -0.014956 0.079403 0.22612 0.23182 -0.3603 0.09083 0.24555 
<cnjcoo> 0.086641 0.037636 -0.012141 0.079158 0.036549 0.24554 -0.19923 -0.088898 -0.014581 -0.13919 0.12811 0.042192 -0.12154 -0.033052 -0.049322 -0.18167 -0.10162 0.030298 -0.17487 0.13175 -0.17532 0.078265 -0.07176 0.2066 -0.051163 -0.16417 0.2102 0.021913 0.12305 -0.15388 0.086903 -0.077755 -0.28042 0.18912 -0.097419 0.23492 0.080668 0.056611 0.12617 0.097753 0.33828 -0.076751 0.19757 0.11787 -0.10806 0.087658 0.10445 0.17173 0.099584 0.075602 0.010873 0.2092 -0.16745 0.059992 0.0085666 -0.052586 -0.022716 -0.29338 0.032172 0.10463 0.084318 -0.14792 -0.11572 -0.19093 -0.055589 0.2337 0.23842 -0.04403 0.021029 -0.28674 -0.082354 0.055188 -0.05249 -0.17898 0.02807 -0.052061 0.077183 0.10402 0.12865 -0.22028 -0.15837 0.059149 0.063933 -0.20169 -0.056355 -0.081737 0.0074201 -0.25634 -0.068883 -0.22182 0.12663 0.075613 -0.0021703 0.024988 0.059814 -0.14414 -0.077962 -0.070597 -0.097874 -0.029238 0.0014063 0.20426 -0.157 0.13969 -0.12169 -0.2335 0.073559 -0.0076096 0.047501 -0.13758 0.14716 -0.078085 -0.34086 -0.048053 0.075843 0.0049345 -0.020128 0.14006 -0.059352 0.11872 0.17069 0.08372 0.057279 0.13244 -0.13059 -0.23772 0.091543 0.31549 -0.18586 -0.31599 0.18796 0.15298 -0.20539 0.023453 -0.0057225 0.072257 -0.28435 -0.098797 0.22052 -0.23164 0.037663 0.15776 0.2695 0.077407 -0.092638 -0.044315 0.060202 -0.0023689 -0.011661 0.024364 0.29741 0.11351 -0.083156 0.23905 0.13742 0.17652 0.1399 -0.024214 0.083021 -0.026138 0.16644 0.11752 -0.18795 -0.063721 -0.031702 -0.056409 0.11587 -0.0063419 -0.038748 -0.22695 0.1199 -0.12011 0.021603 0.053272 -0.30037 0.086922 0.0031218 -0.18343 -0.085783 0.025268 -0.079456 -0.044442 -0.11306 0.22816 0.099874 -0.14396 0.11498 0.42217 0.17465 0.11494 -0.20812 -0.15728 -0.097883 -0.066711 0.24944 0.10571 0.018073 -0.055117 -0.011522 0.084787 -0.10529 -0.051937 0.34323 -0.07379 -0.09573 -0.095441 -0.39305 -0.15451 -0.11457 -0.063544 -0.20657 -0.075 -0.11638 -0.12851 -0.22901 0.18085 -0.18631 0.20453 -0.17939 0.26945 -0.31513 0.094057 0.15208 -0.061381 0.044751 0.18015 -0.093907 -0.14598 -0.026262 -0.1216 -0.0070537 0.0079307 0.16193 0.034163 0.12274 0.02022 -0.10677 0.23476 -0.18081 -0.1616 0.11789 -0.12971 0.0016366 0.040277 0.068542 -0.32979 0.23164 -0.15731 0.19043 0.16178 -0.19837 0.10949 -0.11158 0.21289 -0.29372 -0.029186 -0.21265 -0.036012 -0.15113 -0.16076 -0.0040613 -0.11586 -0.10909 -0.004729 -0.21732 -0.026441 0.27822 0.038149 0.072104 -0.16887 0.049946 0.19568 -0.022017 0.034159 -0.07586 -0.13309 -0.033122 -0.016835 -0.1032 0.12736 0.047158 0.0087034 -0.12587 0.13825 -0.16599 -0.061766 0.067604 -0.086464 -0.1614 0.19069 -0.012686 -0.11616 0.20726 -0.016292 0.082828 0.23668 0.24215 -0.37639 0.09524 0.25776 
<cm> 0.087223 0.0372 -0.012001 0.078902 0.037297 0.2463 -0.19829 -0.089852 -0.014028 -0.13943 0.1286 0.04228 -0.12195 -0.032497 -0.048975 -0.17992 -0.10232 0.029624 -0.17535 0.13214 -0.17582 0.078308 -0.071936 0.20783 -0.051872 -0.16426 0.21034 0.022821 0.12181 -0.15507 0.086948 -0.076973 -0.28062 0.1882 -0.097446 0.23461 0.079587 0.057392 0.12607 0.09838 0.33862 -0.076871 0.1972 0.11899 -0.10855 0.087892 0.10454 0.17153 0.099186 0.077018 0.011171 0.20932 -0.16725 0.060146 0.0083904 -0.050676 -0.02234 -0.29356 0.032517 0.10518 0.084367 -0.14989 -0.11727 -0.19057 -0.055351 0.23344 0.23901 -0.043434 0.020859 -0.28607 -0.081899 0.054591 -0.052774 -0.17935 0.028657 -0.051952 0.076242 0.1037 0.12761 -0.22003 -0.15766 0.059418 0.063657 -0.20172 -0.056738 -0.081219 0.0073546 -0.25571 -0.069296 -0.22094 0.12629 0.076121 -0.0020778 0.024745 0.059662 -0.14388 -0.07704 -0.070716 -0.09805 -0.029798 0.0016027 0.20495 -0.15677 0.14037 -0.12156 -0.23353 0.073421 -0.0071815 0.04723 -0.13745 0.14707 -0.077538 -0.34084 -0.048926 0.076136 0.0049143 -0.021131 0.14079 -0.058868 0.11949 0.17201 0.085221 0.057794 0.13305 -0.12944 -0.23681 0.09184 0.31473 -0.18601 -0.31695 0.18845 0.15251 -0.20484 0.02357 -0.0055931 0.072187 -0.28465 -0.098208 0.2207 -0.23222 0.036148 0.1576 0.26931 0.077495 -0.092696 -0.043995 0.060103 -0.0017478 -0.012018 0.025361 0.29785 0.11431 -0.083957 0.23864 0.13656 0.17639 0.13951 -0.024903 0.081452 -0.024488 0.16697 0.11625 -0.18807 -0.064794 -0.031515 -0.057487 0.11624 -0.0067666 -0.039276 -0.22758 0.11944 -0.12057 0.022249 0.052937 -0.29957 0.085598 0.0033557 -0.18494 -0.084878 0.025226 -0.07823 -0.04497 -0.11362 0.22855 0.10062 -0.14476 0.11471 0.42082 0.17541 0.11462 -0.20721 -0.15709 -0.098059 -0.067071 0.24923 0.10642 0.017567 -0.054635 -0.011012 0.083639 -0.10519 -0.052858 0.34197 -0.073404 -0.096465 -0.096535 -0.39309 -0.1544 -0.11381 -0.064265 -0.20728 -0.07446 -0.11693 -0.1272 -0.22826 0.18177 -0.18716 0.2042 -0.17864 0.26864 -0.31537 0.094973 0.15231 -0.061774 0.04469 0.17969 -0.094201 -0.14557 -0.026243 -0.12167 -0.0068007 0.0072406 0.1621 0.033581 0.12325 0.02048 -0.1073 0.23594 -0.1806 -0.16106 0.11845 -0.12984 0.00055301 0.040267 0.068137 -0.32956 0.23107 -0.15755 0.18955 0.1615 -0.19921 0.10938 -0.11142 0.21275 -0.2934 -0.029724 -0.21179 -0.03649 -0.15186 -0.16041 -0.004505 -0.1166 -0.10901 -0.0040233 -0.21767 -0.025407 0.2781 0.037388 0.07303 -0.16791 0.050206 0.19517 -0.021445 0.033852 -0.076755 -0.1343 -0.033607 -0.015746 -0.10278 0.12751 0.046973 0.0083245 -0.12642 0.13775 -0.16551 -0.060998 0.066931 -0.08683 -0.16025 0.19032 -0.013028 -0.11698 0.20858 -0.016164 0.083627 0.23662 0.24205 -0.37754 0.094942 0.257 
<n><sg><gen> 0.088063 0.038351 -0.013026 0.080989 0.037427 0.24883 -0.20259 -0.091265 -0.013989 -0.14132 0.12951 0.041566 -0.12517 -0.034556 -0.05005 -0.18439 -0.10407 0.029566 -0.17812 0.13347 -0.17777 0.079737 -0.074265 0.21025 -0.053454 -0.16751 0.21435 0.02176 0.12493 -0.15685 0.088572 -0.078247 -0.28402 0.19204 -0.099548 0.23861 0.083064 0.057203 0.12798 0.099398 0.3415 -0.07811 0.19881 0.11908 -0.11056 0.088919 0.10458 0.17387 0.10124 0.078072 0.01203 0.21191 -0.16908 0.061432 0.0086988 -0.053276 -0.022435 -0.29813 0.032499 0.10568 0.086857 -0.15107 -0.11782 -0.19334 -0.056085 0.23668 0.24182 -0.043904 0.021428 -0.29001 -0.083668 0.055374 -0.052652 -0.18088 0.02784 -0.052158 0.077856 0.10548 0.12963 -0.22446 -0.16187 0.059691 0.064279 -0.20502 -0.057684 -0.082685 0.0075311 -0.26125 -0.069979 -0.22579 0.12944 0.077431 -0.0012128 0.026064 0.060495 -0.14595 -0.078894 -0.072397 -0.099272 -0.030515 0.00068963 0.20873 -0.16006 0.14213 -0.12272 -0.23716 0.074865 -0.0085037 0.046627 -0.13973 0.15008 -0.080142 -0.34591 -0.048712 0.077623 0.0048181 -0.01964 0.14336 -0.059734 0.12042 0.17295 0.086297 0.059286 0.13448 -0.1307 -0.24153 0.092828 0.31862 -0.18809 -0.32045 0.19043 0.15537 -0.20838 0.024479 -0.0066076 0.074663 -0.28855 -0.099867 0.22492 -0.23607 0.036431 0.15971 0.27357 0.078568 -0.093859 -0.044543 0.060876 -0.0026165 -0.012288 0.024207 0.30222 0.11448 -0.084518 0.24191 0.13915 0.17926 0.14148 -0.024038 0.083038 -0.026303 0.1696 0.11886 -0.19068 -0.064995 -0.032455 -0.056999 0.11824 -0.0068996 -0.03912 -0.23109 0.12198 -0.12147 0.022079 0.053629 -0.30496 0.087883 0.0035972 -0.18698 -0.086627 0.026695 -0.079604 -0.045806 -0.11462 0.23198 0.10026 -0.14735 0.11612 0.42705 0.17684 0.11642 -0.21131 -0.15956 -0.10013 -0.067712 0.25295 0.10723 0.019607 -0.055454 -0.011139 0.086575 -0.10679 -0.052916 0.34698 -0.074161 -0.097171 -0.096518 -0.39961 -0.1577 -0.11585 -0.064545 -0.21004 -0.076887 -0.1174 -0.13083 -0.23234 0.18389 -0.18973 0.20603 -0.18168 0.27321 -0.32049 0.096622 0.15474 -0.060858 0.044778 0.18305 -0.09748 -0.14739 -0.026666 -0.12462 -0.0057264 0.0082939 0.16385 0.034222 0.12559 0.020781 -0.10744 0.23801 -0.18343 -0.16447 0.1186 -0.13247 0.0015386 0.040991 0.067965 -0.33542 0.23387 -0.1594 0.19333 0.1648 -0.20196 0.11155 -0.11292 0.21789 -0.29799 -0.029548 -0.21561 -0.038025 -0.15373 -0.16312 -0.0042129 -0.11712 -0.11171 -0.004356 -0.22124 -0.025576 0.2822 0.038496 0.073927 -0.17244 0.050472 0.19826 -0.022865 0.034507 -0.078297 -0.13496 -0.033492 -0.016877 -0.10392 0.12853 0.048091 0.0096868 -0.12768 0.13935 -0.16883 -0.062689 0.068741 -0.088028 -0.16419 0.19371 -0.0126 -0.11849 0.21054 -0.016646 0.084253 0.24079 0.24656 -0.38258 0.09597 0.2617 
<vblex><iv><indic><pres><sg3> 0.083609 0.036085 -0.011738 0.075542 0.036216 0.23593 -0.18975 -0.084818 -0.013006 -0.13274 0.12319 0.038711 -0.11571 -0.031267 -0.047059 -0.17624 -0.095044 0.030335 -0.1671 0.12499 -0.16757 0.073794 -0.069004 0.19704 -0.049909 -0.15594 0.20094 0.020173 0.11669 -0.14683 0.082869 -0.075309 -0.26857 0.18009 -0.093453 0.22476 0.077796 0.053762 0.12074 0.094123 0.32419 -0.074513 0.18848 0.11398 -0.10264 0.084211 0.10303 0.16449 0.096542 0.070961 0.0096552 0.19894 -0.16024 0.057719 0.009894 -0.049364 -0.021601 -0.2795 0.030026 0.10141 0.080785 -0.14247 -0.11113 -0.18307 -0.053858 0.22362 0.22993 -0.043367 0.022435 -0.27436 -0.079003 0.053352 -0.050055 -0.16979 0.027054 -0.05242 0.073935 0.098669 0.12404 -0.21126 -0.15141 0.056015 0.061083 -0.19407 -0.054274 -0.077245 0.0072877 -0.24565 -0.06614 -0.21135 0.12181 0.071489 -0.0026472 0.02448 0.056908 -0.13759 -0.074131 -0.066251 -0.094121 -0.027076 0.00098891 0.19614 -0.14982 0.13427 -0.11852 -0.22532 0.069838 -0.0051095 0.046276 -0.1329 0.14088 -0.075242 -0.32548 -0.043025 0.073702 0.0063815 -0.019596 0.1348 -0.056569 0.11395 0.16234 0.077894 0.05567 0.12831 -0.12349 -0.22902 0.087554 0.30105 -0.17946 -0.3028 0.18021 0.1467 -0.19608 0.023375 -0.0042605 0.067487 -0.27068 -0.094998 0.21233 -0.21971 0.036176 0.15075 0.25901 0.073302 -0.08903 -0.042086 0.058556 -0.0023317 -0.011679 0.02323 0.28362 0.10628 -0.08013 0.22818 0.1325 0.1693 0.13351 -0.024918 0.078181 -0.025348 0.15792 0.11213 -0.17967 -0.061304 -0.031013 -0.055048 0.11077 -0.0060493 -0.038463 -0.2161 0.11661 -0.11523 0.018124 0.050438 -0.28562 0.082381 0.003585 -0.17262 -0.082712 0.022433 -0.078039 -0.040549 -0.10697 0.21752 0.095188 -0.13858 0.10807 0.40521 0.16442 0.11019 -0.19823 -0.15062 -0.094543 -0.063649 0.23942 0.10181 0.017158 -0.053202 -0.011736 0.079871 -0.10149 -0.050212 0.33007 -0.071739 -0.091496 -0.091301 -0.37495 -0.14698 -0.11061 -0.060343 -0.19704 -0.071907 -0.11203 -0.12289 -0.21919 0.17145 -0.17784 0.19547 -0.17157 0.25756 -0.30231 0.092159 0.14571 -0.057684 0.043523 0.17119 -0.08932 -0.14098 -0.024605 -0.11645 -0.0080574 0.0076046 0.15386 0.032063 0.11657 0.02006 -0.10303 0.22467 -0.17231 -0.15523 0.11266 -0.12497 0.0012697 0.040213 0.065261 -0.31683 0.22183 -0.14966 0.18368 0.15574 -0.18987 0.10297 -0.10774 0.20232 -0.28141 -0.027658 -0.2034 -0.034521 -0.14426 -0.15256 -0.0039809 -0.11096 -0.10455 -0.0063841 -0.2091 -0.024513 0.26492 0.037124 0.068309 -0.16039 0.046461 0.18629 -0.020714 0.032923 -0.071026 -0.12523 -0.031739 -0.015777 -0.099806 0.12314 0.045118 0.0084399 -0.12076 0.13193 -0.15965 -0.057878 0.065879 -0.081917 -0.15327 0.18084 -0.013684 -0.10806 0.19804 -0.01541 0.079134 0.22612 0.23071 -0.35928 0.09151 0.2468 
<adj><attr> 0.092858 0.04039 -0.013212 0.084739 0.038776 0.26063 -0.21172 -0.094822 -0.014997 -0.14823 0.13522 0.04413 -0.12981 -0.035308 -0.051771 -0.19336 -0.10808 0.03187 -0.18618 0.14013 -0.18653 0.083349 -0.07676 0.22014 -0.054708 -0.17449 0.22476 0.022996 0.13078 -0.16397 0.093074 -0.08217 -0.29865 0.20051 -0.10348 0.25086 0.086517 0.059849 0.13435 0.10459 0.3597 -0.081537 0.21054 0.12532 -0.11511 0.093165 0.11072 0.18217 0.10611 0.080932 0.011529 0.22267 -0.17771 0.063667 0.0098004 -0.055633 -0.023892 -0.31228 0.034262 0.11119 0.090308 -0.15849 -0.12378 -0.2023 -0.059101 0.24831 0.25371 -0.046275 0.022594 -0.30488 -0.087187 0.058334 -0.055796 -0.18998 0.030428 -0.055547 0.081727 0.11018 0.13645 -0.23509 -0.16932 0.062852 0.068118 -0.21424 -0.061137 -0.086032 0.007497 -0.27259 -0.072837 -0.23651 0.13585 0.081034 -0.0021082 0.026382 0.064274 -0.15289 -0.08246 -0.075315 -0.10459 -0.031705 0.0012344 0.21807 -0.16749 0.14923 -0.12949 -0.24898 0.078356 -0.0084279 0.049321 -0.14588 0.15735 -0.082852 -0.36259 -0.051193 0.080739 0.0049299 -0.02103 0.1493 -0.063838 0.1265 0.18173 0.089445 0.061253 0.14057 -0.13782 -0.25256 0.097129 0.33522 -0.19745 -0.33649 0.1999 0.16251 -0.21826 0.025505 -0.0066488 0.077468 -0.30286 -0.1048 0.23476 -0.24698 0.039569 0.16721 0.28687 0.081695 -0.098463 -0.04709 0.064071 -0.0026652 -0.012576 0.026008 0.31612 0.12055 -0.088668 0.25431 0.14562 0.18758 0.14838 -0.02551 0.088055 -0.027329 0.17741 0.12514 -0.19992 -0.068144 -0.033673 -0.060488 0.12426 -0.0070016 -0.041586 -0.24258 0.12737 -0.12758 0.022435 0.05624 -0.31921 0.092091 0.0038828 -0.19505 -0.091123 0.027593 -0.084601 -0.047944 -0.12052 0.2428 0.10674 -0.15386 0.12199 0.44934 0.18547 0.12132 -0.22134 -0.1674 -0.10439 -0.071532 0.26527 0.11287 0.018899 -0.058144 -0.012228 0.090989 -0.1126 -0.055785 0.36476 -0.078162 -0.10226 -0.10141 -0.41906 -0.16482 -0.12137 -0.067576 -0.21993 -0.079163 -0.12361 -0.1368 -0.24316 0.193 -0.19916 0.21676 -0.18983 0.28599 -0.33626 0.10105 0.16237 -0.0649 0.047281 0.19226 -0.10069 -0.1547 -0.027912 -0.13029 -0.0071639 0.0082701 0.17246 0.036251 0.13141 0.022036 -0.11354 0.24913 -0.19251 -0.17209 0.12526 -0.13855 0.0012965 0.043083 0.071466 -0.35097 0.24619 -0.16767 0.20283 0.1723 -0.21167 0.1168 -0.11828 0.2269 -0.31255 -0.031278 -0.22682 -0.039795 -0.16104 -0.17154 -0.0046512 -0.12279 -0.11586 -0.004424 -0.23082 -0.027892 0.29595 0.040421 0.077077 -0.17913 0.053241 0.2078 -0.023235 0.036594 -0.081148 -0.14156 -0.03454 -0.017607 -0.10974 0.13558 0.050596 0.0097502 -0.13342 0.14705 -0.17675 -0.065524 0.0718 -0.091992 -0.1718 0.20212 -0.012943 -0.1237 0.22094 -0.017495 0.088625 0.25244 0.2576 -0.40083 0.10159 0.2738 
<n><sg><acc> 0.085733 0.037513 -0.01239 0.078424 0.036343 0.24228 -0.19691 -0.088201 -0.013822 -0.13727 0.12632 0.04042 -0.12145 -0.032988 -0.048386 -0.17994 -0.10057 0.02928 -0.17333 0.12965 -0.17312 0.077454 -0.071955 0.20412 -0.051711 -0.16261 0.20739 0.021058 0.12159 -0.15198 0.085659 -0.076346 -0.27725 0.18727 -0.096267 0.23228 0.080291 0.055513 0.12491 0.097277 0.33276 -0.076064 0.19381 0.11658 -0.10619 0.086461 0.10308 0.17003 0.098781 0.074907 0.010959 0.20559 -0.16475 0.060301 0.0084626 -0.051592 -0.022 -0.28964 0.031386 0.10336 0.084215 -0.1464 -0.11428 -0.1878 -0.05448 0.23043 0.23504 -0.04368 0.021322 -0.28281 -0.081571 0.054203 -0.051859 -0.17571 0.026891 -0.051864 0.075942 0.1029 0.12701 -0.21787 -0.1571 0.058546 0.063052 -0.19876 -0.055512 -0.080188 0.0072797 -0.25365 -0.067829 -0.21916 0.12565 0.075127 -0.0016219 0.025442 0.059168 -0.14215 -0.07717 -0.06976 -0.096427 -0.029744 0.00082013 0.20248 -0.15528 0.13816 -0.11964 -0.2317 0.072476 -0.0073307 0.045933 -0.1362 0.14545 -0.077929 -0.33658 -0.046548 0.075481 0.005143 -0.019044 0.13963 -0.058365 0.11712 0.16808 0.082742 0.057618 0.13017 -0.12674 -0.23531 0.08991 0.31034 -0.18309 -0.31193 0.18578 0.15067 -0.20258 0.02383 -0.0062185 0.071581 -0.2804 -0.097672 0.21898 -0.22881 0.036541 0.15622 0.26671 0.075627 -0.091517 -0.043729 0.058824 -0.0027203 -0.011833 0.023574 0.29376 0.11163 -0.082269 0.23545 0.13537 0.17444 0.13768 -0.024563 0.081025 -0.025986 0.1652 0.11573 -0.18519 -0.062699 -0.031593 -0.055279 0.1145 -0.0065476 -0.038509 -0.22428 0.11923 -0.11837 0.020693 0.052504 -0.29638 0.085478 0.0034515 -0.18047 -0.085178 0.025869 -0.078385 -0.044548 -0.11169 0.22549 0.098142 -0.14306 0.11372 0.41622 0.1712 0.1131 -0.20595 -0.15519 -0.097851 -0.065472 0.24627 0.10442 0.018852 -0.054264 -0.010967 0.083481 -0.10457 -0.051308 0.33865 -0.072358 -0.095347 -0.093406 -0.38821 -0.15329 -0.11359 -0.06239 -0.20458 -0.074642 -0.11461 -0.12827 -0.22611 0.17819 -0.18391 0.20008 -0.17777 0.26636 -0.31195 0.093723 0.15078 -0.058969 0.043614 0.17812 -0.0944 -0.14419 -0.026431 -0.12092 -0.0064252 0.008242 0.15905 0.032841 0.12157 0.020356 -0.10488 0.23151 -0.17852 -0.16029 0.11589 -0.12863 0.0017319 0.040377 0.066512 -0.32576 0.22853 -0.15477 0.18867 0.15967 -0.19654 0.10808 -0.10982 0.21158 -0.28996 -0.027773 -0.20948 -0.036565 -0.1495 -0.15885 -0.0032472 -0.11438 -0.10816 -0.0050935 -0.21485 -0.025382 0.27457 0.037802 0.072083 -0.16767 0.049603 0.19294 -0.021788 0.033579 -0.075257 -0.13114 -0.032621 -0.016253 -0.10141 0.12493 0.047124 0.0099194 -0.12391 0.13557 -0.16398 -0.061167 0.067587 -0.085058 -0.15939 0.18811 -0.012555 -0.11442 0.2045 -0.015935 0.082404 0.2339 0.23973 -0.37161 0.093243 0.2539 
<cnjsub> 0.084192 0.036242 -0.011999 0.076635 0.035475 0.23845 -0.19329 -0.087123 -0.014263 -0.13505 0.12412 0.040439 -0.11796 -0.032226 -0.047652 -0.1768 -0.098825 0.029343 -0.16991 0.12825 -0.17038 0.07614 -0.070094 0.20124 -0.050637 -0.15899 0.20426 0.021287 0.11917 -0.1495 0.084731 -0.075094 -0.27302 0.18347 -0.094031 0.22863 0.079036 0.055762 0.12379 0.095438 0.32816 -0.074366 0.19168 0.11459 -0.1045 0.084713 0.10185 0.16681 0.096805 0.073435 0.010829 0.20295 -0.16232 0.058475 0.008526 -0.050461 -0.021593 -0.28538 0.031512 0.10175 0.08207 -0.14461 -0.11305 -0.18509 -0.054402 0.22654 0.2323 -0.042775 0.020102 -0.27857 -0.079854 0.053135 -0.0509 -0.17306 0.026732 -0.050543 0.074689 0.10135 0.12507 -0.2151 -0.15334 0.057336 0.061525 -0.19599 -0.054968 -0.078883 0.007153 -0.24845 -0.066474 -0.21576 0.12353 0.074046 -0.0013548 0.024314 0.058272 -0.13922 -0.075595 -0.068764 -0.095509 -0.029114 0.00053369 0.19829 -0.15302 0.13648 -0.11839 -0.22694 0.071651 -0.0071556 0.046134 -0.13453 0.14306 -0.076012 -0.33139 -0.047145 0.074146 0.0054798 -0.019723 0.13661 -0.058726 0.11577 0.1657 0.081226 0.055004 0.12828 -0.126 -0.23031 0.089372 0.30635 -0.1802 -0.30772 0.1822 0.14821 -0.19921 0.023218 -0.0057244 0.070426 -0.27638 -0.096107 0.21457 -0.22522 0.036565 0.15316 0.262 0.074706 -0.088987 -0.042744 0.058304 -0.0028613 -0.011933 0.023501 0.289 0.11092 -0.080446 0.23213 0.13322 0.17169 0.13614 -0.02367 0.07981 -0.024931 0.16206 0.11438 -0.1823 -0.062605 -0.030756 -0.05448 0.11255 -0.006566 -0.03861 -0.22083 0.11653 -0.11726 0.02078 0.052148 -0.29091 0.083522 0.0028328 -0.17786 -0.083278 0.025057 -0.077723 -0.043227 -0.10992 0.22194 0.097218 -0.14052 0.11126 0.41052 0.16859 0.11169 -0.20225 -0.1524 -0.095464 -0.065533 0.24294 0.10322 0.017715 -0.053483 -0.011518 0.082231 -0.10228 -0.050724 0.33405 -0.071189 -0.093075 -0.091898 -0.3823 -0.1497 -0.11095 -0.061685 -0.20035 -0.072159 -0.11315 -0.12506 -0.22274 0.17592 -0.18143 0.19818 -0.17377 0.26231 -0.3066 0.092085 0.148 -0.059519 0.04326 0.17548 -0.091577 -0.14148 -0.024998 -0.11828 -0.0065103 0.0081326 0.15705 0.033136 0.12004 0.020055 -0.10444 0.22818 -0.17588 -0.15725 0.11455 -0.12625 0.0012606 0.039112 0.06671 -0.32138 0.22573 -0.15263 0.18564 0.15676 -0.19332 0.106 -0.10889 0.20716 -0.2852 -0.02785 -0.2067 -0.035532 -0.14734 -0.15634 -0.0036373 -0.11271 -0.10615 -0.0047084 -0.21136 -0.025058 0.27073 0.037309 0.070295 -0.16359 0.048708 0.18931 -0.020548 0.033496 -0.073964 -0.12929 -0.032241 -0.015876 -0.099904 0.12399 0.04609 0.0085135 -0.12237 0.13397 -0.1614 -0.059578 0.06593 -0.083952 -0.15629 0.18526 -0.012929 -0.11301 0.20171 -0.016227 0.080943 0.22993 0.23533 -0.36633 0.092536 0.25001 
<n><pl><nom> 0.08847 0.038825 -0.012008 0.081115 0.037361 0.25036 -0.20271 -0.091486 -0.015317 -0.14246 0.12941 0.043519 -0.12435 -0.033563 -0.050197 -0.18549 -0.10372 0.03026 -0.17835 0.13544 -0.1791 0.080355 -0.07395 0.21151 -0.052947 -0.16758 0.2155 0.022557 0.12565 -0.15742 0.089715 -0.078499 -0.28614 0.19214 -0.098755 0.24043 0.082291 0.057953 0.12917 0.099036 0.34543 -0.07784 0.20119 0.12056 -0.11042 0.089145 0.10598 0.17524 0.10227 0.077892 0.011298 0.21438 -0.17066 0.060852 0.0092019 -0.052752 -0.023019 -0.29991 0.033343 0.10647 0.085603 -0.15246 -0.11821 -0.19453 -0.056055 0.23864 0.24347 -0.044523 0.020927 -0.29214 -0.083857 0.055054 -0.053252 -0.18258 0.028269 -0.053294 0.078312 0.10605 0.1309 -0.22472 -0.16108 0.061208 0.065311 -0.20537 -0.057914 -0.082861 0.0071473 -0.26051 -0.07019 -0.22599 0.12988 0.078399 -0.0019074 0.023512 0.061406 -0.1456 -0.078949 -0.072149 -0.10041 -0.030783 0.0011207 0.20935 -0.16033 0.14358 -0.12503 -0.2388 0.075159 -0.0079022 0.048457 -0.14015 0.15054 -0.079502 -0.34747 -0.050025 0.077802 0.0051292 -0.019957 0.14302 -0.060604 0.12103 0.17369 0.085969 0.058233 0.13502 -0.13219 -0.2411 0.093338 0.32204 -0.18867 -0.32236 0.19067 0.15591 -0.20902 0.024354 -0.0062331 0.074687 -0.29073 -0.10117 0.2253 -0.23694 0.038343 0.15962 0.27505 0.078615 -0.094576 -0.04442 0.061795 -0.0021123 -0.011307 0.024821 0.304 0.11583 -0.084417 0.24389 0.14046 0.17984 0.14262 -0.025029 0.084228 -0.026271 0.16979 0.12048 -0.19202 -0.06586 -0.032317 -0.057955 0.11848 -0.0063709 -0.040304 -0.23205 0.12217 -0.12259 0.021498 0.05504 -0.30588 0.088471 0.0035685 -0.18829 -0.086971 0.025863 -0.081309 -0.045847 -0.11555 0.23291 0.10246 -0.14765 0.11732 0.42991 0.17945 0.11645 -0.21276 -0.16005 -0.099682 -0.068776 0.25419 0.10723 0.017453 -0.0559 -0.01234 0.086905 -0.10792 -0.053544 0.34993 -0.074225 -0.099232 -0.097145 -0.40164 -0.15835 -0.11587 -0.065247 -0.21147 -0.075526 -0.11862 -0.1311 -0.23289 0.18537 -0.19067 0.20775 -0.18266 0.27471 -0.32085 0.097018 0.15453 -0.062261 0.046048 0.18452 -0.095453 -0.14879 -0.025615 -0.12519 -0.0069708 0.0078523 0.16589 0.034648 0.12575 0.021051 -0.10849 0.24002 -0.18483 -0.16455 0.12006 -0.13249 0.0011905 0.041786 0.068776 -0.33722 0.23559 -0.16104 0.19445 0.16513 -0.20224 0.11095 -0.11308 0.21686 -0.30011 -0.030188 -0.21812 -0.03719 -0.15514 -0.16436 -0.0040644 -0.11781 -0.11188 -0.0039237 -0.22205 -0.027271 0.28423 0.038302 0.074319 -0.1722 0.051981 0.19874 -0.021235 0.035051 -0.077664 -0.13569 -0.033517 -0.017339 -0.10523 0.13006 0.048336 0.0093449 -0.12812 0.14062 -0.16973 -0.063025 0.069598 -0.088286 -0.16444 0.19458 -0.012618 -0.11807 0.21206 -0.017681 0.084787 0.24188 0.2479 -0.38448 0.097008 0.26261 
<vblex><tv><inf> 0.08994 0.038712 -0.012561 0.081366 0.038957 0.25458 -0.20491 -0.091916 -0.014164 -0.14322 0.13355 0.041374 -0.12503 -0.03352 -0.050539 -0.19032 -0.10257 0.032534 -0.18015 0.13503 -0.18078 0.07967 -0.074157 0.21259 -0.053974 -0.16857 0.2167 0.021754 0.12554 -0.15824 0.089029 -0.081263 -0.28997 0.19476 -0.10048 0.2426 0.083988 0.058138 0.12979 0.10135 0.35005 -0.080354 0.20307 0.12305 -0.11111 0.090636 0.11109 0.17714 0.10394 0.076232 0.010877 0.21435 -0.17245 0.062292 0.010021 -0.053385 -0.023145 -0.30154 0.032165 0.10952 0.087554 -0.15398 -0.11967 -0.19822 -0.057906 0.24089 0.24775 -0.046971 0.023751 -0.29614 -0.08505 0.057398 -0.054317 -0.18296 0.029279 -0.056276 0.079702 0.10661 0.13371 -0.22788 -0.16354 0.060547 0.066247 -0.20963 -0.058425 -0.083301 0.0079905 -0.26529 -0.07116 -0.22806 0.13163 0.076802 -0.0028226 0.026401 0.061495 -0.14859 -0.079754 -0.072082 -0.10122 -0.029249 0.00097545 0.21115 -0.16205 0.14437 -0.12707 -0.24313 0.075501 -0.0053069 0.04973 -0.1434 0.15207 -0.081358 -0.35124 -0.046452 0.079354 0.0071155 -0.020636 0.14565 -0.061006 0.12252 0.17509 0.084104 0.059999 0.13817 -0.13307 -0.24694 0.09471 0.32469 -0.19326 -0.3266 0.19405 0.1583 -0.21148 0.025364 -0.0045409 0.073114 -0.29193 -0.10226 0.22933 -0.23718 0.038897 0.16297 0.2795 0.079195 -0.09609 -0.04589 0.062728 -0.0028524 -0.01247 0.024946 0.3062 0.11474 -0.086161 0.24623 0.1427 0.18255 0.14432 -0.026712 0.084469 -0.027342 0.1704 0.12087 -0.19372 -0.065989 -0.033803 -0.059054 0.11944 -0.0067317 -0.041218 -0.23293 0.1258 -0.12449 0.019532 0.054332 -0.3085 0.08897 0.0041764 -0.18637 -0.089449 0.024642 -0.084284 -0.043854 -0.11562 0.23473 0.10299 -0.14978 0.1174 0.43687 0.17748 0.11873 -0.21401 -0.16251 -0.10215 -0.06876 0.25861 0.1095 0.01858 -0.05763 -0.012572 0.085637 -0.1094 -0.053648 0.35629 -0.077725 -0.098744 -0.098577 -0.40437 -0.15851 -0.1196 -0.065066 -0.2123 -0.077784 -0.12096 -0.13304 -0.23651 0.1848 -0.19177 0.21088 -0.18531 0.27817 -0.32652 0.099165 0.15733 -0.061805 0.046508 0.18503 -0.096665 -0.15211 -0.026988 -0.1259 -0.0089814 0.0084945 0.16625 0.034324 0.12595 0.021608 -0.11064 0.24221 -0.18587 -0.16753 0.12152 -0.13523 0.0016603 0.043019 0.071093 -0.34161 0.23906 -0.16124 0.19868 0.1676 -0.2052 0.11118 -0.1161 0.2185 -0.30345 -0.029462 -0.21948 -0.03703 -0.15568 -0.16477 -0.0039881 -0.11997 -0.113 -0.0069477 -0.22514 -0.026158 0.28573 0.040264 0.074303 -0.17335 0.049381 0.20133 -0.022795 0.035185 -0.076818 -0.13504 -0.033411 -0.01699 -0.10755 0.13251 0.048982 0.0092286 -0.12969 0.14232 -0.17184 -0.06284 0.071061 -0.087959 -0.16585 0.1955 -0.014872 -0.1168 0.21349 -0.016382 0.085352 0.24419 0.24934 -0.38793 0.098622 0.26641 
<n><sg><loc> 0.087167 0.037984 -0.012329 0.079998 0.036517 0.2458 -0.19973 -0.089718 -0.014003 -0.13962 0.12778 0.04133 -0.12279 -0.034244 -0.049067 -0.18202 -0.10211 0.029859 -0.17579 0.13186 -0.17581 0.078747 -0.073249 0.20741 -0.052125 -0.16479 0.211 0.021895 0.12299 -0.15445 0.087183 -0.077584 -0.28123 0.18966 -0.097755 0.23605 0.081626 0.056497 0.12655 0.098026 0.33728 -0.076867 0.19656 0.11795 -0.10824 0.088363 0.1035 0.17206 0.10014 0.076612 0.011402 0.20917 -0.16676 0.060773 0.0085633 -0.052523 -0.022257 -0.29408 0.031781 0.10471 0.084924 -0.14878 -0.11597 -0.1906 -0.055087 0.23362 0.23875 -0.043556 0.02101 -0.28689 -0.082387 0.054473 -0.052602 -0.17911 0.027946 -0.052171 0.077029 0.10429 0.12882 -0.22101 -0.15958 0.05977 0.06344 -0.20229 -0.056898 -0.081668 0.0074178 -0.25691 -0.069055 -0.22253 0.12784 0.076573 -0.0018416 0.025422 0.060071 -0.14396 -0.077557 -0.071402 -0.097966 -0.029881 0.00075923 0.20541 -0.15811 0.14042 -0.12134 -0.23467 0.073804 -0.0081999 0.046901 -0.13793 0.14721 -0.078608 -0.34166 -0.048052 0.076844 0.0046621 -0.019738 0.14127 -0.05889 0.11882 0.17086 0.08456 0.05837 0.13245 -0.12916 -0.23792 0.091394 0.3152 -0.18538 -0.31591 0.18834 0.15321 -0.20574 0.024457 -0.0065603 0.073105 -0.2848 -0.098787 0.22175 -0.23229 0.036839 0.15781 0.27039 0.077272 -0.092679 -0.044275 0.060149 -0.0023072 -0.011813 0.02396 0.29875 0.11313 -0.083169 0.23841 0.13738 0.17668 0.13982 -0.024109 0.082075 -0.025918 0.16708 0.11766 -0.18855 -0.064503 -0.031582 -0.056428 0.11656 -0.0066366 -0.03864 -0.22789 0.12045 -0.11975 0.021102 0.053422 -0.30126 0.086348 0.0028288 -0.18408 -0.086187 0.026391 -0.079014 -0.044813 -0.11353 0.22887 0.099854 -0.14513 0.11515 0.42188 0.17456 0.11505 -0.20893 -0.15742 -0.099185 -0.066469 0.2497 0.10571 0.018955 -0.054619 -0.011489 0.08554 -0.10539 -0.052159 0.34297 -0.072899 -0.096088 -0.095446 -0.39378 -0.15524 -0.11472 -0.063562 -0.20752 -0.075413 -0.11626 -0.12966 -0.22932 0.1815 -0.18668 0.20345 -0.18005 0.26999 -0.31599 0.095257 0.15296 -0.059958 0.043956 0.18062 -0.095828 -0.14591 -0.026437 -0.12309 -0.0057246 0.0081556 0.16192 0.034024 0.12312 0.020825 -0.10647 0.23466 -0.18064 -0.1621 0.11716 -0.13098 0.0016499 0.040389 0.067427 -0.33077 0.23161 -0.15734 0.19133 0.16217 -0.19911 0.1096 -0.11084 0.21409 -0.29393 -0.028609 -0.21267 -0.037239 -0.15116 -0.16125 -0.0038436 -0.11571 -0.10967 -0.0044195 -0.21801 -0.026133 0.27893 0.038339 0.07302 -0.16975 0.050821 0.19542 -0.022005 0.034802 -0.076956 -0.13344 -0.033293 -0.016635 -0.10279 0.12737 0.047616 0.0095285 -0.12583 0.13774 -0.1666 -0.06234 0.067934 -0.086495 -0.16194 0.19121 -0.01256 -0.11657 0.20777 -0.016131 0.083235 0.23754 0.24336 -0.37731 0.095177 0.25777 
<vblex><iv><indic><pret><sg3> 0.083862 0.036283 -0.01176 0.075907 0.03637 0.23709 -0.19096 -0.085375 -0.013143 -0.13343 0.12371 0.039021 -0.11653 -0.031436 -0.047384 -0.17694 -0.095727 0.030361 -0.16805 0.12572 -0.16848 0.074214 -0.069442 0.19808 -0.050171 -0.15682 0.20208 0.020297 0.11722 -0.14767 0.083358 -0.075694 -0.26994 0.18123 -0.093854 0.22593 0.07828 0.054102 0.12141 0.094387 0.3259 -0.074756 0.18946 0.11455 -0.10326 0.08459 0.10342 0.16535 0.096822 0.071715 0.0098984 0.20005 -0.16116 0.057909 0.0098195 -0.049637 -0.021632 -0.28114 0.030213 0.10184 0.081358 -0.14342 -0.11167 -0.18422 -0.054122 0.22477 0.23106 -0.043588 0.022192 -0.27569 -0.079233 0.053586 -0.050224 -0.17076 0.027524 -0.052603 0.074278 0.099288 0.12446 -0.21246 -0.15227 0.056309 0.061598 -0.19511 -0.054808 -0.078026 0.0071025 -0.24695 -0.066587 -0.2124 0.12237 0.072047 -0.0024347 0.024497 0.057332 -0.1386 -0.07444 -0.066887 -0.094588 -0.027271 0.0010143 0.19725 -0.15068 0.13482 -0.11888 -0.22618 0.070368 -0.0052497 0.046315 -0.13348 0.14153 -0.075735 -0.3271 -0.043657 0.074119 0.0061535 -0.019686 0.13567 -0.056849 0.11427 0.16336 0.078443 0.055891 0.12897 -0.1241 -0.23027 0.088171 0.30257 -0.18007 -0.30442 0.18117 0.14746 -0.19709 0.023553 -0.0043099 0.06815 -0.27234 -0.095427 0.21342 -0.22139 0.036157 0.15164 0.26019 0.073992 -0.089502 -0.042476 0.0588 -0.0022861 -0.011535 0.023308 0.28535 0.10697 -0.080392 0.22933 0.13304 0.17014 0.13415 -0.02476 0.078754 -0.025377 0.15878 0.1128 -0.18087 -0.061755 -0.031238 -0.055364 0.11141 -0.0060708 -0.038445 -0.21748 0.11712 -0.11572 0.01853 0.050799 -0.28726 0.082803 0.0037095 -0.17386 -0.08299 0.022846 -0.078412 -0.040993 -0.1077 0.21874 0.095708 -0.13945 0.10875 0.40713 0.1656 0.11068 -0.19922 -0.15136 -0.095048 -0.063974 0.24075 0.10224 0.017319 -0.053447 -0.011733 0.080448 -0.102 -0.050464 0.33157 -0.071995 -0.091962 -0.091925 -0.37719 -0.14778 -0.11115 -0.060563 -0.19811 -0.072123 -0.11267 -0.12354 -0.22012 0.1724 -0.17884 0.19636 -0.17257 0.25895 -0.30377 0.092449 0.14653 -0.057946 0.043711 0.17229 -0.089674 -0.14189 -0.024629 -0.11698 -0.0078497 0.0076913 0.15479 0.032317 0.11732 0.020083 -0.10359 0.22593 -0.17344 -0.15616 0.11321 -0.12562 0.0011606 0.04025 0.065637 -0.31867 0.22293 -0.15046 0.18463 0.15655 -0.19086 0.1036 -0.10826 0.20355 -0.28285 -0.028026 -0.20462 -0.034734 -0.14507 -0.15337 -0.0039807 -0.11167 -0.10526 -0.0062912 -0.2102 -0.024717 0.26674 0.037016 0.068624 -0.1614 0.046809 0.18737 -0.020826 0.033175 -0.07148 -0.12603 -0.031779 -0.015901 -0.10022 0.12369 0.045386 0.0084063 -0.12127 0.13282 -0.16044 -0.058395 0.066042 -0.082334 -0.15419 0.18201 -0.013608 -0.10892 0.1994 -0.015596 0.079518 0.22736 0.23205 -0.36138 0.091941 0.24819 
<n><pl><acc> 0.09069 0.039841 -0.013301 0.082743 0.038825 0.25668 -0.20841 -0.093939 -0.015224 -0.14616 0.13357 0.044295 -0.12816 -0.034158 -0.051172 -0.19082 -0.10661 0.031042 -0.18344 0.13884 -0.18388 0.081947 -0.075571 0.21697 -0.053979 -0.17169 0.2208 0.022922 0.12887 -0.16106 0.092314 -0.080835 -0.29383 0.19796 -0.10152 0.24692 0.084595 0.05969 0.13239 0.10194 0.35448 -0.080032 0.20646 0.12379 -0.11347 0.091589 0.10926 0.1805 0.10525 0.079258 0.010946 0.2194 -0.1751 0.062836 0.0092562 -0.054009 -0.023743 -0.30727 0.034378 0.10946 0.088024 -0.15582 -0.12141 -0.19956 -0.057305 0.24449 0.24986 -0.04651 0.022244 -0.30014 -0.086292 0.056865 -0.054811 -0.18702 0.029109 -0.055742 0.079847 0.10954 0.1348 -0.23089 -0.1662 0.062428 0.066683 -0.21099 -0.059617 -0.085189 0.0070837 -0.26796 -0.071608 -0.2327 0.13316 0.079819 -0.0019576 0.02507 0.06356 -0.14987 -0.081187 -0.073743 -0.10337 -0.031836 0.0013841 0.21467 -0.1653 0.14709 -0.12784 -0.24551 0.077224 -0.0074232 0.049508 -0.14408 0.15467 -0.081939 -0.3569 -0.050687 0.079667 0.0052072 -0.020594 0.14747 -0.0629 0.12422 0.17783 0.088062 0.060083 0.13822 -0.13613 -0.24812 0.095028 0.33044 -0.19408 -0.33087 0.19646 0.15989 -0.2147 0.024858 -0.0065125 0.075855 -0.298 -0.10408 0.23134 -0.24297 0.039334 0.16422 0.28279 0.080238 -0.097188 -0.046208 0.062813 -0.002738 -0.011965 0.024954 0.31171 0.11868 -0.087423 0.25023 0.14438 0.18452 0.14574 -0.025776 0.086509 -0.02786 0.1748 0.12357 -0.1971 -0.067264 -0.033142 -0.058975 0.12191 -0.006654 -0.04141 -0.23765 0.12625 -0.1256 0.021776 0.056164 -0.31416 0.090928 0.0034102 -0.19232 -0.089759 0.026701 -0.083479 -0.046985 -0.1188 0.23908 0.10528 -0.15139 0.12101 0.44176 0.18324 0.11943 -0.21805 -0.16416 -0.1026 -0.070207 0.26109 0.1105 0.018039 -0.057437 -0.012299 0.088653 -0.11116 -0.054721 0.35979 -0.07705 -0.10087 -0.099448 -0.41238 -0.16249 -0.11909 -0.066687 -0.21708 -0.077439 -0.12169 -0.13505 -0.23932 0.18949 -0.1958 0.2131 -0.18818 0.28197 -0.33038 0.098954 0.15976 -0.063793 0.047134 0.18976 -0.098016 -0.15298 -0.027331 -0.12852 -0.0074556 0.0079736 0.16969 0.035325 0.12932 0.021896 -0.11174 0.24571 -0.18996 -0.16912 0.12339 -0.13611 0.0013072 0.042831 0.070323 -0.34555 0.24214 -0.16469 0.20004 0.16919 -0.20828 0.11409 -0.11642 0.22287 -0.30873 -0.029697 -0.22369 -0.038867 -0.15908 -0.16905 -0.0044614 -0.12086 -0.11453 -0.0047472 -0.22783 -0.027882 0.29145 0.039315 0.076332 -0.17709 0.053259 0.20462 -0.02225 0.036366 -0.079922 -0.13875 -0.034289 -0.01785 -0.10841 0.13298 0.050047 0.0097438 -0.13144 0.14452 -0.174 -0.064645 0.071857 -0.090413 -0.16875 0.19945 -0.013378 -0.12127 0.21734 -0.018175 0.087573 0.24808 0.25387 -0.39461 0.099597 0.26934 
<post> 0.083422 0.03575 -0.011576 0.075233 0.034754 0.23356 -0.1896 -0.085824 -0.013635 -0.1321 0.12252 0.039472 -0.11668 -0.031784 -0.047139 -0.17303 -0.097325 0.028262 -0.16658 0.12452 -0.16728 0.074972 -0.068468 0.19807 -0.049604 -0.15675 0.20031 0.020979 0.11643 -0.1466 0.082633 -0.073554 -0.26763 0.17914 -0.092133 0.22376 0.077498 0.054077 0.12029 0.093369 0.32237 -0.073212 0.18704 0.11356 -0.10268 0.083973 0.099688 0.16344 0.094443 0.072635 0.010451 0.19837 -0.15876 0.056976 0.0079602 -0.04952 -0.021083 -0.27924 0.03079 0.1004 0.080053 -0.14151 -0.10994 -0.18136 -0.052738 0.2219 0.22751 -0.042113 0.019766 -0.27313 -0.078383 0.051975 -0.050389 -0.17006 0.026244 -0.049876 0.073096 0.098747 0.12244 -0.21007 -0.15145 0.056265 0.060722 -0.19151 -0.053747 -0.076979 0.0071633 -0.244 -0.065609 -0.21112 0.12167 0.072597 -0.0020227 0.024292 0.056762 -0.13623 -0.07404 -0.067694 -0.093968 -0.027275 0.00070156 0.1944 -0.14993 0.13448 -0.11633 -0.2235 0.070549 -0.0072498 0.045841 -0.13196 0.14061 -0.075182 -0.32493 -0.045729 0.07266 0.0044852 -0.01985 0.13378 -0.057314 0.11329 0.1631 0.081022 0.054912 0.12582 -0.12363 -0.22583 0.087363 0.30038 -0.17682 -0.3013 0.17839 0.14546 -0.19428 0.022182 -0.0052116 0.069467 -0.27001 -0.094095 0.21041 -0.22065 0.035413 0.15092 0.2573 0.073522 -0.088611 -0.041333 0.057463 -0.0029265 -0.012327 0.022739 0.28374 0.10782 -0.079319 0.22746 0.1303 0.16802 0.13354 -0.023681 0.07897 -0.024585 0.15928 0.11141 -0.17892 -0.060486 -0.030313 -0.054277 0.11117 -0.0069309 -0.037328 -0.2159 0.1144 -0.1141 0.01928 0.051043 -0.28615 0.08219 0.0030539 -0.17413 -0.081654 0.02455 -0.074997 -0.041888 -0.10753 0.21752 0.094522 -0.1378 0.10961 0.40208 0.16562 0.10941 -0.19824 -0.14925 -0.093695 -0.063351 0.23743 0.10106 0.017479 -0.051925 -0.010571 0.080214 -0.10102 -0.049794 0.3268 -0.070296 -0.091553 -0.090094 -0.37435 -0.14757 -0.10805 -0.060169 -0.19666 -0.071843 -0.11119 -0.12218 -0.21777 0.17094 -0.17797 0.1947 -0.17075 0.25733 -0.30033 0.090168 0.14562 -0.058408 0.042495 0.17259 -0.091117 -0.13805 -0.024752 -0.11592 -0.0068061 0.0073248 0.15421 0.03225 0.11713 0.019993 -0.10176 0.22335 -0.17265 -0.15445 0.1122 -0.12497 0.0011836 0.038804 0.064565 -0.31464 0.22071 -0.14931 0.18145 0.15484 -0.18914 0.10429 -0.10627 0.2043 -0.27925 -0.027101 -0.20305 -0.034855 -0.14484 -0.15337 -0.003713 -0.11046 -0.10389 -0.0050519 -0.206 -0.02384 0.2651 0.035954 0.069395 -0.16075 0.047169 0.18601 -0.021909 0.032497 -0.073553 -0.12637 -0.030406 -0.015657 -0.097313 0.1215 0.044886 0.0083644 -0.12006 0.13184 -0.15799 -0.058591 0.064307 -0.081752 -0.1539 0.1817 -0.012568 -0.11118 0.19717 -0.016033 0.07876 0.2251 0.23031 -0.35862 0.090508 0.24517 
<vblex><iv><indic><pres><p3><sg><pl> 0.086518 0.037663 -0.011983 0.078529 0.037605 0.24499 -0.19729 -0.088341 -0.013734 -0.13796 0.12759 0.040424 -0.12026 -0.032628 -0.048715 -0.18274 -0.098791 0.031437 -0.17363 0.13017 -0.1739 0.076704 -0.071654 0.20476 -0.051674 -0.1621 0.20906 0.021287 0.12175 -0.15239 0.086298 -0.078087 -0.27879 0.18684 -0.096821 0.23351 0.080466 0.055913 0.12557 0.097463 0.33694 -0.077143 0.19585 0.11811 -0.10719 0.087313 0.10649 0.17095 0.10016 0.074228 0.010141 0.20724 -0.16638 0.059814 0.010069 -0.05133 -0.022458 -0.29057 0.031337 0.10533 0.08373 -0.14816 -0.11551 -0.19009 -0.055759 0.23255 0.23857 -0.044736 0.022702 -0.28501 -0.082024 0.055148 -0.051833 -0.17642 0.027866 -0.054087 0.076573 0.10251 0.1286 -0.21944 -0.15713 0.058538 0.063436 -0.20163 -0.05641 -0.080482 0.007457 -0.25468 -0.068736 -0.2195 0.12629 0.074739 -0.0025827 0.025011 0.059172 -0.14291 -0.076909 -0.069089 -0.098017 -0.028425 0.0011163 0.2037 -0.1555 0.13945 -0.12283 -0.23382 0.072587 -0.005655 0.048115 -0.13792 0.14612 -0.078091 -0.33819 -0.045388 0.07657 0.0063921 -0.02028 0.14014 -0.058831 0.1183 0.16871 0.081201 0.057724 0.13295 -0.12858 -0.23732 0.091203 0.31304 -0.18595 -0.31423 0.18711 0.15233 -0.20356 0.024312 -0.0047251 0.070348 -0.28153 -0.098583 0.22037 -0.22862 0.037761 0.15624 0.2688 0.076222 -0.0925 -0.04364 0.060603 -0.0020654 -0.011911 0.024145 0.29501 0.11068 -0.082904 0.23713 0.13771 0.17563 0.13847 -0.025436 0.081351 -0.026377 0.16417 0.11662 -0.18673 -0.063917 -0.032127 -0.057094 0.11524 -0.0060049 -0.039875 -0.22477 0.12076 -0.11958 0.019215 0.052622 -0.29676 0.085473 0.003926 -0.18015 -0.085449 0.023734 -0.080922 -0.042608 -0.11129 0.22599 0.099219 -0.14375 0.11267 0.42072 0.17163 0.11439 -0.20621 -0.1564 -0.097945 -0.066156 0.24865 0.1054 0.017616 -0.055128 -0.012232 0.083 -0.10527 -0.051917 0.34261 -0.074074 -0.095359 -0.094905 -0.38993 -0.15254 -0.11471 -0.062909 -0.20493 -0.074311 -0.1165 -0.12759 -0.22731 0.17864 -0.18486 0.20296 -0.17828 0.26751 -0.31371 0.095456 0.15119 -0.060112 0.045199 0.17799 -0.092505 -0.1462 -0.025354 -0.12103 -0.0082291 0.0078043 0.1603 0.033327 0.12121 0.020927 -0.10688 0.23347 -0.17916 -0.16121 0.11714 -0.1297 0.0012355 0.041709 0.06805 -0.32918 0.23029 -0.1557 0.19072 0.16155 -0.19712 0.10699 -0.11167 0.21011 -0.29247 -0.028949 -0.21146 -0.035943 -0.14999 -0.15877 -0.0040069 -0.11511 -0.1087 -0.0061383 -0.21712 -0.025859 0.2755 0.038318 0.070974 -0.16656 0.048668 0.19347 -0.021306 0.034195 -0.073996 -0.13047 -0.032846 -0.016354 -0.10358 0.12762 0.046992 0.0089373 -0.1253 0.13693 -0.16578 -0.060245 0.068396 -0.085287 -0.1594 0.18814 -0.013946 -0.11283 0.20604 -0.016301 0.082136 0.235 0.23996 -0.3734 0.094937 0.25599 
<n><prop><sg><nom> 0.086115 0.036845 -0.011615 0.07855 0.036184 0.24204 -0.19703 -0.0883 -0.01382 -0.13702 0.12647 0.041523 -0.12186 -0.032572 -0.048012 -0.18002 -0.10087 0.029468 -0.17329 0.13011 -0.17363 0.078364 -0.072068 0.20425 -0.051677 -0.16243 0.20793 0.021594 0.12121 -0.15262 0.085877 -0.076173 -0.27708 0.18731 -0.096548 0.23257 0.080174 0.055653 0.12481 0.096375 0.3328 -0.075583 0.19405 0.11726 -0.10707 0.086538 0.10251 0.16961 0.098276 0.075713 0.011075 0.20648 -0.16514 0.059523 0.0086489 -0.051741 -0.022126 -0.2897 0.031087 0.10308 0.083751 -0.14719 -0.11433 -0.18784 -0.054432 0.23052 0.23543 -0.043327 0.021104 -0.28302 -0.081187 0.053796 -0.052082 -0.17679 0.027613 -0.051779 0.075274 0.10269 0.12658 -0.21816 -0.157 0.058235 0.063145 -0.1993 -0.05581 -0.080093 0.0077387 -0.25386 -0.06815 -0.21925 0.1262 0.07498 -0.0013879 0.025506 0.059417 -0.14199 -0.076948 -0.070022 -0.096689 -0.029607 0.00066362 0.20252 -0.15586 0.13817 -0.11954 -0.23124 0.072661 -0.0073954 0.045856 -0.13623 0.14576 -0.077782 -0.33701 -0.047183 0.075095 0.00476 -0.019561 0.13993 -0.05769 0.11667 0.16889 0.083547 0.057617 0.13032 -0.12688 -0.23448 0.089877 0.30999 -0.18292 -0.31265 0.18533 0.15118 -0.20258 0.023547 -0.0062727 0.072617 -0.28041 -0.097305 0.21898 -0.22964 0.035452 0.15547 0.26675 0.076481 -0.091266 -0.044063 0.059124 -0.002724 -0.011571 0.023961 0.29503 0.11197 -0.082403 0.2356 0.13545 0.17477 0.1379 -0.023733 0.080862 -0.0248 0.1656 0.11599 -0.18547 -0.062983 -0.031169 -0.056135 0.1147 -0.0068054 -0.038346 -0.22514 0.11865 -0.1188 0.021479 0.052512 -0.29712 0.085455 0.0031851 -0.18106 -0.084623 0.025834 -0.077321 -0.04403 -0.11179 0.22557 0.097748 -0.14369 0.11297 0.41638 0.17214 0.11343 -0.20577 -0.15494 -0.097581 -0.065892 0.24658 0.10468 0.018803 -0.054099 -0.010982 0.084438 -0.10431 -0.051616 0.33843 -0.072251 -0.095246 -0.094246 -0.38922 -0.15369 -0.11288 -0.0629 -0.205 -0.074568 -0.11493 -0.12685 -0.2259 0.17839 -0.18412 0.20066 -0.17729 0.26623 -0.31167 0.094022 0.15076 -0.059516 0.043885 0.17837 -0.094469 -0.14437 -0.026306 -0.12163 -0.0061796 0.007243 0.15954 0.033436 0.12187 0.020257 -0.10545 0.23155 -0.17865 -0.15944 0.11639 -0.12842 0.00085804 0.040806 0.066233 -0.32639 0.2284 -0.15507 0.18783 0.16052 -0.19682 0.10814 -0.11016 0.2115 -0.28991 -0.02854 -0.21024 -0.036429 -0.1501 -0.15879 -0.0035575 -0.1139 -0.10756 -0.0042618 -0.21498 -0.025074 0.27446 0.037417 0.072363 -0.16673 0.049666 0.19303 -0.021963 0.033635 -0.075624 -0.13152 -0.032646 -0.016037 -0.10099 0.12532 0.046699 0.0090995 -0.1242 0.13622 -0.16406 -0.060983 0.067312 -0.085763 -0.15972 0.18902 -0.011918 -0.1148 0.20483 -0.015702 0.081974 0.23435 0.23964 -0.37255 0.093972 0.25346 
<n><sg><ill> 0.089234 0.038398 -0.012628 0.082141 0.037933 0.25221 -0.20516 -0.092224 -0.014717 -0.14308 0.13139 0.042234 -0.12675 -0.034813 -0.050612 -0.18751 -0.10465 0.030567 -0.18028 0.13497 -0.1804 0.080732 -0.07536 0.21257 -0.054031 -0.16964 0.2163 0.021921 0.1267 -0.15857 0.089136 -0.079818 -0.28818 0.19511 -0.10081 0.24174 0.083741 0.057854 0.12962 0.10057 0.3466 -0.07901 0.2017 0.12112 -0.11131 0.090057 0.10671 0.17664 0.10279 0.078634 0.01141 0.21439 -0.17163 0.062461 0.009171 -0.053977 -0.022986 -0.30179 0.032576 0.10699 0.087516 -0.1532 -0.1185 -0.19594 -0.056605 0.24014 0.24518 -0.04551 0.022287 -0.29431 -0.084366 0.056305 -0.05342 -0.1833 0.028597 -0.054085 0.079298 0.10709 0.13202 -0.22693 -0.16357 0.061235 0.065508 -0.20754 -0.058013 -0.083807 0.007554 -0.26452 -0.071351 -0.22869 0.13096 0.07858 -0.0013066 0.026497 0.062096 -0.14792 -0.079965 -0.073346 -0.10059 -0.030231 0.00095755 0.21052 -0.16217 0.14408 -0.12467 -0.24113 0.075359 -0.0079467 0.047823 -0.14227 0.15162 -0.081202 -0.35071 -0.049263 0.078625 0.0052689 -0.019707 0.14537 -0.060287 0.12193 0.17507 0.086319 0.060165 0.1362 -0.13221 -0.24437 0.093829 0.32315 -0.19067 -0.32514 0.19358 0.15773 -0.21083 0.024955 -0.0061651 0.074813 -0.29247 -0.10135 0.22777 -0.23881 0.03771 0.16222 0.27761 0.079351 -0.095021 -0.045356 0.061644 -0.0025573 -0.012046 0.024496 0.3066 0.11607 -0.085802 0.24512 0.14108 0.18204 0.14342 -0.024938 0.084005 -0.026887 0.17207 0.1209 -0.19308 -0.065429 -0.032963 -0.05749 0.11966 -0.0066899 -0.039982 -0.23385 0.12411 -0.12316 0.021906 0.054787 -0.30904 0.088695 0.0032492 -0.18847 -0.08869 0.026588 -0.081398 -0.04585 -0.1165 0.2347 0.10205 -0.14922 0.11814 0.43311 0.17924 0.11802 -0.21439 -0.16203 -0.10158 -0.068071 0.25666 0.10881 0.019361 -0.055921 -0.011301 0.087388 -0.10876 -0.053493 0.35279 -0.075037 -0.098992 -0.097657 -0.40419 -0.15991 -0.11802 -0.065316 -0.21296 -0.078375 -0.1196 -0.13329 -0.23543 0.18588 -0.19178 0.20894 -0.18466 0.27721 -0.32493 0.097891 0.1571 -0.061388 0.045599 0.18537 -0.098506 -0.15003 -0.027141 -0.12583 -0.0064593 0.0082887 0.16556 0.034194 0.12667 0.021355 -0.10938 0.24108 -0.18603 -0.16648 0.12039 -0.13384 0.0017419 0.041684 0.069208 -0.33952 0.23807 -0.16148 0.19594 0.16695 -0.2047 0.11237 -0.11424 0.21988 -0.30171 -0.029464 -0.21863 -0.038062 -0.15585 -0.16501 -0.0038479 -0.11882 -0.11246 -0.0051455 -0.22428 -0.026762 0.28605 0.039301 0.074918 -0.17437 0.051562 0.20059 -0.022557 0.035266 -0.07868 -0.13646 -0.033971 -0.017068 -0.10539 0.1304 0.048437 0.010134 -0.12943 0.14162 -0.17114 -0.063507 0.070014 -0.089012 -0.16629 0.19631 -0.012914 -0.11938 0.2133 -0.016722 0.08539 0.24352 0.24961 -0.38708 0.09767 0.26454 
<vblex><iv><prfprc> 0.086716 0.037545 -0.012096 0.078734 0.037117 0.24509 -0.19729 -0.088575 -0.013469 -0.13813 0.12775 0.040277 -0.12045 -0.032701 -0.048791 -0.18301 -0.098948 0.031304 -0.17382 0.1301 -0.17414 0.07683 -0.071873 0.20512 -0.052296 -0.16226 0.20841 0.020921 0.12129 -0.15259 0.085847 -0.07816 -0.279 0.18749 -0.096956 0.23373 0.080993 0.056382 0.12573 0.097708 0.33719 -0.077159 0.19585 0.11811 -0.10674 0.08758 0.10659 0.17092 0.10014 0.07371 0.01029 0.20695 -0.1662 0.06 0.010303 -0.051381 -0.022356 -0.29071 0.030881 0.10518 0.084042 -0.14811 -0.11538 -0.19019 -0.055809 0.23248 0.2386 -0.044832 0.022829 -0.2851 -0.082168 0.055454 -0.051986 -0.17649 0.028075 -0.054037 0.076813 0.10284 0.12872 -0.21919 -0.15761 0.058595 0.063259 -0.20147 -0.05628 -0.080189 0.0073916 -0.25513 -0.068417 -0.21945 0.12682 0.074662 -0.002487 0.025593 0.058854 -0.14317 -0.077412 -0.069632 -0.097558 -0.028314 0.00086844 0.20364 -0.15594 0.13914 -0.12289 -0.23372 0.072861 -0.0056826 0.047949 -0.13778 0.14651 -0.078041 -0.3381 -0.045204 0.076744 0.0066886 -0.02015 0.14 -0.058961 0.11823 0.16893 0.081317 0.057828 0.13322 -0.12823 -0.23736 0.091068 0.31288 -0.18609 -0.31412 0.18703 0.15255 -0.20335 0.024216 -0.004738 0.070579 -0.28161 -0.098632 0.22054 -0.22823 0.037578 0.1568 0.26876 0.076146 -0.092503 -0.043438 0.060585 -0.0022237 -0.012076 0.024143 0.29506 0.11088 -0.082822 0.23724 0.13755 0.17577 0.13881 -0.025363 0.081486 -0.026022 0.16446 0.11696 -0.18675 -0.063542 -0.032229 -0.057357 0.11542 -0.0061947 -0.039845 -0.22452 0.12104 -0.11959 0.019053 0.052794 -0.29709 0.08563 0.003556 -0.1797 -0.085582 0.023834 -0.080932 -0.042379 -0.11135 0.22616 0.099015 -0.14398 0.11262 0.42068 0.17151 0.11438 -0.20617 -0.15643 -0.098121 -0.066231 0.24837 0.1058 0.017946 -0.055086 -0.011653 0.083236 -0.10561 -0.051876 0.3427 -0.074067 -0.095006 -0.094579 -0.38991 -0.15273 -0.11455 -0.062786 -0.20478 -0.07461 -0.11638 -0.12804 -0.22756 0.17826 -0.18479 0.20312 -0.17819 0.2679 -0.31411 0.095298 0.15129 -0.060131 0.044951 0.17854 -0.093127 -0.14622 -0.025477 -0.12115 -0.0083514 0.0082793 0.16037 0.033249 0.12137 0.02083 -0.10656 0.23357 -0.17919 -0.16138 0.11662 -0.12983 0.0018584 0.04168 0.067688 -0.32892 0.23027 -0.15545 0.1908 0.16113 -0.19759 0.10686 -0.11141 0.21077 -0.29247 -0.028464 -0.21162 -0.036222 -0.14994 -0.15884 -0.0040729 -0.11542 -0.10876 -0.0063592 -0.21669 -0.025599 0.27571 0.038219 0.071294 -0.1667 0.048479 0.19332 -0.021251 0.034126 -0.073983 -0.13018 -0.032495 -0.016384 -0.1032 0.12786 0.046918 0.0089563 -0.1252 0.1369 -0.16585 -0.060305 0.068207 -0.085359 -0.1592 0.18775 -0.014036 -0.11253 0.20596 -0.015978 0.082147 0.23518 0.2403 -0.37367 0.094846 0.25629 
<vblex><iv><inf> 0.091695 0.039527 -0.012653 0.082684 0.03955 0.25817 -0.20739 -0.092948 -0.014265 -0.14537 0.13469 0.041793 -0.12674 -0.034136 -0.051479 -0.1931 -0.10348 0.033554 -0.1829 0.13645 -0.18327 0.080242 -0.075611 0.21557 -0.055119 -0.17073 0.21966 0.021856 0.12766 -0.16096 0.090295 -0.082574 -0.29391 0.19729 -0.10189 0.24602 0.085151 0.058969 0.13213 0.1032 0.35518 -0.081511 0.20599 0.12491 -0.11243 0.091989 0.11303 0.17978 0.10571 0.077568 0.010767 0.21719 -0.17482 0.063544 0.010992 -0.054018 -0.023271 -0.30615 0.032294 0.11104 0.088248 -0.15584 -0.12137 -0.2008 -0.059073 0.24518 0.25181 -0.04794 0.024495 -0.30011 -0.086486 0.058842 -0.054752 -0.18578 0.029715 -0.057028 0.081062 0.10798 0.13592 -0.23093 -0.16594 0.06149 0.067097 -0.21285 -0.059566 -0.084445 0.007761 -0.26922 -0.072294 -0.23073 0.1333 0.078197 -0.0030053 0.027185 0.062111 -0.15084 -0.081051 -0.072541 -0.10286 -0.02948 0.0008853 0.2145 -0.16403 0.14665 -0.12969 -0.24667 0.076562 -0.0053553 0.050865 -0.1457 0.15435 -0.082168 -0.35606 -0.047087 0.080856 0.0072968 -0.021582 0.14755 -0.062098 0.12477 0.1775 0.085019 0.060972 0.14048 -0.1351 -0.25039 0.095953 0.32958 -0.19638 -0.33097 0.19727 0.16061 -0.21439 0.025568 -0.0044718 0.073768 -0.29642 -0.10389 0.23269 -0.24017 0.03953 0.16506 0.28351 0.080413 -0.097809 -0.045792 0.064036 -0.0022946 -0.012592 0.025549 0.31018 0.11616 -0.087418 0.24999 0.14517 0.18513 0.14599 -0.02736 0.085818 -0.027987 0.17291 0.12315 -0.19685 -0.067488 -0.034187 -0.060343 0.1214 -0.0066601 -0.042213 -0.23621 0.12774 -0.12625 0.019702 0.055465 -0.31208 0.089986 0.0038613 -0.18878 -0.090344 0.024625 -0.08593 -0.044496 -0.11697 0.23793 0.10437 -0.15159 0.11843 0.44341 0.17986 0.12045 -0.21688 -0.1648 -0.10374 -0.069491 0.26166 0.11115 0.018913 -0.058261 -0.012631 0.086975 -0.11118 -0.054815 0.36142 -0.078312 -0.099894 -0.099833 -0.41036 -0.16035 -0.12105 -0.066177 -0.21543 -0.0785 -0.12277 -0.13474 -0.23973 0.18729 -0.1946 0.21416 -0.18763 0.2821 -0.33072 0.10094 0.1595 -0.063352 0.047538 0.18742 -0.097804 -0.15444 -0.026859 -0.12728 -0.0091373 0.0087151 0.16851 0.034707 0.12757 0.021986 -0.11249 0.24603 -0.18847 -0.16987 0.12303 -0.13687 0.0018434 0.043847 0.071713 -0.34663 0.24252 -0.16362 0.20113 0.17023 -0.20806 0.11217 -0.11794 0.22149 -0.30799 -0.030335 -0.22274 -0.037673 -0.15759 -0.16692 -0.0041893 -0.12173 -0.11462 -0.0072512 -0.22856 -0.026966 0.29 0.040839 0.074418 -0.1754 0.050672 0.20366 -0.022844 0.036072 -0.077282 -0.1365 -0.034498 -0.017363 -0.10939 0.13471 0.049217 0.0096025 -0.13188 0.1444 -0.17469 -0.063485 0.072126 -0.089453 -0.16754 0.19761 -0.015035 -0.11782 0.21708 -0.017024 0.086329 0.2474 0.2528 -0.39285 0.10001 0.27019 
<vblex><tv><indic><pres><sg3> 0.083322 0.036037 -0.011741 0.075525 0.036159 0.23594 -0.18995 -0.084915 -0.013041 -0.13269 0.12354 0.038907 -0.11582 -0.031068 -0.046897 -0.17621 -0.095491 0.030024 -0.16694 0.12531 -0.16766 0.074148 -0.068709 0.19714 -0.04966 -0.15609 0.20102 0.020341 0.11649 -0.14671 0.082892 -0.075269 -0.26869 0.18033 -0.093464 0.22486 0.077833 0.053887 0.12044 0.093949 0.32418 -0.074419 0.18854 0.11399 -0.10266 0.084184 0.10293 0.16452 0.096447 0.07087 0.0097932 0.1989 -0.16036 0.057643 0.0095358 -0.049465 -0.021699 -0.27934 0.030245 0.10147 0.081121 -0.14257 -0.11123 -0.1833 -0.053774 0.22325 0.22968 -0.043276 0.022222 -0.27441 -0.078941 0.053068 -0.050352 -0.16974 0.027093 -0.052364 0.073885 0.098802 0.12388 -0.21137 -0.15138 0.05599 0.06124 -0.19399 -0.054133 -0.077267 0.0074368 -0.24563 -0.066134 -0.21176 0.12189 0.071528 -0.002463 0.024393 0.05694 -0.13766 -0.074127 -0.066445 -0.093943 -0.027121 0.00094617 0.19583 -0.14999 0.13409 -0.1181 -0.22531 0.069857 -0.0051624 0.046085 -0.13283 0.14088 -0.0754 -0.32557 -0.043069 0.073515 0.0064136 -0.019275 0.13497 -0.05652 0.11371 0.16241 0.077988 0.055557 0.12809 -0.12355 -0.2291 0.08762 0.30088 -0.17928 -0.30298 0.18006 0.14667 -0.19618 0.023393 -0.0042354 0.067715 -0.27068 -0.095131 0.21221 -0.21998 0.036111 0.15082 0.25907 0.073178 -0.088888 -0.042497 0.058369 -0.0027402 -0.011617 0.023141 0.28373 0.1065 -0.079987 0.22817 0.13227 0.16937 0.13375 -0.024812 0.078183 -0.025193 0.15794 0.11196 -0.17946 -0.061057 -0.031172 -0.054808 0.1107 -0.0060969 -0.038252 -0.2161 0.1166 -0.11535 0.018231 0.050354 -0.28612 0.082557 0.003654 -0.17277 -0.082977 0.022725 -0.077697 -0.040566 -0.10709 0.21759 0.095311 -0.13885 0.10834 0.40517 0.16454 0.11008 -0.1983 -0.15062 -0.094565 -0.063823 0.23977 0.10171 0.017095 -0.053374 -0.011857 0.079765 -0.10132 -0.050149 0.33019 -0.072014 -0.091537 -0.091452 -0.37495 -0.14727 -0.11087 -0.060351 -0.19709 -0.072129 -0.11193 -0.12311 -0.21933 0.17146 -0.17782 0.19525 -0.17184 0.25764 -0.30248 0.092064 0.14571 -0.057292 0.043407 0.17135 -0.089545 -0.14099 -0.024961 -0.11678 -0.0080537 0.00761 0.15392 0.032037 0.11667 0.020012 -0.10303 0.22448 -0.17233 -0.15537 0.11279 -0.12505 0.0011097 0.040185 0.065462 -0.31685 0.22187 -0.14968 0.18386 0.1556 -0.19006 0.10329 -0.10782 0.20249 -0.2813 -0.02733 -0.2034 -0.034435 -0.1445 -0.15278 -0.0039196 -0.11101 -0.10456 -0.0063102 -0.20899 -0.024258 0.265 0.037132 0.068792 -0.16064 0.046229 0.18675 -0.020779 0.032639 -0.071328 -0.12545 -0.031392 -0.015794 -0.099676 0.12296 0.04544 0.0084414 -0.12064 0.13202 -0.15937 -0.05809 0.065831 -0.081767 -0.15362 0.18129 -0.013668 -0.10842 0.19787 -0.015158 0.079316 0.22616 0.23082 -0.35968 0.091589 0.24685 
<n><pl><gen> 0.087877 0.038511 -0.013346 0.080564 0.037656 0.2491 -0.20244 -0.091835 -0.014559 -0.14227 0.12919 0.042789 -0.12431 -0.033648 -0.050135 -0.18468 -0.10377 0.029733 -0.17799 0.13459 -0.17834 0.079432 -0.073978 0.2109 -0.05292 -0.16711 0.21497 0.022054 0.12528 -0.15655 0.089458 -0.07865 -0.28495 0.19194 -0.098739 0.23964 0.082349 0.057662 0.12823 0.098842 0.3438 -0.077891 0.20015 0.11922 -0.11048 0.089086 0.10546 0.17467 0.10202 0.077979 0.011204 0.21297 -0.16993 0.06107 0.0091749 -0.052904 -0.023087 -0.29849 0.033472 0.10586 0.085936 -0.15169 -0.1183 -0.19348 -0.056055 0.2376 0.24289 -0.044505 0.021077 -0.29114 -0.084165 0.054776 -0.053305 -0.18167 0.027971 -0.052722 0.077776 0.10588 0.13019 -0.22456 -0.16167 0.061086 0.064606 -0.20483 -0.058098 -0.083069 0.0074117 -0.26052 -0.069809 -0.22599 0.12919 0.077848 -0.0017835 0.024221 0.061277 -0.14558 -0.078615 -0.072224 -0.10022 -0.030522 0.0012194 0.20881 -0.16056 0.14276 -0.12409 -0.23734 0.074759 -0.0081652 0.047542 -0.13957 0.15057 -0.079828 -0.34654 -0.049572 0.077465 0.0047993 -0.019599 0.14307 -0.060713 0.12049 0.17295 0.086143 0.058374 0.1347 -0.1318 -0.24078 0.092485 0.32038 -0.18847 -0.3216 0.19015 0.15575 -0.20818 0.024328 -0.0064584 0.074052 -0.28986 -0.10037 0.22463 -0.23619 0.037965 0.15951 0.27395 0.078244 -0.094119 -0.04475 0.061396 -0.0021713 -0.011698 0.0243 0.30278 0.11516 -0.08447 0.24262 0.14019 0.17916 0.14174 -0.02387 0.08375 -0.02663 0.16935 0.11983 -0.19152 -0.065458 -0.031987 -0.057753 0.11824 -0.0065748 -0.040011 -0.23122 0.12164 -0.12198 0.021653 0.054163 -0.30504 0.088335 0.0032009 -0.18724 -0.086638 0.026234 -0.08075 -0.045773 -0.11512 0.23219 0.10148 -0.14763 0.11706 0.42827 0.17821 0.11623 -0.21203 -0.15957 -0.099551 -0.068533 0.25299 0.10723 0.017997 -0.055395 -0.012001 0.086403 -0.1074 -0.053 0.34836 -0.074718 -0.097711 -0.096431 -0.40044 -0.1581 -0.11565 -0.064928 -0.21039 -0.075814 -0.11814 -0.1306 -0.2323 0.18433 -0.19016 0.20715 -0.18207 0.27364 -0.32072 0.096451 0.1546 -0.061943 0.045641 0.18375 -0.095774 -0.1481 -0.026075 -0.12494 -0.0068859 0.0077819 0.16535 0.034351 0.12617 0.020959 -0.10831 0.23855 -0.18419 -0.16392 0.12029 -0.13213 0.001425 0.041466 0.068427 -0.33596 0.23474 -0.16056 0.19377 0.16443 -0.20222 0.11075 -0.1129 0.21668 -0.2993 -0.029783 -0.21672 -0.037241 -0.15445 -0.16425 -0.0046683 -0.11711 -0.11129 -0.0038655 -0.22124 -0.026572 0.28293 0.038118 0.073765 -0.17211 0.051519 0.19877 -0.022146 0.034908 -0.07815 -0.13495 -0.033292 -0.017009 -0.10452 0.12943 0.048298 0.0093798 -0.12752 0.14002 -0.16901 -0.062485 0.069264 -0.088323 -0.16391 0.19379 -0.012559 -0.11831 0.21098 -0.017554 0.084677 0.24159 0.24698 -0.38346 0.096754 0.26193 
<vblex><tv><indic><pret><sg3> 0.083497 0.036192 -0.011766 0.075789 0.036292 0.23684 -0.19098 -0.085358 -0.013196 -0.13324 0.12391 0.039178 -0.11653 -0.03119 -0.047173 -0.17673 -0.096043 0.030036 -0.16774 0.1259 -0.16837 0.074483 -0.069077 0.19798 -0.049867 -0.15683 0.20195 0.020435 0.11691 -0.14738 0.083293 -0.075578 -0.26976 0.1813 -0.09379 0.22578 0.078226 0.05415 0.12096 0.09412 0.32555 -0.074566 0.18931 0.11443 -0.10318 0.084465 0.10321 0.16522 0.096642 0.071537 0.010026 0.19982 -0.1611 0.057729 0.0094635 -0.049688 -0.021708 -0.28067 0.030378 0.1018 0.081627 -0.14334 -0.11164 -0.18425 -0.053972 0.22416 0.23058 -0.04344 0.021959 -0.27545 -0.079106 0.053227 -0.050472 -0.17052 0.027523 -0.05247 0.074134 0.099344 0.12414 -0.21233 -0.15208 0.056202 0.061686 -0.19483 -0.054572 -0.07797 0.0072491 -0.24667 -0.06651 -0.21262 0.12232 0.072007 -0.002248 0.024386 0.057325 -0.13854 -0.074349 -0.067004 -0.094309 -0.027309 0.00098059 0.19675 -0.15068 0.13449 -0.11835 -0.22595 0.070345 -0.005273 0.046098 -0.13323 0.14138 -0.075809 -0.32685 -0.043651 0.073836 0.0062001 -0.019345 0.13571 -0.056732 0.11393 0.16326 0.078472 0.055709 0.12864 -0.12404 -0.23008 0.088172 0.30211 -0.17971 -0.30426 0.18084 0.14728 -0.19697 0.023539 -0.0042541 0.068303 -0.27203 -0.095425 0.21307 -0.22142 0.036046 0.15156 0.25998 0.073759 -0.089259 -0.042846 0.058526 -0.0026801 -0.011467 0.023188 0.28516 0.10711 -0.080167 0.22907 0.13268 0.17003 0.13422 -0.024622 0.078709 -0.025204 0.15862 0.11252 -0.18046 -0.061444 -0.031324 -0.055077 0.11125 -0.0060988 -0.03819 -0.21726 0.117 -0.11573 0.018598 0.050671 -0.28746 0.082915 0.0037738 -0.17384 -0.083166 0.023096 -0.077976 -0.040945 -0.10773 0.21857 0.095739 -0.13955 0.10892 0.40666 0.16552 0.11044 -0.19908 -0.15121 -0.09499 -0.064079 0.24085 0.10202 0.017268 -0.053528 -0.011829 0.080245 -0.10174 -0.050335 0.33131 -0.072177 -0.091899 -0.091956 -0.3768 -0.14792 -0.11127 -0.060517 -0.19798 -0.072273 -0.11246 -0.12361 -0.22003 0.17225 -0.17863 0.19592 -0.17268 0.25876 -0.30363 0.09226 0.14637 -0.057481 0.043539 0.17228 -0.089812 -0.14173 -0.024939 -0.11718 -0.0078246 0.0076792 0.15473 0.032272 0.11729 0.020032 -0.10346 0.22553 -0.17329 -0.15613 0.11323 -0.12558 0.00096432 0.040196 0.065778 -0.31833 0.22276 -0.15031 0.18463 0.15623 -0.19081 0.10378 -0.10824 0.20348 -0.28245 -0.027661 -0.20437 -0.034606 -0.14517 -0.15341 -0.0039122 -0.11161 -0.10517 -0.0062089 -0.20984 -0.024459 0.2665 0.03699 0.069003 -0.16148 0.046537 0.1876 -0.020883 0.032854 -0.071702 -0.12611 -0.031394 -0.015915 -0.099976 0.12341 0.045656 0.0083771 -0.12104 0.13278 -0.15999 -0.058516 0.065904 -0.082065 -0.1544 0.18228 -0.013567 -0.10917 0.19902 -0.015351 0.079617 0.2272 0.23193 -0.36142 0.091928 0.24798 
<adj><sg><nom> 0.086058 0.03727 -0.011969 0.078613 0.036022 0.24274 -0.19674 -0.08838 -0.013795 -0.13754 0.12665 0.040964 -0.12117 -0.03295 -0.04808 -0.17963 -0.10023 0.029594 -0.17355 0.12993 -0.17357 0.077783 -0.071842 0.20459 -0.051741 -0.16235 0.20784 0.021604 0.12143 -0.15251 0.086203 -0.076326 -0.27733 0.18693 -0.096454 0.23253 0.080413 0.055438 0.12549 0.097015 0.33349 -0.076083 0.1942 0.11685 -0.10675 0.087047 0.10305 0.16941 0.099025 0.075346 0.011207 0.2064 -0.1653 0.059903 0.0084593 -0.051496 -0.021953 -0.29025 0.031164 0.10315 0.08369 -0.14672 -0.11408 -0.18782 -0.054933 0.23103 0.23551 -0.043166 0.020997 -0.28299 -0.08094 0.054209 -0.051932 -0.17661 0.027572 -0.051464 0.075989 0.10282 0.12705 -0.21778 -0.15674 0.058402 0.063032 -0.19931 -0.056064 -0.080147 0.0073346 -0.25337 -0.067955 -0.21934 0.12633 0.07501 -0.0016317 0.025313 0.059027 -0.14181 -0.076755 -0.069975 -0.096535 -0.029048 0.0004049 0.20224 -0.1559 0.1379 -0.11993 -0.23167 0.07269 -0.0074765 0.046094 -0.13635 0.1459 -0.07753 -0.33681 -0.047291 0.075289 0.0051507 -0.019732 0.13895 -0.05803 0.11713 0.16891 0.083192 0.057307 0.13081 -0.12714 -0.23422 0.090212 0.30979 -0.18348 -0.3124 0.18583 0.15097 -0.2024 0.023457 -0.0057609 0.07239 -0.28063 -0.097353 0.21901 -0.229 0.035897 0.15534 0.26632 0.076135 -0.091627 -0.043638 0.05945 -0.0024269 -0.011909 0.023959 0.29406 0.11201 -0.082353 0.23542 0.13551 0.17453 0.13822 -0.024284 0.080841 -0.02532 0.16494 0.11635 -0.18537 -0.063274 -0.031214 -0.056166 0.1149 -0.0067844 -0.038716 -0.22464 0.11875 -0.11859 0.020514 0.052678 -0.29649 0.085531 0.0033363 -0.18079 -0.08488 0.025318 -0.078253 -0.043716 -0.11173 0.22523 0.098345 -0.14301 0.11299 0.41637 0.17161 0.11326 -0.20564 -0.15486 -0.097242 -0.065932 0.24586 0.10504 0.018443 -0.0542 -0.011608 0.084165 -0.10424 -0.051345 0.33862 -0.072437 -0.095014 -0.093684 -0.38848 -0.15295 -0.11321 -0.062836 -0.20451 -0.074558 -0.11479 -0.12754 -0.22625 0.1783 -0.18429 0.20101 -0.17647 0.2665 -0.31186 0.094118 0.1503 -0.059521 0.044025 0.17802 -0.094212 -0.14437 -0.026156 -0.12079 -0.0067435 0.0079645 0.15933 0.033474 0.12175 0.020628 -0.10534 0.23158 -0.17826 -0.1598 0.11612 -0.12857 0.0013699 0.040622 0.066182 -0.32648 0.22894 -0.15495 0.18821 0.16019 -0.19661 0.10839 -0.10984 0.211 -0.28949 -0.028832 -0.20987 -0.036615 -0.14986 -0.15881 -0.0040669 -0.11448 -0.10789 -0.0045776 -0.21472 -0.025449 0.27466 0.037641 0.071977 -0.16671 0.050063 0.1922 -0.021822 0.033501 -0.075257 -0.1315 -0.032924 -0.016179 -0.10156 0.12627 0.046512 0.0092918 -0.12413 0.13612 -0.164 -0.061068 0.067074 -0.085005 -0.15979 0.18852 -0.012414 -0.11455 0.20498 -0.015307 0.081878 0.2341 0.23967 -0.37255 0.094446 0.25396 
<prn><pers><sg3><nom> 0.08325 0.035693 -0.011664 0.075815 0.035144 0.23432 -0.18995 -0.085768 -0.013306 -0.13285 0.12286 0.039915 -0.11686 -0.031088 -0.047207 -0.17449 -0.09679 0.028705 -0.16762 0.12559 -0.16796 0.075275 -0.069404 0.19807 -0.050077 -0.15665 0.2005 0.020698 0.11717 -0.14734 0.082906 -0.074152 -0.26884 0.18052 -0.093138 0.2253 0.076978 0.054113 0.12153 0.093944 0.32292 -0.073312 0.18796 0.11327 -0.10255 0.083482 0.10018 0.1647 0.095765 0.072299 0.01064 0.19936 -0.15982 0.057833 0.0080375 -0.049556 -0.021383 -0.28042 0.030237 0.099919 0.079733 -0.14183 -0.11064 -0.18172 -0.05284 0.22287 0.22799 -0.042698 0.020699 -0.27381 -0.078924 0.052279 -0.050342 -0.17097 0.026331 -0.050567 0.073314 0.099377 0.12282 -0.21065 -0.15164 0.056589 0.060906 -0.19234 -0.053657 -0.07745 0.0071364 -0.24495 -0.065471 -0.21145 0.12152 0.072243 -0.0016286 0.024494 0.057076 -0.13717 -0.074075 -0.067356 -0.093867 -0.028467 0.00079447 0.19512 -0.15081 0.13384 -0.11652 -0.22342 0.069783 -0.0066139 0.045418 -0.13218 0.14073 -0.075522 -0.32581 -0.044962 0.072617 0.005435 -0.019486 0.13495 -0.056351 0.11338 0.16325 0.079726 0.055476 0.1263 -0.12314 -0.2269 0.087225 0.30081 -0.17789 -0.30228 0.17978 0.14605 -0.19585 0.022574 -0.0052185 0.069244 -0.27097 -0.094709 0.2117 -0.22102 0.035307 0.15054 0.25781 0.073093 -0.088273 -0.042052 0.057438 -0.0025818 -0.011675 0.023013 0.28436 0.10838 -0.079718 0.22793 0.1311 0.16857 0.13401 -0.023825 0.078626 -0.02453 0.15919 0.11212 -0.17956 -0.061215 -0.029792 -0.054449 0.11115 -0.0065123 -0.03767 -0.21621 0.11517 -0.11484 0.019097 0.051235 -0.28645 0.082487 0.0027944 -0.17398 -0.082271 0.023843 -0.076475 -0.042579 -0.10823 0.21854 0.095194 -0.13852 0.11004 0.40294 0.16622 0.10935 -0.19907 -0.15024 -0.094058 -0.06315 0.23842 0.10128 0.017385 -0.052375 -0.0113 0.080391 -0.10115 -0.049581 0.32826 -0.070268 -0.092221 -0.090542 -0.37596 -0.14769 -0.10959 -0.060591 -0.19759 -0.072131 -0.11131 -0.12342 -0.21897 0.17179 -0.17755 0.19488 -0.17125 0.25831 -0.30192 0.090694 0.14577 -0.057772 0.042647 0.17201 -0.090593 -0.1398 -0.025053 -0.11656 -0.0072119 0.007795 0.15421 0.032346 0.11702 0.01984 -0.10214 0.22473 -0.17246 -0.15423 0.11279 -0.12468 0.0015029 0.039123 0.064793 -0.31571 0.22127 -0.15007 0.1821 0.1548 -0.19044 0.10429 -0.10609 0.20448 -0.28066 -0.027166 -0.20286 -0.034776 -0.1442 -0.15411 -0.003207 -0.11085 -0.10434 -0.0050551 -0.20769 -0.024513 0.26591 0.036197 0.069891 -0.16175 0.048197 0.18632 -0.020373 0.032563 -0.072578 -0.12682 -0.031584 -0.015652 -0.097794 0.1219 0.045751 0.0090609 -0.12037 0.13176 -0.15865 -0.058869 0.064868 -0.081901 -0.15413 0.18273 -0.012702 -0.11013 0.1979 -0.015194 0.079133 0.22623 0.23148 -0.3595 0.090901 0.24562 
<n><prop><sg><gen> 0.086252 0.036996 -0.012045 0.079262 0.036524 0.24335 -0.19842 -0.089149 -0.013877 -0.13797 0.12705 0.041169 -0.12278 -0.033046 -0.04844 -0.18126 -0.10179 0.029518 -0.17424 0.13101 -0.17447 0.078374 -0.072463 0.20561 -0.052185 -0.16345 0.20962 0.021539 0.12203 -0.15344 0.086667 -0.076624 -0.27853 0.18831 -0.09746 0.2342 0.080755 0.055975 0.12535 0.096967 0.33477 -0.076045 0.195 0.11728 -0.10826 0.086965 0.10284 0.17058 0.098697 0.076293 0.011404 0.20769 -0.1656 0.060057 0.0088644 -0.05208 -0.022008 -0.29157 0.031442 0.10387 0.084371 -0.14825 -0.11537 -0.18935 -0.054689 0.23195 0.23678 -0.043354 0.021461 -0.28456 -0.08194 0.054131 -0.051988 -0.17766 0.027824 -0.051932 0.075624 0.10317 0.12712 -0.21988 -0.15849 0.058592 0.063285 -0.20062 -0.056304 -0.080798 0.0075506 -0.25571 -0.06847 -0.22089 0.12675 0.07557 -0.0012997 0.02564 0.059436 -0.1428 -0.077413 -0.070488 -0.097485 -0.029821 0.00081105 0.20426 -0.15691 0.13923 -0.12028 -0.23228 0.073059 -0.0076439 0.045888 -0.13686 0.14686 -0.078357 -0.33896 -0.047588 0.075658 0.0045304 -0.019312 0.14101 -0.058305 0.1176 0.16966 0.084534 0.057776 0.13132 -0.12805 -0.23641 0.090521 0.3124 -0.18419 -0.31436 0.18628 0.15225 -0.20386 0.023913 -0.0064547 0.073102 -0.28244 -0.097657 0.22028 -0.2313 0.035676 0.15637 0.26845 0.077133 -0.091779 -0.0441 0.059588 -0.0026323 -0.011843 0.024008 0.29672 0.11241 -0.08284 0.23697 0.13665 0.17574 0.13872 -0.023327 0.081685 -0.025121 0.16659 0.11655 -0.18672 -0.063599 -0.031385 -0.056404 0.11559 -0.0068025 -0.03847 -0.22677 0.11942 -0.11931 0.021891 0.052767 -0.29899 0.085928 0.003293 -0.18274 -0.084876 0.026074 -0.077597 -0.044725 -0.11249 0.22728 0.098376 -0.14458 0.11375 0.41875 0.1734 0.114 -0.20706 -0.1561 -0.098136 -0.066335 0.24833 0.10513 0.01897 -0.054248 -0.010886 0.085137 -0.10476 -0.052066 0.34039 -0.072936 -0.095476 -0.094926 -0.39193 -0.1547 -0.11332 -0.063453 -0.20602 -0.075027 -0.11553 -0.12753 -0.22728 0.17994 -0.18567 0.20212 -0.1784 0.26757 -0.31395 0.094637 0.15192 -0.059962 0.044004 0.17959 -0.094843 -0.14493 -0.026245 -0.12239 -0.0058243 0.0074281 0.16096 0.033704 0.12287 0.02007 -0.10596 0.23298 -0.18011 -0.16066 0.11685 -0.12946 0.00098698 0.041008 0.066659 -0.32832 0.22935 -0.15618 0.18914 0.16152 -0.19812 0.10902 -0.11078 0.21298 -0.29203 -0.028812 -0.21142 -0.036852 -0.1513 -0.16 -0.003843 -0.11435 -0.10879 -0.0042437 -0.21653 -0.025257 0.2761 0.037539 0.072672 -0.16835 0.049666 0.19438 -0.022474 0.03408 -0.076523 -0.1321 -0.032618 -0.016292 -0.10177 0.12579 0.047033 0.0090298 -0.12498 0.13673 -0.16529 -0.06103 0.067614 -0.086449 -0.16083 0.18996 -0.011992 -0.11587 0.20618 -0.016172 0.082495 0.23609 0.24122 -0.37475 0.094318 0.25547 
<vblex><iv><indic><pret><p3><sg><pl> 0.086675 0.037824 -0.012013 0.078771 0.037654 0.24578 -0.19811 -0.088615 -0.01385 -0.13844 0.12788 0.040679 -0.12085 -0.032812 -0.048933 -0.18318 -0.099378 0.03132 -0.17407 0.13065 -0.17455 0.077109 -0.071912 0.20544 -0.051799 -0.16273 0.20996 0.021292 0.12209 -0.15294 0.086514 -0.078284 -0.27968 0.18765 -0.097121 0.23423 0.080776 0.056107 0.12596 0.097578 0.33804 -0.077266 0.19648 0.11843 -0.10757 0.087533 0.1066 0.17135 0.10039 0.074697 0.010294 0.20799 -0.16703 0.059994 0.010048 -0.051523 -0.022519 -0.2916 0.031582 0.10561 0.08427 -0.14872 -0.11588 -0.19091 -0.055951 0.2332 0.2393 -0.044811 0.022513 -0.28589 -0.082186 0.055343 -0.052093 -0.17701 0.028053 -0.054162 0.076999 0.10295 0.12891 -0.22025 -0.15774 0.058667 0.06369 -0.2022 -0.056766 -0.081013 0.0072883 -0.25558 -0.068902 -0.22028 0.12674 0.075038 -0.0023738 0.024986 0.059457 -0.14354 -0.077193 -0.069551 -0.09842 -0.028535 0.0011707 0.20452 -0.15616 0.13982 -0.123 -0.2342 0.073044 -0.0059067 0.048056 -0.13822 0.14656 -0.078412 -0.33926 -0.045949 0.076794 0.0062883 -0.0202 0.14073 -0.059084 0.1185 0.1694 0.081592 0.057689 0.13348 -0.12898 -0.23821 0.091618 0.31413 -0.18635 -0.31531 0.18772 0.15282 -0.20423 0.024355 -0.0048993 0.070844 -0.28269 -0.098868 0.22102 -0.22966 0.037759 0.15677 0.2697 0.076745 -0.092679 -0.043973 0.06082 -0.0020647 -0.011716 0.02413 0.29618 0.11121 -0.083084 0.23783 0.13799 0.17622 0.13897 -0.025131 0.081816 -0.026489 0.16474 0.11716 -0.18752 -0.064248 -0.032344 -0.057301 0.11567 -0.0061567 -0.03982 -0.22572 0.12112 -0.11992 0.019487 0.052919 -0.29792 0.085917 0.0039755 -0.18109 -0.085711 0.024024 -0.081129 -0.042916 -0.11173 0.22688 0.099581 -0.14434 0.11319 0.42199 0.17247 0.11467 -0.20693 -0.15681 -0.098145 -0.066451 0.24945 0.10567 0.017695 -0.055271 -0.012272 0.083497 -0.10552 -0.05213 0.34377 -0.074333 -0.095523 -0.095173 -0.39138 -0.15314 -0.11503 -0.063214 -0.20583 -0.074483 -0.11671 -0.12804 -0.22795 0.17943 -0.18545 0.20361 -0.17891 0.2684 -0.31466 0.095673 0.15171 -0.060263 0.045378 0.17874 -0.092868 -0.14663 -0.025351 -0.12149 -0.007987 0.007866 0.16093 0.033405 0.12174 0.020989 -0.10706 0.23427 -0.17987 -0.16178 0.11745 -0.13003 0.001261 0.041764 0.068225 -0.3304 0.23105 -0.15619 0.19125 0.162 -0.19779 0.1075 -0.11199 0.21094 -0.29339 -0.029184 -0.21226 -0.036081 -0.15057 -0.15931 -0.0041723 -0.11545 -0.10929 -0.0059981 -0.21786 -0.026067 0.27666 0.038233 0.071308 -0.1673 0.048933 0.19423 -0.021575 0.034257 -0.074296 -0.13109 -0.032873 -0.016396 -0.10385 0.12798 0.047243 0.0087988 -0.12567 0.13756 -0.1663 -0.060445 0.068493 -0.085519 -0.16007 0.18907 -0.013841 -0.11332 0.20688 -0.016565 0.08238 0.23602 0.24087 -0.37465 0.0952 0.25678 
<vblex><iv><neg><indic><sg3> 0.083896 0.035851 -0.011678 0.075464 0.03588 0.23633 -0.1903 -0.085183 -0.013124 -0.13265 0.12324 0.039037 -0.11618 -0.031457 -0.047078 -0.17627 -0.095451 0.03017 -0.16751 0.12515 -0.16787 0.07413 -0.069358 0.19795 -0.050438 -0.15636 0.20064 0.020568 0.11691 -0.14717 0.082931 -0.075522 -0.26942 0.18089 -0.093346 0.22518 0.07798 0.054207 0.12124 0.094302 0.32489 -0.074609 0.18855 0.11405 -0.10275 0.084467 0.10294 0.16457 0.096633 0.07128 0.0099617 0.19908 -0.16042 0.058042 0.0093034 -0.049645 -0.021412 -0.28029 0.029994 0.10118 0.08111 -0.14264 -0.11096 -0.18318 -0.05389 0.22398 0.22992 -0.043394 0.022007 -0.27479 -0.079288 0.053591 -0.050089 -0.17071 0.027149 -0.05203 0.073898 0.098758 0.12438 -0.21132 -0.15169 0.056184 0.060886 -0.19421 -0.054375 -0.077309 0.0071721 -0.24592 -0.06618 -0.21157 0.12211 0.071703 -0.0024799 0.024656 0.056961 -0.13812 -0.074188 -0.066751 -0.094011 -0.027379 0.00065626 0.19637 -0.15008 0.13415 -0.11837 -0.22561 0.070237 -0.0053346 0.046429 -0.13276 0.14092 -0.075253 -0.32596 -0.043614 0.073742 0.0063577 -0.019606 0.1352 -0.056787 0.11399 0.16317 0.078405 0.055535 0.12814 -0.12359 -0.2289 0.087849 0.30168 -0.17914 -0.30326 0.18032 0.14686 -0.19634 0.023157 -0.0038508 0.067787 -0.27148 -0.095202 0.21248 -0.22036 0.036221 0.15117 0.259 0.073604 -0.089167 -0.041756 0.058214 -0.0023468 -0.01152 0.023404 0.28379 0.107 -0.080259 0.22877 0.13253 0.16917 0.13415 -0.024631 0.078342 -0.02514 0.1584 0.11263 -0.18009 -0.061446 -0.030955 -0.055181 0.11127 -0.0062827 -0.038542 -0.21639 0.11654 -0.11563 0.018481 0.050944 -0.28616 0.082302 0.0031884 -0.17329 -0.082927 0.022972 -0.078127 -0.040651 -0.1076 0.21792 0.095399 -0.13898 0.10888 0.4056 0.16476 0.11016 -0.19847 -0.15068 -0.094575 -0.063619 0.23958 0.10182 0.017395 -0.05309 -0.011327 0.080165 -0.10166 -0.050221 0.33034 -0.071229 -0.091577 -0.091231 -0.37567 -0.14711 -0.11059 -0.060376 -0.19731 -0.072095 -0.11193 -0.12367 -0.21954 0.17183 -0.17842 0.19579 -0.17194 0.25841 -0.30307 0.091983 0.14593 -0.058014 0.043423 0.17209 -0.089653 -0.14105 -0.024666 -0.11658 -0.0081462 0.0079748 0.15432 0.032372 0.11695 0.019975 -0.10305 0.22527 -0.17253 -0.15535 0.1127 -0.12535 0.0015402 0.03981 0.065494 -0.3171 0.22217 -0.14981 0.18366 0.1559 -0.19054 0.1036 -0.10774 0.20312 -0.2818 -0.027687 -0.20376 -0.034649 -0.1445 -0.15337 -0.0038045 -0.11135 -0.10488 -0.0064661 -0.20885 -0.024534 0.26556 0.037002 0.068695 -0.16079 0.046714 0.18665 -0.020554 0.032833 -0.071361 -0.12562 -0.031334 -0.015993 -0.09989 0.12323 0.045367 0.0085823 -0.12098 0.13197 -0.15953 -0.058422 0.065544 -0.081988 -0.15382 0.1813 -0.013275 -0.10841 0.19861 -0.015443 0.078952 0.22659 0.23166 -0.35974 0.091367 0.24705 
<vblex><tv><prfprc> 0.088453 0.03811 -0.01256 0.080612 0.037948 0.25046 -0.20188 -0.090665 -0.013949 -0.14115 0.13097 0.041105 -0.12306 -0.033175 -0.049731 -0.18705 -0.10163 0.031947 -0.17764 0.13317 -0.17789 0.078886 -0.073253 0.20959 -0.053088 -0.16617 0.2134 0.0215 0.12389 -0.15567 0.088057 -0.079953 -0.28549 0.1918 -0.099071 0.23905 0.082552 0.057535 0.12822 0.099777 0.34435 -0.078897 0.20008 0.1209 -0.10938 0.089271 0.10869 0.17477 0.10214 0.075532 0.010762 0.21148 -0.17007 0.061285 0.0098836 -0.052858 -0.022682 -0.2972 0.032064 0.10751 0.086051 -0.15139 -0.11789 -0.19485 -0.056839 0.23729 0.24361 -0.045827 0.023003 -0.29152 -0.083859 0.056065 -0.053494 -0.18001 0.028714 -0.055265 0.078321 0.10529 0.13145 -0.22431 -0.1614 0.059669 0.064899 -0.20561 -0.057327 -0.082005 0.0078635 -0.26088 -0.069936 -0.22481 0.12967 0.076102 -0.0023708 0.026107 0.060425 -0.14642 -0.079057 -0.071382 -0.099439 -0.029052 0.0010092 0.20783 -0.15965 0.14214 -0.12503 -0.2391 0.074339 -0.0059021 0.04879 -0.14089 0.14968 -0.080036 -0.3459 -0.046313 0.078257 0.0068036 -0.020371 0.14321 -0.059989 0.1208 0.17276 0.083186 0.059328 0.13587 -0.13103 -0.24289 0.093241 0.31976 -0.19002 -0.32139 0.19105 0.15566 -0.20842 0.024715 -0.0045122 0.072191 -0.28778 -0.10074 0.22556 -0.23377 0.038345 0.16047 0.2748 0.077919 -0.094444 -0.045096 0.061563 -0.002537 -0.012302 0.024576 0.30187 0.11363 -0.084588 0.24233 0.1402 0.17968 0.14217 -0.025832 0.083384 -0.026669 0.16817 0.11946 -0.19069 -0.064899 -0.033174 -0.058187 0.11793 -0.0064267 -0.040256 -0.22975 0.12356 -0.12241 0.019726 0.053788 -0.30422 0.087617 0.003864 -0.18397 -0.088017 0.024596 -0.082405 -0.043753 -0.11397 0.23128 0.10123 -0.14742 0.11564 0.42989 0.17514 0.1168 -0.21098 -0.16 -0.10047 -0.06763 0.25436 0.10802 0.018213 -0.056589 -0.01209 0.084885 -0.10777 -0.052874 0.35052 -0.075951 -0.097483 -0.097235 -0.39869 -0.1564 -0.11742 -0.064157 -0.20948 -0.076554 -0.11915 -0.1313 -0.23287 0.18227 -0.18895 0.2076 -0.18262 0.27388 -0.32139 0.097255 0.15474 -0.060878 0.045501 0.1827 -0.095309 -0.14943 -0.026463 -0.12406 -0.0084558 0.0085337 0.164 0.03384 0.1241 0.021263 -0.1086 0.23839 -0.18343 -0.16511 0.11947 -0.13306 0.0016013 0.042245 0.069338 -0.33637 0.23546 -0.15905 0.19534 0.16487 -0.20201 0.10988 -0.11389 0.2157 -0.29893 -0.029048 -0.21637 -0.036833 -0.15368 -0.16236 -0.0038314 -0.11792 -0.11121 -0.0062651 -0.22159 -0.026014 0.28181 0.038972 0.07329 -0.17076 0.049119 0.19816 -0.021911 0.034603 -0.075979 -0.13338 -0.032811 -0.016677 -0.10536 0.13031 0.04809 0.0091449 -0.12785 0.14004 -0.16941 -0.061987 0.069732 -0.086989 -0.16326 0.19266 -0.01431 -0.11561 0.21026 -0.015875 0.084129 0.24056 0.24568 -0.38229 0.096957 0.26205 
<pcle> 0.077629 0.032516 -0.011576 0.069775 0.032405 0.21695 -0.17529 -0.078478 -0.012008 -0.12222 0.11336 0.036838 -0.10771 -0.029405 -0.0434 -0.16091 -0.089121 0.027021 -0.15495 0.11566 -0.15471 0.068406 -0.063914 0.18306 -0.045887 -0.14422 0.18479 0.019156 0.10737 -0.13576 0.076129 -0.068507 -0.24773 0.16625 -0.085478 0.20711 0.071138 0.050077 0.11168 0.085679 0.29809 -0.068098 0.17369 0.10445 -0.094678 0.076898 0.093005 0.15144 0.088156 0.065879 0.010045 0.1829 -0.14708 0.053205 0.0083089 -0.045977 -0.019199 -0.25869 0.028146 0.092666 0.073982 -0.13032 -0.10219 -0.16825 -0.048989 0.20513 0.21089 -0.038993 0.019088 -0.25221 -0.072703 0.048664 -0.046618 -0.1578 0.025079 -0.046894 0.067479 0.090791 0.11346 -0.19419 -0.13868 0.051824 0.056338 -0.17748 -0.049834 -0.071503 0.0062107 -0.22599 -0.060097 -0.19537 0.11236 0.066681 -0.0022128 0.022576 0.052699 -0.12607 -0.068914 -0.062451 -0.087492 -0.026048 0.00092166 0.17982 -0.13921 0.12293 -0.10755 -0.20617 0.064494 -0.0064091 0.042517 -0.12161 0.12988 -0.069289 -0.30051 -0.041314 0.067292 0.0048649 -0.01903 0.12349 -0.05225 0.10497 0.15066 0.074057 0.050638 0.11636 -0.11426 -0.20886 0.080835 0.27752 -0.16442 -0.2786 0.16591 0.13532 -0.18028 0.020801 -0.0046784 0.064076 -0.25021 -0.086989 0.19452 -0.20319 0.033457 0.13971 0.23784 0.067879 -0.081707 -0.038681 0.052831 -0.0027042 -0.010683 0.020748 0.26177 0.10006 -0.073214 0.21047 0.12103 0.15588 0.12344 -0.021944 0.072158 -0.022318 0.14707 0.10421 -0.16543 -0.056709 -0.027696 -0.050569 0.10253 -0.0058984 -0.034809 -0.20076 0.10681 -0.10666 0.018318 0.047615 -0.26312 0.075714 0.0033066 -0.16025 -0.075988 0.022095 -0.070826 -0.038842 -0.10004 0.2018 0.088085 -0.12746 0.10135 0.37281 0.15232 0.10158 -0.18258 -0.1381 -0.087108 -0.05858 0.21997 0.093139 0.016182 -0.04876 -0.0099572 0.073582 -0.093215 -0.045532 0.30387 -0.06497 -0.085347 -0.084011 -0.34669 -0.13666 -0.10008 -0.055702 -0.18153 -0.065906 -0.10345 -0.11299 -0.20138 0.15894 -0.16393 0.17994 -0.15788 0.23767 -0.278 0.084053 0.13442 -0.054079 0.040288 0.15869 -0.082812 -0.12895 -0.022238 -0.10759 -0.0068544 0.0066434 0.14232 0.030742 0.10733 0.019263 -0.094814 0.20697 -0.15908 -0.14245 0.10399 -0.11511 0.0014737 0.035907 0.060173 -0.2913 0.20456 -0.13847 0.16777 0.14246 -0.1751 0.095768 -0.097903 0.18778 -0.25961 -0.025031 -0.18801 -0.031707 -0.1337 -0.14218 -0.0027465 -0.10249 -0.096698 -0.0059434 -0.1909 -0.02258 0.24505 0.033294 0.063596 -0.14897 0.044127 0.1718 -0.01911 0.030434 -0.066937 -0.1159 -0.028654 -0.014535 -0.091167 0.11236 0.042562 0.0076722 -0.11131 0.12251 -0.14536 -0.054527 0.060005 -0.075562 -0.14165 0.16785 -0.012173 -0.10156 0.1822 -0.014132 0.0728 0.20793 0.2131 -0.33093 0.084037 0.22656 
<prn><ind><attr> 0.088585 0.038486 -0.01264 0.08089 0.037603 0.24962 -0.20244 -0.090841 -0.01437 -0.14172 0.12999 0.042184 -0.12382 -0.0336 -0.049976 -0.18502 -0.10358 0.030645 -0.17796 0.13397 -0.17895 0.079726 -0.073623 0.21085 -0.052728 -0.16698 0.21417 0.021767 0.12501 -0.15653 0.088724 -0.078975 -0.28571 0.1921 -0.098854 0.23956 0.082105 0.057815 0.12879 0.09942 0.34385 -0.077734 0.20063 0.11965 -0.10969 0.089075 0.10626 0.17475 0.10175 0.077386 0.011214 0.21245 -0.16966 0.061189 0.009284 -0.052877 -0.023013 -0.29846 0.032856 0.10679 0.085799 -0.15158 -0.1178 -0.19359 -0.056173 0.23739 0.2427 -0.045013 0.021873 -0.29191 -0.083967 0.055654 -0.053326 -0.18176 0.028382 -0.053228 0.078353 0.10518 0.13043 -0.22465 -0.16137 0.060214 0.065366 -0.20504 -0.057476 -0.082478 0.0072898 -0.26043 -0.069949 -0.22545 0.12959 0.077349 -0.0018405 0.025289 0.061117 -0.14641 -0.078544 -0.07212 -0.099999 -0.030232 0.0013121 0.20847 -0.16032 0.14241 -0.1238 -0.2377 0.074537 -0.0078243 0.047842 -0.1399 0.15001 -0.07963 -0.3465 -0.048707 0.077175 0.0050394 -0.02037 0.14292 -0.060501 0.12103 0.1734 0.085334 0.058457 0.13457 -0.13162 -0.24152 0.092891 0.32074 -0.1891 -0.3217 0.191 0.15561 -0.20849 0.024604 -0.0057925 0.073773 -0.28939 -0.1005 0.22456 -0.23545 0.038315 0.15988 0.27441 0.078117 -0.094478 -0.045063 0.061328 -0.0022686 -0.011926 0.024627 0.30238 0.1152 -0.084998 0.24263 0.13986 0.17916 0.14187 -0.024946 0.084086 -0.026369 0.16933 0.11935 -0.19129 -0.065243 -0.032111 -0.05782 0.11824 -0.0067401 -0.039946 -0.23062 0.12175 -0.12234 0.021376 0.053875 -0.3046 0.08778 0.0032365 -0.18649 -0.086872 0.025932 -0.081328 -0.045238 -0.11492 0.23212 0.10187 -0.14695 0.11712 0.4291 0.17737 0.11626 -0.21173 -0.15979 -0.099998 -0.068124 0.25375 0.10762 0.01817 -0.0558 -0.011745 0.086228 -0.10739 -0.053208 0.34917 -0.074701 -0.0979 -0.096577 -0.39982 -0.15754 -0.11586 -0.064438 -0.21013 -0.076144 -0.11877 -0.13099 -0.23273 0.18408 -0.1894 0.20775 -0.18183 0.27413 -0.32113 0.096484 0.15497 -0.0618 0.045025 0.1834 -0.096012 -0.14795 -0.026159 -0.1242 -0.0069366 0.0076809 0.16473 0.03504 0.12502 0.021149 -0.10893 0.23871 -0.18392 -0.16427 0.11968 -0.13292 0.0014897 0.041219 0.069153 -0.33554 0.23554 -0.16011 0.19379 0.16453 -0.20212 0.11094 -0.11308 0.21713 -0.29917 -0.029571 -0.21624 -0.037384 -0.15375 -0.16389 -0.0042479 -0.11754 -0.11121 -0.0050969 -0.22111 -0.026366 0.2832 0.038485 0.073587 -0.17111 0.050969 0.19884 -0.02183 0.03503 -0.077545 -0.13491 -0.033243 -0.016938 -0.105 0.12936 0.048466 0.0093219 -0.12829 0.14032 -0.16916 -0.062628 0.068826 -0.088029 -0.164 0.19332 -0.012989 -0.11812 0.21059 -0.016804 0.084502 0.24101 0.24593 -0.38226 0.09676 0.26152 
<prn><dem><sg><nom> 0.084638 0.036507 -0.011648 0.077083 0.03547 0.23836 -0.193 -0.087003 -0.013573 -0.13529 0.12421 0.040322 -0.11877 -0.032125 -0.047617 -0.17678 -0.098322 0.028922 -0.17063 0.12783 -0.1708 0.076428 -0.070782 0.20103 -0.05079 -0.15988 0.20405 0.021233 0.11944 -0.14972 0.084893 -0.074969 -0.27272 0.1835 -0.094653 0.2286 0.078549 0.055074 0.12313 0.095159 0.32792 -0.07439 0.19129 0.11459 -0.1047 0.085296 0.10097 0.16667 0.096788 0.073849 0.010914 0.20301 -0.16197 0.05877 0.0083992 -0.050695 -0.021917 -0.28519 0.030977 0.10118 0.081756 -0.14446 -0.11217 -0.18452 -0.053742 0.22661 0.23167 -0.042668 0.020831 -0.27845 -0.079819 0.053039 -0.051072 -0.17352 0.027097 -0.050495 0.07481 0.10108 0.12487 -0.21394 -0.15394 0.05739 0.062212 -0.19572 -0.05487 -0.078883 0.0069917 -0.24901 -0.066789 -0.21542 0.124 0.073925 -0.0017231 0.024469 0.058098 -0.13944 -0.075164 -0.068732 -0.095239 -0.028932 0.00064335 0.19846 -0.15305 0.13579 -0.11807 -0.22737 0.071362 -0.0078148 0.045612 -0.13365 0.14289 -0.076205 -0.33089 -0.046635 0.073858 0.0050664 -0.019231 0.13653 -0.05724 0.11537 0.16605 0.081349 0.056236 0.12844 -0.12506 -0.22996 0.088676 0.30511 -0.18013 -0.3067 0.18229 0.14877 -0.19902 0.023237 -0.0054898 0.070761 -0.27597 -0.095964 0.21516 -0.22502 0.035706 0.15286 0.26169 0.074759 -0.089821 -0.042894 0.058435 -0.0023415 -0.011343 0.023417 0.28934 0.11001 -0.08091 0.23143 0.13328 0.17144 0.13559 -0.024032 0.079554 -0.024929 0.16194 0.11423 -0.18223 -0.062273 -0.030508 -0.055263 0.11286 -0.0064485 -0.0381 -0.22049 0.11675 -0.1168 0.020143 0.051905 -0.29101 0.083796 0.003068 -0.17781 -0.083468 0.024984 -0.07737 -0.043146 -0.10995 0.22149 0.096728 -0.14029 0.1114 0.40902 0.16936 0.11144 -0.20201 -0.1526 -0.095601 -0.065 0.24187 0.10296 0.018029 -0.053089 -0.011304 0.082672 -0.10228 -0.050314 0.33296 -0.071094 -0.093738 -0.092448 -0.38202 -0.15038 -0.11117 -0.061936 -0.20106 -0.072941 -0.11261 -0.12517 -0.22203 0.17514 -0.18065 0.19763 -0.17367 0.26212 -0.30649 0.092192 0.14758 -0.05871 0.043081 0.17498 -0.092532 -0.14168 -0.025266 -0.11859 -0.0065361 0.0076548 0.15671 0.033099 0.1194 0.020353 -0.10333 0.22782 -0.17548 -0.15677 0.11439 -0.1264 0.0015089 0.039589 0.065468 -0.32067 0.22475 -0.15251 0.18509 0.15729 -0.19308 0.10633 -0.10772 0.20736 -0.28466 -0.028075 -0.20632 -0.035606 -0.14665 -0.1564 -0.003566 -0.1125 -0.10615 -0.00453 -0.21103 -0.024951 0.27011 0.036825 0.070582 -0.16384 0.049017 0.1892 -0.020929 0.033092 -0.074044 -0.12907 -0.031962 -0.015986 -0.099658 0.12378 0.046345 0.009227 -0.12197 0.13365 -0.16154 -0.060145 0.065546 -0.083649 -0.15677 0.18546 -0.012466 -0.11267 0.20125 -0.015798 0.080883 0.22988 0.23536 -0.36549 0.092399 0.24941 
<vblex><iv><indic><pres><conneg> 0.083631 0.036025 -0.011528 0.075546 0.036104 0.23595 -0.18974 -0.084873 -0.013007 -0.1328 0.123 0.038738 -0.11569 -0.031174 -0.047133 -0.17618 -0.094903 0.030462 -0.16724 0.12494 -0.16748 0.073909 -0.068812 0.19693 -0.049856 -0.15594 0.20062 0.020249 0.11672 -0.14688 0.082889 -0.075477 -0.26868 0.18006 -0.093098 0.22492 0.077676 0.05383 0.12102 0.094173 0.3244 -0.07452 0.18865 0.11403 -0.10273 0.084224 0.10312 0.16451 0.096453 0.070915 0.0097651 0.1988 -0.16031 0.057642 0.010014 -0.049282 -0.021473 -0.27964 0.029974 0.10152 0.080743 -0.14262 -0.11102 -0.1831 -0.053812 0.22366 0.22991 -0.043523 0.022223 -0.27439 -0.078982 0.05326 -0.050178 -0.16978 0.027141 -0.052524 0.073968 0.098727 0.12406 -0.21117 -0.15148 0.056027 0.061155 -0.19409 -0.054384 -0.077213 0.0071112 -0.24562 -0.066115 -0.21115 0.1219 0.071437 -0.0027572 0.024457 0.056944 -0.1378 -0.074275 -0.066211 -0.094159 -0.027022 0.00094564 0.19587 -0.14968 0.13422 -0.11845 -0.22525 0.070005 -0.0049699 0.046483 -0.13294 0.14086 -0.075241 -0.32538 -0.042903 0.073783 0.0065392 -0.019688 0.13472 -0.056579 0.11387 0.16234 0.077912 0.055651 0.12832 -0.12354 -0.22889 0.087647 0.30108 -0.17943 -0.30281 0.18023 0.14662 -0.19605 0.023478 -0.0042787 0.06762 -0.2709 -0.095013 0.21228 -0.21969 0.036301 0.15076 0.25903 0.073359 -0.089081 -0.041985 0.058446 -0.0023739 -0.011692 0.023121 0.28345 0.10629 -0.080235 0.22821 0.13251 0.16923 0.13352 -0.025087 0.078273 -0.025225 0.15793 0.11229 -0.17959 -0.061488 -0.030864 -0.055252 0.11084 -0.0059671 -0.038441 -0.21597 0.11664 -0.11533 0.018037 0.050573 -0.28553 0.082239 0.0035932 -0.1727 -0.082544 0.022542 -0.078162 -0.04067 -0.10696 0.21745 0.095446 -0.13835 0.10811 0.40537 0.16443 0.10995 -0.19823 -0.15071 -0.094584 -0.063856 0.23948 0.10188 0.017231 -0.053107 -0.011701 0.079687 -0.10142 -0.050108 0.33022 -0.071604 -0.091738 -0.091373 -0.37503 -0.14697 -0.11055 -0.06027 -0.19705 -0.071725 -0.11231 -0.12279 -0.21913 0.17133 -0.17791 0.19557 -0.17142 0.25784 -0.30224 0.092156 0.14572 -0.057832 0.043579 0.17135 -0.08939 -0.14093 -0.024629 -0.11642 -0.0083405 0.0077305 0.15387 0.031983 0.11635 0.020135 -0.1029 0.22469 -0.17225 -0.1553 0.11276 -0.1248 0.0013234 0.040054 0.065346 -0.31683 0.22179 -0.1496 0.18367 0.15564 -0.18988 0.10311 -0.10763 0.20234 -0.28137 -0.027703 -0.20341 -0.034516 -0.14411 -0.15261 -0.0037982 -0.11104 -0.10465 -0.0063392 -0.20884 -0.024347 0.26497 0.037165 0.068295 -0.16036 0.04651 0.18619 -0.020674 0.032736 -0.070996 -0.1251 -0.031405 -0.015754 -0.099835 0.12329 0.045113 0.0085377 -0.12066 0.13204 -0.15953 -0.057993 0.065731 -0.081732 -0.15331 0.18091 -0.013799 -0.10813 0.19803 -0.015329 0.079148 0.22607 0.23082 -0.35934 0.091534 0.2468 
<n><pl><loc> 0.092968 0.040747 -0.0129 0.0853 0.039577 0.2636 -0.21363 -0.096446 -0.015318 -0.15011 0.13616 0.045405 -0.13072 -0.035626 -0.052856 -0.19477 -0.10914 0.031856 -0.18828 0.14202 -0.18867 0.084164 -0.078042 0.2227 -0.05558 -0.17621 0.22641 0.023823 0.13208 -0.16554 0.09419 -0.082821 -0.30136 0.20257 -0.10422 0.25292 0.08697 0.06088 0.13561 0.10441 0.36325 -0.081618 0.2119 0.12664 -0.11632 0.094076 0.11152 0.18443 0.10761 0.081641 0.011451 0.22444 -0.17926 0.064543 0.0097016 -0.055898 -0.024111 -0.31528 0.0352 0.11209 0.090051 -0.16 -0.12476 -0.20455 -0.059276 0.2508 0.25642 -0.047201 0.022193 -0.30781 -0.088554 0.058044 -0.055876 -0.19212 0.029856 -0.056081 0.082418 0.11195 0.13806 -0.23638 -0.17039 0.064476 0.068282 -0.21647 -0.061362 -0.087506 0.007325 -0.27454 -0.073584 -0.2387 0.13679 0.082389 -0.0017144 0.02552 0.064537 -0.15379 -0.082997 -0.07596 -0.10594 -0.032213 0.0010936 0.22019 -0.1692 0.15074 -0.1312 -0.25107 0.079103 -0.0084067 0.050823 -0.14726 0.15827 -0.083273 -0.3658 -0.052557 0.081815 0.0052509 -0.021235 0.15067 -0.063844 0.12749 0.18336 0.090524 0.06131 0.14191 -0.1395 -0.25401 0.097922 0.33908 -0.19862 -0.33932 0.20146 0.16462 -0.21992 0.025629 -0.0064056 0.078198 -0.30594 -0.10592 0.23677 -0.24931 0.040113 0.16815 0.28961 0.082846 -0.099313 -0.0469 0.064815 -0.0024952 -0.011799 0.025858 0.31998 0.12202 -0.089296 0.25631 0.1476 0.18893 0.14966 -0.025889 0.088431 -0.027801 0.17875 0.12669 -0.20216 -0.069268 -0.033741 -0.060979 0.12466 -0.0070495 -0.042093 -0.24455 0.12859 -0.12863 0.022893 0.057605 -0.32205 0.09332 0.0037981 -0.19799 -0.091781 0.027521 -0.085142 -0.048118 -0.12198 0.24539 0.10778 -0.15515 0.12369 0.45275 0.18793 0.12249 -0.2238 -0.16868 -0.10524 -0.072102 0.2674 0.11333 0.018625 -0.058797 -0.012679 0.090973 -0.11358 -0.056344 0.36861 -0.078212 -0.10381 -0.10225 -0.4226 -0.16672 -0.12213 -0.068654 -0.22215 -0.079803 -0.12502 -0.13768 -0.24508 0.19441 -0.2004 0.2189 -0.19223 0.28914 -0.3381 0.1018 0.16281 -0.065829 0.047726 0.19442 -0.10088 -0.15667 -0.027306 -0.13148 -0.0070918 0.0084807 0.17431 0.036692 0.13236 0.02255 -0.11455 0.25217 -0.19455 -0.17317 0.12673 -0.13979 0.0012999 0.043807 0.07241 -0.35401 0.24829 -0.16909 0.20493 0.17354 -0.21317 0.1168 -0.11934 0.22845 -0.31593 -0.03158 -0.22915 -0.039625 -0.16268 -0.17312 -0.0045787 -0.12356 -0.11773 -0.0043364 -0.23337 -0.028562 0.29897 0.040362 0.077703 -0.18123 0.054614 0.20949 -0.022821 0.037263 -0.081879 -0.14238 -0.035291 -0.018164 -0.11087 0.13669 0.050712 0.0098177 -0.1347 0.1484 -0.17849 -0.066388 0.073155 -0.093122 -0.173 0.20432 -0.01366 -0.12449 0.22311 -0.018346 0.089444 0.25487 0.26087 -0.40457 0.10238 0.27617 
<prn><pers><p1><sg><nom> 0.079967 0.03427 -0.010758 0.073087 0.034021 0.22602 -0.18313 -0.082656 -0.012854 -0.12819 0.11851 0.038141 -0.11264 -0.02998 -0.045461 -0.16824 -0.093203 0.027929 -0.16179 0.12069 -0.16172 0.072248 -0.067094 0.19039 -0.048201 -0.15115 0.19301 0.019894 0.11295 -0.1417 0.079836 -0.071768 -0.25909 0.17381 -0.089843 0.21678 0.074257 0.052183 0.11725 0.090915 0.31127 -0.071153 0.18123 0.10952 -0.098787 0.080529 0.097145 0.15903 0.092548 0.069357 0.010294 0.19206 -0.15446 0.05607 0.0078105 -0.0479 -0.020539 -0.27018 0.029066 0.096699 0.076942 -0.13655 -0.10669 -0.17526 -0.051162 0.21493 0.22007 -0.041484 0.020048 -0.26417 -0.076215 0.050232 -0.048453 -0.16448 0.025395 -0.049181 0.070841 0.095781 0.11871 -0.20309 -0.14621 0.054492 0.058914 -0.18554 -0.051282 -0.074529 0.0071455 -0.23613 -0.063487 -0.20371 0.11726 0.069493 -0.0017404 0.023768 0.054938 -0.13235 -0.071465 -0.064652 -0.090293 -0.027163 0.00094578 0.18795 -0.14486 0.12904 -0.11233 -0.21575 0.067095 -0.0060413 0.044223 -0.12776 0.13545 -0.072684 -0.31416 -0.042689 0.070499 0.0057456 -0.018796 0.12988 -0.054266 0.1091 0.15716 0.076514 0.053621 0.12174 -0.11847 -0.21904 0.084019 0.2895 -0.17145 -0.29115 0.17341 0.14075 -0.18869 0.021807 -0.0048472 0.066468 -0.26134 -0.091452 0.20445 -0.21261 0.03431 0.14524 0.24852 0.070432 -0.085043 -0.040723 0.055469 -0.0022128 -0.011589 0.022158 0.27416 0.10447 -0.076991 0.21942 0.12668 0.16268 0.1292 -0.023668 0.075626 -0.024003 0.15353 0.10843 -0.17303 -0.058955 -0.028618 -0.052438 0.10689 -0.0060942 -0.036568 -0.20783 0.11116 -0.11092 0.017884 0.049271 -0.27581 0.079538 0.0029488 -0.16717 -0.07962 0.022731 -0.074257 -0.040626 -0.10397 0.21041 0.091235 -0.13362 0.10569 0.38827 0.15966 0.1059 -0.19231 -0.1447 -0.090461 -0.060983 0.22952 0.097723 0.01683 -0.050574 -0.011088 0.077184 -0.097451 -0.047478 0.3171 -0.067897 -0.089183 -0.087583 -0.36221 -0.14208 -0.10604 -0.058284 -0.19049 -0.069507 -0.10779 -0.11921 -0.21098 0.16498 -0.17069 0.18798 -0.16533 0.24928 -0.29096 0.087547 0.14045 -0.055571 0.041375 0.16549 -0.087497 -0.13523 -0.024354 -0.11186 -0.0073207 0.0074804 0.14829 0.03102 0.11207 0.019463 -0.098524 0.2166 -0.16591 -0.14888 0.10909 -0.12032 0.0014233 0.03799 0.062673 -0.30428 0.21332 -0.14426 0.17599 0.14932 -0.18358 0.10048 -0.10282 0.19704 -0.27038 -0.026085 -0.19536 -0.033514 -0.13902 -0.14804 -0.0031788 -0.10684 -0.10055 -0.0054311 -0.20026 -0.023322 0.25613 0.035096 0.067256 -0.1559 0.046022 0.17937 -0.019618 0.030967 -0.069343 -0.12172 -0.030676 -0.014874 -0.094118 0.11757 0.044209 0.0086269 -0.11607 0.1268 -0.15284 -0.056435 0.062902 -0.078679 -0.14855 0.17592 -0.012297 -0.1059 0.19069 -0.014413 0.076173 0.2178 0.22305 -0.34622 0.087649 0.23688 
