<sg> -0.055477 -0.031302 -0.058731 -0.048133 0.13767 0.087218 -0.041331 0.1363 -0.02276 -0.10568 0.01734 0.063134 0.0616 -0.048564 0.01678 -0.008023 0.086888 -0.072128 -0.074528 -0.064076 0.066283 -0.11918 0.12056 0.039251 0.076545 -0.024216 -0.01714 0.052902 0.049885 0.0015206 -0.10634 -0.048135 0.0083158 -0.041058 -0.01641 0.073386 -0.033313 -0.0087266 0.058561 -0.042173 -0.015814 0.041306 -0.065088 0.034575 0.099666 -0.077314 0.036147 -0.063314 0.033381 0.091725 -0.13701 0.026832 -0.027913 0.067744 -0.0069798 0.10501 -0.032025 0.057695 0.17768 0.03433 -0.041978 -0.054074 0.026547 -0.19479 0.06447 0.02927 0.012199 0.069599 -0.038866 -0.11904 -0.029808 -0.0045067 0.016022 -0.0084937 0.084292 0.062215 0.041544 -0.070181 0.02224 -0.012354 0.015944 0.08714 0.015105 -0.028471 -0.054486 -0.019338 0.073603 -0.049767 0.06693 -0.0023098 -0.14006 -0.031095 -0.011666 -0.0084673 0.06543 -0.015445 -0.060959 0.066211 0.02273 0.059678 0.14502 0.055726 -0.024718 -0.013138 0.067371 0.10746 -0.0025841 0.096799 -0.022705 0.0051175 -0.025779 0.068563 -0.10761 0.11137 -0.090288 -0.02214 0.11448 0.038579 -0.0098955 -0.010473 0.080996 -0.073676 0.02409 0.0027262 -0.055208 0.0051088 -0.014858 0.0041696 0.029496 0.084928 0.030264 0.011782 -0.045859 -0.074276 0.0072251 -0.090843 0.040651 0.069682 0.076014 -0.016465 -0.13092 0.032847 -0.096366 0.06025 -0.035552 -0.0018304 -0.039947 -0.113 0.057869 -0.021439 0.071186 -0.025234 0.02245 0.057538 -0.041166 -0.090614 -0.021601 0.067446 0.044773 -0.02043 0.10035 0.08276 0.21157 -0.052964 -0.13474 -0.12583 0.089428 -0.066385 -0.025773 0.0089041 -0.13743 -0.023524 0.057538 -0.085917 -0.043605 -0.10434 -0.066131 0.15297 -0.033956 0.1295 -0.026541 -0.055473 0.020982 0.041568 0.0022097 0.13593 -0.068746 0.0043154 0.079665 0.0077693 0.032895 -0.039 0.14999 0.019928 0.15208 -0.029394 0.066243 0.056294 -0.036033 0.024681 0.10663 0.01178 0.013021 0.11924 0.10858 -0.068529 0.040412 -0.055257 0.067596 0.15984 0.0093867 0.087317 -0.089641 0.096388 -0.064521 0.029196 0.017913 0.0030381 -0.04973 0.083361 -0.017824 -0.086109 0.0057048 0.034119 -0.046786 0.12026 0.08769 -0.11217 -0.10106 0.032614 0.11134 0.13012 -0.10918 0.11001 -0.080343 0.0021148 0.13752 0.025952 0.065127 0.013437 -0.054293 -0.031816 0.10653 0.054566 0.10935 0.048128 -0.13061 -0.029163 -0.056714 0.10769 0.060763 -0.080084 -0.055006 0.01045 -0.0068815 -0.027586 -0.046958 -0.028926 -0.0066534 -0.056095 0.078263 -0.074244 0.053237 0.030641 0.088965 0.10455 0.0042892 0.019151 -0.054882 -0.044845 0.058199 0.079075 0.098994 0.0042618 -0.025437 0.010622 0.11996 -0.10955 0.11523 0.090439 0.032703 0.093467 -0.052474 0.11801 0.011629 -0.046597 0.069221 0.041968 -0.042249 0.050053 0.034055 -0.10237 -0.0086942 0.11421 0.016852 0.0014723 0.023318 -0.071712 0.076508 -0.0079589 
<n> -0.067236 -0.02373 -0.051736 -0.049721 0.14108 0.086371 -0.031751 0.14661 -0.022589 -0.10194 0.019431 0.05961 0.053315 -0.047204 0.019186 -0.018413 0.09064 -0.069318 -0.070205 -0.059556 0.064411 -0.11942 0.12513 0.033813 0.071657 -0.035051 -0.013074 0.053555 0.054263 -0.0021105 -0.11209 -0.045368 -0.0067585 -0.042737 -0.016982 0.077452 -0.029488 -0.0025719 0.067034 -0.034808 -0.010581 0.045027 -0.065168 0.030857 0.09463 -0.08531 0.032183 -0.067527 0.034722 0.10297 -0.12763 0.02876 -0.010601 0.061829 -0.0042987 0.10268 -0.039615 0.060371 0.175 0.02328 -0.041499 -0.059153 0.028375 -0.19462 0.063468 0.035202 0.01491 0.073734 -0.03801 -0.14431 -0.035227 -0.013771 0.0068968 -0.0032769 0.099157 0.078823 0.034939 -0.07551 0.026791 -0.0096257 0.0058364 0.084516 0.021735 -0.031671 -0.063661 -0.025616 0.086246 -0.058384 0.065091 -0.00045907 -0.14181 -0.034524 -0.019956 -0.0019708 0.06242 -0.010647 -0.077801 0.068038 0.020064 0.058262 0.13848 0.051524 -0.024557 -0.013133 0.064164 0.11833 -0.003129 0.1068 -0.021163 0.018091 -0.032506 0.062175 -0.11255 0.11725 -0.082362 -0.0265 0.11271 0.043203 0.00062023 -0.010486 0.072695 -0.078553 0.019615 -0.0042884 -0.05213 0.0042845 -0.02489 0.019688 0.029853 0.083115 0.02655 0.016433 -0.058286 -0.087643 -0.00098805 -0.087323 0.028802 0.066373 0.078459 -0.022128 -0.13237 0.024379 -0.080982 0.054017 -0.040992 -0.0027791 -0.042408 -0.10546 0.067189 -0.013808 0.07938 -0.023089 0.009165 0.0502 -0.03955 -0.09588 -0.028273 0.066905 0.060531 -0.018128 0.099116 0.082016 0.21425 -0.04698 -0.13082 -0.11348 0.082828 -0.067084 -0.011744 -0.0084898 -0.14234 -0.024206 0.059886 -0.090235 -0.044412 -0.1091 -0.075511 0.14919 -0.033699 0.12264 -0.026565 -0.058551 0.031223 0.035863 0.00093386 0.13391 -0.076555 0.022363 0.080734 0.0049857 0.036603 -0.040075 0.15248 0.023419 0.1563 -0.027972 0.075369 0.059931 -0.028349 0.026029 0.1088 0.0055361 0.016229 0.11879 0.09374 -0.071614 0.034506 -0.056123 0.072839 0.15365 0.0020364 0.095312 -0.089064 0.091979 -0.07842 0.03715 0.014606 0.0020943 -0.052158 0.073112 -0.026438 -0.07605 0.0062431 0.034109 -0.054383 0.12046 0.099472 -0.12634 -0.11417 0.032733 0.11744 0.12009 -0.12146 0.11004 -0.082607 0.014904 0.12189 0.0324 0.058674 0.021411 -0.050244 -0.029614 0.10628 0.06244 0.10798 0.045427 -0.11706 -0.028153 -0.069565 0.094342 0.048853 -0.072554 -0.049924 0.01071 -0.0045276 -0.028466 -0.045972 -0.026038 -0.0083629 -0.048688 0.084746 -0.084351 0.0613 0.030963 0.090942 0.10085 0.0030893 0.012977 -0.05512 -0.03829 0.062228 0.073343 0.10872 -0.0034496 -0.03168 0.010158 0.1185 -0.11204 0.11695 0.085798 0.039834 0.091268 -0.051725 0.11288 0.010418 -0.046681 0.064342 0.040436 -0.046787 0.044138 0.046296 -0.10365 -0.0032899 0.11049 0.024112 -0.0043797 0.034882 -0.10257 0.1086 -0.015888 
<vblex> -0.049325 -0.03729 -0.057797 -0.045796 0.13091 0.08335 -0.04303 0.13025 -0.024233 -0.10426 0.015805 0.062605 0.068949 -0.049787 0.017968 0.00064569 0.083925 -0.074227 -0.072015 -0.064685 0.07124 -0.1211 0.11789 0.038132 0.078315 -0.02141 -0.023964 0.054481 0.051007 0.00088789 -0.10272 -0.051291 0.014163 -0.03856 -0.014678 0.071333 -0.040485 -0.0096363 0.050998 -0.043301 -0.018871 0.038101 -0.062262 0.032938 0.10411 -0.070219 0.036536 -0.060304 0.029412 0.087668 -0.13838 0.023297 -0.037119 0.073119 -0.010802 0.10572 -0.028103 0.053886 0.18022 0.035334 -0.043967 -0.052146 0.024972 -0.19488 0.066814 0.029433 0.010772 0.066371 -0.041855 -0.11551 -0.028965 -0.0018652 0.018789 -0.0073107 0.080379 0.057657 0.042327 -0.068108 0.025565 -0.015696 0.024073 0.087134 0.015567 -0.028701 -0.05202 -0.01831 0.072786 -0.048362 0.063837 -0.0034161 -0.13539 -0.030068 -0.01016 -0.0082494 0.064368 -0.019184 -0.054241 0.061386 0.021383 0.066067 0.15277 0.05433 -0.028068 -0.011295 0.068386 0.10248 -0.0034213 0.094261 -0.020986 0.00073329 -0.024388 0.073065 -0.10378 0.10849 -0.092852 -0.020962 0.11149 0.0343 -0.014356 -0.008484 0.090366 -0.071306 0.027681 0.006841 -0.054983 0.0071166 -0.0082468 -0.0031885 0.029955 0.084087 0.030983 0.008772 -0.039937 -0.067434 0.0053445 -0.091958 0.046916 0.06964 0.075379 -0.015914 -0.13036 0.035496 -0.10472 0.064152 -0.029159 0.0021235 -0.041766 -0.11981 0.057219 -0.020841 0.076001 -0.031332 0.02861 0.064891 -0.042171 -0.088981 -0.015818 0.064211 0.039286 -0.023987 0.098457 0.077809 0.21209 -0.055156 -0.13728 -0.12908 0.093012 -0.059348 -0.032224 0.015742 -0.13784 -0.022786 0.053818 -0.084246 -0.045579 -0.094876 -0.060569 0.15037 -0.035639 0.12794 -0.028429 -0.054024 0.01704 0.042759 0.0039555 0.13751 -0.066843 -0.0050333 0.081721 0.0083643 0.030399 -0.035624 0.15037 0.017949 0.15213 -0.031703 0.062461 0.054787 -0.037949 0.024194 0.10447 0.012864 0.015812 0.12146 0.11431 -0.070933 0.044109 -0.054038 0.062891 0.16029 0.013302 0.08168 -0.088944 0.097105 -0.057378 0.022246 0.018715 0.00090563 -0.0438 0.080757 -0.011536 -0.086837 0.0072175 0.032222 -0.042316 0.11722 0.083144 -0.1011 -0.092697 0.031924 0.11028 0.13374 -0.10179 0.10645 -0.079672 -0.0083941 0.14557 0.024175 0.066846 0.0096624 -0.051728 -0.034516 0.10767 0.051124 0.1084 0.048281 -0.13041 -0.032533 -0.050732 0.11655 0.060428 -0.086156 -0.057986 0.0069768 -0.0084661 -0.027931 -0.046728 -0.030129 -0.0074866 -0.057735 0.074607 -0.066274 0.047492 0.028211 0.08994 0.10527 0.0059371 0.023135 -0.056093 -0.050345 0.056308 0.08337 0.090737 0.0066849 -0.017322 0.011972 0.12102 -0.10494 0.11758 0.091171 0.028408 0.094205 -0.05204 0.11981 0.01135 -0.040183 0.070201 0.039322 -0.040876 0.054391 0.033133 -0.10449 -0.01074 0.11791 0.014196 0.0023196 0.022097 -0.076749 0.07176 -0.008572 
<indic> -0.045795 -0.037192 -0.064947 -0.044311 0.12569 0.082857 -0.044094 0.13092 -0.019755 -0.10477 0.014165 0.063873 0.073194 -0.04399 0.016372 0.00047686 0.083823 -0.076082 -0.068477 -0.066712 0.072186 -0.11714 0.1182 0.043381 0.075994 -0.01972 -0.024504 0.056425 0.043415 -3.9413e-05 -0.095979 -0.050688 0.020539 -0.035903 -0.013586 0.069832 -0.04182 -0.020517 0.045498 -0.045178 -0.015221 0.036884 -0.062702 0.033678 0.10208 -0.071627 0.035273 -0.054 0.027171 0.086913 -0.14104 0.016527 -0.035224 0.073316 -0.011939 0.10727 -0.022538 0.053394 0.17818 0.035003 -0.037791 -0.051759 0.02827 -0.19586 0.071464 0.030797 0.011914 0.066123 -0.052569 -0.13796 -0.034561 0.0039281 0.021052 -0.0056479 0.077395 0.055554 0.047422 -0.066176 0.024783 -0.016015 0.021571 0.089193 0.010769 -0.030487 -0.053861 -0.016436 0.076667 -0.049967 0.062941 0.0011679 -0.1374 -0.033132 -0.0071196 -0.010661 0.066394 -0.015517 -0.046691 0.060356 0.022141 0.06482 0.15158 0.054454 -0.025667 -0.010682 0.069448 0.10239 -0.0029091 0.09124 -0.022104 -0.001348 -0.02075 0.072064 -0.098676 0.10441 -0.095098 -0.017778 0.11476 0.034467 -0.01554 -0.0086049 0.094861 -0.070371 0.027264 0.0065378 -0.055348 0.0079374 -0.00271 -0.013616 0.029414 0.084243 0.032678 0.0050057 -0.036028 -0.065538 0.0074618 -0.092509 0.04681 0.073573 0.078539 -0.014882 -0.12657 0.035965 -0.10572 0.059867 -0.028095 0.0027934 -0.043325 -0.12563 0.052914 -0.022485 0.072881 -0.029735 0.029548 0.066474 -0.044375 -0.086469 -0.016943 0.061731 0.037661 -0.021587 0.096845 0.07933 0.20943 -0.056484 -0.14345 -0.12935 0.10086 -0.059005 -0.033602 0.021227 -0.13773 -0.021615 0.05441 -0.082769 -0.045661 -0.091715 -0.060239 0.15456 -0.037435 0.13201 -0.027497 -0.047182 0.0072204 0.047021 0.0066304 0.13969 -0.065817 -0.0092796 0.087293 0.013938 0.029458 -0.032461 0.14957 0.017704 0.14906 -0.02637 0.057983 0.048434 -0.039713 0.021392 0.10261 0.014774 0.013625 0.12375 0.11921 -0.067932 0.042199 -0.052873 0.063774 0.16342 0.01313 0.078414 -0.089378 0.095091 -0.056206 0.019459 0.023415 0.0054534 -0.041171 0.086563 -0.003709 -0.087448 0.006548 0.034599 -0.042585 0.11727 0.080056 -0.098349 -0.087953 0.032424 0.10788 0.13595 -0.096372 0.10852 -0.08182 -0.0097611 0.15093 0.02346 0.069402 0.0070773 -0.053478 -0.034204 0.1077 0.046953 0.10957 0.044416 -0.13489 -0.031809 -0.046042 0.12068 0.062959 -0.087138 -0.057379 0.0096705 -0.0086136 -0.030626 -0.045046 -0.033456 -0.007239 -0.059882 0.066817 -0.058562 0.040469 0.029097 0.090293 0.10569 0.0036673 0.026852 -0.054023 -0.049253 0.054467 0.087442 0.088761 0.007061 -0.016614 0.018829 0.12121 -0.10531 0.10963 0.085357 0.0285 0.093574 -0.053238 0.12345 0.01438 -0.036898 0.074915 0.038095 -0.04024 0.05119 0.031508 -0.096963 -0.013896 0.12166 0.014335 0.0026428 0.024921 -0.070509 0.068298 -0.011534 
<nom> -0.061732 -0.028579 -0.05721 -0.047247 0.13938 0.085812 -0.035304 0.14275 -0.021196 -0.10245 0.018464 0.061229 0.061876 -0.046232 0.019754 -0.010978 0.08808 -0.069916 -0.067762 -0.061966 0.065412 -0.11962 0.12485 0.036526 0.072484 -0.030316 -0.01477 0.055501 0.050523 -0.0017116 -0.10787 -0.048869 0.0029657 -0.040247 -0.015068 0.074426 -0.034185 -0.0085202 0.060068 -0.040282 -0.013071 0.043034 -0.065099 0.030737 0.097197 -0.081342 0.034836 -0.063151 0.029924 0.096558 -0.12999 0.027416 -0.0199 0.067254 -0.0067447 0.10418 -0.032121 0.059604 0.17485 0.028132 -0.041191 -0.057804 0.028172 -0.19463 0.065414 0.033545 0.014418 0.071502 -0.042247 -0.14112 -0.03575 -0.0072075 0.011645 -0.0045948 0.091576 0.068565 0.037835 -0.072081 0.024318 -0.010307 0.0095545 0.086683 0.016189 -0.032396 -0.059015 -0.021333 0.081281 -0.055095 0.064675 0.00099248 -0.14237 -0.032545 -0.015447 -0.0050399 0.06408 -0.011603 -0.066064 0.064788 0.020969 0.061545 0.14229 0.052646 -0.023579 -0.013925 0.067279 0.11392 -0.0037316 0.10302 -0.021901 0.010831 -0.029249 0.066815 -0.10842 0.11213 -0.086867 -0.024569 0.11272 0.040858 -0.0057992 -0.0099249 0.079679 -0.075979 0.019783 0.00013053 -0.052844 0.0048383 -0.017132 0.0087302 0.030373 0.084131 0.02927 0.012013 -0.05163 -0.080276 -0.00050171 -0.089189 0.035069 0.067826 0.079277 -0.017768 -0.12972 0.029222 -0.089912 0.056858 -0.038235 -0.00054166 -0.043467 -0.11254 0.062486 -0.017925 0.076505 -0.024818 0.015261 0.054592 -0.041909 -0.092574 -0.023631 0.066264 0.052777 -0.018716 0.099073 0.080275 0.21304 -0.049969 -0.13417 -0.11687 0.087904 -0.063854 -0.018008 0.0024492 -0.14016 -0.023113 0.060642 -0.088798 -0.045163 -0.1058 -0.069238 0.15046 -0.03576 0.12558 -0.026418 -0.055127 0.024634 0.040551 0.0032974 0.13558 -0.071006 0.012678 0.082968 0.0082773 0.032734 -0.039544 0.15001 0.022343 0.15432 -0.028045 0.071577 0.055246 -0.03181 0.026239 0.10624 0.0080909 0.014353 0.12153 0.1031 -0.069797 0.037581 -0.055959 0.07095 0.1579 0.0045282 0.088694 -0.089632 0.094432 -0.071785 0.031051 0.018152 0.0034165 -0.048754 0.079541 -0.018576 -0.078899 0.0085498 0.033449 -0.050939 0.12037 0.091665 -0.11931 -0.10586 0.033409 0.11514 0.12642 -0.11435 0.10984 -0.082914 0.0055744 0.13327 0.029941 0.061272 0.015807 -0.05121 -0.030491 0.1069 0.056495 0.10928 0.044147 -0.1238 -0.029703 -0.06116 0.10295 0.053241 -0.076579 -0.052198 0.011913 -0.004827 -0.028999 -0.045488 -0.02924 -0.0079787 -0.052682 0.077511 -0.075248 0.055153 0.032387 0.090862 0.10164 0.0029983 0.017624 -0.054144 -0.039571 0.059238 0.075671 0.10058 0.0013987 -0.025818 0.011705 0.12022 -0.11065 0.11568 0.085267 0.036048 0.090634 -0.052987 0.11857 0.012687 -0.044487 0.067709 0.040619 -0.045286 0.045854 0.040675 -0.10121 -0.0078106 0.11233 0.021139 -0.0017702 0.032311 -0.092887 0.098948 -0.014503 
<pl> -0.049553 -0.035092 -0.062535 -0.047569 0.13484 0.087093 -0.051388 0.12205 -0.030457 -0.10586 0.016929 0.066242 0.072507 -0.053094 0.019927 0.0069384 0.084368 -0.078724 -0.075138 -0.064287 0.071371 -0.11586 0.1212 0.044581 0.080513 -0.019299 -0.027995 0.062014 0.053184 0.0029192 -0.1014 -0.053014 0.020459 -0.037674 -0.024573 0.066156 -0.040833 -0.015751 0.053091 -0.044392 -0.024414 0.036841 -0.062613 0.030921 0.10313 -0.071972 0.035025 -0.064526 0.033828 0.07976 -0.14159 0.020284 -0.044598 0.071618 -0.0050175 0.11352 -0.029475 0.057003 0.18187 0.036102 -0.048717 -0.047765 0.023147 -0.20396 0.066213 0.022998 0.013806 0.072311 -0.053645 -0.13663 -0.030213 0.00060377 0.023935 -0.011086 0.071378 0.06162 0.044522 -0.062341 0.027829 -0.014611 0.025751 0.083595 0.020196 -0.02392 -0.049716 -0.014699 0.054434 -0.040264 0.065497 -0.0045734 -0.13219 -0.034381 -0.0079756 -0.0098502 0.06681 -0.015568 -0.058079 0.071362 0.023641 0.063636 0.15525 0.056892 -0.033196 -0.015713 0.075127 0.10196 -0.004804 0.090184 -0.024658 -0.0010424 -0.022962 0.079137 -0.10273 0.10609 -0.096329 -0.016461 0.11729 0.033447 -0.020176 -0.011317 0.09553 -0.067261 0.024877 0.0086345 -0.0575 0.0047056 -0.01093 1.1784e-05 0.029069 0.084229 0.036607 0.0094601 -0.034771 -0.062662 0.010008 -0.091229 0.044237 0.076169 0.083939 -0.0086249 -0.13525 0.039317 -0.11472 0.074924 -0.024209 0.0052429 -0.039008 -0.12294 0.055354 -0.022766 0.075962 -0.031195 0.03839 0.066038 -0.035516 -0.089029 -0.010623 0.064026 0.038947 -0.022262 0.10086 0.081641 0.21482 -0.060579 -0.13749 -0.13337 0.099191 -0.070152 -0.037851 0.019379 -0.1399 -0.029426 0.053264 -0.082003 -0.044197 -0.097585 -0.059284 0.15302 -0.035793 0.13114 -0.031706 -0.05712 0.021259 0.047682 0.0074002 0.13624 -0.070562 -0.010307 0.078203 0.006195 0.030612 -0.038397 0.16178 0.022798 0.15786 -0.0316 0.06717 0.061412 -0.041167 0.021731 0.10617 0.01399 0.014144 0.12328 0.12111 -0.071113 0.044689 -0.059016 0.054259 0.16233 0.019849 0.078664 -0.091173 0.094844 -0.056678 0.023234 0.013956 -5.1027e-05 -0.048527 0.080452 -0.010004 -0.089705 0.0058767 0.035876 -0.042474 0.12018 0.084663 -0.10498 -0.088551 0.035892 0.10622 0.13666 -0.099458 0.10578 -0.079296 -0.012808 0.14474 0.013732 0.062715 0.01163 -0.048876 -0.034208 0.10161 0.050908 0.11639 0.051699 -0.141 -0.032787 -0.052575 0.11772 0.067809 -0.089732 -0.056226 0.0023693 -0.013473 -0.032487 -0.053913 -0.029726 -0.0092573 -0.062773 0.072223 -0.071006 0.048408 0.030407 0.086792 0.11304 0.0021701 0.020244 -0.05457 -0.047639 0.055216 0.080818 0.087112 0.011265 -0.020892 0.0074726 0.12442 -0.10284 0.1105 0.090324 0.0284 0.10355 -0.047209 0.11336 0.0095965 -0.047294 0.067249 0.04442 -0.032367 0.057179 0.030286 -0.10901 -0.0092441 0.11181 0.012515 0.0064922 0.021231 -0.080023 0.078684 -0.0048998 
<iv> -0.044122 -0.039572 -0.062622 -0.042672 0.12572 0.081378 -0.045186 0.12891 -0.019115 -0.10345 0.010041 0.063921 0.076531 -0.04328 0.016889 0.00094468 0.083614 -0.074654 -0.06976 -0.067602 0.07299 -0.11806 0.1159 0.043559 0.074099 -0.018112 -0.024427 0.054282 0.04208 -0.0011223 -0.096732 -0.052216 0.022641 -0.034068 -0.0093392 0.068579 -0.042532 -0.020262 0.042534 -0.046611 -0.017448 0.034415 -0.061467 0.033475 0.10456 -0.069434 0.03582 -0.052968 0.024677 0.084792 -0.14175 0.017668 -0.039491 0.07546 -0.012516 0.10588 -0.021601 0.055689 0.1803 0.035933 -0.038123 -0.054138 0.027379 -0.19698 0.072797 0.032267 0.010629 0.063887 -0.057032 -0.15349 -0.03792 0.0056635 0.020141 -0.0068827 0.076325 0.052464 0.046144 -0.064075 0.025688 -0.017135 0.024389 0.090483 0.01024 -0.031061 -0.052146 -0.013701 0.077844 -0.047779 0.060294 0.00011855 -0.13802 -0.030729 -0.0039208 -0.012349 0.064483 -0.016619 -0.043508 0.057656 0.022199 0.066835 0.15242 0.057113 -0.023922 -0.010718 0.069371 0.10224 -0.0025611 0.088776 -0.021735 -0.0043755 -0.02173 0.072345 -0.098902 0.10429 -0.09565 -0.014944 0.11521 0.034766 -0.019124 -0.0097381 0.095336 -0.068521 0.025969 0.009667 -0.055596 0.0079916 0.00019536 -0.01591 0.028291 0.083563 0.033338 0.003738 -0.036666 -0.062086 0.0052783 -0.094979 0.048131 0.072551 0.077149 -0.013757 -0.12463 0.037047 -0.10828 0.060603 -0.029181 0.0031449 -0.044684 -0.12782 0.052901 -0.023221 0.071025 -0.029898 0.029171 0.0678 -0.046605 -0.085268 -0.017276 0.061356 0.034702 -0.023551 0.09598 0.078052 0.21144 -0.057166 -0.14511 -0.13207 0.10193 -0.058797 -0.034179 0.023766 -0.1349 -0.02108 0.054462 -0.082789 -0.045866 -0.08973 -0.057434 0.15224 -0.037747 0.13252 -0.028938 -0.045871 0.0076651 0.048681 0.005346 0.13968 -0.061636 -0.0097997 0.086856 0.01572 0.029327 -0.032822 0.15097 0.018554 0.14988 -0.026917 0.060094 0.049935 -0.039023 0.024914 0.10224 0.014393 0.013792 0.12271 0.12168 -0.069813 0.041595 -0.053648 0.062065 0.16499 0.011783 0.076766 -0.089809 0.095234 -0.055719 0.01836 0.024702 0.0049814 -0.039534 0.085929 -0.0027364 -0.089687 0.0079099 0.034355 -0.040036 0.11628 0.080245 -0.097882 -0.086611 0.031353 0.10885 0.13801 -0.096754 0.10865 -0.080223 -0.012188 0.15415 0.024212 0.069181 0.0041045 -0.050778 -0.037303 0.10779 0.045851 0.10751 0.042052 -0.13371 -0.031999 -0.042674 0.12304 0.061947 -0.086982 -0.056106 0.010579 -0.0090963 -0.031928 -0.042464 -0.034055 -0.0070511 -0.061344 0.06604 -0.055107 0.039748 0.027841 0.089918 0.10357 0.0037897 0.028761 -0.052985 -0.05068 0.049702 0.088958 0.086058 0.0090852 -0.017202 0.019005 0.12172 -0.10407 0.10924 0.08358 0.028327 0.093559 -0.054216 0.12726 0.016657 -0.036932 0.074476 0.037208 -0.041463 0.053274 0.031684 -0.096032 -0.015028 0.1206 0.012593 0.0025236 0.024755 -0.072767 0.06896 -0.01273 
<sent> -0.051462 -0.033767 -0.060187 -0.046916 0.13564 0.086091 -0.043999 0.1309 -0.021788 -0.10352 0.01483 0.065926 0.067168 -0.046973 0.016755 -0.0025452 0.08444 -0.073093 -0.072591 -0.065772 0.06989 -0.11792 0.11959 0.039633 0.074841 -0.01936 -0.020527 0.05592 0.047274 0.0015189 -0.10228 -0.048881 0.014564 -0.03838 -0.015646 0.070352 -0.037909 -0.011333 0.051788 -0.043991 -0.015609 0.037199 -0.063432 0.031944 0.1023 -0.072337 0.038012 -0.059742 0.031812 0.087046 -0.13896 0.024988 -0.033162 0.070684 -0.0082459 0.10722 -0.027958 0.056741 0.1771 0.035394 -0.042655 -0.054561 0.026487 -0.19678 0.066466 0.029663 0.013119 0.067464 -0.049041 -0.13983 -0.032835 -0.0017188 0.01874 -0.0081518 0.079282 0.057931 0.042161 -0.066117 0.024855 -0.012244 0.018067 0.087975 0.016041 -0.028584 -0.056514 -0.01685 0.075397 -0.050793 0.064738 -0.0027165 -0.13782 -0.030932 -0.0092637 -0.0092894 0.064386 -0.01585 -0.057602 0.064322 0.020785 0.06334 0.14875 0.056085 -0.025129 -0.012931 0.069213 0.10643 -0.0033353 0.09338 -0.022112 0.0016071 -0.024123 0.072102 -0.10545 0.10896 -0.092473 -0.019115 0.11354 0.036114 -0.013994 -0.011026 0.086812 -0.071709 0.023294 0.0047836 -0.052848 0.0065363 -0.0093076 -0.00044467 0.028749 0.084562 0.033378 0.0099564 -0.042745 -0.070655 0.0065513 -0.092465 0.044016 0.070193 0.076875 -0.013599 -0.12887 0.034278 -0.10165 0.062943 -0.031961 0.00028699 -0.04042 -0.11776 0.055665 -0.023789 0.073194 -0.027224 0.026458 0.061012 -0.042062 -0.08758 -0.018049 0.066713 0.041441 -0.02029 0.1004 0.080685 0.21198 -0.055003 -0.13423 -0.12587 0.09217 -0.064325 -0.027696 0.012939 -0.13763 -0.023789 0.056611 -0.085604 -0.043005 -0.10129 -0.061645 0.1519 -0.033895 0.12925 -0.027641 -0.053717 0.018107 0.042653 0.0029893 0.13575 -0.064937 -0.00081491 0.081408 0.0087384 0.031763 -0.038638 0.15108 0.021058 0.15315 -0.030182 0.065286 0.05661 -0.036949 0.024864 0.10639 0.012827 0.014341 0.12032 0.11476 -0.069335 0.041245 -0.055276 0.063732 0.16065 0.011578 0.082878 -0.089555 0.096603 -0.062168 0.026782 0.017891 0.0043113 -0.046645 0.08348 -0.014734 -0.085241 0.0077309 0.033599 -0.045106 0.11964 0.083936 -0.10753 -0.095012 0.033719 0.10982 0.13369 -0.10516 0.10875 -0.078212 -0.0049771 0.14315 0.023049 0.064899 0.011363 -0.052506 -0.033708 0.10593 0.050934 0.10891 0.046284 -0.13191 -0.030029 -0.052761 0.11192 0.061642 -0.084619 -0.053278 0.0079901 -0.0084198 -0.02974 -0.047119 -0.030984 -0.0075772 -0.058469 0.074537 -0.069524 0.049298 0.030633 0.089558 0.10318 0.0024718 0.020222 -0.055248 -0.047262 0.055979 0.079754 0.093768 0.0070277 -0.021287 0.0096628 0.12177 -0.10823 0.11293 0.088571 0.032038 0.092609 -0.051595 0.12059 0.013587 -0.04494 0.069316 0.039671 -0.041924 0.05349 0.032998 -0.10317 -0.011535 0.11554 0.013653 0.0021515 0.026404 -0.082417 0.086846 -0.0072521 
<prn> -0.046036 -0.038193 -0.063379 -0.044334 0.13129 0.085344 -0.048492 0.12701 -0.023122 -0.10792 0.013996 0.065011 0.073617 -0.046735 0.016578 0.0025118 0.083697 -0.07459 -0.075181 -0.065463 0.071879 -0.11471 0.11877 0.047226 0.078724 -0.017327 -0.024238 0.054862 0.046656 0.0025441 -0.10082 -0.053306 0.021617 -0.037407 -0.015398 0.067671 -0.037946 -0.018192 0.04804 -0.046041 -0.020798 0.034362 -0.063635 0.033177 0.10235 -0.071317 0.035431 -0.059101 0.029158 0.082108 -0.14188 0.020841 -0.041331 0.072511 -0.0082225 0.11149 -0.023836 0.057091 0.18008 0.038332 -0.043395 -0.052286 0.024824 -0.20084 0.069748 0.025494 0.011197 0.068602 -0.051892 -0.13581 -0.032727 0.003658 0.020791 -0.010893 0.071718 0.053488 0.045687 -0.063058 0.024714 -0.016232 0.022622 0.090869 0.013878 -0.02804 -0.05495 -0.013192 0.069801 -0.044295 0.063008 -0.0039828 -0.1356 -0.029033 -0.0046935 -0.012263 0.064439 -0.015942 -0.046748 0.063542 0.021135 0.065478 0.15212 0.057595 -0.026498 -0.015408 0.072435 0.10291 -0.0032397 0.089826 -0.023675 -0.0048842 -0.022827 0.077306 -0.10142 0.10384 -0.094902 -0.014231 0.116 0.038879 -0.024671 -0.0078915 0.089779 -0.068001 0.023921 0.0070268 -0.056353 0.0049079 -0.0075786 -0.007518 0.030281 0.084814 0.037513 0.0059621 -0.036022 -0.061846 0.008541 -0.095548 0.048118 0.072141 0.078755 -0.0087617 -0.13053 0.038685 -0.11017 0.066336 -0.028579 0.0010305 -0.040685 -0.1227 0.054584 -0.02631 0.070927 -0.028383 0.033034 0.064456 -0.042795 -0.085185 -0.016338 0.066666 0.037352 -0.020982 0.099016 0.081264 0.21384 -0.061673 -0.13696 -0.1301 0.098776 -0.065637 -0.035162 0.020287 -0.13649 -0.025764 0.055562 -0.082415 -0.042743 -0.096212 -0.057735 0.15254 -0.037142 0.13359 -0.028503 -0.052295 0.013965 0.049243 0.003679 0.13727 -0.064016 -0.008822 0.080883 0.010182 0.029659 -0.036526 0.15202 0.023239 0.15281 -0.030026 0.066863 0.054105 -0.038961 0.026061 0.10354 0.013597 0.011929 0.12054 0.12316 -0.065684 0.043008 -0.055243 0.058853 0.16629 0.016635 0.078795 -0.09153 0.095145 -0.056411 0.022748 0.019178 0.0057773 -0.047381 0.087046 -0.0078867 -0.091766 0.0060676 0.03599 -0.042303 0.11822 0.081026 -0.1047 -0.087056 0.034474 0.10593 0.13686 -0.097108 0.10761 -0.077885 -0.013619 0.14993 0.016326 0.065999 0.0071076 -0.051581 -0.034609 0.10532 0.046047 0.11027 0.044648 -0.13835 -0.030853 -0.046192 0.12315 0.067692 -0.086426 -0.053864 0.0067257 -0.010102 -0.030293 -0.047437 -0.031081 -0.0073111 -0.066049 0.069518 -0.062777 0.047032 0.028806 0.085802 0.10795 0.0025744 0.02313 -0.053432 -0.046991 0.053865 0.081455 0.087779 0.010195 -0.018376 0.012119 0.12153 -0.10417 0.11078 0.084444 0.030388 0.095914 -0.053029 0.12189 0.014317 -0.045961 0.070863 0.041904 -0.036221 0.055142 0.029454 -0.10283 -0.011994 0.11208 0.011784 0.006441 0.026531 -0.077864 0.083756 -0.0078003 
</s> -0.049148 -0.03434 -0.061575 -0.047008 0.13241 0.086492 -0.046259 0.12986 -0.023587 -0.10785 0.013558 0.063537 0.06952 -0.048301 0.015024 -0.0012418 0.085838 -0.072773 -0.078267 -0.063905 0.069466 -0.1178 0.11808 0.045925 0.078482 -0.020443 -0.023657 0.05385 0.048478 0.0035103 -0.10212 -0.051217 0.01674 -0.036606 -0.016166 0.069457 -0.036233 -0.017393 0.050847 -0.04491 -0.021027 0.036445 -0.064676 0.032707 0.1015 -0.074125 0.033395 -0.059899 0.031358 0.086427 -0.14053 0.022491 -0.036952 0.070238 -0.0075269 0.10832 -0.028557 0.058627 0.18 0.03535 -0.04225 -0.051512 0.02639 -0.20058 0.070833 0.026219 0.011515 0.068578 -0.053935 -0.14663 -0.036755 0.0014017 0.017716 -0.0089642 0.075264 0.057268 0.044433 -0.063644 0.022029 -0.013581 0.020818 0.08935 0.015503 -0.027519 -0.05788 -0.015339 0.077326 -0.049204 0.062193 -0.0046205 -0.13548 -0.029631 -0.0067427 -0.010432 0.064752 -0.014524 -0.053898 0.066544 0.023288 0.061179 0.14823 0.057733 -0.026341 -0.01463 0.070116 0.10453 -0.0026145 0.090669 -0.023563 -0.0018715 -0.024527 0.073896 -0.10186 0.10541 -0.094308 -0.017344 0.11625 0.038805 -0.020473 -0.0092279 0.087349 -0.06749 0.023877 0.0034738 -0.058147 0.0044255 -0.01145 -0.0047193 0.028913 0.083681 0.034057 0.0075932 -0.03985 -0.06336 0.0087822 -0.09411 0.044163 0.072469 0.078975 -0.012795 -0.12984 0.035996 -0.10491 0.064006 -0.030256 -0.00040742 -0.039766 -0.12036 0.056962 -0.022721 0.07148 -0.029379 0.029592 0.063303 -0.041994 -0.087195 -0.01975 0.065713 0.03806 -0.021483 0.096947 0.082864 0.21157 -0.060137 -0.13788 -0.12994 0.097092 -0.06739 -0.029659 0.016628 -0.1352 -0.024122 0.056366 -0.081445 -0.043111 -0.098852 -0.059185 0.15361 -0.03547 0.13298 -0.029029 -0.051863 0.015657 0.04801 0.0016111 0.13577 -0.066875 -0.0037627 0.079171 0.010302 0.029652 -0.0375 0.15302 0.02125 0.15201 -0.028708 0.065734 0.054169 -0.035098 0.024267 0.10518 0.012396 0.011292 0.11932 0.11757 -0.066511 0.041025 -0.055378 0.062318 0.16598 0.014696 0.083432 -0.094701 0.094631 -0.058842 0.023932 0.018457 0.0072684 -0.048251 0.085971 -0.0097071 -0.092092 0.0068109 0.034999 -0.043612 0.1176 0.085924 -0.1067 -0.091834 0.034121 0.10931 0.13514 -0.10243 0.10797 -0.078112 -0.0092352 0.14593 0.021402 0.065576 0.0083293 -0.050317 -0.032973 0.10498 0.048002 0.1094 0.043892 -0.13504 -0.030306 -0.048514 0.11769 0.062886 -0.084358 -0.054156 0.007298 -0.008996 -0.028609 -0.048298 -0.029619 -0.0069231 -0.063015 0.073778 -0.066505 0.049184 0.029655 0.08731 0.10726 0.0020699 0.023238 -0.052417 -0.046085 0.053903 0.081773 0.092196 0.0092223 -0.02261 0.012748 0.12221 -0.10599 0.10946 0.083263 0.031636 0.09547 -0.052126 0.12133 0.012811 -0.044887 0.071286 0.041888 -0.035475 0.054199 0.030663 -0.099701 -0.0091815 0.1116 0.015213 0.0059496 0.027705 -0.079918 0.083802 -0.010729 
<pres> -0.046181 -0.037946 -0.060531 -0.045521 0.12934 0.0827 -0.047594 0.12743 -0.024036 -0.1073 0.012493 0.064524 0.072708 -0.045651 0.017854 -0.00070141 0.083372 -0.072142 -0.075074 -0.064098 0.06922 -0.11414 0.11731 0.047524 0.075064 -0.01597 -0.025469 0.052119 0.044888 0.0024455 -0.097887 -0.050827 0.021919 -0.033462 -0.012905 0.065466 -0.037581 -0.019652 0.047759 -0.046067 -0.020711 0.034215 -0.063646 0.032861 0.10165 -0.070643 0.035139 -0.059666 0.028912 0.080985 -0.13957 0.019247 -0.039395 0.070357 -0.0085421 0.10868 -0.024147 0.056249 0.17563 0.036325 -0.040624 -0.051779 0.026269 -0.19777 0.068295 0.026707 0.010496 0.067736 -0.048811 -0.13069 -0.031648 0.0054306 0.02115 -0.011408 0.071318 0.050144 0.046053 -0.062656 0.024236 -0.017622 0.022773 0.090703 0.013116 -0.028786 -0.056329 -0.013814 0.071876 -0.044784 0.060358 -0.0036168 -0.13613 -0.027807 -0.0022827 -0.013123 0.065209 -0.013513 -0.044828 0.062299 0.021723 0.064322 0.1477 0.057591 -0.025125 -0.014797 0.069785 0.10229 -0.0025444 0.085623 -0.024209 -0.0059581 -0.021625 0.075 -0.1003 0.10172 -0.09278 -0.012992 0.11522 0.039968 -0.023562 -0.0080761 0.088468 -0.066817 0.022035 0.0089743 -0.056713 0.0050756 -0.0087633 -0.0094313 0.027818 0.083581 0.036255 0.0043559 -0.035508 -0.059837 0.0072848 -0.093625 0.047045 0.07262 0.077292 -0.0084944 -0.12516 0.035825 -0.10662 0.062402 -0.027313 -0.00020059 -0.039952 -0.12076 0.053468 -0.027024 0.068671 -0.027953 0.03076 0.064252 -0.042586 -0.083858 -0.018277 0.064866 0.033717 -0.021611 0.096536 0.081297 0.21053 -0.060354 -0.1385 -0.12901 0.095708 -0.064888 -0.033967 0.021692 -0.13297 -0.02375 0.05595 -0.081197 -0.042869 -0.097326 -0.058172 0.14983 -0.03478 0.13203 -0.028784 -0.049203 0.012362 0.051479 0.0034926 0.13717 -0.06168 -0.007778 0.080092 0.010797 0.03012 -0.035364 0.14953 0.021576 0.15072 -0.026645 0.064777 0.052386 -0.039108 0.026397 0.10269 0.01371 0.011291 0.11799 0.12136 -0.065944 0.040335 -0.053424 0.057678 0.16477 0.013874 0.078051 -0.091962 0.092987 -0.057051 0.023382 0.019244 0.0060051 -0.045671 0.087005 -0.0076632 -0.092779 0.0065322 0.034072 -0.04097 0.1159 0.081285 -0.10324 -0.087338 0.032923 0.10684 0.13621 -0.098202 0.10515 -0.077891 -0.010569 0.14707 0.016834 0.064363 0.0060992 -0.050068 -0.035417 0.1046 0.045542 0.10937 0.042376 -0.13488 -0.030482 -0.04345 0.1218 0.067032 -0.08407 -0.053822 0.0065882 -0.010246 -0.029584 -0.045095 -0.030276 -0.0055779 -0.064932 0.066451 -0.0591 0.045396 0.028191 0.08487 0.10479 0.001802 0.023496 -0.049423 -0.045456 0.052557 0.081542 0.087403 0.013015 -0.019399 0.012091 0.12138 -0.10211 0.10788 0.081779 0.030228 0.095495 -0.051981 0.12241 0.013977 -0.043891 0.069915 0.039979 -0.036668 0.055346 0.028778 -0.099014 -0.011905 0.11084 0.012434 0.0050564 0.024401 -0.074429 0.078758 -0.010873 
<sg3> -0.054412 -0.034771 -0.059572 -0.047126 0.13527 0.084608 -0.038885 0.13916 -0.020026 -0.10359 0.016322 0.062679 0.062935 -0.0457 0.016401 -0.0061605 0.0867 -0.073575 -0.070448 -0.065782 0.069238 -0.12071 0.11955 0.037626 0.07472 -0.024574 -0.016551 0.052831 0.047523 -0.0019293 -0.10387 -0.049003 0.009975 -0.041391 -0.012323 0.074738 -0.036935 -0.010007 0.053116 -0.043415 -0.014265 0.040201 -0.063773 0.034171 0.10015 -0.075899 0.036776 -0.057881 0.029555 0.094142 -0.13744 0.023963 -0.026045 0.071601 -0.0098684 0.10431 -0.027888 0.055584 0.17708 0.033896 -0.041734 -0.057402 0.027442 -0.19185 0.066273 0.033517 0.0098122 0.066763 -0.042828 -0.12914 -0.032712 -0.0020183 0.015707 -0.0053935 0.086172 0.06027 0.042435 -0.070912 0.022965 -0.013348 0.016103 0.08924 0.013044 -0.032348 -0.052136 -0.018996 0.077171 -0.051144 0.065519 -0.00043363 -0.14149 -0.031283 -0.012321 -0.0072871 0.064688 -0.01618 -0.056802 0.060437 0.021013 0.062371 0.14616 0.054772 -0.022716 -0.011665 0.066782 0.10798 -0.003823 0.097565 -0.020229 0.0054462 -0.025513 0.067995 -0.10715 0.10998 -0.089549 -0.022094 0.11322 0.03708 -0.0071863 -0.010664 0.084552 -0.07476 0.025666 0.0035927 -0.053109 0.006878 -0.010054 -0.0008856 0.030713 0.086195 0.028909 0.009131 -0.046561 -0.074506 0.0046051 -0.091113 0.042815 0.067843 0.075811 -0.019432 -0.12852 0.033037 -0.095813 0.057217 -0.035219 -0.00089269 -0.043733 -0.11563 0.056636 -0.020549 0.071984 -0.026981 0.020615 0.059437 -0.043304 -0.090399 -0.019679 0.065545 0.044817 -0.020489 0.098901 0.080023 0.21056 -0.053153 -0.13646 -0.12391 0.090055 -0.060067 -0.022648 0.010011 -0.13903 -0.021015 0.056234 -0.086992 -0.04504 -0.09939 -0.066179 0.15241 -0.035307 0.12865 -0.023739 -0.052828 0.016523 0.040823 0.0032462 0.13809 -0.065484 0.0036241 0.084706 0.010337 0.030848 -0.03661 0.14754 0.01798 0.15048 -0.028592 0.063456 0.05283 -0.035629 0.024402 0.10549 0.009896 0.014488 0.1213 0.11001 -0.068672 0.040863 -0.052677 0.069572 0.16006 0.0081977 0.085987 -0.087903 0.096685 -0.064569 0.026888 0.021505 0.003193 -0.045098 0.083278 -0.014309 -0.082923 0.0080728 0.032512 -0.045645 0.11889 0.085701 -0.10899 -0.098603 0.030822 0.11243 0.13006 -0.10786 0.11023 -0.081283 0.00068971 0.14129 0.02914 0.066675 0.012045 -0.05563 -0.032352 0.10844 0.052051 0.10837 0.044956 -0.1287 -0.030476 -0.054573 0.10974 0.058184 -0.081244 -0.055457 0.012563 -0.0048746 -0.028377 -0.043185 -0.031034 -0.0059271 -0.054505 0.075462 -0.0704 0.049586 0.030089 0.090582 0.10171 0.0058648 0.020518 -0.054854 -0.045346 0.055875 0.082314 0.097805 0.0026962 -0.021445 0.013236 0.1188 -0.10922 0.1166 0.089375 0.031867 0.091506 -0.053623 0.12119 0.013475 -0.040136 0.071929 0.038779 -0.046168 0.048131 0.035556 -0.10085 -0.011194 0.11793 0.017429 -0.00013918 0.026889 -0.081066 0.083237 -0.012117 
<tv> -0.04883 -0.038918 -0.061327 -0.044816 0.13004 0.084516 -0.046014 0.13039 -0.021417 -0.10463 0.012822 0.063273 0.071564 -0.045342 0.015889 -0.00073528 0.08538 -0.074694 -0.075477 -0.06542 0.070711 -0.11741 0.11745 0.044104 0.076011 -0.018569 -0.025115 0.054422 0.046215 0.0032039 -0.09895 -0.05289 0.018662 -0.036762 -0.013393 0.068421 -0.037402 -0.020145 0.047631 -0.044741 -0.019391 0.033916 -0.061806 0.032651 0.10168 -0.06955 0.033255 -0.05581 0.0295 0.086133 -0.14125 0.022212 -0.03788 0.07165 -0.0087331 0.10753 -0.026222 0.059484 0.18034 0.035557 -0.040751 -0.052966 0.028454 -0.20055 0.072869 0.028294 0.012089 0.065663 -0.055982 -0.153 -0.037691 0.0028467 0.019342 -0.0071826 0.074232 0.056121 0.043844 -0.064597 0.023272 -0.015278 0.020875 0.09059 0.013754 -0.029873 -0.056241 -0.014323 0.075829 -0.047426 0.060649 -0.0033604 -0.13703 -0.029778 -0.0055658 -0.010299 0.063131 -0.015703 -0.049414 0.062439 0.022703 0.06613 0.15106 0.056476 -0.023554 -0.014134 0.069778 0.10461 -0.0033407 0.091198 -0.022225 -0.002288 -0.024047 0.074571 -0.1019 0.10527 -0.094568 -0.015749 0.11424 0.038802 -0.020319 -0.0099876 0.092336 -0.067892 0.023176 0.0060208 -0.055248 0.0057398 -0.0062273 -0.0082308 0.029037 0.083171 0.035552 0.0053783 -0.038546 -0.063651 0.0058087 -0.094961 0.046455 0.071828 0.076742 -0.01385 -0.12903 0.036815 -0.10612 0.06368 -0.031113 0.0010711 -0.042893 -0.12291 0.055408 -0.023337 0.072931 -0.030876 0.029445 0.063972 -0.043679 -0.084945 -0.018501 0.06472 0.037851 -0.022144 0.096806 0.079539 0.21273 -0.058626 -0.14054 -0.1317 0.098794 -0.065576 -0.030093 0.017751 -0.13516 -0.02361 0.057179 -0.082444 -0.04257 -0.096578 -0.057559 0.1519 -0.034124 0.13054 -0.0304 -0.048672 0.011767 0.047609 0.0023479 0.13707 -0.063008 -0.0059736 0.084014 0.012404 0.028789 -0.03627 0.15063 0.020624 0.15052 -0.029393 0.066321 0.054043 -0.036825 0.025876 0.10469 0.014192 0.012655 0.11928 0.11968 -0.066634 0.039884 -0.054899 0.062551 0.16569 0.012932 0.081015 -0.092631 0.093605 -0.060505 0.02344 0.020283 0.0079975 -0.045252 0.083931 -0.0076053 -0.090495 0.0074271 0.035651 -0.042593 0.11638 0.084124 -0.10424 -0.088598 0.033022 0.11083 0.13466 -0.10063 0.10797 -0.07727 -0.010933 0.14864 0.022782 0.066285 0.0066117 -0.049915 -0.034778 0.10669 0.045976 0.10815 0.043505 -0.13241 -0.031888 -0.044431 0.11825 0.060461 -0.084309 -0.054192 0.0077939 -0.010074 -0.030609 -0.044782 -0.032353 -0.0076402 -0.063314 0.071451 -0.062866 0.046179 0.027666 0.087939 0.10447 0.004736 0.024802 -0.052051 -0.046861 0.05072 0.083288 0.087628 0.010683 -0.018742 0.014567 0.12106 -0.10388 0.10956 0.081711 0.031175 0.093257 -0.052331 0.12323 0.015293 -0.043162 0.071949 0.040722 -0.037646 0.05475 0.03165 -0.099981 -0.012414 0.11401 0.013266 0.0044808 0.027814 -0.080356 0.082949 -0.0098891 
<adv> -0.050317 -0.034391 -0.060058 -0.045661 0.13156 0.084104 -0.042241 0.13345 -0.020843 -0.104 0.013757 0.062167 0.068954 -0.045904 0.017327 -0.0039091 0.083745 -0.072094 -0.072454 -0.064576 0.070323 -0.11995 0.11855 0.039555 0.075192 -0.02295 -0.02184 0.055456 0.048317 0.00057994 -0.10291 -0.050944 0.01318 -0.038073 -0.01326 0.071168 -0.037409 -0.013645 0.051332 -0.042958 -0.017226 0.037768 -0.063736 0.032064 0.10168 -0.073339 0.035639 -0.057793 0.028507 0.088206 -0.13724 0.023422 -0.03356 0.071795 -0.0099425 0.1063 -0.027578 0.057275 0.17973 0.033533 -0.041894 -0.054512 0.026348 -0.19668 0.06899 0.030657 0.012946 0.067501 -0.048699 -0.14201 -0.036688 -0.0010983 0.017478 -0.0067115 0.080534 0.05913 0.041947 -0.067579 0.024781 -0.013643 0.019785 0.08841 0.014504 -0.03033 -0.055768 -0.017069 0.07892 -0.05114 0.062175 -0.00046614 -0.13938 -0.032285 -0.0088245 -0.0089867 0.062863 -0.015878 -0.055641 0.062677 0.022587 0.064245 0.14869 0.05557 -0.026064 -0.012756 0.06883 0.10589 -0.0021077 0.094444 -0.021681 0.0015281 -0.024506 0.071428 -0.10343 0.10784 -0.091712 -0.018468 0.11428 0.036852 -0.014762 -0.0090695 0.088055 -0.071061 0.024911 0.0048238 -0.055354 0.0063049 -0.0090209 -0.0027521 0.030105 0.083423 0.032347 0.0080105 -0.04171 -0.069428 0.0039009 -0.091948 0.044132 0.070845 0.0776 -0.01594 -0.12906 0.033991 -0.10001 0.060434 -0.032278 0.0015459 -0.042277 -0.12039 0.056282 -0.020279 0.074795 -0.027856 0.025809 0.062006 -0.042254 -0.08827 -0.019591 0.064311 0.041123 -0.021909 0.097097 0.078701 0.21192 -0.053727 -0.13818 -0.12611 0.093956 -0.061429 -0.029024 0.014404 -0.13756 -0.022021 0.056184 -0.084347 -0.044257 -0.09689 -0.061627 0.15032 -0.035871 0.12987 -0.029026 -0.051638 0.016032 0.04395 0.0032524 0.13743 -0.066424 -0.0018609 0.082509 0.0099425 0.030242 -0.035501 0.15022 0.021235 0.15096 -0.028834 0.064821 0.053791 -0.03473 0.025757 0.10534 0.011166 0.01471 0.12131 0.11298 -0.070426 0.039804 -0.055206 0.064327 0.16141 0.010322 0.083065 -0.090567 0.094973 -0.061484 0.023761 0.020033 0.0032513 -0.043781 0.081599 -0.011813 -0.086494 0.0084307 0.033729 -0.044733 0.11782 0.084672 -0.10724 -0.09461 0.033086 0.11118 0.13279 -0.10374 0.1094 -0.080101 -0.0060889 0.14406 0.024569 0.065086 0.0093664 -0.049824 -0.033195 0.10679 0.050168 0.10868 0.044593 -0.12992 -0.031813 -0.051196 0.11482 0.058744 -0.083869 -0.053997 0.0097414 -0.0074246 -0.029642 -0.043487 -0.031296 -0.0077698 -0.058427 0.072697 -0.065728 0.048175 0.028694 0.09007 0.10305 0.0043302 0.022468 -0.054462 -0.046789 0.054391 0.081408 0.091944 0.0065733 -0.020756 0.01423 0.12185 -0.10644 0.11319 0.086817 0.032182 0.092017 -0.053313 0.12142 0.013648 -0.041437 0.069809 0.03926 -0.041471 0.051331 0.034601 -0.1013 -0.010327 0.11622 0.015443 0.0015544 0.027287 -0.083967 0.083764 -0.011031 
<gen> -0.064875 -0.026444 -0.053313 -0.048537 0.14107 0.087539 -0.035846 0.14271 -0.022532 -0.10251 0.02187 0.060963 0.058078 -0.051348 0.018423 -0.012957 0.089649 -0.071092 -0.072163 -0.061257 0.064469 -0.12011 0.12415 0.034248 0.074546 -0.030704 -0.016214 0.054748 0.055371 0.00088778 -0.11064 -0.047225 -0.0017989 -0.043366 -0.019255 0.075977 -0.032446 -0.0028283 0.0654 -0.037049 -0.01378 0.044625 -0.065196 0.030293 0.095685 -0.082023 0.033844 -0.06636 0.033985 0.097805 -0.12835 0.029297 -0.018 0.064895 -0.0034473 0.10334 -0.038521 0.059699 0.1761 0.027823 -0.043328 -0.057047 0.027601 -0.19505 0.064095 0.032396 0.01487 0.072839 -0.038296 -0.13152 -0.033213 -0.012854 0.010126 -0.0036704 0.094018 0.074309 0.03584 -0.073132 0.024713 -0.0094421 0.0085211 0.084337 0.020384 -0.031057 -0.058556 -0.023977 0.076932 -0.054584 0.066032 -0.0015575 -0.13881 -0.03343 -0.017738 -0.0038886 0.063239 -0.012717 -0.0743 0.069192 0.020592 0.059989 0.1418 0.050708 -0.026283 -0.013987 0.06564 0.1145 -0.0034021 0.10563 -0.021079 0.013545 -0.03124 0.065682 -0.11061 0.11457 -0.086015 -0.029053 0.112 0.040155 -0.0028487 -0.011262 0.076691 -0.077087 0.020321 -0.0038802 -0.05268 0.0048186 -0.02332 0.01603 0.029807 0.082685 0.026905 0.014986 -0.053088 -0.082353 0.0027128 -0.088922 0.033588 0.067765 0.077125 -0.020636 -0.13331 0.027998 -0.08903 0.058354 -0.038154 -0.0010621 -0.042502 -0.10677 0.065356 -0.014947 0.080603 -0.026254 0.016023 0.051458 -0.0399 -0.095332 -0.022788 0.067502 0.055058 -0.019164 0.099162 0.081536 0.21288 -0.04939 -0.1325 -0.11723 0.085297 -0.067968 -0.016219 -0.0032358 -0.14047 -0.02454 0.058211 -0.087956 -0.045117 -0.10777 -0.06995 0.15006 -0.033715 0.12308 -0.026089 -0.057872 0.029062 0.03556 0.0024652 0.13232 -0.074497 0.015768 0.079226 0.0031936 0.034189 -0.041266 0.15215 0.021773 0.15508 -0.030717 0.072007 0.060034 -0.030043 0.024901 0.10743 0.0083044 0.01532 0.11852 0.095293 -0.07101 0.037519 -0.056732 0.071843 0.15484 0.0061812 0.091778 -0.089094 0.093662 -0.073855 0.035781 0.015953 0.0029832 -0.050648 0.074679 -0.023709 -0.07774 0.0069475 0.033293 -0.052228 0.1206 0.094854 -0.11967 -0.10864 0.032937 0.11618 0.12278 -0.11566 0.10753 -0.080777 0.0087219 0.12736 0.030244 0.059403 0.019214 -0.051129 -0.028428 0.10675 0.059833 0.10804 0.047746 -0.12039 -0.028149 -0.064699 0.098869 0.05278 -0.074748 -0.052739 0.0096055 -0.0051117 -0.027958 -0.047872 -0.02733 -0.0082859 -0.050942 0.084835 -0.083065 0.057951 0.032066 0.090059 0.10362 0.0040429 0.014595 -0.055313 -0.039948 0.061011 0.074504 0.10263 -0.0007532 -0.027586 0.0083739 0.11841 -0.11099 0.11744 0.086484 0.037025 0.092061 -0.050233 0.11297 0.010726 -0.045939 0.064428 0.041461 -0.042942 0.045413 0.042168 -0.10421 -0.0040475 0.11057 0.022019 -0.0017309 0.033634 -0.09706 0.10348 -0.011736 
<acc> -0.055592 -0.03256 -0.061629 -0.046351 0.13461 0.085292 -0.044001 0.13301 -0.022518 -0.10628 0.016267 0.064561 0.067914 -0.047594 0.016482 -0.005251 0.087524 -0.073447 -0.076265 -0.062099 0.068006 -0.11668 0.12028 0.043586 0.076 -0.021368 -0.021362 0.053803 0.049671 0.0037649 -0.10263 -0.048924 0.013531 -0.039029 -0.01689 0.07124 -0.034756 -0.013929 0.055387 -0.042772 -0.01875 0.038572 -0.064589 0.035714 0.10032 -0.075348 0.032984 -0.062131 0.033311 0.088478 -0.14026 0.025112 -0.031301 0.068313 -0.0071049 0.10648 -0.031521 0.060179 0.17933 0.034687 -0.041384 -0.053952 0.029487 -0.19912 0.067787 0.028403 0.014215 0.069955 -0.047167 -0.13 -0.033069 -0.00088088 0.017489 -0.0067792 0.079228 0.061905 0.043091 -0.067445 0.022916 -0.013131 0.016013 0.086761 0.015164 -0.027068 -0.054994 -0.016186 0.072595 -0.047761 0.065066 -0.002441 -0.13783 -0.031501 -0.0086403 -0.0094561 0.063915 -0.014258 -0.058934 0.066162 0.022844 0.061981 0.14656 0.055139 -0.025071 -0.014804 0.071018 0.1069 -0.002239 0.09421 -0.023576 0.0015885 -0.024945 0.070854 -0.10556 0.1086 -0.092661 -0.019008 0.11503 0.040136 -0.015411 -0.010976 0.084464 -0.069814 0.021671 0.0034038 -0.056014 0.0045421 -0.012852 0.0015112 0.027907 0.084094 0.032623 0.0099755 -0.042299 -0.070174 0.0083556 -0.091431 0.042426 0.071222 0.077027 -0.013314 -0.1305 0.03378 -0.10156 0.06303 -0.033826 -0.0011567 -0.040481 -0.1163 0.057797 -0.021001 0.073824 -0.026395 0.026911 0.059625 -0.040765 -0.088445 -0.019888 0.065107 0.043071 -0.019749 0.099478 0.081747 0.21155 -0.056014 -0.13422 -0.1239 0.0933 -0.066967 -0.028694 0.011719 -0.13726 -0.024773 0.056894 -0.084328 -0.043242 -0.10189 -0.061755 0.15318 -0.034364 0.12934 -0.027543 -0.053348 0.019216 0.04455 0.0026327 0.13578 -0.068652 0.001302 0.080866 0.0081289 0.031823 -0.038753 0.15216 0.022408 0.1517 -0.028729 0.068391 0.055666 -0.03673 0.026124 0.10578 0.012579 0.010396 0.11737 0.11108 -0.067569 0.03916 -0.055863 0.063784 0.16081 0.011984 0.085451 -0.092112 0.093779 -0.063528 0.02836 0.018869 0.0047075 -0.048826 0.082541 -0.012484 -0.089127 0.0054708 0.035754 -0.045263 0.11962 0.087329 -0.11091 -0.096328 0.033113 0.11053 0.12994 -0.10489 0.10972 -0.07893 -0.0030127 0.13847 0.021226 0.06412 0.011019 -0.051929 -0.033018 0.10341 0.05072 0.10884 0.047347 -0.13262 -0.028722 -0.051921 0.11085 0.063326 -0.081477 -0.053261 0.0088667 -0.0094772 -0.029817 -0.045831 -0.030246 -0.0072924 -0.059325 0.073857 -0.071741 0.050697 0.02933 0.086809 0.10422 0.0021414 0.019837 -0.052471 -0.0434 0.054676 0.07904 0.093703 0.00758 -0.025111 0.012831 0.11959 -0.10755 0.10942 0.084821 0.033232 0.094191 -0.051754 0.11854 0.014648 -0.045722 0.068592 0.043292 -0.038584 0.051168 0.032633 -0.1005 -0.0099261 0.11174 0.015328 0.0031635 0.028944 -0.081879 0.087618 -0.009051 
<pret> -0.052809 -0.034241 -0.05937 -0.04622 0.13484 0.085058 -0.042914 0.13487 -0.021746 -0.10547 0.015169 0.06499 0.068926 -0.045938 0.018892 -0.0050172 0.087288 -0.072701 -0.070978 -0.063315 0.068937 -0.11607 0.12106 0.042382 0.072854 -0.022822 -0.019949 0.055469 0.047635 -0.00042063 -0.1035 -0.049929 0.012581 -0.037006 -0.013766 0.070089 -0.037534 -0.012389 0.052427 -0.043621 -0.016395 0.038486 -0.063327 0.031312 0.10003 -0.075855 0.036039 -0.061493 0.028115 0.087126 -0.13352 0.023062 -0.029519 0.070033 -0.0076527 0.10775 -0.02733 0.058284 0.17633 0.032733 -0.042485 -0.055845 0.027885 -0.19686 0.066607 0.029987 0.012665 0.070125 -0.04419 -0.13049 -0.030892 -0.00093955 0.016284 -0.010117 0.081666 0.060313 0.041755 -0.066545 0.026315 -0.013293 0.016991 0.08945 0.015872 -0.031041 -0.057958 -0.017537 0.077403 -0.051151 0.063105 -0.0014916 -0.13976 -0.031393 -0.0087868 -0.0094996 0.064246 -0.013229 -0.05559 0.062738 0.020322 0.064692 0.14538 0.055298 -0.024841 -0.012812 0.070803 0.10926 -0.0034262 0.094427 -0.021646 0.0022256 -0.024725 0.070513 -0.10601 0.1083 -0.089716 -0.0178 0.11424 0.041506 -0.013767 -0.011228 0.084685 -0.073739 0.021773 0.0045966 -0.054615 0.0054268 -0.012517 0.00018494 0.028554 0.085434 0.033939 0.0080384 -0.043895 -0.069599 0.0052538 -0.092395 0.04254 0.070189 0.078681 -0.014263 -0.12731 0.031724 -0.098866 0.060409 -0.032719 0.0015305 -0.041329 -0.11616 0.057845 -0.022377 0.072937 -0.026421 0.022363 0.060441 -0.043575 -0.08845 -0.020173 0.065691 0.044265 -0.019316 0.098092 0.08231 0.21363 -0.055441 -0.13754 -0.12339 0.093142 -0.064723 -0.025966 0.011529 -0.13781 -0.024339 0.057589 -0.086564 -0.043701 -0.10143 -0.063741 0.15165 -0.034648 0.12909 -0.026306 -0.052212 0.019855 0.045806 0.0044016 0.13707 -0.066914 0.0012486 0.081081 0.010182 0.031837 -0.037842 0.15132 0.02195 0.15375 -0.028481 0.068534 0.054213 -0.03544 0.025939 0.10615 0.010582 0.013049 0.12215 0.11327 -0.068946 0.038339 -0.054651 0.064044 0.16187 0.010286 0.083097 -0.090184 0.094574 -0.064634 0.028455 0.018991 0.0044614 -0.047453 0.083457 -0.013275 -0.085555 0.0083832 0.034001 -0.045863 0.11921 0.085823 -0.11221 -0.096841 0.033576 0.11108 0.13162 -0.10685 0.10802 -0.079709 -0.0036599 0.13955 0.022122 0.063388 0.01133 -0.051085 -0.03318 0.10481 0.050381 0.10975 0.043106 -0.12963 -0.029292 -0.052997 0.11229 0.060408 -0.08291 -0.05238 0.010916 -0.0069399 -0.0291 -0.045173 -0.030112 -0.0071924 -0.058722 0.07244 -0.067618 0.049921 0.030602 0.089059 0.10353 0.0029917 0.020086 -0.053735 -0.04265 0.056136 0.080472 0.095091 0.005463 -0.023306 0.011943 0.12061 -0.10648 0.11199 0.083756 0.033371 0.094978 -0.05133 0.11963 0.014621 -0.044181 0.067539 0.039924 -0.042406 0.050445 0.035208 -0.10075 -0.0096682 0.11266 0.0158 0.0013778 0.027352 -0.082317 0.086746 -0.012161 
<adj> -0.057826 -0.030571 -0.058173 -0.047758 0.13772 0.086087 -0.038743 0.13948 -0.021089 -0.10249 0.015794 0.062887 0.064417 -0.048881 0.016705 -0.0081744 0.08696 -0.072118 -0.07492 -0.063865 0.071601 -0.12349 0.12198 0.037735 0.076802 -0.026101 -0.01976 0.055456 0.051033 0.00073063 -0.10732 -0.048181 0.005892 -0.041636 -0.016893 0.075494 -0.035114 -0.0085909 0.057288 -0.042146 -0.015223 0.041129 -0.065958 0.033025 0.1023 -0.07868 0.036656 -0.062351 0.033328 0.096513 -0.13962 0.026238 -0.027304 0.070948 -0.008866 0.10686 -0.033842 0.059124 0.18129 0.031769 -0.042151 -0.057925 0.02596 -0.19928 0.068867 0.033189 0.013884 0.071517 -0.047771 -0.14688 -0.036486 -0.0051974 0.015663 -0.0040404 0.089291 0.067985 0.041115 -0.070998 0.025411 -0.013161 0.015343 0.086973 0.017251 -0.029788 -0.058446 -0.02009 0.081704 -0.053014 0.063924 -0.0009158 -0.14003 -0.035177 -0.013259 -0.0048624 0.063488 -0.014067 -0.067784 0.067282 0.02283 0.060884 0.14729 0.055206 -0.026029 -0.012777 0.06776 0.11112 -0.0026784 0.10029 -0.021868 0.0081149 -0.028633 0.068441 -0.10812 0.11318 -0.090955 -0.022211 0.1156 0.036965 -0.0087148 -0.010724 0.084288 -0.072924 0.024673 0.0013155 -0.054979 0.0049721 -0.014312 0.0052246 0.0313 0.084318 0.03045 0.012538 -0.049797 -0.078878 0.0035927 -0.090664 0.04061 0.070667 0.078358 -0.019806 -0.13438 0.032258 -0.096071 0.059991 -0.035481 -0.00037255 -0.043044 -0.1177 0.060405 -0.017435 0.077753 -0.026273 0.020413 0.059343 -0.039519 -0.092773 -0.022666 0.065031 0.047204 -0.021376 0.09893 0.080606 0.21465 -0.051968 -0.13794 -0.1251 0.091928 -0.064707 -0.022572 0.0061987 -0.1418 -0.022671 0.058412 -0.087099 -0.04559 -0.10094 -0.067384 0.15223 -0.036352 0.12904 -0.027897 -0.053998 0.022578 0.039411 0.00074698 0.13789 -0.070103 0.0064111 0.081373 0.0077637 0.033635 -0.037808 0.15518 0.022314 0.15577 -0.02876 0.066982 0.057552 -0.033252 0.025773 0.10943 0.0085777 0.015305 0.12096 0.10505 -0.074225 0.039298 -0.057352 0.0689 0.15967 0.0098087 0.088308 -0.092265 0.095317 -0.067933 0.027412 0.018477 0.0020649 -0.048486 0.078305 -0.018145 -0.083477 0.0073706 0.035064 -0.048972 0.12193 0.091886 -0.11534 -0.10233 0.034717 0.11508 0.12998 -0.11105 0.111 -0.080691 0.0025231 0.13868 0.028629 0.064633 0.014115 -0.050648 -0.034092 0.10693 0.056059 0.10943 0.048171 -0.12846 -0.029316 -0.058503 0.10801 0.056761 -0.082467 -0.053857 0.011169 -0.0054841 -0.030145 -0.045923 -0.030728 -0.0065633 -0.055915 0.079416 -0.075744 0.0532 0.028125 0.092841 0.10282 0.0018715 0.019055 -0.054226 -0.047122 0.056806 0.079138 0.099268 0.0041176 -0.024749 0.013168 0.12321 -0.11045 0.11657 0.089019 0.035671 0.093172 -0.054165 0.12031 0.012988 -0.044437 0.070421 0.039582 -0.042886 0.049069 0.037794 -0.10425 -0.0087385 0.11739 0.019028 -0.0013991 0.030518 -0.092645 0.094596 -0.010683 
<attr> -0.062207 -0.027 -0.056035 -0.0496 0.14056 0.086392 -0.037707 0.14106 -0.02381 -0.10318 0.019368 0.061459 0.060288 -0.050472 0.017528 -0.011079 0.087589 -0.070616 -0.07359 -0.060934 0.065618 -0.12282 0.1222 0.036158 0.075236 -0.029473 -0.016383 0.054041 0.053045 0.0017096 -0.10959 -0.047487 0.001989 -0.040831 -0.017597 0.074439 -0.033264 -0.0047649 0.063011 -0.039241 -0.014083 0.042406 -0.06655 0.032761 0.098318 -0.07956 0.036014 -0.066058 0.034646 0.096518 -0.13256 0.029842 -0.023677 0.066823 -0.0053342 0.10458 -0.035437 0.059773 0.17791 0.029518 -0.043277 -0.055474 0.028052 -0.19601 0.064028 0.031089 0.015192 0.070872 -0.042102 -0.13471 -0.033555 -0.0094167 0.012711 -0.0051797 0.090475 0.070007 0.038575 -0.071027 0.023556 -0.0099097 0.012869 0.083973 0.018226 -0.028299 -0.055769 -0.021604 0.074519 -0.052345 0.064863 -0.0015504 -0.1386 -0.034398 -0.014271 -0.0046718 0.062774 -0.014243 -0.070902 0.069052 0.022587 0.059596 0.14228 0.053218 -0.026174 -0.013229 0.065923 0.11052 -0.0019467 0.10219 -0.022307 0.0098951 -0.029579 0.067797 -0.10884 0.11332 -0.088839 -0.02593 0.11326 0.039388 -0.0059777 -0.011377 0.079438 -0.073948 0.02109 -0.0001723 -0.054872 0.0043119 -0.019958 0.011921 0.028699 0.084082 0.028326 0.013895 -0.050628 -0.0801 0.0037831 -0.087661 0.036823 0.068464 0.076757 -0.018601 -0.13373 0.029274 -0.092127 0.059193 -0.036475 -0.0015075 -0.040557 -0.11109 0.063168 -0.016438 0.078917 -0.026214 0.018736 0.054419 -0.038557 -0.091628 -0.023044 0.065422 0.049311 -0.02092 0.097932 0.081708 0.21162 -0.049929 -0.13367 -0.11968 0.086975 -0.066495 -0.019957 0.0016113 -0.13864 -0.023728 0.05868 -0.08654 -0.044123 -0.10646 -0.067699 0.1488 -0.033502 0.12525 -0.026604 -0.056826 0.027377 0.037761 0.0012002 0.13481 -0.071563 0.010292 0.078008 0.0042648 0.033601 -0.041225 0.15173 0.023204 0.1541 -0.029913 0.070754 0.059435 -0.031217 0.027108 0.1093 0.0091732 0.012846 0.118 0.099664 -0.071056 0.03834 -0.056918 0.069942 0.15548 0.0079054 0.089687 -0.090272 0.095054 -0.069811 0.030847 0.016543 0.0027499 -0.050186 0.077093 -0.022844 -0.081475 0.0085401 0.031777 -0.049445 0.12076 0.092254 -0.1176 -0.10662 0.034182 0.11542 0.1257 -0.11473 0.10951 -0.081015 0.0059452 0.13092 0.027954 0.061942 0.016112 -0.049868 -0.031244 0.10454 0.057439 0.10847 0.048163 -0.12361 -0.028532 -0.060411 0.101 0.056328 -0.077668 -0.052746 0.010234 -0.0057917 -0.027946 -0.046559 -0.027394 -0.0072486 -0.053318 0.082241 -0.079423 0.056496 0.03023 0.089561 0.10231 0.0025414 0.015949 -0.05345 -0.041862 0.05898 0.074385 0.099245 0.0026823 -0.027124 0.0080563 0.12222 -0.10932 0.11589 0.087702 0.036274 0.092188 -0.050869 0.11452 0.011976 -0.045417 0.06565 0.042648 -0.042539 0.048378 0.037989 -0.10335 -0.0057749 0.11092 0.020165 -0.0011298 0.029662 -0.090807 0.096094 -0.010522 
<p3> -0.047096 -0.036411 -0.062365 -0.045964 0.13477 0.086005 -0.048397 0.1275 -0.0246 -0.10626 0.014092 0.069034 0.072474 -0.046283 0.017135 0.0046247 0.084477 -0.07479 -0.072595 -0.066887 0.071757 -0.11609 0.12062 0.046167 0.076272 -0.017888 -0.024053 0.058202 0.048686 0.0012198 -0.098477 -0.051857 0.022893 -0.03569 -0.017208 0.067284 -0.043586 -0.015278 0.047424 -0.047573 -0.020457 0.037182 -0.063538 0.029962 0.10435 -0.070679 0.038272 -0.059596 0.028819 0.081336 -0.14272 0.020219 -0.040162 0.07458 -0.0085696 0.11222 -0.023319 0.056479 0.1792 0.037863 -0.046663 -0.05311 0.026331 -0.20061 0.066685 0.026633 0.011833 0.068986 -0.051753 -0.13157 -0.029489 0.0032292 0.021955 -0.011192 0.07365 0.055456 0.045993 -0.062128 0.026347 -0.014958 0.023268 0.088363 0.017611 -0.028342 -0.051062 -0.014466 0.062185 -0.043323 0.066338 -0.0021009 -0.13581 -0.031394 -0.0047987 -0.010874 0.06817 -0.014723 -0.053573 0.064741 0.020557 0.065485 0.15009 0.057752 -0.029966 -0.014548 0.073621 0.10342 -0.0036762 0.090664 -0.023066 -0.0025718 -0.022032 0.076233 -0.1035 0.10491 -0.094846 -0.016472 0.11539 0.035014 -0.019869 -0.010598 0.091331 -0.070166 0.02483 0.0067149 -0.054289 0.0047978 -0.0085479 -0.0061307 0.029194 0.084563 0.036684 0.0066819 -0.035498 -0.062992 0.007917 -0.092255 0.047454 0.07248 0.081147 -0.010072 -0.12742 0.035972 -0.11115 0.068442 -0.026397 0.0024161 -0.03936 -0.12276 0.052985 -0.026027 0.072798 -0.02716 0.033225 0.065803 -0.041741 -0.087953 -0.012952 0.065606 0.037197 -0.020569 0.10149 0.08179 0.21315 -0.059206 -0.13681 -0.12829 0.096454 -0.065245 -0.033891 0.018451 -0.13859 -0.023117 0.055666 -0.083749 -0.045466 -0.097196 -0.057967 0.1514 -0.037566 0.13177 -0.026815 -0.054787 0.018105 0.048306 0.0080354 0.13704 -0.063453 -0.0086123 0.080201 0.0094481 0.030719 -0.036106 0.15431 0.021375 0.15503 -0.030166 0.065536 0.056424 -0.04061 0.023174 0.10432 0.012966 0.015414 0.12144 0.12346 -0.070163 0.043651 -0.055549 0.058061 0.16362 0.015407 0.0782 -0.090576 0.095106 -0.057144 0.024866 0.017686 0.0031944 -0.045053 0.084863 -0.010809 -0.086953 0.0075908 0.03265 -0.04388 0.1197 0.0798 -0.1045 -0.087359 0.034054 0.10774 0.13814 -0.099838 0.10823 -0.078911 -0.012955 0.14712 0.01539 0.065201 0.0096811 -0.051567 -0.033338 0.10312 0.046525 0.11345 0.046794 -0.13772 -0.029813 -0.048587 0.1184 0.067244 -0.088834 -0.055126 0.0068436 -0.010429 -0.029717 -0.049222 -0.032012 -0.0059943 -0.061818 0.068408 -0.065299 0.044857 0.030013 0.086745 0.10667 0.00056606 0.020224 -0.053516 -0.047521 0.054794 0.081069 0.088534 0.0093133 -0.019049 0.0091681 0.12316 -0.10537 0.11048 0.086546 0.027969 0.098102 -0.048957 0.11922 0.013332 -0.043767 0.068592 0.03962 -0.037388 0.056232 0.029148 -0.1036 -0.010994 0.11425 0.013337 0.0062464 0.023028 -0.080558 0.082231 -0.0077368 
<loc> -0.054066 -0.032695 -0.059028 -0.045041 0.13476 0.085395 -0.042209 0.13353 -0.021284 -0.1044 0.01564 0.063855 0.066117 -0.047329 0.017492 -0.0065876 0.086844 -0.072237 -0.073076 -0.063246 0.067366 -0.11771 0.12143 0.039702 0.073269 -0.022648 -0.019565 0.053662 0.049042 0.0015628 -0.10393 -0.049121 0.011241 -0.039391 -0.015928 0.071827 -0.035762 -0.0098125 0.055055 -0.042841 -0.015652 0.038151 -0.063659 0.032013 0.099531 -0.075544 0.034906 -0.060435 0.030839 0.089398 -0.13426 0.02559 -0.028604 0.067538 -0.0071324 0.10582 -0.02986 0.057955 0.17531 0.032264 -0.042113 -0.054338 0.027239 -0.19551 0.066778 0.029868 0.013563 0.069773 -0.046178 -0.13823 -0.034189 -0.00348 0.014746 -0.0077529 0.080693 0.061772 0.040247 -0.068085 0.024711 -0.012511 0.016915 0.087054 0.015347 -0.029644 -0.058369 -0.018933 0.077775 -0.052451 0.064443 -0.0013152 -0.13758 -0.030537 -0.010098 -0.0079116 0.064239 -0.013052 -0.059727 0.064617 0.02231 0.062571 0.14442 0.055541 -0.024749 -0.014647 0.068265 0.10732 -0.003459 0.095737 -0.022274 0.0026636 -0.025566 0.069536 -0.10516 0.10892 -0.090508 -0.019912 0.11412 0.03839 -0.012503 -0.012085 0.083635 -0.072054 0.021429 0.0037684 -0.054181 0.0058598 -0.013064 0.0028716 0.027944 0.084065 0.031241 0.010471 -0.044854 -0.07184 0.0052115 -0.090544 0.038907 0.069464 0.077492 -0.015407 -0.12708 0.031965 -0.097683 0.060092 -0.03406 0.0010574 -0.04135 -0.11446 0.057437 -0.020748 0.072704 -0.026102 0.023142 0.059136 -0.041117 -0.088384 -0.021294 0.064736 0.044678 -0.019842 0.098144 0.080986 0.21147 -0.052514 -0.1341 -0.12374 0.090203 -0.063467 -0.026251 0.010025 -0.13648 -0.024277 0.057908 -0.084444 -0.041622 -0.1023 -0.062612 0.15102 -0.033728 0.1276 -0.028206 -0.052387 0.020116 0.041968 0.0026853 0.13464 -0.067301 0.0040273 0.080959 0.0077891 0.031428 -0.039076 0.14956 0.021597 0.15161 -0.028509 0.066917 0.05601 -0.034974 0.024936 0.10562 0.011255 0.011806 0.11954 0.10914 -0.067919 0.039139 -0.055497 0.063971 0.15976 0.0098368 0.086566 -0.090269 0.093312 -0.064578 0.02889 0.018941 0.0043432 -0.047543 0.082192 -0.014616 -0.085297 0.0070657 0.034278 -0.046447 0.11882 0.086679 -0.11095 -0.099557 0.033084 0.11001 0.1297 -0.10653 0.10913 -0.079577 -0.0017073 0.13811 0.025097 0.063115 0.012725 -0.051403 -0.03338 0.1048 0.051417 0.10689 0.044649 -0.12829 -0.028622 -0.054558 0.10865 0.057899 -0.081604 -0.053138 0.0097826 -0.0081286 -0.028174 -0.045238 -0.029659 -0.0067848 -0.057339 0.074942 -0.071294 0.051179 0.029719 0.087769 0.10267 0.002778 0.020239 -0.053943 -0.043106 0.054816 0.077549 0.095418 0.0067675 -0.024998 0.0115 0.12035 -0.10704 0.11034 0.086031 0.032718 0.092522 -0.052531 0.11859 0.01317 -0.044541 0.067473 0.039999 -0.041176 0.050138 0.03393 -0.10054 -0.010094 0.11301 0.016892 0.0015284 0.027091 -0.081684 0.084878 -0.010787 
<pers> -0.044391 -0.038621 -0.064886 -0.045002 0.13021 0.08624 -0.052532 0.12122 -0.02394 -0.10756 0.01187 0.065417 0.07318 -0.047238 0.015919 0.0039376 0.083005 -0.073544 -0.078791 -0.065642 0.069621 -0.11324 0.11554 0.047393 0.077814 -0.013093 -0.026651 0.05569 0.045585 0.0047927 -0.097252 -0.052884 0.025563 -0.03482 -0.015872 0.064996 -0.037824 -0.021844 0.046356 -0.04739 -0.024998 0.03311 -0.062683 0.034374 0.10334 -0.069699 0.0349 -0.057758 0.030209 0.076471 -0.14542 0.022146 -0.048485 0.071589 -0.0063607 0.10973 -0.024848 0.059211 0.18125 0.040992 -0.042167 -0.048178 0.025487 -0.20037 0.069104 0.021756 0.012648 0.067212 -0.057759 -0.14178 -0.035019 0.0062421 0.024347 -0.012694 0.064518 0.049404 0.04601 -0.060108 0.021214 -0.015501 0.026151 0.088609 0.012516 -0.025199 -0.056136 -0.012063 0.071083 -0.045926 0.060868 -0.0049198 -0.13405 -0.02972 -0.00097981 -0.014591 0.064347 -0.01662 -0.044457 0.066567 0.025146 0.063273 0.15055 0.059136 -0.026876 -0.015969 0.073039 0.096805 -0.0026718 0.084052 -0.023897 -0.0095043 -0.021045 0.076587 -0.10021 0.10114 -0.098283 -0.012712 0.11639 0.037434 -0.02741 -0.011139 0.092635 -0.06361 0.022576 0.0099715 -0.058401 0.0051973 -0.0055478 -0.011221 0.027233 0.082769 0.037856 0.0037231 -0.031225 -0.054812 0.012385 -0.09433 0.048386 0.075904 0.078218 -0.0065032 -0.12735 0.041225 -0.11315 0.069644 -0.028048 0.0014752 -0.03886 -0.12433 0.049569 -0.026014 0.065571 -0.027963 0.037159 0.067347 -0.041162 -0.081805 -0.015119 0.065002 0.030295 -0.022576 0.097282 0.082169 0.20993 -0.061833 -0.13722 -0.13377 0.099747 -0.068526 -0.039633 0.026261 -0.13131 -0.026333 0.054611 -0.078866 -0.041256 -0.097427 -0.052575 0.15388 -0.034823 0.13378 -0.03103 -0.049086 0.011511 0.051674 0.0035093 0.13585 -0.062018 -0.013242 0.078958 0.011049 0.027505 -0.038886 0.1527 0.021286 0.14846 -0.028679 0.064109 0.053914 -0.039331 0.024941 0.10436 0.015242 0.0088293 0.11976 0.12501 -0.066197 0.04201 -0.056435 0.056006 0.16697 0.017941 0.075911 -0.093825 0.094541 -0.052376 0.019926 0.019963 0.0062087 -0.045457 0.088164 -0.0050855 -0.095685 0.0070479 0.034973 -0.039824 0.11776 0.078743 -0.10025 -0.083962 0.033692 0.1043 0.13822 -0.09506 0.10619 -0.075172 -0.016812 0.15011 0.015451 0.066349 0.0040687 -0.048692 -0.035792 0.10159 0.043482 0.1107 0.045312 -0.14188 -0.032617 -0.040915 0.12366 0.069857 -0.088927 -0.054681 0.0066191 -0.010646 -0.03074 -0.047016 -0.030744 -0.007666 -0.068012 0.067294 -0.060791 0.044562 0.029791 0.08447 0.10759 0.0030114 0.025884 -0.051866 -0.047532 0.04994 0.082058 0.083431 0.015127 -0.019797 0.012291 0.12281 -0.10189 0.10471 0.084222 0.02869 0.096967 -0.051224 0.12212 0.015117 -0.046725 0.069941 0.044646 -0.032729 0.057489 0.023803 -0.10009 -0.012364 0.11096 0.010106 0.0086452 0.019529 -0.063992 0.066575 -0.0044904 
<cnjcoo> -0.057945 -0.030072 -0.058089 -0.047205 0.13656 0.084768 -0.040179 0.13551 -0.023943 -0.10459 0.018954 0.063494 0.06452 -0.048918 0.018851 -0.0061578 0.087578 -0.072024 -0.070797 -0.062984 0.0668 -0.11709 0.12264 0.04013 0.076251 -0.02597 -0.018811 0.056205 0.050728 0.00035903 -0.10475 -0.04903 0.0088196 -0.03857 -0.016835 0.070945 -0.036792 -0.0091566 0.057739 -0.040392 -0.015677 0.042183 -0.065081 0.03294 0.098672 -0.077786 0.034282 -0.06518 0.032359 0.091218 -0.13482 0.024469 -0.026598 0.068271 -0.006376 0.10577 -0.03107 0.058008 0.17737 0.03115 -0.041825 -0.054143 0.028175 -0.19684 0.06476 0.029153 0.013942 0.069756 -0.044414 -0.12936 -0.030886 -0.0048319 0.01606 -0.0067941 0.086634 0.067107 0.041059 -0.068122 0.02482 -0.012738 0.015251 0.085367 0.017202 -0.027515 -0.054395 -0.019527 0.07033 -0.048934 0.065814 -0.0019806 -0.13772 -0.032177 -0.012284 -0.0074247 0.065556 -0.014422 -0.062529 0.066857 0.021607 0.061401 0.14564 0.052951 -0.027179 -0.013148 0.068196 0.10878 -0.0032531 0.099318 -0.022452 0.0067427 -0.026885 0.06899 -0.1073 0.11066 -0.090219 -0.023875 0.11297 0.038376 -0.0091154 -0.0094924 0.084202 -0.073122 0.021957 0.00076846 -0.054305 0.005227 -0.016397 0.0052535 0.028724 0.083607 0.029243 0.011272 -0.044477 -0.072323 0.0058378 -0.090541 0.039118 0.070779 0.077884 -0.015547 -0.13095 0.031326 -0.098826 0.061935 -0.033144 -0.00012542 -0.041744 -0.1152 0.060016 -0.018253 0.07612 -0.026799 0.023479 0.058837 -0.040784 -0.092118 -0.018965 0.064756 0.047159 -0.019719 0.10065 0.08219 0.21208 -0.054109 -0.13752 -0.1233 0.093323 -0.067497 -0.025103 0.0083805 -0.13926 -0.02493 0.057033 -0.085091 -0.046618 -0.10239 -0.066086 0.15134 -0.035602 0.12714 -0.026379 -0.056515 0.022518 0.042204 0.0053725 0.1355 -0.071442 0.0053645 0.080558 0.0072966 0.033116 -0.038257 0.15211 0.02063 0.15401 -0.027864 0.067652 0.055517 -0.035633 0.023884 0.10515 0.011041 0.013221 0.11955 0.10783 -0.070056 0.039827 -0.055482 0.066484 0.15794 0.0089653 0.08526 -0.089299 0.0938 -0.065761 0.028047 0.01709 0.0033308 -0.049108 0.080521 -0.015436 -0.082602 0.0060077 0.033922 -0.047189 0.11878 0.088159 -0.11147 -0.099849 0.032479 0.11227 0.12881 -0.10896 0.10804 -0.082041 0.00054863 0.13472 0.023894 0.064645 0.014283 -0.052001 -0.031949 0.10453 0.054474 0.11093 0.048138 -0.1283 -0.028962 -0.057261 0.10676 0.06068 -0.079837 -0.054932 0.0078933 -0.0076744 -0.029302 -0.048784 -0.028842 -0.0085807 -0.055344 0.076815 -0.072682 0.051075 0.03036 0.088358 0.10534 0.0030368 0.018262 -0.052306 -0.043489 0.059186 0.078907 0.096176 0.0026356 -0.023566 0.01035 0.11935 -0.10824 0.11403 0.086046 0.033069 0.094538 -0.04955 0.1156 0.012271 -0.044099 0.066748 0.041828 -0.041189 0.050857 0.036096 -0.10161 -0.0077607 0.1136 0.017501 0.0014348 0.026032 -0.079257 0.082535 -0.01003 
<p1> -0.042653 -0.04094 -0.064235 -0.044562 0.1294 0.086148 -0.054823 0.11709 -0.025404 -0.10956 0.011557 0.067548 0.075537 -0.048054 0.017384 0.0062147 0.080446 -0.074856 -0.080379 -0.066657 0.070155 -0.11206 0.11578 0.049924 0.078775 -0.0096141 -0.028629 0.053584 0.047866 0.0056327 -0.095042 -0.053812 0.031453 -0.035138 -0.016824 0.062781 -0.039214 -0.022552 0.043713 -0.049459 -0.026648 0.031366 -0.062623 0.033904 0.10541 -0.064585 0.036546 -0.05783 0.031082 0.073862 -0.14989 0.020747 -0.052819 0.071917 -0.0076193 0.11197 -0.023668 0.058395 0.18045 0.044791 -0.044965 -0.047365 0.02535 -0.20389 0.066493 0.020878 0.010884 0.066308 -0.05378 -0.12687 -0.030636 0.0095987 0.029312 -0.014241 0.060231 0.045675 0.047665 -0.05654 0.022215 -0.016796 0.026139 0.089444 0.012088 -0.022351 -0.049525 -0.010439 0.057729 -0.037071 0.062796 -0.006503 -0.13408 -0.026502 0.0013377 -0.015115 0.064282 -0.018826 -0.040134 0.065569 0.0227 0.064765 0.15323 0.059633 -0.028242 -0.017351 0.075536 0.096546 -0.0044122 0.078772 -0.02583 -0.012461 -0.018852 0.081139 -0.099887 0.099471 -0.097509 -0.010217 0.11715 0.036706 -0.031708 -0.0084735 0.093385 -0.061823 0.022715 0.012001 -0.057046 0.0037032 -0.0039209 -0.011761 0.029085 0.08457 0.041233 0.0044597 -0.028427 -0.051238 0.014383 -0.095392 0.052224 0.074401 0.076769 -0.0017181 -0.12732 0.044765 -0.11916 0.073529 -0.025201 9.0551e-05 -0.038349 -0.12458 0.048995 -0.029929 0.066072 -0.029887 0.042639 0.066668 -0.040529 -0.080774 -0.011333 0.06708 0.027591 -0.021014 0.099194 0.082899 0.21198 -0.064266 -0.13391 -0.13529 0.10019 -0.068938 -0.042128 0.028546 -0.13109 -0.026525 0.055068 -0.080837 -0.040578 -0.097041 -0.051494 0.15274 -0.034257 0.13498 -0.030871 -0.053692 0.01227 0.054113 0.0043103 0.13581 -0.059561 -0.017457 0.07836 0.0084634 0.02756 -0.039305 0.15449 0.022315 0.15049 -0.031556 0.065508 0.05501 -0.041948 0.026298 0.10382 0.018391 0.008455 0.11784 0.13269 -0.065988 0.043718 -0.054549 0.051534 0.1675 0.020746 0.073486 -0.091917 0.094984 -0.05142 0.020767 0.017488 0.0048917 -0.047613 0.089847 -0.0052312 -0.097535 0.006244 0.037056 -0.037313 0.11906 0.074934 -0.099407 -0.079935 0.034554 0.10388 0.13986 -0.092439 0.10444 -0.073819 -0.021055 0.15272 0.010239 0.065849 0.0033565 -0.051872 -0.036954 0.10022 0.041244 0.11264 0.04543 -0.14578 -0.032346 -0.038643 0.12614 0.07401 -0.088848 -0.053987 0.0042299 -0.013873 -0.031627 -0.048312 -0.030812 -0.0081144 -0.070515 0.064888 -0.058245 0.042539 0.030088 0.080931 0.10898 0.0021199 0.024983 -0.051749 -0.049593 0.050783 0.082652 0.080953 0.017872 -0.015922 0.0097311 0.12409 -0.10271 0.10584 0.086309 0.026824 0.098062 -0.050247 0.12138 0.014568 -0.04731 0.069756 0.044458 -0.031949 0.060824 0.02089 -0.10154 -0.012773 0.10838 0.006938 0.011715 0.020192 -0.068026 0.073408 -0.002744 
<prop> -0.06125 -0.028618 -0.056842 -0.049852 0.14364 0.091125 -0.038745 0.14508 -0.020517 -0.10765 0.018051 0.063578 0.056376 -0.047429 0.014428 -0.014576 0.092193 -0.071769 -0.078599 -0.061974 0.067109 -0.12173 0.1236 0.038537 0.07382 -0.028426 -0.014084 0.052842 0.05361 0.0017124 -0.11271 -0.046573 -0.0004154 -0.046007 -0.015746 0.078134 -0.030394 -0.0035562 0.065195 -0.037567 -0.012162 0.04178 -0.064577 0.033412 0.097921 -0.082012 0.034003 -0.063547 0.035892 0.10127 -0.13656 0.032076 -0.018497 0.065336 -0.0038824 0.10653 -0.038755 0.063027 0.17947 0.031071 -0.044133 -0.059727 0.028929 -0.19902 0.066975 0.031966 0.013458 0.073094 -0.03923 -0.13194 -0.032291 -0.0099184 0.0092354 -0.006941 0.090184 0.070419 0.038983 -0.074797 0.02353 -0.0083006 0.01018 0.09043 0.02059 -0.030208 -0.061882 -0.021791 0.082479 -0.055377 0.067532 -0.0024843 -0.14459 -0.032077 -0.015144 -0.0073101 0.061529 -0.013865 -0.072891 0.067912 0.021152 0.05963 0.14105 0.056639 -0.021048 -0.014182 0.066748 0.1152 -0.0017185 0.10343 -0.019977 0.010844 -0.031344 0.066357 -0.11413 0.1178 -0.086878 -0.023187 0.11592 0.044208 -0.0046171 -0.014454 0.074232 -0.078203 0.022875 -0.0013161 -0.05384 0.0047238 -0.019666 0.01444 0.02898 0.088151 0.029882 0.015346 -0.055368 -0.083171 0.0043948 -0.093435 0.036066 0.068261 0.076009 -0.022046 -0.13314 0.026919 -0.086296 0.057863 -0.041251 -0.0026578 -0.040347 -0.10642 0.063824 -0.019213 0.074677 -0.023958 0.014978 0.053035 -0.040901 -0.092591 -0.026807 0.071487 0.053289 -0.01912 0.098837 0.085215 0.21446 -0.052246 -0.13143 -0.12208 0.085605 -0.069271 -0.015229 -0.0040418 -0.14177 -0.024373 0.059304 -0.090026 -0.040543 -0.11002 -0.069366 0.15416 -0.030935 0.12776 -0.025583 -0.057007 0.027984 0.036575 -0.0020101 0.13435 -0.071276 0.015568 0.078608 0.0051696 0.035029 -0.042309 0.15148 0.023427 0.15545 -0.031137 0.072673 0.060904 -0.029889 0.026772 0.11218 0.0077859 0.01376 0.11838 0.10009 -0.068421 0.03546 -0.056314 0.071945 0.15959 0.0060388 0.096012 -0.091835 0.095947 -0.074793 0.036975 0.017841 0.0062396 -0.052684 0.07986 -0.024542 -0.083179 0.0075094 0.033818 -0.052512 0.12212 0.095084 -0.12439 -0.11131 0.032783 0.11565 0.1242 -0.12014 0.11197 -0.078449 0.008783 0.13056 0.029667 0.062419 0.017221 -0.053359 -0.029687 0.10598 0.056701 0.10613 0.045186 -0.12391 -0.027473 -0.062998 0.099871 0.053809 -0.07776 -0.049568 0.012414 -0.0052928 -0.027215 -0.043968 -0.027989 -0.0068093 -0.055001 0.085836 -0.085235 0.059484 0.031862 0.091719 0.10197 0.0044486 0.014642 -0.056286 -0.040594 0.057923 0.076075 0.10615 0.00043641 -0.031677 0.0090361 0.12068 -0.1136 0.11609 0.087457 0.038571 0.092252 -0.0533 0.11699 0.014737 -0.050242 0.066236 0.043463 -0.044572 0.046994 0.039872 -0.10455 -0.0051839 0.10974 0.018291 -0.0010286 0.033674 -0.094061 0.10583 -0.010765 
<cm> -0.06385 -0.029026 -0.054735 -0.047344 0.13994 0.085758 -0.036197 0.14455 -0.022099 -0.10385 0.021388 0.06118 0.059652 -0.047435 0.020293 -0.011501 0.088031 -0.070329 -0.071854 -0.063205 0.064564 -0.11744 0.12434 0.038527 0.073881 -0.029965 -0.015096 0.053499 0.050051 0.0016541 -0.10685 -0.047758 0.0026723 -0.040659 -0.015433 0.073825 -0.033464 -0.0089464 0.063046 -0.039419 -0.01461 0.044439 -0.066964 0.032646 0.096434 -0.080237 0.034595 -0.065415 0.032841 0.098104 -0.13436 0.030091 -0.018794 0.066581 -0.0053384 0.1023 -0.034642 0.06025 0.17729 0.029697 -0.03819 -0.056918 0.029775 -0.19687 0.065359 0.03281 0.015082 0.070481 -0.042323 -0.13475 -0.034879 -0.0078975 0.012235 -0.0041325 0.09101 0.069995 0.037115 -0.073657 0.022298 -0.013329 0.0080434 0.0861 0.016156 -0.030851 -0.057239 -0.021198 0.078514 -0.053607 0.064793 -0.000619 -0.14124 -0.030157 -0.014321 -0.006087 0.063939 -0.013492 -0.065007 0.065676 0.021087 0.063557 0.14286 0.049989 -0.024263 -0.015498 0.065 0.1113 -0.0032342 0.10376 -0.022896 0.011196 -0.030124 0.066854 -0.11067 0.11311 -0.089402 -0.028315 0.11144 0.043032 -0.0065003 -0.0071165 0.080529 -0.074769 0.01789 -0.0021514 -0.053208 0.0054481 -0.019369 0.010708 0.02989 0.083418 0.027255 0.011876 -0.050082 -0.07822 0.0029589 -0.091113 0.036091 0.068634 0.076615 -0.017084 -0.13058 0.029544 -0.091104 0.056865 -0.039843 -0.0027111 -0.042563 -0.11072 0.064387 -0.015788 0.077325 -0.02576 0.015955 0.05365 -0.042525 -0.093831 -0.022438 0.066538 0.051668 -0.018628 0.1006 0.082405 0.21242 -0.051399 -0.13619 -0.11675 0.088317 -0.066836 -0.018842 0.0015711 -0.13857 -0.023942 0.060803 -0.086332 -0.047388 -0.10754 -0.068833 0.15135 -0.03537 0.12407 -0.025798 -0.056725 0.023626 0.039318 0.0028417 0.13411 -0.069891 0.014658 0.083244 0.0063366 0.03314 -0.040913 0.14862 0.019985 0.15441 -0.02713 0.073352 0.055979 -0.033389 0.028132 0.10673 0.01213 0.01331 0.11796 0.1008 -0.069228 0.037409 -0.054437 0.072703 0.15843 0.0045635 0.089126 -0.091473 0.093304 -0.072194 0.032593 0.018835 0.0051417 -0.048191 0.080662 -0.019577 -0.079201 0.0076487 0.034248 -0.050339 0.11929 0.092248 -0.11583 -0.10587 0.030885 0.11809 0.1255 -0.11319 0.10972 -0.082653 0.0068221 0.13202 0.028759 0.062731 0.016332 -0.053086 -0.031333 0.1081 0.055533 0.11011 0.046834 -0.12303 -0.028347 -0.058792 0.10264 0.055574 -0.074311 -0.054751 0.0090437 -0.0075457 -0.027019 -0.048808 -0.027374 -0.0074187 -0.052838 0.080943 -0.076054 0.055299 0.031545 0.089275 0.10202 0.0033769 0.017034 -0.052118 -0.040632 0.059018 0.07623 0.098478 0.0014077 -0.024563 0.010424 0.11923 -0.11066 0.11625 0.085342 0.037102 0.089762 -0.053015 0.11911 0.011551 -0.045348 0.06724 0.041875 -0.045226 0.047431 0.03958 -0.10034 -0.0070685 0.11196 0.021203 0.0010574 0.033802 -0.092645 0.10022 -0.013322 
<inf> -0.047895 -0.036528 -0.061381 -0.044982 0.13094 0.083933 -0.044634 0.13007 -0.022401 -0.10632 0.013044 0.066176 0.071402 -0.0447 0.017112 0.00055408 0.084601 -0.073665 -0.073362 -0.06617 0.072103 -0.11567 0.1199 0.045705 0.077115 -0.017199 -0.023461 0.053641 0.045745 0.00090916 -0.097265 -0.050548 0.020539 -0.034755 -0.013758 0.069489 -0.039564 -0.018037 0.047616 -0.04653 -0.01817 0.03708 -0.063645 0.034054 0.10458 -0.072475 0.036322 -0.05898 0.029885 0.086348 -0.14545 0.020806 -0.03746 0.072097 -0.011183 0.10914 -0.024072 0.0565 0.17967 0.036506 -0.039937 -0.052953 0.02731 -0.19988 0.068814 0.02852 0.012301 0.066699 -0.048662 -0.12744 -0.030567 0.0039478 0.020751 -0.0080484 0.077272 0.054427 0.046322 -0.065126 0.024489 -0.017372 0.021007 0.089494 0.013253 -0.029047 -0.051066 -0.013676 0.069499 -0.043502 0.063778 -0.0022624 -0.13807 -0.03159 -0.0063425 -0.010115 0.06644 -0.015699 -0.049426 0.062376 0.021867 0.064968 0.14994 0.05565 -0.026848 -0.012962 0.071599 0.10337 -0.0037256 0.090843 -0.023883 -0.0024234 -0.021651 0.074043 -0.10298 0.10504 -0.094199 -0.016109 0.11615 0.036974 -0.019157 -0.0080457 0.090758 -0.06871 0.024126 0.006862 -0.053853 0.0061506 -0.0073556 -0.0083283 0.028753 0.084091 0.034476 0.0065298 -0.037101 -0.063318 0.0076659 -0.093862 0.047492 0.072794 0.07873 -0.010184 -0.12835 0.037123 -0.1078 0.063353 -0.029246 0.00122 -0.042556 -0.12259 0.053906 -0.024196 0.072435 -0.027806 0.030231 0.065463 -0.044021 -0.087458 -0.016359 0.064886 0.036823 -0.020881 0.1001 0.080892 0.21338 -0.058588 -0.14128 -0.13009 0.099344 -0.064403 -0.033234 0.018953 -0.13671 -0.023102 0.056357 -0.083815 -0.045533 -0.095678 -0.060133 0.15295 -0.036926 0.13167 -0.028937 -0.051784 0.012641 0.048124 0.0049104 0.13836 -0.064448 -0.0061068 0.083533 0.011453 0.030875 -0.035937 0.15211 0.019998 0.154 -0.027663 0.062452 0.051983 -0.039785 0.024632 0.10367 0.014831 0.013671 0.12106 0.12194 -0.068836 0.042381 -0.053128 0.061532 0.16514 0.013008 0.079332 -0.090936 0.094731 -0.058122 0.022574 0.020258 0.0056569 -0.045443 0.08713 -0.0092963 -0.090033 0.006172 0.035385 -0.042327 0.11827 0.08288 -0.10285 -0.089688 0.03327 0.10964 0.13655 -0.099033 0.10868 -0.079803 -0.009338 0.1473 0.019196 0.066573 0.0081728 -0.052508 -0.035906 0.1056 0.046997 0.1107 0.045898 -0.13724 -0.030182 -0.048191 0.12088 0.065885 -0.085628 -0.05468 0.0070048 -0.0090703 -0.031807 -0.047102 -0.031304 -0.0073252 -0.06212 0.068669 -0.061095 0.044431 0.029312 0.08805 0.10559 0.00185 0.023162 -0.052743 -0.04892 0.054943 0.083395 0.089514 0.009582 -0.018552 0.013717 0.12187 -0.10595 0.11143 0.086583 0.029032 0.094373 -0.052221 0.12307 0.013535 -0.041445 0.071876 0.039138 -0.039812 0.054752 0.031421 -0.10003 -0.011948 0.11668 0.01327 0.0049 0.024717 -0.076294 0.077098 -0.0093653 
<ill> -0.057381 -0.031951 -0.059522 -0.049159 0.14008 0.086762 -0.04275 0.13636 -0.02501 -0.10799 0.01699 0.064357 0.063938 -0.048844 0.016917 -0.0066938 0.087808 -0.072265 -0.07689 -0.062501 0.066557 -0.11961 0.12117 0.041663 0.075226 -0.02365 -0.019729 0.055231 0.050837 0.0041611 -0.10553 -0.04817 0.0090254 -0.039441 -0.017055 0.071974 -0.035214 -0.0095507 0.05935 -0.041401 -0.016949 0.039168 -0.064748 0.032522 0.099685 -0.075515 0.033934 -0.064105 0.034374 0.090734 -0.13671 0.028568 -0.030099 0.066399 -0.0046775 0.10902 -0.033952 0.059026 0.17917 0.033789 -0.043103 -0.053034 0.027865 -0.19977 0.066082 0.028368 0.015131 0.071833 -0.044078 -0.12997 -0.031265 -0.0043314 0.01647 -0.0097648 0.08243 0.063632 0.041711 -0.069548 0.022829 -0.010685 0.016632 0.08741 0.018256 -0.028099 -0.055925 -0.018044 0.071027 -0.048917 0.066184 -0.0031498 -0.13966 -0.031427 -0.01147 -0.00902 0.063037 -0.014214 -0.063559 0.06749 0.022619 0.062801 0.14542 0.055142 -0.024926 -0.014289 0.068213 0.10738 -0.0023451 0.09634 -0.022923 0.0036347 -0.026373 0.072036 -0.10871 0.1106 -0.090039 -0.02126 0.11445 0.039362 -0.012094 -0.011156 0.082951 -0.072917 0.020852 0.0023451 -0.055656 0.0055399 -0.016183 0.0057756 0.027349 0.084708 0.032247 0.011224 -0.044882 -0.072977 0.0071881 -0.091893 0.041142 0.07118 0.077255 -0.01457 -0.13182 0.031186 -0.097977 0.063922 -0.034282 -0.00083575 -0.038944 -0.11318 0.061675 -0.022297 0.076576 -0.027739 0.024536 0.059109 -0.039423 -0.0893 -0.021487 0.067276 0.043756 -0.021276 0.09855 0.083889 0.21271 -0.055741 -0.13488 -0.12516 0.090529 -0.069526 -0.024449 0.0077492 -0.13803 -0.026169 0.056766 -0.086536 -0.042336 -0.10649 -0.063305 0.15282 -0.031782 0.12792 -0.028427 -0.056201 0.023159 0.042826 0.0019694 0.13469 -0.069209 0.0041516 0.078748 0.0048303 0.032348 -0.040983 0.15253 0.021918 0.15526 -0.030467 0.070166 0.058822 -0.034634 0.027304 0.10931 0.012173 0.011282 0.11933 0.10921 -0.069149 0.039183 -0.055365 0.065813 0.16069 0.0099056 0.086314 -0.091968 0.095086 -0.066501 0.031457 0.016602 0.0052378 -0.050744 0.083058 -0.018861 -0.086378 0.0082255 0.033275 -0.046779 0.11954 0.088906 -0.11397 -0.10119 0.033808 0.11213 0.12917 -0.10992 0.10815 -0.078665 -0.0010525 0.13563 0.023199 0.063334 0.013842 -0.050701 -0.032443 0.10418 0.052587 0.10953 0.046661 -0.12924 -0.02876 -0.055759 0.10631 0.059682 -0.081912 -0.052679 0.0083081 -0.008624 -0.02884 -0.04809 -0.028618 -0.0073366 -0.058406 0.078544 -0.075445 0.054397 0.030885 0.088213 0.10347 0.0040708 0.016938 -0.05366 -0.043049 0.057715 0.077001 0.095297 0.0062252 -0.025626 0.0080625 0.12117 -0.10803 0.11232 0.087303 0.034283 0.093129 -0.049306 0.11619 0.013016 -0.047766 0.066728 0.042693 -0.040096 0.052335 0.034538 -0.1027 -0.0077411 0.10874 0.015294 0.0032642 0.027437 -0.083364 0.089721 -0.0082028 
<dem> -0.053043 -0.034397 -0.061042 -0.046193 0.13263 0.083828 -0.043161 0.13327 -0.020475 -0.1046 0.014553 0.062945 0.067242 -0.045562 0.016441 -0.0047667 0.08586 -0.072142 -0.072665 -0.065605 0.068076 -0.11644 0.11952 0.042841 0.07616 -0.022289 -0.018798 0.054759 0.045756 0.0010469 -0.10175 -0.049832 0.014374 -0.037828 -0.013138 0.0702 -0.035383 -0.015999 0.052693 -0.043906 -0.018647 0.039473 -0.06503 0.034163 0.09891 -0.075726 0.034772 -0.059932 0.029575 0.087098 -0.13778 0.022387 -0.0311 0.071391 -0.0078219 0.10567 -0.027326 0.059274 0.17758 0.034137 -0.039484 -0.054539 0.028178 -0.19668 0.068596 0.029203 0.012634 0.067515 -0.047635 -0.13455 -0.033544 0.00034901 0.016742 -0.0079483 0.080321 0.059391 0.043449 -0.066815 0.022005 -0.013208 0.017183 0.08926 0.012947 -0.029622 -0.056147 -0.016978 0.078637 -0.051318 0.063068 -0.00094031 -0.13971 -0.030801 -0.0078658 -0.0095905 0.064682 -0.013534 -0.054054 0.063638 0.023284 0.062201 0.14575 0.056646 -0.023658 -0.013614 0.069196 0.10556 -0.0017261 0.094332 -0.022453 0.0021094 -0.02566 0.069643 -0.10449 0.10742 -0.092982 -0.018993 0.11443 0.038849 -0.014963 -0.0096201 0.085832 -0.070985 0.022755 0.0039175 -0.055505 0.0054003 -0.010349 -0.0042379 0.028349 0.083972 0.031129 0.0075861 -0.041913 -0.068464 0.005903 -0.092671 0.042591 0.071587 0.077571 -0.01495 -0.12808 0.033096 -0.10018 0.060696 -0.0347 -0.00067913 -0.042093 -0.11881 0.055733 -0.021772 0.071854 -0.025272 0.024649 0.059802 -0.043353 -0.08835 -0.020482 0.064938 0.041301 -0.020255 0.099056 0.081495 0.21078 -0.054816 -0.13743 -0.12457 0.094262 -0.064328 -0.027954 0.014908 -0.13618 -0.022702 0.057235 -0.08305 -0.044285 -0.099681 -0.062387 0.15248 -0.036263 0.13131 -0.027072 -0.050668 0.016053 0.04417 0.0038527 0.13681 -0.065241 0.00031736 0.08278 0.011481 0.030007 -0.035901 0.14945 0.020574 0.14991 -0.026849 0.066515 0.052572 -0.035816 0.025341 0.10437 0.011239 0.012181 0.11972 0.11282 -0.067935 0.039183 -0.055138 0.065727 0.16256 0.009749 0.083588 -0.090791 0.094029 -0.062661 0.025464 0.020297 0.0061745 -0.046114 0.084275 -0.010867 -0.08746 0.0068829 0.03512 -0.044762 0.11853 0.085084 -0.108 -0.095321 0.032045 0.11053 0.13186 -0.1052 0.10978 -0.079855 -0.0036489 0.14226 0.022796 0.066436 0.0093222 -0.051792 -0.032833 0.10558 0.050209 0.10922 0.045071 -0.13207 -0.030274 -0.050982 0.11276 0.062526 -0.082264 -0.053772 0.010484 -0.0072429 -0.029055 -0.045101 -0.031288 -0.006414 -0.058804 0.073199 -0.066855 0.047956 0.029845 0.089038 0.10312 0.0037748 0.021703 -0.051797 -0.044955 0.054361 0.08132 0.093249 0.0066046 -0.023098 0.014116 0.11897 -0.10669 0.1101 0.083924 0.033725 0.092741 -0.052507 0.12254 0.014315 -0.043115 0.07056 0.040588 -0.040874 0.051224 0.033072 -0.098378 -0.010381 0.11416 0.015529 0.0037254 0.026113 -0.076318 0.08155 -0.011029 
<cnjsub> -0.05229 -0.034828 -0.05974 -0.045777 0.13288 0.085208 -0.04299 0.13371 -0.02282 -0.10521 0.015798 0.064501 0.06912 -0.046634 0.018364 -0.0027367 0.085243 -0.073132 -0.072209 -0.065659 0.06941 -0.1184 0.12038 0.041999 0.075669 -0.022234 -0.022096 0.055734 0.047559 0.00041651 -0.10064 -0.049931 0.015617 -0.037134 -0.014596 0.070005 -0.039855 -0.014041 0.052135 -0.044305 -0.01783 0.039444 -0.064244 0.032533 0.10197 -0.073507 0.03638 -0.060549 0.029068 0.08746 -0.1392 0.021973 -0.033054 0.071431 -0.0092827 0.10695 -0.027531 0.056703 0.17836 0.034352 -0.040751 -0.053948 0.028173 -0.19719 0.067193 0.030226 0.012623 0.068236 -0.045542 -0.12705 -0.031528 -0.00057588 0.019049 -0.0072904 0.081574 0.059911 0.043005 -0.066794 0.024383 -0.015387 0.018811 0.088035 0.01461 -0.028672 -0.053033 -0.018097 0.071293 -0.048053 0.063999 -0.0010912 -0.13808 -0.031641 -0.0083613 -0.0092097 0.066583 -0.015462 -0.054667 0.06396 0.021695 0.064562 0.14881 0.054516 -0.026591 -0.013275 0.068991 0.1054 -0.0036056 0.093481 -0.023382 0.0013502 -0.023725 0.071387 -0.10336 0.10763 -0.092935 -0.020539 0.11469 0.036502 -0.013413 -0.0090294 0.089125 -0.071472 0.024269 0.0045865 -0.055122 0.0062069 -0.010371 -0.0031636 0.028807 0.083894 0.031607 0.0075287 -0.039915 -0.068037 0.0063264 -0.091052 0.044205 0.071098 0.07807 -0.014091 -0.12715 0.034179 -0.10265 0.061776 -0.030842 0.00068968 -0.04175 -0.11997 0.055822 -0.021457 0.074463 -0.027801 0.027025 0.062384 -0.042648 -0.089372 -0.017612 0.064096 0.041118 -0.021221 0.0996 0.08071 0.21249 -0.055351 -0.13989 -0.12628 0.095425 -0.063875 -0.029945 0.01535 -0.13822 -0.02258 0.057069 -0.084863 -0.046032 -0.098853 -0.061439 0.1522 -0.03617 0.12926 -0.027792 -0.052983 0.016686 0.045729 0.006573 0.13788 -0.067542 -0.002416 0.082914 0.0098191 0.03147 -0.03644 0.15131 0.020105 0.15246 -0.028436 0.063907 0.052993 -0.038023 0.023714 0.10408 0.013339 0.013759 0.12058 0.11446 -0.069876 0.041233 -0.054058 0.064196 0.16135 0.010933 0.081093 -0.090122 0.095172 -0.061198 0.024577 0.019655 0.003667 -0.044561 0.08346 -0.010836 -0.086146 0.0064963 0.033584 -0.044496 0.11893 0.084218 -0.10576 -0.093514 0.032492 0.1112 0.13349 -0.10326 0.10857 -0.081589 -0.0055662 0.14307 0.023492 0.065866 0.009772 -0.051924 -0.033334 0.10632 0.050159 0.11102 0.045687 -0.13149 -0.030821 -0.050733 0.11405 0.061853 -0.083547 -0.05659 0.0091004 -0.0083925 -0.030218 -0.04675 -0.030976 -0.0074021 -0.058025 0.071535 -0.066359 0.046854 0.030233 0.088515 0.10547 0.0023937 0.022672 -0.053181 -0.046094 0.056304 0.082378 0.092666 0.0062992 -0.019662 0.013208 0.12168 -0.10737 0.11266 0.086922 0.030626 0.095094 -0.051128 0.12063 0.013478 -0.04169 0.070209 0.040254 -0.040621 0.052177 0.033255 -0.099824 -0.010776 0.1164 0.016396 0.002402 0.025439 -0.077632 0.078168 -0.011028 
<prfprc> -0.051013 -0.034936 -0.061863 -0.04562 0.13286 0.085185 -0.043821 0.13394 -0.021258 -0.1057 0.01466 0.065169 0.068971 -0.044901 0.017205 -0.003157 0.085308 -0.074909 -0.073046 -0.067213 0.070092 -0.1164 0.12167 0.0435 0.076296 -0.021195 -0.021537 0.055164 0.045647 0.0012585 -0.10017 -0.049797 0.017198 -0.037317 -0.014041 0.070491 -0.03796 -0.017037 0.051244 -0.044799 -0.016436 0.038648 -0.066008 0.034088 0.10265 -0.075231 0.036185 -0.05952 0.031188 0.090007 -0.14311 0.02169 -0.031827 0.071925 -0.009512 0.1076 -0.026206 0.057123 0.17927 0.034583 -0.040323 -0.054886 0.027701 -0.1998 0.069353 0.031107 0.012022 0.068102 -0.049243 -0.13794 -0.033126 0.0016862 0.019564 -0.0075202 0.080494 0.058278 0.045343 -0.067347 0.024189 -0.016597 0.017833 0.090756 0.013841 -0.030071 -0.053575 -0.015292 0.073204 -0.048642 0.064593 -0.00056991 -0.14103 -0.031705 -0.0076096 -0.0094439 0.067456 -0.01473 -0.053617 0.063633 0.022193 0.06406 0.14899 0.056352 -0.025148 -0.014325 0.070057 0.10746 -0.0036624 0.094637 -0.023483 0.0016586 -0.022676 0.071415 -0.10383 0.10859 -0.095019 -0.018008 0.11694 0.038389 -0.015627 -0.0084845 0.088432 -0.071078 0.023792 0.005042 -0.054163 0.0052222 -0.0083732 -0.0056464 0.029809 0.085461 0.033489 0.0081741 -0.041664 -0.069526 0.0063757 -0.093609 0.043261 0.072973 0.079336 -0.013076 -0.12955 0.035596 -0.10359 0.060935 -0.032515 -0.00059317 -0.042314 -0.12151 0.05641 -0.023857 0.073612 -0.027838 0.026153 0.062436 -0.043799 -0.08938 -0.019669 0.065662 0.041 -0.020639 0.10065 0.082176 0.21379 -0.05648 -0.13978 -0.12725 0.09691 -0.064451 -0.029652 0.015284 -0.13931 -0.023807 0.057889 -0.08491 -0.045798 -0.099735 -0.063898 0.15507 -0.036874 0.1322 -0.027293 -0.052127 0.014143 0.04681 0.0044212 0.13893 -0.066419 -0.0014662 0.085066 0.01189 0.031576 -0.036798 0.15209 0.020029 0.15322 -0.02684 0.065068 0.051964 -0.039005 0.023877 0.10498 0.012899 0.014297 0.12158 0.11829 -0.068833 0.041348 -0.055331 0.064799 0.16455 0.010656 0.083263 -0.091713 0.095079 -0.061413 0.024891 0.01981 0.0050139 -0.046391 0.086172 -0.010252 -0.087891 0.0066267 0.035959 -0.045168 0.11988 0.085487 -0.1073 -0.094038 0.03283 0.1113 0.13575 -0.10369 0.1107 -0.082113 -0.0043223 0.14621 0.022706 0.067243 0.0097295 -0.054013 -0.035322 0.10752 0.050325 0.11164 0.044963 -0.13535 -0.02964 -0.051021 0.11671 0.063616 -0.08414 -0.055371 0.0090662 -0.0089746 -0.030991 -0.047017 -0.031802 -0.0066659 -0.060608 0.07125 -0.065329 0.047096 0.029703 0.089461 0.10608 0.0012693 0.022516 -0.05369 -0.046827 0.056087 0.083151 0.093887 0.0071383 -0.020023 0.014312 0.12341 -0.10782 0.11233 0.087236 0.031621 0.094883 -0.052934 0.12413 0.012912 -0.04257 0.072983 0.039903 -0.042179 0.052884 0.033166 -0.10044 -0.012136 0.1177 0.016758 0.0035634 0.026492 -0.078074 0.082181 -0.010368 
<p2> -0.034678 -0.040176 -0.06783 -0.043719 0.12784 0.084695 -0.055836 0.11725 -0.020431 -0.11198 0.0095241 0.068068 0.080331 -0.044082 0.012302 0.0081234 0.079701 -0.071671 -0.085013 -0.068168 0.07135 -0.11133 0.11097 0.056483 0.081352 -0.0055195 -0.0278 0.051837 0.041979 0.0099836 -0.092522 -0.053279 0.035737 -0.031345 -0.013075 0.061654 -0.037015 -0.028196 0.042063 -0.050775 -0.023866 0.031857 -0.066125 0.035702 0.10661 -0.063287 0.036862 -0.055977 0.030585 0.070854 -0.15321 0.020688 -0.05398 0.075184 -0.0086403 0.11292 -0.019102 0.05847 0.18332 0.046086 -0.037964 -0.04819 0.026127 -0.20673 0.073998 0.017641 0.01057 0.062969 -0.060381 -0.13429 -0.033148 0.01382 0.028896 -0.017175 0.057103 0.038976 0.051452 -0.057652 0.020732 -0.016456 0.028854 0.093435 0.010606 -0.022467 -0.051162 -0.0048961 0.062945 -0.03834 0.061251 -0.007482 -0.1362 -0.023257 0.0047094 -0.019385 0.065137 -0.017031 -0.032912 0.062923 0.024312 0.063868 0.15272 0.0603 -0.027348 -0.015707 0.073003 0.092497 0.0011758 0.077023 -0.026372 -0.015861 -0.015875 0.080106 -0.097317 0.098381 -0.10186 -0.010815 0.11704 0.037706 -0.036567 -0.0065079 0.094196 -0.060714 0.024066 0.0096827 -0.058164 0.0044203 -0.00024365 -0.022568 0.026123 0.08322 0.04065 0.0021371 -0.026015 -0.047563 0.01883 -0.10209 0.056191 0.077048 0.075658 -0.0024374 -0.12544 0.043292 -0.12162 0.070267 -0.026407 -0.0042607 -0.037347 -0.12948 0.048267 -0.034341 0.062691 -0.027308 0.045004 0.069929 -0.043332 -0.078258 -0.012532 0.06941 0.021305 -0.0218 0.098546 0.086143 0.20752 -0.068949 -0.13917 -0.13836 0.10416 -0.070154 -0.043228 0.033471 -0.12681 -0.025157 0.053826 -0.076115 -0.043007 -0.094774 -0.049015 0.15596 -0.035901 0.13973 -0.028462 -0.048099 0.0027994 0.055991 0.0028199 0.13562 -0.054834 -0.021108 0.07912 0.013592 0.026405 -0.036206 0.14814 0.019398 0.14766 -0.026718 0.059652 0.047615 -0.04335 0.027144 0.10278 0.021121 0.0059703 0.11394 0.13686 -0.061566 0.043032 -0.05396 0.054275 0.17247 0.019977 0.072523 -0.095962 0.0947 -0.046934 0.016691 0.022017 0.012564 -0.045814 0.09816 -0.00085433 -0.10157 0.0062084 0.035579 -0.034773 0.11612 0.072904 -0.092512 -0.074492 0.033035 0.10288 0.14363 -0.08689 0.10634 -0.073105 -0.023126 0.16047 0.0090581 0.072432 -0.00031744 -0.052196 -0.03766 0.10234 0.037702 0.10779 0.04356 -0.14897 -0.028413 -0.031959 0.13261 0.079801 -0.091566 -0.054985 0.0056047 -0.013392 -0.029859 -0.04901 -0.033038 -0.0052724 -0.073454 0.063861 -0.051473 0.038336 0.027353 0.082107 0.10596 0.0018902 0.027097 -0.048663 -0.051491 0.049743 0.085314 0.076985 0.017384 -0.015889 0.012799 0.12349 -0.10335 0.10197 0.081846 0.026196 0.092643 -0.053792 0.12733 0.015441 -0.047484 0.074178 0.044102 -0.030445 0.063062 0.017798 -0.093814 -0.015269 0.11142 0.0039406 0.014874 0.018859 -0.054327 0.06475 -0.0012657 
<post> -0.053622 -0.032325 -0.059681 -0.047329 0.13644 0.0855 -0.043659 0.1329 -0.023509 -0.1051 0.01537 0.065096 0.066177 -0.048502 0.017629 -0.0036556 0.085793 -0.0723 -0.074347 -0.06422 0.068806 -0.11798 0.12041 0.041406 0.077402 -0.021694 -0.020894 0.055654 0.050114 0.0026494 -0.10443 -0.050265 0.012781 -0.037799 -0.017188 0.070413 -0.037123 -0.011497 0.055071 -0.042908 -0.017833 0.038264 -0.065154 0.032394 0.10154 -0.075116 0.035704 -0.063751 0.032995 0.087991 -0.13825 0.025028 -0.032664 0.070161 -0.007008 0.109 -0.030417 0.058952 0.17827 0.033909 -0.043868 -0.053835 0.026794 -0.20016 0.06668 0.028959 0.01256 0.069563 -0.047841 -0.13733 -0.032498 -0.0026324 0.018348 -0.0083986 0.081295 0.061923 0.042837 -0.066991 0.025417 -0.013085 0.018599 0.08622 0.017729 -0.028047 -0.054338 -0.016178 0.068541 -0.046794 0.064441 -0.0036279 -0.13833 -0.031363 -0.0096067 -0.007596 0.06525 -0.013792 -0.059645 0.066153 0.022014 0.061584 0.14729 0.055985 -0.02679 -0.014895 0.069824 0.10759 -0.0023366 0.09473 -0.023353 0.0027378 -0.025372 0.073082 -0.10582 0.10875 -0.09294 -0.020276 0.11418 0.036639 -0.014566 -0.0096985 0.085898 -0.071238 0.022683 0.004133 -0.054939 0.0043823 -0.013276 0.001664 0.028602 0.084931 0.032861 0.010749 -0.04221 -0.070418 0.0069923 -0.092022 0.041161 0.07179 0.079072 -0.013443 -0.13056 0.033482 -0.10288 0.064302 -0.032098 0.0001178 -0.041266 -0.11772 0.057858 -0.022333 0.072976 -0.02641 0.027403 0.06005 -0.039689 -0.089775 -0.018809 0.067359 0.043538 -0.020406 0.099732 0.08171 0.21354 -0.056044 -0.13609 -0.12631 0.0926 -0.066929 -0.028318 0.011738 -0.13788 -0.024792 0.057781 -0.084023 -0.044727 -0.10115 -0.063669 0.15145 -0.035571 0.12943 -0.028287 -0.05582 0.021127 0.04403 0.0035954 0.13573 -0.067284 0.00083518 0.079464 0.0077566 0.031787 -0.038463 0.1529 0.022535 0.15497 -0.029821 0.067893 0.057766 -0.036314 0.025461 0.10594 0.012328 0.012974 0.1189 0.11399 -0.070236 0.041114 -0.056457 0.063053 0.16094 0.011981 0.084114 -0.090463 0.094331 -0.063424 0.026753 0.016578 0.0030121 -0.048905 0.081688 -0.014557 -0.086683 0.0067995 0.034408 -0.045628 0.11986 0.086566 -0.11058 -0.097473 0.034375 0.11088 0.13302 -0.10592 0.10929 -0.078969 -0.003514 0.14097 0.021027 0.062982 0.013144 -0.05059 -0.033337 0.10445 0.052821 0.11046 0.047145 -0.13257 -0.029038 -0.053947 0.11149 0.062552 -0.082848 -0.053803 0.0067053 -0.0090359 -0.029348 -0.048564 -0.030427 -0.0075341 -0.057952 0.075248 -0.070768 0.050387 0.029936 0.088393 0.10588 0.0024457 0.018508 -0.053791 -0.045552 0.057017 0.07879 0.093748 0.0077784 -0.023416 0.0095432 0.12201 -0.10747 0.11276 0.087295 0.032051 0.094323 -0.050807 0.1182 0.012527 -0.045811 0.068219 0.041392 -0.039441 0.053467 0.033779 -0.10283 -0.0090193 0.113 0.015 0.0032559 0.026906 -0.084087 0.08894 -0.0092532 
<neg> -0.044515 -0.039817 -0.059834 -0.045059 0.12778 0.080985 -0.04363 0.13164 -0.020898 -0.10585 0.010688 0.064509 0.072741 -0.041488 0.018615 0.00024908 0.083455 -0.071671 -0.072344 -0.068075 0.072602 -0.1174 0.11894 0.04505 0.075437 -0.018751 -0.023604 0.053221 0.042306 -0.002612 -0.096031 -0.051249 0.0202 -0.032158 -0.0077344 0.068528 -0.042276 -0.019877 0.044358 -0.046929 -0.016283 0.036081 -0.064411 0.033635 0.10503 -0.071378 0.037317 -0.057408 0.024755 0.08464 -0.13978 0.016613 -0.036891 0.075051 -0.013794 0.10705 -0.020871 0.054606 0.17881 0.033884 -0.037289 -0.054647 0.027053 -0.1977 0.070712 0.031231 0.0087053 0.063464 -0.051604 -0.14185 -0.034492 0.0052937 0.021681 -0.010365 0.078884 0.051525 0.04631 -0.065178 0.025874 -0.019759 0.024411 0.092783 0.0122 -0.031079 -0.051934 -0.015512 0.077368 -0.047208 0.061523 -0.0013667 -0.14027 -0.029461 -0.0057683 -0.011103 0.066589 -0.016372 -0.042275 0.057362 0.020907 0.066258 0.15224 0.055975 -0.025706 -0.010626 0.068444 0.1024 -0.002983 0.088498 -0.022039 -0.0040873 -0.01984 0.072437 -0.099961 0.10474 -0.093887 -0.016787 0.11486 0.037434 -0.019082 -0.0050036 0.092384 -0.070232 0.026275 0.008972 -0.053852 0.0074648 -0.0029337 -0.014463 0.028161 0.085154 0.032461 0.004171 -0.036937 -0.061784 0.0056209 -0.09538 0.048812 0.070821 0.077397 -0.012179 -0.12436 0.035755 -0.10588 0.059027 -0.029363 0.0003254 -0.043334 -0.12729 0.05488 -0.026623 0.071636 -0.029443 0.027161 0.068607 -0.047269 -0.087923 -0.018071 0.064471 0.036064 -0.022805 0.099315 0.082412 0.21498 -0.059688 -0.14529 -0.13065 0.098044 -0.059753 -0.032045 0.022832 -0.13519 -0.02053 0.05639 -0.084715 -0.048872 -0.093611 -0.061752 0.15357 -0.039039 0.13341 -0.028078 -0.049261 0.0093802 0.051291 0.005941 0.14316 -0.062828 -0.0077433 0.087303 0.014857 0.030327 -0.033449 0.15112 0.017841 0.15198 -0.026736 0.060834 0.0461 -0.039925 0.025296 0.10289 0.014058 0.01486 0.1237 0.12579 -0.070682 0.043293 -0.052021 0.062513 0.16671 0.011504 0.078272 -0.091054 0.096444 -0.056777 0.018848 0.02311 0.0045623 -0.042392 0.08999 -0.0041705 -0.090097 0.0073518 0.034025 -0.040944 0.11729 0.081752 -0.099522 -0.090433 0.030861 0.11113 0.1404 -0.10147 0.10926 -0.081746 -0.011143 0.1534 0.022456 0.070329 0.0055005 -0.052974 -0.03772 0.10929 0.045871 0.11 0.042211 -0.13526 -0.032532 -0.045367 0.12415 0.065671 -0.088293 -0.058184 0.0081481 -0.0083212 -0.030516 -0.046837 -0.031223 -0.0059799 -0.061582 0.06682 -0.05533 0.040712 0.029513 0.091714 0.10504 0.0039358 0.027426 -0.052876 -0.05234 0.055274 0.089124 0.091235 0.008185 -0.015025 0.015778 0.12373 -0.10571 0.1128 0.087081 0.028586 0.095662 -0.053007 0.12817 0.013812 -0.03892 0.073882 0.038474 -0.04305 0.05674 0.031224 -0.096186 -0.013971 0.12076 0.013317 0.0053276 0.023904 -0.072374 0.070233 -0.013119 
<conneg> -0.045107 -0.039473 -0.062557 -0.044246 0.12668 0.081366 -0.046349 0.12836 -0.019824 -0.10574 0.011922 0.066351 0.075169 -0.042669 0.018634 0.0026857 0.08345 -0.073325 -0.070554 -0.069774 0.072501 -0.1162 0.11814 0.046229 0.074724 -0.016811 -0.025161 0.055754 0.040896 -0.00012398 -0.094886 -0.051519 0.023645 -0.033362 -0.009104 0.06715 -0.043117 -0.021016 0.042928 -0.047576 -0.018224 0.036508 -0.064009 0.033701 0.10529 -0.069126 0.037912 -0.055474 0.024952 0.082566 -0.1436 0.01759 -0.039709 0.076082 -0.011909 0.10741 -0.02083 0.055533 0.18001 0.036623 -0.037284 -0.054652 0.028475 -0.19821 0.070222 0.030764 0.01065 0.064208 -0.053693 -0.1401 -0.033357 0.0069332 0.023309 -0.0095813 0.075269 0.05022 0.046811 -0.063364 0.024343 -0.02002 0.023796 0.091445 0.010905 -0.030171 -0.05259 -0.014395 0.076085 -0.047914 0.062137 -0.00042909 -0.13925 -0.029884 -0.0039592 -0.012008 0.066892 -0.016619 -0.040565 0.057918 0.021474 0.067697 0.15232 0.05675 -0.025262 -0.012141 0.070332 0.10168 -0.0026441 0.087988 -0.023148 -0.004958 -0.020733 0.073262 -0.099756 0.10323 -0.096125 -0.015748 0.11504 0.03596 -0.01934 -0.0065276 0.095389 -0.070384 0.02497 0.0088627 -0.053942 0.0081066 -0.00054333 -0.015827 0.029091 0.084865 0.034779 0.0033396 -0.03473 -0.059822 0.0072259 -0.095251 0.04915 0.073244 0.077633 -0.010654 -0.12432 0.036779 -0.10927 0.061359 -0.029499 0.0014792 -0.042991 -0.12796 0.052913 -0.025778 0.071869 -0.029999 0.029788 0.067762 -0.046281 -0.086486 -0.01582 0.062606 0.033765 -0.022265 0.099542 0.080019 0.21203 -0.057865 -0.14393 -0.13012 0.099673 -0.060012 -0.034852 0.024605 -0.13571 -0.02172 0.055363 -0.084156 -0.046755 -0.091463 -0.058759 0.1535 -0.038196 0.13254 -0.028183 -0.048693 0.0081456 0.050683 0.0055177 0.14094 -0.061138 -0.0097668 0.08656 0.015097 0.029176 -0.034469 0.14959 0.017736 0.15048 -0.026678 0.060131 0.047293 -0.040613 0.024659 0.10238 0.015651 0.013645 0.12273 0.12589 -0.070006 0.043148 -0.05216 0.061696 0.1669 0.012631 0.07548 -0.089787 0.095529 -0.054681 0.018187 0.023666 0.0055457 -0.041079 0.089117 -0.0031793 -0.089714 0.0081289 0.034698 -0.040114 0.11736 0.079289 -0.097516 -0.086999 0.031503 0.1089 0.14045 -0.098174 0.109 -0.081574 -0.012364 0.15359 0.020233 0.069382 0.0047203 -0.052614 -0.037713 0.10552 0.045004 0.11019 0.04331 -0.1367 -0.031679 -0.042036 0.12442 0.066501 -0.087768 -0.056855 0.008423 -0.010027 -0.03156 -0.046415 -0.033251 -0.0075251 -0.061544 0.064607 -0.054127 0.038511 0.029278 0.089989 0.10479 0.001864 0.026268 -0.05198 -0.0513 0.0529 0.088744 0.08555 0.010349 -0.015149 0.016714 0.12262 -0.10448 0.10963 0.085136 0.028439 0.09499 -0.052524 0.12799 0.017069 -0.038403 0.07406 0.038316 -0.042113 0.055982 0.030519 -0.096287 -0.014106 0.12112 0.011001 0.0051627 0.022583 -0.068962 0.068742 -0.011006 
