#Parameter# /vanilla-lstm-builder/_0 {128,300} 614401 ZERO_GRAD
+9.91611332e-02 -4.14933860e-02 +1.62912503e-01 +9.95554328e-02 +2.14708745e-01 +1.19106643e-01 +4.78808545e-02 -1.86132267e-02 +1.37295425e-01 +1.29557073e-01 +1.07805766e-02 +1.64026339e-02 +9.21729282e-02 +9.12643448e-02 +1.66835949e-01 +1.36496127e-02 +2.78653856e-03 +9.69013423e-02 +8.72345343e-02 +7.03635290e-02 +9.93548241e-03 +7.78097957e-02 +2.08288789e-01 +7.06126466e-02 +1.09918341e-01 +1.97982147e-01 +1.16565384e-01 -1.34860456e-01 +1.98081970e-01 -4.32596393e-02 +9.62756127e-02 +2.19264880e-01 -3.10929362e-02 +8.55123773e-02 -1.16364457e-01 +7.09446438e-04 +7.69645125e-02 +1.18046358e-01 -1.49011146e-02 +7.97056928e-02 -1.62503049e-01 -1.43834483e-02 -4.72703017e-02 +8.54433775e-02 -5.20668142e-02 +7.45917112e-02 +5.59674874e-02 -9.92130265e-02 -4.30999137e-02 -6.24747090e-02 -2.36496240e-01 +6.28970265e-02 -4.56995368e-02 -5.95236570e-02 -2.37081964e-02 -1.29924016e-02 +1.70497652e-02 -2.14043818e-02 +3.00380681e-02 -3.42810862e-02 -8.42383131e-02 +1.31064102e-01 +1.11682646e-01 -1.34365752e-01 +1.21150367e-01 +8.82358477e-02 +1.82838917e-01 +1.06739782e-01 +1.17889643e-01 -3.75733413e-02 +1.81743816e-01 +1.30734831e-01 +2.03740597e-01 +2.17514664e-01 +1.89447105e-01 +1.46358088e-01 +2.33889356e-01 -3.72006884e-03 +1.32729918e-01 +6.65931851e-02 +5.06344996e-02 +2.24187613e-01 -1.27604362e-02 -5.66188954e-02 -6.11269511e-02 +7.10606761e-03 +2.29406700e-01 +2.03949675e-01 -4.83597890e-02 +6.38385043e-02 +2.86479980e-01 +6.43061250e-02 +3.41763608e-02 -3.04089650e-03 -1.47312075e-01 +1.08688571e-01 -8.05680975e-02 +1.76217541e-01 +1.48745298e-01 +1.99595436e-01 +9.20979027e-03 -6.59289211e-02 +1.06021650e-01 -1.51131721e-02 -8.76014978e-02 +1.94580052e-02 -4.29547504e-02 -9.18389559e-02 +2.80291624e-02 -6.04801252e-03 -1.50545239e-01 +4.51148711e-02 -1.69566080e-01 +1.86751962e-01 +3.41673195e-02 -1.83454677e-01 +2.14889243e-01 +9.98829529e-02 -7.76431412e-02 -2.48272374e-01 +5.20633422e-02 -6.02848344e-02 -2.74256945e-01 -2.64812291e-01 -5.84222898e-02 -2.55095750e-01 +9.78715047e-02 +5.63633963e-02 +2.27042902e-02 +5.72222173e-02 +1.46276489e-01 +1.11597523e-01 +5.91525761e-03 +1.70367390e-01 +2.09645301e-01 -1.94208957e-02 +1.31363317e-01 +8.62603784e-02 +1.73517302e-01 +4.72205244e-02 +2.62676906e-02 +8.10248703e-02 +1.43052429e-01 -1.16215609e-01 +1.73774794e-01 +6.90538585e-02 +1.00280330e-01 +6.42830953e-02 +6.94984719e-02 -2.45514773e-02 +6.84743300e-02 +2.24378362e-01 +1.12074964e-01 +4.10949588e-02 +1.09111294e-01 -4.77867723e-02 +1.92244321e-01 +2.21128196e-01 +4.54028547e-02 +8.05101767e-02 +9.11788493e-02 +9.24117342e-02 -2.15673801e-02 -7.33750239e-02 +2.35310152e-01 +3.71669494e-02 -2.70797219e-02 -9.09770057e-02 +1.89462677e-01 -6.06981441e-02 +1.29353032e-01 +3.43273789e-01 -5.61698489e-02 +3.37526090e-02 -7.33827874e-02 +2.10240185e-01 +1.03623010e-01 +1.86598465e-01 -1.21362120e-01 -9.42842886e-02 +2.80618668e-01 -6.01124652e-02 +9.71532892e-03 +1.98275611e-01 +9.50430334e-02 +5.22333942e-02 -7.90732503e-02 +1.81023832e-02 -7.38902241e-02 -1.53344711e-02 -1.52651481e-02 +3.52417566e-02 +3.64008136e-02 +1.09738633e-01 +1.13150127e-01 -3.70268524e-02 -8.68229568e-03 +2.08208248e-01 +1.01275861e-01 +2.10759163e-01 +2.91658193e-01 +1.30739018e-01 +1.57910377e-01 +5.76332957e-02 -5.08368649e-02 +1.44107565e-01 -1.67166173e-01 +5.43656610e-02 +1.98207900e-01 +8.39416832e-02 +5.32074422e-02 +1.00184493e-01 +1.24867691e-03 +4.92536388e-02 +9.31019709e-02 +1.72652274e-01 +6.25319257e-02 +6.77259788e-02 -7.70129589e-03 -1.81616411e-01 +2.52214614e-02 +1.14919953e-01 +2.40667582e-01 +9.91675854e-02 -2.13339224e-01 +1.33698121e-01 +2.21544728e-01 -7.31339902e-02 -2.03431115e-01 +1.45127073e-01 +1.58374563e-01 +4.19770032e-02 +1.74399316e-02 +8.63563940e-02 +7.70758018e-02 +1.02097675e-01 -1.29490495e-01 +2.78625190e-01 -1.69807136e-01 -9.21897888e-02 -4.29825708e-02 +2.20528290e-01 +2.11658664e-02 -2.12716743e-01 +2.77050912e-01 +2.25101531e-01 -1.44710809e-01 -1.63832530e-01 -2.59390205e-01 -1.69220835e-01 -1.59936681e-01 +3.72089520e-02 +3.24274689e-01 -8.90174508e-02 +2.05785081e-01 +4.02077427e-03 +1.13128327e-01 +1.22385368e-01 +9.79654342e-02 +1.26795441e-01 +6.09565340e-03 +1.00476630e-01 +1.45751923e-01 -1.88975651e-02 +4.70510963e-03 +1.05912492e-01 -2.40751319e-02 +7.28858635e-03 +2.32089520e-01 -3.88665572e-02 +1.02375716e-01 +1.27980739e-01 +1.68780982e-01 -4.52858731e-02 -2.77224351e-02 -3.07483003e-02 +9.99835879e-02 +1.31009385e-01 +2.98382603e-02 -2.73144878e-02 +1.20164424e-01 +2.45121986e-01 -3.23919915e-02 -1.14532858e-01 +8.94145817e-02 +8.82672369e-02 -6.92537129e-02 +2.15907604e-01 -2.24500522e-02 +2.26136018e-02 -8.75791609e-02 +7.80417472e-02 +6.41725734e-02 -1.19254962e-01 -1.23036355e-01 +2.08438337e-02 -1.27362162e-01 +6.42100349e-02 -2.38311198e-03 -3.81660424e-02 +7.44559476e-03 -5.65891638e-02 -2.48357318e-02 -1.53906628e-01 -4.46796268e-02 +1.31553203e-01 -6.36095181e-03 +8.09683949e-02 +2.34071515e-03 +6.22854531e-02 -5.98574802e-02 +1.09642088e-01 -8.79633054e-02 +1.58513069e-01 -7.71948770e-02 +4.12729979e-02 +4.69055213e-02 +1.27398238e-01 -1.06780574e-01 -7.33696371e-02 +1.57837197e-01 +1.41223475e-01 +7.89166242e-02 +4.93844673e-02 +4.74406080e-03 -1.81607410e-01 +9.82131213e-02 +1.15608022e-01 +6.63475394e-02 -1.17306560e-01 +1.46553129e-01 +6.90712035e-02 +1.89044043e-01 +4.50463593e-02 -1.63068864e-02 +1.89527303e-01 -6.61557214e-03 +4.77085039e-02 +1.18925825e-01 -6.94694296e-02 -9.11968127e-02 -3.09634153e-02 +1.10229596e-01 +7.23884329e-02 +5.49482666e-02 +2.79544666e-02 -1.53362127e-02 -1.85197026e-01 +1.51190698e-01 +2.82413587e-02 +7.37779215e-02 +5.79172261e-02 -1.64811969e-01 +1.15853259e-02 +2.23962404e-03 +6.50883168e-02 +1.09957792e-01 -8.70118067e-02 +2.12746918e-01 -8.78433958e-02 -2.67490357e-01 +3.32942568e-02 -6.59194663e-02 -5.41886464e-02 -1.69168234e-01 +1.03123203e-01 -9.20850262e-02 +8.71798769e-02 +9.39670652e-02 +5.65795153e-02 +1.41294897e-01 -1.26665309e-01 +2.94274002e-01 -2.75967014e-03 -1.17233030e-01 -2.97429621e-01 +2.28125215e-01 +1.47343986e-02 -1.07149914e-01 -1.77536681e-01 -9.19711217e-02 -1.84240356e-01 +2.24543288e-02 -8.85640010e-02 +2.67130975e-02 -1.57926809e-02 +2.47847456e-02 +9.45637003e-02 +6.60226718e-02 -7.00952709e-02 +1.32739723e-01 -2.16276105e-02 +1.26907870e-01 +3.35949697e-02 +9.17407051e-02 +4.57116552e-02 -1.48263499e-01 +5.50600216e-02 +5.89266084e-02 +1.43240124e-01 +2.57918358e-01 +7.67181292e-02 +6.98985951e-03 -6.70566931e-02 +1.42555758e-02 +1.01962537e-01 +1.50183113e-02 -8.40475783e-02 -8.28863531e-02 +1.57029316e-01 +1.73411250e-01 +1.62382349e-01 -4.81951563e-03 +1.36558693e-02 -1.87444389e-01 -1.97272487e-02 -1.62066340e-01 +8.57987814e-03 +1.37605064e-03 -1.68807909e-01 -2.07994685e-01 -1.04856201e-01 -9.96195450e-02 -5.98479994e-02 +1.25800684e-01 -3.05918474e-02 +8.84061083e-02 -1.42886788e-01 -4.74878028e-02 -1.32869855e-01 +1.17125675e-01 -1.99354127e-01 -4.31844667e-02 +1.91641282e-02 +2.43721426e-01 -1.08348420e-02 -1.24385498e-01 -2.65479028e-01 -1.36098728e-01 +2.20985748e-02 +6.56162724e-02 +1.66558608e-01 +1.77434310e-02 -8.24706703e-02 +3.33106071e-02 +2.87267081e-02 -1.29253685e-01 -9.43117812e-02 -7.65593499e-02 +9.64487158e-03 +2.01803833e-01 +2.59004179e-02 -7.47574586e-03 +5.18756881e-02 +6.93620741e-02 +2.15957180e-01 +5.23472317e-02 -1.82696488e-02 +1.18501559e-01 -8.63742158e-02 -8.40104371e-02 -2.68463083e-02 +2.71030217e-01 -2.07045376e-02 +5.22972703e-01 +9.10417363e-02 -4.62626703e-02 -1.73768520e-01 +7.71419629e-02 -8.08595680e-03 +3.27316672e-02 -4.19783592e-02 -2.21015483e-01 +2.46168137e-01 +3.35620612e-01 +9.65546221e-02 -1.63805813e-01 -1.09850448e-02 -2.92436153e-01 -1.35734171e-01 +2.36787852e-02 -5.32269403e-02 +1.47450184e-02 -5.97412102e-02 +1.75441071e-01 -1.41363740e-01 +1.77017257e-01 +6.88308477e-02 -2.94833571e-01 -1.87879950e-01 -4.78856117e-02 -2.54673213e-01 -3.08672693e-02 -1.39083624e-01 -1.32284358e-01 -1.85393870e-01 -6.81607276e-02 -2.37850785e-01 -4.35163118e-02 +1.24958463e-01 -2.52982736e-01 -2.97086865e-01 -1.05165474e-01 -8.13178048e-02 +3.07698220e-01 +1.75402805e-01 -1.27008691e-01 -1.73042819e-01 +2.40617931e-01 -4.06323224e-02 -1.40192598e-01 -2.97948778e-01 +1.20518148e-01 +1.57662839e-01 +1.38679206e-01 +1.57099977e-01 +6.45050630e-02 +1.33362576e-01 +1.63796440e-01 +4.98862043e-02 +1.00142300e-01 +8.34677815e-02 +1.00637004e-01 +2.50446826e-01 +1.66434683e-02 +9.05637816e-03 +5.52805811e-02 +1.76176876e-01 +1.82196707e-01 +7.17697814e-02 +1.97634518e-01 +1.71980545e-01 +1.05554722e-01 +7.98783228e-02 +3.84210162e-02 +5.66885062e-03 +1.68373689e-01 +1.59417108e-01 +7.25336596e-02 +1.94960192e-01 +8.94723386e-02 +4.83935252e-02 +7.79583380e-02 +9.85186547e-02 +1.16104454e-01 -4.42456901e-02 -8.10195357e-02 +1.80265959e-02 -1.25305995e-01 -1.06103882e-01 -2.34044176e-02 -8.61991048e-02 +5.05826212e-02 -3.57393213e-02 +1.13599911e-01 -2.13859692e-01 -1.57768074e-02 -1.63995046e-02 +9.31319445e-02 -3.10737565e-02 -1.12281501e-01 +1.17295273e-01 -1.20986089e-01 -7.08751455e-02 -1.62808388e-01 -2.29480177e-01 -2.03220416e-02 -1.66824475e-01 +7.57798553e-03 +3.32806781e-02 -5.87743036e-02 -1.02570474e-01 +8.61572996e-02 -2.11724434e-02 -6.34656474e-02 -1.68069139e-01 +1.10521868e-01 +1.10054761e-01 +2.28121430e-01 +7.75441676e-02 +5.63698746e-02 +2.30940327e-01 +1.85935244e-01 +2.75176074e-02 +7.42408782e-02 +3.51897508e-01 +1.12354830e-01 +1.28488883e-01 +2.15700623e-02 -4.44843769e-02 +1.66618153e-01 +2.37831444e-01 +1.38467640e-01 +2.45919079e-01 +2.09715232e-01 +1.99298099e-01 +1.24577165e-01 +1.04214266e-01 +3.97619680e-02 +6.15575276e-02 +1.26137063e-01 +2.88536012e-01 +2.77566731e-01 +1.18567407e-01 +1.67859152e-01 +2.36844253e-02 +1.00496272e-03 +6.66857064e-02 -5.54447323e-02 +1.13205686e-01 +1.77244887e-01 +1.38606742e-01 +1.86718553e-01 +1.46650419e-01 -2.35063303e-02 +9.27015990e-02 -2.53625631e-01 -8.55628550e-02 +1.32366166e-01 -6.51702359e-02 -1.37803033e-01 +9.96361449e-02 -3.88283655e-02 -8.39095339e-02 -1.93812162e-01 +1.70725770e-02 +6.47718972e-03 +1.31645231e-02 -4.68789004e-02 +4.86374050e-02 +1.04212098e-01 +2.07481701e-02 +6.25668988e-02 +2.21659586e-01 -1.68038160e-01 -7.81014562e-02 -5.97440638e-02 +3.90213430e-02 -1.59312822e-02 -4.02994305e-02 -1.71630010e-01 -9.47721452e-02 -8.90632644e-02 -2.36071479e-02 -2.24878755e-03 +6.15734793e-02 -6.45407587e-02 -1.42684668e-01 -8.84375796e-02 -1.10651091e-01 -6.22215867e-02 -2.94407569e-02 -4.44765761e-02 -3.26086879e-02 -8.02571103e-02 +4.15472761e-02 -8.60401243e-02 -1.09384499e-01 -1.91806406e-01 -1.38623580e-01 -1.60609066e-01 +4.67439331e-02 +4.03789207e-02 -1.95222750e-01 +9.00671706e-02 -2.51219034e-01 +1.47033157e-02 +4.65704650e-02 -9.21802446e-02 -6.10142052e-02 -1.13111325e-01 -2.09019259e-01 +1.30523443e-01 -1.66251540e-01 -6.87380433e-02 +1.82897612e-01 +8.17232020e-03 -7.78777972e-02 +1.35728002e-01 +3.96113358e-02 +5.94563335e-02 -8.17454979e-03 -5.71518298e-03 +1.20093733e-01 +1.98742196e-01 +4.11497094e-02 -7.43167549e-02 +7.52055645e-02 -5.61196497e-03 -1.03998147e-01 +1.47831395e-01 +1.24929979e-01 +1.11890979e-01 +3.01210750e-02 +3.36410999e-02 -9.98183340e-02 -5.35631403e-02 -1.96799219e-01 -1.27862707e-01 +1.97016820e-01 +2.59161759e-02 -1.43368870e-01 -1.33605162e-02 +3.03197771e-01 +2.47386307e-03 -1.31926537e-01 -1.66269198e-01 -5.03035225e-02 -1.18523866e-01 -1.06162041e-01 -2.21866503e-01 -2.25086465e-01 -2.39757225e-01 +6.55028075e-02 -4.73763257e-01 -4.85365279e-02 -1.30933508e-01 +3.84925604e-02 -4.40600924e-02 -2.01371372e-01 -3.20082754e-01 -2.19248444e-01 -5.76305650e-02 +1.54914316e-02 -1.12920016e-01 -1.24000516e-02 -1.77023664e-01 -3.17986384e-02 -2.53508873e-02 -1.43443972e-01 -1.25779703e-01 +7.31300488e-02 -7.43670836e-02 -7.19764531e-02 +3.45030390e-02 -1.03474744e-01 +1.44404665e-01 +5.00289761e-02 -1.76366881e-01 +7.32243061e-02 -3.16804916e-01 +8.78733490e-03 -3.31055298e-02 +7.26700062e-03 +2.72643119e-01 -5.64755872e-02 -1.12377703e-01 -1.96778864e-01 +2.71454841e-01 -5.16266190e-02 +2.68604700e-02 -2.11355001e-01 +1.79298416e-01 -1.21538378e-02 -2.31366209e-03 +3.46336365e-02 -5.39341494e-02 +2.23312229e-02 +1.19771823e-01 -2.46782955e-02 -8.88589621e-02 -1.05671518e-01 +1.73017174e-01 +3.37985121e-02 -2.68297911e-01 +5.19345589e-02 -3.80420014e-02 +1.25383288e-01 +3.91736031e-02 +5.71017116e-02 -2.57868096e-02 +1.15710676e-01 +4.25944440e-02 -2.08594929e-03 +2.23073978e-02 -5.32163195e-02 +3.78182568e-02 +5.47116026e-02 +9.47624147e-02 -1.12992279e-01 +2.41016313e-01 +1.64407775e-01 +3.37004252e-02 +7.58002996e-02 +2.14214344e-02 +4.45522554e-02 +1.24795377e-01 +1.52081609e-01 -2.19896585e-02 +1.82290122e-01 +1.36089489e-01 +2.45813560e-02 +6.38003498e-02 +1.21396435e-02 +8.34826455e-02 +1.05979584e-01 -2.58344933e-02 +1.50152110e-02 +5.57937585e-02 +9.96610075e-02 +1.22431517e-01 +5.69943413e-02 +3.73164229e-02 +4.35548881e-03 +1.53728779e-02 +4.54961136e-02 +7.47049004e-02 +1.28883541e-01 +6.93725869e-02 +8.38959441e-02 +8.42705220e-02 +3.46270874e-02 +5.79827577e-02 -2.78702565e-02 +1.99930370e-02 -7.13420361e-02 +9.34201479e-03 +2.80257426e-02 -2.79195011e-02 -1.04207829e-01 -7.23463669e-02 -1.28893495e-01 -2.10134476e-01 +2.83157714e-02 -3.17931809e-02 -3.14585865e-02 +9.32003930e-02 -1.29869998e-01 -4.90519814e-02 -1.21918879e-01 +1.01721324e-02 +1.86343603e-02 -4.20920849e-02 +2.85509795e-01 +4.54587303e-02 +1.52658045e-01 +1.27153575e-01 -5.39498590e-02 -3.40457521e-02 +6.91705616e-03 +1.40647367e-01 -9.10773575e-02 +4.37878221e-02 -2.35432833e-02 +1.98596135e-01 +5.09544201e-02 -1.69612929e-01 -4.80511365e-03 -5.20299375e-02 +8.37271214e-02 -8.54708999e-02 +1.50663480e-02 +3.30684446e-02 +5.20005897e-02 -5.17407358e-02 -4.62198909e-03 +1.84474543e-01 +1.42705664e-01 -1.17218263e-01 -4.95255217e-02 +5.44909500e-02 +8.16330165e-02 +8.36399198e-02 +1.83855202e-02 -4.42471057e-02 +4.53006336e-03 +1.15439363e-01 +1.53569341e-01 +1.17273197e-01 +8.92041102e-02 -1.22185349e-01 -2.03557368e-02 -2.21335977e-01 +1.23930074e-01 -1.27073810e-01 -5.10237515e-02 +1.27333209e-01 +7.30904285e-03 -7.75329992e-02 -1.81355909e-01 +1.25114918e-01 +2.44816497e-01 +3.18659190e-03 +1.14777640e-01 +1.51023448e-01 +1.62424855e-02 +4.44492511e-02 -4.16315496e-02 -1.29984185e-01 +1.69342935e-01 +6.16992898e-02 -9.03608873e-02 -1.86821565e-01 -8.03282559e-02 +5.42271063e-02 +2.10914761e-01 +1.19494997e-01 +6.75083995e-02 +1.04785763e-01 +2.69596931e-02 +5.07459231e-02 +3.98427024e-02 +5.07167354e-02 -1.45569205e-01 -7.30161667e-02 +1.27545133e-01 +1.23217657e-01 -8.58854428e-02 +2.15091020e-01 -3.42118628e-02 -1.21212050e-01 +3.15817557e-02 -9.80404764e-02 -1.00646347e-01 -4.13591564e-02 +2.50476569e-01 +3.36833708e-02 -1.13981701e-01 +1.66530088e-01 -5.87780103e-02 +2.61825044e-02 +1.45955145e-01 +9.07955915e-02 +1.11885019e-01 +6.14580289e-02 +2.55091079e-02 -4.03170846e-02 +1.30645037e-01 +1.08815722e-01 +5.21421693e-02 -9.88573655e-02 +6.41942665e-04 +6.00976273e-02 +3.97539400e-02 -5.39444387e-02 -1.28395721e-01 +6.58248439e-02 +4.92877886e-02 -8.79137889e-02 -3.99412028e-02 +4.62005287e-02 +9.35814250e-03 -9.30738598e-02 -7.93884471e-02 +8.69118944e-02 +1.73231870e-01 +1.18856065e-01 -8.35451782e-02 +6.91790357e-02 +1.66599780e-01 -3.86292748e-02 -7.14113116e-02 -1.26788214e-01 +4.44344655e-02 +5.75669669e-03 -9.30474848e-02 +3.82142607e-04 -3.21915522e-02 -1.34251505e-01 +6.95256367e-02 +3.40867080e-02 +1.79927483e-01 +2.05040783e-01 -9.32588801e-02 +8.66722837e-02 +8.67576804e-03 -9.70846713e-02 -7.30021223e-02 +1.81590319e-02 -2.04250827e-01 +1.21458784e-01 -2.88299490e-02 +1.27431601e-01 -6.80349907e-03 -1.78720847e-01 +4.69188429e-02 -1.42155895e-02 -8.03210132e-05 -1.66151077e-01 -2.04913542e-02 -9.16811898e-02 -1.52119234e-01 +9.23410580e-02 +1.82109568e-02 +1.81712046e-01 +6.13789186e-02 -9.08921137e-02 +5.82848967e-04 -1.68923020e-01 -1.41991705e-01 +5.80995642e-02 -6.18739985e-02 +7.98643380e-03 -2.00592086e-01 +9.81355235e-02 +1.10112518e-01 +5.93184382e-02 -7.61234313e-02 -2.68867701e-01 -1.87361941e-01 +9.79679227e-02 +3.59181724e-02 -1.00940995e-01 +7.59068504e-02 -8.32799077e-02 -8.76041129e-02 -1.68734472e-02 +1.49403602e-01 +7.91093558e-02 +2.91021317e-01 +3.18106189e-02 -4.34258543e-02 +8.89936313e-02 +3.10175329e-01 +8.46240819e-02 -2.42270321e-01 -3.20209074e-05 +8.71979445e-02 +3.95445153e-02 +8.00761580e-02 -1.05870152e-02 +8.95045772e-02 -9.68814269e-02 +2.46106759e-01 -1.76934041e-02 +1.62403062e-01 +1.88678056e-01 +1.74498811e-01 +1.70325398e-01 +2.09510416e-01 +1.95577696e-01 +1.13248583e-02 +7.66854137e-02 -1.76610649e-02 +1.01713538e-01 -1.11562043e-01 +8.90243202e-02 -2.38147229e-02 +2.84277089e-03 -6.91990480e-02 +1.86836451e-01 +9.24056545e-02 +1.09967038e-01 +1.32758645e-02 +1.48505792e-01 +7.78131410e-02 +7.38222748e-02 +4.74888980e-02 -6.71229325e-03 +1.24091506e-01 +1.45017803e-01 +7.53431916e-02 +2.05483809e-02 -2.94947382e-02 +1.15866050e-01 +1.11517817e-01 +4.22251113e-02 -5.06977104e-02 +1.20488152e-01 -6.07709326e-02 -2.27791101e-01 +2.49068532e-03 -1.09649815e-01 +4.31273133e-02 +1.12998419e-01 -7.05273151e-02 +1.27128169e-01 +1.59501024e-02 +6.69372501e-03 -2.91467700e-02 +9.34656039e-02 -1.07047565e-01 -8.16636458e-02 +1.04836546e-01 +1.12077609e-01 -8.67886320e-02 -1.72096536e-01 -6.61454722e-02 -3.37752134e-01 +1.56292189e-02 -1.25727177e-01 -4.74638343e-02 +9.47222039e-02 -8.39507580e-02 +6.04557106e-03 +7.36161321e-02 +5.46242595e-02 -8.22118670e-02 +2.00361386e-01 +2.36219898e-01 +3.77379388e-01 +4.81266417e-02 -4.64456098e-04 +1.76484078e-01 +2.11553305e-01 +1.99947938e-01 +2.51246601e-01 +3.00699193e-03 -1.82574242e-02 +2.55244020e-02 +1.52201533e-01 +9.16242599e-02 +4.97528091e-02 -7.19066337e-02 +1.23375610e-01 +1.04319826e-01 +6.29821271e-02 +1.67105928e-01 -8.04960057e-02 +1.29520118e-01 +1.63551331e-01 +9.83829498e-02 +2.31698364e-01 -3.84040526e-03 +6.93066269e-02 +7.70624951e-02 +2.04426706e-01 -1.44161936e-02 -8.11283663e-02 +1.71966821e-01 -1.70024246e-01 +5.51243834e-02 +3.23707163e-02 +5.25968373e-02 +2.49939322e-01 +1.24084532e-01 +6.16275817e-02 +1.35453820e-01 -4.42465305e-01 +4.75018471e-02 +5.16850576e-02 -1.92528814e-01 +1.48407847e-01 -7.83437788e-02 -2.82296743e-02 -1.85388938e-01 +2.00681249e-03 +2.10217327e-01 +1.14991970e-01 +7.94752762e-02 -9.66116041e-02 -7.70994416e-03 -8.04928243e-02 -1.90225810e-01 +6.18627965e-02 +1.20828643e-01 -1.53240502e-01 -2.49474689e-01 -1.90777317e-01 -1.83597416e-01 +9.05821770e-02 +1.58277467e-01 +1.83025479e-01 +1.67780444e-02 +1.47162765e-01 +2.06322894e-02 +4.49941568e-02 +1.15965292e-01 -8.46778788e-03 +8.23053941e-02 +1.26203984e-01 -4.88848835e-02 +4.30400856e-02 -1.82647198e-01 +1.17765591e-01 +5.06699048e-02 -3.15203033e-02 +7.44600818e-02 +1.06085613e-01 +7.95065537e-02 +2.68791579e-02 +1.15248002e-01 +1.64965719e-01 +5.80525883e-02 +1.69513579e-02 +6.48681745e-02 +1.90373972e-01 +3.79985571e-02 +2.49467865e-02 +3.54469344e-02 +2.40105968e-02 +1.04208160e-02 +5.08467257e-02 +1.43615410e-01 +2.21357886e-02 +3.80774550e-02 -9.79273170e-02 -2.62752976e-02 -1.09849766e-01 +2.22001858e-02 -1.21334717e-01 +5.04754037e-02 -1.56525388e-01 -6.82001561e-02 -1.14092212e-02 +7.55621344e-02 +3.11117135e-02 -9.64779928e-02 +6.08416460e-02 +7.37238501e-04 -2.94956863e-02 -2.94179246e-02 -2.89795771e-02 +4.00454877e-03 +4.10404429e-02 +4.53051878e-03 +2.20185854e-02 +2.76698906e-04 -3.13247964e-02 +8.31558406e-02 +5.78805320e-02 +1.70253918e-01 +1.09007783e-01 -1.09664714e-02 -5.03706597e-02 +3.99826057e-02 +8.73894766e-02 -4.40955572e-02 +2.07197502e-01 -9.93760768e-03 +1.04215123e-01 -1.66873410e-01 -1.99490096e-02 -1.08962357e-01 -1.75203010e-02 -2.94327468e-01 +9.70356315e-02 +2.42507681e-02 +4.26981561e-02 +7.42766708e-02 +9.93368402e-03 +7.15196803e-02 -1.89375207e-01 +1.75727755e-02 +1.83812201e-01 +1.41193764e-02 +3.07863187e-02 +1.16130725e-01 +1.91310972e-01 +1.79201096e-01 +2.12254852e-01 +8.97847265e-02 -1.76390946e-01 +1.89799562e-01 +1.98337466e-01 +1.62028685e-01 -5.52656278e-02 +5.28956279e-02 -2.14847490e-01 -5.18017411e-02 +1.63456440e-01 -3.44627835e-02 -7.97809213e-02 +1.24259390e-01 -1.71997007e-02 +3.20577882e-02 -3.84806283e-02 -1.17107639e-02 -1.26464680e-01 +1.50627211e-01 -2.09618825e-03 +1.00670010e-01 -7.45301917e-02 -9.10062492e-02 -1.41942754e-01 -9.48732942e-02 +2.00344231e-02 +1.14197969e-01 +1.60323784e-01 -7.67518058e-02 +1.62945211e-01 -2.07061097e-01 -8.92849863e-02 +1.14839850e-02 -1.73923716e-01 +1.87249240e-02 +1.28239959e-01 -9.65538770e-02 +6.35170490e-02 +1.48550212e-01 +1.97031885e-01 +1.37404457e-01 +2.13226050e-01 +1.44617915e-01 -2.25774609e-02 -1.28399745e-01 -1.01959340e-01 -9.02127624e-02 -1.48613393e-01 +2.73290602e-03 +1.26046184e-02 +1.25259116e-01 +1.22151151e-01 -1.16108231e-01 -6.04398176e-02 +1.49019554e-01 -9.36030000e-02 -8.16197470e-02 -1.24625929e-01 +1.62071556e-01 +1.81692109e-01 -3.35821807e-02 -1.20150223e-02 +2.58554686e-02 -9.74110439e-02 +1.52349129e-01 -6.28337339e-02 +1.68231860e-01 +1.44616261e-01 -1.01565786e-01 +5.38305007e-02 -6.66902028e-03 -6.09240532e-02 +9.86605063e-02 +1.18031949e-01 +8.82241949e-02 -5.43144643e-02 -9.50704422e-03 -7.92516395e-02 -9.07345340e-02 +1.25064716e-01 -9.24619883e-02 -1.77079428e-03 -1.71421140e-01 -6.58383295e-02 +8.20939019e-02 +6.18804333e-05 -1.04421519e-01 -1.26148894e-01 +1.57593906e-01 +2.60279685e-01 -6.45183865e-03 +2.02631816e-01 +1.40411183e-01 -2.50872612e-01 +3.43814194e-01 -3.27888988e-02 +5.63148074e-02 -9.40020978e-02 -9.83340666e-02 +2.56910384e-01 +2.26029947e-01 -2.41505783e-02 -2.86358595e-01 +2.40162715e-01 +1.59067482e-01 +3.95661175e-01 +3.73103358e-02 +1.14132173e-01 -6.15815669e-02 +4.77438010e-02 -1.80265993e-01 +6.71186447e-02 -2.79656760e-02 +2.98465043e-01 +3.02490797e-02 -2.92325485e-02 +1.91563312e-02 -1.57449916e-01 +1.45030379e-01 -1.73245117e-01 -4.69998457e-02 -7.35063776e-02 +5.67324050e-02 -7.87229985e-02 -8.83956254e-02 -3.42650563e-02 +7.08485115e-03 -9.32625402e-03 -3.22069265e-02 -5.20662591e-02 +6.52017891e-02 +2.97058141e-03 -5.44115752e-02 -6.59932494e-02 -1.29706249e-01 -1.11796454e-01 -3.63290682e-02 -5.09277992e-02 -3.49701047e-02 -2.99919886e-03 -8.44581351e-02 -1.65270820e-01 -8.76347497e-02 -1.42395407e-01 +4.15031658e-03 -4.88251224e-02 +9.65869576e-02 -3.88034612e-01 -7.48810619e-02 +5.41914776e-02 +3.92612629e-02 -5.57284392e-02 +4.95969877e-03 +1.99370205e-01 -3.19896191e-02 +3.72577965e-01 +2.14344606e-01 -6.35059029e-02 -3.03214073e-01 +2.61970520e-01 +7.78222606e-02 +1.50628388e-01 +1.32955447e-01 +8.82478058e-02 -2.19719997e-03 -3.25950757e-02 -1.20952405e-01 -1.06383823e-02 +2.73420289e-02 -1.21401310e-01 -5.51471449e-02 -1.13132477e-01 -5.91475777e-02 -3.01838741e-02 +1.25037357e-01 -4.02206555e-03 +2.83993538e-02 -9.40358043e-02 +9.13043041e-03 -8.04060400e-02 +1.14252754e-02 +1.12962440e-01 -4.94051762e-02 -6.07047379e-02 +4.80786227e-02 -3.16614695e-02 -9.91842449e-02 +4.62950617e-02 -3.54024358e-02 -1.35211855e-01 -5.35137486e-03 +3.45764123e-03 -1.15038827e-01 -2.00734865e-02 -5.75087443e-02 +4.32611257e-02 +4.95110080e-02 -1.27289236e-01 -7.25066364e-02 +4.31657247e-02 +1.12936543e-02 +1.18845990e-02 -1.19659342e-01 +4.77879867e-02 +7.20242709e-02 -3.39195803e-02 +9.98178273e-02 -1.48102846e-02 +4.94763218e-02 -1.14196636e-01 +1.76390558e-02 +1.01282941e-02 +1.16980560e-02 -2.20273971e-03 -4.28244881e-02 -9.72168222e-02 -2.13385284e-01 +2.17132330e-01 -2.71055043e-01 -1.53516814e-01 -1.93680704e-01 -8.88674632e-02 -2.57305689e-02 -1.19824655e-01 +1.30257040e-01 -2.94585489e-02 -1.93351090e-01 -1.86495915e-01 -1.15186192e-01 -1.05872817e-01 +5.31660616e-02 -1.20431341e-01 +9.28951725e-02 -1.33467779e-01 -6.18856698e-02 -1.83971643e-01 -7.70683214e-02 -8.84488299e-02 +2.12991521e-01 -1.09396137e-01 +9.88452882e-02 +1.06481954e-01 -7.59046823e-02 -2.06522778e-01 -1.34569198e-01 +1.77122384e-01 -1.02069192e-01 +3.30299705e-01 -1.40505224e-01 -8.79238620e-02 -1.32191479e-01 -5.50247654e-02 -1.04976699e-01 -1.13306254e-01 -7.53401667e-02 -1.77789673e-01 -4.66797762e-02 +5.54793067e-02 -1.23316817e-01 +1.88137144e-02 +1.39752505e-02 -9.03399810e-02 +7.21951667e-03 +1.12644121e-01 +3.84428278e-02 -1.52594626e-01 -1.67021990e-01 +8.99245515e-02 +6.69909865e-02 -1.88867059e-02 +1.65254816e-01 -1.24653289e-02 -9.01967287e-02 +1.46295249e-01 -3.51982862e-01 +7.88928419e-02 -4.96323891e-02 -4.29628342e-02 +4.71083336e-02 +1.35322800e-02 -2.42135242e-01 +8.45050365e-02 +2.54387110e-01 -2.24334732e-01 -3.49105567e-01 -2.70168275e-01 -1.11931391e-01 +2.26216227e-01 +4.34031188e-02 -8.85584354e-02 +2.59032380e-02 +1.97899222e-01 +1.46269336e-01 -3.56892645e-02 +1.51307240e-01 +1.84638146e-02 -5.12125976e-02 -4.46407758e-02 -1.05759315e-01 -4.52405512e-02 -5.72409108e-02 -4.23533358e-02 -4.15141061e-02 -8.28195438e-02 -1.62918851e-01 -2.63172276e-02 +5.98168261e-02 -3.93145978e-02 -1.86497852e-01 -1.08699299e-01 +3.07488535e-02 -1.89343780e-01 -8.76307935e-02 -1.29772365e-01 +6.63472787e-02 -7.26153105e-02 -5.95443696e-02 -5.07166870e-02 -1.00959264e-01 -4.69473749e-02 +1.33208302e-03 -1.27210105e-02 +1.10399477e-01 -1.66668445e-01 -8.34867954e-02 -1.31850675e-01 -1.17365487e-01 -5.15960529e-02 -5.72477914e-02 +5.61901070e-02 -8.53423104e-02 +6.07718788e-02 +2.97290143e-02 -5.87727837e-02 +1.23210382e-02 -1.84135959e-02 -1.04463324e-01 -1.45765569e-03 -6.43909350e-02 -8.50289240e-02 +9.34200063e-02 +3.46426256e-02 -5.88021299e-04 -9.27929580e-02 -1.34335786e-01 +8.75726044e-02 +2.56625023e-02 -6.87372386e-02 +7.65783787e-02 +1.60564914e-01 -8.36231709e-02 +1.35045677e-01 +4.08561490e-02 -1.51438881e-02 -2.80840695e-02 -1.67870671e-02 -1.79285631e-02 -3.78752537e-02 -5.71498312e-02 -1.55664146e-01 -2.98785511e-02 -1.44436687e-01 +1.80643648e-02 -2.41343096e-01 -3.87967341e-02 -3.31808887e-02 -7.16093257e-02 -2.18625918e-01 +7.33267888e-02 -1.46274239e-01 +4.77182046e-02 -1.44902140e-01 -1.19888090e-01 -7.23140035e-03 +9.91411060e-02 -1.60366669e-01 -2.19429806e-02 -8.27733725e-02 -8.35819617e-02 +7.57740140e-02 -3.49780209e-02 -5.52012920e-02 -1.83669060e-01 -2.34426316e-02 -1.08989201e-01 +1.20758161e-01 +1.88421950e-01 -5.47924340e-02 -1.85731307e-01 -2.23660454e-01 -9.23060030e-02 +1.63406521e-01 +5.22745959e-02 -9.06634405e-02 -1.48675412e-01 -5.55437542e-02 -9.80366617e-02 -5.65181971e-02 +9.18913707e-02 +3.17394406e-01 -8.10140297e-02 -8.29420388e-02 +1.00396089e-01 -3.30342613e-02 -2.12891683e-01 +8.10457319e-02 -8.34739059e-02 +1.17124930e-01 -1.10997282e-01 -7.40330070e-02 +1.11922570e-01 -9.84876230e-02 -1.24787457e-01 +1.19705543e-01 +2.61540234e-01 +4.65555117e-03 -1.06034234e-01 +1.23625599e-01 +1.38903707e-01 -1.03376783e-01 +2.70403445e-01 -1.96493775e-01 -1.92685440e-01 +1.49946496e-01 -2.23299507e-02 +1.87504441e-01 +1.40497744e-01 -3.33643109e-02 +1.00502819e-01 +1.87756702e-01 +1.61853626e-01 +5.94407357e-02 +8.11988208e-03 +7.93763921e-02 +2.21956417e-01 +5.18107861e-02 +7.31094405e-02 +1.40728801e-01 +1.07880026e-01 -3.69852185e-02 +1.03131145e-01 +2.99164087e-01 -2.01752353e-02 -5.45805553e-03 +6.66623637e-02 +1.93194523e-01 +1.86126873e-01 +2.33279392e-01 +1.99974868e-02 +7.32196197e-02 +1.34268003e-02 +1.99538350e-01 +1.90819621e-01 -3.37200537e-02 +7.05065057e-02 +6.11996353e-02 -3.00328545e-02 +1.24197900e-01 +2.56865062e-02 -9.92718562e-02 -8.29481632e-02 -2.16848090e-01 +9.87746194e-02 -8.93640332e-03 -7.48168528e-02 -6.78243116e-02 -1.13705412e-01 +7.22209290e-02 -9.13278293e-03 +5.80917560e-02 +1.71461403e-01 -7.86092952e-02 +2.16954872e-02 -1.35143042e-01 -1.49967847e-02 -7.06789866e-02 -2.06349805e-01 -4.87883724e-02 -1.38308719e-01 +2.25016009e-02 -3.00140493e-03 -8.32987949e-02 +2.76313853e-02 +1.10480517e-01 -1.02434985e-01 +1.21070348e-01 -2.49723226e-01 +1.82107642e-01 +1.84668049e-01 +1.01486921e-01 +9.10483375e-02 +5.10775000e-02 +2.17706084e-01 +1.14230551e-01 +1.84200168e-01 +5.54009750e-02 +1.39258564e-01 +7.22759813e-02 +2.10879460e-01 +1.88790669e-03 -1.54734049e-02 +1.20599128e-01 +3.37492734e-01 +5.63959666e-02 +1.00026920e-01 +1.46519348e-01 +2.14563698e-01 +8.25884566e-02 +2.00149313e-01 +1.32661626e-01 +5.75091206e-02 +1.22886762e-01 +1.70784652e-01 +2.50580788e-01 +3.75242829e-02 +2.85242379e-01 +2.17682213e-01 +7.86776021e-02 +2.25206748e-01 -1.74426258e-01 +5.07638510e-03 +1.77087728e-02 -2.64749713e-02 +2.02327684e-01 +8.23930427e-02 +1.90279901e-01 +1.44365549e-01 -2.43210167e-01 +7.16572478e-02 +1.03246465e-01 +1.77534655e-01 -1.60128683e-01 +1.33137360e-01 -1.61634553e-02 -9.79489759e-02 +4.08232436e-02 +9.29446146e-02 -5.03183901e-02 -5.20507619e-02 -2.04941124e-01 +2.68564582e-01 +8.15185346e-03 -4.66616359e-03 -1.41008254e-02 -1.18152145e-02 -1.11737154e-01 -3.57920453e-02 -6.52336106e-02 -4.41362746e-02 +7.46194571e-02 +7.88023509e-03 -1.46596283e-01 +5.39701320e-02 -6.57909960e-02 -9.68979374e-02 -1.58603370e-01 +5.59836216e-02 -1.50537211e-02 -1.88976228e-02 +7.86310881e-02 +7.73665160e-02 +5.73288649e-02 -1.07609890e-01 -1.06829919e-01 +8.54886323e-02 +1.74729615e-01 -3.19282301e-02 +3.33233401e-02 +1.08419813e-01 +1.48374617e-01 -2.80828099e-03 -3.88023816e-02 +1.72524564e-02 -5.45818768e-02 +1.15249299e-01 -4.98353541e-02 -2.00342163e-01 +6.55994751e-03 +7.07218572e-02 -6.67289644e-02 +3.73211727e-02 +4.12934944e-02 -5.94589487e-02 +7.34197907e-03 +9.81595069e-02 -1.36111500e-02 -2.71980204e-02 +2.26025164e-01 +1.32807180e-01 +1.04155913e-01 +4.86393571e-02 -8.89608450e-03 -1.09012663e-01 +3.11626177e-02 +9.09008905e-02 +4.52429391e-02 -7.49149621e-02 +4.33971286e-02 +2.29762197e-01 +9.32660848e-02 -8.60176533e-02 +3.17537747e-02 +7.42732063e-02 +1.56847611e-01 -1.24888010e-02 -1.16549447e-01 +6.54496774e-02 +1.05999328e-01 +1.37835378e-02 -1.14354298e-01 +1.40846446e-01 -1.00606091e-01 +1.04772232e-01 +5.32075986e-02 -6.93047047e-02 -9.39850286e-02 -1.98389411e-01 -2.50235889e-02 -7.55022392e-02 -1.38897449e-01 +2.74996877e-01 +3.20945904e-02 +1.67085543e-01 +1.26568437e-01 +3.20705861e-01 -1.99400395e-01 -8.16571787e-02 -3.08952540e-01 +6.41998500e-02 +1.93127066e-01 +1.29966047e-02 +4.39072587e-02 +1.29327953e-01 +1.47755265e-01 +1.44418031e-01 -2.65601557e-02 +7.57462904e-02 -1.05443727e-02 +1.02966309e-01 -1.04697570e-01 -3.80416214e-02 -2.45522000e-02 -1.00954063e-01 +8.07932094e-02 +1.73307240e-01 +1.28768668e-01 -4.12459858e-02 +9.86525118e-02 -3.67381647e-02 +1.22633390e-01 -1.16336457e-02 -1.76956952e-01 +7.48004392e-02 +2.29323894e-01 -2.80876318e-03 +1.60597950e-01 +8.37139611e-04 +7.33108148e-02 +1.29243419e-01 -3.37709412e-02 +8.94921944e-02 -3.89589444e-02 -2.24967316e-01 +1.18964184e-02 +7.90289119e-02 -2.32217461e-01 -3.01793925e-02 +1.27423070e-02 -2.28496306e-02 -3.58108059e-02 +9.25761759e-02 -2.70484120e-01 -4.58608977e-02 -3.54061462e-02 +1.37913182e-01 +2.39474639e-01 +6.04125746e-02 -2.30401233e-02 -3.29192311e-01 +1.35796651e-01 -2.13732701e-02 +8.08615312e-02 -1.92792295e-03 +1.59252837e-01 +1.56196542e-02 -1.64484195e-02 -9.87456515e-02 -7.95245724e-05 +2.30154358e-02 +2.35526673e-02 -9.72725004e-02 +2.21676990e-01 +1.39859214e-01 -1.38328403e-01 +1.16886191e-01 -3.06602139e-02 +9.17970687e-02 +9.78523269e-02 +3.50767598e-02 +1.16765715e-01 -6.60413504e-02 +1.60904706e-01 +9.89458114e-02 +1.83447301e-01 +1.71515405e-01 +1.09561563e-01 -1.20950408e-01 -9.72036794e-02 +1.21244110e-01 +2.34050006e-01 +1.41951486e-01 -7.15128556e-02 -1.12118848e-01 -2.12972555e-02 +1.74617708e-01 -1.21520579e-01 +9.70593933e-03 -8.58250931e-02 -2.15295777e-02 -8.19250867e-02 -5.49392402e-02 +2.92474441e-02 -8.90091807e-02 -1.49478987e-01 +1.53702637e-03 -3.54795274e-03 -1.30723715e-01 -6.17587157e-02 +5.24553731e-02 -3.52310508e-01 +1.80492669e-01 -4.05524764e-03 +2.00948209e-01 +1.08377948e-01 -1.97063968e-01 +8.92147049e-02 -1.57448262e-01 +9.18091759e-02 +1.65021151e-01 +1.51655972e-01 -1.76694155e-01 -2.61979667e-03 +8.27236623e-02 -2.08168533e-02 +6.51368275e-02 +1.13167562e-01 +2.74813414e-01 +8.87191892e-02 -1.31338373e-01 +7.55890757e-02 -1.91665307e-01 +3.50704379e-02 -4.36785594e-02 -8.95638466e-02 +8.96212310e-02 +1.07762434e-01 -1.52773429e-02 -1.54019371e-02 +1.86615363e-02 -4.60423648e-01 +6.79201931e-02 -1.32639436e-02 +1.71755746e-01 -6.20183647e-02 -4.13089953e-02 +4.80350181e-02 -1.06463246e-01 +1.55909806e-01 +1.79322958e-01 +2.22596768e-02 +1.54708773e-01 -6.24837838e-02 +8.65402669e-02 +2.31787369e-01 +2.10096836e-01 -6.99808151e-02 -1.77138403e-01 -5.42008393e-02 +2.32655048e-01 +2.23971121e-02 -1.73742935e-01 +8.06542411e-02 -2.89364383e-02 +2.09566236e-01 -6.55805990e-02 -3.55575792e-02 +2.04012662e-01 +2.07115352e-01 +1.41922548e-01 -1.17124915e-01 -1.90778419e-01 +1.51283666e-01 +3.80058706e-01 -2.16367826e-01 +1.98050663e-02 +7.55917132e-02 +4.60476458e-01 +4.08123553e-01 +1.37723982e-01 -4.44926135e-02 +8.90795887e-03 +1.06259193e-02 -1.32375360e-01 -1.32690057e-01 -1.06595285e-01 +2.31363311e-01 +8.03973898e-03 +7.01678321e-02 +7.42331073e-02 -7.19013736e-02 -1.48861513e-01 -1.27205066e-03 +1.24829607e-02 +8.09641257e-02 +7.02453256e-02 +4.68515903e-02 -3.92120406e-02 +2.55745612e-02 -1.18640875e-02 -8.65739807e-02 -7.17382729e-02 -3.06080617e-02 +5.45653217e-02 +8.35500509e-02 +4.39225957e-02 +1.80741921e-01 -1.11842923e-01 -3.76227759e-02 +1.36827707e-01 -5.33808838e-04 +1.28708571e-01 +1.01990963e-03 -6.13373779e-02 -4.55649272e-02 +9.15860161e-02 +1.47691497e-03 -5.35213668e-03 -6.57436401e-02 -9.72778164e-03 +6.09849244e-02 -1.38720185e-01 -1.11290373e-01 +1.35237724e-01 -4.67228368e-02 -4.41290364e-02 -1.36625851e-02 -7.13647902e-02 -4.10222262e-02 -1.06268831e-01 -1.30687833e-01 +2.78292030e-01 +5.82145527e-02 +8.74726847e-02 +1.34014443e-01 +2.19859451e-01 +6.20954223e-02 -1.27595365e-01 -3.39120738e-02 +1.54662222e-01 +4.81284363e-03 -4.03627716e-02 -2.53200904e-02 +4.17698100e-02 -1.66745111e-02 -1.51079252e-01 -5.11596352e-03 +2.43155852e-01 -1.21567033e-01 -8.00421908e-02 +5.64374775e-02 -4.21100184e-02 +7.51469582e-02 -3.35681736e-01 +1.15008540e-02 +1.76557228e-02 -1.22511789e-01 +3.05609368e-02 +7.56824389e-02 -4.23155501e-02 +1.58765003e-01 -1.18309811e-01 -3.10987413e-01 -3.02079059e-02 -6.93966001e-02 -4.25806753e-02 +2.29339257e-01 +1.38327956e-01 +1.32388314e-02 +9.53584630e-03 +7.59457648e-02 -8.10533985e-02 +1.54314414e-01 -4.12443951e-02 -2.02775653e-02 +2.41357163e-01 +1.12652350e-02 -2.81990290e-01 +1.88614145e-01 +1.91024214e-01 +1.60676822e-01 +1.12581536e-01 -1.79769874e-01 -1.03849895e-01 +7.30666965e-02 +1.42154008e-01 +4.27364111e-02 -4.61251885e-02 -3.46240073e-01 +2.73170978e-01 +3.41471612e-01 +1.24381721e-01 -1.22835739e-02 -9.84999388e-02 -1.84179932e-01 +4.79470119e-02 +2.09446579e-01 +7.72741437e-02 -1.90976392e-02 -1.10177793e-01 -1.10164039e-01 -3.05778563e-01 -1.52559161e-01 +3.36929783e-02 +2.26387307e-01 -9.08462107e-02 -7.96721280e-02 -8.52804817e-03 -1.65685177e-01 -7.29880035e-02 -1.12506606e-01 -1.85030952e-01 +1.44407868e-01 -1.90654710e-01 -1.06211446e-01 -5.18126369e-01 -2.00401489e-02 +1.00700580e-01 +6.87229410e-02 +1.36630297e-01 +9.59412232e-02 +5.51993363e-02 +7.77319893e-02 +7.62153268e-02 +1.37753665e-01 +1.81500226e-01 +8.49042758e-02 +4.16363403e-02 +2.97471017e-01 +5.79108931e-02 -5.59469201e-02 +2.80436501e-03 +9.80084389e-02 +1.22371361e-01 +1.30113468e-01 +1.58993930e-01 +1.45872295e-01 +5.23863733e-02 +8.15238953e-02 +5.68153933e-02 +5.51985204e-02 +2.91223228e-01 -4.30476330e-02 +4.52021286e-02 +2.54202001e-02 +1.38517663e-01 +6.25328794e-02 +1.99248508e-01 +3.38255949e-02 -3.86851169e-02 -5.01596406e-02 -8.05360302e-02 -1.34584174e-01 -3.97590660e-02 +1.98999476e-02 -8.41245949e-02 +2.80427542e-02 +6.99302927e-02 -3.11717764e-02 -1.73332438e-01 -2.36646637e-01 -6.75468845e-03 +9.52575281e-02 -1.51477471e-01 +4.35981192e-02 -9.06374604e-02 -4.58860248e-02 -7.14287758e-02 -2.02529430e-01 +1.40933052e-01 -8.95276219e-02 -2.49924392e-01 -5.51638603e-02 -4.13335338e-02 +5.80999069e-02 -7.29454979e-02 +5.63929379e-02 -2.39046693e-01 +8.60979110e-02 +1.35941774e-01 +1.99592635e-01 +2.42772847e-01 +7.94884861e-02 +6.93552420e-02 +3.12703252e-01 +2.38426700e-01 +1.37692332e-01 -1.08896762e-01 +1.88013673e-01 +1.47785962e-01 -6.70157000e-02 +1.07101321e-01 +2.20003486e-01 +1.74163088e-01 +1.02481753e-01 -6.28856011e-03 -1.58040002e-01 +2.48924512e-02 +1.40330330e-01 +8.99237543e-02 +2.76798084e-02 +1.83447719e-01 +2.59428591e-01 +3.65022570e-02 +1.89014360e-01 +6.89869598e-02 -9.80962515e-02 +9.16339457e-02 +8.48487020e-02 -5.73826209e-03 +2.55596906e-01 +2.25843191e-01 -7.29785264e-02 -5.44907041e-02 +9.27454233e-02 +1.20638244e-01 +1.61792636e-01 +9.73183960e-02 -3.23669970e-01 +1.34800866e-01 -3.42434384e-02 +1.76860511e-01 +5.22827469e-02 -1.34569392e-01 -8.12738836e-02 +7.35656545e-02 -1.51752427e-01 +3.42467092e-02 -2.60765851e-01 +1.50024071e-01 +5.52833676e-02 +4.50422242e-02 -3.30812894e-02 +1.69731006e-01 +7.49754533e-02 -2.10306957e-01 +1.20198682e-01 -1.44096017e-01 -1.68118402e-01 -4.26045954e-02 +5.68884611e-02 +9.28441137e-02 +1.59400344e-01 +2.02141613e-01 +1.31383240e-01 +1.15913581e-02 +6.69091716e-02 +1.13211639e-01 +5.51977083e-02 +1.13039248e-01 +3.78287062e-02 +1.03179768e-01 -1.08994909e-01 +7.86309615e-02 +4.05129008e-02 +2.31858894e-01 +2.89370090e-01 +1.23431340e-01 -6.43222108e-02 +1.45761758e-01 +9.09627378e-02 -4.95648049e-02 -3.39878127e-02 +1.91781029e-01 -8.67618099e-02 -5.57760783e-02 -4.60181534e-02 +1.25736846e-02 +2.08229348e-01 -3.91572118e-02 -1.05311938e-01 +1.57057066e-02 +1.54152125e-01 -1.44805526e-02 -1.13727264e-02 -1.01790344e-02 -1.72149632e-02 +1.52387386e-02 -4.92208935e-02 +2.47998834e-02 -1.12381153e-01 -1.35500327e-01 -1.06945351e-01 -5.98062016e-02 -1.03550352e-01 -8.80594477e-02 -1.50146326e-02 -2.96605408e-01 -6.51534125e-02 -9.63807665e-03 -1.54780252e-02 -1.80590510e-01 +2.66405810e-02 -6.74340874e-02 -6.79904222e-02 +1.80085097e-02 -6.20857663e-02 -1.84191633e-02 -7.60636255e-02 -4.03714068e-02 +6.43681958e-02 +1.25175402e-01 -1.95043236e-02 -2.07149208e-01 +8.31671432e-02 +3.46148387e-02 -1.02563165e-01 +3.06359138e-02 +1.73617467e-01 +8.57483298e-02 +1.85912419e-02 -1.17419084e-04 +4.78923619e-02 +5.93524352e-02 +1.43934980e-01 -5.40686026e-02 -1.20241113e-01 +1.05972178e-01 -4.77380976e-02 -4.89790030e-02 +1.84876099e-01 +1.36084944e-01 -2.11761054e-02 +8.94305259e-02 -1.45512581e-01 -4.08335961e-02 +5.63036837e-02 +3.84628735e-02 -1.38599485e-01 -3.93875502e-02 +1.07565574e-01 -3.22453529e-02 +9.01965126e-02 -4.85627316e-02 -7.38899112e-02 -1.44118056e-01 +1.73609972e-01 -6.44778013e-02 +7.40345567e-02 +4.11652476e-02 -8.85532424e-02 -1.29084289e-01 -1.64733026e-02 +4.64611463e-02 +4.46777008e-02 +1.01644456e-01 -2.39477918e-01 -1.31433845e-01 +1.94489229e-02 +1.44839659e-01 +1.58766046e-01 +9.96245891e-02 -1.07617892e-01 +1.79962553e-02 +6.39922917e-02 +1.87164754e-01 -1.38149559e-01 +2.05440298e-01 +8.32638368e-02 +1.00821247e-02 +1.07869655e-01 +3.58940125e-01 +3.56628262e-02 -1.01369984e-01 +1.43134162e-01 -1.79847121e-01 +1.06548823e-01 +1.15730688e-02 -2.70895630e-01 +7.07951933e-02 +1.25666171e-01 +1.16111472e-01 +6.35437444e-02 +9.65595543e-02 +3.77758103e-03 +8.29373673e-02 +1.03820106e-02 -4.48975563e-02 -2.06308350e-01 -1.14690468e-01 -1.17422067e-01 +2.46664546e-02 +3.96574242e-03 +6.21765777e-02 +9.48939845e-02 +4.79867794e-02 -1.10233508e-01 -1.07946686e-01 -1.33474350e-01 -6.98936880e-02 -1.77996442e-01 +8.49379078e-02 -1.26864418e-01 -2.43686944e-01 +8.40702467e-03 -1.66804165e-01 +1.00941665e-01 +1.63700734e-03 +2.19250955e-02 -1.00440932e-02 -1.48742408e-01 -1.44323364e-01 +9.50975418e-02 -6.24314882e-02 -9.17752087e-02 -7.45719820e-02 -3.34173604e-03 -6.61965236e-02 +1.50897399e-01 +5.36279716e-02 +1.53750837e-01 -1.30754843e-01 -8.47535729e-02 -7.43498653e-02 -1.06223181e-01 -4.07352358e-01 -3.06416154e-01 -1.49154682e-02 +7.53806680e-02 -7.51090720e-02 +2.10382584e-02 +2.07241073e-01 -9.98328701e-02 +6.93355501e-02 +1.96285248e-01 +3.66606385e-01 +2.61660159e-01 -7.19678178e-02 -5.85470302e-03 +1.00873977e-01 +4.39419076e-02 +1.86673746e-01 +2.96692222e-01 +2.63729710e-02 +7.18853949e-03 +7.46077597e-02 -6.96236119e-02 -1.40868306e-01 -6.66364431e-02 -9.66786034e-03 +3.49130183e-02 -4.37077694e-03 -1.35165468e-01 -4.08812463e-01 -1.89775482e-01 +8.93225297e-02 -2.47906633e-02 -2.20471308e-01 +2.12622229e-02 -1.16392292e-01 -6.40719086e-02 -8.70197937e-02 -6.24105513e-01 -1.06388748e-01 -3.42013091e-01 -1.21617071e-01 -2.18801022e-01 -1.51904643e-01 -1.78999603e-01 -2.15591744e-01 +4.52479087e-02 -5.51779531e-02 -1.33596033e-01 -2.82316282e-03 -2.27972344e-01 -1.96717784e-01 -1.16215505e-01 -1.24049701e-01 +1.26541704e-01 -7.89732262e-02 -1.87473878e-01 +1.27022386e-01 -1.19145624e-01 -1.72312871e-01 -2.97834992e-01 -1.56901330e-01 +3.63255322e-01 -8.68864655e-02 -2.65699755e-02 +1.33101538e-01 +1.30665139e-03 -2.09845006e-01 +9.04992297e-02 +2.23573729e-01 -6.94601238e-02 +1.74276963e-01 -1.22284889e-01 -3.65315005e-02 +1.62897900e-01 +3.69653821e-01 +4.15821642e-01 -1.22130007e-01 +9.81872007e-02 -4.68521565e-02 +4.29527089e-02 -1.42619953e-01 -2.59599447e-01 +5.78357391e-02 -5.15917689e-02 +1.18777581e-01 +1.03547154e-02 -1.44729137e-01 -9.55320969e-02 -3.71493846e-02 -1.64613634e-01 -1.22850031e-01 -1.05943598e-01 -8.65104645e-02 -4.00313772e-02 +1.62219666e-02 -8.11372995e-02 -9.68986899e-02 -1.75303057e-01 -3.88124697e-02 -1.29722238e-01 +7.48693012e-03 -2.08985403e-01 -1.12141229e-01 -1.31948903e-01 -1.81847543e-01 -7.56327645e-04 -1.40558854e-01 -1.50059491e-01 -1.46850571e-01 -2.04495359e-02 -1.09803833e-01 +4.74303812e-02 -5.28295562e-02 -1.81414142e-01 +7.72032840e-03 -3.06160357e-02 -1.96715102e-01 +3.27050202e-02 -8.06787536e-02 +9.49724987e-02 +1.79306149e-01 +1.84270099e-01 +1.83405224e-02 +1.30620793e-01 -5.31610474e-02 +9.16615427e-02 +3.71838659e-02 +4.86747287e-02 +1.18469507e-01 +2.93628015e-02 +1.15786515e-01 -1.11437790e-01 +1.72004893e-01 -9.79115348e-03 -7.66126141e-02 +1.72600806e-01 +1.66653693e-02 +1.60389155e-01 -1.65454065e-03 +5.55742299e-03 +3.87211777e-02 -2.89394278e-02 -1.95487872e-01 +2.03885082e-02 -4.79486864e-03 +3.86319868e-02 -1.80035643e-02 -2.35370677e-02 +7.53658414e-02 -9.07669589e-02 -2.33182296e-01 -1.85820967e-01 -1.53406158e-01 -1.50081471e-01 -1.75336376e-01 -9.91207287e-02 -5.27976565e-02 -2.33521596e-01 -1.14694320e-01 -2.58040398e-01 -1.99989498e-01 -1.01983882e-01 -1.43731087e-01 -6.74827918e-02 -1.98163375e-01 -1.49409294e-01 -2.41607592e-01 -1.35105997e-01 -4.62406315e-02 -7.55090415e-02 -9.24282521e-03 -6.59501106e-02 -1.09811887e-01 -1.39495417e-01 -1.77368611e-01 -9.90639478e-02 +8.29820260e-02 -1.18810944e-01 -1.56747878e-01 +7.00327083e-02 -2.60108352e-01 +1.38827428e-01 +4.20261361e-02 -1.40686288e-01 -9.76970419e-02 -3.02151054e-01 -8.04054514e-02 +1.71506405e-01 +1.76776387e-03 +2.71409869e-01 -3.51363085e-02 -1.67246044e-01 -3.39415744e-02 +7.02720433e-02 -1.53895449e-02 +1.15432061e-01 +6.75697699e-02 +1.45637602e-01 -6.52866885e-02 -8.02676454e-02 +1.63132995e-01 +7.83796087e-02 +5.03299721e-02 -1.11068375e-01 -4.80461158e-02 -7.43195266e-02 +1.03903078e-02 +2.26649418e-02 +4.26371284e-02 +1.49055580e-02 -4.10042442e-02 -8.13461170e-02 -9.46675688e-02 +1.25007302e-01 -5.67308115e-03 +5.82246296e-03 +4.99828421e-02 +6.60029352e-02 +1.86029039e-02 +2.46146508e-02 -3.28844190e-02 -4.28002551e-02 +1.31840974e-01 -8.90731290e-02 +1.09521598e-01 +2.19513848e-01 -5.43783270e-02 -1.11959137e-01 +1.99587852e-01 -1.39333025e-01 +1.09922402e-01 +1.22923203e-01 +2.15327427e-01 +1.46346062e-01 -3.20971943e-02 +7.83390775e-02 +9.94176418e-02 +1.30145475e-01 +2.17490341e-03 +1.36440456e-01 +8.90895426e-02 +1.28675267e-01 +1.19495362e-01 -1.15914606e-02 +1.30611472e-03 +1.52656719e-01 +6.25152066e-02 -9.97803882e-02 +6.58234656e-02 -6.04763627e-02 +2.10417099e-02 +2.37437822e-02 -5.20596765e-02 -4.05133925e-02 +1.21114217e-01 +4.08199281e-02 +8.14756304e-02 +9.88116339e-02 -5.04502514e-03 +1.62901059e-02 +8.57921019e-02 -4.57264632e-02 +1.85229227e-01 -2.09036082e-01 +2.76779477e-02 +3.99852321e-02 -2.08864659e-02 +1.19847327e-01 +1.47038745e-02 +1.19599607e-02 -1.10407531e-01 +5.06617874e-02 -8.50115269e-02 +9.09659341e-02 -9.25888494e-03 -5.24073206e-02 -1.60676271e-01 +9.15517583e-02 +1.82994530e-01 +1.87792540e-01 +1.14289135e-01 +3.71266007e-02 -6.32477552e-02 +2.55041141e-02 -2.04546452e-01 +8.54438171e-02 -7.86943063e-02 +1.57547742e-01 +1.02614827e-01 +1.77364022e-01 +7.83688482e-03 -2.44732909e-02 +1.04511023e-01 -2.40029991e-01 +5.70968026e-04 +7.45126680e-02 +9.15116444e-02 +1.16249099e-01 +1.47362454e-02 +1.65273488e-01 -1.04568064e-01 +1.44256413e-01 +1.40102223e-01 +1.72286984e-02 +1.72057137e-01 +1.19397163e-01 -2.23396253e-02 -7.02057406e-02 +1.17144257e-01 -1.43838197e-01 -8.72062743e-02 +1.49105072e-01 -7.61784092e-02 +1.11586958e-01 -6.20542355e-02 -1.43512666e-01 -6.05409816e-02 +1.05734922e-01 +8.06009099e-02 -4.20474224e-02 +3.35630357e-01 -2.00627699e-01 -1.60789005e-02 -1.07121393e-01 -1.92026243e-01 +1.06983215e-01 +1.66980237e-01 -2.84527540e-01 -1.31154686e-01 +8.78650993e-02 +3.33456814e-01 +3.07372808e-01 -1.46531284e-01 -1.96807384e-01 +1.66048631e-01 +1.13978423e-01 +3.84336449e-02 -1.11691557e-01 +1.84305441e-02 -4.57155816e-02 +1.20104283e-01 +9.93400067e-03 +7.74000585e-03 +6.96561038e-02 +6.57515153e-02 +1.82227299e-01 +3.01151630e-02 -4.10290919e-02 +2.00448651e-03 +2.23995820e-02 -2.68606353e-03 -6.22825474e-02 -1.31727472e-01 +4.90905307e-02 +1.84931636e-01 -1.98090509e-01 +1.88261405e-01 +8.80462676e-03 -8.58741924e-02 -8.64189938e-02 +9.26431417e-02 +1.08250268e-01 +2.26708651e-02 +2.67448053e-02 -1.65253598e-02 -3.01955938e-02 +2.01947808e-01 +7.84014836e-02 +8.50696564e-02 -8.61202851e-02 +9.12361667e-02 +1.78027451e-01 +4.58340421e-02 +8.61665159e-02 +4.09537666e-02 -1.05572809e-02 +6.37253225e-02 -3.42346519e-01 -1.53589979e-01 +1.46838963e-01 +1.47159891e-02 -8.78747329e-02 +5.10500558e-02 +6.08736128e-02 -1.71997517e-01 +1.03154846e-01 -8.54233801e-02 -7.45878294e-02 -5.78473806e-02 +1.79792140e-02 +2.24129736e-01 -3.63228880e-02 -1.15845622e-02 -5.02486899e-02 +1.48829341e-01 -2.24963188e-01 +1.00232936e-01 -4.26554959e-03 +5.47816120e-02 -1.35386805e-03 +4.70864847e-02 +9.20447782e-02 -1.45630091e-01 -1.51113212e-01 +1.62813574e-01 +4.27756831e-02 +3.49469513e-01 +2.21384510e-01 +1.25632927e-01 +1.77087203e-01 -2.38809839e-01 +1.92582849e-02 -1.85489118e-01 +3.90110761e-02 -2.61976421e-01 +3.14095579e-02 -1.25235096e-01 +2.51571685e-01 +2.74066687e-01 -1.06350690e-01 -1.43594593e-02 -2.23981589e-01 -3.23391631e-02 -3.69136930e-02 +1.11811757e-01 +7.44924545e-02 +1.28938556e-01 +2.17565298e-01 +9.38281324e-03 +1.82820842e-01 +1.74460039e-01 -3.62206288e-02 +2.75758594e-01 -1.47963122e-01 -1.44146636e-01 +1.29892647e-01 +9.05350149e-02 -3.60795595e-02 -2.20657475e-02 -8.20062216e-03 +3.74431834e-02 -3.32288630e-02 -2.44113907e-01 -5.35183698e-02 -1.74913391e-01 -2.11239964e-01 -1.13851130e-01 -8.69082883e-02 -4.14812751e-02 +1.06002599e-01 -3.60981491e-03 -4.09221835e-02 -2.04094619e-01 +5.80570474e-02 +2.78515249e-01 +1.37845680e-01 +1.93332165e-01 +2.84630954e-01 +9.01656039e-03 +8.83484185e-02 -1.97737157e-01 +2.03253523e-01 -1.52487576e-01 -2.66149323e-02 -1.83717698e-01 -7.86250271e-03 -9.79911536e-02 +5.53312488e-02 +2.85443157e-01 -8.33328590e-02 -2.50172406e-03 +3.37823778e-02 -3.86429317e-02 +4.49514240e-02 -1.40903220e-01 -1.98978990e-01 -1.51497394e-01 -3.00608240e-02 +3.69604235e-03 -1.60745054e-01 -4.59297970e-02 -9.50109363e-02 -7.65784159e-02 -6.55330420e-02 -8.75407159e-02 +9.05894209e-03 +5.49738370e-02 +2.89378711e-03 -4.29617502e-02 -3.23569849e-02 -1.36237852e-02 -8.03470910e-02 -1.11905523e-01 -3.14961821e-02 -2.07179096e-02 +8.43383372e-02 -1.25782728e-01 +1.72755588e-02 -1.18322477e-01 -1.18251266e-02 -1.28883943e-01 -1.13677219e-01 -6.98220432e-02 -2.09012944e-02 +9.23925117e-02 +7.02531114e-02 +7.84771442e-02 +1.65547244e-02 -2.09339373e-02 +5.52594364e-02 -1.19840361e-01 -1.31797999e-01 +1.12325273e-01 +4.10301015e-02 -3.43500823e-02 +8.11549798e-02 +1.94024041e-01 +1.11593530e-01 -1.46703333e-01 -1.92265422e-03 -1.48256393e-02 +1.39028132e-01 +5.68325073e-02 +4.52428423e-02 -1.10440649e-01 -3.64164598e-02 -1.77753881e-01 +1.02702126e-01 +1.85200591e-02 -7.50113651e-02 -1.21150007e-02 -1.61026157e-02 -8.27016905e-02 -3.41478102e-02 -9.01294723e-02 -2.12657079e-01 -3.42122912e-02 +3.09011259e-04 +4.21811305e-02 +2.24142969e-02 -6.18047267e-02 -6.06830642e-02 +3.73438597e-02 -5.96376397e-02 -1.47498518e-01 -2.00585619e-01 +3.74967568e-02 +1.17429718e-01 -1.10847205e-01 -3.60071361e-02 +1.81191713e-02 +5.39498553e-02 -1.64188311e-01 +1.06365636e-01 -5.93163781e-02 -1.65540382e-01 -1.00735128e-01 -1.09811746e-01 +2.52520181e-02 +7.05388188e-02 +3.95821445e-02 -1.74121797e-01 -6.02340586e-02 +1.28974682e-02 -1.26923665e-01 +2.91913953e-02 +7.88609236e-02 +5.15909828e-02 -1.88985750e-01 -2.37388909e-01 +8.39561969e-02 +1.21812254e-01 -3.73887941e-02 +1.88861251e-01 +3.63896452e-02 +1.14427051e-02 +1.16576113e-01 +8.19625929e-02 -2.75180601e-02 +5.17992862e-02 -9.72642079e-02 -3.47804353e-02 +4.84349132e-02 -2.53440440e-01 -1.32576853e-01 -1.42759442e-01 +1.33587286e-01 +1.54025257e-01 +2.75619715e-01 -1.15121171e-01 -1.49310961e-01 +1.14765503e-01 +2.23343790e-01 +1.79045737e-01 -4.61614598e-03 -5.34373522e-02 -1.67213872e-01 +1.36566892e-01 +1.57300860e-01 +6.57221749e-02 +1.51470587e-01 -3.56277525e-02 +2.09977865e-01 +1.79687276e-01 -2.93839015e-02 +1.31764680e-01 +7.44039938e-02 +1.44980446e-01 +4.05756347e-02 +2.15372056e-01 -2.38023531e-02 +8.47227350e-02 -8.29708949e-02 +1.40059978e-01 -9.67523828e-03 +5.84499277e-02 +1.02097087e-01 +1.27798885e-01 +1.28375947e-01 +1.27896413e-01 +6.46384433e-02 +7.59804919e-02 +3.01507413e-02 +1.43044472e-01 +1.02603868e-01 +2.55794287e-01 +3.10067609e-02 +1.50228888e-01 +5.86151369e-02 -6.34278581e-02 -5.46435304e-02 -9.66453031e-02 +1.13092430e-01 -1.14848606e-01 +1.04944333e-01 +2.30873395e-02 -4.72133607e-02 +4.38184552e-02 +9.88874957e-02 -5.42749427e-02 +1.73398286e-01 -4.89176326e-02 +7.24009275e-02 +1.49023896e-02 +1.21559389e-01 +4.57269736e-02 -3.25381942e-03 +1.87098980e-02 -1.14804037e-01 +6.98335320e-02 -1.67075768e-01 -5.45594729e-02 -1.13061920e-01 -2.30905302e-02 -1.19597182e-01 +4.63045761e-02 -1.90577039e-03 -2.05948085e-01 -3.48994099e-02 -3.71409990e-02 -2.07268391e-02 +3.57893743e-02 +1.86573014e-01 +2.30452865e-01 +1.26481965e-01 +1.04566082e-01 +1.37303844e-01 +2.28940055e-01 -1.32943625e-02 +1.33334309e-01 +1.10175371e-01 -8.76833647e-02 +2.51170713e-02 +9.29060429e-02 -2.38905903e-02 +7.83387199e-02 -4.39541712e-02 +2.00252980e-01 +4.99055050e-02 +5.17587066e-02 -2.99786814e-02 +1.62628107e-02 +1.02888726e-01 +1.05739452e-01 +1.31632686e-01 +1.33654848e-01 -2.31989995e-02 -7.57673681e-02 +3.12007181e-02 +8.24960843e-02 +1.08731136e-01 +7.22870678e-02 +2.68268466e-01 -2.35781550e-01 +8.61945213e-04 +1.91168755e-01 +5.20169213e-02 +7.81774148e-02 +1.81163192e-01 -4.05696593e-02 +1.32024840e-01 -9.36953947e-02 +1.48569241e-01 -9.64111015e-02 -1.75101310e-02 +1.67287048e-02 +1.58309311e-01 -2.10339129e-01 -1.39467329e-01 +7.41927279e-03 +3.60765606e-02 +4.40301485e-02 +6.78149238e-02 -1.05429292e-01 +1.94661915e-01 +1.01470519e-02 -1.52694061e-01 -2.69613028e-01 +7.90970922e-02 -1.13037504e-01 -1.01732910e-01 +1.25011459e-01 -3.37136276e-02 +1.59217462e-01 +1.37050420e-01 +1.57879628e-02 +7.14316145e-02 +7.16570541e-02 +5.54413944e-02 +8.76888931e-02 -7.79341906e-02 +2.13287592e-01 +4.49797101e-02 -8.11558515e-02 +7.71157220e-02 +1.34883583e-01 +2.09154546e-01 +8.40190798e-02 +8.86352547e-03 +5.11211418e-02 +1.48723602e-01 +1.69567913e-02 +1.79806817e-02 +1.15842521e-01 +2.48362385e-02 +1.06971271e-01 +1.17340475e-01 +2.40747072e-02 +4.41315137e-02 +3.46607640e-02 +5.66134863e-02 -6.26237020e-02 +4.00808733e-03 +1.71226144e-01 -9.12967399e-02 +1.02773137e-01 +4.69468860e-03 -6.61070719e-02 -5.04293926e-02 +7.30997697e-02 -1.06917478e-01 -1.52378947e-01 -3.68824415e-02 -3.52307148e-02 -4.77679893e-02 -2.74508297e-02 +9.08996072e-03 -4.16315421e-02 +2.23096926e-03 -1.71351377e-02 +7.78893754e-02 -2.20595431e-02 +5.26455604e-02 -1.21261716e-01 -2.19175778e-02 +1.28296822e-01 -1.35710523e-01 -2.86239479e-02 -9.37439501e-02 -1.66085854e-01 +9.23419893e-02 -1.58891320e-01 +9.71728712e-02 -9.71523076e-02 -1.21318579e-01 +1.23659983e-01 +4.98122200e-02 +8.51383358e-02 -1.04308441e-01 +1.03422711e-02 +2.57664680e-01 +2.81105787e-01 -7.34371915e-02 +3.67346816e-02 +7.66493380e-03 +1.69817045e-01 +1.17640659e-01 -4.19551432e-02 -5.61585464e-02 +3.36871535e-01 +8.67463276e-02 +1.48692206e-01 +6.74787536e-02 -4.20844555e-02 +2.27242231e-01 +8.87775943e-02 +1.59064680e-02 +6.67072460e-02 -3.53237987e-02 -2.67452076e-02 +9.53091830e-02 +1.05304517e-01 +9.99386832e-02 +1.54826313e-01 +2.84744143e-01 -7.51630515e-02 -1.27031524e-02 +2.29829907e-01 +4.59449217e-02 +7.19840527e-02 -5.02353273e-02 -1.25660107e-01 +1.57262180e-02 +4.85086814e-02 +2.25612661e-04 +1.79489478e-01 +4.48088795e-02 -2.95371804e-02 -7.99088553e-02 -1.87641904e-01 +1.22638106e-01 -3.09558567e-02 +3.55373137e-02 -1.32503957e-01 -7.46358335e-02 +1.07355781e-01 +1.83488965e-01 -6.58666641e-02 +1.08960696e-01 +1.29668340e-01 +5.33932410e-02 +5.64814396e-02 +4.98000942e-02 -1.90946683e-01 -1.42101318e-01 +1.80028796e-01 +2.88501650e-01 -4.93478738e-02 +5.42983711e-02 -4.23504114e-02 -1.02183893e-01 +8.35227594e-02 +1.23927109e-01 +1.03283763e-01 +1.33163169e-01 +9.09959972e-02 +1.82781175e-01 +1.72926053e-01 +9.99942273e-02 +1.08975686e-01 -2.47458052e-02 +3.85789759e-02 -5.52080423e-02 +8.01323652e-02 +3.59496027e-02 +1.16251446e-01 +1.36677742e-01 +8.60894695e-02 +3.97086181e-02 +1.78629503e-01 +1.71608061e-01 +1.30432755e-01 +1.25556529e-01 -4.13039550e-02 +3.89940059e-03 +1.59825817e-01 +4.10907380e-02 +1.78927675e-01 +1.91608205e-01 +9.83199999e-02 -4.26924415e-02 -2.71223001e-02 +5.70348203e-02 +1.06468312e-01 +1.18047707e-01 -6.20344505e-02 +5.77069707e-02 +1.29862707e-02 -9.10839885e-02 +1.14110760e-01 -1.07333399e-01 -1.78486109e-01 +6.34798780e-02 -1.57721326e-01 +7.10789636e-02 +1.55755326e-01 -1.37562484e-01 -1.47052497e-01 +3.78369167e-02 -3.23101841e-02 -1.71139121e-01 -3.91677395e-03 -4.58381511e-02 -1.59495138e-02 -1.26340419e-01 -1.79174896e-02 -1.89890221e-01 -3.35075669e-02 -6.37170821e-02 -7.44469911e-02 +6.32502884e-02 -4.82742153e-02 +3.90052199e-02 +8.98643136e-02 +4.41195555e-02 -4.22014482e-02 -1.01076163e-01 +4.44931649e-02 +5.29452041e-02 +2.07143217e-01 +5.76760024e-02 +2.46059880e-01 +9.85993892e-02 +6.63063675e-02 -9.94665921e-03 +1.78815097e-01 -9.83350202e-02 +7.89046809e-02 +1.31655648e-01 +1.66045636e-01 -4.68276031e-02 -7.88499787e-02 -1.99211761e-02 +2.21546143e-01 +1.94031484e-02 +1.41554460e-01 +4.11591381e-02 -4.70682234e-02 +1.39036655e-01 +1.65821873e-02 +8.11900645e-02 +1.34095207e-01 +8.98315981e-02 -2.10683849e-02 -1.75896972e-01 +9.16488096e-02 +3.18904594e-02 -9.46125314e-02 +2.08008587e-01 -2.03707099e-01 -4.91145514e-02 +6.04192466e-02 +2.07664937e-01 +2.28240460e-01 +5.40097728e-02 -4.99627069e-02 -1.06283411e-01 -2.06068888e-01 -4.29635718e-02 +8.22011456e-02 +8.12598504e-03 -7.91045353e-02 +7.43972883e-02 -1.03890404e-01 +8.41277689e-02 -8.21016878e-02 +3.63764986e-02 +6.56842813e-02 -3.47005688e-02 -1.69365406e-02 +1.37702033e-01 -1.13990188e-01 -1.03375494e-01 -4.67202924e-02 +6.95273429e-02 -4.34299260e-02 -2.53502101e-01 -1.29090980e-01 +7.95019697e-03 +1.50335774e-01 +1.48163006e-01 -2.30218247e-02 +3.33960727e-02 -1.35642318e-02 -2.49531530e-02 -1.61719814e-01 +1.54800611e-02 -6.58043846e-02 -1.35538757e-01 -1.30340934e-01 -3.16137373e-02 -1.00975491e-01 -1.28226325e-01 -2.82072455e-01 -1.30115107e-01 -1.79755557e-02 -2.15805054e-01 -1.38691500e-01 -7.09253713e-04 -8.74806270e-02 -8.22836384e-02 -2.36808002e-01 -2.00800151e-01 -1.48300186e-01 -5.11581935e-02 -3.39743793e-02 -2.94170249e-02 -1.75565168e-01 -1.65504262e-01 -3.52833048e-02 +8.50024924e-04 -1.65547375e-02 -2.06924602e-01 +9.71716344e-02 -4.70858589e-02 -7.43115395e-02 +1.24930382e-01 +8.98726061e-02 -6.70499727e-02 +1.46396086e-01 -1.10838942e-01 -4.25026827e-02 +3.14378254e-02 -6.39815181e-02 +1.96507901e-01 -6.87292293e-02 -8.26504678e-02 -4.60532904e-02 +8.66951868e-02 -6.30712658e-02 -6.08958527e-02 +1.14504725e-01 -1.69457436e-01 +2.12129697e-01 +8.42596032e-03 +3.92369181e-03 +2.24697545e-01 +1.28467500e-01 -7.32728764e-02 -1.16643943e-01 -1.88277178e-02 -1.00543462e-02 -3.32016312e-02 -6.71911985e-02 +1.80177018e-01 -8.71648788e-02 -2.90537804e-01 -2.10890934e-01 -1.97212204e-01 -2.25638390e-01 -1.85262725e-01 -9.85009968e-02 -2.86010765e-02 -2.04961926e-01 -2.26759747e-01 -4.36613448e-02 -2.23486409e-01 -2.31642365e-01 -1.53655127e-01 -1.55161873e-01 -2.49197543e-01 +1.89227074e-01 -2.30801225e-01 -1.77122205e-01 -1.16190583e-01 -3.66183408e-02 -2.16539115e-01 -2.58190572e-01 -9.09318924e-02 +1.03461407e-02 -3.20222944e-01 -2.32867241e-01 -2.26194799e-01 -6.92054406e-02 -9.24553797e-02 +1.34702176e-01 -5.57081178e-02 +1.71740770e-01 +7.82571211e-02 -1.25299871e-01 -1.75697342e-01 -2.57872134e-01 +4.24210727e-03 +3.06468215e-02 -2.57318374e-02 +1.28670022e-01 +5.04428782e-02 -1.26841143e-01 -9.47729778e-03 +4.99977916e-02 -3.16306427e-02 +4.40358650e-03 +8.52281973e-02 -6.23329207e-02 -1.41513377e-01 +9.38937217e-02 +1.62582576e-01 +2.51328737e-01 -1.17807984e-01 -2.08084434e-01 -1.42583817e-01 +1.26809543e-02 -2.48493418e-01 +1.62999645e-01 -9.33047533e-02 +3.86221945e-01 -3.64420959e-03 -8.22711736e-02 +8.67433101e-02 +2.65615340e-03 +5.13449460e-02 -7.32388571e-02 -1.21348854e-02 +1.55454621e-01 -1.93415686e-01 -1.41103461e-01 -2.48325586e-01 -1.51493251e-01 +1.61996633e-02 -1.47932887e-01 -9.75787044e-02 -2.96493359e-02 -9.68198553e-02 -1.75353631e-01 -6.01616874e-02 -1.72670960e-01 +2.17554644e-02 -7.53908008e-02 -6.25590235e-02 -9.49087515e-02 -2.14998260e-01 +5.81817096e-03 -1.17534399e-01 -6.84126541e-02 -1.57480553e-01 -1.15919270e-01 -5.60883321e-02 -1.53888360e-01 -1.98159695e-01 +1.42881975e-01 -5.03119007e-02 -6.13213889e-02 -4.27463241e-02 +2.91144717e-02 +8.26245826e-03 -1.84343934e-01 -1.40925631e-01 +7.91595876e-02 +2.02324744e-02 -1.88476115e-01 +6.57186052e-03 +2.98259258e-02 -2.51399964e-01 -1.19463064e-01 -3.61623615e-02 +1.16955429e-01 -1.61395118e-01 +7.34770596e-02 +3.27865183e-02 -3.55807960e-01 +2.88606375e-01 +9.51477140e-02 +3.00085664e-01 +1.00517720e-01 -2.06131831e-01 +2.29021758e-02 +3.47853787e-02 -8.58337805e-02 +2.10959628e-01 +1.77374616e-01 -1.26606494e-01 +5.83432727e-02 +7.91841373e-02 +1.37373535e-02 -7.59886280e-02 -1.00494303e-01 +9.29294247e-03 +2.11146072e-01 -3.33839774e-01 -1.41764134e-01 -3.55992198e-01 -3.21545362e-01 -6.58654943e-02 -8.24325457e-02 -2.52212346e-01 +7.06723854e-02 -3.03479889e-03 -1.22300483e-01 -1.17980331e-01 -4.22985643e-01 -4.25728410e-02 -2.26622611e-01 -4.79071997e-02 +2.63799261e-03 -1.61496818e-01 -7.42837340e-02 -1.99984640e-01 +7.60942549e-02 +7.76247010e-02 +3.81598361e-02 +2.51480471e-02 -2.47203723e-01 -1.68576643e-01 +9.14442912e-02 -1.35118529e-01 +8.10282901e-02 -4.84990627e-02 -5.06579829e-03 +6.86372891e-02 -1.90182641e-01 -2.55607784e-01 +6.71624951e-03 -3.00914615e-01 +3.64076436e-01 +5.69883771e-02 -1.49530724e-01 +1.80164620e-01 +1.19264849e-01 -5.08208647e-02 -2.28606332e-02 +1.17582176e-03 +1.76877469e-01 +8.38395730e-02 -1.80308878e-01 +1.99943110e-02 +9.65994969e-02 +3.16652954e-01 +5.62114716e-01 +2.88440268e-02 +1.69167116e-01 -1.79935724e-01 -8.59814584e-02 -1.10285744e-01 -1.02877259e-01 -1.40909389e-01 +1.76507488e-01 +3.59176123e-03 +5.08603826e-02 -6.45738989e-02 -1.31814823e-01 -1.76549137e-01 -7.77819678e-02 +4.11572307e-02 +2.86064507e-03 -8.03381577e-02 -8.91397670e-02 +8.13592970e-02 -2.65531708e-02 -8.60813335e-02 -1.25666842e-01 -2.21604872e-02 +7.45588318e-02 +5.26132360e-02 -9.98924822e-02 +8.82568508e-02 -2.03616805e-02 -9.74780545e-02 -3.22329551e-02 -1.41532964e-03 -3.39199230e-02 -2.39207353e-02 +7.11695030e-02 -1.76326498e-01 -5.23464121e-02 -4.96505760e-02 +9.13924444e-03 +1.43334255e-01 +1.84000731e-02 -1.31795973e-01 -4.71386407e-03 +3.23694423e-02 -8.63870606e-02 -3.04970443e-02 +4.10929397e-02 +5.39055765e-02 +1.55827299e-01 +3.56790517e-03 +8.90812278e-02 +5.60873225e-02 -1.17610715e-01 +1.45496979e-01 +8.40075910e-02 -3.96990888e-02 -3.66251096e-02 +1.42399818e-01 +9.01608318e-02 -3.78974946e-03 -5.09136096e-02 +2.39959955e-02 +7.19239116e-02 +1.34789437e-01 +1.18543983e-01 -1.39325028e-02 -4.12446782e-02 -1.47346616e-01 -9.57395940e-04 +4.91001755e-02 +1.37695521e-02 -6.36880659e-03 -7.42881522e-02 +2.04075962e-01 -9.33689997e-02 -6.03036173e-02 -1.73418149e-01 -5.29237725e-02 -8.91303346e-02 +2.13342696e-01 +1.16374254e-01 +9.23945755e-02 -4.49282154e-02 +8.62273425e-02 -3.41758460e-01 +9.06344056e-02 -1.27819210e-01 -7.60221332e-02 +7.58095235e-02 -9.08248499e-02 +8.00355989e-03 +1.53991312e-03 +1.25682026e-01 +1.54603466e-01 -2.66350117e-02 -2.77006403e-02 -4.01598401e-02 +1.81242287e-01 -1.65940732e-01 -1.18531682e-01 +8.06441158e-02 +1.38817310e-01 +1.37214959e-01 +1.24137565e-01 -2.09206287e-02 -4.26619574e-02 -7.39862816e-03 +2.80124024e-02 -4.34779301e-02 +1.51319057e-03 -3.36280048e-01 +5.49273118e-02 +6.75321296e-02 +1.65238351e-01 +2.37806961e-01 +2.08812207e-02 -1.62279662e-02 +1.98127106e-02 +1.13528013e-01 +9.71545130e-02 +4.06090990e-02 +2.27526426e-02 +4.41846736e-02 -4.62937467e-02 -1.01365320e-01 -9.70185921e-02 +3.05941422e-02 +1.05258204e-01 +1.39096975e-01 +2.60040194e-01 -2.59291559e-01 -1.23300217e-01 +2.22781692e-02 +4.80802320e-02 +1.92640230e-01 +1.41101450e-01 +1.35996953e-01 -2.11923584e-01 +5.36953844e-03 +3.47365788e-03 +1.34414928e-02 -3.13987583e-02 -5.60935438e-02 +2.95514334e-02 -2.98195034e-02 -2.41750684e-02 -1.14013784e-01 -2.18426157e-02 +2.72213034e-02 -2.51156926e-01 -7.01525956e-02 +4.84542772e-02 -1.20824695e-01 -2.11251065e-01 -7.62966126e-02 -1.62308410e-01 -2.23633692e-01 -2.15653293e-02 +3.40324715e-02 +6.03639185e-02 -3.71836014e-02 -2.12070256e-01 -2.68177576e-02 -8.83430243e-03 -1.21746726e-01 +1.41667239e-02 -5.95976636e-02 -1.50413379e-01 +8.08538496e-02 +3.46755423e-02 -9.26144198e-02 +1.78558379e-02 -8.44269320e-02 +2.16863379e-02 -7.65107013e-03 -9.35470387e-02 +7.30697289e-02 +1.01970062e-01 +5.75843304e-02 -1.95383783e-02 -2.05476526e-02 +1.24727301e-01 +3.60689498e-02 +3.75738628e-02 -7.17098266e-02 +1.26221422e-02 -2.52325106e-02 -4.75070029e-02 +2.79385716e-01 -2.05244973e-01 -1.03033856e-01 -6.46953806e-02 +8.10189098e-02 -1.60892963e-01 -3.27157415e-03 +1.13099786e-02 -8.00118670e-02 -1.29033044e-01 -1.76655039e-01 -1.45379147e-02 -7.92088285e-02 +1.52801916e-01 -8.76275748e-02 +8.92545432e-02 -6.18779510e-02 -2.90381499e-02 -6.74364120e-02 -5.33526279e-02 -5.18407039e-02 -1.30091116e-01 -1.92920983e-01 -1.41644642e-01 -2.65987605e-01 -5.74758649e-02 +7.12578818e-02 -1.75854102e-01 +1.09419629e-01 -3.10698658e-01 +2.28397306e-02 -1.86209455e-01 -2.15756238e-01 -2.26134241e-01 -9.82408300e-02 -1.07976273e-01 -7.90862888e-02 -2.24018335e-01 -7.51382262e-02 -2.65401304e-01 -1.64701208e-01 +2.55141277e-02 -5.78600504e-02 -2.41610762e-02 -1.00374602e-01 -7.19125196e-02 -3.54723237e-03 -1.24685206e-02 -1.50626764e-01 -9.86528546e-02 +1.27465159e-01 +5.23237884e-02 -2.36864194e-01 +1.01566076e-01 +1.30068719e-01 +1.56724930e-01 -1.04058906e-01 -3.09900075e-01 +3.02039355e-01 -1.18213192e-01 +4.53519374e-02 -1.86812848e-01 +1.82219774e-01 -1.46045342e-01 +1.99116960e-01 +3.28610569e-01 -8.04665685e-02 -8.10862184e-02 +4.40302975e-02 -8.85559432e-03 +3.51259150e-02 +8.59069079e-02 +2.05960840e-01 +2.20868677e-01 -1.19670302e-01 +1.61815867e-01 +1.72962137e-02 +1.41681895e-01 -8.07491189e-04 +9.26939547e-02 +1.59880027e-01 +6.94466382e-02 +8.35779011e-02 +1.27352551e-01 +2.27089435e-01 -3.90055962e-02 +2.41672188e-01 -2.37113629e-02 +1.17153659e-01 +2.05172390e-01 +3.86214419e-03 +1.31193370e-01 +1.61460459e-01 -1.19814217e-01 +6.14674166e-02 +5.12658507e-02 -6.07382553e-03 +2.18075305e-01 +7.75916949e-02 +1.88874230e-01 +2.28923634e-01 +1.07795902e-01 +5.47537766e-02 +7.32856542e-02 -2.10844334e-02 +1.16291404e-01 +2.20751077e-01 +1.05840929e-01 +1.02819644e-01 +9.19843391e-02 +1.28339440e-01 -5.41724823e-02 +1.55006915e-01 -1.07195377e-02 +1.03112966e-01 -8.54897872e-03 -2.00510189e-01 +5.84668964e-02 -8.99076611e-02 +1.31725073e-01 +8.22253600e-02 -2.30963863e-02 -3.04964855e-02 +1.06965296e-01 -8.13189670e-02 +9.46826413e-02 -2.43707020e-02 -1.49475522e-02 +2.35222578e-02 -1.71004772e-01 -2.65178662e-02 -2.43365288e-01 -9.83296037e-02 +1.25647476e-02 +6.65775761e-02 +8.82083103e-02 +1.34509608e-01 -2.07867101e-01 -1.32890999e-01 -4.41174544e-02 -6.43202811e-02 -5.06492034e-02 +1.71839476e-01 +1.97061390e-01 +3.01460505e-01 +1.39697284e-01 +1.97490096e-01 +1.59014523e-01 +5.19035198e-02 +8.05116668e-02 +2.94073462e-01 +2.63139725e-01 +4.54716906e-02 +4.81308438e-02 +2.07092047e-01 -1.72951698e-01 -4.47676405e-02 +1.61607176e-01 +3.15741807e-01 +6.01224266e-02 +1.41608968e-01 -3.76820378e-03 -1.10910267e-01 +6.24256693e-02 +8.29144046e-02 +1.76744074e-01 +1.95846394e-01 -1.22029614e-02 +5.82214270e-04 -1.62226468e-01 +1.86794937e-01 +9.39304903e-02 +2.07728460e-01 +1.31735221e-01 -2.24718884e-01 +2.44993463e-01 +7.25759342e-02 +1.60174757e-01 +2.94956684e-01 +1.72945663e-01 -1.05383396e-01 -2.61363387e-02 -3.77972752e-01 +4.12616283e-02 +4.30264026e-02 -3.02918162e-02 -4.52350602e-02 +1.37117192e-01 -1.24440894e-01 -1.40401080e-01 -1.44683585e-01 +2.83481777e-01 -1.80154204e-01 +1.63958687e-02 -5.15319631e-02 +2.60953307e-01 -1.59553438e-01 -9.09141526e-02 -2.28508681e-01 -5.31198382e-02 -4.72853817e-02 +3.68830897e-02 -3.53463367e-02 +4.57669422e-02 +1.62487403e-01 -4.14671144e-03 -1.27277821e-01 +9.35560092e-03 -9.69530791e-02 +3.75415832e-02 -1.32754862e-01 +9.55322608e-02 -1.10576615e-01 +6.38197213e-02 -6.18883073e-02 +9.96841043e-02 +8.21264610e-02 -1.34505481e-01 -1.71486616e-01 +6.57435209e-02 -5.37433615e-03 -6.21533208e-02 -4.29230519e-02 +6.10602982e-02 -9.44316909e-02 -8.37847665e-02 -5.70837744e-02 -1.13890037e-01 -1.12831511e-01 +6.93369657e-02 -6.42697737e-02 -2.03121305e-01 -2.27976590e-01 +5.12829572e-02 -7.88331777e-02 -9.13899392e-03 +9.46787819e-02 -1.53225139e-01 -4.61820662e-02 -5.45644239e-02 -6.01720884e-02 +6.67065978e-02 +9.46645588e-02 +1.19524904e-01 +5.79031445e-02 +8.64775702e-02 +3.56880203e-02 -6.77133352e-02 -1.05700746e-01 +2.12787941e-01 -1.58463605e-02 +2.29969225e-03 +5.15890457e-02 +7.32411221e-02 -8.80857836e-03 +7.52566531e-02 +2.41904080e-01 -1.16022781e-01 -1.90671091e-03 -2.43538376e-02 -4.22308147e-02 -1.16816476e-01 +1.01501197e-02 -1.03348613e-01 -1.22799173e-01 -8.87763947e-02 -1.59250230e-01 -9.34167877e-02 +2.83407327e-02 +1.74681544e-01 -1.03759907e-01 +1.47215752e-02 -2.06779137e-01 +1.10636391e-02 -1.02223523e-01 +5.50344586e-02 +7.29021206e-02 +2.18449354e-01 -4.76699583e-02 +1.81559816e-01 -2.56454647e-01 -1.70219436e-01 -1.48981751e-03 +4.89918888e-02 -1.10641152e-01 +3.75316069e-02 -1.80686377e-02 -2.60806028e-02 -9.85334814e-02 +8.83283443e-04 -3.96039672e-02 +5.62367290e-02 -2.05450237e-01 +5.08592501e-02 -3.71139590e-03 -3.18846047e-01 -3.75224203e-01 -2.23545730e-01 +9.58122015e-02 +9.49726067e-03 +8.49679038e-02 -6.74305335e-02 +1.45384967e-01 -1.86590608e-02 -8.25340003e-02 +4.81203347e-02 -1.46765932e-01 -3.11897509e-03 -3.29639137e-01 +3.46003659e-02 +1.83349773e-01 +6.91487268e-02 -7.47690275e-02 +5.93687184e-02 -2.59819571e-02 +1.06017105e-01 +1.24382652e-01 +2.62893960e-02 +9.97217298e-02 -4.54698764e-02 +1.38726130e-01 -5.08527867e-02 +1.56622246e-01 -1.99574083e-01 -1.44853085e-01 +6.81352466e-02 -2.45332032e-01 -2.23697111e-01 +6.80251494e-02 +1.87390611e-01 +3.26080561e-01 +1.11013819e-02 -6.44454360e-02 +1.78906173e-01 -5.93384989e-02 -9.12464634e-02 -4.20407616e-02 +9.00846068e-03 +5.72525722e-04 -1.20913960e-01 -1.89982817e-01 -1.40566245e-01 -1.73728079e-01 -1.31194815e-01 -1.55245602e-01 +4.03609872e-02 -9.11964551e-02 -7.33503550e-02 +2.17892844e-02 +1.49439752e-01 -9.95413288e-02 +6.19042153e-03 +5.38795739e-02 -1.92251489e-01 -1.36214539e-01 -2.37114489e-01 -1.62835151e-01 -1.49234772e-01 -6.34314073e-03 -1.05508015e-01 -5.20068407e-02 +4.37759906e-02 -1.74172491e-01 -6.06584363e-02 -1.03368595e-01 -8.82941261e-02 +1.00326329e-01 +1.25313839e-02 -1.27849385e-01 +4.72969785e-02 +3.56146581e-02 -8.21622983e-02 +1.42363206e-01 -3.57027538e-02 -4.80003208e-02 +9.05636698e-02 +4.94483672e-02 -2.34017670e-01 -1.23897910e-01 -2.67280396e-02 +9.56016555e-02 -4.38125320e-02 +3.87228690e-02 +7.61423185e-02 -1.00434281e-01 +3.12960669e-02 +6.93362951e-02 +2.91724861e-01 +1.75031856e-01 +5.23530543e-02 +1.56735152e-01 +7.54698552e-03 +8.95500705e-02 +1.58592224e-01 +2.58119404e-02 -1.24756262e-01 +8.31567347e-02 +1.58040449e-01 -1.07745752e-01 -4.59382758e-02 -1.17541343e-01 -1.70774877e-01 -1.29225492e-01 -6.92411372e-03 -2.15894103e-01 -1.76607043e-01 -2.01722831e-02 +1.89578548e-01 -1.16364345e-01 -1.65517405e-02 -1.66674212e-01 +9.51771624e-04 +1.07066430e-01 -5.11155091e-02 -2.32971013e-01 -6.13028258e-02 -5.31573296e-02 +3.27293091e-02 -2.57904027e-02 -9.43829045e-02 -2.68420181e-03 -1.04514159e-01 -4.42996360e-02 -5.14295399e-02 +1.10002741e-01 +1.45846203e-01 -1.27129570e-01 -1.94490418e-01 -3.90983559e-02 -2.25416511e-01 +2.48686150e-01 -1.07084410e-02 -1.65266003e-02 -2.41786577e-02 -1.01053953e-01 +6.99083433e-02 +1.64008617e-01 -9.60056782e-02 +2.50746489e-01 +3.82815711e-02 -7.82607049e-02 +1.76930249e-01 -6.25222102e-02 -1.22799098e-01 +1.38656065e-01 -1.46699548e-01 +1.32673830e-01 -5.71888722e-02 -1.20049231e-01 +1.76626518e-02 -1.02210231e-01 +1.14456125e-01 +2.68856645e-01 +3.04917127e-01 +7.00442865e-02 -2.02208430e-01 +4.78960108e-03 +4.77058291e-02 -4.40841448e-03 +2.54603803e-01 -1.07735232e-01 -7.95855373e-02 -1.63534773e-03 -1.02894921e-02 -1.30043086e-02 +1.61318898e-01 +1.23947099e-01 +7.55742192e-02 +4.69024442e-02 +4.93193902e-02 +5.29284887e-02 -5.04531823e-02 -7.52141373e-03 +6.35781437e-02 +5.88865504e-02 +6.46452606e-02 +1.07488245e-01 -3.62530947e-02 -1.07173016e-02 +1.21638052e-01 -8.67578015e-02 +1.04500569e-01 +7.20637962e-02 -7.44586363e-02 +1.51826486e-01 -8.40571001e-02 +1.04521662e-01 +1.79587215e-01 -1.29236095e-02 -6.97399527e-02 -1.27134304e-02 -8.91767163e-03 +8.81264135e-02 -3.88761088e-02 +9.74390507e-02 +1.05454870e-01 +8.17901567e-02 +9.65071097e-02 +1.45286560e-01 -3.75573188e-02 +3.23778130e-02 +1.00405589e-01 -8.65079686e-02 -7.32911751e-02 +6.27993699e-03 +1.68504030e-01 +5.46450838e-02 +1.11570515e-01 -6.17795698e-02 +3.16401795e-02 +1.41804740e-02 +5.68596348e-02 +4.72639687e-02 -1.46814594e-02 +9.87338722e-02 -1.84869096e-01 -2.79361336e-03 +1.25171095e-01 -2.36370992e-02 -1.00784838e-01 -9.38697159e-02 -1.64484739e-01 -5.12500033e-02 +3.68527956e-02 -9.65998843e-02 -1.64832696e-01 +1.33344218e-01 +8.89926627e-02 +1.25907794e-01 +1.35162801e-01 +2.09302083e-02 +8.95958990e-02 -5.01208156e-02 +6.00244775e-02 +2.88337432e-02 +1.26611337e-01 +1.80543929e-01 +1.37143061e-01 +1.27512589e-01 -2.11855203e-01 -3.44242342e-02 -9.72986445e-02 +1.85895875e-01 +1.12420946e-01 -3.10005546e-02 -6.16420470e-02 -1.48063302e-01 -7.38000050e-02 -9.14520621e-02 -8.00359249e-02 -2.29349490e-02 +2.51023099e-02 +1.25499561e-01 -1.03451066e-01 +1.06190287e-01 +5.11479303e-02 -4.89320308e-02 -2.02024970e-02 -1.45367056e-01 +6.24165125e-02 +1.39464512e-01 +8.00442398e-02 +3.93169820e-02 +1.80828393e-01 +6.65507140e-03 +2.39134897e-02 -1.13634616e-01 +1.36113226e-01 +8.93398821e-02 -1.28472820e-01 +5.43514565e-02 +1.35085478e-01 -1.56854782e-02 +9.14046019e-02 -7.03739421e-03 +2.94662714e-01 -5.92227951e-02 -1.69514030e-01 +1.65642589e-01 +2.80694783e-01 -1.11895226e-01 -2.49362603e-01 -1.87614039e-02 +1.48128465e-01 +4.92767841e-02 -2.88949367e-02 -1.82583213e-01 -2.03620672e-01 +1.62518650e-01 +2.34907284e-01 +9.79399588e-03 +1.42237052e-01 +1.85741991e-01 +1.36197031e-01 +2.44925288e-03 +3.41119547e-03 +1.13736391e-01 +2.01901197e-02 +4.91943546e-02 +3.75649333e-02 +1.53588802e-01 +9.26313549e-02 +7.89334252e-02 +1.53896645e-01 +7.21623898e-02 +5.62683074e-03 +1.54355586e-01 +7.85338581e-02 +6.47539720e-02 +1.92402646e-01 +1.50479600e-01 +1.27135053e-01 +2.08361626e-01 +1.43855497e-01 +1.40742630e-01 +6.16856031e-02 -5.17974794e-02 -1.74423791e-02 +2.30594158e-01 +1.12913683e-01 +1.11975884e-02 +1.43195614e-01 -7.95440003e-02 -9.88926645e-03 +2.81099882e-02 -7.73919970e-02 +1.11434698e-01 +3.17035727e-02 -1.23719173e-03 +1.07141703e-01 -1.28682271e-01 +1.19385459e-01 +1.27904341e-01 +1.26860216e-01 -1.27260372e-01 -6.01837710e-02 +2.76399236e-02 +8.80623311e-02 -9.01056454e-02 +1.12223364e-01 +2.94546615e-02 -1.30945206e-01 +1.19017567e-02 -1.73586547e-01 -1.49462253e-01 +3.12135369e-02 +4.71499823e-02 -6.79775327e-02 -4.73428480e-02 +4.13034782e-02 -1.51464745e-01 -5.15837036e-02 -6.82356507e-02 +4.97580916e-02 +1.95038810e-01 +8.83543566e-02 +2.32754007e-01 +1.51942372e-01 +8.16500485e-02 +2.40540784e-02 +9.13761184e-02 -2.80305203e-02 +1.81026280e-01 +1.24262869e-01 +1.36807844e-01 +1.32638872e-01 +4.95413393e-02 +9.82840583e-02 +6.72776625e-02 +1.20286178e-02 -2.27342863e-02 +1.74331844e-01 +1.20474018e-01 -4.14624019e-03 -6.34867772e-02 +1.33961126e-01 +1.15236968e-01 +1.36015430e-01 +1.95036635e-01 -3.49387787e-02 -3.97160575e-02 -5.62575497e-02 +2.88116604e-01 +1.12857603e-01 +1.54939452e-02 +3.51300985e-02 -2.03742921e-01 +7.03551024e-02 +1.57595605e-01 +1.75859213e-01 +9.86910164e-02 +1.65025264e-01 +6.87590986e-02 +1.08522534e-01 -9.38668549e-02 +8.10495690e-02 -1.19489403e-02 -7.26463273e-02 +4.41009514e-02 +1.87541824e-02 -9.17777047e-03 +9.89103168e-02 -5.53227253e-02 +1.99909434e-01 +1.43626139e-01 -6.42443225e-02 +1.62558094e-01 +1.27375349e-01 +2.60200668e-02 -5.62579706e-02 -9.58207250e-02 +1.01876624e-01 -1.18594237e-01 -1.17367171e-01 +1.34481385e-01 -1.96825504e-01 +1.47070259e-01 +1.19156763e-01 -1.25815958e-01 +1.17036641e-01 -1.07473740e-02 +6.53615966e-02 -3.81952897e-02 +5.42109944e-02 +4.07996289e-02 +1.76574975e-01 -3.77616473e-02 -4.21982855e-02 +8.31798166e-02 -2.45174766e-03 -2.79801916e-02 +1.07084237e-01 +2.30262920e-01 +1.27199795e-02 +1.21842362e-01 -3.84008065e-02 +2.55646892e-02 -7.93506042e-04 +4.30851355e-02 +1.15156420e-01 -1.02473155e-01 -7.04515586e-03 +3.68296988e-02 -5.90857305e-02 +8.75307843e-02 +9.16274115e-02 +1.49034429e-02 +2.33620536e-02 -1.16117358e-01 -8.89894664e-02 +6.51250477e-04 -4.75623123e-02 -5.16803237e-03 +3.75001244e-02 +3.45534645e-02 +8.64706263e-02 +1.40210032e-01 -3.10474187e-02 -6.98307678e-02 -8.97647068e-02 +9.73909199e-02 +2.89480865e-01 +5.84013797e-02 +4.54329252e-02 +6.24453165e-02 +1.71004102e-01 -2.16846894e-02 -1.94402829e-01 +1.66810378e-01 -1.35191381e-01 -1.76234156e-01 -1.27326325e-01 -5.15045673e-02 -4.43467610e-02 +3.74817438e-02 +7.69644529e-02 -8.71620625e-02 -4.82094660e-03 -9.32290629e-02 -1.83764413e-01 +6.78345859e-02 +2.88811810e-02 -1.69901118e-01 +7.26666003e-02 -1.44888446e-01 -1.59417704e-01 -7.25897923e-02 +2.54499584e-01 +1.75775528e-01 +1.94624409e-01 +1.24940529e-01 +2.69785523e-01 -5.30573130e-02 +5.87678924e-02 +4.51206304e-02 -2.88298875e-02 +2.74537653e-01 +6.96109757e-02 +3.95596713e-01 +7.93418065e-02 +1.73119947e-01 -1.05326302e-01 +1.97540507e-01 +1.52682409e-01 +1.50280492e-02 +7.63804242e-02 -1.42630905e-01 -1.46915406e-01 -4.30509038e-02 +1.59268603e-02 +4.24496271e-02 +4.15088469e-03 +6.60695657e-02 +1.66297719e-01 +1.47218555e-01 +2.35333204e-01 +3.18562649e-02 -1.66727841e-01 -9.23654139e-02 +1.29192501e-01 -1.15407988e-01 +1.84397444e-01 +3.51987779e-02 -3.23691852e-02 +2.60986090e-02 -2.27708146e-01 +1.24022029e-01 +1.55876800e-01 -1.83910817e-01 -1.80341333e-01 -9.29727852e-02 -4.03480083e-01 +9.24644694e-02 +1.66635383e-02 -2.31252253e-01 -4.90634352e-01 -1.93183631e-01 -1.23598594e-02 -1.95224941e-01 +1.78644940e-01 -4.15792391e-02 +1.92727610e-01 +2.56627142e-01 +2.12011084e-01 -1.66767817e-02 -1.23896778e-01 +5.51398657e-02 +1.93161815e-01 -2.99573727e-02 -3.82221770e-03 +9.17951092e-02 +4.06893268e-02 -1.06723309e-02 +1.14991814e-01 +1.11064285e-01 +2.07222775e-01 +5.54230660e-02 -4.79531921e-02 +2.06299573e-01 +1.71200097e-01 -6.68232143e-02 +4.45123278e-02 +4.77578714e-02 +4.49895449e-02 +7.83778131e-02 +1.86734676e-01 +7.07915202e-02 +1.25607193e-01 +2.01447338e-01 +2.96346173e-02 +1.66795865e-01 -3.16602625e-02 -7.09154382e-02 +1.48063824e-01 +1.40579924e-01 -5.99635914e-02 +1.82547659e-01 +1.33894414e-01 -1.55648701e-02 +6.04280867e-02 -5.28059267e-02 -6.89913519e-03 -1.57333642e-01 +3.44700254e-02 +1.63169757e-01 +1.14912294e-01 +9.22730844e-03 -4.05111946e-02 +5.94572946e-02 -6.53532892e-02 -8.92387796e-03 -8.96876156e-02 +3.84835675e-02 -1.52584491e-02 +5.82657289e-03 +1.55498190e-02 -1.43897384e-02 -3.83813083e-02 -1.92943007e-01 -1.60157725e-01 +5.73373549e-02 -8.32017362e-02 -6.56798184e-02 +4.97943275e-02 -7.17619732e-02 -1.03822678e-01 -2.08690409e-02 -2.25457579e-01 +8.68777633e-02 +2.09610760e-01 +7.98715055e-02 +3.46510053e-01 +5.93385939e-03 +5.04600629e-02 +2.07823038e-01 +2.32182890e-01 +1.86097801e-01 +6.25197962e-02 +1.49684533e-01 +3.06742638e-01 +8.19100589e-02 +8.45559388e-02 +1.88126177e-01 -3.13469023e-02 +6.08088635e-02 +2.71698385e-02 +5.25814928e-02 +1.68664321e-01 +3.40134762e-02 +2.32939497e-01 +4.33773398e-02 +1.07649043e-01 +1.44613713e-01 -8.92927647e-02 +1.82957873e-01 -5.69307171e-02 -9.62398425e-02 +1.80311322e-01 +9.32490230e-02 -1.13560697e-02 +2.55173296e-01 +8.05430710e-02 -4.73860018e-02 +1.86846659e-01 +2.23358378e-01 +8.75370502e-02 +6.24842718e-02 +2.24537775e-01 -3.55126858e-01 +1.66150466e-01 -1.10415190e-01 +2.74554104e-01 +1.54140577e-01 -6.07972965e-02 +1.17234416e-01 -6.26684073e-03 -1.42179191e-01 -1.72822446e-01 -9.68814194e-02 +1.38608590e-01 +1.45314960e-03 -1.68267712e-02 -1.39936268e-01 +2.18671071e-03 +1.30928516e-01 +2.78364830e-02 -1.55817524e-01 +2.45725378e-01 -8.74752328e-02 +1.98449761e-01 -1.01745553e-01 -8.89757052e-02 +1.19736716e-01 +1.19745076e-01 -1.68744907e-01 -4.40038331e-02 -4.44332361e-02 -8.30274597e-02 -2.34685645e-01 -6.70043305e-02 -1.73362091e-01 +3.18433195e-02 -2.53603756e-02 -1.11873761e-01 -6.24993108e-02 -1.25000075e-01 -2.13555232e-01 -1.23340860e-01 -1.27025589e-01 -9.86393467e-02 -4.51855622e-02 -1.36024669e-01 +7.43966401e-02 -1.24135412e-01 -7.35015050e-02 -9.99175906e-02 -4.56667840e-02 -1.03318214e-01 +5.61086135e-03 -2.16763303e-01 -1.22162163e-01 -1.00995243e-01 -1.17479339e-01 +7.73383975e-02 +3.72031145e-03 -6.82536811e-02 +6.68242350e-02 -7.77906105e-02 -6.54386953e-02 +8.53460729e-02 +7.35515058e-02 -1.97531283e-02 -9.48452279e-02 -4.23101149e-02 +8.65914524e-02 -1.05688632e-01 +1.30785527e-02 -4.39708568e-02 +7.56513178e-02 -1.16470203e-01 -4.98641375e-03 -2.38495935e-02 -4.74301539e-02 -1.57105118e-01 +3.15167643e-02 +6.17375001e-02 +6.29040375e-02 +1.23701118e-01 +1.47711009e-01 -7.50435004e-03 +1.35352224e-01 -7.30328187e-02 +6.44714609e-02 -1.30349934e-01 -8.14329609e-02 -2.10297965e-02 +8.43529962e-03 +6.49689436e-02 -1.19048186e-01 -2.86451966e-01 -1.79742262e-01 -2.31293708e-01 -2.74150640e-01 -9.06180367e-02 -1.93631321e-01 +9.05911624e-02 -2.65138000e-01 -2.26736516e-01 -7.54382908e-02 -1.47698745e-01 -2.95039684e-01 -3.54741551e-02 -8.72915462e-02 +2.43454836e-02 -2.01383955e-03 -1.47180662e-01 +4.72603627e-02 -2.15318397e-01 +3.74799408e-02 -9.54922363e-02 -4.16999534e-02 -1.41135871e-01 -3.81386653e-02 -5.53996302e-02 -1.33616105e-01 -1.74788944e-02 -1.76208466e-01 -1.47650689e-01 +1.07430965e-01 -1.38189942e-01 -3.36479917e-02 -1.50594652e-01 -1.76901400e-01 +3.27003673e-02 -1.06214561e-01 -1.06307320e-01 +1.48047626e-01 -6.45947233e-02 +8.33466426e-02 -8.27187225e-02 +2.06066133e-03 +1.12843744e-01 -5.05434768e-03 -4.99960706e-02 +2.98453085e-02 +1.34282127e-01 +1.75594538e-01 -5.73046580e-02 +3.08818975e-03 +2.13821054e-01 +1.88128620e-01 -1.66932464e-01 +1.20670721e-02 +3.93627547e-02 +7.74975717e-02 -2.23945320e-01 +1.45776466e-01 +1.58941731e-01 +3.19243222e-01 +1.34265050e-01 -1.28279805e-01 -6.76290169e-02 +4.70396057e-02 +1.33024216e-01 +9.14856195e-02 +9.24779326e-02 +4.95924577e-02 -2.09412370e-02 +6.57160953e-02 -6.44137040e-02 -6.59491792e-02 +8.94292220e-02 -6.32763803e-02 +2.17384398e-01 +2.63380241e-02 +1.35901988e-01 +7.82370195e-02 -9.79257282e-03 +1.47599019e-02 +3.22384909e-02 +7.49068856e-02 +2.18214914e-02 +6.86623976e-02 +3.30623910e-02 +1.68387383e-01 +9.45030451e-02 +8.32556263e-02 +1.89263895e-01 +3.17477714e-03 -6.51977137e-02 -1.85257103e-02 +4.66829352e-02 -6.45611435e-02 +1.88297585e-01 +1.08202666e-01 +5.81291784e-03 +6.92034736e-02 +8.00093543e-03 -1.32000610e-01 -2.61540469e-02 -1.60066158e-01 +9.07980055e-02 -1.26317844e-01 +2.76119802e-02 +7.30224401e-02 -2.39380047e-01 -1.12106837e-01 +8.97209197e-02 -2.63142399e-02 -1.29346773e-01 -6.34046569e-02 -5.41417375e-02 -1.69288531e-01 +1.21959209e-01 -9.79948491e-02 +8.78550783e-02 +3.28649357e-02 +6.09436929e-02 +7.49780461e-02 -4.12767828e-02 -4.28417958e-02 +1.77905299e-02 +5.39751835e-02 +1.02669097e-01 -6.12997003e-02 -8.80077332e-02 +9.06657800e-02 +9.22112390e-02 +1.55922115e-01 +8.67006257e-02 +1.96094066e-02 -5.98102156e-03 +1.83221221e-01 -1.25868693e-01 +7.30360374e-02 +1.34162992e-01 +2.25084379e-01 +1.92678738e-02 +2.37339661e-02 -5.14133871e-02 +1.79663733e-01 -5.12199989e-03 +8.02310407e-02 +1.57629102e-01 +1.98240265e-01 +4.88355756e-02 +5.47236279e-02 +1.49395168e-01 +1.10773474e-01 +2.20923051e-02 +2.10998915e-02 +1.08746231e-01 +2.44414523e-01 +2.04225987e-01 +1.03005245e-01 +1.58401936e-01 -2.02123281e-02 +1.93141714e-01 -1.84763432e-01 +9.53016523e-03 +6.15595244e-02 +1.37203828e-01 +1.39956623e-01 +6.96935505e-02 +1.37459144e-01 +8.24894384e-02 -1.01564802e-01 +3.70965637e-02 -3.16679403e-02 +1.69038132e-01 -1.26785994e-01 +1.29864842e-01 -1.80661634e-01 -1.91312760e-01 -2.82218289e-02 +2.60380328e-01 -2.33778238e-01 -1.35680018e-02 -8.35954845e-02 +2.78503001e-01 +1.57369375e-01 -1.14958569e-01 -3.29161510e-02 +1.48669675e-01 +1.97183825e-02 -2.22185403e-01 -1.79873064e-01 -2.96118539e-02 +1.23180851e-01 -5.65691441e-02 -6.01898171e-02 -7.02889115e-02 -7.10095912e-02 -1.62099332e-01 +1.36079937e-01 -6.43896163e-02 +2.68837493e-02 +3.93227190e-02 -7.13372678e-02 -1.18212588e-01 -9.43867117e-02 -1.99398026e-01 -1.32413115e-02 +8.17356259e-02 -1.13285504e-01 +1.04967989e-01 +2.41140299e-03 +1.09488904e-01 -7.11461902e-02 -1.57980159e-01 -1.11983651e-02 -1.43653527e-01 -2.04870161e-02 -1.93222508e-01 +8.59508216e-02 +4.96306978e-02 -5.64239807e-02 +4.45994064e-02 -1.49024099e-01 -1.76684737e-01 +1.74107328e-01 +7.38741308e-02 -3.71142514e-02 -6.08565621e-02 -4.28193733e-02 +5.59053086e-02 -1.44850433e-01 -5.49704134e-02 +1.12348035e-01 +2.46305987e-02 +1.19870603e-02 -9.64752808e-02 -1.08003803e-01 -1.31172925e-01 +5.54840639e-02 -4.80526201e-02 -1.46144312e-02 -6.02190569e-02 +7.79937906e-03 -1.79157510e-01 -1.69583306e-01 +2.58128256e-01 -1.86359301e-01 +8.26520994e-02 +1.23054400e-01 -1.21261582e-01 -2.35258625e-03 -1.03685804e-01 +3.94863375e-02 +2.13359445e-01 -4.95879389e-02 -2.28831694e-01 -1.06411859e-01 +1.62410557e-01 +2.61644702e-02 +1.02808513e-01 +5.62916361e-02 -6.42861947e-02 +2.52584834e-02 -1.67410210e-01 -7.40951076e-02 -1.03034206e-01 -1.43868327e-01 -5.92055656e-02 -5.71056381e-02 -1.49954841e-01 +1.18945993e-01 -1.95576996e-02 +1.12372488e-01 -1.94863200e-01 -1.10010087e-01 +1.08175904e-01 -1.33888638e-02 -1.62080288e-01 -3.24873487e-03 -1.22636072e-01 -8.10065717e-02 -1.90810964e-01 -9.97865126e-02 +7.89122432e-02 +6.55450821e-02 +2.59089291e-01 -1.14374265e-01 -6.60482273e-02 +1.06008351e-01 +9.74802375e-02 +5.02901524e-02 -8.32376182e-02 -2.20865756e-02 -9.93830711e-03 -2.34689154e-02 -1.43006397e-02 +1.24530531e-01 +5.90741728e-03 +5.91024458e-02 +8.76126960e-02 -1.10384777e-01 -2.15228111e-01 +3.95362645e-01 +1.29308566e-01 -1.06111363e-01 -3.49517822e-01 -5.70694171e-02 +1.20944351e-01 -1.69964477e-01 +4.88082841e-02 -2.07023442e-01 -1.90649461e-02 +2.59929448e-01 -9.79504455e-03 +1.22741032e-02 +7.93069452e-02 -1.84784383e-01 -1.41337201e-01 -2.40287662e-01 +1.67190190e-02 +1.03897519e-01 +1.63075954e-01 +1.14728779e-01 +9.90945250e-02 +4.01211567e-02 +4.96826172e-02 +1.37585342e-01 -4.16104607e-02 -7.56707489e-02 -3.97872254e-02 +1.76770501e-02 -1.19360825e-02 +1.16831344e-02 -1.20057367e-01 +7.96314031e-02 +2.19205439e-01 +8.02697390e-02 -1.86076179e-01 -5.02249552e-03 +1.07935719e-01 -1.03796467e-01 +1.42103121e-01 +9.31202397e-02 +3.96930799e-02 +6.01499714e-03 +1.45179465e-01 +2.89738532e-02 +9.95379090e-02 +8.35241973e-02 -9.35924277e-02 +1.04213050e-02 +1.44260332e-01 +1.23951212e-02 +7.62770772e-02 -1.13389261e-01 -7.09193125e-02 -6.66899490e-04 -1.52089857e-02 +8.04647282e-02 +6.90782741e-02 +1.08686171e-01 -5.44854179e-02 -1.15630321e-01 +8.46676454e-02 -6.87369630e-02 +2.09065840e-01 +4.89434525e-02 +1.86603963e-02 -1.28681526e-01 +2.92106848e-02 +1.06387604e-02 -1.81658920e-02 +2.14597568e-01 -1.16440445e-01 +2.14732558e-01 +6.75011650e-02 -7.66750798e-02 -5.01973443e-02 -1.08541444e-01 +7.69766197e-02 -1.19538173e-01 +9.92227811e-03 -1.59467787e-01 -1.40611336e-01 -7.45739043e-02 +2.70349920e-01 +4.87318709e-02 -6.44027218e-02 +9.40125510e-02 +1.40502810e-01 +8.31993222e-02 +1.43666252e-01 -6.41781092e-02 +8.96453038e-02 +2.77683083e-02 -1.20479241e-01 -1.29619226e-01 -5.82779087e-02 +1.62149563e-01 +3.64896730e-02 -1.47970632e-01 -2.02028975e-01 +5.61113656e-03 +1.32833098e-04 -1.61265463e-01 -3.61091606e-02 -8.01770762e-02 -3.83110046e-02 -3.48787159e-02 -5.33769391e-02 +6.68846816e-03 -1.78519741e-01 -3.67372930e-01 -1.80489287e-01 +1.64178297e-01 +9.95486751e-02 +1.97181374e-01 +1.41376406e-01 -1.16006196e-01 +1.59864381e-01 +1.37784079e-01 -9.05380994e-02 -1.23329774e-01 -2.18104292e-02 -2.01724276e-01 +3.31585258e-02 -8.99564400e-02 +7.67665505e-02 +5.81320040e-02 -2.53299773e-02 +1.82652354e-01 +3.14698428e-01 -9.06434953e-02 +7.29428744e-03 -4.12134938e-02 +1.10098779e-01 +1.51881322e-01 -9.22416300e-02 +4.53814894e-01 +1.23180732e-01 -9.93763208e-02 -3.58569473e-01 -2.13675946e-01 -7.83928763e-03 +1.05224311e-01 +1.03290431e-01 +2.19644383e-01 -2.12690666e-01 +1.30887821e-01 +2.29335710e-01 +9.18579549e-02 +1.05764598e-01 +1.22057855e-01 -5.71675319e-03 +1.12433106e-01 +1.11027792e-01 +8.29077363e-02 +2.01822612e-02 +7.05185160e-02 -3.73675711e-02 +1.70716912e-01 -5.08375205e-02 +8.08265209e-02 +1.74544036e-01 -9.82075036e-02 -1.02881171e-01 +3.88160571e-02 -1.17197456e-02 +4.07939255e-02 +1.45826831e-01 -4.62604612e-02 +5.18850125e-02 +2.02594832e-01 +6.11094907e-02 +3.75139415e-02 +2.31061593e-01 +1.12677529e-01 -1.14164790e-02 +1.44281849e-01 +1.23905562e-01 +1.31655216e-01 +8.82305279e-02 -6.67831302e-02 +7.05904365e-02 +4.14893478e-02 -5.56501448e-02 -8.12139213e-02 +7.27809221e-02 -1.59247100e-01 -1.18055105e-01 -1.54543474e-01 -9.78116542e-02 +5.06288894e-02 -1.02161825e-01 -1.64939657e-01 -4.66435254e-02 -8.77659544e-02 -4.65772189e-02 +3.26603721e-03 +1.35585675e-02 -8.49759653e-02 -7.40772113e-02 +4.54936773e-02 -3.43625359e-02 -1.53404057e-01 -3.51979658e-02 -1.28030553e-01 +8.82015303e-02 -7.74716288e-02 -6.30629808e-02 +6.17759340e-02 +1.28159523e-01 -1.18296117e-01 +9.78790410e-03 +1.07496530e-01 +1.14964277e-01 +2.70502865e-01 +1.16571374e-02 +1.37426808e-01 +9.01501402e-02 -2.93156654e-02 -4.25792336e-02 +9.28486958e-02 +7.13541135e-02 +6.61376566e-02 -7.00403191e-03 +1.81873530e-01 +1.25793099e-01 -3.04788519e-02 +1.11992627e-01 +7.30188563e-03 +7.28730261e-02 +1.15273669e-01 +7.83195421e-02 +5.09710796e-02 +6.01301752e-02 +1.00924015e-01 +1.77955061e-01 +1.95034798e-02 +1.67611182e-01 -8.88842493e-02 -4.89170849e-03 +1.72141939e-01 +1.27191097e-01 -6.42103851e-02 +1.11858621e-01 -1.68142229e-01 -8.90319571e-02 +7.26461783e-02 +1.31943211e-01 +1.54294083e-02 -9.80601385e-02 -1.92130566e-01 +1.71978530e-02 +3.36859305e-03 +1.25023156e-01 -1.01234905e-01 -8.22492242e-02 -7.97763839e-02 -7.21930759e-03 -9.02736336e-02 +1.76541463e-01 -1.11807749e-01 +2.05867797e-01 +1.62823871e-01 -2.02675328e-01 +1.51399657e-01 +1.52028143e-01 -8.76595899e-02 -1.01248980e-01 +1.28213853e-01 -6.51321113e-02 -1.07534312e-01 -2.41866887e-01 -1.14737809e-01 -1.16187438e-01 +6.47857040e-02 +1.39729127e-01 +1.80875018e-01 +4.07372601e-02 +2.45645821e-01 +1.28880188e-01 +1.75570130e-01 +1.81430742e-01 +3.84234414e-02 +1.37085542e-01 +5.60630262e-02 +1.79553747e-01 +1.55255660e-01 -1.03877515e-01 +1.10273309e-01 +1.37720898e-01 -7.56350905e-02 +1.03471398e-01 +7.72674161e-04 +1.44965172e-01 +4.20669727e-02 +1.61939442e-01 +1.08112268e-01 +1.74774513e-01 +6.98869154e-02 +2.18233302e-01 +1.12828702e-01 +6.48509935e-02 +1.16272397e-01 -9.13297525e-04 +1.85006052e-01 +1.29052266e-01 +3.65840942e-02 +9.71293822e-02 -9.67091396e-02 +1.14523172e-01 -7.55053153e-03 -1.08574694e-02 +4.54730242e-02 +6.52083606e-02 -1.25446334e-01 +2.98858620e-02 -1.02769077e-01 -5.72292767e-02 -1.44017423e-02 +1.06042707e-02 -1.36509821e-01 +4.81316783e-02 -3.70407589e-02 -1.22804135e-01 +7.13441372e-02 +1.32558316e-01 +4.31242213e-03 +2.96325814e-02 +6.88195080e-02 +7.29723647e-02 -1.41488731e-01 +9.18758288e-03 -7.33432993e-02 -4.34252098e-02 +6.11077435e-02 -7.22144321e-02 -4.19320613e-02 -5.53955883e-02 -2.58828178e-02 +1.13184139e-01 +1.40972137e-01 +4.51583304e-02 +1.44313127e-01 +2.77411435e-02 +1.44551471e-01 -6.02598228e-02 +7.32396916e-02 +2.20435672e-02 +1.23585880e-01 -1.48327053e-01 -1.36469051e-01 -3.60799693e-02 +1.15248561e-01 +3.21126208e-02 -5.78898974e-02 +5.17472066e-02 -9.04575810e-02 +2.41147541e-02 +1.07274503e-01 +3.98898590e-03 -5.93437701e-02 +1.37179434e-01 +1.21371247e-01 +1.50812730e-01 +1.05589502e-01 +1.47349853e-02 -3.11772376e-01 -3.26001346e-02 +1.19118527e-01 +6.44905567e-02 +6.98133707e-02 +2.04828158e-01 -2.00864300e-01 +1.41162440e-01 +2.14958265e-01 +1.89197883e-01 -1.33615971e-01 +1.01261750e-01 -1.68782666e-01 +1.56594187e-01 -7.06263036e-02 +9.48463082e-02 +7.39456266e-02 -2.36152619e-01 +1.83372665e-02 +1.94547564e-01 +1.82405151e-02 +1.96544066e-01 -8.89587477e-02 -8.53491500e-02 +4.01816130e-01 -1.02377959e-01 +4.14665908e-01 +5.62378764e-02 -1.26676142e-01 -3.50943208e-01 +6.77131638e-02 -4.64172736e-02 -8.25349316e-02 +1.51441181e-02 +1.38937652e-01 -1.17117234e-01 +2.31287047e-01 +9.27814767e-02 -2.17193346e-02 +5.19422591e-02 +1.37423258e-02 +2.11330294e-03 +2.37049758e-01 +1.86785571e-02 -7.07866251e-02 -1.22641884e-01 +2.54646521e-02 -9.86273065e-02 -2.75377231e-03 -1.43303439e-01 +2.00367600e-01 -4.75401729e-02 -6.06961101e-02 +1.89835653e-01 -2.21456960e-02 +1.41132638e-01 -2.24371068e-02 -2.90294718e-02 +6.22491091e-02 -3.96892754e-03 +7.73847699e-02 -7.72024095e-02 +1.08618207e-01 +2.03303173e-02 +2.88840253e-02 +9.33245346e-02 -1.53196886e-01 +5.14423661e-02 +8.53684619e-02 +5.61311021e-02 -3.80886160e-02 -7.73383081e-02 +3.17601375e-02 -8.10357109e-02 -7.86939412e-02 -2.82463171e-02 +9.09343138e-02 -9.76290032e-02 -1.31707087e-01 +5.37406392e-02 -6.34226128e-02 -1.50264800e-01 -2.25150079e-01 -2.69789733e-02 +1.07653648e-01 -2.80121446e-01 -1.07637078e-01 -5.24287578e-04 -2.72676677e-01 +1.47827461e-01 -2.37808470e-02 +1.23564705e-01 -7.35797584e-02 -7.83258080e-02 -1.30497040e-02 +3.38489749e-02 -9.12700444e-02 +1.14465132e-01 +6.56054169e-02 -4.72732075e-02 -5.69579229e-02 -3.63121070e-02 +6.92241639e-02 +8.82760510e-02 +1.97103158e-01 +8.15332457e-02 +2.50765800e-01 -2.17183828e-01 -5.56846485e-02 -2.65584171e-01 +2.41678394e-02 -5.79680800e-02 +3.27201262e-02 -4.99220937e-02 +4.53677215e-02 -3.49736512e-02 -1.23475723e-01 -1.49804413e-01 -3.19522440e-01 +1.35355130e-01 +5.62139302e-02 +6.29880056e-02 -2.46595722e-02 -4.51100692e-02 -5.59811778e-02 -1.34325415e-01 +1.21182725e-01 +1.53525606e-01 +7.03715347e-03 +9.43308696e-02 -1.95686240e-02 +3.68841644e-03 -1.13517225e-01 -7.23520468e-04 +2.29285881e-02 -1.12929061e-01 -6.05244674e-02 +1.90123871e-01 -1.07650943e-01 -1.05223559e-01 +2.20880453e-02 -1.24276400e-01 -3.14904563e-02 -1.28434852e-01 -4.41588089e-02 +7.44779184e-02 +3.28311622e-02 -7.83094689e-02 -6.13634614e-03 -5.62290810e-02 +7.05164671e-02 +2.15895668e-01 -1.95340246e-01 -5.74883558e-02 +1.21180482e-01 +2.55442530e-01 +1.29546046e-01 -7.14684427e-02 +1.33680105e-01 -4.58604246e-02 -4.05719802e-02 -1.47440687e-01 -1.38292730e-01 -2.11989999e-01 +7.52178282e-02 +1.20503433e-01 +2.33433768e-02 +2.11867169e-02 -3.79838385e-02 -9.59942266e-02 -1.73456728e-01 +2.17840672e-02 -3.49622332e-02 +7.83406869e-02 -7.53006265e-02 -9.07285064e-02 -1.75823048e-01 -2.83790648e-01 -2.08826482e-01 -1.28096223e-01 -9.40163061e-02 -6.75637424e-02 +3.50046195e-02 -1.09700270e-01 -6.08904399e-02 -4.88686860e-02 -9.68380123e-02 +5.60646765e-02 -3.32417861e-02 +5.80848753e-02 -1.79468039e-02 -1.46639556e-01 -1.72024488e-01 -6.69300556e-02 -7.00340718e-02 +1.00776590e-01 +1.07438497e-01 +3.39631084e-03 +1.14382654e-01 +7.94224218e-02 +4.08020727e-02 +5.06924130e-02 +2.24760175e-02 -5.82277887e-02 +2.25566462e-01 -3.19912587e-03 +4.76833433e-02 +6.05194690e-03 +5.93898036e-02 +1.96262255e-01 +1.42000392e-01 +1.49718800e-03 -2.58161221e-02 +3.73078324e-02 +1.04140267e-02 +2.94359997e-02 +1.45449236e-01 -2.10154746e-02 +1.83155835e-01 +9.88733992e-02 -1.16740756e-01 +4.07883748e-02 +7.85333812e-02 -1.44431949e-01 +7.62468996e-03 -2.67769769e-02 -4.70730923e-02 -9.35099944e-02 +6.41301796e-02 +7.77452737e-02 -1.24298736e-01 +4.95448075e-02 -2.05235660e-01 +5.50827309e-02 -7.16556460e-02 -1.26361832e-01 -9.61927697e-02 +6.57512806e-03 +3.14353295e-02 -6.91781342e-02 -2.14087769e-01 -1.67560820e-02 -1.95529029e-01 +6.86563998e-02 -6.63715526e-02 -1.56495616e-01 -1.65017009e-01 +2.57195886e-02 -1.16801701e-01 -3.44740190e-02 +4.24121022e-02 -5.11050448e-02 -6.39402270e-02 +4.95339893e-02 +5.59702702e-02 -5.88590205e-02 +4.35168762e-03 +7.15605244e-02 -1.70144752e-01 -1.26142830e-01 +8.28870758e-03 -4.35110331e-02 +8.63311812e-03 -1.20454513e-01 -8.43230933e-02 -2.76471060e-02 -2.39963472e-01 -5.44103049e-02 +1.08139522e-01 +1.30149163e-02 +1.66981444e-01 -5.79579957e-02 -7.30702505e-02 +1.36097772e-02 +1.67181253e-01 -3.99923362e-02 +1.34084836e-01 -1.32542163e-01 +1.74128801e-01 +4.51864451e-02 +6.92243800e-02 +1.43274829e-01 +9.21524167e-02 -1.75948024e-01 -8.96066353e-02 -2.21631099e-02 -1.13739923e-01 -1.85539499e-01 +1.08261794e-01 -8.70673358e-02 +1.15965135e-01 +4.61269030e-03 +7.55753592e-02 +9.55525935e-02 -7.01997522e-03 -3.83553877e-02 +2.44511068e-02 +5.67228273e-02 -1.70134734e-02 +5.58005273e-03 +5.44374883e-02 +2.71687638e-02 +1.79113314e-01 -1.61674451e-02 +5.40142022e-02 +8.97239894e-02 +1.59208983e-01 +6.71445951e-02 -1.15097046e-01 +1.45751283e-01 -2.44656783e-02 +2.97583528e-02 -1.00818865e-01 +2.20325589e-01 -2.41730288e-02 +5.89922592e-02 +1.57281384e-01 -9.04095322e-02 +3.56259085e-02 +2.01556772e-01 -4.22694208e-03 -4.00873944e-02 +7.40313381e-02 -6.64605424e-02 +7.60637363e-03 +3.55993994e-02 -8.54363218e-02 +1.07843161e-01 +1.53073641e-02 +8.29119608e-02 -9.15569486e-04 -8.05218965e-02 +8.19457024e-02 +2.16500927e-02 +1.13767862e-01 +3.80678289e-02 +5.30567728e-02 -9.76088867e-02 -1.17157020e-01 -5.38068712e-02 +1.15550235e-02 -2.33346745e-01 -5.74160367e-02 +2.15544701e-02 -5.24541363e-02 +7.60123581e-02 +1.01615712e-01 +1.38057005e-02 -1.89454034e-01 -7.06474259e-02 -1.08728990e-01 +1.28254965e-01 +3.37590203e-02 +7.42758140e-02 +6.95800632e-02 -9.53262150e-02 -2.24979240e-02 +1.50020439e-02 +4.16067429e-03 +2.47409940e-01 +2.10881427e-01 +1.47953361e-01 +1.55325517e-01 -1.01322845e-01 +1.22775763e-01 +2.49848142e-02 +4.17069644e-02 +4.46119085e-02 -3.39591019e-02 +2.22639710e-01 +1.12151176e-01 +3.26905549e-02 +2.41799057e-02 -5.75862788e-02 -1.28216922e-01 -4.24434729e-02 +1.10755615e-01 +1.60861254e-01 -4.46154289e-02 +1.24211339e-02 +1.72323454e-02 +9.48700756e-02 +5.07204644e-02 +5.79909757e-02 -1.14825688e-01 -1.12967737e-01 +1.36522785e-01 +7.99567327e-02 -2.67698197e-04 +1.71121910e-01 -2.82974467e-02 +1.68596655e-01 +6.95638955e-02 +3.67213897e-02 +3.21081057e-02 +7.38387406e-02 -2.63396233e-01 +1.17230587e-01 -2.33658820e-01 +1.00435309e-01 +1.06943417e-02 -1.66327477e-01 -1.57461032e-01 +1.20814806e-02 -3.11754812e-02 +6.63332362e-03 +1.33163892e-02 +1.04035996e-01 +3.04707021e-01 -8.23911428e-02 +8.55149478e-02 -9.05609801e-02 -3.57575566e-02 -3.25978875e-01 +1.68721437e-01 +4.64365222e-02 -1.50368199e-01 +4.00300659e-02 -1.34401530e-01 -1.44787639e-01 +7.29284361e-02 +1.15203254e-01 -1.86992764e-01 -8.95621926e-02 -3.50626074e-02 -1.33643270e-01 -3.94076817e-02 +1.67381868e-01 +8.53189752e-02 +1.49548631e-02 -2.46713161e-02 -7.64146522e-02 +4.17464674e-02 -1.86473042e-01 +4.65905704e-02 +1.32869199e-01 -5.73926186e-03 -3.55972014e-02 -2.10016221e-02 +1.02866881e-01 +9.21334624e-02 -3.93993594e-02 +2.77293306e-02 -1.70994587e-02 +5.45349391e-03 +4.43044230e-02 +1.06524184e-01 -1.31468192e-01 -1.10957630e-01 +2.99674124e-02 +1.06519379e-01 -7.00242491e-03 -8.83955508e-02 -1.19052418e-01 -3.20325196e-02 -1.24921374e-01 +1.17497504e-01 -6.41945824e-02 -2.88689565e-02 +1.53766377e-02 -5.30789830e-02 -2.41150800e-03 -1.36014059e-01 +1.45711368e-02 +4.32603732e-02 +2.43386850e-02 +4.22377847e-02 -3.82039808e-02 -8.44523385e-02 +9.64044780e-02 -4.67391172e-03 -3.93625349e-02 -7.20240176e-02 +1.32809833e-01 -1.03021793e-01 -1.38225242e-01 +7.13707507e-02 -1.46369040e-01 +1.49312958e-01 -1.79244071e-01 +9.87674445e-02 -3.88628468e-02 -2.22697631e-01 -2.59465426e-01 -6.92615956e-02 +1.26241848e-01 -1.26328647e-01 -1.09264351e-01 -2.88225651e-01 +8.27672482e-02 +2.51295175e-02 +9.64364335e-02 +2.73774434e-02 +2.55583972e-01 +1.50417119e-01 +1.17098935e-01 -2.34483555e-01 +2.31987294e-02 +6.22633733e-02 +1.20029680e-01 +6.98605105e-02 +3.14718112e-02 -1.34708136e-02 +1.62713919e-02 +5.79142943e-02 +7.17739463e-02 +1.35054514e-01 +1.02205455e-01 -2.83474009e-02 +1.63613170e-01 +4.05124165e-02 -2.32063055e-01 -1.92661092e-01 +1.69774261e-03 +1.77584067e-01 +1.95493922e-01 +1.12831734e-01 +4.54858132e-02 +6.34379908e-02 +2.47782953e-02 -5.33133782e-02 +3.87805067e-02 -1.55382395e-01 +2.09597722e-01 +6.75546750e-02 +5.74010424e-02 +1.82514638e-01 +4.85985614e-02 +2.47797295e-02 +5.78890629e-02 +1.37975365e-01 +1.89640537e-01 -8.32584649e-02 -1.75289214e-01 -4.78683487e-02 -1.89069405e-01 -4.29208949e-02 -4.89916769e-04 -1.43823221e-01 -1.37570426e-01 -1.12646706e-01 +2.22750485e-01 -2.36705989e-01 -4.61486205e-02 +4.46033254e-02 +1.65917411e-01 +2.87987977e-01 +7.93732777e-02 +5.05703017e-02 -2.30503622e-02 +1.16090067e-01 +1.52934743e-02 +1.47234723e-02 +1.34238943e-01 +5.29042035e-02 +1.88929141e-01 +1.39301702e-01 +1.75639942e-01 +5.47846332e-02 -2.18303455e-03 +2.62933709e-02 -5.08372784e-02 +8.09269492e-03 +1.09954275e-01 +7.42093027e-02 +5.97403795e-02 +2.03606129e-01 +1.41165450e-01 -3.72198075e-02 +4.41534594e-02 +8.29488263e-02 +1.65051088e-01 -2.89612766e-02 -3.18548083e-02 -3.92191634e-02 -1.21961394e-02 +1.31892160e-01 -4.07296717e-02 +1.35843411e-01 -6.58978447e-02 -5.76621182e-02 +1.28997907e-01 -2.75227688e-02 +5.06112818e-03 +1.04399584e-02 +4.36436906e-02 -3.28515805e-02 +8.11046138e-02 -3.48566175e-02 -1.12653010e-01 +5.02323881e-02 -1.11386508e-01 -7.42986128e-02 +1.56735465e-01 +1.42304692e-02 -7.08021298e-02 +5.60794361e-02 +2.53817905e-02 -4.37595882e-02 +1.55466667e-04 +2.31131241e-01 -1.48640424e-01 -1.90793145e-02 -1.04892544e-01 -5.33735640e-02 +9.82029885e-02 -1.25167176e-01 +2.82706432e-02 -3.83047499e-02 -9.38788429e-02 +7.90025294e-02 +1.15492279e-02 -1.12529203e-01 +8.83821920e-02 +3.02074123e-02 +1.50252789e-01 +5.79644889e-02 -2.83683464e-02 +1.33448958e-01 +7.34569430e-02 +8.39918256e-02 -2.72633415e-02 +1.02005325e-01 -1.24303512e-01 +2.44667940e-02 +6.25043288e-02 +8.97463486e-02 +1.60281211e-02 -1.50567908e-02 -3.17995846e-02 +1.21708401e-01 +7.29632825e-02 -8.84431154e-02 +9.75242853e-02 -5.86735047e-02 +6.78222403e-02 -8.00802857e-02 +8.32126886e-02 -2.18964070e-02 -1.51597604e-01 -1.91371650e-01 -1.67621180e-01 +1.85849816e-01 +4.94161360e-02 -1.22984860e-03 +2.02381611e-01 -1.29440993e-01 +2.89151687e-02 +9.78105590e-02 +2.68770512e-02 +8.76400769e-02 +6.46869168e-02 