#Parameter# /vanilla-lstm-builder/_0 {128,500} 913352
0.026793329 0.036653314 -0.021272225 0.041944101 -0.068907708 0.075050406 -0.030652029 -0.080971353 0.038761739 0.084727325 0.025989553 -0.0039009962 0.11477266 0.0044572572 0.044140529 -0.050018918 0.057005469 -0.077824362 -0.012496226 -0.013499728 -0.005008474 0.087537855 0.051929682 0.015929945 -0.0069000656 -0.010464721 0.035383426 -0.0065941466 -0.0077255098 0.11079115 0.078297488 -0.066650085 0.092977829 -0.018709887 -0.10952929 -0.14912437 -0.03097407 -0.078287259 0.05663424 0.036154155 0.023623059 -0.09652739 -0.071014956 0.050648224 0.017524263 0.031915583 -0.10271781 -0.10413183 0.063489512 0.059216451 -0.0022227925 0.080540061 -0.079588212 0.035996526 0.021755712 0.062020045 0.076639943 0.048982978 -0.13316718 -0.018277161 -0.12701276 0.022225173 0.038926538 -0.11941469 0.13017958 0.064524315 -0.11940561 0.092056803 -0.053856399 -0.05347332 0.081814758 -0.025874838 -0.0088784564 -0.058048431 -0.056948282 0.056146014 0.082175918 -0.0076148189 -0.024273297 0.088039823 0.067496039 0.0049452744 0.031760894 0.092372805 0.055597872 -0.05265747 0.041442234 -0.0085522961 -0.048478905 0.091742888 0.10431306 -0.012037853 -0.0092765288 0.029123727 -0.056898829 0.075255044 0.11084918 -0.076519176 0.12945057 -0.063138328 0.11285602 0.026565218 -0.13159114 0.028455036 -0.034652766 -0.066614464 0.023848107 0.19874117 -0.096143 0.040901765 -0.094413005 -0.088165432 0.00083114364 -0.080930054 0.20474398 -0.040741783 -0.035814088 -0.17247736 -0.037224151 -0.072770931 0.07368318 -0.064748012 0.057237953 -0.097318314 0.077109478 -0.10382554 -0.0066874418 -0.096788958 0.028936997 -0.032269359 -0.082505099 -0.10374735 -0.065764382 0.060983885 0.0057870355 0.029481642 0.059299074 0.031944536 -0.075618424 0.071546979 0.039357312 0.068679199 -0.073746651 0.060891248 -0.03467565 0.10374156 -0.032678038 0.016149657 -0.083722718 0.082392596 -0.061538909 -0.01766975 -0.10210504 -0.019924914 -0.027805569 -0.00046288795 0.10194499 -0.10090581 0.024129683 0.026139123 -0.06682153 0.049093761 0.080066182 0.11774824 0.095109262 -0.072067872 -0.11458778 -0.081966609 0.051401582 0.022747533 -0.016228316 0.0074580614 -0.02103205 -0.026615927 -0.055715799 -0.066792525 0.13908903 -0.069976531 0.040735897 0.010645227 -0.044793114 -0.090110444 0.0045890729 0.079256602 0.091864385 0.020472098 0.10034467 0.084016331 -0.0090230331 0.035995997 -0.0059760902 0.025619647 -0.018085334 -0.026593104 0.098392926 0.0034811024 0.051761214 -0.068097629 -0.036296386 -0.026896628 0.12111759 -0.015214047 0.033788126 -0.060239557 0.051542025 0.087190703 0.026217027 0.023097645 -0.0061756466 0.041579641 0.080739588 -0.066205159 0.062344979 0.1065712 0.02271992 0.024584018 0.083002098 -0.0005587021 0.045332529 0.076439738 -0.061738692 0.037790731 0.04349649 0.015107272 0.065027267 0.16879749 -0.050252341 0.062876493 -0.014669338 -0.01636404 -0.0034158991 0.039554734 0.20936173 -0.033235583 -0.025769433 -0.038924865 0.14809538 0.055320952 -0.035185453 -0.027426386 0.043159734 -0.015377333 -0.10239688 0.13449579 -0.026936915 0.016825251 -0.049237348 0.1439905 -0.026448479 0.013486714 0.016330807 0.025633123 -0.067885607 -0.01988533 -0.096511967 0.080549993 0.093033046 -0.10723939 -0.0035619983 0.092054188 0.027907992 -0.014388281 -0.010708472 0.084563732 -0.00012339679 0.062717356 0.030459311 0.020704586 0.036492422 0.043166213 -0.064968117 -0.07023526 0.06726069 -0.065770127 -0.064495064 0.022727726 -0.064485721 -0.022580802 0.050413631 -0.11945833 0.071628429 0.0065539754 -0.012876407 -0.0079068635 -0.096255176 -0.064362556 0.0514067 -0.075640544 0.068610519 -0.012159098 0.041635986 -0.10458682 -0.027639788 -0.064799175 0.10280051 -0.0040089847 -0.15376511 -0.017314183 -0.059888896 0.022725923 -0.010968433 -0.12020878 0.013718895 0.16523311 -0.087547079 0.033836957 -0.027886145 0.0059997118 -0.055182513 0.055324901 -0.084838212 0.023107434 -0.037402779 -0.12712717 -0.11260852 0.043443464 -0.03013551 0.035708398 0.10514104 -0.054090388 -0.045340955 -0.068251424 -0.026428139 0.093095548 0.05789499 -0.076060258 0.036743548 -0.094470985 -0.098917432 -0.098217145 0.046709958 0.066580407 -0.033105128 -0.057553902 -0.14453104 -0.12541988 -0.10887127 -0.12788375 -0.019938292 -0.019505287 0.0045428067 -0.072478741 -0.074578531 0.070781805 -0.15498365 -0.10883781 -0.061980918 -0.12435927 -0.095460571 -0.054818742 0.029892573 0.031390116 -0.021672888 0.154419 -0.10103243 0.19044206 0.18895704 0.31517163 0.15225855 -0.026182802 0.053558309 -0.06421417 0.1669015 0.053401344 0.034592986 0.040361941 0.042859841 -0.23584749 0.19097652 -0.12260108 -0.017833866 -0.084244423 -0.073127672 -0.021299943 0.05342789 0.14135695 0.066774771 -0.033138737 0.010653547 0.18084908 0.083351448 0.11901641 0.029880077 -0.19326548 0.058257069 0.077977367 0.052803326 -0.011310418 -0.047087651 -0.054095216 -0.074142516 0.052386224 0.0013477791 0.063128561 -0.0060295528 -0.064759105 -0.11275369 -0.039628208 0.073137149 0.026414664 -0.047485415 0.12681721 0.014811949 0.017589912 0.040046327 0.1137538 0.066808283 -0.081477016 0.026515583 -0.0012522571 -0.0033467703 0.067949362 0.10973766 -0.12009458 0.065486923 0.0040012687 0.015171936 -0.052078761 0.075280823 -0.054866109 0.062363695 0.087800644 -0.043848123 0.11106832 0.12104454 -0.064080261 -0.10670936 -0.1489549 0.06280496 0.068297684 0.038004179 0.041766893 0.089013003 0.068636283 -0.032151293 0.11941644 -0.051244538 0.05871968 0.066512316 0.035716198 -0.028161693 0.058931079 0.16379769 -0.026672628 0.0006521485 -0.017311173 -0.064846247 -0.082941815 -0.031886645 0.070461676 0.092201196 -0.044546127 -0.082839645 0.03004704 -0.038399145 0.11377866 0.030331057 0.048877563 0.060549151 0.065545134 -0.04155485 0.10721386 0.16394256 -0.026215125 0.039411094 0.02092574 -0.0031166372 0.093357734 -0.037979811 -0.017595014 0.070810564 -0.02958608 -0.042069316 0.053645652 0.17740136 0.082026646 0.13248974 0.008033785 0.079503596 0.04779122 -0.097370662 -0.067229994 0.15583161 0.085098207 -0.20021011 -0.26436898 -0.0057056765 -0.0055851117 0.036857508 -0.067323886 -0.052550182 -0.040445592 0.0081521329 0.024340698 -0.074480243 0.13453349 -0.16345508 -0.0034589139 -0.03939262 0.02044924 -0.057662461 -0.011877557 -0.12879826 0.040165655 -0.071402028 -0.030404523 0.17342061 -0.24262035 0.095025897 -0.20879529 -0.052676611 0.084969759 0.035760805 0.11307975 0.04096612 -0.067352012 0.030616183 0.0014632017 0.051411338 0.098254129 0.091651976 -0.048459578 -0.00049546611 -0.06999217 0.085952438 -0.083673723 0.042100783 0.071120605 0.070457742 0.098308377 0.014853308 -6.8231631e-05 0.028744515 0.098322377 0.079495952 -0.052875038 0.08859162 0.046901211 0.013384587 0.0098277377 0.11688612 0.021399358 -0.09068957 0.052601174 0.014883587 -0.062946185 0.12315241 0.040262472 0.031633258 -0.15075302 -0.13585588 0.029530808 0.059438396 -0.017377792 -0.15792745 -0.06427484 -0.036267687 0.044713728 0.084119208 -0.15151241 -0.0082671707 0.0025582002 -0.17104761 0.07220725 -0.039353624 0.043851495 0.091453567 -0.077531897 -0.10424494 0.090995558 0.073147863 -0.062303502 0.090905122 0.032901268 0.001201719 0.011693528 0.10858692 0.047224123 0.13130668 0.030106736 0.081140228 0.08938235 0.0065351082 0.11378578 -0.026958214 0.0056414106 -0.023486948 0.11150953 0.096301541 0.060781591 0.074596159 0.018804766 0.060908034 -0.043446563 -0.0351668 0.063959815 0.057606485 -0.024183528 0.018041344 0.075957403 -0.014522579 -0.052560464 -0.023544468 0.12440676 0.049120683 -0.011603369 0.095314912 0.019958543 -0.091269188 -0.17822807 0.071950272 0.070781618 -0.091944292 0.028971959 -0.068120144 0.0042216801 -0.12918998 0.10254347 -0.1875678 -0.13205101 0.047931816 0.018604897 -0.11238448 0.13519254 -0.21658677 -0.04542397 0.13257508 -0.035704643 0.15966219 -0.16116174 0.011951925 -0.12269321 0.080897212 -0.11659505 0.043930512 -0.11213765 0.079798408 0.087554492 0.10936915 0.052574906 0.039459858 -0.020127246 -0.064361349 0.098988704 -0.047045924 0.045098752 0.042349685 0.011903577 0.002790638 -0.031665746 0.018834118 -0.080936477 0.055433489 -0.058778111 -0.031312108 0.055956502 -0.086648606 -0.099099375 0.028728763 0.060438029 0.0051628561 -0.08794038 -0.007039926 -0.082738139 0.037660178 -0.029822877 -0.035843447 -0.045925193 -0.071959555 0.03722766 -0.050640855 -0.061676838 0.0052256719 0.058274578 0.055829901 0.073729634 0.10926595 0.011938705 0.16039866 0.080451876 0.13123792 -0.089316659 0.058991976 0.025455663 0.0045818831 0.03099039 0.052006871 0.10049146 -0.0039477702 -0.076852091 0.071666226 0.0045210295 -0.036478184 0.041454136 0.06560564 0.077244759 -0.013876142 0.15154721 -0.075635351 0.10224725 0.027002007 -0.083488561 0.087293893 -0.055343892 0.031755332 -0.11551097 0.001095626 -0.042716786 0.021608595 -0.027309591 0.045533087 0.080308713 0.072833382 -0.02712287 0.066723116 0.038156193 0.12630163 -0.049231287 -0.055947956 0.079829238 0.047476061 -0.071769871 0.063754596 -0.10055124 -0.10049925 0.045658424 -0.034462944 0.067883201 0.037273601 0.060194746 0.036766194 0.037425783 0.035273042 0.076148279 -0.044413041 0.0078221112 0.021134881 0.22929712 -0.18917075 -0.062338218 0.13282397 -0.083235048 -0.097746275 0.10792352 -0.0087123215 -0.023713233 -0.07997974 0.012788768 -0.14889544 -0.025563948 0.1296293 -0.10794546 0.0012870028 -0.0039422982 0.086483218 0.10008138 -0.01983894 0.19133754 0.084487528 -0.088583671 -0.05132357 -0.18220395 -0.021093152 0.18342762 -0.020628393 0.038405064 0.0047180932 0.17000458 0.0049232962 0.046780672 -0.059305597 -0.030697292 0.14418142 0.011572392 0.088885978 0.064394526 -0.063734695 0.081174359 0.044057123 -0.0080087176 0.051689565 0.03844187 -0.06889382 -0.0020394316 -0.023584925 0.10406881 -0.027601188 -0.0085754609 0.1398453 0.10633428 -0.00082929537 -0.061984614 0.060381804 0.17521855 0.081434213 -0.1143151 -0.016039032 -0.04246892 -0.067688622 0.084812164 0.033855189 -0.058122192 0.060738862 -0.10410012 -0.0002951916 -0.11427812 0.057219602 -0.089124277 -0.13269679 0.030668281 -0.067094438 -0.013064622 0.077593639 0.0084300227 -0.097103395 -0.070754357 -0.076392874 0.059761982 0.021357279 0.031635825 0.03084835 0.079827279 0.019448269 0.049941339 -0.068748407 -0.11701996 -0.073252216 0.05577904 -0.046635371 0.034284871 -0.028531477 0.045045391 0.12723832 -0.00098166324 -0.060584053 0.085616626 0.099275105 -0.046993218 0.13347493 0.023072205 -0.068460591 0.019537771 0.086818129 0.042200301 0.083834551 0.056431532 0.051276486 -0.031913932 -0.0034135859 -0.081783392 0.061417814 0.14123134 0.09664502 0.060538903 0.087128192 -0.021487826 -0.03020712 0.084164761 0.045261275 0.029056031 0.11021793 0.13524728 0.012866485 0.034686133 0.18863027 -0.15983501 0.093953431 0.18845595 -0.17428008 -0.062158316 0.18019132 0.034477301 0.017913343 0.14842251 -0.050433036 -0.06140678 -0.085552998 -0.063383006 -0.0991299 -0.16682 -0.17375764 0.05898064 0.17069584 -0.10377754 -0.021795522 -0.098299511 0.077324018 -0.032476626 0.1327588 -0.15819921 0.0072179846 0.011113406 0.076585837 0.019688958 -0.052630842 -0.088883609 -0.0056386464 0.029390885 -0.040948141 0.14837205 0.011639671 -0.018637788 0.052822255 -0.025912482 0.13065782 0.016401168 -0.04044164 0.11889573 -0.00068238791 0.032987293 -0.061981052 0.13000639 0.11329493 0.090378232 0.037717663 -0.071856342 0.09164644 0.10680597 -0.01701246 -0.019580148 -0.042881809 0.053806175 0.093246557 0.0058428855 0.062392715 -0.0073595061 0.024286536 -0.03545364 -0.0049511651 -0.17800622 -0.052661646 0.038901996 -0.069985367 -0.14845927 -0.19383569 -0.013147976 -0.053183828 -0.046720233 0.059210375 0.061683938 -0.02458841 -0.062078137 -0.0075524985 -0.078139693 0.067375667 0.026964674 0.0067157988 0.081392922 -0.092274934 -0.12243509 0.035086978 -0.0076673767 0.077743888 0.065584503 -0.0060076737 0.089755878 0.034623928 -0.12444495 0.021090478 0.061017055 0.058961365 0.062861994 -0.046477292 0.010754946 0.016509317 0.11778795 0.15877607 0.03938929 0.069898382 -0.14511479 0.01368153 0.11554614 -0.092540354 -0.095813461 -0.063015245 -0.025875662 -0.058428001 0.039793465 0.059615288 0.0081129726 0.080365948 -0.041532643 -0.020426707 0.030446695 -0.0561141 -0.068879262 -0.040146731 0.10982675 0.011449533 0.11168768 0.073574156 -0.029768605 -0.17927979 -0.065128222 -0.059374213 -0.20017941 0.26486182 0.20005466 0.16579822 0.038812805 -0.088390782 -0.0078210682 0.0053093554 -0.12108095 0.057327755 0.090010568 -0.040022802 -0.053093195 0.1223451 -0.12229593 0.12999907 0.16004547 0.099243551 -0.018580394 0.14662144 -0.033956368 0.064295858 0.075627305 -0.24073803 -0.067874923 0.1306022 0.13710701 0.0088924402 -0.13913658 -0.019940868 -0.0047876504 0.048167519 -0.017580843 0.07761769 0.043049037 -0.092911296 0.024342813 -0.078334533 0.070541546 -0.015980897 -0.0908316 -0.063597463 0.1050727 -0.0074322596 0.032423176 0.0055805808 0.085873537 0.00075455458 0.020510729 -0.019678919 0.010611338 -0.057649232 -0.0032539626 -0.0057982774 0.0066145286 -0.044725236 -0.0084323548 0.056549557 -0.026063083 0.058576912 0.024597401 0.074713856 0.097464219 -0.10643853 -0.056700297 -0.011018251 0.12734862 0.10843838 -0.073598064 -0.0047171395 0.038727455 -0.0090732584 -0.11216712 0.094556965 0.042109489 0.077475473 -0.073722206 -0.057401776 0.005663598 -0.045698266 0.093457133 0.064351708 -0.030726625 -0.019041652 0.017382914 -0.045556881 -0.090856373 -0.026007311 0.032075476 -0.045361478 -0.069489688 0.046942048 -0.031742003 -0.036558535 -0.037883382 0.038597461 0.0046305172 -0.064080358 -0.0012072471 0.062073644 0.074926019 0.042131655 0.040920038 -0.066844314 0.089785501 0.13870612 -0.0012550353 0.091250181 0.0052947793 -0.057505962 -0.0059361625 -0.094624162 0.096303694 0.093563624 0.010571264 0.0068468396 -0.0032553724 0.039144769 0.037363738 -0.007273884 0.050876781 -0.0070587746 -0.024773655 -0.055469953 0.078870341 0.17645691 0.07533779 0.030938562 0.094143867 -0.022326902 -0.23097233 -0.032424692 -0.029744893 0.15959047 -0.053657066 0.0051721754 0.01796259 -0.054272555 -0.022877418 -0.028672541 0.023953961 -0.12332502 0.019231245 0.049330965 0.06373325 -0.024001095 -0.10724598 -0.089886352 0.11241683 -0.056740783 0.034733105 0.19080326 0.079176821 0.056445234 -0.15042113 -0.08548177 0.13759783 0.089819007 0.10646634 -0.041225206 -0.051991329 0.11678077 0.16771726 0.04760303 -0.047175024 -0.047375374 0.0080393162 -0.031813223 0.023953635 0.064368322 -0.009244916 -0.01969938 0.069338694 -0.044493988 0.018069632 0.13021539 0.024313806 0.079802915 0.15945493 0.010058535 0.10695818 -0.072062343 -0.026218928 -0.03455779 0.069744758 0.079554118 0.025184449 0.088592082 0.049115885 -0.10488509 0.058824062 0.07655751 -0.019674934 0.079823151 -0.043016113 0.032637842 -0.060805157 -0.014656609 -0.027153334 0.083440475 -0.11345616 -0.043123603 -0.0095934412 0.065696821 0.073970892 0.024951356 -0.0025093283 -0.012075549 -0.025395077 -0.11961552 -0.036298208 0.0056022629 -0.043378387 0.024622656 0.056656774 0.092532426 0.12472473 0.016433502 -0.028057029 -0.046467442 -0.099922948 0.15699689 0.033428401 0.059256487 0.14360768 -0.015680216 0.13366644 0.16955471 0.0084206397 0.0096909525 -0.069431178 0.10923294 0.006530107 0.019571658 0.067534223 -0.021829104 0.13358511 0.011564624 0.057632335 0.11627489 -0.057308264 -0.013881169 0.047071174 0.031155251 0.14008419 0.086253643 0.14321461 0.10959293 0.14480761 0.093279146 -0.031407457 -0.00086279056 0.11839762 -0.071265705 -0.11760337 -0.063520551 -0.078748345 0.018990541 -0.029233135 0.15596445 0.094418719 0.18281981 0.13691902 0.12786967 -0.12599272 0.15083931 0.076197714 -0.12136505 -0.11018044 -0.073252209 -0.064733677 0.13965809 0.07309594 0.049946807 -0.00055274705 0.07551685 -0.019988669 -0.12436759 -0.035187852 -0.055706348 0.0080650588 0.19268104 0.11838194 0.047617108 0.015980842 0.0071400604 0.0077839387 0.022511097 -0.072431482 -0.079007082 0.0095907422 0.048835933 -0.031473693 -0.092724986 0.046851542 0.088595174 -0.036423557 -0.090037435 -0.054277658 -0.069670953 -0.0032507344 -0.0076373969 0.067102678 0.047118563 -0.057608988 -0.08230266 0.090916321 0.042538434 0.043966454 -0.10422709 0.064842671 -0.011259758 0.048281476 0.01746677 0.039664365 0.086127967 -0.05503932 0.08695922 0.087143838 0.10778584 0.011491675 0.041225124 -0.017174147 -0.104046 -0.049009185 0.054509111 0.021640852 0.083922878 -0.090823688 -0.023228433 -0.070221797 -0.050675668 -0.07472606 -0.039039675 -0.073183462 0.12824553 0.013815974 -0.0036874644 0.067677684 0.0150857 -0.10505053 -0.012885582 -0.028819555 0.10375863 -0.037020642 -0.069470845 0.027431402 -0.019575929 -0.0050982288 0.02708232 -0.065320492 0.094074942 -0.094502002 -0.021852216 0.039868277 0.051837347 -0.04188123 -0.0097761722 0.033139929 -0.019139195 0.056584388 -0.015317697 0.10058694 0.061377738 0.085298024 0.035191193 -0.083043709 0.056905065 -0.058046758 0.039101694 0.069122285 0.065803595 0.076998636 0.07639619 -0.10773119 0.026857408 -0.0080235181 0.038495954 -0.066574253 0.0081520071 -0.089570649 -0.029781977 -0.0050578089 -0.08332938 -0.085344881 -0.16653946 -0.20083977 -0.12668546 -0.024134073 0.023702195 0.041929394 0.09191788 0.094324291 0.019555161 -0.096195251 0.055834431 -0.0040014493 -0.11408079 -0.010359356 0.16171062 -0.12798738 -0.13777073 -0.048663937 0.087624989 -0.11052231 -0.024074383 0.10560399 0.0090593742 0.057817634 0.031312838 -0.087938413 0.048311334 -0.01089176 0.098770253 -0.046575729 -0.05710189 0.1347356 -0.061491545 -0.024932962 -0.020618748 0.0028859347 0.071957462 -0.0078471852 0.044915695 -0.081468195 0.061745066 -0.09287937 0.05032948 -0.09619081 0.094744973 -0.072152779 0.068774126 -0.048827168 -0.011517592 0.066529438 0.036880668 0.021960916 0.037516415 0.042683505 0.07792341 -0.097842604 0.085038081 -0.013650339 -0.090047419 -0.010436722 0.074642643 -0.033104062 0.08376579 -0.030811796 -0.057584248 -0.077125765 0.043603297 -0.032553587 -0.01323039 -0.12385435 -0.04225447 0.015243107 -0.048407663 -0.026549388 0.053326108 0.011336512 0.0035030618 -0.095159061 0.12396052 0.053954333 -0.070328496 -0.038201064 0.098683581 0.036477875 -0.034702931 -0.035901133 -0.032421164 0.086026557 -0.008577181 0.04891748 0.058063854 0.03042528 0.078288913 -0.029232146 0.023330614 0.086870834 0.076446891 -0.11765745 0.077745974 -0.042374294 -0.076549821 -0.035933185 -0.010461837 0.016181016 0.089365937 -0.098590888 -0.11033865 0.011866093 0.005113645 -0.08396399 -0.079666875 -0.013160559 0.01765915 -0.027962398 -0.076357149 -0.022859514 -0.0012943265 0.010924715 -0.074694812 -0.11700469 0.045579314 -0.072577596 0.07840243 0.0089549571 -0.066887051 0.14347081 0.013139938 0.020615162 0.086744174 0.15581663 -0.022074455 -0.11260337 -0.062387001 -0.082600921 -0.091491662 0.042787503 0.03793231 -0.11547787 0.1597579 0.01349474 0.070682764 -0.10144071 -0.047478881 -0.1014585 -0.15693842 0.10105724 0.059961636 0.086893894 -0.049013954 -0.090042524 -0.18944041 0.12688465 -0.10850953 0.1296811 -0.03231981 -0.083450049 -0.0017552057 -0.055378843 -0.071649022 0.06809216 -0.0045605735 -0.07836324 -0.12031344 -0.06230361 -0.068339013 0.076226391 -0.075467691 -0.12121215 0.0032284467 -0.012827165 0.048648898 -0.026191931 0.067129955 -0.095541559 0.099124506 0.082849741 0.067089781 0.056776185 -0.063241735 0.032619722 -0.090751097 -0.061476015 0.047759529 -0.018277396 -0.085247383 -0.048831567 0.048606422 0.089643873 -0.054223482 0.093641326 -0.092043228 -0.075763926 0.12859689 -0.032690749 0.090995654 0.068964534 0.1137138 -0.042039521 0.034911539 0.066132091 -0.072121799 0.02826101 0.085969374 0.092679799 0.1023138 0.040828526 0.070739657 -0.053182859 0.09448725 0.01962465 0.04939647 0.059348527 0.083756998 -0.072949335 -0.059590485 0.019784091 -0.094443522 -0.01562214 -0.029076366 -0.019812092 -0.038930085 -0.026279494 0.068855882 -0.1103004 -0.081044465 -0.097524308 -0.046326376 -0.095913969 -0.070657589 0.080771931 -0.039887585 -0.020036733 0.041923355 0.043646283 -0.058437608 0.005727516 0.09429948 0.0030225369 0.065351918 -0.065127581 0.027076807 0.018124346 0.012057983 -0.087864481 0.0021902013 -0.057943501 -0.0055170227 -0.047136161 -0.025743756 -0.12669896 -0.050299 0.01854345 0.083817318 0.1648559 0.094253957 0.04783193 -0.020697776 0.048888285 0.036722988 0.0098618912 -0.024049997 -0.10814758 0.088487238 -0.072226048 0.08785668 0.021462383 0.0083317459 0.0006365226 -0.031393241 -0.050764069 -0.074598081 -0.0045590936 -0.077274501 0.088693492 0.076140188 0.089948691 -0.080273062 0.067579567 0.09553694 -0.064730197 -0.035765678 0.12586577 0.021560652 -0.054647036 0.0017758433 -0.12496447 0.049320996 0.041251108 -0.087748505 -0.069099575 -0.039462175 -0.016567672 0.046432771 0.013950441 -0.028284715 -0.13904019 0.040824734 -0.03636628 0.067113549 -0.013434498 -0.013813362 -0.031784602 0.027593194 0.011173788 -0.0084096789 -0.0081913415 0.078720659 -0.077314287 -0.17939813 0.062693782 -0.081420988 -0.090698697 -0.065180399 -0.17267703 -0.088419951 -0.047205858 -0.11783058 0.053722221 0.062633239 0.12054963 0.10098024 0.068977498 -0.010391946 -0.032758385 -0.053573139 -0.0092669753 0.10147933 0.053519744 0.16475895 -0.049627293 -0.023846 0.13270681 0.05234709 0.05174499 -0.036185633 -0.04296805 -0.12840326 -0.11807235 0.054028895 -0.0061314884 -0.044724002 -0.1370873 -0.05560926 -0.071146227 0.038492009 0.086483605 0.11078118 -0.02326528 -0.058230534 -0.068948686 0.01766599 -0.15289736 0.038145173 0.021580702 -0.028654467 -0.097086839 0.061268233 -0.091709353 -0.083979666 -0.010814607 -0.061660036 -0.002223762 0.021366877 -0.068495139 -0.05073221 -0.048231531 -0.056465466 0.096669436 -0.038437925 -0.11411342 0.039694078 0.052496754 0.090693608 -0.05438567 -0.10271446 -0.14743231 -0.050204668 0.025702314 -0.10228497 -0.031031789 -0.16966979 0.12618494 0.13590223 0.23652002 -0.22356407 0.18854046 0.0934624 -0.0028886138 0.29789728 0.033008263 0.074150063 -0.051910054 -0.034119431 0.028474901 -0.053490561 -0.071316272 0.037708208 -0.11465287 -0.16793048 -0.18841009 -0.17703021 0.20261167 -0.062751822 0.17606442 -0.22597955 0.34465855 -0.11620799 0.0420819 0.12744232 0.092909828 0.099874556 0.052124362 0.084334113 -0.052308653 0.010697068 0.012549123 0.14503531 -0.034446273 -0.050952557 -0.0018613869 -0.062886052 0.048168082 0.021655563 0.012865274 0.061358031 0.025867103 0.012745094 -0.070211433 -0.049952343 0.040341996 0.085073136 0.087796025 -0.034043834 -0.020185083 0.1348266 0.09178181 0.023018263 0.083390631 0.11065582 0.057844136 -0.066277541 -0.09708143 0.0316738 -0.0077332491 0.087107025 0.039716676 0.063865028 0.12277297 -0.059249897 -0.028481873 0.013618072 0.10728557 -0.084892668 -0.037513107 -0.07579568 -0.0096481415 -0.057338599 -0.037012499 0.027139405 0.024140179 -0.080320433 0.032987922 -0.062171161 -0.0011050259 0.081941336 -0.10654295 0.018927861 0.013231991 0.038768169 -0.041300151 0.069154285 -0.056776851 0.15333693 -0.045364656 0.0060356753 0.054145887 0.083149374 0.046290353 0.054804735 -0.055088598 0.018925287 0.12847511 0.10559419 0.044655979 0.023734316 0.047472868 0.072208337 0.0026508668 -0.067650944 0.052564997 -0.018065948 0.078413494 -0.041792534 0.10320001 0.018150795 -0.030489791 0.060127001 0.025755847 0.029636558 0.094599992 -0.06847591 -0.049927454 -0.064622417 -0.053354084 0.03541984 0.074495241 -0.03600258 -0.0095349913 0.12957263 -0.016755747 -0.078470528 0.12570624 -0.1130762 0.071495973 0.1702916 0.063026227 0.25594029 0.1176167 0.016461318 -0.15921444 0.096919253 -0.0092603676 -0.051083609 0.020500461 -0.12001091 0.11483835 -0.099742785 -0.035496339 0.22602047 0.018896975 -0.073328152 -0.065567046 -0.12529433 -0.11141412 -0.061090272 0.1004702 0.035085972 -0.0070382366 -0.014483687 0.22644953 -0.0049923584 -0.043029509 -0.042479776 0.053339049 0.055846434 -0.024407316 0.086525515 0.083838142 -0.030682152 0.071024202 -0.010964467 0.10049128 -0.059020314 -0.038748335 0.075700268 0.050178427 -0.056550637 0.069477953 -0.022340318 0.015017193 0.058843609 -0.08971969 -0.048814464 0.081980526 0.08360026 -0.043278411 -0.043402366 -0.037141129 0.050477505 -0.010519137 -0.012377139 0.02455985 -0.052615602 -0.10886855 -0.021119703 0.068196759 0.0074266628 0.0082666269 -0.021573 0.012528391 0.007629409 -0.099425577 0.075900584 0.0095152566 -0.096335299 0.00035355467 -0.14201701 0.054209266 0.016943242 0.077164829 0.10580336 0.032086022 0.10852888 0.070359565 -0.06184686 -0.062096588 -0.1153518 -0.065068915 0.062885828 -0.041372791 -0.10963356 -0.1125425 0.077378191 0.09394528 -0.061112795 0.031720407 -0.019381201 -0.065315388 0.088806905 0.035218932 0.10542501 -0.055543773 0.065031238 -0.014534048 0.049053691 0.038416497 -0.073884271 -0.054904968 -0.011894225 -0.063018762 -0.044725258 0.024739726 -0.043318924 0.062530495 -0.014423893 -0.089651234 -0.080887385 -0.015192581 -0.047060434 0.0071863839 -0.10823682 -0.054359701 0.038883075 -0.074390769 -0.054574378 0.077819206 -0.028852345 -0.063730456 -0.11674717 -0.20292534 0.26374441 0.17672212 0.011072833 -0.076619685 -0.23851068 -0.059527304 -0.034586966 0.078241907 0.027696015 -0.03370437 -0.047363821 -0.060498588 0.078343332 -0.11025082 0.163624 0.026130391 -0.0074786986 -0.075610913 0.12057098 -0.15873487 0.049578398 0.015652206 -0.26850843 0.046974413 -0.10264041 0.090281352 0.01172004 -0.24609312 -0.070130408 0.074523151 -0.0071839159 0.057045747 -0.060690429 -0.10311175 0.10316411 -0.042663157 -0.11726885 -4.0211347e-05 -0.026703656 -0.0019711703 0.086790502 0.032710966 0.031593286 -0.10097213 -0.0031577912 0.037638597 -0.046185125 0.060838938 -0.058668859 -0.070142671 -0.0025828353 -0.054411624 -0.016994515 0.097154021 0.0039323079 -0.054742187 0.044893663 -0.04317572 0.069071256 0.099959537 -0.052807242 0.0069315745 0.018386468 -0.01977827 0.16323629 0.17528912 0.05312863 -0.080472201 0.090552464 0.093843199 -0.068865262 -0.02689912 0.039159309 0.046441112 -0.031470217 -0.081457399 -0.082154341 -0.047428731 -0.061951399 0.070435837 -0.10243079 0.0002536641 -0.0081951385 -0.09354759 -0.011390031 0.030621655 -0.04089205 0.060275231 0.021986024 0.13717195 0.095894679 0.046042323 -0.020345489 -0.0015765378 -0.0066340533 0.061852943 0.054830778 0.074872531 0.090380996 0.0821613 0.080259196 0.1088196 0.09430708 0.063856922 0.035526197 0.018075254 -0.01459611 -0.090224229 -0.0633379 -0.068143092 -0.062661543 -0.062164482 -0.063220814 -0.061347622 0.0026704094 0.056689836 0.1162387 0.071571209 0.051201764 0.0087879468 0.037187602 0.076290742 0.07884042 0.049970057 0.048806071 0.011726718 0.033865292 -0.057545535 -0.26022702 -0.17006101 -0.066208743 -0.067551225 0.12858662 0.076872438 -0.13963845 -0.019166242 -0.038993802 0.0027276305 -0.10793109 0.08723408 0.046002023 -0.094476797 -0.037356205 -0.053213708 -0.053019315 0.083071247 -0.10209753 -0.18762544 -0.014888578 -0.063759036 -0.025743637 0.06563244 -0.082872115 -0.052937858 0.013718102 -0.097220629 -0.079587318 -0.00084606581 -0.013601087 -0.09982235 -0.090938583 0.05167276 -0.11670829 0.067813471 -0.051423468 -0.059575576 -0.0024798939 -0.096033417 0.0072591901 -0.031057404 -0.087253958 -0.067576736 -0.063143156 -0.046076044 -0.13942656 -0.093948141 0.021497075 0.025736172 0.049689621 -0.068136573 0.089406401 -0.060957596 -0.039760292 -0.040232334 -0.071338944 -0.02421698 0.031071713 -0.10899525 -0.061188702 -0.10755407 -0.053262603 -0.057809126 -0.10428705 0.10905808 -0.062385082 -0.073305652 -0.015946714 -0.099434324 0.088988207 -0.027989166 -0.022008277 -0.1201752 -0.028901877 -0.026343279 -0.01334332 0.055762034 0.0062443647 -0.03700608 0.052969016 -0.082700558 -0.11959246 0.003323365 0.09353599 -0.19640476 -0.014302442 -0.075419091 -0.085319206 -0.010476598 -0.041444905 0.072557367 -0.012071319 -0.14731032 0.020095902 -0.11364591 -0.016393615 -0.036084142 -0.026815236 -0.071704701 -0.096558146 -0.10669962 -0.13117251 -0.052854963 -0.051484093 -0.17997138 -0.025957868 0.015114927 -0.017963542 -0.10371202 -0.054291051 -0.092614196 0.010495929 -0.054952633 -0.12235861 -0.059894543 -0.012687133 -0.11688913 -0.056678187 -0.056925111 -0.065110259 -0.024235282 -0.0033229813 -0.053561192 0.17275588 0.12954333 0.085140847 0.024702718 -0.19439556 0.1527124 0.1500033 0.082990915 0.054938711 -0.087156005 0.10553589 -0.006046901 0.067564443 -0.10035937 0.051308185 0.020737773 -0.012355238 0.011682022 0.14554867 -0.044608235 0.07085599 -0.077136539 0.12126575 0.039914727 0.083588526 0.068751223 -0.0031375564 0.12965311 -0.049943589 0.012392582 0.018759701 0.023355696 0.10098673 0.015094546 0.039717551 0.013117581 0.098124489 0.10297068 0.11767869 -0.03638215 -0.015642641 -0.080379382 0.1432274 0.040538803 -0.034415536 0.059872571 -0.095442727 0.035237659 -0.013788445 0.05191718 0.06451305 0.021407068 0.083016865 0.077160574 0.01868522 0.10217584 -0.021057213 0.10443756 0.04460831 -0.033267416 0.027184991 -0.021101421 -0.064901076 -0.059542473 -0.098533586 0.027456723 0.11126699 0.031946205 0.059286434 -0.098281413 -0.053552393 0.076375753 0.077697784 0.013882622 0.00728177 -0.061004765 -0.041326582 0.05147798 -0.0083425501 -0.1070225 0.070594415 -0.070646472 0.0078800526 -0.039792802 -0.068524465 -0.087948494 0.030421682 -0.11737613 0.022897955 0.059398174 -0.049198214 -0.0098342113 0.043560863 0.03493752 -0.10190899 -0.11516084 0.12949519 -0.022323957 -0.042820577 0.012032296 -0.042113673 0.078712933 -0.06997022 0.11276885 0.072264992 0.080376811 -0.014764868 0.13176301 0.12696855 0.098195896 0.11532402 -0.024054905 0.052356336 0.0089490293 0.073850736 -0.066186585 -0.02595529 -0.0083634136 -0.077691346 0.018581267 0.055192299 0.0096311206 0.1432357 0.04132624 0.018874049 -0.10284761 0.054458324 -0.02086965 -0.15166897 0.08745046 0.12926249 -0.050330866 -0.011527425 0.027917666 -0.084480345 -0.027060265 -0.035052609 -0.089139082 0.070329577 0.070144787 0.10287742 0.10784679 -0.070166148 -0.020848528 -0.054269612 0.012029478 0.12198216 -0.046548352 -0.10973294 0.040732428 -0.038850553 0.09174522 0.14992014 -0.087743469 0.22059751 -0.034161493 0.048201937 -0.14539991 0.051664062 0.034980927 -0.035045341 -0.073537521 0.023791315 0.037770968 0.017219195 -0.01178838 -0.028944267 0.062515996 -0.12620567 0.023218831 -0.027615942 0.06321118 -0.015989542 -0.0064277397 -0.13534531 -0.085960992 -0.038715739 -0.023052741 -0.14088532 0.0013299171 -0.029943621 -0.028886197 -0.091705337 0.080103129 0.088110663 -0.11446243 -0.076925911 0.0032761605 0.037897706 0.061179839 0.011414628 -0.10910134 0.069249168 -0.13602492 -0.12543705 -0.098214038 0.058629278 -0.09468358 0.12685154 0.042267237 0.0092284819 0.058869578 -0.031685043 -0.035032641 -0.027976988 0.10988245 -0.10716526 0.073795833 0.05791986 -0.076912656 -0.034136761 -0.12859325 0.013632814 0.15896516 -0.016657608 0.018253434 -0.10852613 -0.039661188 0.072356328 -0.051822014 -0.03818791 -0.11371686 -0.11197244 0.058900665 -0.045324065 0.02111119 -0.048830703 0.12510052 -0.071650021 -0.12110963 -0.11668864 0.026420809 -0.0050995219 0.0020181267 0.016349783 0.0021827898 0.028563751 0.053233258 -0.073613755 0.035301343 0.0036348703 0.0099363495 -0.14973223 -0.050421234 -0.055837974 0.014131647 0.010602816 -0.04397364 0.004014452 -0.091346346 -0.054057628 -0.078473628 -0.057448842 -0.027923113 0.010324349 -0.10229658 0.15534391 0.097419463 -0.068940848 -0.22456492 0.20451878 -0.054203149 -0.19602072 -0.0050330609 -0.20191723 -0.045903616 0.16064382 -0.038806535 0.029118482 0.014995188 0.03799605 -0.074239627 -0.018751092 0.042204194 0.21588273 0.20485993 0.084149413 0.0066079246 0.20257497 0.093894571 0.22341701 -0.31329158 -0.00055216491 -0.0033541862 -0.22879125 -0.18846963 0.025099883 -0.034501806 0.0083923088 0.0044061784 0.091258235 0.097295649 -0.069992729 0.042978842 0.031355668 0.017969234 0.12126831 -0.010605176 -0.079337977 0.031833913 0.037982352 0.10031775 0.046395957 0.10375223 -0.034032028 0.0026434048 -0.019814128 0.049056944 0.078351609 0.085541278 -0.043300699 -0.0414574 0.027258685 0.12092192 -0.078404292 0.021825204 -0.043277685 0.097621143 0.08607249 -0.079718053 0.088384658 -0.037902888 0.081390083 0.010465744 -0.12670758 0.068753071 -0.06267909 0.058063313 -0.063401893 -0.042582292 -0.058689922 -0.10058716 -0.034175936 -0.0079536531 -0.023857884 0.028336363 -0.0068455664 0.015337761 -0.045119353 -0.016071562 0.0075823315 0.021090744 0.07140284 0.01850318 0.085661449 -0.065691382 0.074810155 -0.025712674 0.01549614 0.087341353 -0.096382044 0.024295373 -0.086709358 0.13993524 -0.032315712 -0.021635225 -0.080539949 0.029607084 0.029639088 -0.033703532 -0.0040489668 -0.053994909 -0.011007792 -0.032225523 -0.10788672 0.0026946489 -0.036353234 0.10230201 0.030379601 0.084193908 -0.022497831 -0.028398717 0.03950537 -0.075915359 0.11881666 0.055115052 -0.029929576 0.024807056 0.055246934 0.031242641 -0.081592806 0.01519989 -0.069422007 0.090772383 0.033719581 -0.18681368 0.049374696 -0.0045097526 0.059356902 0.066971511 0.074347034 -0.08440803 -0.044175882 0.099277683 -0.038886875 0.12366516 0.11020048 0.050733458 -0.11339325 0.014141121 -0.07305263 0.099929713 -0.082811236 0.06451612 -0.026973015 -0.067766227 -0.061070353 0.094664179 -0.0095064454 0.044715501 -0.059530444 -0.097421266 0.081873648 -0.064143769 -0.082344264 0.11693708 0.0039456789 0.16422847 0.075536676 0.082766958 0.092174314 0.083781451 0.13370703 0.067440949 0.11424151 -0.017904464 0.10788287 -0.011010283 0.11078615 -0.0013009291 0.013090915 0.18238395 -0.0066297436 0.11376443 0.16913614 0.094831206 0.098702915 0.11146569 0.17021146 0.13975373 0.12305339 0.1267976 -0.0096391216 -0.0056946217 0.11153372 0.14075971 -0.027972808 0.040393479 -0.11480855 0.060773693 0.073651709 -0.025568061 0.060208689 -0.145578 0.037239779 -0.058131184 -0.01548238 -0.065176547 -0.08760877 0.032159273 -0.01662319 -0.023993256 0.058135483 -0.15076125 -0.074526079 -0.06759499 0.032453883 0.098562576 -0.068082742 -0.0016274386 0.044324115 -0.030201565 0.050191075 0.13258582 -0.049563527 0.082348533 0.030275308 -0.088672087 0.056699451 0.030922249 0.036360763 0.09444879 0.055644438 -0.0068476805 -0.018245108 0.19283868 0.059233345 0.1726374 0.080543756 0.12899449 0.17354293 0.096650362 0.021948339 0.15966526 0.18509649 0.04350958 0.069974504 0.12737288 -0.0094047152 0.064324997 0.12416962 0.18386894 0.093073227 -0.0056395591 0.093875922 0.013928685 0.14300755 0.06392242 0.028707139 0.11759538 0.13119674 0.14082803 -0.036969822 -0.16475698 0.027282333 -0.19984238 0.13603881 -0.12562227 -0.066764913 0.097893149 -0.056449596 0.015371836 -0.028473383 0.087905072 0.08761774 0.051519446 -0.19276361 -0.031364832 -0.22323704 0.063903734 0.12184727 0.087190926 0.13721794 -0.091034986 0.063878268 -0.065009452 -0.02099232 -0.18314309 0.0030260284 0.0029408287 0.11581565 0.0018848442 0.074216448 0.2113782 0.10683671 0.092124604 0.13020976 0.0047919033 0.031874727 0.090540662 0.1343417 0.063049495 0.19002877 0.12404209 -0.099260248 0.026677793 0.05822378 -0.11653383 0.021451509 0.07858146 0.13098346 -0.037176143 -0.0021891536 -0.10245755 0.16719885 0.18785888 0.10696059 -0.068036802 -0.024351021 0.11507228 -0.0029651234 -0.00012824763 -0.022089491 0.034789421 -0.026929693 -0.077195391 0.068538621 -0.015196869 0.1145486 0.027752094 0.088216104 0.073009536 -0.063704848 -0.010330213 -0.01932664 -0.067079328 0.064449586 0.074833766 0.016071826 -0.086052448 0.043296885 -0.0575675 0.010873882 0.07074257 -0.04737195 0.024569152 -0.045359675 -0.050016724 0.0048272698 -0.0086907363 0.058825802 0.012268392 0.078903675 0.085853964 0.10138886 -0.019320959 -0.063796103 -0.0075677629 -0.050576352 -0.03806825 0.040980034 -0.03799738 0.10092752 0.12307523 0.19136697 0.069355652 -0.049689446 -0.055354275 0.075899377 -0.025747145 0.012252459 -0.16056384 -0.10575341 -0.060025077 -0.086578541 0.062245894 0.10512453 0.1305263 0.10722984 0.083329029 0.060872994 0.13918684 -0.055103075 0.1126993 -0.0071090069 -0.065427803 -0.0036526695 0.17380543 0.081435703 0.099443354 -0.14750946 -0.11891542 -0.051344879 -0.0037840395 0.027983289 0.29657623 0.37592605 -0.066004813 0.070009261 0.17845325 -0.099292837 -0.16532461 -0.035590991 -0.12756889 -0.082705006 -0.13458401 0.10908143 -0.013687276 -0.02380264 -0.0017387117 -0.057972569 0.19105169 0.023953021 0.022382056 -0.22312579 0.10302535 -0.26088706 0.077616423 0.26725519 0.27844471 0.20746979 -0.016067138 -0.078400239 -0.033383515 -0.017181979 0.055385701 0.089277148 0.01777361 0.097571507 0.043307662 0.10283047 -0.061352238 0.0078571672 0.070811078 0.084966645 0.051460363 0.013026887 -0.055405792 0.068404235 0.10480049 -0.05094092 -0.016463032 0.045293849 0.10836507 -0.057795685 0.067062102 -0.0076905703 0.12087235 -0.047965106 -0.12644377 -0.087055385 -0.089755476 0.08407782 0.10254617 -0.089237422 0.073643848 -0.0098384302 0.11154518 0.00076724577 -0.059422486 -0.064797305 -0.07257916 -0.0060976925 0.028433481 -0.12327336 -0.085105181 0.10594054 -0.075022146 0.031348716 -0.067116365 0.0364374 0.029012151 -0.11691967 -0.051827766 -0.15517923 0.037694365 -0.0036855624 0.079578519 -0.06972637 -0.007246065 -0.089619979 -0.0056072092 0.11888436 0.072451763 0.011065898 -0.023373336 0.0090616625 0.052035246 0.076796733 0.066695124 0.11898354 -0.033269729 -0.03039127 0.089084223 0.020701202 0.06306316 -0.042238776 0.0787507 0.017443819 0.015406533 -0.050300822 0.00037348532 0.11746927 0.075799122 -0.0047579687 -0.0065100039 0.039965373 0.087286539 0.015609212 -0.012654386 -0.056660887 0.055802826 0.053246353 0.059195053 -0.078007825 0.019891163 0.1172478 0.10031575 -0.2084464 -0.014923407 0.079168908 0.052764557 -0.11096843 -0.073024765 0.19133978 -0.1065506 -0.049014725 -0.035846844 -0.14681327 -0.096302226 0.043629065 0.070092082 -0.061921183 -0.0087252073 0.031817589 0.024813658 -0.14005116 -0.00020477391 0.013461201 0.096017651 -0.12441012 -0.053913958 -0.032937009 0.12197123 -0.067984469 0.079050988 0.07954409 0.21384516 0.12272643 -0.041997232 0.16108203 0.10659445 -0.011465308 -0.069329575 0.13108693 0.04384229 0.028796714 0.0060762255 0.048410069 0.013570253 0.04453592 0.0095986612 -0.037910931 0.046854835 -0.0070204549 -0.021710314 0.17826785 0.11734813 0.088649809 0.081613772 -0.011278794 0.038920447 0.029455973 0.11995234 -0.081733927 0.072815299 0.035368882 -0.08113087 0.10354897 -0.033908941 0.0098198187 0.16608238 -0.0100846 0.14754602 0.046021875 0.042275742 0.084029049 -0.079045117 0.091521904 0.060740359 -0.05894649 -0.016857566 -0.04463084 -0.068875834 0.015213334 0.0063507976 0.091523901 -0.024418183 0.11178972 0.081453703 -0.17918348 -0.011585995 -0.11866751 -0.076388963 0.046601884 0.004284556 0.036690373 -0.0065827956 0.0050853598 0.063684016 0.029630886 0.16025674 -0.066660784 0.0084091416 0.0050338777 0.060391005 0.12704635 0.048097581 0.10949153 0.14834204 0.16480133 0.020765293 0.034247551 0.16449374 0.053333614 0.12705065 0.048626903 0.081799418 0.096513741 0.057060458 0.13917422 0.038984008 0.11302203 0.011924204 0.018972127 0.020210279 -0.0059543601 0.14445771 0.078679487 0.12901592 0.11202113 0.065090589 0.15972038 0.086363867 -0.05140591 0.088933207 -0.052876327 -0.093816124 0.087902717 0.18139954 -0.24917233 -0.17257899 0.022172924 0.029575147 0.010525082 0.17749909 -0.10923129 -0.023131929 0.21222238 0.089189507 -0.16655491 0.11779532 -0.2777974 0.1026352 -0.0097831385 -0.041870654 -0.053704262 -0.08500959 -0.1197371 -0.14689982 -0.025486087 0.10558384 0.15952419 -0.0399426 0.26684326 0.17505303 0.043048497 0.22725061 0.086119212 -0.0082177185 -0.054419708 0.11768895 0.13543555 -0.073205613 -0.05036344 0.0025437875 0.027801599 -0.088981867 -0.0052266018 -0.057393156 0.07014288 -0.075347014 0.037891608 -0.025874497 -0.014470651 0.0044637392 -0.056242798 -0.036050078 0.091452554 0.022616223 -0.028118061 -0.015116304 -0.026264142 0.096013956 -0.050621957 0.024606636 0.05363071 0.031928375 -0.093215674 -0.075327583 0.12616508 0.013196249 -0.14296089 -0.10594288 -0.057148822 -0.15658233 0.10799967 0.013091772 -0.04155058 -0.046559833 0.081961952 0.034707427 -0.06261082 -0.09923131 -0.071868233 0.09838146 0.066765875 0.055021286 0.046111155 -0.087987542 0.071936704 -0.024033051 0.069502592 0.091580473 0.036172841 0.0002961517 -0.14512616 -0.12632482 -0.030126255 -0.024377391 -0.038970836 -0.092981167 0.10980341 -0.046873543 0.037466928 0.14019446 -0.029626237 -0.011474763 -0.027512396 -0.11241484 -0.047357239 0.036664911 0.010707437 -0.014891746 -0.013433859 -0.0020825083 -0.015424449 -0.065270655 -0.070897177 -0.082560763 -0.049935736 -0.077150807 0.089504071 0.083907254 0.077088684 -0.0024279898 -0.084557228 0.059706561 0.032869015 -0.060951997 0.036605872 -0.083629854 0.0066188658 -0.051686637 -0.027409796 0.057158489 -0.067917347 0.089930244 0.24553847 0.14528562 0.14082375 -0.042504534 0.052480347 -0.058736581 0.13743137 -0.0020144135 -0.11252939 -0.045527086 0.056442089 -0.2156285 0.10649911 -0.038727377 -0.032117393 0.11935758 0.17312732 0.0028414449 -0.0049508247 0.063008234 0.098127306 -0.13977434 -0.067456558 0.09008716 -0.0014831875 0.067382127 -0.052490387 -0.15072228 0.046660833 -0.0049204966 0.018660113 -0.084083021 0.030926062 0.12321033 0.11366098 -0.038291276 -0.02877772 -0.085522056 -0.058194146 0.027586842 -0.060501833 0.015632592 0.059621774 -0.034310237 0.051548079 -0.0048068706 0.12248395 0.029493816 -0.0047964756 -0.014149177 0.0031867053 0.099687301 0.077042758 -0.025516555 0.079557888 0.028561495 0.028191496 0.0015326169 -0.068259098 0.041463852 0.061495136 -0.1184151 -0.040601935 -0.014811644 -0.0155339 -0.061723262 -0.072498292 0.072470888 -0.0040094261 -0.0105656 -0.09591376 -0.023757869 -0.049304657 0.04014514 -0.012212458 -0.071323015 -0.090676904 -0.037314925 0.029279128 -0.075515032 -0.00092031556 -0.089320846 -0.097463064 -0.020704554 0.095129542 -0.11657501 -0.087656856 0.053444669 0.0023794456 -0.0066015855 0.068748236 0.042928685 0.18394434 0.14496849 0.094025299 -0.021708921 -0.0063568051 0.14902648 0.068807326 -0.018504189 0.021652572 -0.0074485 0.059582077 -0.02550979 0.080873951 0.12725984 0.040373847 0.025290828 -0.050439529 -0.0770275 0.093424775 0.10758161 0.027511785 0.10548569 0.069447711 -0.02671444 -0.077949189 -0.023094913 0.0093123903 -0.037397705 0.087847441 0.11674724 -0.017195975 0.060039651 0.20132208 -0.10273511 0.087850288 0.11908447 0.068986624 -0.054938063 -0.033222329 0.024168823 0.012782142 0.017458037 -0.040652446 -0.16376053 0.022805937 0.044216651 -0.017762018 -0.038109362 -0.062290207 -0.010383778 0.13039283 0.15071073 0.23626515 -0.13580017 0.057186287 0.11663003 0.09392748 -0.069925599 0.10580014 0.069815561 0.058331639 -0.061943471 0.051665321 0.12658016 0.022988115 -0.043406162 0.0087117255 0.08438088 -0.018628474 0.038063042 -0.024007184 -0.047522016 -0.0093362918 0.0060675736 0.065015301 0.072042882 0.0026508032 0.07627371 -0.056154732 0.096985988 -0.061564159 0.058746286 0.099125043 -0.0041727349 -0.0050909515 0.074478731 -0.013833331 0.075811662 0.029690208 -0.057433356 -0.021477252 0.029261 0.046549857 -0.021675894 0.085752353 0.075078271 0.03090127 0.00088635343 -0.11266493 -0.07619141 -0.069897041 0.05246507 0.10310731 0.11328879 0.038386811 0.022347471 -0.016824525 0.051854674 0.0032128016 -0.040622409 -0.029099846 -0.0049395873 -0.027089588 0.063587643 -0.13448054 0.06351506 -0.0023095207 -0.07025142 -0.051550161 0.050295848 -0.082067244 0.064724237 0.04446486 -0.077883191 0.090692483 -0.0059039588 -0.0065495884 -0.095066018 0.10218975 -0.045207787 -0.074171327 0.13371082 0.028522387 -0.045694448 0.080654316 0.11243086 0.0017388442 -0.033087771 0.02052887 0.092044152 0.16967608 0.083996437 0.068070918 0.12228352 -0.0031829232 -0.06110847 -0.045012448 -0.013433966 -0.00074778666 0.018396048 -0.019798769 -0.051923051 -0.1099637 0.0060251299 0.12076621 0.083879739 0.11465181 -0.051292278 -0.0083290124 -0.052900974 0.10451797 -0.015701924 -0.10541131 0.0061979201 0.051388536 -0.18572652 -0.15194763 0.010334465 -0.021351628 0.056838494 -0.0040927841 -0.015744966 0.11838309 -0.0047779186 -0.10536797 -0.16197102 -0.034581497 0.0010323144 0.15602396 0.030552922 0.028860237 -0.060996134 0.075273566 0.077582516 -0.039478801 -0.17696992 0.18507299 0.18453906 -0.024798898 -0.064681724 -0.010459271 0.14142948 0.01480185 -0.17910552 -0.050298605 -0.10778198 -0.10146195 -0.12159813 -0.046277471 0.00096276193 -0.11338628 -0.034613837 0.031969234 0.0092325592 -0.0025071793 -0.058775648 -0.026123097 -0.023439638 -0.12759268 -0.062237501 -0.097490907 -0.11213534 -0.10085737 -0.021046329 -0.06546168 -0.056284122 -0.027102126 -0.025356671 0.036376059 -0.12690611 0.038295858 0.058681246 0.032676227 -0.1430503 0.11366195 0.047427084 -0.11605275 0.019874578 0.14506987 0.11180828 0.091724813 0.042968117 0.015343278 0.058853347 0.0070175547 -0.013047068 -0.10559504 0.016211195 -0.066069454 0.061857566 0.043854203 -0.073198892 0.083056152 -0.031995583 0.12888262 -0.060506206 -0.065711111 0.1280397 0.066193081 0.00031168794 0.025372168 -0.055198871 -0.046808802 0.041873734 0.099407151 0.11229815 -0.15730149 -0.14211223 -0.13068548 -0.049139023 -0.0082325814 -0.17769724 -0.095825531 -0.096785128 0.00053659466 -0.015882023 -0.15813415 -0.031484064 -0.094045654 -0.052277785 -0.0064156898 -0.12535113 -0.16451561 -0.081636563 -0.070815951 -0.031689055 -0.035097592 -0.10418305 -0.096099958 0.0052635199 -0.024553083 -0.012859483 -0.18495835 -0.18769629 -0.078111246 -0.14881462 -0.11669559 -0.043467555 -0.015217915 0.18255122 -0.023619156 0.040726725 0.011840274 0.25832728 -0.034361761 -0.04030833 0.10684335 -0.074649513 -0.008945737 0.094585232 -0.13761234 -0.066635221 0.017969202 -0.14069793 0.043621909 -0.088571019 -0.15391603 -0.14360826 -0.043933146 0.17388843 -0.030905971 0.16838679 0.036619324 0.14194909 -0.10758504 -0.040437542 -0.14635213 -0.14219749 0.00034752124 0.048293613 0.03458152 -0.11462656 -0.061312526 0.10108688 -0.10786383 -0.12041795 0.0073806327 -0.077905849 0.10718358 0.033815403 -0.099394955 -0.13160846 -0.032626219 0.038368501 -0.0038443243 -0.028408712 0.056746818 -0.017165935 0.0062780483 -0.057333007 -0.093650438 0.075430393 -0.025636762 -0.055491868 -0.087598734 0.017982334 0.0031978234 -0.097755097 -0.041394796 -0.14206392 0.016456524 -0.093545154 -0.012515729 -0.028784018 0.012160549 -0.025615595 -0.05597448 -0.045132052 -0.046410196 -0.081342943 0.0039019829 0.036634821 0.12113683 0.0068046902 0.13913675 -0.078426868 -0.070768997 -0.0043802448 -0.10397854 -0.095125131 0.068389185 -0.10784109 0.043807939 0.067788869 0.0070052692 0.060601663 -0.0071434542 -0.088376403 -0.090866849 -0.0090027591 0.059722714 0.099354923 -0.034543086 0.14720237 -0.12554696 -0.015857913 0.077910438 -0.092728056 0.040917516 -0.043943286 0.064524397 -0.10246982 -0.1212775 -0.081988968 0.063345045 -0.12214506 0.035562582 0.0050264616 -0.15628165 -0.041741014 -0.11711455 -0.024956794 0.032089286 -0.091747403 0.01418063 0.016870676 -0.013764078 0.038879227 -0.0036980249 -0.10861936 -0.05081071 -0.14765206 -0.080857553 -0.055499885 -0.049401939 0.0041549779 -0.17874002 -0.025484126 -0.13026404 0.080786668 0.12779024 0.20127954 0.069495641 0.049936686 0.088798746 0.14590463 -0.071601465 0.0087752845 -0.032595709 -0.15054536 0.019898493 -0.076739304 0.015022552 0.019296417 -0.067688271 -0.084642239 -0.096472643 0.15532072 -0.02005662 0.02483649 -0.17151737 -0.0050167283 -0.19228749 0.1057917 0.054740623 0.15996878 0.017236784 -0.13996552 -0.055843495 -0.12628524 0.052547265 0.015565698 -0.15453054 -0.0027821872 -0.12537476 -0.00080955168 0.026113719 -0.089271873 0.058744296 0.011189967 -0.021910198 -0.096426278 -0.0091718733 -0.051682096 -0.12155809 -0.065909758 -0.12558024 -0.056425091 -0.011203588 -0.11644742 -0.1215382 -0.11359008 -0.0585736 -0.15845747 0.005988209 -0.028378842 -0.047408063 0.04550077 0.082223684 0.010322816 -0.018181119 0.097234227 -0.034868367 0.067488246 0.1233366 0.093076289 0.15026709 0.032735527 -0.049960706 -0.070595741 0.025255501 0.029635113 -0.068494238 -0.051626462 -0.090465985 -0.064091928 -0.016047982 0.0025324523 0.085924909 0.027897237 -0.041525517 -0.042952545 0.058331508 0.0093692169 0.089738138 -0.064752907 -0.050901257 -0.071811512 0.012982811 0.056507882 -0.0029944386 -0.002876369 -0.080121174 0.033461101 -0.091103569 -0.039566059 0.036296103 -0.11156231 -0.054695118 -0.093430988 -0.045013767 0.037432414 -0.11088302 0.012683067 0.064200908 0.051890418 -0.095446244 0.03192215 -0.063355565 -0.077864014 -0.12875634 0.011816677 -0.068379976 -0.045709126 -0.11735304 -0.077591166 -0.053758901 -0.12049131 -0.076456927 -0.062341828 -0.07131359 0.053764347 0.074425057 0.024268791 0.054927222 0.092688628 -0.12545639 -0.12040526 -0.12947485 -0.09424039 -0.033616085 0.021655673 -0.19026038 -0.11916509 0.042893045 0.10334596 -0.11111481 -0.016923906 0.10363818 -0.037782796 0.002424642 0.0056187534 0.12740785 0.065356374 -0.15367833 0.048835739 0.13401119 0.0018476581 -0.0046161991 -0.050973859 -0.094511211 -0.090939581 -0.17072912 -0.12552823 0.053372685 0.058842812 0.064757615 0.066395663 0.0017970307 -0.018665224 0.081167668 0.14810126 0.081131443 0.084083632 -0.091790058 -0.014682638 0.074619487 0.0014239866 -0.077213719 0.048512749 0.018796114 -0.020578967 -0.011113197 0.021390028 0.14513923 -0.063607715 0.026799148 0.011155055 0.0441866 0.025009537 0.036494963 0.072162353 -0.056567226 0.051998951 0.021921333 0.012506592 -0.022704817 0.11628176 -0.017718118 -0.029675184 0.09326338 0.033594083 0.016717236 0.019575436 0.024802912 0.025353217 -0.061385594 0.010885352 0.041510649 -0.11365707 0.029512886 -0.052250944 0.095518313 -0.12272169 -0.04154278 -0.044478826 -0.13547494 0.094391368 0.023519218 -0.037178315 -0.0073092724 -0.036915138 -0.09968102 0.085724302 0.0042409394 0.067443378 0.035891276 0.074946404 -0.049277905 -0.0029866982 0.040681269 0.012459104 0.050995436 0.12020354 0.096240424 0.15248999 -0.0600923 0.072537467 -0.057657566 0.03966536 0.081838466 0.12086096 0.050778646 -0.030072838 0.02794762 0.071686901 0.028695485 0.055250458 0.087650582 0.030060211 -0.032744125 0.077798076 0.12189132 0.095729053 0.076709889 0.12586698 0.073373042 0.12658538 0.081287444 -0.064953268 -0.069953553 -0.0024710954 -0.056332339 -0.052140988 -0.0099056773 0.09498699 0.0020266823 0.074776612 0.058623694 0.15646768 0.054527521 0.15448116 -0.0016166205 -0.026115989 0.13018979 -0.019680835 -0.01129668 -0.019122994 -0.09579286 0.10764213 -0.050822064 0.053795043 0.2056822 -0.13557176 -0.11117674 0.044476632 0.037683047 -0.076443397 0.081656054 -0.035880655 0.18849434 -0.062208794 -0.053186156 0.2001397 -0.028854746 0.1111689 0.082927279 -0.0080926158 0.11669417 -0.05380892 0.10407769 0.038915232 -0.15672047 -0.048865635 -0.020537185 0.12828967 0.046572823 -0.042298883 -0.044363886 -0.065357096 0.003219763 0.041951098 0.073301539 0.08362487 -0.039886624 -0.038382042 -0.06054531 0.06292662 -0.013123793 -0.035500776 -0.024611855 0.045636389 -0.015851181 0.0053909551 0.064302549 0.045966517 -0.098657064 -0.076783955 0.025275575 0.092362046 0.053829849 -0.11532929 -0.019822314 -0.07260678 0.037751615 0.048247822 -0.097598113 -0.12154158 0.043702096 0.017111912 -0.0062649585 0.032575507 0.10325985 -0.067855857 -0.020694364 -0.005426045 0.066354714 0.056782994 -0.036697526 -0.13363987 0.048449565 -0.065569289 0.1208643 0.093687966 -0.02784083 -0.080981471 -0.10515229 0.0056868237 0.115055 0.028559737 0.053100817 0.11158023 0.00012291904 0.015290546 0.074246079 0.091590658 -0.011026638 0.12290939 -0.032262884 0.023101872 -0.037848987 0.02392548 0.021099336 -0.017857878 0.14818045 0.010341222 0.013109351 0.069315359 0.04166678 0.13281509 0.0055135214 -0.048593108 0.095530011 -0.03536877 -0.0096380543 0.023164984 0.011187342 -0.088657588 -0.082198083 -0.017230548 0.29306734 -0.065422066 0.023153448 -0.03587449 -0.028089171 -0.26983279 -0.16447516 -0.023417246 0.065176114 -0.090946019 0.071942553 0.01709207 0.074650638 -0.030670635 -0.013418892 0.038469411 -0.081709243 0.023164874 0.15672685 0.23458062 0.19471017 -0.078626871 0.059720453 -0.026187636 0.011348587 -0.22418107 0.23585244 -0.0099848276 0.099439487 -0.21053657 -0.1312017 0.10721953 -0.13219689 -0.072138876 -0.081632346 -0.094494395 -0.13072331 0.059114974 -0.13393788 -0.013268037 -0.0036856879 0.025978772 -0.043872718 -0.00015746923 -0.0096786218 0.0062406855 -0.025223067 -0.037609164 0.072678201 -0.018041581 0.067004338 -0.0022814949 0.027530398 -0.023652362 0.076388702 -0.016362455 -0.063802928 0.012816728 0.053670049 -0.047459383 -0.011677477 -0.077885933 -0.0019522775 0.049483087 0.064514406 0.034389079 0.012397883 0.0010348712 0.12833874 0.069448434 0.0940127 0.042893473 0.064403534 0.045124542 0.015992232 0.12119473 0.055104833 -0.061560623 -0.046939529 0.066917926 0.063317679 0.053085811 -0.12948769 0.076637134 0.078322798 -0.062294703 0.082442738 -0.094214641 -0.022109509 0.032581061 0.069837481 -0.1026888 -0.051929049 0.047128521 -0.033027541 -0.039005239 -0.0079550082 0.00064454623 -0.065202832 -0.085319586 0.056007117 -0.021990292 0.037460815 0.050817888 0.0080987215 0.039383039 0.056204829 -0.094605327 0.070295572 -0.060810633 0.027305521 -0.022646852 -0.044837393 -0.05431293 -0.041651517 0.094874054 0.035482284 -0.0051796446 -0.086016268 -0.05311399 -0.060457487 -0.071732901 0.023988707 -0.10302277 0.040820047 -0.063591473 -0.0078910012 -0.01628653 -0.19221194 -0.089710526 0.15781836 0.23076001 -0.24413911 0.039062764 0.13251063 -0.13560829 0.0083059361 -0.036648173 -0.14711189 0.14962721 -0.012406324 -0.015667237 0.078033611 0.14129449 -0.0033266507 -0.13874152 -0.14657524 -0.15261099 -0.23730356 0.18909273 -0.15608419 0.057418339 0.087608457 0.12709111 0.061424341 -0.21459806 0.087345831 0.17826468 -0.070630558 -0.13638724 -0.0042950385 -0.060875729 0.0051733726 0.045505367 -0.025913319 -0.020458978 0.0090564815 -0.070033669 0.010207457 0.083984695 0.031304434 0.010094342 -0.0040512029 0.036789637 -0.0064396025 0.015104801 0.097169869 -0.060287315 0.021918926 0.066836715 0.079997912 -0.031176073 -0.018001337 -0.11098435 -0.13914196 0.061998416 -0.077487603 -0.039524771 -0.034625027 -0.16497783 -0.045914285 -0.08230482 0.077203438 0.066881046 -0.0074524241 0.072362185 -0.081922323 0.076113686 0.067403071 -0.0085396999 -0.039868634 0.062713332 0.058500376 0.1156668 0.075284749 0.039238755 -0.022637395 -0.077815868 0.120179 -0.018042898 -0.019592978 0.082921743 -0.032220505 -0.045375068 0.079122223 0.067068338 -0.031925794 0.10037631 0.084986404 -0.078520685 0.11106217 0.17035183 0.028965101 -0.019284023 -0.070019506 -0.097413585 -0.10731523 -0.13856766 -0.059524622 0.0042310231 0.072225839 -0.03132708 0.0054860748 -0.051725525 -0.11363182 -0.079374112 0.016787987 -0.1129288 -0.056718335 -0.007095742 -0.016773554 -0.080849729 0.029799027 -0.046875436 -0.060984187 0.018077236 -0.0026200733 -0.025798673 -0.062171705 -0.076517425 0.013394371 -0.080785789 -0.024106469 -0.045851886 0.088487014 -0.066659443 -0.017261421 -0.0062978584 0.10341699 0.21957304 -0.18856148 0.14151159 -0.078851841 -0.013183642 0.25890815 -0.033407796 -0.076772906 0.053951774 -0.019188648 -0.011544207 -0.016699702 0.084064826 0.18194963 -0.05421488 -0.17221405 -0.066831641 -0.061258886 -0.052071996 -0.15826859 -0.11330696 -0.1914853 0.21542366 -0.090786651 -0.018452376 -0.094307713 0.15449081 0.096783035 -0.10474242 -0.17075969 -0.053135261 -0.013740361 0.098205507 -0.066171311 -0.10493035 0.018103838 -0.030039862 0.038224302 0.04229895 -0.010190043 0.060582146 -0.038988952 0.046868116 -0.036310121 -0.045191702 -0.019747823 0.04201467 -0.062378183 0.044307947 -0.090612464 -0.15585901 -0.057144012 -0.09718325 0.045265831 -0.090037115 -0.073667198 0.044092424 -0.11271036 -0.0072885957 0.0004935757 -0.11254619 0.055014689 -0.085758068 0.066845633 0.03634914 0.15506865 0.0021191216 0.069985695 -0.01058908 -0.12407427 -0.048277047 0.09307722 -0.018325185 0.031252719 0.061473209 -0.034666602 0.14320667 -0.05381212 -0.061214808 -0.0019483209 -0.065439679 0.0016163742 0.10841784 -0.055148665 0.069330238 -0.1361068 0.059701853 -0.019568941 -0.097254381 0.062933363 -0.076655433 -0.094747595 0.051848602 -0.044806115 -0.036459487 -0.10793228 0.054391429 0.0083258245 -0.017671984 0.048167959 -0.026522806 -0.14187007 0.023972761 0.057748333 -0.082761891 -0.078950852 0.070705079 -0.077147767 -0.14637713 -0.045585852 -0.067574352 -0.15274152 0.019913124 -0.0049941102 -0.11326972 -0.14228463 -0.058181327 -0.1275728 -0.093595967 -0.18106271 0.020690762 -0.11461094 -0.032905582 -0.098235302 -0.029540787 -0.12318616 -0.0043998137 -0.013237157 -0.22354585 0.14904146 -0.077342302 0.11713313 -0.050749719 -0.23502402 0.040186256 0.011787742 0.046890974 -0.12282215 -0.085563734 0.0042685652 0.066634484 -0.092803597 -0.16269828 0.047403224 -0.057143107 0.050204352 0.18211935 0.19906026 -0.19615152 0.18876804 -0.28370249 -0.059139449 0.048554096 -0.083200969 0.040143941 -0.0011609468 -0.041009229 0.019376481 0.066424772 0.046090562 -0.010457847 0.034470275 0.11270497 -0.057400893 0.088403247 0.047502406 -0.048165835 0.091343008 -0.0066888663 0.028044138 0.0062002763 -0.053020939 0.038992781 -0.02407369 -0.037108582 0.12699808 0.083357453 -0.084981821 0.058676966 0.12451313 0.093124263 0.02102535 0.086000271 0.077829652 -0.064303294 -0.031680461 -0.10427124 -0.087917805 0.039525159 -0.036536552 -0.036435481 0.065197371 0.094468743 -0.16393895 0.1417792 -0.028180808 0.046187986 -0.054535292 0.032174587 -0.16486202 0.010976249 -0.020312732 0.059874378 0.0081326365 -0.043232128 -0.0133 0.043010812 -0.17486922 0.047588609 -0.10519603 -0.09974011 0.0056834556 -0.16612451 0.03391188 0.08788012 0.0037861387 0.0016246225 0.051896285 -0.0051144203 -0.043587297 -0.03068964 0.11690184 0.1174482 0.085864931 -0.019882182 -0.051081344 0.018581102 -0.040506251 0.094762102 -0.029416105 0.16162182 0.090180181 -0.0095476406 -0.0428885 0.11155469 0.14267343 0.11771511 0.024734136 0.044708569 -0.028279183 -0.024113171 -0.078520007 -0.043208878 0.10406882 0.02645875 0.086079359 0.059551433 0.066105008 0.090082973 0.11402568 0.068568341 0.083552949 0.044945154 0.062310677 -0.10494363 0.16233534 0.057537086 -0.13853496 -0.25991344 -0.17305788 -0.025251238 0.16594979 0.074603565 -0.155876 0.14613712 -0.018509232 0.068850875 -0.15916096 0.23076877 -0.14241047 -0.0038179101 -0.17219825 -0.11429346 0.10777855 -0.076386519 -0.20571165 0.039797973 -0.1207504 0.11618546 0.27872834 -0.1420788 -0.063507438 -0.023570383 -0.019316817 0.2214756 0.0043563885 -0.010919747 -0.10376079 -0.020413786 0.041381191 -0.045380209 -0.015183898 -0.038515121 -0.039578099 -0.097022653 -0.049973562 -0.10567065 0.026680605 -0.0039627082 0.00035357187 -0.054373827 -0.10136411 -0.12601869 0.025020216 -0.01355221 0.029161755 -0.03780761 0.024359591 -0.095642649 0.065784715 -0.11179987 -0.10856605 -0.1196137 -0.10561937 -0.10802546 -0.094023764 -0.02829916 -0.011094466 -0.034955114 -0.038541134 -0.063804656 -0.067986853 0.070679538 0.061157867 0.0048414837 0.0014910423 -0.035615221 0.13241082 0.088791154 0.04196655 -0.072730653 -0.083833255 0.072124593 -0.079997942 0.010354261 0.051599085 0.030254593 0.076488495 0.065416723 -0.025678642 0.15220639 -0.035444245 -0.00022033553 0.02632824 -0.016653655 -0.023083948 0.078712076 0.087320291 0.065890335 0.016324673 -0.00066441519 -0.047576375 0.020476997 0.078738064 -0.026380846 0.012869441 -0.049212497 -0.099876836 -0.14084497 -0.05555056 0.017623937 0.066296749 -0.16011536 -0.12627453 0.02745444 -0.025163369 -0.03889304 -0.050618209 0.024443502 0.040692415 -0.10809575 -0.063392527 -0.11748865 -0.12246038 0.011802106 -0.016355136 -0.14353649 -0.06929145 -0.021619271 -0.017280793 -0.073040567 -0.036317829 0.084757999 -0.17557232 0.043790318 0.13225839 0.070367031 0.076899938 -0.054812081 0.09453059 -0.015051145 0.075882167 -0.13682501 0.025412772 -0.075832672 -0.013543981 -0.1971392 0.11714522 -0.14033383 0.0098958584 -0.15168963 -0.0716784 0.15413764 0.070242658 0.1049787 -0.14144118 0.11879351 -0.15777059 0.16695905 0.026659872 0.14698066 -0.00179284 -0.067684963 0.020267038 -0.010018541 0.0081631057 -0.096124984 -0.01425991 0.035399441 0.073670022 -0.059397705 0.0068802633 0.054353889 -0.037534636 0.047045581 -0.0099112634 -0.075089537 0.089073949 -0.063439749 -0.031321414 0.081191204 0.001138982 0.015491297 0.03508506 0.014909872 0.12226101 0.1091671 -0.059816644 -0.018185111 0.060759626 -0.024563266 0.084763929 -0.10446498 0.038183786 -0.054878633 -0.10525561 0.084001288 0.08091186 0.044654582 -0.067357972 -0.049537692 -0.015322438 -0.0034840854 0.085122764 0.0023583674 -0.036089715 0.0030231362 0.059913602 -0.014381521 -0.037947122 0.05438567 0.010667115 0.0040983525 -0.17194568 0.0024073618 -0.15917814 -0.096045434 0.095008008 0.035381686 0.075947352 0.030235231 0.071341276 0.078745484 -0.036199495 0.055364978 0.053363621 -0.074648701 0.076510407 0.068307437 0.12964587 -0.015102067 -0.028448373 0.075405046 0.013275168 0.095177636 0.014895372 0.070779212 -0.046722837 0.031863667 -0.094678648 -0.006152398 0.014869957 -0.069804497 0.068280265 -0.017893454 0.18273404 -0.00022536887 0.10393924 0.10358562 0.012455201 0.14702703 0.09698125 -0.047845136 0.091169395 -0.075838365 0.045791067 -0.045687724 -0.071847796 0.011054674 -0.19611441 0.010086133 0.1930418 0.14800122 -0.10891697 0.15258683 0.2519328 0.11151672 0.15819329 0.019383423 -0.041737035 0.040364895 0.1408727 -0.040472567 -0.068353936 -0.14618629 -0.076707825 -0.064271405 0.04498028 -0.22237006 -0.16779561 0.11250316 -0.13103877 0.29501331 0.032261163 0.20927902 -0.04769548 -0.076814055 0.10093751 0.055083189 0.065845884 -0.10713609 0.078711279 0.085256167 -0.075772159 0.017071158 -0.057249945 -0.035586901 -0.024005767 -0.055816002 0.12095076 0.072149053 0.038188472 0.011286099 0.0045053982 0.08989083 -0.033168521 0.028793475 0.036594544 0.022261888 0.037463438 -0.029071553 -0.049529254 0.029702529 0.048383538 -0.026504451 0.064910084 0.021901663 0.071429662 0.030018726 -0.071350202 0.05081594 -0.040781338 0.12189735 -0.086156651 0.10086992 0.038178466 -0.071641207 0.040874004 -0.048814524 0.055436473 -0.0042054253 0.088593796 -0.064562015 -0.064151324 -0.01314356 -0.084797181 0.072800405 0.076548718 0.04185592 0.084704928 -0.091896854 -0.021731643 0.043989826 0.054248929 -0.018421752 0.068370961 -0.032453381 -0.052707624 0.11508182 -0.037899144 0.079011761 0.0265157 -0.092564426 0.030979903 0.067389227 0.010893328 0.031702805 -0.0076619606 0.079439834 0.12028697 0.05169164 0.082411915 0.059419084 -0.036631659 0.080723517 0.13633044 0.13297728 0.13699797 0.067842707 0.12172002 0.027307965 0.011253896 0.071265213 -0.042843472 -0.02908197 0.034335971 0.017259149 0.018037664 -0.031179486 0.079735838 0.044552226 0.088393614 0.028559975 0.11660302 0.03893872 -0.011284323 0.093220003 0.01056839 -0.10674904 0.066534631 -0.056610052 0.14933634 0.0044797659 0.10180382 0.11391475 0.057620771 -0.03419942 -0.12229896 0.077652715 -0.037672557 0.04570194 6.300948e-05 -0.13617097 -0.052668467 -0.10764478 0.014579806 -0.12826197 -0.14049646 0.059808157 -0.047523633 0.072110847 -0.070958592 -0.12699305 0.072804131 -0.015549918 0.073244467 0.070309497 0.055123091 0.16176049 -0.20791906 -0.031795733 -0.035084452 0.087677754 -0.091459744 -0.060065676 -0.11330934 -0.057041403 0.034566849 0.067357622 0.051084347 -0.00024514025 0.077434927 0.066702649 0.048423205 -0.028752429 -0.067544654 -0.073026456 -0.044615395 -0.096650265 -0.015740782 -0.058492765 0.0096719116 -0.12766835 -0.10689202 -0.15689345 0.0047303471 0.019261558 -0.094373159 -0.043108493 0.049073078 -0.0033421335 -0.027752031 -0.039949305 -0.068376534 -0.075929262 0.07723283 0.16068071 -0.0157967 0.024247702 0.11918314 -0.13460034 -0.019995498 0.081561342 -0.11876144 -0.061169323 -0.0060333866 -0.05524829 0.010732082 -0.1099801 0.085324466 -0.025860028 0.11530039 0.13179407 0.015915934 0.011964531 0.00041136442 0.15902342 0.11640328 0.053662971 -0.076002367 0.001374801 -0.040617011 0.081032254 -0.15708052 -0.090096585 -0.12453155 0.017641537 -0.16169031 -0.16379939 -0.11671259 -0.052903157 -0.057316482 -0.046111297 -0.03588821 -0.02220225 0.021814611 0.027966714 0.04979128 -0.041213695 -0.10731961 -0.12634517 -0.16156466 0.048958316 -0.00382599 -0.15547138 -0.049062248 -0.098748632 -0.063634135 -0.11182878 -0.072802223 0.012152053 -0.077865653 -0.0057838392 0.041716211 -0.064281046 0.011717083 -0.059771858 -0.031941712 -0.22784401 -0.062272515 -0.13748081 -0.14596875 0.013205718 -0.040534526 -0.22272693 0.014578398 0.28177717 -0.18012595 0.031926289 0.037989441 0.19022629 0.071084902 0.068659484 0.03919144 -0.088608295 -0.21476057 0.092483476 -0.028255835 -0.093694091 0.073657066 0.12880121 0.05442917 -0.13837303 -0.25139311 -0.27932462 -0.089394264 -0.12489644 0.035991874 0.046186425 0.085918203 -0.038744181 -0.04621553 0.0976234 0.036000438 0.03562279 0.069981232 -0.068922587 -0.04186343 0.052337233 0.010503243 0.085234828 -0.042903695 0.13128315 0.1361886 0.007373739 0.11207215 0.10195974 -0.068542331 -0.059318203 0.052515909 0.10495605 -0.0065442915 -0.039301395 -0.056463908 -0.062703088 -0.023853717 -0.047100194 -0.066982031 0.062881447 0.074260466 0.013410507 0.051497553 0.030111348 0.0083879158 0.0071606426 -0.057893369 -0.05420015 -0.011078144 0.048186872 -0.063176244 -0.006197433 0.10914715 0.06181081 0.0293296 -0.012381366 -0.08171314 -0.10019507 -0.045025155 -0.034032706 0.0041412758 -0.080674209 -0.042600315 0.022444196 -0.03614971 -0.03920722 0.081323326 -0.075875781 -0.0068700137 0.091863319 0.098686047 0.0026408464 0.044248339 -0.014262607 -0.0075086919 -0.1418601 -0.061346468 -0.022253815 0.10318632 0.10439579 0.04280239 0.048384216 0.066074759 0.040993847 -0.0013015366 0.081478938 0.10373238 0.079116687 -0.072291516 -0.010188281 -0.073509082 0.059058763 -0.068148553 0.073866434 -0.052181594 0.080080234 -0.0063612862 0.073785566 -0.030063212 -0.077554785 -0.084418677 0.10722686 -0.060589317 0.0006943405 -0.080896117 -0.11963502 0.03722224 0.063690282 -0.059849724 -0.031087834 -0.035064623 0.027531089 0.053676706 0.096970849 -0.090767331 0.058948968 0.096064888 -0.096141234 0.076872878 0.19361292 0.051715244 0.075299308 -0.059644237 0.07031545 0.12962459 -0.11329222 -0.041647922 -0.14970365 -0.18357724 0.097258188 -0.1123026 0.032854538 0.089197695 0.1325935 -0.0034674627 0.11890239 -0.010487029 -0.057554074 -0.038624428 0.040899578 0.12784778 -0.053687558 0.052999068 -0.056705792 -0.066105865 0.049409188 0.038873237 -0.014511576 0.0029259189 0.090944827 0.098828062 0.071075842 -0.020467067 -0.038969215 0.046432573 0.090443306 0.051839553 -0.012605068 0.029008301 0.0090307407 0.012703422 -0.02367799 0.027086815 0.079242386 0.12727213 -0.050885171 0.0235657 -0.019560132 -0.0059130518 -0.011435756 -0.054194145 0.043281335 -0.059395351 -0.12250996 -0.086574599 -0.077616096 0.041683007 0.01863192 0.053968567 0.054562755 -0.07483948 0.041803576 -0.035622854 -0.064544007 0.021924164 -0.031328283 -0.088208757 -0.016113991 0.083071262 0.0096775973 -0.094022773 0.044882577 0.036764901 -0.045644984 -0.077171735 -0.084462635 -0.035696566 -0.1155241 -0.019636977 -0.06626977 0.10484155 -0.05130836 -0.091367684 0.032946654 -0.071088344 -0.040245101 0.06940902 -0.014350448 0.020640699 -0.049500275 -0.0046057729 -0.049366597 -0.084624708 0.097296208 0.12190589 -0.0044672135 0.10730384 0.013514852 -0.037363235 -0.0061265365 0.067470424 0.0063105254 -0.029074628 -0.0043838052 -0.054784652 0.08427424 0.060601484 0.043898065 0.13869871 -0.075020544 0.026700985 -0.025374742 0.14600565 -0.068800941 0.053156391 -0.071562797 0.12710458 -0.019999405 -0.20851459 -0.090060718 0.057239123 0.020034401 0.037975248 -0.045742542 -0.12592687 0.073967434 0.023988968 0.033873711 0.10326168 0.098085158 -0.013256152 0.20498389 0.2250066 -0.24343546 -0.0049504461 0.010229493 0.13909347 -0.034449775 -0.13193622 0.0050500855 -0.10375399 -0.00068026735 -0.083596781 -0.043613348 -0.012341088 -0.069222361 0.034519829 -0.054858845 -0.068037637 0.05589129 0.02010004 0.10578388 -0.025376203 0.052042536 0.059263349 -0.058122143 0.032144748 0.0038775671 -0.04192939 -0.015627151 -0.039510857 0.056897089 0.063509583 -0.057922915 -0.049365059 -0.0018252011 0.045237187 0.0092471214 0.0072519765 -0.013945508 0.029192848 -0.064710967 0.052165795 -0.16639389 -0.026272271 -0.090996742 -0.057487343 0.11371762 -0.070019245 0.046976384 0.042033251 0.14328524 0.12742902 -0.024096329 -0.046368353 0.070500426 0.084637135 0.06371738 0.038111694 0.012047846 -0.0026109386 0.019352818 0.10669496 0.00032962905 0.036522783 0.062580191 -0.011493363 -0.046032175 0.011683304 -0.012084618 -0.053897385 0.090583764 0.010477195 -0.014541726 0.12710562 0.034082886 0.029762255 0.045656361 -0.00042007107 -0.0050703841 0.079491146 -0.098348886 0.033044141 0.11099638 -0.010331846 -0.062831305 0.091061324 -0.08421541 0.037767623 0.081304178 0.0038684367 -0.036026508 -0.045255147 0.068824232 0.065827169 0.093365021 0.013448548 -0.090709381 0.013105324 0.034047816 0.016177187 0.011883265 0.074992299 -0.10634016 -0.065371163 -0.058340121 -0.077737197 0.086483508 0.080064163 0.041297983 -0.088525191 -0.012986587 -0.048504535 0.044212461 -0.19124952 0.013574015 0.1659428 0.092479356 0.01236621 0.049941011 0.11919881 -0.098418616 0.021209618 0.063288204 -0.052918453 -0.12136943 0.066636994 -0.097119689 -0.10530338 -0.13940509 -0.24739729 0.19945055 0.028810548 -0.023247514 -0.017308302 0.20907718 0.010645236 -0.03263751 -0.010603788 0.20136392 0.019896509 -0.1876639 -0.15663712 -0.11364843 -0.040629297 0.086642951 0.0057842461 -0.062833175 0.007647715 -0.01678852 0.099304184 -0.013243439 0.059127718 0.11424974 0.053606644 0.06835071 -0.046978127 0.088698447 0.043527782 -0.11163581 -0.10430319 -0.027392544 -0.048126496 0.037149914 -0.047383457 -0.078476481 0.10765573 -3.0476356e-05 -0.012841163 -0.052256498 0.0095036821 0.09734077 -0.05177924 -0.099578992 0.14389481 -0.013966559 -0.16699187 -0.095203146 0.061477013 -0.12924911 0.057067838 -0.11472197 -0.10953152 -0.042917579 0.088435307 -0.11219287 -0.10793031 -0.081196241 -0.085004628 -0.047915846 -0.059467856 -0.050696544 0.14153662 0.030347841 -0.026991986 0.15391938 0.052045293 0.027918924 -0.12867808 0.10227316 -0.12174992 -0.091933168 -0.12918532 -0.13187078 -0.019654404 0.00059157494 0.02065195 0.046593953 -0.098812707 -0.025272867 -0.01456845 -0.039893225 0.058168277 -0.13365424 0.055741411 0.069135867 -0.045133851 -0.0082478924 -0.086032204 -0.020895878 0.0061509814 -0.10570147 -0.008145337 -0.1182348 -0.068601534 -0.063655891 -0.054514728 -0.1220805 -0.040575307 -0.12590003 -0.12469353 -0.0044985856 -0.011447102 0.0200448 0.06697543 0.060405724 0.054267008 -0.11260343 0.13803291 -0.14258061 -0.12914926 -0.0085187256 0.12437163 -0.019738231 0.032288626 0.0096775834 -0.13578795 -0.050287411 -0.047535423 0.18025778 -0.24851567 0.0085199419 0.095555849 0.0048286775 -0.061648931 -0.09716583 0.081399404 -0.047984246 -0.016417082 -0.056252997 0.039842408 -0.18279414 0.1897689 -0.26031005 -0.17981194 0.086887069 -0.044464793 -0.078410313 -0.090295777 -0.22403204 0.16232012 0.083830237 -0.051568266 -0.038442515 0.01910845 0.035434715 0.020281078 0.089836895 -0.039083395 0.067184322 -0.027442852 -0.051209912 0.10321815 0.025248708 0.041422624 0.063589416 0.0035255505 0.011422372 0.014220138 0.049164474 0.092654184 0.10956039 0.079484828 0.11005214 0.039151143 0.045370426 0.034325916 -0.011430796 0.026004009 0.08417251 0.1141456 0.073058963 -0.01657694 -0.084047139 0.019012775 -0.062876061 0.079739228 -0.015456134 -0.007804703 0.058149278 0.03601769 0.10349343 -0.09877196 -0.018322702 -0.13129769 0.073937334 -0.051234849 -0.018861558 -0.087532885 0.084424719 -0.11337921 0.027793473 -0.070606522 -0.092207335 0.071565188 0.047515698 0.087383084 0.13444404 0.021464448 0.12409956 0.030145654 0.040089637 -0.070630588 0.036617387 0.092226647 0.10175964 0.13730888 0.081930116 0.13075441 0.087446816 -0.00038462444 0.14858551 0.14400227 0.12913011 0.092982143 0.10697132 -0.013641496 0.12300342 0.0751184 0.080971085 0.018994866 -0.010230942 0.076017223 0.017759776 0.05465414 0.071492396 0.031980127 0.05262319 0.062838592 0.044321444 0.0031284739 -0.026417658 0.13059936 0.010069335 0.065522991 -0.030174309 -0.065024808 0.084023409 0.13210745 0.07164821 0.074107207 -0.11954712 0.029223068 0.077778153 -0.039792433 -0.071243837 -0.027837263 -0.10529098 -0.06322825 0.094452746 0.001864473 -0.094697334 -0.10353725 -0.048341714 0.17575207 -0.012779603 -0.15353861 -0.070550799 0.080390118 0.068892956 0.031657927 -0.15425871 0.22344518 -0.20101158 -0.094555743 -0.0050362907 0.0063419743 0.0033410173 0.0061120149 -0.0061524711 0.042006813 0.0015720887 -0.10524917 0.08669389 -0.048169848 -0.051853221 -0.10395301 -0.082553066 -0.015769424 0.027985904 0.056078698 -0.011057037 -0.060064737 -0.090399489 0.033796035 0.016370563 -0.1021934 0.022217887 -0.027159361 -0.00037495169 0.032804847 0.037085541 0.10192747 -0.030707715 -0.097389363 -0.011878827 0.034921661 0.015500353 -0.082099907 -0.044434924 0.075355798 0.097070158 -0.0516182 0.0027553944 -0.028242053 0.019559739 0.072600089 0.046212353 0.074774809 0.11321697 -0.051730823 0.070106789 -0.0060316431 -0.039820466 0.018428883 0.0040271725 -0.037669409 -0.069466077 -0.085259236 -0.039880589 -0.092630446 0.0042246403 -0.10854463 -0.034770865 -0.040203616 -0.097231649 -0.0021052903 -0.08565814 0.062285785 -0.001226002 0.06912639 0.061477333 -0.042827025 -0.09946391 -0.054242287 0.073253974 -0.030997658 -0.059442315 -0.12285563 -0.081080638 -0.060197566 -0.089922644 0.038721688 -0.045922004 0.028783878 -0.063277639 -0.046382651 0.0082215993 0.060946345 -0.0088806711 -0.095187992 -0.13229495 -0.13620469 -0.054750811 -0.083711125 -0.031459067 -0.0517237 -0.10246713 -0.036811825 0.0092511876 -0.12290438 0.054039959 -0.040054668 0.039260376 0.12525102 0.079404525 0.11056395 0.046456028 0.0047105933 -0.1886178 0.041719005 0.092393897 0.075748481 -0.11656746 0.057489078 -0.16218157 0.10878947 -0.066535346 0.087610617 -0.059404172 0.0024261763 -0.063651666 0.12525505 0.011538296 0.043640792 -0.02204209 0.060053866 0.072775662 0.045046188 0.078873396 0.086722374 0.15789732 -0.057999425 -0.02290717 0.094398245 0.053952474 0.086003028 0.062316883 -0.054410506 -0.023448011 -0.062787205 0.14417464 -0.013211327 0.0069545172 0.079177715 -0.0025497186 0.11822849 0.12603384 -0.040356122 0.11648527 0.023814071 0.01779444 0.012049844 -0.018587679 0.038553525 -0.028346406 0.062441505 0.082118876 -0.050922904 -0.0016103236 -0.012467516 -0.060417041 0.057830278 -0.0028123155 -0.021658298 0.06371671 -0.06621439 -0.043037876 0.039613456 0.0082431352 0.096012153 -0.023613287 -0.17438535 -0.058851838 -0.11523956 0.0096010854 0.050796971 0.070680417 0.024093527 -0.08966659 0.055725228 0.079071961 0.10577033 0.035158817 0.099660911 0.027513722 0.011546751 0.050677802 -0.019906545 -0.087423198 -0.032120556 -0.082419194 0.090502925 -0.0045412974 0.082840391 0.05473097 0.091114327 -0.068802029 0.054159127 -0.027437171 -0.011205848 0.14894046 0.002012121 0.088149346 0.073810369 0.067471571 0.059369382 0.031501003 -0.029625788 0.086813606 0.047987729 -0.011648078 -0.017936526 0.031976912 0.058703259 0.14337651 -0.035219911 -0.0096729724 -0.040382758 -0.055456776 0.092099249 0.03253527 0.025575845 -0.010259214 -0.029953754 0.011845651 0.12366252 0.10384282 0.13789156 -0.084408164 0.037149172 -0.061641276 0.079537973 -0.056321833 0.019524196 0.01735574 0.039258845 -0.076173998 -0.13687663 0.070291154 0.10456262 -0.05230806 0.028300734 -0.06166831 0.13800021 -0.076005444 -0.077651493 -0.013925999 -0.024468798 0.0536438 0.092453316 -0.01728848 0.060813103 -0.12077136 0.030711625 -0.0056442823 0.062442593 0.09029115 0.17765465 -0.097425155 0.023247756 -0.143088 0.016245391 0.11494639 0.0455047 -0.10039759 0.050041243 -0.018029397 -0.062755659 -0.080480628 0.0020919107 -0.011902086 -0.026823474 -0.027969573 0.090093389 -0.0044618081 -0.11061335 -0.074216045 -0.043384459 -0.10098157 -0.11371428 -0.073349044 -0.084846012 0.050090596 -0.078869209 -0.092716508 0.1269941 0.019642817 0.18178418 -0.041735649 -0.037969187 -0.020744152 -0.08562804 -0.022753114 0.030163843 -0.084300354 0.025387855 0.021326909 -0.087024063 0.0029821782 -0.029478477 -0.075472668 -0.046425283 0.093649104 -0.079912171 -0.010300804 -0.1169357 -0.10092422 -0.12340028 -0.029459223 -0.028036034 0.097353764 -0.084869035 0.10021577 0.067242481 -0.11042129 0.094071545 -0.01553616 -0.029731294 0.05769955 -0.11484647 -0.15758295 -0.057666946 0.011746 0.058529511 -0.17777249 0.04005082 -0.03958774 -0.08528962 -0.0029600675 -0.06714429 -0.01446329 0.047428042 0.067974053 -0.16551708 0.068378568 0.052283391 -0.054796662 0.038099013 -0.067328155 -0.068237461 -0.11218115 0.038617592 0.022176929 -0.038452331 0.10098208 -0.075872056 -0.15651152 0.027475903 -0.088412762 0.06780386 -0.017958501 0.031835839 -0.031431459 0.032674793 0.048025385 0.0093801664 -0.10204436 -0.11777323 -0.07923048 0.17738985 0.12178876 0.0037868738 -0.059167393 -0.10933493 0.010766978 0.093051128 0.02574127 -0.11843926 0.0029496052 0.1848588 0.033216678 0.091824681 -0.062218916 -0.0089284647 -0.14322828 -0.06295082 0.11490238 0.040165011 0.1642992 0.12615658 -0.13888897 0.20537998 0.092978559 0.14773722 -0.29564008 0.20633155 -0.040317893 -0.11969947 -0.10474391 -0.036193449 0.15987174 -0.021884305 -0.039237898 -0.0054742103 0.052820504 -0.064755671 -0.15704058 -0.0026100797 0.015582287 0.038906481 -0.010289959 -0.075772122 -0.12278972 -0.10118333 -0.0018414095 -0.037726715 -0.066642657 -0.12854196 -0.061055686 -0.13238707 -0.061090115 -0.11777814 -0.072941907 -0.022975301 -0.046059493 -0.0037571823 -0.092749067 -0.1029697 -0.034201466 -0.079034418 0.0064888094 -0.0061757588 -0.12001638 -0.015920414 -0.038323157 0.064058311 -0.011879327 -0.0062479801 -0.019778838 0.057244197 0.066695958 -0.0017454807 -0.068101913 0.025985226 0.12234952 0.061024476 -0.093160383 -0.076039292 0.12995359 -0.10444374 0.074609384 0.079515383 0.039577547 0.054435614 0.11115543 -0.05039838 -0.0025894912 -0.034977 -0.085808411 0.12371206 -0.11387798 -0.10854499 -0.096112855 -0.027735187 -0.015267631 -0.12976761 -0.027324103 -0.13836747 -0.089569181 -0.042031389 -0.19526531 -0.18164212 -0.11196158 -0.017030906 0.0061002332 -0.023326028 -0.079038978 -0.076244444 0.028788416 -0.14796318 -0.1079428 -0.12473953 -0.013806344 -0.057341248 -0.013106227 -0.099707857 -0.098081946 -0.14156234 0.006963511 0.041922625 -0.15295072 -0.0016868677 -0.062605612 -0.14392453 -0.10887278 -0.085994683 -0.13888724 -0.12313043 -0.099289119 -0.024581781 -0.084182493 0.0089015281 0.072275445 0.020494813 -0.15922531 -0.1037471 0.027495045 -0.083211623 0.1399771 -0.12580252 -0.10307162 0.13620694 -0.017065354 0.00015361788 -0.043785874 -0.15948299 -0.07797388 0.028020352 0.029369187 0.090537041 -0.10323008 -0.097364806 -0.050329283 -0.025735926 -0.081515707 -0.11684868 0.062192891 -0.104967 0.047289498 -0.017948998 0.082421437 0.062869452 0.0016184741 0.012887614 0.059277996 -0.018510714 0.020327836 0.083226509 -0.038379125 -0.06720107 -0.023448337 -0.034524217 0.027653027 0.046409652 0.084844306 -0.11599621 0.028968969 0.13126385 0.069770187 0.10125489 -0.037020478 -0.034241676 -0.045686483 -0.025319822 0.0051328195 -0.06772127 0.014915355 0.10535618 0.11832973 0.045219887 0.13010755 0.028032111 0.10382876 -0.02874532 0.02261601 0.063669451 -0.18574987 -0.038751584 -0.00022874196 0.060182519 -0.013343222 -0.075781211 0.036998022 -0.01330702 0.12470508 0.094062917 -0.0092176478 0.015971797 -0.00097851409 -0.1177126 0.11073761 0.067240693 -0.019237332 -0.10527709 0.0087332437 -0.055490814 0.096082643 -0.068341687 0.047434222 -0.094073959 -0.063237026 -0.045383397 -0.11951544 -0.041582149 0.077671461 -0.091078989 0.13901833 0.061572712 -0.055552792 -0.090199545 -0.066041552 -0.0067119924 -0.010083304 -0.066977859 0.0066711451 0.077885762 0.060598608 0.018965505 -0.014006487 0.048531584 -0.034257703 0.090534098 0.11217429 0.13454761 0.13882212 -0.043106474 -0.073026545 0.06822475 0.047512252 0.060876276 0.021910291 0.080725588 -0.073171526 0.011998825 -0.053015716 0.10652257 -0.028683409 0.072580472 -0.13483194 0.20339637 -0.15611736 -0.20259021 -0.087546721 -0.27237788 0.03984616 0.00017754723 0.16875984 -0.079452671 0.026975349 -0.078326099 0.1494 -0.18018848 0.019297296 0.04831934 0.22757751 0.18638377 -0.22190334 -0.09411639 -0.011800906 0.1699149 -0.20996459 -0.01542745 -0.21973139 0.064875685 -0.21516883 -0.087315716 0.093537666 -0.14162715 0.017073048 -0.067728475 0.038255304 -0.059537794 -0.13805531 -0.1578241 -0.039396159 0.12822074 -0.070095368 -0.053205252 0.06554617 0.03283162 -0.026169891 -0.098388761 0.0025134075 0.023406053 0.063037992 0.016458679 0.020544393 -0.024954231 0.00016230259 0.039668251 -0.098459855 -0.046995662 -0.060556855 -0.065016821 -0.016593488 -0.025144726 0.058143452 0.076108441 -0.12037139 -0.014058364 0.12073832 -0.037855316 0.026707327 -0.041759718 0.016860347 0.039885115 -0.043715503 -0.059125815 -0.03687942 -0.018615751 0.029330874 0.027426144 -0.087137997 0.070363574 0.13329309 0.090637952 -0.10697298 0.12657009 -0.0080458112 0.091312207 0.046569016 0.08292786 0.061844394 0.060964487 0.034826104 0.10811221 0.077926435 -0.053475019 -0.065923862 -0.038815863 0.080099069 -0.1195087 0.0058914917 -0.080614306 -0.030911498 0.024962327 -0.030032385 -0.14798141 0.053695653 0.031946238 0.084728159 -0.071274027 -0.079395056 -0.091913164 -0.01294792 0.030654084 0.0016162671 0.076597951 -0.041680604 -0.0064469827 -0.089407563 -0.085353807 -0.01291782 -0.12750681 -0.13413228 0.034358714 -0.095522575 -0.034909524 -0.070495866 -0.12254822 0.026444145 -0.017851507 0.054964107 -0.0038554806 0.034590203 -0.080957562 -0.099521779 0.082327873 -0.061805632 0.070645534 0.079151355 -0.15040797 -0.027526915 0.052528366 0.13193397 0.05495004 -0.062213693 0.041161846 0.10281646 -0.085379243 -0.002142132 -0.070449248 -0.023880543 0.046646021 0.091653392 0.069659062 -0.2226668 -0.11361961 0.01292873 0.067826875 -0.01044729 0.069815993 0.087730654 0.010128621 0.14387961 -0.020201758 -0.027793217 -0.082393371 0.10587993 0.021262405 0.076025732 -0.044560704 -0.0059249029 -0.0046797427 0.047661897 0.016190063 0.031557836 -0.061190188 -0.02745232 -0.069621213 0.038203571 -0.054037474 -0.075351767 0.013859075 -0.024170397 -0.074318357 -0.048748169 -0.095734321 0.07473848 0.0055119283 -0.048837751 -0.055020679 -0.050863847 0.070961602 0.059923597 0.024941577 0.0016468677 0.038741603 -0.16451098 -0.1147421 -0.060581382 0.017243208 -0.034044918 -0.090617679 0.041829553 -0.088116817 0.045984108 0.091550991 -0.067702547 -0.040055972 -0.081494853 0.057854019 0.022573806 -0.045910183 -0.073634632 -0.038294084 0.02206062 -0.055431936 0.0091627957 -0.047541112 -0.051725447 0.066990182 0.061089594 0.015027548 -0.050962687 0.013547943 -0.12946317 0.052160714 -0.025734801 0.038685277 -0.049583565 -0.02206791 0.0019557506 -0.036059022 -0.018694192 0.022236148 -0.0048797666 0.08588212 0.026402405 -0.045545548 -0.055017427 0.00195232 -0.083443254 -0.041345898 0.0653648 -0.056785192 -0.044583984 0.056013357 -0.033067856 0.10649026 -0.00038021652 0.080571845 0.027048517 0.072636679 -0.010725075 -0.017559012 -0.0070856167 -0.04740734 0.052058429 0.024684597 0.042606317 0.18170458 0.071144633 -0.0030463447 -0.10535027 0.24367723 0.1734354 0.099840432 0.092138566 0.10242622 0.038828116 0.2087602 -0.031591248 0.095675491 0.0031673154 0.015560406 -0.15100969 0.150435 0.086191095 0.027045293 0.18656391 0.11334782 -0.063414954 0.00089970155 0.10382871 -0.058830556 -0.12374761 -0.1448082 0.19136253 -0.11340465 0.013071079 0.10108758 -0.16551089 -0.11176675 -0.030782459 0.075676419 0.056981504 -0.034510814 -0.11236814 -0.088355906 -0.017958682 0.014357004 0.069111913 -0.012786441 0.065734074 0.13729976 -0.046857744 0.055268202 -0.0016372969 0.076520368 -0.036941264 0.075399764 -0.06828627 0.069483913 -0.032633603 0.0031079338 0.014509432 -0.028573429 0.014732188 -0.069760069 -0.08106783 0.087650359 0.060658053 0.03515429 -0.085844278 0.0036944805 0.018814551 0.093331352 -0.024697155 -0.14995383 0.046140365 -0.12357599 -0.063324653 0.063854583 -0.072774023 0.046792164 0.02685537 0.036886089 -0.030640164 0.016516855 -0.12774178 0.013292456 -0.08603444 0.077321298 0.064733498 0.11095206 -0.037786115 0.085483477 0.029063171 0.12012113 -0.049931042 -0.037153628 -0.065637276 -0.0060472689 0.023124248 0.030940343 0.082333773 -0.12332866 -0.013923385 -0.086579859 -0.18828478 0.07334365 -0.018474042 -0.049326997 -0.030685874 0.1219213 -0.032669879 -0.04884541 -0.010206498 0.060534336 0.042455357 -0.056373164 -0.036097098 -0.00022559559 -0.056803696 -0.047828775 -0.047501259 0.074406415 0.075760588 -0.074263178 -0.033269305 0.065245487 -0.081656016 0.082249664 -0.011418423 -0.037305437 0.091593109 -0.038082525 0.073417708 -0.062602781 -0.18965608 -0.076157548 -0.085388206 0.086402051 0.060097836 -0.097538777 -0.13121633 0.18365711 0.10754922 -0.044276666 -0.043499645 0.048908807 0.092802674 0.039604966 0.20412301 -0.019944787 0.052160759 -0.28256306 0.062276483 0.20735636 -0.041859198 -0.15518941 -0.19087674 -0.24438299 0.15594006 -0.10217861 -0.090577528 0.088531412 0.041568875 -0.1197779 0.089132853 0.076910906 -0.028186062 -0.073498726 0.054359064 0.075462215 -0.047548894 -0.011613087 0.058049396 0.13823529 0.076871589 0.055100709 0.056221027 0.015643742 -0.079421535 -0.024491725 -0.0013504544 0.080467865 0.021694848 0.036368467 0.068888679 -0.028055055 0.0037510397 0.022143368 -0.041429088 0.10933187 -0.037276421 0.077729546 -0.0095137935 0.11422858 0.099010512 0.11740514 0.030184833 0.022913383 -0.10071238 -0.10540231 -0.15430366 0.11017672 -0.04475591 0.076521315 -0.026111506 -0.037055571 -0.01932314 -0.011056702 -0.031840939 -0.12806487 0.025779126 -0.10128504 0.054895803 -0.077411957 0.043229003 -0.033140745 -0.049642239 -0.006813406 0.012111359 -0.038846865 -0.05056943 -0.048940983 0.14561234 0.015021617 -0.0098964861 0.027189376 -0.048039075 0.051223066 -0.0013502851 0.06601534 0.027150339 -0.10432959 0.13362354 0.1181858 -0.048084412 0.076308608 -0.073134176 -0.015750447 0.099806905 0.081684448 0.082638159 0.080550946 0.0073330617 0.087229259 0.10887884 -0.091899969 -0.068501845 -0.070057124 -0.065832943 0.078694128 0.091153741 0.042771254 0.098614402 0.0034150132 0.068093829 -0.081999078 0.074202016 0.10840243 0.082370646 0.016553313 0.073736228 -0.041846212 -0.0074655511 -0.12589355 -0.080920719 0.26018977 0.23825799 0.076902688 0.09163703 -0.18370157 -0.068070017 -0.14279093 0.15194999 -0.036127098 0.092556983 -0.037279189 0.053489693 -0.12554456 -0.011886954 0.098367207 0.03737634 0.098278463 -0.071511775 -0.0044116997 -0.079642281 0.1054293 -0.27316356 -0.064939834 -0.065495521 -0.0074188709 0.027047817 -0.082509242 -0.098017305 -0.021762403 0.0096609183 -0.064808078 0.019552443 0.031084049 -0.049407382 -0.017980335 -0.12436776 0.020914536 -0.03764293 -0.01355119 -0.068531722 -0.12169095 -0.0024294625 -0.023927718 0.01250419 -0.01583101 0.036559906 -0.066337653 0.03928829 -0.096661933 0.074052036 0.099607036 0.041429359 -0.081599481 0.10157244 -0.097748563 0.0066167177 -0.059436202 -0.11933074 0.021575904 -0.057270925 0.029582312 0.14908379 -0.023078844 0.067471877 0.11635437 0.1229093 -0.10568588 0.00044649057 0.048633806 -0.02703247 -0.0080969511 0.021505274 -0.024723943 0.044516902 0.12052465 -0.095560178 -0.053973269 -0.0031633633 -0.10024798 0.0053149266 -0.076248251 0.023070417 0.058411185 0.10150761 -0.087313794 -0.032781262 0.16153401 0.099581338 -0.036200952 0.020206966 0.085606627 0.13256371 -0.083725922 -0.00086732634 0.04727748 -0.032539129 -0.047112249 -0.029262135 -0.05789578 0.10714762 -0.029023951 -0.011948133 0.077744693 0.001615815 -0.088286631 -0.061436374 0.081353143 0.052287303 0.0053303363 -0.060871571 0.098842114 0.042209852 -0.1164974 -0.046475448 0.0047357376 0.041912638 0.01272157 -0.10390294 -0.037564665 -0.11499734 0.029547065 0.012311549 -0.081556819 0.032359596 -0.16506672 0.051683761 0.096333303 0.12899165 -0.19288148 -0.11391722 0.073384158 -0.055970002 0.17020816 0.089927614 -0.12104707 0.002195145 0.036001198 -0.075489186 -0.071359791 0.14755763 -0.10026025 0.06629508 -0.23945479 -0.17191017 -0.12873863 0.19828707 -0.057090249 0.073100477 -0.0056391456 0.25652772 0.11756023 -0.17765832 0.074096285 -0.0020594504 -0.070844032 0.059152827 0.066726051 -0.0020216494 -0.072661527 0.041078448 0.08177197 0.023793971 -0.042567141 0.024409752 0.020150127 0.064979278 0.065798111 0.077266134 0.09580791 -0.04043914 -0.047177311 -0.061669737 0.081625201 0.045672886 -0.02881836 0.083677739 0.027893856 -0.027530016 0.10293771 -0.047700789 0.023612194 0.12578732 0.10165581 -0.001173134 0.08416079 -0.077469334 -0.0013793056 0.10736276 0.076473206 -0.0017314178 0.091440775 0.016885696 0.062958233 0.093445487 -0.094010547 -0.073196605 0.036194567 0.057102196 0.0045057051 -0.12005261 -0.011642803 0.023509324 -0.084014125 -0.13905102 -0.024700288 -0.017139275 0.0044509466 0.047506478 0.0028397853 -0.036094222 0.058334909 0.016990807 -0.0040469663 0.053029854 0.045807369 0.067255929 -0.050396238 0.14917569 0.069826111 0.0016944871 0.07453689 0.011724271 0.07419499 0.038340084 0.10429403 0.056093976 -0.012259993 0.044165805 0.034091301 0.072510786 -0.074788369 0.032940906 -0.037635993 -0.0045198598 0.051348064 -0.050939199 0.066326559 -0.012589639 -0.033978004 0.053714428 0.00053692306 0.070062451 0.076478593 -0.072417736 -0.021021595 0.015216794 0.0078857727 0.021176282 -0.063089021 0.12344816 -0.030393833 0.044783782 -0.023141639 -0.16830941 -0.020256953 0.025050553 -0.22615576 -0.078063898 0.11092125 -0.060840007 0.14180967 -0.075543173 -0.15636775 0.022785569 0.035183076 -0.024570838 -0.013025945 0.22579567 0.027247345 -0.021764612 -0.096875921 -0.085078672 0.040212076 -0.04688796 -0.01385398 -0.26628795 -0.09358348 0.039650071 0.037446175 0.069312364 0.078703664 0.049383912 0.094769217 0.1181545 -0.020375261 0.10031139 -0.0052450723 0.063426919 -0.056710962 -0.059514035 -0.083815299 -0.038130015 -0.0063594216 0.052395348 -0.063924573 0.079115026 -0.07008028 -0.021606911 0.10305548 0.095739834 -0.013429623 -0.0031565125 -0.021232411 -0.071752504 0.066976011 -0.10855236 -0.094954744 -0.020111417 0.058788605 0.031272903 0.027416931 0.056794871 -0.07096687 0.17132895 -0.020745482 -0.093638472 0.078437008 -0.079277419 0.019987166 0.019903444 -0.1486233 -0.02570683 -0.10289356 -0.070628963 -0.026025621 0.030827876 -0.096153848 -0.16186315 -0.00044828039 0.029661866 0.01090224 -0.10766688 0.0043198918 0.060529277 0.074211188 -0.065415248 0.024001393 0.13504054 -0.11492853 -0.02954834 -0.11326516 -0.13562204 -0.062317215 -0.071537264 -0.06078041 -0.02874816 -0.0060081254 -0.048789952 -0.001639012 -0.0070750145 -0.01668782 -0.011822913 -0.10036679 0.021828739 0.038554668 0.075478844 -0.069729127 0.066718012 -0.079686478 -0.059590064 -0.053500723 -0.079170652 0.11442474 -0.0071340082 -0.013478586 -0.036805771 -0.029701149 -0.041799068 -0.11634801 -0.053990111 -0.047257978 -0.062076479 0.016633909 -0.01239707 -0.040102951 0.090245835 0.047745943 0.053065062 -0.012046782 0.05013185 0.13976313 0.069372483 -0.089481927 0.02994829 -0.0031129031 -0.19418779 -0.017133059 -0.029210621 -0.11378562 0.046918616 -0.013266183 -0.092970729 -0.059983246 -0.090770595 -0.11441804 0.13320683 -0.11761964 0.013888063 0.057971209 0.17049025 0.21150687 -0.20937949 0.020164307 -0.087687001 0.081522346 -0.23708901 0.082669675 0.14198944 -0.011462956 -0.028104808 0.051133435 -0.0062139062 -0.032156743 0.074387632 0.067452967 -0.076703012 -0.0088602193 0.04474419 0.054912865 0.11423191 0.051473625 0.0087445565 -0.064357094 -0.00098075496 0.0796578 0.052532639 0.042554524 0.076413564 0.098969728 -0.086808942 -0.028598422 0.09237092 0.091389269 0.12264126 0.016036525 0.065633796 0.047815308 0.071969241 0.097767688 0.11910889 -0.055956736 0.074260741 0.021868283 0.12711233 -0.012282218 0.00023814195 -0.050860569 0.07603626 -0.024126014 0.054625634 0.032623593 -0.055039059 0.03641827 0.049872495 0.081675209 -0.078764491 -0.010491021 -0.013391073 -0.067656472 -0.050598986 0.029440617 0.018618666 0.064370804 -0.032164618 -0.053957559 0.0054036854 -0.026211049 0.019270485 0.13160799 0.025176054 -0.0010860879 0.10868133 -0.031169984 -0.080651686 0.00673853 -0.14529306 0.15927425 0.051024169 0.081551097 0.0037331376 0.015805403 0.072025418 0.086528033 0.090071753 -0.010508043 0.11479696 -0.027970042 0.073595516 0.13298151 -0.019293964 0.068652369 0.032283556 0.089857027 0.044474296 -0.036083654 0.10843317 0.075160287 0.065486819 0.013255193 0.13470386 -0.027958004 -0.021269403 0.060184877 0.098458298 0.055139247 0.12016515 -0.067036472 0.043110609 0.078409307 0.1381624 -0.049285457 -0.14213856 0.10163002 -0.14069274 -0.073820479 0.10102323 0.068414465 0.06827195 0.13101195 -0.14134206 0.065673776 0.041758303 -0.073546648 -0.13285685 0.021440024 -0.030792667 0.072658725 0.17016719 -0.0056633418 -0.13645965 0.0041940124 0.055151276 -0.12597437 0.088011578 -0.0080201598 -0.030357875 0.090278305 0.099330917 0.11601789 0.067943305 0.045347489 -0.044601146 -0.050877329 0.12158505 0.068090923 0.044780295 0.069222033 0.033370178 0.12011663 -0.052568726 0.10465169 -0.043856587 0.073127545 0.064090423 0.019367967 0.12887222 0.074563362 -0.040246967 -0.067065924 0.040198512 0.0096150255 0.11524116 0.020036349 -0.06856937 0.069031253 0.041362196 0.064650819 0.05489051 -0.0084100692 -0.029018741 0.027159533 0.0043261545 0.1354129 -0.054689523 0.061370116 0.050612003 0.07571131 0.013592321 -0.064941227 0.016358569 -0.09562999 -0.071729101 0.095973723 -0.10966773 -0.12868248 -0.0019349654 -0.01654274 -0.059951838 -0.11129301 -0.035589378 0.09079925 -0.064656056 0.034719978 0.079520106 0.041085228 0.087789752 0.035807122 -0.029530693 0.065216206 0.021149904 -0.015475838 -0.070834741 -0.030483328 -0.043832041 0.051475495 0.028196778 0.024474431 0.017153913 -0.082962625 -0.029523617 0.10250685 0.030579647 -0.030931769 -0.071687043 -0.036356289 0.05862527 -0.090142734 -0.059184182 0.058053177 0.038042754 0.0202602 0.03076575 0.030578095 0.11996092 -0.065496169 0.091273814 -0.040990107 0.066718183 0.057030272 0.10249428 -0.0039666207 0.085461266 0.036341988 0.079018451 -0.036148619 -0.048295289 0.013876694 -0.20327646 0.042151291 0.024560967 0.064245835 0.13489784 0.15843889 0.0018632071 -0.16265771 -0.019376632 -0.1518513 0.19782293 -0.14068453 0.051612161 -0.027810305 0.13919179 -0.093640372 -0.063367106 0.14899065 -0.14626685 0.057478257 0.083555043 -0.065043271 -0.014195682 0.19051188 -0.031145865 -0.08209943 -0.10382324 0.11389473 -0.011045264 -0.053903569 -0.17624491 -0.034784283 -0.082022592 0.076251842 0.027800057 -0.0089851283 0.056139458 0.091499127 0.0661107 -0.048267961 0.077594861 -0.038260832 0.039553974 -0.13997054 -0.11759435 0.006822438 0.043451339 -0.067792431 0.09068609 -0.092596583 -0.076674677 -0.057271283 0.080131046 0.048881155 0.033625402 0.0050296979 0.096834891 0.045089584 0.040604074 0.017389473 -0.11583414 -0.1011263 0.019194514 0.11932889 0.06545613 0.10913022 0.11997092 -0.045914117 0.16389252 -0.027313035 0.020425813 -0.065319441 -0.077930987 -0.025827939 0.10271288 0.04374212 0.0071158139 -0.047148559 0.0078698378 0.077023193 0.042974032 -0.072180375 0.084179141 0.040752865 -0.074254528 0.061518516 0.13314997 0.086111739 -0.048492469 0.1108367 0.092418119 0.078478821 0.011289533 -0.0050250888 0.12072438 0.06287764 -0.012673669 -0.0175028 0.023178343 0.041273762 -0.003209447 0.047797814 0.016446162 -0.076000392 0.0050618765 0.061444197 0.038489394 -0.10947464 -0.07895948 0.068115331 0.059509151 -0.05640094 -0.070112631 -0.056388188 0.0099323643 0.010273767 -0.029441778 -0.10183715 0.082153618 -0.045920227 0.057055134 -0.059574921 -0.0016586686 0.0038172649 0.014654211 -0.069316328 -0.0081439298 -0.057844065 0.036733918 -0.042151231 -0.041770529 -0.1922742 -0.045072362 0.23593676 -0.086699978 0.086445011 -0.01797769 -0.020032832 -0.12168516 -0.10432948 -0.095231131 0.1033923 -0.11968689 0.070339002 -0.044726729 -0.027816502 -0.1823792 -0.20771244 0.21898684 0.10825419 0.098602988 0.017315684 0.1136369 6.258025e-05 0.07771007 -0.11712628 -0.074817531 -0.018082978 0.026852418 -0.044042427 -0.10972624 0.080535628 -0.10639604 -0.07628002 -0.096527837 -0.11565186 0.019866906 0.089750439 0.042428184 0.031482011 -0.11741368 -0.0074085551 0.011107115 -0.14303151 -0.081540033 -0.038971599 0.040206827 0.019150836 -0.072505385 -0.0092574153 -0.050890673 0.10328443 -0.036075871 -0.067196153 0.039639648 0.046616238 -0.053003322 -0.058872234 -0.050812628 0.034204718 -0.12090947 5.9756538e-05 -0.052097738 0.062095229 0.10514338 0.076710314 -0.0056026634 -0.034408174 -0.026982872 -0.018398194 0.041356169 -0.02457265 0.0036716065 0.029761562 0.0074918102 -0.062479302 0.016104043 -0.056657135 -0.016546963 -0.045249358 0.10244866 -0.045976225 -0.035543479 -0.0018293335 -0.031097626 -0.028000239 0.055086751 0.0071610226 -0.04816604 0.088054098 -0.11729402 0.057230849 0.066639677 -0.096309148 -0.041281197 -0.0061715585 0.099614955 -0.0041437526 -0.018122019 -0.023245161 0.053219296 -0.036777347 0.026032683 -0.037460778 -0.0088139353 0.064866163 0.048119526 -0.010387612 -0.017918091 0.054701056 -0.060858235 -0.08498805 -0.10385475 0.06026778 0.06252145 -0.061843015 0.085449785 -0.056143358 0.039792687 0.037807699 -0.021891555 0.06371998 -0.094745748 0.033168994 -0.093275659 -0.21794119 0.1223405 -0.11341273 0.098775879 0.056168802 0.15230338 0.19244228 0.12169491 -0.04394589 -0.060950194 0.074272588 -0.031417903 -0.055748589 -0.050285649 0.098727517 0.10552047 -0.094626516 0.032215353 -0.060004074 0.03757095 0.04314049 0.21634148 0.10575811 0.056476224 -0.034642398 -0.066391073 0.13657743 -0.13743849 0.11431949 0.021424461 -0.054664794 0.25918823 -0.0071476391 0.054329675 0.057091098 0.077984616 0.0067534652 -0.059617814 0.075392522 -0.090117484 0.061206318 0.053305428 0.0052091917 0.046506613 0.002817485 -0.082491249 0.11883879 0.12036119 -0.01627594 -0.015102013 -0.031429783 -0.041708544 0.05847827 -0.062164344 0.010154279 0.042402767 0.097219318 -0.047474824 -0.063962601 -0.022977365 -0.0078953784 0.057613295 -0.053237434 -0.087097488 0.058662627 -0.078787483 -0.10194878 -0.12685971 0.03873837 -0.082442097 0.033863038 -0.014554314 -0.092470214 -0.043800958 -0.073353089 -0.1040898 0.039006088 -0.041811135 -0.017071797 -0.039358076 -0.049508426 -0.056125674 0.030030318 -0.11188591 0.0034968031 -0.084362425 -0.073284902 -0.098728247 -0.042437714 0.0078055323 -0.043856252 0.031758938 0.070628963 -0.061072554 0.083541311 0.075846054 0.041139845 0.078724243 -0.084126838 0.0074226819 -0.056520455 0.074305661 0.051597007 -0.10312225 -0.021174826 0.0070298598 0.032360658 0.08918678 0.031442888 0.076919116 0.024203463 0.035850149 -0.018841241 -0.013374839 -0.040339138 -0.061691497 0.069620624 -0.016761659 0.01523011 0.0070871837 0.068431176 0.056726884 0.0092339255 0.051007189 0.072058506 0.028995631 0.018071108 0.026475469 0.012507322 0.094822645 -0.078716494 -0.045854695 0.14300922 0.069217443 -0.12115346 -0.0048186332 -0.010172069 -0.046905886 -0.13486041 0.089379519 -0.14257255 0.067579463 0.12142052 0.066262774 0.075562522 -0.0945004 0.12829918 -0.094930902 -0.071256667 -0.00020559368 0.0026432881 -0.09834519 -0.06835489 0.0037902114 -0.076076761 0.085000396 0.0023253164 -0.12643716 -0.059848528 0.006274831 -0.043566506 0.10135999 0.03769251 -0.082802087 0.042204846 0.059233502 -0.028190508 0.046030097 -0.0065380377 -0.037616763 -0.043670461 -0.074600652 0.030664727 -0.063383773 -0.099492118 -0.098085225 0.025519833 0.0049887225 -0.083785385 -0.051128548 -0.071507625 -0.080563702 -0.034457669 -0.088265024 0.10111852 -0.023798831 0.050827246 0.052696332 -0.068550065 0.095816009 -0.032409567 -0.0010926193 -0.010004671 0.074342892 -0.068192169 0.069269992 -0.066822655 0.0050436272 -0.0084447814 -0.018325742 -0.011189591 -0.071162403 -0.027643818 -0.075576954 -0.023514187 0.015975457 -0.013287327 0.10653187 0.012357442 0.032438967 -0.037195578 -0.074347124 0.016395198 -0.070624813 0.066412091 0.12707949 -0.026340906 -0.088301584 0.056911726 0.054962933 0.079417571 0.021000905 -0.079870671 -0.019877471 -0.036544587 0.058161613 -0.075460039 0.043598425 -0.018520849 0.095537715 -0.016561784 0.076256528 -0.093512073 0.053824037 -0.07292556 