<sg> 0.007063 -0.0073606 -0.04007 -0.040637 0.038192 0.053053 0.010696 0.012587 -0.013872 -0.065913 -0.032898 0.045556 0.048692 -0.00095425 -0.063264 -0.044836 -0.080778 0.03543 0.010885 -0.029832 0.085389 0.021622 0.0068859 0.010075 -0.039027 -0.10406 -0.0033184 -0.03395 -0.090002 0.028855 -0.087274 -0.010015 -0.004059 0.037608 -0.12344 -0.015088 -0.023076 0.0577 -0.018575 -0.0077786 -0.015263 -0.030262 -0.051616 -0.012996 -0.06332 0.084183 0.011744 -0.0089436 0.02194 0.1087 0.028993 -0.02608 -0.0086375 0.023199 -0.0061159 -0.076552 0.036912 -0.02271 -0.028521 0.038301 -0.0057792 0.024576 0.016176 0.039202 -0.035539 -0.040528 -0.02024 0.050183 -0.061594 -0.091051 -0.029153 0.056281 -0.086977 0.056026 0.011748 0.027836 0.011428 -0.040874 0.05545 -0.044914 -0.080607 0.047356 0.13791 -0.13488 -0.065487 -0.026419 0.0088639 -0.020591 -0.019514 0.011678 0.034829 -0.053863 0.056832 0.0007464 0.020827 -0.048841 0.081265 -0.010757 0.015414 0.010885 -0.059528 -0.041719 0.013113 -0.047705 0.035367 0.032938 0.026625 -0.061053 -0.035853 0.031879 -0.00079776 0.00041783 -0.052677 0.040801 -0.014804 0.082366 -0.022792 -0.041923 0.03977 0.017258 -0.025773 0.052161 0.014246 0.083502 -0.054867 -0.21817 -0.030159 -0.012014 0.019617 -0.063965 -0.077686 0.04942 -0.034301 -0.052837 0.015352 0.021402 -0.021789 0.060726 -0.12275 -0.0076558 -0.035132 -0.044807 0.04976 0.02044 -0.008158 0.032333 0.022805 0.02907 -0.0057874 0.0086681 0.046718 0.067671 0.061506 0.014646 -0.10228 -0.018332 0.019158 -0.065501 -0.0089023 -0.023261 -0.013699 0.077792 -0.030891 0.055461 -0.012663 0.046397 0.056886 -0.011045 -0.077405 -0.042836 -0.043917 -0.0037391 0.01172 -0.0011451 -0.10782 0.057073 -0.0030815 -0.036185 -0.11928 0.0062397 -0.032402 -0.022852 0.0015692 0.035405 0.11547 0.047604 0.013908 -0.050893 -0.020921 0.047945 -0.094907 0.021738 0.0010023 0.040787 0.019297 0.043881 -0.039295 0.032491 0.045323 -0.074765 0.0042398 -0.022656 -0.052111 -0.053658 -0.030676 0.0031849 0.052165 0.001668 -0.010696 0.0090534 -0.075207 0.10871 -0.034528 0.0935 0.047509 -0.035033 0.021559 -0.026108 0.013996 -0.031186 0.010733 0.0014442 -0.033916 -0.027829 -0.12227 -0.11316 0.042385 -0.083148 -0.063573 -0.042747 -0.0016627 0.054908 0.002477 -0.10087 0.018122 -0.0062323 -0.018897 0.002562 -0.020319 0.010886 -0.10764 -0.13017 -0.15147 -0.0021603 -0.019918 -0.042655 0.10402 0.022018 0.025448 -0.011203 -0.020407 0.0145 0.0077506 -0.023214 -0.14311 0.0026308 -0.031767 0.14096 0.038919 -0.052545 0.052672 0.047986 0.09995 0.091695 0.066352 0.021264 0.069254 0.070454 -0.0094581 0.026274 0.01775 0.090676 0.048717 0.052738 -0.11922 0.0077469 -0.062614 -0.11355 -0.026123 -0.069445 0.024338 0.085019 0.052402 0.087442 0.030687 -0.052591 0.091736 0.13922 -0.024289 -0.071439 -0.083033 0.070971 0.029639 0.027063 -0.01156 0.10775 -0.013418 -0.00051639 0.12156 0.0052191 
<n> 0.023677 0.0056778 0.0022074 -0.025009 0.01495 0.053357 0.015527 0.035153 -0.0049704 -0.053715 -0.0386 0.021068 0.069414 0.03791 -0.10585 -0.045151 -0.079146 0.033294 -0.0013308 -0.046672 0.026079 0.032522 0.025802 0.00061679 -0.061714 -0.14511 0.0066371 -0.040372 -0.046249 -0.0096429 -0.081018 -0.0083553 0.00016742 0.065291 -0.098213 -0.0092667 -0.040863 0.042341 -0.022038 -0.029271 -0.010834 -0.056646 -0.055512 -0.04337 -0.067901 0.1122 -0.0086407 0.026391 -0.017593 0.13801 -0.049418 -0.077798 -0.03743 0.031349 -0.011119 -0.071331 0.034698 -0.04 -0.040753 -0.024745 -0.061374 0.017922 0.021647 0.064937 -0.083052 0.0032445 -0.018842 0.041699 -0.073033 -0.087575 -0.010581 0.10831 -0.10504 0.059516 0.0016884 0.025883 0.012258 -0.026262 0.046019 -0.017729 0.0098345 -0.053671 0.0019363 0.025574 -0.067215 -0.058476 0.01351 -0.024858 0.017488 0.067239 0.071555 -0.038505 0.04751 -0.043439 0.010211 -0.0487 0.041838 0.0078605 0.081819 -0.033368 -0.0086371 -0.014674 -0.0071321 -0.09344 0.023575 0.019586 -0.020474 -0.014201 -0.052638 0.066076 -0.028911 0.071017 -0.005396 0.028099 -0.049469 0.059133 -0.065742 -0.036509 0.032328 0.022166 -0.024876 0.11782 0.012276 0.04432 -0.023204 0.0093229 0.030268 0.02186 0.027889 -0.017986 -0.050524 0.050682 0.0013705 -0.088238 -0.028185 -0.0041083 -0.033328 0.08925 -0.091911 -0.0082769 -0.037787 -0.048068 0.064674 -0.021251 0.0082059 0.042096 0.0071398 0.045639 -0.017944 -0.009081 0.068448 0.084516 0.075378 0.02149 -0.083486 -0.0012933 0.006455 -0.045294 0.011796 -0.06383 0.0068818 -0.058084 0.094291 -0.022184 0.020108 0.087648 -0.0023056 -0.075806 -0.061878 -0.043493 -0.10119 0.030203 0.0049724 0.034662 -0.090328 0.057851 -0.00025509 -0.035293 -0.093527 0.021469 0.012134 0.0021315 -0.020768 0.046863 0.069218 0.068833 -0.013641 -0.058033 -0.026149 0.02276 -0.061557 0.018215 0.000229 0.084107 0.051125 0.047298 -0.065968 0.02363 0.020889 -0.10866 0.071849 -0.046225 0.00054457 -0.097191 -0.020556 -0.0085102 0.059448 0.0075219 -0.040419 -0.046453 -0.055314 0.074098 -0.0036573 0.022871 0.038319 -0.022721 -0.046345 0.02997 0.0049696 6.2883e-05 -0.018297 -0.013922 -0.048138 -0.040668 -0.098769 -0.09805 0.07915 -0.12444 -0.039197 -0.026578 0.0076017 0.079352 -0.01582 -0.062173 0.026553 -0.032871 0.013374 -0.030699 -0.036598 0.013641 -0.10333 -0.17059 -0.11667 0.019612 -0.024233 -0.0048329 0.089377 0.0016799 0.0040077 -0.034663 0.00051245 -0.0044305 -0.0018836 -0.018077 -0.087715 -0.0071097 0.016699 0.10212 0.017726 -0.044866 0.0037667 -0.010563 0.086615 0.084868 0.10181 -0.018645 0.0035374 -0.0039878 0.02229 0.0031336 -0.0074391 0.041878 0.088948 0.04814 -0.061054 0.011485 -0.074986 -0.064518 -0.021097 -0.045888 0.074052 0.084687 0.072429 0.058965 -0.030327 -0.093404 0.12927 0.18337 -0.016911 -0.073736 -0.094837 0.03738 0.00074219 -0.018595 -0.014256 0.020771 0.014836 -0.029846 0.14454 0.052658 
<vblex> -0.034075 -0.062603 -0.030962 -0.043225 0.073473 0.075117 0.012033 0.02945 -0.010372 -0.052946 -0.035164 0.038551 0.0085933 0.069957 -0.01012 -0.018376 -0.037886 0.0063983 0.011721 -0.018515 0.071098 0.034726 -0.041477 0.026503 -0.047269 -0.15814 0.023606 0.020679 -0.11325 0.01687 -0.12063 0.012141 -0.038419 0.092436 -0.074324 -0.016722 -0.018544 -0.014213 -0.0022052 -0.025277 0.010541 0.046205 -0.021003 -0.035407 -0.027563 0.023077 0.051828 0.0089953 -0.041928 0.090047 -0.02328 -0.053861 0.015837 -0.022081 -0.0014013 -0.11294 0.081628 -0.059553 -0.029602 0.0095313 -0.059898 -0.081625 0.073523 0.053932 -0.029269 -0.018342 -0.039072 0.091425 0.014958 -0.11665 -0.059887 0.14626 -0.046532 0.051092 0.063486 0.039273 0.05349 -0.033686 0.076823 -0.059736 -0.10588 0.09214 0.09241 -0.17428 -0.076705 -0.045338 -0.030883 -0.093081 -0.089349 0.030872 0.011869 -0.057065 0.029526 -0.051364 0.048004 -0.039583 0.031641 0.03417 0.041733 0.018391 -0.041358 -0.019363 -0.026124 -0.05455 -0.026594 -0.007369 -0.077417 -0.026555 0.0044754 0.05368 -0.0016184 0.0055183 0.057825 0.14984 -0.062128 -0.099963 -0.050293 -0.034447 0.0064129 0.020768 0.001583 0.088644 0.022176 0.06034 -0.0080248 -0.026012 -0.00462 -0.01932 -0.040919 0.014106 -0.041569 0.10228 0.011515 -0.12398 0.03576 0.036744 -0.059572 0.035858 -0.10603 -0.017942 0.011408 -0.054236 0.026683 -0.047578 0.03837 0.063359 -0.030319 0.013503 0.010155 0.028092 -0.010734 0.042476 -0.026019 0.038999 -0.052712 0.009493 0.029172 -0.030213 -0.084666 -0.031511 -0.024731 0.0091107 -0.059059 0.0010156 9.5849e-05 0.049696 0.057623 -0.046742 -0.025729 -0.069667 -0.13781 0.075128 -0.0074509 0.0047524 -0.13912 0.055171 0.05028 -0.038308 -0.10371 -0.0012006 -0.023924 -0.026114 -0.00084616 0.013955 0.15226 0.059237 0.049582 -0.036692 -0.021508 -0.065456 -0.024433 0.028917 -0.016721 -0.03539 -0.038234 -0.021592 0.0248 0.0071563 0.06588 -0.0064091 -0.0054317 -0.015317 0.003445 -0.096282 -0.0079645 -0.063743 0.051177 -0.06836 -0.013171 -0.0096259 -0.053604 0.065914 0.014385 0.045957 0.025449 -0.038499 -0.052684 0.052866 0.018099 -0.011564 0.05078 -0.0068374 -0.049319 -0.05741 -0.12094 -0.063854 0.085136 -0.060607 -0.01656 -0.027442 -0.033244 0.10626 0.0047834 -0.091002 0.0015915 -0.0026878 0.016041 0.018784 -0.075813 0.011204 -0.091386 -0.12783 -0.14931 -0.053948 -0.023343 0.037754 0.092884 0.0045945 0.01866 0.06193 -0.027025 -0.04241 -0.04704 -0.047572 -0.12762 0.02913 -0.03897 0.095286 0.024803 -0.031712 0.051491 -0.0017088 0.042547 0.076868 0.024566 -0.00012018 -0.03452 0.063422 -0.048899 -0.025614 -0.013629 0.021122 -0.037806 0.022061 -0.0057211 -0.062342 -0.080591 -0.068161 -0.034028 -0.04162 0.024462 0.042849 0.037022 0.036431 -0.0029298 -0.019266 0.085536 0.15895 -0.020792 -0.048851 -0.12445 0.054581 0.040194 0.025971 -0.011994 0.014183 0.025263 -0.045933 0.12053 0.0078009 
<pr> -0.0069395 -0.033993 -0.027909 -0.073517 0.066611 0.086673 0.032226 0.040529 0.015432 -0.040123 -0.030613 0.053117 0.031082 0.034663 -0.031362 -0.060762 -0.083419 0.041509 -0.015154 0.017847 0.08954 0.032653 0.0014114 0.027951 -0.035121 -0.11481 -0.004961 0.0082034 -0.16263 0.015246 -0.18801 0.0018775 -0.021071 0.058475 -0.096136 -0.01271 0.0013384 0.061779 -0.011281 -0.028931 0.0016038 -0.016416 -0.014324 -0.038402 -0.060596 0.070332 0.014938 0.020311 0.013057 0.087729 -0.0050554 -0.065987 0.0083892 0.030143 0.023148 -0.10222 0.029308 -0.068663 -0.029663 0.03589 -0.040311 -0.019742 0.0071631 0.051888 -0.043541 -0.023607 -0.039934 0.08465 -0.037537 -0.10971 -0.050306 0.09739 -0.074108 0.063125 0.024116 -0.0042098 0.0027525 -0.053224 0.044574 -0.047133 -0.026784 0.0051974 0.026917 -0.049055 -0.048552 -0.058617 0.0021945 -0.068565 -0.02414 0.038562 0.029568 -0.048175 0.011005 -0.017338 0.016947 -0.052616 0.042666 -0.0076342 0.043814 0.02928 -0.050074 -0.032051 -0.028308 -0.075837 -0.017439 0.020757 -0.0048327 -0.07792 -0.029246 0.047725 0.0095476 0.029418 -0.014377 0.081975 -0.032019 0.064285 -0.02426 -0.016354 0.022501 0.034168 -0.02283 0.062719 0.010131 0.10921 0.0061234 -0.081673 -0.026612 -0.0038149 -0.0034675 -0.028565 -0.037928 0.081452 0.012277 -0.084956 0.027289 0.015124 -0.044702 0.063135 -0.077143 -0.016518 -0.035013 -0.049151 0.034907 -0.026164 0.0051522 0.048268 0.0098931 -0.010995 -0.0050227 0.0095815 0.026139 0.034419 0.030645 0.047606 -0.078892 -0.00063801 0.019688 -0.055161 -0.040659 -0.022026 0.034688 -0.11629 0.049263 -0.052157 -0.020013 0.063715 0.05819 -0.053696 -0.030206 -0.065274 -0.10372 0.051986 0.010925 0.0041439 -0.08837 0.021488 0.010708 -0.029315 -0.1146 0.016575 -0.031907 -0.023307 0.015018 0.020897 0.15596 0.087041 -0.0022334 -0.058369 -0.034524 -0.0023685 -0.057106 0.025155 -0.017685 0.028644 -0.0070883 0.0017966 -0.0058987 0.035318 0.055977 -0.054316 0.033008 -0.021826 -0.035214 -0.059771 -0.0065255 -0.023832 0.041602 -0.02596 0.01131 0.025886 -0.05527 0.072647 -0.016124 0.045766 0.019122 -0.034882 -0.031994 -0.0080824 0.022633 0.009468 0.044329 -0.038134 -0.023921 -0.054182 -0.10442 -0.10087 0.062646 -0.059021 -0.0084674 -0.019154 -0.016588 0.024367 -0.017201 -0.099205 0.021905 -0.02391 0.0049059 0.013866 -0.01063 0.0036113 -0.079753 -0.13263 -0.1381 0.0030297 -0.023833 -0.0014388 0.094432 0.0058669 0.016262 0.032508 -0.03351 -0.022168 -0.019322 -0.045545 -0.084126 0.0093701 -0.025533 0.097154 0.045726 -0.033658 0.055232 0.010737 0.032361 0.063322 0.023135 0.02174 0.042738 0.038039 -0.03182 0.012932 0.0018031 0.053016 -0.0067974 0.025904 -0.055361 -0.021242 -0.0678 -0.056967 -0.036644 -0.058434 0.031276 0.077924 0.060249 0.048608 -0.020994 -0.040925 0.091389 0.11888 -0.02358 -0.047527 -0.070357 0.050474 0.017619 0.026842 0.011165 0.070707 0.025133 -0.01833 0.13367 0.025871 
<prn> -0.010934 -0.12442 -0.080078 -0.048348 0.081491 0.0048715 0.059587 0.062502 0.030164 -0.090725 -0.01114 0.021645 0.0026835 0.093832 -0.044695 -0.012195 -0.042744 0.038985 0.035216 -0.0304 0.051765 0.043345 -0.029113 0.0070627 -0.070949 -0.064259 0.014117 0.084418 -0.12642 0.043078 -0.1264 0.015587 -0.042232 0.077361 -0.066437 -0.051158 -0.004503 0.079278 -0.015901 -0.022891 -0.013442 -0.040056 0.088738 -0.03621 -0.040285 0.034061 0.019325 -0.02934 -0.021632 0.12729 -0.021966 -0.10659 -0.0087282 0.064571 -0.00043562 -0.099666 0.068371 -0.054508 -0.020354 -0.031513 0.0016519 -0.11604 0.061423 0.061553 -0.004265 0.0078631 -0.042913 0.14134 -0.024332 -0.10241 -0.043664 0.13437 -0.041358 0.043567 -0.040311 -0.059727 0.062643 -0.082017 0.050478 0.046103 -0.067209 0.14784 0.060203 -0.18778 -0.051061 -0.088871 -0.076552 -0.094183 -0.039203 0.027811 0.0052595 -0.063588 0.002824 -0.013727 -0.0052731 -0.015665 -0.014657 0.026045 0.010218 0.026858 0.0089337 -0.016737 -0.094022 -0.019079 -0.047599 0.033655 -0.014881 -0.075122 -0.036775 0.056146 0.027387 -0.032092 0.019835 0.067995 -0.041106 -0.062134 -0.029298 -0.013448 -0.040488 0.05095 -0.023293 0.063116 0.024308 0.028098 -0.12803 -0.15226 -0.015225 -0.14874 0.012604 0.053917 -0.086782 0.11461 -0.032406 -0.095794 -0.0021202 -0.021605 0.00051173 0.045282 -0.069086 0.029232 -0.0078739 -0.056921 0.013347 -0.040436 0.025315 0.0981 -0.11018 -0.076135 0.030843 0.058421 0.005623 0.019382 -0.044103 0.048487 0.0059677 -0.019081 -0.017971 -0.027518 -0.08214 0.0083174 0.050176 -0.10947 0.039738 -0.065434 -0.04629 -0.020111 0.066114 -0.092228 -0.0030734 0.014076 -0.14833 0.057859 0.018735 0.028229 -0.055362 0.018386 0.047152 0.040688 -0.076167 0.1251 -0.03422 -0.049886 -0.0037739 9.6738e-05 0.12122 0.049717 -0.010667 0.0026524 -0.0083422 -0.055621 0.055623 0.03998 0.044668 -0.0055177 -0.023102 -0.06378 -0.027323 0.047057 0.058403 -0.0049639 -0.00030985 -0.01687 -0.022501 -0.067489 0.01235 -0.067015 0.088126 -0.051171 -0.021885 -0.050428 0.028973 0.071092 0.012934 0.030304 0.01334 -0.066003 -0.042855 0.039922 0.027711 0.058061 0.066409 -0.028154 -0.11196 -0.043003 -0.048687 -0.019264 0.10202 -0.079308 0.035287 -0.030836 -0.072479 0.066005 0.067501 -0.14777 -0.024135 -0.045381 0.022598 0.054104 -0.014836 -0.045905 -0.073918 -0.048016 -0.12118 -0.05673 0.01317 0.016772 0.15109 0.034449 -0.010442 0.016829 -0.021945 -0.030413 -0.026502 -0.012551 -0.063305 -0.0014942 -0.011434 0.094879 0.05345 -0.092107 0.027566 -0.061259 -0.014811 0.037868 -0.021565 0.03029 0.060656 0.051532 0.021905 -0.0011892 -0.0079435 0.0073295 -0.084167 0.0013058 -0.065774 -0.026355 -0.06621 0.093636 -0.024814 0.0046817 0.039141 0.0080726 -0.022186 0.067266 -0.026484 -0.025127 0.10618 0.10353 0.01924 -0.056223 -0.10773 0.02813 0.096977 0.034756 -0.014571 0.013079 0.073115 -0.026518 0.11616 0.070936 
<det> -0.0013838 -0.0139 -0.0062787 -0.029673 0.038326 0.10382 0.027353 -0.002868 -0.02661 -0.027518 -0.0036204 0.042968 0.091606 0.06608 -0.090305 -0.054493 -0.084152 0.019616 -0.022145 -0.058245 0.017322 0.034632 0.01228 -0.0064955 -0.027176 -0.11172 0.0078478 0.015882 -0.092454 0.0088217 -0.063151 0.012549 -0.031293 0.078762 -0.090818 -0.05517 -0.044258 0.024333 0.035351 -0.10415 0.00040899 0.0016825 -0.041416 -0.022146 -0.092861 0.085129 -0.0045407 0.068185 -0.045328 0.10959 -0.059904 -0.062322 -0.065854 0.051346 -0.0023566 -0.060421 0.035692 -0.051838 0.047838 0.0091494 0.0082605 0.02868 -0.028986 -0.035581 -0.10658 -0.039696 -0.028983 0.073665 -0.081829 -0.072586 0.0012905 0.11531 -0.11609 0.058943 0.0052325 0.01466 -0.0083236 -0.049092 0.01515 0.0024326 -0.068878 0.038804 0.14037 -0.15346 -0.075553 -0.051894 0.024759 -0.050557 0.011164 0.0010617 0.053493 -0.052156 0.052113 -0.0013213 0.070817 -0.06117 0.077023 -0.0050034 0.068818 -0.012236 -0.04355 -0.01261 -9.8341e-05 -0.10355 -0.0011944 0.041956 -0.021349 -0.015487 -0.029884 0.040159 -0.010761 0.072827 0.017757 0.055817 -0.035622 0.026294 -0.00050104 -0.015272 0.012682 0.076876 -0.043387 0.12611 0.019088 0.062155 0.017127 -0.0086511 -0.016577 0.054811 0.021717 -0.039614 -0.073973 0.068741 -0.025495 -0.041521 -0.027054 -0.030118 -0.019898 0.087397 -0.082185 -0.040388 -0.027605 -0.047204 0.068778 -0.005837 0.016626 0.049158 -0.0036991 0.041062 -0.053047 -0.015286 -0.0086568 0.088923 0.073151 0.017574 -0.099075 -0.002283 0.030867 -0.051192 -0.010642 -0.038684 -0.0094261 -0.011203 0.018095 -0.00086476 0.021832 0.095299 0.069634 -0.041392 -0.039578 -0.048522 -0.026986 0.016924 0.028636 0.062592 -0.15248 0.036859 0.035258 -0.034731 -0.1147 0.037041 -0.025102 0.025344 -0.00052272 0.066119 0.05402 0.04945 0.022467 -0.031706 -0.043929 0.0094884 -0.030126 -0.0089699 -0.065879 -0.020932 -0.0079781 -0.01888 -0.056338 0.056287 0.052037 -0.082063 0.03155 -0.061669 -0.004721 -0.089109 -0.038144 -0.038767 0.065315 0.043097 -0.010161 -0.050228 -0.1372 0.096692 -0.021298 0.052042 0.034832 -0.039062 -0.028656 0.022929 0.023479 0.0015556 -0.023956 -0.062391 -0.054241 -0.0403 -0.15005 -0.083262 0.036031 -0.098556 -0.038066 -0.033822 0.010138 0.063431 0.000302 -0.056461 0.013587 -0.038072 -0.029609 -0.0019274 -0.0182 0.03526 -0.088427 -0.17247 -0.14627 0.025228 -0.043344 -0.01028 0.10249 0.03883 0.014192 -0.058789 0.017603 0.024201 -0.05006 -0.061361 -0.097216 -0.010448 -0.0077895 0.13962 0.021115 -0.078408 0.070313 0.051728 0.13562 0.10994 0.059833 -0.017675 0.089678 -0.021401 -0.024811 -0.041237 -0.0098021 0.08279 0.063775 0.046262 -0.10618 0.008399 -0.075711 -0.099823 -0.00069022 -0.029471 0.033679 0.045881 0.054002 0.072353 -0.013205 -0.076601 0.088388 0.16882 -0.0238 -0.084152 -0.095703 0.02616 -0.033438 -0.015442 -0.0064745 -0.010354 -0.032272 -0.0094654 0.12145 0.028497 
<np> 0.038428 0.074099 0.032569 -0.07859 0.025861 0.13005 -0.0029861 0.0019014 -0.0084479 -0.023397 -0.049625 0.062647 0.08351 -0.037909 -0.060994 -0.12099 -0.11666 0.062938 -0.023074 0.033557 0.095339 0.017452 0.041737 0.0099178 -0.006556 -0.10867 -0.029054 -0.066828 -0.083582 -0.035776 -0.11268 -0.035991 -0.0067708 0.006374 -0.14747 0.031677 0.00066345 0.089631 -0.029951 -0.025917 -0.0050239 -0.052149 -0.10036 -0.031864 -0.084702 0.082821 -0.036018 0.062079 0.04884 0.068102 0.024989 0.0054178 -0.017878 0.045687 0.019598 -0.089683 -0.0053534 -0.041424 -0.027063 0.089198 -0.057228 0.077186 -0.054748 0.047537 -0.091295 -0.068151 -0.0075428 0.02612 -0.081973 -0.090558 -0.053973 -0.0031738 -0.13281 0.064908 0.059961 0.037883 -0.049452 -0.010927 0.033539 -0.087072 0.010795 -0.18109 0.064423 0.05031 -0.072357 -0.020651 0.085186 -0.01847 0.047682 0.045389 0.085402 -0.020883 0.049374 0.014725 0.053168 -0.063405 0.12935 -0.032944 0.035042 -0.012915 -0.10315 -0.043714 0.050904 -0.087375 0.040021 0.041794 0.074048 -0.089498 -0.054225 0.02529 -0.037545 0.045379 -0.08776 0.027566 -0.0302 0.14887 -0.026857 -0.052214 0.086453 -0.0035504 -0.043534 0.083592 -0.021235 0.1546 0.029448 -0.19545 -0.048143 0.087541 0.00019044 -0.11737 -0.028818 0.048954 0.019044 -0.041259 0.048671 0.025644 -0.07083 0.054395 -0.13545 -0.057826 -0.09714 -0.038012 0.064742 0.031416 -0.019063 0.009958 0.10924 0.10871 -0.043275 -0.011314 0.09417 0.087212 0.15463 0.0044045 -0.20964 0.011066 0.067854 -0.12133 0.073551 -0.062832 -0.047153 0.11262 -0.065888 0.065675 0.0020112 0.12058 0.05188 -0.021539 -0.068731 -0.084829 -0.017411 -0.018136 0.055688 -0.0030024 -0.12019 0.056012 -0.036425 -0.056841 -0.16557 -0.028055 -0.028234 -0.019054 0.025015 0.086298 0.12504 0.11297 0.0087228 -0.11552 -0.050482 0.086489 -0.18489 0.037925 -0.06379 0.12377 0.04563 0.12459 -0.030922 0.024907 0.053811 -0.12534 0.077185 -0.024515 -0.054433 -0.035057 -0.075398 0.035717 0.024166 0.02972 0.045845 0.07987 -0.14872 0.13446 -0.061736 0.09448 0.050964 0.0067719 0.040799 -0.073635 -0.010064 -0.014723 -0.0097896 -0.047405 0.00038686 -0.021273 -0.17906 -0.18925 0.020417 -0.066179 -0.077282 -0.036625 0.0072694 0.011705 -0.057679 -0.13409 0.069836 -0.025864 -0.02322 -0.002941 0.0018837 0.070642 -0.11102 -0.2328 -0.16699 0.061386 -0.030409 -0.06302 0.044467 -0.010762 0.044453 -0.010338 -0.0046414 0.044788 0.025787 -0.071168 -0.12699 0.040048 -0.012836 0.15849 0.016494 -0.0090858 0.064402 0.1084 0.14373 0.13685 0.12606 0.01325 0.08976 0.067641 -0.040908 0.032383 0.017654 0.12152 0.16703 0.085878 -0.10773 0.015844 -0.066488 -0.19485 -0.032268 -0.14703 0.037898 0.11543 0.14085 0.080266 -0.024966 -0.041218 0.11214 0.19175 -0.043925 -0.091346 -0.039021 0.074146 -0.018618 0.015046 0.0034322 0.16511 -0.036911 0.040712 0.17294 -0.042039 
<pl> 0.0046487 -0.058841 -0.058598 -0.073885 0.075326 0.04177 0.054821 0.00038666 -0.011473 -0.055011 -0.022051 0.061283 0.037458 0.063937 -0.067773 -0.0048969 -0.10108 0.048742 0.0080005 -0.026405 0.030801 0.041628 -0.0022633 5.4064e-05 -0.045619 -0.064186 0.017371 0.014698 -0.14893 0.0453 -0.14004 -0.0047858 -0.026088 0.092439 -0.13582 -0.062528 -0.015834 0.053488 0.027218 -0.075224 -0.025966 0.001789 0.0067287 -0.0013757 -0.077224 0.098914 0.0082109 0.0017961 0.014512 0.1022 0.0060644 -0.083124 -0.023911 0.041177 -0.0016326 -0.076022 0.038697 -0.08109 0.013381 0.035701 0.0099572 -0.024186 0.04227 0.024641 -0.057139 -0.031005 -0.020613 0.084227 -0.078355 -0.1186 0.0032058 0.095783 -0.062926 0.051113 -0.024532 0.0059953 0.053843 -0.079135 0.038299 0.010455 -0.039995 0.098709 0.10055 -0.11999 -0.062031 -0.048286 0.0045745 -0.011413 -0.020544 -0.032813 0.0068679 -0.066624 0.049609 0.010049 0.023251 -0.047437 0.069959 -0.016585 0.047924 0.021158 -0.028525 -0.017568 -0.031319 -0.04503 0.0073618 0.033779 0.0088935 -0.05638 -0.016366 0.041695 0.0061856 0.012448 -0.024289 0.045111 0.022334 0.063712 -0.0090769 -0.035128 -0.0028963 0.08158 -0.032039 0.050016 0.01817 0.070555 -0.066768 -0.17107 -0.028329 -0.04511 0.015377 -0.062073 -0.085881 0.069124 -0.053911 -0.055009 -0.022738 0.013854 0.001262 0.077452 -0.060385 -0.019322 -0.044028 -0.062169 0.057871 0.00015882 0.022632 0.030333 -0.024624 -0.022976 -0.021111 -0.012115 -0.016646 0.034707 0.039726 0.037684 -0.056015 -0.0089652 -0.01634 -0.037611 -0.053909 -0.018495 0.076171 -0.16047 0.087148 -0.03823 -0.004463 0.041106 0.089222 -0.02489 -0.072113 -0.039549 -0.012599 0.017484 0.0090158 0.017829 -0.12196 0.010033 0.031728 -0.01158 -0.099858 0.039625 -0.046861 -0.018678 -0.0018474 0.020702 0.079339 0.013706 0.004595 -0.018877 -0.037673 0.0038228 -0.02952 -0.025934 -0.005276 0.0093255 -0.0032747 0.0028149 -0.050746 0.049749 0.049854 -0.048466 0.0043461 -0.04186 -0.053697 -0.052165 -0.025547 -0.032376 0.051386 0.025355 -0.0065283 -0.018849 -0.060661 0.093093 -0.051859 0.05662 0.047323 -0.063799 -0.011858 -0.0021005 0.033625 -0.016317 0.0055905 -0.033892 -0.033023 -0.033221 -0.098893 -0.074258 0.038182 -0.080742 -0.033802 -0.042303 -0.01966 0.04907 0.02691 -0.07555 0.032171 -0.034222 -0.04117 0.0040115 0.02195 -0.021018 -0.0998 -0.083668 -0.10481 0.010167 -0.033386 -0.024844 0.14618 0.038172 0.0066638 -0.024115 -0.029805 -0.0070278 -0.01756 -0.029464 -0.091932 -0.017809 -0.024931 0.14021 0.027129 -0.060721 0.074173 0.033344 0.091618 0.070637 0.021261 0.031347 0.10916 0.01373 -0.0069953 0.0087366 0.019163 0.08136 -0.011605 0.037485 -0.13238 -0.010925 -0.048904 -0.048183 -0.025233 -0.0063927 -0.006635 0.038502 0.014091 0.081572 0.0082772 -0.063774 0.067432 0.072443 -0.02777 -0.058098 -0.074282 0.029685 0.012404 0.045646 -0.0064926 0.07403 -0.0096043 -0.012752 0.10846 0.064708 
</s> -0.040181 0.041024 0.0084419 -0.032651 0.081456 0.070369 0.035967 0.039695 0.012999 0.027117 -0.03079 0.050178 0.0045537 0.10581 0.0021041 -0.058756 -0.064399 0.015536 3.5402e-05 0.035889 0.071868 0.046425 -0.02816 -0.00066887 -0.060557 -0.11105 0.0033601 -0.020921 -0.19824 0.048936 -0.25974 0.035125 0.018945 0.059192 -0.059065 -0.034381 -0.085103 0.040008 0.019084 -0.067991 -0.001541 0.0074514 -0.0081666 -0.057947 -0.057794 0.045455 -0.011716 0.011176 0.0091306 0.17843 0.00014694 -0.10855 -0.020887 -0.024369 -0.010695 -0.057165 -0.024518 -0.094388 0.019758 -0.0052202 -0.051782 -0.0092549 -0.028629 0.071696 -0.069645 -0.01334 -0.047289 0.024438 -0.05695 -0.058956 -0.047683 0.068166 -0.11278 0.03387 0.037758 -0.021321 0.054184 -0.057165 0.07838 -0.00090858 -0.11655 0.012401 0.052459 -0.10304 -0.038179 -0.018994 0.031491 -0.057987 -0.060158 0.037262 0.064238 -0.032274 0.030106 -0.033665 -0.0017226 -0.032053 0.037979 -0.010774 0.079186 -0.055909 -0.010979 -0.036525 0.016179 -0.0774 0.00048436 0.02387 -0.013174 0.010844 -0.032533 0.016537 -0.051679 0.047519 0.016183 0.054379 -0.048279 0.073399 0.018962 -0.017786 0.0038149 0.024033 -0.022065 0.079954 0.0022344 0.078496 -0.13581 -0.18224 0.020484 -0.076441 -0.026888 -0.027768 -0.0069366 0.06867 0.050176 -0.0222 0.003998 -0.070471 -0.030875 0.012206 -0.10725 0.0554 0.001673 -0.04857 0.038873 -0.094762 0.0029864 0.064207 -0.052892 0.063578 -0.0067765 0.012353 0.029173 0.06011 0.059077 0.02984 -0.0438 -0.044368 0.050732 -0.047788 -0.038054 -0.039426 0.061967 -0.16076 0.11008 -0.043498 0.016651 0.099651 0.032525 -0.061 -0.020746 -0.074642 -0.20175 0.082315 0.042527 0.020658 -0.11793 -0.05197 0.030752 -0.029881 -0.06091 0.058503 0.058402 -0.034025 -0.025626 0.011236 0.10198 0.056371 0.024187 -0.035563 0.0095856 -0.046359 0.0077422 0.023534 -0.0060315 -0.026853 0.042626 0.013658 0.037951 -0.028487 0.02147 -0.049079 0.079126 0.013453 0.019177 -0.079419 -0.0060883 -0.030742 0.067382 -0.023167 -0.0062756 0.00093996 -0.01991 0.067302 -0.017357 0.068188 0.01823 -0.065624 -0.056119 0.079557 0.02066 0.023146 0.021594 -0.021364 -0.040515 -0.027132 -0.07056 -0.090388 0.05785 -0.1029 -0.010982 -0.029839 -0.0029931 0.070214 -0.060182 -0.069953 0.049927 -0.071458 0.050543 0.062028 -0.058626 0.043158 -0.07549 -0.081224 -0.11755 0.044261 0.011715 0.071203 0.056467 0.040934 0.0089468 -0.006873 0.0055987 0.012402 -0.012949 -0.072184 -0.045761 -0.044094 0.023225 0.10788 -0.031209 -0.052106 0.0078404 -0.042769 0.091759 0.058961 0.020381 -0.045648 0.025927 0.0040482 -8.1378e-05 0.0029219 -0.0045238 0.016234 0.068232 0.035011 -0.00092495 0.0053778 -0.064169 -0.03147 0.0086046 -0.041908 -0.0075711 0.11197 0.092126 0.059965 -0.044336 -0.058691 0.17898 0.14392 -0.041981 -0.037522 -0.11328 0.04408 0.038912 0.05848 0.0013483 0.0033294 -0.064274 -0.0041521 0.1354 -0.0071135 
<adj> 0.023839 -0.022897 -0.0083891 0.010583 -0.01527 0.030144 0.054301 -0.011815 -0.048214 -0.066654 -0.033602 0.0065825 0.080408 0.056631 -0.16823 -0.02447 -0.087353 0.0091976 0.018546 -0.10792 0.025472 0.091485 0.018321 0.032711 -0.09323 -0.15077 -0.0030378 0.0019493 -0.031323 0.018986 -0.050484 -0.013191 -0.0013733 0.092311 -0.098691 -0.058767 -0.055511 0.052182 0.017407 -0.073728 -0.0059948 -0.049887 -0.058418 -0.013633 -0.071071 0.1355 0.024371 0.045643 -0.070456 0.18724 -0.038672 -0.1004 -0.092974 0.024758 -0.026936 -0.064515 0.057166 -0.00432 -0.0010554 -0.049145 -0.02501 0.010361 0.057882 0.044323 -0.10612 0.016774 0.0084864 0.020905 -0.099257 -0.055226 -0.0063461 0.10381 -0.09303 0.040583 -0.05266 0.025025 0.0039593 -0.065056 0.026879 0.017577 -0.0062578 0.028795 0.014574 -0.023094 -0.083865 -0.062071 0.02489 -0.0013323 -0.01147 0.03293 0.054516 -0.052605 0.079045 -0.0056112 0.011089 -0.053287 0.049188 0.023469 0.09116 -0.042462 0.019404 0.011027 0.0081181 -0.097047 0.035733 0.046949 -0.016051 -0.0035887 -0.060246 0.065241 0.0015639 0.103 0.0018706 0.015702 -0.037429 0.050685 -0.065861 -0.045393 0.016882 0.059555 -0.024644 0.13444 0.045237 0.019644 -0.087344 -0.041127 0.016424 -0.035328 0.061558 -0.02823 -0.10102 0.039434 -0.026587 -0.087246 -0.073551 0.016732 0.013913 0.090309 -0.066716 -0.017117 -0.015003 -0.042273 0.10132 0.019082 0.016855 -0.0050277 -0.03134 0.022758 -0.040143 0.0028525 0.0632 0.10392 0.054917 0.0039781 -0.065475 -0.0032425 -0.026687 -0.014686 0.0084303 -0.071275 0.0041217 -0.065728 0.12847 -0.02257 0.035578 0.062287 0.0013018 -0.046625 -0.096383 -0.020182 -0.075996 0.014834 -0.021447 0.072171 -0.12013 0.06466 0.024239 0.004559 -0.075371 0.037059 -0.00061031 -0.0042103 -0.035807 0.023632 0.035891 0.024897 -0.04394 -0.037943 -0.022862 0.010223 -0.024244 -0.0049156 8.9434e-05 0.10056 0.065387 0.044009 -0.097085 0.035819 0.010231 -0.12962 0.034379 -0.080161 -0.0043108 -0.12288 -0.010155 -0.029443 0.042155 0.041354 -0.084328 -0.10215 -0.057758 0.08976 0.031938 0.063561 0.064282 -0.017666 -0.0009288 0.048603 0.032274 -0.0030583 -0.054201 -0.018743 -0.055779 -0.044559 -0.1165 -0.083811 0.02605 -0.15007 -0.05864 -0.033362 -0.006116 0.065358 0.022957 -0.023622 -0.0092228 -0.028116 -0.033132 -0.030765 -0.067843 0.019629 -0.097087 -0.17208 -0.11754 0.0054669 -0.069704 -0.0085809 0.10098 0.015618 0.029331 -0.052397 -0.0031334 0.031772 -0.039221 0.0054935 -0.11218 -0.0082298 -0.014486 0.12078 0.017442 -0.12016 0.012885 0.0078335 0.10835 0.10936 0.094335 -0.013127 0.0073036 -0.011784 0.045152 -0.046519 -0.031391 0.050204 0.10871 0.041809 -0.1182 0.031055 -0.044339 -0.097938 -0.029112 -0.030055 0.086741 0.039341 0.038464 0.086529 -0.025273 -0.10277 0.080276 0.21595 -0.02501 -0.088888 -0.12422 0.02001 -0.016109 -0.028985 -0.0069326 -0.0064617 0.042382 -0.043216 0.10416 0.045352 
<pst> 0.015891 0.01586 0.024422 -0.018854 -0.0018636 0.077384 0.026984 0.0040891 -0.025645 -0.02261 -0.010345 0.025133 0.11156 0.04792 -0.12187 -0.026341 -0.084139 0.057107 -0.014236 -0.060438 0.030132 0.044265 0.018717 0.010707 -0.061614 -0.17396 -0.013136 -0.043353 -0.070453 -0.007029 -0.13241 0.019804 -0.017745 0.083918 -0.094238 -0.025271 -0.055084 0.01284 0.0074983 -0.067419 0.020776 -0.045933 -0.085791 -0.05468 -0.10462 0.10996 0.011704 0.073358 -0.0084735 0.12574 -0.039803 -0.074854 -0.009986 0.024561 0.018485 -0.042942 0.03142 -0.0070276 -0.0038502 -0.0065314 -0.029782 0.045014 0.0067403 0.036998 -0.090103 0.012819 0.0095771 0.0090709 -0.086077 -0.078605 0.0055434 0.10294 -0.11706 0.080522 -0.0060221 0.030641 -0.018504 -0.053183 0.030928 -0.010484 -0.040241 0.02328 0.049461 -0.058033 -0.048776 -0.031959 0.0092597 -0.018117 0.0090759 0.03046 0.053499 -0.041631 0.062387 -0.038839 0.046494 -0.05002 0.070958 -0.014494 0.10792 -0.021342 -0.026752 0.0041921 0.021904 -0.094662 0.00032539 0.048029 -0.017511 -0.0096056 -0.068981 0.052816 -0.031492 0.07127 -0.031219 0.047017 -0.034818 0.073583 -0.046337 -0.0069746 -0.023947 0.012687 -0.035907 0.13474 0.044913 0.062772 0.05513 0.09643 0.017079 0.087584 0.02438 -0.070561 -0.052329 0.053218 -0.0087297 -0.067568 -0.011193 0.0033821 -0.0075025 0.1062 -0.066907 -0.051696 -0.0023046 -0.064303 0.088126 -0.017286 -0.018269 0.02147 0.030531 0.044541 -0.01529 -0.01667 0.043717 0.096183 0.0685 0.050139 -0.087851 -0.0047743 0.040439 -0.045981 -0.027565 -0.061852 -0.047631 -0.030231 0.088433 -0.017391 0.021563 0.082981 -0.0023632 -0.05213 -0.073976 -0.030133 -0.025125 0.019597 -0.021063 0.037987 -0.08743 0.066173 0.0072502 -0.05161 -0.1185 0.020503 -0.012354 0.0043562 -0.024465 0.061594 0.029613 0.017561 -0.024065 -0.043522 -0.04924 0.021536 -0.08902 -0.0098933 -0.044692 0.048995 0.038612 0.027036 -0.057005 0.070397 0.01924 -0.1188 0.061118 -0.067056 -0.0010209 -0.096866 -0.03143 -0.030997 0.041054 0.017999 -0.038079 -0.05589 -0.081775 0.077716 0.019689 0.070797 0.052168 -0.034163 -0.026281 0.042215 0.021568 -0.038946 -0.030329 -0.015858 -0.013108 -0.048238 -0.12776 -0.13667 0.045386 -0.11725 -0.078033 -0.027456 0.02011 0.058063 -0.017809 -0.059331 0.031654 -0.025575 -0.022444 -0.028718 -0.0054041 0.034026 -0.082294 -0.20577 -0.16034 -0.0019135 -0.060477 -0.016253 0.092707 0.056075 0.0054589 -0.02648 -0.018495 -0.0045927 -0.067236 -0.015039 -0.097482 -0.051915 -0.032724 0.16159 0.050634 -0.072558 0.058003 0.010011 0.082635 0.12805 0.062458 -0.031011 0.022713 -0.03153 0.0085361 -0.021857 -0.015602 0.063585 0.091844 0.024506 -0.11126 0.022136 -0.10731 -0.12211 -0.011729 -0.0095701 0.063447 0.075485 0.046954 0.071813 -0.049873 -0.093813 0.10377 0.20053 -0.021119 -0.068308 -0.072862 0.071675 -0.047349 -0.026358 0.013029 0.024902 0.048688 -0.043589 0.14308 0.062454 
<p3> 0.04104 -0.1342 -0.055525 -0.074563 0.017258 0.047567 0.083691 0.031759 0.0081086 -0.13916 -0.031652 -0.011822 0.044943 0.029556 -0.10376 -0.071557 -0.086007 0.060836 0.049 -0.070623 0.12299 0.11154 -0.024478 0.091632 -0.070201 -0.10818 -0.016626 0.12939 -0.096685 -0.0088586 -0.1105 -0.021501 -0.073077 0.057452 -0.069219 -0.026092 0.062055 0.14787 -0.034586 -0.021101 0.02128 -0.085995 0.065292 -0.030459 -0.047703 0.032445 0.029111 0.04189 -0.050714 0.089453 -0.013842 -0.0838 -0.029843 0.09167 0.039649 -0.11988 0.11402 0.0067507 -0.055586 -0.029187 -0.01589 -0.11227 0.057385 0.044837 -0.020067 0.02512 -0.00099658 0.14015 -0.013652 -0.09088 -0.103 0.10679 -0.01009 0.031791 -0.033196 -0.062284 -0.042553 -0.077024 0.009254 0.013655 0.06087 -0.0043871 -0.10541 0.035081 -0.09237 -0.11181 -0.064142 -0.12149 -0.0065489 0.059047 0.0077147 -0.052202 -0.0077429 0.030631 0.013174 -0.029783 0.0026116 0.061261 -0.019066 0.050238 -0.023157 0.018176 -0.075451 -0.018298 -0.079813 0.06545 0.030733 -0.16081 -0.065481 0.085108 0.066022 0.01176 -0.02101 0.064112 -0.068118 -0.021627 -0.085377 -0.011564 0.0078014 0.04005 -0.014713 0.097171 0.035057 0.076558 -0.12557 -0.25079 -0.073329 -0.15529 0.037744 0.042943 -0.11473 0.12783 -0.00083202 -0.13758 0.024518 0.061626 -0.0087565 0.04173 -0.053779 -0.050359 -0.048129 -0.020201 0.049653 0.034202 0.0093975 0.038104 -0.065278 -0.092796 -0.0011278 0.077487 0.060692 0.04153 -0.059956 0.032504 -0.076745 0.010814 -0.0094677 -0.032353 -0.036183 0.0010476 -0.046317 0.040243 -0.06526 -0.030452 -0.035106 -0.030946 0.05282 -0.10439 -0.0029052 0.031488 -0.095451 0.028789 0.0036861 0.044806 -0.024944 0.082286 0.027733 0.090639 -0.11884 0.11234 -0.089391 -0.068418 0.043215 0.016865 0.10524 0.090682 -0.065419 -0.025071 -0.048358 -0.027673 -0.0052732 0.070157 0.00060291 0.13788 -0.027627 -0.00072425 -0.051506 0.072133 0.067635 -0.042504 -0.013303 -0.044105 -0.028199 -0.077668 0.010756 -0.069188 0.032562 -0.049081 -0.020082 -0.028629 -0.0074316 0.086921 0.068239 0.053797 0.0061593 -0.014264 0.041952 -0.023773 0.010321 0.092735 0.062757 -0.065885 -0.093918 -0.067576 -0.11718 -0.060352 0.058311 -0.043591 0.020139 -0.017595 -0.12237 -0.010471 0.081607 -0.18906 -0.062714 -0.020415 -0.022009 0.04544 -0.033571 -0.010621 -0.064434 -0.1654 -0.16643 -0.089852 -0.042576 -0.039216 0.10868 -0.012517 0.04041 0.078906 -0.036146 -0.017482 -0.052237 0.0074881 -0.088871 0.10044 -0.065752 0.050299 0.093314 -0.11063 0.038132 -0.014232 -0.046697 0.07715 0.019258 0.069755 0.030387 0.11889 0.0005276 -0.042972 -0.049474 0.0094133 -0.042661 -0.017505 -0.10268 -0.015604 -0.040339 0.018443 -0.066855 -0.03785 0.12509 -0.053787 -0.006504 0.074583 -0.076652 0.012673 0.036122 0.17133 0.044755 -0.063349 -0.076481 0.025575 0.07431 -0.0092415 0.014808 0.050061 0.18416 -0.0057733 0.10812 0.0099733 
<sent> -8.8788e-05 -0.034808 -0.0657 -0.052243 0.062302 0.056206 -0.027728 0.051442 0.031415 -0.06431 -0.023538 0.049259 0.060357 0.027659 -0.072682 -0.042523 -0.071153 0.048001 -0.03626 -0.033469 0.030318 -0.023013 0.053504 -0.070305 -0.016735 -0.13505 0.044167 -0.055713 -0.061353 -0.0024789 -0.018242 -0.0018077 -0.039998 0.091471 -0.13165 0.0025532 -0.034776 -0.023928 -0.048424 -0.0047428 -0.038131 -0.027053 -0.050006 -0.02732 -0.072814 0.10218 -0.005876 -0.013193 -0.0058665 0.042401 -0.064573 -0.023486 0.028813 0.046432 -0.0054643 -0.076513 0.049597 -0.083189 -0.080953 -0.0076914 -0.044975 0.0029359 0.017346 0.029344 -0.025548 -0.038404 -0.05045 0.12712 -0.027861 -0.13737 0.037907 0.13832 -0.11077 0.10413 0.021429 0.076493 -0.0035058 0.020198 0.037387 -0.04924 -0.020194 0.0032696 0.10812 -0.084854 -0.068655 -0.077203 -0.043645 -0.037825 0.050138 0.027635 0.055433 -0.068523 0.045053 -0.062646 0.054736 -0.026577 0.043557 -0.0014538 0.052886 0.029665 -0.053564 -0.037318 -0.049702 -0.086218 0.01923 -0.020228 -0.054723 -0.031604 -0.01916 0.080476 0.0093411 -0.01082 0.014375 0.077172 -0.027612 -0.024551 -0.024828 -0.021714 0.030189 0.045518 -0.030714 0.085743 -0.0044349 0.054156 0.101 0.13541 0.01649 0.1071 0.019731 -0.0051269 -0.051826 0.04049 -0.064198 -0.11595 -0.01702 0.0041469 -0.081152 0.14141 -0.11427 -0.025031 -0.025517 -0.056367 0.030263 -0.040405 0.022752 0.10339 0.047364 -0.003971 -0.00090625 -0.023506 0.018611 0.059385 0.078663 0.063983 -0.10168 0.019092 0.018349 -0.040759 -0.027502 -0.02315 0.014398 -0.024983 -0.0014388 -0.016657 -0.023336 0.086902 0.052304 -0.058562 -0.040493 -0.068242 -0.043572 0.0357 -0.01314 0.030968 -0.075445 0.080774 -0.010779 -0.076546 -0.11283 0.0020234 -0.024614 0.028446 -0.020049 0.082595 0.15636 0.083679 0.038123 -0.053186 -0.053942 0.044392 -0.063973 0.0060068 -0.0119 -0.026036 -0.0023614 -0.019414 -0.075494 0.063551 0.011623 -0.059381 0.030878 -0.047406 -0.022938 -0.058812 -0.029328 0.021845 0.098359 -0.013159 -0.026133 0.0069654 -0.10381 0.062937 -0.045213 -0.026331 0.036268 -0.025537 -0.092999 -0.037068 0.0099615 -0.033432 0.016292 -0.017357 -0.050672 -0.030019 -0.074778 -0.055469 0.1382 -0.084798 -0.022112 -0.014608 0.020556 0.12623 -0.015189 -0.055722 0.028886 0.0056087 0.025074 -0.084731 0.030255 -0.027022 -0.12797 -0.12988 -0.12421 -0.018752 0.0039909 -0.037088 0.14276 0.016842 -0.016481 -0.037373 -0.0070601 -0.052434 0.0045788 -0.013931 -0.083878 -0.015043 0.012287 0.12615 0.039539 -0.0075996 0.046246 0.0098726 0.047875 0.058457 0.073026 -0.0048409 0.042625 0.00083037 -0.025715 0.038977 0.039136 0.079238 -0.031088 0.058487 -0.066599 -0.026863 -0.097508 -0.029914 -0.017484 -0.0046355 0.041808 0.091149 0.03556 0.055573 0.041598 -0.083421 0.11478 0.099505 -0.0049513 -0.083801 -0.032654 0.049731 0.0080895 -0.021433 -0.025061 0.038582 -0.0048774 -0.053809 0.15825 0.081353 
<adv> 0.0019517 -0.081843 -0.051035 -0.034644 0.056482 -0.0038379 0.047741 0.039954 0.0014622 -0.085975 -0.018301 0.0097508 0.041352 0.088639 -0.080663 0.0048843 -0.066662 0.036322 0.020306 -0.065161 0.031568 0.058324 -0.0017394 0.00012156 -0.07502 -0.09055 0.011279 0.043517 -0.10129 0.032815 -0.099197 -0.00095206 -0.021684 0.082961 -0.088186 -0.056182 -0.031746 0.056935 0.0011922 -0.04059 -0.027541 -0.041453 0.028072 -0.033584 -0.053416 0.069921 -0.00546 -0.010933 -0.021414 0.13043 -0.032023 -0.10046 -0.022053 0.052078 -0.014766 -0.059316 0.047901 -0.047703 -0.019374 -0.033885 -0.0093793 -0.064849 0.054756 0.058319 -0.043997 0.0066715 -0.020362 0.09913 -0.060092 -0.09422 -0.0052338 0.13866 -0.059549 0.051917 -0.048855 -0.010831 0.045239 -0.071477 0.037729 0.038911 -0.016375 0.080503 0.01572 -0.073076 -0.064463 -0.074921 -0.030941 -0.042003 -0.015416 0.027152 0.018432 -0.060608 0.027142 -0.015395 0.0075871 -0.020891 0.023154 0.015561 0.042764 0.0032561 0.021204 -0.0090686 -0.056458 -0.05644 -0.010912 0.03682 -0.020754 -0.038111 -0.034475 0.05645 0.015906 0.012971 0.019121 0.040595 -0.023582 -0.00080109 -0.03364 -0.033084 -0.01805 0.055171 -0.03216 0.084853 0.038256 0.023531 -0.12655 -0.12842 0.0055094 -0.10021 0.039885 0.011855 -0.085031 0.061791 -0.043885 -0.09593 -0.029757 -0.0073935 0.00086954 0.082887 -0.075143 0.0062118 -0.0073974 -0.064539 0.042702 -0.024749 0.019057 0.064747 -0.055888 -0.043736 0.0032704 0.022459 0.027731 0.041988 0.0036636 0.048608 -0.017954 -0.014131 -0.032213 -0.019567 -0.052057 -0.022719 0.03263 -0.083596 0.067615 -0.048075 -0.011028 0.019712 0.039038 -0.070454 -0.047811 -0.012971 -0.09298 0.042773 -1.0195e-06 0.042595 -0.077993 0.036924 0.019554 0.01697 -0.071544 0.097989 -0.030494 -0.021795 -0.018909 0.020358 0.074793 0.025509 -0.0081216 -0.001357 -0.032122 -0.022193 0.0084148 0.0092402 0.01975 0.0096373 0.014429 -0.026622 -0.064003 0.044466 0.036267 -0.064217 0.017354 -0.041298 -0.016229 -0.084159 0.010884 -0.04507 0.077817 -0.0063392 -0.044878 -0.057368 -0.015664 0.077516 0.018013 0.027857 0.040219 -0.063276 -0.036441 0.033757 0.030299 0.026465 0.015281 -0.020803 -0.073417 -0.033552 -0.064271 -0.046734 0.084365 -0.10479 -0.012412 -0.038114 -0.038335 0.078391 0.046888 -0.079329 -0.0050005 -0.042485 -0.0016356 -0.0013291 -0.017268 -0.024376 -0.08877 -0.090503 -0.11182 -0.031787 -0.012805 -0.0033908 0.14911 0.034789 0.006328 -0.030503 -0.00734 -0.015994 -0.023456 -0.011242 -0.079176 -0.024628 -0.009938 0.11816 0.050792 -0.10274 0.030173 -0.026795 0.046481 0.056847 0.032592 0.0092737 0.060584 0.0093821 0.038059 -0.0037789 -0.0044073 0.033643 -0.017152 0.023707 -0.095497 0.0019454 -0.070707 0.026754 -0.028844 -0.0052113 0.04808 0.02807 -0.0064589 0.082093 -0.020233 -0.07153 0.10193 0.13188 0.002181 -0.072415 -0.10583 0.031448 0.046214 0.00049613 -0.0079594 0.016668 0.033258 -0.033132 0.093894 0.062637 
<pri> -0.0013082 -0.064621 -0.031162 -0.014758 0.031391 0.0078544 0.036948 0.035136 0.012074 -0.060764 0.011421 0.039439 0.056337 0.069559 -0.090819 0.028177 -0.042278 0.040607 0.00112 -0.05606 0.036278 0.017836 -0.0055777 0.0061529 -0.077279 -0.059237 -0.018343 0.0045153 -0.11493 0.041866 -0.13899 0.052568 0.0019254 0.077918 -0.055719 -0.058528 -0.02475 0.059393 0.010294 -0.027646 -0.0027893 -0.047207 0.0091029 -0.037634 -0.072269 0.10482 0.026816 -0.010119 0.01324 0.1793 -0.030201 -0.10266 -0.015112 0.044713 -0.0064031 -0.020311 0.02354 -0.0033534 0.029062 -0.023766 0.015701 -0.0053569 0.03572 0.052201 -0.04712 0.025413 -0.028448 0.039569 -0.088907 -0.088203 7.166e-05 0.099891 -0.096474 0.060939 -0.063508 -0.055324 0.051191 -0.099146 0.048886 0.059379 -0.11801 0.1965 0.12096 -0.20653 0.0072105 -0.026926 -0.039918 -0.035712 -0.022664 0.024985 0.021568 -0.049897 0.032862 -0.02993 -0.014568 -0.056853 0.0020322 -0.016829 0.06531 0.010173 -0.0046299 -0.013003 -0.047074 -0.041873 -0.011673 0.052829 -0.0077148 -0.02686 -0.046473 0.011069 -0.034054 0.0089783 0.0052167 0.034942 -0.010528 0.0016451 -0.018431 0.01326 -0.059391 0.041396 -0.034038 0.062947 0.026309 -0.0033503 -0.084939 -0.067958 0.0040197 -0.0874 0.032288 -0.0089453 -0.050397 0.056769 -0.043109 -0.047153 -0.025024 -0.053918 0.039409 0.071414 -0.046268 0.042179 -0.011929 -0.064756 0.034232 -0.035427 -0.0033951 0.059328 -0.072319 -0.031313 0.030829 0.010746 0.014396 0.035379 0.0020834 0.04373 0.035196 -0.052646 -0.0064434 -0.042694 -0.06596 -0.022846 0.029856 -0.065674 0.12472 -0.029018 -0.012827 0.0091486 0.0080037 -0.068511 -0.046307 0.031888 -0.09045 0.020758 0.013349 0.010954 -0.052068 0.0062981 0.061307 -0.020707 -0.092706 0.082449 -0.0008814 -0.014909 -0.019903 0.013515 0.10356 0.023189 -0.029623 -0.014481 0.012466 0.0055749 -0.0070656 -0.0066104 0.061892 0.029262 0.0074891 -0.053766 -0.048159 0.072522 0.064503 -0.067279 0.024418 -0.040858 -0.030012 -0.077417 -0.0042894 -0.065499 0.087332 -0.0026465 -0.037309 -0.11307 0.022515 0.06861 -0.010974 0.054343 0.0058666 -0.077309 -0.051767 0.078527 0.031443 -6.9829e-05 0.010942 -0.0015332 -0.080328 -0.045125 -0.056073 -0.079423 0.067708 -0.1253 -0.019903 -0.054711 0.011723 0.056257 0.04075 -0.095073 0.00046972 -0.041491 -0.012456 0.043552 -0.0034394 -0.039433 -0.064468 -0.09996 -0.12115 -0.016788 -0.0081514 0.019911 0.16286 0.070603 -0.048934 -0.035795 -0.025755 -0.019806 -0.041241 -0.0020857 -0.080225 -0.090787 -0.022795 0.187 0.08152 -0.10956 0.042263 -0.054865 0.039742 0.070115 0.012385 0.0077768 0.064456 -0.025623 0.03485 0.016409 -0.0044011 0.033222 -0.0031452 0.017302 -0.11608 0.018195 -0.10413 0.016348 0.0034746 0.021497 0.02676 0.065873 -0.018104 0.061151 -0.027326 -0.071329 0.1182 0.12363 0.0042528 -0.067352 -0.11685 0.070809 0.031401 0.022768 -0.0068196 0.0038286 0.03658 -0.026975 0.12741 0.12754 
<subj> -0.0037365 -0.11537 -0.084489 0.0016794 0.082592 -0.0018885 0.040467 0.09422 0.069793 -0.097426 0.019753 0.021396 0.00043774 0.039139 -0.057516 -0.018587 -0.017465 0.043708 0.02859 -0.012396 0.051382 -0.0009117 0.0077194 -0.017165 -0.04833 -0.050184 0.01714 0.032752 -0.047941 0.0075158 -0.064788 0.044118 -0.045371 0.069495 -0.092933 -0.012893 -0.0024469 0.050539 -0.053992 0.019847 0.0041749 -0.088275 0.052472 -0.041561 -0.039038 0.07911 0.044216 -0.037721 -0.0017974 0.11297 -0.049982 -0.075097 0.01427 0.11374 0.0024062 -0.11394 0.073404 -0.03958 -0.02668 0.0072614 -0.019597 -0.073984 0.079884 0.10383 0.033505 -0.011901 -0.049379 0.14342 -0.03026 -0.098362 -0.038582 0.11483 -0.074481 0.073149 -0.065761 -0.070936 0.07376 -0.055778 0.063515 0.04727 -0.15303 0.22955 0.24672 -0.41501 -0.0034491 -0.12361 -0.10789 -0.10189 -0.0034879 0.062857 0.008704 -0.052151 0.0021595 -0.050693 -0.02724 -0.017832 -0.046023 -0.015781 0.018705 0.040271 0.0036202 -0.038836 -0.14469 -0.035333 -0.028687 0.018926 -0.023348 -0.087138 -0.086013 0.067431 0.024289 -0.049068 -0.038122 0.037903 -0.038163 -0.05424 -0.055119 -0.0047493 -0.081105 0.020596 -0.041394 0.075975 0.014041 0.014847 0.048491 0.13171 0.016985 -0.029977 0.027141 0.10034 -0.065016 0.11632 -0.048553 -0.045962 0.0021033 -0.075799 -0.011717 0.090259 -0.055977 0.055729 0.004766 -0.078226 -0.0097897 -0.024443 0.01044 0.12509 -0.08275 -0.07951 0.076825 0.066826 0.027514 0.027463 -0.012101 0.042881 0.029417 0.00036093 -0.013062 -0.047418 -0.057218 -0.0015789 0.037299 -0.093732 0.063989 -0.082885 -0.095003 -0.037801 0.055125 -0.094311 -0.00056432 0.040165 -0.16653 0.051926 0.0064203 0.015575 -0.0089922 0.057232 0.036348 -0.013733 -0.093373 0.094385 -0.02385 -0.020933 -0.0080536 -0.0064645 0.19462 0.076027 -0.036505 -0.036972 0.022348 -0.015679 0.04587 0.057057 0.099344 -0.013998 -0.039599 -0.087689 -0.067246 0.074773 0.052615 -0.023491 0.0046599 -0.0041283 -0.022235 -0.040794 -0.0060323 -0.038686 0.10412 -0.048806 0.0054217 -0.060337 0.060959 0.04996 -0.015018 -0.0099094 0.029 -0.031364 -0.070269 0.036845 0.018659 0.020288 0.055437 -0.011456 -0.14731 -0.023435 -0.029587 -0.025684 0.12991 -0.097222 0.058265 -0.021578 -0.02952 0.062985 0.076811 -0.19183 -0.02376 -0.017337 0.062776 0.029207 0.012766 -0.088865 -0.058986 -0.0482 -0.10856 -0.028775 0.022333 0.0092166 0.17379 0.023774 -0.053638 -0.0052929 -0.038861 -0.011636 0.012074 0.00085133 -0.069876 -0.032849 0.031478 0.13502 0.069133 -0.05066 0.035123 -0.073534 -0.054543 0.039364 -0.031256 0.032442 0.075906 0.0079182 0.042697 0.054548 0.0027109 0.00062813 -0.086703 0.0081897 -0.069106 -0.020527 -0.088539 0.10926 0.0039789 -0.01084 0.04994 0.054296 -0.028622 0.037921 -0.018402 -0.048928 0.11323 0.097812 0.01611 -0.059482 -0.098517 0.021339 0.098031 0.022347 -0.037752 0.0089574 0.10831 -0.031308 0.14741 0.12243 
<def> 0.04078 -0.012091 0.012843 -0.036746 -0.015271 0.061089 0.004968 0.038767 -0.032231 -0.08097 -0.038564 0.028777 0.09256 -0.0248 -0.10585 -0.016088 -0.070674 0.039251 -0.0097158 -0.048272 0.040457 0.011863 0.025619 0.052599 -0.059368 -0.14581 -0.037957 -0.044483 -0.040201 -0.015484 -0.094455 -0.021938 0.02159 0.023659 -0.090328 0.0037933 0.014405 0.080244 -0.029881 0.024592 -0.00084899 -0.071312 -0.076777 -0.044245 -0.064646 0.12726 0.021048 0.021806 0.019412 0.12354 -0.013774 -0.055013 -0.012064 0.025309 0.0083575 -0.068306 0.032246 0.018985 -0.045152 0.024158 -0.044176 0.040041 0.04575 0.069842 -0.080213 0.013244 -0.011615 0.0095426 -0.083094 -0.10346 -0.027533 0.11045 -0.085271 0.069811 -0.0039538 0.017574 -0.00054896 -0.056309 0.044479 -0.056183 0.016037 -0.011016 0.01096 0.021726 -0.041884 -0.03068 0.034552 -0.0096671 -0.0061385 0.082261 0.040169 -0.032526 0.030414 -0.030267 -0.0069256 -0.089346 0.053614 -0.0058246 0.064675 0.012427 -0.028757 -0.026654 0.00561 -0.092598 0.024146 0.039145 0.0016365 -0.056282 -0.044041 0.043095 -0.025099 0.081295 -0.036719 0.038517 -0.037751 0.10559 -0.096162 -0.040344 0.039869 -0.011498 -0.021613 0.080511 0.025004 0.072523 0.02411 -0.016221 0.0020194 0.032209 0.031098 -0.058791 -0.042406 0.037579 0.0081765 -0.10046 0.0095306 0.049555 -0.0070326 0.086818 -0.0726 -0.035043 -0.055009 -0.05709 0.058639 0.024332 -0.013693 0.00052152 0.052424 0.037413 -0.0026649 -0.010653 0.080283 0.062904 0.046191 0.020846 -0.075209 0.0005123 -0.019757 -0.069423 0.008783 -0.069014 -0.016651 -0.0027984 0.094101 -0.0056479 0.0082719 0.060314 -0.019734 -0.048804 -0.08626 -0.030221 -0.032653 -0.010215 -0.0034127 -0.015475 -0.096882 0.089446 -0.014937 -0.051034 -0.12942 -0.027276 -0.033372 -0.0068855 0.005469 0.02463 0.092188 0.072818 -0.036035 -0.073927 -0.028384 0.053372 -0.14523 0.021719 0.007251 0.12587 0.031312 0.049401 -0.058891 0.050325 0.078144 -0.13105 0.055788 -0.058575 -0.051335 -0.098988 -0.011375 -0.020374 0.026546 0.0067349 -0.029575 -0.047109 -0.051394 0.09232 0.0041899 0.065157 0.030848 -0.023676 -0.017184 0.012272 0.011075 -0.024259 -0.0016631 0.0069544 -0.011429 -0.074481 -0.13809 -0.16223 0.049963 -0.11203 -0.068487 -0.035769 0.020996 0.028141 0.0026065 -0.073626 0.016676 -0.012604 -0.030378 -0.019546 -0.032725 0.002212 -0.094226 -0.21376 -0.14886 0.0068273 -0.047336 -0.028645 0.093334 -0.010325 0.013635 -0.0022775 -0.033089 -0.012693 -0.012939 -0.0076947 -0.14567 -0.008255 -0.034116 0.11949 0.092383 -0.050622 0.031511 0.022763 0.080074 0.10073 0.10903 0.014885 0.0025175 0.02267 0.018384 0.016331 -0.013422 0.07087 0.088059 0.043066 -0.097369 0.013723 -0.093439 -0.12701 -0.055738 -0.095642 0.086697 0.10028 0.068094 0.050017 -0.020823 -0.087447 0.084532 0.19842 -0.024507 -0.07591 -0.11759 0.083522 -0.021859 -0.024287 0.0067623 0.095331 0.047583 -0.032812 0.12586 0.066744 
<inf> -0.0079689 -0.090374 -0.073653 -0.083522 0.090173 0.034447 0.052388 0.039735 0.023536 -0.057304 -0.0060163 0.054759 0.026249 0.099784 -0.038248 0.015749 -0.071681 0.054275 0.01373 -0.024204 0.019624 0.020653 -0.020589 -0.015072 -0.05002 -0.030673 0.020664 0.049697 -0.16774 0.042698 -0.15665 0.026469 -0.02581 0.09366 -0.082241 -0.06556 -0.0050861 0.053875 0.019737 -0.05797 -0.027061 -0.0098292 0.070644 -0.02681 -0.07736 0.076211 -0.010751 -0.019725 0.02036 0.11724 -0.029664 -0.11775 -0.015067 0.063383 0.0096347 -0.054993 0.03427 -0.089797 0.013071 -0.014975 0.014375 -0.058874 0.028099 0.019241 -0.036724 0.0066243 -0.049012 0.10851 -0.058158 -0.12767 0.00081364 0.13628 -0.066593 0.05516 -0.026158 -0.049904 0.079036 -0.085575 0.042661 0.055157 -0.047864 0.13553 0.070027 -0.12942 -0.046788 -0.05516 -0.058259 -0.054365 -0.014591 -0.008307 0.0047234 -0.063731 0.015122 -0.013216 0.000417 -0.035273 0.022489 -0.0064334 0.036393 0.025109 -0.019758 -0.015887 -0.067761 -0.022948 -0.039447 0.030233 -0.01252 -0.054928 -0.015512 0.042631 -0.0054099 -0.022942 0.010642 0.048981 -0.005737 0.01397 -0.0050495 -0.0089929 -0.034092 0.083986 -0.031619 0.044212 0.0084178 0.032963 -0.10894 -0.16102 -0.019791 -0.10953 -0.0016262 -0.0030245 -0.067118 0.088684 -0.043412 -0.065279 -0.022572 -0.036128 0.006645 0.058212 -0.054111 0.024226 -0.03846 -0.059909 0.029024 -0.047391 0.026941 0.081307 -0.08964 -0.046882 0.010105 0.0056401 -0.0354 0.017064 -0.0078636 0.053009 0.0033686 -0.03938 -0.0075671 -0.035586 -0.090543 -0.0018596 0.093163 -0.19585 0.11432 -0.071322 -0.013491 0.02145 0.066371 -0.092407 -0.022662 0.0013853 -0.084992 0.045521 0.035279 0.011469 -0.084121 -0.0058889 0.057265 0.006481 -0.089667 0.10101 -0.030964 -0.028169 0.0077218 0.014759 0.085569 0.037635 -0.0023892 -0.0001055 -0.017637 -0.030349 0.027475 -0.0099108 0.031421 -0.0074328 -0.027907 -0.054106 -0.0359 0.060664 0.06501 -0.010994 0.013814 -0.031802 -0.027546 -0.060421 -0.011654 -0.067661 0.08621 -0.010648 -0.0090157 -0.05799 -0.009337 0.072002 -0.04532 0.023183 0.0034525 -0.095605 -0.069217 0.041411 0.018507 0.03569 0.043905 -0.043955 -0.080628 -0.049872 -0.056637 -0.035038 0.086199 -0.085363 0.007875 -0.036308 -0.033229 0.065099 0.043752 -0.1049 0.016974 -0.057374 -0.0035428 0.048309 0.023572 -0.044195 -0.08876 -0.055545 -0.10435 -0.016705 0.014328 0.011572 0.16966 0.054855 -0.031219 -0.01898 -0.015199 -0.037889 -0.027176 -0.027609 -0.045746 -0.034834 -0.0034698 0.1268 0.046005 -0.070188 0.050071 -0.042439 0.043119 0.027259 -0.0065809 0.020774 0.10314 0.0029537 0.0011588 0.0089396 0.012435 0.035057 -0.07781 0.0084879 -0.093089 -0.01929 -0.079004 0.060061 -0.007561 0.039107 -0.0016341 0.034881 -0.0083859 0.062246 -0.015884 -0.058295 0.11477 0.056082 0.0084616 -0.041576 -0.091264 0.035638 0.037706 0.04715 -0.020666 0.014876 -0.0049188 -0.011557 0.11127 0.097172 
<vaux> -0.021205 -0.088692 -0.028209 -0.080395 0.080302 0.089116 0.029397 0.05574 0.007874 -0.039757 -0.024197 0.058621 0.0054008 0.05544 0.006646 -0.00062162 -0.027443 0.033063 -0.0065656 0.039304 0.054344 0.012876 -0.031806 0.05092 -0.036303 -0.11246 -0.0091376 0.030796 -0.13524 -0.010269 -0.18812 0.016272 -0.027122 0.073908 -0.07323 -0.004095 0.038391 0.013781 0.001757 -0.0026509 0.014288 0.013857 0.008148 -0.05265 -0.040748 0.057031 0.060437 0.014209 0.013806 0.065994 -0.024932 -0.08251 0.037481 0.022771 0.042527 -0.12784 0.046434 -0.074457 -0.02051 0.049786 -0.07408 -0.083245 0.085761 0.091004 -0.028049 0.004468 -0.047902 0.083707 0.0034248 -0.14902 -0.070811 0.16037 -0.040263 0.070994 0.040308 -0.019771 0.069665 -0.068267 0.069961 -0.052949 -0.037402 0.092647 0.031502 -0.11423 -0.038695 -0.055892 -0.033245 -0.088795 -0.086065 0.054514 -0.016633 -0.041668 -0.017056 -0.049819 0.0048941 -0.057548 0.0087151 -0.00024321 0.054784 0.060446 -0.039711 -0.02906 -0.067411 -0.069345 -0.054936 -0.0014438 -0.055396 -0.082415 -0.0036974 0.047558 0.0032591 0.013325 0.020745 0.13484 -0.046431 -0.026653 -0.073064 -0.033297 -0.032126 0.018529 -0.019256 0.053813 0.021195 0.086295 0.080561 0.090106 -0.013731 -0.0089309 -0.059429 0.0057087 -0.0060106 0.11315 0.037133 -0.10211 0.051629 0.034904 -0.043461 0.042962 -0.040217 -0.022854 -0.018443 -0.081614 0.012998 -0.039924 0.028254 0.044963 -0.023225 -0.020929 0.034646 0.031813 -0.016521 0.00018985 -0.041638 0.060761 -0.011314 0.016828 8.287e-05 -0.053051 -0.098981 -0.050702 0.032429 -0.18457 0.083595 -0.10025 -0.027695 0.028566 0.030566 -0.071136 -0.01821 -0.055933 -0.13273 0.083638 0.00032523 -0.038935 -0.11331 0.037671 0.042501 -0.041364 -0.11845 -0.011453 -0.048257 -0.037238 0.028536 -0.020812 0.23096 0.10494 -0.010096 -0.072347 -0.018299 -0.065028 -0.048542 0.027868 0.0083509 0.010204 -0.060333 -0.039526 0.027282 0.041942 0.10263 -0.01225 0.023898 -0.023009 -0.02492 -0.078302 -0.0016708 -0.078981 0.020347 -0.065174 0.026861 0.0013566 -0.011882 0.051839 -0.0050397 0.030144 0.010828 -0.045047 -0.081758 0.048578 0.02338 0.0077501 0.082081 -0.03298 -0.03322 -0.098287 -0.10925 -0.10669 0.07884 -0.045212 0.01167 -0.018246 -0.024212 0.037434 0.0071303 -0.10818 0.015042 -0.015463 0.014405 0.03954 -0.031585 -0.021942 -0.067848 -0.13259 -0.13766 -0.035781 -0.024069 0.046817 0.10295 -0.0061142 -0.005706 0.09091 -0.054194 -0.058758 -0.055066 -0.046383 -0.091648 0.012824 -0.037927 0.10934 0.077051 -0.023159 0.065648 -0.017234 -0.014027 0.04413 -0.0031174 0.029982 -0.0052542 0.02761 -0.043252 0.00064167 -0.015704 0.018159 -0.081715 0.00048252 -0.0082608 -0.07259 -0.091272 -0.035696 -0.050702 -0.05937 0.02282 0.071688 0.036897 -0.00037685 -0.03925 -0.031303 0.07191 0.12149 -0.02729 -0.024106 -0.12329 0.06417 -0.00053168 0.031542 0.006641 0.050423 0.059472 -0.053337 0.12094 0.068778 
<cm> 0.0015046 0.016282 0.025706 -0.052072 0.05379 0.087544 0.008265 0.037921 0.011597 -0.028004 -0.039368 0.044774 0.055835 0.016587 -0.037504 -0.050722 -0.072566 0.048429 -0.016479 0.016154 0.085275 0.031631 0.01688 0.016564 -0.036699 -0.14927 -0.0052334 -0.045538 -0.087168 -0.026646 -0.14397 0.002676 -0.0086482 0.058085 -0.10209 0.021289 -0.0088274 0.023635 -0.022171 -0.013131 0.0066883 -0.02528 -0.064572 -0.052432 -0.057515 0.066435 -0.0086443 0.032764 0.027249 0.08741 -0.022362 -0.050239 0.022014 0.023435 0.014309 -0.087272 0.019146 -0.057777 -0.041299 0.037928 -0.090145 0.011353 0.010932 0.081747 -0.060358 -0.0083238 -0.020425 0.038735 -0.037845 -0.10447 -0.045969 0.078964 -0.092905 0.0685 0.043577 0.03269 0.002289 -0.02077 0.061586 -0.056409 -0.02759 -0.062607 0.022634 -0.003756 -0.047607 -0.038607 0.018534 -0.056191 0.0016386 0.075009 0.053907 -0.023663 0.029746 -0.048024 0.032156 -0.042961 0.063137 -0.019902 0.069445 -0.0048182 -0.051605 -0.023592 0.00010861 -0.086577 -0.0031843 0.014591 -0.016731 -0.042839 -0.035643 0.046552 -0.039332 0.034703 -0.017572 0.082819 -0.048951 0.057972 -0.054148 -0.031691 0.032164 -0.0033977 -0.024268 0.095321 0.0090912 0.092945 0.032676 -0.015924 0.0005555 0.04234 -0.011826 -0.03397 -0.011212 0.065982 0.031013 -0.0814 0.039252 0.0092022 -0.067583 0.065122 -0.10406 -0.022423 -0.031896 -0.06044 0.038376 -0.041147 0.00048797 0.044384 0.051116 0.049293 -0.0023766 -0.0075452 0.065943 0.04691 0.058224 0.048394 -0.099678 0.007626 0.041911 -0.071164 -0.0097418 -0.059562 -0.017482 -0.01055 0.014252 -0.013255 0.0031065 0.095141 0.012142 -0.059936 -0.049313 -0.065554 -0.11661 0.052733 0.015759 -0.002556 -0.087523 0.054101 -0.0016932 -0.061639 -0.12637 -0.0034612 -0.0068763 -0.015724 0.0078293 0.047769 0.15527 0.093555 0.011173 -0.092669 -0.037311 0.011821 -0.1093 0.031458 -0.018166 0.077439 0.021771 0.051863 -0.0067517 0.018554 0.042101 -0.088029 0.067981 -0.018205 -0.011106 -0.064276 -0.023002 -0.020161 0.044654 -0.031071 0.0095519 0.029547 -0.058271 0.073782 -0.013578 0.037615 0.032466 -0.017728 -0.044175 0.011568 -0.0026354 -0.013147 0.011776 -0.025827 -0.01715 -0.03716 -0.11421 -0.13334 0.071327 -0.071255 -0.040455 -0.023654 0.0047761 0.053441 -0.035234 -0.10548 0.050123 -0.022967 0.012204 -0.0055218 -0.031674 0.025262 -0.090382 -0.18469 -0.13692 0.012252 -0.019798 0.0040242 0.078054 -0.0037934 0.013213 0.015268 -0.019739 -0.023152 0.00058707 -0.05377 -0.09597 0.00076814 -0.01569 0.13348 0.032803 -0.010499 0.047407 0.009881 0.05474 0.083657 0.070576 -0.0072855 0.01663 0.020124 -0.019701 0.026997 -0.0043646 0.040365 0.061521 0.04821 -0.037024 -0.012625 -0.099326 -0.095333 -0.030612 -0.082921 0.039752 0.099331 0.088825 0.038264 -0.044237 -0.052115 0.12236 0.16764 -0.034277 -0.054808 -0.073285 0.066639 0.002181 0.0087147 0.0026342 0.072734 0.0022122 -0.0077593 0.13379 -0.0014158 
<cnjcoo> 0.017292 -0.041415 -0.010201 -0.03425 0.019064 0.053089 0.043547 0.019752 -0.0074622 -0.063672 -0.022148 0.039675 0.054988 0.027354 -0.087474 -0.023445 -0.071907 0.03485 0.014168 -0.044088 0.063276 0.046831 -0.0031469 0.042968 -0.072153 -0.10119 -0.017316 0.012752 -0.086151 0.016401 -0.11965 0.010035 -0.0034831 0.06238 -0.067253 -0.03781 0.0067247 0.081772 -0.0014179 -0.026472 0.0086269 -0.039119 -0.007764 -0.02382 -0.065907 0.10004 0.019926 0.0209 -0.0047327 0.15855 -0.011522 -0.093361 -0.04391 0.030924 -0.0017109 -0.061956 0.040966 -0.010311 0.005855 -0.0069188 -0.016497 -0.00061445 0.03092 0.035979 -0.07096 0.019737 -0.018075 0.033968 -0.068998 -0.081932 -0.03917 0.077318 -0.08458 0.043946 -0.023668 -0.026503 0.016616 -0.077239 0.041826 0.011999 -0.0632 0.077221 0.07244 -0.10431 -0.036773 -0.039269 -0.0013431 -0.046889 -0.014854 0.044258 0.038776 -0.037032 0.040387 -0.0077972 -0.0069091 -0.067427 0.034021 0.0020692 0.054647 -0.0020688 -0.0258 -0.0065528 -0.0097161 -0.047103 -0.0065996 0.051985 0.0089578 -0.056041 -0.044974 0.035329 -0.027216 0.044782 -0.013806 0.042135 -0.035527 0.046311 -0.051737 -0.0082016 0.0081488 0.035778 -0.016659 0.081 0.014182 0.04455 -0.079409 -0.13571 -0.019018 -0.078248 0.022172 -0.025314 -0.066193 0.078839 -0.0041828 -0.068288 -0.013482 -0.0055058 0.01192 0.046719 -0.062403 0.0075471 -0.044254 -0.037849 0.055495 -0.0092669 0.010329 0.023453 -0.039067 0.009464 -0.0023036 0.0086013 0.040763 0.055141 0.018009 0.013441 -0.044342 -0.026019 0.0043639 -0.047743 -0.018116 -0.035608 0.022608 -0.05389 0.084221 -0.020862 0.0082749 0.041431 0.016481 -0.065259 -0.05191 0.010391 -0.095061 0.014392 0.022616 0.012748 -0.087276 0.03329 0.049729 -0.0069136 -0.10798 0.049357 -0.0097007 -0.034202 0.0030618 0.015972 0.092573 0.060646 -0.032532 -0.048078 -0.004803 0.0064384 -0.042936 0.022078 0.030599 0.1047 0.015557 0.018726 -0.037468 0.042358 0.06347 -0.074063 0.034338 -0.039524 -0.033041 -0.085602 -0.012071 -0.052651 0.052326 -0.0056734 -0.027406 -0.073005 -0.01437 0.087099 -0.0047607 0.065336 0.010971 -0.033594 -0.01708 0.045885 0.014139 0.015286 0.0066593 -0.023476 -0.05906 -0.046632 -0.10219 -0.093374 0.039103 -0.1044 -0.027034 -0.037026 -0.020293 0.028791 0.029586 -0.10199 0.0043706 -0.033213 -0.021683 0.043021 -0.036141 -0.0045419 -0.079904 -0.14809 -0.12765 -0.00075932 -0.026258 0.0069496 0.11219 0.016103 -0.00056962 -0.004376 -0.025606 -0.0017463 -0.022601 -0.013889 -0.097943 -0.0075222 -0.029198 0.13014 0.049149 -0.078974 0.032024 -0.010829 0.056817 0.089272 0.049292 0.011589 0.035263 0.02464 0.014021 -0.003096 -0.019018 0.040719 0.048936 0.030595 -0.091867 0.0078946 -0.070349 -0.045339 -0.025653 -0.032096 0.05574 0.047916 0.035374 0.056022 -0.037925 -0.048571 0.093525 0.15414 -0.013789 -0.067628 -0.10634 0.04969 0.019101 0.0194 -0.0073057 0.035933 0.035377 -0.0011131 0.10448 0.033731 
<p1> 0.011946 -0.14635 -0.11225 -0.096567 0.1059 0.044256 0.076953 0.05062 0.037282 -0.090314 -0.020273 0.042349 -0.023457 0.054861 -0.019452 -0.067348 -0.079362 0.069746 0.044934 0.015187 0.089987 0.064883 -0.026168 0.0090227 -0.037827 -0.062016 0.037863 0.11155 -0.15195 0.02485 -0.15038 -0.02218 -0.10145 0.085734 -0.12268 -0.038202 0.042605 0.091864 -0.036312 -0.036604 -0.008047 -0.025479 0.10973 -0.014808 -0.04963 0.035387 0.033732 -0.00077101 -0.023567 0.023123 0.0034559 -0.082807 0.0030204 0.086572 0.030849 -0.1713 0.10237 -0.10179 -0.047263 0.032241 -0.0015494 -0.15312 0.072881 0.03326 0.018186 -0.043889 -0.034403 0.21284 0.0093908 -0.13776 -0.05855 0.12586 -0.01542 0.058645 -0.0133 -0.034204 0.043238 -0.061802 0.022761 -0.0016525 -0.010456 0.10004 0.094008 -0.20637 -0.081686 -0.14371 -0.073984 -0.10331 -0.014432 -0.01325 -0.016739 -0.076198 -0.0026576 0.014081 0.015777 -0.014668 0.0028242 0.032079 -0.013011 0.072881 -0.024782 -0.020742 -0.12265 -0.00349 -0.06096 0.02134 0.0086659 -0.16039 -0.043365 0.096812 0.077625 -0.047102 -0.024253 0.081942 -0.025127 -0.0695 -0.048426 -0.023144 -0.034652 0.068011 -0.020499 0.060495 0.0044893 0.1086 -0.0070257 -0.091628 -0.051097 -0.081821 -0.0085601 0.040598 -0.10068 0.15905 -0.043758 -0.11166 0.013853 0.031804 -0.034185 0.060042 -0.041976 -0.038551 -0.042606 -0.057177 0.025396 -0.0047938 0.047173 0.088356 -0.070355 -0.10176 0.026238 0.069484 -0.029217 0.019384 -0.014607 0.05122 -0.073546 0.044077 -0.012644 -0.029018 -0.079027 0.025861 0.089889 -0.2631 0.029513 -0.13366 -0.082327 -0.020937 0.14864 -0.081236 0.011419 -0.013611 -0.061412 0.048953 0.00060274 0.021422 -0.062148 0.035151 0.031411 0.051162 -0.10357 0.094665 -0.09455 -0.06949 0.015243 0.0027383 0.12973 0.06804 -0.017942 -0.0031546 -0.049904 -0.061202 0.043514 0.050324 0.0015512 -0.024498 -0.063803 -0.042956 -0.039976 0.067656 0.062393 0.034398 -0.018403 -0.014481 -0.0511 -0.036828 -0.017313 -0.039104 0.044999 -0.04928 0.028231 0.020861 -0.02194 0.079982 -0.013598 0.014135 0.039572 -0.021046 -0.016581 -0.037378 0.030413 0.04946 0.097428 -0.069845 -0.096529 -0.046744 -0.082634 -0.012843 0.094404 -0.030702 0.059074 0.0014396 -0.12853 0.033838 0.079801 -0.18734 -0.0085001 -0.021398 0.021531 0.029996 0.050651 -0.060871 -0.088694 -0.046023 -0.13053 -0.053278 -0.010239 -0.025587 0.14663 0.0035937 0.016554 0.072365 -0.058242 -0.021271 -0.026141 -0.013325 -0.058364 0.074487 -0.012986 0.063095 0.041111 -0.038251 0.058084 -0.0055937 -0.062332 0.044463 -0.041518 0.067527 0.084608 0.093047 -0.021797 0.0010256 0.015593 0.048282 -0.12642 -0.0026792 -0.074224 -0.07002 -0.027254 0.076557 -0.052871 -0.0026608 0.047159 -0.026377 -0.017891 0.069308 -0.022824 0.010121 0.048909 0.058703 0.005038 -0.06228 -0.040867 -0.0062399 0.088961 0.048193 -0.013295 0.078016 0.12157 -0.022494 0.12679 0.036359 
<guio> -0.0010752 0.07117 -0.026247 -0.071665 0.045619 0.08305 -0.039912 0.036048 0.014622 -0.023514 -0.087807 0.073154 0.032593 0.018368 -0.045653 -0.10036 -0.10754 0.024337 -0.012298 -0.0035933 0.080496 -0.0015593 0.019747 -0.029852 -0.04229 -0.15604 0.036893 -0.11563 -0.10689 0.025505 -0.11093 -0.017127 0.041782 0.065866 -0.11204 0.014768 -0.061693 0.021505 -0.048415 0.0022726 -0.039659 0.00080314 -0.081778 -0.019133 -0.056136 0.10369 -0.031104 -0.036038 0.014047 0.1481 -0.0012503 -0.047936 -0.017724 -0.061095 -0.038097 -0.063192 0.0041385 -0.096955 -0.090187 -0.032156 -0.095357 0.055005 -0.025405 0.041437 -0.071481 -0.023141 -0.061612 0.023841 -0.046297 -0.10941 -0.007597 0.055699 -0.13499 0.04969 0.10219 0.085963 0.012119 0.038634 0.088972 -0.081807 -0.04321 -0.1404 0.017007 0.089005 -0.086588 -0.0035353 0.03118 -0.01418 0.0056901 0.058853 0.1128 -0.0472 0.072354 -0.060526 0.0079665 -0.053915 0.064876 0.014981 0.065075 -0.054615 -0.076594 -0.049172 0.054841 -0.067867 0.059563 -0.020423 -0.0222 0.014781 -0.00077538 0.05378 -0.073626 0.038834 0.0078844 0.048904 -0.049471 0.095713 -0.010209 -0.038427 0.12798 0.018783 0.0055284 0.059487 -0.049024 0.069007 -0.12507 -0.23328 0.022755 -0.021438 -0.007712 -0.05038 -0.016443 0.015834 0.024683 -0.081939 -0.015742 -0.0037836 -0.090839 0.049533 -0.1791 0.042444 -0.065828 -0.003111 0.046585 -0.078922 0.026317 0.057467 0.026936 0.11571 -0.031975 -0.049659 0.07238 0.087723 0.11661 0.0057801 -0.14256 -0.044132 0.053118 -0.048931 0.02637 -0.042878 0.041704 0.016377 0.0041916 0.072343 0.058988 0.16407 0.01058 -0.052109 -0.067762 -0.11056 -0.15658 0.043772 0.030544 0.0093133 -0.13032 0.016478 0.0067233 -0.080209 -0.094965 -0.033634 0.075566 -0.0026482 -0.023627 0.06782 0.12861 0.1122 0.059046 -0.07912 -0.0010229 0.054519 -0.090958 0.02414 0.011588 0.083004 0.077366 0.11179 -0.011508 -0.046736 -0.0050817 -0.066415 0.079826 0.0022601 -0.0012521 -0.080606 -0.034598 0.038749 0.090602 -0.025768 -0.046473 0.021403 -0.081557 0.072876 -0.07861 0.025486 -0.0024685 -0.030167 -0.07431 0.0003744 -0.02567 -0.01907 -0.00059888 0.016948 -0.021051 -0.015962 -0.077559 -0.091747 0.10814 -0.11629 -0.054085 -0.034569 0.026764 0.13645 -0.097892 -0.035789 0.071178 -0.019519 0.040608 -0.034393 -0.061694 0.036337 -0.16417 -0.13854 -0.11133 0.040229 0.029545 0.0080385 0.063068 -0.019817 0.0028246 -0.022103 0.0062037 -0.026931 0.06098 -0.033851 -0.092915 0.012361 0.032597 0.088485 -0.047578 0.017932 -0.029801 -0.018337 0.13381 0.057133 0.147 -0.038767 -0.029222 0.057967 -0.026419 0.051045 0.029412 0.055405 0.10125 0.0908 -0.0051533 -0.0039059 -0.060807 -0.096241 -0.0092949 -0.050936 0.023246 0.14418 0.14237 0.061868 0.037112 -0.079159 0.19479 0.13264 -0.03039 -0.06517 -0.071701 0.058788 0.046591 0.042247 -0.032438 0.051001 -0.12545 0.0070623 0.15248 -0.031083 
<past> 0.072349 -0.10684 -0.092191 -0.049906 0.029525 0.045082 0.089646 -0.0062855 -0.019654 -0.13383 -0.047249 0.052042 0.0066169 -0.043746 -0.10452 -0.11563 -0.089094 0.045042 0.073722 -0.04627 0.13047 0.089742 -0.029268 0.072705 -0.047706 -0.061207 0.013902 0.049698 -0.085914 0.033516 -0.093898 -0.029473 -0.068343 0.040072 -0.1572 -0.029465 0.047305 0.17949 -0.04847 -0.027464 0.00042873 -0.057333 0.048938 0.044912 -0.056399 0.10358 0.082145 -0.0056018 -0.02351 0.094999 0.051365 -0.055555 -0.077789 0.078083 0.0069538 -0.15454 0.11841 -0.037149 -0.021395 0.062244 0.013085 -0.043171 0.080668 0.0035031 -0.0069412 -0.056444 -0.0031105 0.12588 -0.035134 -0.097816 -0.081393 0.022938 -0.012583 0.0086252 -0.038473 -0.024158 0.019416 -0.057009 0.039616 -0.011432 -0.052414 0.089074 0.1845 -0.24471 -0.090984 -0.10167 -0.0067035 -0.049152 -0.013541 -0.018293 0.0053516 -0.057065 0.056707 0.064402 -0.022177 -0.069636 0.029469 0.046064 -0.033445 0.054273 -0.053485 -0.03335 -0.067521 0.0051578 0.012999 0.040041 0.089404 -0.18083 -0.056391 0.064715 0.042084 0.012712 -0.091773 0.019924 -0.019242 0.0099736 -0.084722 -0.042427 0.046241 0.063011 -0.0035328 0.053861 -0.021319 0.098163 -0.088917 -0.31465 -0.075634 -0.12291 0.023489 -0.010204 -0.15018 0.12581 -0.050419 -0.054509 -0.01697 0.049577 0.012528 0.030587 -0.058512 -0.029108 -0.087569 -0.0060797 0.058734 0.093013 0.032982 0.012998 -0.061717 -0.045702 -0.012 0.06142 0.018175 0.060199 0.030295 -0.030358 -0.12016 0.036773 -0.017189 -0.055004 -0.00010197 -0.001093 0.060519 -0.091764 0.016967 -0.012683 -0.047817 -0.03178 0.14098 -0.019547 -0.056078 0.026989 -0.021493 -0.023865 0.0069234 0.015978 -0.10294 0.050605 0.031584 0.060386 -0.11776 0.03799 -0.07675 -0.06959 0.028826 -0.0065334 0.070536 0.035801 -0.043489 -0.02662 -0.01803 0.020865 -0.012704 0.072549 0.044366 0.12232 -0.020384 0.060494 -0.083628 0.044977 0.066433 -0.023931 -0.027194 -0.014439 -0.080417 -0.036571 -0.040994 -0.016215 0.018368 0.0056316 0.008392 -0.011595 -0.031946 0.12553 -0.059896 0.078187 0.052023 0.019895 0.089447 -0.058237 0.018461 0.013908 0.024412 -0.037127 -0.10003 -0.03989 -0.13695 -0.075549 0.01182 -0.050072 0.013519 -0.029721 -0.10314 0.0069237 0.09274 -0.19373 -0.028918 0.011029 -0.028458 0.041717 -0.014438 -0.051657 -0.10852 -0.093132 -0.13313 -0.021092 -0.044836 -0.060813 0.099476 -0.035091 0.035639 0.058562 -0.052443 0.04565 0.021848 0.025472 -0.12669 0.12612 -0.024621 0.048289 -0.0072492 -0.041069 0.028477 0.05495 0.018875 0.086352 0.037096 0.10081 0.096133 0.14396 -0.0013256 0.010236 0.0073526 0.091507 0.0074511 0.038274 -0.15617 -0.022129 0.031921 -0.040117 -0.052742 -0.059749 0.075559 -0.026075 0.017661 0.08564 0.0057872 0.0021813 0.01594 0.097971 -0.010307 -0.086316 -0.082554 -0.010937 0.095431 0.053664 -0.015554 0.1241 0.10182 0.037596 0.088575 -0.016529 
<ind> 0.014202 -0.034316 -0.021853 -0.040232 0.0093185 0.054969 0.022391 0.013835 -0.045189 -0.066765 -0.051622 0.034071 0.049796 0.022895 -0.084976 -0.0093474 -0.068248 0.019054 0.015302 -0.053924 0.052183 0.047735 -0.0093759 0.050703 -0.06976 -0.16168 -0.001958 -0.020831 -0.073339 0.016559 -0.11159 -0.02197 0.0025745 0.066926 -0.098746 -0.024075 -0.012496 0.033947 -0.0044604 -0.012222 -0.004538 -0.0094466 -0.056915 -0.023157 -0.055539 0.11158 0.046332 0.0093581 -0.016785 0.12463 -0.0037522 -0.075994 -0.023018 -0.012589 -0.0016847 -0.099498 0.06292 -0.024631 -0.044116 0.0035447 -0.044376 -0.0087848 0.079337 0.05383 -0.067351 0.0067397 -0.014241 0.030691 -0.047579 -0.11349 -0.026517 0.13611 -0.057029 0.055084 0.018213 0.046457 0.037202 -0.053695 0.058274 -0.062016 -0.0029613 0.035005 0.007528 -0.0058443 -0.079162 -0.035231 0.012473 -0.011868 -0.060223 0.034954 0.020659 -0.054221 0.049403 -0.030801 0.0020083 -0.070199 0.053105 0.022761 0.06553 0.0085077 -0.019764 -0.016678 0.0080541 -0.07174 0.021434 0.014315 -0.032329 -0.033566 -0.018101 0.060025 -0.0035949 0.063935 -0.0024872 0.074072 -0.035352 0.051031 -0.085428 -0.05313 0.033097 0.0205 -0.0034308 0.077438 0.034098 0.060545 -0.026799 -0.059145 0.005652 -0.0099723 0.0020911 -0.047291 -0.063801 0.055205 -0.0014647 -0.1195 -0.011626 0.070847 -0.013677 0.067428 -0.076448 -0.03052 -0.026885 -0.053113 0.069174 0.0083864 0.017065 -0.0021436 0.0037887 0.025102 -0.0091814 -0.0016591 0.030062 0.066027 0.01648 0.020261 -0.066913 0.0024957 -0.01736 -0.030253 -0.039151 -0.058798 0.014696 -0.093663 0.10002 -0.022109 0.023471 0.053284 0.010307 -0.033262 -0.093323 -0.055437 -0.071358 0.029122 -0.02852 -0.0043888 -0.13272 0.069231 0.012275 -0.033105 -0.099408 -0.029233 -0.027324 -0.021225 -0.008421 0.0037373 0.073506 0.035019 -0.010456 -0.043818 -0.029672 -0.0026688 -0.086011 0.0091795 -0.0011351 0.072794 0.020715 0.046205 -0.037382 0.024057 0.053178 -0.078082 0.019508 -0.051732 -0.029097 -0.11085 -0.0068431 -0.032667 0.017486 -0.01156 -0.048001 -0.044177 -0.055239 0.080198 0.0072311 0.068176 0.043407 -0.031841 -0.021164 0.032231 0.022165 -0.03229 0.010873 0.0099042 -0.012398 -0.076917 -0.12906 -0.11295 0.04819 -0.10167 -0.062779 -0.029673 -0.0055278 0.065016 0.004738 -0.038464 0.011097 -0.0035433 -0.021865 -0.019959 -0.058064 0.0046502 -0.10844 -0.16101 -0.13722 -0.019739 -0.055285 -0.0058465 0.093168 -0.005058 0.027897 0.02682 -0.037011 -0.021039 -0.032916 -0.0028552 -0.14028 0.014071 -0.039648 0.089539 0.040683 -0.047557 0.025962 0.012984 0.073747 0.081897 0.081918 0.010838 -0.027711 0.040558 -0.0018647 -0.015189 -0.0085111 0.06098 0.035906 0.031978 -0.072719 -0.019725 -0.06312 -0.12085 -0.056328 -0.052217 0.061261 0.072984 0.052369 0.054229 0.0044504 -0.078832 0.069325 0.17039 -0.033996 -0.057385 -0.12583 0.059023 -0.010812 0.0020437 -0.0026 0.060228 0.030831 -0.051384 0.1035 0.040061 
num 0.048684 0.049433 -0.067317 -0.072441 0.12891 0.035458 0.017444 0.063792 0.074024 -0.071661 -0.078886 0.036877 -0.0091081 -0.0029437 -0.032224 -0.20849 -0.13747 0.086362 0.0021538 0.078165 0.15111 0.065752 0.072636 -0.067913 0.0079521 -0.098782 0.05291 -0.089588 -0.10875 -0.0077481 -0.10993 -0.058016 -0.046794 0.024073 -0.27144 0.049981 -0.068342 0.12176 -0.10618 -0.030927 -0.070456 -0.11225 -0.028923 -0.013194 -0.053027 0.053652 -0.057493 -0.037496 0.046454 0.024592 0.035474 0.014171 0.019043 0.094261 -0.018859 -0.14866 0.0032035 -0.17551 -0.12129 0.095788 -0.10476 -0.0043437 -0.038012 0.12744 0.0038192 -0.1565 -0.026245 0.17874 -0.053762 -0.10255 -0.036312 -0.03361 -0.1011 0.050512 0.022131 0.054828 -0.022364 0.063552 0.065408 -0.061484 0.026101 -0.26447 0.080642 -0.018178 -0.11008 -0.1336 0.055604 -0.031566 0.092295 0.043285 0.10505 -0.048205 0.044925 0.0129 0.036798 0.026163 0.081363 -0.025878 -0.0034252 -0.015623 -0.053993 -0.0949 -0.068847 -0.10451 0.067837 -0.007268 0.096457 -0.12242 -0.082817 0.079743 0.030417 -0.015514 -0.11476 -0.024764 -0.006318 0.11321 0.015386 -0.094402 0.097176 0.027674 -0.064301 0.075229 -0.053949 0.1821 -0.054668 -0.27683 -0.002147 0.03985 0.038775 -0.029285 -0.055277 0.028204 -0.023566 -0.01622 0.023844 -0.033283 -0.14323 0.11414 -0.20085 -0.0043379 -0.076297 -0.058191 0.022481 -0.0045882 -0.0011705 0.11154 0.088901 0.024897 -0.034423 0.02395 0.1387 0.074609 0.21313 0.03725 -0.24364 0.050959 0.03711 -0.099312 0.089729 -0.021511 0.030349 0.027487 -0.1254 0.029826 -0.069709 0.10061 0.14913 -0.0045298 -0.042738 -0.14306 -0.10406 0.049009 0.029983 0.060025 -0.052404 0.011145 -0.11099 -0.013957 -0.099317 0.043792 -0.0081205 -0.012262 -0.014343 0.092995 0.1424 0.084443 0.049934 -0.069124 -0.059882 0.090022 -0.077547 0.085645 -0.02735 0.012508 0.080044 0.1181 -0.079356 -0.020005 -0.058936 -0.097627 0.086942 0.048961 -0.039466 0.048756 -0.045603 0.12742 0.091036 0.013656 0.056913 0.21267 -0.10941 0.11389 -0.11113 -0.0080449 0.098656 0.021388 0.03361 -0.17221 0.0020572 0.01041 0.0047599 -0.046037 -0.063166 0.063132 -0.06696 -0.10893 0.11579 -0.044461 0.016669 -0.031165 -0.044946 0.074334 -0.071563 -0.17804 0.073201 -0.02364 0.079792 -0.088365 0.053728 0.0097597 -0.15067 -0.080827 -0.10684 0.068446 0.024141 -0.093968 0.069361 -0.042172 0.050932 -0.032128 0.0083448 0.057939 0.14628 -0.057105 -0.055276 0.068636 0.087793 0.084531 -0.081363 0.040779 0.016945 0.06897 0.072582 0.066125 0.098651 0.03681 0.17394 0.092986 0.0091621 0.12145 0.07108 0.11112 0.093818 0.12366 -0.09588 0.0095285 0.010331 -0.017155 -0.017588 -0.14702 0.026495 0.10637 0.12793 0.12242 0.0056709 -0.056029 0.16143 0.080795 -0.031349 -0.10759 0.027021 -0.019245 0.13301 0.043649 -0.0002927 0.19519 -0.057266 0.059714 0.16698 -0.080805 
<pp> 0.034205 -0.054317 -0.030696 -0.14492 0.044881 0.16136 0.080076 -0.037042 -0.04682 -0.026496 -0.043168 0.11689 0.072072 0.034237 -0.098664 -0.031269 -0.11811 0.049941 -0.0041062 -0.011376 0.047367 0.056579 -0.023495 0.077459 -0.015459 -0.040479 -0.010948 0.025219 -0.17812 0.010312 -0.18378 0.0060386 -0.011112 0.091587 -0.13295 -0.057351 0.067055 0.095634 0.075224 -0.11658 -0.00086198 0.027679 0.0063465 0.017483 -0.12509 0.16241 0.035527 0.056588 0.033091 0.12352 -0.014219 -0.11321 -0.089977 0.058257 0.059989 -0.092293 0.035643 -0.10011 0.073667 0.059723 -0.0081898 0.028647 0.030303 -0.031995 -0.12297 0.0086422 -0.043485 0.030538 -0.095255 -0.15426 -0.035719 0.092052 -0.065957 0.024088 0.015703 -0.045919 0.048777 -0.10301 0.031355 0.0044498 0.038511 0.023015 0.0089621 0.055396 -0.081035 -0.0087013 0.026844 -0.018435 -0.024725 -0.027541 0.0027618 -0.041624 0.040332 0.033946 0.010635 -0.1244 0.086092 -0.015126 0.068828 0.036114 -0.10003 -0.000774 -0.0026023 -0.059215 -0.02085 0.034906 0.032452 -0.099916 0.011231 0.035841 -0.030883 0.087428 -0.03126 0.057243 0.012186 0.13726 -0.042514 -0.029467 0.048755 0.1258 -0.02354 0.036153 -0.01919 0.10021 -0.014912 -0.18084 -0.082702 -0.030761 -0.051654 -0.11715 -0.052754 0.073282 0.016868 -0.034916 -0.024961 0.036934 0.016553 0.028003 -0.0094141 -0.05038 -0.14005 -0.026485 0.088079 0.034864 0.038167 -0.041235 -0.04945 0.02471 -0.076093 -0.044434 -0.061171 0.035496 0.018623 -0.0039908 -0.07854 -0.02551 -0.0020389 -0.074267 -0.049154 -0.062812 0.10944 -0.25964 0.18834 -0.04455 0.052953 0.074932 0.061132 -0.059407 -0.066052 -0.022778 0.017353 -0.0015954 0.064684 -0.013758 -0.1982 -0.0014112 0.088025 -0.0040778 -0.15315 -0.028115 -0.049864 -0.022855 0.075406 -0.0022395 0.060155 0.068635 -0.046002 -0.068735 -0.020047 0.010836 -0.059783 -0.052694 -0.013414 0.16711 -0.047691 0.040117 -0.030914 0.06338 0.11407 -0.041474 0.029344 -0.074979 -0.059546 -0.066785 -0.057449 -0.097363 -0.0031397 0.051605 0.022432 -0.048366 -0.093122 0.104 -0.11262 0.075689 -0.019501 -0.070629 -0.017818 0.0088353 0.00030475 0.023869 -0.002824 -0.094855 -0.013876 -0.10492 -0.17895 -0.13504 -0.02464 -0.062709 -0.026873 -0.035736 -0.0017811 -0.025273 0.0061082 -0.072991 0.036368 -0.044313 -0.09572 0.070521 -0.006859 -0.0024838 -0.10449 -0.17686 -0.11573 0.050805 -0.058515 -0.0019562 0.097689 -0.00447 -0.0076242 0.025001 -0.031782 -0.019587 -0.045236 -0.047647 -0.079872 0.050901 -0.043425 0.11109 0.032394 -0.042272 0.084138 0.049113 0.13594 0.060134 0.048239 0.054962 0.10792 0.017688 -0.068748 -0.037244 -0.023683 0.07498 -0.0013502 0.013724 -0.13665 -0.03189 -0.029173 -0.12807 -0.031755 -0.015088 -0.0052179 0.033637 0.072235 0.02586 -0.030516 -0.060378 0.042443 0.064502 -0.027126 -0.01223 -0.1131 0.028662 -0.071104 0.06331 -0.0041652 0.069551 -0.036857 0.022747 0.10065 0.074316 
<cnjsub> 0.0040975 -0.10414 -0.059625 -0.058906 0.061789 0.041977 0.046905 0.040109 0.0026598 -0.08472 -0.025468 0.051613 0.018258 0.045867 -0.056706 0.0070025 -0.046799 0.025658 0.022102 -0.028061 0.038336 0.022245 -0.020234 0.037386 -0.056048 -0.068101 0.0049642 0.037867 -0.099895 0.023611 -0.10503 0.012482 -0.014051 0.073669 -0.082973 -0.039264 0.029857 0.067014 0.0010209 -0.012719 -0.010067 -0.014874 0.03802 -0.015135 -0.049968 0.094934 0.040731 -0.022808 0.0027425 0.1327 -0.022465 -0.099388 -0.026673 0.047766 0.0038906 -0.092879 0.062857 -0.053824 -0.001744 0.0063265 -0.020551 -0.05578 0.0809 0.050699 -0.03569 0.013495 -0.047328 0.085392 -0.039392 -0.12577 -0.042017 0.12886 -0.047747 0.042874 -0.021843 -0.040588 0.078466 -0.081095 0.062001 0.012888 -0.05653 0.14052 0.085853 -0.14946 -0.046741 -0.057201 -0.041482 -0.063446 -0.048029 0.034536 0.00023683 -0.050466 0.018234 -0.018257 -0.019299 -0.063684 0.0093119 0.0076798 0.031683 0.035244 -0.023283 -0.021307 -0.066171 -0.036637 -0.020842 0.020571 -0.019561 -0.072931 -0.012695 0.046029 -0.002545 0.0095001 0.0088856 0.068082 -0.025761 -0.0024219 -0.060664 -0.027468 -0.000812 0.057506 -0.014637 0.048059 0.011099 0.031873 -0.065005 -0.10964 -0.020758 -0.1014 -0.0089725 0.01136 -0.061129 0.086137 -0.013474 -0.074887 -0.0085838 0.0032466 0.0034459 0.043501 -0.054341 0.021447 -0.047726 -0.051974 0.027072 -0.011472 0.034615 0.046762 -0.074237 -0.031355 0.014064 0.020082 -0.0050039 0.017282 -0.033209 0.021083 0.0018263 -0.018537 -0.028106 -0.043634 -0.065286 -0.027688 0.069707 -0.13447 0.099602 -0.052304 -0.013716 0.0067419 0.041117 -0.074992 -0.039447 0.0048855 -0.11726 0.038543 0.025355 -0.0092347 -0.10882 0.034858 0.062639 -0.0026954 -0.1021 0.041108 -0.031529 -0.03584 0.020815 -0.016554 0.13716 0.066058 -0.019206 -0.039289 0.0040987 -0.024921 -0.0055953 0.016983 0.060065 0.062529 -0.034111 -0.028811 -0.027927 0.042126 0.088861 -0.024324 0.0043999 -0.032563 -0.041144 -0.076272 -0.0016279 -0.075881 0.057953 -0.027476 -0.012923 -0.064382 0.0080721 0.076993 -0.031378 0.033097 0.0020519 -0.057929 -0.050507 0.044594 0.014741 0.025801 0.040101 -0.021757 -0.076287 -0.062791 -0.087098 -0.060883 0.068072 -0.082326 0.0094905 -0.037084 -0.028558 0.046936 0.054351 -0.1092 -0.008115 -0.02677 -0.01006 0.051105 -0.034555 -0.047461 -0.086219 -0.095119 -0.10776 -0.022339 -0.0073993 0.021206 0.14072 0.0015011 -0.016543 0.01965 -0.032217 -0.0364 -0.01195 -0.016661 -0.096188 0.010064 -0.02024 0.10368 0.055995 -0.056736 0.037511 -0.025403 0.032749 0.040172 0.018917 0.040144 0.045105 0.036714 -0.00079405 0.0078221 -0.0098113 0.023387 -0.056005 0.018568 -0.072667 -0.033409 -0.063891 0.0091255 -0.034626 -0.023548 0.029936 0.039825 0.010436 0.03225 -0.009339 -0.045652 0.079355 0.094617 -0.0055438 -0.043292 -0.13299 0.036832 0.039168 0.038369 -0.022526 0.034412 0.02609 -0.015857 0.090307 0.072067 
<pos> -0.0068385 -0.047566 -0.042442 -0.031092 0.07733 0.032175 0.038187 0.050841 0.043499 -0.05353 -0.008313 0.047673 0.0071631 0.03379 -0.035921 -0.028944 -0.045257 0.054735 0.021147 0.012422 0.068377 0.010716 -0.0055259 -0.015591 -0.052362 -0.074723 0.0084739 -0.0085414 -0.098872 0.011291 -0.14043 0.03213 -0.039379 0.067616 -0.096506 -0.0028359 -0.015856 0.043494 -0.035544 0.0027565 0.0012837 -0.048438 0.013834 -0.037823 -0.052344 0.060999 0.02368 -0.012452 0.027909 0.10723 -0.0024814 -0.066349 0.028183 0.055015 0.0089556 -0.084567 0.041433 -0.053061 -0.029727 0.02221 -0.043008 -0.043956 0.051189 0.10183 0.0059501 -0.010511 -0.02531 0.082503 -0.025433 -0.10001 -0.044855 0.06396 -0.074233 0.061247 -0.015752 -0.021835 0.050044 -0.04649 0.070204 0.0072722 -0.1274 0.12715 0.17911 -0.26667 -0.022287 -0.064818 -0.050987 -0.06856 -0.012401 0.036082 0.02414 -0.038733 0.027341 -0.035464 -0.00523 -0.015749 0.016129 -0.013489 0.028604 0.018242 -0.030496 -0.034288 -0.059391 -0.026176 -0.010096 0.01844 0.0015495 -0.074814 -0.058665 0.04498 -0.013537 -0.043058 -0.043011 0.063074 -0.034189 -0.0085701 -0.044521 -0.015255 -0.033471 0.0091854 -0.027017 0.068999 0.0064693 0.050137 0.00070937 -0.028278 -0.0025069 -0.029967 -0.0078846 0.016249 -0.048077 0.10142 -0.02329 -0.055559 0.021828 -0.030907 -0.028246 0.051526 -0.081843 0.028018 -0.0088418 -0.059712 0.016254 -0.035447 0.0034771 0.085335 -0.036197 -0.019142 0.047029 0.042812 0.035065 0.030437 0.027275 0.047799 -0.031315 -9.9468e-06 0.030003 -0.058695 -0.04851 -0.020273 0.030984 -0.076215 0.042331 -0.046782 -0.058138 0.010145 0.049612 -0.070524 -0.024455 0.005341 -0.13843 0.041469 0.017452 -0.0038164 -0.041713 0.036076 0.021625 -0.023281 -0.1001 0.062556 -0.014309 -0.048219 -0.0082112 0.015443 0.15096 0.051022 -0.0097879 -0.049752 0.0011658 -0.013058 -0.01449 0.042632 0.055927 0.022971 -0.007483 -0.010298 -0.020591 0.043862 0.04235 -0.033843 0.028609 -0.0013693 -0.027041 -0.042974 -0.026554 -0.02415 0.073803 -0.048499 0.0071841 -0.0057243 0.022293 0.072191 -0.024186 0.037827 0.042111 -0.027438 -0.036011 0.02504 0.012465 -0.0030777 0.039027 -0.010544 -0.083121 -0.019103 -0.061323 -0.075069 0.091257 -0.076285 0.0043483 -0.02064 -0.028011 0.063154 0.030996 -0.16489 0.021122 -0.023622 0.038504 0.040141 -0.0027095 -0.034817 -0.07574 -0.078798 -0.1193 -0.01871 0.014705 0.010656 0.12878 0.03264 -0.02079 0.01407 -0.031318 -0.013655 0.002355 -0.017448 -0.073304 -0.017721 0.0022577 0.14381 0.029114 -0.032253 0.043364 -0.031085 -0.0018938 0.064246 -0.0028074 0.017834 0.05414 0.037776 0.0075938 0.045807 0.011678 0.027892 -0.017688 0.026506 -0.059428 -0.019867 -0.084506 0.019081 -0.0080818 -0.024989 0.024143 0.070538 0.017459 0.05444 -0.025451 -0.029026 0.12418 0.11404 -0.012365 -0.055182 -0.072632 0.054415 0.066512 0.043066 -0.019978 0.061206 0.061345 -0.013808 0.14829 0.059453 
<p2> -0.091232 -0.13445 -0.089448 -0.13491 0.16558 -0.014297 -0.036326 0.14191 0.095366 -0.044781 0.01463 0.035842 0.027766 0.20713 0.063429 0.14259 -0.06175 0.065471 -0.055917 0.00073431 -0.035657 -0.063325 0.0093748 -0.097546 -0.04957 -0.064832 0.051344 0.061587 -0.22629 0.051013 -0.17785 0.03087 0.014209 0.14684 -0.015528 -0.078051 -0.011131 -0.09814 0.025095 -0.0021586 -0.059157 0.049242 0.081263 -0.1043 -0.041329 0.029497 -0.10385 -0.077786 0.041188 0.070625 -0.11406 -0.14333 0.10138 0.031541 -0.013754 -0.036122 0.0011978 -0.13306 -0.051363 -0.07881 0.0029571 -0.13029 0.0077327 0.042453 -0.033125 0.043589 -0.11083 0.1793 -0.034477 -0.20127 0.080205 0.31934 -0.098065 0.14653 0.020399 -0.01756 0.12187 -0.083635 0.040391 0.033458 0.016674 0.14281 -0.1187 0.068158 -0.0017468 -0.063669 -0.1389 -0.09239 -0.015563 0.046648 -0.0051922 -0.10181 -0.046349 -0.13212 0.034863 -0.0092346 -0.011236 -0.041351 0.088853 0.042446 0.023771 -0.001176 -0.1178 -0.041333 -0.099305 0.00080118 -0.16692 0.045664 0.043829 0.058131 -0.0058311 -0.087766 0.14491 0.13291 -0.0013854 -0.040931 0.047575 0.026894 -0.094891 0.068517 -0.037208 0.017915 0.046253 -0.010674 -0.094959 0.02525 0.046311 -0.084606 0.0064201 0.054431 0.024105 0.056152 -0.060556 -0.17957 0.0061866 -0.056642 -0.048063 0.13956 -0.072124 0.053202 0.012382 -0.13694 -0.030816 -0.20069 0.043068 0.18633 -0.060536 -0.11516 0.066044 -0.055525 -0.067155 -0.045352 -0.081523 0.1599 0.1086 -0.087107 -0.040656 0.0080176 -0.18754 0.040695 0.10745 -0.2487 0.10672 -0.13281 -0.0091535 0.074776 0.010839 -0.15541 0.0052331 -0.075017 -0.16133 0.14169 0.010458 -0.0075301 -0.036144 -0.0096325 0.06723 -0.080034 -0.082871 0.12976 -0.017115 0.032159 -0.022494 0.049854 0.21433 0.098415 0.073932 0.021452 -0.057539 -0.071843 0.013063 -0.055346 0.012997 -0.17027 -0.04338 -0.18126 -0.0015428 0.070158 0.073525 0.019731 0.016329 -0.033065 0.00067189 -0.084087 0.05614 -0.089418 0.16825 -0.074622 -0.026526 -0.073267 -5.1218e-05 -0.008405 0.0047084 -0.084163 -0.050635 -0.1882 -0.26056 0.098478 0.024584 0.031115 0.11958 -0.017474 -0.051794 -0.061529 0.041718 0.040711 0.22732 -0.10749 0.013164 -0.044967 0.015387 0.1469 0.0042542 -0.016732 0.051342 -0.074461 0.03867 -0.024649 0.080637 -0.077061 -0.087942 -0.019226 -0.084646 -0.053893 0.065539 0.048645 0.28231 0.094791 -0.090982 -0.05585 -0.025639 -0.17694 -0.046721 -0.065779 -0.01891 -0.17537 -0.0080454 0.17147 0.15382 -0.055977 0.068508 -0.14092 -0.011574 -0.039753 -0.027484 -0.032865 0.050682 -0.09846 -0.0021675 0.045431 0.043588 -0.013576 -0.23716 -0.012213 0.0084671 -0.052605 -0.20769 0.18279 -0.013203 0.10861 -0.044519 0.09551 -0.0518 0.028653 0.0092822 -0.10239 0.18339 0.0039173 0.033722 -0.020087 -0.069109 0.080945 0.033609 0.0233 -0.032644 -0.059365 -0.065376 -0.097582 0.14883 0.19567 
<dem> -0.00098213 -0.081667 -0.028442 -0.02018 0.056562 0.008033 0.012714 0.068172 0.015683 -0.088065 -0.0075393 0.0092916 0.037228 0.049991 -0.044523 0.01963 -0.030424 0.037961 0.0057869 -0.034952 0.034106 0.013326 0.0011815 0.0018438 -0.054354 -0.10853 0.0043752 0.011212 -0.050415 -0.006053 -0.074743 0.0094203 -0.024031 0.064935 -0.079882 -0.011188 -0.0094391 0.02448 -0.028446 0.011576 -0.0073333 -0.044706 -0.0035402 -0.054771 -0.031275 0.054172 0.01854 -0.0098821 -0.00457 0.086275 -0.046569 -0.062609 0.028174 0.054406 -0.0046384 -0.08893 0.056268 -0.027065 -0.039839 0.0094108 -0.042464 -0.066293 0.077923 0.094809 -0.019166 -0.0052369 -0.024706 0.099068 -0.033973 -0.11191 -0.023519 0.1539 -0.0579 0.076505 -0.017131 -0.0015466 0.056099 -0.049423 0.057656 -0.0063394 -0.053933 0.10158 0.078723 -0.16152 -0.031543 -0.076529 -0.041636 -0.064603 -0.024344 0.064951 0.0092569 -0.047693 0.0060671 -0.056538 0.012867 -0.030156 0.0027633 0.00033732 0.04425 0.027923 0.005663 -0.024836 -0.080581 -0.065137 -0.020967 0.018055 -0.049097 -0.043556 -0.036457 0.051994 0.0012295 -0.00094083 0.015869 0.075515 -0.040264 -0.049861 -0.067847 -0.032084 -0.039549 0.002928 -0.031079 0.087063 0.035047 0.030305 0.0035543 0.048892 0.020881 -0.020569 0.020323 0.039277 -0.043081 0.07838 -0.0253 -0.10026 0.020088 -0.0014789 -0.028372 0.091429 -0.072828 -0.0039464 0.0039264 -0.08759 0.011629 -0.029578 0.010387 0.083348 -0.012604 -0.033615 0.042456 0.029768 0.033715 0.025668 -0.0062352 0.060073 -0.0040173 0.01202 -0.022091 -0.042604 -0.058041 -0.033904 -0.012557 -0.019825 0.02216 -0.04468 -0.038561 0.012277 0.02356 -0.068864 -0.036102 -0.023081 -0.10454 0.050594 -0.010733 0.0045867 -0.062823 0.072418 0.010156 -0.034661 -0.097603 0.046196 -0.040199 -0.0069856 -0.012171 0.0205 0.15992 0.063508 0.0034809 -0.034725 -0.026669 -0.019875 -0.04083 0.032712 0.025698 -0.016051 -0.016291 -0.047132 -0.044492 0.050981 0.067457 -0.05931 0.021266 -0.026043 -0.015165 -0.077332 0.0034618 -0.045027 0.071824 -0.037481 -0.013318 -0.041596 -0.0052776 0.059089 0.019078 0.0089037 0.038859 -0.04473 -0.064215 0.04129 0.021105 -0.005436 0.036787 -7.4253e-05 -0.074099 -0.047027 -0.0747 -0.073751 0.11009 -0.089667 -0.0081966 -0.034369 -0.015472 0.084519 0.041299 -0.11622 0.0012988 -0.01887 0.020508 -0.011534 -0.014804 -0.037764 -0.07586 -0.11975 -0.12653 -0.040228 -0.010595 0.0035535 0.14634 0.018156 -0.015935 0.00068071 -0.026982 -0.037084 -0.01998 -0.022133 -0.10804 -0.03115 -0.0092137 0.13246 0.08413 -0.054072 0.043943 -0.02865 0.008932 0.06319 0.033565 0.013922 0.022631 0.0066469 0.022698 0.023252 -0.0038573 0.024855 -0.031051 0.024721 -0.057446 -0.020924 -0.10848 0.0089848 -0.0315 -0.043863 0.053692 0.058231 -0.0004394 0.046746 -0.023986 -0.059315 0.1008 0.15254 -0.0020662 -0.071364 -0.1152 0.055654 0.04627 -0.010227 -0.010086 0.032739 0.072219 -0.05351 0.13476 0.097667 
<obj> -0.0071024 -0.145 -0.1114 0.012726 0.088989 -0.0767 0.016307 0.12073 0.08235 -0.15376 0.011488 -0.0019716 -0.019664 0.047635 -0.033931 0.018633 -0.0065236 0.037003 0.047186 -0.053473 0.050568 -0.021034 -0.0039362 -0.047319 -0.073799 -0.041992 0.036294 0.035174 -0.044944 0.039288 -0.030445 0.036959 -0.035312 0.058309 -0.068524 -0.015513 -0.020503 0.053412 -0.087144 0.078098 -0.025744 -0.08943 0.078778 -0.041286 -0.0030987 0.046211 0.018738 -0.10122 -0.005034 0.12776 -0.038639 -0.070788 0.032662 0.093322 -0.043542 -0.085479 0.083847 -0.021894 -0.06998 -0.038814 -0.0065729 -0.10919 0.092377 0.11403 0.066581 -0.0077676 -0.052604 0.16815 -0.009993 -0.098131 -0.023706 0.13244 -0.059165 0.070135 -0.07436 -0.049557 0.094037 -0.041116 0.078199 0.057773 -0.16782 0.24874 0.23267 -0.40603 -0.0041158 -0.12047 -0.13015 -0.10306 -0.0042411 0.072406 0.013519 -0.061922 0.0059326 -0.064921 -0.043257 0.0030589 -0.065939 0.018197 -0.02005 0.034974 0.031734 -0.047954 -0.15436 0.0068952 -0.012671 0.013769 -0.034626 -0.069098 -0.06174 0.058986 0.016656 -0.096634 0.00038696 0.032477 -0.044094 -0.11374 -0.049321 -0.0006342 -0.058293 -0.00047377 -0.021129 0.057909 0.0093758 -0.032817 -0.11913 -0.082615 0.029421 -0.15424 0.056249 0.13934 -0.08917 0.10478 -0.088497 -0.093558 -0.0027304 -0.075699 -0.0075895 0.085911 -0.099569 0.094597 0.021827 -0.065332 -0.03635 -0.048314 0.016337 0.17019 -0.10204 -0.1056 0.1011 0.075124 0.04457 0.012386 -0.033072 0.046591 0.058705 -0.016238 -0.032997 -0.027806 -0.066155 0.030887 0.031346 0.027988 -0.018291 -0.032809 -0.10366 -0.060506 0.054419 -0.10244 -0.00043162 0.056036 -0.19746 0.046983 0.0021589 0.012284 0.017208 0.061096 0.029917 -0.0045585 -0.067002 0.14044 -0.010997 -0.030175 -0.032514 0.0093653 0.21026 0.06871 0.005022 -0.0063376 0.022784 -0.014054 0.062951 0.080829 0.14149 -0.047239 -0.01939 -0.096141 -0.074109 0.047352 0.047436 -0.0096706 -0.013147 0.020148 -0.022907 -0.050877 0.018807 -0.023529 0.15137 -0.074236 -0.027667 -0.07658 0.096777 0.051071 0.0024346 -0.029294 0.026659 -0.049283 -0.074625 0.045764 0.016786 0.021948 0.066355 0.03614 -0.16963 0.0039341 0.020697 0.022019 0.17735 -0.10649 0.058375 -0.03896 -0.046112 0.126 0.10553 -0.19229 -0.035312 -0.011677 0.084781 0.022556 -0.0056549 -0.11397 -0.078414 0.0058762 -0.095411 -0.07148 0.06465 0.0077423 0.2058 0.02905 -0.056648 -0.023579 -0.021761 -0.03753 0.04687 0.02472 -0.087619 -0.042727 0.036 0.11076 0.064336 -0.056663 -0.0034081 -0.10043 -0.061388 0.018506 -0.0091375 0.032424 0.052443 0.046814 0.07285 0.083647 0.023322 -0.0066532 -0.10716 0.022774 -0.05471 -0.012442 -0.097602 0.17861 -0.0020654 0.0041036 0.057711 0.043759 -0.060447 0.06242 0.018623 -0.035746 0.14546 0.090269 0.039168 -0.083699 -0.10733 0.034426 0.17568 0.022275 -0.058012 0.0051548 0.096484 -0.032374 0.1372 0.11177 
<ger> 0.0084977 -0.026964 -0.0173 -0.048923 0.02615 0.049661 0.015027 0.030071 -0.017848 -0.064602 -0.03598 0.043882 0.059945 0.030332 -0.075015 0.0041531 -0.083225 0.028286 -0.0027222 -0.049627 0.037551 0.01925 0.0016213 0.029394 -0.063962 -0.12162 -0.0011337 -0.026657 -0.10166 0.022533 -0.12692 -0.0025843 0.019383 0.0678 -0.08218 -0.032876 -0.010577 0.042079 0.0021031 -0.013715 -0.0099944 -0.012948 -0.0448 -0.027361 -0.060082 0.11987 0.011833 0.0012072 0.0086566 0.14036 -0.019009 -0.08707 -0.021555 -0.00027707 -0.011863 -0.059477 0.035121 -0.030335 -0.022104 0.00072333 -0.028769 0.016189 0.041772 0.041922 -0.077482 0.0095783 -0.028898 0.027738 -0.074074 -0.11177 -0.0079917 0.12786 -0.083023 0.062347 0.0076851 0.020721 0.040896 -0.061608 0.054808 -0.030023 -0.029715 0.051327 0.032426 -0.019902 -0.044717 -0.026703 0.012364 -0.017104 -0.029911 0.04179 0.032793 -0.049961 0.041 -0.037484 -0.005545 -0.079288 0.046304 -0.002581 0.071855 0.0023222 -0.024068 -0.018348 -0.00067218 -0.06633 0.014436 0.025488 -0.028947 -0.019156 -0.015314 0.042133 -0.032031 0.059435 0.00023012 0.053743 -0.021034 0.084435 -0.055141 -0.024794 0.028957 0.030657 -0.010833 0.065511 0.01983 0.044379 -0.055286 -0.094517 0.0068126 -0.028157 0.021186 -0.041956 -0.048178 0.047536 -0.010376 -0.094104 -0.016098 0.021307 -0.0048862 0.076516 -0.070267 -0.00087612 -0.041872 -0.051689 0.054679 -0.018316 0.011342 0.021366 8.6355e-05 0.019083 -0.0064553 -0.027386 0.027257 0.051268 0.028313 0.025953 -0.038596 -0.024592 -0.015868 -0.036852 -0.033949 -0.042516 0.041011 -0.093731 0.11477 -0.019037 0.027153 0.072941 0.0098056 -0.051379 -0.080058 -0.042365 -0.07579 0.023312 -0.00032384 -0.0055777 -0.11418 0.042543 0.027725 -0.051728 -0.10337 -0.0034818 -0.009234 -0.0029809 -0.0045664 0.018316 0.084786 0.050587 -0.0019042 -0.041985 -0.018666 0.018739 -0.078497 -0.0058031 0.017062 0.063193 0.018579 0.021235 -0.041281 0.029272 0.063933 -0.083182 0.033173 -0.043056 -0.031081 -0.099295 -0.0047586 -0.035484 0.050168 0.00062149 -0.037498 -0.063432 -0.038985 0.071041 -0.018755 0.045759 0.017783 -0.054798 -0.049638 0.044983 0.014713 -0.023778 0.0026538 0.0058268 -0.020377 -0.059481 -0.10299 -0.10137 0.060138 -0.11453 -0.053218 -0.040659 0.017311 0.061694 0.0010415 -0.045736 0.026645 -0.022986 -0.020903 -0.0060985 -0.034181 -0.010427 -0.10118 -0.14618 -0.11547 0.010362 -0.030581 0.00029031 0.12348 0.010402 -0.0032487 -0.014633 -0.028868 -0.02948 -0.013157 -0.018219 -0.12017 -0.027894 -0.023599 0.11336 0.053447 -0.044839 0.029853 -0.005231 0.089077 0.069857 0.079057 0.0053639 0.0078344 0.0051827 0.0058945 0.012342 -0.0011784 0.054435 0.035752 0.038601 -0.077793 0.0006546 -0.084125 -0.080829 -0.033734 -0.034237 0.041864 0.086621 0.049617 0.051257 -0.00016189 -0.086958 0.099508 0.13796 -0.025854 -0.056519 -0.11603 0.060331 -0.0017049 0.012332 -0.010455 0.04201 -0.0061228 -0.029072 0.11431 0.066828 
<sp> -0.10494 -0.075173 -0.017554 -0.081729 0.1421 -0.0060375 0.0021729 0.11109 0.071524 0.0067804 0.042487 0.014064 0.049583 0.25529 0.052757 0.15049 -0.0028934 0.065315 -0.048546 -0.0011798 -0.083358 -0.047139 -0.021191 -0.12197 -0.071781 -0.042371 0.0097396 0.059723 -0.19043 0.010855 -0.18248 0.074594 -0.014087 0.11459 0.036219 -0.066999 -0.088251 -0.087068 0.055832 -0.037938 -0.055335 -0.00050322 0.089049 -0.14659 -0.06608 -0.042753 -0.11492 -0.016944 0.048859 0.098089 -0.11883 -0.15575 0.10625 0.066039 0.015192 0.026776 -0.051828 -0.10526 -0.0036846 -0.10625 -0.023976 -0.13195 -0.013739 0.11356 -0.040538 0.071675 -0.066321 0.10914 -0.033968 -0.14253 0.054647 0.28269 -0.097117 0.12162 -0.0047465 -0.051645 0.10684 -0.097407 0.055503 0.094157 -0.019806 0.12671 -0.10555 0.0076823 -0.01542 -0.02285 -0.10987 -0.091306 -0.025452 0.041925 0.0072995 -0.057925 -0.05985 -0.10569 0.047661 0.053707 0.0097605 -0.029705 0.078778 0.0051488 0.042879 -0.0135 -0.072733 -0.070576 -0.111 0.020663 -0.12687 0.068399 0.01738 0.01382 -0.039791 -0.091895 0.13952 0.12717 -0.050048 -0.073589 0.040726 -0.00038183 -0.13962 0.041993 -0.077077 0.078694 0.077646 -0.042592 -0.12611 0.023669 0.05067 -0.10227 -0.026155 0.050906 0.01842 0.077825 -0.027061 -0.12209 0.024888 -0.094649 -0.032402 0.082431 -0.08327 0.046787 0.069267 -0.14016 -0.021801 -0.20068 -0.0062251 0.19198 -0.080286 -0.0551 0.066607 0.01387 -0.035182 -0.03726 -0.050421 0.18332 0.12102 -0.068313 0.016017 -0.029354 -0.18529 -0.021547 0.032524 -0.15551 0.10372 -0.13486 -0.02223 0.045746 -0.037412 -0.17946 0.029451 -0.037202 -0.19876 0.13526 0.048881 0.009405 -0.029044 -0.020241 0.01402 -0.034517 -0.050737 0.20256 -0.018011 -0.0071941 -0.032336 0.0638 0.1738 0.05728 0.059929 0.017812 -0.05549 -0.12322 0.040314 -0.036143 -0.012112 -0.18971 -0.028097 -0.18424 0.034458 0.078673 0.069696 -0.023427 0.074249 -0.04263 0.048825 -0.10981 0.030361 -0.10564 0.15467 -0.078961 -0.031889 -0.057325 0.020018 0.026721 0.056411 -0.018854 0.0019603 -0.18772 -0.21421 0.14274 0.028742 0.06936 0.090253 -0.037082 -0.070226 -0.067242 0.0099288 -0.031796 0.2014 -0.10453 -0.011053 -0.030465 0.013736 0.15598 0.0057982 -0.060217 0.050176 -0.12998 0.058497 0.044588 0.028271 -0.0096498 -0.054771 -0.053811 -0.12248 -0.077476 0.08415 0.086132 0.23376 0.16451 -0.072622 -0.075864 0.050988 -0.13043 -0.11284 -0.091452 0.019162 -0.18815 0.0067935 0.21902 0.12863 -0.12693 0.071452 -0.13723 0.027127 -0.007952 -0.036349 -0.066108 0.067449 -0.10666 0.016359 0.0003027 0.0089371 -0.023752 -0.1468 -0.014279 0.010711 -0.018644 -0.24046 0.17376 0.011755 0.078908 -0.032965 0.1047 -0.038434 0.065086 -0.070996 -0.097557 0.24317 0.1277 0.029583 -0.028048 -0.11742 0.12768 -0.0032041 -0.014659 0.0033384 -0.085157 -0.04081 -0.096574 0.16312 0.19986 
<nt> 0.040523 -0.13341 -0.068539 -0.018691 0.022448 -0.011075 0.040637 0.026957 0.0012977 -0.15264 2.4984e-05 -0.009395 0.065515 0.038945 -0.12447 -0.0081566 -0.055404 0.054393 0.039303 -0.11466 0.030939 0.04647 0.0020456 -0.0063818 -0.062262 -0.069402 0.012806 0.079496 0.0014471 0.0008828 0.044209 -0.012826 -0.077626 0.072406 -0.094084 -0.044684 0.0097448 0.086115 -0.036998 -0.018872 -0.016062 -0.079934 0.041958 -0.012928 -0.046591 0.040652 0.015086 0.0075744 -0.060117 0.078802 -0.041823 -0.04378 -0.02988 0.10868 -0.015221 -0.086542 0.11385 0.018483 -0.029066 -0.024246 0.029667 -0.090714 0.072752 0.025542 -0.019246 -0.0188 0.0048581 0.1568 -0.04698 -0.09121 -0.014327 0.11749 -0.044504 0.056261 -0.068996 -0.013037 0.0038608 -0.053994 0.010484 0.045256 -0.035954 0.11753 0.12292 -0.20723 -0.073322 -0.1042 -0.063915 -0.068681 0.032298 0.013438 0.01509 -0.0672 0.036002 0.0098826 0.04795 -0.018608 0.016211 0.041963 -0.010955 0.035409 -0.0034413 0.0016614 -0.09212 -0.014705 -0.027353 0.056889 0.005876 -0.090178 -0.056014 0.062597 0.036321 -0.029794 0.0019969 0.045441 -0.038784 -0.13245 -0.064085 -0.023863 -0.031459 0.045293 -0.034142 0.10938 0.03065 0.0055302 -0.086701 -0.13391 -0.033039 -0.088369 0.067779 0.043814 -0.12778 0.094334 -0.096043 -0.11575 -0.013344 0.018547 0.0029248 0.091297 -0.076427 -0.041429 -0.02782 -0.055968 0.03847 0.034248 0.020208 0.086197 -0.0529 -0.070158 0.011042 0.054283 0.032128 0.055131 -0.0024645 0.033779 -0.054699 0.023105 -0.025386 -0.038566 -0.025965 0.0013905 -0.05795 0.14817 -0.10895 0.024513 -0.050498 -0.036987 0.076294 -0.066394 -0.028753 0.045896 -0.0061061 -0.016413 0.0021934 0.060554 -0.046597 0.10206 0.024675 0.043726 -0.11129 0.11618 -0.086243 -0.019852 -0.0085079 0.062415 0.079015 0.034709 -0.0073697 0.003752 -0.048799 0.003008 -0.004868 0.038275 0.012348 0.022466 -0.021829 -0.042908 -0.10941 0.094861 0.063816 -0.053105 -0.024838 -0.053849 -0.035178 -0.065614 -0.023126 -0.044833 0.08787 -0.0051939 -0.035612 -0.079194 -0.040039 0.10318 0.026834 0.031736 0.049158 -0.022818 0.016258 -0.0093219 0.019346 0.026456 0.010948 -0.026354 -0.12885 -0.022777 -0.099817 -0.029124 0.087879 -0.086026 -0.0084707 -0.041191 -0.0751 0.078387 0.11716 -0.16973 -0.044512 -0.013223 -0.028822 -0.0055208 0.010699 -0.043103 -0.088221 -0.12513 -0.14515 -0.080889 -0.022839 -0.063118 0.17557 0.033244 -0.0012664 -0.027108 -0.0094454 -0.00094971 -0.032291 0.013723 -0.11981 0.024243 -0.028916 0.13012 0.078819 -0.10766 0.052364 0.010393 0.018031 0.1015 0.046495 0.049097 0.083507 0.062912 0.030736 -0.015267 -0.0065547 0.058174 -0.017528 0.028378 -0.15062 -0.0025093 -0.070089 0.035553 -0.031554 -0.0060002 0.091463 -0.046911 -0.050659 0.10359 -0.016702 -0.021169 0.05484 0.16472 0.038948 -0.11764 -0.078445 0.026553 0.082161 -0.026796 -0.021582 0.033345 0.12765 -0.020565 0.12884 0.080462 
