#Parameter# /vanilla-lstm-builder/_0 {128,300} 614401 ZERO_GRAD
+2.43055210e-01 -4.69493628e-01 -4.84522581e-01 +2.13866040e-01 +3.04080248e-01 -5.69278449e-02 +9.79469046e-02 +1.00124046e-01 +8.58007893e-02 -1.34513766e-01 -1.99929342e-01 -4.98815440e-03 +3.47355276e-01 -3.42673287e-02 +7.54422471e-02 +2.27466747e-01 +5.85732087e-02 +5.86806498e-02 +6.26186788e-01 +2.93655515e-01 -5.01192175e-02 +9.03808475e-02 -7.42535368e-02 +4.41534400e-01 -1.26474380e-01 -1.78594068e-01 +6.28082603e-02 +3.93614173e-01 +2.32922938e-02 -3.98502737e-01 -9.79385152e-03 +1.06742635e-01 -3.71977361e-03 -1.20542340e-01 +5.43329716e-01 +3.42001915e-02 +1.69202521e-01 +1.68003455e-01 -1.40854195e-01 +3.32662649e-02 -1.12030715e-01 +1.21337347e-01 -3.07293236e-01 -3.95796806e-01 +3.00219357e-01 -3.17437351e-01 -9.06181410e-02 +4.60029513e-01 -3.07754446e-02 +9.53931212e-02 +3.09261411e-01 +2.63153672e-01 +2.18822584e-01 +1.88500807e-01 -1.02753408e-01 -2.21397594e-01 -9.50659886e-02 +3.23308259e-03 +5.16924858e-02 +3.56008112e-01 -2.53799200e-01 -1.88253611e-01 +2.52294391e-02 +2.17222705e-01 +8.22561204e-01 +2.75223494e-01 +6.12901449e-01 -8.08673725e-02 -8.42527866e-01 -1.71829417e-01 -2.60506183e-01 -2.47535884e-01 +3.52511883e-01 +3.79941672e-01 -1.09694958e-01 -2.40658566e-01 -6.17012531e-02 +3.17758583e-02 +2.70335585e-01 -2.46123988e-02 +2.59476542e-01 -6.51372492e-01 +7.75455087e-02 +3.62544417e-01 +7.50852898e-02 +2.84444392e-01 +2.25648463e-01 +4.98872638e-01 -1.06313205e+00 -1.60969153e-01 -6.93013847e-01 -1.06385909e-01 +3.82937253e-01 -1.91670597e-01 +1.73527002e-01 -8.22881088e-02 -2.67496675e-01 +3.89713123e-02 +2.83431679e-01 -5.32077663e-02 -1.20932460e-01 +8.47901925e-02 +3.10925752e-01 +1.11220911e-01 +5.58216637e-03 +3.01489741e-01 -6.30846024e-02 -9.94482040e-02 -1.17772117e-01 +1.14063680e-01 +8.94185603e-02 +4.57276881e-01 -1.38925090e-01 +1.50477886e-01 +1.59491390e-01 -1.48538813e-01 +3.03908288e-01 -9.17160287e-02 +5.82002401e-02 -7.55204028e-03 -1.82953402e-02 +1.35491729e-01 +1.94445372e-01 -1.60332337e-01 -1.48090765e-01 +2.98774075e-02 -3.51877436e-02 +2.15168744e-01 -7.58735955e-01 -3.70994925e-01 +1.80076212e-01 +3.99919301e-01 +2.21696824e-01 -9.44362804e-02 +2.60837257e-01 +7.82812610e-02 -6.53255641e-01 -6.57731056e-01 +6.74394295e-02 +3.90597552e-01 -1.23439096e-01 -3.28851223e-01 +4.63350922e-01 -1.00624584e-01 -6.83326349e-02 +3.89439613e-01 -2.53726214e-01 +4.82426025e-02 -1.59842849e-01 -6.22672476e-02 +8.33002627e-02 -6.27538085e-01 -3.63456041e-01 +1.46828428e-01 -1.32296413e-01 -1.14827193e-02 -3.00740838e-01 -3.32502335e-01 -1.09061837e-01 +2.30199486e-01 +1.31577298e-01 +7.89037496e-02 +8.69376643e-04 -1.96222536e-05 -4.51719984e-02 -3.04246694e-01 +3.94155458e-02 -6.76790550e-02 +2.01705545e-01 +1.31189033e-01 +1.44318715e-01 -1.69661921e-02 +3.57015342e-01 -1.18260264e-01 -1.08720437e-01 +6.97143555e-01 +2.29688942e-01 +1.51128292e-01 +4.57637668e-01 +2.06645533e-01 -7.98649713e-02 -1.31558880e-01 +2.20977455e-01 +1.23456873e-01 +2.54805893e-01 -3.75485979e-02 -7.25594535e-02 -1.11399405e-01 +7.45227858e-02 -1.42375547e-02 -4.20646638e-01 -3.14190201e-02 +3.51127416e-01 +2.48896301e-01 +1.79828867e-01 +4.16658074e-02 +3.48248959e-01 -4.54120338e-01 -5.20721316e-01 -3.91426645e-02 -1.05950467e-01 +6.02662623e-01 +3.91517460e-01 +2.47338548e-01 -1.30071148e-01 +1.55460432e-01 -1.38871878e-01 -1.04169950e-01 +8.54130626e-01 +3.16183746e-01 -8.50413442e-01 -3.45458210e-01 -4.32386994e-02 -1.05903774e-01 +5.92082776e-02 -1.30426452e-01 -1.41818821e-01 +4.15009588e-01 -4.92691725e-01 -3.38607013e-01 -1.21284999e-01 -1.48161322e-01 -2.53347903e-01 -7.65844107e-01 +2.57156283e-01 +3.83428127e-01 -3.34186405e-02 -1.43394649e-01 -4.20882143e-02 -1.99292287e-01 -1.26695201e-01 -2.22126812e-01 -7.20394179e-02 -3.14484388e-01 -4.57694173e-01 +1.25142233e-02 +4.35553074e-01 +2.56661102e-02 -3.11836183e-01 +3.94656032e-01 +1.35441974e-01 -1.83791965e-01 -3.49913716e-01 +9.06879827e-02 +2.07562178e-01 +5.88243678e-02 +8.15002769e-02 +6.94182739e-02 -1.27984747e-01 +1.02040417e-01 -1.17477760e-01 +1.64918244e-01 -1.91819757e-01 -1.01111427e-01 +1.17712595e-01 +3.29360515e-02 +8.36555846e-03 -4.79509085e-01 -4.93457429e-02 +3.80292475e-01 -4.31143492e-02 -5.10000065e-02 -8.54477584e-02 +1.68030158e-01 +2.09399223e-01 -2.31636614e-01 -1.57110184e-01 -1.54059500e-01 -1.77167058e-01 +2.61818111e-01 -1.22377556e-02 -3.97534333e-02 -3.42259973e-01 -2.25287855e-01 -3.82161066e-02 +5.83434179e-02 +7.79545903e-02 +1.77612126e-01 -1.09222293e-01 -2.52012350e-02 +1.94123134e-01 -3.33245486e-01 +2.50257164e-01 +2.61099488e-02 -1.94992632e-01 -2.68206954e-01 +9.60252210e-02 -2.49467030e-01 +9.11652297e-03 -2.37972870e-01 -2.08507970e-01 +2.87047416e-01 -1.79528929e-02 -1.56406119e-01 +2.67616771e-02 -3.32647949e-01 -1.11580051e-01 -1.53963696e-02 +4.03499991e-01 +1.97197586e-01 +6.30854443e-02 -9.54107866e-02 +1.02485813e-01 -2.37700984e-01 -2.00125892e-02 +7.77171075e-01 +2.52921641e-01 -1.72674339e-02 -1.59207046e-01 -5.28868772e-02 +4.78216201e-01 +3.87450634e-03 +8.66006762e-02 +2.25570545e-01 -4.50646468e-02 -5.69785118e-01 +8.02371204e-02 +2.87746578e-01 -2.68761255e-02 -4.36396711e-02 -2.38711953e-01 +2.10458696e-01 -3.86158079e-01 +3.66566747e-01 -4.95029330e-01 -6.40733242e-02 -3.58833849e-01 +2.19703764e-01 +3.47569026e-02 -3.62710774e-01 -2.44452730e-02 +1.84558913e-01 -4.16552164e-02 -1.30988449e-01 -3.82043689e-01 -2.83069730e-01 -1.24806094e+00 -2.01751720e-02 -4.72944796e-01 -8.76576081e-02 +3.73132735e-01 -2.61164635e-01 -2.87574440e-01 -1.22757196e-01 -4.14430201e-02 +5.78249432e-02 +5.08289337e-01 +6.53595984e-01 -4.42162305e-01 +3.48656207e-01 -3.23990956e-02 +6.70897514e-02 +2.46074684e-02 +1.28296703e-01 +3.02340776e-01 -1.43473566e-01 +3.22291330e-02 -3.44854333e-02 -3.98989677e-01 +4.75628860e-02 +6.15464486e-02 +5.97028695e-02 +6.44990206e-01 +1.75447948e-02 +6.22538216e-02 -1.06196687e-01 -3.90900150e-02 +1.54414296e-01 -3.08714882e-02 +1.26732839e-02 -2.48878986e-01 -1.90316010e-02 -2.39758715e-01 -1.58228308e-01 -2.02270016e-01 -5.97903967e-01 +1.39518678e-02 -3.62941325e-02 -1.03682555e-01 -6.17518872e-02 -2.56517619e-01 -1.07917497e-02 -1.70093045e-01 +3.51292789e-02 -1.90884918e-01 +7.00679095e-03 -9.28568915e-02 +2.58639231e-02 -2.48486772e-02 +1.82358641e-02 -7.19832256e-02 -1.27907306e-01 -4.03955840e-02 -5.12239709e-02 -1.50619775e-01 +4.00522500e-01 -9.47762802e-02 -3.44723463e-02 +1.20955594e-01 -3.16613257e-01 +1.35935983e-02 -2.35246554e-01 +1.16409816e-01 -1.97469577e-01 +8.85714218e-02 -1.61544271e-02 -8.35887045e-02 +5.19902110e-01 -3.41952860e-01 -2.21987907e-02 +1.48098022e-01 +3.41888011e-01 -2.29994744e-01 +2.11744145e-01 +1.80752680e-01 -1.78944804e-02 +1.19029291e-01 +6.97678253e-02 -3.21855813e-01 +1.62473753e-01 -4.03094068e-02 +4.34001274e-02 -5.33719398e-02 -8.10045898e-02 +7.16417804e-02 +2.20110163e-01 -1.91175550e-01 -1.96453333e-01 +2.08053738e-01 -7.49313086e-02 +1.17865570e-01 +1.68649167e-01 -6.25313492e-03 +2.25909695e-01 +5.65687474e-03 +1.15697585e-01 -1.19785719e-01 -2.58574218e-01 +2.26132885e-01 +2.76646372e-02 -2.02800423e-01 +9.59801450e-02 -1.73610747e-01 +1.86565183e-02 +6.45737201e-02 +1.97404251e-03 -1.19156027e-02 +2.03532144e-01 -2.64322087e-02 +4.59029168e-01 -3.66329044e-01 -7.20201954e-02 +5.36803864e-02 -1.20997727e-01 -9.26988274e-02 -5.86995840e-01 +1.72754452e-01 +1.01431794e-01 -1.69334620e-01 +1.22894257e-01 -2.34263211e-01 -1.38515964e-01 -3.40387642e-01 -7.56898597e-02 -5.38865998e-02 +1.34193286e-01 +3.32927823e-01 +4.35054302e-03 +4.55897413e-02 +5.50308675e-02 -1.07711293e-01 -1.37720644e-01 -3.14367056e-01 +1.17323481e-01 +5.97930560e-03 +1.92277864e-01 +3.60149264e-01 +1.31966338e-01 +2.03522250e-01 +1.40915215e-01 -9.22876131e-03 +1.37680113e-01 +2.63439506e-01 -9.52365845e-02 +5.36011579e-03 +1.59354508e-02 +2.75057495e-01 +1.02424487e-01 -9.79153998e-03 +1.00897819e-01 +1.70488194e-01 -3.98215130e-02 -5.63762672e-02 +2.26285055e-01 -6.60499409e-02 +4.08555984e-01 +1.48516789e-01 +1.46148816e-01 +3.25743645e-01 +5.73467873e-02 -5.10454550e-02 -4.12720852e-02 +3.94942798e-02 -2.89854676e-01 +1.01204112e-01 -9.64223221e-03 -1.61965052e-03 -3.38124424e-01 -4.42080535e-02 -3.52770910e-02 +1.53033319e-03 +1.44353047e-01 +2.34686688e-01 +4.03846473e-01 +3.13798748e-02 +2.46808857e-01 +3.05837959e-01 +2.95315892e-01 +2.22601756e-01 +3.44958276e-01 -3.71371210e-02 +6.18825778e-02 +1.03769116e-01 +7.95072019e-02 +8.39712024e-02 -6.72640577e-02 -1.74623150e-02 +1.14603281e-01 +1.48623854e-01 +4.33967978e-01 +4.67619777e-01 +3.25823054e-02 +2.10848957e-01 +2.48821080e-03 +1.99662238e-01 -5.26546910e-02 +1.98085280e-03 +3.51886094e-01 -1.87034253e-02 +2.26078093e-01 +4.51647311e-01 +1.42014325e-01 -3.45725775e-01 +1.88736469e-01 -2.64763176e-01 +2.69725949e-01 +2.04266265e-01 -3.16108644e-01 +1.34316331e-03 +1.46206468e-01 +9.19345617e-02 -1.31719321e-01 +5.45729510e-02 -3.11999083e-01 +2.05440037e-02 +1.15780182e-01 -3.39466543e-03 -2.47986883e-01 -1.54675528e-01 -3.83971602e-01 -1.70549512e-01 -1.43013522e-01 -1.85585260e-01 +2.95135342e-02 -5.80597743e-02 -2.25112259e-01 -2.39024460e-01 -4.76683408e-01 +1.41655549e-01 +5.47976717e-02 +1.85832158e-02 -8.04635324e-03 +1.05911218e-01 -3.21935207e-01 -3.49705629e-02 +4.53496948e-02 -6.57608867e-01 -9.16706547e-02 +5.49022436e-01 -2.83910811e-01 +3.43357086e-01 +2.51925796e-01 +3.42355013e-01 +9.87975448e-02 -1.64841041e-01 +4.81574088e-01 +3.77538770e-01 +3.39145035e-01 -4.57710177e-02 -9.50823799e-02 +2.95013517e-01 +4.46053743e-01 -7.74568990e-02 +8.71711224e-03 +8.05622805e-03 +2.35104546e-01 -3.13377231e-01 -1.89813063e-01 +3.86073261e-01 +1.40432417e-01 +5.34995139e-01 +1.21717893e-01 +5.50937533e-01 +4.48960662e-01 +1.38802588e-01 -1.76992401e-01 -4.83896106e-01 +2.14163199e-01 -5.49122579e-02 +3.20108645e-02 -7.53826723e-02 +7.04270676e-02 -1.96518064e-01 +1.71432570e-01 +6.08546175e-02 +1.32056743e-01 +2.52262831e-01 +1.05189659e-01 -7.82337487e-02 -3.47754419e-01 -7.96656981e-02 +4.28094901e-02 +3.50271724e-02 -2.94427365e-01 -2.06464887e-01 +7.16872932e-03 +5.70150502e-02 -1.49214089e-01 +8.56849968e-01 +3.37023050e-01 -6.38885796e-02 +3.06930333e-01 -2.78470814e-01 +1.66892782e-01 +1.93114489e-01 +2.41369560e-01 +2.60776252e-01 +1.32861495e-01 -5.70579693e-02 +1.98496118e-01 -2.53136754e-02 -3.42148453e-01 -2.26190329e-01 +3.44793111e-01 +1.58325806e-02 +1.13007605e-01 -1.59655750e-01 -1.77768365e-01 +2.87780911e-01 +5.33057339e-02 -1.71618760e-01 -9.49930251e-02 +1.66643396e-01 -2.53294170e-01 +9.14564803e-02 +3.16894114e-01 +1.75834388e-01 -1.88206807e-01 -4.75310355e-01 +1.02191776e-01 -3.62218618e-02 -5.83437197e-02 +1.80710211e-01 +3.07411123e-02 +7.76565373e-02 -3.08056831e-01 +1.91407837e-02 -3.83011252e-01 +1.40702724e-02 -3.53855081e-02 +2.60339547e-02 +1.56669319e-02 -2.37133563e-01 +1.48138106e-01 +1.22829594e-01 -3.76153797e-01 -1.91956878e-01 +4.79436815e-02 +2.62071401e-01 -4.15902287e-02 +2.36428097e-01 -1.64444178e-01 +9.95057672e-02 +6.65145144e-02 -2.85278022e-01 +2.44223073e-01 -1.43431664e-01 +2.38384321e-01 -1.16617583e-01 -1.18966438e-01 +3.27475145e-02 -1.13257468e-01 -6.25342354e-02 -1.07278116e-01 -3.11446279e-01 -2.50979275e-01 +4.73727956e-02 +9.57493484e-02 +1.63157612e-01 +2.02976033e-01 -1.10820703e-01 -1.72986910e-01 -1.44654475e-02 -9.29261148e-02 +5.64224482e-01 -9.14249003e-01 +3.28154981e-01 +3.31880361e-01 -1.00838363e-01 +2.74539798e-01 -1.93168283e-01 -6.10822402e-02 -1.31530181e-01 +5.27531564e-01 +5.05759835e-01 -6.23625100e-01 +3.05345684e-01 +5.23463152e-02 +8.71850252e-02 +3.19604464e-02 -3.80312582e-03 +1.32995784e-01 -1.13046236e-01 +4.28305417e-02 +5.39599299e-01 +6.75542951e-01 +4.57846791e-01 +4.29775804e-01 +4.09037411e-01 -6.81417584e-02 -5.65077126e-01 -1.57334104e-01 -3.96802098e-01 +1.79642856e-01 +3.92660737e-01 +2.20608309e-01 -3.12485576e-01 -1.66039586e-01 +5.37788033e-01 +1.53701171e-01 -2.42622092e-01 +2.28446096e-01 +3.89227569e-01 +1.02514224e-02 +3.26992571e-01 +1.15249820e-01 +1.44638076e-01 -1.18793502e-01 -1.99549541e-01 -5.66813648e-01 -2.25288898e-01 +2.61222839e-01 -3.22095662e-01 -4.69258763e-02 -4.17984694e-01 -2.35984810e-02 +3.47055979e-02 +2.62147579e-02 -6.46730289e-02 -2.87940443e-01 -3.24955463e-01 +5.98479770e-02 +2.58993387e-01 +4.68419790e-02 +1.64580077e-01 +2.89999157e-01 -3.68068695e-01 +2.05789477e-01 +1.65269434e-01 -1.38110757e-01 -1.73068419e-02 +2.42544517e-01 +1.84415177e-01 +2.70488232e-01 +4.58268732e-01 +2.24844962e-01 +4.67283651e-02 +8.90450180e-02 +1.71467051e-01 -9.38141197e-02 +1.96480788e-02 +4.17341501e-01 +1.76784262e-01 +7.76050165e-02 -1.93747450e-02 -3.90099883e-02 -1.93803817e-01 +1.79637462e-01 -2.73483843e-02 +5.23798913e-02 +3.45831960e-01 -1.77693039e-01 +2.87177414e-01 +2.59220958e-01 +2.75030464e-01 +1.61065042e-01 +1.76704779e-01 +2.43478715e-02 +1.56135440e-01 +2.62882113e-01 +1.27310455e-01 -6.84146434e-02 +8.61418322e-02 -7.88563788e-02 +6.56761006e-02 -1.15665607e-02 -1.16070092e-01 +2.78873712e-01 +2.52693325e-01 -6.46468997e-02 -1.35385454e-01 -1.48512632e-01 -2.12402239e-01 +2.09819466e-01 +2.28485048e-01 -3.81436378e-01 -1.08114388e-02 -1.94107160e-01 -2.21490368e-01 -1.58235580e-01 +1.09732926e-01 +2.62376845e-01 +2.69787516e-02 +8.17265287e-02 -1.21963732e-01 -1.68393254e-01 +1.11941122e-01 -7.37720579e-02 -1.40692532e-01 -9.84478667e-02 +3.34945410e-01 -3.88535023e-01 +1.84133887e-01 -3.55017297e-02 -3.05772692e-01 -3.67258906e-01 -4.97716755e-01 +5.80921136e-02 +3.14270437e-01 -2.62128375e-03 -8.72574896e-02 -3.92064333e-01 -3.74669470e-02 +9.06293392e-02 +1.25626191e-01 -2.95153201e-01 +6.16521180e-01 +1.06515497e-01 -6.60947561e-02 +4.07445163e-01 +1.49728674e-02 -1.22698665e-01 +4.15486023e-02 -1.09789997e-01 +5.04406542e-02 -1.38573214e-01 -7.25840449e-01 +2.80075967e-01 +1.96806625e-01 -2.86053032e-01 -3.52989227e-01 -4.51980084e-01 -4.72625196e-01 -4.06949788e-01 +1.19564958e-01 +2.55576149e-02 +9.01546795e-03 +3.17589790e-01 -1.15212105e-01 +6.48012459e-02 -1.71051949e-01 +9.62570906e-02 -6.70643672e-02 +2.17883229e-01 -1.91467658e-01 -7.46947005e-02 -1.58638850e-01 -4.88483720e-02 -3.77928726e-02 -3.67193848e-01 -1.67549457e-02 -1.54260859e-01 -1.77160561e-01 +9.78876203e-02 -2.17706040e-01 +2.08435059e-01 +9.15940106e-02 +1.57036766e-01 -4.71297018e-02 +7.61141479e-02 +1.68884590e-01 +3.60996395e-01 +2.17870604e-02 -1.46151513e-01 -1.45707995e-01 +1.21860416e-03 -3.44617188e-01 -5.51796138e-01 -1.42531410e-01 +2.30755627e-01 -3.43153149e-01 +5.67405075e-02 -1.27617270e-01 -1.39379010e-01 -2.82254457e-01 -2.70508617e-01 +3.28868538e-01 -1.33305207e-01 +1.08877629e-01 +3.84709060e-01 +2.64445841e-01 +3.56347799e-01 +1.10882089e-01 -5.19195139e-01 +7.98260719e-02 +3.47377472e-02 -6.57250136e-02 +2.48613030e-01 +1.35736708e-02 -3.66400391e-01 -7.27512613e-02 +4.02800947e-01 +1.75655067e-01 +1.61415786e-02 -5.79798333e-02 +4.40124333e-01 +1.74248144e-01 -5.21927737e-02 +8.30981210e-02 +2.66123135e-02 -3.38621616e-01 +6.12740755e-01 -1.38442934e-01 -1.06014185e-01 -4.76265490e-01 +2.33524948e-01 -1.08006962e-01 +1.19818762e-01 -1.12898275e-01 -5.13294816e-01 +7.23559782e-02 +1.93338543e-01 +1.97299629e-01 +4.60611132e-04 -2.29957085e-02 -5.08792341e-01 -2.94031203e-01 -9.79747772e-02 +4.53910291e-01 +4.20015007e-02 +2.17361808e-01 +1.35191470e-01 +1.73512340e-01 +2.69039035e-01 -6.90623000e-02 +1.66232392e-01 -3.14930767e-01 -1.33256495e-01 +1.76797226e-01 +1.23269558e-01 +1.57879978e-01 +5.67276657e-01 -8.22542515e-03 +7.13411793e-02 -2.19673917e-01 -4.34467942e-01 +1.15915440e-01 +1.34032696e-01 +5.35917401e-01 -8.18077475e-03 -7.89855719e-02 -1.22907653e-01 +7.73387700e-02 +1.01752020e-02 -1.12591088e-01 -2.32196618e-02 +8.55765641e-02 +6.60387650e-02 -1.70097515e-01 +1.84515610e-01 +3.05653006e-01 +3.23426388e-02 -1.36628464e-01 -1.22127414e-01 -6.97664917e-01 +4.56324786e-01 -6.31621420e-01 -1.70018569e-01 +5.00108480e-01 -6.34575486e-02 +7.08243251e-01 -5.04504621e-01 -1.21268265e-01 +1.98654994e-01 -2.23010808e-01 +8.65888074e-02 -2.40251906e-02 -1.91865683e-01 +2.02226341e-01 -1.19817056e-01 +1.13413610e-01 -1.05299272e-01 -3.08881134e-01 -6.01730198e-02 +1.22642063e-01 -2.72299558e-01 -2.35236809e-01 +3.70948785e-03 -8.32821354e-02 -3.48998234e-02 +9.33273956e-02 +4.83288653e-02 -3.52847427e-01 +4.00869817e-01 -9.17148292e-02 +2.17198312e-01 -7.66119733e-02 +2.80327678e-01 +4.85592037e-02 +3.63517553e-01 -1.42106727e-01 -9.15075168e-02 -7.84578547e-02 -1.17531583e-01 -1.63695931e-01 -1.46740347e-01 +2.04884142e-01 -6.41308539e-03 -8.62313509e-02 +7.15623572e-02 -3.13406587e-01 +1.73030347e-01 -1.93888515e-01 +4.13574278e-01 +1.80841014e-02 -2.31409356e-01 +2.36274973e-02 +4.08187836e-01 -1.37444874e-02 +1.49917006e-01 +1.38845801e-01 -3.35368402e-02 -3.84933591e-01 -1.83316693e-02 -1.03032552e-01 +1.45701945e-01 +7.94911459e-02 -1.42551184e-01 -1.38598725e-01 +2.37948880e-01 +2.22348109e-01 -6.95847943e-02 -6.47224113e-02 +1.41307876e-01 +2.16713369e-01 +3.67459245e-02 -2.50043690e-01 +1.67814270e-01 -4.20222759e-01 +2.85574466e-01 -2.14700907e-01 -5.19139357e-02 +3.23808976e-02 -1.60588741e-01 +4.71585840e-02 -1.81598663e-02 -2.46689051e-01 -1.36689823e-02 +1.54349864e-01 +1.33087888e-01 +2.64979929e-01 -2.65584767e-01 -1.80663869e-01 -1.64328560e-01 -4.47989583e-01 +4.87366207e-02 +1.47363693e-02 -2.44372144e-01 +1.18827209e-01 +1.40914200e-02 -1.96142972e-01 +2.37672001e-01 -9.18137357e-02 +2.33957227e-02 +2.05481667e-02 +1.34161457e-01 +4.93986197e-02 -5.41800261e-02 +2.03062356e-01 +2.49036327e-01 -3.10867131e-01 -2.67041564e-01 +3.39984000e-02 -3.33095007e-02 +3.11702371e-01 -2.21356392e-01 +3.07686925e-01 -4.27267224e-01 -1.84741557e-01 -2.11894270e-02 -2.78942466e-01 -1.00882903e-01 -3.34013045e-01 -1.86254427e-01 -3.96205157e-01 +6.74699545e-02 +1.60624489e-01 +2.31731355e-01 +1.21746019e-01 -8.31622258e-02 +2.85494149e-01 -2.46744767e-01 +1.66250154e-01 +4.42727238e-01 +5.01790524e-01 -1.43306088e-02 +5.19282639e-01 +9.17895436e-02 +7.79548049e-01 +1.00317621e+00 -1.86706763e-02 -1.65103987e-01 -4.79448698e-02 -1.32613152e-01 +1.02674328e-01 +7.47696832e-02 +1.57896444e-01 -4.39339764e-02 +3.55978700e-04 -1.74304575e-01 -1.28060475e-01 +1.94710135e-01 +6.35651639e-03 -6.82389215e-02 -6.74309060e-02 +2.83751059e-02 +8.09117407e-02 -9.38057713e-03 +7.10137248e-01 +3.76599208e-02 -3.51016134e-01 +2.85973459e-01 -4.06167507e-01 -4.44600806e-02 +2.10040301e-01 +2.50518262e-01 +1.72126144e-02 -1.11934267e-01 +6.94434419e-02 +2.71933347e-01 +4.69994880e-02 -8.02153945e-02 -5.91403991e-03 +7.01002851e-02 +1.38175031e-02 +7.83192217e-02 +1.35280102e-01 -3.16939950e-01 -4.92614545e-02 +2.56482542e-01 +2.02952981e-01 -4.24639434e-01 -3.04839909e-01 -1.39203593e-01 -1.97233949e-02 -2.89654940e-01 -1.37683889e-02 -1.47711679e-01 -1.93490479e-02 +4.15041029e-01 +3.41802686e-01 +4.46027428e-01 -3.67691070e-02 -1.80173472e-01 -1.68447167e-01 -1.76339746e-01 -9.33779627e-02 +6.01731986e-02 -2.02915072e-01 +1.47294506e-01 -1.11594588e-01 +3.94349024e-02 -1.82868779e-01 -1.11476123e-01 -1.66307271e-01 -3.11124977e-02 -6.63845912e-02 -3.42116416e-01 +1.49658008e-03 -8.51295292e-02 +3.16571712e-01 -1.45233810e-01 +1.16278633e-01 +3.18795949e-01 +2.78588325e-01 +3.74993443e-01 -5.82240187e-02 -1.51831612e-01 -4.84703518e-02 +3.73953700e-01 +3.06575388e-01 +6.36604965e-01 +5.72585821e-01 +4.25212920e-01 -1.68766260e-01 -1.11434639e-01 -1.25959367e-01 -9.37657356e-02 -3.31555992e-01 +9.79899094e-02 -5.22405803e-02 -1.05785325e-01 +1.92794219e-01 -2.89352477e-01 +8.42582360e-02 -2.47457162e-01 -7.93101370e-01 -2.58966923e-01 -6.08726323e-01 +1.21362142e-01 +4.45095211e-01 -5.51277816e-01 -7.54705787e-01 -4.35290933e-01 -6.45270884e-01 +5.83976507e-01 +5.00211306e-02 +1.55093595e-01 -2.95471311e-01 -4.90795732e-01 +5.36080897e-01 -4.86392826e-01 +2.26881728e-01 +5.62557161e-01 -1.26384288e-01 +1.50880292e-01 -4.33957241e-02 +3.45275044e-01 -2.19144046e-01 +1.63246572e-01 +9.09127355e-01 -1.89072385e-01 +1.82587281e-01 -4.34394255e-02 -6.27663732e-01 -2.61222094e-01 -7.41821408e-01 +7.70820072e-03 +3.22841257e-01 -2.78283339e-02 -4.47704382e-02 +2.82116175e-01 +7.48452470e-02 -1.44358039e-01 -1.55493319e-01 -3.03507477e-01 +3.75254527e-02 +1.55844525e-01 +3.13330531e-01 +2.51988806e-02 +3.75069864e-02 +1.00105569e-01 +3.55527014e-01 +1.16679240e-02 +1.08135529e-01 -2.31531024e-01 -1.23951584e-01 -1.67204961e-01 +1.39471050e-03 -2.65878975e-01 +4.77874994e-01 -4.84100670e-01 +3.18273380e-02 -2.08067540e-02 -1.42746404e-01 -1.06733277e-01 +5.52630648e-02 +4.19715904e-02 +3.73029977e-01 -1.77574083e-01 -3.51978719e-01 -5.62486500e-02 +5.78615516e-02 -2.91486591e-01 +1.62550118e-02 -1.21973008e-01 -2.38790922e-03 +8.59059840e-02 +1.62597179e-01 -2.75221139e-01 +7.93029815e-02 +2.25600988e-01 -9.20813680e-02 +3.37565169e-02 +4.02492642e-01 -1.75250500e-01 +2.77827978e-01 +2.53184960e-04 +4.95660394e-01 +8.23834315e-02 +3.16460013e-01 +1.49781495e-01 -3.31376106e-01 -3.74462008e-02 +1.11708127e-01 +2.25543708e-01 +3.77323553e-02 -3.34061891e-01 -4.62372005e-02 +5.79593420e-01 +2.99340904e-01 -4.39676158e-02 +1.78762734e-01 +2.36736104e-01 -8.26800056e-03 -3.18433493e-01 +2.24585727e-01 +1.07598022e-01 -1.85351461e-01 -2.09435970e-01 -2.26681009e-01 +1.42827019e-01 -5.97806759e-02 +1.03678763e-01 +2.29505852e-01 -2.84387976e-01 +2.45795548e-01 +2.42679536e-01 -4.79794174e-01 -1.02970205e-01 -1.15892142e-01 +2.10524648e-01 +1.48094073e-01 +2.18655959e-01 +3.32511187e-01 +2.12504983e-01 -3.05456147e-02 -1.71532378e-01 +7.77862966e-02 +2.36940295e-01 -2.21650749e-02 +8.55276734e-02 -1.42227635e-01 +2.02572510e-01 +2.63288748e-02 +2.62322128e-01 +4.14063752e-01 -1.78679988e-01 -1.81791946e-01 +4.10822392e-01 +4.81292754e-02 +4.23708320e-01 +2.19832465e-01 -1.98723003e-01 -2.26772055e-01 +5.55838421e-02 -7.67861903e-01 +8.33465084e-02 +2.39502236e-01 +2.67518330e-02 +2.49241859e-01 -5.61372876e-01 +3.51476759e-01 -1.12791881e-01 -2.08885968e-01 -5.38425863e-01 +1.84746549e-01 -1.39315352e-01 -4.25972819e-01 -3.32290292e-01 -6.98037207e-01 -3.72368217e-01 +2.96722054e-01 +3.82595450e-01 -6.36534512e-01 -4.07885283e-01 +7.19521865e-02 -4.71148580e-01 -1.37352630e-01 -1.29191577e-01 +5.47675155e-02 +2.11871900e-02 -5.49319208e-01 -2.40415186e-02 -4.29187045e-02 -4.42719236e-02 -2.63145179e-01 -1.22101344e-01 +9.49753597e-02 +1.08636640e-01 -2.05711693e-01 -3.25379282e-01 -2.73061484e-01 +7.09539473e-01 -2.00164497e-01 +1.11457579e-01 +5.23219481e-02 -1.12714685e-01 +3.90562028e-01 +2.78036207e-01 -1.31257653e-01 +9.05297920e-02 +4.64063473e-02 -2.69798547e-01 -1.75522026e-02 +3.47961605e-01 -8.10552463e-02 -1.26786500e-01 +2.88392097e-01 +3.43584448e-01 +2.84317136e-01 +2.96315644e-02 +1.13886029e-01 +2.62399524e-01 +1.90350130e-01 +1.61705852e-01 -1.15905926e-01 +3.27202171e-01 -1.33225009e-01 -1.72865182e-01 +1.16768256e-01 +1.04315523e-02 +4.50947136e-02 -1.70368031e-01 +9.92599577e-02 +2.88533032e-01 +4.94675972e-02 +1.01879209e-01 +2.05182806e-01 -1.79850608e-01 -1.58787683e-01 -2.36344755e-01 +1.32891864e-01 -2.10949898e-01 +1.09897248e-01 +1.10811017e-01 +3.96202505e-01 -1.73012365e-03 -5.99809699e-02 +4.17909145e-01 +9.36705526e-03 +6.57876506e-02 +2.19521783e-02 -3.24846506e-01 +2.54036505e-02 +6.65979460e-02 +1.30218074e-01 -2.87959903e-01 +3.01730330e-03 -3.34344923e-01 +2.26413697e-01 -2.20265746e-01 -1.86437726e-01 -9.99369249e-02 +4.47399795e-01 +2.78504733e-02 +2.64888853e-01 -2.81981695e-02 -3.25685024e-01 -1.51737899e-01 -5.70968866e-01 -6.22334480e-01 -1.09215200e-01 -4.05954979e-02 +2.64005244e-01 -3.18075895e-01 +1.74171068e-02 +2.54979104e-01 -1.30322007e-02 +1.64374560e-01 -1.57491088e-01 -1.92765623e-01 -3.44671816e-01 -4.20270085e-01 +2.24856213e-02 +8.98154303e-02 +3.71048093e-01 +6.26054525e-01 +7.80530334e-01 -1.11362934e-02 -2.60119796e-01 +1.60694569e-01 +3.16924542e-01 +6.69976890e-01 +3.69691938e-01 -3.39774311e-01 +9.65333357e-02 +1.16635844e-01 -2.99725216e-02 +1.37805846e-02 -4.17268574e-01 +1.33023664e-01 +1.21625468e-01 -4.30481732e-01 +1.45595118e-01 -1.56359792e-01 +9.37789381e-01 +4.41268653e-01 +9.51997578e-01 +3.90958428e-01 +1.18215807e-01 -5.23462296e-01 +2.03966618e-01 +8.03296268e-01 +5.26175722e-02 +1.48042548e-03 +1.52332023e-01 +1.67171687e-01 -2.90308688e-02 +2.25035280e-01 -2.52268404e-01 +4.03663605e-01 +9.61706787e-02 +1.60580471e-01 +1.35560185e-01 -1.25399202e-01 -2.25020006e-01 -7.37865083e-03 -8.61205459e-02 -6.65674806e-02 +7.11231604e-02 -2.60934293e-01 -8.07380155e-02 +1.08327123e-03 -1.11981697e-01 +1.27891317e-01 -4.43622649e-01 +2.64643103e-01 -4.07901406e-02 -2.46238448e-02 -8.33904594e-02 +2.79129058e-01 +3.45236994e-02 -1.92907736e-01 -3.59886616e-01 -1.08049221e-01 +2.04934791e-01 -1.90019637e-01 -1.52260154e-01 +1.65943474e-01 +5.65641597e-02 -2.86355875e-02 -1.77289113e-01 +1.08479634e-01 +2.24747047e-01 -2.69708633e-01 -1.08137570e-01 -1.41550109e-01 -4.68305200e-02 -1.08470917e-01 +3.04287195e-01 -1.79145247e-01 +4.85961959e-02 -7.25511014e-02 +5.70234597e-01 +4.93901640e-01 +4.58435342e-02 +1.81599766e-01 -1.04302980e-01 +2.69970089e-01 +1.11530639e-01 +2.94610202e-01 +7.41420835e-02 -2.44611159e-01 +3.63276363e-03 +9.11696181e-02 +2.48808965e-01 +1.43710807e-01 -3.47345844e-02 +5.53952940e-02 +4.39743757e-01 -3.27751517e-01 +2.05282822e-01 -4.10283469e-02 -1.19858220e-01 -1.28746554e-01 -2.04572871e-01 +1.77340835e-01 -1.04944721e-01 +1.52561083e-01 -7.53531232e-02 -1.57081261e-01 +4.21267264e-02 +1.49437338e-02 -1.98373243e-01 +1.94534749e-01 +1.02241345e-01 +2.59413213e-01 +1.06938288e-01 -2.61746161e-02 +4.53478023e-02 -2.21664887e-02 +3.12912427e-02 -5.00934683e-02 -6.82119057e-02 +2.14649081e-01 -2.42173299e-01 -1.89800441e-01 +2.16561005e-01 +5.20601459e-02 -8.86242166e-02 -6.71457201e-02 +9.33339447e-02 +1.74468443e-01 -2.41604522e-01 +4.83501479e-02 -1.55061156e-01 +1.64883703e-01 -6.69227727e-03 -1.79462388e-01 +6.02752753e-02 +3.01837951e-01 +3.14381510e-01 -1.46915913e-01 +3.57241809e-01 -5.71592078e-02 -1.88513640e-02 -2.22637951e-01 -9.50655863e-02 -1.47000507e-01 +2.06040442e-01 +2.52063066e-01 +1.88856557e-01 +2.19674215e-01 -5.27000606e-01 -6.02981448e-02 -6.55338228e-01 +7.51229003e-02 -3.33148539e-01 +1.31500483e-01 +2.08575453e-04 -3.46201807e-01 -5.15201092e-02 -1.45255491e-01 +9.85347703e-02 +7.70466104e-02 -3.13636601e-01 +2.17194185e-02 -3.87748964e-02 +1.25443548e-01 +9.62507054e-02 +1.24679402e-01 -1.67413399e-01 -2.93500721e-01 -6.98090494e-02 -3.70874316e-01 -2.62632146e-02 +3.85766029e-02 -3.20729613e-01 -1.78550363e-01 -2.84235567e-01 -1.60048276e-01 +4.86432351e-02 +5.21162935e-02 -2.27221828e-02 +1.77642629e-01 -1.49777859e-01 +2.72240818e-01 -4.04921686e-03 +2.95172125e-01 +9.19199362e-02 +1.86324671e-01 -7.36292154e-02 +1.46458745e-01 +3.25902730e-01 +3.05982798e-01 +3.29092145e-01 +2.57239401e-01 +2.17139542e-01 +1.05872847e-01 -1.67147160e-01 +2.34241024e-01 -1.24087490e-01 +3.82359117e-01 -1.35070100e-01 -1.55996419e-02 -8.70837122e-02 -6.11555390e-02 -2.54807740e-01 +1.80253498e-02 -9.31370854e-02 +5.59779592e-02 -3.55988890e-01 +4.35457438e-01 -7.66048878e-02 +7.68295974e-02 +1.26735773e-02 -8.84038955e-02 +3.92731540e-02 +1.92572832e-01 -8.92087370e-02 +6.71002716e-02 +2.35882699e-01 +2.76362270e-01 +9.20982957e-02 -2.02901080e-01 -5.83863966e-02 -8.48904699e-02 -2.03142300e-01 -2.28001177e-03 -6.53457940e-02 +1.08412296e-01 +1.94787487e-01 -4.47305897e-03 -6.80065304e-02 -2.16343045e-01 -2.91129708e-01 +2.43614968e-02 -8.55206400e-02 +7.01486170e-02 +5.60033955e-02 -1.81551635e-01 -2.06476189e-02 +1.50240198e-01 -2.60229915e-01 -1.22721829e-02 +3.79268527e-02 -1.45640403e-01 -2.19656736e-01 -4.79442418e-01 -2.95683235e-01 +5.74843921e-02 -9.05919746e-02 -4.50901449e-01 +9.98419225e-02 -3.99885207e-01 +3.12067419e-01 -2.32626274e-01 -1.65246040e-01 -5.94029486e-01 -2.03012690e-01 +3.13554406e-02 +5.29280245e-01 +1.36225581e-01 +3.55010387e-03 +6.40820265e-02 -4.78646487e-01 -2.83636838e-01 -2.97517151e-01 +1.14314869e-01 +4.13214058e-01 -4.01981473e-01 +4.06474829e-01 -8.63042027e-02 -6.47465527e-01 +2.51798123e-01 -4.44324553e-01 +6.63066566e-01 -2.60543585e-01 -2.84090847e-01 +3.07003677e-01 -3.88516307e-01 -8.90137032e-02 +6.12359107e-01 +4.02559698e-01 +4.51938808e-01 -2.76586175e-01 -5.94336450e-01 +6.13104880e-01 +1.59105039e+00 -7.89640993e-02 -3.01124930e-01 -3.30142342e-02 +2.48848364e-01 -1.94488335e-02 +8.67190138e-02 +5.47748944e-03 +2.91588187e-01 -8.84654596e-02 -8.40651169e-02 +3.49772006e-01 -2.35668905e-02 -1.29454918e-02 -1.69446975e-01 +2.80621983e-02 -6.99568152e-01 -3.27354744e-02 -1.31148338e-01 -2.60140181e-01 -2.73192525e-01 +9.48476419e-02 +1.04312591e-01 -1.55200809e-01 -2.49659881e-01 +1.60687938e-01 -2.02105511e-02 -1.26098052e-01 -1.99498311e-01 +1.76428705e-01 -1.05110817e-01 -7.39437621e-03 +1.38293549e-01 -1.56905040e-01 +4.44539398e-01 -6.74852580e-02 -3.58958632e-01 +8.33799969e-03 +1.08853057e-01 -1.55948117e-01 -1.28353694e-02 -2.67679006e-01 +6.17499612e-02 +2.93445047e-02 +5.76245368e-01 +1.22359350e-01 -2.02435181e-01 +1.53151870e-01 -2.50323027e-01 -1.50462717e-01 -8.16498697e-02 -4.70896304e-01 -7.50551581e-01 -5.80648065e-01 -5.47605336e-01 -2.11749047e-01 -5.35646498e-01 -1.41055763e-01 -3.63169581e-01 -1.40597552e-01 -2.56890766e-02 -1.38699695e-01 +1.01903386e-01 -1.81695297e-01 -2.62120098e-01 -3.64188135e-01 -2.00367540e-01 -3.84736091e-01 -1.07769202e-02 -4.65948954e-02 -1.31766677e-01 +4.44363326e-01 +7.81228468e-02 -7.05058351e-02 +1.98215991e-01 +3.21649760e-01 +1.61109135e-01 +6.23782128e-02 -2.07023546e-02 +7.43973032e-02 -2.88918495e-01 -7.69406781e-02 +1.84785590e-01 -2.20716670e-01 -1.60212085e-01 -1.80830415e-02 +2.81441987e-01 +3.35669488e-01 +2.10949689e-01 -2.00028092e-01 -6.38466999e-02 +1.17294937e-02 -5.08428454e-01 -6.06829002e-02 +9.00556669e-02 -1.24986611e-01 -2.24167362e-01 +2.52449930e-01 -3.35836828e-01 -1.20049381e+00 +1.85220521e-02 +2.19089583e-01 -9.85920522e-03 +2.63888747e-01 -1.94933504e-01 -5.53974569e-01 +4.89925981e-01 -9.08600911e-02 -1.04015976e-01 -1.02111086e-01 +8.06976557e-02 -2.97551990e-01 -1.09885857e-01 -2.76867002e-01 +3.02446157e-01 +2.86500633e-01 -3.19661856e-01 -4.18887794e-01 -2.57410794e-01 -1.11402832e-01 -2.42070392e-01 +5.30445695e-01 +7.22592026e-02 +3.59560102e-01 -1.23859778e-01 -1.94374695e-01 -2.17647731e-01 -7.26581663e-02 -2.24071831e-01 -7.99102709e-02 -1.26000717e-01 -1.05525497e-02 -5.62286237e-03 +2.26551592e-01 -3.93178165e-01 +4.22841907e-01 -1.57742590e-01 +1.39453933e-01 -3.13708544e-01 +9.67895836e-02 +1.24044105e-01 +9.51664075e-02 +2.63086826e-01 -7.45843053e-02 +4.93026935e-02 +9.51138809e-02 +1.77423149e-01 +4.63826865e-01 +1.24550521e-01 -2.94184893e-01 -3.95141959e-01 +2.00197935e-01 -4.58355755e-01 +2.14262187e-01 -7.45007917e-02 +9.49165970e-02 -1.88508272e-01 -5.93340909e-03 -2.10846752e-01 +4.20434952e-01 -5.10827243e-01 +1.27927750e-01 +3.83051455e-01 +2.10615292e-01 -2.51229823e-01 -2.33605936e-01 +1.35498066e-02 +6.33946955e-02 -1.51273057e-01 +2.48555779e-01 +1.83658019e-01 -6.78437054e-02 -4.11922671e-02 -3.60366613e-01 -1.31415561e-01 -3.67808826e-02 -1.96958065e-01 -4.94823866e-02 +1.52368963e-01 -1.53579675e-02 -1.53778449e-01 +3.26228619e-01 -2.46167872e-02 -3.35671812e-01 +3.02138869e-02 +9.92164016e-02 -5.59896231e-01 -5.28923348e-02 -1.71702623e-01 +1.50516406e-01 +6.21617883e-02 +1.16565593e-01 -1.35122493e-01 +1.34400427e-01 +7.21082166e-02 -3.71518694e-02 -9.83342528e-02 +1.00001991e-01 +7.45540485e-02 +3.72417152e-01 -1.77629799e-01 +1.39246702e-01 -3.11420292e-01 +1.76170990e-01 +2.74148822e-01 -1.74873650e-01 +8.72782990e-02 -3.98388915e-02 -5.35210252e-01 -2.22691998e-01 +2.25281511e-02 -2.22836778e-01 -2.01679796e-01 +1.21231474e-01 -6.91575091e-03 +1.92894638e-01 -4.61795442e-02 +7.54558370e-02 -4.46682066e-01 +8.26325491e-02 -4.90493625e-01 +1.10888682e-01 +3.85448873e-01 +2.35788897e-02 +8.42280593e-03 -6.40919864e-01 -3.36972028e-01 -3.77688944e-01 +8.49712491e-02 +5.81561446e-01 +2.18474209e-01 +4.84068424e-01 +4.12903875e-01 -7.70190954e-01 -2.24184126e-01 -7.72525430e-01 +1.85688600e-01 -2.25806713e-01 +4.99133885e-01 +1.87920064e-01 -3.80831361e-02 -2.05079213e-01 +6.94654286e-01 +3.09452266e-01 -2.17382491e-01 -2.09710989e-02 -1.62955150e-01 -5.52055061e-01 +1.25354379e-01 +5.23509860e-01 -1.69534296e-01 +1.64443433e-01 +9.55334306e-02 -3.47529829e-01 +3.74579690e-02 -2.94077575e-01 +3.02631587e-01 -9.73513648e-02 -3.74899179e-01 +4.07346487e-01 +4.88101169e-02 +9.98501107e-02 -1.80682093e-01 -4.64335792e-02 -3.21461439e-01 +2.19789490e-01 +2.24399433e-01 +2.51594156e-01 -1.76571950e-01 -1.09056473e-01 +9.29519385e-02 +1.87682346e-01 -9.02832747e-02 +4.58138622e-03 +3.54679614e-01 -6.50490895e-02 +2.78891600e-03 -3.94282520e-01 -7.72704929e-03 +5.43115521e-03 -1.95190925e-02 -3.22148800e-02 -9.97815132e-02 -6.81481212e-02 -2.70951599e-01 +1.29773557e-01 -3.02886637e-03 -3.00436258e-01 +3.95081133e-01 -2.66651548e-02 -2.13545218e-01 -1.98090419e-01 +1.13640971e-01 +1.72440350e-01 -2.60524541e-01 -5.81420474e-02 -2.08722893e-02 -3.06138426e-01 -8.75375718e-02 +1.84847862e-02 +3.41737121e-02 -2.91103154e-01 +4.16147947e-01 -1.71748161e-01 -2.99066335e-01 -2.65760094e-01 -5.08508980e-01 -7.53760934e-02 +4.40598167e-02 -4.55723912e-01 -2.70142943e-01 +1.73124000e-02 -4.64813523e-02 +1.10599697e-01 -6.92177713e-02 +7.05435127e-02 +2.66829073e-01 -3.43413316e-02 -1.05056822e-01 -1.74477771e-01 -1.89779758e-01 -3.18571627e-01 -3.23153675e-01 -1.79290056e-01 +4.61001337e-01 -1.21232867e-01 -3.36143747e-02 +1.02623753e-01 +4.47117180e-01 +2.36186981e-01 +8.09554383e-02 +5.38762994e-02 +8.63190517e-02 -2.53755033e-01 -1.88454352e-02 -1.90672338e-01 -3.81079227e-01 -5.89051135e-02 +3.01038861e-01 +1.35865316e-01 -5.97761851e-03 +7.06212103e-01 +5.63426077e-01 +3.51739973e-01 -3.23815085e-02 +1.12255573e-01 +2.47819170e-01 +6.55379817e-02 -1.40385076e-01 -2.63214614e-02 -2.07547516e-01 +4.81702894e-01 +1.51580378e-01 -3.52403164e-01 +6.90930128e-01 +1.86932757e-02 +1.07487984e-01 -2.05009952e-01 -4.12912160e-01 +4.36632484e-02 -1.84243359e-02 +3.88004214e-01 -5.69734454e-01 -2.28827432e-01 +5.13789020e-02 -1.04191631e-01 +1.20090798e-01 +3.12389433e-01 -3.40464026e-01 -3.00423890e-01 +3.96205857e-02 +1.47214383e-01 -7.32247531e-02 +8.13262835e-02 +1.41588941e-01 -2.85187423e-01 -4.48438078e-02 -5.42879164e-01 -3.99288446e-01 -3.53843302e-01 +2.43538857e-01 +3.01051021e-01 -1.03857450e-01 -2.01851919e-01 -5.37827790e-01 +1.15199186e-01 +2.12663770e-01 -4.24748659e-01 -2.08674639e-01 +1.38591409e-01 -4.88534689e-01 +5.12297787e-02 -1.33227691e-01 -1.85415611e-01 +9.78741124e-02 -4.29275213e-03 +5.47785833e-02 +1.08984500e-01 +3.91763717e-01 +3.26154917e-01 -3.16559315e-01 +1.72039449e-01 +6.89977929e-02 +2.72453241e-02 -3.87263410e-02 -3.26685339e-01 -2.11952746e-01 +4.82007444e-01 -3.11425447e-01 -1.39554277e-01 +4.33437852e-03 -1.70399159e-01 +5.91328628e-02 -6.36564568e-02 -1.84505180e-01 +1.21936826e-02 +4.58346680e-02 +1.15970857e-01 -3.15788835e-02 -2.97400892e-01 -1.23051610e-02 -2.05315351e-02 +9.59923193e-02 -1.76215574e-01 +8.41587037e-02 +1.83828428e-01 +1.15145355e-01 -6.00926988e-02 +5.35262600e-02 +2.03802958e-01 +3.40806730e-02 +7.86227584e-02 +6.45730376e-01 -1.46316672e-02 +2.27606505e-01 +2.19419785e-03 +1.31321371e-01 -2.40874231e-01 +3.29058498e-01 +3.07987183e-01 -3.01671743e-01 +1.26350895e-01 -8.92847136e-04 -1.62389711e-01 -5.44998586e-01 +2.50399768e-01 +7.99981877e-02 +3.04252148e-01 +3.72597754e-01 -2.67807156e-01 +4.08201724e-01 -1.44216180e-01 -4.33724403e-01 -1.80552378e-02 +2.55882144e-02 -3.42316806e-01 -5.99281527e-02 +3.36624347e-02 -2.77045041e-01 -3.64592910e-01 +4.68899198e-02 +4.25429940e-02 +1.08643323e-01 +2.13391736e-01 -1.92929789e-01 -2.22466484e-01 -3.63851786e-01 +2.29765233e-02 +3.48944142e-02 +2.59866238e-01 +7.03743696e-02 -2.50217408e-01 +1.99987456e-01 -3.42054926e-02 -6.52628988e-02 +5.65310940e-02 +1.35467559e-01 -2.04365820e-01 +6.93470240e-02 +1.11477762e-01 -1.95558503e-01 +1.19757903e+00 -5.24986565e-01 +3.38131875e-01 -9.25218388e-02 -5.44312835e-01 +6.71942353e-01 +7.72942603e-02 +2.59927094e-01 +6.45954728e-01 +3.00494730e-01 +2.35375822e-01 -6.11672938e-01 +7.90993214e-01 +2.70534486e-01 +5.41141480e-02 +1.88708857e-01 +1.58210397e-01 -5.63390017e-01 +4.20757413e-01 -4.36817795e-01 +1.20348625e-01 -6.83803633e-02 +8.11529577e-01 -2.22518817e-01 -3.43149811e-01 +1.09176561e-01 +5.34977376e-01 -2.63091624e-01 -6.07495189e-01 +6.00070477e-01 +3.66205931e-01 +1.23032384e-01 -3.51559192e-01 -2.06586480e-01 +2.25651473e-01 +1.37449130e-01 -1.29794970e-01 +3.14416945e-01 +1.06799386e-01 -9.85949934e-02 +4.11098719e-01 -5.62354662e-02 +2.91459888e-01 +2.64197998e-02 -1.92052931e-01 -5.10471761e-01 -8.49651322e-02 +1.23788662e-01 -3.08029473e-01 -9.50993001e-02 -4.49410498e-01 -2.03044736e-03 +1.93157718e-02 +1.63241327e-01 -3.79235625e-01 -2.06229895e-01 -3.23252603e-02 +6.10711947e-02 +9.74787250e-02 +1.30216748e-01 +1.12948619e-01 +4.57559437e-01 -4.74891514e-02 -5.28832339e-02 +2.01158747e-01 -5.01434565e-01 -1.56169832e-01 -2.06992626e-02 -5.72919428e-01 +6.54767230e-02 +1.49045259e-01 +4.88427043e-01 +9.10008773e-02 -9.88252237e-02 +2.24084720e-01 +9.90962461e-02 -2.45135143e-01 +4.37245160e-01 -2.95713432e-02 -6.57279909e-01 +2.60924026e-02 +1.39811233e-01 -2.45927218e-02 -2.46833730e-02 +3.06000505e-02 +9.80809405e-02 -6.69667497e-02 +4.45115685e-01 -7.60654584e-02 +1.29940450e-01 +2.09955037e-01 +3.49117339e-01 -1.11384705e-01 +1.28248502e-02 -1.29630834e-01 +4.60467488e-02 +9.58326757e-02 +3.98003645e-02 -2.91194469e-01 +2.86867708e-01 +6.82654828e-02 -1.07358776e-01 +1.48641214e-01 +3.35019648e-01 +6.79146647e-02 -5.57852387e-02 -1.98859438e-01 -5.61809361e-01 +3.39183927e-01 -2.10652053e-01 -1.73417434e-01 +1.96831152e-01 -4.87580383e-03 -2.84164518e-01 -2.24543586e-02 -2.93199897e-01 +1.42890081e-01 +3.07764679e-01 +1.85408235e-01 -4.09307405e-02 +5.10783158e-02 -2.02563554e-01 -8.14276487e-02 -5.98869063e-02 +2.44558394e-01 +2.23375469e-01 -1.24379275e-02 +1.84279025e-01 -1.83176324e-01 +9.92667437e-01 -3.31534386e-01 -5.88580430e-01 -8.34875584e-01 -2.36001968e-01 -1.21575542e-01 +1.46111175e-01 +1.93313792e-01 -6.98368311e-01 -3.82287204e-01 +1.71757281e-01 -8.19177270e-01 -2.51135677e-01 +2.99293011e-01 -6.65621534e-02 +1.20391265e-01 -3.35469209e-02 +2.25573316e-01 +7.22780898e-02 -1.23548947e-01 -3.21745217e-01 -2.59104699e-01 -7.73766860e-02 -1.09565949e+00 +1.07197754e-01 +5.49516857e-01 -2.96224296e-01 +3.12438041e-01 -2.93062925e-01 -6.83678627e-01 -1.96417049e-01 +2.44846120e-01 +3.63616347e-01 -2.92413116e-01 -2.92349845e-01 +1.41345635e-01 -8.54664110e-03 -2.27213889e-01 -2.78283387e-01 -1.91088513e-01 +2.23992869e-01 -1.31209850e-01 +1.69941783e-01 +3.12959343e-01 +4.17490870e-01 -4.82218750e-02 -2.23161712e-01 +2.39159644e-01 -4.35167365e-02 +1.73558161e-01 +2.34771706e-02 -4.22908962e-01 +3.80123138e-01 +2.12876901e-01 +5.43982029e-01 +1.50512084e-01 -7.77037591e-02 +8.25149715e-02 +2.33048573e-01 -1.79277614e-01 -4.36716974e-02 +1.62236035e-01 +1.10827804e-01 -2.04570591e-01 +2.73587972e-01 -1.74328834e-02 +1.94889367e-01 -2.35502943e-01 -2.40585893e-01 -1.27624795e-01 -3.29160392e-01 +1.04310371e-01 +8.30363929e-02 -1.28817692e-01 -2.85834283e-01 +1.28584042e-01 +1.08674474e-01 +2.39043146e-01 +2.56119579e-01 +3.07140639e-03 +3.60543467e-03 -2.06970293e-02 -1.07388772e-01 +2.54712533e-02 -3.51237088e-01 -1.70443475e-01 -5.10099769e-01 -1.83179513e-01 -5.99308133e-01 -4.36939478e-01 +6.24228790e-02 -1.33801177e-01 +3.65459383e-01 -2.57062137e-01 -1.57793071e-02 -8.16037357e-02 -2.24425644e-02 -2.70937145e-01 +1.53658375e-01 -6.29817620e-02 -1.50306761e-01 +2.02490121e-01 -1.13160014e-01 -2.18637362e-01 +1.10823877e-01 +3.14575940e-01 -4.59855311e-02 +4.37998548e-02 +1.04649737e-01 -3.56699467e-01 +2.94427723e-01 +1.75602600e-01 +2.19323382e-01 -2.62244672e-01 +1.07954554e-01 +9.98927355e-02 -1.71889037e-01 -1.54434711e-01 +1.84123680e-01 +2.46209688e-02 -4.08102758e-02 +3.74590233e-02 +2.73611248e-01 -1.85965970e-02 +1.17316142e-01 -5.17871141e-01 +3.40513468e-01 -3.03924948e-01 -1.48993328e-01 +1.89058468e-01 +1.80526227e-01 +2.59658784e-01 -2.69305170e-01 +2.24879533e-01 -1.76087528e-01 +2.61428326e-01 +9.43399489e-01 -2.25954637e-01 -3.17127138e-01 -6.93085015e-01 -5.10123968e-02 -9.05710459e-01 +2.77086705e-01 +1.26770452e-01 -1.75790608e-01 -1.41194344e-01 +1.31507933e-01 -4.45152283e-01 +2.73697019e-01 -9.46620554e-02 +5.61693171e-03 +6.57699168e-01 -6.10473640e-02 -1.38070837e-01 +3.37760627e-01 -4.30766009e-02 +4.46392566e-01 +2.52858996e-01 -3.33749205e-01 +4.48637083e-03 -1.62353784e-01 -1.45392418e-01 +2.17202649e-01 +1.25926182e-01 -2.52884477e-01 +6.03253126e-01 -2.46324152e-01 +2.32517123e-01 -2.00934783e-01 -9.11555514e-02 +7.20918104e-02 +1.63566358e-02 -1.21745467e-01 +1.18470073e-01 +4.55753177e-01 -8.57577845e-02 +1.02537945e-01 -7.33254328e-02 +6.64542392e-02 +1.54831663e-01 -6.40571117e-02 -1.18245475e-01 -3.90435934e-01 -5.07442690e-02 -3.33759040e-02 -8.04733559e-02 +6.34334832e-02 +4.54406217e-02 +6.10148348e-02 -5.19069582e-02 -2.54379213e-01 -3.65525521e-02 -2.12251574e-01 -1.62039876e-01 +7.01361224e-02 +1.12663619e-01 +6.19731732e-02 +2.19424337e-01 +2.12735068e-02 -1.35417134e-01 +1.89975306e-01 +9.84049216e-02 +2.70498574e-01 +1.58795655e-01 -1.99996486e-01 +6.94529787e-02 +4.29550350e-01 +1.43974841e-01 +4.10811067e-01 +1.00432374e-01 -2.10592002e-01 -8.47472474e-02 +5.75854890e-02 +3.17314804e-01 +3.77524585e-01 +2.74004221e-01 +2.15093434e-01 +1.69697940e-01 +2.79113799e-02 +4.33031097e-02 -2.98682153e-01 +2.20876131e-02 +2.32693609e-02 +2.64434628e-02 +9.31162387e-02 +4.66583788e-01 +2.11339951e-01 +2.55181491e-01 -6.66775629e-02 -2.71443158e-01 -1.56185895e-01 +1.69917509e-01 +2.68114209e-02 -2.78895557e-01 -4.93069887e-02 +1.94760352e-01 +1.54013082e-01 -2.67748177e-01 -2.58287579e-01 -2.84156352e-01 -1.26757011e-01 +3.55452974e-03 -5.66446558e-02 +1.64025411e-01 +3.93793613e-01 -4.46380191e-02 -2.53607333e-01 +1.78785726e-01 -5.83922453e-02 +9.66655686e-02 -2.48554796e-01 -1.96734518e-01 +1.18550718e-01 -2.04504281e-02 -1.53443843e-01 +3.58289987e-01 +1.73667118e-01 +4.79108274e-01 -1.59872919e-01 -2.87626814e-02 +5.39043266e-03 +3.14831614e-01 +8.80640596e-02 +6.48534596e-02 -2.22362150e-02 +1.55497566e-01 -1.83747500e-01 +1.46465689e-01 +2.24114269e-01 +1.39556959e-01 +3.11585516e-01 +1.89932615e-01 -4.30402249e-01 +1.46565944e-01 +3.86420637e-01 -6.91912770e-02 +1.51874810e-01 +1.16662057e-02 +3.40299428e-01 -4.67791647e-01 -3.76933247e-01 -5.11212409e-01 -2.33465433e-01 +1.75376758e-01 -2.31031850e-01 -3.62990126e-02 -2.15288490e-01 -3.37586015e-01 -1.89908724e-02 +2.51703858e-01 -1.36561260e-01 -1.79466009e-02 +1.21629328e-01 +2.49841765e-01 -7.11286217e-02 +2.12991506e-01 +2.35008392e-02 -2.66480893e-01 -2.38499746e-01 -2.30464339e-01 -2.61229843e-01 -2.01723665e-01 +1.32323325e-01 -2.82207370e-01 -1.26490360e-02 +2.77550638e-01 -3.07281464e-02 +5.81820011e-01 +1.99300542e-01 -5.70138060e-02 +8.69292766e-02 -1.94943994e-01 +5.01660514e-04 +3.67711484e-01 -3.91080789e-02 +1.53095618e-01 +1.01778515e-01 -6.27272725e-02 +2.45115206e-01 +1.82264280e-02 -4.86103207e-01 +2.89013147e-01 -2.61269242e-01 +1.16800152e-01 +2.25113064e-01 -4.90171500e-02 -2.25779548e-01 -5.30399919e-01 -4.86674786e-01 -2.99197614e-01 +2.23174185e-01 +2.01075703e-01 -9.12259996e-01 -9.20901522e-02 +4.11266923e-01 +1.24264695e-01 +1.97286770e-01 +8.55386481e-02 -2.98476182e-02 +9.43358466e-02 -1.26607105e-01 -3.68508279e-01 -5.33953793e-02 -4.77591723e-01 +9.28026661e-02 +2.87846148e-01 +3.84481810e-02 -2.62130827e-01 +1.18812071e-02 -1.19550720e-01 -6.56573251e-02 +4.22496386e-02 -5.45077741e-01 -5.13622522e-01 +3.14418525e-01 +1.68365091e-02 +7.15578720e-02 +4.66230139e-02 -9.87062976e-03 -1.10807478e-01 +4.25422341e-02 +1.50803402e-01 -7.36550428e-03 +1.76886693e-02 -2.60105819e-01 +2.29902528e-02 +3.82752001e-01 +3.20922822e-01 -1.06906235e-01 +1.67178005e-01 -1.35485411e-01 -4.95173514e-01 +1.30862445e-01 +8.64118487e-02 +5.40656783e-02 -1.00892492e-01 +5.50156049e-02 +1.75691694e-01 -2.98853040e-01 +7.66344070e-02 +5.06336093e-02 +4.59417045e-01 -2.08114237e-01 +4.77809280e-01 +2.44965464e-01 -1.40818000e-01 +8.64432752e-01 +5.88701308e-01 +2.27355942e-01 +6.36600330e-02 +3.14112097e-01 -4.43299055e-01 +5.01394629e-01 +2.08880916e-01 +2.13308707e-01 +3.90456378e-01 -1.43675223e-01 +5.83387375e-01 +6.57903850e-02 +5.42762935e-01 +2.61508048e-01 -5.24763048e-01 +4.54438537e-01 -4.52706695e-01 +4.01819587e-01 -6.21747553e-01 +6.10971190e-02 -4.60149199e-01 +4.75016266e-01 +4.63730097e-01 -4.11217242e-01 +1.76294416e-01 +1.56089991e-01 -5.02831101e-01 +5.33278659e-02 -4.76266257e-02 +3.74643087e-01 -1.04390912e-01 -2.14999214e-01 -3.03683640e-03 -1.45116955e-01 -3.18775058e-01 +3.65179837e-01 -1.49373278e-01 +3.64318043e-01 -7.46796578e-02 -1.12653829e-01 +7.43345618e-02 +1.73806667e-01 -9.43069011e-02 -2.66960680e-01 +3.62817850e-03 +3.49454843e-02 +6.63381994e-01 +2.74718076e-01 +2.51105636e-01 -2.41915099e-02 +2.24616900e-01 -9.67248678e-02 +8.31711963e-02 -2.79467791e-01 +5.95420934e-02 -3.57474200e-02 -1.52679026e-01 -4.63264346e-01 +1.33802677e-02 -3.41373757e-02 -1.97809637e-02 -1.49830833e-01 -4.75182086e-01 +1.01856470e-01 -2.45866075e-01 -1.53400853e-01 +1.06250294e-01 +2.77008079e-02 +1.49115011e-01 +2.63301104e-01 +3.10470164e-01 +9.32909474e-02 +2.83365309e-01 -3.34454924e-01 +3.29409063e-01 +8.51617217e-01 +9.56722051e-02 -1.83159664e-01 +4.45237244e-03 -2.62884527e-01 -2.76903749e-01 -1.20273203e-01 -4.42078151e-02 -1.29283309e-01 +9.54364687e-02 -4.67542373e-02 +1.40151039e-01 +2.67226875e-01 +5.36516421e-02 +2.16594860e-01 -2.65204400e-01 -5.73971346e-02 +8.16869736e-02 -9.58918393e-01 -2.12406874e-01 -1.88763455e-01 +7.28584304e-02 -3.72806145e-03 -1.02305740e-01 +3.20653230e-01 -6.10405877e-02 +1.02741808e-01 -1.57561287e-01 +5.45908185e-03 +1.75275877e-01 -1.11425199e-01 -4.08447862e-01 +1.23310968e-01 -3.10745612e-02 +3.30910906e-02 -1.93701416e-01 +1.67396560e-01 -8.51376802e-02 +6.01675630e-01 -3.01470399e-01 -1.62852332e-01 -8.01152363e-02 +7.29504898e-02 -2.55974494e-02 -1.18455999e-01 -1.24034889e-01 -3.24610174e-01 -2.90658772e-02 +5.05776778e-02 +4.00229573e-01 +7.65844062e-02 +9.80047211e-02 -7.43394256e-01 -8.27699840e-01 -7.73664832e-01 -1.49526522e-01 +1.13308892e-01 +4.88280416e-01 +1.89793661e-01 +8.30168426e-02 -3.94638479e-01 -4.95894521e-01 +1.71784297e-01 -2.19033927e-01 +1.73788667e-01 +4.89779741e-01 -2.88398057e-01 +3.02337140e-01 +2.51326233e-01 -1.92038894e-01 +3.66081387e-01 -6.45042062e-02 +3.87466550e-01 -3.36836465e-02 -5.19246280e-01 -2.93212950e-01 -4.20031101e-01 +2.50432462e-01 +5.41450024e-01 -5.16070247e-01 -6.73286021e-01 -1.62092939e-01 +1.54962078e-01 -2.84629297e-02 -4.99374680e-02 +1.56331345e-01 -2.08552346e-01 +5.23170173e-01 -2.93294996e-01 +2.47911036e-01 -3.39355856e-01 -1.80000260e-01 +7.55727813e-02 +7.60365725e-02 -1.77821144e-01 +2.94722114e-02 +5.22768199e-01 -1.68891817e-01 +4.24808897e-02 +2.33736798e-01 +5.07738888e-02 +8.63142386e-02 +4.21220763e-03 +3.81983705e-02 -4.23003733e-01 +2.84925047e-02 -2.97876317e-02 -3.20964493e-02 -1.45055160e-01 +8.74154270e-02 +3.03991109e-01 +3.15412104e-01 -1.61619306e-01 +1.00234985e-01 -2.85405219e-01 +4.70477156e-02 -1.33030936e-01 +1.84082761e-01 +2.06092268e-01 +3.10936958e-01 -3.53145570e-01 +4.63610470e-01 -2.84715414e-01 -6.43716827e-02 -4.80934381e-02 +2.42299154e-01 -7.02797472e-02 +2.05873668e-01 +2.33160138e-01 +2.05154911e-01 +9.98008728e-01 +4.48746979e-01 -5.36861360e-01 +2.55640149e-01 -4.00139689e-01 -6.50443733e-02 -6.30028322e-02 -5.46616223e-03 -3.58002901e-01 +2.49415830e-01 -1.62650526e-01 -2.17841670e-01 -1.27800286e-01 -2.62613326e-01 +3.53824124e-02 +3.07097882e-01 +1.65095434e-01 +1.21352561e-01 -1.61311299e-01 +2.67396510e-01 -1.07779048e-01 -3.13503683e-01 -4.42306221e-01 +2.41891742e-01 -2.89414346e-01 +1.43615022e-01 -6.69043884e-02 +4.88368934e-03 +5.83671592e-02 +1.88532457e-01 +3.39233759e-03 -1.05054587e-01 -1.13662705e-01 +2.64654994e-01 -4.35030967e-01 +1.05393559e-01 +1.66880459e-01 +6.28704727e-02 +1.32162854e-01 +2.07789615e-01 -2.67662168e-01 +1.62793770e-01 -1.63968429e-01 -5.78430966e-02 +5.01031220e-01 -3.53574276e-01 -9.69188511e-02 +6.17637098e-01 -2.43142545e-01 -4.52228904e-01 +5.28114259e-01 +3.42749149e-01 +7.34549686e-02 +1.56248972e-01 +3.50031704e-01 -3.41629595e-01 +2.80443996e-01 +1.72447249e-01 +1.32582122e-02 +3.22651476e-01 +1.27984822e-01 -3.25861454e-01 +1.55298069e-01 -8.26741755e-02 +1.63494255e-02 +5.32306284e-02 -1.01392126e+00 -4.93610278e-02 +5.02237789e-02 -2.12306693e-01 +1.85150743e-01 -1.40961036e-01 -4.09078673e-02 +3.67523402e-01 +1.09698303e-01 -1.11258614e+00 +3.51384342e-01 -3.07307635e-02 -9.03865509e-03 -1.39590934e-01 +1.50261357e-01 +3.74727041e-01 +3.94657910e-01 -1.34280935e-01 +9.56244469e-02 -4.15449023e-01 -1.50110312e-02 +8.71194676e-02 +4.81365144e-01 -1.66419387e-01 -3.87455136e-01 -3.27370852e-01 -1.43391013e-01 -2.05568179e-01 +1.20011933e-01 -1.26014546e-01 -1.61279038e-01 -2.90548503e-01 +1.75306931e-01 -7.75648654e-02 +1.78764760e-01 -2.15096902e-02 -2.26128418e-02 -7.79190809e-02 -1.19989119e-01 +1.36909068e-01 +3.76022249e-01 -1.88662693e-01 -2.66042590e-01 -3.44029307e-01 +3.04179788e-02 -4.40936349e-02 -1.55858308e-01 -1.16765592e-02 -2.02871025e-01 -9.26491469e-02 +9.23596025e-02 -9.80308875e-02 -1.97353065e-02 -3.03731393e-02 -2.75266171e-01 -6.15230978e-01 +3.17669064e-02 -6.98631210e-03 -2.49003693e-01 -4.28664744e-01 +1.62382901e-01 -1.65444180e-01 -2.70762295e-02 +2.28050515e-01 +4.96323138e-01 +2.14196593e-01 +1.65068373e-01 -8.62709135e-02 +3.59309651e-02 -4.17574912e-01 -2.27457792e-01 -4.90046024e-01 -4.56793398e-01 -3.39804411e-01 +1.49753094e-01 -3.80732305e-02 -1.50598973e-01 +2.00188488e-01 +2.26494342e-01 -3.96564066e-01 -6.42307773e-02 +3.46285515e-02 +4.00434248e-02 +6.34144962e-01 +2.01468803e-02 -1.20005326e-03 -1.35476813e-01 +9.61640626e-02 +1.36806056e-01 -2.95661271e-01 +1.55281633e-01 -2.33439401e-01 +4.99541193e-01 -3.21578532e-02 -1.14462309e-01 +2.41322890e-02 +1.66743398e-02 -1.58957299e-02 -2.93764751e-04 -2.68193215e-01 +6.49666414e-02 -2.38503739e-01 +9.74005088e-02 +3.41627523e-02 +1.75941452e-01 -1.17968492e-01 -3.68278503e-01 +2.38754034e-01 +1.78087339e-01 +4.85874265e-01 -4.16803330e-01 -5.01981795e-01 +1.33497775e-01 +2.85786152e-01 +6.52769983e-01 -5.61622858e-01 +2.56905466e-01 -4.56725299e-01 +3.30741793e-01 -1.78584740e-01 -4.80643213e-01 +1.26876344e-03 -4.31811698e-02 +1.66452184e-01 +7.53378402e-03 +5.62771372e-02 +6.54715896e-01 -2.20944747e-01 +2.13406265e-01 -2.73089319e-01 +1.91420689e-01 +1.27892420e-01 -4.82186913e-01 -4.91205573e-01 +2.91957259e-01 +4.26994681e-01 -2.06883214e-02 -9.08154488e-01 +5.64244151e-01 +2.56022900e-01 -1.78256795e-01 +1.10240370e-01 -3.43127877e-01 -3.10472906e-01 +8.72853249e-02 +1.31061822e-01 +2.94223800e-02 +8.80186185e-02 +1.61222503e-01 +6.87460899e-02 -5.79982921e-02 +1.89354926e-01 +2.20308512e-01 +1.76467374e-02 +1.87507048e-02 -2.73038357e-01 -1.65557787e-02 +1.51135493e-02 +7.66051859e-02 -5.39339960e-01 +2.84217000e-02 +9.40744653e-02 -8.66547897e-02 +4.45150822e-01 +4.62840088e-02 +2.87102103e-01 -2.49868438e-01 -1.28175721e-01 -9.56460610e-02 -1.96809858e-01 +1.56376824e-01 -1.23663414e-02 -1.73795834e-01 +7.63851032e-02 +5.52346885e-01 +1.05857238e-01 -3.80138189e-01 -1.13872513e-01 -1.76500037e-01 +3.49934660e-02 +2.49713346e-01 +1.97802842e-01 +9.20199230e-03 -4.01621461e-01 -3.41640436e-03 -2.09775209e-01 +4.46354831e-03 -9.25920457e-02 -3.29698831e-01 -1.48683384e-01 +1.65315896e-01 +4.57855873e-02 +3.54873985e-01 +1.23312566e-02 +5.35271727e-02 -4.54598486e-01 +2.32694075e-01 +1.59783121e-02 +9.28523093e-02 -1.20285049e-01 -1.78530052e-01 +1.65413037e-01 +1.22007839e-01 -3.39487493e-01 -2.64063943e-02 -1.50644720e-01 +2.27297489e-02 -1.25761554e-01 +1.12559870e-02 +1.04208991e-01 -8.80723894e-02 +4.45134819e-01 +9.36646089e-02 -7.60151073e-02 -3.63647123e-03 +3.39293182e-01 +3.23037237e-01 -5.09606749e-02 -3.65398943e-01 +1.28664717e-01 +6.57705888e-02 +3.35718803e-02 +2.10089803e-01 -7.77728036e-02 +1.62559059e-02 +2.50467181e-01 -1.44435823e-01 +3.25886458e-01 +3.44516873e-01 +1.83624662e-02 -2.79391762e-02 -1.84049994e-01 +3.59051347e-01 +9.41365138e-02 +6.24350365e-03 +8.99103656e-02 +1.77713543e-01 -4.39650118e-01 +8.69766250e-02 +7.55469920e-03 -1.67302638e-01 -8.86758268e-02 +4.07315731e-01 -2.83921301e-01 -6.24860562e-02 -1.66578189e-01 -1.02047607e-01 +1.29819378e-01 +2.59070575e-01 -8.37775394e-02 -2.17710678e-02 -1.62326157e-01 -2.58603245e-01 -1.57987326e-01 -2.65465379e-01 +4.88139868e-01 -4.61896926e-01 -2.44366065e-01 +2.31672198e-01 -5.66050470e-01 -4.06798393e-01 +2.22613081e-01 -5.65579951e-01 +4.77980703e-01 +1.52460530e-01 +4.99834180e-01 -2.05910936e-01 -2.80282110e-01 +1.87739998e-01 +1.79102451e-01 +2.89519817e-01 -1.21960565e-01 -3.81387174e-01 +2.70024955e-01 -8.55627507e-02 +6.44848570e-02 +4.51829135e-01 -2.11986586e-01 +7.40113780e-02 +1.91455945e-01 +1.18386105e-01 +1.61194891e-01 +7.50728488e-01 +1.59567669e-01 -3.47686052e-01 +4.35756773e-01 +2.50672475e-02 +2.33286679e-01 +3.78782339e-02 +1.82273060e-01 -1.39739990e-01 +1.20641448e-01 +8.37852433e-02 +1.00751437e-01 -2.06726372e-01 -8.17927644e-02 -1.84339523e-01 -9.78216305e-02 -1.76106960e-01 -3.95856723e-02 +1.62238315e-01 -3.85447711e-01 -3.70610356e-02 +3.73961702e-02 +2.05499545e-01 -3.09493601e-01 -3.97428125e-02 +8.53561014e-02 +5.17802574e-02 +7.86750257e-01 +4.46242727e-02 +3.14983338e-01 +1.66158944e-01 -8.80108997e-02 +2.11675406e-01 +4.05714452e-01 -1.38152227e-01 +1.62705794e-01 +3.93894427e-02 -4.20436949e-01 -3.61290038e-01 +1.85327470e-01 +1.61481097e-01 +1.79047003e-01 -9.64387655e-02 +8.44249055e-02 +3.26988935e-01 -1.23295896e-01 -1.70375675e-01 +2.39574313e-01 +4.24792707e-01 +1.44465655e-01 +2.03155950e-01 -4.71107364e-02 +8.97234827e-02 -5.97435273e-02 -1.07299998e-01 -1.76502645e-01 -2.41899863e-01 -4.70833123e-01 -4.65156063e-02 -1.40128946e-02 +3.30038577e-01 -4.22117651e-01 -1.88717037e-01 +2.73092598e-01 -1.86807662e-01 -2.64842302e-01 +1.19629413e-01 -3.04244068e-02 -2.46350896e-02 -2.32461706e-01 +6.13420978e-02 -6.70073926e-02 -5.28407246e-02 -1.54640645e-01 +2.73575753e-01 +1.09758504e-01 -1.66914407e-02 -1.73880786e-01 +3.77566338e-01 +8.65859389e-02 +1.78949937e-01 -6.94512188e-01 +1.15010858e-01 -3.05024209e-03 +3.57690811e-01 +7.22297251e-01 -6.77867472e-01 -9.52416897e-01 -2.55413026e-01 -2.11594686e-01 -3.99482280e-01 +1.32025003e+00 -4.88003045e-01 +1.37779419e-03 -5.14927246e-02 +1.20282136e-01 +4.59710181e-01 -5.20633280e-01 +9.39450935e-02 +4.76222217e-01 -5.18959343e-01 -1.25295192e-01 -3.27224880e-01 +2.49089494e-01 +7.44299665e-02 +1.31987870e-01 -1.45083949e-01 +4.39877599e-01 -8.96664262e-01 -2.12465897e-01 -2.37746924e-01 +6.04641974e-01 +2.57305980e-01 +2.47357309e-01 +1.73535287e-01 -6.73168823e-02 -1.68507069e-01 +1.67060390e-01 -1.10099107e-01 +1.22455031e-01 +2.53400803e-01 +5.50914407e-02 +9.40082315e-03 +4.02716577e-01 +1.73903257e-02 +1.44900575e-01 -8.28345791e-02 +1.86376095e-01 -5.09544075e-01 +7.19321966e-02 +3.93826425e-01 -6.47278968e-03 -1.67450652e-01 +4.51903969e-01 -7.70156533e-02 -1.89416543e-01 +2.40621209e-01 -6.69799268e-01 +4.52126473e-01 +1.06136546e-01 +2.26792410e-01 +1.26383081e-01 -8.76588002e-02 +1.83855280e-01 +1.26660466e-01 +2.77925581e-01 +1.66155905e-01 +3.80259395e-01 +4.75896150e-01 +2.18967702e-02 -1.49230286e-02 +2.06115976e-01 +2.27902625e-02 +2.23545600e-02 +2.16209501e-01 +2.64641762e-01 +6.08875882e-03 -2.21579567e-01 -3.32891971e-01 -2.40879413e-02 +7.77329803e-02 -2.40483940e-01 -1.71273611e-02 -1.12076767e-01 +2.46695042e-01 +4.22051191e-01 +3.88664812e-01 +1.19807906e-01 -1.52275532e-01 -3.08936536e-01 +2.08529666e-01 +3.96096349e-01 +2.40923375e-01 +1.47870451e-01 +1.27589121e-01 +3.63218278e-01 -1.27945349e-01 -9.62023199e-01 -1.66680187e-01 -2.45636716e-01 -1.77136198e-01 +3.82519454e-01 +1.70834422e-01 +1.58296600e-01 +1.21019825e-01 +2.77480960e-01 +2.91649103e-01 -1.97077885e-01 +1.85486689e-01 +3.75229508e-01 +2.02491596e-01 -2.12358490e-01 +7.84435421e-02 -2.25412160e-01 -2.08052680e-01 +2.27210402e-01 +5.40026486e-01 +3.74767542e-01 +2.83873886e-01 +1.86072066e-01 +1.16461322e-01 -1.15230769e-01 +4.79069687e-02 +8.40670690e-02 +3.26488376e-01 +6.25800341e-02 +9.96387601e-02 +8.74589980e-02 -2.83467442e-01 +6.17656782e-02 -9.06876475e-02 -1.37214720e+00 -5.47604740e-01 -2.89370894e-01 +4.63509768e-01 +2.54630506e-01 -1.38566539e-01 +3.75703663e-01 -3.80939171e-02 -9.54401255e-01 -1.02836519e-01 -4.90622103e-01 +5.38145840e-01 +2.65467577e-02 -2.41984919e-01 +5.86693406e-01 -2.84875542e-01 -6.99229538e-01 +3.83298934e-01 +2.72747219e-01 +8.72074187e-01 -5.10011278e-02 +1.50177330e-01 -5.07579863e-01 +1.56897262e-01 +9.46854532e-01 +2.78770268e-01 -2.75600612e-01 +6.01167262e-01 +4.91871029e-01 -5.15871882e-01 -9.49360490e-01 -3.20991635e-01 +4.06718925e-02 -8.31774175e-02 +2.53257453e-02 -1.44150227e-01 +1.54121791e-03 -1.14003740e-01 -7.53537863e-02 +2.30773874e-02 -2.34051287e-01 +3.32372397e-01 +3.29065561e-01 +3.55838761e-02 -2.36354563e-02 +4.93323892e-01 +4.42579389e-01 -6.68779433e-01 +1.16708621e-01 -1.46036506e-01 -1.32139809e-02 -8.55160058e-02 +4.24246699e-01 -3.10641050e-01 +2.73544937e-01 +3.22567485e-02 -2.13412326e-02 -1.23329632e-01 +3.85874063e-02 -1.24892481e-01 +4.08459678e-02 -3.30068767e-01 -1.35842755e-01 +1.34389937e-01 -5.13953090e-01 -4.45757359e-02 -3.82511527e-03 -2.19121594e-02 -1.77270710e-01 -1.16431214e-01 -3.44583392e-02 -3.39799136e-01 -3.04809362e-01 -7.01613948e-02 -1.39436662e-01 +3.22178423e-01 -3.03349555e-01 +2.84787357e-01 +2.36208856e-01 -2.18759954e-01 -1.50070041e-01 +3.65746051e-01 +6.96735308e-02 -2.37650901e-01 -2.20831156e-01 +4.96506095e-02 -2.52158374e-01 +1.68654621e-01 -2.91543156e-01 -2.28184357e-01 +1.58787206e-01 +8.04128051e-02 -2.74190217e-01 -8.68009180e-02 +2.55582899e-01 -1.05665945e-01 -1.20513476e-01 -2.65770167e-01 -2.56134961e-02 +8.30287278e-01 -4.96419938e-03 -4.72544953e-02 -9.45700780e-02 +2.92877555e-01 -1.20766200e-01 +4.14759517e-02 +1.35653660e-01 +9.71874595e-02 +4.85605076e-02 +2.04750374e-01 -8.11372325e-03 +4.35204357e-02 -1.37760341e-01 +1.30087063e-01 -1.67503878e-01 +1.13925934e-01 +8.09010863e-01 +1.90030172e-01 +4.94701266e-01 +5.24585247e-01 -1.07828058e-01 -4.02947031e-02 -1.01079950e-02 +9.98068154e-02 -6.43695518e-02 +1.66296765e-01 -2.59297583e-02 +2.76632607e-01 +5.12008309e-01 +6.29295826e-01 -3.21034461e-01 +4.57367897e-01 +1.00966386e-01 -1.56154364e-01 -3.57105494e-01 -3.13317567e-01 -6.64865673e-02 -5.86092100e-02 -4.65830982e-01 -2.71930873e-01 -3.50554258e-01 +1.96488887e-01 -6.58791721e-01 -6.81943357e-01 -5.35110474e-01 +7.13531151e-02 +4.11772698e-01 -2.98276573e-01 +1.35577947e-01 +2.64463216e-01 -5.47979623e-02 +6.75976500e-02 -7.06555843e-01 -5.14565967e-02 -7.11372435e-01 +2.51313150e-01 +2.68787563e-01 -4.28415872e-02 +6.72720253e-01 -5.20242155e-01 -9.05601028e-03 +7.53171369e-02 +5.58292829e-02 -1.97453842e-01 +2.48839304e-01 -8.78999308e-02 +3.69099975e-02 -1.05182089e-01 -1.93802118e-01 +2.41563749e-02 +3.20913866e-02 +2.37669274e-01 -1.74153760e-01 +9.53705423e-03 -1.65242106e-01 +2.02613086e-01 +3.42929155e-01 +1.65584117e-01 +5.14048561e-02 +2.03308642e-01 -3.83149922e-01 -2.27048174e-01 +2.55451053e-02 -1.36780322e-01 +3.52384388e-01 -2.50567526e-01 -3.30104470e-01 -2.30055138e-01 -4.04745698e-01 -2.68644709e-02 +2.72904299e-02 -1.59835853e-02 -4.15037647e-02 -1.96469173e-01 +2.63211757e-01 -1.92296475e-01 +3.38857263e-01 +5.49411140e-02 +9.77586359e-02 -1.08467422e-01 +8.04309025e-02 -2.43864551e-01 +2.08008438e-01 -2.43604168e-01 +2.25011811e-01 -4.56083328e-01 +4.48840088e-04 +1.58952802e-01 -6.24452718e-02 +2.01981723e-01 -1.45762458e-01 +3.06789994e-01 -2.19687179e-01 +4.25484478e-01 +3.86262387e-01 +1.33677661e-01 -3.06696594e-01 +1.21551797e-01 +3.66740450e-02 -1.43489853e-01 +5.01077063e-02 -2.62590319e-01 -2.44424026e-03 -2.05045149e-01 +1.85797349e-01 -1.55313775e-01 -6.98005334e-02 -5.48027642e-03 -1.44646153e-01 +3.43659967e-02 -5.04583776e-01 -6.03510916e-01 +1.41933650e-01 -3.08357105e-02 +1.79872051e-01 +2.38408908e-01 +3.66769314e-01 -4.74106908e-01 -1.28550917e-01 +3.01678538e-01 +3.41956578e-02 +4.91252169e-02 +4.79466580e-02 +1.29518494e-01 -2.91273087e-01 +8.72389227e-02 +1.24951012e-01 -3.80290776e-01 -6.34528026e-02 +1.06618397e-01 +1.80149168e-01 -1.24923266e-01 +6.43002521e-03 -2.31935844e-01 -1.22243278e-01 +8.01249966e-03 -1.21465690e-01 +3.30728531e-01 +5.13806760e-01 +9.09975320e-02 -8.68581310e-02 -1.59102917e-01 -7.24579692e-01 +3.11450034e-01 +1.23688214e-01 -2.67830461e-01 +6.02416217e-01 -1.72047719e-01 +2.78342783e-01 +2.61645883e-01 +2.37657756e-01 -2.82980293e-01 -1.04277732e-03 -3.93160075e-01 -7.45428085e-01 +2.12131381e-01 -2.96608098e-02 +1.33698687e-01 -3.87939550e-02 +3.86470526e-01 -3.06866944e-01 -2.43263587e-01 +4.83837910e-03 -2.21157923e-01 -9.44216922e-02 +6.59981608e-01 -5.47646821e-01 +2.95734823e-01 -4.02809456e-02 +5.21154404e-01 -3.06829587e-02 -1.96584031e-01 -2.48561367e-01 +6.80603608e-02 -1.09568045e-01 -2.44250774e-01 +8.76626223e-02 +6.51390851e-02 -2.34942183e-01 -1.27274081e-01 +2.40160257e-01 -6.05847836e-02 -9.39918533e-02 +1.51796669e-01 -1.39477849e-01 -2.46451169e-01 +4.40214306e-01 +3.49004976e-02 +1.70052812e-01 +1.60832554e-01 -2.08842263e-01 -2.85606056e-01 +1.16075076e-01 +3.54386240e-01 -1.30512211e-02 -3.42690796e-02 -8.51649940e-02 -6.22523874e-02 +6.31642342e-03 +1.21700875e-01 -3.07363272e-01 -1.81744412e-01 -1.73731461e-01 -4.46896628e-02 -2.39205912e-01 -2.35556528e-01 +6.95952177e-02 +5.32612726e-02 -2.94249803e-02 +5.35826758e-03 -1.75276011e-01 +2.07852587e-01 -5.29271901e-01 +5.98342121e-01 -2.17728794e-01 -5.06483972e-01 -5.27096331e-01 -1.25188515e-01 +1.31921634e-01 +1.54334188e-01 +5.42158121e-03 +2.97170520e-01 -1.90246031e-01 +1.50527716e-01 -2.46080503e-01 -1.74275026e-01 -6.64067715e-02 +8.29628557e-02 -1.71327770e-01 +5.23948446e-02 -9.21059698e-02 +9.29797515e-02 +1.04500931e-02 -6.85939267e-02 -2.63486892e-01 +6.34586394e-01 +1.16244696e-01 -9.14401039e-02 +1.36178941e-01 -1.76010770e-03 -8.81093442e-02 -1.48883834e-01 +1.23255819e-01 +2.75003731e-01 +3.79661955e-02 -1.12582438e-01 -7.24412277e-02 -2.35459268e-01 -1.21390102e-02 +1.86524764e-01 -1.85879335e-01 -5.26157841e-02 +4.54555869e-01 -2.45758399e-01 +3.64562005e-01 +2.03680858e-01 -7.60046542e-02 -5.82256243e-02 -2.10872144e-01 +4.61022742e-02 -8.11706297e-03 -2.82076877e-02 +1.43314138e-01 +1.44004896e-01 -2.61515260e-01 +6.39982939e-01 -2.63588756e-01 +6.28167242e-02 -2.67440081e-01 -5.23117781e-02 -3.59444529e-01 -8.27411413e-02 +5.22351503e-01 -5.51841915e-01 -5.95553935e-01 +8.97653624e-02 -2.41189882e-01 +3.65893282e-02 -5.54840803e-01 -4.59727973e-01 -1.03503501e+00 +9.04660672e-03 +2.08818749e-01 -1.56491727e-01 -1.47124290e-01 +1.64218336e-01 -5.60666680e-01 -1.88712656e-01 -3.11495245e-01 -5.93961142e-02 +2.65724927e-01 +2.60665447e-01 +2.09229648e-01 -4.53394130e-02 +3.88478220e-01 -1.32518247e-01 +4.78202999e-02 +2.80866742e-01 -8.05173218e-02 +2.68662311e-02 +2.25738019e-01 -4.59186621e-02 -9.62117836e-02 +1.01267166e-01 -4.46371168e-01 -2.88246237e-02 +3.20511520e-01 +1.73281118e-01 +8.97713527e-02 +2.83700526e-01 +1.55633241e-01 -1.13564149e-01 +4.77996230e-01 +1.76070973e-01 -5.07140338e-01 +5.41925952e-02 -1.95270613e-01 +5.46666570e-02 -1.05435355e-02 +1.52036577e-01 +3.76125991e-01 -1.46061122e-01 -1.01369277e-01 +1.55013099e-01 -9.78792831e-02 -2.22459123e-01 +1.97238430e-01 -6.72273561e-02 +2.82341748e-01 +1.27268031e-01 +4.43982109e-02 +7.59213865e-02 -3.40849668e-01 +1.16405472e-01 -2.73868352e-01 -2.50558466e-01 +7.87418056e-03 +3.30252081e-01 -1.09201007e-01 -1.33114532e-01 +2.81942755e-01 +2.03935742e-01 -1.67431548e-01 -4.30922769e-02 +4.75204960e-02 +2.80268669e-01 +4.24337506e-01 +9.08984616e-02 +2.34432414e-01 +1.78338185e-01 -1.02378234e-01 +9.83878523e-02 -5.50912023e-02 -5.01736820e-01 +1.30998746e-01 +3.96138459e-01 -6.76010251e-02 -3.69260982e-02 +1.00963056e-01 +3.78131233e-02 +2.25313634e-01 +3.34876180e-01 -1.72035620e-01 -5.89038551e-01 -8.44912976e-02 -6.98233470e-02 -2.38247178e-02 +7.42587745e-02 -1.56256795e-01 -2.16805473e-01 -5.44438651e-03 -1.53332725e-01 +5.52745946e-02 +1.27284020e-01 +2.84881383e-01 -4.60452810e-02 +6.33464679e-02 -1.47555163e-02 +8.13720748e-02 -1.49648279e-01 -3.75507355e-01 -5.76441824e-01 -2.68222451e-01 -3.61651070e-02 -3.21560442e-01 -1.42986238e-01 +1.69686615e-01 -1.10757001e-01 +3.53063226e-01 +1.31350309e-01 -1.45726010e-01 -1.44036412e-01 -1.66927651e-01 -8.86628106e-02 -6.50309503e-01 -4.58614789e-02 +1.85779482e-01 +1.11959822e-01 +4.27951604e-01 -4.36216623e-01 -6.19746566e-01 +1.69471905e-01 -2.26591676e-01 +2.63728261e-01 -3.03993821e-01 -4.99085009e-01 -3.66542161e-01 -9.35042128e-02 -1.63830161e-01 -3.41154277e-01 -7.01156855e-02 +2.93901026e-01 -3.09497062e-02 -6.07818782e-01 +9.87483338e-02 +2.08041314e-02 +2.85945773e-01 +1.03376710e+00 +5.84395766e-01 +3.43165070e-01 -6.62235975e-01 -8.99136782e-01 +1.54015154e-01 +6.27920210e-01 -2.19152700e-02 -1.93637446e-01 +1.14998214e-01 +2.11642727e-01 +1.52456850e-01 +9.04126018e-02 -1.00809127e-01 -3.47597569e-01 +8.90752152e-02 -3.03276535e-02 +2.93792337e-02 -1.42336622e-01 -1.47890717e-01 +1.26858801e-01 -5.87387681e-02 +1.45360650e-02 +1.43894285e-01 -1.83617428e-01 -2.54552871e-01 -5.44065908e-02 -4.97357666e-01 -2.33674884e-01 -8.89464989e-02 -9.42309946e-03 +8.63709599e-02 -1.04749121e-01 +1.54489502e-01 +7.05536827e-02 +2.35363767e-02 +1.22161537e-01 +6.25272021e-02 -1.84545368e-01 +1.06644362e-01 -7.66845867e-02 +1.65968731e-01 -1.64066494e-01 +4.61379141e-02 -4.35147732e-02 -2.62952358e-01 +8.63881856e-02 +3.74794081e-02 +6.62096664e-02 -1.66374464e-02 +3.92298102e-01 -6.05021343e-02 +1.10415578e-01 +2.75848985e-01 -2.80753195e-01 -1.73949361e-01 -3.80743116e-01 -4.77455258e-01 -6.07970729e-02 -1.96094513e-01 +1.32025495e-01 -1.10874526e-01 -1.50303870e-01 -1.72366172e-01 +5.48530184e-02 +3.42181057e-01 +5.86807281e-02 -1.37987435e-01 -1.30989775e-01 +1.86691716e-01 -2.33446836e-01 +1.68327823e-01 -2.38463879e-01 -1.65028706e-01 -1.15307815e-01 -3.19179833e-01 +1.29683763e-01 -1.37072310e-01 -2.74528325e-01 -1.23286784e-01 -1.13634512e-01 -1.76760226e-01 -2.47867759e-02 +2.43288726e-01 -5.81285097e-02 +1.14377297e-01 +1.23535998e-01 -9.47650447e-02 +4.99606043e-01 +9.94027127e-03 +1.30133152e-01 -9.23958495e-02 -2.55366057e-01 +4.27100599e-01 +1.30330786e-01 -3.79547685e-01 +2.63656606e-03 -6.61979988e-02 -4.78449523e-01 -8.45985934e-02 +4.32136178e-01 -3.03623173e-02 -1.75870717e-01 +2.07628146e-01 +3.42107080e-02 +8.00811499e-02 +8.56529698e-02 -3.91478956e-01 -3.73078547e-02 -6.85948730e-02 -1.19056106e-01 +1.70325473e-01 -4.87548143e-01 +6.54141307e-02 -4.53923121e-02 +1.74087852e-01 -1.27892494e-02 +1.13052204e-01 -3.58000398e-01 +9.91934538e-02 -6.22218192e-01 -5.30873954e-01 -3.17847222e-01 -1.09360784e-01 -8.40804100e-01 +1.53778598e-01 +9.54839885e-02 -1.72962040e-01 +6.84439600e-01 -4.26837429e-02 +3.69244926e-02 -1.66591883e-01 -1.53745845e-01 +1.40461996e-01 +3.17559123e-01 -1.52545244e-01 +1.38880327e-01 +2.67940670e-01 +2.94293433e-01 +6.97636306e-02 -3.78435813e-02 -1.50019512e-01 -2.58594118e-02 -3.81650813e-02 -5.19621074e-01 +2.21572518e-01 +7.68963769e-02 +1.11734435e-01 -6.02573939e-02 -1.04760394e-01 -6.25337362e-02 +3.81747223e-02 +2.81988680e-01 +2.96015646e-02 +1.17927074e-01 -8.96746874e-01 +2.96311546e-02 -2.46024370e-01 -3.52015883e-01 +2.16423884e-01 +2.14723274e-01 -1.51973814e-02 -3.63400638e-01 -3.78039218e-02 +1.21704534e-01 -3.16817127e-02 +6.32980168e-02 -9.96654406e-02 -4.17280465e-01 +2.67831266e-01 +3.64111543e-01 +2.05123097e-01 +3.82738024e-01 -7.25283027e-02 +1.11738294e-01 +2.31417507e-01 -1.84812278e-01 -1.52228372e-02 +4.61518578e-02 +1.92044243e-01 -3.23319882e-02 +1.16789117e-01 -5.41616790e-02 +2.07019135e-01 +4.80489820e-01 -2.92399913e-01 +3.47907603e-01 +3.68575901e-01 +3.56420308e-01 -3.10028076e-01 +2.73004681e-01 +2.56644696e-01 +3.48109901e-01 +1.58495337e-01 +1.61618665e-01 +2.04237238e-01 -1.87779874e-01 +2.97308303e-02 -6.77555576e-02 +2.71714002e-01 -2.03565761e-01 +1.65340796e-01 -2.28166312e-01 +5.56957088e-02 -1.35172874e-01 -4.14628424e-02 -2.05254018e-01 +1.68743916e-03 -1.57986139e-03 +1.09021641e-01 -1.30269244e-01 +7.11433068e-02 -1.35471448e-01 -7.23697245e-02 +1.51707586e-02 +6.23765849e-02 -2.40309119e-01 +1.15010217e-01 -7.87001401e-02 +2.70163594e-03 -5.92845045e-02 +4.80240285e-02 -3.05951089e-01 -1.32808074e-01 +9.28077698e-02 -7.92434961e-02 +1.92904826e-02 +1.95656359e-01 +1.17196813e-01 +1.73005119e-01 -2.57567704e-01 +2.37078890e-01 +6.53429851e-02 -1.02726534e-01 +2.31403336e-01 +3.72306854e-01 -9.59637985e-02 -1.33848280e-01 +5.90214610e-01 +2.46538427e-02 -6.95293069e-01 +1.44914985e-01 +6.03223562e-01 +4.31133687e-01 -7.46619478e-02 +3.60557199e-01 +1.97834700e-01 -2.31329441e-01 -1.37555927e-01 -2.94034749e-01 +1.36268839e-01 +1.00708365e-01 +9.10838041e-03 -4.31792438e-01 +2.01791644e-01 +2.61465371e-01 -4.69562784e-02 +3.43050182e-01 +1.93118244e-01 +3.27728428e-02 +1.98472887e-01 -7.51822367e-02 +4.53240573e-01 -1.74892902e-01 -1.91078037e-02 +4.09188956e-01 +1.64512843e-02 +7.85190463e-02 +3.32121015e-01 -3.79382014e-01 +1.22784041e-01 +9.40909088e-02 +2.92011052e-01 +8.41359887e-03 -3.29179615e-01 +1.29819781e-01 -4.81620610e-01 -8.56990293e-02 -1.76952273e-01 -2.21961021e-01 -3.66664708e-01 +4.82659563e-02 -9.21124071e-02 -1.85389400e-01 +3.24398935e-01 -2.46582195e-01 +2.87035014e-02 -1.41414955e-01 +2.44102970e-01 +2.21641079e-01 -5.11947758e-02 +6.63386211e-02 -4.13687900e-02 -1.48149312e-01 +3.46150666e-01 -4.75977898e-01 +4.88636374e-01 +7.31483996e-02 -3.23539138e-01 -3.32008079e-02 -2.44842187e-01 -2.93060184e-01 +1.47348389e-01 +5.67867875e-01 -9.08790901e-02 -9.21847820e-02 -2.17433006e-01 -3.35573405e-01 -1.32367328e-01 -1.27418727e-01 -1.16593748e-01 -8.99051949e-02 -5.37832305e-02 -4.11810607e-01 -2.00184196e-01 +1.14122972e-01 -4.53611612e-02 -4.30760980e-01 +6.43031597e-02 -1.84916645e-01 -4.98622730e-02 -3.00518394e-01 -2.74105626e-03 -1.64975077e-01 +1.09110121e-02 +5.21177053e-03 -2.74410963e-01 -9.65488553e-02 +1.01471521e-01 -1.64523602e-01 +1.43481597e-01 +1.94246948e-01 -1.64517611e-01 +2.81169862e-01 +3.33823442e-01 -3.78208496e-02 +4.74600904e-02 +1.65938690e-01 +1.97398722e-01 -1.22141816e-01 +1.60204545e-02 +1.56959444e-01 -1.32288277e-01 +2.76778191e-01 +2.65293531e-02 -3.17649364e-01 -8.35852325e-02 +6.58132210e-02 +2.41524443e-01 +4.47449088e-02 +2.27296531e-01 -3.07567656e-01 -1.98082387e-01 -1.38536230e-01 +2.40878478e-01 +7.27358535e-02 -3.91959876e-01 +3.88597101e-01 +1.62054241e-01 +1.75269395e-01 -2.54561394e-01 -3.12280476e-01 -3.50024670e-01 -2.61291534e-01 +1.96870223e-01 -5.04642487e-01 -3.07444148e-02 +6.15534306e-01 +1.30837075e-02 -9.34805200e-02 -3.32595289e-01 +1.91331998e-01 -3.00787359e-01 -1.81014776e-01 -3.14739287e-01 -2.32008189e-01 -8.86919070e-03 +3.08384616e-02 -8.50465238e-01 -1.55325666e-01 +4.27354164e-02 -2.10177824e-01 -2.57338732e-01 -2.88468570e-01 -4.25418735e-01 +3.36818069e-01 -4.15062159e-02 -5.32980442e-01 +1.19923480e-01 -3.12212467e-01 -9.38504040e-02 +9.13784057e-02 -1.01716988e-01 -2.98175156e-01 -1.92740589e-01 +1.96215123e-01 -2.95602381e-01 +1.28715456e-01 +1.89410195e-01 -2.68064439e-01 -1.12725243e-01 +2.56160676e-01 +2.99923837e-01 +2.53368653e-02 +5.32493927e-02 +3.51230502e-01 -2.16721538e-02 +2.06302181e-01 +4.10628319e-01 +2.61072427e-01 +1.65710792e-01 -1.36310413e-01 -1.54422268e-01 +1.63338915e-01 -8.66977349e-02 +1.99058697e-01 -3.17758918e-01 -2.09414437e-01 +4.67412584e-02 +4.47174013e-02 -2.41894767e-01 -1.14752188e-01 +1.54763749e-02 -1.03414647e-01 -1.49689957e-01 -2.79414386e-01 -1.66819617e-01 -3.93344343e-01 +2.24566273e-02 +9.32180360e-02 -1.09553613e-01 -6.77282363e-02 -2.56122142e-01 +7.13755488e-02 -6.19171746e-02 +4.58526313e-02 -1.70506304e-03 -3.88066292e-01 +2.38565400e-01 +1.25435516e-02 +1.21340998e-01 +2.47725412e-01 +9.35256183e-02 +2.31617182e-01 +3.86029392e-01 -3.56694341e-01 -5.50768003e-02 -1.93476334e-01 +3.15536931e-03 -1.81517467e-01 +3.34957957e-01 -1.70669809e-01 +3.18383984e-02 +8.43044966e-02 -1.04133412e-01 -7.78242126e-02 +5.01585789e-02 -3.87784570e-01 +1.86558813e-02 +4.42396477e-02 -1.65000066e-01 +1.32892624e-01 -1.01614427e-02 -2.55358983e-02 +4.66554202e-02 +7.53687620e-02 +8.74771178e-02 -2.21623550e-03 -2.30414420e-01 -2.02486992e-01 +2.38361105e-01 +1.00263327e-01 -1.37668073e-01 -4.35620189e-01 -1.37951761e-01 +2.04375789e-01 -5.35832047e-02 +1.16507590e-01 +3.52142937e-03 -3.41297574e-02 +6.35860115e-02 +1.22649752e-01 -5.34939393e-02 -9.63115096e-02 -2.45296821e-01 -2.22290039e-01 +2.78004497e-01 -2.40295887e-01 +5.24908006e-01 +6.55557364e-02 -8.22110832e-01 -3.61020446e-01 -2.20791399e-01 -3.88995707e-01 -1.48419961e-01 +4.63646680e-01 -1.81597084e-01 -1.41825512e-01 -2.47140378e-01 -4.06872295e-03 +2.18295544e-01 -3.10067803e-01 -9.12058204e-02 +7.82947838e-02 -3.82840663e-01 +3.00747454e-01 +2.90003031e-01 -4.51391011e-01 +1.82576671e-01 -3.88344467e-01 -1.67506546e-01 +1.82157606e-01 -3.94834995e-01 +2.67619729e-01 -1.83625966e-02 +1.65693909e-01 -9.97156128e-02 +2.16528729e-01 +8.19379747e-01 -9.84433573e-03 +2.15486865e-02 -1.90849930e-01 -1.55650496e-01 +2.91356713e-01 +2.17084929e-01 +3.91879857e-01 +2.62625486e-01 -1.27134234e-01 +1.57344833e-01 +8.68531466e-02 +1.79226786e-01 +3.21253657e-01 +2.00925782e-01 -1.19605847e-02 +1.78759113e-01 +1.92945987e-01 +3.01128794e-02 +3.47225547e-01 +4.88081947e-02 -6.98346868e-02 +2.20258489e-01 -8.95257108e-03 -4.94208150e-02 +3.25888753e-01 -2.99317420e-01 -1.19089834e-01 -3.35335612e-01 -1.40386835e-01 -1.32042632e-01 +1.36370873e-02 -2.41061784e-02 -4.14432064e-02 -4.61839773e-02 -1.48863092e-01 -3.40765506e-01 -7.56728053e-02 -1.32247224e-01 -2.31827214e-01 -1.84770048e-01 +1.80112451e-01 +1.41431257e-01 -4.45572674e-01 -3.99079800e-01 +5.69412671e-02 -1.41436711e-01 -3.17653865e-01 +4.48427767e-01 -1.70977324e-01 -5.51002979e-01 +5.63065298e-02 +1.99153513e-01 -2.04155549e-01 +3.60837609e-01 +2.73529500e-01 +2.84967363e-01 -1.50655255e-01 -1.56828836e-01 +2.20646173e-01 -2.57815361e-01 -6.14140272e-01 -4.26597267e-01 +2.76192248e-01 -1.80874154e-01 -8.00642073e-02 +1.28158495e-01 +1.37475818e-01 +3.32349062e-01 -1.33442387e-01 -4.71837670e-02 +1.45293266e-01 +9.31786001e-02 +6.50918037e-02 -1.17047038e-02 -5.45703713e-03 +1.63315862e-01 -1.94080353e-01 +1.54514819e-01 +6.99374638e-03 +1.73638240e-01 -2.31796369e-01 -2.15929985e-01 -2.27430552e-01 -2.06468597e-01 +6.73625693e-02 +1.55009374e-01 -3.55342954e-01 +1.30924597e-01 -2.90151715e-01 +2.11567748e-02 +1.07457496e-01 -4.42068130e-02 -4.54924226e-01 +2.59127952e-02 +3.46247703e-01 +1.98310465e-01 +2.77154088e-01 -2.22108528e-01 -3.42634469e-01 -8.00711736e-02 -2.58543193e-01 +3.83093148e-01 -4.80864078e-01 +5.91010988e-01 +4.50792819e-01 +1.40222043e-01 -3.28830034e-01 -6.71883404e-01 +3.11607987e-01 +4.49372977e-01 +1.82729542e-01 -2.60924637e-01 -1.10574329e+00 +9.07343030e-02 +1.35419279e-01 +1.07040226e-01 +2.07640439e-01 +5.07407725e-01 +1.42179951e-01 +1.60802424e-01 -5.52108407e-01 -5.38592756e-01 +7.91501924e-02 -4.72489327e-01 -1.09250033e+00 +6.20384276e-01 +2.17527926e-01 +1.57119513e-01 +1.58312500e-01 -1.49539381e-01 -1.31196693e-01 -2.49036133e-01 +1.65818930e-01 +8.82515386e-02 +3.78998220e-01 +2.74581432e-01 -2.32600465e-01 +2.33329069e-02 +1.07107639e-01 +2.99905092e-01 -1.07909195e-01 -2.02638805e-01 +1.19564578e-01 +3.25339526e-01 +4.18047188e-03 +2.63788611e-01 -5.66945761e-04 +1.41813219e-01 +1.39936591e-02 -6.55682608e-02 +1.16674062e-02 -5.22474885e-01 +3.71642798e-01 -1.62359968e-01 -1.12998495e-02 -5.91959469e-02 -3.61232847e-01 -4.91512455e-02 -2.28383794e-01 -4.04983237e-02 +4.74110097e-01 -1.16459206e-01 -3.44433367e-01 +7.15495944e-02 -1.06702842e-01 +1.16246967e-02 +1.25426069e-01 -1.00603089e-01 -3.15480262e-01 +3.23533654e-01 +1.73376471e-01 -1.80598810e-01 -9.69474018e-02 +1.99860856e-01 -3.90478224e-01 +1.12854958e-01 +6.11801073e-02 +3.09099704e-01 +5.84738962e-02 -4.28429723e-01 -3.11652631e-01 +6.56838790e-02 +1.39811039e-01 -2.84461945e-01 +2.13563859e-01 -1.18439473e-01 +2.87970215e-01 +5.28764129e-01 -1.51296873e-02 -4.12203744e-02 -2.41901636e-01 +3.23665470e-01 -2.43096128e-01 -3.41829181e-01 -3.29874426e-01 -2.90951461e-01 +9.49109867e-02 -6.66378811e-02 +7.45697394e-02 +4.87467468e-01 +3.10601830e-01 -3.09217870e-01 +1.45555183e-01 -2.98822224e-01 -1.84920460e-01 -9.28627327e-02 +1.89404026e-01 -1.49938837e-01 +4.90666091e-01 -1.95791364e-01 -4.74597156e-01 -3.62175971e-01 +3.90559673e-01 -2.60502025e-02 -2.18063891e-01 +5.93407378e-02 -1.40227824e-01 +3.50981615e-02 +2.12498218e-01 +1.30608872e-01 -6.99834079e-02 -3.61299127e-01 +8.42102095e-02 -6.55997917e-02 +4.29110110e-01 +1.42925501e-01 +2.37112790e-01 -6.68651402e-01 -1.24562770e-01 -2.39660278e-01 +2.40592510e-01 +1.57007441e-01 -3.43812913e-01 +1.51426911e-01 -8.98004621e-02 -2.89970666e-01 +1.58666238e-01 -2.44519219e-01 -3.06451827e-01 +3.09465051e-01 -9.81599838e-02 +4.73834157e-01 -1.87006712e-01 +1.13901995e-01 -2.81074822e-01 +5.56206048e-01 -1.62729733e-02 +1.45415708e-01 +9.40387994e-02 -1.47900999e-01 +3.93415242e-01 -1.06904291e-01 +7.66926333e-02 -8.17616761e-01 +2.14778975e-01 +2.75795817e-01 -5.93399219e-02 +3.12303454e-01 -8.35977942e-02 -9.40397531e-02 -9.38272774e-02 +8.44701976e-02 +1.55650184e-01 +9.74525809e-02 -6.10941201e-02 +1.83162183e-01 -1.82559729e-01 +1.11062163e-02 +1.39975876e-01 -1.03818223e-01 +8.69365036e-02 +2.63943702e-01 +1.59154590e-02 -1.58074126e-01 +8.54526013e-02 +1.23683652e-02 -1.37743711e-01 +8.09780285e-02 +1.58516914e-02 -9.06650424e-02 -1.43756002e-01 -2.38637641e-01 +2.90354699e-01 +3.43804479e-01 +1.68404281e-01 -3.37344140e-01 -3.39891464e-01 -1.14005744e-01 +3.70714515e-01 -1.84301306e-02 -2.07042634e-01 -1.71453387e-01 +2.00518861e-01 +1.06156453e-01 -1.87890708e-01 +2.97525734e-01 +2.84431335e-02 -1.77100137e-01 -5.74665293e-02 -1.16822617e-02 -7.96556547e-02 +1.45198315e-01 -4.23610136e-02 -2.47237816e-01 -1.08280279e-01 -8.12312067e-01 +1.87642574e-01 -7.02128410e-02 +5.15707247e-02 -4.66196090e-01 -1.47808537e-01 +1.18423127e-01 +2.65536040e-01 +2.38690898e-02 +3.89847517e-01 +4.46312964e-01 +3.57405841e-02 -4.29115236e-01 -3.17796648e-01 -8.53693485e-02 -7.59644317e-04 -5.51990926e-01 +3.05398166e-01 +3.35170299e-01 -1.55533388e-01 +1.80146530e-01 +3.02310556e-01 +2.05246404e-01 -1.34419397e-01 +1.40087828e-01 +9.48276222e-02 -2.20809370e-01 -1.26156986e-01 +5.98757667e-03 +2.78040558e-01 -1.07791215e-01 +3.91071767e-01 +2.85730898e-01 +5.28016627e-01 +2.38843724e-01 -2.47085348e-01 +1.21195011e-01 +5.98010840e-03 -3.86422947e-02 -9.15916935e-02 -3.63579839e-02 -6.73915595e-02 -5.17042838e-02 +1.34703010e-01 -1.25183135e-01 +4.20196593e-01 -3.79050165e-01 -2.13447854e-01 -4.09451127e-01 -1.11290872e+00 +4.99420851e-01 -2.77659448e-04 -7.80008376e-01 +3.08560580e-01 -1.67097569e-01 -1.85828894e-01 -3.68884116e-01 -7.24587590e-02 +3.05228502e-01 +2.09793691e-02 -8.41849744e-01 +5.96724510e-01 -8.64389762e-02 -1.06401846e-01 +4.33146209e-01 +6.87507614e-02 -3.27248901e-01 +2.32836336e-01 -2.42394403e-01 -2.82698005e-01 +7.12551773e-02 +2.25190967e-01 +4.89519626e-01 -2.30061278e-01 +2.22252250e-01 -8.03382695e-02 -4.46982175e-01 -6.83372855e-01 -4.31904167e-01 +1.17437676e-01 -6.28634030e-03 +1.62585706e-01 +1.57044129e-03 -1.22005515e-01 -1.01251535e-01 -3.27730775e-01 +9.24350098e-02 -3.09270918e-01 +4.39674743e-02 +1.83989570e-01 +8.33917633e-02 -1.52156474e-02 +2.81692773e-01 +2.41416812e-01 -4.56912071e-01 +1.42399520e-01 +1.51541214e-02 -9.74355564e-02 -7.23343790e-02 -2.20240682e-01 -1.49920195e-01 +5.10947704e-01 -3.29406649e-01 -1.65833384e-01 +1.15874251e-02 -2.34996006e-02 +3.37419838e-01 -1.58251867e-01 -2.51584351e-01 -5.13609834e-02 -2.62250066e-01 -4.24421698e-01 -1.56195104e-01 +3.00358206e-01 -9.35798734e-02 -7.59689137e-02 -5.21916524e-03 +9.13757309e-02 +9.16537493e-02 +6.90773800e-02 +2.72224899e-02 +4.22509193e-01 -2.94376671e-01 -1.43669337e-01 +4.12945300e-02 +5.22540994e-02 +8.42502192e-02 -1.23165801e-01 -2.15051651e-01 -5.44418693e-01 +2.57350236e-01 -3.39235365e-02 +2.22677767e-01 -1.18917294e-01 -3.27530921e-01 -7.68715590e-02 +2.68172566e-02 +7.01291561e-02 -2.25262418e-02 -6.09662943e-02 +2.77329907e-02 -1.06341414e-01 -1.45875484e-01 +1.22660950e-01 -4.97920692e-01 -1.37274444e-01 -9.79738832e-02 -4.15363535e-02 +4.79823388e-02 -3.79337728e-01 +1.59232169e-02 +2.25256369e-01 +1.81646403e-02 +1.12498112e-01 +2.83875614e-01 +3.13306630e-01 -1.73219278e-01 -5.07245101e-02 -1.39208645e-01 +2.97935516e-01 +4.87560667e-02 +4.00289327e-01 -4.99143302e-02 -1.30856767e-01 +5.34547344e-02 +3.22785020e-01 +1.26709536e-01 -2.75890201e-01 -4.22995974e-04 -4.47655618e-02 -4.60984290e-01 +1.65641874e-01 +7.81471375e-04 +2.36959487e-01 -4.65344101e-01 -5.00090241e-01 +2.63290375e-01 +2.46682763e-01 -1.29703984e-01 -3.21219146e-01 -2.63084680e-01 -2.91008353e-01 +4.89964448e-02 +5.78268357e-02 -5.37430704e-01 +1.34593192e-02 +1.85759887e-01 +3.02408993e-01 -1.64666459e-01 +3.57147664e-01 -3.89477581e-01 +1.30140744e-02 +1.17969234e-03 -2.04101335e-02 +8.53400752e-02 +2.68904469e-03 -4.69943613e-01 -3.29442114e-01 -4.19626944e-02 -1.40777066e-01 -4.22893643e-01 -3.53736244e-02 -4.22530085e-01 +2.50390559e-01 +5.94268776e-02 -5.37197411e-01 -2.18210727e-01 -9.79444161e-02 -3.70175503e-02 -1.44462213e-01 -6.50490001e-02 +5.77017404e-02 -5.54407910e-02 -1.36223733e-01 -3.09949368e-01 -2.60548219e-02 -4.05157000e-01 +3.08009237e-01 +1.25736535e-01 +1.20205894e-01 -1.13715567e-01 +1.96594104e-01 -5.95830493e-02 -3.97505164e-02 -1.35328816e-02 +9.52614024e-02 +1.35349959e-01 -4.86917883e-01 -4.07255739e-02 -1.39315873e-01 -4.09470767e-01 +4.30943146e-02 +2.78212070e-01 -1.46520674e-01 +1.90340765e-02 +3.81821916e-02 +8.06558318e-03 -5.31831793e-02 -2.69770855e-03 +8.70373473e-02 -6.59455881e-02 +1.78780243e-01 -1.68791771e-01 +1.23854473e-01 -1.52581200e-01 +4.97190841e-02 -5.16449213e-01 +2.05729410e-01 -3.79593596e-02 -2.66889900e-01 -4.74063344e-02 -1.90849230e-01 -1.08211692e-02 +2.07006391e-02 +7.54749551e-02 -8.82645398e-02 -3.49868327e-01 -4.79630738e-01 -2.18100637e-01 -2.83613414e-01 -1.52526684e-02 -1.09588698e-01 -1.92436296e-02 -2.18476891e-03 -3.16609174e-01 +9.68877375e-02 -1.80422943e-02 -1.73551738e-01 -2.17415035e-01 +3.00821751e-01 -1.25587836e-01 -8.84273872e-02 -2.36084327e-01 -1.14377448e-02 +4.65205967e-01 -1.21348374e-01 -4.31874730e-02 +9.14736688e-02 +9.28314626e-02 -1.31735653e-01 -6.19581155e-02 -4.63929847e-02 -1.75015077e-01 +3.12312525e-02 +5.26909679e-02 -1.33594513e-01 +6.91023618e-02 +9.08666551e-02 +6.89806938e-01 +2.22657114e-01 -1.17904648e-01 +1.83597013e-01 +2.94497460e-01 -9.27946938e-04 +1.72681231e-02 -8.88913646e-02 -5.62692918e-02 -7.13606775e-02 -3.89286458e-01 +1.24723229e-04 +4.58291024e-02 +2.60197967e-01 +1.23863377e-01 +4.23099726e-01 -1.07086919e-01 +1.41200542e-01 +3.13698053e-01 -5.59852183e-01 +6.71510920e-02 -1.78004235e-01 +3.60436104e-02 -4.44639176e-02 -4.87054326e-02 -1.70740962e-03 -4.04107094e-01 +2.01708719e-01 +4.96176690e-01 -3.27677310e-01 -3.55228662e-01 -4.96862531e-01 -1.59433946e-01 -5.84207654e-01 -3.76745611e-01 +2.55290717e-01 -2.02910751e-01 -7.75230303e-02 -1.85033217e-01 -1.26003474e-01 -4.20141846e-01 -2.60833085e-01 +1.95448413e-01 -3.44791919e-01 +4.53049123e-01 +4.88020837e-01 -1.24055430e-01 +1.42113969e-01 -8.16742182e-02 -7.56043475e-03 +1.81563795e-02 -6.41920269e-02 +7.38733727e-03 -2.23833546e-01 +2.88365155e-01 -5.79629093e-03 -1.19290717e-01 +4.55169499e-01 +3.23427647e-01 -7.10182637e-02 +2.26329237e-01 +2.88902193e-01 -7.55630480e-03 -1.50697110e-02 +2.06118986e-01 +2.42843136e-01 -6.03681393e-02 -1.99384034e-01 -2.72770494e-01 -1.84283387e-02 -5.36452234e-01 +1.20988257e-01 -1.98982894e-01 -2.18668982e-01 -3.65133435e-01 -5.15972376e-02 -5.18569499e-02 -1.93737358e-01 -2.68715359e-02 +9.39959511e-02 +3.21948707e-01 +8.91759396e-02 +1.86336339e-01 +8.42852294e-02 -1.92528278e-01 -9.49970931e-02 +1.24279745e-02 +2.40410984e-01 +1.72446221e-01 -1.59267724e-01 +1.26177877e-01 -7.42446631e-02 +3.02139744e-02 -2.92655021e-01 +3.68958533e-01 -2.49253631e-01 -1.01720214e-01 +2.09530681e-01 +1.45306066e-02 -1.78831980e-01 +1.70742169e-01 -1.46085322e-01 +1.11812554e-01 -7.17607364e-02 -3.45979869e-01 +2.60276765e-01 +3.50636005e-01 +1.24698088e-01 -7.27200508e-01 -2.00561881e-02 +7.67562911e-02 -1.08799919e-01 -2.54693359e-01 +3.85942400e-01 -1.03889823e-01 +2.02790834e-02 -7.69543126e-02 +7.24117979e-02 -2.32814029e-02 +3.15949768e-02 -1.18045479e-01 +4.04049963e-01 +2.07987204e-01 +8.97095799e-02 +2.57473946e-01 -2.73322850e-01 +3.08908224e-01 +8.56575668e-02 -1.75303116e-01 -5.03390729e-02 -1.44258395e-01 -3.02773029e-01 +3.62417512e-02 -1.36911958e-01 -2.89157450e-01 -2.07803607e-01 +5.90832457e-02 +7.84259290e-03 -2.36531347e-01 +3.87699157e-02 +1.16410881e-01 -3.30069602e-01 +4.70430702e-02 -2.37438515e-01 -7.98985511e-02 +7.26163447e-01 -2.96953380e-01 +2.93897968e-02 -4.73466255e-02 -5.74195802e-01 +2.90060520e-01 -1.81445524e-01 -6.70556724e-02 -9.76316109e-02 -3.21442097e-01 -2.26832151e-01 +3.18255514e-01 -4.14328873e-01 -1.83973446e-01 -4.38179016e-01 -4.46639031e-01 +8.78512740e-01 +4.42755759e-01 -3.65143158e-02 -2.71820635e-01 -6.41607225e-01 +4.38072175e-01 +7.72184074e-01 -2.59207398e-01 +1.79918721e-01 +1.57291479e-02 -4.61804211e-01 -2.10029766e-01 -6.21902868e-02 +2.18437672e-01 +2.24215742e-02 +2.43436232e-01 +4.23374116e-01 -1.93870261e-01 +1.14419959e-01 +2.14386433e-01 +7.73051158e-02 -4.63499337e-01 +1.17717847e-01 -7.45810643e-02 +6.20981008e-02 +6.38748631e-02 +8.55122600e-03 +2.13449612e-01 +3.34902316e-01 +5.08981287e-01 +6.72675595e-02 +3.86101268e-02 +1.59107044e-01 -1.93566501e-01 +3.46322283e-02 -4.27486114e-02 -4.21956062e-01 -4.13496912e-01 +6.56503141e-02 -3.30614567e-01 -2.04535007e-01 -5.46941757e-01 +1.39854908e-01 -2.80385107e-01 +1.82543904e-01 +1.63092524e-01 +2.37372771e-01 +1.30076796e-01 -1.93759114e-01 -3.11179638e-01 -1.58413962e-01 +9.39622372e-02 +8.22785050e-02 +3.77330303e-01 +1.76866621e-01 +3.97208840e-01 +7.61664733e-02 +7.98698366e-02 +1.52710895e-03 +2.40271300e-01 +1.67792901e-01 -1.92591056e-01 -1.02032416e-01 -1.56946123e-01 +2.38430247e-01 -2.59487867e-01 +2.27841973e-01 -8.01482722e-02 -3.71700138e-01 -8.29430372e-02 +1.09320275e-01 -2.03135252e-01 +3.68599325e-01 +2.00131774e-01 +1.56822264e-01 +3.48642506e-02 +3.77579927e-02 +1.82698742e-01 +7.24309403e-03 -9.44327414e-02 -3.07909161e-01 -1.56343564e-01 +1.21891592e-02 -2.68824486e-04 +4.74633425e-02 -5.40256947e-02 -2.85316885e-01 +1.62088439e-01 +1.49631187e-01 -2.74753958e-01 +1.59297526e-01 -3.32004517e-01 -3.05992275e-01 -8.96414518e-02 +1.30706757e-01 -2.55534309e-03 -1.87515646e-01 +4.15380448e-02 -1.30914971e-02 +1.59259230e-01 +8.01746845e-02 +2.32326612e-01 -1.89100176e-01 -1.82400182e-01 +4.72808555e-02 -1.60262540e-01 +2.99474448e-01 -5.32253087e-02 +1.03498444e-01 +4.66764299e-03 -5.51173031e-01 +4.54657495e-01 -3.25953439e-02 -3.85367125e-01 -4.22082216e-01 -8.59725699e-02 +4.28524613e-01 -6.64495155e-02 +4.44097221e-01 -2.51419693e-01 -4.36702132e-01 +3.49302739e-01 -4.58399236e-01 +2.07834877e-02 -1.08347632e-01 +1.60604104e-01 -9.10006911e-02 -3.55173528e-01 +4.66025710e-01 -9.52754468e-02 -4.72777821e-02 -6.99532807e-01 -3.15613717e-01 -1.93508044e-01 +5.98661363e-01 -2.28630453e-01 +3.66946578e-01 -1.11485109e-01 +3.46299261e-01 -2.10933566e-01 -6.12564623e-01 -1.43214926e-01 -1.97214290e-01 -2.87465811e-01 -6.94977567e-02 +3.69972712e-03 +3.24288368e-01 -3.76417726e-01 -3.30908537e-01 -2.85852283e-01 -1.27217278e-01 +1.14230514e-01 +2.60400847e-02 +3.93508608e-03 +2.02644050e-01 +4.39243257e-01 +3.94167155e-01 -1.54574320e-01 +5.15470020e-02 +4.16702509e-01 +3.27549428e-01 -1.12074509e-01 -1.84517205e-01 -1.82930723e-01 +2.28084788e-01 +8.77419561e-02 +4.88506770e-03 -2.92309113e-02 +1.53625654e-02 +4.55243178e-02 +5.85341454e-02 +1.26051735e-02 +5.40150739e-02 -1.24717116e-01 -1.64201647e-01 -2.90201902e-01 +3.49916220e-01 -9.24763978e-02 +1.79295510e-01 -7.88583513e-03 +9.30354744e-03 -4.47418332e-01 -8.12108517e-01 -1.19163856e-01 +1.82126477e-01 +1.68122903e-01 +7.10348263e-02 -2.10404322e-01 -1.48072476e-02 -2.30509236e-01 -5.97769283e-02 -1.62753239e-01 +1.56891257e-01 -5.16304970e-01 -1.18486769e-01 -1.48358136e-01 +5.13646789e-02 -1.47646219e-02 -1.84693187e-01 -2.91319281e-01 +3.81513119e-01 +1.31769106e-01 -1.10263117e-01 -3.37474138e-01 +1.70993254e-01 +1.68745980e-01 -1.08979955e-01 +3.31179686e-02 -1.14199422e-01 +4.00942326e-01 -2.01934390e-02 -1.25547245e-01 -8.99319351e-02 -3.80929932e-02 +2.25891754e-01 +1.49474302e-02 +3.84812951e-02 -1.66198418e-01 +1.42206118e-01 +2.06973590e-02 +2.88380593e-01 -2.20800042e-02 +1.10370025e-01 -1.51047990e-01 -7.92555232e-03 -3.60749573e-01 -1.79923400e-02 -2.91989207e-01 +6.41379505e-02 +6.86784536e-02 -6.45483658e-02 -5.89224063e-02 -3.68610248e-02 -1.12998128e-01 +1.86479110e-02 +2.97305018e-01 +9.19769406e-02 -1.50945619e-01 +4.32814449e-01 +3.25184852e-01 -2.21329316e-01 +3.31960618e-01 +4.72460896e-01 -5.83209246e-02 +1.82575360e-02 -3.45353670e-02 -4.07026589e-01 +1.02952972e-01 +2.46379152e-01 -1.59303546e-02 +4.40250814e-01 +1.34880483e-01 -3.44494507e-02 -6.14206679e-02 -1.56835034e-01 +2.75890917e-01 -2.80668020e-01 -2.33824968e-01 +4.97025311e-01 -1.00992266e-02 -8.06906670e-02 -8.70553032e-03 -6.59303188e-01 +2.28517473e-01 +1.33826256e-01 -9.25641805e-02 +2.22649738e-01 -4.74888980e-01 +2.88252920e-01 -2.38305330e-03 +1.48595795e-02 +2.03782305e-01 +7.82233328e-02 -1.01326823e-01 -4.90531176e-02 -1.14218973e-01 -8.24305341e-02 +3.81461889e-01 -2.36302182e-01 +1.55431435e-01 -2.18989477e-01 +1.42367594e-02 -2.38909706e-01 +5.11569716e-02 -2.82164335e-01 +2.97533661e-01 +1.49795696e-01 +2.14472577e-01 +6.51438177e-01 +1.71689078e-01 -2.24125106e-03 -1.21810712e-01 -2.01572925e-01 +6.97563738e-02 +2.55321681e-01 -2.43240893e-01 -7.04425126e-02 -1.33275837e-01 -3.72628689e-01 -4.83684748e-01 +1.10804327e-02 +4.87291701e-02 -5.61253466e-02 +8.70717242e-02 +7.62812123e-02 +6.68805167e-02 -2.09892601e-01 +8.90416559e-03 -1.14165984e-01 +1.53457175e-03 +2.64518350e-01 +5.54559603e-02 -7.75157101e-03 +7.31837377e-02 -1.49742529e-01 +1.08171374e-01 -6.69742674e-02 -1.82655245e-01 -5.71064539e-02 -1.45512968e-01 -4.92417455e-01 -4.32916909e-01 -2.31598407e-01 -1.61467224e-01 +3.11404206e-02 -2.67784566e-01 -1.83275230e-02 -1.33154914e-01 +1.43428311e-01 -1.27115622e-01 -3.23440343e-01 -2.64270678e-02 +1.92182720e-01 -9.15212482e-02 -2.10679963e-01 -2.03492143e-03 -6.95746958e-01 +4.29922521e-01 +9.68675464e-02 -1.51576757e-01 +9.05495584e-02 +8.62197205e-02 -7.73883462e-02 +6.38754815e-02 +2.20890850e-01 +1.16873451e-01 +2.58270413e-01 +1.38140067e-01 +5.84931374e-02 +9.70349982e-02 +1.20733403e-01 +5.03049970e-01 -1.44372910e-01 +1.01866238e-01 -5.50624132e-02 +1.64951727e-01 +1.89461544e-01 +6.06810868e-01 -2.29773939e-01 -8.30684602e-02 +1.38557270e-01 -1.48241058e-01 +5.66198584e-03 +1.10336773e-01 -2.83026487e-01 -1.79656520e-01 +1.62977889e-01 +9.53870490e-02 -5.29091775e-01 -2.93936133e-01 -3.32961619e-01 +3.11861206e-02 -1.81887701e-01 -6.98768422e-02 +1.67144701e-01 -4.03681945e-04 -5.43543637e-01 -4.66972828e-01 -3.17404643e-02 -3.11150756e-02 -4.87592369e-01 -2.58355021e-01 -1.19381897e-01 +7.08835572e-02 +2.38756821e-01 -2.44077906e-01 +1.45911112e-01 +4.10267748e-02 -2.19279826e-01 -3.06550801e-01 -1.10337697e-01 -4.80943799e-01 +4.10889983e-01 -4.79291603e-02 -1.51846215e-01 -1.53187653e-02 +6.78159237e-01 -3.26679468e-01 +1.86508164e-01 -9.99324620e-02 -1.54390067e-01 -1.10645421e-01 +7.61069804e-02 -1.45172356e-02 +2.04991759e-03 +1.87227055e-01 +1.43703576e-02 -3.26849846e-03 +3.82182926e-01 +1.93414375e-01 +4.31731008e-02 +3.59028839e-02 +1.75188035e-01 +3.22220206e-01 +4.47864793e-02 +9.55092385e-02 -2.12598760e-02 +8.08484778e-02 -4.59893882e-01 -1.37210414e-01 -1.47427201e-01 -5.65969229e-01 +2.71538585e-01 -2.18433723e-01 -1.51786417e-01 -1.72328040e-01 -2.55850583e-01 +3.54956761e-02 -4.21131104e-02 -2.74601936e-01 +1.49353191e-01 +2.63680220e-02 -2.12703601e-01 +2.81036884e-01 -3.58608295e-03 +1.25875667e-01 +1.40261233e-01 +2.04266131e-01 -1.18744023e-01 +2.64789537e-02 +3.17304611e-01 -4.17551160e-01 -1.74542684e-02 +2.53956288e-01 +2.01338291e-01 +1.08616382e-01 +2.33232841e-01 -5.86318364e-03 +8.06807503e-02 +3.19554061e-01 +1.05476245e-01 +2.31120646e-01 +3.51164937e-01 -1.41619846e-01 -2.92727679e-01 +2.70455509e-01 -1.94736511e-01 -4.70741913e-02 +6.05664700e-02 +2.60853231e-01 +5.24113700e-02 +1.56001985e-01 +3.10319632e-01 +1.13018669e-01 +2.62050092e-01 -2.98589647e-01 -1.14707768e-01 +1.89246967e-01 -3.76279950e-01 -2.58497000e-02 +1.72536582e-01 -3.01935989e-02 +1.81326404e-01 -2.28222713e-01 +3.89749855e-02 -1.25769615e-01 +3.03171545e-01 -2.06296816e-02 -1.69173464e-01 -2.85983443e-01 -1.27876177e-01 +6.24033883e-02 -1.48539931e-01 -1.65105388e-01 -1.68828949e-01 -5.63699126e-01 +7.55678788e-02 -2.96680424e-02 -6.99768141e-02 -1.51959583e-01 -3.06169212e-01 -2.48218402e-01 +7.75058642e-02 +1.98993146e-01 -2.42678538e-01 -2.44658381e-01 +2.13041250e-02 -3.47531326e-02 -3.26712936e-01 +9.43539664e-02 -1.75395995e-01 -8.76185670e-02 +3.03662419e-01 -9.88457426e-02 -1.45798340e-01 -7.81871155e-02 -1.48015603e-01 -5.20359337e-01 +1.67339236e-01 +1.24716669e-01 +5.25264561e-01 +7.77061423e-03 -5.53278387e-01 +2.32322395e-01 +7.22324997e-02 -6.59115613e-03 +3.34083706e-01 +3.81187201e-01 -4.67670918e-01 +7.71373093e-01 +2.96640277e-01 -8.34123865e-02 -2.58344109e-03 +2.62692161e-02 -1.89123794e-01 +4.20322686e-01 -2.63341308e-01 +1.82564482e-01 +1.38490602e-01 +1.37039348e-01 -3.04737628e-01 +2.20277086e-01 -1.58179969e-01 -3.71164382e-01 +2.07594018e-02 -1.83367878e-01 -2.00834453e-01 -1.48478821e-01 -3.91964015e-04 -1.47044763e-01 -4.14194286e-01 +2.68983185e-01 -8.04404095e-02 +4.99769673e-02 +2.00194828e-02 -1.25004426e-01 -1.26209602e-01 +2.99259454e-01 +7.46816397e-02 +2.44495332e-01 -9.50895064e-03 +3.74314666e-01 +7.49932602e-02 +1.35949120e-01 +3.46346200e-02 +2.14067981e-01 -2.76313365e-01 +3.35322112e-01 +5.48729181e-01 -2.99699157e-01 -5.68220112e-03 -1.46023840e-01 +2.59688735e-01 +2.16902122e-01 +4.03816283e-01 +2.76087597e-02 -1.81395859e-01 +8.26667249e-02 -5.88358194e-03 -1.43042445e-01 +1.27641216e-01 +4.69257474e-01 -1.50879055e-01 -8.14486071e-02 -9.00907535e-03 +1.10392606e+00 +1.19090125e-01 -7.58758485e-02 +1.86831519e-01 +4.11038131e-01 +1.06743656e-01 +2.01691300e-01 -1.25624537e-02 +3.23373009e-03 +3.28105271e-01 -1.93788767e-01 +9.51353833e-02 -7.05193043e-01 +1.34315744e-01 +4.33498800e-01 +3.79800312e-02 -9.04755741e-02 +3.17930430e-01 +1.06458865e-01 +2.58373320e-01 +2.02470332e-01 -4.87679094e-01 +9.21246707e-02 +3.92413139e-01 -4.63615417e-01 +2.08734632e-01 +3.76794636e-01 +1.03826895e-01 +1.67570516e-01 +3.65058839e-01 -4.15360212e-01 -5.61745986e-02 +1.02467963e-03 -9.24617127e-02 -4.79896158e-01 +5.60278952e-01 +1.18649438e-01 +3.46858919e-01 +3.31620201e-02 +1.97898954e-01 -2.33795360e-01 +2.01689050e-01 -2.06176471e-02 -1.56098217e-01 +6.05889380e-01 -7.54927993e-02 -2.09890291e-01 +2.06471354e-01 -6.02726117e-02 +1.91480622e-01 +1.83681041e-01 +1.02049761e-01 +3.66378933e-01 +3.31916690e-01 +3.87649298e-01 -2.74158180e-01 -5.29995441e-01 -3.95840667e-02 +1.72760725e-01 +4.44648474e-01 +2.46181443e-01 +3.44038397e-01 +4.49800417e-02 +2.48281181e-01 -1.47511130e-02 +1.16854779e-01 -2.06937805e-01 +7.76841342e-02 +6.94191530e-02 -1.57818973e-01 +3.25921953e-01 -7.24182725e-01 +1.10318586e-01 +4.27059412e-01 +3.05830210e-01 +2.20066711e-01 -2.92044222e-01 +8.97421222e-03 -2.12124750e-01 -1.83882102e-01 +2.88379461e-01 +6.06431127e-01 -9.32987705e-02 -5.01560085e-02 +2.77379215e-01 -3.34591806e-01 +1.08837381e-01 -2.40694940e-01 +7.45960653e-01 -2.27103472e-01 -5.77358492e-02 -3.99189234e-01 +1.66147172e-01 -3.51974785e-01 -7.22222254e-02 +7.97010809e-02 -2.11671814e-01 +9.04791150e-03 +1.60103571e-02 +1.24411441e-01 +1.78139031e-01 -2.24482104e-01 +4.25701708e-01 +1.24829061e-01 -1.71504598e-02 +2.20285878e-01 +3.29989612e-01 +1.32012546e-01 -1.93941474e-01 -2.39229992e-01 +5.44751100e-02 -8.74273386e-03 -1.50601834e-01 -3.81756276e-01 +1.86001986e-01 +7.95643926e-02 -2.23694384e-01 -2.37076983e-01 -1.15468770e-01 +5.29307015e-02 -1.35258988e-01 -1.86801359e-01 +2.77943373e-01 +1.54706731e-01 -3.75540942e-01 +3.08750570e-02 +4.27477099e-02 -5.92831671e-02 -2.43439168e-01 +4.26270574e-01 -8.67431313e-02 -2.39365667e-01 -3.67317408e-01 +4.54470851e-02 +1.29337385e-01 +2.03846935e-02 -4.33475465e-01 +2.67656773e-01 +3.54031324e-01 -4.23275322e-01 -2.67918408e-01 +1.63777724e-01 -1.83461532e-01 -2.48796284e-01 -4.17209983e-01 +3.34399715e-02 +4.83200923e-02 +1.17484875e-01 -5.02130389e-02 +4.63276029e-01 +4.07363951e-01 +1.88315466e-01 -5.07286750e-02 +2.19925985e-01 -1.37715727e-01 -1.05386406e-01 +7.82216787e-02 +9.72493067e-02 +1.70573108e-02 +9.72338319e-02 -3.06891426e-02 -3.71391848e-02 -6.87223896e-02 -1.82894431e-02 +2.36314647e-02 -5.10323122e-02 +2.20726170e-02 +2.17976138e-01 +7.43030608e-02 +1.82060733e-01 +7.25245522e-03 -1.14721447e-01 -3.64642262e-01 +8.81939828e-02 +2.22499236e-01 +5.66668451e-01 -2.40284324e-01 -7.70025909e-01 -1.53320864e-01 -3.63024592e-01 -2.71608353e-01 -2.03445330e-01 -1.21922754e-01 -4.50838774e-01 +5.85076690e-01 -4.28690463e-02 -4.54497337e-01 -3.42749394e-02 -6.00229315e-02 -4.45554644e-01 -4.29032929e-03 -5.72077632e-01 +1.83321059e-01 +4.84648086e-02 -1.79749459e-01 +2.37360761e-01 +7.37466753e-01 +8.14585164e-02 +6.00885570e-01 -5.29025435e-01 -7.64904991e-02 -1.91295758e-01 +1.41381830e-01 -4.64971036e-01 -8.61810222e-02 +2.01384306e-01 -4.57289308e-01 -1.78388610e-01 +1.69701591e-01 +2.58098245e-01 -1.63092032e-01 +7.84168765e-02 -7.13393837e-02 +5.63958466e-01 -4.07295153e-02 +5.07982187e-02 +3.07094216e-01 -1.75203383e-01 -8.31588805e-02 -1.39365926e-01 -1.72399595e-01 -1.33929044e-01 +6.45653129e-01 +1.79848015e-01 +1.18293045e-02 +7.43019134e-02 -8.84031579e-02 +3.17050219e-02 -2.81927228e-01 +2.78885961e-01 -8.75516236e-02 +2.97210217e-02 -7.08628967e-02 +1.32535547e-01 +2.62987405e-01 -2.31121242e-01 -1.82663634e-01 -9.43404287e-02 -1.79378197e-01 -2.42041886e-01 -5.39431442e-03 -2.25610703e-01 +2.33865708e-01 +9.88404965e-04 -1.13713004e-01 +1.12468936e-02 +4.69944566e-01 +2.12548986e-01 +5.47712184e-02 -3.05050224e-01 +2.06790566e-01 +1.58538043e-01 +1.25357538e-01 -1.70337394e-01 +3.59769940e-01 -1.79716460e-02 +2.35665187e-01 +2.50084251e-01 +6.73241317e-01 -2.48017728e-01 +3.39415148e-02 -4.12225388e-02 -3.61931145e-01 +2.64134765e-01 -1.86673149e-01 -1.44440711e-01 -3.12401146e-01 +6.41514435e-02 +4.03150618e-02 +4.52717394e-02 +7.89929777e-02 -2.71050870e-01 -1.95585743e-01 -2.19089493e-01 -4.15467530e-01 -6.95050508e-02 -1.07869416e-01 +5.49426317e-01 +6.24935329e-01 -1.19980037e-01 +1.58603117e-01 +9.00915414e-02 -4.42240648e-02 -2.47275122e-02 +7.64027163e-02 -2.06254825e-01 +3.87458533e-01 +1.84598714e-01 -2.20888510e-01 +2.36726463e-01 +2.11225420e-01 +4.80563521e-01 +3.80670935e-01 -6.21589273e-02 -3.93138491e-02 +1.75483882e-01 +2.31616899e-01 +2.65641157e-02 +6.07544541e-01 -3.89786839e-01 -5.64786732e-01 +5.50332554e-02 -1.30991759e-02 +4.20889318e-01 +4.35926616e-02 +6.14158452e-01 -6.56064987e-01 -6.41818404e-01 +2.59835422e-02 -2.66427845e-01 +3.34625036e-01 +3.65103126e-01 +8.52361262e-01 +2.01914221e-01 -3.95092607e-01 +5.93555346e-02 +1.33451715e-01 +9.97793451e-02 +1.01833045e-01 +5.47701955e-01 -3.81190479e-01 +1.15576172e+00 +1.82614133e-01 -2.05606028e-01 +1.13712120e+00 -1.42471850e-01 -4.06984910e-02 -3.92750710e-01 -5.61198592e-01 -2.24845186e-01 -3.96955043e-01 +3.42317261e-02 +3.87254879e-02 +1.92197502e-01 -1.21400487e+00 +6.35431381e-04 +2.09565938e-01 -1.51069522e-01 -1.99404672e-01 +7.97480792e-02 +2.09944304e-02 