#Parameter# /vanilla-lstm-builder/_0 {128,500} 1024001 ZERO_GRAD
-9.24681313e-03 -3.17925066e-02 +2.57075161e-01 -2.79173434e-01 -2.24522769e-01 +3.42934638e-01 -1.27683999e-03 -2.39497684e-02 +1.33266449e-01 -5.21734282e-02 -8.08729380e-02 -1.98820874e-01 -1.93268374e-01 +1.01415794e-02 -1.57149792e-01 -3.07083130e-01 +3.89563181e-02 -8.68980139e-02 +1.10112257e-01 -9.58622336e-01 -8.22818577e-02 -2.50019059e-02 -2.04580620e-01 -3.01708907e-01 +3.81180495e-02 +3.89661074e-01 +3.29559967e-02 -1.67327141e-03 -2.74034172e-01 +2.05441698e-01 +1.53899819e-01 +6.23758929e-03 +2.07037732e-01 +6.42565191e-02 +5.87489605e-02 -1.34796584e-02 +2.25391805e-01 +3.91205132e-01 -2.51437165e-02 +3.25419828e-02 +3.17884758e-02 -7.52470270e-02 -2.62628272e-02 +1.76109552e-01 -1.68761313e-01 -1.15299910e-01 +1.30657151e-01 -1.25806242e-01 +1.40350163e-01 -2.25490779e-02 -1.61238447e-01 -1.29461423e-01 +1.10240303e-01 -1.09580070e-01 +3.58422726e-01 +1.91828273e-02 -3.73786949e-02 -1.11272007e-01 -1.45907268e-01 +3.47695798e-02 +2.04041287e-01 -1.56506434e-01 +3.47193591e-02 -2.12480292e-01 +4.41157334e-02 +9.59205162e-03 -1.00376599e-01 -4.67999399e-01 +2.16348976e-01 -9.12389755e-02 -1.34299114e-01 +6.59378693e-02 -1.26806185e-01 -1.07744336e+00 -6.77653313e-01 +2.10892960e-01 +1.20139979e-01 +1.25587359e-01 +1.67429045e-01 -2.11720653e-02 +1.14026908e-02 +3.55652779e-01 +2.92547107e-01 +1.35737080e-02 -2.09454536e-01 -9.61802155e-02 -5.08442670e-02 -7.32069612e-01 +1.06181413e-01 +1.73441857e-01 -8.89317840e-02 +2.34898850e-01 +3.90862286e-01 -9.44686458e-02 -1.44128382e-01 +4.43698108e-01 -2.93038398e-01 +1.82650238e-01 +6.18010107e-03 -1.83547176e-02 +2.90531479e-02 +7.19953552e-02 -3.43376786e-01 -1.04671828e-01 +7.73733780e-02 -9.67648327e-02 +1.74935743e-01 +4.91552502e-02 +1.59520656e-01 -4.37677763e-02 +5.81658706e-02 +7.49172747e-01 +1.90164059e-01 +7.04668239e-02 +1.60791278e-01 -6.86585829e-02 +4.32470709e-01 -4.59817767e-01 -2.29845531e-02 -3.29032421e-01 -1.74829215e-01 +2.10318267e-01 -1.06551357e-01 +2.96231359e-02 -6.69419989e-02 -1.05162293e-01 -7.74139762e-02 -2.12768778e-01 +4.13728446e-01 +7.28204608e-01 -1.92486882e-01 +6.16864115e-02 -7.30514973e-02 -4.38794307e-02 -3.97360653e-01 +6.33328408e-02 -4.23224755e-02 -1.86077203e-03 -3.37385952e-01 -9.63902026e-02 +1.71572343e-01 -2.51915455e-01 -2.42593884e-01 -4.69237685e-01 -3.86157274e-01 +1.93793595e-01 -3.35429817e-01 +3.02414447e-01 +1.07047096e-01 -1.02073252e-01 +4.26620483e-01 -2.34790206e-01 -1.81262225e-01 -3.87801319e-01 +5.45459688e-01 -1.36170182e-02 -7.00607598e-02 -1.79364651e-01 -1.80051968e-01 -8.52687955e-02 -3.05952489e-01 -2.93270618e-01 -6.83525205e-02 -9.53472778e-02 +3.54081601e-01 -3.20754230e-01 +3.91828656e-01 -5.19914150e-01 +5.94919920e-01 -5.37349097e-02 -4.40241843e-02 -2.23783031e-01 -6.31869495e-01 +2.79777795e-01 +1.14131868e-01 +5.12370706e-01 -5.22791624e-01 +5.88912219e-02 -3.20151150e-02 +7.15744030e-03 +2.84925848e-01 +2.24073634e-01 +3.69335294e-01 +3.26452821e-01 -2.68356386e-03 +8.45638886e-02 -3.95137191e-01 -5.89354217e-01 +3.11569065e-01 +1.60149448e-02 +1.13175735e-01 +3.42435762e-02 -9.59399998e-01 -5.99679463e-02 -3.04142892e-01 +1.80381969e-01 +2.05106407e-01 -1.63860783e-01 -3.72590035e-01 -1.18841618e-01 -1.90979540e-01 +4.68324751e-01 -3.15076411e-01 +2.28879973e-01 +2.08066657e-01 -1.12948164e-01 -9.00338471e-01 -2.45179728e-01 -7.68262327e-01 +8.79950762e-01 -3.82117778e-01 -1.79859653e-01 +7.50458390e-02 -2.65283167e-01 +9.38496232e-01 -1.14983998e-01 +4.23943773e-02 -3.55063170e-01 +3.32816124e-01 -2.89091438e-01 +6.19344532e-01 -6.24317884e-01 +4.77573544e-01 -8.16231012e-01 -1.08372554e-01 +2.84478068e-03 +3.55125070e-01 -8.70656595e-02 -3.81564051e-01 -2.13527277e-01 +1.52170748e-01 +1.70448840e-01 -4.86944586e-01 +7.01110903e-03 +1.76620811e-01 +4.21339810e-01 -2.39795700e-01 -2.62220293e-01 +1.45771384e-01 +5.97049519e-02 -3.82029951e-01 +1.17865846e-01 +1.61262468e-01 -3.50610226e-01 -2.92311758e-02 +2.95589358e-01 +7.93107972e-03 -2.51235992e-01 -1.87923416e-01 -5.33725582e-02 +9.47184339e-02 -1.04899257e-01 +1.00544311e-01 -1.71869293e-01 -1.57821342e-01 -2.08589971e-01 +4.18547213e-01 +7.27998257e-01 +3.71231996e-02 +1.82369128e-01 -7.68814385e-02 +3.64862531e-01 -4.32051510e-01 -6.11878000e-02 +1.09876975e-01 +1.17028192e-01 -6.11299612e-02 +1.18965358e-02 +8.89065713e-02 -4.30005491e-02 -1.07750341e-01 +1.04440719e-01 -2.50763297e-01 +2.36038834e-01 -1.50971621e-01 -8.43131989e-02 -1.68908820e-01 -5.91811776e-01 +3.64107192e-01 -6.22180551e-02 +1.65935054e-01 +1.58159554e-01 +1.16604596e-01 +3.62098217e-02 -1.91709936e-01 -3.42785895e-01 -1.34027034e-01 -3.98246236e-02 -1.33753261e-02 -1.09716393e-01 -8.08638483e-02 -1.39973119e-01 +3.82443696e-01 -1.14267923e-01 +1.53420612e-01 +9.19660833e-03 +6.84310734e-01 +5.11701852e-02 +1.04638755e-01 -3.64872925e-02 -2.17349648e-01 +9.01511908e-02 -3.84059362e-02 -1.26891956e-01 -3.02358836e-01 +2.84494668e-01 -3.33492644e-02 +3.81056070e-01 -2.56303661e-02 +1.62457731e-02 +8.54649395e-02 +4.00357991e-01 +7.95880482e-02 +3.23193930e-02 +1.50451586e-01 -5.97994864e-01 +1.83596924e-01 +2.08543018e-01 +6.31329268e-02 +6.35871384e-03 -8.45857382e-01 -1.07945472e-01 -5.46969473e-01 -5.41291423e-02 -1.12072974e-02 +1.39276488e-02 -2.92969167e-01 -1.60559162e-01 +2.62828439e-01 +6.03807867e-01 -7.39669725e-02 -1.72575086e-01 +1.47894293e-01 +3.91347229e-01 -2.85562247e-01 -8.24216567e-03 -1.07965136e+00 +8.59111488e-01 -6.82497546e-02 +1.27064928e-01 +4.60039496e-01 -4.48623419e-01 -3.00814174e-02 -9.11178142e-02 +6.47244871e-01 +8.23775586e-03 +1.48480132e-01 -5.66902220e-01 +2.50388473e-01 -6.81340277e-01 +2.40707621e-01 -1.47297251e+00 -2.44281948e-01 -1.24096155e-01 +2.01747403e-01 -7.35909194e-02 -8.20214748e-02 +2.34194741e-01 -3.77232805e-02 -6.76802576e-01 -1.37806997e-01 +1.33332893e-01 -1.92681804e-01 -1.75898060e-01 +4.75287020e-01 -3.06437686e-02 -5.08501679e-02 +3.53526734e-02 +2.82081850e-02 -1.35244146e-01 -8.13346580e-02 -1.75264567e-01 -6.29572850e-03 +8.16390514e-01 -1.04542011e-02 -5.90634763e-01 +1.20762587e-01 +1.11322992e-01 -4.17512953e-02 -2.39583179e-01 -1.54274628e-01 -3.36106181e-01 +2.47562453e-01 -5.91829903e-02 -9.49178543e-03 -1.64442006e-02 +1.59739070e-02 +1.11058146e-01 +2.93173850e-01 +4.08359975e-01 -7.68967271e-02 +1.61316946e-01 +3.27618808e-01 +1.14720352e-01 +2.74817467e-01 +6.13090992e-02 +7.90944025e-02 -1.12839386e-01 -5.73776476e-02 +4.70826961e-02 +3.07787567e-01 +1.51337668e-01 +4.79610525e-02 +4.80414450e-01 +5.42425364e-02 +2.91642815e-01 +1.44289760e-02 +1.53233200e-01 -1.10275984e-01 -2.82285005e-01 +1.47909045e-01 -1.77176163e-01 -2.89038777e-01 -1.12697959e-01 +9.34578627e-02 +2.14104488e-01 -3.30186158e-01 +3.49274486e-01 -3.64291936e-01 -3.94848824e-01 +1.60285607e-01 +2.62094010e-02 -2.76292682e-01 -2.30581924e-01 +4.17054176e-01 +6.11107722e-02 +1.50506124e-02 -1.84266731e-01 -2.80010095e-03 +1.65552825e-01 +1.09687418e-01 -3.89938876e-02 +1.64625257e-01 -1.88165054e-01 -6.27087504e-02 -2.71964043e-01 +1.35048807e-01 -3.29214364e-01 -1.34227350e-01 -5.26658475e-01 +7.24429637e-02 +5.32555254e-03 -7.92415738e-02 +2.30112284e-01 -1.86647132e-01 +7.38779083e-02 +7.85001889e-02 -1.04984596e-01 +4.61653739e-01 +3.49392183e-02 +2.01226771e-01 +4.33786303e-01 +2.29809061e-01 -2.78516442e-01 -8.02438408e-02 +3.90400022e-01 +3.15929085e-01 -2.70413250e-01 -3.41165304e-01 +4.01528358e-01 -2.90727437e-01 +6.70463070e-02 -2.69660473e-01 -2.08554298e-01 -1.41183138e-01 +2.44745150e-01 -3.63810025e-02 +3.05276990e-01 -1.13551423e-01 +2.78850168e-01 -5.28102875e-01 -1.07978642e-01 +4.73532349e-01 -1.92651212e-01 -3.67047071e-01 -1.85055315e-01 -2.39532977e-01 +3.72862011e-01 -1.20809697e-01 -5.55709422e-01 +2.01027200e-01 -4.12535258e-02 +2.68015027e-01 -2.18779370e-02 +1.85554937e-01 +1.19136810e-01 +8.91794562e-02 +2.04856157e-01 +3.20440531e-01 +8.55113491e-02 -2.06370488e-01 +9.51459259e-02 -1.38513967e-01 +1.93440542e-01 -7.04224408e-02 -1.85817815e-02 -7.25085735e-02 +2.04039618e-01 -2.35598218e-02 -3.85205410e-02 -2.50059605e-01 -1.59338489e-02 +1.48226902e-01 -5.03936470e-01 +2.46534258e-01 +2.38830745e-01 -6.09381646e-02 +8.86918902e-02 +2.36636102e-02 +5.79139173e-01 -1.08684428e-01 +5.30904941e-02 +5.35411388e-03 +7.48763457e-02 -1.37730479e-01 -1.63333088e-01 -2.01227605e-01 +3.28973055e-01 -1.94389790e-01 +1.63036659e-01 +1.65907755e-01 +1.22328401e-01 +1.76074624e-01 -1.37701824e-01 -6.38927668e-02 +3.12382698e-01 +4.01287466e-01 +6.87443465e-02 -3.93390171e-02 +1.98444217e-01 +2.40042627e-01 +2.81947434e-01 +5.18245637e-01 +3.67326796e-01 -1.53131425e-01 +1.49235308e-01 -1.02347322e-01 +2.00736076e-01 -2.06809476e-01 -9.35708545e-03 -2.33518094e-01 +2.51042724e-01 +2.41253465e-01 +2.81661987e-01 -3.05504143e-01 -7.87073523e-02 -1.49900079e-01 -6.40499890e-01 +5.38725257e-01 -1.13598451e-01 +4.00090814e-02 -1.76781356e-01 -1.83058813e-01 +6.55487739e-03 +6.05974626e-03 +3.66291292e-02 +4.07650918e-02 +1.18266188e-01 -1.48597404e-01 -1.41721889e-01 +7.00531080e-02 -7.95071125e-02 -1.04728527e-01 -6.43693566e-01 +1.76263332e-01 -2.04762086e-01 +1.22808456e-01 -3.00795168e-01 -1.92461215e-04 -4.86955136e-01 +8.33469722e-03 -1.90029263e-01 -1.98686779e-01 +2.42923468e-01 -4.26065810e-02 -5.63812368e-02 +1.49282917e-01 +6.04689568e-02 +3.50093991e-01 -2.93012291e-01 +5.94594330e-03 -5.40821433e-01 +3.37255925e-01 -3.66768688e-02 +4.12320465e-01 +2.12328851e-01 +1.66019925e-03 +4.01183844e-01 +4.92467433e-01 +2.37463161e-01 -3.23035896e-01 -1.99303567e-01 +6.68338090e-02 +2.22618744e-01 +1.24299742e-01 +7.08090961e-02 +3.06587011e-01 +4.59743515e-02 +1.33295864e-01 -3.09817433e-01 +6.89547598e-01 +1.97281130e-03 +4.24312592e-01 +3.22335303e-01 -5.98466575e-01 -1.94415510e-01 -2.70683914e-01 -5.70051610e-01 -2.30731089e-02 -2.66469985e-01 -1.05787180e-01 -1.48572400e-01 +1.71511218e-01 +2.78050583e-02 -1.44304195e-02 +3.52421552e-01 +6.73623905e-02 +2.44965151e-01 -1.29644141e-01 -1.22312009e-01 +1.29687283e-02 +2.70977587e-01 -3.73524576e-01 +7.83968344e-03 +1.14923343e-01 -1.28370598e-02 -3.09346616e-01 -1.90425981e-02 +7.01876953e-02 +4.62408155e-01 +1.91423938e-01 -2.08129182e-01 +1.89628284e-02 +2.84970820e-01 -2.05964461e-01 -2.02440754e-01 -2.41018683e-01 +1.45473614e-01 -3.49680543e-01 +6.94418997e-02 +2.57012069e-01 -1.21352240e-01 -1.15755454e-01 -2.62225091e-01 +2.02594727e-01 +6.69136584e-01 +1.19212292e-01 +1.98535711e-01 +4.06330228e-01 -2.44864121e-01 -1.65140286e-01 -4.49321531e-02 -5.94408251e-02 +1.23853795e-01 -6.67750686e-02 -3.60720903e-01 +2.84334034e-01 +4.80919145e-02 +4.72443551e-02 +2.20257610e-01 -9.53638554e-02 -3.69846433e-01 +4.81761433e-02 +8.52970406e-02 -2.53347278e-01 +7.84402192e-01 +1.53404579e-01 +6.13537610e-01 -4.32907641e-01 +2.24366009e-01 +1.11954994e-01 +2.00366050e-01 +4.66322601e-01 +1.39916420e-01 +9.80960950e-02 +1.17665350e-01 +5.59211373e-01 +4.69161183e-01 -1.15474194e-01 -1.88700199e-01 +4.46331859e-01 +7.16716498e-02 -3.06701660e-02 +2.54225045e-01 +4.53249633e-01 +3.02856266e-01 +2.28957042e-01 +3.26068163e-01 -8.45686123e-02 +2.77089804e-01 +5.41795343e-02 +1.33551508e-01 -7.27279708e-02 +1.24461949e-01 +3.31450552e-01 +4.82652843e-01 +4.38195914e-02 -3.13005984e-01 -2.39736423e-01 -2.44015321e-01 +2.37369806e-01 +1.97297037e-01 +1.19465470e-01 +1.00789323e-01 -4.80624527e-01 +3.97815585e-01 +4.13452089e-01 -5.73214769e-01 +4.65892255e-01 +6.15930438e-01 +2.37009991e-02 +1.15035854e-01 -2.69956172e-01 -2.08857685e-01 -7.38098443e-01 +6.77234411e-01 -1.20756768e-01 +1.14134759e-01 -8.90666544e-02 -8.88148695e-02 +3.82774442e-01 +4.57348406e-01 -9.46885943e-01 -1.81205377e-01 +1.55007988e-01 +7.07711838e-03 +1.85426071e-01 -1.04898527e-01 -3.30736674e-02 +3.58525336e-01 -2.43114069e-01 +5.41940451e-01 -6.50367588e-02 +1.31217435e-01 -1.28964484e-01 +2.67618626e-01 -1.35345086e-01 +4.24726814e-01 +3.85669619e-01 +1.29456058e-01 +1.93890736e-01 -5.07283323e-02 -4.06107336e-01 +8.70061889e-02 +2.11820662e-01 +9.51165333e-02 -7.46018067e-02 +1.55614018e-01 -7.83938542e-02 +5.08995317e-02 -3.93661670e-02 +7.22228169e-01 +2.78550029e-01 -8.68289694e-02 +2.30051558e-02 -2.74017453e-01 -6.85151666e-02 -6.74948156e-01 -9.94903594e-02 -2.32595488e-01 -1.62426457e-01 -1.32864504e-03 -2.22173631e-01 -2.12159857e-01 +5.52416593e-02 +1.40547650e-02 -2.11285710e-01 +1.18351452e-01 -2.93036968e-01 -1.17366053e-01 -9.45661590e-02 +5.21903038e-02 +3.93084466e-01 +4.08139601e-02 +1.53436527e-01 -1.14688195e-01 +3.65401618e-02 +7.54154697e-02 +9.59581509e-02 -2.01818705e-01 +4.05643173e-02 +3.52520019e-01 +1.79750025e-01 -8.53551701e-02 +1.55056432e-01 +5.94327878e-03 +3.15010637e-01 +1.34987980e-01 +5.36753058e-01 +3.06783527e-01 -1.36507735e-01 +1.04382209e-01 -1.93636894e-01 +8.37290809e-02 -4.68555510e-01 -3.83075684e-01 +2.04073321e-02 +2.43750334e-01 +3.36489171e-01 +2.43749052e-01 -5.67856789e-01 +1.78713282e-03 +7.42002204e-02 -2.49642611e-01 +1.09749608e-01 +2.48481750e-01 -4.20565844e-01 +8.46580714e-02 +1.25581175e-01 +9.72165912e-02 +2.12127459e-03 -1.11859329e-01 +4.55239832e-01 -8.51877928e-02 +1.69369876e-02 -3.16306442e-01 +4.23527867e-01 -3.54108900e-01 +1.54053301e-01 -3.63172263e-01 -2.69884914e-01 -4.50462289e-02 -2.01175675e-01 -8.21492523e-02 -7.09153935e-02 -2.75681585e-01 +2.28591532e-01 +4.71363157e-01 -3.63310933e-01 +2.11804628e-01 -1.19542405e-01 +1.87101692e-01 +2.26010710e-01 +2.48739235e-02 -1.11967111e-02 +2.19785973e-01 -3.70366901e-01 -4.22174841e-01 +2.70360440e-01 +6.73638731e-02 +2.45957419e-01 -5.90053976e-01 -4.23454642e-01 +2.70460188e-01 -1.88963085e-01 +2.85518944e-01 +7.53034605e-03 -2.51348674e-01 +3.40867937e-01 -1.25271723e-01 +6.45360231e-01 +3.04986119e-01 +3.82506028e-02 +4.28386815e-02 -2.12159917e-01 -4.19176012e-01 -1.46673918e-01 -3.55320536e-02 -1.57498896e-01 +2.71635622e-01 -5.84661901e-01 +8.37573469e-01 +1.03942603e-01 +4.43720996e-01 +2.94139266e-01 -1.85557842e-01 +1.18483650e-02 -7.14334249e-02 +2.84462839e-01 +3.35502997e-02 +2.42848516e-01 +8.54752958e-01 -1.76914468e-01 +1.73058048e-01 +1.28249362e-01 -1.23836257e-01 -3.56535584e-01 +6.30107149e-02 -2.22115293e-01 -6.74800575e-02 -6.76819533e-02 +2.80680954e-01 -5.21659374e-01 -7.64806792e-02 -1.10895425e-01 -2.91770905e-01 -5.85494889e-03 -5.47977388e-02 +9.69753265e-02 +7.10605681e-02 -1.23174094e-01 +1.22574158e-01 -1.17281824e-01 +2.99578995e-01 -1.15419157e-01 +6.49550110e-02 +3.55687439e-01 +2.90040404e-01 -1.42492011e-01 -2.46380921e-02 +9.98110250e-02 -7.25814924e-02 -1.97224438e-01 +4.00619864e-01 +4.85134095e-01 +4.01929803e-02 +1.27925724e-01 -1.64359659e-01 -1.81536376e-01 +1.42180234e-01 -1.77988093e-02 +4.56168085e-01 +3.80256116e-01 -7.38654584e-02 -4.65110224e-03 +1.78212866e-01 -2.25672096e-01 +4.34185773e-01 +4.30253536e-01 -2.97970682e-01 -3.80927473e-01 -5.07660247e-02 +3.67236026e-02 -6.41568676e-02 -2.97675043e-01 -2.56586820e-01 +9.68157127e-02 -1.05303274e-02 -1.30248412e-01 -1.89979210e-01 -3.73851240e-01 -2.86616087e-01 -1.86694384e-01 -3.87143791e-01 -1.22133225e-01 +4.95221242e-02 +4.46255416e-01 -3.71862724e-02 -6.63040131e-02 +5.60569055e-02 -1.37050807e-01 +6.04598001e-02 +9.11944509e-02 +5.86225875e-02 -2.27820590e-01 +3.28413814e-01 -9.71166342e-02 -1.12260193e-01 -2.86540389e-01 -1.22958891e-01 +2.60583490e-01 -1.08645275e-01 -4.82671559e-02 +6.23716526e-02 -2.55104959e-01 +3.94200474e-01 +8.35697204e-02 -5.37478249e-04 -9.15721208e-02 -4.84220013e-02 -1.54916435e-01 +2.57767797e-01 -3.91564846e-01 -4.39604186e-03 +4.61612076e-01 -3.93814445e-02 +8.84693712e-02 -1.26525447e-01 +3.70056480e-01 -9.32068825e-01 +3.41361463e-01 -2.93956883e-03 +1.50440047e-02 -1.10675514e-01 +2.30739266e-02 +2.42802724e-01 +4.65230010e-02 -1.29987389e-01 -6.16978645e-01 +9.95648652e-02 +3.89454693e-01 -2.91486494e-02 -2.09573105e-01 -2.15830371e-01 +1.72633436e-02 -2.51362681e-01 -3.00980896e-01 -1.11409709e-01 +1.09814286e-01 +6.55618459e-02 -1.77739426e-01 -5.23946345e-01 +3.25396881e-02 +3.48947704e-01 +1.65636484e-02 -5.11122048e-02 +5.76344840e-02 +1.04081713e-01 -2.01683849e-01 -1.31216794e-01 +5.01245484e-02 -7.76096955e-02 -2.90486395e-01 -1.11146964e-01 +4.44961376e-02 +2.63773322e-01 -1.07668988e-01 +4.23924923e-01 -3.02405860e-02 -2.58719940e-02 -9.02775228e-02 +4.79379058e-01 +9.86881927e-02 +3.15324038e-01 +3.29426318e-01 -5.13393342e-01 -5.46984747e-02 -5.87478876e-01 -8.53759274e-02 -8.90608504e-02 +1.68032646e-01 +4.74023640e-01 +4.02442589e-02 +2.98504204e-01 +1.91927269e-01 -3.49274516e-01 -3.35918437e-03 -6.20654202e-04 -6.61921725e-02 -1.58628896e-01 -5.21718264e-01 -2.80829310e-01 +3.94578651e-02 -2.31711760e-01 -3.29480350e-01 -2.75102377e-01 -1.61102384e-01 -2.20906228e-01 -2.25716859e-01 -3.63614410e-01 +1.21578023e-01 +2.45400071e-02 -1.55563802e-01 +4.49329644e-01 +4.59006391e-02 -2.53776848e-01 -2.53721863e-01 +3.46661657e-01 -1.14285164e-01 -1.44858405e-01 -1.55384555e-01 -1.28670737e-01 -1.23088837e-01 +1.26261115e-01 -8.59078020e-02 -1.38388261e-01 +2.47976705e-01 +5.15328169e-01 -1.19861290e-01 -8.18366781e-02 +1.10740721e-01 +3.04810226e-01 +1.77809864e-01 -1.34357279e-02 +9.77345556e-02 -4.89617698e-02 -2.09807213e-02 -2.33668476e-01 +1.51805263e-02 -2.53929198e-01 +1.36473432e-01 +2.65767843e-01 +2.92135239e-01 -3.06666996e-02 -1.53125003e-01 -8.25114325e-02 -4.54442292e-01 +6.60067648e-02 -9.12440792e-02 +1.01522826e-01 +8.91128033e-02 -4.68295246e-01 -3.21339108e-02 -7.24647492e-02 +2.71482438e-01 -1.22238599e-01 +1.17238358e-01 -3.25715244e-01 -1.70899600e-01 +1.34586662e-01 +9.02582631e-02 -3.07834446e-01 -1.54351979e-01 -4.32281882e-01 -5.00923514e-01 -1.36680126e-01 -1.72813520e-01 -3.78231019e-01 -5.87951601e-01 -1.99836701e-01 -9.82256839e-04 +5.96070625e-02 +1.04651876e-01 -1.10376924e-01 -3.44682604e-01 +3.25556308e-01 -1.25235051e-01 -1.45733118e-01 -4.82319087e-01 -7.31289506e-01 +6.95312619e-01 -1.50738835e-01 +1.58034384e-01 -1.35625780e-01 -1.92386299e-01 -7.22541586e-02 +2.76990294e-01 -6.28745973e-01 -2.02566087e-01 +3.47808212e-01 -2.14765027e-01 +1.25331327e-01 +2.64513195e-02 +1.06340185e-01 -1.36140317e-01 -2.25761324e-01 +3.74534726e-01 +6.34942055e-01 -4.76962715e-01 -7.64476061e-02 +3.53563875e-01 +1.07699767e-01 +2.42080986e-01 -3.42303634e-01 +1.66243374e-01 +5.21651842e-02 -7.14252383e-05 -1.50450513e-01 +1.29234746e-01 -1.62159130e-01 -4.17499393e-01 -4.43386167e-01 -2.73659527e-01 +1.25176683e-02 -1.88394308e-01 +3.31932575e-01 +1.85071588e-01 +3.95197310e-02 +2.07175374e-01 +1.59574851e-01 +1.98095798e-01 -3.03302079e-01 +2.95108616e-01 +2.27114007e-01 +2.76432872e-01 +2.18620583e-01 +2.26848260e-01 -3.60962480e-01 +2.96665549e-01 +6.81265518e-02 +2.37770841e-01 +2.12109387e-01 +2.29527861e-01 -1.11456960e-01 +1.72087867e-02 -1.36957452e-01 +1.39689520e-02 -9.98173356e-02 -4.97537516e-02 +3.46622258e-01 -7.86311701e-02 -3.47480565e-01 -4.15967613e-01 -4.13712636e-02 +1.69280037e-01 -1.14909515e-01 -2.09827218e-02 +1.84104443e-01 +5.24728885e-03 +1.65740028e-01 +1.50791079e-01 -6.97131827e-02 -1.01136722e-01 +5.10004796e-02 -1.83888569e-01 -3.58883709e-01 -5.60054123e-01 +5.71911186e-02 +1.08469270e-01 -9.23359692e-02 +2.60057032e-01 -1.98503017e-01 +5.50694406e-01 +2.33201459e-02 -3.95783503e-03 -3.13470155e-01 -5.75421564e-02 +3.36341888e-01 +1.69718027e-01 +1.26822516e-01 -1.15482308e-01 +9.42054298e-03 -1.45695833e-02 -3.96266319e-02 +6.60018101e-02 +3.63087595e-01 -3.13136458e-01 +3.38457525e-02 +5.03418222e-02 +1.30957022e-01 -1.49808869e-01 +1.91643294e-02 -7.70299360e-02 -3.12107950e-01 +1.23266533e-01 +2.76527971e-01 -4.86429073e-02 -5.84482312e-01 +6.40673041e-02 +1.12273283e-01 -5.31280875e-01 -1.38622135e-01 +1.81600228e-01 +4.57897961e-01 +4.78172721e-03 +3.90294820e-01 -3.58093530e-01 +4.99332696e-01 +6.93914145e-02 -1.48234308e-01 -5.24132729e-01 -6.86775744e-02 -4.82018590e-02 +7.64699280e-01 +5.04601240e-01 +1.13365568e-01 -1.08563513e-01 +3.72657806e-01 -9.33001866e-05 +6.14508867e-01 +1.94458626e-02 -1.82653777e-03 -4.14563894e-01 +1.17254317e-01 +4.27944541e-01 -6.97593927e-01 -1.13211825e-01 -4.65782791e-01 +3.82559776e-01 +2.85321742e-01 +4.46173072e-01 -2.08118230e-01 +2.05973424e-02 +7.08797723e-02 -3.90438199e-01 +4.31628563e-02 +4.10096228e-01 +6.54744431e-02 +4.54780273e-02 +5.62560633e-02 -4.29652900e-01 +8.47785398e-02 -1.39592022e-01 -3.43846940e-02 -9.39088836e-02 +3.09229732e-01 -7.05895871e-02 +1.92296743e-01 +1.33290097e-01 +1.85377926e-01 +1.42992362e-01 -1.18948512e-01 -6.00915216e-03 -1.85004041e-01 +2.64178038e-01 -1.23250671e-01 +6.59459829e-02 -4.48980689e-01 +2.48102635e-01 -1.64272971e-02 +4.25686538e-01 +1.59398634e-02 -2.42587179e-02 +2.52072960e-01 -4.20862548e-02 -1.78965688e-01 -2.65344411e-01 +6.89078197e-02 -5.54545403e-01 +9.83024240e-02 -1.67573750e-01 +6.98655322e-02 -7.17350543e-02 -5.40609471e-02 -2.30538741e-01 +3.95592213e-01 +3.63599472e-02 +1.84914291e-01 -1.21040732e-01 -5.65065444e-02 +1.80749744e-01 +2.72574395e-01 +2.32871979e-01 -1.94881365e-01 -3.02772634e-02 -9.72362459e-01 -9.04261172e-02 -1.36334091e-01 -1.15061857e-01 -2.72626489e-01 -1.26441166e-01 -2.22945884e-01 -3.15700062e-02 -5.46698868e-01 -6.40813410e-01 +1.34098634e-01 -6.44078944e-04 -2.20738843e-01 +6.57497793e-02 -1.76628396e-01 +3.70064139e-01 +2.00780347e-01 -1.18413068e-01 +5.07765934e-02 -2.69775558e-02 -1.31216273e-01 -7.23728240e-02 -3.31138149e-02 -5.12798905e-01 -1.69277728e-01 -7.72263333e-02 +1.32963523e-01 -1.69255510e-02 +8.96880329e-02 -1.04095958e-01 -1.03567414e-01 +1.20481148e-01 +7.43700340e-02 +1.59227297e-01 -1.37532353e-01 +2.04783589e-01 +1.60419837e-01 -1.12374559e-01 -6.30742591e-03 -5.02322674e-01 -1.60618871e-01 -1.31687418e-01 +2.20122218e-01 +9.31288004e-02 -2.13401183e-01 -2.36413300e-01 +2.18023345e-01 -8.36359337e-02 +4.51242000e-01 +1.21914977e-02 -7.98285604e-02 -2.99071968e-01 +6.28060818e-01 -1.24256700e-01 +1.69615913e-02 -9.39705551e-01 +1.97295710e-01 -1.07516432e+00 -2.24539176e-01 +1.75312206e-01 -1.49978772e-01 -2.38424137e-01 -5.27668111e-02 +9.90259498e-02 -4.58627075e-01 -3.25722396e-01 +5.27904741e-02 -2.27006823e-02 -9.32815820e-02 -1.09516615e-02 -5.70343614e-01 +2.32192464e-02 +5.02225637e-01 +3.66604850e-02 -2.13694558e-01 +3.54068503e-02 +1.16560189e-02 -1.71347838e-02 -3.25307101e-01 -1.98219605e-02 +3.17006186e-02 +9.18462276e-02 +2.42982388e-01 +4.95238453e-01 -1.55368038e-02 -8.25879537e-03 +4.70748395e-01 -3.29131782e-01 -7.29780197e-02 -8.64979103e-02 +9.14782509e-02 -3.33040893e-01 +6.91504180e-01 +1.90898821e-01 +2.46572107e-01 +7.37627223e-02 -2.10852265e-01 +1.89640149e-01 -1.46410123e-01 -3.15273479e-02 +2.80914158e-01 -4.06571627e-02 +9.75287482e-02 -1.10362239e-01 +1.28800068e-02 -2.76051858e-03 -1.72564443e-02 -1.58896372e-01 +3.19896072e-01 +1.06286898e-01 -1.35804608e-01 -7.76667893e-02 -2.34894454e-01 -5.69934212e-02 +1.16178639e-01 -1.02636911e-01 -7.06086531e-02 -9.07996520e-02 -7.94103593e-02 -6.60189390e-01 +2.60005862e-01 -2.32725784e-01 +1.92345604e-01 +3.84173542e-01 +7.55040705e-01 -2.48316675e-01 +4.20705587e-01 +2.38861129e-01 +3.30357552e-01 +5.47953248e-01 -2.42556632e-01 +3.71433884e-01 +1.93666890e-01 +1.25687972e-01 -2.02692807e-01 -1.87164173e-01 +5.99778770e-03 +1.16288038e-02 -3.65944915e-02 -3.31503332e-01 +1.60780534e-01 +4.36237484e-01 -2.85066247e-01 +5.20632640e-02 -6.39643297e-02 -1.62795857e-01 -4.40837555e-02 +3.10542822e-01 -3.28006238e-01 -3.14652711e-01 -5.90338409e-01 +2.69209504e-01 -3.99282575e-01 -2.67076015e-01 -7.69702673e-01 -4.49285358e-01 -7.43162453e-01 +4.30650145e-01 -3.78944248e-01 -2.18609169e-01 +1.43233836e-01 -2.86019951e-01 +1.50881097e-01 -2.89286941e-01 +3.34313512e-01 -1.60970226e-01 -6.21403381e-02 +1.45012647e-01 +2.77506948e-01 +8.80979300e-02 +4.66159314e-01 -7.94564933e-03 -3.51150393e-01 +2.04586715e-01 +4.68292594e-01 -5.19099772e-01 +2.50056088e-01 -7.00938463e-01 +6.58028349e-02 +2.45392174e-01 -2.99915344e-01 -4.34387088e-01 +3.71165574e-01 +5.85016683e-02 +6.67369068e-01 -4.09789860e-01 -4.03153837e-01 -6.51030183e-01 -7.51997828e-02 -6.34171814e-02 -4.90326881e-01 -4.40473974e-01 +3.22548419e-01 +2.02956885e-01 +9.80748653e-01 +5.96501291e-01 +1.51561620e-02 -6.85443342e-01 +3.19241077e-01 -2.56772101e-01 -4.72611152e-02 +1.10909924e-01 -5.40139116e-02 -1.37999147e-01 -3.12305272e-01 +2.92676896e-01 +1.00566037e-01 -2.99435779e-02 -1.04491122e-01 +1.80071741e-01 -2.95969874e-01 +5.94372004e-02 -2.96464592e-01 +4.97702621e-02 -4.01196063e-01 +1.55427232e-01 -2.28272706e-01 +1.80220872e-01 -2.54353043e-02 +1.61036596e-01 -3.33649486e-01 -1.80682823e-01 +5.98601997e-01 -3.31261367e-01 +1.05648434e+00 -3.40753466e-01 +1.14319906e-01 -3.23470011e-02 -1.50294796e-01 -4.15361710e-02 -1.06321856e-01 +1.28468260e-01 +1.31879643e-01 +2.33965050e-02 -8.99374112e-02 -2.99451929e-02 +3.66475657e-02 +5.80334514e-02 -9.83889773e-02 -3.78234386e-02 +4.14933972e-02 +9.77375358e-02 -7.62202684e-03 -1.14618741e-01 +8.09853524e-03 +1.38114765e-01 -9.69685614e-02 -2.36274242e-01 +1.48574188e-01 -1.02415621e-01 +1.10522872e-02 -1.85975358e-01 +3.53164673e-02 +2.62189478e-01 -1.22033067e-01 -3.45632136e-02 -1.84066147e-01 +5.21633141e-02 +2.21048117e-01 -1.11006156e-01 -5.32138944e-01 +1.21224187e-01 -3.38213556e-02 +3.72896075e-01 -5.33132195e-01 -9.77891088e-02 -1.07217535e-01 +3.41247797e-01 -2.14631811e-01 -1.64875805e-01 +6.42710924e-02 -1.61269289e-02 -4.34509143e-02 +9.92202573e-03 +3.24299812e-01 -3.36332142e-01 +2.04099253e-01 -1.34764314e-02 -2.48597160e-01 -1.99683875e-01 +3.50388050e-01 +2.72731762e-02 +2.68938579e-02 +1.89464211e-01 +3.09629828e-01 +1.60420269e-01 -7.95266926e-02 -4.78863809e-03 +4.27921908e-03 +2.39398330e-02 -1.99586958e-01 +1.36448815e-01 -2.98326105e-01 +1.28504246e-01 +1.18868850e-01 -5.46245337e-01 +2.68399775e-01 +1.10898996e-02 -6.36052340e-02 -1.84286341e-01 +2.05627769e-01 -3.16045024e-02 +7.30982050e-03 +6.80747554e-02 +1.89619601e-01 +3.68019342e-01 -6.30182996e-02 +1.13235824e-01 +2.11363271e-01 -1.75086305e-01 +1.14132740e-01 -3.58197302e-01 -1.46694422e-01 -2.92606860e-01 -5.74441217e-02 +2.35750511e-01 -5.36051840e-02 +3.69218886e-01 -2.10328978e-02 -2.44225770e-01 -2.18418986e-01 -7.03928322e-02 -2.88765758e-01 -1.84315190e-01 -1.98966131e-01 +3.63466144e-01 -3.93581539e-01 -1.09189391e-01 -4.53540217e-03 -1.28451630e-01 -7.91713744e-02 +3.58099528e-02 -8.00568536e-02 -3.81481647e-01 +7.82568529e-02 +2.48396188e-01 +1.53093591e-01 -1.51378483e-01 +9.50631648e-02 +4.34997290e-01 +2.04243720e-01 +3.17204952e-01 +3.15760225e-01 -1.28264114e-01 +5.37328497e-02 +1.85676310e-02 +3.07930186e-02 +1.47314891e-01 +1.78477898e-01 +5.71268164e-02 +2.44114101e-01 +1.40986413e-01 -4.46256280e-01 +7.57352263e-03 -1.07473835e-01 +1.35204315e-01 -2.48405173e-01 -2.80060291e-01 +1.86484173e-01 -1.50184542e-01 +4.09606040e-01 -1.65631220e-01 -1.76828593e-01 -1.30689859e-01 -1.58826903e-01 -1.84922189e-01 -1.18602902e-01 -2.43649393e-01 +8.92863795e-02 -2.00630575e-01 -6.16147757e-01 -2.52163678e-01 +6.40063658e-02 -3.03435594e-01 -3.81902367e-01 +2.92015553e-01 +5.48558906e-02 -3.55844758e-02 -6.39173090e-02 +2.39606202e-01 -3.66209447e-02 +3.58929664e-01 -3.23609710e-01 -1.18795723e-01 -2.07768932e-01 -1.69408441e-01 -1.84280917e-01 -6.02487773e-02 +2.41591766e-01 +9.58384871e-02 +2.92378254e-02 +3.28578278e-02 +1.48158416e-01 +3.16399097e-01 +2.37735346e-01 -7.13848174e-02 -4.74364311e-01 +4.98528957e-01 +2.32065305e-01 +1.13043882e-01 +9.89311859e-02 -1.14740217e-02 +2.96902247e-02 -3.37511525e-02 -2.17308760e-01 -1.15993666e-02 +2.47119591e-01 +1.37853101e-01 +8.51875842e-02 +1.90685168e-01 -1.54187411e-01 -3.66663188e-01 +9.83760282e-02 -2.49957711e-01 +6.40846789e-01 +3.19554619e-02 -7.82833919e-02 +1.68898836e-01 +1.82091191e-01 -6.95378557e-02 +2.64212251e-01 -5.37152067e-02 +1.88630223e-01 -7.76112139e-01 -4.84895438e-01 +2.86973357e-01 -2.86743939e-01 +3.16068739e-01 +2.73612589e-01 +3.15763466e-02 -8.08701038e-01 -4.35904384e-01 +3.57186571e-02 -3.58548671e-01 -9.29145962e-02 +2.73756087e-01 -1.31378338e-01 -4.54159565e-02 -3.26131046e-01 +2.42952138e-01 -1.30242750e-01 -3.08305234e-01 -1.37465060e-01 +3.38546522e-02 -2.46181250e-01 +3.14044535e-01 -7.17087612e-02 -1.40599698e-01 +3.59383615e-04 -4.29273307e-01 +1.73813045e-01 -1.54677063e-01 -3.42513174e-01 -8.55868608e-02 +3.40377510e-01 +2.20339429e-02 -2.59737581e-01 +5.09302467e-02 +6.80658221e-02 -4.53135788e-01 +1.11285657e-01 +5.55220842e-01 +1.35938734e-01 -1.14689402e-01 +4.98810560e-02 +1.74243957e-01 +9.34955627e-02 +2.30553955e-01 +1.81728348e-01 +9.97708440e-02 -3.35397534e-02 -2.53866818e-02 -1.13598295e-01 -5.27329780e-02 -8.53864625e-02 +7.00728521e-02 -2.94715613e-01 -2.85277814e-01 -1.64685696e-01 -1.21165693e-01 +3.96144390e-01 +1.04343764e-01 -7.07773343e-02 +2.51472324e-01 +6.30040020e-02 +2.34459564e-01 +1.27993897e-01 +4.41727489e-02 +8.53721052e-02 +3.31686363e-02 -6.63708597e-02 -1.46812145e-02 -8.48019570e-02 +4.05581258e-02 +1.38002813e-01 -2.05862358e-01 -7.14519396e-02 -5.68303168e-02 -1.29628526e-02 +1.00125805e-01 +1.90340746e-02 -5.63170649e-02 -6.39176294e-02 -1.78745553e-01 -6.55748248e-02 -3.27058062e-02 -6.62617266e-01 -8.10114015e-03 -2.62528837e-01 +7.85221756e-02 -1.28472716e-01 -3.01503927e-01 -9.60535333e-02 -2.42502674e-01 +3.14662546e-01 -3.83484483e-01 -9.85904336e-02 -8.50603804e-02 +1.82437003e-02 +2.05209389e-01 -7.64844120e-01 -2.63023466e-01 +7.01739863e-02 +3.64712119e-01 +3.77936393e-01 +4.20083463e-01 -3.79063278e-01 -2.90549636e-01 +1.66550741e-01 +4.12820019e-02 +2.42400333e-01 -5.13757095e-02 +4.10631262e-02 +9.85800251e-02 -4.54417378e-01 -2.42394686e-04 +3.23845968e-02 -3.40637952e-01 +1.49271369e-01 -2.57949203e-01 -2.92934161e-02 -4.17065099e-02 -8.19810256e-02 +2.23979112e-02 +6.70951083e-02 -2.10585460e-01 +1.64128780e-01 +3.45423728e-01 -5.50225794e-01 +1.52062908e-01 +1.91726774e-01 +3.23338620e-02 -8.14440772e-02 -1.33177534e-01 -1.68436766e-01 -1.37974039e-01 +5.28189242e-02 +2.51942724e-01 +3.42026442e-01 -2.99637675e-01 -4.14085388e-01 -5.20853639e-01 +1.61022857e-01 +2.19371304e-01 +3.86240065e-01 +3.61132026e-01 -1.12839624e-01 -3.91333252e-02 -3.87713373e-01 +2.91918576e-01 +2.57871777e-01 -7.45297000e-02 +1.42929494e-01 +3.24742556e-01 -3.68390590e-01 +3.12906921e-01 -1.26262158e-01 -1.66618884e-01 -6.49566054e-02 -1.56835958e-01 -3.97319347e-01 -2.05604300e-01 -1.38070688e-01 +1.09171741e-01 +1.47795916e-01 +6.46936536e-01 -1.58999056e-01 -1.94822252e-02 +1.18280232e-01 -3.89964908e-01 +2.60212988e-01 +8.48067254e-02 +1.14043966e-01 -2.86441259e-02 -1.37639180e-01 +1.60876513e-01 -1.19293876e-01 +2.28705987e-01 +6.63448572e-01 -1.09858260e-01 +7.72468746e-02 +1.07834972e-01 -2.52116978e-01 +9.75062698e-02 -1.68764070e-01 +2.69517824e-02 -1.81390807e-01 +3.02101728e-02 +9.15970355e-02 +4.48300600e-01 -2.39215538e-01 +7.33879805e-02 -5.33412360e-02 -1.45548105e-01 -1.98884699e-02 -2.12855399e-01 -4.07304913e-01 -4.47697639e-02 +2.23709971e-01 +6.41826093e-01 +1.82703853e-01 +1.59507930e-01 +5.42594306e-02 +3.63826990e-01 +2.22005427e-01 +1.54845998e-01 +3.22221033e-02 +2.28999872e-02 -1.64194003e-01 +2.98421783e-03 -3.07903558e-01 +1.67161986e-01 +1.18693560e-02 +2.28196621e-01 +5.52009761e-01 +1.81084443e-02 -3.97788621e-02 -1.11721307e-01 -3.99362668e-02 +1.76945269e-01 -1.88631311e-01 +5.79484254e-02 -2.58777887e-01 +4.39972728e-01 -3.00876915e-01 +4.64352919e-03 -4.68067192e-02 -2.76619226e-01 +4.42183048e-01 -6.73675537e-02 -1.94665179e-01 -8.30933079e-02 +3.13744545e-01 -3.84401739e-01 -9.55576450e-02 +1.67743757e-01 +3.49548794e-02 +6.76142424e-02 -8.06791633e-02 -3.57423067e-01 +1.07948199e-01 +1.03292428e-01 +1.14069976e-01 +1.67809933e-01 -4.21734720e-01 +1.75144508e-01 -1.58719048e-01 +1.66037396e-01 -1.15129068e-01 -5.94924539e-02 -3.62658024e-01 +1.48761436e-01 -3.70631218e-02 -2.54534692e-01 +2.23083004e-01 -3.91060859e-01 +3.13271135e-01 +1.71731785e-02 +3.08345836e-02 +6.19800091e-01 +3.65588702e-02 -1.18761472e-02 +3.94059300e-01 +1.11244760e-01 -4.69382137e-01 +3.65533173e-01 +2.68989474e-01 +4.09521937e-01 -2.01509565e-01 -8.08900222e-02 -4.15046141e-02 -3.42072338e-01 +7.01266825e-02 -3.46365720e-02 +2.09490865e-01 -1.90049902e-01 +1.41318634e-01 +4.89276171e-01 +6.20592833e-01 -2.01861039e-01 +4.05290306e-01 -8.08468580e-01 -5.28121591e-02 +9.05581051e-04 -1.34595543e-01 -3.54776859e-01 -1.13164939e-01 -1.62279885e-02 -2.57692456e-01 +7.76162818e-02 -1.95026428e-01 +1.47170663e-01 +1.49090677e-01 +6.16385378e-02 -7.48410597e-02 +2.49163866e-01 +1.87635496e-01 +1.02869108e-01 +1.51440389e-02 +1.74681798e-01 +5.63363768e-02 -1.37333293e-02 -2.10081726e-01 -3.58712614e-01 -2.61204094e-01 -5.41434065e-02 -9.02033746e-02 +1.95401445e-01 +3.20170581e-01 -1.31241485e-01 +7.29778782e-02 -3.22582871e-01 -5.14311045e-02 +1.20761117e-03 -1.24267101e-01 +2.39725351e-01 -1.87368169e-01 +1.71676770e-01 +2.57141842e-03 -3.11418235e-01 +5.47958672e-01 +5.00302389e-02 -7.09787011e-02 -3.29208851e-01 -5.71743734e-02 +3.10012302e-03 -2.62721449e-01 -4.44826841e-01 -4.67903674e-01 -5.54645896e-01 +2.02485085e-01 -8.79178569e-02 +6.33049384e-03 +3.12752396e-01 +7.92883411e-02 +6.90297559e-02 -1.15993477e-01 -6.40301406e-02 -1.93289906e-01 +2.83899382e-02 -7.37401992e-02 -2.36125775e-02 -3.90642822e-01 +2.54837006e-01 -6.24480546e-01 -2.79765368e-01 -7.94400036e-01 -5.63501455e-02 +7.39663187e-03 -4.19225425e-01 -1.46067902e-01 -3.68281960e-01 +7.52819330e-02 +3.35296690e-02 -8.67634490e-02 +9.44166183e-02 +6.60520911e-01 +1.47214130e-01 -1.08960912e-01 +1.73746318e-01 +8.01842362e-02 +3.94392669e-01 +4.11530882e-02 -2.92631567e-01 -1.54895276e-01 +1.17379278e-01 +2.77457058e-01 +3.20985890e-03 -1.53704271e-01 -5.39918467e-02 -3.08153667e-02 +4.36914325e-01 -7.47788176e-02 +4.18138713e-01 +1.32580176e-01 -2.84776092e-01 +3.35467100e-01 -9.82378796e-02 +1.07977368e-01 -6.10613190e-02 +5.67932464e-02 +2.97842503e-01 +1.01437084e-01 -1.14883944e-01 +1.29993051e-01 +8.94300118e-02 -1.39561400e-01 +1.88528989e-02 -8.46863985e-02 -2.15564847e-01 -2.50817627e-01 +3.50598156e-01 -1.41935468e-01 +3.85387614e-02 -3.77607524e-01 +1.37802563e-03 -7.12592840e-01 -4.39186811e-01 -8.35228324e-01 +2.27546796e-01 -2.42950544e-01 +2.78097451e-01 -4.14557904e-01 -3.42813522e-01 -2.76207864e-01 +6.95398867e-01 -1.28101960e-01 +3.04456532e-01 -8.51140320e-02 -1.00307941e-01 -4.40116048e-01 +2.71944523e-01 +1.46528840e-01 -2.47072577e-01 -8.33319664e-01 -3.24393213e-01 -8.07126984e-02 -2.76705086e-01 -9.94377583e-03 +2.94865016e-02 -1.41345486e-01 -1.17065720e-01 +2.11468395e-02 -7.02035353e-02 +3.01114190e-02 +3.21850367e-02 +4.79545854e-02 +5.71411073e-01 +1.24013595e-01 -2.81973660e-01 -1.24568857e-01 +1.40352368e-01 -1.84644550e-01 +1.31727025e-01 -1.49325440e-02 +1.32051753e-02 -1.69142842e-01 -8.29093810e-03 -1.13720335e-01 +3.25716168e-01 -3.45711946e-01 -4.81515788e-02 -4.47823197e-01 +1.35587230e-01 +1.39843270e-01 +1.44828046e-02 +1.22422226e-01 +1.26129925e-01 -2.58214921e-01 +2.03398794e-01 +1.36002321e-02 -2.32885703e-01 -3.95010322e-01 +8.68508369e-02 -4.12859470e-01 -4.72542018e-01 -1.82903066e-01 -3.03661019e-01 -2.53539626e-02 -3.13638180e-01 -8.09149072e-02 -3.11903358e-02 -7.61293620e-02 -2.51740098e-01 +2.26050973e-01 +2.51381993e-01 +4.73044924e-02 +5.79244971e-01 -3.05354565e-01 +1.30883276e-01 -9.29097712e-01 +1.59421444e-01 +2.16617629e-01 -3.10213774e-01 -1.20853758e+00 -1.44167900e-01 -6.03016675e-01 -2.87514955e-01 +5.25126792e-02 -4.15962845e-01 -1.27234519e-01 +9.91741493e-02 -5.72690591e-02 +2.45249569e-01 -8.44708756e-02 +1.34828091e-01 -4.13053930e-02 -2.77012736e-01 -1.28467053e-01 -3.99203569e-01 +1.62459873e-02 -7.09022939e-01 +5.89892343e-02 +5.80628216e-02 +4.82009470e-01 +3.87207270e-01 -1.38840109e-01 -8.44936520e-02 +3.49186748e-01 +2.16078803e-01 -9.78183970e-02 +1.72948986e-01 +3.72511148e-01 -3.75235587e-01 +8.08813572e-01 -3.61565500e-01 +7.65418410e-02 +6.07276522e-02 -8.85262787e-02 +5.17559767e-01 +6.25897169e-01 -3.71813446e-01 -3.43321383e-01 -3.48608829e-02 +3.08070332e-03 +1.89407140e-01 -1.67275965e-02 +1.59595221e-01 -2.95259953e-01 +8.53443742e-02 +1.73687637e-02 +3.73051703e-01 -2.55573720e-01 +2.38531400e-02 -1.02750969e+00 -9.74061415e-02 -3.13892663e-01 -1.10082060e-01 +3.04966092e-01 +1.95147061e+00 +6.90939557e-03 +1.68138772e-01 -5.96172333e-01 -1.93444099e-02 -5.74490964e-01 +2.45195001e-01 -1.56079367e-01 -3.04487646e-02 -8.60540718e-02 +8.78324807e-02 +1.10209845e-01 +1.93992108e-01 -3.18763405e-01 -6.09481037e-01 -6.46715581e-01 +2.03750934e-03 +5.27836263e-01 -1.82414684e-03 -5.19760907e-01 -4.61493731e-01 +1.38643399e-01 +1.84203405e-02 +1.48448441e-02 +4.55821818e-03 -1.38530448e-01 -2.00587306e-02 -2.57230587e-02 -5.18126786e-02 -2.31957525e-01 -1.85260132e-01 +3.65099072e-01 +5.99905662e-02 +1.22384518e-01 +2.06898510e-01 -2.30045825e-01 -2.48700574e-01 +2.21848190e-01 +5.59969127e-01 +2.21433584e-02 -2.89415151e-01 -3.56040627e-01 -3.80479656e-02 -2.45817855e-01 -1.81744322e-01 +4.57507335e-02 -3.93895879e-02 +3.02323461e-01 -3.01243722e-01 -4.56205010e-02 -1.97977647e-02 -6.92000464e-02 +6.15606643e-02 +1.80985387e-02 -2.68383056e-01 -6.46701306e-02 -3.43935117e-02 +2.29887277e-01 +1.42213497e-02 -3.52803990e-02 +3.63766886e-02 -7.19280588e-03 -4.03879255e-01 +1.75292939e-01 -9.30765197e-02 -4.35200520e-02 +6.71944320e-02 -1.00092843e-01 +7.12788254e-02 -4.32919830e-01 +1.81055337e-01 -4.43505108e-01 -4.11562659e-02 +2.70739704e-01 +3.32355164e-02 -3.44336599e-01 -2.82885302e-02 +1.28055125e-01 -6.44687489e-02 -2.47236658e-02 +3.43446843e-02 -4.02219623e-01 +1.87955648e-01 +9.97016206e-02 +2.60994524e-01 -3.00948136e-02 -5.27025461e-02 +2.35261887e-01 -6.54942617e-02 +2.00384092e-02 -1.41106352e-01 -6.77334368e-02 -1.79223847e-02 +6.71475902e-02 +4.38591063e-01 -5.62469624e-02 +7.39162602e-03 -1.12947822e-01 +1.70550629e-01 +1.59703381e-02 +1.24640875e-01 -2.11026892e-02 -1.69367746e-01 +1.50430351e-01 -5.48332632e-02 +1.27823129e-01 +7.64752105e-02 -1.12755664e-01 +1.00345174e-02 -2.02411696e-01 -8.16520452e-02 +4.95109074e-02 +7.40470737e-02 +4.31635678e-02 -2.69677430e-01 -1.66722864e-01 -1.75290763e-01 +1.71476543e-01 +3.66589218e-01 -4.10258204e-01 -2.07572773e-01 -7.78516009e-02 -1.17784195e-01 +2.05088556e-01 -4.27010924e-01 -4.18506384e-01 -6.05543591e-02 +3.04258794e-01 +4.55907211e-02 -2.81525757e-02 -1.96250752e-01 +9.87182856e-02 +3.65152895e-01 -2.67946213e-01 -3.94098699e-01 -2.04302669e-01 +7.53933370e-01 +5.53212538e-02 -6.49856403e-02 +2.20849738e-01 +1.39558047e-01 +5.73805198e-02 -1.52213365e-01 -4.55189586e-01 +9.12738889e-02 +6.17350452e-02 -3.07414681e-01 -4.14946169e-01 -3.59939560e-02 +1.05923779e-01 +2.49326527e-02 +7.04730898e-02 +1.31821275e-01 -6.51475251e-01 -5.74772894e-01 +6.22462220e-02 +9.77431461e-02 +1.88793138e-01 +2.19586849e-01 +1.74078554e-01 +1.33012170e-02 -7.84631744e-02 +7.28131831e-02 -1.67915925e-01 -1.29665202e-02 -2.24859923e-01 -1.83726743e-01 +3.88419516e-02 -1.91886500e-01 +3.59919965e-01 -8.47942978e-02 +4.52100374e-02 -3.80282737e-02 -2.22238749e-01 +5.23077603e-03 -3.53186071e-01 -7.06920847e-02 -3.12861204e-01 -7.60115206e-01 +5.99606745e-02 -4.35402691e-02 +2.19709519e-02 -3.33191097e-01 -6.91654384e-01 +1.77510753e-01 +2.32190296e-01 +1.35148674e-01 -3.13476443e-01 -1.78294048e-01 -2.06374144e-03 +7.40367919e-02 +3.75263914e-02 +1.00637577e-01 +3.04188579e-01 +1.27272114e-01 -9.55327228e-02 +9.68137160e-02 -1.08041681e-01 -1.11709191e-02 +6.26802519e-02 -1.18331499e-01 +4.15825099e-01 +6.31986111e-02 +5.74548960e-01 -1.45980138e-02 +6.19572699e-02 +5.14092922e-01 +2.83672124e-01 +4.64952812e-02 -9.18511674e-02 +2.59803325e-01 -1.49168313e-01 +7.41771609e-02 -9.27032754e-02 -6.84970260e-01 +3.75838429e-01 +2.16832325e-01 +9.71807241e-02 -9.11602899e-02 -2.01169193e-01 +4.87053953e-02 +1.84233367e-01 +6.11117125e-01 -1.70429215e-01 -1.78610116e-01 -3.58392209e-01 +2.77390569e-01 -1.26504958e-01 +2.29711860e-01 -1.85357556e-01 -3.56029272e-01 -3.28226238e-01 +3.43106478e-01 -4.14147586e-01 -6.56765997e-02 -3.67667824e-02 +2.77023315e-01 -7.44254440e-02 -6.13878074e-04 -2.53605992e-01 +1.86724108e-04 -1.36366040e-01 +2.02424079e-01 +9.80772793e-01 -6.32282734e-01 -2.58633316e-01 +1.04607508e-01 -1.02414660e-01 -1.88576058e-02 +4.88534331e-01 -7.19350502e-02 -7.49862194e-01 +6.06374210e-03 -1.26132250e-01 +1.64196834e-01 -1.89440057e-01 -1.67829335e-01 +5.22398591e-01 +3.27894777e-01 +2.08749980e-01 +2.70582587e-01 -3.53869237e-02 -4.78793949e-01 -4.22433436e-01 +1.98647186e-01 -2.81337917e-01 -1.06237099e-01 +4.30893391e-01 +1.08807430e-01 +9.09768268e-02 +7.47646272e-01 +5.10883927e-01 -3.06409359e-01 +1.31237984e-01 -3.00108433e-01 -3.40799898e-01 -9.45585966e-02 +1.08045638e-01 -1.11748472e-01 +1.02611102e-01 -1.63517356e-01 -5.74989676e-01 +4.81417358e-01 -1.51450917e-01 -4.20625247e-02 -2.46438682e-01 +4.27019261e-02 -3.02274019e-01 +1.41439140e-01 -3.32127959e-02 +2.92510509e-01 -5.56059033e-02 +1.60767809e-01 +4.21822108e-02 +3.04127693e-01 -6.43634379e-01 -6.84745163e-02 +2.31133744e-01 -3.09408680e-02 +3.33248466e-01 -3.19566369e-01 +2.27693617e-01 -3.85497063e-02 -4.26421285e-01 +3.64093855e-02 +1.25222988e-02 +9.36027914e-02 +1.08600631e-01 +4.35901821e-01 +1.59985468e-01 +7.14341998e-02 -8.30942988e-02 +9.77889672e-02 +4.03893329e-02 -2.04328761e-01 -3.64323825e-01 -1.47931039e-01 -2.92963862e-01 -3.88895065e-01 -1.48089096e-01 -2.81281352e-01 -6.80516735e-02 -6.05142713e-01 -5.63688874e-02 -2.08866820e-01 -1.77572504e-01 +1.04227979e-02 +7.53946826e-02 -1.94358915e-01 -1.55152544e-01 -2.26807028e-01 -5.78621447e-01 +4.50238824e-01 -1.21120224e-02 -2.30943605e-01 -1.50292188e-01 +4.58515584e-02 -2.89206326e-01 -2.12897018e-01 -7.58139836e-03 -5.81746958e-02 +8.61118808e-02 +4.19501811e-01 +3.20851356e-02 +3.16326350e-01 -7.36640692e-02 +5.37276030e-01 +9.66915209e-03 -1.11802064e-01 -1.32899076e-01 -9.71844345e-02 -1.70652479e-01 +2.70543266e-02 +5.56630790e-01 -2.43810326e-01 -3.98859195e-02 -1.48154393e-01 -2.07613081e-01 +5.58855355e-01 +2.78968364e-01 -8.87744129e-02 -3.31100971e-02 -3.21813561e-02 +6.07683174e-02 -2.73012966e-01 -1.11805663e-01 -9.34318751e-02 +3.12825322e-01 +6.20948412e-02 -1.89379588e-01 -7.22810745e-01 -4.71713126e-01 -1.06570749e-02 +2.11910367e-01 +4.25283283e-01 -4.75962579e-01 -4.24724877e-01 -6.68138042e-02 +4.56105657e-02 +7.06976831e-01 -1.58038154e-01 -5.43024719e-01 +3.75864357e-01 -1.29166648e-01 -2.82736868e-02 -3.09842169e-01 -9.89413023e-01 +2.27955043e-01 -5.02416193e-01 -1.92922071e-01 +1.86888531e-01 -9.25861225e-02 +1.91841543e-01 -5.06230116e-01 -5.11158049e-01 -4.79327917e-01 -7.78297484e-01 -1.11143267e+00 -2.33049914e-01 +1.42714426e-01 +2.31924817e-01 -5.29016197e-01 -8.93065482e-02 +2.46354520e-01 -1.83653347e-02 -1.42804310e-01 -1.83315486e-01 -4.41832244e-01 +2.47719407e-01 +2.24729314e-01 -7.78972387e-01 +3.42876986e-02 +1.40839145e-01 +5.46334386e-01 -2.22117171e-01 -2.41099671e-01 +8.51487592e-02 -1.94718421e-01 -6.01385593e-01 -3.28121381e-03 +1.88896850e-01 -1.14572115e-01 +1.92031652e-01 +2.93304533e-01 -1.42647162e-01 -4.47091043e-01 -4.86544110e-02 -1.02261886e-01 +2.46962354e-01 +1.90987080e-01 +2.77626276e-01 +1.60756573e-01 -1.25861121e-02 -3.36962104e-01 -2.04169512e-01 -1.95513815e-01 -4.12215218e-02 -1.66527241e-01 -3.52421880e-01 -4.36416179e-01 +6.24236725e-02 +1.88042279e-02 -1.22496478e-01 -7.18974397e-02 -7.81772211e-02 -1.57885309e-02 +3.88854295e-02 -9.94910300e-02 -1.96329728e-01 -1.51039198e-01 +2.51386195e-01 -2.88893491e-01 +2.99352501e-02 -7.30664492e-01 -1.95492968e-01 -5.29197991e-01 -2.99203008e-01 -5.32728322e-02 +8.69791731e-02 +2.12144583e-01 -5.04565060e-01 +9.19939876e-02 -2.53680974e-01 +1.00309722e-01 -4.35128948e-03 -1.06609594e-02 +2.62575805e-01 -6.84231043e-01 -5.61397560e-02 +5.35555840e-01 -3.98855172e-02 -1.76045373e-01 +6.67778671e-01 +1.00842603e-01 -1.87849060e-01 -1.00068292e-02 +1.28004342e-01 +3.83380622e-01 -1.58363089e-01 -3.12874109e-01 -3.24573033e-02 +6.28266394e-01 +1.30928442e-01 +5.53072020e-02 +2.50555962e-01 +1.69956148e-01 -3.89503717e-01 +4.36938912e-01 -1.43568963e-01 +5.60260355e-01 -1.21078990e-01 -3.77221614e-01 +1.78409964e-01 -1.03054799e-01 +1.82326115e-03 -7.24156350e-02 +2.33976021e-02 +4.78971191e-02 -5.04687428e-03 -5.05661488e-01 +2.46587414e-02 -8.45225379e-02 +9.07665566e-02 +7.96559632e-01 +7.83744454e-02 -5.18937176e-03 -2.86330640e-01 -3.87561351e-01 +3.25989902e-01 -1.40965357e-01 +1.40635353e-02 -1.32571593e-01 +4.39651430e-01 -1.54227093e-01 +2.22988978e-01 -5.84807754e-01 -1.43170804e-01 -5.85953370e-02 -2.29767889e-01 -1.42867088e-01 -1.76165000e-01 -4.42065805e-01 -8.07487369e-02 +1.09823910e-03 -3.67990285e-01 +1.45628482e-01 -3.15803915e-01 +7.11323678e-01 -1.02890253e-01 +3.22074920e-01 +4.16296236e-02 -8.19964781e-02 +2.53232628e-01 +1.95359081e-01 -1.57747224e-01 +2.94300299e-02 -1.96457326e-01 -1.13704167e-01 +1.80844069e-01 -1.41219318e-01 -4.94425818e-02 -1.09735452e-01 +9.37391967e-02 -1.62520960e-01 -8.39657485e-02 -3.66008957e-04 +2.25224033e-01 -3.05774689e-01 -1.92967225e-02 +7.35123828e-02 +1.05639085e-01 -3.53170872e-01 -3.22113663e-01 +2.85049349e-01 +7.44751841e-02 +2.57936180e-01 +7.55828246e-02 +4.37694974e-03 +1.36991307e-01 +5.62774055e-02 +3.34130190e-02 +7.90726840e-02 +1.26060098e-01 +1.14334226e-01 +1.64484695e-01 +2.31218368e-01 +1.22489415e-01 +5.61623931e-01 -6.22896887e-02 +4.40421738e-02 +1.58917472e-01 +8.98761395e-03 -1.62988618e-01 +4.94313270e-01 +8.76566619e-02 +6.12028055e-02 -2.28778064e-01 -2.53109008e-01 -4.26622152e-01 +2.16560401e-02 +3.11251014e-01 +5.09967744e-01 -1.94971070e-01 +1.39637008e-01 -2.22051531e-01 +4.83535022e-01 -3.04572721e-04 -9.51732621e-02 -1.26606748e-01 -1.07294656e-01 +2.92515874e-01 +2.55518436e-01 -2.17085660e-01 +1.12319201e-01 -2.63379216e-01 +3.56763333e-01 +2.28373948e-02 -8.21974128e-02 +1.01276107e-01 -1.88528717e-01 -3.81473172e-03 +2.02785522e-01 -2.81918854e-01 +9.70984474e-02 -5.56249656e-02 -7.02662915e-02 -8.26425944e-03 +2.59081453e-01 -9.14894044e-05 +5.61783016e-01 -1.59821138e-01 +1.87885895e-01 -2.79340982e-01 -4.42569554e-02 +5.20547628e-01 -5.84100857e-02 -3.53005558e-01 +2.68595647e-02 -1.87353150e-03 +3.47829252e-01 +2.08621826e-02 +8.86559486e-02 -1.76819250e-01 +8.90157670e-02 +2.26934943e-02 +1.74080068e-03 +2.39318699e-01 -4.28891554e-02 +4.88766730e-01 +3.73482198e-01 +5.10366485e-02 -1.26965139e-02 -1.80790409e-01 -9.42595005e-02 -1.13960244e-01 +5.65541923e-01 +4.39757377e-01 +3.10414255e-01 -7.58286491e-02 +1.73586532e-01 +6.62274212e-02 -6.20544076e-01 +2.63638824e-01 -1.65264383e-01 +9.77208093e-02 +3.02916676e-01 +1.72441393e-01 +2.73985952e-01 +1.36700481e-01 +3.35693866e-01 +7.29226708e-01 -1.43767059e-01 -9.66406316e-02 -3.31741609e-02 -1.70145914e-01 +1.88334510e-01 +2.01245710e-01 -3.53328049e-01 +2.41039351e-01 +2.40314417e-02 -1.02041766e-01 +1.46610543e-01 -1.16781913e-01 +1.25654012e-01 +3.76619786e-01 +6.49550259e-01 -2.49115661e-01 +1.06189340e-01 -5.78111112e-02 +1.28128314e-02 -1.94508761e-01 -1.11476824e-01 +1.35917827e-01 +8.71766657e-02 -2.07106665e-01 +1.80960089e-01 +2.12932020e-01 -2.05501944e-01 -3.65258962e-01 +2.91989505e-01 -1.89019769e-01 -4.17291850e-01 +5.98827191e-02 +8.65607038e-02 +9.91542861e-02 -5.63488156e-02 +5.68460450e-02 +2.70880640e-01 +1.51686579e-01 +9.94532555e-02 +2.51309365e-01 +3.20975214e-01 +5.77797592e-02 -9.30325836e-02 +8.69429633e-02 -1.09430179e-01 +5.09191334e-01 +1.41509935e-01 +1.67693049e-01 +2.47216105e-01 -2.99493521e-01 -2.16021016e-01 +2.70500004e-01 +2.26421021e-02 -1.01573505e-01 -1.78802490e-01 +6.67841136e-02 +2.46290460e-01 -9.01035145e-02 -6.88145235e-02 -4.88005549e-01 +4.12792921e-01 +3.21309239e-01 -3.54513191e-02 +9.71822664e-02 +1.61062866e-01 -3.84861566e-02 +1.47820055e-01 +2.91429639e-01 +1.31665856e-01 +1.29823133e-01 +2.71724850e-01 -1.94158822e-01 -4.50725794e-01 -5.35587192e-01 -9.25452039e-02 -2.89632976e-01 -5.83811760e-01 -2.90946336e-03 -4.58705038e-01 +1.88521683e-01 +9.57938656e-02 +4.77432646e-03 +7.79990554e-02 -1.14839219e-01 +1.57374248e-01 +1.40117586e-01 +2.75460571e-01 -2.19041500e-02 +3.06100901e-02 -2.32467756e-01 -5.05185008e-01 +1.58476140e-02 -3.14343154e-01 +4.39875096e-01 -6.03111744e-01 -9.91931856e-02 -1.39417782e-01 -2.35115141e-01 +3.67579073e-01 +8.78086910e-02 -2.95587391e-01 -5.69140539e-02 -6.58402666e-02 +3.10445160e-01 +8.13042074e-02 +4.42701131e-01 -1.93382218e-01 -1.38786927e-01 +2.74502099e-01 +2.01162040e-01 +4.52762336e-01 -5.41582890e-02 +7.16134459e-02 +6.90496325e-01 +5.09085417e-01 +5.51104903e-01 +1.23615205e-01 -4.53553051e-01 +2.03974053e-01 +5.10609925e-01 +1.07652560e-01 -6.07796788e-01 +2.37479046e-01 -1.53980508e-01 +3.59760106e-01 +1.81652933e-01 +1.00677259e-01 +2.07353607e-01 -2.23210365e-01 -4.64302212e-01 +3.95508766e-01 +5.75111032e-01 +9.63497162e-02 +1.35188982e-01 -3.23855504e-02 +1.24140354e-02 +3.68211955e-01 +4.01109666e-01 -7.23660365e-02 -7.49672502e-02 +3.64368483e-02 -2.70179152e-01 +5.51136374e-01 +4.83275175e-01 +1.02493968e-02 -1.57497317e-01 -2.62540787e-01 -2.16038674e-01 -1.34736106e-01 +2.14734785e-02 -1.05623387e-01 +1.59955934e-01 +8.03919584e-02 +1.16905130e-01 +4.75676745e-01 +3.67871314e-01 +1.05931580e-01 +2.54648209e-01 -2.43031770e-01 +1.32303581e-01 -1.02055289e-01 -3.34803909e-01 -1.77086949e-01 +6.67465702e-02 +3.68626341e-02 +1.08932820e-03 +3.56731296e-01 +5.16206503e-01 -1.62399009e-01 +3.87037307e-01 +2.80225217e-01 +3.06732297e-01 +2.31968939e-01 +3.07161927e-01 +2.80799717e-01 +2.94149667e-01 +1.18204772e-01 -9.77213010e-02 +5.41434670e-03 +1.53846979e-01 +1.61358953e-01 +2.95812815e-01 +2.37331204e-02 +3.74964118e-01 -1.13208450e-01 +2.99557388e-01 -1.83163494e-01 -6.33765638e-01 +6.83347210e-02 -1.34335205e-01 +1.68211181e-02 +3.76603484e-01 +2.37830505e-01 +1.13553315e-01 +1.21593596e-02 +6.34772599e-01 +1.25160977e-01 +1.84992746e-01 +2.33650237e-01 +1.19238026e-01 -1.18276708e-01 -5.33718318e-02 +3.58418487e-02 -4.01976466e-01 -1.50265813e-01 -1.18692875e-01 -4.50971276e-02 +2.27727771e-01 +1.17418669e-01 +2.70460304e-02 -2.28563342e-02 -3.16528082e-01 +1.55450225e-01 +8.45167637e-02 +4.11496401e-01 +1.28676504e-01 +1.89564347e-01 -2.52133578e-01 -1.31154954e-01 +3.11374310e-02 +1.10040322e-01 +1.74050942e-01 -1.64459288e-01 -8.58647302e-02 -2.14762479e-01 -2.10891619e-01 +4.97682631e-01 +3.34318131e-01 -9.41408500e-02 +1.94257841e-01 -3.05523962e-01 +3.06500375e-01 +9.33024585e-02 +1.44586653e-01 -5.17693877e-01 -1.83494359e-01 +4.60081667e-01 +2.70618379e-01 +3.55549008e-01 +1.50978670e-01 -4.91874635e-01 +5.03447235e-01 +3.79552126e-01 +1.54405311e-01 -9.81850326e-02 +3.42553854e-01 +7.17349723e-02 +3.37893575e-01 +4.78850938e-02 -5.22575855e-01 +1.12153620e-01 +2.46090308e-01 +2.17994168e-01 -5.75821280e-01 +7.25777596e-02 +2.18798041e-01 -3.09790578e-02 +1.93114743e-01 +3.81373852e-01 +8.83793056e-01 +1.29132699e-02 +5.99343181e-01 -4.37600404e-01 -8.29118565e-02 +6.22672215e-03 +1.84548795e-01 -5.22641912e-02 +1.90739706e-01 +1.51103899e-01 -2.48515561e-01 +1.24103718e-01 +1.30904585e-01 +3.80954295e-02 -1.42659053e-01 -3.53970647e-01 -6.47476614e-02 +2.89927691e-01 -3.41100574e-01 +3.62340510e-02 +1.41770974e-01 +3.17694172e-02 +8.74690060e-03 +3.38232696e-01 +1.94118276e-01 +1.01314165e-01 +1.36213064e-01 -5.12995601e-01 +1.03734225e-01 -2.09173709e-01 -1.61897689e-01 +1.48867205e-01 -1.13854453e-01 +3.34416002e-01 -1.29966870e-01 +8.78327861e-02 -1.35951415e-01 -2.16793552e-01 -3.51055264e-01 -1.28970563e-01 -3.15850899e-02 -8.18075091e-02 +1.74039632e-01 +7.86810182e-03 +5.81759289e-02 +2.42747486e-01 +2.51899064e-01 -6.49497092e-01 -2.39919811e-01 -1.85475633e-01 +1.98441505e-01 +2.81606704e-01 +3.74548346e-01 +2.63379794e-02 -5.39582446e-02 +1.72526449e-01 +1.79694459e-01 -1.00836366e-01 -7.94098303e-02 +9.90089700e-02 +2.91191310e-01 -1.88203335e-01 +2.11783975e-01 +8.00382569e-02 -7.52171576e-02 +1.22892939e-01 +3.30415756e-01 -1.24082789e-01 +9.91336629e-03 +1.40156135e-01 -4.08977628e-01 -1.00043394e-01 +2.84454552e-04 -1.07399702e-01 +4.86759879e-02 -1.06226489e-01 -3.19935083e-01 +1.15268357e-01 -6.27399758e-02 +1.86153159e-01 +1.66929707e-01 -6.59654588e-02 +7.31858164e-02 -5.95084548e-01 +1.03608273e-01 -2.65653729e-01 +3.33464682e-01 +4.05944325e-03 +1.50148064e-01 -1.40215203e-01 +2.46827990e-01 -1.68029442e-01 -6.97531924e-02 -3.30320925e-01 -1.44763775e-02 +5.30385226e-02 +3.20780069e-01 +1.25512600e-01 +5.97693212e-02 +1.83298197e-02 +3.92914534e-01 -7.81759173e-02 -1.07195385e-01 -4.88577783e-02 +9.44591701e-01 -2.11901411e-01 +3.83301854e-01 -3.55564564e-01 +3.99465829e-01 -3.74958664e-01 -2.47503802e-01 -5.76713085e-01 -9.35875624e-02 -5.82981370e-02 -1.73700973e-01 +1.44402444e-01 -1.69303223e-01 -3.35730493e-01 -1.05443887e-01 +2.80235648e-01 -6.63928509e-01 -3.50222915e-01 +1.65995568e-01 -2.07050681e-01 -7.59834826e-01 -1.60378665e-01 -2.92820245e-01 +1.93049937e-01 +2.35190485e-02 +3.78986858e-02 -3.70183945e-01 -2.89848503e-02 -2.57750511e-01 +5.62866777e-02 -4.85721081e-02 +1.42059871e-03 +3.00143152e-01 -6.81511164e-02 +4.45884392e-02 -1.96723625e-01 +5.88720962e-02 +3.59414816e-02 +1.65078174e-02 -2.13625561e-02 +2.84498453e-01 +2.83783767e-02 -2.36142561e-01 -2.77717322e-01 +3.74090493e-01 -3.02884709e-02 -9.42582339e-02 +3.98701876e-01 +3.13618541e-01 -1.82394534e-01 -4.01314721e-02 +8.33271742e-02 -4.17564809e-02 +2.36032009e-01 -1.01800468e-02 -2.20408991e-01 -4.44430038e-02 -1.87590439e-02 +4.66287695e-02 +1.67584196e-02 +2.25400016e-01 +2.46124759e-01 +3.63817066e-01 +4.71571892e-01 +6.42430425e-01 +1.23013578e-01 +2.36190259e-01 -3.69642861e-02 -1.61180124e-01 -5.21360040e-02 -2.18044937e-01 +3.10278893e-01 +4.70187217e-02 +9.73645374e-02 -1.03954218e-01 -1.27361104e-01 +1.49278894e-01 +2.65241891e-01 +7.47120082e-02 +1.52324557e-01 -5.65689206e-01 -1.01586901e-01 -2.19407737e-01 -1.53653175e-02 +5.61066642e-02 -8.45993221e-01 -9.35021341e-02 -9.58352238e-02 +5.63704967e-01 -3.10339630e-01 -3.93701382e-02 -1.03527248e-01 +1.68136358e-02 -2.66739819e-02 -1.67616636e-01 +2.35252529e-01 -3.57812136e-01 -1.16688134e-02 -3.31523687e-01 +1.39704466e-01 -1.31664231e-01 +1.35073677e-01 +1.25721926e-02 +1.31714961e-03 +6.90888166e-02 +3.51783276e-01 +8.24781507e-02 +3.04556847e-01 -2.03905761e-01 -2.51592286e-02 -1.06766537e-01 +1.24267302e-01 -1.80587724e-01 +1.08791985e-01 -3.72452319e-01 -3.76557596e-02 +4.64879684e-02 +5.90785384e-01 -1.08333705e-02 +1.46621838e-01 -1.13051549e-01 -3.36917639e-01 +1.45010978e-01 -9.00241807e-02 -2.14513779e-01 -2.68389493e-01 -1.50050879e-01 +4.35243577e-01 +6.10018075e-02 -1.23480529e-01 +2.75589973e-01 +4.59238708e-01 -1.06961623e-01 +1.73136055e-01 +2.87402362e-01 -2.19498146e-02 -3.50260347e-01 +2.54043102e-01 +1.20090529e-01 +2.32922398e-02 -3.88584614e-01 +2.25516468e-01 -7.98268616e-02 +9.01004598e-02 -5.09224050e-02 +9.18936804e-02 +1.10138662e-01 +2.67504752e-01 +4.03853655e-02 -2.56679475e-01 -4.56268579e-01 -6.55421913e-02 +2.01275393e-01 +1.29406163e-02 +1.03206146e+00 -4.70786989e-01 +1.28683046e-01 +6.73240721e-02 +1.65664237e-02 -4.44680080e-02 +1.52939469e-01 +2.83775628e-01 +3.23079407e-01 -9.71682370e-02 +7.79322609e-02 -1.40079916e-01 +1.08087353e-01 +3.14983651e-02 -3.76246423e-01 +1.01241000e-01 +2.39853933e-01 -3.17802101e-01 -1.63611874e-01 +4.70087789e-02 +7.65938610e-02 +3.79169762e-01 -1.04883708e-01 +1.16790928e-01 -1.47430763e-01 -2.79378355e-01 +1.79128751e-01 -8.51419747e-01 +1.24565169e-01 -1.15661696e-01 -5.69329225e-02 -1.78909093e-01 -7.02313036e-02 -3.93106006e-02 -5.82971573e-01 +3.51710320e-01 +4.37437207e-01 +2.38135591e-01 +8.38101842e-03 +1.72642127e-01 +1.14819109e-01 +1.49085447e-02 -1.08900197e-01 +1.88862476e-02 -2.54360169e-01 +3.64731371e-01 +1.75338443e-02 +1.35282964e-01 -8.87903869e-02 +5.63885309e-02 -5.90229332e-01 +5.99278174e-02 -5.07089533e-02 -1.92144185e-01 +3.53030860e-02 +1.26091942e-01 -5.14611118e-02 +4.45350587e-01 -8.06667209e-02 +2.94479817e-01 +2.92102128e-01 -4.94987518e-01 +1.05016947e-01 +2.02023368e-02 -8.02761018e-02 -2.75227696e-01 +1.62757978e-01 +4.12635654e-02 -5.65914772e-02 +3.02633531e-02 -4.59998876e-01 +3.75316888e-01 -1.50670975e-01 +5.58210947e-02 +2.60547996e-01 -1.23747453e-01 +8.21922719e-02 +1.68320201e-02 +6.10392034e-01 -2.19936192e-01 -3.04991961e-01 +5.55099368e-01 -9.99343544e-02 -2.15227962e-01 -2.81481504e-01 -4.30220008e-01 -1.53168112e-01 +1.22063728e-02 +2.66152650e-01 -7.16078505e-02 -4.33279835e-02 +1.76814184e-01 +2.83173949e-01 -2.57974356e-01 -4.30617779e-01 +2.28090342e-02 -9.80970934e-02 -6.43287376e-02 -1.89712659e-01 +2.75912702e-01 -1.36961353e+00 +4.92687345e-01 -5.17525554e-01 -3.98259088e-02 +2.22396687e-01 +4.07411546e-01 +5.17527387e-02 +6.28668785e-01 -5.43925464e-01 -1.31323487e-02 -2.93011636e-01 -6.23852432e-01 -3.79798442e-01 -6.68035075e-02 -8.50447044e-02 +1.12790871e+00 +1.22155406e-01 -5.47257662e-01 +3.13902587e-01 -3.65611255e-01 -2.09922984e-01 -2.37273782e-01 +3.76669675e-01 +2.65669614e-01 +6.54257178e-01 +7.75763169e-02 +1.03609085e+00 +2.83668041e-01 +5.48771657e-02 +1.05528779e-01 -1.11301586e-01 -2.32361540e-01 +2.57053431e-02 +9.07924771e-02 -2.67186373e-01 -5.97727345e-03 +2.26398349e-01 -7.00270355e-01 -1.96399972e-01 -6.03895858e-02 +3.60365331e-01 -7.85311684e-02 -3.30117077e-01 -2.02602386e-01 +1.33543596e-01 -5.58078706e-01 -2.63879210e-01 +6.56123310e-02 +7.06326589e-02 -1.29338279e-01 -2.49680787e-01 +3.19923997e-01 -4.44367230e-02 -3.07178140e-01 -8.19633082e-02 +1.26233473e-01 -3.86231542e-01 +2.46176645e-01 -2.39732847e-01 -7.70344973e-01 +3.64461899e-01 -2.80468971e-01 -3.56758267e-01 +2.65436284e-02 -1.47275478e-01 +3.15686554e-01 +3.90312701e-01 -1.88310057e-01 +1.25287056e-01 -4.73331720e-01 -1.25056684e-01 +3.80525291e-02 -3.72435898e-02 +6.87688664e-02 +5.12628138e-01 +2.58677483e-01 -1.15822153e-02 +2.52965510e-01 -3.15328330e-01 +1.81478634e-02 +6.56189993e-02 +2.05445915e-01 -3.50647986e-01 +1.95283026e-01 -1.51140885e-02 -2.65531272e-01 +2.92208731e-01 -7.30826631e-02 +5.32497093e-02 -1.48372963e-01 +4.80857283e-01 -7.39322752e-02 -1.72076211e-03 -6.21478893e-02 -4.09582466e-01 +5.44236191e-02 +1.11958414e-01 +8.58674124e-02 -2.22123191e-01 -2.21580654e-01 -3.22756946e-01 +3.57855082e-01 -1.03500068e-01 -5.19514643e-02 +6.41661137e-02 -3.54078025e-01 -2.12698966e-01 -1.36638880e-02 -1.61790878e-01 +1.41589776e-01 -4.05209988e-01 -1.91346228e-01 +6.22354224e-02 -1.87946353e-02 +6.05691969e-01 -1.05249181e-01 -3.93119216e-01 +9.39386114e-02 -1.85200069e-02 +5.09228587e-01 +2.88102746e-01 +1.33767515e-01 -5.92108786e-01 +8.84793401e-02 -6.50330782e-02 +5.92257418e-02 +1.00798666e-01 -4.25479054e-01 -1.00785121e-01 +6.52846754e-01 -1.81114465e-01 -4.29794908e-01 +2.12247550e-01 -2.38637224e-01 +2.08668739e-01 +4.28523362e-01 +6.55606687e-01 -3.92235518e-01 -8.96493196e-02 -3.51043522e-01 -1.73854738e-01 +3.53774399e-01 -2.05637679e-01 -2.16965392e-01 +4.79330719e-01 +2.34396994e-01 +5.88711500e-01 -1.38152689e-01 -8.29112053e-01 +5.51700890e-01 +3.78950611e-02 -9.20771509e-02 -1.92066893e-01 -1.23463966e-01 -3.68415490e-02 -3.77374627e-02 +1.75324544e-01 -8.47143605e-02 +2.28340402e-01 -2.42487062e-03 -1.82291627e-01 +3.52169611e-02 +2.39279307e-02 -5.30458018e-02 +4.50978935e-01 -8.20208192e-02 -7.40397722e-02 +1.83047913e-02 -2.01393086e-02 +8.33699480e-02 -4.53345031e-01 -5.55621972e-03 -3.67549919e-02 -6.41886055e-01 -2.64198661e-01 +2.29215175e-02 -9.48564038e-02 +2.97969878e-01 -1.46565825e-01 +6.45982325e-01 +2.23009586e-02 +1.61464781e-01 +3.04784812e-02 -8.34570467e-01 -5.57346791e-02 -3.50620002e-02 -1.94049940e-01 -1.03935905e-01 +7.60991871e-02 -1.55919958e-02 +2.77936667e-01 +2.59306997e-01 -2.68116772e-01 -6.68808818e-02 +1.55155554e-01 +5.76891541e-01 -2.78506011e-01 -3.82548392e-01 +1.88994154e-01 -7.87550304e-03 -3.03316474e-01 -1.47552937e-01 +1.53182551e-01 -2.02840850e-01 -3.18319082e-01 +7.82462135e-02 -2.55665362e-01 +2.17880040e-01 -3.92981291e-01 +4.16174054e-01 -3.71286571e-01 +5.12805581e-01 +6.45688027e-02 -1.35277301e-01 -3.38012040e-01 -2.98436642e-01 +3.62997085e-01 +1.69113144e-01 -9.04315338e-02 +1.36481389e-01 -1.59795702e-01 +7.18635246e-02 -2.00586274e-01 -3.70550483e-01 -1.10019118e-01 -3.22203375e-02 +3.14693898e-01 -2.11611256e-01 +3.30812246e-01 +2.90955901e-01 +8.58719289e-01 -6.73859566e-02 +4.00720397e-03 +4.39185679e-01 +4.84268457e-01 +1.22087188e-02 +6.90876693e-02 +2.06108347e-01 -1.57654002e-01 +3.35201740e-01 -5.05550671e-03 -6.24538183e-01 +3.86097401e-01 -4.78803128e-01 +3.61805260e-01 -8.21450502e-02 +1.23495050e-02 -4.32409614e-01 -3.83068740e-01 -3.94994080e-01 +3.79460365e-01 +1.48348495e-01 -1.16549231e-01 +6.05891570e-02 -4.81842935e-01 -1.22426629e-01 +8.80278274e-02 +1.37629122e-01 +2.60721296e-01 +2.66277432e-01 -3.00492138e-01 +1.56092167e-01 -1.33100331e-01 -4.43721414e-01 -6.67276978e-01 +2.51911849e-01 +2.00084582e-01 +3.11144710e-01 -1.07897091e+00 -3.69808197e-01 -1.70081154e-01 +3.39600742e-01 -1.89279303e-01 +2.50314862e-01 -8.17187503e-02 -1.98442191e-01 +1.99397922e-01 -5.12317002e-01 +2.90226042e-01 -5.37833273e-01 -5.96999764e-01 +1.39231190e-01 +1.12299137e-01 +3.42397541e-01 -2.85143197e-01 -2.21106395e-01 +2.70895600e-01 +4.22097147e-01 +1.08977832e-01 +1.16166510e-01 +1.20174654e-01 +1.74757823e-01 -1.93587840e-01 -1.98919438e-02 +6.16181672e-01 -4.55284789e-02 +1.51749343e-01 +2.90557623e-01 +3.98393124e-02 -2.76971191e-01 +2.82320976e-01 +9.71871391e-02 -2.59978622e-01 -7.41848052e-02 -2.72059310e-02 -2.48324219e-02 +1.81553930e-01 +5.97594529e-02 -6.05927873e-03 -2.55767852e-01 -1.74104586e-01 +4.28900421e-01 -2.00812042e-01 +5.76858148e-02 +3.42236221e-01 +8.08361247e-02 +6.92897588e-02 -1.05948836e-01 -6.21550441e-01 +8.92315805e-02 +1.81224063e-01 -2.39014909e-01 -1.40988886e-01 +1.48659721e-01 -6.80077896e-02 +1.37261704e-01 +2.92933136e-01 -5.90871684e-02 +1.42824471e-01 +4.40114737e-02 +4.04964000e-01 -2.50958979e-01 +2.13840485e-01 -2.27086619e-01 -1.51923671e-01 -9.63341519e-02 -6.89374804e-02 -2.03736335e-01 -1.94691658e-01 -1.30290419e-01 -2.44388804e-01 +7.73045048e-02 +2.28058279e-01 +4.42236423e-01 -2.09105507e-01 +1.58224568e-01 +3.79220933e-01 -1.00349672e-01 -1.44485580e-02 +3.91547322e-01 +4.43661273e-01 -2.34263778e-01 -4.86342534e-02 -8.72617885e-02 +4.30127420e-03 -4.68347818e-02 +2.91275561e-01 +1.23417668e-01 -2.46094003e-01 +9.94764641e-03 +1.66072488e-01 -1.16536535e-01 -7.19011948e-02 +1.61504984e-01 -6.16223402e-02 +3.93521607e-01 -7.84471110e-02 +7.16999844e-02 +1.94756716e-01 +1.93656221e-01 -4.91510257e-02 +1.23161897e-01 -3.64054233e-01 -1.10601678e-01 -3.10856719e-02 +1.39130047e-02 +7.99535215e-02 +1.10722736e-01 -2.12398559e-01 +5.25205433e-01 -1.15540698e-02 -9.29446965e-02 +4.62695241e-01 -9.16447863e-02 +2.88389802e-01 -3.27837378e-01 +2.60564655e-01 +7.51558542e-01 +5.41731536e-01 -5.43746278e-02 +2.64265507e-01 +1.00844808e-01 +3.97569686e-01 +1.25549838e-01 +6.27339482e-01 -1.38454854e-01 +3.30577880e-01 +1.97957113e-01 +4.04421210e-01 -1.44020706e-01 +2.32083604e-01 -5.72842136e-02 +3.00908089e-01 -5.69569916e-02 -8.52203608e-01 +3.31773818e-01 +4.67689604e-01 +1.50544211e-01 +6.21832311e-01 -3.79772574e-01 +3.42774272e-01 -2.40024880e-01 -5.07752635e-02 -4.35193986e-01 -1.14239104e-01 -3.39727432e-01 -1.08763059e-04 +1.47378087e-01 +2.29338497e-01 -1.06848953e-02 -3.67240757e-01 -3.04218262e-01 +1.46036744e-01 -8.12730789e-02 -1.61358058e-01 -8.47291499e-02 +2.79783875e-01 +1.88012853e-01 -2.30532601e-01 -1.81514949e-01 +1.70562804e-01 +2.92577228e-04 -3.51183452e-02 -3.72606218e-02 +2.83812970e-01 +2.18142644e-01 -5.06265089e-02 -2.42445379e-01 -2.77553387e-02 +1.80217698e-02 +9.78886783e-02 +2.37376466e-02 -2.37747267e-01 +6.80930391e-02 +1.55084997e-01 +2.74764597e-01 +2.49711275e-01 -5.70537388e-01 -1.53411433e-01 -2.89925307e-01 +1.62195936e-01 +3.95134002e-01 +2.49458387e-01 -5.93100965e-01 -2.00452819e-01 -2.28878021e-01 -1.51450306e-01 -1.73219711e-01 -3.50145280e-01 -2.04383284e-01 -2.44947281e-02 -7.56638944e-01 -2.28420094e-01 +1.05263621e-01 -9.50641111e-02 +9.38649178e-02 -1.36488885e-01 +3.94098759e-01 +1.02686808e-01 -3.20105016e-01 -3.54975760e-01 +3.70036587e-02 +1.02112547e-01 +7.83824176e-02 -3.37877981e-02 +1.10708706e-01 +9.80802327e-02 -1.98753789e-01 -1.16212301e-01 -1.11576155e-01 -2.89496511e-01 -1.77575752e-01 +4.72770125e-01 +3.55619848e-01 -2.74350941e-02 +3.01829845e-01 +5.29276311e-01 -6.04108945e-02 +7.47631770e-03 +2.40146190e-01 +5.35578489e-01 -1.21757656e-01 +1.04797088e-01 -1.85807168e-01 -9.45926011e-02 +1.86455995e-01 -2.36178786e-01 -1.78981543e-01 +2.54456431e-01 +6.33801222e-02 -2.26103049e-02 +1.09493239e-02 -1.49656860e-02 -1.44550979e-01 -3.35444212e-01 +9.79929492e-02 +3.29968520e-02 +2.78003979e-02 +1.40685841e-01 +1.90722540e-01 -4.34189336e-04 +1.15188010e-01 +3.37137133e-01 +4.17292207e-01 -3.75850618e-01 -2.07587034e-01 -1.20916069e-01 -2.35292375e-01 -3.75612348e-01 -1.95437446e-01 -2.08518654e-01 +7.67910898e-01 -8.57267141e-01 +4.35540974e-01 +4.91023719e-01 -3.25951010e-01 -2.87490964e-01 -2.85158604e-01 -1.50217518e-01 -5.28981648e-02 -3.13622981e-01 -4.24531072e-01 -5.96881770e-02 -3.60130012e-01 +5.07693999e-02 -1.70880467e-01 -7.48097003e-01 +3.12238038e-01 -3.58214289e-01 -1.16776332e-01 -2.86265701e-01 +9.70272362e-01 +3.64224281e-04 +9.65826075e-06 +3.98258269e-02 +1.95761368e-01 -4.51892838e-02 -8.37929323e-02 +5.79296649e-02 +7.69715130e-01 -1.37451231e-01 -3.13600034e-01 +2.38075495e-01 +5.49154162e-01 +4.54108324e-03 -1.80971533e-01 +3.36730272e-01 +4.66565371e-01 -2.48811334e-01 +9.09394994e-02 +7.46662840e-02 -3.04508775e-01 -4.78841692e-01 -2.09505051e-01 -4.42312002e-01 +2.97689307e-02 -2.20107362e-01 +8.82448629e-02 +3.74885589e-01 -1.12971351e-01 +2.81044506e-02 +2.73869604e-01 +4.42672446e-02 -9.85156372e-02 +2.45375961e-01 -3.41752172e-01 +2.46407595e-02 -9.25823525e-02 +1.45121798e-01 +4.79783028e-01 -2.35746905e-01 +8.47699419e-02 -2.59401742e-03 +6.79982379e-02 -9.20215175e-02 +8.42753127e-02 -1.96134686e-01 +2.91381478e-01 +1.21750966e-01 -2.10808232e-01 -1.13475299e-03 +8.91844451e-04 +1.56928733e-01 +1.43343315e-01 -6.92548677e-02 +6.43881679e-01 +9.58812162e-02 +6.07300937e-01 -3.18327516e-01 +4.38733369e-01 +1.66363299e-01 +1.18429132e-01 -4.77343470e-01 +3.61226976e-01 -4.13420014e-02 -4.60568517e-02 -9.90829095e-02 +6.08804524e-01 -4.99590114e-03 -5.32484770e-01 +3.16839397e-01 -3.31008993e-02 -2.87057489e-01 -7.95270577e-02 -3.53114665e-01 +7.20752999e-02 -5.27178198e-02 -1.34557649e-01 +3.57610434e-01 +1.54723972e-01 +1.39672026e-01 -7.62771010e-01 -1.31950974e-02 -1.47615820e-01 -5.01055598e-01 +9.27655771e-03 +5.26046932e-01 -3.40125173e-01 +1.61370769e-01 -7.76907355e-02 -2.54726429e-02 +3.57447356e-01 -1.16243057e-01 +1.27098680e-01 +5.01707494e-01 -3.12723964e-01 +1.03012286e-01 -5.14703803e-02 -5.81363700e-02 +3.43300432e-01 +4.28375155e-01 -1.66468844e-02 -1.80949152e-01 -4.24681842e-01 +3.71539593e-02 +6.76365271e-02 +1.02496959e-01 -2.23338291e-01 +3.91390145e-01 +9.24101412e-01 +3.82838637e-01 +3.85571063e-01 -2.18618348e-01 +3.57546248e-02 +2.60848105e-01 +2.06620574e-01 -6.15399897e-01 +2.57585049e-01 +3.16111930e-02 -3.17297786e-01 +4.28724170e-01 +1.16276979e-01 -2.60347426e-01 -2.34473437e-01 -6.00395352e-02 +4.78481203e-01 -1.45536354e-02 -5.17783046e-01 +3.94625068e-01 -1.67878523e-01 -2.75686324e-01 +4.97666746e-01 -3.24283332e-01 -1.34998515e-01 +8.94105360e-02 -3.65387462e-02 -1.56981364e-01 +3.55502218e-01 -7.31277704e-01 -2.03123167e-01 -3.98175325e-03 +1.24112748e-01 +2.68129427e-02 +1.86808884e-01 -5.87721132e-02 +8.94897282e-01 +2.40567122e-02 +9.75257829e-02 +4.94321547e-02 -3.67075205e-01 -1.62278652e-01 -1.29321948e-01 +2.28360683e-01 +8.36840346e-02 -2.39229813e-01 -2.76564866e-01 -1.48479538e-02 +5.82331978e-02 -5.93379177e-02 +1.95660144e-01 -3.48517269e-01 -2.29034629e-02 +2.69525707e-01 +2.54317969e-02 +5.45107841e-01 +2.40219712e-01 -3.42214376e-01 +8.83719232e-03 +1.05225466e-01 +9.78198871e-02 -3.11001062e-01 -7.51642138e-02 -1.80228487e-01 +3.56846452e-01 +1.45219654e-01 +1.46693394e-01 -1.20878369e-01 +2.15198413e-01 +9.37170163e-02 -5.06086238e-02 -1.80266742e-02 -5.30794084e-01 +1.59924567e-01 -5.90276361e-01 -3.25948954e-01 +3.23147029e-02 +2.74296645e-02 -7.11193606e-02 +5.69183864e-02 +1.76653028e-01 -1.66816831e-01 -5.17524742e-02 -6.28908873e-02 -1.48235127e-01 -1.54507488e-01 -2.29084581e-01 -1.62152424e-01 -8.30656290e-02 -3.77370566e-01 +9.42194089e-02 -2.61580557e-01 +1.68241352e-01 +7.23858625e-02 +9.16568935e-02 +3.40209529e-02 +6.47097677e-02 -2.83170529e-02 -3.04130048e-01 -7.12882578e-02 +1.16013795e-01 -3.22168618e-02 +3.25054605e-03 +5.79742491e-02 +3.23342800e-01 -2.98761964e-01 +1.46557286e-01 +1.46815747e-01 -9.28640217e-02 +9.47920382e-02 -1.49098948e-01 -1.90556943e-01 -3.03807497e-01 -2.48539612e-01 +2.54306287e-01 -1.13603033e-01 -3.13826501e-01 +8.07436109e-02 -1.52147844e-01 -1.30360974e-02 +6.33538663e-01 -2.08467707e-01 -3.94273132e-01 -3.26725990e-02 +2.36096606e-01 -4.91994806e-02 +4.35377389e-01 +4.51790690e-02 -3.04272026e-01 +1.72293501e-03 +3.45524400e-01 +7.40143776e-01 +1.79543719e-01 -6.67100310e-01 -1.44117087e-01 -9.97065157e-02 -5.10399826e-02 -1.29498437e-01 -2.32732952e-01 -2.88807869e-01 -1.30261838e-01 +6.08253419e-01 +6.58727214e-02 -1.33766025e-01 -1.10728145e-01 +1.43018782e-01 +5.83396330e-02 -1.00541122e-01 -8.89391750e-02 +2.27333847e-02 -3.06409597e-01 -1.44857848e-02 +3.81894894e-02 -2.05391839e-01 +8.47330689e-02 +1.99123546e-01 -1.84584543e-01 +1.29309282e-01 -2.68411729e-02 -1.38332266e-02 -1.47082210e-01 +3.04549873e-01 -2.75707662e-01 +7.76501894e-02 +6.65531261e-03 +9.49313641e-02 -1.94188312e-01 +9.68913734e-02 +3.55780661e-01 +2.61510909e-01 +1.85213864e-01 -8.81961212e-02 -2.57498492e-02 +3.89040373e-02 +1.98997766e-01 -6.02511093e-02 -7.51922503e-02 +5.47960848e-02 -2.26352766e-01 +2.12038368e-01 -3.19044083e-01 -3.36517468e-02 -2.58904286e-02 -5.12157321e-01 -9.23349932e-02 -2.08923116e-01 +5.37666865e-02 -3.15802485e-01 +5.70310429e-02 -4.46221530e-02 -1.44609183e-01 -4.76530840e-04 -7.64627755e-02 -2.36576304e-01 -3.09990682e-02 +1.83910087e-01 +4.17145371e-01 +6.70192719e-01 +7.67666176e-02 -3.70168090e-01 +9.94751900e-02 +4.75188196e-01 +4.02622640e-01 +1.98844075e-01 -1.89101920e-01 -1.78281814e-02 -3.61266345e-01 +4.58805293e-01 -3.70958507e-01 +4.25244808e-01 -2.20477059e-01 +6.39696941e-02 +1.46387368e-02 +2.45487809e-01 -5.03025889e-01 -2.49398097e-01 +8.80863965e-02 +7.46843219e-03 -4.83860761e-01 -2.20507994e-01 +2.74848431e-01 +2.74558719e-02 -3.22105698e-02 -5.29845804e-02 +1.80568144e-01 +8.78691599e-02 +2.14347780e-01 -6.27393723e-02 -1.02019571e-01 -1.72210246e-01 +7.90663883e-02 +1.73614368e-01 -8.69914740e-02 -8.49511087e-01 -1.30485073e-01 +5.16190827e-02 +1.01977423e-01 -9.71840322e-02 -2.64563739e-01 -3.53881903e-02 +5.48576973e-02 +8.49398226e-03 +2.99509138e-01 -8.77030343e-02 +1.66733190e-02 -2.50371605e-01 -2.11479455e-01 +1.64106071e-01 +7.70882592e-02 +5.26619136e-01 +6.89487934e-01 +2.45274618e-01 -7.46778697e-02 +2.10369185e-01 +9.69612375e-02 +1.24138109e-01 -3.03070366e-01 -4.38078105e-01 +3.97548862e-02 -1.83094144e-02 +5.24999917e-01 -1.92710280e-01 +4.39162552e-01 -3.82609367e-01 -5.83601892e-01 -2.79233336e-01 -2.37142205e-01 -1.04289532e-01 -1.96554273e-01 -5.06580472e-01 -1.13349244e-01 +1.22734360e-01 -1.63213179e-01 +4.00339872e-01 +2.75459349e-01 -2.11252123e-01 +4.09635037e-01 +1.81622105e-03 -9.80246887e-02 -1.88421041e-01 +9.35523212e-02 +5.17642386e-02 -2.75110807e-02 +1.45778701e-01 -9.26464722e-02 -3.52574624e-02 -1.62640169e-01 +4.96858619e-02 -7.58119347e-03 +4.33443516e-01 -6.47561345e-03 -4.54614013e-02 -1.64384425e-01 +3.11255306e-01 -9.56052244e-02 -3.82857360e-02 +4.09784913e-01 +3.43329430e-01 -1.89164039e-02 +1.42748589e-02 -7.72523582e-02 -1.82613507e-01 -2.04328969e-01 -8.65885690e-02 +5.35074882e-02 -2.12036297e-01 +2.92667951e-02 -1.64973855e-01 +7.13034049e-02 +8.07132497e-02 +3.52483511e-01 -7.82214403e-02 +7.16455802e-02 +3.50904137e-01 +1.75421357e-01 -5.27923703e-02 +1.80477127e-02 -1.06129665e-02 +7.30970800e-02 +2.72307634e-01 -1.17951311e-01 +1.64544992e-02 +1.58502117e-01 +2.27529064e-01 -4.32747863e-02 -2.16392487e-01 +1.80282801e-01 -3.47613096e-02 +9.73714069e-02 +1.30062342e-01 -1.61291093e-01 +2.81851888e-01 +4.09817547e-01 +2.10123688e-01 +4.08418655e-01 -2.14175973e-03 +7.57408291e-02 +7.01447964e-01 -6.65179733e-03 +2.76128650e-01 +2.72933036e-01 +1.70186400e-01 -1.44529507e-01 -1.70133963e-01 +4.57223356e-02 +4.33720261e-01 -9.35198218e-02 -1.65186316e-01 -2.16495126e-01 +3.49053502e-01 -1.02815609e-02 +4.83573228e-02 -2.51060933e-01 -3.54171038e-01 +2.60241151e-01 +7.87735283e-02 -4.65275208e-03 +4.82035726e-02 +2.95228027e-02 -1.80374548e-01 -1.48639321e-01 -2.95278188e-02 +1.69500202e-01 +1.22349858e-01 +2.46939156e-02 +2.10319404e-02 +1.72444731e-01 +1.39186844e-01 -1.74447507e-01 +4.92647320e-01 -8.12380239e-02 +5.72816022e-02 +1.48259640e-01 +3.25447768e-02 +4.87750024e-01 -4.66821343e-02 -2.53913343e-01 -5.42411581e-02 +3.80405813e-01 +9.20945406e-02 +2.48671502e-01 +1.29426986e-01 -2.88008619e-02 +5.93704402e-01 +2.80893028e-01 +1.65727019e-01 +7.18694106e-02 -3.70740056e-01 +2.49058530e-01 -7.72693157e-02 -1.35630906e-01 -2.36742124e-01 +5.01229391e-02 +4.06636178e-01 +8.85212123e-02 -2.88593415e-02 +5.23855351e-02 -1.97995424e-01 +4.31012586e-02 -7.84541443e-02 -2.62076706e-01 +3.18431258e-01 +6.23336695e-02 +2.65224785e-01 -2.36628994e-01 -2.93035269e-01 +3.37812342e-02 -1.49706557e-01 -1.66022375e-01 +1.05248109e-01 +1.39415652e-01 -5.64566731e-01 +7.61295706e-02 +2.74182677e-01 -7.19507113e-02 -1.85426742e-01 -9.36244521e-03 -3.39631289e-02 +2.36090213e-01 -2.23253086e-01 +2.11454555e-01 -5.59058189e-02 +3.68483365e-01 +9.59048569e-02 -8.34836587e-02 +2.80754596e-01 -4.34600748e-02 +5.68739809e-02 -2.64756083e-01 +4.76351865e-02 -4.16154832e-01 -6.78836033e-02 -2.82914460e-01 -3.79555136e-01 -1.26191556e-01 -2.73887426e-01 +1.98654160e-01 -5.29057562e-01 -3.12955439e-01 -2.99876239e-02 -1.34089708e-01 -3.53013948e-02 -1.04647994e-01 -1.44606337e-01 -3.43412280e-01 +1.81463450e-01 -1.39547989e-01 -2.66489238e-01 +2.33478978e-01 +3.66355211e-01 +1.81426138e-01 -1.09845385e-01 -3.79722387e-01 -3.99690509e-01 -1.34423345e-01 +8.81597549e-02 -2.90769160e-01 -3.69684219e-01 +5.35107493e-01 +2.84199696e-02 +7.28045851e-02 -8.88725072e-02 +3.04718614e-01 +1.67516153e-02 +4.92610745e-02 +3.56041491e-01 +1.68081746e-01 -1.19385935e-01 -3.38625573e-02 +1.01993024e-01 -7.79474601e-02 +2.51383215e-01 -1.58313245e-01 +7.50992894e-02 +5.85136414e-01 -1.69733856e-02 +8.70033056e-02 +6.42318726e-02 -8.74407515e-02 +5.95724508e-02 -3.03105861e-01 +3.63681838e-02 +1.99593641e-02 +9.12194923e-02 -2.52715230e-01 +5.40654361e-01 -1.54385924e-01 -1.58785120e-01 -4.40327555e-01 +1.04904175e-01 -3.08989119e-02 -1.86122060e-02 -9.76251736e-02 -1.00803621e-01 +1.07217789e-01 +1.95955783e-02 +2.16834694e-01 +2.10117415e-01 -3.43059421e-01 -4.44466993e-02 +2.82786060e-02 +4.00324836e-02 +2.92882502e-01 +4.49282229e-02 +5.16635738e-02 -6.32109761e-01 -1.67787865e-01 -4.35422920e-02 +2.66364634e-01 -1.48208901e-01 +7.32619390e-02 -7.51033723e-02 +4.17729706e-01 +8.45899060e-02 -1.88664466e-01 -6.45295203e-01 -1.39869809e-01 +3.56048733e-01 -5.02274930e-02 +7.64764547e-01 +2.15832815e-01 +1.70592129e-01 +1.02630313e-02 +1.20506100e-01 -5.76338887e-01 -1.31958887e-01 -8.69825669e-03 +4.34423596e-01 +4.40424383e-01 +3.50795031e-01 +1.47332046e-02 +5.94164096e-02 +4.88872342e-02 -3.99142355e-02 -1.47953376e-01 -7.03155175e-02 +6.48386031e-02 -1.20219328e-01 +5.95493838e-02 -1.12176433e-01 +1.34498253e-01 +2.50967860e-01 -9.10647288e-02 +1.97053596e-01 -2.08773613e-02 -3.24109286e-01 -1.02498077e-01 +1.87493145e-01 +6.92124143e-02 -7.40085617e-02 +9.44046527e-02 +1.12031102e-01 -3.88171852e-01 -1.04357086e-01 -3.72218639e-01 -1.49667442e-01 +1.13599405e-01 -9.14997086e-02 +1.79822460e-01 -4.51240018e-02 -2.68296339e-04 +4.23102453e-02 -7.00766668e-02 +6.25530109e-02 -4.08082515e-01 -2.17330102e-02 +9.51255143e-01 -3.29984613e-02 -8.43743309e-02 -2.51126796e-01 -3.34927589e-01 +8.90476346e-01 +3.22559565e-01 -4.17835057e-01 +2.47879177e-01 -2.29245856e-01 +2.35715806e-01 +6.15163326e-01 +2.39134550e-01 +1.32185206e-01 -2.94584543e-01 +1.56349421e-01 +4.70449291e-02 +3.13193172e-01 -1.55782655e-01 -4.83111084e-01 -4.14882869e-01 +3.13275367e-01 -7.44873956e-02 -4.05805409e-02 +4.74626690e-01 -1.86328590e-02 +1.23152256e-01 +7.49490440e-01 +1.86202198e-01 +3.81829292e-02 +1.67130113e-01 +4.75773253e-02 -4.74725872e-01 -1.46534920e-01 +2.02830940e-01 -4.48754042e-01 -1.01526596e-01 +1.42408282e-01 -1.69563368e-01 +1.76596031e-01 +6.07115962e-02 +1.45604815e-02 +1.97772369e-01 +1.96655586e-01 +4.06035691e-01 -4.71959077e-02 +5.07691741e-01 -3.66243482e-01 +6.40365779e-02 -1.23564474e-01 +1.35509685e-01 -2.16037467e-01 +1.24111950e-01 +3.29821929e-02 -3.32989432e-02 -1.71382744e-02 -7.31182890e-03 +6.36085123e-02 +2.44396821e-01 +4.71693790e-03 -4.34607625e-01 +2.61811644e-01 +7.20472559e-02 +2.41694003e-01 +3.49757701e-01 +7.62967914e-02 -5.14510810e-01 -1.02694726e+00 +4.87321168e-01 +3.03580076e-01 +4.74270582e-01 -1.42882913e-01 +1.76607281e-01 +1.88309684e-01 +8.23938668e-01 +2.48976182e-02 +6.76284805e-02 -1.67832095e-02 +8.29911903e-02 +1.05326998e+00 +2.50697702e-01 -1.56692773e-01 +1.33124404e-02 -1.59244627e-01 +4.78426456e-01 +3.78489494e-01 +4.73447263e-01 +6.63736641e-01 +4.49327171e-01 +7.23857582e-01 +7.50289440e-01 +7.14191377e-01 -1.25714138e-01 +6.48177147e-01 +3.12306583e-01 -7.39603937e-02 -5.91515787e-02 +2.50188708e-01 -7.27811307e-02 -1.87790379e-01 +2.31235147e-01 -4.22639310e-01 +1.44243553e-01 +1.76186055e-01 -6.50602952e-02 -1.46236926e-01 -3.68252456e-01 -3.64174038e-01 +2.10871503e-01 +9.16440226e-03 +2.72162519e-02 +1.72340840e-01 -6.71846271e-02 -1.53756082e-01 +1.11139923e-01 +3.99041355e-01 +1.89433888e-01 +9.85783641e-04 +2.83728272e-01 -1.28274456e-01 -1.03078343e-01 -1.58797964e-01 +1.02050491e-01 +2.14873422e-02 -1.51004165e-01 -2.36875266e-01 +1.58678755e-01 -2.85357744e-01 +2.39237472e-01 -3.11908573e-01 -3.75429764e-02 +2.61534780e-01 +7.32975304e-01 -4.74768803e-02 -1.38606668e-01 -2.02765331e-01 -1.54481947e-01 -1.26775429e-01 +2.65995115e-01 +2.89435208e-01 -2.01520011e-01 +1.60300389e-01 +5.29827997e-02 +2.65769631e-01 -6.17798269e-02 -3.29846963e-02 -1.68448268e-03 -1.34144649e-01 +3.04440498e-01 -4.62988988e-02 -1.07923731e-01 +8.87939334e-02 -1.93419531e-01 +2.00794324e-01 -3.59869182e-01 -1.18806504e-01 +1.82595074e-01 +9.46280062e-02 +4.00601685e-01 -1.88622385e-01 -5.79411030e-01 +2.58092314e-01 +3.29874724e-01 +4.17999119e-01 +6.19930308e-03 -4.26332057e-01 +1.14808634e-01 -2.82339513e-01 -3.02962195e-02 +3.84731367e-02 +1.72866046e-01 +1.15025595e-01 +3.22862744e-01 +1.17040975e-02 -3.96918595e-01 -1.85377263e-02 -2.24145457e-01 -1.28641456e-01 -1.83862463e-01 +4.10398483e-01 -1.44622058e-01 -4.23609205e-02 -1.12437896e-01 +7.55590992e-03 -2.01669738e-01 +2.56313890e-01 -5.22601567e-02 -2.18867779e-01 -1.05952345e-01 +9.16647688e-02 -5.60205206e-02 +3.84862781e-01 -3.21504027e-01 +4.50688154e-01 +1.39583290e-01 +7.04296306e-02 -7.78854713e-02 +4.35743988e-01 +2.53014654e-01 +2.82074064e-01 +2.03176171e-01 -2.07619235e-01 +6.89057648e-01 -8.54856849e-01 +5.21599114e-01 -5.69959581e-01 -1.91271871e-01 +1.60400674e-01 +6.79161310e-01 +4.86977845e-01 +1.56370431e-01 +1.82060137e-01 +2.51751602e-01 -2.30181664e-01 -1.35657892e-01 +4.86939214e-02 -2.32555434e-01 +5.05020797e-01 +7.82727003e-01 +1.48903072e-01 +5.57322025e-01 -9.74769592e-02 +4.45571572e-01 +2.44103335e-02 -4.36221175e-02 +8.98606479e-02 +1.96814835e-02 +2.07221314e-01 +1.34537667e-01 -1.00475401e-01 -2.20968947e-01 -2.87181279e-03 +8.06500912e-02 +2.03466743e-01 +1.56734958e-01 -2.23157391e-01 -1.08353280e-01 +3.02668158e-02 +5.36545888e-02 +2.50087231e-01 +2.24730939e-01 -2.75627166e-01 -1.48184806e-01 -2.81996783e-02 +9.34584960e-02 -1.03299953e-02 -6.84227794e-02 +5.67491204e-02 +3.52209091e-01 -1.60402566e-01 +6.35880232e-02 -2.83264995e-01 +6.47808099e-03 -7.05197779e-03 +7.69183040e-02 +1.02023996e-01 +3.98323424e-02 +4.75794673e-02 -1.44701049e-01 -8.47887695e-02 +2.42129996e-01 +3.15473616e-01 +1.11221271e-02 +4.81474489e-01 -1.41256928e-01 -2.38656923e-02 -2.24276185e-02 +1.27316937e-02 +2.02212170e-01 +1.85048878e-01 +1.31669074e-01 -5.80357835e-02 -2.87178129e-01 +2.21782014e-01 +6.15828522e-02 +4.20415588e-02 -4.51016612e-02 -2.94974178e-01 +7.72977481e-04 -1.50343046e-01 +5.03712535e-01 -5.97663447e-02 +2.17233282e-02 +3.62470508e-01 +1.35708019e-01 +1.94636881e-01 +2.15135440e-01 -1.26654834e-01 +1.66860402e-01 +5.23043990e-01 +1.49463251e-01 +1.09161526e-01 +3.83472443e-01 -4.45174798e-02 +4.24990728e-02 -3.87506694e-01 -2.62941141e-02 +7.11316764e-02 +1.26515597e-01 -2.50792913e-02 -7.22049922e-02 +3.26313972e-02 -9.70400795e-02 +1.34151831e-01 -9.17317718e-02 +1.56595912e-02 +1.44589558e-01 -9.68510881e-02 +1.06395902e-02 +1.84123009e-01 -6.15599081e-02 +7.68442899e-02 -1.50594130e-01 -1.12783596e-01 +8.46719369e-02 -3.90545934e-01 +5.20680994e-02 +7.65052205e-03 +1.52158409e-01 +7.70967126e-01 +8.06654334e-01 +3.81193347e-02 -4.28685278e-01 -1.37374252e-01 +3.64597410e-01 +3.19350630e-01 +1.79231599e-01 +9.81853381e-02 -5.71983755e-01 -1.37227580e-01 -1.38204347e-03 +1.48057088e-01 -1.52395159e-01 +5.13603210e-01 +1.33116618e-01 +1.05863738e+00 -6.27774596e-01 +4.97402817e-01 +1.53227076e-01 -3.03923279e-01 +5.12691021e-01 +1.16900116e-01 +1.77024025e-02 +1.81874320e-01 +3.14453065e-01 +3.27001899e-01 +5.45263179e-02 +3.36600542e-02 +4.06821162e-01 -3.21083516e-01 +3.15576583e-01 +2.80581117e-01 -8.82739201e-02 -2.86629081e-01 +4.96528186e-02 +1.08474143e-01 +2.09936965e-02 -5.14277875e-01 -1.72273770e-01 +2.12692678e-01 +3.30265351e-02 -1.17396168e-01 -1.64661616e-01 -2.01496512e-01 -9.27861929e-02 +6.55026659e-02 +4.08962160e-01 +2.56185532e-01 +8.46856534e-02 -5.08992635e-02 +2.21984342e-01 +4.35155481e-01 -4.73029315e-01 -1.11741357e-01 -8.82886946e-02 +7.43747279e-02 +2.99135745e-01 -2.21148804e-01 +2.05774605e-02 -1.96781904e-01 +5.98326847e-02 -3.02960421e-03 -3.03134210e-02 -1.53113425e-01 +2.71771908e-01 +5.29855192e-01 +5.01913607e-01 +2.61619508e-01 +7.05588311e-02 +3.23792875e-01 +1.76827431e-01 -1.68783650e-01 -2.11506709e-02 -2.96701789e-01 +2.21987754e-01 -2.57138968e-01 +5.25838912e-01 +4.29366231e-01 +4.33050990e-01 -4.35634017e-01 +4.73257676e-02 +4.92170393e-01 +3.38947475e-01 +1.22887984e-01 +7.61923417e-02 -1.59965828e-01 +2.11565733e-01 -4.49930169e-02 +2.77902573e-01 +5.55114090e-01 -4.23776917e-02 +9.14411470e-02 +3.20384353e-02 -1.75657645e-01 -3.99043187e-02 -1.58118054e-01 +9.46284011e-02 +7.93853700e-02 -1.12666339e-01 -4.35801327e-01 +2.44585462e-02 -5.59899330e-01 -1.07716151e-01 -5.34767248e-02 -1.95848420e-02 +1.11223117e-03 -1.38712991e-02 +4.48419392e-01 +1.03811212e-01 -1.75769702e-01 +1.04963385e-01 -4.06573415e-01 -3.43307734e-01 -2.02816069e-01 -6.51402958e-03 +2.53687829e-01 +1.39833207e-03 +4.90886457e-02 -1.49939835e-01 -8.22272059e-03 -1.40019938e-01 +5.24883926e-01 +2.25730054e-02 -1.59520954e-01 -2.41102278e-02 +1.27009004e-01 -1.72461614e-01 -1.50568932e-01 +4.63160455e-01 -3.76278251e-01 -1.19571701e-01 -5.96104264e-01 -3.97679061e-01 +4.64660883e-01 +1.94533333e-01 -2.15635478e-01 +2.75665462e-01 +3.11511606e-01 +4.74848926e-01 +5.04489802e-02 +8.38005990e-02 +1.93713725e-01 +5.43118477e-01 +1.75695732e-01 -2.28321105e-01 -3.56918544e-01 +1.74204987e-02 +4.30938303e-01 -1.28078327e-01 -6.54333308e-02 +5.28929770e-01 -2.36518070e-01 +7.77589142e-01 +6.42385006e-01 +6.11418009e-01 -6.90686703e-02 +1.55530944e-01 +5.59856236e-01 +2.14511350e-01 -8.09173360e-02 -3.50078404e-01 -3.31787206e-02 -1.34776309e-01 +1.35612592e-01 +1.22362249e-01 -1.39472932e-01 -4.40759450e-01 -6.56135023e-01 +1.19498700e-01 +6.72235191e-02 -1.77019298e-01 -5.95747352e-01 +2.66212314e-01 -3.46356481e-01 -1.87226638e-01 +9.93280858e-03 +1.40319616e-01 -3.60197723e-01 +2.00167187e-02 +1.24947660e-01 +3.15657973e-01 +1.11651480e-01 -1.32253885e-01 +1.11998938e-01 -2.18951941e-01 -4.07703698e-01 -2.10312203e-01 -3.77099037e-01 +1.05866127e-01 -2.73906291e-01 +5.12674265e-02 -9.17643681e-02 -9.63384062e-02 +1.09584823e-01 -4.14741099e-01 -1.59252807e-01 +1.42641902e-01 -2.27731317e-01 -3.95497270e-02 -9.58400145e-02 +2.32718978e-02 +4.25546318e-01 -2.19856590e-01 +1.69389337e-01 +1.33115858e-01 +6.40079156e-02 -1.18848383e-02 +2.79577225e-01 -1.36663206e-02 -1.59378737e-01 -1.08922444e-01 +1.60998017e-01 -4.23653331e-03 +1.79779574e-01 -3.88109595e-01 +2.87749708e-01 +1.07632399e-01 -1.18382387e-01 -1.64119661e-01 +7.58479759e-02 -5.34860641e-02 +1.18211128e-01 +9.67687517e-02 -1.04001291e-01 +1.63693324e-01 +5.14478609e-02 -9.66040492e-02 +1.63204260e-02 -2.47179076e-01 +2.95913786e-01 +4.95284349e-01 -2.11717635e-01 -3.75693180e-02 +8.29472542e-02 +9.30555984e-02 -1.68953449e-01 -1.49738237e-01 -1.09224074e-01 -1.99873000e-01 +1.19969793e-01 +6.92977086e-02 +1.93408802e-01 -9.06162113e-02 -2.65399635e-01 +5.64907081e-02 -7.10229948e-02 -2.06426680e-02 -5.63362837e-02 -1.42915219e-01 +1.55131191e-01 +2.92208225e-01 -1.14335328e-01 +2.39987224e-01 -3.97853330e-02 -3.20563987e-02 -3.35180998e-01 -1.75961599e-01 +7.00744987e-02 -3.11640829e-01 +7.51386881e-02 +5.83396070e-02 -1.69783428e-01 -2.04186574e-01 -7.53354430e-02 -3.39162350e-01 -1.46321535e-01 -6.46452069e-01 +3.25288922e-01 +1.50955707e-01 +1.13089740e-01 -1.00302259e-02 -2.64189005e-01 +1.75938591e-01 -2.39694864e-01 +5.85028678e-02 +3.15824270e-01 -1.64904162e-01 -1.52993028e-03 -5.72174847e-01 +3.89164418e-01 -1.92548603e-01 -2.33362496e-01 -2.30862081e-01 -2.72802651e-01 +7.94937313e-02 -1.58317104e-01 +4.39796820e-02 -2.37944484e-01 -1.01119436e-01 -1.75970823e-01 +1.14541747e-01 +5.63095026e-02 -9.35486928e-02 -3.52137089e-01 -2.26078898e-01 +6.42330408e-01 +3.35509554e-02 -2.68056989e-01 -5.27379215e-01 +6.80412173e-01 +2.82898039e-01 +7.61701092e-02 +1.76475912e-01 +1.36089951e-01 -1.82780415e-01 +7.59411305e-02 +3.68058890e-01 +4.45966065e-01 -3.23450774e-01 +1.07972428e-01 -2.07222730e-01 -2.55099852e-02 +1.16252825e-01 +2.71499250e-03 +8.52730274e-02 +2.98027154e-02 +1.41197056e-01 +3.05143923e-01 +1.01485610e-01 -1.19178146e-01 +4.52611633e-02 -1.69434607e-01 -2.04951346e-01 -6.25493899e-02 -5.82595766e-01 -4.08158034e-01 -1.27648786e-01 +1.60690416e-02 -1.27362516e-02 +2.88310289e-01 -9.20394957e-02 -2.04304159e-01 +7.50861689e-03 +2.25202367e-01 +2.83878624e-01 -9.80140194e-02 -3.97213638e-01 +9.99065340e-02 -9.77886766e-02 -2.38864213e-01 -3.19452435e-01 +6.28653243e-02 -3.65462214e-01 +1.49239168e-01 +3.35960925e-01 +2.29261983e-02 +2.87995279e-01 +2.90044874e-01 +1.13812633e-01 +1.92094505e-01 +8.65205601e-02 +3.34533721e-01 +1.47901982e-01 +4.93277043e-01 +2.62323976e-01 -2.42593199e-01 -8.43269899e-02 -7.59421661e-02 +3.98352325e-01 -6.50108457e-02 -1.05825394e-01 +1.65605564e-02 +1.39877247e-03 -6.74611097e-03 -2.90932339e-02 -7.52258748e-02 -2.24183559e-01 +2.22184956e-01 -2.01302376e-02 +3.50797236e-01 +4.26713794e-01 -1.32943198e-01 +1.88172370e-01 -2.46786326e-03 +1.55664325e-01 +8.01973976e-03 -3.72533113e-01 +3.40940878e-02 -3.12733918e-01 +2.54721433e-01 +1.89387277e-01 -1.74575567e-01 +7.70257860e-02 +2.16104656e-01 +9.09294009e-01 -4.59756374e-01 -2.51918018e-01 +5.96011400e-01 +1.70624048e-01 -2.63992727e-01 -6.29369378e-01 -8.46473202e-02 -8.97285700e-01 +3.21319312e-01 -4.63885069e-01 -3.72434668e-02 -1.36908650e-01 +3.38219583e-01 +4.59914327e-01 +3.24583709e-01 -1.01900852e+00 -9.97771919e-02 -1.39785558e-01 +3.41818541e-01 -2.30213597e-01 -3.90456207e-02 +1.90840766e-01 -2.01484501e-01 +4.96175766e-01 -1.53191509e-02 -3.31655115e-01 +2.58810036e-02 +2.45604947e-01 -5.90418652e-02 +3.82285953e-01 -2.85587490e-01 -2.33601257e-01 +1.11867554e-01 +1.59962326e-01 +2.04164356e-01 +1.48892447e-01 -1.64401922e-02 -5.59248090e-01 +2.48127580e-01 -1.43658174e-02 -1.13490909e-01 +1.68324500e-01 +3.14679295e-01 +2.86386609e-01 -6.73089251e-02 -6.32282078e-01 +3.26087475e-01 -1.72736034e-01 -1.23095307e-02 -4.58506681e-02 +4.56621870e-02 -3.66275489e-01 +1.56251743e-01 +4.83459502e-01 +1.21976487e-01 -1.45805165e-01 +3.50439288e-02 +4.54537272e-02 -1.79181565e-02 -2.43471831e-01 -9.93056521e-02 +1.22953556e-01 -1.58896655e-01 -4.21484075e-02 -2.52786338e-01 +2.10323736e-01 +1.48758173e-01 -3.67041558e-01 +4.22700435e-01 -3.10173519e-02 +1.12896860e-01 -7.23764896e-02 -7.11985081e-02 +3.36218178e-01 +4.48837221e-01 -2.96874326e-02 +1.40625179e-01 +1.34871930e-01 +3.81579727e-01 +1.24180824e-01 +1.58581838e-01 +5.92747852e-02 +2.39146680e-01 +9.86309275e-02 +9.70444307e-02 +3.07984054e-01 +3.57701808e-01 +1.53538613e-02 +2.02008203e-01 +3.68219823e-01 +1.22078424e-02 -4.14029360e-02 -1.51802436e-03 +1.82789654e-01 -3.46266627e-02 -1.56193450e-01 -2.51687586e-01 -4.35245931e-02 -1.41473129e-01 +1.10398494e-01 -3.67539555e-01 -4.52974260e-01 -3.94174665e-01 +9.31449160e-02 +4.90940250e-02 -2.13791847e-01 -1.95484430e-01 +1.42490476e-01 +1.90373193e-02 +5.34858517e-02 -2.52108365e-01 -2.20959067e-01 +1.83489308e-01 -2.82223187e-02 +1.82816029e-01 +4.39770781e-02 -9.89636406e-02 +5.00498787e-02 +2.89808344e-02 +1.81794494e-01 +6.72970638e-02 -1.77355602e-01 -1.43185228e-01 -2.19611228e-01 -1.41370343e-02 -6.29616603e-02 +2.35757813e-01 -1.30276129e-01 -2.36412361e-01 +2.91291356e-01 -3.30744773e-01 +1.43222347e-01 +2.28334382e-01 +4.25731540e-01 +1.87312812e-01 +3.64194632e-01 +8.64494815e-02 +1.52389929e-01 +3.59711424e-02 -4.85097855e-01 -3.55767459e-01 +3.10148984e-01 +2.46655107e-01 +1.27630457e-01 +4.09143537e-01 -4.22887713e-01 +3.50329399e-01 +3.09632748e-01 -2.05865651e-01 +2.30207086e-01 -2.95977831e-01 +2.26764634e-01 +2.97921151e-02 +4.57173735e-01 +2.44981617e-01 +3.69196773e-01 +4.79550213e-01 -4.54245508e-02 +2.23496318e-01 +3.82291526e-02 +1.43882379e-01 -2.09885761e-01 +8.79425928e-02 +9.37665328e-02 +6.98172823e-02 -5.41037679e-01 -7.27784783e-02 -8.74434784e-02 -1.84354614e-02 -1.23691969e-01 -4.06855017e-01 -1.30323768e-01 -2.83633977e-01 -2.39872605e-01 -4.10487875e-02 +1.64670929e-01 -9.64349061e-02 +2.19590187e-01 -1.21026814e-01 +2.91266650e-01 +9.01621804e-02 +5.26311956e-02 +1.98146492e-01 -1.33892059e-01 -3.87778372e-01 -1.47106588e-01 -1.04409844e-01 -3.91736746e-01 -1.17465325e-01 +2.31157750e-01 -3.38867366e-01 +1.41291901e-01 +2.21019030e-01 +1.62488203e-02 +2.12294400e-01 -4.31943871e-02 +1.97980195e-01 -7.53346551e-03 +2.60928959e-01 -8.97521004e-02 -1.91179402e-02 +1.00465693e-01 +3.33838351e-02 -2.28278898e-02 +1.66409329e-01 -1.11197099e-01 -3.86357643e-02 +1.30231664e-01 +6.73754066e-02 +3.67539465e-01 +1.13369472e-01 +2.72758424e-01 -3.86694521e-01 -8.27698186e-02 -7.39012286e-02 +7.62292221e-02 +1.66610226e-01 -3.96269411e-01 -1.43220007e-01 +9.28075761e-02 -1.59028366e-01 +2.62886614e-01 -1.43420354e-01 +4.59073156e-01 +1.81216892e-04 -1.89520687e-01 -1.33115366e-01 +2.74264328e-02 -1.16892040e-01 -1.09339833e-01 +4.03000772e-01 -1.37986451e-01 -7.06832781e-02 +4.24431376e-02 +3.25168908e-01 -8.56664851e-02 -9.30559412e-02 +6.34496093e-01 +3.74946028e-01 -1.13967016e-01 +5.17605841e-02 -5.63461661e-01 -1.74456894e-01 +8.74561742e-02 -8.40157643e-02 -1.80014476e-01 -4.20207977e-02 -1.39935210e-01 +2.36827806e-01 +1.12366781e-01 -1.05270851e+00 +2.30265647e-01 -5.18772528e-02 +2.44725607e-02 +2.57302597e-02 +5.33974648e-01 -4.25713181e-01 +2.63066869e-03 -5.55147529e-01 +1.19990431e-01 +4.75316077e-01 +3.64915341e-01 +2.86571495e-02 +1.59671277e-01 +4.00668323e-01 +4.36658859e-02 +2.22642064e-01 -7.40025163e-01 -3.32521349e-01 -7.69329891e-02 +6.05814636e-01 +8.57311413e-02 +1.81067839e-01 -1.56938016e-01 +3.31238985e-01 +2.45427296e-01 +1.40931949e-01 -7.60958418e-02 +3.67312759e-01 +1.06808372e-01 +2.67894804e-01 -1.63832247e-01 +6.86261151e-03 +8.82668614e-01 +1.44673139e-01 +4.28999037e-01 +1.80518746e-01 -1.26236543e-01 -3.82484049e-01 +1.12601243e-01 +1.10296598e-02 +1.60951376e-01 +3.67633030e-02 +1.04784824e-01 -1.23960160e-01 -2.09894717e-01 +5.02044298e-02 -3.51230681e-01 -1.81603491e-01 -9.15524885e-02 +1.50926947e-03 -3.86727303e-02 -2.98960000e-01 +9.43233352e-03 +5.22411522e-03 -5.28209470e-02 +3.31801713e-01 +7.08146021e-02 -3.74946073e-02 -6.64406657e-01 -1.10581424e-02 +1.29647061e-01 -5.13720453e-01 +1.37089789e-01 +1.23829670e-01 +1.03762951e-02 +3.14078480e-01 +1.65656090e-01 +3.53917390e-01 -1.89986929e-01 -1.58761144e-01 -1.05492972e-01 +8.89102146e-02 +4.75354232e-02 +1.66421011e-01 -7.37899840e-02 -1.12274051e-01 +1.10885456e-01 +4.40355651e-02 -2.86713809e-01 -1.56813860e-01 +1.37576655e-01 -1.23570301e-02 -1.13418117e-01 +4.56708036e-02 -2.19171926e-01 +1.35029420e-01 -8.02439079e-02 -1.18323408e-01 -1.41481489e-01 +1.95562750e-01 -5.40462732e-01 -1.31443918e-01 -4.22316551e-01 +1.13563143e-01 +8.34308937e-02 -2.37442479e-01 -3.91895808e-02 +2.95730382e-01 -2.08983749e-01 -2.30837435e-01 +1.45243779e-01 -2.92297620e-02 -1.40160680e-01 -4.10699807e-02 -6.99122390e-03 +6.33938164e-02 -2.00150639e-01 -2.03330861e-03 +1.32423088e-01 -1.62557587e-01 +2.07554221e-01 -1.00818900e-02 +1.16167381e-01 +2.42823556e-01 -3.02947193e-01 +7.08872378e-02 -1.45334795e-01 +1.78852320e-01 -4.08210084e-02 +3.05004239e-01 -8.11220035e-02 -1.71225215e-03 -1.37658464e-02 +5.33009619e-02 -2.03225449e-01 -1.78454638e-01 +2.44033784e-01 +2.71457046e-01 -1.67567566e-01 -1.74435638e-02 +1.01163097e-01 -3.85362133e-02 -7.23443255e-02 +1.87521137e-03 +1.47462249e-01 +3.34749758e-01 -2.87453234e-01 -7.30229616e-02 -1.99626222e-01 -9.73634720e-02 -5.49586833e-01 -1.29749551e-01 +2.15328768e-01 -3.45032007e-01 -3.45984916e-03 +2.39590406e-01 -2.88846809e-02 -1.04173109e-01 -7.78502166e-01 -2.12985799e-01 +1.16874225e-01 -4.98091549e-01 +1.10440463e-01 +2.19502553e-01 -3.84180576e-01 -4.43529367e-01 -1.74425706e-01 -7.06216216e-01 +2.60707885e-01 -4.09414172e-01 -3.16071689e-01 +2.53551900e-01 -9.38557014e-02 -1.25214010e-01 +3.32901359e-01 +1.55386344e-01 +4.16368851e-03 +9.53159183e-02 -8.49561244e-02 +4.77607213e-02 +5.83203137e-01 +2.06711262e-01 -1.20247370e-02 +8.34286064e-02 +1.41351432e-01 -8.58475491e-02 +2.94687510e-01 -2.07331721e-02 +9.73848403e-02 +4.60592620e-02 -6.54112697e-02 -1.12105437e-01 +2.66059995e-01 -1.04903094e-01 -1.37420833e-01 -1.59490202e-02 +8.86624828e-02 -6.20503835e-02 +9.13688391e-02 -2.86991727e-02 -1.35334253e-01 +8.39745700e-02 +1.95817366e-01 -3.00892323e-01 +1.46971764e-02 -6.11215942e-02 -7.98965618e-02 +6.09035969e-01 +2.42220238e-01 +1.22723974e-01 +7.52399385e-01 -9.73824039e-02 -4.58068639e-01 -4.62622762e-01 -2.29158759e-01 -3.38976771e-01 +2.04878002e-01 +4.53484841e-02 -1.33146852e-01 -2.26212874e-01 -7.19282031e-01 -5.81095695e-01 +1.62650019e-01 -1.92262858e-01 -9.65457708e-02 -3.39325964e-01 -1.17470287e-01 -1.17623396e-02 +1.41905397e-01 -8.15984681e-02 -2.00945675e-01 +6.72059834e-01 -1.95390821e-01 +4.40762267e-02 +4.27446552e-02 +3.84845659e-02 -2.00632975e-01 -1.41809791e-01 +1.84346512e-01 +5.11777461e-01 +2.06861332e-01 +3.29433858e-01 +6.42466903e-01 -8.18662345e-02 -2.11338073e-01 +3.30270708e-01 -8.10484737e-02 +7.75354654e-02 -7.55377039e-02 -3.12811248e-02 +1.99394763e-01 +5.36225364e-02 -2.64473706e-01 -5.20368755e-01 -1.12358324e-01 +8.02464858e-02 +3.19826719e-03 +4.12509412e-01 -1.90461114e-01 +1.06219433e-01 +2.68592983e-01 -4.07597236e-02 +1.96845010e-01 -4.41378444e-01 -1.85806289e-01 +4.17863965e-01 +1.06454439e-01 +1.95812881e-01 +3.91201377e-02 -5.70511855e-02 -3.15336064e-02 -5.87339178e-02 +1.18095016e+00 -6.41292870e-01 -3.20613980e-02 +1.47912428e-01 -2.53720254e-01 -3.56730759e-01 -1.90792605e-01 -1.02723277e+00 +3.83303970e-01 +1.48960695e-01 +8.06507051e-01 -1.95746437e-01 -3.09377491e-01 -8.11333954e-01 +5.57641864e-01 +7.40634620e-01 -3.27611864e-02 +4.77605551e-01 -3.86178046e-01 -4.82266039e-01 -2.52979636e-01 -1.49204642e-01 -8.66474211e-02 +4.70185995e-01 +4.40376103e-01 +4.24680918e-01 -3.78345490e-01 +2.05052540e-01 +2.90319115e-01 -6.51230058e-03 -2.41928380e-02 -1.84852868e-01 -4.18175757e-02 -1.58710152e-01 -1.74823239e-01 +1.62937745e-01 -4.80914377e-02 -6.22304201e-01 -1.60175577e-01 +3.63696039e-01 +4.20814842e-01 -1.82486668e-01 -2.10583732e-01 +3.45368296e-01 +3.18927199e-01 -3.06967676e-01 +9.54805408e-03 -7.98526779e-02 -2.50459015e-01 +1.30787924e-01 -5.77701442e-02 -1.52648702e-01 +1.60439938e-01 -1.68725967e-01 +2.01418370e-01 +2.30337486e-01 -2.23043300e-02 -2.95805149e-02 +5.68696856e-02 +2.02792361e-02 -4.20561492e-01 +1.49003714e-01 -5.42486720e-02 -5.11734784e-01 +6.33374751e-02 +7.33169727e-03 -1.08932227e-01 +1.62601192e-02 -6.49239048e-02 -8.68437290e-02 +1.49310887e-01 +2.13657126e-01 -5.90114892e-02 +1.69769585e-01 -1.71359360e-01 -5.29002212e-02 -3.31330210e-01 -3.19004506e-01 -3.84833571e-03 -3.54956359e-01 +3.17320913e-01 +1.24928258e-01 +3.27766269e-01 +2.22503260e-01 +2.96690851e-01 -1.51022717e-01 -1.08760148e-01 -2.65514076e-01 -4.26615298e-01 -2.38225862e-01 -1.04526140e-01 +4.46549430e-02 +2.11219698e-01 -2.71201789e-01 -3.19711655e-01 -1.78863648e-02 +1.75074846e-01 -8.57366100e-02 -7.00070083e-01 +9.88099158e-01 -2.72192925e-01 +9.74151865e-02 +1.22222163e-01 +7.89431930e-02 -2.13353690e-02 -5.54534316e-01 +7.59182274e-02 -7.88369551e-02 -2.63786256e-01 -3.71484548e-01 +1.68486208e-01 -7.27046132e-02 +1.93283245e-01 -1.99986860e-01 -1.74195722e-01 -1.15415715e-01 -1.15296967e-01 -5.30293882e-02 -6.81828082e-01 -5.67502439e-01 +6.08035624e-02 -1.20170109e-01 -1.33879423e-01 -8.02614763e-02 +2.54299104e-01 +1.86177984e-01 -1.01540124e+00 +9.22669768e-01 +2.92731375e-01 -5.73585987e-01 +7.53150642e-01 +4.54556108e-01 -3.62703651e-01 -2.49125734e-01 -3.59624416e-01 +5.45815647e-01 +2.42584854e-01 +1.45794451e-02 +1.50320148e-02 +1.34649247e-01 -1.20238692e-01 +2.17962533e-01 -3.00504208e-01 -5.31580709e-02 +4.82021153e-01 -3.77577603e-01 +3.92178863e-01 -1.76621154e-01 -1.51612416e-01 -1.98148236e-01 -7.67755866e-01 -1.51026351e-02 +1.54224217e-01 -4.22196954e-01 -4.01919097e-01 -3.92156005e-01 +3.54365706e-01 +1.59228981e-01 +4.88932580e-01 +1.20567061e-01 +5.82613982e-02 +9.86135975e-02 -1.90565512e-02 -2.90687263e-01 +7.09576786e-01 +3.22715491e-01 +5.14148995e-02 -1.31741464e-01 -2.40928531e-01 +8.16387475e-01 -8.70780125e-02 -2.18822490e-02 +1.64309829e-01 -3.70456278e-02 -1.86818928e-01 +6.46899566e-02 +3.35044146e-01 -5.29821180e-02 -2.47376963e-01 +4.80390862e-02 +4.30043712e-02 +7.33198039e-03 +1.23110890e-01 +2.99472302e-01 -2.53688335e-01 +3.71640503e-01 +3.08631688e-01 +1.12041041e-01 +1.70882285e-01 -5.72629571e-01 -4.07818377e-01 -1.65190205e-01 -3.68080974e-01 -5.00172377e-01 -4.99969959e-01 -7.87251070e-02 -3.54035378e-01 -7.99111247e-01 +1.16431989e-01 +2.97289044e-01 -2.18784198e-01 -3.65271538e-01 -2.28224844e-02 -5.51140010e-02 -5.88048875e-01 -3.25688094e-01 -3.69201362e-01 +6.13480806e-02 -5.38135707e-01 +2.40374029e-01 -3.72354865e-01 -2.39740834e-01 -5.97480714e-01 -1.92864507e-01 -3.98248345e-01 -4.70928073e-01 -9.19977110e-03 -1.40455320e-01 -1.14411436e-01 -2.22012997e-02 -2.45503709e-01 +3.06602567e-01 +2.84232497e-01 +1.28811166e-01 +4.65666540e-02 -2.09405527e-01 +2.98028737e-01 +4.38340753e-01 +1.34950057e-02 -1.90448880e-01 -7.67106265e-02 +5.45924157e-02 +1.86517611e-01 -2.51143938e-04 -2.66341150e-01 +1.23280838e-01 +6.22552596e-02 +2.42984727e-01 -1.19570576e-01 +1.13171332e-01 +3.16940963e-01 -3.37489545e-01 +7.98066556e-01 -1.80256680e-01 +9.89341810e-02 -6.12971857e-02 +1.36454329e-01 +8.88963267e-02 +3.33805345e-02 -4.22860295e-01 +1.65140666e-02 -1.86891541e-01 +1.51701719e-01 -1.26525700e-01 +2.63674051e-01 -1.01233266e-01 +3.46717209e-01 -3.96215826e-01 +6.15976006e-02 -4.98896748e-01 -4.18975577e-02 -4.71251070e-01 -1.00462401e+00 -1.77726403e-01 -3.71182710e-01 -1.48207862e-02 +1.13571450e-01 +6.63975120e-01 -4.52236116e-01 +1.46617681e-01 -4.37960982e-01 +3.79214317e-01 -5.14881074e-01 -1.98026784e-02 +8.53935555e-02 +1.46328986e-01 -2.21107274e-01 -2.08573610e-01 -4.38650465e-03 +1.55658975e-01 -9.99737531e-02 -3.66876543e-01 -9.86840785e-01 -2.94870317e-01 +6.77290380e-01 -2.55397677e-01 -3.09969485e-01 -2.28589967e-01 +6.92234635e-02 -2.02221230e-01 