#Parameter# /vanilla-lstm-builder/_0 {128,300} 614401 ZERO_GRAD
-1.59080476e-01 -2.23764583e-01 +1.07751206e-01 -2.86818653e-01 +8.16562921e-02 -2.29929104e-01 -2.13593170e-02 -1.69274434e-02 +4.18500006e-02 +1.21957986e-02 -4.23997231e-02 -3.48521888e-01 -3.19044590e-01 +1.02399357e-01 -2.14915514e-01 +4.35418002e-02 -2.19624370e-01 -2.43246764e-01 +1.14321023e-01 -4.10037488e-02 -2.13466585e-02 -1.79333374e-01 -5.66552468e-02 -7.60261342e-02 -1.21754549e-01 +1.49398460e-04 -5.67139126e-02 -1.20897233e-01 -1.18743345e-01 -1.13986105e-01 -6.14154525e-02 -1.32557750e-01 -8.96926746e-02 -1.64870486e-01 +3.88230264e-01 -2.85009235e-01 -5.19222379e-01 -1.84735373e-01 +1.45467237e-01 +1.64465141e-02 -3.68449688e-02 +1.26085049e-02 -1.59568101e-01 -1.98108807e-01 -2.02901185e-01 +3.56865406e-01 +1.46767005e-01 +9.53229424e-03 -1.71567976e-01 +5.10021150e-02 +1.81460351e-01 +7.39521161e-02 +5.80594875e-03 -1.27739444e-01 +1.75556734e-01 -4.82408479e-02 +8.99620354e-02 -6.78366702e-03 +7.08894506e-02 -1.69770971e-01 -9.75206196e-02 -1.13356762e-01 +4.19334695e-02 +7.45776743e-02 -3.47318709e-01 +2.22653598e-02 +3.08423750e-02 -3.79117668e-01 +1.48841456e-01 +7.85583258e-02 +2.63945848e-01 -6.49850667e-02 -3.15936387e-01 -3.49097550e-02 -1.01110689e-01 -5.14261961e-01 -2.24073783e-01 +4.89961393e-02 -1.68382376e-01 +2.96869986e-02 -2.17174198e-02 -2.24570647e-01 -1.50267616e-01 -6.02773316e-02 +1.19095713e-01 -4.51532423e-01 -5.11278249e-02 -1.33649543e-01 -1.86406553e-01 +6.04151282e-03 -6.57630265e-02 -3.13959360e-01 +3.85371387e-01 +1.41936362e-01 -2.69769371e-01 -5.37795424e-02 +6.08559623e-02 -2.13005003e-02 -7.22382814e-02 -4.87744540e-01 -6.05051257e-02 -2.28185672e-02 -1.30069256e-01 -1.07202485e-01 -2.95699388e-02 -3.30061242e-02 -1.05855420e-01 +1.10171042e-01 -3.71401370e-01 +1.65811837e-01 +1.82776377e-01 +8.70094821e-02 +2.32793428e-02 +1.71891823e-01 -1.33163273e-01 -7.54264323e-03 -5.34651503e-02 -9.50053334e-02 +2.74383336e-01 +2.36328542e-01 -8.38703215e-02 +2.17834145e-01 +1.66991919e-01 -2.05683261e-02 -1.12672821e-01 +2.33615264e-01 -6.33485690e-02 +4.77874540e-02 +5.01631089e-02 +6.50321469e-02 -1.21914588e-01 -4.70379964e-02 -2.91196525e-01 +2.87375152e-02 +1.90594405e-01 -2.26441864e-02 +4.55808342e-02 -6.89954311e-02 -2.58579642e-01 -3.58794816e-02 -1.37973458e-01 -7.31961057e-02 -1.32212237e-01 +1.25961259e-01 +6.63638860e-02 -1.91367175e-02 +8.03578570e-02 -2.59041756e-01 +6.63002953e-02 -5.75608052e-02 +6.86945170e-02 +1.22104868e-01 +3.94451618e-02 +1.44462556e-01 +4.05157544e-02 +2.97128826e-01 -9.03496705e-03 +1.35202378e-01 +1.79523185e-01 -3.33160698e-01 +2.86007300e-02 -4.65835519e-02 -7.79542420e-03 -2.29450725e-02 +1.61281541e-01 -5.80788776e-02 +6.09163800e-03 +8.69271457e-02 +6.87709525e-02 +1.50770703e-02 +1.11658201e-01 -3.74877267e-02 +2.48155698e-01 -3.03499047e-02 -7.82820508e-02 -6.37192558e-03 -2.44114120e-02 -1.01647273e-01 -5.66361099e-02 +6.66996762e-02 -1.25696644e-01 +1.39403939e-02 -1.03946470e-01 +4.63909619e-02 -2.10036293e-01 -4.87703942e-02 +5.34554990e-03 -9.62447599e-02 +1.11059263e-01 -2.73622423e-02 -2.29705479e-02 -5.33360392e-02 +2.92628467e-01 -8.95293802e-02 +9.23120975e-02 +6.34534955e-02 -1.52137801e-01 +1.43903509e-01 -1.82076022e-01 -2.69128866e-02 -3.46858092e-02 -1.11142181e-01 -2.77730137e-01 -1.03813849e-01 -1.13586739e-01 +1.57210037e-01 -1.69922009e-01 -1.46583453e-01 -1.76744357e-01 -4.45550680e-02 +2.77853888e-02 +4.87221405e-02 -1.32589834e-02 -8.58974382e-02 -6.97413385e-02 +5.46331592e-02 +8.78967494e-02 +2.56408721e-01 -2.94123832e-02 -9.19116139e-02 -7.79394731e-02 +1.06174707e-01 -8.77740383e-02 -7.43765905e-02 -1.89731702e-01 +1.43442586e-01 -7.47293234e-02 +2.21861243e-01 +4.95456951e-03 -7.18006771e-03 -1.88901853e-02 -3.58289480e-03 -2.35405937e-03 +2.12656543e-01 -1.16172351e-01 -2.47816071e-01 +1.57170594e-01 +1.07540458e-01 -1.38840005e-01 +1.47126680e-02 -2.87987798e-01 +1.36695519e-01 -1.21567152e-01 +3.65215123e-01 +1.26477167e-01 -1.20886080e-02 -1.06844954e-01 -1.66005820e-01 +4.87158597e-01 -7.61905760e-02 +7.53253177e-02 +1.36080012e-02 -6.77283332e-02 -1.39226153e-01 +4.33067530e-02 +6.68347850e-02 -4.20526452e-02 +1.23279057e-02 +1.23679079e-03 -1.27054915e-01 +1.09735571e-01 -1.01271980e-01 -3.06397993e-02 -9.94662866e-02 +4.80094366e-02 -8.23084414e-02 +1.38166338e-01 -6.64113015e-02 -3.83581147e-02 -1.21771060e-01 -7.76527226e-02 +5.15937470e-02 -7.09317923e-02 -2.57956255e-02 +9.05773863e-02 -3.83244790e-02 +3.89582627e-02 +3.08885872e-02 -3.12231407e-02 -1.01106994e-01 -1.37141913e-01 +1.06251920e-02 -7.84338266e-02 -1.87689498e-01 -9.27482992e-02 +8.93869996e-02 +8.40456486e-02 +1.41913518e-01 -3.91109139e-02 -9.93568599e-02 -7.90539756e-03 -3.20078522e-01 -3.95857036e-01 -1.46556333e-01 -1.62422553e-01 -1.64543226e-01 -1.59905240e-01 -4.51420732e-02 -8.56762286e-04 -9.39780995e-02 -2.63264060e-01 +3.32019091e-01 +1.78856507e-01 -2.03686148e-01 +1.67215824e-01 +1.74340710e-01 +6.15008250e-02 -1.32763177e-01 +2.14870542e-01 +1.06879309e-01 -3.55299190e-02 -2.13427320e-01 -1.86661437e-01 -8.56075585e-02 +7.52937868e-02 -8.33736658e-02 -9.77499187e-02 -1.55378029e-01 -2.54379585e-02 +1.52786553e-01 -2.40638286e-01 -3.34903985e-01 -1.10697620e-01 -2.41724014e-01 -1.46351665e-01 +5.82299121e-02 +4.53893274e-01 +7.04620499e-03 -6.85718954e-02 +1.88867480e-01 -2.34390959e-01 -2.70492494e-01 +4.71705794e-02 +2.33562693e-01 -1.84360027e-01 +1.08815156e-01 +1.03340618e-01 -1.44534498e-01 -9.00606662e-02 +6.12565242e-02 +2.38004819e-01 -2.63705075e-01 -4.04750630e-02 -1.82804555e-01 -1.18406922e-01 +1.22147255e-01 -3.99420112e-02 -1.36070684e-01 +3.92526776e-01 +1.21240996e-01 +8.07853863e-02 -6.95886910e-02 -1.84374303e-01 -4.45946790e-02 -2.07735538e-01 -4.45600152e-01 -6.84075207e-02 +1.80706903e-02 -1.46836147e-01 -8.64187554e-02 +4.90623116e-02 -3.03260714e-01 -1.98188350e-02 -8.16699788e-02 -9.16940793e-02 +2.58980095e-02 -1.28743500e-02 +5.54141328e-02 +4.20725077e-01 -4.45323661e-02 +9.54361856e-02 -2.19474845e-02 +6.45221919e-02 -1.50502056e-01 +1.66506261e-01 -2.84866840e-02 -1.56587005e-01 +1.17891937e-01 -3.79502624e-02 +2.17769384e-01 +2.03351721e-01 -5.88049367e-02 +1.55645639e-01 -7.11430609e-02 +1.02805346e-01 -5.94708696e-02 +7.95764551e-02 -7.93721750e-02 +5.22803627e-02 -2.75147595e-02 +6.27680868e-02 -5.39375283e-02 -8.34808685e-03 -1.86337978e-02 -1.47421397e-02 -1.00053705e-01 -2.23736949e-02 +1.50343999e-01 +1.11876745e-02 -1.34631455e-01 +4.95719351e-02 +9.44519714e-02 -2.69137591e-01 +5.72274588e-02 -8.65364820e-02 -1.10135399e-01 -6.70551434e-02 +6.49285764e-02 -6.04894087e-02 -2.17811558e-02 -1.28387436e-01 +7.27734640e-02 +6.02972619e-02 -5.84709905e-02 -1.42760992e-01 +3.41806887e-03 +1.49262995e-01 -8.40640590e-02 -9.25742239e-02 +1.87600002e-01 +5.80340885e-02 -1.61204919e-01 -9.81269404e-02 -1.86529066e-02 +9.33527574e-02 +6.46930607e-03 +9.29589495e-02 +2.88740043e-02 +8.97818655e-02 -1.72182545e-02 -1.04067281e-01 -1.41969621e-01 -3.58936727e-01 -5.76588809e-02 -1.82645842e-01 -2.82345004e-02 +6.51302487e-02 +1.49672791e-01 -5.47944866e-02 +3.37977521e-02 -4.90148813e-02 +1.22753464e-01 -1.03002727e-01 +1.08526498e-01 +4.33940813e-02 -5.40053770e-02 -1.53410375e-01 -7.13155419e-03 +1.39083207e-01 +5.18894613e-01 +2.88852099e-02 +1.06166182e-02 +2.44328696e-02 -5.00707090e-01 -2.44677663e-01 -4.24253315e-01 +6.84041753e-02 +2.97033668e-01 -2.66569071e-02 +6.57828897e-02 -6.54758960e-02 +1.39123216e-01 +2.63442904e-01 -2.97939926e-01 -6.43706918e-02 -4.86640409e-02 -5.26589938e-02 +2.36470804e-01 -7.85111859e-02 +6.74174488e-01 -1.05646707e-01 -1.07746512e-01 -6.20098040e-02 -1.15278527e-01 +5.70474379e-02 +1.42631140e-02 +3.28654259e-01 +5.31704664e-01 +7.82133266e-03 -6.58563450e-02 -3.82250287e-02 +9.18273553e-02 -1.15409292e-01 +9.83367339e-02 -2.23190673e-02 -1.39497193e-02 -8.84761363e-02 -1.24168389e-01 -1.38515085e-01 -1.03190035e-01 +7.86314160e-02 -5.17707616e-02 +2.18603268e-01 -7.21359253e-02 +2.83037752e-01 +4.38692383e-02 +3.47132683e-01 +3.71310115e-01 +6.58655073e-03 -1.35841565e-02 +2.21705958e-02 +2.31151000e-01 +6.63748682e-02 +1.05643440e-02 -2.06458315e-01 -5.91190830e-02 +9.74247307e-02 +1.15604505e-01 +8.78979266e-02 +3.16465020e-01 -2.14192830e-02 -8.37940946e-02 -6.33483678e-02 +1.38887331e-01 -1.95972752e-02 -4.12209854e-02 +1.55248255e-01 +9.87128690e-02 +3.34262140e-02 +1.14470840e-01 +1.21223532e-01 -7.11042136e-02 -1.60354003e-01 -2.72838287e-02 +5.88943660e-02 +1.85040027e-01 +9.15944874e-02 +1.75708398e-01 +2.13175267e-01 +4.10008095e-02 +7.81692863e-02 +2.75870234e-01 -9.42887738e-03 +9.29719955e-02 -1.22221865e-01 +8.77300501e-02 -8.18969384e-02 +1.94239751e-01 -2.98055131e-02 -3.47727127e-02 +6.27153069e-02 +1.90490052e-01 +2.40292610e-03 +1.69923276e-01 +7.01486990e-02 +3.07798274e-02 +1.53880477e-01 -7.75063485e-02 -3.15984964e-01 +5.33392951e-02 +7.92512000e-02 +1.52527079e-01 -1.01164423e-01 -2.46358048e-02 -1.54558728e-02 -5.77755235e-02 -1.31399438e-01 +4.18568887e-02 +1.31735072e-01 +2.65515316e-02 +1.40557006e-01 -7.70931914e-02 +9.58954468e-02 +1.61322892e-01 +5.00485785e-02 +1.16869137e-01 +4.79077883e-02 +5.00150360e-02 +6.56539351e-02 +2.73983836e-01 -1.43143505e-01 +9.78136957e-02 -6.47251531e-02 -7.12832734e-02 -4.78708073e-02 -1.38026113e-02 +3.60959917e-02 +1.83526635e-01 +1.03617951e-01 -1.24034494e-01 -1.74871802e-01 -3.00945103e-01 -3.73842627e-01 -4.84090745e-01 +2.64233351e-02 +2.08975181e-01 -1.08935714e-01 +1.39917403e-01 -7.94086978e-03 +1.36083141e-01 -2.76372489e-02 -3.12542617e-01 -8.24361369e-02 +7.88047686e-02 +1.58974845e-02 +1.71228528e-01 +4.81550634e-01 -5.61891720e-02 +1.60442181e-02 +4.47342880e-02 +9.92361009e-02 +4.85464782e-01 +5.65231480e-02 -2.02984884e-02 +1.83890045e-01 +8.41203928e-02 -2.18251329e-02 +1.28900200e-01 -6.64378107e-02 +4.08449955e-02 -1.49891168e-01 -1.41605541e-01 -4.10921648e-02 +9.13992971e-02 +1.18827214e-02 +7.95611739e-02 +3.87525707e-02 -3.73139113e-01 +5.56071326e-02 -2.27971926e-01 -2.59794248e-03 +1.34398237e-01 -3.58833857e-02 -7.09544793e-02 -4.07780744e-02 +6.18644133e-02 +3.85988802e-02 +3.33997533e-02 -1.70069203e-01 -2.35726088e-02 -5.68582080e-02 +2.03463003e-01 +1.86768517e-01 -2.00984359e-01 +8.69795009e-02 -6.79301890e-03 -1.76835284e-01 +1.55258909e-01 +3.12013533e-02 -6.17803335e-02 -4.69094515e-02 -1.41847031e-02 +1.24669865e-01 +4.41471636e-02 -1.79400429e-01 -2.79777404e-02 +1.03681222e-01 -8.27539414e-02 -4.47923914e-02 -1.05441846e-01 -2.69532902e-03 +1.40427306e-01 +1.05715513e-01 +3.73626761e-02 +1.00712992e-01 +1.43309822e-02 -3.60420197e-02 +1.53197885e-01 -1.14442274e-01 +2.56918315e-02 +7.62036145e-02 +4.26260158e-02 -8.23287889e-02 +5.24471365e-02 -7.19680339e-02 +8.05589557e-02 +1.20484002e-01 -1.99904367e-01 +1.57734275e-01 +1.18780285e-01 -1.10310450e-01 +1.92093626e-01 +4.97462898e-02 +1.31662548e-01 -3.34782720e-01 +8.12847316e-02 +3.22380573e-01 +4.50124070e-02 +2.34586243e-02 +5.70962764e-02 -4.73701321e-02 -1.07133366e-01 -2.44848598e-02 -6.21607378e-02 +2.14839906e-01 -3.87038738e-02 -9.93008167e-02 +2.01735012e-02 -4.53936160e-01 -2.05314457e-01 -2.47441500e-01 -2.85583168e-01 -3.11255027e-02 +4.71073501e-02 -9.73246396e-02 -6.03257492e-03 -1.82386730e-02 -1.30186439e-01 -2.19135165e-01 +1.07640088e-01 +4.68775220e-02 -3.76229621e-02 -1.36417314e-01 -2.39914477e-01 +1.39941365e-01 +2.39550397e-01 -8.43469873e-02 +1.07840680e-01 +4.30017076e-02 +3.50767560e-02 -1.15470678e-01 -1.09880768e-01 -7.40914121e-02 +3.95248145e-01 -1.12071246e-01 +9.52739492e-02 +1.48728848e-01 +1.58112019e-01 +3.16458717e-02 +1.59864545e-01 +6.76460117e-02 +1.29539326e-01 +8.76130164e-02 +3.68084349e-02 +3.33093572e-03 +4.07907546e-01 -1.94110181e-02 +7.28518665e-02 +9.34870690e-02 -1.38126805e-01 -4.04087175e-03 +1.83376402e-01 +4.07627910e-01 +2.81531483e-01 +1.74208879e-01 -8.00298527e-02 +1.70244738e-01 +1.29252732e-01 +1.63124338e-01 +2.43512675e-01 -4.06890474e-02 -3.19074211e-03 +1.91102941e-02 -9.09131370e-04 +5.20766601e-02 -3.52764539e-02 +2.53343999e-01 -3.12542021e-01 +1.47884607e-01 -1.67744502e-01 +5.32245517e-01 +4.03194316e-03 +2.76347995e-01 -7.07355188e-03 -1.05501510e-01 -4.82081547e-02 -1.63765356e-01 +5.80832474e-02 -7.51222894e-02 -9.21349451e-02 -1.74676683e-02 -1.74282998e-01 -1.52195608e-02 -7.87447616e-02 -6.98948205e-02 +1.13662831e-01 -9.82149541e-02 -9.84565169e-02 -6.65686792e-03 +1.29892439e-01 -5.13937734e-02 +1.17868058e-01 -5.16020022e-02 -1.03781121e-02 -8.38281289e-02 +1.16774656e-01 +7.61999562e-02 +1.21162362e-01 +1.95936263e-01 +9.39245373e-02 +2.08473846e-01 -2.10589975e-01 +2.27023557e-01 +1.81119949e-01 -2.44871646e-01 +7.40157068e-02 -3.78753035e-03 -3.27378899e-01 -1.27862275e-01 -8.86758696e-03 +1.27819002e-01 -4.68321629e-02 -7.18812048e-02 -4.36771698e-02 +6.50596619e-02 -6.31564036e-02 -1.63112089e-01 +1.42508000e-01 +3.72441225e-02 +3.14157866e-02 +1.73826471e-01 -1.23476535e-02 +2.55814582e-01 +7.16158450e-02 +1.13690130e-01 -1.60177201e-01 -2.39252537e-01 -3.22296843e-02 +2.31794670e-01 +2.24671140e-01 +3.32735814e-02 -9.42111686e-02 +5.28233275e-02 +9.12638158e-02 -1.90052882e-01 +6.52504414e-02 -1.26510322e-01 +6.85135019e-05 -8.72751791e-03 +2.16011152e-01 -1.68870434e-01 +9.30184219e-03 +2.43220804e-03 -1.48760915e-01 -1.34995908e-01 +1.38332471e-01 +1.00966744e-01 -3.05411648e-02 +2.99954303e-02 -1.25847116e-01 -7.24349469e-02 +1.52836084e-01 +3.25756930e-02 -2.71144629e-01 +1.22697376e-01 +9.25644860e-02 -2.75641561e-01 +5.83820343e-01 +2.11053178e-01 +6.32434785e-01 +7.68477023e-02 -5.03694154e-02 +6.07397966e-02 -8.61424729e-02 +2.38341615e-01 -2.82059371e-01 +5.32790795e-02 +2.14761093e-01 -1.13677613e-01 +7.71799386e-02 +1.19133122e-01 -2.06931233e-01 -1.73027962e-02 +1.08816855e-01 +1.21003106e-01 +2.24050924e-01 +5.73023967e-02 -2.42814466e-01 +1.09434694e-01 +1.78437501e-01 -1.41406298e-01 -1.76545277e-01 -7.02727260e-03 +2.90216543e-02 +2.44325474e-01 -8.19583517e-03 +8.89278576e-02 +3.03416941e-02 -3.26393247e-02 +8.47378522e-02 +6.41926751e-02 +1.03779957e-01 -1.11792482e-01 +2.71458831e-02 +1.75628915e-01 +1.98637635e-01 -1.31881788e-01 +6.48608357e-02 +4.48271893e-02 -6.39385283e-02 +7.62255564e-02 -1.37809232e-01 -1.03601692e-02 +3.21870074e-02 +2.58212406e-02 +1.93465009e-01 -5.67178540e-02 -1.14080615e-01 -3.49020749e-01 +8.08583200e-02 -1.21483855e-01 +4.31699539e-03 +6.27520029e-03 -2.84206510e-01 -2.58323140e-02 +8.94721523e-02 -6.02504723e-02 -1.39941812e-01 +1.60343274e-01 -6.43851757e-02 +2.04826504e-01 -8.88724700e-02 +1.17161363e-01 -1.23394094e-02 +4.64298725e-02 +1.83683599e-03 -7.57838935e-02 +5.97426668e-02 -5.00239618e-03 +1.32134855e-01 -2.25959439e-02 +6.31701574e-02 +5.75488321e-02 -1.11539640e-01 -1.15166344e-01 +1.92884132e-01 +7.60895908e-02 -1.11063570e-01 -5.03678620e-02 +5.38565801e-04 -1.41532481e-01 +5.42327426e-02 -1.44749075e-01 -6.75412491e-02 +6.32472560e-02 +5.35031222e-02 -6.78238496e-02 +7.62953237e-02 -1.06809288e-02 +1.13347858e-01 -1.92852035e-01 -3.91814381e-01 -2.97551125e-01 +1.29207984e-01 +9.66786444e-02 +4.40910198e-02 -1.45475239e-01 +2.32669059e-02 +2.65235361e-02 +2.72165332e-02 -5.70706353e-02 +1.84909031e-01 +2.32752576e-03 -1.08878734e-03 +9.29049999e-02 -2.03636974e-01 -3.74246202e-02 -2.11084280e-02 -1.08705409e-01 -3.14834751e-02 +3.54336202e-02 -1.47432357e-01 -6.73203021e-02 +8.72012749e-02 +1.32227996e-02 +7.93768466e-02 -9.29406211e-02 -4.44781370e-02 -1.40467674e-01 -4.26543653e-02 +1.07881464e-01 -2.52836850e-02 -8.22785124e-03 -4.59170938e-01 +9.76088550e-03 -5.59759438e-01 -1.23725817e-01 -5.88057756e-01 -1.07839510e-01 +2.03106910e-01 +6.16667382e-02 -3.81210260e-02 -1.16887614e-02 +2.36017227e-01 +2.48514697e-01 -4.29928228e-02 +4.35329191e-02 -1.67374060e-01 -3.11283171e-02 +1.24697082e-01 +9.69794840e-02 +3.39110643e-01 -9.40057337e-02 -7.71117210e-02 -1.63885623e-01 -4.77456823e-02 +6.90501258e-02 -1.27846003e-01 -1.29105791e-01 +4.87692446e-01 +4.33483394e-03 -7.86519274e-02 +2.71920443e-01 -8.66524279e-02 -4.62163799e-03 -1.77013129e-01 +9.80332941e-02 +4.81336787e-02 -9.45301577e-02 -1.33499786e-01 -9.93435606e-02 -6.53030276e-02 +9.79406014e-02 -1.34089410e-01 +5.29391132e-02 -1.81500185e-02 +1.14952125e-01 -4.97235805e-02 +9.28354859e-02 +1.87513337e-01 -6.96529225e-02 +1.52347982e-01 -2.61742920e-01 -1.32211521e-01 +2.90692858e-02 +1.29552767e-01 +7.85306969e-04 -1.61238424e-02 +5.35488576e-02 +9.68199298e-02 +1.85524434e-01 +2.29614630e-01 -6.23436049e-02 +3.18345316e-02 +9.84051600e-02 -1.04922457e-02 +3.25507596e-02 +7.48070180e-02 -1.53146341e-01 -2.22593956e-02 +1.36135146e-01 +3.01386956e-02 +3.92441191e-02 -2.04825290e-02 -1.34450123e-01 +4.27092612e-02 -7.14264391e-03 +2.00549558e-01 -4.09440920e-02 +1.27885029e-01 -5.48359975e-02 -1.52979754e-02 -2.25396022e-01 +1.87075779e-01 +4.18125466e-03 +1.14611305e-01 -9.73827392e-02 +6.33635968e-02 +9.28485543e-02 +8.94735232e-02 -1.03671990e-01 -2.40341455e-01 +1.47539049e-01 +2.87460089e-02 +3.28738503e-02 +9.66514871e-02 -2.95478404e-01 +2.32268106e-02 -1.69277996e-01 +1.62038878e-01 -2.76222602e-02 +7.44697675e-02 +1.10406168e-01 -1.35905975e-02 +5.85164428e-02 -2.84157872e-01 -2.16417275e-02 -1.26406088e-01 +2.46010143e-02 -3.39007765e-01 -2.16851279e-01 +4.28075828e-02 +3.31136137e-01 -1.92099676e-01 -2.30611861e-01 -5.23452103e-01 -1.03487022e-01 -6.76892325e-02 -2.23802909e-01 -8.68200287e-02 -1.40014037e-01 -3.48302037e-01 -9.72766504e-02 +2.63760164e-02 +2.75966041e-02 -1.97146103e-01 -3.38443927e-02 -1.41174078e-01 +8.25416148e-02 -1.87058091e-01 +6.03849888e-02 -6.18562922e-02 +1.90127447e-01 -4.55721915e-01 -1.33566156e-01 -5.39373815e-01 +2.38844994e-02 +3.20087045e-01 -9.37645510e-02 -2.00026687e-02 -1.36260107e-01 +3.99976462e-01 +1.98051333e-01 -1.36655495e-02 -1.03375182e-01 +1.63150907e-01 -9.22074094e-02 +1.41577378e-01 +1.07030757e-01 -5.64548112e-02 +2.75124621e-04 +7.80571401e-02 +1.67376325e-02 -2.45564446e-01 +1.18209526e-01 +8.66434500e-02 -3.16538423e-01 -2.33737916e-01 +1.29068583e-01 -1.19546250e-01 +1.45609781e-01 +7.61117227e-03 +3.81054133e-02 +1.98339522e-01 -7.60920197e-02 -1.12415679e-01 +2.10339427e-02 -3.86791527e-02 -3.67963798e-02 +7.40076154e-02 -2.04522647e-02 -7.89209008e-02 -3.77359129e-02 -7.87530690e-02 +1.69306919e-01 -7.76113421e-02 +1.03778206e-01 -7.55582377e-02 -3.22941691e-02 +4.78295721e-02 -2.07977612e-02 +4.87918109e-02 -2.66186497e-03 -1.65704325e-01 +6.53429255e-02 +2.74967343e-01 -1.74789969e-02 +3.86413187e-02 -1.32395804e-01 +6.17101751e-02 -3.79270874e-03 +2.55391091e-01 +7.10342899e-02 -6.45399392e-02 +4.95061986e-02 +5.88427298e-02 +1.62177742e-01 +1.73066765e-01 +2.50291284e-02 +1.19507294e-02 -4.96863201e-02 +1.58024654e-01 +1.80644661e-01 +1.52084613e-02 -4.07222379e-03 -7.61064664e-02 -5.69582134e-02 +7.56517202e-02 -3.12612217e-04 -1.49187773e-01 +2.04659104e-01 +1.21630475e-01 -1.41998366e-01 -1.39392570e-01 +7.79652372e-02 -1.38504878e-01 +8.72934121e-04 +3.39533053e-02 -9.77738574e-02 +1.63423922e-02 +2.52023395e-02 -1.24962546e-01 +2.42066100e-01 -5.65241911e-02 -2.25659713e-01 +7.74429590e-02 -1.25933057e-02 +3.47740352e-02 -3.05404872e-01 +1.03145063e-01 -7.90342316e-03 +2.52726357e-02 -1.23607434e-01 -1.26551211e-01 -8.91259089e-02 -1.13704272e-01 -2.97495276e-01 +3.01938564e-01 +2.10575983e-02 +3.04643158e-02 +3.26394141e-01 +3.29229921e-01 +1.10288031e-01 -5.98220080e-02 -1.96744099e-01 -1.09382458e-01 -1.47886109e-02 -8.92117471e-02 -1.11466564e-01 -3.08585823e-01 +3.86526063e-02 -2.12310567e-01 +9.29458216e-02 -3.49757597e-02 +8.36908594e-02 +7.02177733e-02 -2.10244626e-01 -2.51944631e-01 -1.62018105e-01 -1.50474817e-01 +2.90106565e-01 -2.28407755e-01 +4.84045267e-01 -2.53523767e-01 -1.72948480e-01 -4.74344462e-01 -3.46523412e-02 -4.09693182e-01 -1.41312435e-01 +3.58677320e-02 -5.35326684e-03 -2.15454966e-01 +9.40713435e-02 -3.72110344e-02 +9.42599215e-03 +1.25918239e-01 +3.75764817e-02 -4.70094174e-01 +1.23784384e-02 -4.49176341e-01 +1.23146474e-02 +2.04267025e-01 -2.62425188e-02 -4.57821898e-02 -4.61798042e-01 -1.74886480e-01 -5.19704074e-02 +1.26601858e-02 -1.02369569e-01 +6.28300235e-02 +1.89738929e-01 -1.03085384e-01 +5.67228794e-01 +7.58714676e-02 +8.64334777e-02 -2.13097110e-02 +1.33402660e-01 -3.40448394e-02 -7.96498805e-02 +1.22457795e-01 -2.92107373e-01 +1.70792803e-01 -2.26522014e-01 -1.12381734e-01 -2.90899724e-01 -9.51575674e-03 +1.63313180e-01 +5.81993982e-02 +3.70735079e-01 -1.43862590e-01 +9.41186324e-02 +4.22122981e-03 -7.45749008e-03 +4.54358101e-01 -7.51179010e-02 +1.60464831e-02 -8.10416639e-02 -2.93750823e-01 +3.12559586e-03 -8.32642149e-03 +2.94633120e-01 +3.80163901e-02 +8.23648944e-02 +8.23835358e-02 +1.82987273e-01 +5.71532436e-02 -9.14251432e-02 +2.18772605e-01 +1.92707390e-01 +2.22669199e-01 -1.45008266e-01 +9.99853835e-02 -1.74334317e-01 +1.85498744e-01 -1.19482093e-01 +7.92689323e-02 +2.14770854e-01 +1.03194341e-01 +6.85863122e-02 +4.88640845e-01 +1.60358042e-01 -4.04627696e-02 +4.90292795e-02 +8.72472301e-02 +2.43952066e-01 +3.17421943e-01 +3.87601070e-02 +9.13669840e-02 +1.02360800e-01 +2.38042846e-01 +2.06062242e-01 -1.75877407e-01 -1.39229387e-01 +8.80916491e-02 -1.89815015e-01 +7.08885863e-03 -2.71712733e-03 -5.15280552e-02 -3.71943526e-02 +1.20435180e-02 -2.66230553e-01 -3.30053657e-01 +5.90223782e-02 +2.63414718e-02 -1.35169923e-01 -2.12751463e-01 +1.42878398e-01 +2.65258551e-02 +2.29822963e-01 -6.37945486e-03 +2.39322990e-01 -2.61435378e-02 -1.39750894e-02 +1.07476301e-01 +1.08823165e-01 +2.07958981e-01 -1.12491898e-01 -1.46533117e-01 -2.54677385e-01 +1.10548876e-01 +1.25916868e-01 +1.57749765e-02 +4.60535102e-02 -1.92787666e-02 -1.32214397e-01 +7.07825646e-02 +2.06984710e-02 -2.97431350e-02 +4.84195471e-01 -3.94898474e-01 +1.97386164e-02 -5.06014228e-01 +2.00618625e-01 -1.43859670e-01 +3.75991136e-01 -8.60447623e-03 +1.27895176e-01 +1.78194419e-01 +3.37389529e-01 +1.03957523e-02 +2.12229893e-01 +9.15199891e-02 +4.68119606e-02 +1.96584046e-01 +2.30994627e-01 -3.98421764e-01 +2.24270955e-01 -2.30481863e-01 +9.07155052e-02 +4.39756602e-01 +3.19537878e-01 +2.06028059e-01 +9.26426649e-02 +3.71424034e-02 +2.40737423e-01 +5.50531000e-02 -2.55235374e-01 +7.03931600e-03 +1.51005059e-01 +8.20594132e-02 +3.17787528e-02 +2.00299799e-01 +6.75057396e-02 +8.05829093e-02 +8.35883059e-03 -5.88888898e-02 +1.12471797e-01 -3.23116258e-02 -1.14576027e-01 +2.50712007e-01 -2.15026498e-01 -1.47613838e-01 -1.85746282e-01 -8.66697636e-03 +1.76177025e-01 +1.28723279e-01 +1.18979789e-01 -8.48364234e-02 -1.20067731e-01 +5.66551313e-02 -1.95556834e-01 -3.63757201e-02 -1.06630422e-01 +9.24390554e-02 -1.56055316e-01 -1.74984723e-01 +2.85577148e-01 +1.14965402e-02 +5.36228344e-02 -9.46062505e-02 +8.25171918e-02 -1.29604116e-01 +1.13680445e-01 +1.35043412e-01 -4.03264984e-02 +1.69168293e-01 -3.55093628e-02 -6.90735728e-02 +3.68779562e-02 +5.58937527e-02 -4.40853611e-02 -1.18339084e-01 +2.84827258e-02 +1.58472836e-01 +5.06202050e-04 +2.27134284e-02 +1.85636580e-01 -3.28781432e-04 -7.33339489e-02 -6.38536066e-02 +2.06678249e-02 -8.81453976e-02 -4.62368280e-02 +1.49600329e-02 -1.37853161e-01 +1.52235150e-01 +3.81107181e-02 +4.52191383e-02 +1.39955893e-01 +5.36422096e-02 -6.95743179e-03 -9.32643190e-02 +2.32499968e-02 -5.10917939e-02 -6.53488860e-02 +1.72228828e-01 +8.78583491e-02 -8.51508901e-02 -1.47675812e-01 +4.21101935e-02 -7.52208680e-02 +8.80783722e-02 +1.21486709e-01 +2.42214993e-01 +1.63059935e-01 +1.32919401e-01 +4.64977056e-01 -1.35591060e-01 +2.01271310e-01 +4.40061390e-02 -1.39796093e-01 -2.19293162e-02 +6.25136867e-02 -4.80727479e-02 +2.66262919e-01 -7.79877380e-02 +2.54236132e-01 -1.18775748e-01 +8.93355161e-02 -1.15782216e-01 -4.47865464e-02 +9.97969583e-02 -3.39987814e-01 +3.36758159e-02 -1.24433056e-01 -1.93253204e-01 +4.07577418e-02 +2.76266873e-01 -1.04006335e-01 +6.36807010e-02 -2.23029286e-01 -2.92483211e-01 -1.10966757e-01 -1.46801695e-01 -1.00886025e-01 -2.86975175e-01 -1.73843384e-01 +3.56702413e-03 -2.56263733e-01 +3.69571918e-03 +4.02121320e-02 +6.75478354e-02 -5.01138065e-03 -3.83088499e-01 -1.41819298e-01 -2.32252896e-01 +1.11377463e-02 +2.33699784e-01 -3.62196825e-02 -2.38212738e-02 -1.91333905e-01 -2.18357384e-01 -4.95051071e-02 +9.65732411e-02 -2.79471844e-01 +1.33634275e-02 -1.84717574e-05 -5.87209873e-02 +1.99779406e-01 -3.10059078e-03 -8.98957700e-02 -5.53143546e-02 +9.38054025e-02 -3.97590501e-03 -3.66604850e-02 +1.29134044e-01 -3.24314564e-01 +1.42761366e-02 -1.70252621e-01 +1.50073143e-02 -1.94703430e-01 -1.68824196e-01 +2.42607631e-02 +7.82469437e-02 +3.33540216e-02 -1.94471315e-01 +3.01390458e-02 +6.88991919e-02 +1.49582133e-01 +2.59476185e-01 +1.17235743e-02 -4.17625457e-02 +1.34403691e-01 -3.30500573e-01 +4.26527597e-02 +1.88044496e-02 +1.22163482e-01 +4.33399837e-04 +2.13999256e-01 +5.31669855e-02 +5.35804257e-02 -1.55635606e-02 -3.09067853e-02 +1.00701243e-01 +6.73997477e-02 +9.46292579e-02 +7.42004290e-02 +2.85433888e-01 -1.26314592e-02 +6.18371554e-02 -3.65910605e-02 +1.43492863e-01 +2.87316650e-01 +2.61534229e-02 +1.99517041e-01 +2.80499578e-01 +1.89925566e-01 +6.21203147e-02 +7.12653697e-02 +1.24606252e-01 +1.61458284e-01 +3.04020286e-01 +1.70858845e-01 +1.52369617e-02 +2.35189363e-01 +9.11639035e-02 +1.85571685e-02 -6.31450787e-02 +1.06974408e-01 +1.03914894e-01 -1.00265183e-01 -5.26826121e-02 -2.15801030e-01 +5.49543127e-02 -1.85431968e-02 +7.41153359e-02 -7.93371052e-02 -2.00077340e-01 +1.13743678e-01 -3.48375477e-02 +1.10565573e-01 +5.09685429e-04 +1.10853195e-01 -1.60402898e-02 +8.41042697e-02 +5.83407618e-02 +1.08281150e-01 -1.10890128e-01 -2.53543183e-02 -2.53261216e-02 -8.06736946e-02 +1.15500875e-01 +4.21318598e-02 -2.70285215e-02 -9.77485850e-02 +1.00158960e-01 +1.57547355e-01 +5.34895249e-03 -9.82588977e-02 -1.34433374e-01 +3.76073122e-01 +3.26707065e-01 +2.80728564e-02 -4.44807820e-02 +2.52735108e-01 -5.91230504e-02 -2.82356441e-01 -3.13533008e-01 +2.03623354e-01 +1.90248981e-01 -4.61341813e-02 +1.82247221e-01 +1.50638083e-02 +3.30259681e-01 +4.41127308e-02 -8.32643826e-03 +1.85601026e-01 +3.87516692e-02 +1.09631367e-01 +3.72874647e-01 +4.06328201e-01 +3.55691522e-01 +1.93489734e-02 +2.03125682e-02 +1.51421696e-01 +6.45380855e-01 +9.58480015e-02 -8.75736102e-02 +2.27426201e-01 +2.78914124e-01 -1.34441972e-01 +1.08188152e-01 -1.62323028e-01 +3.04877963e-02 -7.31905401e-02 -1.68726146e-01 -1.76940963e-01 +7.32306689e-02 +3.87412356e-03 +1.57120138e-01 +8.49846750e-02 -6.82868510e-02 +4.22844030e-02 -5.20290434e-02 +2.37733111e-01 +7.94188976e-02 -1.28868133e-01 -2.06456736e-01 -1.17908372e-02 +7.71456808e-02 +1.21509723e-01 +1.04778975e-01 +6.49962798e-02 +1.16344236e-01 -1.39242979e-02 -1.15575500e-01 +3.45352471e-01 -2.53647387e-01 +8.40230938e-03 -5.26891798e-02 -6.62416667e-02 -4.70330417e-02 +1.81401595e-01 -1.14696503e-01 -1.24563709e-01 -6.24672808e-02 -1.18836537e-01 +1.91618055e-02 -1.11708650e-03 +6.27168939e-02 -2.53919177e-02 -8.09645280e-02 -5.86523600e-02 -1.31812841e-01 +9.45625901e-02 -1.26596570e-01 +1.46867916e-01 +9.31926146e-02 -1.32823244e-01 +1.04854032e-01 +1.33260533e-01 +6.34809351e-03 +1.46591440e-01 -1.67403460e-01 -8.89458805e-02 -6.27011880e-02 +3.59808770e-03 -1.43203691e-01 +2.85556875e-02 +1.56275511e-01 -2.34183699e-01 +2.95080151e-02 -6.23140968e-02 -1.25423083e-02 -8.52960423e-02 -2.87790358e-01 -3.27215284e-01 +8.31081271e-02 +4.23190892e-02 -7.04171062e-02 -3.51474881e-01 +2.09144671e-02 +6.14276864e-02 +1.17053881e-01 +3.48899886e-02 -8.04083887e-03 -3.01808417e-02 -1.30545422e-01 +2.81138629e-01 +3.04742306e-01 -2.69169509e-01 +7.43683428e-02 +2.40702793e-01 -7.78500631e-04 -3.04720458e-02 +1.86086640e-01 -3.56448025e-01 -9.69277322e-02 +1.70255348e-01 +8.14550966e-02 +2.23811015e-01 -1.71171039e-01 +1.13167681e-01 -1.09513007e-01 -9.84370857e-02 -1.70166403e-01 -1.13765128e-01 +1.74740374e-01 -5.65423630e-02 +5.65044731e-02 -1.42414853e-01 -2.04119503e-01 -1.70925066e-01 -2.42762521e-01 +1.91789493e-02 -2.72831023e-01 -2.05747679e-01 -1.42562822e-01 -3.49587113e-01 -3.80966991e-01 -7.20987022e-02 -1.08431220e-01 -2.14424074e-01 -5.58742464e-01 -3.09829324e-01 -1.70875981e-01 -1.59992591e-01 +1.43662795e-01 -1.28132969e-01 -6.45106435e-02 -1.28416702e-01 -2.59830952e-01 -8.95489007e-02 +1.55263036e-01 +7.33375847e-02 -1.57943532e-01 -3.08645993e-01 -2.39806995e-01 -5.54077365e-02 -8.10166597e-02 +1.55320093e-01 -1.57087877e-01 +1.02346860e-01 -2.11668044e-01 +2.51555145e-01 -9.28097963e-02 -6.16608597e-02 -9.94718298e-02 -1.72934711e-01 +1.71417534e-01 +1.07798800e-01 -2.94416081e-02 +1.05750844e-01 +1.53692484e-01 +3.29899080e-02 -5.23148440e-02 -3.53967845e-01 +7.26620108e-02 -1.04570836e-01 +7.12984860e-01 -1.44925922e-01 -8.89720097e-02 +1.82456911e-01 -3.60524505e-02 +3.02422315e-01 +1.67870387e-01 +4.97977473e-02 +1.61817484e-02 +3.91520299e-02 -9.63015109e-02 -1.28749192e-01 -4.83411215e-02 -2.39422292e-01 -1.13222830e-01 -6.04695790e-02 -5.63003346e-02 +1.35956034e-01 -5.88348880e-02 +4.71230457e-03 -3.67667787e-02 +1.73711367e-02 +2.07709894e-02 -6.46183863e-02 -2.35917106e-01 -4.53422181e-02 +4.59627584e-02 -9.26498249e-02 -4.30760272e-02 +9.40253735e-02 -1.80530310e-01 +1.02868535e-01 +9.31921974e-02 -2.51954705e-01 -1.39117748e-01 +9.66316555e-04 -2.36788064e-01 -8.66372287e-02 -1.65660739e-01 -9.40824896e-02 -1.17506266e-01 -1.82869747e-01 +4.33917274e-04 +1.19643234e-01 -6.55594021e-02 -1.88498616e-01 +4.10967208e-02 +2.25189283e-01 +6.14774674e-02 -1.85973629e-01 +1.53072858e-02 -7.14232773e-02 -3.33707631e-02 +9.05993283e-02 -2.36047227e-02 -1.53480768e-01 -2.42246762e-01 -7.52631053e-02 +5.99308088e-02 +2.04108953e-02 +1.18909426e-01 +4.73227978e-01 +2.80426621e-01 +7.93964863e-02 +1.09913155e-01 -2.29022413e-01 -2.57313401e-02 +8.10293108e-02 +2.74815466e-02 +4.96829301e-02 +2.56822020e-01 +8.58819410e-02 -4.40720499e-01 -1.27066433e-01 -1.48118109e-01 +1.77904949e-01 +1.29445627e-01 -1.34330079e-01 +1.96693778e-01 -6.62324429e-02 -2.83188283e-01 +1.41547397e-01 -2.59193838e-01 -6.92551509e-02 -1.14641882e-01 -1.23438649e-01 -1.46233276e-01 -4.35303599e-01 -2.25583538e-01 -1.16389222e-01 -2.22093076e-01 +7.62359500e-02 -6.06473386e-01 -6.93756193e-02 -1.59029201e-01 -1.85930446e-01 -1.29103929e-01 -5.73046431e-02 -3.42676461e-01 -2.45424174e-02 -3.49698365e-01 -1.20122850e-01 +7.93072507e-02 -2.89351761e-01 -3.03081363e-01 -3.93213511e-01 -4.15396422e-01 -3.76598328e-01 +1.06391853e-04 -1.14111891e-02 -1.47735238e-01 -1.10158846e-01 +1.71888955e-02 -1.86958015e-02 +1.50883244e-02 -8.66791904e-02 -1.56079665e-01 +2.78777927e-02 +1.21763870e-02 -2.26129368e-01 +1.68542534e-01 +2.55937073e-02 +1.62810981e-01 -1.58619568e-01 +7.04656243e-02 -1.69800930e-02 +1.71168193e-01 -1.37674272e-01 +8.50447565e-02 +5.78692816e-02 -2.52239019e-01 +1.09456949e-01 -9.89200547e-02 +1.96965277e-01 +4.46495116e-01 +1.23491473e-01 +2.15830103e-01 +1.42094359e-01 -1.46247800e-02 +3.47022898e-02 +1.14205316e-01 +3.29797328e-01 +2.01857686e-01 -5.34512140e-02 +2.77497768e-01 +1.01059243e-01 -6.08022325e-02 +1.93240881e-01 +2.45975032e-01 +2.19598666e-01 +2.59593502e-02 +1.64642155e-01 +2.26071671e-01 -3.47284526e-02 +4.86232117e-02 +1.18076481e-01 +1.54428586e-01 +3.37901682e-01 +2.87464201e-01 +2.47122988e-01 +3.38821292e-01 +1.89551592e-01 +1.32824302e-01 +2.03508392e-01 +1.75339043e-01 +2.35672474e-01 +2.70897835e-01 +6.19968027e-02 +2.06604064e-01 +1.14628986e-01 -2.09532931e-01 +1.78362310e-01 -7.21498160e-03 -1.03534311e-01 -3.05021349e-02 -3.00085008e-01 -1.14378393e-01 +2.09382288e-02 +9.06363502e-02 -4.28733639e-02 -4.21905629e-02 -1.51091293e-01 -2.41131648e-01 +1.30712129e-02 -1.77377537e-02 -3.40768807e-02 +2.92588770e-02 +2.33281706e-03 +1.33286834e-01 -1.58792008e-02 -8.59720409e-02 -7.73405004e-03 -1.91666216e-01 +7.08056754e-03 -1.89702902e-02 -2.12503299e-02 +1.45224452e-01 -2.35716358e-01 -3.20389748e-01 -3.86526674e-01 -7.47719333e-02 +1.81731716e-01 +9.54214334e-02 +1.21757671e-01 -1.74849346e-01 +8.66719261e-02 +3.73355001e-02 +1.67055920e-01 +1.25521675e-01 +3.84975523e-01 -5.14672883e-02 +1.93966016e-01 -2.36307949e-01 +2.59700298e-01 -2.71508664e-01 +4.51076299e-01 -1.12074517e-01 +7.50617087e-02 +1.43608704e-01 +3.19224447e-01 +4.58405633e-03 +9.29878205e-02 +3.67975622e-01 +2.02102795e-01 +2.71735966e-01 -6.70628622e-02 -9.15653333e-02 +3.56937498e-01 +1.63011968e-01 +3.98754120e-01 +3.54509205e-01 +2.24452555e-01 +2.39050522e-01 -4.57192622e-02 -1.26867086e-01 +3.53782356e-01 +3.28605652e-01 -1.03292033e-01 +8.78199264e-02 +3.10950667e-01 +4.09127474e-02 -1.61937833e-01 +2.10124955e-01 +4.56375852e-02 +2.29975507e-01 +2.93056846e-01 +1.34800881e-01 +2.63103023e-02 +2.51997970e-02 +1.96423735e-02 +1.27049489e-02 -1.78727284e-01 -1.33053020e-01 -3.00200969e-01 -1.02577671e-01 +1.74127430e-01 +9.59017351e-02 -3.89403030e-02 +1.15360610e-01 -2.62287557e-01 +1.61900356e-01 +2.90059477e-01 -7.92803466e-02 -8.26255083e-02 -1.26047418e-01 -1.39823034e-01 +4.60438617e-02 +2.87416697e-01 -7.52205849e-02 +2.27755383e-01 +2.01896876e-01 +1.68462276e-01 +1.74613267e-01 +1.19134992e-01 +8.56665000e-02 +5.48138060e-02 +3.76795940e-02 +1.48813397e-01 +4.38982248e-02 +2.11610436e-01 +3.13946337e-01 -8.18919241e-02 +6.10501431e-02 -4.09995429e-02 +9.77743417e-02 +1.01911664e-01 +1.16256602e-01 +2.34727830e-01 +1.37724161e-01 +3.61649841e-02 +1.20443910e-01 +1.51623935e-01 +3.33362758e-01 +2.87581980e-01 +1.81672320e-01 +1.39061347e-01 +2.68086106e-01 +8.35033581e-02 -1.05891004e-01 +6.14910796e-02 -5.85784093e-02 +5.92361577e-02 +1.03891240e-02 -1.84070304e-01 -1.65781695e-02 -8.65252763e-02 +8.90974626e-02 +1.04660675e-01 +1.80454478e-01 -1.03650764e-01 -1.43748268e-01 +7.08149970e-02 -5.96464612e-03 +2.12516367e-01 -2.39546165e-01 -5.40045202e-02 +6.15650862e-02 -8.36733729e-02 -3.66636485e-01 +9.35025290e-02 -1.14930131e-01 +2.92251185e-02 +1.05027199e-01 -1.69975623e-01 +2.69928724e-01 -8.39414895e-02 -1.86277851e-01 -1.31686628e-01 +2.12202862e-01 -1.16949249e-02 -6.48941705e-03 -1.46832829e-02 -1.60202712e-01 -3.66150588e-02 -1.84922770e-01 +2.38056511e-01 +4.36708868e-01 +1.13614760e-01 -9.73131582e-02 +8.40155333e-02 -5.28516509e-02 +3.40427279e-01 -8.76611546e-02 +1.32160619e-01 +1.86672941e-01 +1.58517584e-01 +2.13384584e-01 +2.05746531e-01 +3.30609709e-01 +9.06113833e-02 +3.62826914e-01 +1.05141401e-01 +3.57999951e-02 +4.08230782e-01 -2.70723403e-01 +2.73587048e-01 +3.63424450e-01 +3.29395503e-01 +4.50613648e-01 +8.97205770e-02 +1.15785070e-01 +2.09664628e-01 +1.02200545e-01 +2.54448146e-01 +2.24896401e-01 -2.33482838e-01 +1.60489112e-01 +2.16868654e-01 -6.57265559e-02 -5.91248423e-02 +2.67069545e-02 +1.68102890e-01 +1.44245371e-01 +1.14799693e-01 -4.30213809e-02 +1.52682038e-02 -7.50369579e-02 +1.71699628e-01 +1.12794749e-01 -1.62666924e-02 -1.97097987e-01 -1.86332196e-01 -2.09755942e-01 +2.50431448e-02 +1.14243321e-01 +4.33745757e-02 +5.77759035e-02 -3.01347792e-01 +1.24935552e-01 +1.96323261e-01 +1.97954029e-02 -2.18301594e-01 -3.96615893e-01 -1.23680651e-01 -1.74496010e-01 -4.35649306e-02 +1.37843322e-02 +6.42432719e-02 +3.30717266e-02 +4.98281159e-02 -7.81375449e-04 +8.70964229e-02 -1.54343352e-01 +1.47418484e-01 -6.07374720e-02 +4.97399233e-02 +3.39470878e-02 +3.71100791e-02 -1.05068035e-01 +8.49563330e-02 +3.18756588e-02 +8.62289816e-02 -8.37785751e-03 +2.76284605e-01 +6.78882897e-02 -1.27882510e-01 +2.23398611e-01 +2.24346668e-01 -7.48195779e-03 +7.07655698e-02 +8.43128189e-03 +9.83541012e-02 +1.92373022e-01 +7.40477294e-02 -2.77580053e-01 +1.63004786e-01 +5.27397310e-03 +2.50899475e-02 -1.71249881e-02 -3.68370973e-02 +1.35440141e-01 -8.22872743e-02 -2.79866546e-01 -1.49765104e-01 +4.75885160e-02 +1.68926135e-01 +1.06780343e-01 -1.61709636e-01 +3.21340680e-01 -4.32971753e-02 +1.40507892e-01 +1.32505313e-01 -1.83606997e-01 -3.55476439e-02 +1.17046438e-01 -8.13710988e-02 +2.35474613e-02 +1.50001734e-01 -2.07756296e-01 -1.06345393e-01 -1.00708202e-01 +1.36753038e-01 +4.74232100e-02 -1.18579037e-01 -1.02812216e-01 +1.57531947e-02 -8.89597684e-02 -8.47456530e-02 +1.27853096e-01 +2.96168122e-03 +1.16985828e-01 +1.92574739e-01 +8.47657770e-03 -6.35376349e-02 +1.97721437e-01 +4.14371118e-02 -4.79976892e-01 +3.63388993e-02 -4.69204694e-01 -1.69603795e-01 -2.70438135e-01 -1.07700147e-01 +1.25872672e-01 +6.12422377e-02 +9.33187008e-02 -3.52014393e-01 +3.47695500e-01 -2.01941971e-02 +5.66195920e-02 -1.07317701e-01 +2.35608846e-01 -1.66790739e-01 -3.17025892e-02 -1.13092475e-01 +9.17083584e-03 +3.82577279e-03 +2.91287601e-01 +2.31056046e-02 -4.90045436e-02 -1.92132816e-01 +3.39482188e-01 +1.09531239e-01 +5.26563302e-02 +2.55868852e-01 +1.15394980e-01 -3.38540852e-01 -1.57860562e-01 -4.23476472e-02 +6.54094219e-02 +6.45437166e-02 -1.11805737e-01 +9.62255448e-02 -1.28365561e-01 +1.87075034e-01 -1.11081034e-01 -2.43798774e-02 +5.68832420e-02 +1.97413325e-01 +3.52651477e-02 +7.82259833e-03 -1.91178545e-01 +1.29862264e-01 +7.96306692e-03 -4.48341161e-01 -7.30136558e-02 +2.42211521e-02 +5.11462577e-02 +3.61515403e-01 -5.66452779e-02 +1.66304484e-02 +1.04797669e-02 -6.12722263e-02 -3.22876051e-02 -1.00100011e-01 +6.99950904e-02 +1.35256629e-02 -5.18280566e-02 +1.38861060e-01 +3.78185213e-02 -3.08490127e-01 +3.20100598e-02 +1.49277160e-02 -1.69477537e-01 -1.28856659e-01 -4.49616089e-02 -1.39189795e-01 +2.38836091e-02 -7.50553934e-03 +8.33685398e-02 +2.95964684e-02 -1.19385347e-01 +1.50542244e-01 -6.64512962e-02 -1.13573886e-01 -1.11880399e-01 +9.01371762e-02 +3.23233679e-02 -3.78446057e-02 -1.03210464e-01 +2.32547577e-02 +1.59133658e-01 -1.17710158e-02 -5.92700802e-02 +7.55155981e-02 +1.47457615e-01 +8.69643763e-02 -3.05995531e-02 -3.66303883e-02 -7.93284401e-02 -1.00369766e-01 +1.94730118e-01 +2.02311069e-01 +1.38014317e-01 +9.83491987e-02 -3.00123598e-02 +7.91575387e-02 +3.21663618e-02 -6.35025576e-02 -1.13399535e-01 +1.85629323e-01 -2.80993748e-02 -5.26577532e-02 -2.61256425e-03 +3.11777711e-01 -5.14390059e-02 -1.82770923e-01 +5.52981533e-02 -8.62044245e-02 -1.18147917e-01 -1.96396068e-01 +1.45654798e-01 +1.68915674e-01 +1.54815629e-01 -8.78664330e-02 -1.79005027e-01 +9.11979228e-02 -9.01235044e-02 -1.59350336e-01 -1.22692645e-01 +2.37273797e-01 -4.62501496e-02 -2.36373954e-02 -2.57165104e-01 +1.28908396e-01 -2.00370759e-01 -2.30263859e-01 -4.80117500e-01 -6.34300858e-02 +3.20436120e-01 -1.15007229e-01 +2.14185357e-01 +4.03356589e-02 +1.66578069e-01 -4.48101982e-02 -4.23660427e-02 -4.76080179e-02 +1.78963114e-02 -1.70363905e-03 +2.63634831e-01 +2.49512270e-01 +3.89841735e-01 -2.49927655e-01 -7.72362947e-02 +4.06403430e-02 -2.53141105e-01 -9.04350355e-02 -1.65488377e-01 -2.72765011e-01 +1.46065295e-01 -3.22320275e-02 -9.58145782e-02 +4.06054333e-02 -9.58785117e-02 -4.45231572e-02 -2.14263588e-01 -3.00079733e-01 -1.59462132e-02 -1.49447516e-01 -2.05447599e-01 -1.56120345e-01 +1.52314499e-01 +1.65611252e-01 -3.76520663e-01 +3.21729667e-02 -2.57027626e-01 -9.20792148e-02 -6.36911690e-02 -7.83052891e-02 -1.90458391e-02 -7.38927349e-02 +1.93969324e-01 -1.87196955e-01 -2.15013176e-01 +8.98986906e-02 -8.56693685e-02 +7.05011562e-02 -1.12433851e-01 +4.43397239e-02 +2.14116022e-01 -1.48157608e-02 +7.64781833e-02 -1.63059011e-02 +1.74858019e-01 -4.43540812e-02 +1.93819255e-02 -3.36576290e-02 +1.23927847e-01 +2.04275414e-01 +1.00897536e-01 -2.48890534e-01 +2.36570463e-01 -8.99549797e-02 +1.19836420e-01 +2.05965936e-01 +1.93689801e-02 +1.60958543e-01 -3.17775518e-01 +2.63130605e-01 +1.04979172e-01 -2.39529833e-01 +1.39480338e-01 -4.73742336e-02 -1.05173282e-01 -2.88429484e-02 +1.65825784e-02 +1.63952902e-01 +7.07334355e-02 +1.17634190e-02 -6.96429163e-02 +7.20293894e-02 +1.11184359e-01 -1.82021379e-01 +4.55944426e-02 +2.95008451e-01 +2.56870031e-01 -2.04342023e-01 -1.40965760e-01 +3.08451325e-01 -1.05950691e-01 -1.00820608e-01 +2.18200423e-02 -2.05124959e-01 -3.53527348e-03 -1.40034869e-01 -3.75728816e-01 -8.09293017e-02 -1.47888158e-02 -5.06358981e-01 -2.49863625e-01 -2.19540074e-01 -1.89656354e-02 -3.32185291e-02 +1.06748559e-01 +2.70473689e-01 +6.04135506e-02 -1.24121554e-01 +9.14364457e-02 +1.32065982e-01 -1.72270894e-01 -1.50948297e-02 -3.06722015e-01 +7.20425770e-02 -6.10738955e-02 -1.24598935e-01 -1.35877237e-01 +4.72537577e-02 -4.18437496e-02 -5.87313652e-01 -8.60654861e-02 +8.01375508e-02 +8.00857171e-02 -1.79976016e-01 +6.60464108e-01 +8.41646373e-01 +6.40157580e-01 +3.27255875e-02 +9.94737074e-02 +2.06434757e-01 -1.03643879e-01 +9.61000472e-02 -3.68720233e-01 +6.91971630e-02 +6.42478392e-02 -4.68779095e-02 -5.37068732e-02 -8.80432315e-03 -2.37905487e-01 +3.77961583e-02 -4.40706760e-02 +2.17937618e-01 -5.88406883e-02 +1.75450280e-01 +1.70751676e-01 -1.48293059e-02 +1.54036000e-01 -1.08279005e-01 -4.35840011e-01 -1.54115111e-01 +3.39892097e-02 -3.44905294e-02 -8.87379795e-03 +8.67140815e-02 +1.36371553e-01 +1.93155766e-01 +1.94867820e-01 -6.21982031e-02 +7.24237263e-02 -1.36135191e-01 -4.33578566e-02 +2.45927513e-01 +3.39705259e-01 +6.68181805e-03 +2.41013747e-02 -3.06429446e-01 -2.28348941e-01 +9.91407037e-02 -2.47347116e-01 +1.02825761e-01 +2.10121796e-02 -2.89222635e-02 +7.99469203e-02 -2.32090382e-03 -2.56298333e-01 -4.78066444e-01 +4.52843577e-01 -3.50929461e-02 -6.75132498e-02 -9.37838778e-02 -1.94945112e-01 +2.47556612e-01 +6.89034760e-02 +9.91854817e-02 +7.27044325e-03 +9.64543819e-02 +1.91101581e-01 +1.27094135e-01 -3.77051160e-02 +1.24231696e-01 -1.20518338e-02 +6.36181384e-02 +2.62084939e-02 +1.13847479e-01 +1.48341462e-01 -8.05880278e-02 +2.15775713e-01 -1.31224141e-01 +5.89195900e-02 +3.19181532e-01 +2.26710439e-01 -2.41775177e-02 +2.31557816e-01 +5.75493798e-02 +1.92471266e-01 +2.95996591e-02 +3.69120352e-02 +1.29381329e-01 +2.89431393e-01 -3.65875196e-03 +1.76383570e-01 +5.83032183e-02 -6.25792220e-02 +3.31091834e-03 -1.45554617e-01 +7.98400084e-04 +1.25404894e-01 -1.45995498e-01 -5.22475727e-02 -8.23237300e-02 +1.36203691e-01 +1.98813211e-02 +1.75586537e-01 -1.48833424e-01 +1.13471821e-01 +1.24405622e-01 -5.87742962e-02 -9.36571583e-02 -5.94987907e-02 +1.84674317e-03 +1.29070595e-01 -9.07967463e-02 -3.59332502e-01 +3.47585380e-02 +3.50909121e-02 +1.57318562e-01 +1.39382198e-01 +4.29676920e-02 +6.98091537e-02 +2.35905852e-02 +3.68956402e-02 -9.94950309e-02 +3.25034857e-01 +1.48657814e-01 +9.39120203e-02 -5.11261076e-02 -1.96707070e-01 +1.83488101e-01 +2.19478026e-01 +1.61727164e-02 +1.13840140e-01 +2.64507025e-01 -2.10233852e-01 -3.18822384e-01 -3.48700672e-01 +8.16618949e-02 -8.38729367e-02 +1.74936593e-01 +2.19925657e-01 +2.07129598e-01 +4.28032726e-01 +1.49437832e-02 -7.12877661e-02 +1.28459871e-01 +1.36756286e-01 +4.86311689e-02 +2.05631763e-01 -6.36321120e-03 +3.51089269e-01 +4.14828174e-02 -1.53478216e-02 +2.30741784e-01 +3.62713277e-01 +2.28407919e-01 +1.41824827e-01 +3.03003311e-01 +2.47788548e-01 +1.03034832e-01 +4.04851437e-02 -8.20608363e-02 +1.22484408e-01 -2.89235562e-02 +1.02863722e-02 -1.60226360e-01 +1.34825066e-01 -3.72334458e-02 -1.94987543e-02 +3.32727022e-02 -3.94150838e-02 -2.15592906e-01 -6.00090623e-02 +2.42730096e-01 +2.14435086e-01 -1.40877381e-01 -6.11680038e-02 -1.58782601e-01 -4.09239642e-02 -2.15496644e-02 +4.61015515e-02 -3.52667943e-02 +1.35898918e-01 -3.38717066e-02 +6.59639435e-03 +8.53546783e-02 -1.16456904e-01 -1.29638284e-01 -1.45703275e-02 -6.90045729e-02 +7.74042681e-02 +1.04651913e-01 -2.04403266e-01 +1.35224983e-02 +1.23822503e-01 +8.02184865e-02 +1.54618651e-01 -1.54800087e-01 -1.13258958e-01 +1.51719809e-01 -1.24849595e-01 +8.62922221e-02 -1.73356205e-01 +2.10329562e-01 +1.41337469e-01 -1.83584154e-01 +7.75583237e-02 -1.89452067e-01 +8.12185407e-02 +2.03692093e-01 -1.20598555e-01 -1.23766519e-01 +1.51907086e-01 +2.75222473e-02 +7.75146708e-02 -1.24852791e-01 -2.82541793e-02 +6.09407909e-02 +7.54421502e-02 +8.31448101e-03 -7.12598907e-03 -2.04209253e-04 -4.30595018e-02 +8.63222554e-02 -1.22024268e-01 -5.88886514e-02 +2.20454130e-02 -2.12615684e-01 +2.53259420e-01 -1.32914722e-01 +1.44520134e-01 +6.03548959e-02 +1.40545383e-01 -2.36973520e-02 -3.36477548e-01 +3.44699919e-02 -3.14693451e-01 +4.29570347e-01 -2.12140009e-01 -1.98586643e-01 +1.20739616e-01 -2.81618565e-01 -1.56699985e-01 +1.18747167e-01 -1.42910987e-01 -1.50936961e-01 -4.89846133e-02 -9.61329415e-02 -7.45930746e-02 -1.38820231e-01 -2.47033641e-01 +6.59480542e-02 -4.08182591e-02 +3.73743027e-02 -2.53404945e-01 +1.78323649e-02 +1.33368567e-01 -1.08210936e-01 +4.75770861e-01 +1.39297207e-03 +7.46983141e-02 -1.50961444e-01 -3.70037168e-01 -1.16813779e-01 -3.32451075e-01 -5.50311729e-02 -4.94639110e-03 -1.23107739e-01 -9.71107930e-02 +8.53397772e-02 -5.65543398e-02 -1.07118033e-01 -1.43450648e-01 -1.54186219e-01 +3.59469689e-02 -1.68646872e-02 +2.59063356e-02 +1.52197674e-01 +3.78931284e-01 -8.74236822e-02 +6.02809004e-02 -5.31685390e-02 -1.51892632e-01 -1.24656469e-01 +1.40365381e-02 -3.90317887e-02 +7.84234479e-02 +2.72483546e-02 -8.14744458e-02 +1.53186962e-01 +3.61777656e-02 +2.25535706e-01 +1.76157668e-01 +2.45326281e-01 -7.79482536e-03 -1.92107875e-02 +3.99538688e-02 -1.69603184e-01 +3.18123460e-01 +4.39561792e-02 -1.46506131e-01 +3.38950641e-02 -3.88053298e-01 +1.59587219e-01 -8.88742208e-02 -1.33135408e-01 -1.08904161e-01 -1.21424831e-01 +3.19216102e-01 +2.00791821e-01 +9.15965736e-02 -6.59806132e-02 -1.09921992e-01 +2.15381756e-01 +1.66992411e-01 -5.69454357e-02 -1.46588787e-01 -1.28856599e-01 -8.97330046e-02 -1.61292374e-01 +1.43546581e-01 +1.58443507e-02 +1.28851205e-01 -1.66840088e-02 -3.25424075e-02 +1.79047495e-01 -9.28648468e-03 +2.01734677e-01 +1.16859050e-03 +1.29292101e-01 +7.57982209e-02 -3.56648155e-02 +1.48942351e-01 +3.66564863e-03 +2.72451311e-01 -8.33139047e-02 +1.03971854e-01 +2.68334091e-01 +8.56198668e-02 +1.04043521e-01 +1.70805782e-01 +8.64069983e-02 +5.54985367e-03 +1.54478503e-02 +8.81251395e-02 +1.19550169e-01 +2.52417415e-01 +1.13275044e-01 +2.15917110e-01 +1.05685331e-01 -2.06237420e-01 +1.20410010e-01 -1.35158136e-01 -5.49994968e-02 -2.02351213e-02 -5.53573892e-02 +6.39776066e-02 +1.01252504e-01 +1.42170385e-01 +1.06610656e-01 -2.18679216e-02 -1.15099922e-01 -2.15216637e-01 +4.46796324e-03 -9.47573259e-02 -1.06368355e-01 +1.58394814e-01 +1.98135644e-01 +1.59057498e-01 -9.96150635e-03 -1.14004813e-01 +2.21989881e-02 -1.34394154e-01 -2.79775620e-01 +1.03220724e-01 +5.34858443e-02 +6.69671819e-02 -4.43421043e-02 +5.42528592e-02 -1.14007942e-01 +1.50936648e-01 +1.50413420e-02 +5.74090742e-02 +3.01681817e-01 -1.55990988e-01 +1.96850792e-01 +4.73274320e-01 +1.54156059e-01 -1.66971862e-01 +2.73450822e-01 -3.32042485e-01 -6.54066801e-01 -3.71990204e-01 +1.36798561e-01 -4.20800358e-01 +2.90414274e-01 -1.01372793e-01 +2.91139465e-02 +2.71531314e-01 +3.93612266e-01 -3.67301106e-01 +8.72097686e-02 +1.00873634e-01 +2.07898483e-01 +1.03224613e-01 -7.53336027e-02 -3.56708169e-02 +1.85644612e-01 +1.38548717e-01 +1.40831172e-01 +3.80669594e-01 +2.77158618e-01 +3.64572182e-02 +1.74828187e-01 +7.06263781e-02 +3.25433761e-01 +1.05141453e-01 -4.15426977e-02 -3.68907722e-03 +1.00080557e-01 +2.14352995e-01 -3.39588039e-02 +1.27453059e-01 +1.66717425e-01 -8.45766664e-02 +2.36393571e-01 +2.06270874e-01 -1.16725393e-01 +8.26989394e-03 +1.57860875e-01 +1.77218974e-01 +2.82817688e-02 -2.04027534e-01 -5.26413083e-01 +1.46325454e-01 +3.57772708e-02 +3.78711857e-02 -1.82130113e-01 +1.15772203e-01 -1.92135125e-01 +9.46065597e-03 +1.72322333e-01 -1.64304927e-01 -1.38804331e-01 -2.05346625e-02 -1.26111701e-01 -5.62402457e-02 +1.18582770e-01 -1.28869206e-01 -3.13719600e-01 -1.10016592e-01 -8.55289921e-02 -2.60463923e-01 -1.49069995e-01 +1.38293812e-02 -9.25327688e-02 -3.26099768e-02 -8.75540674e-02 -7.92991146e-02 -6.44423708e-05 -1.78995594e-01 +1.06633052e-01 -3.35912883e-01 +1.52610168e-01 -7.60586467e-03 -1.55051962e-01 -1.55558705e-01 -2.82438565e-03 -3.29120308e-01 -1.81368440e-01 -1.50765842e-02 -2.57035106e-01 -1.84167191e-01 -4.62270938e-02 -1.76471755e-01 -7.24487826e-02 -5.08463616e-03 -1.66586712e-01 +1.99600101e-01 -1.89748928e-01 -1.36555314e-01 +4.25758511e-02 +5.43291122e-02 +2.16790721e-01 +2.02811167e-01 -1.36867210e-01 -1.97285280e-01 +5.77245951e-02 -1.94579944e-01 +7.36727938e-02 +2.22225383e-01 -1.30533382e-01 -2.02124417e-02 +3.99593823e-03 +2.68185344e-02 -2.13434741e-01 +7.42600411e-02 -5.76606542e-02 +1.39442101e-01 +1.25024572e-01 +5.77905953e-01 -3.76184285e-02 -1.34613933e-02 +1.31423026e-01 -4.30986285e-02 +2.47345701e-01 -1.92909554e-01 +2.25799620e-01 +2.09808961e-01 -5.15170097e-02 -1.28607890e-02 -5.14523908e-02 +2.20227376e-01 -1.54398814e-01 +1.79222524e-01 -1.13195285e-01 -2.09360301e-01 -2.20495656e-01 +1.76493198e-01 -8.99349302e-02 +3.08191657e-01 -8.27248916e-02 +6.91743344e-02 -2.40397930e-01 -1.18054025e-01 -1.22734301e-01 -2.07411110e-01 -1.10984519e-01 -5.85901439e-01 -2.58799642e-01 -1.29338533e-01 -2.48297248e-02 -3.63437653e-01 -2.75449634e-01 -2.16381382e-02 -2.05625072e-01 -3.95665109e-01 -1.83715641e-01 -7.00543597e-02 -1.66458353e-01 -1.45645663e-01 -7.72165060e-02 -1.83593884e-01 -5.22771716e-01 -3.62275392e-02 -2.21408024e-01 -1.16695873e-01 -1.37952551e-01 -4.98009026e-02 +5.27864024e-02 -2.44823202e-01 -1.82506800e-01 -1.14790969e-01 -2.34785378e-01 +1.21526212e-01 +1.24667771e-01 +1.02110609e-01 -2.55185097e-01 -9.85103846e-02 -3.62906456e-01 +5.04868254e-02 -7.35085234e-02 +1.00975037e-01 -2.02346295e-01 +2.34069407e-01 -1.34563714e-01 -2.94759944e-02 +6.85281381e-02 -1.96010798e-01 -1.98509619e-01 +2.45038316e-01 +9.91087407e-02 +4.65416349e-03 +6.36571050e-02 -4.45327871e-02 -2.65150517e-01 -9.54384506e-02 -1.66027576e-01 -6.61832420e-03 +4.73649800e-02 -1.44545406e-01 -3.12226545e-02 -1.09470926e-01 -7.64837340e-02 -1.67429119e-01 +3.60421836e-03 +1.55453198e-02 -5.39224632e-02 -2.15024967e-03 -9.14331377e-02 +1.80226669e-01 -1.48347497e-01 -2.06484750e-01 -4.48850505e-02 -7.91594684e-02 -1.68431804e-01 -1.13940753e-01 -8.83268863e-02 -1.16996117e-01 -2.60083467e-01 -1.49330199e-02 -1.47008687e-01 -1.38490468e-01 +4.34942134e-02 +1.22419290e-01 +9.19874161e-02 +1.59578189e-01 -9.46624577e-02 +1.39979139e-01 +8.71323608e-03 -8.56404975e-02 +3.67102064e-02 -2.29079351e-02 +1.02118745e-01 +2.87841354e-02 -1.55651391e-01 +2.88052168e-02 +9.68231112e-02 +6.47978857e-02 +1.63957179e-02 -1.46776378e-01 +4.43966866e-01 -5.10533452e-01 -6.32537827e-02 -9.63423774e-02 -2.78833346e-03 +1.28901258e-01 -1.71059564e-01 -1.91770308e-02 +2.03070212e-02 +5.74583188e-02 -1.28076762e-01 +1.28834710e-01 +1.75513290e-02 +2.46029213e-01 -2.87368335e-02 +3.74960721e-01 +6.05766922e-02 -3.72431464e-02 +1.60003882e-02 -4.01674770e-03 +1.71487778e-01 -2.10174061e-02 -3.00446302e-02 +3.23067345e-02 -1.74215481e-01 -7.28847608e-02 -4.82538462e-01 -3.80099192e-02 +1.29717991e-01 +6.06415629e-01 -1.45163089e-01 +1.65479541e-01 -9.56389457e-02 +2.26662606e-01 +7.81527832e-02 -6.44222647e-02 -3.11007537e-02 +7.95197636e-02 -7.94503689e-02 -2.28407547e-01 +1.69552073e-01 +1.17699407e-01 -1.25956401e-01 +1.66654766e-01 -4.13476042e-02 -2.82029152e-01 -9.88999102e-03 -1.23864040e-01 +5.20043790e-01 +3.68422806e-01 +7.71417767e-02 -4.44577411e-02 -2.55763680e-01 -1.56899035e-01 -2.69815803e-01 +2.20202670e-01 -2.10583806e-01 -2.18216598e-01 -6.64267614e-02 -6.23200648e-02 -2.28996068e-01 -1.13444723e-01 -6.68430403e-02 +1.72442660e-01 +1.77389294e-01 -4.57255661e-01 -4.06088568e-02 +1.10372789e-01 +2.85597652e-01 +1.70076624e-01 -2.34026238e-01 -1.81087956e-01 -8.41997284e-03 -1.20686963e-02 +6.38105050e-02 +2.42180765e-01 -4.33234349e-02 -1.44643411e-02 +4.16643023e-02 +1.53115019e-01 +2.58821487e-01 -3.17055210e-02 -1.81481883e-01 +5.90063557e-02 -5.85615709e-02 +1.00629656e-02 -7.57893622e-02 -2.20282674e-01 +4.46058773e-02 -2.27568913e-02 -4.62821946e-02 -4.55661118e-02 -1.28877759e-01 -1.27339169e-01 +6.87286854e-02 -7.07501248e-02 +1.36574283e-01 -1.06782228e-01 -8.55033565e-03 -3.18021737e-02 +1.42859012e-01 -1.57536820e-01 +1.26672938e-01 -2.08949476e-01 +3.88035774e-02 +3.35066915e-02 -1.59634128e-01 -1.59013689e-01 -1.01105541e-01 +7.40147531e-02 -1.08367838e-01 -2.58470118e-01 +1.98986128e-01 -7.43652657e-02 +4.04389482e-03 +2.24471912e-02 +1.10792248e-02 -8.16661515e-04 -1.31491125e-02 -1.06261186e-01 -2.25978360e-01 -1.50921615e-02 -3.31251509e-02 +2.03052033e-02 -8.42546448e-02 +7.75501952e-02 +4.17710766e-02 -9.94580537e-02 +1.63336381e-01 +2.81228330e-02 -1.61420956e-01 -9.23278630e-02 -1.70626476e-01 -1.22760266e-01 +2.50645936e-01 +4.63123322e-01 +2.06195697e-01 +5.84770329e-02 +1.27642542e-01 -1.31222218e-01 +3.16415995e-01 -1.12186737e-01 +2.16137186e-01 -2.42586844e-02 -1.30257741e-01 -9.50495303e-02 -2.82022178e-01 +3.19610417e-01 +8.53753611e-02 -2.82596529e-01 -1.51945770e-01 -2.45422989e-01 -3.61871533e-02 -3.75546098e-01 +1.93194881e-01 -4.91114438e-01 -1.57848790e-01 +2.17893012e-02 -2.57039040e-01 +4.10215139e-01 -3.59742977e-02 +1.09606525e-02 -5.95119119e-01 -2.67883688e-01 -1.91110507e-01 -1.55833364e-01 -7.56092072e-02 +4.55836862e-01 +2.74547786e-01 +7.50905991e-01 -9.06585157e-02 -1.78656682e-01 -6.79124370e-02 +8.33442137e-02 -9.46162194e-02 -1.11242041e-01 +1.56508889e-02 +6.43471420e-01 -1.54801965e-01 -9.90686193e-02 -5.47204912e-03 -7.54081011e-02 -2.74075657e-01 -3.46017540e-01 +1.93883479e-01 -6.56412467e-02 -1.98051915e-01 -1.83037639e-01 -1.67063311e-01 +3.35039385e-02 +1.16859563e-01 -2.86891252e-01 +3.55037861e-02 +3.06515425e-01 -1.62612706e-01 -1.39283508e-01 +4.24771518e-01 -4.22239214e-01 +1.38990730e-01 +7.66232088e-02 -3.74050289e-01 -6.10497631e-02 +1.25727117e-01 -1.86653212e-01 +1.73613653e-02 +8.65434557e-02 +1.49371341e-01 +8.97117481e-02 +1.35024339e-01 -6.75275078e-05 -1.12389676e-01 -1.11879371e-01 +8.13191533e-02 +1.65414363e-01 +9.19333920e-02 +2.00501278e-01 -1.28566936e-01 +5.20895012e-02 +2.71139573e-02 +3.49542014e-02 +6.88566267e-02 -1.15385596e-02 -7.97037706e-02 +8.95952061e-02 -1.20023284e-02 +1.25214919e-01 +1.70531005e-01 -3.44345644e-02 +7.60219693e-02 +2.11756974e-01 -1.61630124e-01 +2.27241423e-02 +4.92209345e-02 +3.65079902e-02 -3.20022106e-02 +3.43893468e-02 -5.11556379e-02 -9.32837725e-02 +1.42182201e-01 -1.09268591e-01 +2.65659750e-01 -7.09684640e-02 +3.98564413e-02 +1.22377284e-01 +7.02065006e-02 +1.20746665e-01 -1.31413132e-01 +1.84063867e-01 +4.55938309e-01 -5.69487922e-02 +1.26656741e-01 -6.14575632e-02 +3.06562185e-02 -8.18090662e-02 +1.04723103e-01 +6.65663779e-02 -1.90808270e-02 -1.80083141e-01 -1.40214220e-01 -2.19129827e-02 -3.19726169e-01 -1.11516953e-01 -2.58528143e-01 -2.19471410e-01 -7.54312724e-02 -7.02856258e-02 +2.02112384e-02 +3.99139263e-02 +1.10857524e-02 +5.04563674e-02 +1.21641634e-02 -1.97817869e-02 -1.95793267e-02 +8.64099413e-02 +5.09687699e-02 -1.95396081e-01 +5.39409399e-01 -1.03718620e-02 -3.94283384e-02 +3.58476877e-01 -5.36295772e-03 +1.67481363e-01 -4.57096308e-01 +1.46987483e-01 +1.62195444e-01 +3.76081973e-01 -1.33975640e-01 +3.81046891e-01 +1.07844345e-01 +2.00716302e-01 +1.43720489e-02 +1.54563621e-01 +6.87883496e-02 +9.45856050e-02 -2.41845828e-02 +1.96278483e-01 +6.15257025e-03 +3.42761457e-01 +7.91926682e-02 +2.28792757e-01 -1.53027996e-02 -2.50265986e-01 +1.45115539e-01 +3.29963490e-02 +2.68755504e-03 +2.12191623e-02 +5.96168935e-02 -3.96136753e-02 +3.54775101e-01 +8.95724520e-02 -1.88014343e-01 +1.11776397e-01 -2.87136406e-01 +3.41716371e-02 +1.14905104e-01 +5.74864745e-02 +1.72986295e-02 +5.07944338e-02 +1.69136509e-01 -4.20671254e-01 +1.85745865e-01 -1.28334925e-01 +1.13748491e-01 +6.45409226e-02 +1.24814339e-01 -2.47337788e-01 +9.32711735e-02 -1.93069115e-01 +5.07792458e-02 +7.87693858e-02 -3.62910926e-02 -5.06298058e-02 +1.97820619e-01 -2.55088300e-01 +8.04400742e-02 -3.58910859e-02 -5.06489836e-02 -2.79773250e-02 -2.82922257e-02 -1.07166015e-01 -2.77057588e-02 +8.64215791e-02 -8.37704316e-02 -5.90771027e-02 -3.48518491e-01 -1.91711227e-03 -1.66465677e-02 -1.06743857e-01 +4.38136011e-02 -7.56314620e-02 -1.50654435e-01 -6.17836677e-02 -8.48113447e-02 +1.67681940e-03 +1.03247978e-01 -1.64780140e-01 -3.25249098e-02 +6.44465461e-02 -3.30909550e-01 -2.66495317e-01 +1.24132492e-01 +4.65086997e-02 -5.10097481e-02 +1.31044626e-01 -1.61319524e-01 +1.71460062e-02 +1.51461661e-01 -1.80431306e-01 +1.06797062e-01 -3.35634261e-01 -2.06620872e-01 +3.58181059e-01 -1.02024160e-01 +2.50081345e-02 -2.39582866e-01 +3.20914179e-01 +2.14784890e-01 -7.27906749e-02 +1.57490060e-01 -8.78832862e-02 +8.95166174e-02 +7.74631128e-02 +1.33481294e-01 -7.01507777e-02 +2.18156919e-01 -2.54451334e-01 -1.69732362e-01 -2.72569545e-02 -4.07485783e-01 +1.72943577e-01 -1.09401807e-01 +1.91558316e-01 -3.36161293e-02 -5.07726781e-02 +6.01555407e-02 +1.11955337e-01 +6.49232194e-02 +5.59722409e-02 +2.59941101e-01 -2.14358687e-01 -1.20308451e-01 -9.10490453e-02 -5.01507558e-02 +1.05243944e-01 +2.82620162e-01 +2.90667593e-01 +6.88904375e-02 +1.94632858e-01 -3.52558970e-01 -1.03145361e-01 -2.62044370e-01 -2.28434741e-01 +1.35486731e-02 +4.79888260e-01 -2.74114698e-01 +2.83136070e-01 -1.09631568e-01 +2.28733086e-04 -2.73973227e-01 +3.55743736e-01 -1.86811537e-01 +4.97761331e-02 +1.49402320e-02 +1.69760287e-01 -1.20253041e-02 +4.82834667e-01 +1.89257925e-03 -5.96005004e-03 +2.13174764e-02 -3.24621350e-01 -2.25280300e-02 -1.05815336e-01 -3.10323149e-01 -3.41802090e-01 -2.31987193e-01 +3.80232558e-02 +6.79789707e-02 +1.68331619e-02 -1.57268792e-01 +2.05779418e-01 -3.44211102e-01 -1.78725868e-02 -1.26690701e-01 -6.66651800e-02 -2.04080597e-01 +9.51137021e-02 +9.59610716e-02 -3.75388682e-01 +1.11535750e-02 -3.91748607e-01 +7.70451874e-02 +3.62135991e-02 +3.61427695e-01 -2.44547442e-01 -9.94841196e-03 -2.52367556e-01 -2.57580042e-01 +1.68547034e-02 +2.33830456e-02 -1.82116464e-01 +2.51724243e-01 -1.70742497e-02 +1.71367943e-01 -7.62542635e-02 -8.52332544e-03 -4.29813825e-02 -8.78539383e-02 +7.22100139e-02 -2.08092444e-02 -4.98769544e-02 -4.60248403e-02 -7.33026043e-02 +1.15547523e-01 -8.48159045e-02 -3.86090465e-02 +6.10078089e-02 -1.10924512e-01 -1.94361910e-01 +1.31664127e-01 -6.54696748e-02 -1.70557842e-01 -1.31185368e-01 -2.05677142e-03 -1.73021957e-01 -4.14905697e-02 +1.50558194e-02 +3.66573893e-02 +6.76900940e-03 +8.49556997e-02 -1.35225922e-01 -7.59442076e-02 +9.38452706e-02 +9.57941785e-02 -1.00559928e-01 -1.09345190e-01 -4.13173959e-02 +6.60440996e-02 +3.87397557e-02 -8.35222155e-02 +1.82874389e-02 -5.35056889e-02 -3.75945568e-02 -3.32817137e-02 +2.58022100e-01 +1.81903988e-01 -1.04061313e-01 +1.39377326e-01 -8.15506130e-02 +1.12705722e-01 +1.64288387e-01 -9.42263603e-02 -1.81697100e-01 +3.21041018e-01 +9.74620059e-02 -8.19151253e-02 +3.79665345e-02 +1.72878448e-02 -2.97540158e-01 +5.32743670e-02 +1.14393346e-01 -8.47979262e-03 +2.93746758e-02 +4.90685552e-02 +1.78701710e-02 +3.72359037e-01 +1.26824200e-01 +3.28089654e-01 -1.48574829e-01 -4.66163307e-02 -1.50823280e-01 +8.41113478e-02 +2.57975578e-01 -1.44654095e-01 -3.88065934e-01 -4.95227128e-02 +1.62561357e-01 -1.96607992e-01 +3.69469434e-01 +3.21557745e-02 +4.27690476e-01 -2.43463829e-01 -1.91885024e-01 -4.49679285e-01 +9.54743177e-02 -1.60442978e-01 -2.05901429e-01 -6.79028869e-01 +1.92729712e-01 -3.56538445e-01 -1.61963210e-01 -9.89925191e-02 -2.45612904e-01 -3.85984629e-02 -4.46345247e-02 -1.17922559e-01 -1.58505231e-01 +2.89382762e-03 -4.49258864e-01 -2.58346707e-01 -1.02984779e-01 -4.87194300e-01 -6.99615538e-01 -3.23320150e-01 -1.28520861e-01 +9.46134143e-03 -1.22724637e-01 -1.39021024e-01 -1.61688879e-01 +6.13879599e-03 +4.53430414e-02 -1.54423743e-01 +6.11333251e-02 -3.32305990e-02 +4.04620916e-02 -3.36360395e-01 +2.24039406e-02 +9.80894715e-02 -2.27156788e-01 +4.69067059e-02 +3.92422639e-02 +2.40731724e-02 -2.99784690e-01 +8.39181170e-02 -5.19397296e-02 +5.83172962e-02 -1.13816388e-01 -9.21419356e-03 -2.06220061e-01 +5.02405226e-01 -1.04801789e-01 +1.21836253e-01 -1.64784454e-02 +2.54031211e-01 -1.32768333e-01 -1.07563332e-01 +2.79012118e-02 +5.10974787e-02 +2.04929560e-01 +8.36128071e-02 +1.10382929e-01 -3.04775119e-01 +8.96595642e-02 +1.50924727e-01 -5.97349182e-02 +3.55500206e-02 +2.97873795e-01 +2.45913804e-01 +7.07345977e-02 +3.11048627e-01 -4.03868482e-02 +1.50579482e-01 +3.58250923e-02 +2.05006734e-01 +5.52906580e-02 -6.90112785e-02 -2.07132593e-01 +2.69065827e-01 +2.45495439e-01 +7.64527023e-02 +2.05002725e-01 +3.82575169e-02 +9.51070115e-02 +2.82495886e-01 +2.76019219e-02 +2.34995320e-01 -7.36488029e-02 +2.87029088e-01 +2.90755093e-01 +8.96290392e-02 +8.85478258e-02 -3.09336692e-01 -7.41824508e-02 +3.38193744e-01 -5.87530509e-02 -4.72595841e-02 +6.75198659e-02 +9.95752960e-02 +2.43792031e-03 -1.62835140e-02 -8.12524334e-02 -4.92587052e-02 -9.60499048e-02 -1.00924969e-01 +4.71976101e-02 -3.61382008e-01 -5.66906929e-02 -9.66056660e-02 -1.83484717e-05 -1.28777966e-01 +1.37084261e-01 -2.23944023e-01 +1.37692258e-01 -7.11672902e-02 +1.27291143e-01 -2.01656744e-01 -3.53195593e-02 +2.07498670e-02 -6.22747093e-02 +4.19879332e-02 -1.22459695e-01 +4.77475643e-01 -7.28854239e-02 +2.21380174e-01 +2.24480838e-01 +1.03043586e-01 +8.75010490e-02 -1.36787251e-01 -3.40213515e-02 +2.45786846e-01 +7.85943195e-02 +2.21381441e-01 +1.58402503e-01 +1.81231543e-01 +1.15318246e-01 -4.44204267e-03 +3.56843591e-01 +2.39106044e-01 +1.12628400e-01 +2.58891612e-01 +2.03970343e-01 +4.05836552e-01 +2.36579165e-01 +2.02328682e-01 +2.29823902e-01 +1.75547183e-01 +1.01542048e-01 +1.38012901e-01 +1.34629279e-01 -1.90232471e-01 +5.76499216e-02 +9.95604023e-02 +2.48200789e-01 +2.97922134e-01 -1.90825742e-02 +3.58462542e-01 +1.16474092e-01 +6.93885908e-02 +1.36174262e-01 +1.48784459e-01 +9.83285066e-03 -1.63944326e-02 +1.76796257e-01 +1.42964378e-01 -3.45774263e-01 +1.67103902e-01 +5.42980134e-02 -4.47971374e-02 -1.23543516e-01 +1.61621779e-01 -1.55574515e-01 +3.09431523e-01 +1.02995791e-01 -6.21298142e-02 +1.82884544e-01 -2.11876482e-01 -1.05796456e-01 +1.35814756e-01 -3.12755913e-01 -2.12463066e-01 -1.29999131e-01 -4.52830046e-02 -1.73398271e-01 +2.45041981e-01 -1.27920955e-01 +6.56272322e-02 +5.84922880e-02 -2.27203276e-02 +4.94884551e-02 +2.63995707e-01 +1.07708974e-02 +9.45895761e-02 -7.96113014e-02 -8.00378025e-02 -1.87070191e-01 +3.15024883e-01 +8.14674199e-02 +6.24282695e-02 +1.82222962e-01 +9.33083221e-02 +1.19954877e-01 +1.46065414e-01 -5.23977317e-02 -4.13640179e-02 +2.28896886e-01 -5.36995828e-02 -1.06357463e-01 +1.22822076e-02 -9.89337116e-02 +1.99034929e-01 -2.71436423e-02 -1.88328668e-01 +1.16794549e-01 +1.17613196e-01 -1.42737389e-01 +1.19695805e-01 +6.49979040e-02 -8.90022144e-02 +1.27202705e-01 -1.47749051e-01 -1.95490997e-02 -5.99685349e-02 +7.90570751e-02 +5.33160195e-02 +7.24708959e-02 -1.04247183e-01 -1.20862916e-01 -3.89361903e-02 -2.67574757e-01 +6.22384511e-02 +3.27298008e-02 -2.24664062e-01 +1.40714794e-01 -8.90737027e-03 -1.22438863e-01 +1.50166139e-01 -1.30936146e-01 -3.50939244e-01 +6.91763312e-02 +1.20454498e-01 -5.92708997e-02 -8.15504789e-02 -1.23616569e-01 -8.19130801e-03 +3.98912057e-02 +1.00905523e-01 -8.84950534e-02 -6.34794170e-03 -8.28765240e-03 -9.02949870e-02 +7.48477995e-01 +2.02645399e-02 -1.21842690e-01 +9.29651484e-02 -3.28197211e-01 +9.01874038e-04 -3.52756143e-01 +1.36404485e-02 +1.80779248e-02 -6.46587014e-02 -1.64156988e-01 +9.76809710e-02 -1.36413828e-01 -4.07589227e-02 -5.73572278e-01 -1.70385644e-01 -1.04977489e-01 +9.69014540e-02 +2.10165277e-01 -3.04475099e-01 +1.35787994e-01 -2.15814319e-02 -2.04458341e-01 +1.17409773e-01 +6.76038861e-02 +6.87438920e-02 +1.35338202e-01 -2.94638634e-01 -6.54752254e-02 -9.93970260e-02 -2.59197392e-02 +2.96508167e-02 +4.90281098e-02 +2.49545705e-02 +5.26271164e-02 +1.58694386e-01 -8.51772875e-02 -7.49918148e-02 -2.76125241e-02 +1.31066352e-01 +2.78074592e-01 -8.23631287e-02 +1.07772358e-01 +9.59938020e-02 -2.54112452e-01 +9.80933234e-02 -1.85835585e-01 -3.83096516e-01 -1.25022028e-02 -1.31970540e-01 +2.72279710e-01 +3.37000564e-02 +1.19564734e-01 -8.59647468e-02 -1.33987904e-01 +5.12806401e-02 +1.93353206e-01 +4.96793985e-02 +9.68983024e-03 -8.35013241e-02 -2.37238631e-02 +6.56230077e-02 +1.76960342e-02 +1.63798302e-01 +8.39818269e-02 +1.47101119e-01 +1.91643655e-01 -2.27481738e-01 +1.09843731e-01 +1.72161669e-01 +2.54208539e-02 +6.01879098e-02 -7.50268996e-02 +7.42730573e-02 +2.37317055e-01 +1.06688917e-01 +1.34209231e-01 +4.66145501e-02 +2.43365951e-02 +8.41461942e-02 +1.31890118e-01 +1.50132820e-01 +2.55759992e-03 +9.80898365e-02 +7.69023672e-02 +1.13208152e-01 +3.61034542e-01 +3.58704254e-02 +2.18270212e-01 +2.25511909e-01 +1.15122788e-01 +8.73457864e-02 -7.44579583e-02 +9.32377111e-03 +4.76043262e-02 +2.15194032e-01 +5.40713482e-02 -1.08386479e-01 +1.47896245e-01 +1.02641441e-01 -3.60423303e-03 +2.26481542e-01 +3.52000189e-03 -1.15583189e-01 -9.51660573e-02 +8.22092965e-03 +1.86551973e-01 -4.58216071e-02 +6.09443411e-02 +1.65469050e-01 +1.24902673e-01 -2.19925195e-01 -2.12297171e-01 -7.12880306e-03 +8.54541361e-02 +7.91114122e-02 +1.11872971e-01 -1.89213440e-01 +1.68021306e-01 -4.36358154e-02 +2.14575335e-01 -6.44474551e-02 +9.46711078e-02 +2.14992519e-02 +1.76209267e-02 -1.92288905e-01 +8.22265982e-04 +3.88100117e-01 +2.86029354e-02 +2.39475250e-01 +3.58111531e-01 +2.10528418e-01 +2.62407716e-02 -1.21032171e-01 -1.05083063e-01 +1.20438330e-01 +6.14414588e-02 +6.61087362e-03 +2.27512956e-01 +2.81598985e-01 -1.53558120e-01 -2.07585111e-01 +3.60159159e-01 +1.27156153e-01 +1.95361346e-01 +9.14749429e-02 +4.33390319e-01 +5.77262864e-02 +2.84075707e-01 +2.24482566e-01 +8.46376568e-02 +1.63513243e-01 +3.26533079e-01 +1.49137542e-01 +2.94466496e-01 +4.85481888e-01 +4.45766211e-01 +1.33683756e-01 +2.70695627e-01 +2.53848404e-01 +1.43528000e-01 -6.36941791e-02 +1.10244751e-01 -8.93081725e-02 +1.32604480e-01 -2.68414221e-03 +1.36466265e-01 +1.39003292e-01 +4.56224382e-02 +2.10858628e-01 -2.83727318e-01 +8.37596357e-02 -2.26728395e-02 -5.46118990e-02 -1.49844274e-01 -2.70593278e-02 -1.35649607e-01 -2.08934117e-02 +9.82735530e-02 +1.71908528e-01 +6.91795573e-02 -2.51578897e-01 -9.79865566e-02 +4.80745286e-02 -2.52642065e-01 -2.03209464e-02 -2.00854510e-01 -2.22289294e-01 +2.22283363e-01 +7.07201511e-02 -1.32136524e-01 +1.14432961e-01 +1.30020510e-02 +1.19910687e-01 -2.50251591e-02 -7.10403547e-02 -1.19273283e-01 -4.29350734e-02 -2.34787151e-01 -1.05277479e-01 -1.56258091e-01 -1.72459483e-01 +1.03140794e-01 +5.53570278e-02 -8.35433751e-02 +1.62639901e-01 -1.91433370e-01 +7.48633733e-03 +1.55322388e-01 -1.62246689e-01 +2.41335966e-02 +1.48103595e-01 +2.07704902e-01 -1.68012738e-01 +1.05228417e-01 -8.79583284e-02 -1.17806969e-02 +1.20452031e-01 -2.12649882e-01 +1.58060119e-01 +3.30221683e-01 -6.05605543e-02 +1.46848083e-01 +6.33210763e-02 -1.50039950e-02 +9.46600139e-02 +2.79421896e-01 -2.74004668e-01 -1.94735024e-02 -5.43887168e-02 -1.72909070e-02 -2.31888462e-02 -1.80273324e-01 +1.41547639e-02 +1.94952279e-01 +8.16295892e-02 -3.92804086e-01 -8.78747031e-02 +8.35759640e-02 +1.23269074e-02 -3.46738994e-02 -4.08797935e-02 -5.00085717e-03 +4.23505977e-02 +8.86179656e-02 -2.42252778e-02 +2.03799576e-01 +1.68975860e-01 +1.01901256e-01 +6.69749752e-02 +1.64963484e-01 -9.54709947e-02 -2.07641870e-01 -6.17249906e-02 -6.68446347e-02 +1.92883372e-01 +9.89584252e-02 +1.71819955e-01 -2.25828029e-02 +1.66493103e-01 -1.99600682e-01 -2.70437568e-01 -3.57991666e-01 +5.09200916e-02 +4.47797298e-01 +1.23471342e-01 +2.88632601e-01 +1.42950639e-01 +1.17521465e-01 +6.98231310e-02 +2.06291929e-01 +1.15883820e-01 +1.45347744e-01 +4.52740379e-02 +2.75713831e-01 +4.23534483e-01 +2.44196802e-01 -1.45529034e-02 +2.41388619e-01 +9.10013765e-02 -3.53852147e-03 +6.47097453e-02 -5.77995693e-03 +3.32398951e-01 +4.27249521e-02 +4.24931273e-02 -1.01980880e-01 +2.58457780e-01 +4.47863117e-02 -1.62033170e-01 -9.34002325e-02 -4.60138209e-02 +4.65429202e-03 -1.43128447e-02 +3.76122333e-02 -1.21407196e-01 -1.61202684e-01 +3.54999959e-01 -2.64256090e-01 +8.05480704e-02 -2.27016732e-01 -2.26971433e-01 -1.49980918e-01 +3.92125994e-01 -4.46417443e-02 -1.18380245e-02 +1.02396913e-01 -2.60616336e-02 +4.31849621e-02 -5.12415320e-02 +3.47992033e-02 -7.78030604e-02 -5.39534837e-02 +6.57816753e-02 +1.28874540e-01 +9.23147798e-03 +4.90677692e-02 -1.93029597e-01 +1.44059032e-01 -6.77271336e-02 +4.71441774e-03 -9.15730298e-02 +2.69080093e-03 +2.24267080e-01 -7.69877508e-02 -6.94904476e-02 -1.69082746e-01 -2.03851476e-01 -1.70782786e-02 -1.17401429e-01 -1.01139158e-01 +2.64672320e-02 -3.25453192e-01 -1.57523453e-02 -5.07253818e-02 -1.57944351e-01 -2.04771966e-01 -2.49439076e-01 -4.59795326e-01 -2.94492412e-02 +2.39310022e-02 -2.35510573e-01 -7.32463226e-02 -6.39696466e-03 -2.65028656e-01 -1.72156468e-01 -1.29973903e-01 -7.94938579e-02 +1.11651774e-02 -8.71571898e-02 +1.58505365e-02 -1.25820339e-01 -2.66464557e-02 +1.40275925e-01 +1.89983740e-01 +7.85713121e-02 +2.07496509e-02 -5.08654714e-02 +2.24684994e-03 +1.48551315e-01 +1.87783360e-01 +7.66494218e-03 -6.64784759e-02 +4.08182651e-01 +5.25594391e-02 -1.49955675e-01 -6.63920641e-02 +2.57979423e-01 +8.35291389e-03 -1.66004729e-02 -1.82357728e-01 -2.03716248e-01 -3.92331518e-02 +4.16269079e-02 -1.64775148e-01 +7.79702961e-02 -3.15206461e-02 +2.48840660e-01 -2.25863323e-01 +1.98591407e-02 -1.98677301e-01 +1.11828811e-01 +5.75108454e-02 -6.08511642e-03 -3.68637711e-01 -6.51431307e-02 +6.47647381e-02 -3.87486309e-01 -1.25922356e-02 +7.88435638e-02 +4.51350734e-02 -9.37025696e-02 -6.74529821e-02 +4.54192497e-02 +7.42215887e-02 -1.11786593e-02 -4.60960329e-01 -1.17536195e-01 -4.93660085e-02 -1.07680097e-01 -2.34364256e-01 -2.51244456e-01 -3.39526266e-01 +1.28787532e-01 +2.16561899e-01 -1.35344476e-01 +1.30831212e-01 -1.62226319e-01 -5.18327117e-01 -4.31774557e-02 -1.62633285e-01 -3.98468524e-01 -5.70429862e-01 -2.24781875e-02 -1.92762166e-01 -1.22829206e-01 -1.18618295e-01 -2.30893847e-02 +1.33627445e-01 +1.24876253e-01 -1.76546931e-01 -2.06287995e-01 -2.35056374e-02 +2.88256202e-02 +1.53394183e-02 -1.18344352e-02 +1.80925559e-02 -1.32819377e-02 -9.20840725e-02 +5.53050451e-03 -3.97262983e-02 +8.33847374e-02 -1.05047964e-01 -5.48584498e-02 -7.86459818e-02 +1.75774451e-02 -1.10861681e-01 +1.47751257e-01 -3.90413888e-02 -9.72040370e-02 +8.78235921e-02 +2.74812728e-01 +3.34190220e-01 +1.06890462e-01 -3.08693975e-01 -1.41276836e-01 +3.32810432e-01 -9.15290490e-02 +7.35267028e-02 -5.50774932e-02 -8.10810477e-02 +1.48116767e-01 +3.98151428e-02 -1.25009725e-02 -4.67501320e-02 -8.07408020e-02 -8.88570920e-02 -1.44355558e-02 -1.03234261e-01 +1.03283361e-01 -1.35988310e-01 +3.38391997e-02 -9.57033262e-02 -9.69341695e-02 -1.21895961e-01 +1.55322836e-03 +6.10123090e-02 -1.96723957e-02 -1.71226770e-01 -7.45816976e-02 -4.02923450e-02 -5.44733144e-02 -1.54819787e-01 -1.89417094e-01 -4.57214713e-02 -3.26156504e-02 +2.83818319e-02 +1.11730210e-02 +2.36624762e-01 -1.08835824e-01 -1.45541430e-02 -3.86576867e-03 -3.85954112e-01 -2.67900169e-01 -6.26176654e-04 -1.90513767e-02 -1.16889812e-02 -9.91977472e-03 +2.10911892e-02 +6.10329723e-03 -8.64197463e-02 +1.08190000e-01 +1.52477220e-01 -9.15909261e-02 -1.64990023e-01 +2.84964532e-01 +9.01901573e-02 -1.15743622e-01 +2.37379819e-02 +2.22933404e-02 -6.23241402e-02 +9.01561528e-02 -2.93018430e-01 +4.18062747e-01 -2.15217043e-02 +1.91783622e-01 +1.25539854e-01 -5.08570485e-02 -1.19051836e-01 -9.76815373e-02 +1.69460565e-01 -3.48664582e-01 -4.61314231e-01 -2.81329509e-02 -1.40884995e-01 -3.97896767e-01 +3.17731559e-01 +6.95156753e-02 +2.58299738e-01 -2.02575371e-01 -9.15440172e-03 -2.40759239e-01 -6.95519298e-02 -2.31964812e-01 -1.16790876e-01 -4.71270293e-01 -9.56803486e-02 -2.24301443e-01 +6.63246438e-02 +3.59116867e-02 -3.03591229e-02 +1.36183575e-01 -2.67657816e-01 -1.84026062e-01 -1.62367985e-01 -1.00257784e-01 -1.73590463e-02 -2.38362640e-01 -1.29312471e-01 -7.97530413e-02 -2.31521755e-01 -1.08123772e-01 +3.16895805e-02 +3.08053970e-01 -1.40422553e-01 +2.88441759e-02 -1.16300605e-01 +6.45313337e-02 -7.71616912e-03 +3.59547734e-02 -1.11930549e-01 -9.30012614e-02 -9.00868699e-02 -9.21343546e-03 +1.33904830e-01 -9.74725261e-02 -1.26071051e-01 +9.17009339e-02 +3.45288441e-02 +6.31197020e-02 -6.79366812e-02 -6.56281114e-02 -4.49218266e-02 -1.34726211e-01 -8.95254910e-02 +2.96176374e-02 +2.07737684e-02 +2.49875560e-01 +1.05439737e-01 +3.67334336e-02 +1.77899182e-01 +7.35882968e-02 -2.54009902e-01 +8.48378316e-02 +1.19144516e-02 +6.81955218e-02 -6.84755221e-02 -9.97203141e-02 -4.38665263e-02 -1.80207968e-01 -6.66970611e-02 +2.60689985e-02 +3.47036012e-02 +6.83897957e-02 +4.05637324e-02 -1.13808632e-01 +2.42528692e-02 +1.21872127e-01 -1.14139915e-01 +1.93094797e-02 -6.74888119e-02 -2.02034295e-01 -2.53654048e-02 -2.66645133e-01 -1.56485528e-01 +9.11390930e-02 +2.92037185e-02 +9.97340828e-02 -6.89531043e-02 +9.56979766e-02 +4.09759916e-02 +6.60081357e-02 +5.75317778e-02 -1.94478795e-01 +3.30194123e-02 -3.24515961e-02 -1.05170451e-01 +2.13325500e-01 +2.54275724e-02 -2.24575493e-02 +3.74146640e-01 +3.76282483e-01 -7.33642280e-02 +4.16406281e-02 -1.12401247e-01 +1.28448069e-01 +1.02174990e-01 +3.33379582e-03 +1.30887434e-01 -2.46160164e-01 -2.15535104e-01 -1.12455375e-01 -1.04905210e-01 +4.19547372e-02 +9.42223892e-02 -1.28690496e-01 -1.04981177e-01 -6.17893748e-02 -6.57777116e-02 -1.96939528e-01 +1.11148372e-01 -2.48337045e-01 +6.45325929e-02 -2.44262397e-01 +1.69553384e-01 +1.06770866e-01 +9.67289954e-02 +1.66159570e-01 -1.99993521e-01 +4.39280927e-01 +3.58018428e-01 +2.14838423e-02 +9.47704092e-02 +2.92517483e-01 +2.11969987e-01 -2.67962188e-01 +2.26408988e-01 +2.62431055e-01 +1.34398967e-01 +4.08429652e-01 +6.82530999e-02 +1.20690271e-01 -1.20905980e-01 +5.23314238e-01 +3.27799231e-01 -2.37243026e-01 +1.55673131e-01 +1.59118533e-01 +1.84293479e-01 -3.02862227e-01 -5.40351093e-01 +8.80089588e-04 +6.19539768e-02 -1.55613460e-02 -2.31510460e-01 -1.87794175e-02 +1.08770311e-01 +1.05064146e-01 -3.93676579e-01 +2.40557343e-01 +1.54588632e-02 -3.05643827e-02 +1.30799994e-01 +2.70859182e-01 +4.65700537e-01 -2.59477586e-01 +1.23596236e-01 +1.03530772e-01 +1.48765929e-03 +9.37995389e-02 +9.85547677e-02 +3.28499585e-01 +1.09892331e-01 -3.10328364e-01 -1.77496135e-01 -1.92357406e-01 -3.12015023e-02 -2.97417194e-01 +1.76970452e-01 -1.83836430e-01 -3.79852094e-02 +1.20140135e-01 +6.23987243e-02 -7.84110650e-02 +6.18627667e-02 -2.61006862e-01 +1.00565486e-01 -6.75930753e-02 -1.35599419e-01 -8.60720351e-02 +1.16216876e-01 +2.16550492e-02 +1.06996652e-02 +1.16066247e-01 -6.36394098e-02 +2.84781363e-02 +1.87090978e-01 -2.96904922e-01 +6.02650940e-02 +2.92827394e-02 -7.88317472e-02 +8.52082148e-02 -1.60054117e-02 -1.03540920e-01 +1.03215240e-01 -5.18131368e-02 +2.31742114e-01 -9.68480669e-03 -4.13658991e-02 +2.87984889e-02 +1.56734109e-01 -1.61772817e-01 -4.81573790e-02 +1.92459762e-01 +1.48507550e-01 -5.70258126e-02 +2.80293375e-02 -1.17088698e-01 -7.22001679e-03 +1.77297026e-01 +5.88844046e-02 +3.35608609e-02 -1.72896475e-01 -1.32419676e-01 +9.07401145e-02 +1.12027965e-01 +1.32046267e-01 -1.79329693e-01 +5.88166527e-02 +1.46107048e-01 -5.83832040e-02 -7.95211419e-02 -9.01893992e-03 +2.54460037e-01 +8.27956200e-02 -4.47218455e-02 +6.69021755e-02 -2.50835299e-01 -2.60255247e-01 -5.15541732e-02 +9.55240577e-02 -3.53078097e-01 +8.94917995e-02 -6.85670450e-02 +7.74792954e-02 +9.86492634e-02 -7.16252550e-02 -3.13410349e-03 -2.00289954e-02 -5.75920939e-03 +2.44885534e-01 -2.99171284e-02 +1.36377141e-01 +2.75814775e-02 +1.26534328e-03 +8.60017538e-02 -4.17532027e-02 +5.11970580e-01 +4.79149759e-01 -1.39027108e-02 +4.26175669e-02 -4.77180779e-02 -5.99646457e-02 -3.51990521e-01 -4.71313111e-02 +2.02012762e-01 +4.10891354e-01 +7.57367462e-02 +1.10129498e-01 +1.47215992e-01 +3.10244352e-01 +3.26104015e-01 +1.77765861e-01 +2.94748902e-01 +5.59265316e-02 +1.50120959e-01 -1.69315219e-01 -2.25996748e-01 +3.08114171e-01 +2.12926883e-02 +1.50030687e-01 +9.27050561e-02 -1.08180925e-01 +8.39747563e-02 +1.72096878e-01 +2.75855601e-01 +1.51604682e-01 +1.04903512e-01 +8.15324858e-02 +4.17630412e-02 -6.40112087e-02 -2.10718513e-01 +5.13052680e-02 -5.91207027e-01 +7.22334832e-02 -3.65360789e-02 -7.54958810e-03 +1.29230484e-01 +7.63470680e-02 -1.56730071e-01 -2.30225056e-01 +1.31396785e-01 -4.56302650e-02 -7.98645318e-02 +2.11004112e-02 +1.04140460e-01 +1.04212649e-01 -1.72700938e-02 -1.65516324e-02 +5.01329973e-02 -4.82258573e-02 +2.80695744e-02 +6.12804294e-02 -2.89861321e-01 -2.09517598e-01 -2.56644953e-02 -2.63126157e-02 +1.33008555e-01 +1.62365243e-01 -1.78441368e-02 -1.06969729e-01 -3.27004433e-01 -1.77364260e-01 -1.96102887e-01 -3.08991700e-01 -4.46465790e-01 -2.80558109e-01 -1.55217856e-01 -3.54896218e-01 -3.46043855e-01 -8.53502899e-02 -2.17657104e-01 -3.88420165e-01 -1.09032370e-01 -1.59339532e-01 -8.26932415e-02 -1.08624525e-01 -2.38249183e-01 -4.04946208e-01 -9.12362114e-02 -1.60093769e-01 -2.47386992e-01 -2.26024032e-01 -1.91284984e-01 -2.89497375e-01 -3.04204732e-01 -2.73176461e-01 +3.74225415e-02 -1.31599948e-01 +1.58482026e-02 +1.55376822e-01 -5.17384335e-02 -4.84459139e-02 +9.27953571e-02 -1.36265665e-01 +1.43062353e-01 -5.38979135e-02 +9.49822366e-02 -2.04691842e-01 +1.15031106e-02 -2.09000885e-01 +1.65702790e-01 +3.10338855e-01 -7.75156319e-02 +1.72662288e-02 +2.21217666e-02 -2.84215230e-02 -7.28338584e-02 +8.12957063e-02 +1.10384841e-02 +3.88547659e-01 -6.79021934e-03 +3.88889104e-01 +2.29681969e-01 -3.66250761e-02 +1.12807892e-01 -1.93229355e-02 -1.37447074e-01 +2.58932859e-01 +3.85659009e-01 -6.44655898e-02 -1.13813341e-01 -1.17714450e-01 +3.15416092e-03 +3.07178497e-01 -2.07092196e-01 +1.46893173e-01 -3.16812217e-01 -1.39402136e-01 -2.65622109e-01 -1.25997737e-01 -5.48906587e-02 +1.95462972e-01 -3.82479608e-01 +2.88383812e-01 -6.63890898e-01 +3.19983512e-02 -1.08329669e-01 -3.75063181e-01 -3.59247923e-01 -9.14081335e-02 -4.12168741e-01 -4.63257879e-01 -2.96354383e-01 -9.78821516e-02 -2.66915321e-01 +1.99736118e-01 -3.07871372e-01 -5.42724013e-01 -3.56312066e-01 -6.02461576e-01 -2.30962709e-01 -2.93225825e-01 +2.66682625e-01 +3.70000869e-01 -5.72137892e-01 -3.15944821e-01 -8.35553482e-02 -1.15470126e-01 -3.33779842e-01 -1.83325633e-01 +2.54006293e-02 -1.58583969e-01 -2.24351972e-01 -2.98663855e-01 -2.60522425e-01 -1.12377666e-01 -1.95265219e-01 +1.34551525e-02 -5.57285771e-02 -2.07093298e-01 -1.48539290e-01 +2.44149178e-01 +3.22792530e-01 +6.51932508e-02 -1.08726539e-01 +1.28983989e-01 +8.14865902e-02 -6.84593841e-02 +3.23081970e-01 -1.86751764e-02 -1.95846632e-01 +1.98423445e-01 +1.80212080e-01 +2.62411743e-01 +1.37110278e-01 -2.82838531e-02 -2.15749562e-01 +2.02499181e-02 +1.19692944e-01 +8.36348087e-02 +2.23837122e-02 +1.61727220e-01 +4.13324162e-02 -8.70263204e-02 +8.31044540e-02 +4.47993651e-02 +3.86647098e-02 -8.85271060e-04 +8.02240372e-02 +9.49122682e-02 +1.69169262e-01 +3.87983054e-01 +2.64650602e-02 +3.52741517e-02 -1.53874725e-01 +1.03799440e-01 +1.34800430e-02 +1.63191080e-01 -6.33127941e-03 +8.51031095e-02 +6.55708537e-02 +5.16370013e-02 -3.65154296e-02 +2.79023349e-02 -3.74101363e-02 -6.22923067e-03 +8.53936374e-02 -8.65256041e-03 +5.91567010e-02 -6.29909430e-03 -7.74941128e-03 +4.91181575e-02 -1.94577083e-01 -5.50578795e-02 +1.77597865e-01 -3.87638807e-02 -5.27731292e-02 -3.42302732e-02 -7.56769329e-02 -2.94207036e-01 -5.92287704e-02 +3.70843150e-02 -1.73504293e-01 +2.83568859e-01 -1.51607543e-02 -1.10170402e-01 +1.64659426e-01 -3.69065881e-01 -1.81962043e-01 -1.53725028e-01 -2.78148856e-02 +1.21112756e-01 -4.95508388e-02 +1.09867893e-01 -2.75025517e-01 +1.68348327e-01 -3.36348504e-01 +1.26413032e-02 +1.36595238e-02 +1.56096637e-01 -6.55108243e-02 -3.30680370e-01 +5.77026680e-02 +3.44062984e-01 -6.85735792e-02 -1.63832590e-01 +2.09077388e-01 +2.21196026e-01 -3.18172544e-01 +7.81582147e-02 +1.16301142e-01 +3.14777374e-01 +6.59705773e-02 +6.03821315e-03 -1.05405726e-01 +2.57032633e-01 +3.42093378e-01 -8.05752128e-02 +2.41300181e-01 +1.25211284e-01 +1.14060596e-01 +4.69960459e-02 -1.69632033e-01 +1.90112770e-01 -4.88531813e-02 -6.04455657e-02 -2.78073363e-02 +2.07815975e-01 -5.52544408e-02 +1.10768899e-01 +4.26977783e-01 +2.24169642e-01 +2.37274300e-02 +3.38297244e-03 -5.31948730e-02 +1.38222322e-01 +7.03667104e-02 +2.70967856e-02 -1.22127689e-01 +5.02663888e-02 +1.18495964e-01 +5.52680567e-02 -1.00326408e-02 +1.06558606e-01 +9.85846072e-02 +3.36123183e-02 +2.70498127e-01 +9.55309439e-03 +1.63335234e-01 -1.02227047e-01 +7.80073255e-02 +6.56355685e-03 -1.33861095e-01 +1.89916766e-03 +5.79074211e-03 +4.02207598e-02 -8.84774923e-02 +3.16332430e-02 +4.12626341e-02 -5.87828942e-02 -6.60346746e-02 -2.00662017e-02 +3.09007019e-02 +7.84629136e-02 -7.02619599e-03 -1.30505770e-01 -7.91291706e-03 +9.85940397e-02 -1.63681343e-01 +1.46619126e-01 +1.32948020e-02 +1.06845342e-01 +7.54460767e-02 +5.97552471e-02 +5.90094253e-02 +7.48087168e-02 +2.52216011e-01 +1.02673009e-01 +7.26573989e-02 -2.60747164e-01 +2.23467588e-01 +4.42862734e-02 -1.13187484e-01 -1.50810108e-01 +2.73195002e-02 -1.17728487e-01 -8.39866977e-03 +1.22738769e-02 +5.69371739e-03 +1.44743904e-01 +3.24310064e-02 -7.10160956e-02 +6.66953847e-02 +6.26757070e-02 +1.17624082e-01 +6.66894019e-02 +1.49991289e-01 -2.44959965e-02 -5.63521869e-02 -3.42825614e-02 +5.34207895e-02 +1.20667130e-01 +1.02942169e-01 +1.59095973e-02 -7.74999037e-02 -1.18335970e-01 +4.39428464e-02 -1.65170640e-01 -9.05680135e-02 -2.80007292e-02 -9.91305560e-02 -2.55370200e-01 -1.29864335e-01 -2.60216892e-01 +1.90439783e-02 +1.65949076e-01 +6.69062957e-02 +3.62685442e-01 +7.33441338e-02 -7.06188828e-02 +1.01795599e-01 -6.97907507e-02 -2.41522435e-02 -2.68556446e-01 +2.31665775e-01 -1.53959706e-01 -1.06834807e-01 -2.46888418e-02 -1.05356965e-02 +2.04258159e-01 -3.16746056e-01 -4.37028818e-02 +3.23227653e-03 +1.36025980e-01 -2.21990898e-01 +7.20670402e-01 +4.44494784e-01 +6.11220539e-01 -7.34642670e-02 +1.06519833e-01 -2.19667211e-01 +9.38590895e-03 -8.18273872e-02 -8.57715905e-02 -5.03952503e-01 -4.68217246e-02 -1.57463789e-01 +8.10060650e-02 -4.15139040e-03 -1.81922540e-02 +1.62216350e-01 -5.07587671e-01 +5.23165427e-02 -3.85465056e-01 +2.70881560e-02 +1.77781448e-01 -1.25129655e-01 -1.13245197e-01 -1.61384001e-01 -3.73007059e-01 -1.67787895e-01 +1.24646341e-02 -2.00944901e-01 -4.51969095e-02 +4.70468886e-02 +1.62894100e-01 +2.64078319e-01 +1.64541230e-01 +1.05606019e-03 -4.26776074e-02 -1.56820551e-01 +7.67278522e-02 +1.58661231e-01 +7.87308905e-03 -3.94732542e-02 +4.78751212e-02 -7.75027424e-02 -1.29263565e-01 -2.01851930e-02 -1.90458238e-01 +3.60028520e-02 -2.79234648e-02 -5.49635142e-02 -1.12170205e-01 +5.39082438e-02 -2.92189121e-01 +6.29142746e-02 +2.46485591e-01 -3.57186869e-02 -3.64854261e-02 +1.48208126e-01 -9.85736102e-02 +7.69495666e-02 +6.64382949e-02 +2.44375184e-01 +6.06577843e-02 +3.86968441e-02 +2.39680886e-01 -6.09652102e-02 +2.15338990e-01 +2.26113349e-01 +6.48279786e-02 +1.97691754e-01 +6.23049401e-02 +2.61040419e-01 +1.45342380e-01 +3.93373333e-02 -1.35333594e-02 +3.00289184e-01 +1.04687676e-01 +1.52921259e-01 +2.50363439e-01 +9.44802165e-02 +6.51275888e-02 +6.25174344e-02 +1.74033627e-01 +1.46199346e-01 +3.31001163e-01 +1.89478815e-01 +1.25497013e-01 +1.42323971e-01 +2.48924673e-01 +2.81984154e-02 -1.49855107e-01 +8.25081766e-03 +9.05609429e-02 -2.22260162e-01 -7.48466328e-03 -1.22118900e-02 +2.67240226e-01 +2.58392483e-01 -4.89667878e-02 -7.21694827e-02 +1.50281982e-02 -9.06775147e-02 -1.09446011e-01 +2.22376380e-02 +4.46627997e-02 -4.52092895e-03 -1.87903553e-01 -1.56795830e-01 -4.39947620e-02 -1.55907378e-01 -1.18353792e-01 +9.30205807e-02 +3.03618368e-02 -3.56120802e-02 -2.61398405e-03 -1.45433694e-01 +1.98681206e-01 -3.18161219e-01 -1.22662768e-01 -2.38701515e-03 +1.13818757e-01 -2.45969202e-02 -6.27017617e-02 -2.57257558e-02 -1.01084411e-01 +7.83147290e-02 -7.05371518e-03 +2.61930853e-01 +4.83723849e-01 +1.84508875e-01 +1.35061383e-01 +3.58600706e-01 +1.58463776e-01 +3.54156733e-01 +1.08198076e-01 +2.12485492e-01 -9.56050828e-02 +1.54161662e-01 +1.60387695e-01 +2.09291250e-01 +3.42680395e-01 +1.08922370e-01 +3.34174424e-01 +2.79128164e-01 +1.27047524e-01 +4.15486246e-01 -2.69222885e-01 +3.75153393e-01 +2.51750678e-01 +2.61159956e-01 +3.25140923e-01 +4.06458005e-02 +3.59170616e-01 -3.33778590e-01 -3.82001519e-01 +1.96865425e-01 +1.93957448e-01 +7.74357542e-02 +2.72498161e-01 +4.36516762e-01 +1.99491337e-01 +8.49763229e-02 +1.56860828e-01 +2.37781942e-01 +1.91238031e-01 +1.11223772e-01 +1.34676605e-01 +1.68983564e-02 +1.71559900e-01 +1.65982202e-01 +2.91068051e-02 -7.97603056e-02 -2.71959573e-01 -1.94803298e-01 -2.43067041e-01 +4.64308374e-02 -1.21264765e-02 -1.49823353e-01 +1.26287892e-01 -2.19767794e-01 +1.02113225e-01 +2.18666360e-01 -4.46668416e-02 -6.04238212e-02 -2.78999269e-01 -5.16406968e-02 +2.23332620e-03 -2.40042657e-02 -7.26612732e-02 +5.62253185e-02 -3.17828991e-02 +2.45063305e-01 -1.25715092e-01 -4.67532463e-02 -1.42909735e-01 -8.54584351e-02 -7.89847763e-05 +7.21598323e-03 -4.58575040e-02 -3.16564351e-01 -1.56035982e-02 -6.31994903e-02 +2.51505882e-01 -1.09943777e-01 -7.90093839e-03 +1.75270721e-01 +6.58202320e-02 -4.19102646e-02 +2.25207552e-01 +2.90755659e-01 +2.01589212e-01 -5.76415972e-04 -4.20298241e-02 +1.06345117e-01 +2.13844016e-01 +1.06155790e-01 -2.34896094e-01 -9.29412320e-02 +2.80868281e-02 +8.14225897e-02 +7.27003962e-02 -1.03109272e-03 +8.47646296e-02 -8.32445621e-02 -2.02920541e-01 -2.83357143e-01 +1.14514306e-02 -1.03836216e-01 +4.95909005e-02 -8.65374133e-02 +2.33974576e-01 +1.89883113e-02 +2.61317909e-01 +1.44436374e-01 -2.28920251e-01 -6.98810071e-02 +9.25608426e-02 -7.60133862e-02 -5.55166841e-01 +9.16205347e-03 -3.38021517e-01 -4.28983644e-02 +8.95720497e-02 -1.33331075e-01 +1.76679388e-01 +1.19145542e-01 +2.46780470e-01 -1.11754864e-01 +7.73457587e-02 +1.14294648e-01 +1.89743742e-01 +1.07646011e-01 -2.36141905e-01 +9.79205966e-02 -2.33073905e-01 +2.32023373e-01 +8.65881369e-02 +3.35700661e-01 -3.33794206e-01 -1.35936122e-02 -3.85201633e-01 +1.78851917e-01 -1.59386843e-01 +4.00002971e-02 +1.37610078e-01 -4.92461026e-02 +1.25688195e-01 +1.96135074e-01 +3.97043884e-01 +3.15644175e-01 +1.46186590e-01 -6.75981194e-02 +2.50657976e-01 +1.87268138e-01 -1.15880691e-01 +9.73537788e-02 +2.72918373e-01 -2.19732504e-02 +1.66840643e-01 +2.94095844e-01 +3.76125872e-02 -3.26156527e-01 +2.23179221e-01 +1.54827222e-01 +9.78336483e-02 +4.49542478e-02 +1.32117365e-02 -1.99606851e-01 -2.87142098e-01 -2.16005906e-01 +2.78297346e-02 +1.31800592e-01 -2.57571936e-02 +1.20409332e-01 -1.91339344e-01 +1.83833718e-01 -7.39165097e-02 +2.18900517e-01 +5.24167381e-02 -1.39231145e-01 +8.72682501e-03 +1.17166765e-01 -1.46052122e-01 +2.60853171e-02 +1.24839982e-02 -1.80182144e-01 +4.61744554e-02 -1.16225481e-01 +1.45180672e-01 +1.22560136e-01 -2.15282738e-01 +7.52209220e-03 +2.19774758e-03 -8.12460333e-02 +3.14670727e-02 +1.60073414e-01 -3.18678580e-02 -1.85530573e-01 -1.94408111e-02 -8.50504264e-02 -1.84392661e-01 -3.64692695e-02 -1.41731843e-01 -1.19461618e-01 -8.71050507e-02 -1.18678808e-02 +4.22411114e-02 -3.44374031e-01 -2.82098055e-01 +3.02579880e-01 +1.91881046e-01 -7.44430199e-02 -1.32612079e-01 -2.04137757e-01 -5.45626273e-03 -1.14556670e-01 +1.13191344e-01 +9.05714557e-02 -2.90473625e-02 -4.73069586e-02 -1.75956473e-01 -7.52247125e-02 +3.44576202e-02 -1.08211830e-01 +9.92288627e-03 -2.33569935e-01 -5.95414303e-02 -7.44845718e-02 -8.59784782e-02 +1.95582304e-02 +1.00484200e-01 +2.41128609e-01 -1.21297553e-01 +1.68505013e-02 -9.82943848e-02 -9.02683735e-02 +4.07311544e-02 +1.54891968e-01 +2.55512267e-01 -4.57585789e-02 +2.63439387e-01 -3.12214077e-01 +5.68868816e-02 +1.99202728e-02 -3.71964499e-02 -5.24147749e-02 -1.51564389e-01 -9.35541168e-02 +1.44605994e-01 +3.23612168e-02 +4.86181676e-02 +5.01554236e-02 +6.95221350e-02 -1.03358693e-01 +2.22492710e-01 -1.44100428e-01 -6.68022558e-02 -7.07177147e-02 +1.46182239e-01 -1.65993217e-02 -2.58883357e-01 -2.19270438e-02 -3.23760286e-02 -6.98535442e-02 -1.30271077e-01 -1.91646650e-01 +7.34049082e-02 -3.24357688e-01 -2.81862728e-02 -2.62397397e-02 +2.08597228e-01 +4.33954112e-02 -1.94177389e-01 -2.30440162e-02 +4.73496430e-02 +2.03223094e-01 +3.22247058e-01 +2.10142866e-01 +1.62094571e-02 -1.37234718e-01 -1.32417887e-01 -3.81215662e-01 -3.55695695e-01 -1.90468550e-01 +1.39802560e-01 -2.21143454e-01 -6.49913624e-02 +9.49397758e-02 -1.91824868e-01 +9.11381364e-01 +2.50644088e-01 +1.70700878e-01 -1.42095750e-02 -7.35443234e-02 -5.04494049e-02 -3.29519719e-01 +1.03476733e-01 -3.55323970e-01 -1.48677334e-01 +2.69362628e-02 -1.54675826e-01 +2.78435815e-02 -1.91567227e-01 +3.95670831e-02 -6.32456094e-02 -4.12501156e-01 +5.46978004e-02 -3.47072929e-02 +2.11989805e-01 -2.65291810e-01 +4.15173262e-01 -2.25825259e-03 -1.72291964e-01 -7.05586970e-02 -7.97875673e-02 +7.21979514e-02 +4.77171540e-02 -4.98379111e-01 -2.67593265e-01 +2.10078098e-02 +6.24268912e-02 +6.64650556e-03 +5.24931215e-03 -1.25618622e-01 +1.43739089e-01 -7.05909058e-02 +8.49987715e-02 +3.56212296e-02 -1.58067904e-02 -4.35828306e-02 -5.91025800e-02 +2.23991096e-01 +1.18800988e-02 +8.02300870e-02 -1.32458389e-01 +5.99803776e-03 -3.45972218e-02 -1.61502466e-01 +6.37348965e-02 -2.80907542e-01 -1.81319192e-01 +8.37435275e-02 -1.18670270e-01 +2.10302435e-02 -6.27283305e-02 -5.88121600e-02 +1.30132586e-01 +2.46940218e-02 +2.12790489e-01 +2.57482100e-02 +1.41624529e-02 +6.49523884e-02 +1.24058262e-01 +2.43954733e-01 -7.16216639e-02 -6.70055076e-02 -1.83216363e-01 +5.38359582e-02 +7.39040151e-02 +2.50280742e-02 +3.24677169e-01 -1.32415339e-01 +1.72167793e-01 +2.21994624e-01 +2.50472557e-02 -1.75958946e-01 +2.88698673e-02 +8.94784033e-02 -1.13048285e-01 +4.30417985e-01 +6.51929229e-02 +1.84448346e-01 +1.67718768e-01 -3.35712373e-01 -1.84893385e-01 -1.81428164e-01 -4.62470591e-01 +3.41502987e-02 -8.76363143e-02 -1.02098070e-01 -1.56637368e-04 +1.33163080e-01 +2.67979264e-01 -1.04713172e-01 +2.32220888e-01 -3.81692685e-02 +1.38910979e-01 +9.90780592e-02 +2.17519328e-02 +5.04405564e-03 +3.00321341e-01 +1.19077079e-01 +1.17627479e-01 +6.26943335e-02 -1.54381603e-01 -6.77208662e-01 -4.58116025e-01 -3.23472545e-02 -2.23767638e-01 -5.24416976e-02 -3.66849229e-02 +1.88056678e-02 +8.36787373e-03 -3.05717252e-02 +3.05882514e-01 -2.15125620e-01 +1.98792536e-02 -1.40682653e-01 -6.12688921e-02 +4.10459489e-02 +4.05434340e-01 -1.94791064e-01 +5.94351947e-01 +1.14984371e-01 -1.76346183e-01 +1.44422844e-01 +9.75561887e-02 -1.19421072e-02 +2.21808702e-01 -3.44161466e-02 -1.33654490e-01 +2.14023545e-01 -2.46384554e-02 +2.47781407e-02 +3.09941582e-02 -6.22429028e-02 -1.95805907e-01 -8.99626091e-02 -1.32142305e-01 +1.03639528e-01 -7.02809915e-03 +1.56113505e-01 -1.53970957e-01 -5.86378202e-02 -8.27823952e-02 +5.60619295e-01 +2.01669350e-01 -1.21899359e-01 +4.09419695e-03 -1.90579116e-01 +2.03214228e-01 -5.38272597e-03 +1.25162393e-01 -4.55584079e-02 +7.83336088e-02 +5.71167767e-01 -7.98410997e-02 -7.62820318e-02 -6.28759786e-02 -3.36503178e-01 +7.81428207e-06 -3.35662030e-02 +7.16924891e-02 -2.31991466e-02 +7.52409846e-02 -1.43158615e-01 -1.25091383e-02 -1.80466518e-01 +4.65675294e-02 -8.81270394e-02 +7.09596127e-02 -9.29210335e-02 -1.40002355e-01 +1.45510361e-01 +8.57344083e-03 +9.22698304e-02 -6.02937266e-02 -2.26860363e-02 +1.40654091e-02 -7.25899190e-02 +7.30824694e-02 +5.77657446e-02 +6.78504929e-02 +5.98495603e-02 +3.68545689e-02 -5.59913963e-02 -1.26068071e-01 +1.24439254e-01 -2.17705104e-03 -2.35749051e-01 +1.98043451e-01 +6.08816277e-03 +4.80748527e-02 -5.85192144e-02 -3.27257961e-01 +1.77599043e-02 -1.24442026e-01 +5.17004728e-02 +1.64966751e-02 +1.08676948e-01 +1.25854090e-01 -6.11866191e-02 +1.06514484e-01 +8.39335397e-02 -1.19515978e-01 -7.75905177e-02 +9.59150717e-02 -1.49962291e-01 -1.81829557e-01 -1.06681414e-01 +1.33325323e-01 +2.51640916e-01 -4.32684720e-02 -4.13471796e-02 +2.23934844e-01 -2.17889007e-02 -1.16414681e-01 +8.66373107e-02 +6.59014508e-02 +4.14891355e-02 -3.11378449e-01 -1.27236351e-01 +2.38622561e-01 -7.45392144e-02 -2.47278407e-01 +6.17904915e-03 -1.63911253e-01 -2.93467611e-01 +4.06143248e-01 -1.40683040e-01 -1.29369885e-01 +1.38922468e-01 +6.34842142e-02 -4.66897264e-02 -4.21357993e-03 +9.85659808e-02 -2.40212426e-01 -7.48961419e-02 -5.49076833e-02 +1.96042091e-01 -1.15975328e-01 +1.63921818e-01 -4.27040398e-01 -2.24458620e-01 +4.98876609e-02 +6.68488592e-02 -6.06414266e-02 -1.78809434e-01 -2.24510074e-01 -1.26419753e-01 -2.52072662e-01 -2.60679051e-03 -3.23379040e-01 -2.34308895e-02 -2.62396652e-02 -4.48279887e-01 -5.35988867e-01 -5.39934598e-02 -1.56110495e-01 -1.63944826e-01 +1.32119060e-01 +3.15855920e-01 -1.02440402e-01 +9.34469178e-02 +6.23013033e-03 -3.60848196e-02 -1.29681364e-01 -6.36116490e-02 +3.10464233e-01 +5.95067479e-02 +1.93351060e-01 -2.34772831e-01 -3.50982249e-01 -4.98862475e-01 -1.44179478e-01 -6.19659841e-01 -5.63738421e-02 -2.83838987e-01 +7.28408456e-01 +2.96129048e-01 -4.00067344e-02 -8.88988301e-02 -1.85061872e-01 -1.07305065e-01 +3.23941469e-01 +4.84354459e-02 +2.66155303e-02 +1.08078960e-02 +7.79868886e-02 +1.15065314e-02 +3.14897358e-01 -1.14403412e-01 -4.52140486e-03 +9.22912732e-02 +1.63653828e-02 -1.45625155e-02 +1.70975029e-01 +4.12656516e-02 +1.52336499e-02 +1.97520126e-02 +1.77325487e-01 -1.05306283e-01 -2.27635458e-01 +3.28124702e-01 +1.91877577e-02 +1.15251675e-01 -3.96507196e-02 -9.65500716e-03 -1.27899483e-01 +1.87398698e-02 -1.53822377e-02 +6.42366484e-02 -1.34380773e-01 +1.19709902e-01 -2.58528292e-01 -9.49255526e-02 +5.09325825e-02 -1.93434283e-01 -1.20600440e-01 -1.66425303e-01 -1.18326306e-01 +1.39843628e-01 +1.62316665e-01 +6.03549695e-03 -1.21819586e-01 +5.85866794e-02 +4.20966670e-02 +4.88682874e-02 -1.07704133e-01 -1.01455718e-01 -7.95231685e-02 +3.43700200e-02 -1.57826003e-02 -9.21349227e-02 -1.08174779e-01 -6.07809544e-01 +2.28068769e-01 +4.83918004e-02 -5.93468770e-02 +2.66853899e-01 +4.56599653e-01 -5.76245449e-02 +1.82128251e-01 -1.60586610e-01 +4.13003005e-02 +3.80421318e-02 -3.04771364e-02 -2.15497389e-01 -1.45308301e-01 -9.89015959e-03 +1.21891769e-02 +3.02605275e-02 +1.13780228e-02 -7.61850551e-02 -1.22897595e-01 -7.52015561e-02 -2.21689880e-01 -9.76838246e-02 -3.16981345e-01 -9.77951661e-02 +4.62386641e-04 +1.28706127e-01 +1.30459026e-01 -6.70452341e-02 +2.36868948e-01 +1.84731856e-01 +7.39326477e-02 +2.14770883e-02 +1.02083787e-01 +2.35644624e-01 +8.54196586e-03 +2.05067992e-02 -6.67836815e-02 +9.05644000e-02 -3.30066048e-02 -2.11073190e-01 -1.32001445e-01 +5.51633835e-02 -3.61303359e-01 -1.71879753e-01 -3.09496850e-01 +1.63989455e-01 -3.98397334e-02 -2.77938396e-01 -3.91087413e-01 +2.92359680e-01 -9.34597701e-02 -1.89425677e-01 -2.17718966e-02 +2.03909636e-01 +1.09761275e-01 +1.64319158e-01 +1.97582096e-01 -3.12295612e-02 -2.39203461e-02 -4.81323898e-02 +2.95274705e-03 -8.41699094e-02 +1.30580470e-01 +1.00010738e-01 +3.79613899e-02 +1.50324464e-01 +1.26852766e-01 +1.43831536e-01 +2.20526941e-02 +5.92246242e-02 -3.09570819e-01 -1.17447726e-01 +6.74782768e-02 +9.82766151e-02 -1.36499992e-02 -7.25087166e-01 +1.85864747e-01 +7.04628006e-02 -7.13179037e-02 +1.53278425e-01 -8.55780318e-02 +1.30463578e-02 -3.98578607e-02 +8.00991058e-02 +5.68957813e-02 +3.38832401e-02 +9.07498449e-02 +4.67026159e-02 +1.39705157e-02 +8.42879526e-03 +6.77934662e-02 +4.72396985e-02 -6.91454038e-02 +1.96674734e-01 +1.09988429e-01 +5.30691706e-02 -2.00807184e-01 -7.43710017e-03 +1.46300346e-01 -8.22434276e-02 +9.10525024e-02 -1.66513678e-03 -1.83192164e-01 -2.37457901e-02 +8.00987482e-02 -6.11206405e-02 -1.04038855e-02 -1.11838758e-01 -1.73452586e-01 -1.67113841e-02 -7.34800696e-02 -1.08495615e-01 +1.34304345e-01 -9.19797458e-03 -4.51636389e-02 +6.40815869e-03 -8.68902281e-02 +2.13904724e-01 -1.49191702e-02 -3.03835630e-01 -7.27452561e-02 -2.40957409e-01 +6.16367422e-02 -5.05784340e-02 -7.46888518e-02 -3.55442613e-02 -7.39258230e-02 -1.88318416e-01 +1.92527045e-02 +4.47654389e-02 -9.06475335e-02 -6.10412695e-02 +8.54697526e-02 +1.34373933e-01 +8.50964040e-02 +2.94570535e-01 +2.62426306e-02 +6.08032271e-02 -1.62964910e-01 +3.02214682e-01 +3.31946462e-02 +1.04580196e-02 +2.61975348e-01 -7.66095445e-02 -2.04027519e-01 -2.08657950e-01 +5.64941727e-02 -2.67545730e-01 -1.86450154e-01 -1.08988672e-01 -1.19967677e-03 +6.42942339e-02 +4.66048598e-01 +3.34265381e-01 +4.27468002e-01 -1.39794812e-01 +6.98366538e-02 -1.22084573e-01 +5.91240972e-02 -2.31223833e-02 -3.45631868e-01 -3.41673583e-01 +2.50879638e-02 -1.14324819e-02 +2.08030199e-03 +8.01354498e-02 -1.25885651e-01 +3.22806060e-01 -1.42663410e-02 +2.37892121e-02 -1.64632931e-01 -6.78030327e-02 +2.52827317e-01 -1.56644940e-01 -8.08826610e-02 +3.47085506e-01 -4.99910824e-02 -1.36360511e-01 -5.21773621e-02 -9.95316207e-02 +8.26979149e-03 +1.25841111e-01 -9.09959078e-02 +9.61875767e-02 +1.21613711e-01 +2.46315729e-02 -5.60355699e-03 -7.26653934e-02 -3.43377620e-01 +9.27453563e-02 +1.98438540e-01 -2.51673348e-02 +4.06010449e-03 -1.18120471e-02 -1.31331116e-01 +3.00085753e-01 +2.41902247e-02 +9.08861402e-03 +1.29953027e-01 +6.26398176e-02 +1.19370498e-01 +1.21263787e-02 -5.92398308e-02 -1.69965297e-01 +2.10186243e-01 -9.27133188e-02 +3.42122018e-02 +6.97263563e-03 +1.10650912e-01 -1.26543432e-01 +4.88290228e-02 +1.28401309e-01 +7.15980083e-02 +5.55518158e-02 +3.12885903e-02 +2.26909757e-01 -8.92138928e-02 +1.74707979e-01 +1.33320853e-01 +1.70053720e-01 -9.18080434e-02 -1.18142642e-01 +6.59189001e-02 +1.49319112e-01 +1.83145896e-01 +1.14291809e-01 +1.42756980e-02 +1.95771605e-02 -2.26640645e-02 -2.58531924e-02 +1.05496876e-01 +1.83416158e-01 +9.28470641e-02 +4.38371375e-02 +1.44081280e-01 -3.16558816e-02 -2.28038616e-02 +8.72091055e-02 -1.10178456e-01 -5.88144362e-02 -1.25284135e-01 -7.36756623e-02 +9.75681394e-02 -5.42623997e-02 -7.02613071e-02 -2.03518033e-01 -2.76186407e-01 +1.22649096e-01 +1.25593081e-01 +3.71784903e-02 +4.20517363e-02 -1.06016695e-01 +1.57616865e-02 +6.87927455e-02 +4.06809803e-03 +1.20573729e-01 +1.96081817e-01 +8.87079351e-03 +1.53136596e-01 +1.16205655e-01 -4.60647285e-01 -1.20043062e-01 -3.55795145e-01 -1.50272965e-01 -8.00425336e-02 -1.08277500e-01 +9.31422263e-02 -3.24865162e-01 +1.10158563e-01 -1.38561755e-01 -6.51904494e-02 +6.23472296e-02 +2.07870111e-01 +2.53128931e-02 -1.84124455e-01 +1.21866003e-01 -3.19356591e-01 +1.25782132e-01 +3.97877097e-02 +3.75661328e-02 +7.40164593e-02 +1.36902064e-01 -1.42038204e-02 +4.55064736e-02 -1.60104647e-01 +3.63475978e-02 +4.57579195e-02 +4.11555767e-02 +3.26421231e-01 +3.18810225e-01 -5.34089766e-02 +3.36694390e-01 +1.13883661e-02 +3.30463536e-02 +1.22390864e-02 +1.42478332e-01 -1.11054398e-01 +9.43887280e-04 +5.07365704e-01 +8.61574337e-02 +2.20168740e-01 +1.13271818e-01 -2.40383185e-02 +8.04919899e-02 +4.48087424e-01 +2.76283205e-01 +7.87403341e-03 +1.15250953e-01 +6.75928891e-02 -7.26389959e-02 -3.60928066e-02 -1.30161375e-01 -4.51835841e-02 +1.07352719e-01 +4.85566556e-02 +1.34627810e-02 -5.48352785e-02 +3.43079902e-02 -3.57388258e-02 +2.52248436e-01 +2.01035410e-01 +2.56362915e-01 -4.62648831e-02 +6.21853471e-02 +1.53415158e-01 +2.16578541e-04 -1.77578986e-01 -2.37727091e-01 +6.91059232e-02 -1.51805088e-01 +9.63783711e-02 +2.70004302e-01 -2.42570341e-01 -7.96203911e-02 +2.84452494e-02 +1.91568568e-01 -6.78782165e-02 +1.53592736e-01 -6.82972446e-02 -6.72658756e-02 -8.71598348e-02 +8.03739950e-02 -6.90801069e-02 +2.81798929e-01 +7.11485073e-02 +2.94198468e-02 +8.91178772e-02 -3.77212875e-02 +1.49995480e-02 +2.19482750e-01 -2.47795805e-02 -1.00290976e-01 -1.72081485e-01 -5.62616698e-02 +2.36265510e-01 +1.27126828e-01 +6.51227310e-03 +1.70217410e-01 +1.52873650e-01 +4.38738018e-02 -3.77477445e-02 -4.05071564e-02 +2.88577303e-02 +3.05515882e-02 -5.70610277e-02 -1.15933366e-01 +2.12188110e-01 -3.08772214e-02 +3.99016254e-02 +1.96248636e-01 -5.46882637e-02 -1.85531110e-01 +2.79482082e-02 +3.66801441e-01 -9.33979675e-02 -4.57114935e-01 +1.18524037e-01 -7.62214139e-02 -5.55884512e-03 -3.21876556e-02 -8.01273584e-02 +5.52482828e-02 -1.46075487e-01 -2.31003940e-01 +3.80468965e-01 +2.28790596e-01 +1.17639847e-01 -3.99379730e-02 +5.35454005e-02 +1.41844302e-01 -7.36419037e-02 -5.41368686e-02 -5.27921654e-02 +1.77124247e-01 -2.03098446e-01 -6.92803925e-03 -1.07916079e-01 +2.19412264e-04 +7.13940412e-02 +1.75721031e-02 -1.16137370e-01 -8.67788419e-02 -3.79288159e-02 -3.93548578e-01 -1.90816849e-01 +7.46977329e-02 -1.11728959e-01 -1.42791733e-01 +1.58299237e-01 +1.72795609e-01 +1.69996079e-02 -8.39701965e-02 -2.31495813e-01 +2.85497606e-01 -5.03552794e-01 -2.77713360e-03 -1.23936862e-01 +1.33758962e-01 -3.62479240e-02 -4.53474335e-02 -7.63440877e-02 +1.23007149e-02 -1.41627148e-01 +7.39953071e-02 -5.08338511e-01 +1.26284063e-01 +1.18443169e-01 +9.32760537e-02 +3.48407120e-01 -9.38783810e-02 +1.28576264e-01 +3.04749683e-02 +8.29611719e-02 +5.84339686e-02 +1.79061648e-02 -2.35049635e-01 -1.14484914e-01 +2.05546364e-01 -9.03021917e-02 +5.56944430e-01 +8.09792429e-02 