#Parameter# /vanilla-lstm-builder/_0 {128,300} 614401 ZERO_GRAD
-1.32718042e-01 +1.76490862e-02 -5.52704232e-03 -1.43433604e-02 -1.73700660e-01 +7.93878511e-02 -1.60141677e-01 -1.88264906e-01 -1.77974179e-02 -1.42919868e-01 -1.74102947e-01 -1.21898269e-02 +2.67378474e-03 -5.72597980e-02 -1.51967108e-01 -1.33086413e-01 +2.10747659e-01 -1.60728574e-01 -2.21834362e-01 -1.02708653e-01 -1.87967211e-01 -1.59464702e-01 -3.79362047e-01 -3.29916552e-02 +7.98680112e-02 +5.70141769e-04 -2.11252272e-01 -1.58073261e-01 -1.07423462e-01 +2.52396017e-01 -4.06797491e-02 -9.40621570e-02 -2.24231072e-02 +1.48709029e-01 +1.54290333e-01 +4.57341038e-02 -1.45042175e-02 -1.02660067e-01 +6.74670711e-02 +1.06532602e-02 +2.69120246e-01 +2.67317072e-02 +1.25470623e-01 -2.09979683e-01 -8.52292776e-02 +9.96476412e-02 -9.14580971e-02 -1.70167126e-02 -7.51611441e-02 -1.66327119e-01 +2.09084958e-01 +2.20197499e-01 -9.54388306e-02 +5.36559783e-02 +1.09941505e-01 -8.09372440e-02 +1.03708290e-01 -1.79517880e-01 -3.07208989e-02 +3.75980027e-02 -1.02105677e-01 +4.02607024e-01 +7.15465248e-02 +1.07737422e-01 +7.32759386e-02 -1.65155172e-01 -1.64082393e-01 +1.69274539e-01 +1.61058083e-01 -2.31828421e-01 +2.44009588e-02 -3.91529888e-01 -1.34619594e-01 -2.21036077e-01 -1.78331062e-01 -9.54585150e-02 +1.10362321e-01 +8.13866034e-03 -4.36985418e-02 -1.58032402e-01 +6.81423098e-02 +6.16875365e-02 -1.84065938e-01 +3.71237285e-02 -8.77313316e-02 -1.19403219e-02 +2.70994663e-01 +4.55868542e-02 -1.21071242e-01 +2.95730680e-01 +2.85991073e-01 +3.82349163e-01 -2.92670149e-02 -3.16664390e-02 +1.64125279e-01 +1.79194182e-01 +1.74647540e-01 -2.27497369e-01 +5.14422432e-02 +2.89361496e-02 +1.52737543e-01 +1.48780709e-02 +3.10927699e-03 +2.46131867e-02 +1.44415975e-01 -2.22073227e-01 +2.36270607e-01 -1.09533653e-01 -5.65599389e-02 -1.42253609e-02 +1.11245491e-01 +1.38552830e-01 -2.20653266e-01 -3.27969939e-02 -1.20042838e-01 +7.44664297e-02 -5.03940247e-02 +7.46691320e-03 +7.26088658e-02 -1.32019058e-01 -1.36115700e-01 +6.44600689e-02 -1.36516348e-01 +7.47135505e-02 -1.09041832e-01 +1.40024304e-01 -6.83746934e-02 -9.58875716e-02 -8.95885527e-02 -2.67765503e-02 -3.28260921e-02 -1.24143675e-01 -1.68889627e-01 -1.35704735e-02 -6.34888485e-02 -3.37833501e-02 -1.22191608e-01 +2.93788500e-02 +5.97370826e-02 -1.93276666e-02 +1.71761643e-02 -2.12078504e-02 +1.90740004e-02 -7.34565258e-02 +1.60572380e-01 -6.85455650e-02 -2.03727201e-01 +1.91135153e-01 -3.22979167e-02 +1.66430380e-02 -3.29357862e-01 -1.99998051e-01 -1.09321661e-01 +1.09000385e-01 -1.63127318e-01 -9.90521014e-02 -2.65548397e-02 +5.76770529e-02 -1.45671785e-01 -1.23981528e-01 -4.51338254e-02 -7.87349194e-02 -2.64237057e-02 +2.00103447e-02 -7.42546469e-02 -4.14268039e-02 +2.92632952e-02 +2.69244108e-02 +2.04562992e-01 -5.96107505e-02 +9.32560936e-02 -3.01839020e-02 -1.68180630e-01 +7.00529665e-02 -6.65746182e-02 -2.38834284e-02 +6.05047271e-02 -1.33482501e-01 +2.54871175e-02 +1.59129217e-01 -2.15964064e-01 -4.50712480e-02 +9.36795473e-02 -4.79993820e-02 +2.57523745e-01 -1.26623109e-01 +4.72336337e-02 -5.69617935e-02 -4.03334983e-02 +2.50897110e-01 -1.86136141e-02 -1.32431418e-01 +6.86363131e-02 +8.62969682e-02 +2.70689372e-02 +8.62506926e-02 +1.53514415e-01 -2.16700301e-01 -3.93672347e-01 -3.85975512e-03 -1.17352657e-01 -2.53831416e-01 -1.19347446e-01 +2.31300145e-02 -3.51602323e-02 -3.78544450e-01 +7.48219937e-02 +1.77544309e-03 +6.88724965e-03 -4.87192683e-02 -2.19651908e-01 -2.92629004e-01 +9.51443687e-02 +1.27949208e-01 +1.42718107e-01 -1.24504790e-01 -9.36786756e-02 +6.36325777e-02 +1.21104181e-01 -5.43070063e-02 -1.45027280e-01 +3.35319713e-02 +1.54529326e-03 +9.85548347e-02 +1.88706994e-01 -1.11452095e-01 +1.85135975e-01 -1.12951592e-01 +6.87215850e-02 +6.44743815e-02 +1.01266079e-01 +1.27488762e-01 -6.94941580e-02 -1.78461283e-01 -5.12540303e-02 -2.46060088e-01 -5.46655208e-02 -6.37538508e-02 +1.67495459e-01 -2.61778068e-02 -3.25312138e-01 -3.66536565e-02 +7.15444088e-02 +1.64352670e-01 +1.31025910e-02 +1.73492447e-01 -3.14618200e-01 +1.20990537e-01 -1.76488310e-01 +6.67647421e-02 -1.51926979e-01 +2.90806722e-02 -1.43320128e-01 -9.67632532e-02 -1.09907173e-01 -1.52707100e-01 -4.97385822e-02 +7.43570970e-03 +7.87591040e-02 +7.70516843e-02 -4.59181480e-02 +1.71330832e-02 -1.87025726e-01 -7.89697841e-02 -4.94650751e-02 -1.35618806e-01 +1.67856544e-01 -1.01799339e-01 +6.51416406e-02 -2.04752967e-01 +5.43280691e-02 +9.03401524e-02 -4.46548499e-02 +5.81711158e-02 +1.79319996e-02 +8.31036493e-02 +1.28512159e-01 -1.70546453e-02 +1.47632450e-01 -1.60527155e-01 -3.49597596e-02 -1.43628061e-01 -4.40898445e-03 -1.92598831e-02 +6.68300374e-04 -7.34526385e-03 -1.11015238e-01 -4.58274558e-02 -1.06853172e-01 -1.37487903e-01 -4.32148129e-01 -1.06622666e-01 +1.41537162e-02 -1.35274142e-01 +1.82140637e-02 +2.09568776e-02 +6.81011602e-02 -7.11717904e-02 -2.33431235e-02 +2.09740430e-01 +1.17629217e-02 -5.10783643e-02 +8.20122510e-02 -3.77747491e-02 -1.22945480e-01 -2.83367801e-02 -9.68102887e-02 +1.21896148e-01 -1.98931590e-01 -2.50676304e-01 +4.80974019e-02 +2.49419697e-02 -2.68139299e-02 +4.36007902e-02 +9.66787264e-02 -2.94596493e-01 +5.27163595e-02 +1.74248457e-01 -6.93857297e-02 -1.54470354e-01 -1.67793244e-01 +1.33445799e-01 -1.23348482e-01 +7.42928386e-02 +5.39585687e-02 +2.23510683e-01 -1.09562770e-01 -2.12309584e-02 -1.35479867e-01 -6.12204909e-01 +1.29316784e-02 +3.42733674e-02 +2.15149269e-01 -4.95436817e-01 +2.78316379e-01 +3.55181843e-01 -4.18907821e-01 +1.52646273e-01 -1.96550816e-01 -1.24289922e-01 -2.27209806e-01 +1.79909185e-01 -1.94547847e-01 +6.04295544e-02 +2.70296298e-02 -4.03846622e-01 +6.53148890e-01 +5.31007238e-02 +1.54302374e-01 -8.87108073e-02 +2.94662803e-01 +2.62782544e-01 -1.59551110e-03 +1.32025555e-01 +3.51762623e-02 -1.64850175e-01 -5.33636287e-03 +7.56086111e-02 +1.55932903e-01 +9.30044726e-02 -2.57582255e-02 -6.70941100e-02 -1.37343839e-01 -1.96486980e-01 -3.48164365e-02 +3.26383077e-02 +1.86263751e-02 -1.01755895e-01 -1.30901173e-01 +1.70585457e-02 +9.43844318e-02 +3.32931839e-02 -1.27208531e-01 -3.05138119e-02 -1.25913605e-01 +1.12376459e-01 +7.90537000e-02 +1.08003482e-01 +1.16637185e-01 -7.72693977e-02 -3.33976448e-02 +4.77622747e-02 +1.31040886e-01 +1.00078806e-02 -1.69173256e-01 -1.68643743e-01 -2.65259176e-01 -5.16385138e-02 -1.28349647e-01 -1.48158491e-01 -6.52402043e-02 -2.37307474e-01 -2.65262902e-01 -8.40392113e-02 -4.89502773e-02 -3.23979765e-01 -2.50620544e-01 -4.47179526e-02 -5.11161890e-03 -2.40012854e-01 +5.04105277e-02 -2.01374754e-01 -1.53635412e-01 -1.44909292e-01 -6.04214706e-02 -8.65549520e-02 +4.69156615e-02 -1.85852304e-01 -2.30941549e-01 -2.10270464e-01 -1.41845912e-01 -7.36678541e-02 -1.96720049e-01 -1.12991899e-01 -8.33864883e-02 -6.52185977e-02 +6.66882247e-02 +8.91020149e-02 -2.27216482e-01 -1.32887587e-01 -1.90031335e-01 +4.61059175e-02 +6.67390088e-03 +1.55406699e-01 +2.18092993e-01 -3.32444087e-02 -5.34053333e-02 +2.10485458e-02 -7.04323640e-04 -9.73536670e-02 +1.87970605e-02 +1.04332604e-01 -1.34583816e-01 -1.19463794e-01 +3.21492314e-01 +4.26450260e-02 -4.17489111e-02 +1.86584312e-02 -5.40149957e-03 -5.23241200e-02 +6.68655410e-02 +3.03106685e-03 +4.59109694e-02 -7.83467889e-02 +2.42297817e-02 +2.47413129e-01 -9.49117020e-02 +1.42104551e-01 -1.97989289e-02 -1.38214141e-01 -2.54663080e-01 +2.82819308e-02 -1.55588672e-01 +1.25197247e-01 -2.36612692e-01 -2.41426304e-01 -1.09499753e-01 -2.73500711e-01 -8.31014141e-02 -1.83292300e-01 +2.87879221e-02 +1.24069806e-02 +2.49732181e-01 -4.92801890e-02 -1.61931738e-01 -4.03631330e-02 -2.57956535e-01 -1.58482224e-01 -1.09360844e-01 +2.99466308e-02 -9.97758210e-02 +1.83757037e-01 -1.00641824e-01 +2.40492657e-01 +2.88287640e-01 -1.84841573e-01 -1.16218515e-01 +4.33320664e-02 +1.61356956e-01 +5.75316995e-02 +1.26184791e-01 +4.90642115e-02 -3.20299231e-02 -8.31175223e-02 +8.07552189e-02 +7.71756321e-02 +9.93240252e-03 -4.62680347e-02 +1.01052187e-01 -3.80399972e-02 +1.80124089e-01 +1.05385162e-01 +3.89753841e-02 -1.55163229e-01 +1.85029268e-01 +2.46746168e-01 -3.63981759e-04 -1.49610117e-01 -5.50407991e-02 +1.25218689e-01 -1.51507929e-01 +2.15350203e-02 -1.06534913e-01 -2.71546301e-02 -1.36869997e-01 +1.11293472e-01 -1.90673530e-01 -2.55015075e-01 -3.98542825e-03 -1.33821517e-01 -6.78333566e-02 -7.77544752e-02 +4.01085988e-03 -1.31854877e-01 +6.48483783e-02 -6.43572733e-02 +4.86859605e-02 +1.05383992e-02 +2.23378628e-01 -3.19594108e-02 +1.44376233e-01 +1.70034826e-01 -4.71218005e-02 +2.11933717e-01 +8.19659617e-04 +1.03796460e-01 +1.28724143e-01 +2.20536720e-02 -1.17009692e-01 +1.24542616e-01 +2.75286883e-01 -8.21113884e-02 +9.94344335e-03 +8.93381424e-03 +2.12283492e-01 +2.61584241e-02 +1.11043006e-01 +1.02873661e-01 +7.42369518e-02 -2.07219385e-02 +1.85783744e-01 +1.27673656e-01 +7.09898248e-02 -5.20818052e-04 +1.14224099e-01 -7.20808655e-02 +1.31519228e-01 +9.27655697e-02 -1.31486878e-01 +1.16532765e-01 -2.30442397e-02 -4.48265448e-02 +9.42435041e-02 -6.10572882e-02 +6.05250299e-02 +2.14680657e-03 +4.59764302e-02 +1.32291973e-01 -5.37906811e-02 -4.85574827e-02 +7.98123330e-02 +1.42963365e-01 +4.64579612e-02 -2.55200341e-02 +5.05655967e-02 +3.56147587e-02 -1.61635220e-01 +1.35776311e-01 -1.69605508e-01 +1.41177131e-02 -6.31818920e-02 +1.90084890e-01 -8.21489468e-02 -4.81211506e-02 -6.04473576e-02 -4.35007317e-03 +1.49080440e-01 +8.71745870e-02 +1.29165009e-01 -9.45440959e-03 +1.11408748e-01 -2.63540655e-01 +2.21663326e-01 -6.90414608e-02 +1.03935353e-01 -3.69095840e-02 +2.00076848e-01 +1.97482616e-01 -7.94466361e-02 +1.94806203e-01 -2.51525402e-01 -3.52318168e-01 +3.64870965e-01 -1.30092225e-03 +1.38389051e-01 +1.53494060e-01 +1.82048187e-01 -2.06817463e-01 -1.01693556e-01 -8.76555592e-02 +9.98562351e-02 -2.24100143e-01 -4.02934283e-01 +9.60032567e-02 +8.97293091e-02 +5.93440793e-02 -1.86478555e-01 -4.13776875e-01 +1.07420161e-01 +1.45155579e-01 +3.09144929e-02 +4.36713919e-02 -1.33771315e-01 -1.65162683e-01 -8.54270533e-02 +3.10476609e-02 -2.75319278e-01 +4.18716259e-02 +8.17945898e-02 +8.25574324e-02 +9.82803330e-02 +7.84923956e-02 -2.62159873e-02 -1.67159643e-02 +5.55947237e-03 +6.66795895e-02 +1.44790351e-01 +5.31013217e-03 +3.04806400e-02 -4.40115556e-02 +1.58402890e-01 -1.23238433e-02 +7.54382312e-02 +4.43648361e-02 +2.12403044e-01 -1.16534740e-01 +8.68203864e-02 +1.30052254e-01 +2.71204412e-02 +9.93015617e-02 +1.55690014e-01 +1.61333367e-01 +1.58811867e-01 +6.56290576e-02 -2.55936533e-02 +1.23397186e-02 +1.07388437e-01 +4.51518297e-02 +1.77160934e-01 +3.89465597e-04 +1.08865641e-01 +1.06608607e-01 +9.74496007e-02 -2.26285905e-01 +1.06002726e-01 -2.84380000e-02 +2.39812344e-01 +1.54044256e-01 +1.28290504e-01 +8.04411322e-02 +2.25416794e-01 +3.09153777e-02 -7.40523636e-02 +1.91802122e-02 +5.19298799e-02 +7.33555034e-02 -1.35034751e-02 +5.97880632e-02 +1.15994103e-01 -4.16362397e-02 -2.53662039e-02 +3.11986785e-02 -6.02833703e-02 +6.73984140e-02 -7.80198947e-02 +2.62677278e-02 +1.25191346e-01 -1.95166841e-02 +1.04413508e-02 +1.47407696e-01 +5.31306118e-03 +5.37480824e-02 -7.79817775e-02 +2.33576447e-01 -5.35852695e-03 +8.67235139e-02 +1.09014235e-01 -4.79707830e-02 -1.50997952e-01 +5.77468006e-03 -2.13121966e-01 +1.56287536e-01 +6.34490699e-02 -9.12398845e-03 +1.38030082e-01 +1.21238396e-01 +3.63158397e-02 -8.58750567e-02 -7.63431937e-02 -1.55630767e-01 +1.07050218e-01 +5.10130152e-02 +6.74627274e-02 -2.59885918e-02 +1.52989626e-01 +2.58415550e-01 -4.37047370e-02 -4.51126194e-04 +1.12789288e-01 +3.09401955e-02 -2.02165395e-01 +1.45451203e-01 +1.44871995e-01 -2.79949605e-02 +1.88449934e-01 -1.14819361e-02 +2.23489642e-01 -2.11712897e-01 +3.57725084e-01 +3.05925459e-01 +7.01008514e-02 +6.12608910e-01 -1.71536524e-02 -3.50259244e-01 +1.07537568e-01 +2.00784221e-01 +2.28136286e-01 -2.06370968e-02 +4.12157439e-02 -2.37546146e-01 +1.91947877e-01 +2.73620158e-01 +1.60566717e-01 +3.94773036e-02 +1.71076417e-01 +2.23196894e-01 -2.61437029e-01 +2.86899507e-01 +8.94911587e-02 +3.11286092e-01 +1.81614429e-01 -1.33452311e-01 +1.50067005e-02 +5.33809401e-02 +1.28660977e-01 +6.33671507e-02 -1.80900738e-01 +2.25569382e-02 -5.48196845e-02 -5.46421260e-02 +1.34331780e-02 -1.34338945e-01 +6.96392655e-02 -3.03660668e-02 -9.43897665e-02 -9.44359228e-02 +1.04084618e-01 -5.68931065e-02 -2.59255975e-01 -1.03527665e-01 +2.58345697e-02 +2.25696284e-02 +4.63982373e-02 +1.18873440e-01 +1.99435279e-02 +8.20561722e-02 +1.83472916e-01 +1.13131784e-01 -7.94649422e-02 -3.58350366e-01 -6.95749447e-02 -1.03804812e-01 -1.66272014e-01 -2.56033927e-01 -7.08087087e-02 -2.94225439e-02 -1.01527147e-01 -1.00341812e-01 -8.91579762e-02 -6.32222043e-03 +4.14563082e-02 +1.27661496e-01 -1.11102857e-01 -1.10089950e-01 +4.84998748e-02 -2.44432241e-01 -1.46059692e-03 +4.27567475e-02 -7.34613910e-02 -1.56669050e-01 -6.40205517e-02 -1.64475977e-01 -1.01974949e-01 -1.22578114e-01 -1.08201489e-01 -2.99891420e-02 -1.46269053e-01 -1.50206029e-01 -3.43832672e-02 -1.45748913e-01 -1.43473640e-01 -5.11515513e-02 +6.94541540e-03 -1.33915275e-01 -1.63193911e-01 +2.05199998e-02 +2.74112727e-02 -1.41847149e-01 +8.27672854e-02 +6.92476565e-03 -5.17615937e-02 +7.46111497e-02 +1.18021660e-01 -1.01926938e-01 -4.64148894e-02 -7.44787157e-02 +9.79852527e-02 +9.64673460e-02 +1.07402138e-01 -2.20778659e-01 -4.29541059e-02 +1.99147955e-01 +7.29119331e-02 +2.37592589e-02 +1.30065501e-01 +2.64290236e-02 +4.69281077e-02 -1.43989259e-02 -1.43797129e-01 -2.43591033e-02 +3.90297510e-02 +1.23337917e-01 -1.55935973e-01 -2.34625146e-01 -3.14318836e-02 -3.33367258e-01 -3.67556423e-01 -1.14848994e-01 -1.69284970e-01 -2.03775684e-03 -3.77985947e-02 -2.12157164e-02 -5.00472248e-01 -2.58788288e-01 -1.93927348e-01 +2.70329803e-01 -1.70112863e-01 +1.27966935e-02 -2.59659141e-02 -3.96816462e-01 -1.78584501e-01 -1.02453150e-01 -8.42070673e-03 +1.04620181e-01 -5.27131818e-02 +3.19849700e-02 -1.54666111e-01 +1.45160958e-01 +1.02065936e-01 -7.35446632e-01 -1.00855403e-01 -2.53889292e-01 -2.28183120e-01 -1.18610092e-01 +1.59621775e-01 -1.91094517e-03 -1.27623290e-01 -2.96668768e-01 -4.67575900e-02 +1.54000029e-01 -5.50775267e-02 -1.22723728e-01 -2.60039885e-02 -1.33100957e-01 +1.70090526e-01 -6.74476922e-02 +4.93950807e-02 -4.80763316e-02 +6.92782253e-02 +5.47006913e-02 -4.82625999e-02 -1.36299163e-01 -2.13090274e-02 -3.08992919e-02 -2.03928337e-01 -8.31091218e-03 +2.49056965e-02 +3.44695710e-02 +3.66096236e-02 +1.68565854e-01 -2.80512832e-02 -7.61810467e-02 -3.08304168e-02 -1.49751147e-02 -4.16245721e-02 -9.12995860e-02 -5.43315010e-03 -1.52406413e-02 -1.59041658e-01 +1.67502105e-01 +6.30005896e-02 -1.12333633e-02 +1.49434537e-01 +9.77210999e-02 +1.02192620e-02 +6.90399855e-02 -3.19623053e-02 +4.67937551e-02 +2.37838700e-02 -1.21928947e-02 -3.96025702e-02 -5.35286963e-02 -1.66105628e-01 -6.52617887e-02 +1.32291466e-01 +4.34320681e-02 +7.70336986e-02 -7.38309324e-02 +2.47152090e-01 +1.43437386e-01 +1.30515933e-01 -3.19381361e-03 -2.55462825e-02 -5.55161461e-02 -5.57680130e-02 +9.69824120e-02 -5.58994934e-02 +1.13303050e-01 +1.63134247e-01 +3.21980231e-02 +2.41242768e-03 -1.32063497e-03 +4.91094366e-02 +7.22427815e-02 +1.53728366e-01 +3.21880817e-01 -3.02486181e-01 +9.50818285e-02 +7.65870558e-03 -2.11983338e-01 +6.00872897e-02 -3.19451205e-02 +6.93849698e-02 -7.01760361e-03 -1.19841859e-01 -4.10191417e-02 +5.78643456e-02 +8.36150050e-02 +8.15169290e-02 +7.17281327e-02 -9.86378118e-02 -1.51497662e-01 +3.57531942e-02 +8.41651112e-02 -3.96637209e-02 +9.10882428e-02 -4.93517204e-04 -2.05186065e-02 +9.04418454e-02 -1.35908186e-01 +1.00351751e-01 +7.97757804e-02 +8.58712494e-02 +2.35150933e-01 -1.55953363e-01 -9.22944918e-02 -3.46560985e-01 +1.11290671e-01 +7.57196546e-02 +3.15006644e-01 +2.47177392e-01 +1.69511199e-01 -2.74452008e-02 -1.25244558e-01 +3.14431787e-01 +4.33291674e-01 -9.78714414e-03 -3.33190002e-02 -4.14622128e-02 -6.60595670e-02 -1.70877442e-01 -1.32479444e-01 +4.22016770e-01 +9.98553559e-02 +5.22922464e-02 +1.94856152e-01 -1.37523025e-01 -1.03594869e-01 -1.51910424e-01 +7.30125755e-02 +1.41295999e-01 +7.23240748e-02 -1.22170024e-01 +2.64930964e-01 -7.72080049e-02 +6.17339015e-02 +8.74128267e-02 -4.68490236e-02 -8.59798267e-02 +1.16372988e-01 -5.24331927e-02 +1.14175165e-02 -8.95020142e-02 -1.05278768e-01 -5.33446334e-02 -6.76697940e-02 +6.60192519e-02 +4.04120386e-02 -2.29514539e-01 +1.28639981e-01 -2.42727578e-01 +1.32411867e-02 +2.62882143e-01 -7.76557922e-02 -1.58724755e-01 -1.91466659e-01 +2.52719581e-01 -1.48898095e-01 +1.22230604e-01 +2.11947858e-01 +9.17282999e-02 -5.74696511e-02 -6.52687922e-02 +1.04338929e-01 +1.17897570e-01 -4.46416214e-02 -1.12822317e-01 -8.74366611e-02 -9.77730900e-02 -1.02471910e-01 -4.99751121e-02 +3.62414308e-02 -1.07282445e-01 +9.10388231e-02 -5.31862788e-02 -8.62540118e-03 -9.73332971e-02 +2.50667244e-01 -7.93729648e-02 -1.04465917e-01 -1.05460092e-01 -1.37747616e-01 -9.19124782e-02 -1.60407543e-01 +1.58159081e-02 -2.12974116e-01 -1.39195174e-01 -4.09589075e-02 -5.40510528e-02 -9.80403572e-02 -1.25364572e-01 +7.36005455e-02 -1.72302444e-02 -6.27094135e-02 +2.72449083e-03 -1.17567323e-01 -3.03712720e-03 +2.25772634e-01 +3.00899893e-01 -8.86826888e-02 +2.03082502e-01 +4.66313399e-02 +1.71800330e-02 -1.29561752e-01 +1.93363756e-01 -7.97412023e-02 +9.04421732e-02 +3.19545180e-01 -5.56781888e-03 -3.26575711e-02 +2.30716877e-02 -2.75562424e-02 -3.67678553e-02 -3.19558121e-02 +1.00428417e-01 +2.88902242e-02 -1.18038923e-01 +1.25188395e-01 +5.72005957e-02 +6.25444204e-02 -2.58539002e-02 -3.17576854e-03 +3.66396494e-02 +1.18256010e-01 +5.77072725e-02 -8.62000585e-02 -4.83876429e-02 +1.37343481e-01 -4.43726741e-02 -1.03995144e-01 +3.76183800e-02 +2.01379493e-01 +2.45389089e-01 +2.50127912e-02 +1.05099576e-02 -5.18465161e-01 -1.13063008e-02 -2.87506700e-01 -1.43642694e-01 +1.79339293e-02 -1.40497342e-01 +1.50577962e-01 -5.45596659e-01 +7.37359896e-02 +8.02185610e-02 -3.94300520e-01 +6.72144592e-02 +4.00093913e-01 -2.89476011e-02 -7.94849992e-02 -5.60815334e-01 +3.81989516e-02 -7.92199075e-02 +1.07778698e-01 -3.06978561e-02 +1.59249380e-01 +1.53385296e-01 -2.99000412e-01 -5.62541902e-01 -2.86912750e-02 -9.68483165e-02 -4.64097828e-01 +2.03042343e-01 +5.34829572e-02 -1.46574154e-01 +7.84020573e-02 -1.27685830e-01 -1.77606970e-01 -6.75461963e-02 -9.88680050e-02 +1.82072341e-01 -7.90078118e-02 -9.45444554e-02 -4.17891936e-03 +2.11875409e-01 +1.43518507e-01 +2.09375873e-01 -1.29557267e-01 +1.80331200e-01 -1.91541776e-01 -1.60701230e-01 +1.14391327e-01 +7.02447370e-02 -2.90152356e-02 -1.63024619e-01 +4.83245738e-02 -1.54604644e-01 +1.53556824e-01 -1.12203293e-01 -1.91006325e-02 -1.04270220e-01 -1.33881792e-01 -5.34940548e-02 -2.22180411e-02 -2.09471628e-01 +1.33780017e-01 -1.04608372e-01 -4.90195900e-02 -3.18994448e-02 +7.81656280e-02 -2.66986303e-02 -1.03515819e-01 +4.20029908e-02 -1.04789168e-01 +1.74772311e-02 -2.54158318e-01 -1.26163229e-01 +6.88864589e-02 +9.95252505e-02 -6.30597025e-03 +8.47024918e-02 +3.63590233e-02 -1.01630707e-04 -6.88379556e-02 +1.14516832e-01 -1.71127930e-01 +5.04378639e-02 -2.24164175e-03 +5.86701445e-02 -1.00749590e-01 -5.28711937e-02 +3.84247713e-02 +4.95806187e-02 -7.77330995e-02 -9.18718278e-02 -1.30718678e-01 -1.91683903e-01 -2.06751838e-01 -1.49319708e-01 -9.03278664e-02 +9.42397937e-02 +1.66884616e-01 -1.14391491e-01 -1.25447825e-01 -7.09055662e-02 +3.05084586e-01 -1.24433711e-02 -1.40322968e-02 -5.86690530e-02 -7.26008862e-02 -1.79128319e-01 +4.69574332e-02 -4.12840676e-03 -1.05296513e-02 +1.23612113e-01 -1.49995536e-02 +4.01882008e-02 +5.77057749e-02 -4.89663193e-03 +1.53881878e-01 -6.55378727e-03 -1.79804638e-02 +2.61726119e-02 -2.32554157e-03 -4.19538654e-02 -1.57405302e-01 +3.91831100e-02 -5.82513660e-02 -1.36657596e-01 -1.55983582e-01 -3.84480774e-01 +3.31780575e-02 -1.61214232e-01 +3.44931781e-02 +3.13715599e-02 -2.18831748e-02 -1.92286581e-01 -9.79794636e-02 +2.60767192e-01 -2.36633178e-02 +3.81487370e-01 +1.33839652e-01 -2.44060114e-01 +1.27264500e-01 -3.11949961e-02 -3.38265374e-02 +2.25487668e-02 +1.31960660e-01 -6.79391176e-02 -2.07623988e-02 -2.82029640e-02 -6.50270432e-02 +5.37730813e-01 -1.30660951e-01 +1.12975545e-01 +7.73782656e-02 +3.45070481e-01 +1.89000800e-01 -7.65313976e-04 +3.62404138e-02 -1.25047192e-01 -1.81147426e-01 +1.66506842e-01 +1.93711519e-02 +4.51860130e-02 +1.87255383e-01 +5.41800186e-02 -1.14234194e-01 -7.94071630e-02 +1.27065092e-01 +1.12598203e-01 -1.66169956e-01 +5.48518114e-02 +9.69224703e-03 +5.04419133e-02 +8.36317837e-02 -1.55676812e-01 +1.43875360e-01 -3.35087925e-02 -1.72914788e-02 -7.07336590e-02 -1.48389548e-01 +7.37810582e-02 +7.06616119e-02 +4.15177830e-02 +1.70335509e-02 +7.49823973e-02 -4.24120128e-02 -6.66126385e-02 -7.44809583e-02 -1.44278511e-01 +1.00814760e-01 -2.54882444e-02 -2.26302501e-02 -1.74168453e-01 +6.52073249e-02 +1.02278657e-01 -9.42901894e-02 -1.11666143e-01 +1.16233766e-01 -2.36625567e-01 +4.52392362e-02 +4.06121053e-02 +2.12180763e-01 +1.28839109e-02 +9.70148891e-02 -1.47980824e-01 +3.03386766e-02 +4.02564369e-02 -8.24598595e-02 -1.79319814e-01 +1.02929033e-01 -2.02113762e-01 -1.61185533e-01 -2.96272547e-03 +3.06939065e-01 +1.05623834e-01 -2.09369421e-01 -3.68661210e-02 -2.71720067e-02 -1.00205496e-01 +9.07791108e-02 +1.07440792e-01 -2.23226100e-01 -3.26904088e-01 -5.79295680e-02 -2.46584173e-02 -5.25552407e-02 +1.52679160e-01 -1.63703635e-01 +6.78795576e-01 -1.70006648e-01 +2.39399821e-01 +6.25790879e-02 -6.07251795e-03 +3.33891553e-03 +4.19159941e-02 +7.23469704e-02 +1.93224117e-01 -2.79327463e-02 -1.89957052e-01 -2.55927481e-02 -5.36666578e-03 -1.87651813e-01 -1.23254955e-01 -1.33579955e-01 -1.71826348e-01 +5.02403229e-02 +8.14064145e-02 +3.67073156e-02 -1.77182611e-02 -3.82049493e-02 -6.23487532e-02 +2.77394876e-02 -4.09027815e-01 +8.83127972e-02 +9.30963233e-02 -3.25869262e-01 -5.20474790e-03 -2.16515511e-01 -2.53989637e-01 -1.96611941e-01 -6.95356131e-02 -1.42252460e-01 -7.86556229e-02 -9.08529982e-02 -2.35833541e-01 +1.21445507e-01 +2.16984123e-01 +2.09432930e-01 -3.77120986e-03 +1.74400583e-01 -1.79237440e-01 -1.03208892e-01 +1.84461772e-02 -3.33027631e-01 -9.48396772e-02 -5.58368146e-01 -9.05900374e-02 -1.13175750e-01 +1.64283037e-01 -3.69688988e-01 -1.57658726e-01 -2.35659480e-01 +1.68252081e-01 -2.08377335e-02 +1.29791453e-01 +1.29220441e-01 +1.55758783e-01 -5.78558743e-02 -4.41695079e-02 -6.37348648e-03 -1.11025140e-01 +8.22554342e-03 -1.64193258e-01 -8.99659991e-02 +3.85701805e-02 -1.82255358e-01 -5.29544204e-02 -8.66854843e-03 -4.39661667e-02 +5.00766337e-02 -9.39128399e-02 -1.24951877e-01 +8.89791697e-02 +3.15935463e-02 +1.81246564e-01 +2.68398486e-02 +4.20689285e-02 +3.29452939e-02 +1.61761805e-01 -1.87130272e-01 +5.96003514e-03 -3.43317538e-02 -8.78820717e-02 +6.68599233e-02 +2.82092858e-02 +1.43005282e-01 +6.00968227e-02 +2.14994363e-02 +1.59599841e-01 -2.68326956e-03 +1.00477360e-01 -1.18256849e-03 +2.92071495e-02 +1.98515788e-01 +6.06658123e-02 +9.00165886e-02 +1.46033084e-02 +2.22823262e-01 +1.42136170e-02 +3.06072738e-02 -2.59715319e-02 -5.71734160e-02 -3.27967644e-01 +8.43625069e-02 -8.92904922e-02 +1.77223191e-01 -1.40359607e-02 +7.57209957e-02 +1.55276909e-01 +1.19117692e-01 +3.95297259e-01 +1.47616148e-01 +8.22800025e-02 -2.95297764e-02 +1.91547111e-01 -2.31395751e-01 -8.32684860e-02 +1.32036254e-01 +9.04501453e-02 -7.84043521e-02 -1.10005870e-01 +3.63101438e-03 +7.41362274e-02 -7.71053061e-02 +1.33850008e-01 +1.35294691e-01 -4.23229069e-01 -2.79856697e-02 -5.45201004e-02 -5.56597672e-02 -1.26958862e-01 -6.28024489e-02 -3.07171680e-02 -4.64252271e-02 -2.03593131e-02 +7.58149624e-02 -5.00619054e-01 -2.28304699e-01 +4.82981764e-02 +2.62062922e-02 -2.32610554e-01 +1.09900892e-01 -5.57030201e-01 +2.02183932e-01 -5.84331676e-02 -1.37199238e-02 +9.35719721e-03 -1.28802523e-01 +8.03813636e-02 -3.27496827e-02 -3.97748709e-01 -5.52263372e-02 +1.19002670e-01 +1.75686702e-01 +7.85467774e-02 +2.74907500e-01 +3.82420987e-01 +2.87255440e-02 +1.02275498e-01 +1.68059215e-01 +2.11862907e-01 +2.53751487e-01 +1.66170835e-01 -3.29919517e-01 +8.20140317e-02 +3.32916081e-01 -2.17258856e-02 -3.00359070e-01 -8.82082880e-02 +4.10101742e-01 +1.61930081e-02 +8.23698193e-02 +3.56977917e-02 -1.71489529e-02 +1.06223993e-01 -1.41765937e-01 +1.57616735e-01 -2.14148208e-01 -6.81660101e-02 -6.00072071e-02 +5.87570705e-02 +2.39209190e-01 -6.15743101e-02 -1.01095125e-01 +1.66776165e-01 +1.22457460e-01 +2.89231449e-01 -3.31162252e-02 -1.43130839e-01 -5.59454435e-04 +2.10071355e-02 -7.61562027e-03 -1.65474325e-01 -3.56247902e-01 -1.14882305e-01 +3.15144695e-02 +1.22531772e-01 -1.29493788e-01 -1.76177680e-01 +7.95388296e-02 -3.35503340e-01 -1.30609706e-01 +1.28057241e-01 +4.46903780e-02 -6.27866015e-02 -2.84850836e-01 +2.58489400e-01 -2.40550548e-01 +1.62151203e-01 +2.95250148e-01 +7.94309229e-02 +2.76539605e-02 -1.20707033e-02 +1.23867221e-01 +6.58041984e-02 -1.67866364e-01 -1.90925613e-01 +2.39928700e-02 -2.63955146e-02 -4.23145667e-02 +3.39250416e-02 -2.08514109e-01 +6.46499470e-02 -1.53411627e-01 -4.36655656e-02 -2.51254588e-01 -5.56854792e-02 -1.69961959e-01 +3.44718322e-02 -7.68220872e-02 +2.68639088e-01 +6.30241185e-02 +1.17451288e-01 -5.37670031e-02 +4.33341339e-02 +8.94698780e-03 -8.14747885e-02 +3.17041613e-02 -1.04024306e-01 -1.04196042e-01 -1.22604687e-02 +5.03409617e-02 -4.61552404e-02 -1.22493103e-01 +7.82765895e-02 +1.79098751e-02 -1.11154564e-01 -3.80397499e-01 -1.69414371e-01 -1.08478963e-01 -1.11982919e-01 +4.10789773e-02 +2.09150817e-02 -2.78799366e-02 -2.22703870e-02 -1.23522483e-01 -8.46338794e-02 +3.24759185e-01 -2.31127851e-02 +7.08988169e-03 -7.58978203e-02 -5.68106174e-02 -1.26206905e-01 -8.72964412e-02 +3.08279265e-02 -8.01213980e-02 +9.51137096e-02 -2.91864015e-02 -2.14683235e-01 -1.38319701e-01 -1.30666450e-01 +1.04884215e-01 -7.55206794e-02 -1.01415306e-01 +5.82007729e-02 -2.64776237e-02 -7.51907378e-02 +1.02249131e-01 -3.90240066e-02 -1.61552072e-01 -1.27085000e-01 -1.75133929e-01 -2.00649217e-01 -3.70908201e-01 -3.56339246e-01 -4.98579927e-02 -1.42614856e-01 +1.95297793e-01 -2.85522223e-01 -1.21841259e-01 +3.04374900e-02 -3.83085851e-03 +2.68031657e-01 -1.95844024e-01 -1.60479963e-01 +5.70611469e-02 +9.15867537e-02 +3.00297160e-02 +1.81548223e-01 -2.01196283e-01 -5.41475713e-02 -3.22087854e-01 +2.02277638e-02 +2.50645638e-01 +4.19766121e-02 -5.03486574e-01 +2.47447982e-01 +3.58056128e-02 +1.65503487e-01 -4.92441505e-01 +9.14065391e-02 +1.70851469e-01 -2.75343299e-01 -8.28968808e-02 -4.11623670e-03 -1.64246544e-01 +3.66241336e-02 +1.34048671e-01 -2.31593195e-02 +6.66917488e-03 -4.78385650e-02 +3.38625342e-01 +3.02123055e-02 +2.49345712e-02 +9.77814347e-02 +1.33611962e-01 -7.40652904e-02 +1.28371760e-01 +9.87879187e-02 +1.49337620e-01 +1.97280914e-01 -1.44976720e-01 -1.92640647e-01 -6.53743148e-02 -1.10785170e-02 +6.55659288e-03 -3.68493125e-02 -2.87695944e-01 +4.38752845e-02 +1.39111623e-01 -9.67261568e-02 -7.67162815e-03 +5.21639176e-03 +9.09702200e-03 -2.01777704e-02 -6.39533624e-02 +2.25752052e-02 +1.54652506e-01 +3.81078804e-03 -1.56789937e-03 +9.59169194e-02 +5.85415289e-02 -1.57086626e-02 +6.25704229e-02 +1.46314025e-01 -2.24682055e-02 -1.48279136e-02 +6.99886754e-02 +1.18175708e-01 +1.31686345e-01 +1.40870586e-01 -1.61826208e-01 +6.95271492e-02 +5.62651195e-02 +7.34190047e-02 +3.37805748e-02 -1.27281114e-01 +8.79171342e-02 -4.85578142e-02 -5.91807701e-02 +3.51117551e-02 +1.88147724e-01 -4.28149775e-02 +6.07698523e-02 +1.48498699e-01 +5.14524914e-02 +2.63807267e-01 +1.84282124e-01 -2.10994482e-02 -1.05354212e-01 -9.05806124e-02 +9.70839188e-02 -5.43881617e-02 +2.77684797e-02 +5.41950949e-02 -1.14966705e-01 +8.88519734e-02 -7.80636147e-02 +8.42549950e-02 +8.46626610e-02 -1.68503840e-02 +2.71413829e-02 -2.43678689e-02 +9.27778019e-04 -6.52351677e-02 -1.09475501e-01 +1.44427270e-01 +1.03035253e-02 +4.18733880e-02 -1.04308300e-01 +5.96083291e-02 +9.13015381e-03 -8.37863088e-02 +9.67789665e-02 -6.02091104e-02 -1.38969675e-01 -5.93887940e-02 +1.44162267e-01 +4.71465550e-02 +2.30275735e-04 -2.61465609e-01 +1.33738160e-01 -2.43201941e-01 +1.35481641e-01 +1.89205125e-01 +1.82058260e-01 +9.45342407e-02 -8.87763873e-02 +8.19592476e-02 +6.96887150e-02 +2.15160728e-01 +2.21853212e-01 +1.21314034e-01 +6.46736503e-01 +2.64228195e-01 -1.58715084e-01 -9.83359199e-03 +6.85072467e-02 +6.66943371e-01 +1.61895603e-01 -6.03363737e-02 -9.81437042e-02 -2.83307761e-01 +2.14479476e-01 -4.51994359e-01 +1.82536215e-01 +2.01642662e-01 +6.96859360e-02 -6.98332563e-02 +2.95424849e-01 -1.22059166e-01 +2.33912408e-01 -5.52901346e-03 -4.24230695e-02 +3.43633033e-02 +1.74604818e-01 +4.84773144e-03 +1.22724175e-01 +2.30631940e-02 +5.53187244e-02 +3.06447707e-02 +2.91159581e-02 -9.67802629e-02 -1.69190228e-01 +4.98122815e-03 +1.20350108e-01 +2.44912691e-02 -2.31008828e-02 +1.55061349e-01 -2.73870260e-01 +7.60117695e-02 +1.44798964e-01 +4.59281474e-01 -2.69116194e-04 +9.12322327e-02 +1.99293867e-02 -2.10186914e-02 +1.90350071e-01 -3.71058397e-02 -6.44341111e-02 +5.50675839e-02 -5.17246425e-02 +1.94064721e-01 +1.63413528e-02 +5.16351014e-02 +2.28135586e-01 +6.58123493e-02 +8.72163177e-02 +4.53736633e-02 +9.32377297e-03 -1.12340227e-01 +1.77598521e-01 -4.36344603e-03 -6.86040223e-02 -2.48966347e-02 +1.68853626e-01 +7.85529613e-02 +4.11635153e-02 +1.06094234e-01 -6.14378043e-02 +7.51099214e-02 -6.43682107e-02 -3.04075554e-02 +2.48695835e-01 +1.28384858e-01 +1.61943659e-01 +5.93291456e-03 +7.94781819e-02 +6.26178598e-03 +6.29210696e-02 -1.78273637e-02 +4.67406586e-03 +4.42243256e-02 -2.75595114e-02 +1.66577369e-01 +2.15735391e-01 +1.07391015e-01 +1.01792313e-01 +4.69245650e-02 +1.29325196e-01 -3.95246036e-02 -1.75126586e-02 -5.68620535e-03 -6.32663518e-02 -5.64173721e-02 +7.74061233e-02 +3.40403281e-02 +8.75378847e-02 -2.04441071e-01 +1.37811452e-01 +2.23644655e-02 +9.00776088e-02 +2.17654467e-01 +5.91837876e-02 -6.00376315e-02 +4.04073223e-02 -8.24135765e-02 +3.53748947e-02 +8.21372047e-02 +2.64456198e-02 -5.58439791e-02 -3.17458883e-02 +6.95102289e-02 +3.35436128e-02 +3.54530424e-01 +8.16330016e-02 +1.48380145e-01 -5.98552600e-02 -9.58061293e-02 -3.52594227e-01 -1.91847146e-01 +3.58627141e-01 +1.44954354e-01 +6.00486815e-01 +9.50870961e-02 +1.74090564e-01 -1.38595596e-01 +3.70050639e-01 -9.66210966e-04 +8.09778832e-03 +2.17271730e-01 +1.11715004e-01 +3.34192246e-01 +1.77012216e-02 +2.37708032e-01 -2.21693233e-01 +4.16457839e-03 -2.03858584e-01 +3.08484107e-01 +3.21693063e-01 -2.11604945e-02 +1.94767058e-01 -3.54408734e-02 +1.27791196e-01 +3.35259251e-02 -1.76093623e-01 +9.20706764e-02 -1.28228636e-02 -1.09357513e-01 +8.24856609e-02 -6.24604039e-02 -1.41553313e-01 -9.59409252e-02 -1.01585358e-01 -2.05571633e-02 +1.12202607e-01 -7.21269175e-02 +1.46791667e-01 +2.02700906e-02 +1.50917292e-01 -1.54044390e-01 +5.05402824e-03 -1.28792953e-02 +1.92396373e-01 -3.31113525e-02 +2.91322954e-02 +2.58470029e-01 -2.49990433e-01 +9.55494717e-02 +2.62240097e-02 +9.89001840e-02 -1.76891208e-01 -1.35455085e-02 +9.89211127e-02 +1.36102751e-01 +1.84001416e-01 +1.62031591e-01 +4.50783558e-02 -1.11285575e-01 -3.67145240e-02 +2.61246674e-02 +5.07696830e-02 +8.60231146e-02 -1.64554089e-01 -9.85120889e-03 +1.09991610e-01 +4.58583608e-02 +1.06995646e-02 -7.11089298e-02 +3.44897360e-02 -3.14904191e-02 -8.88614100e-04 -6.13514781e-02 -1.23257168e-01 -2.47198984e-01 -1.11407205e-01 +6.76619560e-02 -1.24520734e-01 -2.36988008e-01 -1.32301524e-01 -5.00148274e-02 +6.12021759e-02 -1.52120978e-01 -1.06296845e-01 -1.93547904e-02 -4.83202115e-02 -1.05985031e-02 -3.78090190e-03 -2.54375264e-02 +1.31655531e-02 +7.47976527e-02 +7.47620091e-02 +4.23071682e-01 +5.28213978e-02 +1.88392308e-02 +6.63162544e-02 +1.43597424e-01 +1.59553751e-01 -1.66158378e-02 -1.07009552e-01 +4.62210085e-03 -8.07772502e-02 +3.54609191e-02 +9.56054498e-03 +1.03159636e-01 +6.16400596e-03 -4.26415950e-02 +1.33258179e-01 +6.04615137e-02 -1.21748142e-01 -1.84497200e-02 +2.02960566e-01 -1.49941444e-01 -1.83028169e-02 +1.07276984e-01 -1.58371419e-01 +3.43314223e-02 +1.95665002e-01 +2.98085585e-02 -3.58311050e-02 -4.54703756e-02 +8.82425681e-02 +4.79102992e-02 -1.53391197e-01 -9.10120457e-02 -4.97574955e-02 +1.79255784e-01 -1.00617453e-01 +2.27453157e-01 -1.39739737e-01 +1.27865911e-01 +2.93821037e-01 -2.62077153e-02 -7.20100924e-02 -1.57993421e-01 +3.36594671e-01 -6.96941674e-01 -2.31523901e-01 +4.93972450e-02 -1.13545395e-01 +8.18732381e-02 -1.84527636e-02 +8.66820365e-02 -2.48017803e-01 -2.65471309e-01 -2.16560438e-01 +1.80078372e-02 -1.05499588e-01 +6.95534563e-03 +6.24245480e-02 -2.87175715e-01 -8.35900903e-02 -7.23542392e-01 -2.77753204e-01 -1.29941300e-01 +2.34547514e-03 -9.78079438e-02 +4.78489585e-02 -2.00947925e-01 +9.21325907e-02 -2.35945862e-02 -2.13011205e-02 -1.29625171e-01 +7.78317600e-02 +1.23567782e-01 +8.33356157e-02 -5.96306697e-02 -2.10562479e-02 +1.73613563e-01 -5.00711938e-03 +1.83905009e-02 +1.59398783e-02 -1.43407345e-01 -8.76742378e-02 -1.28073514e-01 -4.53241989e-02 +1.67526558e-01 +1.35276407e-01 -1.72378924e-02 +6.06765077e-02 -1.31625831e-01 +5.25729805e-02 -2.71592382e-02 -3.00104283e-02 +2.34870613e-03 -4.82077636e-02 +5.25832549e-02 +1.24849156e-01 +2.19907146e-02 +4.77284938e-02 +3.48653048e-02 +2.17378978e-02 +7.76936412e-02 +1.25376098e-02 +1.23685233e-01 +5.78583851e-02 +7.76084438e-02 +8.78450051e-02 -7.57122412e-02 +1.43306613e-01 +1.31614536e-01 +7.81711470e-03 -4.18670066e-02 -2.01956388e-02 +3.54792513e-02 +8.61885622e-02 +8.42720419e-02 -3.71926762e-02 +1.85350254e-01 -2.29572337e-02 +7.74695352e-02 -6.43273145e-02 +7.05185235e-02 +3.85970026e-02 +6.81758747e-02 -4.58481908e-02 +6.01231977e-02 +8.87223557e-02 +1.48492325e-02 -4.21871357e-02 +9.62580889e-02 +1.09150924e-01 +3.37336538e-03 +1.13560595e-01 +1.06788509e-01 -1.97784245e-01 +2.38783956e-01 +9.59859490e-02 -3.58250365e-02 -1.31244391e-01 +1.33859947e-01 -2.61084214e-02 +8.89667422e-02 +6.56388141e-03 +2.92010635e-01 +9.31965858e-02 +5.61036170e-02 +4.88514192e-02 -1.31796613e-01 +1.63465843e-01 -6.46009892e-02 +1.22448161e-01 -4.40687209e-01 -1.94379032e-01 -5.11364043e-02 +1.15456104e-01 -3.72623764e-02 +5.07490784e-02 +4.11357880e-02 +1.96266174e-01 -1.01632528e-01 +5.71305119e-02 +1.19005270e-01 +1.91971287e-01 +1.00114912e-01 -6.60701692e-02 +2.10763201e-01 -1.56016067e-01 +2.22517535e-01 +4.27303724e-02 +1.59900710e-01 +1.24180309e-01 -2.89044708e-01 -1.76897403e-02 -2.22720690e-02 -5.33603840e-02 +3.32473844e-01 -1.46400288e-01 +7.88035318e-02 +1.25898585e-01 +2.36642390e-01 -3.30906548e-02 +4.30278219e-02 -1.10396557e-01 +6.07396327e-02 -1.10860378e-01 -3.58311653e-01 +5.16330563e-02 -6.05667010e-02 +1.04039311e-01 -2.04814095e-02 -1.38203993e-01 -1.01240270e-01 +1.28983662e-01 +1.40075460e-02 +1.45484537e-01 -7.63195083e-02 -9.21320319e-02 -1.82395250e-01 -1.03408322e-01 -3.63046587e-01 -1.87643953e-02 +4.91251275e-02 -8.92598853e-02 +3.19479816e-02 +5.78455888e-02 -1.57671168e-01 -7.54086524e-02 -3.82883853e-04 +9.26433653e-02 +5.81463007e-03 -5.48221804e-02 +1.23073019e-01 +1.14778131e-02 -8.74585286e-03 -2.14334708e-02 -1.04583070e-01 -1.07770823e-01 +1.18259517e-02 -2.46275701e-02 +2.37424877e-02 +2.14486290e-02 +4.97401867e-04 +1.87909797e-01 +2.94642895e-02 +6.70477599e-02 -9.84982699e-02 +1.13085568e-01 -8.15139636e-02 -2.22432557e-02 -1.21036991e-01 +5.23386151e-03 -5.92409037e-02 +3.89707577e-03 -7.42546692e-02 -5.69081195e-02 -9.84804109e-02 +2.73115560e-02 -1.50782481e-01 -7.81451091e-02 -5.48559986e-02 -1.55208454e-01 +6.37828857e-02 -1.15952520e-02 -6.43010298e-03 -1.23297967e-01 +5.55756921e-03 -6.44108802e-02 +1.28737047e-01 -1.70542113e-02 +9.10230353e-02 -8.65274593e-02 +2.65464541e-02 -7.47332200e-02 +6.37581944e-02 -1.58071458e-01 +1.89643111e-02 +9.62649584e-02 -1.87065214e-01 +3.78279313e-02 -1.15938224e-01 -2.54363641e-02 -2.05632877e-02 +5.77158555e-02 -1.17468230e-01 -1.16087951e-01 -8.92028585e-02 -7.37810060e-02 -9.04369056e-02 +5.03172576e-02 -8.34901631e-02 -6.96263686e-02 -1.16371676e-01 -1.29122257e-01 +1.47258103e-01 -1.51578873e-01 -3.60466465e-02 -3.24941054e-02 -2.00863555e-02 +2.44601164e-02 +1.05438262e-01 -6.28258809e-02 -7.08177611e-02 +2.78595928e-02 -5.55090867e-02 +8.90840963e-03 +4.60795239e-02 -6.67164251e-02 -1.39843374e-01 +2.81425938e-02 -9.69586968e-02 +1.62502065e-01 -2.85604864e-01 -6.29851297e-02 -2.39754826e-01 -3.34270671e-02 -1.07660636e-01 -2.99489886e-01 -1.87920392e-01 -1.25052631e-01 +1.05122901e-01 +8.05217698e-02 +3.72169793e-01 +3.32128733e-01 +1.24021157e-04 +4.16851602e-02 -1.78123321e-02 +1.37274772e-01 -1.30640045e-01 +2.04746917e-01 -1.71028599e-01 +1.41711369e-01 -9.31709167e-03 +3.58967125e-01 +2.62996584e-01 -1.56865358e-01 +3.95227343e-01 -7.18968883e-02 +2.72130907e-01 -7.66859129e-02 +9.44750756e-02 -1.74348250e-01 +6.26358688e-02 -4.72813062e-02 +1.37168720e-01 +1.56869292e-01 -3.31852511e-02 -4.61495593e-02 +2.20631614e-01 -8.89691114e-02 +1.31412923e-01 -5.93519770e-04 +1.19899679e-02 +5.03165349e-02 +6.31005913e-02 +4.05926630e-02 -2.24621654e-01 -3.56683955e-02 +9.51738954e-02 -1.80155098e-01 +1.88298821e-02 +5.74467443e-02 +2.05072127e-02 -1.69345066e-02 -6.39954954e-02 -1.72569111e-01 +8.42402503e-02 +1.32586986e-01 -1.25038370e-01 -1.20036654e-01 -2.70046368e-02 -2.80690808e-02 -5.15838861e-02 -2.08513618e-01 +4.01132181e-03 -3.50924395e-02 -9.28739607e-02 -1.65243313e-01 -5.83653301e-02 -1.21238910e-01 -7.97019899e-02 +1.83758121e-02 -1.10037692e-01 +7.62941465e-02 -9.80293602e-02 +2.03734264e-01 -6.82982653e-02 -1.10772133e-01 -8.99787769e-02 -1.07912458e-01 -1.08500281e-02 -2.14167967e-01 -2.43044108e-01 -2.21063688e-01 -1.94526508e-01 -4.30432782e-02 -1.76747248e-01 +3.74281816e-02 -2.15499416e-01 -1.46195546e-01 -1.43058360e-01 -1.30775735e-01 -3.97983976e-02 +2.81880982e-03 +8.54566097e-02 +2.19590113e-01 +1.11948758e-01 +1.11781061e-01 +3.60489525e-02 +5.06737456e-02 +4.23438065e-02 -1.99184641e-01 +1.23402320e-01 -1.60539344e-01 -6.96586668e-02 -1.78971961e-02 +1.78378552e-01 -7.90830776e-02 -1.12043940e-01 +1.67668443e-02 +7.28578344e-02 +1.21201508e-01 -5.06940372e-02 -1.41654746e-03 +2.07675388e-03 +1.91032648e-01 -1.45545676e-01 -6.39394522e-02 +1.13497689e-01 +8.97046104e-02 +1.70637760e-02 +2.23273039e-01 +4.13236395e-03 +1.43818006e-01 +2.32278891e-02 +1.07687905e-01 -1.46350205e-01 -3.05038709e-02 -1.07849002e-01 -3.39849174e-01 -1.11199342e-01 -4.11198974e-01 -5.90081103e-02 -1.35209709e-01 -3.97052690e-02 +4.80201125e-01 -3.66513461e-01 -1.81156591e-01 -2.78566360e-01 +3.44133914e-01 -2.63046086e-01 -2.43804798e-01 +5.21636158e-02 -2.21297964e-01 +1.10395756e-02 +7.15509877e-02 +1.62855744e-01 -3.84967715e-01 +2.93271765e-02 -6.17021620e-02 -3.27444561e-02 +3.42266142e-01 -1.94017813e-01 -3.74850005e-01 -3.55444551e-01 -1.25395432e-02 -3.60885441e-01 -5.43505490e-01 +2.95153335e-02 -2.79605418e-01 -1.28242463e-01 -2.57100552e-01 -8.30701739e-02 -1.80820227e-02 +7.30088055e-02 -2.05910102e-01 -1.16220415e-01 +9.06613097e-02 +8.13479573e-02 -3.86542566e-02 +1.55204237e-01 +4.35895361e-02 +1.44570395e-01 +1.80541445e-02 +5.86313717e-02 +7.92014897e-02 +6.78555369e-02 +1.68447066e-02 -5.06451502e-02 +6.75284816e-03 +3.47403914e-01 +1.17939308e-01 +3.42060804e-01 +1.75082847e-01 -1.91552788e-01 -1.77130878e-01 -3.61018479e-02 -6.06753901e-02 -1.84500426e-01 -5.04836217e-02 -1.35113254e-01 -1.41485214e-01 -7.16770366e-02 -7.93769211e-02 -1.41734496e-01 -7.09412172e-02 -5.28659846e-04 -3.02314963e-02 -1.99820220e-01 +4.95826937e-02 -1.78525612e-01 -6.30936101e-02 -2.63026237e-01 +1.94596842e-01 -2.07703084e-01 -1.21619985e-01 -9.61322039e-02 -3.30676064e-02 -1.67942524e-01 -4.29340750e-02 -4.58156914e-02 -1.21643342e-01 -5.53918518e-02 -7.51507655e-02 -2.24095151e-01 -4.92339954e-02 +1.72404721e-02 -9.00018960e-02 -1.14977770e-01 +8.27515274e-02 -6.30232915e-02 -1.16921328e-01 +1.05228079e-02 +8.63259584e-02 +1.37507850e-02 -1.52981102e-01 -4.06475961e-02 +1.11130066e-01 -1.31208878e-02 +2.70126536e-02 +1.39111549e-01 -6.88687116e-02 -1.68113150e-02 -2.43402924e-02 +1.90139726e-01 -1.33858338e-01 -2.43507586e-02 -8.91434252e-02 -1.38438627e-01 -6.34395778e-02 +1.97438702e-01 -2.16511905e-01 -1.17051460e-01 +1.51959658e-02 -5.32269999e-02 +4.05452512e-02 +2.10195139e-01 -2.49154061e-01 -1.05274647e-01 -4.89644408e-02 +6.34012744e-02 +3.23698074e-01 -1.36859506e-01 +1.75770760e-01 -1.38821915e-01 -2.50339419e-01 -1.50414422e-01 -3.05387914e-01 -1.85550660e-01 +8.98240134e-02 +1.87602267e-01 -1.61519125e-01 -1.93492606e-01 -4.10698391e-02 -1.79754764e-01 -1.50593624e-01 +3.08933947e-02 +2.58076072e-01 -1.02212906e-01 -1.01191081e-01 -3.40099007e-01 +8.00401345e-02 -1.63462326e-01 +8.05584118e-02 +3.80643420e-02 -5.53647950e-02 -3.33502114e-01 -2.39797905e-01 -2.68877208e-01 +1.12552218e-01 +3.11297476e-01 -1.62059814e-01 -2.35600144e-01 -4.48019337e-03 -6.35122657e-02 -5.61231063e-05 +1.72039136e-01 -1.22632384e-01 -6.45649154e-03 -2.99992383e-01 -9.27571952e-02 -4.33175489e-02 +5.16672991e-02 -1.85094833e-01 +2.74524875e-02 -1.93328008e-01 +1.52872011e-01 +9.84348208e-02 +2.33114079e-01 -5.43382280e-02 -1.94096267e-02 +5.55790886e-02 +7.68899992e-02 +5.44295125e-02 -6.93315524e-04 +1.58817410e-01 -1.99521691e-01 +1.39188319e-01 +3.18295285e-02 +1.22510292e-01 -1.25763372e-01 +6.70692548e-02 +2.10213996e-02 -8.14500079e-02 -1.79195970e-01 -1.24304175e-01 -6.58243746e-02 -1.11344270e-01 -7.17693940e-02 -7.32716843e-02 -7.39685148e-02 +2.06703995e-03 +2.86710542e-02 +1.08789988e-01 +5.98216280e-02 +7.35831708e-02 +6.71762973e-02 +3.67552601e-02 -1.00287728e-01 -1.57936588e-01 -7.08416244e-03 -1.13012284e-01 +7.38583580e-02 +9.11947265e-02 -7.49412179e-02 +1.30843688e-02 -5.42338425e-03 -1.87148694e-02 +6.92301057e-03 -2.37688385e-02 -1.56310517e-02 +4.27675806e-02 -6.19745851e-02 -5.75822257e-02 -1.23061769e-01 -7.08278548e-03 -1.14974909e-01 +1.41389146e-01 -7.48436674e-02 +7.06214532e-02 +1.48560172e-02 +6.26370385e-02 +1.32458791e-01 +1.25068247e-01 +1.59837643e-03 +7.10878521e-02 -1.39957219e-01 -1.51973695e-01 -2.14945972e-01 +2.52822731e-02 -2.71717198e-02 -4.33333032e-02 -1.21194906e-04 -6.16941676e-02 +2.27162298e-02 -1.00643130e-03 +6.21141233e-02 +1.03016444e-01 +1.08270094e-01 -5.61695136e-02 +2.27323659e-02 +1.05598807e-01 -9.48919058e-02 -4.08077538e-02 +6.25807792e-02 -9.86919329e-02 -1.11144669e-01 -6.01495393e-02 -6.95091411e-02 -1.27502307e-02 +5.42375855e-02 +1.70992315e-02 +1.37599096e-01 -1.07549638e-01 -1.39747500e-01 -1.96034834e-01 +2.32729390e-02 -5.82885481e-02 +7.37078674e-03 +3.74790311e-01 +8.58920887e-02 +5.98779142e-01 +8.20312090e-03 +2.11609658e-02 -6.75272122e-02 +2.93168336e-01 -6.70346171e-02 -2.60788381e-01 +1.43320048e-02 +2.73541957e-01 +2.09837779e-01 -1.39906988e-01 +1.49169266e-01 -2.74579227e-01 +1.93114027e-01 +5.18076029e-03 -6.26499727e-02 -1.16650045e-01 -4.04767007e-01 +2.44986966e-01 -7.91646831e-04 +1.20171756e-01 -1.85045108e-01 -2.52471715e-01 -2.09599128e-03 +3.60563993e-02 -2.62516826e-01 -9.98929217e-02 -2.35649362e-01 -1.23512231e-01 +4.19605821e-02 -3.81642655e-02 +2.89295297e-02 +6.98811263e-02 -5.23396507e-02 +2.59422630e-01 +5.05967438e-03 -3.59167531e-02 -1.37139797e-01 +9.38310921e-02 +4.51115280e-01 -6.32236078e-02 +8.12127814e-03 -6.09182455e-02 +2.71831095e-01 -1.94988400e-01 +2.29031324e-01 +4.13798541e-02 +8.81554186e-02 +9.69924331e-02 +3.08069438e-02 -1.69679672e-01 -6.64117932e-02 -4.00046818e-02 +4.04916257e-02 -3.54277454e-02 -3.75612564e-02 -1.23456694e-01 +7.39522800e-02 -1.42309874e-01 +9.56835076e-02 +8.73956010e-02 +3.23128290e-02 +6.65660203e-02 +5.01634739e-02 +8.65757316e-02 -4.37933207e-02 -9.00622532e-02 -1.74567532e-02 -7.58144185e-02 +6.30529225e-02 -7.70493317e-03 -9.05879065e-02 -1.02182124e-02 -5.60508296e-02 -1.10078447e-01 -1.68117717e-01 -1.50464982e-01 +5.05181961e-02 +1.64700732e-01 -3.96712646e-02 +1.35625094e-01 -1.72712002e-02 +5.50326332e-02 +6.00741208e-02 +8.21473971e-02 +3.55433021e-03 +5.52329011e-02 +9.49114189e-02 +8.63824487e-02 +1.85368389e-01 +1.98700503e-01 -7.48372152e-02 +5.73157370e-02 -8.21532905e-02 -5.47071770e-02 -3.01052839e-01 -7.08864331e-02 +1.37230745e-02 +8.05788934e-02 -6.41466305e-02 -8.37163161e-03 -2.42399909e-02 -5.22680543e-02 -1.73455074e-01 -2.19813325e-02 -3.61637622e-02 +1.37386143e-01 +1.18399382e-01 -1.81057211e-02 -1.95139404e-02 +4.59244102e-03 -7.62371048e-02 -3.52072902e-02 -8.63319039e-02 +1.07440531e-01 -4.40226346e-02 -7.13328794e-02 -1.89399533e-02 -6.87352419e-02 +4.91571128e-01 -1.70791015e-01 +1.00010559e-01 +3.66336890e-02 -1.34677127e-01 -4.12332535e-01 -8.56059566e-02 +3.29591483e-01 -3.53908949e-02 +6.45489216e-01 -1.00645043e-01 -6.91966563e-02 -7.11259469e-02 +4.55975682e-01 -1.33473531e-03 -5.88641018e-02 +2.03639209e-01 +1.88112915e-01 +3.13452780e-01 -2.00582057e-01 +1.03529871e-01 -5.57099164e-01 +1.21163733e-01 +9.33687165e-02 +8.22482035e-02 +4.02979106e-01 -2.78311193e-01 +1.84292793e-01 -1.38626695e-01 +8.91357139e-02 +7.47105479e-02 -3.01551998e-01 -1.19833149e-01 -1.43796921e-01 -1.47586182e-01 +9.28888544e-02 -1.43764809e-01 -3.31950970e-02 +1.01379752e-01 -2.44009979e-02 +3.73236716e-01 +7.04542696e-02 +4.74182852e-02 +4.01912987e-01 -1.76908702e-01 -1.58296615e-01 -6.16246127e-02 -7.69267604e-03 +3.71699184e-02 +7.90654197e-02 -1.64927065e-01 +2.03090720e-02 +1.99854732e-01 -1.79491609e-01 +2.21512839e-01 -1.68389618e-01 +2.00935259e-01 +1.26220822e-01 +5.21765240e-02 +1.80583671e-01 -2.29448155e-02 -4.90552783e-02 -9.92817581e-02 -9.29143354e-02 -8.20213780e-02 -6.98699802e-02 +1.15717411e-01 -7.96878561e-02 +6.91371262e-02 +5.24138659e-02 +8.58313441e-02 +1.16816640e-01 +1.49015725e-01 +1.22176722e-01 -3.32054049e-02 +3.32443998e-03 +1.23884693e-01 +1.39649585e-01 -2.49397624e-02 +1.09271817e-02 -4.28832415e-03 +1.17223397e-01 +4.96896952e-02 -1.23865984e-01 +4.65509631e-02 -8.39501470e-02 +7.35116750e-02 +6.72814846e-02 -2.82519497e-02 +1.03763759e-01 -4.77136448e-02 +1.60151362e-01 -2.82572526e-02 +9.93352532e-02 +1.53717116e-01 +2.17863568e-03 +1.67493641e-01 -9.28393826e-02 +1.63312927e-01 +7.14888573e-02 +8.57811570e-02 +1.65511072e-01 -2.16997731e-02 +9.09437612e-03 +2.44642287e-01 -1.40015222e-02 -2.97466759e-02 +4.42730151e-02 -1.69649851e-02 +1.57010198e-01 +5.05256094e-02 +8.97417367e-02 +1.86649621e-01 +1.38110712e-01 -7.21860351e-03 -1.15427218e-01 -1.81824975e-02 +1.38818175e-01 -5.78196757e-02 -5.33782952e-02 -1.18096225e-01 -2.45781690e-02 +3.41151357e-02 +1.54897034e-01 +2.36730129e-02 +8.97114351e-02 -2.66333055e-02 +1.77577779e-01 -1.19809389e-01 +6.77473098e-02 +9.47055221e-03 -8.09659287e-02 -1.32263124e-01 -1.48550346e-01 +1.25775840e-02 -1.76208600e-01 +8.89366269e-02 +9.00147185e-02 +1.51276097e-01 +3.67607139e-02 -3.78372461e-01 +2.13497937e-01 -1.97704583e-01 -1.12504348e-01 +1.71637163e-01 -1.40494972e-01 +1.12703748e-01 +1.91374775e-02 +2.55646110e-01 -1.50001273e-02 +1.82963293e-02 -1.02263473e-01 +8.03235769e-02 +7.17211887e-03 -6.81425691e-01 +9.85987708e-02 -4.28736150e-01 -7.14936480e-02 -5.18253781e-02 -2.43726283e-01 -6.62068650e-02 +1.81716487e-01 -1.98664874e-01 -7.67719559e-03 -1.38708234e-01 +2.44200882e-02 -2.80630328e-02 -3.02214362e-03 -2.85883158e-01 +4.67310920e-02 -5.80955669e-02 -5.55425435e-02 -6.83511198e-02 +1.81231380e-01 +2.80026882e-03 -1.38481736e-01 +8.99632424e-02 +1.10162653e-01 +2.33976007e-01 -9.92016122e-02 -5.02078701e-03 -8.52337256e-02 +2.64152378e-01 +1.32900074e-01 -1.62829921e-01 -4.03885059e-02 +1.03939354e-01 -1.20012447e-01 +1.07972227e-01 +2.30479334e-02 +1.17007025e-01 +1.37353605e-02 +7.56381974e-02 +1.54642150e-01 +2.34342307e-01 -1.42533034e-02 +1.39512450e-01 -7.72106871e-02 +1.00398757e-01 +1.48154512e-01 +8.36549774e-02 +8.16315114e-02 +5.56541197e-02 +3.74526531e-01 +1.47810623e-01 +9.10077691e-02 +3.35444906e-03 +1.32069081e-01 -1.33163646e-01 -2.03146273e-03 +1.03565536e-01 +2.42862284e-01 +1.92036718e-01 +3.72837260e-02 +6.56808689e-02 +1.39871493e-01 +2.56502219e-02 +8.54524877e-03 +1.79150641e-01 +2.41159469e-01 +1.08187124e-01 -1.86134260e-02 +4.24483083e-02 +1.30776376e-01 +8.01016837e-02 -1.63344309e-01 +5.11243530e-02 +6.82744384e-02 -1.09615279e-02 +4.24568318e-02 -8.00226722e-03 -6.73990026e-02 -4.54202993e-03 +1.61542997e-01 -1.26845449e-01 -3.26818734e-01 +1.97065901e-02 +1.56410381e-01 +1.15729950e-01 -1.04649425e-01 +2.46719301e-01 +2.56063864e-02 +4.15835679e-02 -2.71004718e-02 -1.56264864e-02 -6.90783113e-02 +2.03580074e-02 -7.05110654e-02 -3.44755016e-02 +9.76806507e-02 -7.24314451e-02 +1.53591245e-01 +1.13218771e-02 -2.96571821e-01 +6.44530952e-02 -9.89343747e-02 -2.06418894e-02 +3.37170482e-01 +2.23631024e-01 +5.30634411e-02 +1.99703667e-02 -8.00840184e-02 -6.65590912e-02 +4.20513451e-01 +2.29483560e-01 +2.22097918e-01 +2.06514284e-01 +1.82662234e-01 -1.50176376e-01 +2.64910072e-01 +5.74658737e-02 -8.35137442e-02 +2.21463546e-01 +1.94489554e-01 +2.52858400e-01 +9.33355018e-02 +3.48690420e-01 +1.26932204e-01 +4.99544553e-02 -8.48622993e-02 +1.71995640e-01 -6.90515935e-02 -6.45409703e-01 +3.53480168e-02 +1.92279682e-01 -5.45766801e-02 -1.04583642e-02 -1.08552910e-01 -1.51031226e-01 +9.80763510e-02 +2.53735855e-02 +1.49567381e-01 +9.96944010e-02 +9.03264582e-02 -9.54099447e-02 +4.53706346e-02 -2.97632247e-01 +6.39118180e-02 +2.55979747e-02 -1.14753075e-01 -1.37997225e-01 +2.46707037e-01 +1.90251544e-02 -1.06493890e-01 -7.20276907e-02 -1.49502838e-02 +1.24083266e-01 -7.30739459e-02 +5.49690519e-03 +5.76044386e-03 +3.99833620e-02 +1.86908588e-01 -2.99817584e-02 -1.50989359e-02 +2.05572337e-01 -5.83639089e-03 -2.14245562e-02 -8.97713378e-02 -1.29665611e-02 +1.08156845e-01 +5.64802699e-02 +1.04195237e-01 -7.45746866e-02 +9.37876776e-02 +8.46358687e-02 +1.43730476e-01 +2.40736991e-01 +4.89923023e-02 +2.57727820e-02 +1.34048775e-01 -1.16552956e-01 +1.24093845e-01 +4.19903845e-02 +2.41139546e-01 +1.38144836e-01 +1.75988510e-01 -5.66458404e-02 +6.14588633e-02 +2.64309254e-02 +8.18254054e-02 -9.33223888e-02 +2.51044095e-01 +1.31906182e-01 +2.45505087e-02 +3.83636169e-02 -4.78021055e-03 +1.51716977e-01 +1.69268191e-01 +1.85411274e-01 +6.95465971e-03 +7.10404068e-02 +1.48079425e-01 +6.42762855e-02 +3.35804597e-02 -1.18655927e-01 +1.15727648e-01 +1.04782142e-01 +6.18759431e-02 -1.04502276e-01 -3.17003787e-01 +1.58430621e-01 -2.89618094e-02 +1.12214960e-01 +9.41251740e-02 +2.02855930e-01 +1.22022489e-02 -5.77327758e-02 +2.23787073e-02 -1.47837937e-01 -3.79213803e-02 -3.38364482e-01 -1.77822679e-01 +1.78013369e-01 +1.96835354e-01 +2.10657626e-01 +2.03592181e-02 -2.29356736e-01 -1.15842476e-01 +1.17900066e-01 -1.79968942e-02 +2.70950589e-02 -3.17754969e-02 -9.38141048e-02 +6.80854693e-02 -2.78671652e-01 +1.38569638e-01 +5.13638034e-02 -1.18564837e-01 +1.11407541e-01 +1.23333417e-01 +5.46267271e-01 -1.55450597e-01 +4.72159721e-02 +8.56730342e-02 -8.21123198e-02 +3.10550421e-01 -7.15768114e-02 +4.95327897e-02 -4.83764075e-02 +1.50230527e-01 +1.51697323e-01 -1.05258092e-01 -2.94381678e-02 +5.61621673e-02 +7.85214156e-02 +2.06322387e-01 +2.95675874e-01 +1.03695959e-01 +2.46654257e-01 -1.14514709e-01 +1.88189134e-01 -1.22928746e-01 -2.66030461e-01 +1.56019643e-01 +2.33093482e-02 +9.37437341e-02 -2.96964377e-01 -2.90387928e-01 -1.07162641e-02 -1.19878696e-02 -1.24572506e-02 -1.70517117e-01 -5.13015389e-02 -3.88535619e-01 +4.01602406e-03 +1.63988054e-01 +1.19962927e-03 -2.40868852e-01 +1.18589021e-01 +1.49555162e-01 -2.18728393e-01 -1.89890936e-01 +1.90701202e-01 -9.72943902e-02 -9.96610746e-02 -2.34674484e-01 -7.22113065e-03 -1.05251148e-01 +2.80398905e-01 -9.50687602e-02 +3.57661881e-02 -5.89777939e-02 +9.97864902e-02 +4.16572541e-02 +1.50120124e-01 -3.74240130e-02 +1.01447694e-01 +1.95867911e-01 +1.92779303e-02 +1.92710474e-01 +1.58215046e-01 +3.38317156e-02 +3.21857333e-02 -2.01332429e-03 +3.67352217e-02 -2.01608259e-02 +7.92889968e-02 +3.04270741e-02 +9.50650424e-02 +1.17256314e-01 +1.06886268e-01 -3.39226350e-02 -1.60182994e-02 +1.66869797e-02 +2.09169626e-01 -5.39435968e-02 +3.70439067e-02 +2.66747624e-01 +1.54523566e-01 +6.96979389e-02 +8.39729086e-02 +1.03300653e-01 +2.29208112e-01 -3.82116437e-02 +1.59615144e-01 +2.05101535e-01 +3.48525755e-02 +9.22103077e-02 +1.57047838e-01 -5.42775430e-02 -7.18942359e-02 -1.46988645e-01 -1.78939663e-02 -2.55719982e-02 +5.30858263e-02 -1.34735242e-01 -1.04926817e-01 +2.73596406e-01 -2.69876331e-01 -3.63278463e-02 -9.43646654e-02 -2.02210173e-01 -1.05777629e-01 +6.84062839e-02 +8.20012689e-02 +2.59228069e-02 -2.40603894e-01 -1.64123610e-01 -7.13120326e-02 +3.35481204e-02 -3.85623462e-02 -3.80988456e-02 +6.02841303e-02 +1.02455601e-01 -2.77740896e-01 +1.44782841e-01 -4.13787141e-02 -9.78996754e-02 +7.49484450e-02 -1.67629898e-01 -1.09504526e-02 -4.45000827e-03 +1.42353317e-02 +5.47592528e-02 +1.27829254e-01 +3.82611364e-01 +4.35529761e-02 +1.88435629e-01 +3.36676657e-01 +6.49051592e-02 +1.33277193e-01 -3.64036351e-01 +1.37079909e-01 +5.19735515e-02 +3.45897675e-01 -3.68506819e-01 +9.87339243e-02 -2.53061764e-02 -2.51890838e-01 -2.15351313e-01 +1.49122402e-01 +3.31862122e-01 -1.84241951e-01 +3.00676614e-01 -1.49148181e-01 +3.47396195e-01 +6.75300062e-02 -6.59554675e-02 +3.42105597e-01 +2.06378043e-01 +5.31762362e-01 -1.39434889e-01 +1.55676538e-02 +4.34719771e-02 +8.10422823e-02 -2.04318061e-01 +2.11372986e-01 +6.45540953e-02 +2.66157866e-01 +1.90185569e-02 -3.99716981e-02 +6.86983019e-02 +1.08786844e-01 -5.71479946e-02 -2.23716963e-02 -2.83372343e-01 -1.69676468e-01 -4.08408865e-02 -1.38834551e-01 -1.05528332e-01 -5.42184412e-02 +1.03582134e-02 -1.18587866e-01 -1.70269266e-01 -1.67670414e-01 -7.81366304e-02 -3.49069506e-01 -2.22627223e-01 -2.83831239e-01 -1.50211468e-01 +1.49679482e-01 +3.41431528e-01 -1.89049467e-02 -1.77019566e-01 +1.09912187e-01 -6.27389625e-02 +1.82386398e-01 +5.61284982e-02 +5.83252236e-02 +4.84222211e-02 +1.27634317e-01 +4.46076989e-02 +3.48051041e-02 +2.52490819e-01 -7.77094672e-03 -2.19543912e-02 +3.71757746e-02 +6.13589911e-03 +1.76787317e-01 -4.54653613e-02 +4.45588678e-02 +1.29187405e-01 +1.41541079e-01 +3.91232520e-02 -2.90443916e-02 +1.91365778e-01 +1.07715048e-01 -2.10554563e-02 +2.57716507e-01 +1.61522746e-01 +8.23202431e-02 -5.92801087e-02 +7.11753815e-02 -3.89553905e-02 +8.49485621e-02 +5.18917739e-02 -5.13251126e-02 +2.95654554e-02 -4.93054725e-02 -1.52639762e-01 +1.81555644e-01 -2.02649226e-03 -7.03273267e-02 +3.83064598e-02 +7.08428398e-02 +2.47863024e-01 -3.31917763e-01 +5.14218323e-02 -6.00007884e-02 -1.40223145e-01 -2.58580297e-02 -1.01406865e-01 +1.69552676e-02 -6.86412081e-02 -5.56484498e-02 +5.78758530e-02 -2.91506182e-02 -3.06493402e-01 +1.92827508e-01 +1.24529615e-01 -4.82823178e-02 -1.38906920e-02 -3.61546613e-02 +7.52993301e-02 -7.28288293e-02 +1.48090804e-02 +1.09770708e-01 -2.44163126e-01 -7.51279891e-02 +4.16753143e-02 +7.15079233e-02 +1.60506994e-01 +1.06977776e-01 -5.39349997e-03 -1.71759367e-01 +1.79178923e-01 -1.29358545e-01 +5.56021035e-01 +1.27486408e-01 +4.68790174e-01 +2.07665995e-01 +2.20619321e-01 +4.75790761e-02 -9.10223946e-02 -3.70614380e-02 +2.29511693e-01 +3.87702674e-01 -2.25555096e-02 -1.61721054e-02 -1.37299329e-01 +1.16893321e-01 +1.21493854e-01 +3.02934200e-01 +7.03479648e-02 +2.80960768e-01 +3.03787049e-02 -5.15286386e-01 -2.44508475e-01 +4.76891175e-02 +1.71044692e-02 +1.52103249e-02 +1.13233738e-01 -8.65455642e-02 +2.82692979e-03 -1.96126893e-01 +2.45774135e-01 +1.53445289e-01 -9.10824388e-02 +5.52879944e-02 +6.63763285e-02 -2.30686083e-01 +2.21018463e-01 -8.85313004e-02 -7.12395012e-02 +2.18438078e-02 -3.51535082e-02 +3.80044468e-02 -1.38185844e-01 +2.92530507e-01 +1.07562579e-01 +4.27121855e-02 -6.79658800e-02 +8.50013569e-02 -1.18634082e-01 +6.22478276e-02 +7.11052958e-03 +1.06867142e-01 -4.55940962e-02 +6.35176823e-02 -1.31470812e-02 -7.91409984e-03 +7.55008683e-03 +4.11272980e-02 +1.31807998e-01 +1.50398195e-01 +7.80862421e-02 +2.41868719e-02 +2.61813641e-01 +3.66989300e-02 +1.02192812e-01 +5.11777103e-02 +1.40186429e-01 -6.30899072e-02 -6.42590374e-02 +2.10884735e-01 -6.26724679e-03 -1.18567818e-03 -7.77733624e-02 +2.10103735e-01 +5.39262295e-02 +3.39730307e-02 +6.79580355e-03 +2.22314611e-01 +2.87567854e-01 +1.27233192e-01 +9.66520980e-02 -1.79390311e-02 +1.17251292e-01 +1.69095784e-01 +9.99510512e-02 +1.87615678e-02 +8.82167891e-02 +2.18858644e-01 +1.11515306e-01 +1.05137043e-01 +1.14101157e-01 +7.25435093e-02 -2.96268970e-01 -6.13204576e-02 +3.90109532e-02 +1.72842041e-01 +1.92356393e-01 -9.04137418e-02 -1.46399930e-01 -1.88591629e-01 -1.67953856e-02 +1.09851778e-01 +2.39221573e-01 -5.80518274e-03 +2.56281625e-02 -2.19861064e-02 -3.56069244e-02 +1.56657014e-03 -5.98737113e-02 +3.91168855e-02 +2.72776097e-01 -1.35700598e-01 -1.14431731e-01 -1.79138556e-02 -9.15264711e-02 -2.43770972e-01 -1.31770074e-01 -1.10079404e-02 +3.71655747e-02 +6.50062934e-02 -1.62734345e-01 +6.07567020e-02 +3.02734934e-02 +2.69555748e-01 +1.33038267e-01 +4.71867286e-02 +4.78191882e-01 +3.50482494e-01 -3.54358882e-01 -8.77732262e-02 +1.69222176e-01 +5.42884367e-03 -9.98472795e-02 +5.69677390e-02 +1.64250717e-01 +2.65958551e-02 -1.49501130e-01 -8.60739425e-02 -2.12246194e-01 -1.70820713e-01 -1.53525278e-01 +9.79666933e-02 +1.07588872e-01 -1.08047597e-01 -1.16496580e-02 -8.17196369e-02 -1.98419020e-02 +6.60839751e-02 -5.39881624e-02 -1.91417485e-01 +3.70761603e-02 +2.89680123e-01 +6.43145740e-02 +1.51305690e-01 -2.11411208e-01 -7.83516839e-02 -6.73230737e-02 -1.85999587e-01 +6.47364650e-03 -5.30504249e-03 -2.85804830e-02 -1.76953778e-01 +8.86333585e-02 -1.31633922e-01 +5.56071028e-02 -6.02162033e-02 +2.24704921e-01 -1.28492236e-01 +9.72294956e-02 -1.56381100e-01 -8.69558528e-02 -7.23794028e-02 -6.75567389e-02 +9.70065966e-02 -1.32874399e-01 -1.12177178e-01 +3.96014117e-02 -4.71047871e-02 -1.17469937e-01 -1.22389011e-01 -7.71001354e-02 +1.15599290e-01 -1.86682250e-02 +1.79037496e-01 +1.49686903e-01 +8.39068145e-02 +4.19888906e-02 -5.26263425e-03 +1.88323781e-01 +6.37296811e-02 +1.11267924e-01 +8.91396999e-02 +8.05004090e-02 +3.10730543e-02 -5.79563119e-02 +1.18731901e-01 -1.87529088e-03 +5.96329346e-02 +1.22643903e-01 +1.13650046e-01 -1.46963969e-01 -6.53822199e-02 -6.04757667e-02 -1.89273134e-01 +1.38344258e-01 +5.32994717e-02 +1.60483912e-01 +3.01013924e-02 +2.11121455e-01 +5.82474917e-02 +1.75507098e-01 +2.01121151e-01 +1.30822256e-01 +4.08702157e-02 +1.62934482e-01 +7.88222402e-02 -5.22368327e-02 -6.83694035e-02 +5.78184165e-02 -6.47479668e-02 +2.01878726e-01 -9.55600739e-02 +1.61287114e-01 -2.06023008e-02 -6.39962703e-02 +4.86207306e-02 +3.18122581e-02 -3.38655382e-01 +6.00964762e-02 +1.37717113e-01 -2.27192983e-01 +5.50725497e-02 +1.36862069e-01 +1.12767676e-02 +7.36975893e-02 -9.63121504e-02 -1.22628771e-01 -3.51874471e-01 -9.45107564e-02 -6.87982328e-03 +5.53247482e-02 +2.87872795e-02 -8.89174566e-02 -7.55886883e-02 +9.61765554e-03 +9.61920694e-02 +1.10441834e-01 -3.69574800e-02 -8.14445764e-02 -6.16814196e-02 -5.96441776e-02 -1.08916000e-01 +2.52453893e-01 +4.50373143e-02 +3.16378266e-01 +1.51570067e-01 +1.81715012e-01 +9.10535082e-02 +4.44371969e-01 +1.41343474e-01 +1.84071586e-01 +9.60661918e-02 +1.02358520e-01 -1.51346177e-02 -2.96714921e-02 +8.03879276e-02 +4.13621485e-01 +2.17602134e-01 -2.90768355e-01 +1.37361631e-01 +1.07757144e-01 -1.86169311e-01 +2.35181436e-01 +2.24248305e-01 +1.28034815e-01 +9.14214402e-02 +1.13145486e-01 +1.93244725e-01 +2.04465926e-01 +5.76628819e-02 -3.23881097e-02 +2.11268961e-01 +2.68989414e-01 -1.40178636e-01 -2.87938923e-01 +2.87101775e-01 +4.03082252e-01 +3.10239702e-01 +1.08627424e-01 -1.38457641e-01 -1.39262807e-02 +2.29498073e-01 -1.38357058e-01 -8.51337314e-02 -1.87318638e-01 -1.04534119e-01 -1.52024077e-02 -9.51772276e-03 -1.52806953e-01 -1.52966648e-01 +6.30652010e-02 -3.91606539e-01 -2.03962833e-01 -4.04866487e-02 +2.49845870e-02 +1.34338304e-01 -1.23008735e-01 +8.12153891e-02 -4.07507718e-02 -6.72742128e-02 +3.75339121e-01 +3.80807742e-02 -1.33863464e-01 +9.00570452e-02 +2.79210079e-02 +1.00751705e-01 +1.36530444e-01 +1.43197536e-01 -2.26412900e-02 +1.46866105e-02 +6.89603686e-02 -1.30657896e-01 +4.59454805e-02 -1.25233561e-01 -7.40483403e-02 +1.06893539e-01 +1.54319957e-01 +3.59435454e-02 -1.30045772e-01 +3.35794613e-02 -1.77267715e-02 +1.31608471e-01 -5.41964583e-02 -6.98979422e-02 +2.68196613e-01 +1.14537768e-01 +1.14017949e-01 -8.97984207e-02 +4.66761999e-02 +1.36036143e-01 -9.65576172e-02 -6.87226579e-02 +5.96112683e-02 -1.94407571e-02 -6.08491562e-02 -5.83477803e-02 +6.12860620e-02 -8.87137502e-02 -1.16258025e-01 -3.29162270e-01 +1.29572615e-01 -1.35514051e-01 -2.13421658e-02 +8.99187550e-02 +2.30065405e-01 -3.22319657e-01 -2.09391117e-02 +2.79959831e-02 -8.72449502e-02 +1.82594918e-02 +6.05060980e-02 -6.69887587e-02 -7.54443854e-02 -2.37628277e-02 -1.52001828e-01 -1.12173431e-01 -2.49683857e-03 -3.33528668e-02 -3.30621339e-02 -7.85429776e-02 -7.99226090e-02 -3.34319860e-01 -8.36223364e-02 -6.17539231e-03 -1.62294760e-01 -8.38971287e-02 -1.02427177e-01 -4.22851667e-02 -7.73191452e-02 +5.85732749e-03 +4.13005762e-02 +1.96224198e-01 +3.10286134e-01 +3.37071009e-02 -1.69820607e-01 -1.59983754e-01 -2.46356994e-01 -5.18960087e-03 -2.54229158e-01 -2.32675634e-02 +1.89054787e-01 +2.81575263e-01 -4.23258066e-01 +2.58683592e-01 +3.65687460e-01 -1.25771150e-01 -1.19285956e-01 -1.41893849e-01 +5.92367835e-02 -4.48185652e-01 +2.06177473e-01 +2.04493962e-02 +2.59341836e-01 +1.00158788e-02 +1.92819014e-01 +3.21951658e-01 +2.56950498e-01 +6.21210396e-01 -1.93045408e-01 +3.69710296e-01 +1.53948829e-01 +3.90645117e-04 -2.40725905e-01 +1.34251013e-01 +7.66134933e-02 +2.99291521e-01 -7.69019499e-03 -6.90185046e-03 +8.90207514e-02 +3.58315796e-01 -2.30906636e-01 -1.35657743e-01 -1.54067546e-01 -6.59796700e-04 +1.08741552e-01 -7.78293163e-02 -9.59346741e-02 -5.10827839e-01 -1.85305700e-01 -1.77094221e-01 -3.41122337e-02 +3.26640643e-02 +1.61161542e-01 -1.81571856e-01 -2.56362855e-01 -3.74725103e-01 -1.24749906e-01 -2.11506430e-02 +7.36828297e-02 -8.84420052e-02 -1.23896021e-02 -5.93001507e-02 +4.81200516e-02 -2.60819755e-02 -1.09967723e-01 -1.89253360e-01 +2.08381973e-02 -5.83600737e-02 -1.35768294e-01 -1.58790603e-01 -1.55295253e-01 -2.53189318e-02 -1.80403531e-01 +2.19387971e-02 -1.66834995e-01 +9.29512754e-02 -2.93866187e-01 -2.52437562e-01 -2.13657394e-01 +6.85550645e-02 +8.46686680e-03 -3.69059406e-02 +5.61325476e-02 -8.94181281e-02 -7.21402019e-02 -1.48444936e-01 -8.45067799e-02 -3.87433060e-02 -2.66956538e-02 -2.37129420e-01 -4.09894437e-02 -1.29229590e-01 -6.13888204e-02 -2.34727994e-01 -8.57592225e-02 +3.50785404e-02 -4.85878700e-04 -2.35336944e-01 -1.87512152e-02 -1.83103010e-01 -6.20749108e-02 -1.16119720e-01 +2.10050270e-01 -7.40528628e-02 -7.32308030e-02 -3.90857458e-02 -1.34455189e-02 +4.55850828e-03 -9.84503627e-02 +2.93851420e-02 +1.69373173e-02 -2.47168411e-02 -5.66483429e-03 +2.95568220e-02 +5.49449436e-02 +9.94110033e-02 -1.54750794e-01 +1.76589452e-02 -5.43946726e-03 +1.32808402e-01 +1.33544445e-01 +1.00239687e-01 -1.19222753e-01 -8.58618394e-02 -1.36674196e-01 -6.54200613e-02 -2.53089219e-01 +4.04561162e-02 -1.57822575e-02 -2.31916457e-01 +5.83289787e-02 -5.10042086e-02 +4.87799235e-02 -1.11982487e-01 +2.11217150e-01 -2.02489242e-01 -3.04813292e-02 -8.53930861e-02 -9.97775123e-02 +2.67471015e-01 -2.99453974e-01 -2.55472697e-02 +1.25413716e-01 -1.77351043e-01 -1.33984759e-02 -8.91927779e-02 -1.74905490e-02 -1.09620079e-01 +1.25823282e-02 -1.05132192e-01 +1.12881631e-01 -5.85389044e-03 +6.80260127e-03 +3.90085071e-01 -2.26390399e-02 +1.21458828e-01 -6.11644499e-02 +2.21931748e-02 +2.85546303e-01 -7.29754474e-03 +4.99962345e-02 +1.34743780e-01 +1.89343333e-01 +1.61886755e-02 +1.72258511e-01 +6.85147792e-02 +1.65069357e-01 +2.34505400e-01 -1.05951294e-01 +9.82903838e-02 -4.38291319e-02 -1.37802750e-01 -2.42048502e-01 +2.18434885e-01 +1.06467009e-01 -9.60259289e-02 -1.31214634e-01 -1.90717682e-01 +6.67821914e-02 -8.94996338e-03 -3.68643776e-02 -1.70294628e-01 -3.50271277e-02 +1.12945333e-01 +3.57587077e-02 -3.95317450e-02 +2.45570652e-02 -5.11231646e-02 -2.43178811e-02 -1.04439132e-01 -1.46337748e-02 -2.02815179e-02 -2.77245566e-02 -1.61793470e-01 -2.23819930e-02 -1.83224007e-01 -1.19632790e-02 -2.05083579e-01 -6.05245009e-02 -1.25783890e-01 -1.27664819e-01 -7.51078501e-02 -1.06213041e-01 -2.01391324e-01 -4.38770233e-03 +4.54722866e-02 +9.45555232e-03 +1.76151946e-01 -7.94283822e-02 +1.11791834e-01 +1.39167398e-01 -2.24089343e-03 -2.95912977e-02 -1.53287306e-01 -1.91179797e-01 +5.69952987e-02 +5.51185496e-02 -1.45772487e-01 -1.23885296e-01 -1.49032921e-01 -3.07648312e-02 +2.34318469e-02 -4.14977744e-02 -1.03434185e-02 +3.69974039e-03 -2.05841839e-01 -1.41102195e-01 -1.66242376e-01 -2.38452237e-02 +5.41006029e-02 +1.22121423e-01 +5.06128371e-02 -1.12478361e-01 +1.31272450e-01 +3.70586663e-01 +2.95391604e-02 +1.11666629e-02 +9.85882990e-03 -3.44594717e-02 -2.13969395e-01 -6.35639823e-04 +9.99333933e-02 +2.81981118e-02 +1.49614632e-01 -6.02627732e-02 +4.77232672e-02 -9.50291008e-02 -9.94578600e-02 +1.29246503e-01 -5.09715937e-02 -2.39141554e-01 -3.28208543e-02 -2.09404202e-03 -2.91278493e-02 -7.82066863e-03 +1.26818210e-01 +5.85635900e-02 -1.26788884e-01 -2.72848070e-01 -4.01185572e-01 -1.16156593e-01 -6.71408594e-01 -2.32126325e-01 -3.67881451e-03 -2.39133522e-01 -4.13167685e-01 -2.95199662e-01 -9.26933363e-02 +2.05124199e-01 +2.93140024e-01 -1.14448918e-02 -1.96965203e-01 +5.79753257e-02 +6.94020912e-02 -1.72839031e-01 +2.33348444e-01 +2.97770593e-02 +3.00067142e-02 -6.52011931e-02 -5.17535349e-03 +2.13850662e-01 +9.50989500e-02 -2.34755769e-01 -1.83080584e-01 -1.30127728e-01 +2.76561975e-01 -4.37884070e-02 +2.35175356e-01 +6.44390658e-02 -9.85915586e-02 -2.53668934e-01 -7.19257817e-02 -4.02109250e-02 +1.32742405e-01 -2.13365313e-02 +2.19636485e-01 +3.35817263e-02 +3.39488015e-02 +9.56297591e-02 -4.63902242e-02 +8.55400488e-02 +1.60022900e-01 +1.12438180e-01 -1.20761625e-01 -7.69619271e-02 +7.59511366e-02 +1.16880208e-01 +8.26624632e-02 -8.95892680e-02 -2.81042606e-01 +2.06784699e-02 -8.91226679e-02 -6.26481771e-02 -3.74531187e-03 -1.83247194e-01 +1.32630663e-02 +4.48421985e-02 -7.34349415e-02 +6.71464279e-02 -5.83140999e-02 +3.92751629e-03 +2.83038300e-02 -8.43791142e-02 +1.03823580e-02 -7.88569599e-02 +9.92560983e-02 -9.80377793e-02 +3.90088670e-02 -5.00777252e-02 +1.17936328e-01 +6.29719626e-03 -4.61943336e-02 +1.28097564e-01 -5.79040274e-02 +1.39079258e-01 +1.04667865e-01 +6.21886477e-02 +8.57678056e-02 +9.15209725e-02 +1.14299752e-01 -8.35899487e-02 +7.69089237e-02 -3.15075368e-02 -2.77643409e-02 +3.94713022e-02 -1.28211409e-01 +1.81439463e-02 -9.49478149e-02 +1.42622769e-01 +2.40340661e-02 -6.94098398e-02 -5.17789237e-02 -2.57103413e-01 +3.19621384e-01 -9.77112725e-03 +9.01849382e-03 +3.27168517e-02 -8.09696689e-02 -1.77250411e-02 +1.31962404e-01 -7.24767894e-02 -6.88847154e-02 -8.93796445e-04 +4.88501452e-02 +1.11868612e-01 +6.94891140e-02 +4.64355722e-02 +1.77303329e-01 -2.75472682e-02 +1.01995282e-01 -1.66652113e-01 +1.66114271e-01 +1.62214249e-01 +9.95697528e-02 -1.63109228e-01 +2.22233921e-01 +1.70125723e-01 -9.79063585e-02 +2.34399542e-01 -9.80533287e-02 +2.24782806e-02 -6.27716556e-02 +8.85192156e-02 -1.30258560e-01 +3.17162648e-03 -1.81700215e-02 -3.80735755e-01 -1.06981494e-01 +3.74013893e-02 -2.26338759e-01 +3.26530278e-01 -6.04750812e-02 +6.12664461e-01 +1.85436402e-02 +6.28115609e-02 -1.32923260e-01 +5.10259688e-01 -1.43324718e-01 +4.69660461e-01 +2.81542651e-02 -2.89718136e-02 +9.12310705e-02 +5.30933775e-02 -2.07585707e-01 -4.90666404e-02 +2.12690532e-01 +2.04243064e-01 +1.06768094e-01 +2.22878262e-01 -3.18861932e-01 +1.60916697e-03 -5.70636503e-02 +5.19517250e-02 -1.43320143e-01 -2.86750168e-01 +2.33993113e-01 +1.60566464e-01 -1.15009081e-02 +3.92200835e-02 -9.00547113e-03 +1.01227589e-01 -9.66725647e-02 +9.69075039e-02 -4.61277105e-02 -7.08669871e-02 -9.29092169e-02 -1.91051304e-01 +5.26696630e-02 +1.84514448e-02 -3.70364524e-02 -5.25137596e-02 +4.26241159e-02 +8.39672089e-02 +1.86444089e-01 -1.64354563e-01 -8.78110752e-02 +3.15842405e-02 +4.08424772e-02 +1.96243614e-01 +8.61493424e-02 -6.88113123e-02 +9.14945304e-02 -2.61955541e-02 -3.45871150e-02 -1.81084555e-02 +1.14281490e-01 +3.74618592e-03 +2.39705108e-02 -7.90190995e-02 +2.95191705e-02 -1.73302606e-01 +8.84963106e-03 +1.45862982e-01 -3.66732143e-02 +2.22788766e-01 -1.39446393e-01 -1.55518398e-01 +2.99962386e-02 -3.78837995e-02 +1.88045856e-02 -5.81094846e-02 -1.45641506e-01 -6.83931261e-02 -2.46841848e-01 -5.96539602e-02 +2.55608428e-02 -2.55408466e-01 -5.27097657e-02 +1.34040872e-02 +9.65648070e-02 -2.27828808e-02 +4.83819731e-02 +4.44224253e-02 -1.27886876e-01 +2.80802371e-03 +3.07002869e-02 -2.16702595e-02 -8.54945481e-02 -1.15750313e-01 -1.66385956e-02 +2.59707063e-01 -3.81056741e-02 +5.29327355e-02 -1.02772871e-02 -1.46565527e-01 +1.38203101e-02 +1.01814762e-01 -3.14328104e-01 +5.49833402e-02 -2.61450168e-02 +8.49810913e-02 -1.04347683e-01 +3.18262074e-03 +5.85703552e-02 -3.35450955e-02 -4.68420237e-02 +2.88507696e-02 -2.11414889e-01 +6.52464330e-02 +5.27867712e-02 -5.01652993e-02 -6.91166371e-02 -4.09524888e-02 -5.69696762e-02 +1.25318497e-01 +4.79873680e-02 +4.07306440e-02 +4.43669083e-03 -1.71382383e-01 -5.34385629e-02 +8.09113905e-02 +3.59000981e-01 -1.04643449e-01 +7.00857118e-02 +1.70066565e-01 +3.35786156e-02 -3.77836466e-01 -6.57316074e-02 +1.03103280e-01 -2.75597591e-02 +3.36525381e-01 +1.40621230e-01 -7.75592551e-02 +4.56258170e-02 -7.98588395e-02 -2.58440793e-01 +2.33307704e-01 +9.29057077e-02 -1.05108976e-01 +8.35208744e-02 +5.71472384e-02 -2.63739944e-01 -3.20794225e-01 -5.68398181e-03 -1.03831910e-01 +4.48622145e-02 -8.51908624e-02 -2.50739288e-02 +3.55996907e-01 -3.92735889e-03 +2.36955494e-01 -1.07766762e-01 +7.50885084e-02 -6.33428842e-02 +4.77151154e-03 +1.88961282e-01 +1.73180684e-01 -1.08071059e-01 -5.43613406e-03 -6.88282400e-02 +6.21684678e-02 +2.98669487e-01 -7.43368939e-02 -1.27182066e-01 +1.10543877e-01 -9.98030454e-02 -1.08304054e-01 +1.36667505e-01 +5.17621450e-02 -5.09208925e-02 -4.97802384e-02 -7.21028328e-01 +2.52634287e-02 +6.69578314e-02 +1.16433926e-01 +1.22446343e-01 -1.20414145e-01 +2.90275246e-01 +1.42599165e-01 -3.03664189e-02 +1.76298156e-01 -4.01599407e-02 +3.41953617e-03 -1.45761818e-01 -4.89724278e-02 -2.03976944e-01 -1.42117329e-02 -1.25378281e-01 -1.24866471e-01 -2.23464534e-01 -2.01554701e-01 -1.44726366e-01 -9.34187844e-02 +2.86595076e-02 +7.27252290e-03 -4.55269963e-02 -1.07676886e-01 -1.78994372e-01 +1.23752929e-01 -1.04234563e-02 -9.72488001e-02 -2.79413704e-02 -2.36305371e-02 -1.15088247e-01 -4.54333844e-03 +1.08322524e-01 -1.92598253e-02 -8.06618929e-02 -7.99870715e-02 -2.03256205e-01 -1.34408906e-01 +1.66206975e-02 -1.11846300e-02 -4.85052876e-02 +3.34335081e-02 -1.00195117e-01 -1.49098128e-01 +7.72698075e-02 -1.41109928e-01 +4.46521072e-03 -1.27353370e-02 -8.77802968e-02 +4.08408977e-03 +9.81000587e-02 -3.89080569e-02 +1.60796002e-01 -7.97513872e-03 -9.04883370e-02 -9.98406932e-02 +7.26425275e-02 -1.34098139e-02 -1.06614456e-01 +7.70947337e-02 +1.37142614e-01 -1.64061800e-01 +1.69222832e-01 -3.81729752e-02 -1.22563019e-01 -3.64194699e-02 +9.58493575e-02 -8.94514471e-02 +3.10737878e-01 -1.62129804e-01 +8.68395641e-02 +1.60118658e-02 +6.45105839e-02 +1.37425095e-01 -1.21074533e-02 -1.81147587e-02 -3.98135096e-01 +2.21679732e-02 -7.09878877e-02 -2.07525805e-01 -1.94485366e-01 +3.39250714e-01 -7.54095316e-02 -2.32261211e-01 +2.82679256e-02 -4.03326482e-01 -1.30975246e-01 -8.20866227e-02 -2.06217498e-01 +3.90075855e-02 +1.57262430e-01 +2.68762708e-02 -2.42311880e-01 -4.29664589e-02 -7.63314217e-02 -1.66966960e-01 +1.57232910e-01 +1.15599811e-01 -5.39168390e-03 +5.63695207e-02 -2.00725645e-01 +6.13950714e-02 -2.38703098e-02 -1.39016762e-01 -2.07218349e-01 -3.20949346e-01 +1.72677517e-01 +2.03326285e-01 +3.97183821e-02 +1.48717701e-01 +1.23024456e-01 -2.06103586e-02 +8.68437812e-02 +3.62931229e-02 -1.65611599e-02 +1.55987829e-01 -5.50011173e-02 -2.04532772e-01 +3.29191796e-02 -4.79413979e-02 -4.43313792e-02 -1.11472741e-01 +5.82391880e-02 +9.16599482e-02 -4.98511195e-02 -1.09891698e-01 +1.84362620e-01 +7.86816105e-02 -1.24375470e-01 +3.36095951e-02 +9.58375782e-02 +6.29998967e-02 -1.57077715e-01 -1.02072351e-01 -8.74097496e-02 -1.65302634e-01 -1.08842142e-01 -1.72988355e-01 +4.08978052e-02 +7.08389701e-03 +2.19605714e-02 -3.14695127e-02 -1.13932081e-01 -1.30787477e-01 +1.19519286e-01 +1.63520098e-01 +1.38381440e-02 +1.98901758e-01 +1.51213616e-01 -9.31073576e-02 +1.10976137e-02 +6.16498012e-03 +6.17762059e-02 -1.99606240e-01 -8.17456320e-02 +8.75195414e-02 +1.40106797e-01 +3.25662754e-02 -7.60325789e-02 +4.41978723e-02 +1.16318509e-01 -7.80562013e-02 +1.51893646e-01 +2.33644936e-02 -1.30943209e-01 -2.55512875e-02 +5.64296283e-02 +1.43472522e-01 +4.08799611e-02 +8.52178335e-02 +5.43341674e-02 -3.25524434e-02 -9.45616364e-02 +2.36875504e-01 +2.75832057e-01 +1.14566438e-01 +7.76753053e-02 +7.22619668e-02 -1.66973583e-02 +2.26438984e-01 -2.85197675e-01 +1.04982024e-02 +9.36019197e-02 +2.43559182e-01 +5.14626019e-02 +9.45815071e-03 -8.31675008e-02 -7.03151617e-03 -1.73699096e-01 -4.89149354e-02 +5.61125316e-02 -5.55993989e-03 +7.75957713e-03 -9.69062522e-02 +4.81007015e-03 +2.56833024e-02 +2.69110650e-01 +9.66101363e-02 +4.19824645e-02 +8.41572210e-02 -1.67879034e-02 +8.82654339e-02 +5.89772314e-02 -1.28745466e-01 +1.38872519e-01 +5.32976240e-02 +8.08927491e-02 -4.52898107e-02 -2.79359132e-01 +4.31165040e-01 -2.28352770e-02 +2.65430331e-01 +1.11292116e-01 +4.02839869e-01 +1.58491544e-02 -4.73450171e-03 +1.70223370e-01 -3.83700095e-02 -6.07770458e-02 +1.26181468e-01 -1.06086947e-01 +7.82277808e-02 +1.43009886e-01 +1.37009338e-01 -7.90898949e-02 +1.31947130e-01 +2.05154181e-01 +2.53519118e-01 +9.13387910e-02 +8.15878529e-03 -4.37833369e-01 +3.98312807e-01 -2.39819527e-01 +1.92488417e-01 +5.71273677e-02 +1.22680947e-01 +6.40928522e-02 +1.40385795e-02 -1.51520863e-01 +4.58514951e-02 +8.21352936e-03 -9.47260335e-02 +4.33213785e-02 +1.53954819e-01 +1.70912042e-01 -7.35345036e-02 +5.16807400e-02 +2.97624707e-01 -1.58287346e-01 -4.81076576e-02 +9.44543928e-02 -1.11284479e-01 +2.00314328e-01 +1.64954826e-01 -2.82086015e-01 +1.32453054e-01 -7.33053833e-02 -8.86250734e-02 +1.28660798e-01 +1.01880215e-01 +2.27460817e-01 -1.29748490e-02 -2.51683295e-02 +1.34436652e-01 +6.49466366e-02 +7.94636235e-02 -7.50334635e-02 -1.97730251e-02 +8.76966049e-04 -7.79183060e-02 -6.86837882e-02 +2.70175319e-02 -4.29669470e-02 +7.47581273e-02 +9.02937427e-02 +9.96025279e-02 +7.88145065e-02 +1.36692956e-01 -8.97211656e-02 -2.71499585e-02 +7.56962318e-03 +6.38205260e-02 +5.77239804e-02 +9.63489935e-02 -4.73306738e-02 +5.62599041e-02 -5.25940061e-02 -6.28854632e-02 +3.06822881e-02 +9.70962495e-02 +3.35981809e-02 +1.01231880e-01 +1.74552388e-02 +6.55522123e-02 +2.11765431e-02 -9.04750302e-02 -7.72226900e-02 +5.16904965e-02 -3.17684226e-02 -1.29717856e-03 -5.05754538e-03 +1.63894266e-01 +2.65688449e-01 +2.44401265e-02 -1.70433633e-02 +1.33859560e-01 +1.32726273e-02 -1.64370865e-01 -6.34163767e-02 -3.19752060e-02 -9.54099186e-03 -1.98505282e-01 +4.32828441e-02 -2.86471061e-02 +9.16775018e-02 +4.35370170e-02 +7.53192231e-02 +6.37551025e-02 -1.00389384e-01 -5.06664030e-02 +1.44075423e-01 +1.47471860e-01 -2.39779260e-02 -7.23627061e-02 +1.02250472e-01 -1.29104806e-02 +4.97350190e-03 +7.83412606e-02 -5.52513264e-02 -1.40305474e-01 +2.92548654e-03 +1.34620264e-01 +1.40528549e-02 -9.42142829e-02 +8.29940960e-02 -2.05663145e-01 -7.70804584e-02 -3.24028693e-02 +2.41671443e-01 +1.81736603e-01 +1.35677963e-01 +4.90285069e-01 -5.83270527e-02 -9.77677256e-02 -1.96879625e-01 +3.36747795e-01 -1.58632323e-01 -1.17404617e-01 +4.81965363e-01 -5.91372773e-02 +8.84148106e-02 +1.41588926e-01 +4.21484560e-02 -1.70022678e-02 +1.48469195e-01 +1.11864775e-01 +7.32161403e-02 +3.35931033e-01 -4.72554773e-01 -6.79565668e-02 -1.43922687e-01 +7.02728704e-02 -2.92845368e-01 -1.97836027e-01 -1.13493940e-02 -2.56614745e-01 -1.62318274e-01 +1.41474128e-01 -1.05506495e-01 -1.40087917e-01 -6.78703263e-02 -1.26117170e-01 +3.64355519e-02 +3.81037146e-02 -2.75171120e-02 +1.64556503e-01 -3.56922112e-02 -7.63593763e-02 -1.15199216e-01 +1.23615637e-01 +2.87548929e-01 +6.66277707e-02 -4.46047373e-02 -1.49645954e-01 +6.38411343e-02 -1.74355656e-01 +1.85480669e-01 +5.65770455e-02 +8.01269189e-02 -5.60365804e-02 -1.82707831e-02 +8.86461288e-02 +5.06483242e-02 -5.62922917e-02 -9.14255232e-02 -4.63193990e-02 -2.70509929e-03 -2.39071473e-01 +1.00154787e-01 -1.40639395e-01 -1.82138935e-01 -2.07438678e-01 +3.83721776e-02 -1.22284561e-01 -7.99778253e-02 -1.08675703e-01 -5.08343019e-02 +1.76257361e-02 -6.91526607e-02 +8.00889730e-03 -1.26792848e-01 -1.63410455e-02 -6.44358248e-02 -4.43099178e-02 -6.61827177e-02 +8.29328150e-02 -2.06814762e-02 -1.78757399e-01 -4.34296168e-02 +2.37998720e-02 -1.11365855e-01 -5.71778119e-02 -1.21757969e-01 -1.74741089e-01 -1.49690211e-02 +1.81646347e-02 -1.95941851e-02 -7.06419796e-02 -1.05718136e-01 +1.42238289e-01 +2.93618351e-01 +1.16211213e-01 -9.83543620e-02 -3.71094532e-02 +1.65206119e-01 +2.99013162e-04 -6.73412010e-02 -6.81515038e-02 -1.14385754e-01 +8.52523595e-02 +1.43133877e-02 +1.00371741e-01 +1.54987723e-02 +9.93975531e-03 +2.08274927e-03 -8.25522095e-02 +8.36807713e-02 -5.59387021e-02 +9.99543220e-02 +1.61848113e-01 -2.67965626e-02 -1.04222812e-01 +2.58562922e-01 +2.47089136e-02 +6.60222098e-02 +1.12497397e-01 -2.28558537e-02 +7.18310475e-02 +5.40415682e-02 +6.96161389e-02 -3.69963557e-01 -1.07370362e-01 -2.70460453e-02 -7.45139569e-02 -4.59363833e-02 +1.48554608e-01 -5.88266551e-02 -2.44344875e-01 -2.37912014e-01 +4.77796979e-02 -1.20196283e-01 -1.14020534e-01 -6.55142218e-02 +2.37457976e-01 -4.06838655e-02 +2.36782596e-01 +1.23972155e-01 -4.70104575e-01 -2.16400754e-02 +2.35356465e-01 -1.33665249e-01 -3.67580354e-02 -3.64883691e-01 -7.68120140e-02 -1.19163044e-01 +3.04132134e-01 -1.87772945e-01 -1.91181183e-01 -1.16108209e-01 -2.81847447e-01 -2.40684882e-01 -1.30169362e-01 +4.49490920e-03 -4.36115004e-02 +1.73246823e-02 +1.43696601e-02 -1.29470170e-01 +1.65850163e-01 -1.58100724e-02 -1.06204815e-01 +1.51113188e-02 -2.02251241e-01 +2.47267395e-01 -1.14164829e-01 +1.38891637e-01 +7.01925755e-02 +3.55282016e-02 -1.63481627e-02 +4.51523811e-02 +2.28289329e-02 +1.27881959e-01 -5.39200790e-02 -3.80818635e-01 +1.52441457e-01 -8.37398097e-02 +5.82580268e-02 +7.73245050e-03 +7.49542937e-02 -4.39819656e-02 +1.12061761e-01 +6.05115257e-02 -1.42612040e-01 -3.33539210e-02 -1.23660907e-01 +3.90246026e-02 +2.10945740e-01 +4.94397581e-02 +1.04432315e-01 +2.23627329e-01 +6.87304810e-02 +5.74921109e-02 +1.10387124e-01 +1.89536065e-01 +1.10529251e-01 +2.20162943e-01 +6.67619929e-02 +1.41575441e-01 -7.71457478e-02 +1.53573483e-01 +1.80931076e-01 +2.17040718e-01 +4.96223494e-02 +9.68059227e-02 +1.66475669e-01 +2.15429351e-01 -8.90435055e-02 +2.53798842e-01 +1.56921998e-01 -1.29623404e-02 -1.12810750e-02 +1.34130985e-01 +2.25471109e-01 +1.42790914e-01 +1.96694046e-01 +2.04519674e-01 +2.04974756e-01 -1.37246996e-01 +3.41386423e-02 +2.32626468e-01 -6.75927848e-02 +5.79587966e-02 +8.63715634e-02 -5.59549890e-02 +5.10219969e-02 +2.74665300e-02 -3.19654159e-02 -1.00381769e-01 +3.90334763e-02 +1.11735284e-01 -9.37301107e-03 -5.60640432e-02 -9.90894996e-03 +1.01178162e-01 -7.01358775e-03 +3.64962183e-02 +8.56895596e-02 -9.56452787e-02 +2.50371099e-02 +3.40683945e-02 +1.17041208e-01 +7.72971585e-02 +7.71949142e-02 +1.13378033e-01 +1.40799787e-02 +7.81770870e-02 -3.02423425e-02 -1.27924960e-02 -1.25364378e-01 +4.97107543e-02 +5.63952737e-02 +6.79887906e-02 +7.40623102e-02 +3.24399501e-01 +2.15193659e-01 +2.17360288e-01 -6.12121299e-02 +1.30724803e-01 +1.00615788e-02 +3.91725212e-01 +1.07141741e-01 +2.25628585e-01 -1.87085196e-01 -2.63041049e-01 +3.80752496e-02 -6.96593374e-02 -6.86833933e-02 +1.14677928e-01 +1.76515773e-01 +3.35364565e-02 +1.70087367e-01 -6.49729967e-02 +2.04181820e-01 +1.30796982e-02 -2.13423207e-01 -9.47558042e-03 +2.96327472e-01 +2.05418795e-01 -7.47729540e-02 -2.88680613e-01 -1.28713205e-01 +5.43320328e-02 -2.85744481e-02 -1.93510987e-02 -2.80206464e-03 +1.57690197e-01 -1.19914934e-01 +3.33823711e-02 -7.94232711e-02 -2.71961302e-01 +1.15574911e-01 -2.00956538e-01 -1.98589951e-01 -1.10658906e-01 +1.20424658e-01 -6.15650676e-02 -7.89108351e-02 +1.53555395e-02 -1.21608353e-03 +9.94650424e-02 -2.21002102e-02 -1.74617872e-01 -1.34448856e-01 -1.34801850e-01 -1.70053542e-02 -8.06723833e-02 +9.61886998e-03 +7.33476654e-02 -3.75063494e-02 +1.70011982e-01 +2.84332577e-02 +2.12534770e-01 +1.11933403e-01 +1.42813012e-01 -1.23892345e-01 -7.09301084e-02 -1.20848402e-01 -5.92910871e-02 +4.67514386e-03 +7.00086802e-02 +1.01888381e-01 +9.13259666e-03 +1.11340612e-01 -1.30543813e-01 -7.10094348e-02 +4.44073528e-02 -6.47062734e-02 -2.21175384e-02 +3.93917188e-02 +8.64679441e-02 -1.99072845e-02 +8.29722136e-02 -1.61315754e-01 -1.74527988e-03 +7.57352039e-02 +1.31201610e-01 +6.27555922e-02 -8.30895826e-02 +1.54236391e-01 -1.08229652e-01 -6.41738549e-02 +4.19402383e-02 +5.24414442e-02 -9.27079022e-02 -6.01863340e-02 -1.07930467e-01 +1.34851873e-01 +2.35228300e-01 +6.65176511e-02 +9.75343883e-02 +8.31324235e-02 -1.28322527e-01 -1.68852955e-01 +6.44377992e-02 -7.55113438e-02 +1.37413546e-01 -7.45167164e-03 -9.69242025e-03 -9.39410478e-02 -8.30762461e-02 +6.76095188e-02 -1.88807517e-01 -5.39405942e-02 -4.83217351e-02 +6.88427165e-02 +1.55906737e-01 +2.98080184e-02 -3.04047298e-02 +7.54054124e-03 -5.13231531e-02 +5.64540215e-02 -1.26545638e-01 +2.46858403e-01 +3.32444496e-02 +3.24811903e-03 +6.55324385e-02 -7.06794411e-02 +2.77146965e-01 -2.71694567e-02 -6.57063872e-02 +1.72303021e-02 +6.97371596e-03 +8.14152658e-02 +2.50729501e-01 -2.73247231e-02 -7.26544410e-02 +4.97186661e-01 +5.44778742e-02 +1.07211635e-01 +1.09691754e-01 +1.73742890e-01 -3.77238810e-01 -3.50860238e-01 +4.90157038e-01 -1.06719118e-02 +8.83093029e-02 +7.77148530e-02 -5.68572991e-02 -1.55968308e-01 +1.31390855e-01 +2.93868423e-01 +1.81477759e-02 -9.61370841e-02 -4.84066695e-01 +2.46792547e-02 -3.40643406e-01 +1.38723835e-01 -3.32438618e-01 -1.72173575e-01 -1.17191046e-01 +2.03897469e-02 -2.47941375e-01 -9.58217829e-02 -1.38384804e-01 -1.84608847e-01 +5.09862453e-02 -1.23060592e-01 -1.76221460e-01 +4.29504663e-02 -7.54259527e-02 +1.32962465e-01 -9.53099355e-02 -1.21441424e-01 -6.22805059e-02 +6.04714863e-02 +4.69532818e-01 +8.43682885e-02 -5.66166267e-02 +5.40147237e-02 +1.09926417e-01 -5.24512641e-02 +1.13068171e-01 -6.54813573e-02 +1.84668764e-01 +3.71375717e-02 -5.04660001e-03 +3.74359824e-02 +2.11641379e-02 +6.99054748e-02 -6.73146173e-02 +4.29052413e-02 +6.75913095e-02 +9.43568572e-02 +9.35475677e-02 -4.57489043e-02 +4.30454314e-02 +7.73466825e-02 +1.32620195e-02 -1.14287741e-01 -8.16188902e-02 -1.43899606e-03 -7.91574195e-02 -1.54422730e-01 -1.52948767e-01 -1.12644002e-01 -7.17336759e-02 +1.24836475e-01 +5.63672520e-02 -8.64619017e-02 +2.55676289e-03 +6.41278997e-02 +1.08043969e-01 +1.05172008e-01 +1.10459542e-02 -3.75622162e-03 -7.12271733e-03 +7.55796507e-02 -4.24386747e-02 +8.29757452e-02 -9.07489508e-02 -1.61619216e-01 +6.15857467e-02 +7.36071169e-02 -1.68280169e-01 -3.16588879e-02 -2.55837142e-01 -7.13909566e-02 +5.11697978e-02 -5.80180027e-02 +1.25911489e-01 -7.70072117e-02 +4.74852286e-02 -6.58830926e-02 -1.18315123e-01 +3.73308472e-02 -2.94822901e-02 +7.59676397e-02 +8.72978047e-02 -3.20083350e-02 -7.07858130e-02 -7.24951997e-02 -6.97170943e-02 -6.22153878e-02 +7.26435632e-02 -1.02322318e-01 +2.03063618e-02 -1.50430113e-01 +1.02176979e-01 +9.98990014e-02 -6.12623543e-02 -4.89809774e-02 -4.89498898e-02 +1.86072573e-01 +6.09773062e-02 +9.78645012e-02 -1.23428583e-01 +1.74883194e-02 +3.77904214e-02 -1.67671546e-01 +1.55697307e-02 +3.17525476e-01 -4.75229472e-02 -2.05170795e-01 +3.40787992e-02 -3.56608301e-01 +9.16701928e-02 -1.24613009e-01 -1.72474538e-03 -2.66178131e-01 +2.25031108e-01 +2.27729917e-01 -2.49706730e-01 +1.50806814e-01 -4.15164232e-02 -9.73981693e-02 -5.02214395e-02 +1.55055270e-01 -1.88116699e-01 -5.67444861e-02 -1.17011838e-01 -2.36746311e-01 +3.67720783e-01 +8.35324228e-02 -6.94555789e-02 -9.79616717e-02 +2.36094788e-01 +2.97079027e-01 +3.07845920e-02 +7.11581558e-02 -1.76680274e-02 -1.56001896e-01 +3.53867072e-03 +3.01256943e-02 -2.31566988e-02 +1.87826484e-01 +1.20470889e-01 -2.87948344e-02 -1.41568646e-01 -5.49408467e-03 +4.18761782e-02 +2.08874308e-02 +6.74313903e-02 -5.86564392e-02 +5.95633425e-02 -5.54317329e-03 +1.08075529e-01 +7.57187009e-02 +5.53132519e-02 +5.48140816e-02 +1.00490995e-01 +1.53938547e-01 -3.97722386e-02 -4.03908305e-02 -7.77556375e-02 -5.80483377e-02 +4.92506213e-02 -6.16495386e-02 -5.98345846e-02 -9.95566994e-02 +9.00114700e-03 +1.53006148e-02 +5.67825511e-04 -2.31103733e-01 +2.60854755e-02 -1.83870926e-01 +1.51609201e-02 -1.40585691e-01 -1.46597356e-01 -3.47457901e-02 -2.15383209e-02 -4.68707196e-02 +4.32949737e-02 +8.51084366e-02 -1.94312587e-01 -1.06741395e-03 -3.76314759e-01 -1.14993177e-01 -1.58532351e-01 -3.64798278e-01 -9.26547721e-02 -8.10859352e-02 -7.19323307e-02 -1.35984093e-01 -1.11003749e-01 +2.90873647e-02 -1.67691797e-01 -5.85340112e-02 -8.75033624e-03 -2.88873494e-01 -1.94507867e-01 -2.02104509e-01 -3.53295095e-02 +3.48451942e-01 -2.33602539e-01 -6.75760582e-02 +7.03013386e-04 +1.84448157e-02 -9.25206244e-02 -2.06314594e-01 +4.55570780e-02 -1.69500351e-01 +1.13178186e-01 +1.61243170e-01 -1.47078767e-01 +6.95395470e-02 -3.30276787e-02 +6.90973550e-02 +2.86164042e-02 -1.31011859e-01 -1.31798297e-01 +6.84652105e-02 -2.03364231e-02 +3.10592353e-02 -5.20349704e-02 -8.27029645e-02 -7.39116818e-02 -1.59693267e-02 -8.18812381e-03 +1.11573972e-02 -2.57966854e-02 +5.05554378e-02 -1.08567290e-01 +5.55180758e-02 -3.20583165e-01 +6.32346272e-02 -1.23832107e-03 +2.71183759e-01 +2.04214841e-01 +3.81935760e-02 +3.11459959e-01 +1.63682207e-01 -1.44703388e-01 -6.96884692e-02 -5.10533899e-02 +2.39207149e-02 -1.03605777e-01 -2.03765973e-01 -8.20585042e-02 +2.07582414e-01 -9.60473418e-02 +3.98279317e-02 -2.85340160e-01 -5.64385264e-05 -2.82962292e-01 -2.84341514e-01 -3.97787660e-01 -1.93056136e-01 -2.95859396e-01 -3.41370881e-01 +2.50702381e-01 -1.10148350e-02 +1.75312366e-02 -7.60508552e-02 -4.01009573e-03 +4.97652888e-02 -6.64143190e-02 +1.26168728e-01 +1.17427625e-01 -7.66468644e-02 -2.41714537e-01 +1.58900484e-01 +3.58925797e-02 -1.12726927e-01 +1.22416399e-01 +8.13012477e-03 -6.03859425e-02 -1.34909093e-01 -7.17137882e-04 -1.24327429e-01 +7.39194453e-02 +1.54128551e-01 +2.51447763e-02 -2.38844473e-02 +4.59157005e-02 -2.92818807e-02 +1.42586846e-02 +2.56800771e-01 +1.37358338e-01 +1.48317352e-01 +1.67989563e-02 +1.26573086e-01 +5.73648103e-02 -2.48626936e-02 -3.28844078e-02 -1.87560245e-01 -3.44795473e-02 +2.25667357e-02 -8.58361647e-02 +1.89849734e-02 +8.99236947e-02 +5.63247539e-02 +8.85706674e-03 +1.65119499e-01 +9.60900541e-03 +1.52754942e-02 -1.67902522e-02 +1.43654168e-01 +5.46719767e-02 -1.46026820e-01 +5.10829315e-02 +2.34489031e-02 +2.12287098e-01 -2.61870623e-02 -1.63824875e-02 -3.83715183e-02 +5.91923073e-02 +1.64194003e-01 +1.05530307e-01 -7.19193146e-02 +2.28540838e-01 -1.74985193e-02 -7.35234469e-02 +4.12113331e-02 +1.10860676e-01 +9.75514650e-02 +1.33834720e-01 +1.58331573e-01 +7.34561235e-02 +7.94013813e-02 -8.66309330e-02 -2.04536729e-02 -1.30339608e-01 -1.92086697e-01 -6.74197674e-02 -7.23832175e-02 -1.16517454e-01 -1.47974133e-01 -2.34951183e-01 -7.87180141e-02 -2.80117989e-02 +5.54968603e-02 +2.34679908e-01 +9.14269611e-02 +6.67287409e-02 -1.59797557e-02 -9.48188379e-02 -4.56952080e-02 +1.63883455e-02 -1.66736186e-01 +3.19220126e-01 +3.00577849e-01 +4.46414240e-02 -4.17357609e-02 +1.97364450e-01 +1.33312300e-01 +4.45309617e-02 +1.23702995e-01 +4.53137420e-02 +5.36424713e-03 +3.79959568e-02 +1.52340859e-01 -8.90210122e-02 +4.13769893e-02 -3.70905586e-02 -1.59904547e-02 +5.50089888e-02 -1.41340986e-01 +9.56007019e-02 +8.53292793e-02 +5.81873432e-02 +4.83773053e-01 -6.42026737e-02 +1.99070424e-02 -8.60068649e-02 +3.74150276e-01 +2.35791117e-01 +1.27973646e-01 -5.71849495e-02 -8.68308619e-02 +9.15642232e-02 +1.64983705e-01 -4.08130698e-02 -4.29872386e-02 -3.16078700e-02 +1.31765336e-01 +1.80930853e-01 +3.15070510e-01 -1.45493612e-01 -9.53875631e-02 +1.50111079e-01 +2.72918195e-01 +7.19827339e-02 -1.49008229e-01 +2.76211202e-01 -3.32157761e-01 -1.93549603e-01 -1.72962099e-01 +2.87435707e-02 -4.66974489e-02 -1.03372261e-01 -1.34529993e-01 +9.37903449e-02 +1.60518155e-01 -4.70413454e-02 +8.28025192e-02 +1.23949781e-01 +1.14515781e-01 -1.44375145e-01 -1.86622068e-01 +2.11542919e-01 +5.54077141e-02 -8.00014064e-02 -2.80464962e-02 -1.07034519e-01 -2.60248855e-02 +6.17322791e-03 -7.55454227e-02 +4.64071222e-02 -7.78260594e-03 +7.09259510e-02 -2.87056357e-01 +1.05058782e-01 -1.24597736e-02 +6.55650720e-02 +3.48722725e-03 -8.75398740e-02 +2.44663447e-01 -5.81517555e-02 -1.11809053e-01 -7.06896782e-02 +9.41810235e-02 -1.27661508e-02 -7.26794228e-02 +7.33264908e-02 -1.15635760e-01 +6.72733635e-02 +1.08316235e-01 +1.56271830e-01 -1.41022056e-02 +1.06575951e-01 +1.52902097e-01 +1.56441838e-01 +1.18574701e-01 +1.24558024e-01 +6.84489608e-02 +1.48863554e-01 +7.61009231e-02 +1.12318294e-02 -8.74583274e-02 +2.01898944e-02 +5.03105819e-02 +1.39182314e-01 -4.61224793e-03 -1.99407265e-02 +3.89035568e-02 +2.55502551e-03 -9.40074120e-03 +1.06342882e-01 +7.84948319e-02 +1.52325109e-01 -3.32228537e-03 +1.40581459e-01 -5.84829040e-02 -9.95377526e-02 +3.88860411e-04 -1.07284814e-01 +7.28362352e-02 -4.94194813e-02 -3.71940255e-01 -5.48249669e-02 -4.83425967e-02 +2.36427523e-02 +4.46049236e-02 +9.60731227e-03 +1.12927780e-01 -3.82304877e-01 +1.14903539e-01 +1.20306462e-01 -1.67427033e-01 +2.22909167e-01 +6.92742914e-02 +4.33850922e-02 -1.81765705e-01 -9.90758911e-02 +3.89108397e-02 -6.00124002e-02 +6.80137649e-02 -1.06821947e-01 -8.72851312e-02 +2.19235182e-01 +3.46817821e-01 -1.28724743e-02 -4.03457263e-04 +4.17127088e-02 +9.85155776e-02 -3.15541625e-02 +1.95327699e-01 +2.34418899e-01 +9.23911333e-02 +7.50766024e-02 +6.66305348e-02 +9.30022448e-02 -2.02902272e-01 +1.69834290e-02 +1.95988849e-01 +1.04826704e-01 +7.99572289e-01 -2.55945325e-02 -5.34960568e-01 +5.37749380e-02 +3.18001024e-02 +4.94164079e-01 +9.65505466e-03 -3.10095847e-02 -3.89733702e-01 +1.34117678e-01 +2.52126127e-01 -2.60570701e-02 +1.67377800e-01 +6.14072718e-02 +1.68133721e-01 -1.12720780e-01 +7.65963942e-02 +1.69860959e-01 +6.05053045e-02 +9.83442813e-02 -1.17015190e-01 -2.85164313e-03 +9.70520899e-02 -1.07731067e-01 -9.13799852e-02 -6.34229109e-02 -3.16654742e-01 -8.85689110e-02 -9.26769227e-02 +5.08938991e-02 +3.04472391e-02 +1.40944868e-01 +1.65735697e-03 -2.23255586e-02 -1.04295552e-01 +2.59780318e-01 -1.23376146e-01 -1.48360804e-01 -3.71391773e-02 +1.01897353e-02 -3.26571278e-02 +1.61532480e-02 +3.28244604e-02 +1.25887483e-01 -4.39740792e-02 +3.90973082e-03 +4.60844766e-03 -5.74826356e-03 +1.72063131e-02 -9.90347788e-02 +1.60961196e-01 +1.04701050e-01 +9.82480049e-02 +8.99593625e-03 +1.79422684e-02 +1.53248606e-03 -1.44752078e-02 +7.38435984e-02 -2.66518984e-02 +2.88009979e-02 +6.51836544e-02 +1.09737732e-01 -6.45345375e-02 +6.80290759e-02 +3.52374054e-02 +3.48834917e-02 +9.91051048e-02 +1.49626404e-01 +1.17966503e-01 +1.09822027e-01 +2.26075538e-02 -9.55668911e-02 +9.02858600e-02 +3.90285365e-02 +2.20406912e-02 -1.23893097e-02 +2.45432742e-02 +1.30964536e-02 +1.27449110e-01 +1.06473029e-01 +1.16618410e-01 +1.91188842e-01 +3.98182124e-02 +5.85290082e-02 +5.10247834e-02 -4.03477922e-02 -4.71096858e-02 -3.90585661e-01 +1.15044616e-01 +1.31180465e-01 +1.17602991e-02 -3.68313640e-02 -4.99142073e-02 +2.45968532e-02 -1.16779938e-01 -2.84447558e-02 +4.66526337e-02 +6.62485510e-02 -7.73134129e-03 -1.01182438e-01 +4.13755281e-03 +8.58299360e-02 +4.64454331e-02 +2.21971110e-01 +6.82056174e-02 +1.87611859e-02 +1.44738620e-02 +1.11489303e-01 -2.93961503e-02 +8.65928754e-02 -2.36383334e-01 +2.82690704e-01 +7.25903139e-02 -5.46938218e-02 +3.62859786e-01 +1.79196909e-01 +3.65586728e-02 +6.60766065e-02 +1.91512957e-01 +7.70046562e-02 +1.11072443e-01 +1.65054277e-01 +4.57576104e-02 +1.83997408e-01 -2.14778870e-01 +9.75256637e-02 -1.06636293e-01 +7.63546824e-02 +2.46660225e-02 +1.99205533e-01 -4.41270694e-02 +3.68792489e-02 +1.73010975e-01 +1.96822181e-01 +3.58549595e-01 +1.08927421e-01 -5.94202476e-03 -1.31633341e-01 +3.12124997e-01 +2.88316011e-01 +2.18698397e-01 -1.49125000e-02 +8.83066952e-02 -1.69766828e-01 -7.02511296e-02 +5.93954436e-02 +3.74256432e-01 +1.06953293e-01 -2.45946631e-01 -1.01154566e-01 +5.14437407e-02 +1.53705841e-02 +1.93171278e-01 -1.00075684e-01 +1.87452268e-02 +2.81498618e-02 -7.45786205e-02 -1.34632632e-01 -1.43327102e-01 +7.48329610e-02 +7.08923563e-02 -8.22919235e-02 +6.25516102e-02 +1.42903164e-01 -1.53262094e-01 +7.12023154e-02 -9.98615399e-02 +1.09676905e-01 -2.15841457e-02 -3.14643942e-02 -5.99836744e-03 -1.30636618e-02 +1.35226339e-01 +1.67687237e-01 +4.60475758e-02 -4.09811139e-02 +2.21686698e-02 -3.11441608e-02 -1.89959537e-02 -1.26200199e-01 -1.25462906e-02 -5.29747605e-02 +1.56992488e-02 -8.19414183e-02 +6.95458651e-02 +1.43814245e-02 -1.05903313e-01 -1.53242439e-01 -1.28898934e-01 +1.85491908e-02 +2.83616632e-02 -3.59811783e-02 -1.22537844e-01 -1.59960255e-01 -9.77179110e-02 +6.69886768e-02 -1.47924826e-01 -1.98138833e-01 -9.61723849e-02 -1.89796567e-01 -2.39936933e-02 +1.75795574e-02 -7.36563131e-02 -1.92940027e-01 -7.67424330e-02 +3.77319716e-02 -1.83762133e-01 -9.68205035e-02 +1.48374010e-02 -1.31549314e-01 -1.45428672e-01 -1.20311141e-01 -1.41816437e-01 -3.30916569e-02 +1.31964415e-01 +1.78019121e-01 -4.86373939e-02 +5.89417107e-02 +8.32718536e-02 -1.44283146e-01 -2.55361088e-02 -6.74853325e-02 -3.05273160e-02 +1.73624843e-01 -5.43589704e-02 +1.91672444e-01 -1.33621946e-01 +1.72358528e-02 -1.56890824e-01 -3.00934296e-02 -1.40579185e-02 +3.95367473e-01 +8.78272802e-02 -6.90672398e-02 -1.27679363e-01 +3.92156914e-02 +1.08341664e-01 +9.86818895e-02 +5.93123399e-02 -1.66599974e-01 -8.68103355e-02 +5.99823222e-02 -1.06829658e-01 -2.37674698e-01 +3.77445191e-01 -3.15913945e-01 +5.09258397e-02 -2.38810882e-01 -1.05585143e-01 +1.49891123e-01 -2.48062477e-01 +6.90167248e-02 +8.40276405e-02 +2.33255237e-01 +2.87359595e-01 -1.43095821e-01 -4.44891714e-02 -3.46439242e-01 -3.27428460e-01 -1.50861040e-01 +1.07184611e-01 -1.29884303e-01 -2.25824594e-01 -2.27589890e-01 +6.85625002e-02 +2.78651059e-01 +5.40753230e-02 -2.90289652e-02 -1.27956122e-01 +1.29652992e-01 +1.34435534e-01 +8.62262398e-02 +1.68755203e-01 +1.17795765e-01 -9.22645777e-02 -7.18262270e-02 +1.44869968e-01 +1.56444207e-01 -1.55514199e-02 +1.02342047e-01 -1.90529183e-01 +1.37934834e-01 +4.54918146e-02 +8.12581778e-02 -8.56625512e-02 -5.12713604e-02 +1.20295212e-03 +4.54855189e-02 -8.31034184e-02 +1.68539852e-01 +1.59875810e-01 -1.28584623e-01 +3.99288945e-02 +6.56300187e-02 +1.85207129e-01 +2.50160787e-02 +3.34541276e-02 -1.94048285e-01 -1.94516149e-03 -4.04213518e-02 -1.34779677e-01 +3.01170275e-02 -1.09642006e-01 +6.98826164e-02 -9.17282552e-02 -4.98200431e-02 +1.07805520e-01 -6.27596155e-02 +1.65844262e-01 +6.41097575e-02 -3.94822471e-02 -6.65389672e-02 +1.35760188e-01 +1.36403143e-01 -7.69660920e-02 +2.65754238e-02 -5.38290739e-02 -5.46379723e-02 +4.87847589e-02 -1.17465459e-01 +1.31283566e-01 +2.70201623e-01 +1.33942857e-01 -1.51296943e-01 -6.15991876e-02 -8.65364075e-02 +9.29728523e-02 +2.71609485e-01 +1.26157375e-02 -1.03850067e-02 +6.29542023e-02 +1.09145552e-01 +3.50948721e-02 +1.01605900e-01 +4.75132354e-02 +1.39289245e-01 -1.95201173e-01 -2.06986532e-01 -3.33361626e-02 -1.41677722e-01 +5.44078983e-02 -4.95572239e-02 +3.97868901e-02 -1.56247199e-01 -6.62928894e-02 -1.46214329e-02 +3.49244475e-02 -6.98466301e-02 +1.62378967e-01 +5.41369729e-02 -3.67046632e-02 +2.88377441e-02 -1.27338141e-01 -8.05639625e-02 +1.22008607e-01 +9.73721873e-03 -1.69443503e-01 -1.04693040e-01 +8.24776888e-02 -2.63765305e-01 -8.53539929e-02 +8.00265670e-02 +6.03430942e-02 +7.70779625e-02 -1.76763475e-01 +3.37558128e-02 -9.65873078e-02 -1.41291805e-02 -1.41051179e-02 +3.06075215e-02 +2.40380690e-01 -5.69170713e-02 -3.39590847e-01 -3.74672115e-01 +2.72491306e-01 +6.25043511e-02 -1.78189635e-01 -2.09995151e-01 +7.95463100e-02 -1.65414602e-01 +2.40999863e-01 +4.57215697e-01 +3.31742197e-01 -1.51646525e-01 -6.95424527e-02 +2.19937097e-02 +5.54443747e-02 +1.57603055e-01 -3.12081456e-01 +1.55146062e-01 -3.15822870e-01 +6.52680174e-02 +5.90547323e-01 -2.55538344e-01 -1.73539370e-01 +2.52993405e-01 -2.82424148e-02 +5.58440983e-01 -2.41707578e-01 +3.17921713e-02 +1.80004254e-01 -1.69721827e-01 -3.55432443e-02 +1.28581062e-01 -1.36155337e-01 -1.16665341e-01 +7.03981565e-03 +5.25362566e-02 -3.32479849e-02 -1.32900372e-01 +1.57154456e-01 +6.72410149e-03 -3.77869839e-03 -1.02793083e-01 -1.62678398e-02 -3.33263576e-01 +1.09938219e-01 +1.09347269e-01 +2.43881531e-02 +2.43952841e-01 -7.72487447e-02 -8.18961393e-03 -7.13594332e-02 -4.29692678e-02 -1.15450986e-01 +2.79486049e-02 -1.86926916e-01 +4.70197722e-02 +1.12161987e-01 +1.59663875e-02 +2.35927124e-02 -1.44468024e-01 +2.80496061e-01 -5.97662032e-02 -2.02838957e-01 -1.07210139e-02 +7.10587278e-02 -5.16993180e-02 -1.41685829e-01 -6.53970391e-02 +1.37124136e-01 -2.85785971e-03 +9.22618881e-02 -6.19722195e-02 +1.45144194e-01 +4.65172864e-02 +1.53513588e-02 -8.20709541e-02 +8.73126313e-02 -1.44510865e-01 -2.26133820e-02 +1.23267762e-01 -1.81945227e-02 -2.64095038e-01 +1.50518576e-02 +6.87624067e-02 +1.54134944e-01 -2.37145089e-02 +6.00635707e-02 -1.30309612e-01 +1.21772319e-01 -1.29378229e-01 +5.78947961e-02 +4.39623417e-03 +3.89695093e-02 -1.31261125e-01 +6.35070130e-02 -1.57670456e-03 -1.13996662e-01 +1.38011634e-01 -3.46922614e-02 +4.32242841e-01 -6.17269166e-02 +4.55556028e-02 -1.53150067e-01 -6.63598552e-02 +9.42871124e-02 -9.27694142e-02 +2.81483829e-02 +1.67802736e-01 -1.06656529e-01 -2.76300404e-02 +2.03578264e-01 -2.25381017e-01 -1.89818561e-01 +1.24555781e-01 +5.91410547e-02 -8.37784708e-02 -1.97844595e-01 +6.77702948e-02 +1.16240799e-01 +1.49224885e-02 +2.68932551e-01 -7.13452399e-02 +5.60824685e-02 -6.22307621e-02 -2.29044165e-02 +8.26841742e-02 -2.43339747e-01 +2.73059845e-01 +2.70286910e-02 +2.09312484e-01 -3.96943927e-01 +5.01028076e-02 -4.67357963e-01 +3.74546237e-02 -9.20961872e-02 -5.60485497e-02 -2.16548014e-02 -1.87170110e-03 +1.54303268e-01 -1.83087727e-03 +1.73730373e-01 -2.69831195e-02 -1.76845744e-01 -1.51842818e-01 -1.16308711e-01 -6.00078143e-02 -6.79207742e-02 -8.96958783e-02 -1.88885871e-02 +3.71119887e-01 +4.21840101e-01 +6.70052618e-02 -8.91418681e-02 -1.96126457e-02 +1.59899592e-01 -8.02353546e-02 +2.53483909e-03 +2.99820840e-01 +1.70504488e-02 -4.97556739e-02 +1.66280523e-01 +1.06911920e-01 -6.78169355e-02 -1.52763175e-02 -4.42794338e-02 -4.28106487e-02 -2.21383974e-01 +9.64750424e-02 +9.59292948e-02 -6.50718389e-03 +1.68137811e-02 -1.13911107e-01 +8.40689689e-02 -1.34762726e-03 -9.62281879e-03 -2.44672727e-02 +1.49550512e-01 -1.21211231e-01 +1.76587775e-01 -1.31840691e-01 +6.91556707e-02 -4.49690334e-02 +2.11639076e-01 -2.09198743e-02 -4.36098911e-02 +3.22853103e-02 +1.02875799e-01 -5.29668406e-02 +1.82877332e-01 +2.43234202e-01 +6.24487624e-02 +2.72931576e-01 -1.34670921e-02 +1.49421379e-01 +8.07994902e-02 +2.88253754e-01 +1.23926193e-01 +1.32445078e-02 +9.82643813e-02 +1.20145224e-01 +2.81038750e-02 +9.30179656e-02 +1.08567253e-01 -1.84047908e-01 +2.48038709e-01 +1.26828134e-01 -1.26769796e-01 +6.57009408e-02 +1.74551457e-01 +1.99485749e-01 +1.77967679e-02 +1.48249835e-01 +1.34967059e-01 +1.80613995e-01 +1.47928312e-01 +1.34981081e-01 +7.11892848e-04 +2.38762379e-01 +1.92196041e-01 +8.46719518e-02 -8.05586204e-03 +1.56865805e-01 +8.25573131e-03 +1.61143214e-01 -7.03022853e-02 +2.34563574e-01 +7.16742873e-02 +1.37354195e-01 +1.11649744e-02 +1.30668893e-01 +1.30246997e-01 -1.06534787e-01 -6.96069598e-02 +2.15751659e-02 -7.99981430e-02 -6.00551665e-02 -6.72595352e-02 -2.25827426e-01 +1.01841837e-01 +4.19653542e-02 -2.41984695e-01 +4.43425924e-02 -4.62588966e-02 -1.94980893e-02 -1.21377937e-01 -5.84411211e-02 +1.33725792e-01 +1.03027098e-01 +1.07939385e-01 +3.42219230e-03 +5.13289459e-02 -2.26789862e-02 +2.46888429e-01 +1.90133229e-01 +2.24718809e-01 +2.49151930e-01 -4.48097363e-02 +1.85213298e-01 -9.21186805e-02 +2.59279132e-01 -2.18832623e-02 +3.99862975e-01 +1.97761163e-01 -2.32142642e-01 +1.69721261e-01 +1.10546783e-01 +1.66756675e-01 -4.57392558e-02 +1.08037643e-01 +9.62014198e-02 -3.70159931e-02 +2.53530056e-03 +5.65122813e-02 +1.44531399e-01 -1.95107758e-01 +1.73607290e-01 -9.76841450e-02 -1.24057442e-01 +5.12202263e-01 -3.65357846e-01 +3.32759647e-03 +3.33184153e-01 -1.46183819e-01 -1.70120910e-01 +2.24448785e-01 -7.74192140e-02 +1.76869445e-02 -5.46423942e-02 -3.50293852e-02 