#Parameter# /vanilla-lstm-builder/_0 {128,300} 614401 ZERO_GRAD
+2.38668934e-01 -5.66491904e-03 +6.61829114e-02 +3.23092230e-02 +7.98905343e-02 -2.25054324e-01 +3.88506800e-01 -1.04857869e-01 -9.82818678e-02 -1.68339133e-01 -2.38830801e-02 +4.25271600e-01 +1.30390257e-01 -1.21726707e-01 -4.05674160e-01 -4.41238463e-01 -2.17647582e-01 -3.44262689e-01 +1.52510092e-01 +1.30886436e-01 -4.44182456e-02 -1.34335336e-04 +2.80070715e-02 +8.54752958e-02 -8.28624815e-02 +3.17003936e-01 -2.55404174e-01 -1.73612028e-01 -2.92877913e-01 +5.37374206e-02 -2.02856259e-03 -2.04028651e-01 +9.59836785e-03 +1.57890201e-01 -8.38581324e-02 -1.65103167e-01 -1.91912830e-01 -3.72374877e-02 -1.64483473e-01 +2.10059494e-01 +3.98438536e-02 +6.58311844e-01 +1.15756672e-02 +6.89447820e-02 +1.89774826e-01 -1.47001311e-01 +1.45860597e-01 -5.82664311e-01 -2.36091182e-01 +1.37267902e-01 -1.41174346e-01 +1.94066331e-01 -3.50937873e-01 +3.88115525e-01 -4.11354989e-01 -3.49671036e-01 +6.23116549e-03 +2.45278567e-01 +1.58091605e-01 +2.20208149e-02 -1.11656591e-01 +8.43254849e-02 +3.38945001e-01 -3.29318434e-01 +1.74570143e-01 +3.37158173e-01 -3.36488008e-01 -3.76709163e-01 +2.62123913e-01 +6.28937632e-02 +3.83969545e-01 -4.65597749e-01 +4.04052168e-01 +1.37222335e-01 +8.20969582e-01 -3.18505228e-01 -2.21133113e-01 -3.45630646e-01 -2.47620568e-01 -1.10771239e-01 +3.00665408e-01 -7.25379959e-02 -2.16038376e-01 -8.96313488e-02 +1.37336835e-01 +2.60348260e-01 -1.78839520e-01 +4.40523237e-01 -1.71267793e-01 +1.68109059e-01 -1.38840973e-01 +6.71856776e-02 +1.85968027e-01 -2.68194050e-01 +3.93104047e-01 -5.82275450e-01 -4.75629896e-01 -7.80118331e-02 +5.97260073e-02 -1.44992424e-02 +2.42676456e-02 -3.26676592e-02 +7.95866922e-03 -1.38420582e-01 -5.87980598e-02 +2.84985732e-02 -6.75787628e-02 +3.32381651e-02 -8.13637599e-02 +7.07521215e-02 +1.96924433e-02 -7.31242374e-02 -2.18860671e-01 +2.27973372e-01 -1.36080161e-01 +2.88101822e-01 +2.43453085e-01 +2.59894401e-01 +5.78782968e-02 +2.54886188e-02 -8.73423964e-02 +2.64084250e-01 +3.34005244e-02 +1.59040526e-01 +1.25533253e-01 -5.54494187e-02 -5.85343055e-02 -1.76296011e-02 +1.36115968e-01 +8.96194503e-02 -1.29258975e-01 -2.21325196e-02 +6.56124353e-01 +1.57257691e-01 -9.37926918e-02 +1.17631592e-01 +4.23316006e-03 +8.70502442e-02 +2.93449253e-01 +3.13273519e-01 -2.09204063e-01 -3.53312701e-01 +3.94797027e-01 -4.11028385e-01 +2.14785654e-02 +5.27990647e-02 -3.78135382e-03 -2.09868088e-01 +3.08573604e-01 +2.06187025e-01 -7.96848442e-03 -6.12528995e-02 +8.60278457e-02 -9.93870378e-01 -8.22128281e-02 +7.39812627e-02 -5.77752173e-01 +2.24331111e-01 +1.61089644e-01 -1.47812083e-01 -2.40309730e-01 +6.72953352e-02 -3.04223657e-01 +2.18117654e-01 +6.89048395e-02 +4.65468466e-01 -8.99961442e-02 -1.64917678e-01 +4.08169739e-02 +1.86972797e-01 -1.85019076e-01 -1.31536320e-01 -9.11861844e-03 +1.78343281e-01 +1.08974032e-01 +9.81618762e-02 -1.42472669e-01 +1.29607573e-01 +3.72094177e-02 +5.42869158e-02 -2.45111600e-01 -1.54886097e-01 -1.63394213e-01 +1.10291995e-01 +9.27564651e-02 -2.17530951e-01 -1.38265476e-01 +3.40444632e-02 +4.69424203e-02 +1.29864320e-01 +4.72894758e-02 -2.44905278e-01 -5.24881840e-01 -3.07519048e-01 -3.18885058e-01 -2.75074750e-01 +1.66543365e-01 +3.49518567e-01 +6.32804409e-02 +4.53705639e-01 +2.51520693e-01 +6.22520030e-01 +3.65932286e-01 -6.55073151e-02 -2.80547529e-01 +1.86538830e-01 -2.67634243e-01 +3.35817218e-01 -8.46440196e-02 +1.47934750e-01 -5.12975156e-01 -2.41516516e-01 +1.09774835e-01 -2.37659618e-01 -6.97255731e-01 +4.63644385e-01 -1.57065332e-01 -2.21692398e-01 -3.30545276e-01 +3.24259520e-01 +4.12818700e-01 +1.92596883e-01 -2.51441240e-01 -1.65373757e-01 -2.61484563e-01 +2.43014917e-02 -3.83443773e-01 +9.16606039e-02 +1.92637861e-01 -4.17193621e-01 +3.87110770e-01 +1.77822873e-01 -1.19940877e-01 +1.18250564e-01 -2.29112804e-01 -3.05182666e-01 -7.85665773e-03 +2.29767740e-01 -5.58407009e-01 -7.59302452e-02 -6.47064857e-03 +4.43273693e-01 -4.40336853e-01 -1.80781513e-01 +1.79289564e-01 +1.03195205e-01 -4.88399595e-01 +1.61990866e-01 -3.22904736e-02 -3.55150759e-01 -6.37204424e-02 -5.73708192e-02 +1.28936321e-01 -2.13521719e-01 -3.36504608e-01 +6.54842108e-02 +1.49102271e-01 -1.10381451e-02 +2.49857232e-01 +1.36288702e-01 +6.83902502e-02 +6.61978275e-02 -5.83903380e-02 -2.06594840e-01 -3.39840025e-01 +2.95004815e-01 -1.31351903e-01 -4.46582824e-01 -3.27219486e-01 +3.37564596e-03 -3.80382836e-02 +4.85402465e-01 +1.32027030e-01 -2.98111320e-01 -1.90383419e-02 -3.02622736e-01 +5.30535467e-02 +3.13530684e-01 +3.24967243e-02 +5.99011630e-02 -8.43541995e-02 +2.27102265e-01 -3.05970162e-01 -6.51522875e-01 +4.07555625e-02 -1.45249501e-01 -1.70336008e-01 -4.13511872e-01 +1.14285998e-01 -2.27318816e-02 -2.92909056e-01 +4.67506163e-02 -2.04631373e-01 -9.63534862e-02 -1.62533876e-02 -1.63522273e-01 -7.49460310e-02 +3.28250639e-02 -6.61185563e-01 -1.77122474e-01 +9.69792232e-02 +1.17078565e-01 +3.21385950e-01 -1.58874989e-01 -1.22032635e-01 -5.37306309e-01 -1.53056800e-01 +4.14201915e-01 -1.55758709e-01 -1.91233177e-02 +2.16309484e-02 -2.10136965e-01 -4.05007601e-01 -2.68808119e-02 -2.27529317e-01 -3.23339403e-01 -1.22283727e-01 -8.44848081e-02 +2.40173295e-01 -5.85486650e-01 -9.10274535e-02 +1.63042963e-01 +4.57929403e-01 +3.14367115e-01 +2.44004279e-01 +9.35151726e-02 -4.29810077e-01 -2.00923204e-01 +2.07003683e-01 -4.40233238e-02 +9.90585610e-02 -7.50844717e-01 +1.78054899e-01 -5.85147142e-01 -1.63454011e-01 -1.62102997e-01 +2.48965427e-01 +5.77674657e-02 -2.95737565e-01 -4.19032097e-01 +1.55429497e-01 +1.44084794e-02 -4.41048920e-01 +5.63832223e-01 -1.60315037e-02 -1.04656659e-01 -5.46752155e-01 -3.77778947e-01 -4.37824614e-02 +1.51790753e-02 -4.97115225e-01 -8.68797600e-01 +8.69299099e-02 +2.74064057e-02 -3.07485104e-01 +2.50296324e-01 +2.42602965e-03 +1.10085905e-01 +3.81468922e-01 +1.39570773e-01 -1.25001296e-01 +1.78449303e-01 -1.84926003e-01 -2.18274951e-01 -5.89994853e-03 +4.65859473e-01 +1.42871618e-01 -1.26059979e-01 +3.97614017e-02 -2.17077389e-01 +1.46754354e-01 +2.27388069e-01 -3.01816523e-01 +7.18158111e-02 +7.01301694e-02 +1.87310919e-01 -2.95855790e-01 +1.86001480e-01 -9.70671400e-02 -2.99783722e-02 -1.78407982e-01 +1.96017280e-01 +1.51794236e-02 -1.10475913e-01 -2.09091783e-01 -2.45929271e-01 -2.10577637e-01 -1.25176683e-01 +9.07561257e-02 -8.10371712e-02 -6.33901879e-02 +3.23640630e-02 -2.00289279e-01 -1.90896362e-01 -2.21700013e-01 -2.81948119e-01 +5.25770113e-02 +3.21608990e-01 -3.04785281e-01 -1.63947605e-02 +1.43042773e-01 -2.05895752e-01 +5.25741875e-02 +1.41467124e-01 +2.51319017e-02 -1.56938970e-01 +1.82638854e-01 +6.36563171e-03 -1.64406866e-01 -4.21423197e-01 +3.52380812e-01 -2.20268443e-02 -4.19403285e-01 -3.80972512e-02 +1.62219450e-01 -5.59755325e-01 -1.24917902e-01 +6.47088289e-02 -3.84394169e-01 -5.60944229e-02 -9.36658680e-02 +9.34918746e-02 -1.44574493e-01 -1.73152447e-01 +3.27925533e-02 -9.74410251e-02 +3.19322874e-03 -4.39020067e-01 -1.98692352e-01 +2.16812670e-01 +9.53502730e-02 -1.80901259e-01 -8.03304240e-02 +3.69259864e-01 +3.41937244e-02 -1.99322402e-01 +5.69312945e-02 +3.91281813e-01 -4.22107577e-02 -2.48264655e-01 -1.71768621e-01 -9.74125415e-02 -1.47753756e-03 +7.57767260e-02 -3.64658795e-02 -2.23440193e-02 -1.86582088e-01 -3.50430250e-01 -3.14392626e-01 +1.08219884e-01 -3.98378581e-01 -4.46560740e-01 +1.33716598e-01 -1.18282456e-02 -4.36590053e-02 +9.70371544e-01 -1.75010771e-01 -2.84999609e-01 +5.64050674e-01 +9.77122858e-02 -2.39743814e-01 -2.22574487e-01 -2.22045600e-01 +2.45077252e-01 +2.01797619e-01 +7.02521876e-02 -2.07780108e-01 -1.21200182e-01 -5.07800207e-02 -4.07938868e-01 -3.09315413e-01 +8.20922479e-02 -3.15903038e-01 +7.97649026e-02 -2.82859206e-01 -1.71124488e-01 +3.43549520e-01 -3.38504821e-01 -2.91367210e-02 -6.04965627e-01 -4.71572191e-01 +1.73239097e-01 -4.23026204e-01 +4.42745060e-01 -9.02488455e-02 +1.23054245e-02 +1.30456807e-02 -1.89338163e-01 +1.94583789e-01 +3.47393155e-01 +2.45649591e-02 -1.82464942e-01 -1.22450598e-01 -2.49532536e-01 +7.89117590e-02 -8.57550558e-03 -1.41547859e-01 +5.25797367e-01 -1.22330219e-01 +1.24046572e-01 -4.70484011e-02 +9.97240189e-03 +1.97501667e-02 -5.25553990e-03 -6.91940114e-02 +3.26186359e-01 -1.98639706e-01 -5.89205921e-02 -8.23824629e-02 +3.53308283e-02 +2.48125881e-01 -8.17532614e-02 +7.17947364e-01 +1.86882734e-01 -3.98239009e-02 +2.38373995e-01 +1.06731318e-01 +4.56915684e-02 +3.28422964e-01 +1.03146836e-01 -1.73776876e-02 +2.25596219e-01 +4.70485568e-01 +8.78740177e-02 +9.04182792e-02 +1.16781361e-01 -1.32060215e-01 -3.14448886e-02 -1.50493994e-01 +7.56611526e-01 +1.06199399e-01 +3.65371466e-01 +3.39158863e-01 +3.62313211e-01 -1.06811114e-01 +3.99410762e-02 -7.06581250e-02 +1.71921909e-01 +2.91819155e-01 +3.36969644e-01 +8.58531713e-01 +2.20981374e-01 +4.95996103e-02 +2.34852612e-01 +9.33151394e-02 +7.67731816e-02 -1.62302643e-01 -2.46057451e-01 +1.72959775e-01 -3.21272254e-01 -4.55204934e-01 -7.94534460e-02 +6.39698356e-02 -4.05005589e-02 -2.26699695e-01 +2.97935665e-01 +7.83392638e-02 +3.62611152e-02 -5.54538429e-01 -2.38834381e-01 -1.24519989e-02 -4.51092482e-01 -1.67143434e-01 +2.58726254e-02 -2.43372604e-01 +1.36109471e-01 -5.06237686e-01 -1.61108315e-01 -5.81264317e-01 +1.78970441e-01 +2.71310240e-01 +1.09713793e-01 +1.30647510e-01 +5.19499592e-02 +2.46173903e-01 +2.42968034e-02 -1.21072724e-01 -5.24154492e-02 +2.82017648e-01 -2.56489128e-01 +2.26197794e-01 +4.68435250e-02 -1.68733880e-01 -1.73534811e-01 -3.15499902e-01 +4.32742648e-02 +6.21338971e-02 -2.97650784e-01 +8.34425271e-01 -1.05967507e-01 +4.01652753e-01 +2.79601276e-01 +5.19756752e-04 +4.84340996e-01 +1.05256893e-01 +6.03870302e-02 +3.63610126e-02 +5.11277378e-01 +2.98139423e-01 +1.02825850e-01 -2.49675304e-01 +5.49360573e-01 +6.62683919e-02 +9.68277678e-02 +6.42062962e-01 +4.16239202e-01 +2.26366132e-01 +6.14898264e-01 -1.85717031e-01 -3.17894787e-01 +4.71400589e-01 -1.18773438e-01 +2.97644466e-01 +1.91704556e-01 -1.43094525e-01 -5.59800491e-02 +4.97336537e-02 -2.69688547e-01 +2.59575155e-03 +2.73829490e-01 +2.49680012e-01 -1.36318401e-01 +1.71829611e-01 +1.43686965e-01 -1.69076532e-01 -1.18881967e-02 +1.53683955e-02 -1.00163981e-01 +2.64605321e-02 +8.10212418e-02 +2.86015898e-01 +4.46235165e-02 +1.79543905e-02 +1.42544344e-01 +1.32991627e-01 +1.41140699e-01 +1.98647380e-01 -1.74552679e-01 -3.24548423e-01 +2.68445671e-01 +3.97007972e-01 +1.34685680e-01 -6.90887123e-02 -1.95795685e-01 +1.96984708e-01 +3.02560389e-01 +5.90555966e-01 -1.27129957e-01 -8.41188058e-03 +2.98340052e-01 +1.98884711e-01 +2.87598252e-01 -2.75705801e-03 +1.02057779e+00 +3.71016890e-01 -3.02441597e-01 -8.14335942e-02 +5.27928531e-01 +1.92555577e-01 +2.95739889e-01 -8.82452950e-02 +1.61115527e-01 -5.11810277e-03 -4.09377515e-01 -1.32739535e-02 -5.19850366e-02 -1.20799974e-01 -1.56515092e-01 +2.61435598e-01 +7.07109496e-02 -2.03007489e-01 +3.38781595e-01 +7.51636922e-02 -5.71098318e-03 +4.90184218e-01 -6.60108030e-02 +2.12087005e-01 -6.67448118e-02 -4.86129895e-02 +2.03153774e-01 -5.15023209e-02 -1.33760497e-01 +4.54402082e-02 -1.49601713e-01 +1.07746311e-01 +1.08072743e-01 +3.09762716e-01 +4.60583530e-02 +1.01995226e-02 -2.45693788e-01 -1.21060885e-01 +6.39427602e-02 +1.01903372e-01 +1.42995313e-01 -8.37503895e-02 +1.97901443e-01 +3.38008672e-01 +5.10936007e-02 +9.28336233e-02 +3.34089063e-02 +8.48755717e-01 -3.37680615e-02 +8.27554911e-02 +3.54481995e-01 -4.60039154e-02 -1.42775819e-01 +8.26327980e-01 -6.34895265e-01 -2.35989019e-01 +2.91850567e-02 +3.44062209e-01 +1.68507174e-01 +2.27557033e-01 +1.62069872e-01 -6.07071161e-01 +3.05004865e-01 +2.19450161e-01 +6.54189885e-01 -8.39522630e-02 -2.45751083e-01 -1.91095561e-01 +2.53348857e-01 -2.02695057e-01 +2.34462708e-01 -1.50227606e-01 +2.91522831e-01 +5.32628953e-01 -4.97052968e-01 +4.11082298e-01 -1.95230246e-01 +1.37146907e-02 -1.56623557e-01 +5.64102769e-01 +2.34805331e-01 -2.12308560e-02 -5.78568242e-02 +5.46698980e-02 -3.35191824e-02 +3.73774325e-03 -3.18853229e-01 +7.96345547e-02 -4.87597525e-01 +1.01807952e-01 +1.24008454e-01 -3.84103097e-02 -5.71150295e-02 -7.49362931e-02 +2.78640807e-01 +9.06123966e-02 -1.45219654e-01 -6.89069182e-02 -1.82896122e-01 +7.65573755e-02 -2.98713207e-01 +3.13920826e-02 -1.26845419e-01 +2.07721353e-01 +1.48635700e-01 -6.19599856e-02 -9.10049379e-02 +2.81824246e-02 -8.36434737e-02 +2.14542016e-01 +4.42786396e-01 +2.14239761e-01 +8.97936895e-03 +9.68190953e-02 +8.62121880e-02 +1.90953627e-01 -1.02486342e-01 +1.62174821e-01 +8.92741531e-02 +1.58307284e-01 -5.49849868e-02 -1.80998549e-01 -3.17228168e-01 -2.26699293e-01 +3.61669868e-01 +4.59703356e-02 +2.30991155e-01 +4.11702543e-02 +2.87491202e-01 -7.71787912e-02 +2.34001368e-01 -6.02192357e-02 +1.13173269e-01 -1.15759470e-01 +5.99456429e-02 +1.71486422e-01 -1.95777535e-01 +6.72251806e-02 +3.03696007e-01 -2.49111047e-03 -1.39467031e-01 +7.82463774e-02 +2.59598345e-01 +1.75372213e-02 -2.64652550e-01 -3.21321905e-01 -6.58380836e-02 -2.92855948e-01 -3.24072726e-02 -3.09249550e-01 +1.14907630e-01 -1.00773893e-01 -3.41205686e-01 -2.59024769e-01 -3.74621779e-01 -8.73623998e-04 -1.03862792e-01 -3.06557328e-01 -5.35850286e-01 -5.35288677e-02 +6.62840679e-02 -2.55570740e-01 -7.76348338e-02 -1.32969484e-01 -2.77667850e-01 +7.68647641e-02 +2.62615830e-01 -8.61118175e-03 -1.70249164e-01 -3.37525845e-01 +3.04643124e-01 -7.60955438e-02 +3.33415121e-01 -1.67513862e-01 +1.14246786e-01 +2.49599442e-01 -8.46981481e-02 +3.00854713e-01 -3.44172746e-01 -1.91180333e-01 +1.48434825e-02 -4.74799633e-01 +3.73172194e-01 +3.22865061e-02 +2.42372483e-01 -3.38960111e-01 -1.35175109e-01 -3.77435423e-02 -1.52389511e-01 +1.95589103e-02 -3.07941616e-01 +7.40336850e-02 -4.59870920e-02 -4.53182071e-01 +3.58271658e-01 -1.87214822e-01 -1.50464913e-02 -1.99397877e-01 +2.26916391e-02 +5.44059694e-01 -1.34865269e-01 -2.55412310e-01 +7.45568573e-02 +4.12089825e-02 +2.85193380e-02 -2.09426329e-01 -3.44435847e-03 +5.37027776e-01 -5.01032174e-01 -3.94025266e-01 -1.20072588e-02 -1.47043943e-01 +2.04916432e-01 -8.81451070e-02 +8.51302966e-02 +9.69965197e-03 +3.20998162e-01 -9.47556347e-02 -2.83747077e-01 +2.69894302e-01 -3.09478402e-01 -1.36605650e-01 +8.06396529e-02 -1.22654401e-01 +3.44657362e-01 +7.83085078e-03 -1.28789306e-01 -2.32700482e-01 +2.64450371e-01 -7.73980692e-02 +5.08021973e-02 -1.10191762e-01 -4.68574703e-01 -3.05896282e-01 +1.01011075e-01 -3.68251391e-02 -4.35257703e-02 -3.04454923e-01 -3.09696734e-01 -2.60262907e-01 +8.70269835e-02 -7.20855081e-03 +5.29741645e-02 +1.99091181e-01 -5.38615882e-03 +3.86316746e-01 +1.36543646e-01 +1.66819140e-01 +1.08272791e-01 -9.93857253e-03 +2.10551441e-01 +6.31859154e-02 +5.44532955e-01 +1.27362236e-01 +7.23595798e-01 +2.85102457e-01 +6.28518045e-01 +1.45872742e-01 +2.65659958e-01 -1.68062553e-01 +4.53038096e-01 +1.03471600e-01 +2.27311656e-01 -1.21342473e-01 -4.83767390e-02 +2.92468309e-01 +8.82242620e-03 +1.46346152e-01 +6.29077792e-01 -8.38937014e-02 +2.35820308e-01 +2.56677836e-01 +1.44842342e-01 -4.46443766e-01 +6.95777118e-01 +2.75319785e-01 +1.04519933e-01 +2.47758463e-01 +2.39662737e-01 +1.17700445e-02 -5.48894286e-01 -9.55454335e-02 +2.70029306e-01 -1.28493935e-01 -7.03562975e-01 +3.31278384e-01 -2.14376718e-01 +2.15608850e-01 -1.45627990e-01 +3.25050317e-02 +3.40197086e-02 +2.00194731e-01 -4.40991640e-01 +2.55084131e-04 -9.12553221e-02 -1.09407701e-01 +5.69041306e-03 -8.52012858e-02 +1.61900893e-01 +1.58439070e-01 +1.06424525e-01 +4.49639112e-01 +2.77840197e-01 +3.40281367e-01 +1.03935331e-01 -1.18263140e-01 +2.61813104e-01 -5.19414023e-02 +1.04651012e-01 +3.84264678e-01 +4.24017221e-01 -2.97930002e-01 -4.42303777e-01 +1.52845204e-01 -1.96713164e-01 +6.99623749e-02 +4.36605126e-01 -3.63533616e-01 +3.15220565e-01 +4.82608050e-01 +5.55278182e-01 -3.86782408e-01 -3.22998911e-01 +3.28379162e-02 +3.20162654e-01 +1.71587635e-02 +3.37740809e-01 +3.58732551e-01 +3.17688763e-01 +2.17872679e-01 -2.48369277e-01 +3.66183072e-01 +2.37588003e-01 +4.10558283e-02 -3.56984697e-02 +3.50177556e-01 -1.95251510e-01 +1.29904807e-01 +3.92768025e-01 +5.23391068e-01 -7.59825259e-02 +1.39646921e-02 -5.67216799e-02 +5.01919016e-02 +1.44070879e-01 -2.27458641e-01 +1.47224277e-01 -1.63655654e-01 -2.83098608e-01 +1.20002605e-01 +1.73581004e-01 +2.58903299e-02 +1.27736060e-02 +2.08840072e-01 +1.72416661e-02 +1.37996197e-01 -3.34158018e-02 +1.27148390e-01 -2.96215624e-01 +7.89918080e-02 +2.05609381e-01 -6.63940981e-03 +2.22655699e-01 +3.40202972e-02 -1.72653645e-01 +1.76424179e-02 +5.45464046e-02 -2.73630649e-01 +8.62233490e-02 +1.38037756e-01 +2.26255551e-01 +2.65146971e-01 -3.35216373e-02 +3.21760654e-01 +1.62395537e-01 +2.10470092e-02 -3.15527231e-01 +5.85793853e-02 -6.51135296e-02 +1.74885035e-01 -2.69177705e-01 +1.92963295e-02 -2.54700501e-02 +6.47926703e-02 -5.00992499e-02 +1.85951352e-01 -4.89824526e-02 +4.95282635e-02 +8.96334276e-02 +5.54995053e-03 -3.44673544e-01 -1.19828649e-01 +1.97031990e-01 -6.37909025e-03 +2.67239988e-01 +3.25857638e-03 +5.52286804e-02 +1.90306127e-01 +3.55884992e-02 -1.97371334e-01 +2.49705520e-02 -1.01735950e-01 +7.44539872e-02 +6.28372803e-02 -6.85332343e-02 -4.58050549e-01 +8.35960284e-02 -8.02309588e-02 -1.67315423e-01 -2.04040140e-01 -4.39009443e-02 -4.15447056e-02 +3.22835776e-03 -3.19908053e-01 +2.93664724e-01 -6.74602836e-02 +1.06835179e-01 +4.25799415e-02 -9.31464955e-02 -1.18656702e-01 +2.35335648e-01 -1.24163993e-01 -2.62921154e-01 -6.03993654e-01 +9.23478231e-02 -4.03620034e-01 -3.02629732e-02 +3.81521061e-02 +6.17195386e-03 +9.37233642e-02 -4.80186641e-01 +4.67890278e-02 -1.28825709e-01 -5.91391474e-02 -3.69528621e-01 +7.42652535e-01 +2.99116910e-01 -1.93712473e-01 +8.98249745e-02 +2.61148177e-02 -5.73638082e-01 -1.74325407e-01 -6.14433467e-01 -3.68927717e-02 +4.04589437e-02 +2.39386588e-01 -1.08354755e-01 -5.60831055e-02 +3.68900523e-02 -1.37625188e-01 -3.13788980e-01 +4.61798400e-01 +1.88602537e-01 -1.87350929e-01 -4.66493070e-01 +4.48612928e-01 +1.80749044e-01 -2.73978233e-01 +6.96689904e-01 -3.66999894e-01 +3.75167280e-01 -1.30551904e-01 -1.29798874e-01 -2.74052352e-01 -3.35988224e-01 -7.47634992e-02 -9.71549392e-01 -1.72386076e-02 +3.70366797e-02 +1.48766607e-01 +3.13553475e-02 +4.62650042e-03 +2.42966309e-01 +2.79948294e-01 -2.29285225e-01 +1.79455087e-01 -3.09157044e-01 -7.57962046e-03 +6.06429219e-01 -7.92411342e-02 +3.59945983e-01 +1.94484577e-01 -1.94492668e-01 +5.90445101e-02 -1.74304411e-01 +3.54495682e-02 +5.07475376e-01 -9.03229192e-02 -3.16000730e-01 -1.94503397e-01 +1.22358967e-02 -1.88809976e-01 -2.64548361e-01 +6.83203200e-03 -4.76505943e-02 +2.83344507e-01 -8.18949789e-02 -2.15843737e-01 -2.06388846e-01 -4.60018031e-02 -1.76441655e-01 +5.51556386e-02 -2.81016566e-02 +3.05103362e-01 -1.74414497e-02 -1.65264487e-01 +1.07270047e-01 -1.90419540e-01 -1.33079407e-03 +4.14393656e-03 +1.95509754e-02 -5.54318875e-02 -2.20187511e-02 -1.96181133e-01 +1.41330242e-01 +1.54258147e-01 -3.70543480e-01 -2.68375248e-01 -2.05385029e-01 -3.83729711e-02 +5.09841852e-02 +2.41022557e-01 +8.10726210e-02 -1.30459428e-01 +2.40673661e-01 -3.61556143e-01 -4.68021095e-01 -3.77786368e-01 -7.23636569e-03 -6.37665927e-01 -4.60700206e-02 +1.83266103e-01 -5.27375676e-02 -3.16421539e-01 +7.51152039e-02 -1.94284201e-01 -5.48405275e-02 -1.40948847e-01 +8.99767950e-02 +7.05542695e-03 -6.17071800e-03 -5.22759199e-01 -2.08899841e-01 +1.02542751e-01 +1.32490993e-01 -1.45662427e-01 -2.10608944e-01 -4.71264310e-02 -2.06429988e-01 +7.16180280e-02 +3.02639425e-01 -2.11380217e-02 +1.02578804e-01 +1.89445347e-01 +1.68343589e-01 +7.41193965e-02 +1.20684810e-01 +1.52453675e-03 -7.90446773e-02 -3.01520050e-01 -1.44032821e-01 +2.12807268e-01 -3.90612066e-01 -2.00588480e-01 -4.37200032e-02 +1.32456660e-01 +9.39664662e-01 +6.90629799e-03 +8.04902613e-02 -2.17943028e-01 -1.81886673e-01 +2.98592210e-01 -3.33376110e-01 +2.16762587e-01 -1.16799213e-01 -2.93242484e-01 -4.12048429e-01 -3.87941152e-01 -4.01602872e-02 +1.67675614e-01 -1.84319600e-01 -4.07297492e-01 -1.56665698e-01 -9.04464871e-02 -3.06057304e-01 -2.81356186e-01 +4.25389767e-01 -7.14141726e-02 -2.04458579e-01 -3.14520836e-01 +2.97648281e-01 -2.19013572e-01 +3.11396748e-01 -5.12934744e-01 -6.08673155e-01 +1.59892872e-01 +2.02732190e-01 -5.34939826e-01 +6.03838973e-02 -2.11758539e-02 +1.10960394e-01 +1.69508904e-01 -9.21576247e-02 -2.21908763e-02 +4.81502488e-02 -1.41452700e-01 -3.01926732e-01 -1.97018385e-01 +2.45194271e-01 +1.20083556e-01 -6.32952005e-02 -1.99472710e-01 -2.29586571e-01 +1.12133190e-01 +1.33688763e-01 -1.69762909e-01 -1.83367789e-01 -5.44801839e-02 -1.07675970e-01 +2.96323597e-02 -7.18970820e-02 -1.93239868e-01 -1.02129877e-01 +1.50980696e-01 -1.86250750e-02 +1.02221109e-01 -2.54904896e-01 +1.09071463e-01 -2.62952168e-02 -1.55949742e-01 -1.13235995e-01 -1.42833099e-01 -5.53386025e-02 +4.93634194e-02 -1.84619948e-01 -2.02723160e-01 -8.27801824e-02 +2.26426106e-02 -1.01385020e-01 -1.84743628e-01 +1.16544388e-01 +1.28674179e-01 +1.81563392e-01 +4.00973380e-01 +4.52743143e-01 -3.01680744e-01 -1.68722063e-01 +7.78198838e-02 -1.01401277e-01 -1.25332713e-01 -4.36839223e-01 +1.73545361e-01 +3.92361671e-01 -3.03092778e-01 -2.02961056e-03 +4.57736105e-02 +1.58705920e-01 +1.13030598e-02 +3.33011389e-01 +1.18159233e-02 +4.83074255e-04 +3.91798735e-01 -1.12335995e-01 +2.12804064e-01 +4.46180701e-02 -1.48826882e-01 -4.19835113e-02 +5.16527966e-02 -2.60278165e-01 -3.62173676e-01 -2.18709577e-02 -4.03481632e-01 +2.56646484e-01 -1.35632651e-02 +3.56472671e-01 +3.65594387e-01 -5.21113314e-02 +1.52946487e-01 -9.66932550e-02 -3.37041974e-01 -2.71908522e-01 -1.63174048e-01 -2.59639829e-01 +1.05904229e-01 +1.04712829e-01 +9.39186588e-02 -1.12940803e-01 +4.51100655e-02 +4.10690233e-02 -2.76748896e-01 +7.32708395e-01 -5.29890001e-01 +3.87530565e-01 -5.83772838e-01 -1.95812151e-01 +3.62160295e-01 +3.99964511e-01 -9.40979838e-01 +7.59597942e-02 -5.37161767e-01 -6.52232468e-01 +1.56339392e-01 -2.39396632e-01 -3.07333320e-01 +1.69806167e-01 +1.18995728e-02 +4.57755625e-02 +6.41375244e-01 -3.05596888e-01 -5.19126728e-02 -3.72146577e-01 -2.92717725e-01 -1.07738741e-01 +3.29279363e-01 -4.70059454e-01 -2.88581133e-01 -3.71271670e-01 -4.25209664e-02 -2.46829912e-01 +8.54871003e-04 -1.05118310e+00 +7.40977004e-03 +5.57861626e-01 -1.16708882e-01 -1.78181399e-02 +7.41703436e-02 -1.57667920e-01 -1.26376525e-01 -1.36239067e-01 -4.85401452e-01 -6.64202511e-01 +2.16911301e-01 +2.28657112e-01 -1.94025375e-02 -6.88968822e-02 +2.75603272e-02 -2.48874292e-01 -5.18751182e-02 +9.67681929e-02 -1.17548361e-01 -1.20320253e-01 +6.51452094e-02 -2.08991662e-01 +2.04252571e-01 -5.60304821e-01 +8.43146257e-03 -1.70306593e-01 +2.68912554e-01 -1.96161866e-01 -2.36364916e-01 +9.76142883e-02 +3.80951464e-02 -5.09791449e-02 -8.51297472e-03 +4.77381796e-02 +4.87185240e-01 -3.99145670e-03 +5.80636919e-01 +2.84027815e-01 +4.59529072e-01 +2.29250506e-01 -9.41141695e-02 +2.50135124e-01 +1.21657491e-01 +3.86595577e-02 +3.81077901e-02 -1.75467476e-01 +3.52155976e-02 +1.78262994e-01 +2.67965138e-01 -1.40161263e-02 -2.24197865e-01 -9.41588432e-02 -6.86003789e-02 -3.32743824e-01 +3.39656323e-01 +2.67301261e-01 +7.22530484e-01 +2.93682069e-01 +2.78114498e-01 +1.93353202e-02 +3.03177815e-02 -3.86361986e-01 +5.10894895e-01 -5.59300520e-02 -1.81662500e-01 -1.13644987e-01 -1.94524765e-01 -1.97385758e-01 +1.87392324e-01 +9.22938064e-02 -1.21273912e-01 -9.82407629e-02 -2.62154073e-01 -2.70064771e-02 +2.04809848e-02 -5.62062144e-01 -2.43625551e-01 +4.02718782e-03 -2.91251808e-01 -3.86309355e-01 +3.36009353e-01 +4.24621135e-01 +2.46662244e-01 -7.48385489e-01 +7.88165405e-02 -8.60235542e-02 -2.44978085e-01 -7.76934996e-02 -3.39800447e-01 +5.55336382e-03 -1.14450879e-01 -1.99486479e-01 -2.04254463e-01 -1.13315314e-01 -2.73462206e-01 -1.21744022e-01 -4.46335942e-01 -1.88803762e-01 -2.83183213e-02 +9.52978209e-02 +1.02357388e-01 +4.01981682e-01 +5.85275471e-01 -1.52793914e-01 -2.53947020e-01 +1.66108698e-01 +1.49128690e-01 -1.58001930e-01 -8.01091671e-01 -1.10211372e+00 +7.43339777e-01 -2.47923464e-01 +1.17105551e-01 +3.04745764e-01 +1.02988623e-01 +4.14191522e-02 -6.13360941e-01 -6.30336463e-01 +5.17973304e-02 +2.21684635e-01 -4.23497200e-01 +2.65328884e-01 +2.86311090e-01 -2.06470847e-01 -3.58714797e-02 -2.04740897e-01 +1.67192280e-01 -3.92208278e-01 -2.11872488e-01 -4.94724140e-02 -1.17525049e-01 +5.11595011e-02 +5.11240661e-02 -7.31091201e-02 +3.11852872e-01 -7.88462311e-02 +9.26729068e-02 -1.01159103e-01 +1.17621079e-01 -1.22330785e-01 -9.46769267e-02 -7.73954317e-02 +2.90520310e-01 +2.72454798e-01 +2.39226580e-01 +3.69511731e-02 +2.76634656e-02 -1.39965862e-01 +4.42650989e-02 -1.96380928e-01 -1.09357432e-01 -1.03284031e-01 +9.71129760e-02 -1.67531352e-02 -2.95779500e-02 -1.17918201e-01 -1.58194304e-01 -7.99452793e-03 +1.08021707e-03 +2.95313448e-01 -9.97518562e-03 -9.97564420e-02 +2.57911414e-01 +1.66277051e-01 -2.61948854e-01 -4.36583966e-01 -2.32044738e-02 -2.18769848e-01 -1.90709114e-01 +3.25465918e-01 -3.40520404e-02 +2.62623936e-01 -1.82990566e-01 -5.04346669e-01 -1.33662522e-01 +8.34858343e-02 -2.62498856e-01 +2.62363762e-01 -3.02098930e-01 +1.17972031e-01 +5.95647981e-03 +2.42689043e-01 +2.81876385e-01 -2.04253376e-01 +3.39217996e-03 +6.26053363e-02 +1.06058151e-01 +1.67986080e-01 +1.88135803e-01 +2.73062974e-01 +1.34806737e-01 -1.08012870e-01 +4.18835759e-01 +2.28286758e-01 -8.21698010e-02 -1.04147531e-02 +6.97904080e-02 -5.98670729e-02 +1.63936213e-01 +2.42223382e-01 -4.54009771e-02 -2.18298763e-01 -6.57212511e-02 +6.57346427e-01 +8.11743438e-02 +4.43459481e-01 -2.81007528e-01 -9.99821275e-02 -7.01544136e-02 +1.06150545e-01 +1.18979633e-01 +1.40235156e-01 +1.36616930e-01 -2.38534901e-02 -1.80220753e-01 -2.00162783e-01 -1.95870072e-01 +5.97835779e-02 +6.30224273e-02 -3.25833894e-02 -6.00469708e-02 +3.72069508e-01 +3.86066854e-01 +5.48253097e-02 +1.26884282e-01 -2.32339367e-01 -2.72428263e-02 +7.83820868e-01 +9.58720505e-01 -8.61714423e-01 +1.70275435e-01 -9.12877768e-02 +5.11550188e-01 +5.30296445e-01 -8.46443653e-01 +3.80064726e-01 -7.97493681e-02 -2.30306864e-01 -1.34194106e-01 +2.55110949e-01 -6.60495162e-01 +8.64398330e-02 -2.45249316e-01 -2.62776792e-01 +3.41509491e-01 -1.23806335e-01 +2.16160014e-01 -1.96967080e-01 +1.97617203e-01 +2.40515172e-01 -1.21414697e+00 +2.63615578e-01 +1.81185111e-01 +6.24231040e-01 +8.78753126e-01 -3.46214801e-01 +2.06710860e-01 -1.88956201e-01 -6.17467165e-01 -8.60535279e-02 -1.63187742e-01 -1.86155513e-01 -6.25294670e-02 +5.50451316e-02 +2.15908643e-02 -2.04326347e-01 +1.31491125e-01 -2.60290504e-01 -1.95889682e-01 +1.14131056e-01 +8.03601518e-02 -4.44600955e-02 +1.60737753e-01 +1.06943749e-01 +5.91168664e-02 +6.71374723e-02 +1.05490111e-01 -2.03117386e-01 +1.66020811e-01 -8.34823191e-01 +1.07573889e-01 -3.24553289e-02 +1.01866052e-01 -3.07597786e-01 -7.69992545e-02 +2.98270345e-01 +5.14723361e-01 +1.97470725e-01 +1.44577712e-01 +1.65971324e-01 -1.81940034e-01 +7.69489408e-02 -4.76929069e-01 +1.88446492e-02 +9.32271034e-02 -1.36602417e-01 -3.83589387e-01 -2.52864748e-01 -2.41448194e-01 -7.61657298e-01 +1.80685714e-01 +2.57145241e-02 +2.25338638e-01 -8.53962898e-02 -2.18242183e-01 +3.48116159e-01 +2.64499813e-01 +1.91816837e-01 -3.09829801e-01 -3.26296598e-01 +4.34921950e-01 +1.90661033e-03 -4.76694018e-01 -9.26401764e-02 -1.21539757e-01 -4.83651683e-02 +6.91297948e-02 +4.84956093e-02 +6.63795397e-02 +1.38577327e-01 -2.71535784e-01 -2.20398590e-01 +1.17312208e-01 -5.66568039e-02 -3.75609040e-01 -2.51655757e-01 -1.28551081e-01 -3.25542241e-01 -2.84875363e-01 -6.49064854e-02 +1.66106656e-01 +2.79502422e-01 -4.06863332e-01 +1.17838243e-02 +1.30226523e-01 +3.50760877e-01 -6.38100147e-01 +2.05971301e-01 -3.43258947e-01 +3.84236306e-01 -1.06192127e-01 +4.48911875e-01 +2.54058927e-01 -2.45279253e-01 -2.36014023e-01 +2.40974143e-01 +3.00825715e-01 +1.02000244e-01 -2.70222574e-01 +8.74233842e-02 -1.91610649e-01 -1.30697072e-01 -1.28159344e-01 -2.41879951e-02 -2.78756350e-01 -2.88699597e-01 -4.66570497e-01 +7.74987265e-02 -5.90401404e-02 +2.08490014e-01 -1.24242470e-01 +1.57564674e-02 -2.48179823e-01 -2.92198151e-01 +2.88021624e-01 -4.19503957e-01 +8.39237347e-02 -3.53529185e-01 +1.19653970e-01 +2.02475384e-01 +6.21631742e-01 -2.69464850e-02 +2.04501435e-01 -4.14453745e-01 -2.74658799e-01 -3.34295064e-01 +3.23968241e-04 -5.90586616e-03 -3.68553698e-01 +1.07566200e-01 +8.51373468e-03 +1.65407788e-02 -1.94433928e-01 -5.29428661e-01 -3.29586983e-01 +6.28704190e-01 -1.81613207e-01 +2.41853353e-02 +2.27243617e-01 +1.00093059e-01 -2.75623016e-02 +2.38933980e-01 -2.73571491e-01 -3.04032147e-01 +1.56642988e-01 +3.57430540e-02 +9.27007198e-03 -2.13553891e-01 +4.52992022e-02 -1.53595069e-02 -1.81448489e-01 -1.37197018e-01 -2.06312358e-01 +1.86652139e-01 -9.60833058e-02 +1.27382293e-01 -6.26316592e-02 -9.04134274e-01 +7.86263943e-02 -1.26997054e-01 +8.30461979e-02 -7.08036497e-02 -4.83851694e-02 -1.13943957e-01 -3.79794568e-01 +8.15913603e-02 -1.13004684e-01 +8.39510784e-02 +2.72027582e-01 +6.67065158e-02 -6.45077407e-01 -7.28693157e-02 -9.19299759e-03 -1.01844497e-01 -1.85134903e-01 +2.45092008e-02 -4.35237549e-02 -3.36599303e-03 +5.16508579e-01 +1.09243859e-03 +8.42048600e-02 -3.90190445e-02 +5.76488137e-01 -3.90736878e-01 +7.33560994e-02 -3.57949063e-02 +8.12236145e-02 -1.99577540e-01 -3.42183299e-02 +3.08417946e-01 -1.83910996e-01 +1.35920241e-01 -2.13892490e-01 -2.34111607e-01 +3.52548003e-01 +3.18079442e-01 +4.33364026e-02 +1.70592412e-01 +5.92790425e-01 -1.16171151e-01 +4.98398803e-02 +3.18702310e-02 -4.77258526e-02 -1.58375293e-01 -1.08690120e-01 -2.37166673e-01 -2.79641282e-02 -2.92897057e-02 -3.07120588e-02 +8.98923166e-03 +5.48545159e-02 +2.86390960e-01 +1.02919981e-01 -3.15257549e-01 +1.59805030e-01 -3.37287515e-01 -1.38075706e-02 +3.18775386e-01 -1.54364392e-01 +2.06155837e-01 +7.83478667e-04 +1.93210334e-01 +9.15889889e-02 +9.98243019e-02 -3.92525680e-02 +2.12779611e-01 -1.09599546e-01 -1.38130844e-01 +9.23870876e-02 +9.09498706e-02 -1.10397346e-01 -4.63594459e-02 -5.19027948e-01 -1.13207899e-01 +2.76907295e-01 -9.57003906e-02 -3.97435606e-01 -1.27790160e-02 +3.67244035e-02 +5.40041924e-02 +7.49666914e-02 -2.09757723e-02 +4.29171830e-01 -1.95806827e-02 +2.52971411e-01 +3.59929860e-01 -6.46995157e-02 +3.73760819e-01 +9.83030275e-02 -1.35600910e-01 -3.49270910e-01 -2.39029720e-01 -8.71029347e-02 -9.62629393e-02 -1.01896100e-01 -1.23555548e-01 -4.33498710e-01 -5.67137152e-02 -1.73767969e-01 -1.78470030e-01 -2.61354029e-01 +2.65477687e-01 +2.29827359e-01 +2.69616581e-02 +1.90697879e-01 -5.41900769e-02 +8.61622617e-02 +1.14166610e-01 +1.30692897e-02 +5.36361299e-02 +1.09268561e-01 -6.34003617e-03 -1.75365359e-01 +3.66652943e-02 -2.45905027e-01 +7.61350021e-02 +4.88684140e-02 -4.68666822e-01 -2.03715831e-01 -3.55643243e-01 +2.52002120e-01 +1.54287308e-01 -1.05960881e-02 -2.52363533e-01 +5.23902357e-01 +2.04401180e-01 +3.95093113e-01 -1.25593543e-01 +2.87447143e-02 +3.73699397e-01 -2.45980039e-01 +2.91437626e-01 -1.42460287e-01 -2.94129878e-01 -2.77145892e-01 -3.12078506e-01 +2.86409736e-01 +2.39663292e-02 +3.35188717e-01 +1.60257950e-01 -1.82094902e-01 +1.66079625e-01 +3.91418308e-01 -2.33141556e-01 -5.45587204e-02 +1.92830697e-01 -4.36011255e-01 -6.23896159e-02 +3.75696109e-05 +2.14704618e-01 -2.31041625e-01 -1.64070606e-01 +3.14603709e-02 +5.80908731e-02 +3.17575365e-01 +2.41931513e-01 -4.25102264e-01 +2.02518001e-01 +8.34686086e-02 -1.94129854e-01 -6.59296513e-02 +1.87964320e-01 -1.51678368e-01 -3.70753884e-01 -3.85336548e-01 -1.86806306e-01 -1.74970821e-01 -7.24406987e-02 +2.01379851e-01 -1.04201943e-01 +2.25872636e-01 -4.85518947e-02 -6.86012348e-03 +8.18122178e-03 +5.07251476e-04 -1.21818937e-01 -1.40764788e-01 -1.56404018e-01 -1.63072720e-01 -6.18619770e-02 +5.59814200e-02 -8.53535607e-02 +3.93097997e-01 -2.12281004e-01 +4.98329811e-02 -2.32308313e-01 -5.73698133e-02 -1.71643808e-01 -3.93251210e-01 +7.14787394e-02 -1.35004461e-01 -1.12386040e-01 +1.12896785e-01 +3.62355039e-02 +2.25532547e-01 -2.85325855e-01 +5.71828067e-01 -6.59726411e-02 +1.29818976e-01 +1.88694105e-01 +3.23562354e-01 +2.25879848e-01 -2.74970323e-01 -4.46346730e-01 +1.09100960e-01 -1.14625223e-01 -2.55960882e-01 -1.95304826e-01 +2.12274790e-02 -4.05172974e-01 -3.97494853e-01 -3.67742598e-01 -2.90954560e-01 +2.24822313e-01 +1.44239277e-01 -4.47866201e-01 -6.43315986e-02 +4.98846084e-01 +9.72559452e-02 -5.78306504e-02 +3.80935371e-02 +3.09182048e-01 -2.05552086e-01 +4.04539667e-02 +6.45475328e-01 -1.62025690e-01 -3.46731441e-03 -4.74377513e-01 -1.89650565e-01 -6.36467516e-01 +6.94666430e-02 -2.09687561e-01 -7.48245418e-02 -6.63371384e-02 +3.36868584e-01 -3.07522118e-01 -1.00825369e-01 -2.43992716e-01 +1.33005366e-01 -1.62672013e-01 -3.86714600e-02 -1.02398217e-01 +1.16735235e-01 +1.82205617e-01 +3.98554234e-03 +3.80439490e-01 +8.26378092e-02 -2.12425515e-01 +1.95011310e-02 -5.65458015e-02 -7.54526481e-02 +4.49162185e-01 -1.64756924e-02 +4.89433333e-02 -1.17698265e-02 -2.57585905e-02 +1.41154200e-01 +3.51589583e-02 -4.32997756e-03 +2.39287749e-01 +2.18099713e-01 -6.11864775e-02 -2.59991474e-02 +1.00236721e-01 -2.15227768e-01 +1.65331304e-01 -2.04947129e-01 -1.63589865e-01 -4.08215337e-02 +9.79600251e-02 +3.76930870e-02 +3.47550601e-01 +1.21561930e-01 -4.63960558e-01 -2.15493709e-01 -4.00234312e-02 -4.33316320e-01 -7.06535131e-02 +4.01276350e-01 -3.58819425e-01 -1.87595859e-01 -3.24158639e-01 +8.89389515e-02 +6.15565702e-02 -8.73780698e-02 -1.16028532e-01 -2.40055576e-01 -9.55114961e-02 -2.18071882e-02 +8.45753133e-01 -2.03396037e-01 -4.04760480e-01 -4.84940410e-02 -1.15789644e-01 -2.57776435e-02 +4.17935163e-01 +7.87093118e-02 -1.35039806e-01 +1.09490246e-01 -1.82717308e-01 +1.55601040e-01 +1.53936401e-01 +1.46337256e-01 +3.67638133e-02 +7.15751648e-02 +4.83280063e-01 +1.19875088e-01 +5.80916345e-01 +1.71408385e-01 -3.30489613e-02 +2.26125270e-01 -3.55965734e-01 +1.63021892e-01 +2.68438876e-01 -4.55860198e-02 +5.23904920e-01 -1.95665598e-01 +8.72642174e-02 -2.59014107e-02 +1.05798379e-01 +2.79152036e-01 -2.55243540e-01 +2.66656220e-01 +6.73074186e-01 +8.10442120e-02 -5.04903235e-02 -3.11077893e-01 +2.17592016e-01 +6.38581812e-02 +1.07683524e-01 +3.14879894e-01 +1.06590629e-01 +2.81977821e-02 -2.66948402e-01 -1.45908952e-01 +9.74076018e-02 +1.75945237e-01 +3.85302812e-01 -1.72611773e-01 +2.80315727e-01 -6.41243458e-02 +3.20052117e-01 +4.06322554e-02 -6.10843718e-01 -1.47247061e-01 -1.69738635e-01 +1.83734577e-02 +4.82625030e-02 -1.63569123e-01 +1.49952397e-01 +1.35457650e-01 +1.13510467e-01 +1.09625481e-01 +4.83666033e-01 +1.33937925e-01 +3.12812269e-01 -3.47388595e-01 +7.37479806e-01 -4.82744724e-01 -5.59446990e-01 -4.43241656e-01 +2.15281956e-02 +6.66417256e-02 -1.32870674e-01 +5.28939515e-02 -4.48692560e-01 +3.59002501e-01 -1.58208936e-01 +1.77059308e-01 -2.59765804e-01 -2.57075816e-01 -1.35017738e-01 -1.42479390e-02 +1.03051476e-01 -2.21433043e-01 +1.13194697e-02 +2.01178938e-01 -6.24641851e-02 +4.26249951e-02 -3.46506312e-02 +6.64512739e-02 -4.68221009e-01 -2.66284170e-03 +8.08401555e-02 +1.74448222e-01 -2.39136681e-01 +2.46011421e-01 +2.29066759e-01 +2.33266070e-01 -8.46533850e-03 -1.80347696e-01 +9.10227597e-02 -5.79423785e-01 -2.15189531e-01 -1.41990229e-01 +2.21732736e-01 -4.82833743e-01 +1.09548829e-01 -1.58801407e-01 -1.91524863e-01 -1.18123891e-03 -2.47823790e-01 -4.96764779e-01 -5.00936270e-01 -2.05495194e-01 +1.22172974e-01 -3.27725187e-02 -2.40345225e-01 +2.71691866e-02 -4.82189685e-01 -3.47576919e-03 +8.20280835e-02 -4.88527954e-01 -8.72185007e-02 -2.11612675e-02 -2.32214138e-01 -1.47897005e-01 +7.31780827e-02 -2.56047398e-01 -8.04452598e-01 -3.49481076e-01 +1.29079059e-01 -4.79202241e-01 -2.25672752e-01 +3.71274382e-01 -4.13144827e-02 +3.65398936e-02 +1.49703557e-02 -8.47517997e-02 +2.47139469e-01 +3.60710084e-01 +3.00973326e-01 -3.84109840e-02 +3.89298081e-01 -1.39473915e-01 -3.39466512e-01 +2.52562374e-01 +2.70333499e-01 +8.08513165e-03 -1.72984764e-01 +9.24622118e-02 +5.59718758e-02 +9.65461805e-02 +3.89261484e-01 -1.65858325e-02 -2.47744657e-02 +4.54357058e-01 -3.10023017e-02 +3.15782547e-01 +1.11276872e-01 -3.17617029e-01 -2.64882781e-02 +2.00827777e-01 -1.95802286e-01 +3.17817777e-01 +5.31983376e-01 -8.64148855e-01 -1.98671162e-01 +6.40408881e-03 -2.33254731e-01 -1.71093583e-01 +4.09265995e-01 -4.58049089e-01 +2.38845721e-01 +2.15568095e-01 -1.03234954e-01 -6.58977866e-01 +2.44337201e-01 +2.73456872e-01 +1.56118581e-02 +2.91567564e-01 -4.72029060e-01 -1.00607984e-01 -7.25581720e-02 +7.56263316e-01 +5.35254076e-04 -6.55422688e-01 -2.57241070e-01 -4.57650870e-01 -5.52019954e-01 +7.07412124e-01 -4.23286051e-01 +1.67547792e-01 -3.08226556e-01 -6.02009952e-01 +8.66180062e-02 -3.06334406e-01 +6.11580729e-01 +8.39164555e-02 +1.31260142e-01 +2.37795208e-02 -1.40569925e-01 -2.94102877e-01 -2.31581822e-01 +7.88817555e-02 +3.10580701e-01 -5.85017167e-02 +4.68992978e-01 +3.76519918e-01 -1.50213525e-01 -8.71789306e-02 +1.83675691e-01 -5.49321249e-03 +1.69164971e-01 +2.71079540e-01 -2.27481335e-01 +1.49525449e-01 +5.14301509e-02 -6.68623373e-02 -2.03443080e-01 +7.28819296e-02 -2.58438826e-01 -4.62661572e-02 +2.12946832e-01 -3.64354253e-01 +5.73742343e-03 -2.33194396e-01 -9.98660922e-02 +5.53561568e-01 +5.44900373e-02 -1.99836031e-01 -1.43425331e-01 +3.16756219e-01 +8.23581442e-02 +1.51855573e-01 -2.75448620e-01 -4.93427292e-02 -6.11821264e-02 -3.73238362e-02 +2.67757267e-01 +1.74698845e-01 +1.88459590e-01 +5.97936148e-03 -1.21825196e-01 +3.80082756e-01 +4.99406010e-01 -1.19810283e-01 -2.92962730e-01 -1.22258822e-02 -3.34572345e-01 -4.74827081e-01 +7.09871799e-02 -1.14402018e-01 +2.62371033e-01 +4.23282795e-02 -1.60052225e-01 -2.35109910e-01 -2.02995464e-01 +2.45934784e-01 +5.26848249e-02 -5.19620359e-01 -5.56583740e-02 -9.54704136e-02 -3.01201679e-02 -1.14595015e-02 +9.80880708e-02 -7.96277598e-02 +1.21479686e-02 +1.06817682e-03 -2.42148057e-01 -1.63068529e-02 -1.97182402e-01 -4.58148643e-02 +3.89426947e-02 -1.13023095e-01 +1.54750451e-01 +1.09701298e-01 +4.16468918e-01 +1.12782665e-01 +1.36983722e-01 +3.17339823e-02 -1.69195503e-01 +5.55100441e-02 -5.88386178e-01 +2.08003908e-01 +2.93594420e-01 +1.95014283e-01 -1.48935035e-01 -1.88377589e-01 -3.43838394e-01 -3.67727280e-01 -9.17992070e-02 -1.78622320e-01 -7.92903528e-02 +7.20410272e-02 -6.16421580e-01 -2.33289719e-01 +1.39358568e+00 -3.87655914e-01 -2.06356272e-01 -5.07315874e-01 -8.48510027e-01 +2.34013125e-01 +3.12428456e-02 -1.26578435e-01 -2.65767604e-01 -3.45001221e-01 -3.47561240e-01 -3.46328914e-01 -7.32175559e-02 +1.42219052e-01 -5.48146404e-02 +9.93631035e-02 -2.29425460e-01 +2.97420353e-01 -2.90691108e-01 -7.66963065e-02 -3.25579531e-02 +1.42675728e-01 -2.66713411e-01 +1.51830703e-01 -1.89848438e-01 -2.65755534e-01 -1.29192576e-01 -3.14679056e-01 +6.92991018e-02 +4.02289808e-01 +5.57482354e-02 +1.85646936e-01 +2.56550282e-01 -2.64197923e-02 +1.46072149e-01 -1.08071357e-01 +9.83081013e-02 +8.57610181e-02 -3.53100717e-01 -8.88285115e-02 +4.02192920e-02 +5.07197268e-02 +8.65660757e-02 +3.55834007e-01 -5.34312502e-02 +1.93676457e-01 -1.88306361e-01 -1.76968470e-01 +3.03514034e-01 -1.13293760e-01 +1.27557945e-02 -1.46515340e-01 -6.49883375e-02 -8.44315886e-02 +4.86663319e-02 -8.52620974e-02 -5.20705760e-01 -1.43837497e-01 -5.40285669e-02 +9.50462222e-02 +3.30490731e-02 -2.67160714e-01 -1.25631526e-01 -6.52899891e-02 -1.25992864e-01 +6.30040467e-01 +8.61497223e-02 +2.31061935e-01 -2.14320511e-01 -1.71716377e-01 -5.80979288e-02 +1.20584585e-01 +1.40262172e-01 -9.49163064e-02 +1.75848022e-01 -3.05190757e-02 -1.05681829e-01 +1.11361638e-01 +7.45835230e-02 +1.53912418e-02 -2.80553699e-01 -2.03231663e-01 +1.33956298e-01 +1.01197567e-02 -2.06952736e-01 -1.77772060e-01 -5.30566610e-02 -1.18821099e-01 -1.44617140e-01 +1.16534613e-01 -2.40909830e-01 -8.24741304e-01 -2.96333700e-01 +1.09578900e-01 -1.63384661e-01 +8.78772587e-02 +9.40921530e-02 +1.03105366e-01 -2.87778705e-01 -1.13957062e-01 +1.50471866e-01 -6.40184507e-02 +3.80309075e-02 -3.56279433e-01 -4.76124823e-01 +1.50130197e-01 +1.59825966e-01 +8.90131965e-02 -3.32938671e-01 +3.19293916e-01 -8.84145200e-02 -1.42774045e-01 +3.71552557e-01 -1.67847902e-01 -7.03835711e-02 +2.45485246e-01 -2.14236617e-01 -3.25258434e-01 -1.55090049e-01 -1.54119343e-01 +5.04361391e-02 -2.14065328e-01 +1.43986478e-01 +2.28436943e-02 -3.62771481e-01 -3.96148860e-01 -2.41252586e-01 +4.99375254e-01 +4.30104285e-02 +3.16061407e-01 -1.48685530e-01 -7.18705654e-02 +5.06598413e-01 -4.94966745e-01 -1.88118353e-01 -4.55711663e-01 -4.75093201e-02 -4.43843640e-02 -7.59538114e-01 -5.65808833e-01 +3.56558830e-01 +9.90725756e-02 +1.32823139e-01 -1.01635396e+00 +4.26993482e-02 -2.81819403e-01 -1.85750753e-01 -3.35112989e-01 +4.83971626e-01 -3.81046951e-01 -2.59320289e-01 -7.28001893e-01 -8.94833654e-02 +1.29938945e-01 -2.72164941e-01 -7.16981173e-01 -5.01379490e-01 -4.19846848e-02 +1.70547459e-02 -3.08276325e-01 +2.53921032e-01 +1.85749605e-01 -1.00044675e-01 +3.56455952e-01 +2.39693618e-04 +8.88347719e-03 +1.65925309e-01 -5.57259507e-02 -3.07719111e-01 -4.61019762e-02 +3.53509933e-01 +4.30542529e-02 +6.66608587e-02 -1.14501514e-01 -4.91762236e-02 -3.14315200e-01 -3.21914643e-01 -1.73527539e-01 -1.84092462e-01 -5.40158868e-01 +9.18921549e-04 -3.46123606e-01 +1.84784085e-01 -3.61398570e-02 -1.98919266e-01 -2.70444870e-01 +8.93676728e-02 -2.22749740e-01 -6.39753789e-02 +6.32276654e-01 +8.47023353e-02 -1.55255154e-01 -1.75352335e-01 +3.01677138e-01 -5.60646355e-02 +1.51100039e-01 -3.09922099e-01 -1.00756489e-01 +3.89511138e-01 +6.81323186e-02 -1.94853887e-01 -8.88215005e-02 -1.30533464e-02 -3.19320196e-03 -2.05425709e-01 +5.38850725e-02 +1.88920468e-01 +1.36188269e-01 -7.78986216e-02 +4.47229713e-01 -3.09892356e-01 +3.06554198e-01 +5.93384616e-02 +3.29483189e-02 -2.95876384e-01 +2.84944847e-03 +3.77796531e-01 -9.53803062e-02 +1.17728785e-01 +2.46441126e-01 -1.03664048e-01 -1.29258931e-01 +6.37088493e-02 +1.95544109e-01 -6.61935285e-02 +1.65719558e-02 +1.06691532e-01 +1.46946102e-01 -3.52736562e-01 +2.27805525e-01 -2.10331485e-01 -3.74677926e-01 -4.29175764e-01 -2.00697333e-01 -3.61342341e-01 -3.29727441e-01 +9.43772793e-02 +7.06604868e-02 +4.41224724e-02 +2.49676526e-01 -3.73763680e-01 +9.93210450e-02 -1.92572907e-01 -3.73982266e-02 -7.65583431e-03 +7.38497153e-02 +9.20929238e-02 +1.03460006e-01 -1.68135166e-01 +3.92815262e-01 +1.62666574e-01 +6.56031966e-02 -3.45247626e-01 +4.58480626e-01 -4.30098027e-01 -3.21977496e-01 +1.14617683e-01 +3.82847875e-01 +6.69425070e-01 -2.12042779e-02 +5.17797947e-01 -3.27648163e-01 -3.16074520e-01 -1.19542569e-01 -2.49037609e-01 +7.00895116e-02 +2.17264786e-01 -5.37320733e-01 +4.42671150e-01 +3.27516682e-02 +2.66837776e-01 -7.21257806e-01 +1.20112009e-01 +1.39914334e-01 -7.03543946e-02 +3.22127432e-01 +1.42913416e-01 +1.46651492e-01 -2.26607248e-01 -1.78549796e-01 -9.83860046e-02 +5.49001634e-01 -2.16920584e-01 +1.64289758e-01 +2.02715203e-01 +4.43226308e-01 -6.21062629e-02 -5.30591421e-02 +1.33284196e-01 +2.45941252e-01 -4.84467521e-02 -2.06142422e-02 -9.64177921e-02 -2.38224044e-02 +9.22945142e-02 -3.67575772e-02 -1.22575730e-01 +3.04670721e-01 -2.38516375e-01 -3.07203829e-01 +1.38327420e-01 -3.44684012e-02 +3.23622942e-01 -3.34931374e-01 -4.25304264e-01 +2.20560268e-01 +3.05270910e-01 -1.89299583e-01 +2.11758420e-01 +1.00436412e-01 +1.72992378e-01 +2.28746627e-02 +1.33380786e-01 +9.73735526e-02 -1.31862491e-01 -7.75051787e-02 +2.09177658e-01 -4.86627556e-02 -2.23131180e-01 +1.59659505e-01 +7.18395710e-02 -4.23240870e-01 +1.98557571e-01 +1.93460733e-01 -2.61285096e-01 +1.63326517e-01 -2.16665342e-01 -1.03869028e-01 -3.73342961e-01 -9.69316959e-02 +1.39798671e-01 -1.98413134e-01 -7.25460351e-02 +2.65353292e-01 -4.89897281e-01 +1.00817360e-01 +3.82854789e-01 -1.84851997e-02 +1.86502323e-01 -2.96042621e-01 -3.44955884e-02 -7.93740600e-02 -1.90172583e-01 -2.41392180e-01 -3.64573598e-01 -7.63610452e-02 +8.64589065e-02 +5.63380457e-02 -4.12030250e-01 -2.86232412e-01 -1.30473316e-01 -1.85789049e-01 -1.22850254e-01 +2.86694057e-03 +2.07556665e-01 +5.30257702e-01 +2.48168454e-01 +8.42468813e-02 +6.83318377e-01 -3.41969937e-01 -7.69259036e-02 -2.12136775e-01 +5.11225536e-02 +1.16815366e-01 +9.98464823e-02 +4.08967175e-02 +2.79417157e-01 +1.44617632e-01 +1.97047606e-01 +4.66624200e-02 +2.20493615e-01 +4.90358025e-01 -3.19311887e-01 -2.07784437e-02 -1.69000849e-01 -3.10290962e-01 -2.69384801e-01 +3.89598697e-01 -1.04854263e-01 +4.41759452e-02 -2.04362974e-01 -5.65608963e-04 -7.37819791e-01 -1.94617614e-01 -5.96042395e-01 -2.56588995e-01 +5.42498112e-01 -8.59865546e-03 +1.20210677e-01 +1.46698684e-01 -3.71082485e-01 +1.73193097e-01 -1.04995742e-01 -5.31542599e-01 +2.74449363e-02 -4.44208711e-01 +1.51328862e-01 +1.22121729e-01 +1.21496439e-01 +1.55763790e-01 -7.28992838e-03 +3.92647050e-02 -1.14073277e-01 +1.88278668e-02 -2.71879077e-01 +1.01673037e-01 -3.08422655e-01 -4.83105868e-01 -2.20350713e-01 +4.18473631e-01 +2.35827286e-02 +1.28167644e-01 -4.28834498e-01 +1.49260201e-02 +2.94426288e-02 -2.40948245e-01 +4.70738709e-02 -1.46090329e-01 -4.59381282e-01 -1.77605159e-03 +9.13375542e-02 -1.15372553e-01 +2.02818558e-01 -1.35424927e-01 +1.27250537e-01 -1.63113028e-01 -1.50870591e-01 -1.70401543e-01 -1.25393927e-01 +5.06218560e-02 +1.51943997e-01 -1.60094872e-01 +2.14200437e-01 +1.66758835e-01 +2.84132779e-01 -3.03468853e-01 -1.30817816e-01 -1.16254441e-01 +4.98557895e-01 +1.35740742e-01 +3.18625480e-01 +1.85121670e-01 -2.81743724e-02 -9.51341018e-02 -7.29105473e-02 -4.45911139e-02 +1.69609353e-01 +1.89514309e-01 -5.43329380e-02 +7.03772008e-02 +9.00986046e-02 +5.31602465e-02 +4.98707056e-01 +3.93856287e-01 +1.87651128e-01 -2.93049842e-01 +2.33160779e-01 -2.35640362e-01 +4.07255478e-02 +4.18845564e-01 +7.97410458e-02 -2.02109665e-02 +3.23956348e-02 +3.51922274e-01 +1.60123020e-01 -3.63766551e-01 +6.76475558e-03 -1.07678525e-01 -4.31832187e-02 +2.42446855e-01 +3.76189470e-01 -1.54585987e-01 +4.09464501e-02 +2.35840857e-01 +1.75416723e-01 -2.22602069e-01 +3.33288491e-01 -2.63632089e-01 -1.70868337e-02 +3.36060822e-01 +3.86226594e-01 +2.72057444e-01 +2.82842696e-01 +1.86668620e-01 +4.44565982e-01 +1.27744153e-01 -6.49863780e-02 +2.33120471e-01 +3.17541689e-01 -1.20196529e-01 -5.01170337e-01 +3.78991067e-02 +3.13964561e-02 +5.15321672e-01 -1.28274728e-02 +5.98798357e-02 -6.62495475e-03 -3.51915359e-02 -3.31799567e-01 +4.01399463e-01 +4.39287186e-01 +1.57917216e-02 -4.14533198e-01 +3.94110680e-01 -2.09889621e-01 -2.52185076e-01 -5.21749742e-02 -5.36089361e-01 +5.32498181e-01 +3.85375381e-01 -4.69878465e-02 +3.55109811e-01 +4.46926057e-03 -4.23067696e-02 -2.63962090e-01 -3.72960478e-01 +2.13937238e-01 -1.38741538e-01 +3.80179793e-01 -9.38986301e-01 +6.65830135e-01 +3.57592218e-02 +8.53351235e-01 +2.78058380e-01 +5.26771434e-02 -4.93636690e-02 +3.12909991e-01 -1.62856486e-02 +1.68684497e-01 +1.13239482e-01 +2.25881591e-01 +3.56965482e-01 -7.24024773e-02 -6.74423799e-02 +6.90489188e-02 +1.11556157e-01 +4.23518009e-02 +1.07338510e-01 +4.97444570e-01 +1.38678893e-01 -6.64339289e-02 +4.21226054e-01 -1.53005570e-01 +4.27614860e-02 -4.10007864e-01 +1.22451909e-01 -2.78844059e-01 +2.35254969e-02 +8.86079147e-02 -6.11911416e-02 -4.38471735e-01 -1.02942973e-01 -7.51854405e-02 +9.12624374e-02 +4.81435210e-02 -1.15146786e-01 +1.35795936e-01 +9.46690515e-02 -2.40739822e-01 +1.05722919e-02 -7.11106658e-02 +8.68294686e-02 +7.67693594e-02 -2.57096849e-02 -7.10255653e-02 +2.71431863e-01 -2.51112729e-01 +3.40958863e-01 +8.50259587e-02 +2.04538614e-01 -1.08399009e-03 -1.08890481e-01 +5.07062152e-02 -2.99074888e-01 +1.03425883e-01 +4.93018001e-01 +3.40081394e-01 -1.43297344e-01 +1.76872119e-01 +2.20723942e-01 -7.88863376e-02 +2.13241398e-01 +3.57540607e-01 +2.38322373e-02 +3.32774192e-01 +3.58368188e-01 +4.64176387e-01 -2.14455664e-01 -9.02858302e-02 +7.41700828e-02 +1.43363744e-01 +1.33666053e-01 +2.26987347e-01 -8.44316185e-02 +9.25270468e-02 -9.04675797e-02 -3.20869893e-01 +2.23896541e-02 +4.63220447e-01 +1.46603391e-01 -2.79265106e-01 -6.30400553e-02 +5.52151911e-02 -1.02286220e-01 -9.49648172e-02 +1.47286549e-01 -7.73364753e-02 -6.66331798e-02 +9.07043740e-03 +1.50249913e-01 -1.49110332e-01 +7.56973028e-02 +4.92644489e-01 -1.63931355e-01 -6.90839350e-01 +1.73970535e-01 -3.75220448e-01 +2.89259613e-01 -1.64970621e-01 +3.38043898e-01 -5.35228476e-02 +1.21972412e-02 -3.82882684e-01 -1.44560218e-01 -2.52838254e-01 -1.20619327e-01 -1.99793633e-02 +9.44983587e-02 -2.89750010e-01 +8.55474025e-02 -1.83659256e-01 +6.32765889e-02 -5.33021986e-02 -1.70936771e-02 +5.07023372e-02 +1.14774063e-01 +5.66005334e-02 +2.63429135e-01 -8.41932297e-02 +3.61847281e-01 +2.02847272e-01 +6.44028336e-02 -3.70739222e-01 -5.12709958e-04 -4.36968476e-01 +5.82936943e-01 -1.11793712e-01 -6.04589403e-01 +1.68741047e-01 +3.46703082e-01 -2.06532702e-01 +4.26287323e-01 -6.45105779e-01 -2.49124676e-01 +4.35592771e-01 +1.91919178e-01 +3.21715206e-01 -1.57197371e-01 +2.71475822e-01 -2.68501878e-01 -4.72119600e-01 +7.45428860e-01 +1.91423809e-03 -4.84631918e-02 -4.04578269e-01 -2.37030536e-01 +8.81017372e-03 -1.55826062e-01 +1.19561441e-01 +1.62547216e-01 -9.91978571e-02 +4.28506523e-01 -1.80698574e-01 +3.05206999e-02 -2.05136955e-01 -1.13909028e-01 +3.19760263e-01 -1.58593416e-01 +2.00836778e-01 +8.02470148e-02 -1.16090402e-01 -8.14567655e-02 +1.72022477e-01 +1.68656215e-01 +7.15656802e-02 -1.58833176e-01 -1.79488435e-01 +5.19208871e-02 -6.68518096e-02 -2.57340018e-02 +3.24825108e-01 +1.07511058e-01 -1.10802457e-01 -1.48610026e-01 -3.48942310e-01 +6.80673420e-02 +4.73688208e-02 -3.59240025e-01 +4.83183563e-02 +8.73550698e-02 +5.67776747e-02 +1.94997236e-01 +8.42914134e-02 +1.88824296e-01 -1.37575448e-01 +4.30079550e-02 +2.90415436e-01 +3.66026580e-01 -8.06920156e-02 +2.95095537e-02 +2.10791990e-01 +2.12673649e-01 +4.42670703e-01 +9.89400148e-02 +4.21210885e-01 -2.09530458e-01 -4.23281312e-01 +5.96711449e-02 +4.61244106e-01 +2.11960405e-01 +1.61224738e-01 +9.22034681e-03 +7.94930309e-02 +4.92054112e-02 -1.33779258e-01 +4.05112952e-02 -4.29768488e-02 +4.97382842e-02 +4.28714961e-01 -4.00450751e-02 +2.15999797e-01 +2.32453033e-01 +3.55649531e-01 +2.32635826e-01 +1.11671910e-01 -1.08169597e-02 +3.05979997e-02 +3.88190895e-02 +3.09278399e-01 -5.98313361e-02 +8.61048028e-02 +1.69901326e-02 -3.28372359e-01 -3.44541185e-02 -5.66155255e-01 +9.99003351e-02 -2.28598475e-01 -1.28588364e-01 +3.49163562e-01 -3.20359133e-02 -3.63227278e-01 -4.34860438e-02 -2.35924289e-01 +7.88414758e-03 +2.09049769e-02 -6.09132722e-02 +1.64152578e-01 +5.47423542e-01 +2.15734303e-01 -1.14120841e-01 -9.51007754e-02 +5.49920857e-01 +1.95396647e-01 +2.80368537e-01 +2.69506246e-01 -6.99029744e-01 +1.72778636e-01 +1.00832954e-01 -5.47300279e-01 -7.06981048e-02 +4.88282777e-02 +5.20007491e-01 +2.30866209e-01 -1.11945592e-01 +1.96895655e-02 -3.78386021e-01 +2.61970282e-01 +5.27935266e-01 +3.71697783e-01 +4.51578051e-02 -1.79991543e-01 -3.04715395e-01 +1.32386908e-01 +1.90894812e-01 -3.40866931e-02 -1.92861050e-01 +5.09025604e-02 -4.45299715e-01 -7.80835629e-01 +1.00719750e+00 -3.68144274e-01 +1.40937744e-02 -3.27808917e-01 +3.87162954e-01 -6.09721363e-01 +3.43350321e-01 +7.71073163e-01 +2.72261083e-01 -1.56652629e-01 +4.00321662e-01 -3.87465656e-01 +2.25221142e-01 -3.84941399e-01 +1.24237165e-02 +1.79435313e-02 -1.52833194e-01 +1.40037566e-01 -2.55162567e-02 +1.35668993e-01 -8.03456455e-02 +7.50283003e-02 -4.85306025e-01 -1.36769846e-01 -2.22852483e-01 +1.25553221e-01 +1.13883533e-01 +4.53911386e-02 +5.33432364e-01 +2.59050757e-01 +9.95858982e-02 -1.76708013e-01 -1.05602294e-02 +8.07362199e-02 -2.97737896e-01 +1.95559695e-01 -3.63880455e-01 +1.17059574e-02 +4.23342913e-01 +3.67973566e-01 -1.85473233e-01 -5.03387079e-02 +4.49909955e-01 +3.56507331e-01 +1.33000538e-01 -2.31483355e-02 +1.67788595e-01 -4.92255479e-01 +5.43772131e-02 +3.07009906e-01 -2.40617260e-01 +2.39218861e-01 +1.35615304e-01 +3.21006170e-04 +7.66813830e-02 -8.03788304e-02 +4.36407477e-01 -1.90391198e-01 -1.23760380e-01 +1.56107157e-01 -3.58271748e-01 -1.73717942e-02 +4.34389561e-01 -3.75624061e-01 +1.49614871e-01 +3.97205204e-02 +1.26955777e-01 -5.03578067e-01 +2.91214198e-01 -3.10459491e-02 -5.07548273e-01 -1.33669034e-01 +4.63440977e-02 -3.09859961e-02 +1.89172313e-01 +1.30917996e-01 +1.26156494e-01 +2.09763885e-01 -1.14609867e-01 +6.27233148e-01 +4.58039567e-02 -5.23199797e-01 -1.34336296e-02 -2.91929513e-01 -3.52158025e-02 -3.40504676e-01 -3.26567926e-02 -5.54563850e-02 +2.99009144e-01 -2.32596993e-01 -2.61638463e-01 +5.22371270e-02 +5.02598546e-02 +1.74740553e-01 +2.77552992e-01 -2.91518062e-01 +6.85549974e-02 -6.18215725e-02 +2.65829451e-02 -2.28789598e-01 -3.46452951e-01 +1.08542992e-02 -1.37450173e-01 +3.00468862e-01 -2.21321046e-01 -5.18727124e-01 -3.13712060e-01 +2.19877400e-02 +4.88492221e-01 -1.90817729e-01 -6.58034861e-01 -1.57660246e-01 -2.11631358e-01 -3.13865513e-01 -6.40200019e-01 +1.24444447e-01 +4.60312925e-02 -4.81366754e-01 +4.45423514e-01 +1.66659411e-02 +4.17697579e-01 +8.27783421e-02 -4.72054750e-01 +2.75848567e-01 -4.86326963e-01 -2.93374471e-02 -1.62260979e-01 -2.09411561e-01 +5.88513732e-01 -3.13200593e-01 -2.45213255e-01 -4.10666019e-01 -6.40763044e-01 -4.66831326e-01 -2.89717525e-01 +3.44256222e-01 +7.19682992e-01 +1.59998000e-01 +1.67070013e-02 -1.42863378e-01 +2.44074408e-02 +8.09421092e-02 -8.93896893e-02 -8.27295240e-04 +1.33397624e-01 +2.80328006e-01 +1.75233081e-01 -5.50154038e-02 -1.01679891e-01 +3.27910662e-01 +1.80392146e-01 +1.41873911e-01 +1.46564633e-01 -3.66803229e-01 +1.78522632e-01 -2.66553165e-04 -3.00719261e-01 +4.34853226e-01 -5.26274323e-01 -1.11945637e-01 -1.98013545e-03 +2.12348640e-01 -1.25360429e-01 -2.34739676e-01 -1.99241057e-01 +1.01138815e-01 +2.88178802e-01 -5.67738004e-02 -2.12170452e-01 -8.83023739e-02 +4.41363156e-01 +3.33168149e-01 -3.23922187e-02 +9.65645909e-03 -9.40556303e-02 -9.78050381e-03 -1.49132669e-01 +1.16394743e-01 -2.83682533e-02 +2.32967407e-01 +1.39351070e-01 -5.05258441e-02 +6.81488588e-02 +3.21458787e-01 +3.17713991e-02 +1.33454531e-01 +1.34297282e-01 +4.44778770e-01 -3.53557020e-01 +2.65744746e-01 +8.13608989e-02 +2.42143124e-02 +4.58103716e-02 +2.75232404e-01 +2.18131304e-01 -7.85040632e-02 +6.34651482e-02 -3.59849542e-01 -5.09648025e-01 +4.82625626e-02 -4.32600565e-02 -7.54856542e-02 +1.88550204e-01 -1.09161623e-01 -5.44917583e-02 +2.50354595e-02 +1.63371906e-01 +2.76893348e-01 -1.63042128e-01 -5.45540266e-02 -2.34800929e-04 -2.09795833e-01 +2.75333107e-01 +1.72952592e-01 -5.59472255e-02 +1.35225311e-01 -7.59419352e-02 +2.27435143e-04 -5.66996448e-02 +3.27738106e-01 +1.39844805e-01 -2.56371200e-01 +5.14395535e-02 -2.77015436e-02 +9.20671746e-02 +1.52812824e-01 -7.01382980e-02 +1.38037920e-01 -3.18775803e-01 -1.59453228e-01 +2.24634647e-01 +3.30976903e-01 +5.96257567e-01 +4.02318053e-02 +1.07376374e-01 +1.07270956e-01 -1.44745380e-01 -3.02275866e-01 +6.00221269e-02 -8.11188519e-01 +4.03615266e-01 +2.14517698e-01 -3.86362791e-01 -8.86956677e-02 +2.70950854e-01 -3.52738917e-01 +1.37310952e-01 -3.60682726e-01 -5.30267119e-01 +7.54179358e-02 +3.70438963e-01 +4.66449350e-01 +2.75607612e-02 +4.22239244e-01 -2.63626426e-01 -2.91070342e-01 +5.99385917e-01 +4.68874956e-03 +5.10190845e-01 -1.07105434e-01 -4.47829545e-01 -2.89334565e-01 -2.11404085e-01 +1.89929843e-01 -3.47073786e-02 +9.24809203e-02 +1.37443170e-01 -1.52103826e-01 -1.05365776e-01 -3.46675217e-02 -7.27589130e-02 -1.87579673e-02 +2.58956939e-01 -5.25278330e-01 +1.54975086e-01 +2.20320702e-01 -1.04038663e-01 +1.93279505e-01 +1.88582502e-02 +1.89263672e-02 +7.80166313e-02 -4.60960478e-01 -2.16492876e-01 +4.88464296e-01 -2.79318660e-01 -3.91333908e-01 -1.68705136e-01 -1.45718873e-01 +1.25300720e-01 +1.27574697e-01 +6.92124888e-02 -2.08838671e-01 -3.92231792e-01 +2.32236341e-01 -3.68415385e-01 +9.23257135e-03 -6.44290671e-02 +1.09334700e-01 +5.81411496e-02 -4.46062349e-02 +4.75554526e-01 +2.23831683e-01 -6.43484071e-02 +4.74005900e-02 +1.66700576e-02 +2.04814494e-01 +4.94954020e-01 +4.68715400e-01 +3.08548033e-01 -1.77383512e-01 +3.89402300e-01 -9.61016119e-02 +1.18804112e-01 +1.05601572e-01 +3.04859877e-01 +2.63046384e-01 +2.93887034e-02 +1.12300411e-01 +1.00268319e-01 -1.05003498e-01 +2.76289642e-01 +2.01062441e-01 +2.79763907e-01 -4.03093137e-02 -1.24815814e-02 +3.37873161e-01 -4.42935884e-01 +3.22142303e-01 -6.94998726e-02 +1.87934160e-01 +3.14099967e-01 +1.51766077e-01 +1.26123540e-02 +2.25387469e-01 +2.17969477e-01 -1.09454602e-01 +6.17796965e-02 -6.55061007e-02 -2.13368431e-01 -1.74316272e-01 -1.27255768e-01 -4.38538432e-01 -3.12876076e-01 -5.42117298e-01 +2.55611867e-01 +1.62400812e-01 -1.65312394e-01 +5.28794937e-02 +8.51682276e-02 -6.74862415e-02 +5.11272788e-01 -7.95786902e-02 +1.33300111e-01 -3.96547139e-01 +4.40523326e-01 -1.28106866e-03 +8.29733834e-02 +6.87136054e-02 -1.77681789e-01 +6.18106835e-02 +4.92932857e-04 -9.21060979e-01 -2.05830500e-01 +8.95496607e-01 +3.06536824e-01 -3.06152999e-01 -3.58894020e-01 -1.08257309e-01 +2.05649465e-01 -1.49172053e-01 +2.70477116e-01 +5.94402850e-01 -8.44468400e-02 -1.07977085e-01 +1.24787793e-01 +2.01208353e-01 +5.93924105e-01 +4.67189908e-01 -3.92369926e-01 +2.08978787e-01 -3.07493210e-01 +8.72006342e-02 +9.77649447e-03 -3.94556761e-01 +4.03884679e-01 +7.99814984e-02 +9.96050239e-02 +1.38668135e-01 +2.35700551e-02 +3.48752558e-01 +2.13641152e-01 -2.48160213e-02 +1.66021690e-01 -4.06695306e-02 +2.01164067e-01 +1.06866874e-01 +2.05699846e-01 -2.82419622e-01 +8.95545036e-02 +3.42453659e-01 -1.58736199e-01 -5.29668257e-02 -4.67154682e-01 -2.20355317e-01 +9.38625634e-02 +2.94392388e-02 -1.40791804e-01 +2.20830113e-01 +2.43461847e-01 +2.07712218e-01 -4.63925809e-01 -7.68786222e-02 +3.95184517e-01 +2.88207501e-01 -5.83043039e-01 +1.57476485e-01 +2.12478414e-01 +5.58770895e-01 +2.49287665e-01 +5.21361351e-01 -1.52483657e-01 -2.82374769e-01 +5.07375419e-01 +3.05159062e-01 -3.76761764e-01 -7.21487775e-02 -1.90708995e-01 +6.36386871e-02 +1.95810527e-01 -9.19005647e-03 -1.26691401e-01 +3.03677797e-01 +4.17115092e-02 +4.44327086e-01 -3.19156870e-02 +3.89826924e-01 +1.50993779e-01 +2.75440186e-01 -3.37946892e-01 +1.49603546e-01 -6.34695143e-02 +2.35498101e-01 -2.55521327e-01 -3.07826400e-01 +1.19367145e-01 -1.06036253e-01 +2.20992818e-01 -1.29616231e-01 -7.26841465e-02 +6.78464770e-01 +3.34902346e-01 -9.51992627e-03 +1.13417968e-01 -1.10571466e-01 +1.02644963e-02 +9.88554284e-02 +4.17862982e-01 -1.02897026e-01 +7.92710856e-02 +1.39742449e-01 +2.14772336e-02 -2.29263246e-01 -2.73495018e-01 +9.33190957e-02 -1.07869461e-01 -4.25586611e-01 +1.52015463e-01 +3.54267567e-01 +1.62881121e-01 -9.31863114e-02 +7.65716285e-02 -1.22773655e-01 -1.22666694e-01 -5.15997410e-01 -1.54524788e-01 -5.14672026e-02 +4.26046610e-01 +1.14062868e-01 -3.41390461e-01 +1.18061252e-01 +1.68411732e-01 +6.32937178e-02 +2.65032381e-01 +2.28107005e-01 +1.88155383e-01 -3.32460068e-02 +2.87807994e-02 +3.44013542e-01 +1.85939386e-01 +5.66789448e-01 +8.91026556e-01 +1.84086800e-01 +1.39233291e-01 -1.24915612e+00 +5.65432250e-01 -3.11058521e-01 -1.71315838e-02 +1.19997993e-01 -5.85161507e-01 +4.00674850e-01 +2.96027452e-01 -1.02479152e-01 +1.23371340e-01 -6.02374494e-01 -3.07589829e-01 -5.13473511e-01 +6.94799721e-01 +2.42248803e-01 -2.47549880e-02 +1.42389059e-01 +1.41691506e-01 +2.37843767e-02 -2.05158487e-01 +3.64104092e-01 +8.97862256e-01 +2.40934446e-01 -2.58706361e-01 +1.77698329e-01 -8.72375891e-02 -6.28181640e-03 +1.77177727e-01 +8.24345276e-02 +6.95394948e-02 +3.17799523e-02 +6.27671033e-02 +4.16350335e-01 +3.86168510e-02 -1.41023755e-01 +1.56090215e-01 -4.43307817e-01 -5.99887669e-02 +1.94918409e-01 -1.55641630e-01 +1.49959758e-01 +5.80992579e-01 -3.90328169e-02 +4.22896594e-02 -3.02722752e-01 +2.17724487e-01 +1.28467381e-01 -2.29203567e-01 -2.53418297e-01 +1.87077776e-01 +4.78410870e-02 -1.70565218e-01 -5.96206069e-01 +3.99373472e-02 -4.14824247e-01 -1.15052588e-01 +1.31702855e-01 +3.12818170e-01 -1.34306997e-01 -7.22539425e-02 +2.95203328e-02 +2.78648525e-01 +7.80477524e-02 +1.63712054e-01 +7.42448494e-04 +2.07954273e-01 +2.24879295e-01 +4.64735664e-02 +5.95818162e-01 -7.45287687e-02 -2.13447083e-02 +4.23832014e-02 +2.89781601e-04 +2.09755450e-01 -2.63946444e-01 +3.03611398e-01 -6.80309488e-03 -1.01501338e-01 +1.89478621e-01 -1.68894768e-01 +3.47862124e-01 +2.08447263e-01 -1.43752992e-01 -5.53625412e-02 +1.90419719e-01 +4.55717696e-03 +8.90818536e-02 -1.00799546e-01 -1.70618132e-01 -2.13836402e-01 -7.68585503e-02 +2.68937796e-01 -1.55678727e-02 +2.65622705e-01 -1.52572677e-01 -1.09924767e-02 -3.11004698e-01 -2.93884754e-01 -3.18541735e-01 -1.02250904e-01 -2.77150184e-01 -3.19337159e-01 -3.84539515e-02 +1.44334152e-01 +6.06589280e-02 +1.92326814e-01 -5.30415475e-01 +1.02056332e-01 -7.90628076e-01 -3.42593074e-01 +3.92250478e-01 -3.72990787e-01 +2.05872208e-01 +1.05298191e-01 -2.84193397e-01 -5.45019209e-02 +6.06486984e-02 +4.88665774e-02 +3.10106695e-01 -1.08079903e-01 -1.36380538e-01 +2.83869565e-01 +2.26934507e-01 -1.85700282e-01 +4.87318277e-01 +2.06150204e-01 +1.16949543e-01 +2.24402517e-01 -3.51034969e-01 -5.16036630e-01 -2.20775500e-01 +7.31104255e-01 -1.41048312e-01 -2.28060663e-01 -4.94845420e-01 +5.04702449e-01 -8.04571152e-01 -2.24496610e-03 +3.39369774e-02 +2.30215058e-01 +4.49869595e-02 -1.79532081e-01 -7.54035786e-02 -4.27345634e-01 +4.85404074e-01 -2.04415515e-01 +5.19663375e-03 +3.97254497e-01 -4.48014699e-02 -1.33155435e-01 +1.52202845e-01 -3.08553427e-01 +5.46604633e-01 -4.10329849e-01 -1.92869112e-01 -5.48725501e-02 -9.57088098e-02 -9.22352728e-03 +5.59964329e-02 +2.64621735e-01 +4.26531136e-02 +2.15504859e-02 +1.33487493e-01 -6.94502443e-02 +1.50391847e-01 +1.65335819e-01 -2.73866951e-01 +6.22742157e-03 +2.78270692e-01 +2.86605805e-01 -4.95849503e-03 +1.58555228e-02 -8.69986594e-01 +1.82926863e-01 +1.12268627e-01 -2.67138109e-02 +6.32741675e-02 +1.32972836e-01 -4.09153923e-02 -2.41908357e-02 +6.37568533e-02 -4.55772430e-02 +2.45002955e-01 -3.82914916e-02 +1.80190936e-01 -3.99926491e-02 +3.56742963e-02 -5.21631300e-01 -9.90629569e-02 -2.62400270e-01 +2.81794339e-01 -2.28108525e-01 +6.07967228e-02 -3.88210863e-01 -1.24567933e-01 +2.85805780e-02 +4.93727416e-01 +6.93113655e-02 +2.65312970e-01 -1.04968831e-01 -2.34122992e-01 +4.10062410e-02 +1.24285683e-01 +2.51195580e-01 -1.23736724e-01 +1.02340214e-01 +1.01065375e-01 -1.09566562e-01 +1.90714315e-01 -4.01968881e-02 -1.26213819e-01 +5.54354154e-02 +5.20371906e-02 -2.16362402e-01 -2.07718268e-01 -2.10299343e-01 +1.91579070e-02 +3.05527151e-01 -2.38464363e-02 -7.19833225e-02 -1.75115187e-02 +2.96050638e-01 -2.81508900e-02 +1.07250616e-01 +1.27878100e-01 -1.02783283e-02 -9.47747901e-02 -1.11583978e-01 +4.97956842e-01 -1.09862432e-01 -2.52232611e-01 +2.43685484e-01 -1.91033021e-01 -3.57110053e-01 +2.58789718e-01 +1.23273849e-01 -3.86064537e-02 +1.25420511e-01 +2.12756842e-01 +4.67606783e-02 -4.56887692e-01 +1.96053997e-01 -9.57766920e-02 +1.89393073e-01 +4.53904867e-02 -1.91992834e-01 +4.74821590e-02 -2.69863844e-01 +5.67638688e-02 +2.81539410e-01 +4.11522388e-02 +3.94067317e-01 -2.04468444e-01 -2.67800629e-01 +5.68939090e-01 -4.77510780e-01 +2.52723634e-01 -9.85037982e-02 -5.06863356e-01 +1.41207129e-01 +4.47241999e-02 +4.33419526e-01 -2.66116172e-01 -8.06333870e-02 -4.24423069e-01 -3.72631662e-02 +3.96539308e-02 -1.51372654e-02 -1.68043226e-01 +2.23706573e-01 +2.40911663e-01 +1.50182709e-01 -3.33889201e-02 +2.31941100e-02 -3.03651601e-01 +5.10869920e-02 -3.74460429e-01 +3.79071295e-01 +1.00037545e-01 -7.60325193e-01 -9.37450528e-02 -1.25745893e-01 +1.68836340e-01 +3.82913530e-01 +1.60893723e-01 -1.88741863e-01 -9.87517089e-02 -4.20484394e-02 -1.89056620e-01 -7.95669779e-02 +5.77715673e-02 -1.00368466e-02 -1.43217966e-01 -2.11349666e-01 -9.24033150e-02 -4.17203084e-02 -3.29224378e-01 -1.12560473e-01 +2.06930026e-01 +2.03590140e-01 -3.18780124e-01 -1.48906559e-01 -6.55094311e-02 +3.65572661e-01 +8.40953216e-02 -2.43956342e-01 -9.93230343e-02 +2.85027742e-01 +4.51711118e-01 -2.92620033e-01 -1.06884494e-01 -1.98698744e-01 -1.30402386e-01 -4.14699674e-01 +2.08289579e-01 -1.90132871e-01 -1.66683704e-01 -1.55879676e-01 -2.97125816e-01 -1.76759332e-01 -2.08269760e-01 -2.15319753e-01 +4.26174968e-01 +1.40039504e-01 -2.74946302e-01 -9.92628038e-02 -3.01640719e-01 -1.42965559e-02 -2.76467651e-01 +2.33825326e-01 -3.41880590e-01 -1.55174747e-01 -7.18720436e-01 -8.24619830e-02 +9.97820031e-03 +9.94282663e-02 +7.35940486e-02 -1.79226801e-01 +2.56376207e-01 -1.63318217e-01 -2.66301185e-01 -6.38540685e-02 +5.08677214e-02 -4.28332806e-01 -4.54280041e-02 +9.86215938e-03 -3.51971418e-01 -1.98236316e-01 +2.64496189e-02 -1.91256329e-01 +7.94949457e-02 +1.21825561e-02 +9.05358717e-02 +1.83547616e-01 -3.79747897e-01 +1.87663853e-01 +4.91434336e-01 -6.93165958e-02 +1.27922490e-01 +5.09721227e-02 +1.35256127e-01 -2.65675802e-02 +1.27640754e-01 -2.05371410e-01 +5.44531047e-01 +1.61040246e-01 -1.60290435e-01 +6.41631112e-02 -1.36556715e-01 +7.29187578e-02 +1.94115460e-01 -6.12963662e-02 -2.35795587e-01 -4.98649217e-02 +3.84037122e-02 -9.70206857e-02 +4.03336473e-02 -2.10746080e-01 -5.94448149e-01 +2.91391432e-01 -1.31044254e-01 -4.98556465e-01 -4.72329035e-02 -1.56005576e-01 +2.42288902e-01 +1.93829641e-01 -4.83819842e-02 +2.77662724e-01 +5.99998236e-02 -2.24904165e-01 -3.74669909e-01 -4.11153197e-01 +1.29319385e-01 -8.56574774e-01 +1.93381861e-01 -6.23495840e-02 -3.58971842e-02 +1.09576143e-01 -4.99281362e-02 +3.91032070e-01 -2.07577534e-02 +2.07471222e-01 +8.86688530e-02 -4.21612114e-01 +8.49701017e-02 -1.04959190e-01 +4.39464241e-01 +1.37727603e-01 +2.82111585e-01 +9.17970762e-02 -5.30121922e-01 -4.55468237e-01 +5.13113290e-02 -3.17177594e-01 +6.59293830e-02 -4.12751026e-02 -1.18076384e-01 +1.45660460e-01 +4.76775505e-02 -5.70914298e-02 +3.82582992e-02 -2.69378066e-01 -1.35192368e-03 -2.16025915e-02 -1.74261361e-01 -3.11165061e-02 -4.61118035e-02 -3.05971242e-02 +2.42211714e-01 -3.30967568e-02 +6.94647357e-02 +6.80641830e-02 -1.36592202e-02 -1.71701029e-01 +1.13374345e-01 -2.76478566e-02 +1.07350975e-01 -7.60974884e-02 -2.73827165e-02 +4.95726883e-01 -2.30139662e-02 -7.58930445e-02 -7.83388391e-02 -6.66360408e-02 +8.94699916e-02 +1.79503828e-01 -8.66094604e-02 -2.30975114e-02 +7.41992816e-02 +2.98453540e-01 +3.58281657e-02 +7.19232410e-02 +8.39827433e-02 +3.10737580e-01 +3.47093821e-01 +3.48791122e-01 +2.60302961e-01 -1.46083966e-01 -2.09338278e-01 -1.68729767e-01 +2.89782315e-01 +2.69742519e-01 +1.44594774e-01 -2.29800478e-01 +3.15895498e-01 -1.10884763e-01 +7.72436261e-02 +5.08646071e-02 +4.37809914e-01 -7.33301789e-03 -7.66860135e-03 -3.32169794e-02 +2.67815560e-01 -1.86058789e-01 +2.24678114e-01 -2.02924922e-01 +1.09262362e-01 +2.20712736e-01 +1.89869553e-01 +6.90351799e-02 -6.87633902e-02 +2.53301829e-01 -4.24936533e-01 -1.02996573e-01 -1.86154455e-01 +1.15560234e-01 -3.18052843e-02 -1.99382946e-01 -2.05111280e-02 +2.71953076e-01 +1.29121408e-01 +4.66080785e-01 -3.31832618e-01 -2.34151140e-01 -3.70083123e-01 -2.37315968e-01 +3.63830198e-03 +4.57891040e-02 -9.99288931e-02 -1.53145358e-01 -5.77081703e-02 +1.50463402e-01 -3.69306356e-01 +3.32103014e-01 +5.84883429e-02 -4.76376787e-02 +2.61178017e-01 -2.60044664e-01 -2.27545664e-01 +4.71561223e-01 -1.32155433e-01 -3.33919227e-01 -5.30652940e-01 +1.52151184e-02 -1.11994959e-01 +2.48804726e-02 -2.55789846e-01 -3.17927599e-01 +5.64938933e-02 -1.14947729e-01 -1.23282060e-01 -1.61862224e-01 +2.40741476e-01 +6.77951723e-02 +3.84191364e-01 +4.55295555e-02 +1.78801939e-01 -1.44315824e-01 -1.06649555e-01 +1.54176623e-01 -6.95055366e-01 -2.63229031e-02 -2.26301397e-03 +1.12770371e-01 -1.87923834e-01 +3.19322824e-01 -5.41856289e-01 +2.68463075e-01 +1.62696227e-01 +2.11747456e-02 -8.90699029e-02 +4.81505871e-01 -1.72189530e-02 -1.34619713e-01 -6.93468843e-03 -4.00674134e-01 +7.09511153e-03 -1.32212028e-01 -2.64993340e-01 +1.49883047e-01 +3.02831173e-01 +3.53670120e-02 -1.91204563e-01 +3.38662863e-01 +2.34191909e-01 -1.43210039e-01 -3.01631868e-01 +1.33583322e-01 -2.47247200e-02 +2.35947981e-01 +4.41353470e-01 -2.99598545e-01 +2.64508240e-02 -7.74426535e-02 +1.01415284e-01 +3.13419737e-02 +1.31063789e-01 -1.12886548e-01 +1.43028153e-02 +1.96376354e-01 +1.48890302e-01 -2.02264354e-01 +3.23374011e-02 -3.30922663e-01 -4.89607714e-02 -1.99860260e-01 +9.36858207e-02 -5.04491366e-02 +1.65364534e-01 -1.76648408e-01 -1.47889987e-01 +9.21024308e-02 -5.03669120e-02 +1.69464514e-01 +1.48054048e-01 +7.84877241e-02 +1.33841217e-01 -7.31555000e-02 -8.74680579e-02 -3.16250883e-02 +2.51067489e-01 +2.56252676e-01 +6.49774224e-02 -5.21479785e-01 +1.59658387e-01 -2.86604434e-01 -4.02931243e-01 -1.78966150e-01 +7.69886468e-03 +7.13888137e-03 -9.62723512e-03 +3.08642745e-01 -3.82858694e-01 -1.20728806e-01 +1.59832910e-01 -3.13764602e-01 +1.17975041e-01 -1.74582735e-01 +4.00664508e-02 -3.09176415e-01 -1.91730917e-01 -4.15449701e-02 +1.98526904e-01 -2.14359447e-01 -1.07250027e-01 +2.84886897e-01 +2.00039789e-01 -3.82140465e-02 -4.15998287e-02 -8.00439045e-02 +1.36672616e-01 +7.49284998e-02 -7.15126991e-02 -2.93305069e-01 -6.49113581e-02 -2.31550291e-01 +8.37784335e-02 +7.87430909e-03 +1.19101033e-01 -1.57609433e-01 +1.48453731e-02 -4.24016155e-02 +1.31900594e-01 -7.87991881e-02 -4.69525427e-01 +5.20314947e-02 +1.29874304e-01 -2.44095773e-01 +4.05454822e-02 -2.92675048e-01 +5.89282751e-01 +7.76143074e-02 -1.81157157e-01 +2.83095241e-01 -3.05581815e-03 +4.49788004e-01 -3.42727870e-01 -1.35026172e-01 -7.02228695e-02 -3.85826677e-02 +5.02484478e-02 +1.48923069e-01 -1.07938297e-01 -6.75873682e-02 -7.13943765e-02 +1.94179609e-01 +1.20398439e-01 -1.27240762e-01 +6.00856915e-02 -1.83273703e-02 +9.91000310e-02 -5.33114254e-01 +1.22463338e-01 +2.73502618e-01 +1.71598643e-01 +1.31963938e-01 -3.90694328e-02 -3.35662842e-01 -8.38682204e-02 -1.60745412e-01 +1.20032050e-01 +1.83079362e-01 -3.57248373e-02 -6.62957504e-02 +1.41286608e-02 +1.01449214e-01 +2.35571027e-01 -1.02190346e-01 +4.05051224e-02 -4.67947572e-02 -2.69196630e-01 -1.31918862e-01 +1.39237016e-01 +6.54339567e-02 +1.89946026e-01 -2.12137595e-01 -4.83998246e-02 +2.81063616e-01 -4.02370580e-02 +8.83846804e-02 +9.92239341e-02 -6.11870475e-02 +2.43057683e-01 -2.11398955e-02 +1.44683287e-01 +1.78612918e-01 -1.04957260e-02 -5.99269152e-01 -1.62408918e-01 +2.88525403e-01 +3.21141407e-02 +1.17689468e-01 +8.48694053e-03 -9.62933749e-02 -9.93487835e-02 -3.68187785e-01 +1.78983673e-01 +2.87700593e-01 -1.22428671e-01 +1.49185136e-01 +3.37345421e-01 +3.52703184e-01 -1.46620870e-01 +2.63798445e-01 +3.46457124e-01 -2.57751703e-01 -1.86047062e-01 -1.55108437e-01 -1.19663306e-01 -3.58585060e-01 -7.34707639e-02 -3.18900853e-01 +2.37200096e-01 +2.85880804e-01 -6.63444493e-03 -5.29833287e-02 +2.72224396e-01 -2.85807639e-01 +1.19360320e-01 +2.77032107e-01 +6.03486784e-02 -7.36477301e-02 +1.56928264e-02 +2.43488164e-03 +2.33478576e-01 -1.37690753e-01 -1.62739486e-01 +1.55934229e-01 -1.44293606e-01 -1.33273467e-01 -2.42046729e-01 +4.22373712e-02 +1.59773409e-01 +2.78639555e-01 +6.38358667e-02 -2.09137261e-01 -2.10810881e-02 -1.93272144e-01 +3.18037160e-02 +2.33460218e-01 -1.95503399e-01 +4.00545597e-01 -3.68718922e-01 +1.34404823e-01 +1.41698658e-01 +1.68458238e-01 -2.91643422e-02 +2.47062966e-02 -3.49316090e-01 -3.94731015e-01 -1.37454167e-01 -1.00430131e-01 +8.82619396e-02 +2.06182292e-03 -3.70070487e-01 -5.63241243e-01 +6.12983584e-01 -5.74693799e-01 +7.36516342e-02 -2.41632834e-01 -7.25038707e-01 +7.26303816e-01 +8.31796005e-02 +1.14542291e-01 -3.36993217e-01 -3.19964319e-01 +4.51491550e-02 -3.74728069e-02 -3.33077997e-01 +6.35522366e-01 +3.08206767e-01 +5.44205427e-01 +2.05200426e-02 +3.80306572e-01 +1.80195957e-01 +2.35247120e-01 -5.05745351e-01 +4.29550380e-01 +4.05727234e-03 +1.51738882e-01 +4.41733785e-02 -9.30393934e-01 +9.24253464e-02 +6.13435060e-02 +9.33486819e-02 +4.38982099e-01 +1.32981818e-02 +1.57077789e-01 +6.04531839e-02 +6.36385381e-02 +3.24206382e-01 -2.93025613e-01 +2.86537945e-01 -9.87740085e-02 -2.84870505e-01 +7.95188695e-02 +1.55310065e-01 -3.49307135e-02 -4.69967164e-02 +1.17223963e-01 +4.97527234e-02 +1.28465056e-01 -3.36750776e-01 +9.03243106e-03 -3.39722335e-02 +4.03323136e-02 +1.40355632e-01 +3.91025603e-01 +1.67230561e-01 +2.89339513e-01 +1.52414097e-02 +5.36127463e-02 -5.39508872e-02 -6.95666438e-03 -8.96022618e-02 -1.39793858e-01 +1.05488561e-01 +1.75657481e-01 +2.82089710e-01 -1.84014961e-01 -1.31098300e-01 -2.29451254e-01 +1.53138593e-01 +1.35062754e-01 +7.09944498e-03 +2.62392282e-01 -4.20002520e-01 +2.66225040e-01 -4.46841925e-01 -2.21765414e-03 +7.77400136e-02 -3.78689617e-02 +2.02739790e-01 -9.80567560e-02 +2.08319873e-01 +7.20660537e-02 +2.29876891e-01 +1.06040746e-01 +1.69373870e-01 -4.93692517e-01 +2.50755996e-01 +4.51557040e-02 -3.45924556e-01 -1.31041706e-01 -2.50939101e-01 +4.59036499e-01 +5.47535777e-01 +5.79282455e-02 +7.52416924e-02 -1.41846776e-01 -3.38594913e-02 +8.67444947e-02 +2.02222895e-02 +2.00011596e-01 -1.47245094e-01 +2.82605946e-01 +7.42954463e-02 -1.39125027e-02 +2.63379782e-01 +8.54953378e-02 +4.68264222e-01 -1.79148063e-01 -8.79429281e-02 +2.58111715e-01 +4.97535728e-02 +5.47943786e-02 +2.36546054e-01 +1.13678724e-01 -3.61277373e-03 +2.28216961e-01 -1.02007035e-02 +1.04619674e-01 -7.05014616e-02 -5.45506120e-01 -3.27618778e-01 -8.38768110e-02 -4.93812971e-02 +1.67426199e-01 +1.39635637e-01 -3.38515818e-01 -9.16352123e-02 -1.20294459e-01 -2.99991041e-01 +5.38689852e-01 -2.27110043e-01 +1.15868248e-01 +1.28689602e-01 -1.19631939e-01 +4.10680264e-01 -2.79155910e-01 +9.22939777e-02 +1.24476470e-01 +2.89668381e-01 -2.77073890e-01 -4.55486178e-02 +5.43711603e-01 +3.38749647e-01 +2.03798890e-01 +1.09805912e-03 -2.79319048e-01 -1.31324202e-01 -6.63779601e-02 +4.69215363e-02 +4.82270628e-01 -6.05308935e-02 -4.34352279e-01 +2.51787096e-01 -7.21788555e-02 -7.38424733e-02 +2.29008347e-01 +4.74615008e-01 +9.21694040e-02 +5.22319898e-02 -1.58776164e-01 -1.43581241e-01 +9.57033336e-02 +1.40438318e-01 +4.35007270e-03 -2.48768002e-01 +1.25735208e-01 +7.36009479e-02 -2.45121568e-01 +1.12588286e-01 -2.51871556e-01 +1.22138306e-01 +3.02858017e-02 -8.00087005e-02 -3.44540924e-01 -8.36689174e-02 +1.03928275e-01 +1.43756941e-01 -1.85472086e-01 -1.24578089e-01 +9.17762294e-02 +1.23927921e-01 +1.78661808e-01 +1.96253225e-01 +1.44191176e-01 +4.24817413e-01 +1.83748335e-01 +4.76686686e-01 +2.92528093e-01 -2.40455747e-01 +2.20313191e-01 +3.75535041e-02 -2.52086788e-01 +1.28156304e-01 -1.18014216e-01 -1.99361309e-01 +1.08585104e-01 +7.28934407e-02 -7.08998889e-02 +7.04670474e-02 -1.71964765e-01 +1.49287388e-01 -2.89219376e-02 -3.20373923e-01 -6.26276791e-01 -1.09745935e-01 +1.11271299e-01 +4.65992361e-01 +2.37475216e-01 -3.56543697e-02 +4.41703498e-02 -2.15506211e-01 +2.07578912e-01 +2.26927519e-01 -5.31507075e-01 -1.30077720e-01 -2.76925206e-01 -4.34014261e-01 -1.71110779e-01 +2.95751810e-01 +2.10294932e-01 +7.91406482e-02 +1.87429428e-01 -1.30015910e-01 -2.90983826e-01 -4.27278057e-02 +1.05484612e-01 -8.53332430e-02 +2.85750031e-01 +2.50131190e-01 -1.49231367e-02 -3.57522011e-01 +1.33992180e-01 +6.77733421e-01 +4.19874899e-02 +1.76113561e-01 -2.46580243e-02 -2.11299937e-02 -3.12539071e-01 +4.71058369e-01 +3.51354517e-02 +4.13360685e-01 +2.88682461e-01 +2.03460664e-01 +2.95026779e-01 -7.27485418e-01 +1.50125369e-01 -3.64421196e-02 -1.19305275e-01 -7.55549595e-02 -2.80665457e-01 -7.48311430e-02 -2.18796939e-01 +7.66895264e-02 +5.18284559e-01 +1.99954897e-01 -3.63065958e-01 +1.80529878e-01 +2.59419292e-01 -2.16174394e-01 +3.94960269e-02 +4.09587592e-01 -7.86994472e-02 +1.61175460e-01 -6.55187309e-01 -1.22137263e-01 +8.57713163e-01 +4.27310839e-02 -5.74416161e-01 +1.44411419e-02 -7.56027997e-02 +5.79437137e-01 +1.17664382e-01 -6.00545764e-01 -1.39409641e-03 -3.77904296e-01 +1.17295850e-02 -1.16629355e-01 +3.37125033e-01 +2.95251846e-01 -5.32802284e-01 -2.58789122e-01 +4.38913777e-02 +2.43702814e-01 +2.21114568e-02 +4.81855631e-01 +2.16933355e-01 +9.23119932e-02 -2.81182230e-01 +4.53662127e-02 -2.31537580e-01 +2.53010660e-01 +1.38294011e-01 -1.64964110e-01 -1.79454926e-02 -2.49062285e-01 +1.49103314e-01 -1.27062142e-01 -3.76852393e-01 -1.35816246e-01 +1.62720963e-01 -3.17919493e-01 -5.70859760e-02 +8.27905759e-02 -1.80424377e-01 +7.66383018e-03 -1.62084907e-01 -1.27278194e-01 +1.80455476e-01 -2.45427340e-01 +2.96081938e-02 +6.60680681e-02 +8.86014476e-02 -6.28600195e-02 -2.65159398e-01 +1.87018320e-01 +2.24456444e-01 -2.58636057e-01 -2.51341969e-01 +1.37093840e-02 +1.64162576e-01 +6.17190376e-02 +4.46631938e-01 -1.62219498e-02 +1.86303735e-01 +1.40962347e-01 +1.78930655e-01 -2.48427793e-01 -4.28088456e-02 +3.50054830e-01 -2.48731412e-02 +1.60375491e-01 -2.25519255e-01 -5.60972333e-01 +1.75171252e-02 +1.56462237e-01 -5.96840307e-02 -2.71138370e-01 +9.53230187e-02 -1.90259218e-02 +5.74897565e-02 -1.34533241e-01 +3.49320114e-01 +2.55032897e-01 +2.81106770e-01 -1.70841683e-02 -2.97189355e-01 +4.82192300e-02 -4.54141468e-01 -1.62104115e-01 -3.46622258e-01 -2.37698182e-02 -3.08795750e-01 -2.50492077e-02 -5.77064157e-01 +8.10343102e-02 -4.74955253e-02 +3.70847166e-01 -9.50256065e-02 -2.21798271e-01 +1.11952759e-02 -1.03397280e-01 -4.79042798e-01 -3.65623623e-01 +1.31926268e-01 -3.34920406e-01 +1.03378266e-01 +1.11643143e-01 -7.53892288e-02 -2.99290061e-01 +1.14862196e-01 -1.22438043e-01 -4.95535254e-01 -3.98648024e-01 -5.21420360e-01 -4.33056466e-02 -1.93628557e-02 +2.53572408e-02 -8.80678222e-02 -2.76038527e-01 +4.69799675e-02 -3.56596783e-02 +5.41173816e-02 -2.32657850e-01 +2.21879408e-01 +2.11650640e-01 -5.92757523e-01 +1.16423093e-01 +3.46828163e-01 +5.32100737e-01 -1.68597057e-01 -9.57836285e-02 +2.63221532e-01 +3.00326139e-01 +4.80122194e-02 -6.64190710e-01 -2.07735434e-01 -4.47314903e-02 -5.02300739e-01 +1.64505750e-01 +2.48879597e-01 +3.49918991e-01 -5.97110987e-01 +2.12301865e-01 +7.30638087e-01 -4.28180723e-03 -2.27651507e-01 +9.81913745e-01 -1.60012931e-01 -8.75082463e-02 -6.67308211e-01 +6.95438087e-02 +7.53187463e-02 -4.25524533e-01 -4.65613157e-01 -6.51563764e-01 +1.32228464e-01 +5.95640130e-02 -1.17665999e-01 +5.45200780e-02 +1.24249555e-01 -8.68292898e-02 +3.60074669e-01 -7.63154104e-02 +2.32501283e-01 -4.20204431e-01 -3.26276183e-01 -1.29192233e-01 +1.28977671e-02 +3.81538093e-01 -1.78151369e-01 +1.38131067e-01 +1.23016834e-01 +6.18096069e-02 -2.08485574e-01 +1.69485644e-01 -8.48836377e-02 +1.51693046e-01 -4.50531483e-01 +5.01802564e-01 +1.55739695e-01 -2.28296146e-01 +2.19928563e-01 -2.49016341e-02 +1.25566632e-01 +9.99533236e-02 -7.48192012e-01 +1.37077406e-01 -2.02556372e-01 +1.93024516e-01 -3.13569039e-01 +1.44118458e-01 -9.11707953e-02 -3.23804319e-02 -2.80275732e-01 +2.10246965e-01 +1.82228088e-01 +2.14008018e-02 -1.57289565e-01 +2.00874388e-01 +1.33747831e-01 -3.37461531e-01 +1.52817229e-02 +2.99099475e-01 -2.91670769e-01 +2.41576046e-01 -8.66253302e-02 +3.49141695e-02 +1.13970891e-01 -3.56595337e-01 +1.40636384e-01 -1.77410588e-01 +6.76779263e-03 +3.08859915e-01 +4.69621658e-01 +1.16439397e-02 +3.90208066e-01 -1.83986053e-02 +1.13454424e-01 +2.28556708e-01 +1.04694135e-01 +9.89232957e-02 +2.10883114e-02 +2.85403937e-01 +1.54227659e-01 -1.32906539e-02 -2.77184755e-01 -5.65294862e-01 +2.81651597e-02 -5.79451025e-02 +2.65908957e-01 +6.36770010e-01 +1.64057940e-01 -5.83582260e-02 -1.45082146e-01 +4.74727094e-01 +8.54769126e-02 +1.75118241e-02 -1.66960478e-01 -5.52858412e-02 +2.74971187e-01 -1.29187733e-01 -4.04744118e-01 -2.00422719e-01 -4.85179394e-01 -1.99108347e-01 -1.32488757e-01 +3.19907755e-01 -3.52559954e-01 -2.53245533e-02 -4.88792390e-01 +3.37687552e-01 +7.11522950e-03 +5.10850668e-01 +2.15557143e-02 +5.38706243e-01 -1.47665307e-01 -2.78333515e-01 -3.04569930e-01 +3.62259090e-01 -1.96330011e-01 +3.42158042e-02 -6.63766861e-02 -3.48061889e-01 +1.58647403e-01 -3.28403652e-01 +4.84107822e-01 +1.60998732e-01 +2.02762276e-01 -3.83421689e-01 +4.26256835e-01 -8.08417648e-02 -5.30559868e-02 -1.41672641e-01 +4.61084843e-02 -2.67705232e-01 -1.37176603e-01 +5.29218137e-01 +8.35063934e-01 +3.15950841e-01 -1.84919029e-01 +2.74909407e-01 -8.70998800e-02 +3.58723998e-01 -3.98845553e-01 -5.37463129e-02 +1.72208965e-01 -1.31017029e-01 +1.87140703e-01 +1.30853072e-01 -2.62533873e-01 -3.32398415e-01 +1.45581871e-01 -3.27917516e-01 -4.17118758e-01 +2.68850952e-01 -6.90470040e-02 -2.31853709e-01 +3.13997298e-01 +2.96761692e-01 +5.15284315e-02 -4.35879141e-01 -3.83048728e-02 -1.75218463e-01 -1.85713276e-01 -3.43353719e-01 +2.39135295e-01 +6.83990493e-02 +1.37105688e-01 -1.92646921e-01 +1.68151602e-01 -2.92004645e-01 -6.51940778e-02 -1.06638968e-01 -2.83072293e-01 +2.46804640e-01 +1.73784152e-01 -1.04861550e-01 +1.55675724e-01 -3.90266836e-01 +3.95045765e-02 -7.02873990e-02 -2.37398162e-01 +1.01589449e-01 +1.95621774e-01 -4.24171537e-01 -2.72693515e-01 +1.63868338e-01 -6.22564256e-02 -1.44936249e-01 -1.53296202e-01 -2.51005292e-01 -1.58144414e-01 -2.75642633e-01 -1.92437008e-01 -1.67415053e-01 +1.90631881e-01 -2.07160443e-01 -2.26643071e-01 +1.40428379e-01 -1.44193182e-02 -3.63356411e-01 -2.57677853e-01 +1.91937014e-01 -9.78173316e-02 -1.06790341e-01 +4.41383243e-01 -2.14084625e-01 +2.16957137e-01 -1.86193362e-02 -2.95092523e-01 -7.85733834e-02 +1.44923106e-01 +4.49155033e-01 +2.51845896e-01 +6.71420395e-02 +1.25824213e-01 +1.20033599e-01 +4.69484001e-01 -3.90994221e-01 +1.39657110e-01 +3.49275529e-01 -2.61415839e-01 +1.74468845e-01 -4.41519707e-01 +6.39643431e-01 +1.60570338e-01 -1.69779181e-01 +2.09023133e-01 +1.66734830e-01 -1.12099182e-02 -2.52422295e-04 +3.29974145e-01 +5.50338328e-02 +2.60005128e-02 +2.25986913e-01 -3.57120752e-01 +6.26316145e-02 -9.23715308e-02 -1.22984596e-01 +4.73203063e-01 +3.06549251e-01 -2.43956566e-01 -8.02352369e-01 -1.28155485e-01 -1.79535985e-01 +4.71361905e-01 -5.61257005e-02 +7.98584595e-02 +6.16880834e-01 +1.63392037e-01 +1.08602479e-01 -2.27737531e-01 -2.01601774e-01 +1.23962842e-01 -1.44065380e-01 -5.05529523e-01 -2.44890884e-01 +2.88129896e-01 +2.88556069e-01 +1.78369209e-01 -1.78267375e-01 -1.90006882e-01 +8.88822600e-03 -1.97757706e-01 +3.94089818e-02 +1.85620800e-01 +2.17651054e-01 -3.19443107e-01 +6.72951862e-02 -3.90322022e-02 +1.45835206e-01 +1.15483373e-01 +1.82973683e-01 -3.83357286e-01 +1.69275224e-01 -6.21773712e-02 +1.38583481e-01 +5.77717125e-02 -1.42613858e-01 +1.49927095e-01 +3.81311208e-01 +1.99421942e-01 -1.17396571e-01 -1.55443162e-01 -5.09076789e-02 -1.77087307e-01 +8.17937627e-02 +9.95540768e-02 +1.45016998e-01 +3.16644460e-01 -9.53001436e-05 -2.12353915e-01 -5.26462682e-03 +2.71174647e-02 +3.33440863e-02 -1.90959349e-01 -6.48308039e-01 -4.26353663e-02 -3.97162169e-01 +1.21128403e-01 +1.30082563e-01 -8.69418532e-02 -1.93229049e-01 +4.57693309e-01 +1.51440818e-02 +2.39358068e-01 -4.09983158e-01 -7.11490959e-02 +4.43625636e-02 +9.43917334e-02 -2.78768569e-01 -1.47333607e-01 +2.02196315e-01 +2.26648618e-02 +2.18457311e-01 -3.15045089e-01 -3.61237377e-01 -2.33399138e-01 +2.73254007e-01 +2.50047565e-01 +2.94159383e-01 +4.87766787e-02 -1.46517754e-01 +1.90632984e-01 +8.98940787e-02 +7.74091855e-02 +1.90516457e-01 +1.40021909e-02 -5.21870017e-01 +1.99767784e-03 +8.29344690e-02 +5.63978031e-02 -3.46495435e-02 +5.66111922e-01 +3.29404145e-01 -9.13473591e-02 +7.53500592e-03 +2.42647201e-01 -2.15414360e-01 -1.62401199e-02 +1.13372996e-01 +1.34500593e-01 -5.00183523e-01 -1.02260672e-01 -1.19842798e-01 +2.27588743e-01 -2.13128984e-01 -3.36908579e-01 -8.61643814e-03 +9.60109755e-02 +9.60553408e-01 -1.30585134e-01 +4.17590916e-01 +9.03869942e-02 -7.42412284e-02 +2.53619254e-01 -8.83296505e-02 -2.62282878e-01 -2.13784277e-01 +8.52081180e-03 +1.46090627e-01 -2.61191219e-01 +1.81276295e-02 +2.60850757e-01 +1.05596118e-01 +2.05306113e-01 +6.50919005e-02 +7.95541048e-01 +3.70072365e-01 -2.08292723e-01 -1.66385591e-01 +3.86277735e-01 -8.85263458e-02 +3.54934871e-01 +2.93578692e-02 -3.57147157e-01 -1.56935126e-01 +1.05496144e+00 -4.07998919e-01 +1.18025299e-02 +2.66099870e-01 -1.41826212e-01 +3.41724515e-01 +3.30668330e-01 -1.62365437e-02 -9.85427946e-02 +4.25913259e-02 +4.36938167e-01 -1.62101343e-01 +5.14796138e-01 +3.44218582e-01 -2.00839221e-01 -2.76494324e-01 +1.17940493e-01 -4.65546131e-01 +2.13759780e-01 -9.85264719e-01 +2.65890686e-03 +1.82275414e-01 +2.33083740e-01 -7.32923672e-02 +6.75142482e-02 +6.03523590e-02 +5.30370511e-02 +7.97792990e-03 -1.79108411e-01 -4.52995509e-01 +1.97068676e-01 -5.93230903e-01 +5.26858829e-02 +4.10310298e-01 -1.69591263e-01 -1.24271095e-01 -2.81690270e-01 -1.75649509e-01 -2.81036556e-01 -8.24164599e-02 -4.81320098e-02 +6.88748732e-02 +1.52003825e-01 +2.49759443e-02 -6.21290803e-02 -3.47062424e-02 +9.08068269e-02 -3.71624440e-01 -1.43154874e-01 -1.05703101e-01 +2.11749718e-01 +2.73384880e-02 -3.96227390e-01 +2.10181959e-02 -1.00406982e-01 +8.70614648e-02 +1.87131628e-01 +1.90605149e-01 -1.66982844e-01 +3.06882476e-03 -1.25952885e-01 -2.30361536e-01 -1.09529980e-01 -6.33441627e-01 +2.26947740e-01 -1.95973769e-01 +4.15740646e-02 +3.02007169e-01 +2.35989168e-01 -4.06937301e-02 -2.54601181e-01 +1.47200406e-01 -1.55880108e-01 -2.24189058e-01 +3.44454437e-01 +4.90777232e-02 +3.71426135e-01 +5.03717996e-02 -2.30571717e-01 +1.52282193e-01 -1.87727526e-01 -1.28807068e-01 +3.87422353e-01 +1.11510895e-01 -3.07210714e-01 -2.39054561e-01 -2.63422988e-02 -1.11373760e-01 -7.91362047e-01 +2.00153247e-01 -6.38125166e-02 -2.36447513e-01 -2.61781096e-01 +2.72614777e-01 +5.06006330e-02 -4.33807611e-01 -4.96493965e-01 -1.87352166e-01 -1.75239503e-01 +8.02301541e-02 +7.04509988e-02 -9.96232126e-03 -1.90758511e-01 -2.76266396e-01 +7.01088533e-02 -5.22909462e-02 -3.36099327e-01 -1.13961443e-01 -7.68808797e-02 +1.33521911e-02 -4.44692940e-01 -1.28301486e-01 -8.18221271e-03 -2.30657905e-01 +1.54733111e-03 -1.31631359e-01 +1.76530555e-01 -5.76931596e-01 -6.09285593e-01 -2.97815830e-01 -4.20031101e-01 +4.84504163e-01 -3.69495630e-01 -1.49355456e-01 -5.20287871e-01 +2.17825875e-01 -3.84614244e-02 -9.66992229e-05 -9.08693731e-01 +7.14999884e-02 +2.30231568e-01 -1.38070732e-01 +4.72424887e-02 +5.57825230e-02 +4.62078780e-01 -1.04524918e-01 +5.57909608e-02 -4.47407812e-01 -1.75272554e-01 +1.00052088e-01 -3.70689213e-01 -2.13640198e-01 +2.91642062e-02 +8.76020193e-02 -1.62730858e-01 -2.02495784e-01 +1.82000712e-01 -8.78965557e-01 -1.68075264e-01 -5.74853048e-02 -1.44602418e-01 +9.42044705e-02 +2.95840383e-01 -9.96809155e-02 -3.22708115e-02 -1.38338447e-01 +1.87713534e-01 +1.75006911e-02 +2.61515826e-02 +1.56618685e-01 -1.54756323e-01 +1.83622956e-01 +1.14337228e-01 +1.69869885e-01 +8.91133621e-02 -7.98579231e-02 +1.24640308e-01 +3.34276021e-01 -1.74316689e-01 -2.60986894e-01 -1.13701925e-01 -3.11316997e-01 -3.85487862e-02 -1.11377696e-02 +1.93899661e-01 -1.39032423e-01 +1.60407618e-01 -1.06769934e-01 -7.69685358e-02 -2.39569396e-01 +3.97113115e-01 +1.88238665e-01 -2.89317966e-01 -8.42299163e-02 -2.19380513e-01 -1.70745794e-02 -9.51538607e-02 -3.74814272e-01 -3.74491304e-01 +1.63331822e-01 -6.65583387e-02 +3.50056112e-01 +2.29808897e-01 -9.18649882e-02 -2.24534310e-02 -1.54159948e-01 -4.99695778e-01 -3.26889828e-02 -3.01657375e-02 +1.80352241e-01 -2.19801575e-01 -7.76600987e-02 +5.22141308e-02 -1.90901399e-01 -2.15573207e-01 +3.83116975e-02 -8.85210484e-02 +5.50615132e-01 -5.29910251e-02 +2.19477862e-01 +1.94436297e-01 +7.82102346e-02 +3.27859730e-01 -1.26480833e-01 +3.29958051e-01 +5.28139137e-02 -4.83502895e-01 +4.27382328e-02 +1.56363502e-01 +1.94779873e-01 -3.01077604e-01 -3.36792886e-01 -5.17596342e-02 +3.81626070e-01 +5.10699414e-02 +9.40164998e-02 +3.87891948e-01 +5.43727763e-02 -1.74260646e-01 -3.26408111e-02 -5.02678845e-03 -4.50957827e-02 -3.21864635e-02 +6.14527389e-02 -1.44882083e-01 +3.11117589e-01 -5.23298442e-01 -3.42146397e-01 -2.21993029e-01 +1.53113216e-01 -1.40549347e-01 +3.50416422e-01 -4.65795040e-01 +7.94669986e-03 -5.39787337e-02 -2.36768648e-02 -1.40445292e-01 +7.98946321e-01 +3.05245310e-01 -2.52394408e-01 +1.53259626e-02 +5.68532036e-04 +2.54364580e-01 -4.17365223e-01 -1.83013782e-01 +1.13444045e-01 +5.65023780e-01 -3.36678684e-01 -1.21645145e-01 -6.58207059e-01 +1.19090840e-01 -1.56193525e-01 +2.09016770e-01 -5.98480463e-01 +1.26024246e-01 -1.01529874e-01 -8.25661942e-02 +4.69755009e-02 -6.00963570e-02 +2.42748260e-01 -1.03083098e+00 -7.97890276e-02 +1.25009537e-01 +1.31229505e-01 -3.45992863e-01 -1.47498483e-02 -2.95032680e-01 +2.82556657e-02 -2.27097824e-01 +1.08215384e-01 -2.22905219e-01 -8.89094733e-03 +5.44063374e-02 +3.88905257e-01 -7.76302442e-02 -2.05532759e-01 +1.40500098e-01 -3.82417627e-02 +3.34905609e-02 -1.34686157e-01 -3.15619409e-02 -2.84000635e-01 +2.16991171e-01 +1.81125104e-02 +9.29558352e-02 -3.24114561e-01 +2.47509971e-01 -2.31399760e-01 -2.18148101e-02 +6.14296310e-02 +5.69520332e-02 +2.11095601e-01 -4.56928238e-02 +1.21354021e-01 -4.05219495e-02 -1.01207502e-01 -7.56500512e-02 -8.61143768e-02 -4.94658262e-01 -3.00068455e-03 +2.17944622e-01 -2.68387124e-02 +2.08776861e-01 +4.02039737e-01 -7.85623267e-02 +2.04143852e-01 +1.17180504e-01 -1.40902743e-01 -4.89987992e-02 +1.57975286e-01 +5.56705408e-02 -2.98421066e-02 -3.94288488e-02 -4.50009197e-01 +5.25403857e-01 +4.11281511e-02 +2.86482960e-01 +8.43567401e-03 +1.75936058e-01 -2.02834859e-01 +2.42415175e-01 +5.92286699e-02 +6.09894931e-01 +2.61637092e-01 +5.61457593e-03 +7.38062561e-02 -4.43818331e-01 -3.58645111e-01 +3.59516256e-02 +5.12896515e-02 -2.68419310e-02 -2.79004455e-01 -2.81119525e-01 +1.75978635e-02 -6.25387013e-01 -4.71463390e-02 -2.32617542e-01 +3.49255562e-01 +1.01597421e-01 +4.34295349e-02 +8.22176710e-02 -4.14389729e-01 -2.57349074e-01 -1.73299626e-01 -4.22238745e-03 -4.77858186e-02 +2.50253771e-02 -3.07890445e-01 -6.28737127e-03 -1.02493517e-01 -2.32970342e-02 +6.09144308e-02 -1.95155770e-01 -1.42628536e-01 -1.75414145e-01 -1.21114232e-01 -2.00660869e-01 -1.31750986e-01 +5.54391034e-02 -5.73649049e-01 -2.11647656e-02 -2.46224590e-02 -1.40377348e-02 -3.05596858e-01 +5.13471216e-02 -1.72074497e-01 -1.07390785e+00 +6.90955162e-01 +9.92223695e-02 +6.24206901e-01 -5.02602994e-01 -7.81096444e-02 +4.16489661e-01 -4.02434245e-02 +4.68397178e-02 +1.25776276e-01 +2.46011525e-01 +2.87328303e-01 -1.81780219e-01 +3.75273749e-02 +3.88390183e-01 +6.53350890e-01 -1.86778754e-01 -4.02517349e-01 +1.26111835e-01 +2.56775796e-01 -3.51024717e-01 +3.20348084e-01 +6.24859452e-01 -5.85482344e-02 -5.30289769e-01 -4.00444150e-01 +6.19585030e-02 -3.54158342e-01 +1.39353666e-02 -3.10945600e-01 +1.80366516e-01 -1.12812214e-01 -8.28801002e-03 -1.18045293e-01 +2.34132797e-01 -1.05514280e-01 +2.11134166e-01 +1.74307391e-01 -1.09225862e-01 +1.23301381e-03 +4.15230133e-02 -1.50693864e-01 +4.77549881e-02 +2.19840690e-01 -4.99064624e-02 +3.56280506e-02 +4.47703116e-02 +3.44470561e-01 -2.31078923e-01 +9.43331346e-02 +1.80574004e-02 +4.37284082e-01 +6.76133558e-02 +1.46962464e-01 +4.53341752e-02 +2.77732342e-01 -1.15023190e-02 -1.77464262e-01 -1.71573423e-02 -1.40542015e-01 -4.66873229e-01 +1.22544587e-01 +2.58256435e-01 +2.79186815e-01 -1.95716068e-01 -9.19079557e-02 +1.68061610e-02 +4.27389473e-01 -1.46579236e-01 +1.16758853e-01 -1.21431880e-01 +5.94143152e-01 +7.43554905e-02 +2.05850586e-01 -1.79300718e-02 +1.10575996e-01 +1.17261216e-01 -9.09211785e-02 +2.12047890e-01 +1.58465542e-02 +2.81203538e-01 +4.56233807e-02 +3.61642420e-01 +1.51922911e-01 -1.85496852e-01 -4.91613261e-02 +2.66788840e-01 +1.58718601e-01 +1.03142761e-01 +4.59529221e-01 -1.61442742e-01 +3.65824951e-03 +4.60839659e-01 +4.06911597e-02 -2.41226673e-01 +8.44499469e-02 +1.08462177e-01 -1.68212146e-01 -2.13629808e-02 -1.67174757e-01 +4.61363316e-01 -2.71353126e-01 +3.14278036e-01 -2.28346020e-01 -1.91260017e-02 -2.77897902e-02 -2.94969529e-01 -5.54914057e-01 +1.39341757e-01 -1.26774564e-01 -1.01828277e-01 +1.03707567e-01 +3.05762678e-01 -6.35942817e-02 +1.02927081e-01 -3.93943548e-01 +7.87406266e-02 -2.84048647e-01 +3.62934649e-01 -2.31886744e-01 +1.74471691e-01 -4.72883470e-02 +3.50989372e-01 +3.47883552e-01 -2.86642551e-01 +5.98516278e-02 +7.24609971e-01 -7.83357501e-01 -4.35837388e-01 -2.38863245e-01 +1.10125303e-01 +6.48147643e-01 +1.18626975e-01 -5.83576672e-02 +4.38184202e-01 -1.22456834e-01 +1.58481821e-01 +1.30415976e-01 -1.45549178e-01 +1.26290166e+00 -1.28247723e-01 +9.45749655e-02 +3.69590133e-01 +5.89882016e-01 -4.09995764e-01 -3.39463614e-02 +2.86630064e-01 +2.75924206e-01 +2.32416183e-01 -1.46538153e-01 +4.17945802e-01 +4.33429927e-02 -1.97802693e-01 -1.11967116e-03 +1.12883545e-01 +1.45867914e-01 +3.17960769e-01 +2.46126190e-01 +1.58752963e-01 -1.22262292e-01 +1.53852897e-02 -1.34994045e-01 +1.69314519e-01 -2.54376560e-01 +2.16055233e-02 +2.32493088e-01 -1.41426563e-01 -6.55099154e-02 -3.20357010e-02 -1.66820377e-01 +1.50652736e-01 -2.06551164e-01 -5.70474327e-01 +1.94073826e-01 -2.33662233e-01 +3.16880047e-01 -2.62257338e-01 +2.42612168e-01 +5.84530950e-01 +3.16987425e-01 -1.17921278e-01 -4.19801027e-02 +2.68303990e-01 +6.01082206e-01 -8.08317810e-02 +3.89959842e-01 -1.56665128e-02 -1.81662545e-01 -2.14422613e-01 +2.22114056e-01 -5.70302224e-03 -4.71048057e-02 -6.79050758e-03 -4.56415713e-01 -2.10026339e-01 -1.18480198e-01 -1.29050538e-01 +9.66565609e-02 -1.08545400e-01 +2.56182975e-03 +2.72746235e-01 +5.60958162e-02 +1.28551915e-01 -3.40091847e-02 -2.85373628e-01 -3.66508991e-01 -2.28380650e-01 -1.45762473e-01 +3.07999045e-01 -2.52171963e-01 -2.15927258e-01 +5.34116067e-02 -4.84110087e-01 +2.29932621e-01 -1.23093173e-01 +2.95375824e-01 +9.22629312e-02 +1.47728454e-02 -3.79989505e-01 -1.25834215e-02 +1.44491449e-01 -5.33302575e-02 -1.13787055e-01 +9.28369239e-02 -4.70726371e-01 +4.19535965e-01 +1.28435016e-01 +2.64942914e-01 -7.04446360e-02 -2.71790475e-01 -8.93629491e-02 +1.74086526e-01 -3.80445689e-01 +2.96051055e-01 -6.61653429e-02 +2.04681545e-01 +1.19618453e-01 -2.29201466e-01 +3.22898388e-01 +2.33165115e-01 -4.48516123e-02 -4.74762499e-01 -2.39854470e-01 +1.21696115e-01 +3.78265418e-02 -2.69999970e-02 +3.81833427e-02 -6.00322112e-02 -5.63032888e-02 -3.93794894e-01 +1.91357449e-01 -1.80766955e-01 +2.93890059e-01 -1.36305228e-01 +2.03462765e-02 -1.31537125e-01 +2.34402522e-01 -4.19674516e-01 -3.42520744e-01 -6.49365008e-01 -7.78785795e-02 -6.16923690e-01 -1.52327508e-01 -1.12651907e-01 -1.92419186e-01 -5.79279482e-01 -4.34211314e-01 -6.15144134e-01 -6.37492001e-01 -7.40792453e-02 -3.93339768e-02 +2.36219317e-01 -9.42544639e-02 -3.35409082e-02 -8.69667083e-02 +3.06218658e-02 -1.65542498e-01 -1.46015629e-01 -3.10685396e-01 -3.08187068e-01 -1.63201675e-01 +2.98118949e-01 -4.39423800e-01 -2.09613424e-02 -8.95507187e-02 -7.01304913e-01 -1.03330851e-01 +9.17358920e-02 +3.75569850e-01 +2.20753431e-01 -1.84456721e-01 -5.71684241e-02 +2.88778067e-01 +5.93854971e-02 -8.29738155e-02 +5.02902307e-02 +1.77376732e-01 +3.71795088e-01 +8.96341279e-02 -2.65643567e-01 +4.19768184e-01 +9.27395076e-02 -2.83399392e-02 -3.85449499e-01 +4.66820039e-02 +2.53673196e-01 +3.14009428e-01 +3.09579194e-01 -2.40239993e-01 -4.54136431e-02 -1.23514324e-01 +2.33210966e-01 +3.08966905e-01 +2.58031666e-01 +5.18359877e-02 -6.43561184e-02 +6.84938207e-02 -1.90936968e-01 +2.31816005e-02 +2.02133611e-01 -2.31975392e-02 +3.65289524e-02 +1.27397254e-01 +1.77450269e-01 +6.29124880e-01 +2.07435593e-01 +2.13663772e-01 -9.44450498e-03 +1.06261052e-01 +1.46532226e-02 -1.34053946e-01 -2.84844469e-02 +1.05366036e-02 +1.23961926e-01 -2.54712611e-01 -2.45098826e-02 -3.70958969e-02 +2.47383580e-01 -6.64049983e-02 -1.63963079e-01 +2.50203669e-01 +2.04060614e-01 -1.01534694e-01 +9.14649852e-03 +5.46565801e-02 -2.38137886e-01 +2.40582898e-01 -7.16264397e-02 +6.84983730e-02 +5.08151297e-03 -2.61240988e-03 +4.34304066e-02 +1.88075140e-01 -1.86870173e-01 -2.76248381e-02 -3.42431888e-02 -7.52335072e-01 +5.07993758e-01 -5.31329811e-02 +1.40634298e-01 -3.42408121e-01 +3.91238034e-01 +1.46977501e-02 -2.95581464e-02 -5.54130793e-01 +2.05954481e-02 +5.57375001e-03 -7.00894773e-01 -2.38928366e-02 +1.64832324e-01 -3.51164341e-01 +6.50384799e-02 -7.16331750e-02 +2.82909960e-01 -1.34897187e-01 +2.74097383e-01 +3.28832082e-02 +1.86901093e-01 +5.06878793e-02 -1.63854077e-01 +7.18474686e-02 -7.93372020e-02 +4.09148894e-02 +5.82450449e-01 +1.48740685e+00 -2.47413777e-02 -1.11566551e-01 -6.31201506e-01 +4.24959481e-01 -4.02295798e-01 +5.24114966e-02 +8.52400288e-02 -3.16588819e-01 -3.07505995e-01 +5.05040176e-02 -1.23792827e-01 +7.14039862e-01 -3.07371080e-01 -3.67114842e-01 -4.06832635e-01 +3.94157171e-01 +3.74436915e-01 -2.75076693e-03 +2.53206432e-01 -3.19773793e-01 -8.51122197e-04 +1.73433721e-02 +4.42123175e-01 +6.30141199e-01 +2.27607235e-01 -1.92582935e-01 +6.74044192e-01 +1.64931074e-01 -3.92505467e-01 -5.53346217e-01 -1.52450234e-01 +2.39917308e-01 -2.55654931e-01 -1.04006985e-02 -5.68575300e-02 +2.33585075e-01 -3.33790272e-01 -9.06099193e-03 -4.48189199e-01 -1.73762366e-01 +4.37581003e-01 -7.28517771e-02 +1.23043478e-01 +2.64785230e-01 +1.10509442e-02 +1.32442769e-02 -2.63680279e-01 -1.57417119e-01 +1.67161763e-01 +8.40680897e-02 -4.47698742e-01 +1.04156941e-01 +2.17027143e-01 +1.90130875e-01 -3.04581851e-01 -6.35350049e-02 +1.10764585e-01 +1.74097240e-01 -7.08530247e-02 -1.18572582e-02 -1.22879557e-01 -2.63671458e-01 -2.60296285e-01 -2.24114791e-01 -2.09021151e-01 -6.77666903e-01 -3.67270529e-01 -2.27986023e-01 -5.98517060e-02 -2.32135952e-01 +2.85790533e-01 +1.23973586e-01 -1.78045139e-01 +1.42615452e-01 +9.54337642e-02 -6.91068530e-01 +3.06446612e-01 +2.51241535e-01 +4.26284283e-01 -3.53088915e-01 -3.11164230e-01 +1.60801992e-01 -1.31055117e-01 -4.35401469e-01 -1.34910680e-02 -5.71263768e-02 +1.96780950e-01 -2.46056333e-01 +3.17102730e-01 +2.34365072e-02 +1.07533246e-01 -2.78519899e-01 -2.01889470e-01 +3.31926137e-01 +1.02348648e-01 +2.04524443e-01 +1.25386044e-01 -3.87202203e-01 -2.80805051e-01 +1.64207906e-01 -4.69564766e-01 +3.36964689e-02 +6.99503161e-03 +4.78577390e-02 -6.42095655e-02 +1.44924954e-01 +3.69908929e-01 -6.92389831e-02 +1.61637351e-01 -5.98012358e-02 +3.45581084e-01 +2.47589573e-01 -1.31293610e-01 +5.52588105e-01 -3.93586680e-02 -1.20399840e-01 -1.27410382e-01 +1.83863148e-01 +3.26862365e-01 -2.17895970e-01 +1.04207933e-01 -2.10909009e-01 -1.46731976e-02 +1.38501465e-01 +1.38379201e-01 -7.50115141e-02 +8.18788633e-02 -3.69298548e-01 +2.75674984e-02 +3.68211940e-02 +1.54398784e-01 +8.90523717e-02 -3.60445738e-01 +1.18008800e-01 -4.40328956e-01 +2.59474069e-01 -5.05677700e-01 +1.34234354e-01 -2.41246343e-01 -2.50082314e-01 +2.97596693e-01 +4.85472411e-01 -3.25631797e-01 +3.05701762e-01 +2.08904281e-01 +1.80471689e-01 +6.51931688e-02 +2.30252311e-01 +1.76061466e-01 -2.27148488e-01 -2.37655133e-01 -9.48116705e-02 +5.21106310e-02 -2.57144064e-01 -1.49088398e-01 +1.65431604e-01 +4.77322847e-01 +4.10803229e-01 +1.02535829e-01 -3.12521964e-01 +3.29373568e-01 -4.59003076e-02 +1.95010900e-01 -2.78114408e-01 +9.95690301e-02 +1.70494363e-01 -1.42519802e-01 +3.96136753e-02 -2.83003807e-01 +3.21263708e-02 -3.30456793e-01 -4.05429266e-02 -4.09612283e-02 -3.70145477e-02 +1.14495173e-01 +1.55697420e-01 -1.31899238e-01 +8.39699507e-02 +8.11182261e-02 +2.70553082e-02 -7.81069249e-02 +1.74289137e-01 +4.69416678e-02 -1.71179533e-01 -2.36130327e-01 -8.35494995e-02 -1.73190869e-02 -6.38985708e-02 +1.68204665e-01 +2.16327354e-01 +1.53502479e-01 +1.40149996e-01 -2.80730911e-02 +2.92102009e-01 +1.41111135e-01 +2.06937090e-01 -2.66346410e-02 +5.44065796e-02 -8.67215320e-02 +1.58587307e-01 +4.14439976e-01 +2.18722239e-01 +1.29323415e-02 +2.01373473e-01 -2.85225272e-01 -3.73366952e-01 +2.43552029e-01 +8.59574452e-02 +1.68643758e-01 -5.63085526e-02 +2.92605311e-01 +2.88672596e-01 +1.55902579e-01 +6.22009374e-02 -5.51397979e-01 -5.11785261e-02 -1.98918819e-01 +9.22148898e-02 +2.53391117e-01 +9.74621847e-02 +2.94986039e-01 -1.19293116e-01 -2.88111996e-02 +2.40697134e-02 +2.38003865e-01 +8.54305029e-02 -1.64811462e-01 -1.32305976e-02 +1.34134397e-01 +2.94709746e-02 -2.63839364e-01 -2.22600624e-01 +5.15841581e-02 +1.52088786e-02 -1.69444516e-01 +2.15750709e-01 +1.56232297e-01 -7.57273659e-02 -5.97659707e-01 -2.32527539e-01 -3.10194469e-03 -3.15219730e-01 +3.42166752e-01 -2.64192164e-01 -4.36597271e-03 -2.37281308e-01 +6.17595855e-04 +1.42594084e-01 -2.36506179e-01 -2.34787483e-02 -2.17476245e-02 +2.08109431e-03 +2.58350343e-01 -1.27014652e-01 -2.99163461e-01 +4.10695851e-01 +6.23475797e-02 +2.56402671e-01 -1.93127245e-01 +1.04102589e-01 +2.08265167e-02 +1.12276092e-01 -3.84690732e-01 +4.19736700e-03 -4.64991063e-01 -1.62395388e-01 +2.30838060e-01 +3.52962404e-01 +1.10104389e-01 +2.20003486e-01 -1.29723456e-02 +1.83245540e-02 -2.44964182e-01 -1.49684161e-01 -1.00786455e-01 -2.26958171e-01 -7.27836311e-01 +1.57754049e-01 -6.44427463e-02 -6.73711002e-02 -1.56881928e-01 -1.43716726e-02 +4.20253091e-02 +4.75602830e-03 -3.31057400e-01 +8.58445987e-02 -8.22107773e-03 +4.50001866e-01 -1.26509443e-01 +1.38168350e-01 -1.47571400e-01 