#Parameter# /vanilla-lstm-builder/_0 {128,500} 1024001 ZERO_GRAD
-5.31128887e-03 -7.20587512e-03 +6.24829009e-02 -4.22909074e-02 +7.58641213e-02 +3.79537903e-02 +5.99565869e-03 -4.39886712e-02 -5.23504354e-02 -2.05058437e-02 -1.93184428e-02 -3.76566984e-02 +2.53388695e-02 -3.58727761e-02 +5.32067381e-02 -3.18895467e-02 +9.43750888e-02 +1.46620020e-01 +3.99601134e-03 -8.81844014e-02 +1.65273715e-02 +9.71108302e-03 +5.09699248e-02 +8.25252309e-02 -8.37535486e-02 +9.42440704e-03 +2.44113691e-02 -4.15969864e-02 +3.61144729e-02 -3.68292704e-02 +5.76870441e-02 +1.60009950e-01 +6.89849481e-02 +8.62994716e-02 +1.61856189e-02 +5.93076050e-02 +5.99384271e-02 +2.13288646e-02 -8.95577073e-02 +4.59131366e-03 -6.60522953e-02 +7.77738243e-02 -1.35911247e-02 +1.51240155e-02 +8.75863358e-02 +1.12434532e-02 +6.04165904e-02 +1.84684545e-02 -7.56331235e-02 -1.43999964e-01 +1.80469062e-02 +5.54724298e-02 -1.74778923e-02 +1.32279351e-01 +5.26821706e-03 +9.66826826e-02 -1.85111854e-02 -3.99900088e-03 +1.21176653e-01 -7.29405954e-02 +4.85464521e-02 +6.46482408e-02 -5.01269549e-02 +1.04439780e-01 -1.35236615e-02 +8.92040413e-03 -2.97136046e-02 +1.06437124e-01 +7.26719871e-02 +1.36036843e-01 +9.93018895e-02 +1.16107523e-01 +7.57412538e-02 +5.38747460e-02 +1.30379319e-01 -4.10097055e-02 -5.26955463e-02 +7.82940164e-02 +8.99777375e-03 -8.16874430e-02 -1.07514234e-02 -1.24535412e-01 +6.54215962e-02 +5.40009979e-03 -4.71979491e-02 -3.43544967e-02 -1.01340143e-02 +8.71517062e-02 +2.38882992e-02 +5.15944175e-02 -5.30840568e-02 +2.32307799e-03 -1.65948756e-02 +4.08716574e-02 +1.09188534e-01 +1.46210030e-01 +3.17500979e-02 -1.16329923e-01 +1.60841271e-01 +3.18846852e-02 -1.33093759e-01 -4.84123901e-02 -5.84779494e-02 -7.14249387e-02 -1.13685660e-01 -6.53833598e-02 +6.87845126e-02 -1.43198162e-01 +4.29461710e-02 -3.36149186e-02 -1.31036922e-01 +1.46414628e-02 -7.27428868e-02 -9.01178494e-02 +1.97445862e-02 -4.73363586e-02 -7.41961449e-02 -1.56043082e-01 +6.97449967e-02 -1.74019858e-02 +1.01859324e-01 -2.18081072e-01 +7.29545951e-02 -1.22191921e-01 -2.84396019e-03 +1.26882315e-01 +4.59695533e-02 +6.37916625e-02 +2.71349195e-02 +6.18121773e-02 -2.46956907e-02 +3.28864306e-02 -2.76907124e-02 -9.26932395e-02 -1.79381251e-01 -1.04938038e-01 -1.69766888e-01 -8.52086991e-02 -1.33621335e-01 -6.88181221e-02 -1.70007609e-02 -1.29322648e-01 -4.15685698e-02 -1.46054283e-01 -5.44370636e-02 +2.13186163e-02 -8.72203633e-02 +1.73061974e-02 +3.75380702e-02 -7.60971084e-02 -1.98403113e-02 -4.66403328e-02 +2.65483074e-02 -6.82871640e-02 -1.32407874e-01 -1.10487275e-01 -4.36189584e-02 -1.24700308e-01 -4.36310098e-02 -9.55246016e-02 +8.23379681e-03 +5.64661436e-02 +2.41447836e-02 +6.89070895e-02 +1.75858259e-01 -1.01966694e-01 +1.89155027e-01 +2.11680252e-02 -2.85837110e-02 +3.40287350e-02 +7.65798092e-02 +1.49164218e-02 -3.41470912e-02 -1.03734210e-01 -7.91718587e-02 -1.16770659e-02 +9.39132869e-02 -9.88978073e-02 -3.35446447e-02 +9.40697864e-02 -3.65927629e-02 -6.70404285e-02 +1.10800937e-01 -9.89514515e-02 +8.37797225e-02 -4.64056097e-02 -5.01844883e-02 -3.43216211e-02 -7.83561617e-02 -1.67862270e-02 +6.94856718e-02 +7.09549561e-02 -1.00474462e-01 -6.43110229e-03 -6.99444413e-02 -1.94310293e-01 -1.52250350e-01 -1.90322042e-01 -4.37789317e-03 +1.21256836e-01 -2.40354136e-01 -1.38964385e-01 -4.73528961e-03 -3.46875377e-02 -1.53123423e-01 -1.36664473e-02 -1.65625691e-01 -3.97480205e-02 -1.33051187e-01 -8.91041756e-02 -6.41854629e-02 +1.02818370e-01 -9.45645869e-02 -7.81791378e-03 -4.70917625e-03 -2.82181561e-01 +2.09049791e-01 -1.16659768e-01 -2.09153499e-02 +1.45106763e-02 -1.81188181e-01 -5.23906387e-02 +3.87890339e-02 -9.38515812e-02 -6.90009668e-02 +1.59185473e-02 -1.02110691e-01 +3.14771123e-02 +4.75489683e-02 +1.45961428e-02 +4.23455127e-02 +4.62717526e-02 -1.25900105e-01 +1.10722452e-01 -2.58275624e-02 +9.68923196e-02 -1.46491662e-01 +1.83987841e-01 +1.60780504e-01 +1.28742039e-01 +9.99053344e-02 +1.45111501e-01 -2.01432947e-02 +1.05497099e-01 -1.08965728e-02 +1.97475448e-01 -1.23372070e-01 +1.17190458e-01 +3.81209254e-02 -8.60085934e-02 -2.18262225e-01 +3.07131675e-03 +7.30026979e-03 -1.07121855e-01 +1.67304743e-02 -4.50551249e-02 -5.70550887e-03 +5.59633002e-02 -1.42555296e-01 -4.10270737e-03 -1.73185319e-02 -1.15387440e-02 -9.60391238e-02 -9.54954997e-02 +9.60300583e-03 +7.09325820e-02 -1.36462048e-01 +5.80695495e-02 +7.35657886e-02 +1.01315320e-01 +7.25631192e-02 -1.13198869e-01 -4.96228412e-02 +4.48892750e-02 +1.08428868e-02 +1.33805647e-01 -1.19209386e-01 -6.07971065e-02 +4.45740037e-02 -2.45534889e-02 +9.83890705e-03 +6.94935322e-02 +3.29854712e-02 +1.49190868e-03 -3.24836932e-02 -1.72184296e-02 +1.26123354e-01 -1.38007492e-01 +7.68987313e-02 -3.28213647e-02 +4.62929383e-02 +9.94184017e-02 -7.35763833e-02 +3.44342738e-02 +8.73496681e-02 -2.67865751e-02 -6.20366856e-02 -7.86578059e-02 +1.05378367e-01 +9.20284539e-02 -7.61774927e-02 +4.35555577e-02 +1.51425041e-03 -8.53235498e-02 +3.12642078e-03 +3.99117917e-02 +8.36097226e-02 +8.82527754e-02 +9.95617136e-02 +9.01066437e-02 +1.59719381e-02 +1.15831885e-02 +1.82522163e-02 -7.09680021e-02 -2.45802682e-02 +7.93348625e-02 +4.08757441e-02 -1.58618912e-02 -5.11674285e-02 -5.28660305e-02 +6.09691963e-02 +1.35099217e-01 -6.79861531e-02 +2.66857803e-01 +2.27525327e-02 +9.50410292e-02 -1.20944239e-01 -1.14960924e-01 +5.00996485e-02 +8.51275772e-02 -1.15197100e-01 +5.00587970e-02 +2.10469678e-01 -5.76920845e-02 +1.55125648e-01 +1.86220244e-01 -1.54666066e-01 +1.44733861e-01 +2.12781772e-01 +1.62617266e-01 -1.73353091e-01 -1.41939178e-01 -9.60585177e-02 +1.29912198e-01 -1.03932321e-02 +5.30111492e-02 -9.16082859e-02 -8.10214654e-02 -2.06798866e-01 +1.68390833e-02 +2.36352339e-01 -1.25807777e-01 +1.59864835e-02 -9.59142810e-04 -3.07750463e-01 -8.56654420e-02 +5.23526818e-02 -2.54840422e-02 +1.37139216e-01 -1.23767786e-01 +1.14084527e-01 -2.19728965e-02 -7.26020411e-02 +1.35729969e-01 -6.95237517e-02 +8.62221941e-02 +4.58587483e-02 +1.17757887e-01 -1.15704842e-01 -1.90362595e-02 -6.69569001e-02 +1.48288369e-01 +6.00009039e-02 +1.51146829e-01 -2.92518616e-01 -7.18179718e-02 -1.86480535e-03 +3.05865616e-01 +2.97424179e-02 +1.60003528e-01 -6.76210150e-02 -1.73668683e-01 -9.36848447e-02 -2.04005018e-01 -3.00280303e-02 +5.96692711e-02 +2.36749407e-02 -2.93438453e-02 -9.77729708e-02 +1.30316615e-02 -1.30860463e-01 -2.54584495e-02 -8.92423093e-03 -1.88746452e-02 -6.69589192e-02 +6.00283546e-03 -4.54568304e-03 -1.00421138e-01 -7.32602626e-02 +6.31369278e-02 -1.52466148e-02 -1.45173073e-01 -3.24290358e-02 +3.33887823e-02 -5.08717299e-02 -5.59723713e-02 -7.33802393e-02 -7.70128798e-03 -9.17920470e-02 -1.24427587e-01 -1.44057879e-02 -6.77772909e-02 -1.60820931e-01 -1.12134879e-02 -3.05137709e-02 -9.81859267e-02 -4.72590178e-02 +2.48077493e-02 -5.46205342e-02 +4.11411859e-02 -3.40442285e-02 -1.05659790e-01 +1.55040681e-01 -1.09172221e-02 -7.86212310e-02 +3.10344007e-02 -6.61182851e-02 +1.04745016e-01 -7.50557333e-02 -1.57765165e-01 +2.95896661e-02 -5.95616326e-02 +4.63512173e-04 +3.39645930e-02 +1.08842775e-01 +6.78268448e-02 -4.28291857e-02 -5.25469854e-02 +5.87775670e-02 -8.82565454e-02 +3.39003541e-02 -9.00957212e-02 -9.14413705e-02 -9.10808742e-02 -5.15546203e-02 -6.45357072e-02 -1.68254767e-02 -4.81065512e-02 +8.49532038e-02 +1.71932250e-01 -1.52272999e-01 +1.18730459e-02 -1.50538296e-01 -1.07551932e-01 -5.49106896e-02 +6.40074313e-02 -1.59791663e-01 +3.45289474e-03 -1.47276670e-01 +9.58659686e-03 +1.66986249e-02 -8.63364190e-02 -5.86952157e-02 +7.75640458e-02 -1.30898505e-01 +1.00766100e-01 -2.62391176e-02 +2.18069002e-01 -1.61907002e-01 -3.71781513e-02 -7.89110512e-02 -1.14510231e-01 +9.69735160e-02 -3.94101515e-02 +1.48209818e-02 -7.58474320e-02 -1.35223970e-01 +8.52700882e-03 -4.84827757e-02 -4.96633761e-02 -4.20484766e-02 +6.66459501e-02 -1.78837463e-01 +2.78173070e-02 +2.32976442e-03 +8.07668418e-02 +1.47926714e-02 +5.07149892e-03 -3.80967446e-02 +1.34350598e-01 -3.30413356e-02 +2.10638121e-01 -1.63355842e-01 +1.40116408e-01 -1.62849501e-02 +6.10497780e-03 +1.33186430e-01 +1.25161082e-01 +3.84325013e-02 -4.56570834e-02 +1.67205166e-02 +1.04333572e-01 -2.25532472e-01 +1.36865810e-01 -2.67435033e-02 +1.88125297e-01 -2.60878913e-02 +1.55438751e-01 -8.25626999e-02 -8.19687769e-02 -1.18633648e-02 -1.12304389e-01 -3.67656760e-02 +7.62128457e-02 +2.11240035e-02 -5.68395853e-02 +4.16336209e-02 -3.96863781e-02 -1.72001892e-03 -4.45307009e-02 -4.79136454e-03 +1.21976659e-02 -8.76909420e-02 -2.11410131e-02 -4.42520455e-02 -8.17238018e-02 -6.33131042e-02 +5.23553416e-02 +1.14776298e-01 -2.02352274e-02 +1.09146357e-01 +4.53779846e-02 +7.70803913e-02 +8.51769596e-02 -2.78178975e-03 +2.39168108e-02 -1.38187461e-04 -8.59167576e-02 +1.53553501e-01 +9.93964076e-02 +1.06301174e-01 -5.87777682e-02 -7.68506303e-02 +9.32320058e-02 -1.09391622e-02 -9.17442590e-02 -6.83281943e-02 -9.52962637e-02 -1.09870853e-02 +1.18272923e-01 -6.26228526e-02 +6.81040511e-02 -8.19191262e-02 +4.75180484e-02 +1.19874984e-01 +9.64859203e-02 +7.45529234e-02 +1.11657009e-02 -1.15275078e-01 -1.40833007e-02 +1.18505672e-01 +6.81854561e-02 +3.69323269e-02 +2.92021167e-02 -1.17864110e-01 -1.00310612e-02 +6.45374358e-02 -5.31498939e-02 -6.86896220e-02 +4.13578711e-02 -1.62073411e-05 -2.28583366e-02 +3.62555496e-02 +5.80531433e-02 +8.08530301e-02 +2.96106264e-02 +1.69600308e-01 -1.24377586e-01 -1.65856909e-02 +7.93337002e-02 -2.63665803e-02 -5.38617782e-02 -1.06052704e-01 +7.66003281e-02 -8.06783289e-02 -4.25546058e-02 -4.19436283e-02 -2.42504124e-02 +7.52839372e-02 -6.47684783e-02 -4.30502966e-02 +2.23118618e-01 -2.50007883e-02 -5.03076985e-03 -1.09828092e-01 -1.74385551e-02 -5.65761589e-02 +3.71314734e-02 +2.93822698e-02 -2.71688122e-02 -5.41170202e-02 -1.99422650e-02 +7.04065636e-02 +2.56391078e-01 +2.87622283e-03 -2.13843659e-01 +1.68259129e-01 +3.44400629e-02 +9.83177722e-02 +1.01475053e-01 +2.48085842e-01 +4.19020243e-02 +1.99354187e-01 +5.17993495e-02 +4.16840874e-02 -2.02065232e-04 +1.60010159e-01 -1.31867528e-01 -2.09458590e-01 -2.63667226e-01 -6.16034716e-02 +2.02376664e-01 +1.70119166e-01 +1.14307992e-01 -5.84187917e-03 +9.95317027e-02 -1.44491196e-01 -1.61764883e-02 -2.22069398e-01 +1.70147732e-01 +1.56636089e-02 +2.60444134e-02 -6.08955882e-02 -3.32183003e-01 -5.61260469e-02 +1.63540933e-02 +4.55819480e-02 -9.46124047e-02 -1.02377753e-03 +3.29768986e-01 -4.72603515e-02 +1.07481321e-02 -1.65843256e-02 -7.97339976e-02 -8.48377415e-04 -1.80742401e-03 -1.07057080e-01 +2.97345594e-02 -1.99131370e-02 -1.38732595e-02 +3.27270105e-02 +2.73127500e-02 -2.22614855e-02 -3.22655179e-02 +5.16136922e-02 -3.63202356e-02 -7.83821121e-02 +1.58159547e-02 +5.05900793e-02 +1.20257111e-02 +2.85866056e-02 -1.25089243e-01 -5.17138951e-02 -8.73582959e-02 +5.11465296e-02 -1.29053205e-01 -9.46068838e-02 +2.32108999e-02 -6.51195943e-02 +5.46102086e-03 -6.27130792e-02 -1.18117593e-01 -3.03990021e-02 -6.71119392e-02 +8.49427469e-03 -1.03209078e-01 +8.75700042e-02 -7.62609392e-02 -5.97375482e-02 +4.12439965e-02 +2.50864793e-02 +1.52738849e-02 +6.07046112e-02 +1.05539314e-01 -8.17514956e-02 -2.14989670e-03 -1.51557606e-02 -4.78696413e-02 -4.77900654e-02 -1.16238529e-02 -1.01802126e-02 -1.06071405e-01 +8.34511444e-02 +9.74170417e-02 -7.19300658e-02 -5.06508537e-02 +1.43851787e-02 -5.75258769e-02 -7.66321924e-03 +6.91333488e-02 -4.14098874e-02 -4.21559326e-02 -5.00314832e-02 -2.57707015e-02 +8.75461400e-02 -6.17775619e-02 -5.77310175e-02 -7.20690712e-02 -1.25063464e-01 -1.01746067e-01 +9.21511743e-03 -3.29512693e-02 -4.59333807e-02 -1.15477040e-01 -1.41671762e-01 -1.25807405e-01 +1.65470112e-02 -1.34163825e-02 +9.83844548e-02 -3.27495486e-02 -3.40633504e-02 -1.42512359e-02 +7.44408444e-02 -5.54723591e-02 +1.56080339e-03 -4.57864478e-02 -1.07258759e-01 -3.48518118e-02 +3.93545162e-03 -5.92478402e-02 +2.79941456e-03 -1.44284535e-02 -6.41377941e-02 +1.42333470e-03 +4.51216698e-02 -1.40023112e-01 -6.80309236e-02 -2.19017286e-02 -1.27441049e-01 +9.43671986e-02 -9.42672566e-02 +1.48070469e-01 -1.39566548e-02 -3.80850397e-02 -5.71022704e-02 +2.06055611e-01 +2.39419891e-03 +1.12065770e-01 +2.72172801e-02 -9.09801945e-02 -4.90514599e-02 +1.94126030e-03 +7.03564882e-02 -7.32585788e-02 -1.17773311e-02 +7.16271624e-02 +3.07827443e-02 +9.68199149e-02 -2.48669326e-01 +1.23437140e-02 +7.10338578e-02 +4.36168388e-02 -1.07704885e-02 +5.02694957e-02 -1.38825908e-01 -4.77580205e-02 -4.98731546e-02 -1.59612998e-01 -3.53164226e-02 -5.58898039e-02 +8.71888623e-02 -2.60930508e-02 +1.16450578e-01 +4.13921177e-02 +1.12982020e-02 +1.23606786e-01 +4.74917218e-02 +1.06632046e-01 +3.99900302e-02 +3.18763033e-02 +9.59567651e-02 +1.54596940e-01 -8.17910302e-03 +8.66038352e-02 -8.11007526e-03 +2.22025486e-03 +1.67916957e-02 -6.53002635e-02 +8.81964862e-02 +9.40540433e-02 -1.24629634e-02 +6.76617548e-02 -4.00357367e-03 +2.69589722e-02 +1.01229483e-02 +1.31700829e-01 +7.05051515e-03 +4.08469327e-02 +7.76665211e-02 +1.82589695e-01 +9.38300267e-02 -4.66001555e-02 -7.50056654e-02 -5.56018092e-02 -2.16921434e-01 -1.23895230e-02 -9.72251371e-02 -8.14569443e-02 +3.98925357e-02 +7.94054568e-03 -3.64248245e-03 -4.97974940e-02 +1.05948344e-01 +1.18286707e-01 +8.46148953e-02 -3.33391726e-02 -5.16683161e-02 +4.16723415e-02 -1.03616528e-01 -4.71664034e-02 -1.42931119e-01 -7.96253085e-02 -7.20537128e-03 -6.84121028e-02 +3.66215818e-02 +5.19817919e-02 -5.08410297e-02 +7.07123429e-02 -7.05211759e-02 -3.66308801e-02 -2.19214913e-02 +1.20254122e-01 +6.63338527e-02 -3.05959489e-02 +1.14675261e-01 +1.05652288e-01 +1.43846154e-01 +1.96519438e-02 +1.31573364e-01 -7.55684376e-02 +1.58133954e-01 +6.45589083e-02 +1.51105076e-02 +1.54675588e-01 +5.25947697e-02 +7.80376345e-02 +3.19852568e-02 +9.24355462e-02 +6.09681592e-04 +9.04327482e-02 +1.02189794e-01 -5.74779585e-02 +1.62607640e-01 +1.24855377e-01 +7.62259215e-02 +1.10264026e-01 -1.24203563e-01 +2.02135980e-01 -3.70506011e-03 +1.17400438e-01 +4.53501642e-02 +2.04768181e-02 +7.84686133e-02 +2.07712464e-02 +1.18647009e-01 -5.78016117e-02 +1.89601153e-01 -1.08832501e-01 +7.15991631e-02 -1.30856007e-01 -6.64703548e-02 +2.52303146e-02 +1.41158506e-01 -9.87625197e-02 -7.12406635e-02 -2.70128638e-01 +1.44682467e-01 -3.37224081e-02 +3.51332910e-02 -5.43873385e-02 +2.23039109e-02 -7.80521426e-03 -4.60353903e-02 +2.26619337e-02 -6.18351810e-02 -1.08582132e-01 +2.13894382e-01 -1.08846955e-01 -1.21476017e-01 +3.40562239e-02 -6.03768378e-02 -4.35831398e-02 +1.37997195e-01 -2.29027197e-02 -9.89505127e-02 +1.45251170e-01 -2.40141749e-02 -9.83731374e-02 +7.86031410e-02 -1.31379977e-01 -2.79953480e-02 +2.52514239e-02 +6.83931410e-02 +8.17418192e-03 -1.26245037e-01 -2.00305402e-01 -8.82841125e-02 -8.01365152e-02 -1.64858505e-01 -1.19098626e-01 -1.35710150e-01 -1.11715920e-01 -1.02772482e-01 -1.39831156e-01 -1.63165241e-01 -1.33529678e-01 +1.50672030e-02 -1.68545336e-01 -4.50301208e-02 -9.36383158e-02 -1.22953258e-01 -1.26801878e-01 -2.18075868e-02 -3.26082148e-02 -4.21824120e-02 -1.44656867e-01 -7.84715489e-02 +7.47927129e-02 -1.45824309e-02 +1.31387301e-02 +4.43660328e-03 +5.45488894e-02 +5.50893322e-02 -8.39130655e-02 -8.90798718e-02 -7.84307718e-02 +4.11242880e-02 +1.14914455e-01 -2.10812390e-02 +3.41127254e-02 +8.39160755e-02 -1.26911715e-01 +4.52153981e-02 +5.62067889e-02 +4.02168296e-02 +8.26194137e-02 +3.89058478e-02 -8.24560821e-02 +6.21440187e-02 -4.87746075e-02 +6.92658573e-02 +5.44629954e-02 +4.01860811e-02 +2.86393985e-03 +1.04659893e-01 -1.99089590e-02 -4.41242568e-02 +1.06109999e-01 -1.73522234e-02 +1.20433941e-02 +3.23559865e-02 +3.12910266e-02 -1.06956318e-01 -1.90784305e-01 -1.31340116e-01 -9.57121607e-03 -8.14292878e-02 +1.10264651e-01 -3.72169577e-02 -1.93090037e-01 +1.75913088e-02 +4.86132167e-02 -1.71343163e-01 -2.39011366e-02 +3.43462639e-02 +4.43588011e-03 -8.74256075e-04 -1.58432961e-01 -1.12590156e-01 +9.96026695e-02 -8.43093693e-02 -4.15158346e-02 -6.60085976e-02 -1.85756832e-01 +1.67587847e-01 -1.67094693e-01 -3.35772592e-03 +7.65007883e-02 -1.37500395e-03 -1.17842818e-03 -1.05735861e-01 +4.84911986e-02 -1.61764428e-01 +1.49489760e-01 -2.64085773e-02 +2.18533754e-01 +8.24087784e-02 +1.80954576e-01 -2.07853690e-01 -4.52098846e-02 -3.08389682e-02 +3.48927617e-01 -1.20567314e-01 +1.11730978e-01 -3.95409204e-02 +1.24586925e-01 +1.78118385e-02 +1.84211478e-01 -1.45592496e-01 +2.75719929e-02 +3.25793177e-02 -1.05687991e-01 -2.59083509e-01 -5.09053655e-02 -1.29440418e-02 +1.89635739e-01 +7.80266672e-02 -7.28972107e-02 +1.11804418e-01 +8.93424749e-02 -1.02430657e-01 -1.26354143e-01 +2.30217710e-01 -3.57263945e-02 -8.19044337e-02 +2.49862745e-02 +3.54313361e-03 +3.74850482e-02 -2.06805050e-01 -1.21940188e-01 -1.80224434e-01 +4.57833111e-02 -3.54467817e-02 -1.62545115e-01 -1.43149242e-01 -1.67063728e-01 -6.09930381e-02 -1.05806835e-01 +4.66572084e-02 -1.47856167e-02 -8.15138146e-02 +6.88456884e-03 -1.38208404e-01 -7.37273991e-02 -1.30057722e-01 -4.07548808e-02 -1.44936785e-01 -1.07247762e-01 +3.67928408e-02 -1.52991071e-01 -6.88886195e-02 +4.73733954e-02 -1.28145784e-01 +6.57432303e-02 +3.73693258e-02 -1.19366750e-01 -2.75961701e-02 +2.27108244e-02 +8.70925486e-02 -6.34606034e-02 +8.80988464e-02 -1.20439149e-01 +8.99763629e-02 -5.47253303e-02 +6.45870119e-02 +2.36550365e-02 +1.25963405e-01 -1.91634111e-02 -1.57411508e-02 -1.12660140e-01 -3.80478054e-02 +3.82108404e-03 +6.13096729e-02 +8.60022530e-02 +1.61293179e-01 +1.62599608e-02 -1.37296738e-02 -1.29216223e-03 +7.84798935e-02 -4.02621850e-02 -6.11122772e-02 +7.27284104e-02 +2.39893198e-02 +1.23188561e-02 -7.62386173e-02 -9.69181135e-02 +3.30478773e-02 +1.34009987e-01 -1.37085259e-01 +5.12027815e-02 -6.34600073e-02 -5.33941463e-02 -7.23812729e-02 -2.03344882e-01 -1.40075251e-01 -1.04732187e-02 -1.83539942e-01 -1.30938992e-01 -7.02349842e-03 -1.57353714e-01 -1.34197727e-01 -5.43967932e-02 +5.95765859e-02 +1.30618913e-02 -4.69356496e-03 +1.37286237e-03 +2.52921842e-02 +3.26259546e-02 -1.70836151e-01 -3.56674865e-02 -2.16101129e-02 -1.64866727e-02 +1.19953655e-01 -2.91447323e-02 +1.53860322e-03 -1.54026449e-01 -2.39666745e-01 -1.40138166e-02 -6.36297464e-02 -7.43181109e-02 -2.22200155e-02 -2.67987866e-02 -2.52217203e-01 +1.14302948e-01 -7.00004473e-02 +1.13883838e-01 +2.65757218e-02 -1.09051757e-01 -8.65808949e-02 +2.23530099e-01 -1.89205185e-02 +2.74432302e-01 -1.06533535e-01 +7.59212747e-02 +8.92016143e-02 +8.60845447e-02 +1.51343971e-01 -4.67078723e-02 -7.08778277e-02 -2.23871469e-02 +5.98382913e-02 +1.59953713e-01 -1.71020463e-01 +4.70291823e-02 -3.16254310e-02 -1.68253034e-02 -7.67588988e-02 +9.59676430e-02 -9.88306776e-02 -4.14694957e-02 -3.73982675e-02 -1.83666304e-01 +6.05004281e-02 +7.77793229e-02 +5.13737798e-02 +1.03197001e-01 -1.80528257e-02 +9.07269958e-03 +7.18766376e-02 -3.00260969e-02 +9.95418876e-02 +1.46165499e-02 -1.36027792e-02 -7.92882964e-02 -1.18930964e-02 +1.10330656e-01 -3.30748633e-02 -2.91471202e-02 +7.12124584e-03 -1.07474916e-01 -8.21003839e-02 +8.87528881e-02 -2.90790834e-02 -1.22897655e-01 +7.03606009e-02 +3.04682963e-02 +8.92896578e-02 +7.75378547e-04 +3.42898518e-02 -1.13175057e-01 -6.32007495e-02 +2.69350177e-03 -4.28121723e-03 -8.30579698e-02 +7.51234293e-02 -1.11169303e-02 +3.86304893e-02 +1.41596971e-02 -1.17519625e-01 -3.06580253e-02 -5.32756448e-02 -2.24933308e-02 +1.15120754e-01 +2.34646425e-02 +8.05228502e-02 +3.81375588e-02 -2.37441678e-02 +5.53817786e-02 +3.64230014e-02 +4.89964783e-02 +9.78372712e-03 +8.50506052e-02 -6.96215406e-02 -5.83199337e-02 -8.09143186e-02 +5.16615622e-02 +5.05735353e-02 +1.29827455e-01 -4.67438772e-02 +1.50864109e-01 -9.56583321e-02 +5.85396886e-02 +1.64795516e-03 -5.43519966e-02 -1.57695245e-02 -2.68589370e-02 +1.84501156e-01 -6.17353544e-02 +1.19889177e-01 +1.68842062e-01 +2.93878131e-02 +1.36017293e-01 +1.19453453e-01 -5.19996807e-02 +1.44950613e-01 +3.44269685e-02 -6.12620078e-03 +6.80333823e-02 +2.00359970e-01 +4.61681373e-03 +5.39994501e-02 +2.66653240e-01 -1.05439045e-01 +2.03472450e-01 +8.24454203e-02 -1.05874039e-01 +1.06333286e-01 -1.83064803e-01 -2.73896270e-02 +2.05006838e-01 +2.01136976e-01 -4.35299426e-02 -6.38467595e-02 -7.57295191e-02 -3.65828834e-02 -2.27712803e-02 -1.30164668e-01 +1.07885696e-01 -4.57912758e-02 -3.97209078e-02 -2.89230794e-01 +3.20198350e-02 +1.86086118e-01 -6.40860572e-02 -8.98294523e-02 +8.79302174e-02 +8.69373903e-02 +1.48385584e-01 -1.32163659e-01 +3.27979773e-02 -1.16835758e-02 -2.10678086e-01 -7.68017694e-02 -1.15192145e-01 -1.17359906e-02 -6.54958859e-02 +8.19312334e-02 +2.04784740e-02 -2.41822898e-02 +1.07613221e-01 -8.44906047e-02 -3.44782285e-02 -7.07261488e-02 +3.35849345e-01 +1.28053263e-01 -4.03688960e-02 -9.55577418e-02 +2.80122384e-02 -4.79015708e-02 -2.51968443e-01 +1.14852943e-01 -3.17949429e-02 +4.42840569e-02 -6.06762804e-02 +1.38615817e-01 +1.15104057e-01 +1.55219166e-02 +7.32839620e-03 -3.14625315e-02 +9.76808891e-02 +2.83343717e-02 +1.32918507e-01 +9.55804512e-02 +1.04794405e-01 -1.07884938e-02 +8.37997869e-02 -3.06455996e-02 +2.91940309e-02 +4.39746119e-03 +9.33446735e-02 +1.31382257e-01 +9.21630263e-02 -7.44035142e-03 +4.82034013e-02 +9.88547429e-02 -4.36593313e-03 +2.23888997e-02 +1.27871096e-01 +1.10009067e-01 -5.53372428e-02 +2.17319578e-02 +1.03556730e-01 -7.78126195e-02 -5.38759604e-02 +1.19251860e-02 -7.32983202e-02 -1.61987409e-01 +4.02036775e-03 -8.03288352e-03 +2.04561818e-02 -2.70232977e-03 +3.80945951e-02 -1.59224451e-01 -2.16323845e-02 +5.03664948e-02 -1.39789045e-01 +1.59416609e-02 -3.73411067e-02 -6.65288866e-02 -8.64213053e-03 +6.08901381e-02 -2.03809291e-02 -2.55128611e-02 +5.22522666e-02 +1.91926807e-02 +3.25486474e-02 +3.26404721e-02 +1.41273821e-02 +1.50254574e-02 +7.53867477e-02 -3.73152643e-03 +8.92019831e-03 -7.60109117e-03 -1.56017244e-01 +4.05164398e-02 +4.71842028e-02 -5.30454442e-02 +1.24478616e-01 +9.64176580e-02 +1.66921720e-01 +2.45584901e-02 +8.58461112e-02 +1.20349310e-01 +1.92905724e-01 +1.06250122e-01 +9.88402814e-02 +4.33627814e-02 +4.76281196e-02 +1.53042033e-01 +5.18923588e-02 +1.39792964e-01 +4.87233028e-02 +1.13082752e-01 +1.08202465e-01 +8.07501823e-02 +4.31007482e-02 +4.79382575e-02 +1.76005259e-01 -3.02180741e-02 +1.56591311e-01 +3.12885381e-02 +2.88440548e-02 -5.64954691e-02 +5.93872555e-02 +1.49275243e-01 +1.15692750e-01 +3.01767383e-02 +9.11489204e-02 +1.48055226e-01 +4.11525089e-03 -8.07289109e-02 +2.87003629e-02 +1.05318204e-01 +5.05814776e-02 +6.37107491e-02 -3.32344882e-02 +1.27492910e-02 -4.93664294e-02 +1.29868463e-01 +6.46380112e-02 +1.98001340e-02 -5.18646948e-02 -1.59691587e-01 -3.09076328e-02 +2.39974223e-02 -6.41806945e-02 +1.61539003e-01 +4.40716818e-02 +7.39851817e-02 +5.76117449e-03 +1.41574694e-02 -3.08534200e-03 +3.64569109e-03 -1.19230889e-01 +5.40794507e-02 -2.40620002e-02 -7.60404617e-02 +7.38791749e-02 +7.07685575e-02 -5.37303910e-02 +6.50198292e-03 +1.07947059e-01 +1.28630042e-01 -4.95293327e-02 +4.69257869e-02 -2.19013803e-02 +9.23813656e-02 +1.21381745e-01 +1.08700402e-01 +1.56368181e-01 -1.88643634e-02 +7.01584369e-02 -4.81816148e-03 +8.34930316e-02 +1.16736025e-01 -3.79359461e-02 +4.93804589e-02 +6.18287735e-02 +1.12761132e-01 +1.60008207e-01 +7.36814663e-02 +8.83095711e-02 -5.94512075e-02 +1.24151424e-01 -1.88464224e-02 -1.62135083e-02 +1.35139050e-02 +4.81979689e-03 -3.80324163e-02 +1.32173225e-01 +4.15297821e-02 -6.19000979e-02 -9.40566212e-02 -1.89762260e-03 +4.18844447e-03 -8.95612873e-03 -1.43645659e-01 -6.94498047e-02 -2.70478614e-02 +5.33951670e-02 -6.95968978e-03 -1.10717462e-02 +9.82816331e-03 -1.28985822e-01 +6.19509146e-02 -7.47751296e-02 +4.35909741e-02 +1.01897128e-01 -1.00159431e-02 +7.07397237e-02 +9.58772656e-03 -4.36815135e-02 -5.20688184e-02 -6.40291944e-02 +5.23860976e-02 +5.78162484e-02 -2.46187672e-02 -4.77224169e-03 +2.37944499e-02 +5.49406223e-02 -7.71731436e-02 -3.28283869e-02 -2.83703264e-02 +3.76657136e-02 +1.73739463e-01 -9.80119035e-02 +1.70847148e-01 +1.37252182e-01 +3.63643803e-02 -1.80152524e-02 +1.09006815e-01 +7.87216946e-02 +9.23665911e-02 -1.15861315e-02 +9.95514169e-02 +7.17857853e-02 -3.86430770e-02 +9.44979023e-03 +1.60326317e-01 -4.02734801e-02 -6.74409196e-02 -2.01206371e-01 +6.64756447e-02 +1.33652955e-01 +8.85377750e-02 +1.13724545e-01 -8.40565339e-02 -7.42005976e-03 +1.48790017e-01 -3.45657691e-02 +9.00833979e-02 -5.64555265e-02 -1.17362201e-01 +1.80832312e-01 +4.58715223e-02 -1.16531365e-01 +6.41630888e-02 -2.64723995e-03 +1.51898235e-01 -1.48930505e-01 -8.21414515e-02 +1.41752392e-01 +1.04130670e-01 -4.38381173e-02 -4.91507016e-02 -6.38391972e-02 +1.69942826e-01 +7.10804164e-02 +7.34420791e-02 -2.98500601e-02 -9.73668098e-02 -6.68429285e-02 +8.13607275e-02 -1.32318079e-01 -1.44940048e-01 -2.32198954e-01 -3.04731000e-02 -5.19216359e-02 -1.12974323e-01 -1.96138769e-01 -4.72323932e-02 -1.58154204e-01 +5.31564932e-04 +9.91461948e-02 +4.64068614e-02 +1.66201621e-01 +6.13448098e-02 -6.32195845e-02 +1.69631690e-02 +2.48539150e-02 +1.54401045e-02 +5.20034321e-03 +1.54118806e-01 +2.32029650e-02 +1.60344094e-01 +9.41635668e-02 -4.67061661e-02 +1.26602247e-01 -1.66175678e-01 +1.85821131e-02 -3.25043313e-02 -1.12538626e-02 -1.03776649e-01 +1.11484744e-01 +1.01939104e-01 +9.82439667e-02 -1.38047874e-01 -5.61916386e-05 +1.47546202e-01 -2.39232443e-02 -1.03954338e-02 -6.33345172e-02 +5.52946627e-02 -1.25001758e-01 -4.84054163e-02 -1.32530212e-01 +2.57716645e-02 -5.31619191e-02 -1.04949893e-02 +3.23978178e-02 -4.02442701e-02 -6.19723611e-02 +7.20744655e-02 -1.51536055e-02 +5.25776707e-02 -9.77460817e-02 +6.82966262e-02 +3.44372392e-02 +2.05181807e-01 +6.94285035e-02 +4.84445728e-02 +3.73831749e-01 +1.03781357e-01 +7.58836567e-02 +1.53582036e-01 -6.53930753e-02 -1.11567155e-01 -7.27526098e-02 +2.11344302e-01 -6.01627724e-03 -2.35690456e-02 +1.36726303e-02 +6.09895214e-03 +8.61351490e-02 -5.50920516e-02 +9.41512734e-02 +6.89887553e-02 +7.65817016e-02 -4.44164425e-02 +3.08091432e-01 +3.36665332e-01 -9.73583758e-02 +5.72551563e-02 +6.02276735e-02 -1.25428028e-02 +1.08527936e-01 +6.80614933e-02 -2.22953320e-01 +3.57467800e-01 +1.11845687e-01 -2.02034917e-02 +8.54796097e-02 +3.06487799e-01 +2.30338141e-01 +1.64163798e-01 +1.74758568e-01 +5.85657358e-03 +4.37375158e-02 +1.04237944e-01 -8.20817947e-02 -8.69202763e-02 -3.31086107e-02 +1.96553975e-01 +4.07288790e-01 +2.04125494e-01 -2.29408238e-02 -4.27050143e-03 +1.21944748e-01 -5.37605658e-02 -1.88263021e-02 +2.48667628e-01 +3.30429040e-02 -1.52739421e-01 +9.61238593e-02 -2.53190994e-01 -6.76737875e-02 +2.29145274e-01 +9.63982716e-02 -1.97843701e-01 -8.98877084e-02 -1.84064135e-02 +2.07113892e-01 -6.13290071e-02 +1.60290942e-01 +1.06341258e-01 +7.83648640e-02 -2.01154530e-01 +1.12086982e-01 -2.26725191e-01 +1.89673863e-02 +1.13874815e-01 +5.03802374e-02 -4.24855649e-02 +1.46692753e-01 -1.74315855e-01 -1.43409833e-01 +1.62734017e-01 +2.79945999e-01 +2.71167368e-01 +1.29497603e-01 -5.95134981e-02 -5.97542934e-02 +9.95835587e-02 -4.82547618e-02 -1.04575329e-01 -8.43577385e-02 +2.43842751e-02 +4.72345278e-02 -7.84914121e-02 -9.05601904e-02 -4.16230857e-02 -1.99146122e-02 -3.09684128e-02 -3.60533483e-02 -1.23726577e-01 -1.64301172e-01 +1.78318210e-02 -1.30377159e-01 -1.10495448e-01 -3.36532891e-02 -2.70174872e-02 +1.17606651e-02 -4.23070490e-02 +3.83519381e-02 -1.20798342e-01 -1.59502685e-01 +2.50800997e-02 +2.82266922e-02 -1.39420182e-01 -1.45478146e-02 -4.62632887e-02 -4.49006120e-03 -9.97663289e-02 -1.17546372e-01 +1.47139998e-02 +2.27876287e-02 +5.27887344e-02 -6.66218475e-02 +9.63982940e-02 +2.24076677e-02 +6.36840090e-02 +5.70119396e-02 +1.02712750e-01 -9.61798653e-02 +5.86489439e-02 +7.94121400e-02 +9.63740572e-02 +6.79275766e-02 -3.53570357e-02 -4.02181409e-02 +9.12543014e-03 -7.76435286e-02 +2.81035826e-02 +6.90494627e-02 +1.81102559e-01 +4.60524932e-02 -1.81986839e-02 +4.44885343e-02 +1.07647255e-01 -1.05969101e-01 -4.34713662e-02 -1.70310084e-02 +7.06119975e-03 +8.81191716e-02 +3.05425823e-02 +5.85980602e-02 +3.07596941e-02 +1.76587895e-01 -1.53330788e-01 +1.67145491e-01 +9.56449658e-03 +3.06866746e-02 -1.69642031e-01 -6.72566220e-02 -2.79651489e-02 +1.28815230e-02 -1.88930571e-01 -1.56030267e-01 -6.22351142e-03 -1.42649151e-02 +6.61467202e-04 -6.46313094e-03 -2.24847738e-02 -3.25331837e-02 -1.90100018e-02 +2.50658561e-02 -1.18386447e-01 +2.37658799e-01 -1.67183474e-01 -5.62949963e-02 -1.53150663e-01 -1.66256309e-01 -4.18886617e-02 -1.85508847e-01 -1.06110856e-01 -1.21595673e-01 -1.39689192e-01 +2.59763412e-02 +1.52680799e-01 -1.73972458e-01 -1.54495895e-01 +9.21702981e-02 -1.55815795e-01 +9.54898819e-02 -1.34782097e-03 +9.41033587e-02 +8.29074383e-02 -1.64082125e-01 -7.08473474e-02 -4.83176336e-02 -2.35410873e-03 +4.67651188e-02 -7.26859123e-02 +9.86306071e-02 +1.06319487e-01 +1.80198163e-01 +1.56009011e-02 +7.51293525e-02 -1.60024434e-01 +7.95427337e-02 +1.14301294e-01 +3.89354378e-02 -6.81276470e-02 +1.26877651e-01 +1.18585095e-01 -3.40104103e-03 -1.20480970e-01 +7.26451203e-02 -4.69069071e-02 -2.87500229e-02 +1.08228721e-01 -5.65972514e-02 +3.30933258e-02 +8.07765648e-02 -1.17326472e-02 -1.05818279e-01 -1.27213076e-01 +1.02583971e-02 +3.59078385e-02 +2.82862335e-02 -8.68592486e-02 -8.01799744e-02 -7.85998553e-02 -4.35978025e-02 -1.43028542e-01 -3.23115252e-02 -3.95259447e-02 +7.37140654e-03 -1.00524172e-01 -1.58592597e-01 -1.08067843e-03 -7.31424838e-02 -4.64850292e-02 -5.71934059e-02 +4.41653058e-02 -1.49766251e-01 -1.18225567e-01 +4.52338206e-03 -1.66512683e-01 -9.13446546e-02 -9.49757267e-03 +1.96413416e-02 +7.76975527e-02 +1.41173303e-02 +6.36070147e-02 -1.57401860e-02 +1.20711168e-02 +1.91302653e-02 -8.70365277e-02 +4.83251549e-02 +4.37372252e-02 +8.12560171e-02 -5.18566519e-02 +1.88968945e-02 +8.53523389e-02 -3.25719416e-02 -8.12472031e-02 +1.19869217e-01 -9.38884541e-03 -8.84455368e-02 +6.53949901e-02 +9.31720883e-02 -2.59347353e-02 -6.90830275e-02 +8.52597207e-02 -1.71284020e-01 -5.60041070e-02 -7.29530305e-02 -3.99607569e-02 +3.16504925e-03 -4.24042679e-02 +2.13860301e-03 -4.38473225e-02 -9.31792259e-02 +3.36099975e-02 +1.63229704e-02 -3.80608663e-02 -1.58737198e-01 +3.45443450e-02 -1.18851878e-01 -1.10772371e-01 +2.66363006e-02 +5.75240552e-02 -3.85406651e-02 -1.88584939e-01 +1.54079208e-02 -7.94832557e-02 +8.98788031e-03 +5.63409962e-02 -5.94319217e-02 -3.33018340e-02 -2.80909613e-02 -2.21309252e-02 -5.21296337e-02 -1.63332537e-01 +4.03321311e-02 -3.37040760e-02 -1.00109689e-01 -4.46450431e-05 -1.35774717e-01 -4.10540998e-02 +7.04425620e-04 -1.36232927e-01 -7.38177598e-02 -4.75852080e-02 +1.19013258e-03 -1.49097353e-01 -1.50788739e-01 +2.30127145e-02 +6.17018528e-02 -4.62284684e-02 -3.75625752e-02 -2.80930474e-02 +1.15204796e-01 -1.29949033e-01 -3.44283730e-02 +9.50477198e-02 -4.41980697e-02 -1.20943397e-01 -5.47321104e-02 -3.91428769e-02 -1.91307515e-01 +1.61975086e-01 +6.58821017e-02 +1.59816921e-01 +1.64018825e-01 -3.51378508e-02 +9.16648582e-02 +8.08100868e-03 +1.38278872e-01 -1.32553756e-01 +1.42781571e-01 +8.25884566e-02 +8.90447870e-02 -1.00871235e-01 +9.89810601e-02 -4.71662171e-02 -1.27048448e-01 -2.18756013e-02 -4.32510860e-02 +3.92764248e-02 +5.97878136e-02 -5.19668981e-02 +2.55418252e-02 +1.08629808e-01 -1.26197804e-02 +7.87733942e-02 -3.51893008e-02 +2.92689241e-02 +1.88651569e-02 -1.00423269e-01 -8.54339823e-03 +1.11143000e-01 +3.55179682e-02 +4.36799528e-05 +1.02645960e-02 +2.29165144e-02 +4.55960445e-02 +1.22467034e-01 +4.92370762e-02 -1.60390399e-02 -1.09733388e-01 +8.75056088e-02 +1.13188796e-01 +4.25407104e-02 +3.59259807e-02 -2.03489680e-02 +7.81296007e-03 +6.05599284e-02 +5.77115677e-02 -3.44843082e-02 -1.20347820e-01 +2.98119579e-02 -7.96411559e-02 +4.55597676e-02 +3.79653461e-02 +1.98669769e-02 +1.31630385e-02 -5.13335578e-02 -3.88232879e-02 +2.08840799e-02 -6.52048960e-02 +3.21177579e-02 -7.50599951e-02 +8.24552551e-02 +1.03612795e-01 +5.51990494e-02 +5.78783229e-02 +1.11725256e-01 -7.05873817e-02 -1.36636764e-01 -2.05636956e-02 +5.62337935e-02 -1.16109096e-01 -5.16885445e-02 +1.14101604e-01 -1.37543678e-02 +7.95251057e-02 -1.22773476e-01 +2.03722008e-02 +1.02198966e-01 +8.55669826e-02 +9.59793702e-02 +1.34777203e-01 +1.86349258e-01 -4.12825160e-02 +2.44817827e-02 +8.68120268e-02 +1.54492244e-01 +2.23196790e-01 +1.27550825e-01 -1.10716470e-01 +4.23819497e-02 +1.81558847e-01 +1.26511408e-02 +1.16211139e-01 +3.06474119e-01 +6.45726025e-02 +1.17398433e-01 +2.03547135e-01 +2.81189345e-02 +9.94841829e-02 -1.37113035e-02 +3.90819237e-02 +8.25031921e-02 -6.47898093e-02 +8.04765150e-02 +3.38004768e-01 +1.26235396e-01 +1.08732179e-01 +4.69794162e-02 +1.42975315e-01 -4.76356931e-02 +9.12157223e-02 +2.84314692e-01 -2.52174539e-03 +6.50220588e-02 -1.92606281e-02 -4.87045012e-02 -2.82462426e-02 -7.92480484e-02 -6.71834275e-02 -1.30974278e-01 -8.43891948e-02 +1.07056335e-01 -2.00253967e-02 -6.57932609e-02 -1.15983255e-01 -6.58039153e-02 +7.67502515e-03 -4.51999940e-02 +7.83539936e-02 -2.29304492e-01 -5.51406704e-02 -1.46700060e-02 +7.55333900e-02 +1.22999907e-01 +5.00047058e-02 +8.73390287e-02 -4.63450188e-03 -2.37315241e-02 +3.48551035e-01 -7.29566533e-03 -5.85971810e-02 +1.40294079e-02 +3.46675329e-02 -1.80750247e-02 +5.06488681e-02 -9.22560394e-02 -1.11764502e-02 +3.75596667e-03 -5.51709868e-02 -8.33323300e-02 -4.78408150e-02 -9.43327546e-02 -5.43627925e-02 +6.81971433e-03 -1.61740139e-01 -6.46634847e-02 -1.17289387e-01 -1.67943835e-01 -1.48504183e-01 -6.17427565e-02 -7.25325048e-02 -1.23536870e-01 -1.82998314e-01 -8.61971453e-02 -1.10382818e-01 -5.31487130e-02 -8.17428306e-02 -3.30003835e-02 -1.00369155e-01 +4.71943654e-02 -1.80517897e-01 -1.60853222e-01 -6.66385889e-02 -1.43056437e-01 -8.91980231e-02 -1.29519060e-01 -1.41392946e-01 -2.02673431e-02 +1.08111626e-03 +1.32395372e-01 +5.33785149e-02 +3.63757624e-03 +6.60318956e-02 +1.39379561e-01 +5.35457581e-02 +2.74452884e-02 +4.43044789e-02 -2.34067328e-02 -4.63147052e-02 -3.41781005e-02 -6.34083748e-02 -5.86250387e-02 +7.31567889e-02 +1.12217091e-01 -5.28890872e-03 +7.03942925e-02 -1.48725021e-03 +7.67223239e-02 +4.74604703e-02 +4.46924753e-02 -8.97572935e-02 -1.54173104e-02 -4.65387031e-02 -6.08725473e-02 +5.17320894e-02 +8.72585364e-03 +4.39642323e-03 -6.19450659e-02 +1.17110886e-01 -6.18096627e-02 +1.23091880e-02 -1.07099913e-01 -2.05608800e-01 -1.70583427e-01 -5.33430018e-02 +1.30081521e-02 +5.69962338e-02 -1.35200277e-01 -1.84229001e-01 -1.03563577e-01 -1.53038859e-01 -4.43653800e-02 -9.99719873e-02 -6.89590871e-02 -7.50522017e-02 +8.44197627e-03 -1.42305821e-01 -1.25162765e-01 -6.74957633e-02 -9.68267024e-02 -8.63984302e-02 +2.46429313e-02 -1.68898508e-01 +1.30837023e-01 -1.97891265e-01 -5.53445406e-02 -1.91665813e-02 -1.86308533e-01 +1.28154801e-02 -2.03404263e-01 -1.32701010e-01 -8.74380544e-02 +9.45167318e-02 -1.18912660e-01 +1.45018548e-01 +7.38016218e-02 -1.21927438e-02 -1.41780689e-01 -1.25774249e-01 -1.29494127e-02 +1.28197715e-01 -7.15364069e-02 +2.54706115e-01 -9.23372060e-02 -9.51327085e-02 +1.77551463e-01 +1.11523472e-01 +1.95749760e-01 +1.59969181e-01 -1.27363697e-01 -9.44771022e-02 -2.64492743e-02 +7.09941313e-02 -1.57959789e-01 +6.03133366e-02 +7.20311701e-03 +6.27605468e-02 -2.25381758e-02 +1.65855691e-01 -9.51870680e-02 -2.18863823e-02 +1.56482801e-01 +1.17342575e-02 -3.14969607e-02 -6.25584275e-02 -3.86365391e-02 +4.88510169e-02 +1.26998248e-02 -3.74481380e-02 -7.56526887e-02 -4.93644252e-02 +8.06203038e-02 +2.66830213e-02 -1.02918111e-02 +8.92305896e-02 +6.72382489e-02 -6.17073700e-02 +1.08323947e-01 -1.61120649e-02 +1.09789230e-01 +5.43027818e-02 +8.66578892e-02 +1.07559867e-01 -4.09723818e-02 +7.51065314e-02 -7.07566142e-02 +1.42562732e-01 +2.18840390e-02 -6.00011041e-03 +5.42455167e-02 +6.09335639e-02 +8.46411511e-02 +9.09182951e-02 +2.01132540e-02 -3.44124343e-03 -5.96027113e-02 -2.59679090e-02 -1.03991941e-01 -6.82322830e-02 -5.91775868e-03 -5.64046130e-02 -4.72884886e-02 -3.91187966e-02 +3.87261920e-02 -2.21937038e-02 -1.11059733e-01 -5.36177941e-02 +9.29625109e-02 -7.84979239e-02 +4.76092994e-02 +4.46812622e-02 +2.51581669e-02 -1.14264168e-01 -9.33485553e-02 -6.11802489e-02 -1.01988181e-01 -3.45672411e-03 -1.50722470e-02 -6.74323216e-02 -8.12902302e-02 +3.46614514e-03 -2.68009808e-02 -3.94513868e-02 +1.61182340e-02 +1.27084125e-02 -3.92642654e-02 -1.71945214e-01 -3.98059450e-02 +5.73935471e-02 +1.17581785e-02 +2.08364278e-02 +7.10139275e-02 +7.17988331e-03 +3.76039147e-02 +1.29922137e-01 -2.88672149e-02 +4.43662442e-02 +2.76159798e-03 -1.85790937e-02 +3.10861059e-02 -3.93133871e-02 +1.15194246e-01 -5.41598350e-02 +1.70200914e-01 -5.34766205e-02 +1.04939871e-01 +1.25988007e-01 +2.04935223e-02 -3.08467168e-02 +8.72316286e-02 +5.21851256e-02 -1.50949387e-02 +1.57168403e-01 -1.60874799e-02 +7.01589286e-02 +8.94620195e-02 +1.51532322e-01 +8.81912038e-02 +2.64122598e-02 -1.67071968e-02 -7.28688240e-02 +2.61379182e-01 -1.04385689e-01 -2.24146917e-01 -3.81347388e-02 +7.77180344e-02 +1.24488376e-01 -3.00626047e-02 -1.79693520e-01 +1.49743125e-01 -1.56461596e-01 +1.80271193e-02 -6.15154766e-02 +1.59828663e-02 -9.30882171e-02 +2.87671406e-02 -3.82247963e-04 +1.50547419e-02 -9.58533138e-02 -1.09636271e-03 +4.37720530e-02 +1.00592956e-01 -9.68875140e-02 +5.02606668e-02 -8.32423195e-02 -8.54577720e-02 +9.23643447e-03 +2.80916896e-02 +1.55310616e-01 -1.01344556e-01 +1.84927106e-01 +2.23675929e-02 -2.99099255e-02 +6.15381673e-02 +2.20162291e-02 +6.75776526e-02 +3.46849561e-02 +8.78124461e-02 -2.83152815e-02 -3.32145132e-02 +1.01510480e-01 +7.42166862e-02 -1.35668710e-01 -1.20268680e-01 -6.20420948e-02 -1.17130518e-01 -4.27223369e-02 +1.25303548e-02 -1.97104305e-01 -2.52467040e-02 -4.14983146e-02 +8.02773461e-02 -7.39701837e-02 -1.28742633e-02 +6.25528246e-02 -1.87502727e-02 -5.59746772e-02 -1.66792437e-01 +1.55162457e-02 +1.65917426e-02 +7.43539780e-02 -8.66059363e-02 +2.74630915e-03 -4.67481352e-02 +2.28795726e-02 +4.49878797e-02 -2.13910155e-02 -6.36099800e-02 -8.39726999e-02 +2.20805220e-02 -9.36943367e-02 +1.24588544e-02 +2.40633618e-02 +6.75111562e-02 -1.04683630e-01 +2.39759441e-02 +2.18427852e-02 +9.17867199e-02 -1.87483728e-02 +6.33630529e-02 -1.54989570e-01 -2.69339047e-02 +2.47762837e-02 +7.56075932e-03 -8.44063461e-02 +2.68714316e-02 +5.72943464e-02 -4.50483747e-02 -2.30679233e-02 +8.37144777e-02 +2.42581330e-02 +2.75301822e-02 -3.48276719e-02 -2.12246040e-03 -7.07076415e-02 -4.12468091e-02 -2.18832791e-01 +8.18803161e-03 -1.15159020e-01 -1.66172143e-02 +3.14945616e-02 +7.64333382e-02 -6.42120689e-02 +1.20273307e-01 +1.28046080e-01 +1.39723107e-01 -6.88869953e-02 -8.66462570e-03 +9.86526683e-02 +3.08837611e-02 +4.82787080e-02 +5.20109013e-02 -1.99523613e-01 -8.60159844e-02 -2.55160064e-01 +1.04031712e-02 -6.51969239e-02 +1.39513295e-02 -4.11961563e-02 +3.60009596e-02 +1.44553296e-02 -1.30042985e-01 -2.73920625e-01 +5.46001084e-02 +6.75202906e-02 -2.22073957e-01 -8.93376246e-02 +1.45849511e-01 +3.96167114e-02 -2.58166522e-01 +7.44906738e-02 +1.43804908e-01 -5.12973289e-04 -2.16834694e-01 +7.48561397e-02 -3.80217917e-02 +7.57700801e-02 +1.98102713e-01 +2.21474007e-01 +1.45203888e-01 -2.69011438e-01 -1.11874305e-01 -1.16083294e-01 +5.14454767e-02 +5.19026220e-02 -2.49499138e-02 +6.16960786e-02 -7.00523928e-02 -1.59233555e-01 -5.06177209e-02 -2.11640224e-01 -2.36464217e-02 +3.33768010e-01 -3.63798589e-02 -3.73444967e-02 +1.59381926e-01 +2.23871008e-01 +6.85257241e-02 -3.19027305e-02 +1.07638575e-02 -1.48531362e-01 +3.09790280e-02 -1.47394259e-02 -7.45277181e-02 -1.80262234e-02 -4.71872799e-02 -3.29404734e-02 -1.37108371e-01 -4.90634181e-02 -1.16195552e-01 -8.16043839e-02 -8.56659263e-02 -1.35683775e-01 +2.97864489e-02 -4.09717336e-02 -1.41867340e-01 -6.29936531e-02 +9.35089812e-02 -5.83673492e-02 -1.46448791e-01 -1.13571435e-01 -1.71992965e-02 +3.59214917e-02 +1.41032285e-03 -3.79525609e-02 -5.46172373e-02 +4.01334167e-02 -7.75351748e-02 -8.90253261e-02 -1.05826117e-01 -1.30912736e-01 -1.09455613e-02 +8.46565962e-02 +9.50583145e-02 -1.62843745e-02 +1.90920413e-01 -2.94022169e-02 +9.77999642e-02 -1.85410939e-02 +9.82785001e-02 +6.50604442e-02 +8.20793286e-02 -4.05983888e-02 -4.69477326e-02 +2.37102453e-02 +1.15805835e-01 +9.69093945e-03 -3.36269289e-02 -1.91253155e-01 +8.37976485e-02 -6.40273979e-03 +2.04023719e-01 -3.40425856e-02 +9.26669464e-02 -6.03512749e-02 +8.64123087e-03 -5.41984215e-02 +5.76259978e-02 -5.05287312e-02 -2.44325716e-02 -4.24382798e-02 -2.58202776e-02 -2.34440099e-02 -3.29775102e-02 +1.06031306e-01 +1.98485516e-02 +5.09042069e-02 -1.40872955e-01 +3.47145498e-02 -7.71956593e-02 -5.30065708e-02 +5.38899451e-02 -1.43157139e-01 +2.84706708e-02 -3.77163142e-02 -1.45448908e-01 +5.87411001e-02 -1.94379641e-03 -6.23430312e-03 +4.50034486e-03 -1.13104500e-01 -7.68627077e-02 +1.63546711e-01 -6.51124939e-02 -1.35925055e-01 -1.03137821e-01 -1.84633464e-01 -2.09519789e-02 -6.34813011e-02 -1.16975449e-01 -3.05497032e-02 -1.86654523e-01 -4.97430712e-02 -5.16073778e-02 -2.95343474e-02 -1.14600204e-01 +4.67352010e-03 -2.14650258e-01 +7.13367984e-02 -1.66569918e-01 -5.42120896e-02 +9.41018388e-03 -8.97049531e-02 -1.83735207e-01 -3.52586992e-03 +1.77152678e-01 +2.26134270e-01 +7.76528493e-02 -1.78729922e-01 -5.23322541e-03 +4.58261706e-02 +1.36245023e-02 -1.17810495e-01 +1.29067317e-01 +1.15857096e-02 +3.26773301e-02 -1.79746181e-01 -1.72060579e-01 +4.12008800e-02 +1.49555743e-01 +4.99735586e-02 +1.91342756e-02 +1.02728933e-01 -7.66532198e-02 +1.92736611e-01 -5.07094525e-02 +1.01918362e-01 +6.98007122e-02 +4.96512093e-02 +6.52253404e-02 +1.96068231e-02 +5.51404580e-02 +1.19826496e-01 +7.55291134e-02 -4.44779582e-02 -1.80713404e-02 +1.17138758e-01 -8.40451270e-02 +1.04766106e-02 +1.35628521e-01 +7.79060349e-02 +9.93075520e-02 +8.83719474e-02 +5.37837110e-02 +6.65645972e-02 +1.06420673e-01 +3.19428593e-02 +4.18101810e-02 +1.16914861e-01 +9.88331884e-02 +2.22698703e-01 +4.93885353e-02 +2.46151201e-02 +1.69019759e-01 -2.62409393e-02 -7.48247802e-02 +9.66436341e-02 +9.90171582e-02 -8.70599300e-02 +4.59042378e-02 +5.21149747e-02 -1.03992783e-01 +6.55407757e-02 -8.33615661e-03 +5.19099273e-02 +9.37943310e-02 +8.35758746e-02 -4.19444479e-02 -9.25784856e-02 +6.84274361e-02 -3.38452272e-02 -2.11467985e-02 +1.83068633e-01 +1.05321798e-02 +9.29033291e-03 -9.78817604e-03 -5.83802313e-02 -1.03171710e-02 +6.54027099e-03 -7.66881704e-02 +9.15479437e-02 -2.00936064e-01 +7.51196146e-02 +6.82121376e-03 -1.18227387e-02 -4.51900586e-02 +4.82617617e-02 -3.95193249e-02 -9.98633727e-02 +8.61514211e-02 +1.27978146e-01 +2.69272447e-01 +2.37999916e-01 -4.16475162e-02 +2.45818004e-01 +7.49683604e-02 +1.23427503e-01 +4.97688092e-02 -2.25072071e-01 +3.46468240e-02 +1.10295273e-01 -3.74039337e-02 +4.34633940e-02 +2.23961115e-01 +5.81210777e-02 +1.41892731e-02 +8.91392007e-02 +8.54071677e-02 +2.05030605e-01 +1.95029959e-01 +1.20524094e-01 +6.41289651e-02 -3.79922576e-02 +1.03054903e-01 +3.93981993e-01 +6.61543664e-03 +8.30907896e-02 -1.63776316e-02 +1.46650389e-01 -1.76468626e-01 +3.78264822e-02 +4.22500998e-01 +3.89728323e-03 +1.36256114e-01 -2.09133141e-02 -1.24532335e-01 -9.50986594e-02 -1.27679318e-01 -4.64117415e-02 +3.88903052e-01 -5.60781583e-02 +1.55609414e-01 -4.29230444e-02 +5.81655912e-02 +3.61312218e-02 +7.90983960e-02 +2.32117295e-01 -1.92157537e-01 +1.23697959e-01 -1.85345858e-01 +8.71458650e-02 -1.30448997e-01 +1.49839669e-01 +1.16831072e-01 +1.84947595e-01 -1.21091835e-01 +5.54741025e-02 -5.48318867e-03 +2.34591395e-01 +1.30115122e-01 -1.11531153e-01 -1.26540944e-01 -3.69935371e-02 -1.67753354e-01 -6.82178140e-03 +7.73434192e-02 -6.40389249e-02 +5.74617796e-02 +1.08436383e-01 +1.27655149e-01 +1.13676675e-02 -1.55061539e-02 -4.98305634e-02 +1.68518126e-01 +1.10429756e-01 +3.10266204e-02 +1.10209890e-01 +1.30150124e-01 +1.70673817e-01 -2.76792562e-03 +9.99694467e-02 +8.23065117e-02 +1.60553351e-01 +8.48967135e-02 -3.65991890e-02 +1.49466991e-01 +1.13831200e-01 +1.62509084e-01 +1.19113259e-03 +5.04836440e-02 +7.77098164e-02 +1.25994429e-01 +1.37849495e-01 +1.36495098e-01 +6.89376593e-02 -2.61041988e-02 +1.20704629e-01 +8.06167200e-02 +6.99826479e-02 -8.91894102e-04 +1.02444686e-01 -1.29087130e-02 +8.63859653e-02 +2.35885475e-02 -6.79194778e-02 -1.02404937e-01 -6.20291159e-02 -4.71642725e-02 -2.04550195e-02 +6.77681193e-02 -2.69476697e-02 -1.36847962e-02 +5.34849763e-02 -1.24141954e-01 +3.70793678e-02 -3.41687948e-02 -5.59583642e-02 -4.95557822e-02 -1.08035997e-01 -3.47959343e-03 +8.32542032e-03 -5.62107004e-02 +3.14898118e-02 +7.15627223e-02 -7.63779879e-02 +1.02006845e-01 -3.45992744e-02 -4.04016525e-02 -2.20401539e-03 -1.09490603e-02 +3.08492724e-02 +7.41657838e-02 +1.01141341e-01 +2.05422193e-02 +6.46901354e-02 +1.09918170e-01 +1.61814708e-02 +1.94679406e-02 +1.94086090e-01 +5.97397564e-03 +1.58648401e-01 +8.02541450e-02 +1.61298975e-01 +4.81437668e-02 -1.37334675e-01 +1.44357160e-01 +3.39324549e-02 -3.82255986e-02 +4.46502529e-02 +9.64971632e-02 +1.50589600e-01 +2.64012478e-02 -5.79146631e-02 -1.90827534e-01 +1.15802832e-01 +1.71119764e-01 +2.28197239e-02 +1.83488190e-01 +1.80196911e-02 +8.23650882e-03 +1.41915232e-01 -1.64646730e-02 -1.22168832e-01 +2.88619280e-01 -1.27202332e-01 -1.08849987e-01 -1.08537227e-01 +1.42151311e-01 +1.33179799e-01 +6.53169677e-02 -2.92020500e-01 +1.23919599e-01 -1.66615382e-01 +2.65117548e-02 -1.14383241e-02 -7.54738972e-02 +2.39533205e-02 -1.17842153e-01 -1.14599437e-01 -3.45625207e-02 +9.56769362e-02 +1.33264706e-01 -8.39011073e-02 +2.37650633e-01 -1.14031553e-01 -7.30637088e-02 -1.47265241e-01 +6.48586154e-02 -8.17465037e-02 +1.38549447e-01 +1.34275109e-01 -5.68256751e-02 +1.28480598e-01 -3.53283659e-02 +9.14384276e-02 +8.66582468e-02 +8.71709958e-02 -4.31765616e-03 +1.78646594e-02 +5.69343381e-02 +2.90214154e-03 -1.78331286e-02 +1.54157221e-01 -2.35796906e-02 +2.94733401e-02 -1.30983908e-02 +1.18888266e-01 +3.44171375e-02 +1.09780184e-03 -6.76482916e-02 +1.68694362e-01 +8.13709125e-02 +1.22493796e-01 -4.73011024e-02 +5.76934628e-02 +1.94172233e-01 +5.48116677e-02 +5.07243536e-02 +1.68383606e-02 +1.17173143e-01 +8.43862258e-03 -1.05677694e-01 +1.50091961e-01 +3.03420890e-02 -7.68256858e-02 +3.02101132e-02 +5.69165908e-02 -3.95482704e-02 -2.87698116e-03 -3.65881510e-02 +6.10310957e-02 +3.42619047e-03 +8.99793729e-02 -9.19964351e-03 -3.36733870e-02 +9.04077515e-02 +9.20092091e-02 +1.18684337e-01 +9.93386731e-02 -7.96770304e-02 -4.70967591e-02 +1.08729437e-01 +6.25878200e-02 +7.93560594e-02 +1.95137840e-02 +6.90801516e-02 +2.05783561e-01 -1.81453511e-01 +1.03493214e-01 +2.02080403e-02 +8.52513984e-02 -1.49691120e-01 +8.16116631e-02 -6.46380484e-02 -6.29435331e-02 -2.19064988e-02 +2.80398458e-01 +1.55763209e-01 +2.38812715e-01 +2.20528562e-02 +2.28152707e-01 -2.71538794e-02 +9.05331690e-04 -7.55050685e-03 -1.43924832e-01 -2.97891740e-02 +1.45473972e-01 +1.63557269e-02 +1.29312322e-01 +3.61527354e-01 +4.06986028e-02 +1.68643132e-01 +2.17803404e-01 -2.20736843e-02 +3.31924647e-01 +2.92553991e-01 -9.78714135e-03 -4.34183143e-02 -4.77292633e-04 +1.16375498e-01 +1.42927393e-01 +2.89736055e-02 -2.63381773e-03 +1.40401602e-01 +4.33271751e-03 -1.46851525e-01 -7.35452846e-02 +1.13019556e-01 +1.47582144e-01 +4.03846800e-02 -1.78577289e-01 -5.62019646e-02 -1.96729764e-01 -1.62952408e-01 -3.11736274e-03 +3.27334762e-01 -6.85752137e-03 +7.59943426e-02 +1.27604485e-01 -1.43877521e-01 +8.21072608e-02 +4.56205457e-02 +6.59750402e-02 -1.60644427e-01 +6.75869361e-02 -8.04717317e-02 -6.91759363e-02 -1.43427094e-02 +1.48471966e-01 +6.95579723e-02 +9.06876475e-02 -3.08015823e-01 -7.30493516e-02 -1.96777843e-02 +4.33364250e-02 +1.38423935e-01 -1.09404819e-02 -3.79446186e-02 -1.34118035e-01 -4.08779085e-02 -2.71066129e-01 -3.25145349e-02 +1.42301187e-01 +2.51655839e-02 +6.76202327e-02 -5.13975509e-02 -2.21250113e-03 -3.43030319e-02 -5.57617284e-02 -4.63430695e-02 +3.51131968e-02 +8.07995498e-02 +3.78914177e-02 +1.62709847e-01 -1.22683449e-02 +8.34766924e-02 +1.40622824e-01 -6.94732293e-02 -9.37372893e-02 +9.78887305e-02 +1.97363541e-01 +8.49820226e-02 +3.88735309e-02 -1.53579816e-01 +4.82944399e-02 +5.99903874e-02 +6.04511686e-02 -1.44663259e-01 +5.24389632e-02 -1.67395324e-02 +4.30322178e-02 +1.27167597e-01 -7.00295642e-02 -5.49968220e-02 +2.66087279e-02 +4.10235347e-03 -5.70187867e-02 -1.69720445e-02 -7.78547674e-02 +4.83411625e-02 +5.37075736e-02 +1.03546463e-01 -1.42496839e-01 -6.21408261e-02 -1.75840333e-01 +6.38499018e-03 -3.54181789e-02 -1.07628852e-01 -5.63894846e-02 -2.19002590e-01 +6.00937940e-03 -2.03788802e-02 -7.27054998e-02 -1.49651971e-02 +1.66327149e-01 -7.45396838e-02 -5.55749722e-02 -7.46023878e-02 +1.27940113e-02 -2.97410022e-02 -3.19958031e-02 -3.62779349e-02 -1.85884498e-02 +2.81035490e-02 +1.42204612e-01 -1.53612524e-01 +2.55384594e-01 -3.45710851e-02 +1.35448232e-01 +8.13072827e-03 -2.22227015e-02 -6.79498315e-02 +4.78114970e-02 -4.39047702e-02 +8.95336643e-02 -5.42576844e-03 -1.36196241e-01 -1.36481807e-01 -1.06443815e-01 +8.72412473e-02 -2.19127089e-02 -2.21392028e-02 -1.38134393e-03 +1.57035053e-01 +8.91766176e-02 +6.39126450e-02 +1.48691759e-01 -5.40662482e-02 -1.06640466e-01 -9.20152590e-02 +1.59864649e-02 -1.18967272e-01 -1.90358177e-01 -8.43018293e-02 +9.52067599e-02 -6.83391318e-02 +4.92269285e-02 +9.57873389e-02 -1.77770182e-01 -1.62291571e-01 -2.90175736e-01 -1.91262260e-01 -1.20485604e-01 +3.81178617e-01 +2.01514050e-01 +9.55238845e-03 -1.48048386e-01 -1.38815222e-02 +1.95439234e-01 +1.19040236e-01 +1.73573438e-02 -2.58204360e-02 -7.34025091e-02 +2.52955943e-01 +6.97233677e-02 +9.81935021e-03 +2.10304007e-01 +3.29576939e-01 -7.00667799e-02 -2.35079274e-01 -1.83876008e-01 -9.29815620e-02 +1.30471587e-01 -1.40063986e-01 -8.39264244e-02 +1.61492795e-01 +1.74390286e-01 -2.39602745e-01 -1.30151927e-01 -5.30944467e-02 +7.93223232e-02 -1.76100686e-01 +2.68573742e-02 -9.96855497e-02 -1.24711599e-02 -1.73689619e-01 -4.90970761e-02 -1.26741350e-01 -3.43150981e-02 -1.52768821e-01 -8.24480504e-02 -4.06232057e-03 +2.03377437e-02 +1.36061646e-02 -2.58933008e-02 -6.93842545e-02 -1.33840770e-01 +2.90156584e-02 -8.44167024e-02 -1.00974716e-01 -2.78376825e-02 -9.30868313e-02 -1.08920813e-01 -1.45565197e-01 -8.12290087e-02 -5.82729280e-02 +3.70329188e-04 -7.67263919e-02 -8.15428793e-02 -7.01469108e-02 -2.09386155e-01 +1.46870352e-02 +7.16257542e-02 +8.40482414e-02 -7.54014775e-02 +1.98808834e-01 -6.28628489e-03 +5.19773439e-02 +4.72944975e-03 -1.20079820e-03 -2.38248818e-02 +1.49923369e-01 -4.18683253e-02 -9.14794058e-02 +9.27970931e-02 -6.58732653e-02 +1.56548712e-02 +1.03279248e-01 +1.36225969e-01 +1.59144655e-01 +1.73435244e-03 +1.57690614e-01 +9.79554504e-02 +8.06751251e-02 -7.04762712e-02 -9.70796719e-02 +4.26676534e-02 +9.53139588e-02 +9.07320678e-02 +6.82721660e-02 -1.98083520e-02 +5.22327684e-02 +1.62792623e-01 +1.05622217e-01 +4.74037230e-02 -7.86128547e-03 -4.50259037e-02 -1.21601306e-01 -4.45063859e-02 -8.63072425e-02 -1.58268303e-01 -7.80008510e-02 -1.32252499e-01 -3.59768458e-02 -6.83007017e-02 +4.68056649e-02 -3.70857827e-02 +5.63420281e-02 +7.60550499e-02 -2.13022619e-01 -4.70848419e-02 +7.73333833e-02 +9.58731025e-02 -7.41517395e-02 -1.37163913e-02 -1.14852689e-01 +9.58281532e-02 -4.89262901e-02 -4.59429286e-02 -1.21046335e-01 -1.90213859e-01 -2.58833706e-01 -2.92259082e-02 -2.39825132e-03 -1.96744114e-01 +9.71049443e-03 -9.63439494e-02 -3.09479564e-01 +2.06491575e-02 +1.06781237e-02 +9.87022892e-02 +9.52789262e-02 -8.77395719e-02 +4.66432199e-02 +1.09320365e-01 +5.44798747e-02 +3.12157124e-01 -5.67483902e-02 +7.50980899e-02 +5.36288321e-02 +1.52775317e-01 +4.86769192e-02 +4.42746133e-02 -6.29929230e-02 +2.54716054e-02 +8.27654451e-02 -6.41660914e-02 -2.88048178e-01 +1.62792966e-01 +1.41756207e-01 +1.60859868e-01 -5.11213243e-02 +1.28043801e-01 -1.30020678e-01 -2.49961559e-02 +8.63703042e-02 -4.85088397e-03 -5.87352253e-02 +1.37484759e-01 -3.74009237e-02 +5.62200621e-02 +1.52348310e-01 -4.75865602e-02 +1.06070556e-01 +1.20591708e-01 +1.26655564e-01 +1.61725819e-01 -1.19230915e-02 -1.71081219e-02 +3.69289629e-02 +1.65793851e-01 -2.36313399e-02 +5.32883033e-02 +1.69674698e-02 +1.52816758e-01 +4.78954762e-02 +1.17358528e-02 +7.60952160e-02 +3.05830385e-03 +1.66862309e-01 +3.14392298e-02 +4.84422455e-03 +1.51710901e-02 +1.04212478e-01 +3.94489393e-02 +9.61453915e-02 +9.23518464e-02 -1.09664937e-02 +7.88705200e-02 +7.99923316e-02 +9.63052921e-03 +6.66937465e-03 +3.61723118e-02 -1.57858282e-01 -9.68579948e-02 -2.10536331e-01 -8.43533874e-02 +5.40463850e-02 +8.83627683e-02 -2.02859230e-02 -1.56831462e-02 +9.55667645e-02 +2.45507807e-02 +1.89862726e-03 -8.07785690e-02 -1.05540432e-01 -4.56360355e-02 +2.21679267e-02 -3.50842960e-02 +8.39142203e-02 +1.27544269e-01 -7.28510544e-02 -3.09544057e-02 -9.81142968e-02 +8.05297047e-02 -9.65005308e-02 +9.00960993e-03 +2.65635494e-02 -4.17102091e-02 +1.85858011e-02 +6.69354126e-02 -7.60618523e-02 +4.43160273e-02 -3.30419466e-02 +1.27915800e-01 +2.97312401e-02 +4.04811054e-02 +2.91574094e-02 -1.88525058e-02 +1.10005654e-01 +5.10509610e-02 +3.07639539e-02 +1.41477108e-01 +1.01507297e-02 +1.88123450e-01 +7.30098560e-02 +2.48224866e-02 +4.81894873e-02 +1.25438809e-01 +8.47682357e-02 -1.65671572e-01 +1.12622693e-01 +8.91335234e-02 -1.71314944e-02 +2.22749323e-01 -1.95860207e-01 +1.63817242e-01 +1.73365936e-01 -9.86907724e-03 +5.05136102e-02 +1.49472624e-01 +6.46672100e-02 +1.44455731e-01 +1.27660958e-02 +2.19240170e-02 +1.84546441e-01 -1.96484640e-01 -9.17032883e-02 -8.89893472e-02 +5.88424392e-02 +9.49041992e-02 +1.28198579e-01 +2.58537545e-03 -8.21673423e-02 -1.91052392e-01 +1.88750207e-01 -1.29614547e-01 -9.24904495e-02 -1.13413103e-01 -1.64848432e-01 -1.49810791e-01 +1.09474905e-01 -4.01944779e-02 +1.23179913e-01 -1.95859268e-01 -5.78476414e-02 -1.55296072e-01 -1.08482428e-01 -9.70256850e-02 +1.82724908e-01 +1.07481554e-02 +9.70039368e-02 +1.65301591e-01 -8.76981169e-02 +7.43955076e-02 +3.93266417e-02 +3.61587740e-02 +4.62412946e-02 +1.61731139e-01 +1.18961334e-01 +6.72099963e-02 +3.96058299e-02 +3.91944088e-02 +1.11079022e-01 +2.95607559e-02 +1.60531431e-01 -2.24351592e-04 +6.04526922e-02 +6.11624196e-02 +5.07003628e-02 +7.36495703e-02 +3.22882682e-02 +1.55326258e-03 -4.51277290e-03 +5.95434569e-02 +6.42374456e-02 +8.27446133e-02 +5.59665859e-02 +2.85453890e-02 -1.77577455e-02 +1.05327703e-01 +4.30750996e-02 +5.55280261e-02 -1.97290033e-02 -1.54928518e-02 +2.17330437e-02 +1.10154212e-01 -8.83966610e-02 -5.23107918e-03 -5.14660105e-02 -3.27822636e-03 +2.94473674e-02 +2.43179966e-03 -1.21964052e-01 +5.56791946e-02 -6.40828237e-02 +7.21920207e-02 -8.53396878e-02 -7.71222115e-02 +4.66384254e-02 +1.63982287e-01 -8.57195184e-02 +7.70590082e-02 -1.97422206e-02 -1.30924001e-01 -1.20121583e-01 +5.37128188e-02 -6.68023303e-02 +1.23349085e-01 -1.70501053e-01 +4.05506082e-02 -4.15509343e-02 +1.14710957e-01 -6.37227595e-02 -3.70280072e-02 +7.53416866e-02 -4.04741652e-02 -5.37162274e-02 +1.03346705e-02 -7.51515999e-02 +6.43805712e-02 -1.32056577e-02 +1.17906399e-01 +1.63814709e-01 -3.45049798e-02 -1.33467913e-02 -9.64558646e-02 +1.40236765e-01 +6.12928532e-02 +1.39985964e-01 +6.71846941e-02 -1.50063694e-01 +2.20390052e-01 +9.66239348e-03 -1.61842600e-01 +1.66842625e-01 +2.78677815e-03 +1.24974616e-01 -9.89946816e-03 +9.03599635e-02 +7.49162287e-02 -2.64221206e-02 -3.30700092e-02 -1.32207915e-01 +1.80246443e-01 -5.87384682e-03 -8.35216977e-03 +8.28911141e-02 +4.14531641e-02 -1.31328981e-02 -7.08942255e-03 +6.94122612e-02 -2.16086328e-01 +1.12880379e-01 +4.06365283e-02 -3.22316021e-01 -1.22023068e-01 -2.86380630e-02 +9.73531008e-02 -5.48861213e-02 -2.50271708e-01 +1.07705243e-01 -9.26671699e-02 +3.38424891e-02 -1.62314937e-01 -9.30380523e-02 -2.30168283e-01 +5.63786179e-03 +5.34987152e-02 +1.56582519e-01 +6.34812191e-02 +1.42036244e-01 -1.09713368e-01 +2.00412229e-01 -1.84635475e-01 -1.03737317e-01 -5.62689342e-02 +1.03460208e-01 -1.73876166e-01 +7.85621256e-02 +3.27601194e-01 -1.28387034e-01 -5.21869250e-02 -1.05338003e-02 +8.23647603e-02 +1.18380964e-01 -1.43432831e-02 +6.31641820e-02 -4.52259481e-02 +1.87988020e-02 -4.69379760e-02 +1.06926985e-01 +7.66779333e-02 +6.59500435e-02 +9.62812975e-02 +6.72252476e-02 -2.36540064e-02 +1.48132771e-01 +8.43908414e-02 +1.37642056e-01 +9.95291844e-02 +1.74508303e-01 +8.88922960e-02 -3.28820497e-02 +2.38494836e-02 -1.83367438e-03 +8.53818431e-02 -1.43041397e-02 +1.05259530e-01 +5.11910282e-02 +5.25042862e-02 +3.95633020e-02 +3.71796489e-02 +6.81379810e-02 -8.06994364e-02 -7.03488514e-02 +7.66471028e-02 +9.45730731e-02 -2.35487036e-02 +4.16578352e-02 -1.51339415e-02 +6.13805577e-02 -2.44687609e-02 +9.32693407e-02 +2.12564077e-02 -1.51442587e-01 +9.55051836e-03 -7.89122060e-02 +2.83446133e-01 +1.19580016e-01 -1.55003089e-02 +2.25925092e-02 -2.21217766e-01 -2.00560074e-02 +5.83867691e-02 -5.43613359e-02 +4.47572656e-02 +8.29460099e-03 +3.98490466e-02 +5.68350032e-02 +4.53898944e-02 +8.88023973e-02 +8.33722129e-02 +8.16343874e-02 +1.03200980e-01 -4.92649265e-02 +8.01552087e-02 -6.80797547e-02 +2.30389237e-01 +1.38148770e-01 -1.35883372e-02 +2.19034925e-02 -7.98821449e-03 +1.25390738e-01 -2.11664625e-02 +1.55321121e-01 +2.22728312e-01 -3.80687229e-02 +8.58663991e-02 -8.08391050e-02 +1.38877064e-01 +1.52096385e-03 -3.15830976e-01 -3.44551504e-02 -1.01060688e-01 +4.09705415e-02 +8.93652216e-02 +9.31231007e-02 +3.67794186e-02 -3.95009294e-02 -1.42883301e-01 +1.58339441e-02 +4.19492880e-03 -1.00370497e-02 -2.18936987e-02 -5.35764219e-03 +1.95465907e-01 +5.00439778e-02 +5.11337444e-02 +3.69341820e-02 -1.84605017e-01 +2.24429026e-01 -5.62469810e-02 -4.28495586e-01 +7.31024146e-03 +5.36194481e-02 -1.03855655e-02 -9.31180269e-02 -1.51793450e-01 +2.51971036e-01 +4.35641082e-03 +1.56423897e-01 -1.65442184e-01 -1.73566803e-01 +6.91713095e-02 -7.05373958e-02 -1.58096820e-01 +1.67571172e-01 -1.04377940e-02 +1.64819390e-01 -3.32121253e-02 -2.13823654e-02 -1.66858643e-01 +8.29100385e-02 +2.77850013e-02 +2.18370110e-01 -1.29394531e-01 -1.95185952e-02 +1.49183452e-01 -1.09709807e-01 -6.19899072e-02 +1.29326239e-01 +1.70696869e-01 +6.55200407e-02 +1.30841106e-01 +7.85136968e-02 -2.01968960e-02 +1.25812888e-01 -3.32078151e-02 +7.78676718e-02 +2.01599225e-01 +7.38019869e-02 +8.68767947e-02 -5.69717363e-02 -1.04006194e-02 +1.03118092e-01 +4.32145186e-02 +3.17598432e-02 -6.16510101e-02 +1.74717784e-01 +1.25350207e-01 +8.35421160e-02 +1.06907137e-01 +6.01030737e-02 +8.16708207e-02 +9.68898013e-02 +1.21205881e-01 +1.54395133e-01 +3.02238781e-02 +1.60205681e-02 +8.98215100e-02 +6.08525984e-02 -9.47993323e-02 +1.08560622e-01 -9.73859131e-02 +1.97218303e-02 -2.64980085e-02 -9.36091989e-02 +3.49781550e-02 -2.31473595e-01 -4.36492562e-02 +3.91212925e-02 -6.25447780e-02 -4.32115085e-02 -6.74031898e-02 +4.43641543e-02 +4.53178392e-04 -5.21039702e-02 +7.26068094e-02 -2.81228572e-02 -8.80369693e-02 -5.17141521e-02 -7.01122507e-02 -2.48272158e-02 +1.33986041e-01 -2.60103261e-03 +1.12078033e-01 +3.61265503e-02 -2.53436645e-03 -1.12039626e-01 -3.13535705e-02 -1.90684088e-02 +3.56433764e-02 -1.29860584e-02 +3.86760980e-02 +2.84556419e-01 -1.31963238e-01 +6.14069030e-03 +1.68461978e-01 +8.19558650e-02 +6.60034493e-02 +8.81770700e-02 -4.31109965e-02 +2.54137248e-01 +2.41094768e-01 +1.11077830e-01 +6.75836205e-02 +1.45930618e-01 +1.03116510e-02 +7.77086765e-02 +2.54765362e-01 +1.62407920e-01 +8.24047253e-02 +3.09381217e-01 -8.67659673e-02 +1.83010533e-01 +3.10874749e-02 +1.38521343e-01 +1.65275231e-01 +9.67945233e-02 +2.04039857e-01 +1.52487248e-01 -1.37118110e-03 +1.37725770e-01 +9.13629457e-02 -4.33082180e-03 +9.72134247e-02 +1.77908510e-01 +3.53845395e-02 -1.54562667e-01 +9.42805875e-03 +2.72630036e-01 -9.01140794e-02 -1.50476247e-01 +8.10140297e-02 +1.96727768e-01 -7.31483027e-02 -3.86386588e-02 +2.98287049e-02 +1.74653977e-01 -2.74595618e-01 -2.07349166e-01 -1.39507055e-01 +5.72762229e-02 -1.16752446e-01 +8.06649551e-02 +4.95708548e-02 -2.40755454e-02 +1.36592954e-01 -5.28788678e-02 -2.82409728e-01 -3.97157744e-02 +1.89435348e-01 +1.08936317e-01 -1.39019012e-01 +1.23141214e-01 +3.28209922e-02 +1.79243851e-02 -1.67306840e-01 -1.20808937e-01 +1.93790063e-01 -9.33353379e-02 +7.57840499e-02 +1.38169080e-01 +5.61745502e-02 +8.83433316e-03 -3.01722810e-02 -7.79748112e-02 +1.14738040e-01 +1.68533430e-01 -1.02094866e-01 +4.03690375e-02 +4.43350524e-02 +1.99111447e-01 -4.69508171e-02 +5.03912382e-02 -1.31210476e-01 -5.91803063e-03 +2.37144195e-02 +1.10328056e-01 +1.41954765e-01 +2.22868435e-02 +4.84204059e-03 +3.89175536e-03 -1.87489074e-02 -2.06241265e-01 -1.19162023e-01 -1.48404002e-01 -2.06150562e-02 +2.02776641e-01 -1.40298046e-02 -7.66324028e-02 +1.16868168e-01 +6.75492315e-03 +4.66188714e-02 +1.40094627e-02 +3.62617411e-02 +4.77261432e-02 -4.49075876e-03 -9.71518159e-02 -7.90752247e-02 -6.48238522e-04 -1.96045026e-01 -1.95005885e-03 -6.18641190e-02 +1.29462909e-02 +5.26277497e-02 -9.53382477e-02 -6.91909790e-02 +1.17856629e-01 +6.12763837e-02 +7.68835694e-02 +1.47427976e-01 -5.35013378e-02 -1.58594791e-02 +5.54669686e-02 -4.04949486e-02 -3.87806185e-02 +1.01610804e-02 +1.23341829e-02 -7.12995976e-02 +4.80846204e-02 +8.25988650e-02 -2.69799054e-01 +2.68557370e-01 +6.85948431e-02 +1.97757885e-01 +1.34620816e-01 -1.90811101e-02 -3.44868712e-02 -2.34194808e-02 -7.36567378e-02 +1.38181701e-01 +1.31137729e-01 -2.46585719e-02 -1.37331277e-01 +4.74218465e-02 +1.78896129e-01 -8.96815583e-02 -5.00611588e-03 -3.60312834e-02 +7.68926367e-02 +2.64847070e-01 -1.99224520e-02 +7.60631487e-02 -3.46221812e-02 -4.65116054e-02 -1.88862011e-01 -1.85314799e-04 -1.09320626e-01 -8.21131989e-02 -1.33816108e-01 +1.03044465e-01 +9.41496938e-02 -1.34806186e-02 +5.41385636e-02 -1.22435726e-01 -2.37743363e-01 -1.96758553e-01 -4.02721018e-01 -1.73288718e-01 +1.89151525e-01 +5.07496372e-02 -8.14106539e-02 -1.07426107e-01 +6.72488213e-02 +2.91920960e-01 +9.65347141e-02 -6.49605319e-02 -1.57537997e-01 +7.89266545e-03 +8.63862485e-02 +5.92406513e-03 -1.41759170e-02 +1.98127657e-01 +5.36758482e-01 +2.03669351e-02 -1.81073919e-01 -1.89022452e-01 -2.95637324e-02 +3.17921013e-01 +4.16801460e-02 +4.00280170e-02 +2.57014148e-02 +1.02829903e-01 -1.39362708e-01 -2.35814139e-01 +1.28552884e-01 +4.43790033e-02 +8.23013186e-02 -3.81314419e-02 +4.24478091e-02 -1.81428473e-02 -6.03203960e-02 -4.83966731e-02 +8.48754868e-02 +4.75131236e-02 +1.38718098e-01 +1.18216656e-01 +4.32807095e-02 -1.95162855e-02 -4.69685793e-02 +2.64565088e-02 +4.83921655e-02 +4.46519116e-03 +1.33831725e-02 +3.59260254e-02 +8.39196295e-02 +1.07615091e-01 +1.00893110e-01 -1.80801582e-02 +3.01354583e-02 +2.19918564e-02 +9.52889398e-02 +1.24623045e-01 +1.36359662e-01 -2.76774075e-02 -7.19062686e-02 +1.89153459e-02 -7.86732361e-02 +7.96805993e-02 -9.41814706e-02 +5.12100160e-02 -1.38935551e-01 +4.72076200e-02 -1.41845807e-01 +2.64801215e-02 -3.61522287e-02 -3.82478423e-02 -4.09517847e-02 +6.02767617e-02 -2.15898529e-02 -1.59845501e-01 -8.65375474e-02 -3.20395380e-02 -6.14562444e-02 +8.64366591e-02 -7.24079087e-02 +1.30219935e-02 -1.47090569e-01 -7.81967416e-02 +5.33121713e-02 -4.26204950e-02 -9.20031890e-02 -6.50968552e-02 +1.24538010e-02 -4.79641743e-02 +2.53320802e-02 +6.29683286e-02 +3.67740206e-02 -1.58466086e-01 -1.12499595e-01 -4.66668233e-02 -5.27581982e-02 -1.47585511e-01 +2.74166353e-02 +2.74136830e-02 +8.75440389e-02 +1.57014519e-01 +2.30382849e-02 +2.91138347e-02 +2.94687562e-02 +2.18326282e-02 -2.00263830e-03 -1.04115352e-01 -7.01898262e-02 -7.08376914e-02 +1.15494348e-01 +2.71936096e-02 -9.59447622e-02 -1.45838603e-01 +3.27659771e-02 +2.62205340e-02 -3.01816240e-02 -9.19173881e-02 +2.84968894e-02 +1.23878747e-01 +8.94752964e-02 +5.46358377e-02 +1.59612939e-01 -4.07952182e-02 -1.24695539e-01 +1.37023330e-01 +1.19860647e-02 +4.88957390e-03 +2.34940186e-01 +1.13825627e-01 -5.87991886e-02 -1.37255900e-02 -6.49560392e-02 -1.56525895e-02 +6.33269995e-02 -8.44460800e-02 +1.16893791e-01 -2.64025420e-01 -8.63302685e-03 +3.61523144e-02 +1.36558980e-01 -6.71672747e-02 -6.37368262e-02 +1.02170952e-01 -8.42934661e-03 -4.82290387e-02 -2.44627111e-02 -1.92414038e-02 +1.39723688e-01 +3.91323045e-02 -2.58710887e-02 -1.28169328e-01 +1.94511749e-02 +3.56023456e-03 +1.30060211e-01 +1.18973695e-01 +4.56654392e-02 +1.38660744e-01 -4.17983271e-02 +2.75474731e-02 -1.67420045e-01 +3.24989930e-02 -5.01902029e-02 -2.31562331e-02 -5.53998239e-02 -1.28685862e-01 +5.14981523e-03 -1.25332996e-01 -6.53867796e-02 -8.23821202e-02 -9.05122533e-02 +6.84125209e-03 -2.75350437e-02 -7.28091225e-03 -1.93293614e-04 -4.42340001e-02 -1.46370735e-02 +1.15858197e-01 -1.48839513e-02 -1.03903254e-02 -5.30407690e-02 -9.48891714e-02 -9.91684496e-02 +8.93899240e-03 -6.03434630e-02 -1.12399295e-01 -1.62699997e-01 +6.10059984e-02 -7.78053999e-02 -9.16066393e-02 -9.59947929e-02 -2.79534757e-02 +1.59404688e-02 -8.45478326e-02 +9.52231791e-03 +9.65094566e-03 +1.06870301e-01 +2.40267627e-02 +2.97983531e-02 -7.23416824e-03 +2.79899705e-02 -5.07037044e-02 -9.50585380e-02 -4.48039547e-02 -7.23730726e-03 +2.50669010e-02 +8.48458558e-02 +5.06579503e-02 +8.38121995e-02 -2.89960634e-02 +5.08010052e-02 -3.57435681e-02 +5.18209599e-02 -3.18702087e-02 -9.06789601e-02 +2.64415867e-03 +3.10393274e-02 +2.03347579e-02 -1.05357923e-01 +3.23978290e-02 +8.34862813e-02 -4.02946733e-02 -8.38579796e-03 -2.96462979e-02 -1.36949331e-01 +1.41125709e-01 -7.46878237e-02 -1.28987461e-01 -1.45311981e-01 -1.79373309e-01 -6.22485206e-02 -3.00884359e-02 -1.55989975e-01 +2.43016258e-02 +1.70130387e-01 -9.02678147e-02 -7.57084712e-02 +1.17559761e-01 -1.66004464e-01 +1.27582267e-01 +5.78866005e-02 +1.09841429e-01 -1.97524518e-01 -1.14524574e-03 -1.38436304e-03 +7.84995183e-02 -1.21254958e-01 -1.22100897e-01 -4.20102663e-02 +1.15430905e-02 -2.43631274e-01 -2.77117435e-02 +3.99740338e-02 -6.40046671e-02 -7.21562952e-02 +1.05844602e-01 -3.05329174e-01 -1.52007818e-01 +6.05260730e-02 -4.77990434e-02 +7.73639530e-02 -1.43217891e-01 +9.78151560e-02 +2.96731368e-02 -7.78917074e-02 +2.01608628e-01 +9.52590536e-03 +4.88620549e-02 +4.87520471e-02 +1.54845163e-01 +8.34228694e-02 +2.82263272e-02 -4.43101972e-02 +8.44323486e-02 +1.65683225e-01 +1.43100619e-01 -3.19800764e-01 -5.03800698e-02 -1.32915666e-02 +9.73485783e-02 -3.56334001e-02 +8.81793126e-02 -5.78839220e-02 -2.10593238e-01 +3.67296636e-02 +3.07896528e-02 -9.33442712e-02 +5.11774085e-02 -1.19725615e-01 +6.63439482e-02 -1.09599106e-01 +5.48192970e-02 -3.90164554e-03 +2.06444152e-02 -5.46874776e-02 +3.63013484e-02 -1.18976012e-01 +1.02612656e-02 +3.25477347e-02 -9.20264702e-03 -4.13748659e-02 -8.98300260e-02 +2.49529015e-02 +8.99491273e-03 -4.38086875e-02 -4.10141833e-02 -4.75254841e-02 -2.11228859e-02 -7.23053468e-03 -2.72225533e-02 +6.13880083e-02 -3.25300023e-02 +1.28171705e-02 +3.43448706e-02 -1.42913222e-01 +3.28506455e-02 +7.24151731e-02 -1.90520689e-01 +2.50471197e-02 +5.82528524e-02 -4.96931188e-02 +5.95863909e-02 +1.49821028e-01 -9.29467529e-02 +5.37546724e-02 -8.36052224e-02 +6.08147681e-02 +1.34812901e-02 +5.85036129e-02 +1.25175687e-02 -2.40062252e-02 +7.20944582e-03 +4.75156233e-02 -1.03292026e-01 +4.05256674e-02 +2.37961467e-02 -5.70200989e-03 +5.97628392e-02 +9.66283008e-02 -6.08094744e-02 +6.88930899e-02 -3.96264680e-02 -8.74876902e-02 -9.73600000e-02 -5.23887873e-02 -8.80535692e-02 +5.54041862e-02 -2.56249085e-02 +5.96469641e-02 +1.07928783e-01 +1.21943347e-01 +1.12994434e-02 -1.28660426e-01 +1.20880902e-01 -1.19285777e-01 -2.97867153e-02 -1.35721609e-01 -4.21862751e-02 +5.71094416e-02 -1.32866412e-01 -4.06221412e-02 -5.39254863e-03 +1.72155768e-01 -1.49417266e-01 -5.36624305e-02 +4.93306369e-02 -1.72519729e-01 +3.00155245e-02 +1.15748972e-01 -2.34475862e-02 -1.84092242e-02 -1.42006129e-01 -3.03057693e-02 -1.15725473e-02 +4.33087684e-02 -4.04023528e-02 -4.72242832e-02 -1.54999429e-02 -1.14222236e-01 -1.02122903e-01 -1.82352364e-02 -1.61698442e-02 +1.41211394e-02 +5.34931049e-02 -1.91438437e-01 +2.13247780e-02 +1.52612299e-01 +1.05455145e-01 +1.29384160e-01 -1.08411759e-02 +1.51071087e-01 +1.74493879e-01 -5.51062785e-02 +2.88828433e-01 -5.44559993e-02 +1.40441656e-01 +4.41668443e-02 +9.18581933e-02 +1.38437197e-01 +8.26814473e-02 -1.31023854e-01 -2.34881975e-02 +5.37494645e-02 +4.14456445e-04 -2.13889658e-01 +1.14791788e-01 +9.88746732e-02 +8.95827934e-02 -5.35201766e-02 +3.43909636e-02 +6.77668303e-03 -1.84763342e-01 -8.57895166e-02 -8.22478235e-02 +7.01560453e-03 -6.66050166e-02 -7.24115456e-03 -6.19172491e-03 -4.18870598e-02 -9.41450521e-02 -1.79436907e-01 -1.12329997e-01 -3.56289558e-02 -3.77880596e-02 -1.35937631e-01 +3.58984433e-02 -9.21553932e-03 -1.41432166e-01 -6.10835552e-02 -1.40906259e-01 -5.24811000e-02 -3.72947864e-02 -8.23408514e-02 -3.35079432e-02 -1.86353475e-01 -1.27200279e-02 -5.35642616e-02 -9.72872321e-03 -3.00966222e-02 -9.88362171e-03 -1.50119945e-01 -6.62622899e-02 +7.84898992e-04 -1.45491570e-01 -3.23146209e-02 -8.47935751e-02 +2.50235870e-02 +2.12788465e-03 +4.88403402e-02 +8.33310708e-02 +7.63219818e-02 -8.70849267e-02 +1.77679062e-01 +5.19300997e-02 +1.09062888e-01 +9.91388038e-03 -8.63439683e-03 +5.32242656e-02 +5.56300282e-02 -1.00286834e-01 -3.14055607e-02 -4.26415689e-02 -6.54160604e-02 -5.43418415e-02 +3.63705717e-02 -2.28097141e-02 +1.00439928e-01 -7.36510158e-02 +1.32229835e-01 -9.28686038e-02 +2.32989397e-02 -1.99339408e-02 +3.49342413e-02 -7.25471154e-02 +6.31989613e-02 +9.56204236e-02 -4.81071137e-02 +5.83059527e-02 -1.70016155e-01 +9.38100517e-02 -1.97415948e-02 -8.69819522e-02 -1.82549566e-01 -8.94747749e-02 -3.59163880e-02 -7.17998147e-02 -1.29757464e-01 +7.77238328e-03 -7.25378096e-02 +1.37100825e-02 -2.25104287e-01 -1.19835444e-01 +5.73986024e-02 -1.80906728e-01 -1.37997195e-01 -6.85091540e-02 -3.90947126e-02 +9.98348743e-02 -4.40400206e-02 -3.90374623e-02 -1.04202509e-01 -1.75630152e-01 +1.13082737e-01 -1.21920295e-01 -1.81834802e-01 -6.15905449e-02 -9.03548449e-02 +5.49014024e-02 -3.34629789e-02 -6.49930835e-02 -1.13807477e-01 -4.83135469e-02 -2.01149642e-01 +7.02536246e-03 -1.05444044e-01 +1.58936113e-01 +1.15397759e-01 -1.35747582e-01 -1.19500294e-01 +2.33325288e-01 +1.14344992e-01 +1.90905750e-01 +5.27244397e-02 -1.86103284e-02 +5.11288419e-02 +1.33516472e-02 -9.47746709e-02 -9.26453993e-02 +1.60608292e-02 -4.45860736e-02 +9.07352939e-02 +4.44103889e-02 -2.68383592e-01 +8.13299716e-02 +1.35744929e-01 +1.22104384e-01 -2.65053175e-02 +1.78693831e-01 -8.47268701e-02 -8.45291838e-02 -2.47435402e-02 -1.67371228e-01 -2.56124418e-02 +1.45642832e-02 +1.60911500e-01 -4.64251786e-02 +8.06788821e-03 -7.78037980e-02 -2.41150819e-02 +9.76850688e-02 -3.77457961e-02 +2.58371700e-03 -2.02009417e-02 +1.48440912e-01 +1.05043082e-02 +4.79887687e-02 -5.07354476e-02 +5.78111075e-02 -1.67039817e-03 +4.53047454e-03 +1.07080951e-01 -9.22672004e-02 -2.30882242e-02 +9.81192067e-02 +1.27960116e-01 -2.63176300e-02 +7.17217326e-02 +7.82059953e-02 +7.46001080e-02 +3.31728011e-02 +4.13985141e-02 -4.91748657e-03 -9.01001543e-02 +1.92503974e-01 +6.64067790e-02 -8.66272673e-02 -3.56111079e-02 +2.22191587e-02 +6.15129024e-02 +4.84042652e-02 -1.12156585e-01 +5.80552258e-02 -3.16821709e-02 +9.20452476e-02 -7.43249208e-02 -8.26234519e-02 +9.51686800e-02 -6.11904711e-02 -5.40063754e-02 +7.54880458e-02 +2.43109148e-02 -8.57207775e-02 -1.56410366e-01 -7.98947141e-02 -1.79953035e-02 +4.42691967e-02 -6.28166795e-02 +3.35373846e-03 -8.18927959e-02 +6.48993254e-02 -6.20811209e-02 -4.79751676e-02 -2.79892255e-02 -8.25112239e-02 -6.52337000e-02 +2.01238655e-02 +1.54127683e-02 +1.12994194e-01 +1.05106197e-02 -5.84157482e-02 +3.63388248e-02 +1.82984546e-02 -3.53618786e-02 +6.71912208e-02 +5.00261188e-02 +2.55125016e-02 +1.03740491e-01 +9.54864845e-02 +5.88480234e-02 +9.08749551e-02 -3.50263864e-02 +4.46233414e-02 +1.28686398e-01 -1.45095944e-01 -6.24968112e-02 -8.42840448e-02 +1.52484611e-01 -9.95510444e-03 +7.75389820e-02 -9.36492756e-02 +7.60404691e-02 +1.35384724e-01 +4.61612158e-02 +1.47163168e-01 +4.72660325e-02 -4.12145779e-02 +3.04112211e-02 +5.01651093e-02 +1.09242707e-01 -2.56801173e-02 +2.16292918e-01 +7.34064505e-02 -7.84359574e-02 -1.16274089e-01 -3.44122015e-02 +1.59205943e-01 -8.65265355e-02 -2.93305190e-03 -2.38253400e-02 -6.92993822e-03 -3.51918302e-02 +8.00733864e-02 -1.10568099e-01 -9.59744304e-02 -1.28786683e-01 -9.36000720e-02 +2.89431810e-02 -6.48164898e-02 -8.83333236e-02 -1.63682312e-01 +1.97819531e-01 +6.94402978e-02 -6.44731820e-02 -2.28592753e-01 -8.41298252e-02 -9.65893194e-02 +1.01537585e-01 +1.35700956e-01 -5.83427362e-02 +2.34642386e-01 +8.52857530e-02 -7.01817051e-02 +3.97545472e-02 -3.73557322e-02 +1.53426319e-01 -7.24149570e-02 +1.45121560e-01 -2.53453795e-02 -9.92810354e-03 +1.24815553e-01 +1.34436652e-01 +1.19349897e-01 -3.47411111e-02 +1.00289360e-01 -2.48439722e-02 -2.42664274e-02 -2.36594919e-02 +1.90015249e-02 -7.96833038e-02 +2.13962495e-02 +1.50963381e-01 -2.17211386e-03 +1.17871575e-01 +1.14490420e-01 +1.01609237e-01 +1.59438819e-01 -2.03980263e-02 -2.79523898e-02 +8.30438081e-03 +5.90225607e-02 -8.33041593e-03 +1.15698971e-01 -9.23693478e-02 -5.60448542e-02 -6.34561479e-02 -1.68248191e-02 -3.59613374e-02 -7.05051646e-02 -2.98529919e-02 +9.27362517e-02 +1.09384641e-01 -3.32994945e-03 -5.10706306e-02 -4.76637948e-03 -7.06951693e-02 +7.71318143e-03 -1.49879837e-02 -7.29300305e-02 -6.57229200e-02 -6.26115650e-02 -5.48927635e-02 -6.82366118e-02 -1.22706540e-01 +6.37538210e-02 +7.25232586e-02 +9.70712677e-03 -5.48214279e-02 +8.78494605e-03 -4.08969522e-02 +5.52018471e-02 -6.22849986e-02 +6.92298114e-02 +8.07223544e-02 -1.65203214e-01 -1.02557480e-01 -6.56987503e-02 -2.91898381e-02 -7.31093362e-02 +6.35631196e-03 +1.73125967e-01 -6.36523589e-04 +1.56744327e-02 +9.84057263e-02 +5.37027344e-02 +1.65403962e-01 +5.55689968e-02 +6.89341826e-03 +1.19230002e-01 +9.31563973e-02 -1.41160131e-01 +1.57471895e-01 -5.11432514e-02 -7.08012562e-03 -1.84214175e-01 +1.74791008e-01 +5.91410585e-02 +7.90757611e-02 -6.02505468e-02 -7.14979041e-03 +5.07714562e-02 +1.18053414e-01 -3.48375812e-02 +2.12844774e-01 +1.46636426e-01 -1.37764528e-01 +1.47305772e-01 +1.21924140e-01 +5.81285767e-02 +8.10174346e-02 +3.75293754e-02 -9.39935669e-02 +1.81251168e-02 -1.40851185e-01 +1.05285570e-01 -9.39881951e-02 -1.35403082e-01 -6.88175559e-02 -1.52936593e-01 +1.32315680e-01 -1.11478761e-01 -3.09867486e-02 -7.11156577e-02 +6.16608374e-03 +5.93700521e-02 +8.93447921e-02 -1.04538687e-01 -1.03955068e-01 -1.01249330e-01 +1.75889790e-01 -1.80347949e-01 +5.80417998e-02 -1.84022784e-02 +6.01221900e-03 -3.80355902e-02 +1.41875833e-01 +3.32159512e-02 +7.59010538e-02 +1.30179480e-01 +1.04838796e-01 +1.57605946e-01 +1.10901343e-02 +5.03311045e-02 +7.84397945e-02 +1.27398819e-01 +1.94113310e-02 +6.71238005e-02 +1.76334798e-01 +7.13554248e-02 -8.53956118e-02 +4.67736013e-02 -1.79837598e-03 +3.50910015e-02 +8.08516741e-02 -2.24128296e-03 -2.19023861e-02 +1.96149781e-01 +1.66361511e-01 +4.09544446e-02 +3.76614816e-02 +7.05366135e-02 +1.08860619e-01 +7.19776899e-02 +1.35774106e-01 +6.64906651e-02 +1.14319138e-02 +6.39199233e-03 +8.79146084e-02 -2.98131853e-02 +1.45462438e-01 -6.50663972e-02 -7.19959587e-02 -1.08667202e-01 +8.55812132e-02 +5.17119840e-02 -8.00723583e-02 +9.61062834e-02 -1.32808521e-01 +8.70964006e-02 -8.91596731e-03 -6.22967817e-02 +9.43936557e-02 +4.24763449e-02 +5.34802563e-02 +6.92439601e-02 +6.54167980e-02 +2.34655272e-02 +6.23802133e-02 +3.94085906e-02 -1.35044917e-01 -6.00983687e-02 +1.00536592e-01 +7.90225714e-02 -6.82528540e-02 +1.27845466e-01 +6.08207993e-02 +8.31553414e-02 +7.60328723e-03 +3.34003381e-02 +6.59726262e-02 -3.63790542e-02 -7.79964924e-02 -1.49259288e-02 +3.85776579e-01 +3.22816968e-02 +5.49758151e-02 +3.60218495e-01 +9.83746797e-02 +1.41889453e-01 +5.24297021e-02 -1.27122961e-02 +2.98367351e-01 +9.75735262e-02 +5.84829859e-02 +1.37303084e-01 +2.21348420e-01 +1.16638660e-01 +4.86410074e-02 +3.52189034e-01 -5.75702637e-02 +1.72594771e-01 +2.80806780e-01 -5.36261983e-02 +9.24660489e-02 +2.26050988e-02 +6.28646389e-02 +4.54987377e-01 +1.32303359e-02 +1.83748245e-01 +5.40500544e-02 +1.05488136e-01 +7.83540756e-02 +7.13527128e-02 +1.16399653e-01 +4.12130617e-02 +1.34882599e-01 -6.76501989e-02 -7.88073763e-02 -1.26759574e-01 +2.00108260e-01 +1.99558418e-02 -5.80585748e-02 +6.81505054e-02 +3.79319452e-02 +1.28232718e-01 -1.59447074e-01 +4.45631668e-02 +1.53886318e-01 +8.93270075e-02 -6.93025663e-02 +6.30008206e-02 -5.66641334e-03 +1.68551467e-02 -7.43547902e-02 +1.74511001e-01 +2.97138542e-02 +5.87307885e-02 +4.94852588e-02 -6.75861910e-02 +2.49856003e-02 +2.38575950e-01 +1.01940818e-01 -2.43188422e-02 +4.21169549e-02 +3.78654748e-02 +4.68001980e-03 -2.25922555e-01 -2.41576484e-03 -1.26911914e-02 +1.56691894e-01 -3.12023610e-02 +1.14909120e-01 +2.28993502e-02 +1.74370646e-01 +2.91554220e-02 +1.74501151e-01 +1.42249212e-01 +8.52762088e-02 +1.10222243e-01 +1.22823626e-01 +3.06397136e-02 +1.00091629e-01 -1.06773796e-02 +1.95945606e-01 +4.87430617e-02 +7.18808994e-02 -6.48008510e-02 +8.70830640e-02 +1.60342917e-01 +1.41740963e-01 +5.26174791e-02 +3.73586710e-03 +9.69488621e-02 +1.39572397e-01 -3.13739888e-02 +5.98256551e-02 +1.14961170e-01 +1.23341955e-01 -1.81849934e-02 +4.01333496e-02 -6.12974726e-02 -1.39837295e-01 -4.52193208e-02 -1.38429403e-02 +2.81970482e-02 -3.51581760e-02 +2.87097879e-02 +7.13225678e-02 +6.75477087e-02 -3.03717367e-02 -9.37909484e-02 +6.54924512e-02 +7.66525790e-02 +1.83951519e-02 +7.02659935e-02 -1.07280806e-01 -1.15393087e-01 -1.50807664e-01 -2.32865959e-02 -4.19463031e-03 -5.17094620e-02 -1.27816841e-01 +2.19850205e-02 -4.97878566e-02 -1.04128674e-01 -9.15751904e-02 -2.92638373e-02 -4.59546484e-02 -3.31541635e-02 -4.55983803e-02 -6.31891787e-02 -4.61939983e-02 +4.81255837e-02 -1.21300342e-02 -2.97924541e-02 +2.24404149e-02 +1.29557937e-01 +1.66181624e-01 +1.39960423e-01 +7.55360872e-02 +1.65596351e-01 +9.16101411e-02 +1.17913885e-02 +9.04956758e-02 +1.86460733e-01 +4.80540916e-02 +2.88965106e-02 +3.68676372e-02 +1.07594550e-01 +4.27080900e-04 -3.06921173e-02 +1.52496370e-02 +1.43122554e-01 +1.69566199e-02 +6.72386512e-02 +7.47300833e-02 +3.96443494e-02 +7.08910823e-02 +1.60401881e-01 +8.59273821e-02 +6.26988634e-02 +5.61765507e-02 +3.86665948e-02 +1.38220698e-01 +4.63266298e-02 +2.28539795e-01 +3.10872085e-02 -5.57844527e-02 -1.51530281e-01 -8.24431106e-02 +1.52656689e-01 +5.31403385e-02 -1.88150316e-01 -4.26182337e-02 -2.60649770e-01 +1.48591429e-01 -3.78066152e-02 -8.76464508e-03 -9.97131094e-02 -1.37704596e-01 +6.44615963e-02 -8.14473256e-02 -1.04800247e-01 -4.01068702e-02 -5.53430617e-02 +1.13893099e-01 +3.84064950e-02 -4.52701412e-02 +1.44389935e-03 -1.48471026e-03 -1.51442513e-01 +5.03260177e-03 +3.25798430e-02 +3.39618511e-02 +2.44452670e-01 +5.46504557e-02 -3.94190550e-02 -1.28386423e-01 -5.41019179e-02 -1.47621900e-01 +1.01818092e-01 -1.54026911e-01 +2.90742591e-02 -1.35124579e-01 +1.92512199e-02 -7.57785216e-02 -4.75299265e-03 -2.54794005e-02 -2.37471331e-03 +5.19170314e-02 -1.22097299e-01 -1.63703591e-01 -7.18134549e-03 +8.11126679e-02 +5.86369894e-02 -8.07052106e-02 -1.29909694e-01 -1.10689491e-01 +5.91353178e-02 -6.20620288e-02 -4.01301719e-02 +1.24169225e-02 -1.24618873e-01 -8.86534899e-03 +5.16327061e-02 +1.25761582e-02 -9.91149023e-02 -6.08937517e-02 +7.90190399e-02 -8.40209499e-02 -4.12440337e-02 +3.91909853e-02 +1.01479366e-01 +2.77349740e-01 -9.81303006e-02 -1.27568953e-02 -3.87638919e-02 -4.93412977e-03 +6.01300597e-03 -4.97319549e-02 -3.40779386e-02 -9.37177688e-02 -6.83070049e-02 -5.02847433e-02 +5.01239002e-02 +1.74056470e-01 +1.75007135e-02 +6.53151888e-03 -1.97978728e-02 +6.46370873e-02 -1.18737586e-01 -6.87334090e-02 +3.60514522e-02 +9.37137082e-02 -1.68023296e-02 -7.09135756e-02 +2.63384879e-02 +4.64195833e-02 +9.33027193e-02 +4.50195149e-02 +1.87798426e-01 -8.23208541e-02 +8.46056864e-02 -1.36747360e-01 +8.03783089e-02 -1.10617680e-02 -1.57896906e-01 -1.81504682e-01 -8.07569921e-02 -1.48473218e-01 -9.50550660e-02 +7.32119009e-02 -1.59455806e-01 +8.24706256e-03 +1.22106895e-01 -1.23327702e-01 +5.75732850e-02 +2.82323230e-02 +3.89369845e-01 -1.31998017e-01 +7.66671598e-02 -1.96230248e-01 -7.38684610e-02 +1.89279653e-02 -2.48298384e-02 -1.66875675e-01 -5.48978848e-03 -2.58835226e-01 +7.66616911e-02 +3.00146759e-01 -1.00500584e-01 -7.80320987e-02 -6.18534461e-02 -8.22201744e-02 -8.75230208e-02 -3.38976264e-01 +6.02275282e-02 +1.42594129e-01 -8.94841403e-02 -8.53873119e-02 -2.89902478e-01 +9.41675305e-02 +1.84417814e-01 -4.11723740e-02 +1.04732051e-01 -7.90529996e-02 +9.24355388e-02 -9.58768502e-02 +2.31440723e-01 -2.16645762e-01 +2.39613634e-02 +2.31503904e-01 +1.05293185e-01 -1.25742212e-01 +7.65664428e-02 +9.89748165e-02 +1.88724831e-01 -2.51492113e-01 +3.29005681e-02 -1.26756039e-02 -5.31670153e-02 -7.35232234e-02 +1.43861189e-01 +4.98792976e-02 -2.92022116e-02 +1.18336469e-01 -4.15049642e-02 +1.32250652e-01 +7.03618973e-02 +5.68599142e-02 +4.70506921e-02 -3.78572149e-03 +3.11508644e-02 +5.22560291e-02 -2.51452383e-02 +1.26450270e-01 -4.14557233e-02 -2.70688776e-02 +1.23244748e-01 +5.03205359e-02 +8.59034583e-02 -2.34595798e-02 +3.45706381e-02 +1.83607325e-01 +9.98078883e-02 +2.73602400e-02 -4.59046997e-02 +2.09668651e-02 +1.38663054e-01 +8.25850889e-02 +1.66367814e-02 +4.28969450e-02 +9.40813124e-02 +6.16578758e-02 +5.10962978e-02 +8.50446429e-03 +1.01313181e-02 +2.65322477e-02 +9.26435962e-02 -1.68430716e-01 +7.99889416e-02 -2.34953031e-01 +3.58583480e-02 +6.65185153e-02 +7.39823421e-03 -4.46003862e-02 -3.79155986e-02 -8.55185762e-02 +3.68198715e-02 -1.24883160e-01 +4.85066324e-02 +2.27919165e-02 +5.08057885e-03 -4.58871908e-02 +3.59219313e-02 -2.13712797e-01 -1.18682720e-01 +1.33028515e-02 -5.54429032e-02 -3.36396992e-02 -1.39262844e-02 +6.49721548e-02 +6.17636070e-02 +2.53888965e-02 -1.15314417e-01 -5.66467419e-02 -6.61795139e-02 -3.07883881e-03 -4.80642840e-02 +7.10579380e-02 +7.30344057e-02 +3.93367894e-02 +7.18783438e-02 +1.19374938e-01 +1.18218854e-01 -2.18607951e-02 +2.31771246e-02 +7.40286708e-02 +3.50835733e-02 +9.33671966e-02 -5.51455170e-02 -1.08164363e-01 +1.64957158e-02 +1.08085096e-01 -2.99579129e-02 +9.65319872e-02 -2.21983239e-01 +1.31531684e-02 +1.09895393e-01 -3.01901270e-02 +1.18805639e-01 +1.76418899e-03 +2.35484261e-02 +1.84737980e-01 +1.50242031e-01 +1.66336983e-01 +8.94237682e-02 -3.83864380e-02 +8.25326219e-02 +1.71712041e-01 -4.39191051e-02 +2.04427734e-01 -7.69088566e-02 +1.35053158e-01 -1.18574709e-01 -1.27707198e-01 +1.05764784e-01 +1.35241002e-01 -7.21377060e-02 -4.44676839e-02 -2.18307406e-01 -5.14391176e-02 -9.55393240e-02 +6.91516176e-02 -8.26433226e-02 +1.71197280e-01 +1.57994945e-02 -1.30032882e-01 -5.60814925e-02 -9.17624459e-02 +1.07950136e-01 +2.88820624e-01 -6.21745624e-02 -1.18518673e-01 +6.29295781e-02 -1.27585409e-02 +2.23303083e-02 +2.59523783e-02 +6.46948069e-02 -4.68414426e-02 +1.48073256e-01 -5.19191567e-03 +4.65662479e-02 -3.68387029e-02 +3.53127681e-02 +1.11170530e-01 +1.24355651e-01 -7.02218479e-03 -5.54845147e-02 +1.42632052e-01 +1.95389658e-01 +9.48808044e-02 +9.72104520e-02 +8.54553655e-02 +5.87566681e-02 +4.76772301e-02 +8.34264383e-02 +1.46103501e-01 +3.41236703e-02 -2.91931331e-02 +5.77596016e-02 +1.23499237e-01 +1.54336682e-02 +6.58676177e-02 +1.74361318e-01 +7.79970437e-02 +6.13866337e-02 +6.81520104e-02 -5.42838424e-02 -9.40818398e-04 +6.53240159e-02 +4.48929332e-02 +1.11531854e-01 -8.45199078e-02 +5.71215823e-02 -1.06463052e-01 +2.49891579e-02 -1.62781738e-02 +8.17389861e-02 -1.29807219e-01 -3.56744789e-02 -3.53284739e-03 -5.42921498e-02 +9.97171998e-02 -2.47332640e-02 -5.79826534e-02 +5.73095456e-02 +5.46576492e-02 +7.98147097e-02 +6.79854155e-02 -2.41088285e-03 -3.24401073e-02 +3.44926827e-02 +8.88234004e-02 +1.09619848e-01 -5.29984199e-02 -1.51594086e-02 -7.53255785e-02 -8.30154568e-02 -8.28896984e-02 -7.82594979e-02 +6.45589903e-02 -7.49772787e-02 -3.26173566e-02 -5.34716509e-02 -4.87617962e-02 -4.43347394e-02 +1.11725412e-01 +1.18953399e-02 +1.44493520e-01 +5.21291234e-03 +1.13284796e-01 +2.01429147e-02 +1.75150618e-01 +1.28198192e-01 +6.73469827e-02 -4.48796265e-02 +1.27860263e-01 +1.03130974e-01 +2.36788727e-02 -3.53993252e-02 +1.41277462e-01 -5.34987971e-02 +8.07157159e-03 -7.18473569e-02 +1.71032250e-01 +1.55036449e-01 +6.85060322e-02 +2.02290311e-01 -1.63626760e-01 +1.65269151e-01 +1.09333806e-01 -1.85649209e-02 -4.79727890e-03 -6.25590011e-02 +1.56507343e-02 +7.47653618e-02 +8.58106762e-02 -8.58512595e-02 +7.19250320e-03 -4.25446890e-02 +4.72142212e-02 -1.05124310e-01 -3.54214460e-02 -3.80431525e-02 +1.37930885e-01 -2.52838075e-01 -5.98904900e-02 +3.15652527e-02 +3.89887579e-02 -2.86655705e-02 +2.50371750e-02 -1.69740811e-01 -2.08215397e-02 -1.54984817e-01 -1.99126601e-02 +2.72356141e-02 +1.74014285e-01 -1.90539509e-01 +1.60689093e-02 -1.88264921e-01 +1.93500258e-02 +1.52101457e-01 +1.09746017e-01 -1.27134293e-01 +8.61022472e-02 +7.52497315e-02 -7.51822889e-02 +1.69134423e-01 -8.16451968e-04 +1.03382520e-01 -6.57167584e-02 +5.82503639e-02 -1.29454866e-01 +2.74726376e-02 +5.26260436e-02 +2.61552613e-02 -4.30409517e-03 -1.03283644e-01 -5.81302047e-02 +3.08571402e-02 -1.39642119e-01 -5.96019812e-02 -8.12962651e-02 -1.27531156e-01 -1.50118396e-02 +4.28137258e-02 +7.62294158e-02 -5.53110018e-02 -7.45029971e-02 -5.06204590e-02 +8.01057145e-02 -9.85862985e-02 +1.43830180e-02 -2.16457024e-02 +1.08771725e-02 +3.29496674e-02 -7.80799612e-02 -3.54763269e-02 +2.16526482e-02 +1.23613998e-02 +4.86251712e-02 +7.09279031e-02 +1.33617178e-01 -1.32647650e-02 +9.96019915e-02 +3.92378569e-02 -3.48883122e-02 +5.04141152e-02 -6.07176274e-02 -6.12616576e-02 +9.25901607e-02 +1.17584012e-01 -7.94844553e-02 -1.99864373e-01 -5.26637360e-02 +1.08150795e-01 +4.57128920e-02 +1.22917272e-01 +1.12949826e-01 +3.74683775e-02 +1.09030291e-01 +5.30089960e-02 +1.15100674e-01 +4.81097139e-02 -4.74482737e-02 +9.24154222e-02 +1.63470879e-02 +4.07170765e-02 +8.68643969e-02 -3.53673920e-02 +5.81407435e-02 -1.47816435e-01 +1.87878922e-01 -5.50480522e-02 -9.91680399e-02 +5.10896742e-02 -6.97195204e-03 -1.09863980e-02 -5.52218072e-02 -5.50374389e-02 -1.75064486e-02 -8.44278410e-02 +4.28973585e-02 -3.45911905e-02 -4.77469154e-03 +6.72801435e-02 +7.85482600e-02 +1.92151576e-01 -1.52460441e-01 -2.67986078e-02 +1.45416230e-01 -2.02807069e-01 -1.06173657e-01 -1.34604588e-01 +4.16977964e-02 +1.95042729e-01 +3.08885351e-02 -5.28115109e-02 +3.96631621e-02 -9.01998356e-02 +1.88131277e-02 -7.44393170e-02 -1.92337334e-01 +6.63040951e-02 -2.48563979e-02 +8.23543146e-02 -2.17351496e-01 -8.89787264e-03 +2.79979795e-01 +4.03613038e-02 -6.24808297e-02 -1.13893405e-01 +1.65894348e-02 +2.15505719e-01 +2.66754683e-02 +1.90906078e-01 -9.15762782e-02 +2.71983538e-02 +6.74185678e-02 +1.06675372e-01 -1.10524520e-02 +1.40582072e-02 +3.73268276e-02 -4.89907414e-02 -7.57651031e-02 -4.15125713e-02 -1.43281952e-01 +7.99106732e-02 -5.69330193e-02 +2.44337842e-01 +1.66268900e-01 -4.56617251e-02 -4.40106317e-02 -7.11577246e-03 +1.17729403e-01 -2.52870679e-01 +3.45948562e-02 +4.07341309e-02 +8.59835148e-02 +3.07308510e-02 +2.17222590e-02 -3.81986611e-02 +3.07010300e-02 +2.87034400e-02 +1.06627457e-01 +7.17672408e-02 +2.36897320e-02 +5.22607826e-02 +6.79721087e-02 -1.85576882e-02 +7.36769587e-02 -2.93858275e-02 +1.02576904e-01 +2.04766616e-01 +1.59412041e-01 -2.21154820e-02 +2.77688466e-02 -4.53776792e-02 -1.76228043e-02 +6.42865151e-03 -7.14512467e-02 +6.27772510e-02 +1.48269132e-01 -2.29540635e-02 +1.15295745e-01 +9.75542050e-03 -2.59278398e-02 +6.96049556e-02 -2.76389550e-02 +9.35173929e-02 +4.10534702e-02 +6.33959547e-02 -5.45115769e-02 +7.30329379e-02 -5.22060022e-02 +6.36158511e-02 -8.59517455e-02 -6.86479434e-02 -6.90949559e-02 -4.84364340e-03 +7.46442229e-02 +9.71794128e-02 +6.34153411e-02 -3.07744611e-02 +9.43201408e-02 -1.21200301e-01 -3.16361375e-02 +3.16150077e-02 +5.84099777e-02 +5.87627739e-02 -9.33251530e-02 +1.97557230e-02 +7.38311857e-02 -1.82909127e-02 +6.69855922e-02 -2.43743546e-02 +3.09226625e-02 +9.60789546e-02 -3.38074416e-02 +1.07779935e-01 -1.14530278e-02 +1.06385417e-01 -6.85659498e-02 +1.89694464e-01 +2.58555897e-02 +1.10755879e-02 +3.35334316e-02 -1.08059183e-01 +1.80446193e-01 -2.57683941e-03 +1.21005952e-01 +1.07457573e-02 +3.52018699e-02 +2.16667756e-01 +1.20883420e-01 -7.64513910e-02 -1.82622839e-02 +5.35227172e-02 +1.83816016e-01 -1.10518433e-01 +3.95045616e-02 +6.70705438e-02 +8.79173204e-02 +2.59730339e-01 -8.17687511e-02 -5.66248745e-02 +1.41654864e-01 +4.64869523e-03 +1.45532802e-01 -3.53275537e-02 +1.82594895e-01 +1.34971857e-01 -6.43480867e-02 -8.09795707e-02 +8.86618122e-02 -4.03506942e-02 -1.00823089e-01 -9.70079228e-02 -5.59436120e-02 -8.51624534e-02 -2.07539406e-02 -1.04694605e-01 -7.65409134e-03 -8.52380395e-02 +3.00507322e-02 +1.32175148e-01 -1.49399385e-01 +1.15743671e-02 -2.30477735e-01 +5.52971102e-03 +3.58244311e-03 +5.27994484e-02 +2.22081635e-02 -1.16231449e-01 -9.18010599e-04 -7.58713856e-02 -2.73069851e-02 -1.03763059e-01 +1.94237843e-01 +2.33211592e-02 +7.44739026e-02 +1.34950981e-01 -5.15487231e-02 +1.39320627e-01 -1.54946834e-01 +1.08665144e-02 -8.10684115e-02 +8.34998339e-02 -7.33935973e-03 -3.27755697e-02 -2.20874865e-02 -5.69930784e-02 -1.30758673e-01 -2.40485109e-02 -1.11070229e-04 -3.06775551e-02 +3.60101014e-02 +2.85110343e-02 +7.88692012e-03 -4.42480333e-02 -1.71216011e-01 -8.28836411e-02 +6.40943134e-03 +4.60388772e-02 -1.11982875e-01 -6.84195012e-02 +1.60835292e-02 +5.39323315e-02 -3.71527746e-02 -8.13973024e-02 -5.42609878e-02 -1.47442952e-01 -8.41127709e-02 +3.78147513e-02 -3.85890016e-04 -1.06840052e-01 -4.95405644e-02 -4.70487587e-02 +1.33490473e-01 +9.53601897e-02 +1.90642029e-01 -4.72366065e-02 +9.56678614e-02 +7.52467364e-02 +1.25622019e-01 +4.99314182e-02 +1.12004519e-01 -1.17865959e-02 -8.27397853e-02 +2.79512495e-01 +7.52281696e-02 -8.49048570e-02 +9.87612605e-02 -1.01823375e-01 +1.23674490e-01 +9.25753042e-02 +2.18111416e-03 -3.32519300e-02 -6.77544624e-02 -3.46220508e-02 +1.57274380e-02 +7.20507950e-02 +8.62616301e-02 -5.81768341e-02 -1.18649947e-02 +1.21720217e-01 -8.94826725e-02 +1.90767437e-01 -2.02370390e-01 +1.73516959e-01 -5.52062765e-02 +5.00533618e-02 +4.05018888e-02 -2.30525006e-02 -3.31161451e-03 +3.40861198e-03 +1.38928086e-01 +1.07354909e-01 -2.70322841e-02 +3.31786610e-02 -1.45485848e-01 +1.82146385e-01 +1.07450545e-01 -1.98140070e-01 -1.07443765e-01 -1.43573776e-01 +1.26700729e-01 +8.20204616e-02 +2.44651698e-02 -3.78740355e-02 +9.20857564e-02 -3.58026810e-02 -8.48177075e-03 -3.55240144e-02 -1.26980275e-01 -1.61485732e-01 +1.63574088e-02 +1.68618679e-01 +3.36399190e-02 +5.43152057e-02 +6.02319092e-03 -6.50923476e-02 -2.71975338e-01 -3.71448919e-02 -2.28532404e-01 -6.29934147e-02 +1.09913312e-02 -7.74633959e-02 -8.03890824e-02 -2.17280146e-02 +1.31360874e-01 +3.27984929e-01 -4.51944359e-02 -2.71323860e-01 -2.53279090e-01 +5.63639291e-02 -2.36943975e-01 -1.66907981e-01 +1.84700787e-01 +5.47764227e-02 +1.98297992e-01 -5.22361398e-02 -2.41982356e-01 -1.18651636e-01 +1.16875559e-01 +2.75174260e-01 +3.23302567e-01 +1.10955432e-01 -2.29174329e-04 +2.55057383e-02 -4.81436998e-02 -2.45966241e-01 +2.83881417e-03 +5.00931069e-02 +7.79876411e-02 -1.61027424e-02 -2.13307161e-02 -3.28777544e-02 +1.22062206e-01 +9.53367911e-03 -3.76548730e-02 +9.36810374e-02 -6.92428127e-02 -5.75984083e-02 -1.62669439e-02 +1.16829887e-01 -1.15580663e-01 +2.38376148e-02 -5.16132675e-02 -3.95323187e-02 +1.09102383e-01 +6.21718988e-02 +1.62144508e-02 +6.91808164e-02 -2.23938487e-02 -4.58865017e-02 +7.15046888e-03 -2.64088102e-02 +8.92647654e-02 -7.22549483e-02 +5.38135022e-02 -5.66022806e-02 +1.03411116e-02 -9.89620164e-02 -5.72019927e-02 -2.24930942e-02 +8.44767839e-02 +2.32948060e-03 -5.07743843e-02 -3.94089483e-02 +4.91324924e-02 +5.60649969e-02 -4.65177931e-02 +6.30174428e-02 +1.23148374e-02 +1.13704950e-01 -2.05981592e-03 +3.84834744e-02 +6.96648806e-02 +7.38852695e-02 +5.94633482e-02 +1.78615063e-01 +2.99786907e-02 +5.57066165e-02 +3.94435674e-02 -4.59250025e-02 -1.06289059e-01 +3.16744931e-02 +8.48800093e-02 -5.01233637e-02 -1.31250829e-01 -2.53042951e-02 +6.94169989e-03 -2.00846624e-02 +9.15776640e-02 +4.80630063e-02 +2.70968258e-01 -2.04378858e-01 -7.71042332e-02 +1.38522997e-01 +5.64650400e-04 +1.00306012e-01 -1.16096651e-02 -1.79761395e-01 +1.66843176e-01 +4.62786332e-02 -1.22299902e-01 -8.27527195e-02 +3.06244463e-01 +5.16526960e-02 +5.62741794e-02 +3.07627946e-01 +2.13921070e-03 +2.58149803e-01 +2.07110614e-01 -3.07265699e-01 +1.10279135e-02 -5.46016060e-02 -1.74259953e-02 +3.89677435e-01 -9.94006321e-02 +4.95932475e-02 +6.23543002e-02 +4.84745912e-02 -4.03391533e-02 -1.11370027e-01 -1.22514963e-01 +8.79763886e-02 -1.30012557e-02 +8.58575478e-02 -1.60352081e-01 -3.17919627e-02 +3.92813921e-01 -2.97640637e-02 -2.45382503e-01 +3.85432355e-02 +2.48584509e-01 +1.34501159e-01 -2.43624046e-01 +1.47494510e-01 -3.37146260e-02 +4.24032509e-02 +1.09921694e-02 +1.83101609e-01 -7.76105151e-02 +2.22729325e-01 -2.31388174e-02 -2.80386861e-02 +4.72458340e-02 +4.98866029e-02 -9.62257162e-02 +5.56185432e-02 +7.76848756e-03 +2.46633038e-01 +8.02845210e-02 +7.85619542e-02 +1.05137480e-02 -2.17263162e-01 -2.63943691e-02 -9.35380161e-02 +2.18153726e-02 +9.50907841e-02 +5.13451770e-02 -7.81248584e-02 -8.51898342e-02 +5.55817932e-02 +1.04607075e-01 +5.40631823e-02 +7.57509246e-02 -1.34856582e-01 +4.22839187e-02 +6.39295131e-02 -2.04734176e-01 -5.18069118e-02 -6.48180395e-02 -1.50972977e-01 -9.10740346e-02 +6.02352954e-02 +2.94649303e-02 -3.35226357e-02 -8.08103010e-02 -7.06100613e-02 -2.71151382e-02 -8.88751447e-02 -3.84283401e-02 -5.17399982e-02 +2.77354587e-02 +4.29708101e-02 -8.74635857e-03 -7.66937668e-03 -7.14690685e-02 -7.60786235e-02 +5.47433831e-03 -8.11738223e-02 +3.81729193e-02 +1.27841663e-02 +8.00310075e-02 -1.71990208e-02 -1.09874353e-01 +6.79072440e-02 +1.96035564e-01 +3.20447162e-02 +7.94760883e-02 +1.36775851e-01 -1.95927545e-02 +7.17486674e-03 +7.15244114e-02 +4.33732606e-02 +3.47309858e-02 +9.76099074e-02 -4.74921986e-02 +7.67452875e-03 +5.37395775e-02 -7.72094950e-02 +9.00653377e-02 +1.18599191e-01 -7.36823976e-02 +2.68014688e-02 +8.33347440e-02 +6.74566478e-02 -2.60710306e-02 -2.37294324e-02 +2.57572941e-02 -1.39244422e-01 -4.32939501e-03 -2.00300336e-01 +5.17575666e-02 -3.80635932e-02 -7.09947273e-02 -1.43378541e-01 -2.54673921e-02 -2.96466108e-02 +2.80658960e-01 -5.10598160e-02 -8.23187605e-02 +5.74683771e-02 -1.14514418e-01 -6.47797734e-02 +8.78928751e-02 -2.56647523e-02 -5.03426120e-02 +2.56546959e-03 +1.06134892e-01 -4.07693893e-01 -3.98639776e-02 -1.08129540e-02 +2.79162657e-02 +5.53705133e-02 +8.88558254e-02 -9.53997001e-02 +1.26066040e-02 -1.04765348e-01 +4.44535352e-02 -7.22905667e-03 -4.18266535e-01 -1.21382698e-02 -8.51983763e-03 +2.01550089e-02 -8.88542533e-02 +6.79704621e-02 +3.85065019e-01 +4.67952192e-02 -1.79085419e-01 -8.34756047e-02 +5.33578806e-02 +3.75916481e-01 -5.50657287e-02 +1.57614812e-01 +1.25821605e-01 -1.49119690e-01 +4.63417266e-03 +4.23090532e-02 -5.05530983e-02 -1.89612418e-01 +1.77061558e-01 -1.20892167e-01 -7.74973035e-02 -1.99966040e-03 -1.26478031e-01 -1.91133648e-01 +1.15631215e-01 -4.52281423e-02 +1.94760740e-01 -1.99483316e-02 +5.00262603e-02 -3.82077582e-02 +1.00506373e-01 -1.64930046e-01 +1.19405966e-02 -1.04767971e-01 -1.51134700e-01 +4.35088091e-02 +1.43667553e-02 +3.57244313e-02 +9.66019183e-03 +3.52435857e-02 -1.20272115e-01 -9.02801603e-02 -2.33470984e-02 -1.77318662e-01 -9.14826244e-02 -8.41997340e-02 -9.80639905e-02 +3.80564146e-02 -9.06311423e-02 +3.89284408e-03 -1.66840360e-01 -5.57987913e-02 -3.75852687e-03 -3.68386619e-02 +1.85780860e-02 -1.13983415e-01 +6.48044571e-02 -2.08116397e-02 +1.17379418e-02 -1.16459936e-01 -9.18223709e-03 -1.01429008e-01 -4.41855229e-02 -1.66263074e-01 +9.32065677e-03 -5.34271821e-02 -4.57378142e-02 -7.22217783e-02 +5.03442995e-02 -5.39045548e-03 +2.23200902e-01 -7.09162056e-02 +1.05226524e-02 -1.71595607e-02 +1.11393973e-01 +2.16012541e-02 -7.16436952e-02 +6.56922311e-02 -3.14732417e-02 +5.71205765e-02 +1.20423675e-01 +8.60770941e-02 +1.76191360e-01 +6.25326559e-02 +8.64006206e-02 -2.53856238e-02 -2.04223557e-03 +1.02292867e-02 -8.40516165e-02 -1.26947230e-02 +8.69330764e-02 -3.15143093e-02 +1.89029723e-02 -1.77615825e-02 -4.55334820e-02 +1.97727069e-01 +1.32214114e-01 -6.10951185e-02 -1.26920462e-01 -1.64390623e-03 -1.55604959e-01 -5.15278131e-02 +2.13856585e-02 -1.38418883e-01 -9.26018804e-02 -1.43600449e-01 -6.77785948e-02 -1.16135977e-01 +4.31289822e-02 +5.23142051e-03 -3.80687751e-02 +2.01137066e-01 -1.06872469e-01 -7.81497806e-02 -8.48858207e-02 +2.15548202e-01 -1.35024279e-01 -6.23584762e-02 -1.66434005e-01 -3.22361328e-02 +1.80621803e-01 -7.75363296e-02 -9.21326689e-03 +1.96462795e-02 -2.54414320e-01 -6.36621788e-02 +1.56729296e-01 -9.81023759e-02 -6.36530593e-02 +6.73597753e-02 -3.06399584e-01 +7.59401098e-02 +6.57800585e-02 -5.45259900e-02 +9.58904102e-02 +3.54960351e-03 -4.91041914e-02 +1.60744175e-01 -7.26186708e-02 +2.15374708e-01 -5.40216044e-02 +1.27230033e-01 +1.32784015e-02 +1.13798469e-01 +4.05977331e-02 +2.02764779e-01 -6.01755679e-02 -9.41984728e-03 +1.36372700e-01 -7.55535252e-03 -9.93502811e-02 +7.53971562e-02 -6.95186034e-02 +2.15149134e-01 -1.04985356e-01 +1.35799363e-01 +1.16406670e-02 -2.03419812e-02 +1.16715334e-01 +3.87253910e-02 +5.79098500e-02 +7.56361559e-02 +1.57816559e-01 -2.66878624e-02 +2.93685384e-02 +1.26423419e-01 +1.16226494e-01 +6.47175089e-02 +1.79820612e-01 +4.83254567e-02 +1.02237314e-01 +8.75933468e-02 +4.42853803e-03 +1.87652171e-01 +1.67563148e-02 +1.38847619e-01 +1.47886962e-01 -3.25483009e-02 -4.84612957e-02 +5.19083105e-02 +1.24740303e-01 -1.87455323e-02 +8.86764526e-02 +1.20244741e-01 +5.85984215e-02 +1.30079806e-01 +1.28484592e-01 +1.30651727e-01 +1.54677868e-01 +2.41019409e-02 +8.48142281e-02 +2.86362246e-02 -6.47492334e-02 +3.43976282e-02 +6.01018704e-02 +1.19940201e-02 -5.67944497e-02 +4.27613184e-02 -1.91039905e-01 -1.31904269e-02 -1.27401045e-02 +2.73231864e-02 -6.40640557e-02 -1.38759590e-03 +8.83587673e-02 -5.22634722e-02 -4.84417900e-02 +4.83118221e-02 -8.21776390e-02 -9.56510529e-02 -3.67528223e-03 +1.16047300e-02 -1.06917709e-01 +1.03216544e-01 +3.00037377e-02 -5.69498911e-02 +3.24668922e-02 -5.90647571e-02 +7.81530812e-02 +6.94119260e-02 -9.25540645e-03 -5.76341450e-02 +6.33486435e-02 -1.01571888e-01 -2.62606256e-02 -1.22027412e-01 +1.69686481e-01 +1.99541878e-02 +5.23060448e-02 +1.05513975e-01 +8.39626417e-02 +2.58191247e-02 +5.32729402e-02 +1.89100951e-01 +1.61432490e-01 +1.56855941e-01 +1.26798721e-02 -7.51112541e-03 +9.90687609e-02 +3.50525603e-02 +1.66463941e-01 -6.86740130e-02 -4.79302295e-02 -1.38744235e-01 +1.78828046e-01 -3.23653147e-02 +5.01710586e-02 +1.84011757e-01 +3.34319584e-02 +8.03921372e-02 +1.26189571e-02 +1.74956143e-01 +1.70242950e-01 +1.72849968e-01 -8.09769407e-02 +6.84508681e-02 +1.36304766e-01 +2.26907153e-02 +6.97019920e-02 +3.27334777e-02 +1.33804947e-01 -7.18512759e-02 -1.28240079e-01 -4.96205501e-02 +1.96593598e-01 -1.20123200e-01 -9.87217668e-03 -1.56670257e-01 +2.15358853e-01 -1.83438525e-01 -5.06062582e-02 -1.67615682e-01 -8.68852437e-02 -2.61842906e-01 +1.95839137e-01 -8.18194449e-02 -1.22663923e-01 -4.95312586e-02 +1.77312214e-02 -2.69068390e-01 -1.12307705e-01 +4.04835045e-02 +8.37025195e-02 -2.23556743e-03 +1.23584591e-01 +4.58305441e-02 -1.40562728e-01 -2.32098605e-02 +8.91760923e-03 +1.06134608e-01 +3.28350589e-02 +1.38787627e-01 +2.91156452e-02 +8.02996829e-02 +9.18242633e-02 +4.19351421e-02 +2.45778561e-02 +2.11577743e-01 +2.03455724e-02 +6.57398701e-02 +1.48313701e-01 +8.49011540e-02 +5.82522824e-02 +9.15621445e-02 -1.92432310e-02 +1.65939167e-01 +1.42367348e-01 +1.12253241e-01 -5.70383444e-02 +4.77980226e-02 +1.71001509e-01 +8.16709399e-02 -3.57113145e-02 +1.92991540e-01 +2.19751000e-01 +2.83983033e-02 +4.70354855e-02 +4.11849394e-02 +3.65320593e-02 -5.83016574e-02 -5.08664139e-02 -7.42483512e-02 -9.20458063e-02 -5.49576432e-02 +2.24702787e-02 +4.50921617e-02 +5.64709269e-02 -3.97058353e-02 -6.20532315e-04 -1.22273728e-01 -1.78058762e-02 -7.74293318e-02 +1.46451309e-01 +7.36428574e-02 +7.75736198e-02 +5.24434559e-02 -4.25456651e-02 +2.93832105e-02 -3.72049920e-02 -1.68078020e-02 +1.61681116e-01 +1.63031340e-01 -1.17705189e-01 +1.51767075e-01 +8.66419002e-02 +1.11597024e-01 -1.46922067e-01 +9.93953496e-02 +5.02893701e-03 +7.13336095e-02 +2.39667464e-02 +1.54137462e-01 +3.10398728e-01 +1.45181209e-01 +3.55054112e-03 +4.88579810e-01 +2.05510169e-01 +2.47246008e-02 +1.15195684e-01 -1.59542963e-01 +1.58894271e-01 +1.96644515e-01 -1.52313814e-01 +1.39660954e-01 +4.26510453e-01 -7.92338140e-03 +2.31977075e-01 +3.21831197e-01 +5.50429076e-02 +4.78317231e-01 +3.27588707e-01 +4.74558473e-02 +8.38538748e-04 +5.69177866e-02 +5.00922538e-02 +5.00028789e-01 +3.05357948e-02 +1.04928598e-01 +1.60540506e-01 +7.88038075e-02 -3.63158882e-02 -1.78591292e-02 +2.71133661e-01 +1.41606510e-01 +4.30872999e-02 -8.88144746e-02 -1.78175673e-01 -2.10593790e-01 +9.03649479e-02 